{
  "block_0": {
    "att.W_query.weight": [
      [
        -0.41689369082450867,
        0.22983792424201965,
        0.7951638698577881,
        -0.5482693314552307,
        0.10329244285821915,
        -0.24722766876220703,
        -0.47960755228996277,
        -0.46259355545043945,
        0.3765559494495392,
        -0.13935275375843048,
        0.4244517683982849,
        0.4794809818267822
      ],
      [
        -0.1461237072944641,
        -0.5634366273880005,
        -0.13372677564620972,
        0.14587819576263428,
        0.6436135768890381,
        0.3151438236236572,
        -0.6995432376861572,
        0.17994281649589539,
        -0.21960902214050293,
        -0.16016726195812225,
        0.3399401903152466,
        -0.01332632452249527
      ],
      [
        -0.3225700259208679,
        0.3720383048057556,
        -0.41654372215270996,
        0.6159241795539856,
        -0.023899637162685394,
        -0.3194393813610077,
        0.28935137391090393,
        -0.40891721844673157,
        -0.2872636318206787,
        0.10433130711317062,
        -0.11829062551259995,
        -0.34151211380958557
      ],
      [
        0.6008732914924622,
        0.28228428959846497,
        -0.08688365668058395,
        -0.25861120223999023,
        -0.1542396992444992,
        0.41681969165802,
        -0.3462275266647339,
        0.05744200944900513,
        0.10318245738744736,
        -0.5847669839859009,
        -0.300605446100235,
        0.008230888284742832
      ],
      [
        -0.0508139543235302,
        0.45458608865737915,
        -0.045385316014289856,
        -0.04008612036705017,
        -0.7485855221748352,
        0.5042587518692017,
        0.3604413568973541,
        0.4005262553691864,
        0.7678738236427307,
        0.004647450055927038,
        -0.4958324134349823,
        -0.6925883889198303
      ],
      [
        -0.07155217230319977,
        0.14574603736400604,
        0.16064277291297913,
        -0.5630127191543579,
        -0.044190339744091034,
        -0.34396809339523315,
        0.6479580402374268,
        0.4511365294456482,
        -0.16657951474189758,
        0.17800673842430115,
        -0.4059111177921295,
        -0.17650970816612244
      ],
      [
        0.04909354820847511,
        0.48609742522239685,
        -0.42934370040893555,
        0.4021250903606415,
        -0.12825967371463776,
        -0.3051495850086212,
        0.025975188240408897,
        -0.4540245831012726,
        0.6152961254119873,
        -0.24024921655654907,
        -0.17336557805538177,
        0.35444504022598267
      ],
      [
        0.1107650175690651,
        -0.2996315360069275,
        0.19108280539512634,
        0.5166405439376831,
        0.3504677414894104,
        0.579817533493042,
        -0.16545991599559784,
        0.24930530786514282,
        -0.38190123438835144,
        0.14918872714042664,
        -0.7592527270317078,
        -0.369310587644577
      ],
      [
        -0.3966679275035858,
        -0.43230733275413513,
        -0.9024510979652405,
        0.5961045622825623,
        -0.03115534409880638,
        0.3770783841609955,
        -0.28784123063087463,
        0.002677515149116516,
        -0.02639959566295147,
        -0.3009287714958191,
        0.9988783001899719,
        0.21222594380378723
      ],
      [
        -0.30930209159851074,
        1.1402347087860107,
        -0.09217574447393417,
        0.07379676401615143,
        0.04898076504468918,
        0.13304196298122406,
        -0.23009337484836578,
        -0.5085144639015198,
        0.23873019218444824,
        0.4563804566860199,
        -0.5865912437438965,
        -0.0748964250087738
      ],
      [
        0.3532872498035431,
        -0.2542768120765686,
        -0.5566837787628174,
        -0.07259629666805267,
        0.09653028100728989,
        0.07157641649246216,
        -0.250460147857666,
        -0.1507611721754074,
        0.27752232551574707,
        1.0360487699508667,
        -0.07655660063028336,
        -0.33032020926475525
      ],
      [
        0.24783895909786224,
        -0.33496078848838806,
        0.37032365798950195,
        0.3933538794517517,
        0.7582979798316956,
        0.26865077018737793,
        -0.39462247490882874,
        -0.13748261332511902,
        -0.46279579401016235,
        -0.005890931934118271,
        0.15742763876914978,
        -0.30546480417251587
      ]
    ],
    "att.W_query.bias": null,
    "att.W_key.weight": [
      [
        0.7053562998771667,
        -0.025596164166927338,
        0.19488508999347687,
        -0.2608705759048462,
        -0.6068203449249268,
        -0.42237502336502075,
        0.8662892580032349,
        0.44311827421188354,
        -0.04034813120961189,
        -0.11297748982906342,
        -0.03829855099320412,
        0.3210037350654602
      ],
      [
        -0.1447707712650299,
        0.23344363272190094,
        -0.2565152943134308,
        0.05055428296327591,
        0.19028247892856598,
        0.16770394146442413,
        1.0829551219940186,
        -0.8202193379402161,
        0.11558671295642853,
        0.0021360358223319054,
        -0.21416223049163818,
        -0.17148183286190033
      ],
      [
        -0.22599613666534424,
        0.01610427536070347,
        -0.42863988876342773,
        -0.03721071779727936,
        0.1885145753622055,
        0.2117988020181656,
        -0.6746597290039062,
        0.3575994372367859,
        0.09798230230808258,
        0.6913411021232605,
        -0.5499441623687744,
        0.404916912317276
      ],
      [
        0.5290273427963257,
        0.09003221243619919,
        -0.4492506682872772,
        -0.4456462264060974,
        0.39268046617507935,
        -0.17580193281173706,
        0.15248996019363403,
        0.24409668147563934,
        -0.3268085718154907,
        0.20822559297084808,
        -0.02114994078874588,
        -0.4775254726409912
      ],
      [
        0.9471309781074524,
        -0.46634942293167114,
        -0.14220836758613586,
        -0.8381189703941345,
        -0.07616380602121353,
        0.13174182176589966,
        0.1153070330619812,
        -0.014600337482988834,
        -0.28190168738365173,
        0.09458187222480774,
        0.4103405177593231,
        0.7264140844345093
      ],
      [
        -0.045405540615320206,
        -0.009992855601012707,
        0.0222129225730896,
        -0.09235941618680954,
        -0.11286094039678574,
        0.6497437953948975,
        -0.5450546145439148,
        -0.05729630962014198,
        -0.4922928512096405,
        0.10312119126319885,
        0.18008269369602203,
        0.7319742441177368
      ],
      [
        -0.40166670083999634,
        -0.43250617384910583,
        0.18300196528434753,
        0.3624999225139618,
        0.16750568151474,
        -0.279140442609787,
        0.20184844732284546,
        0.12680748105049133,
        -0.05656072497367859,
        -0.7316159009933472,
        0.5873444080352783,
        0.17690864205360413
      ],
      [
        0.8635715246200562,
        0.3231082260608673,
        -0.6361823081970215,
        0.20430245995521545,
        -0.34693777561187744,
        -0.6121578812599182,
        -0.0944618210196495,
        0.005997760687023401,
        0.1747933179140091,
        0.6247724890708923,
        0.07200697809457779,
        -0.10178904235363007
      ],
      [
        -0.3977046310901642,
        -0.6262120008468628,
        0.3872848153114319,
        0.44404929876327515,
        -0.27755576372146606,
        -0.25456199049949646,
        0.15537115931510925,
        0.06300684809684753,
        0.4945712983608246,
        0.5322131514549255,
        -0.7018857598304749,
        0.29671555757522583
      ],
      [
        0.47916457056999207,
        0.09351198375225067,
        -0.2162630707025528,
        0.3742492198944092,
        -0.28549787402153015,
        -0.9393207430839539,
        0.6893158555030823,
        0.20183898508548737,
        0.20603901147842407,
        -0.3326898217201233,
        -0.22590309381484985,
        0.11457262188196182
      ],
      [
        0.34039807319641113,
        0.22871331870555878,
        -0.08649250119924545,
        -0.5496652126312256,
        0.5627685785293579,
        -0.3569958806037903,
        -0.09925137460231781,
        0.5417110323905945,
        0.1981523633003235,
        -0.5703667402267456,
        0.12486977875232697,
        0.16341175138950348
      ],
      [
        -0.37360623478889465,
        0.10674658417701721,
        0.14104071259498596,
        0.10324384272098541,
        0.4806823432445526,
        -0.5172314643859863,
        -0.8296138048171997,
        0.441582053899765,
        -0.0036831903271377087,
        0.23174667358398438,
        0.4170093238353729,
        0.17620714008808136
      ]
    ],
    "att.W_key.bias": null,
    "att.W_value.weight": [
      [
        0.18196320533752441,
        0.31252050399780273,
        -0.12873631715774536,
        0.529580295085907,
        -0.6180278062820435,
        0.4300268590450287,
        -0.2406386286020279,
        -0.014371562749147415,
        0.29242759943008423,
        -0.3994702994823456,
        0.05828355997800827,
        0.06419630348682404
      ],
      [
        0.09003618359565735,
        -0.44207078218460083,
        -0.1435251384973526,
        0.5883834958076477,
        -0.15010519325733185,
        0.03549616038799286,
        0.14281144738197327,
        0.5810959339141846,
        -0.17588025331497192,
        0.22961640357971191,
        -0.04962291568517685,
        -0.14166989922523499
      ],
      [
        0.15303264558315277,
        0.5250450372695923,
        -0.19017551839351654,
        -0.13112139701843262,
        0.42509135603904724,
        -0.03766743466258049,
        0.04166964814066887,
        0.33859702944755554,
        -0.8047272562980652,
        -0.31269872188568115,
        0.015320808626711369,
        0.06465096026659012
      ],
      [
        0.5821212530136108,
        -0.34127408266067505,
        -0.44986286759376526,
        0.3298187851905823,
        0.12405247986316681,
        -0.07766164839267731,
        0.2784245014190674,
        0.032442815601825714,
        0.20067685842514038,
        -0.33278512954711914,
        -0.4513026177883148,
        0.09884987771511078
      ],
      [
        -0.11201178282499313,
        -0.22469982504844666,
        -0.30328869819641113,
        0.36692455410957336,
        -0.5277951955795288,
        0.054986514151096344,
        0.24150656163692474,
        0.4038548171520233,
        -0.16209830343723297,
        0.10138140618801117,
        -0.06617798656225204,
        0.393937349319458
      ],
      [
        0.12554554641246796,
        0.09412003308534622,
        0.30689260363578796,
        -0.11372871696949005,
        -0.5416869521141052,
        -0.22427238523960114,
        0.10602103918790817,
        0.2692435383796692,
        0.4524915814399719,
        -0.6588889360427856,
        0.24723289906978607,
        -0.033929139375686646
      ],
      [
        0.31824663281440735,
        -0.2697693407535553,
        0.23898746073246002,
        -0.019767334684729576,
        -0.17817579209804535,
        -0.013387204147875309,
        -0.33239540457725525,
        -0.6959707140922546,
        0.4174234867095947,
        -0.15621905028820038,
        0.27372708916664124,
        0.2615390121936798
      ],
      [
        -0.23128485679626465,
        0.81141597032547,
        -0.22775772213935852,
        0.0653320699930191,
        -0.15398047864437103,
        -0.10633718967437744,
        0.06097894161939621,
        -0.20938092470169067,
        0.13454996049404144,
        -0.30928361415863037,
        0.013030706904828548,
        -0.2778155505657196
      ],
      [
        -0.4087991714477539,
        0.21329249441623688,
        -0.28397953510284424,
        0.21243491768836975,
        -0.45080819725990295,
        0.44915971159935,
        -0.2829509675502777,
        0.3484399914741516,
        -0.1881212443113327,
        -0.04864374175667763,
        0.4691324234008789,
        0.30428504943847656
      ],
      [
        0.018622256815433502,
        0.022096781060099602,
        0.06503979116678238,
        -0.5023614764213562,
        0.058939963579177856,
        0.31208884716033936,
        0.26938238739967346,
        -0.514554500579834,
        -0.6471277475357056,
        0.144095778465271,
        0.19562660157680511,
        0.4663434624671936
      ],
      [
        -0.41449669003486633,
        -0.07433808594942093,
        0.5516685247421265,
        -0.3127076327800751,
        0.04721388593316078,
        -0.020000163465738297,
        0.07351221144199371,
        0.2277349829673767,
        -0.16093400120735168,
        0.2935754954814911,
        0.1795874387025833,
        -0.9541390538215637
      ],
      [
        -0.4402480125427246,
        0.5215293765068054,
        0.5457625985145569,
        0.07971394062042236,
        0.16167084872722626,
        -0.03807634860277176,
        -0.06468513607978821,
        -0.02810233272612095,
        -0.3030121922492981,
        -0.6910688281059265,
        -0.09425698965787888,
        0.12937955558300018
      ]
    ],
    "att.W_value.bias": null,
    "att.out_proj.weight": [
      [
        -0.1998179852962494,
        -0.26721107959747314,
        0.03330371528863907,
        -0.07560205459594727,
        0.2505910098552704,
        0.07746931910514832,
        -0.12105463445186615,
        0.1458333283662796,
        -0.00652875192463398,
        0.05959272012114525,
        -0.6432008743286133,
        -0.3635231852531433
      ],
      [
        0.4408780038356781,
        0.0358474962413311,
        -0.2490961253643036,
        -0.23213796317577362,
        0.3995211720466614,
        0.2290405035018921,
        0.4442259669303894,
        -0.03912665322422981,
        0.01793149672448635,
        0.08083435148000717,
        -0.12298963963985443,
        -0.436836302280426
      ],
      [
        -0.22833554446697235,
        -0.24993450939655304,
        0.014855919405817986,
        -0.23683007061481476,
        -0.136517733335495,
        -0.42404577136039734,
        -0.06400180608034134,
        -0.08208654075860977,
        -0.039863504469394684,
        0.17453154921531677,
        0.14287300407886505,
        0.3591870367527008
      ],
      [
        -0.13263115286827087,
        -0.038036610931158066,
        0.5940110683441162,
        -0.02502567693591118,
        -0.18841864168643951,
        0.009795859456062317,
        -0.09959334880113602,
        -0.16120514273643494,
        -0.6105483770370483,
        -0.672485888004303,
        -0.40061473846435547,
        0.18767589330673218
      ],
      [
        0.12411700934171677,
        -0.39760568737983704,
        0.1045527458190918,
        0.44994255900382996,
        -0.005268382374197245,
        0.25159013271331787,
        0.15664683282375336,
        0.4537227749824524,
        0.39401841163635254,
        0.2617654800415039,
        0.11143466085195541,
        0.22963166236877441
      ],
      [
        0.22124947607517242,
        -0.048500604927539825,
        -0.5036708116531372,
        0.3746955692768097,
        -0.28370770812034607,
        -0.224158376455307,
        0.09998244792222977,
        0.16060805320739746,
        0.2996267080307007,
        -0.42944225668907166,
        0.13080032169818878,
        -0.017868325114250183
      ],
      [
        -0.08532296121120453,
        0.33743828535079956,
        0.06637027859687805,
        0.31211304664611816,
        0.6199953556060791,
        -0.12307358533143997,
        -0.3766349256038666,
        0.3793180286884308,
        -0.18488921225070953,
        -0.4490160346031189,
        0.6758076548576355,
        -0.4401898682117462
      ],
      [
        -0.19372352957725525,
        0.14717687666416168,
        -0.444542795419693,
        0.04338344931602478,
        -0.09392247349023819,
        0.74538254737854,
        -0.18311379849910736,
        -0.36886829137802124,
        -0.09280087053775787,
        -0.02396593987941742,
        0.1993890106678009,
        0.021800043061375618
      ],
      [
        0.26497218012809753,
        -0.2536247968673706,
        0.3588436245918274,
        -0.833700954914093,
        -0.3659973442554474,
        -0.014257372356951237,
        -0.11869260668754578,
        0.317067950963974,
        -0.3220902681350708,
        0.3324727714061737,
        0.0429135300219059,
        -0.2981436848640442
      ],
      [
        -0.9074877500534058,
        0.2471792846918106,
        0.0795300155878067,
        0.0372481644153595,
        -0.20657214522361755,
        -0.19570721685886383,
        0.3706265985965729,
        -0.5137282609939575,
        0.24289993941783905,
        0.03811835125088692,
        0.26208797097206116,
        -0.2601177394390106
      ],
      [
        0.4283275604248047,
        0.37489548325538635,
        -0.3953281342983246,
        -0.018023166805505753,
        0.1461574137210846,
        -0.06619755178689957,
        0.4039144814014435,
        -0.1437298059463501,
        -0.3585529029369354,
        0.3408760726451874,
        0.012952903285622597,
        -0.06339675188064575
      ],
      [
        0.21377961337566376,
        0.5577998757362366,
        0.36037304997444153,
        0.04368186742067337,
        0.11830851435661316,
        -0.3224872648715973,
        -0.5820291638374329,
        -0.13905365765094757,
        0.45498958230018616,
        0.05942940339446068,
        -0.45842811465263367,
        0.4813632369041443
      ]
    ],
    "att.out_proj.bias": [
      -0.02110065147280693,
      0.05932656303048134,
      0.07546491920948029,
      -0.152227982878685,
      -0.06127966567873955,
      0.0748259574174881,
      0.04754454642534256,
      0.06329729408025742,
      -0.08717108517885208,
      0.12564705312252045,
      0.17460563778877258,
      -0.014327495358884335
    ],
    "norm1.scale": [
      0.9480723142623901,
      0.8493680357933044,
      0.6470446586608887,
      0.9825208187103271,
      0.7758098840713501,
      0.665571928024292,
      0.9909558296203613,
      0.8163721561431885,
      0.6625975370407104,
      0.9757422208786011,
      0.8802067041397095,
      0.7566851377487183
    ],
    "norm1.shift": [
      -0.02511555701494217,
      0.12946388125419617,
      0.058446697890758514,
      -0.025625450536608696,
      0.1021118015050888,
      -0.019268838688731194,
      0.08554743975400925,
      -0.19802457094192505,
      -0.0935363844037056,
      -0.07511266320943832,
      -0.08808927237987518,
      0.04578568786382675
    ],
    "norm2.scale": [
      0.8531036972999573,
      0.8369159698486328,
      0.7168634533882141,
      0.6639371514320374,
      0.7713947296142578,
      0.9016780853271484,
      0.643484890460968,
      0.9337465167045593,
      0.7237474918365479,
      0.8011466264724731,
      0.8564507961273193,
      0.7946637868881226
    ],
    "norm2.shift": [
      -0.2690233588218689,
      0.3882744610309601,
      0.10296961665153503,
      -0.03931223601102829,
      -0.00867527723312378,
      -0.017332131043076515,
      -0.22902527451515198,
      -0.3155570924282074,
      0.47217857837677,
      0.05137040093541145,
      -0.4529254734516144,
      -0.03556172922253609
    ],
    "ff.lin1.weight": [
      [
        0.5413883924484253,
        -0.13748565316200256,
        0.23491786420345306,
        -0.44884052872657776,
        0.15365619957447052,
        0.0522293895483017,
        0.7592218518257141,
        -0.45245790481567383,
        -0.4696282148361206,
        -0.21489186584949493,
        0.5914936661720276,
        -0.1481269747018814
      ],
      [
        0.26466184854507446,
        0.24878375232219696,
        0.44824713468551636,
        0.011354774236679077,
        -0.17762552201747894,
        -0.3376876711845398,
        0.6047276258468628,
        -0.09759517014026642,
        -0.0092548206448555,
        0.2385159581899643,
        -0.613574743270874,
        -0.06631793826818466
      ],
      [
        0.3937681317329407,
        -0.3105258345603943,
        0.05179663375020027,
        0.6046429872512817,
        0.21632546186447144,
        -0.056829143315553665,
        0.2328796237707138,
        -0.8489421010017395,
        0.008489835076034069,
        0.4357786774635315,
        0.27227726578712463,
        -0.12979643046855927
      ],
      [
        0.07297219336032867,
        0.4445820748806,
        -0.04309722036123276,
        -0.18136478960514069,
        -0.6880683898925781,
        -0.12624861299991608,
        0.10911058634519577,
        0.0014579467242583632,
        -0.13822366297245026,
        0.13439960777759552,
        0.5581411719322205,
        -0.08876766264438629
      ],
      [
        -0.036164790391922,
        -0.17106658220291138,
        -0.09538494795560837,
        -0.18759745359420776,
        -0.1643981784582138,
        0.188920259475708,
        0.17026527225971222,
        -0.19304871559143066,
        0.45721635222435,
        -0.08428534120321274,
        -0.23539862036705017,
        0.32081887125968933
      ],
      [
        0.40556496381759644,
        0.3215775787830353,
        -0.6547397971153259,
        0.49869951605796814,
        0.13165174424648285,
        -0.08611968904733658,
        0.26162752509117126,
        0.025496238842606544,
        -0.40815770626068115,
        -0.12036420404911041,
        -0.13170930743217468,
        0.42351654171943665
      ],
      [
        -0.24199020862579346,
        -0.12510037422180176,
        0.29555633664131165,
        0.5680031180381775,
        -0.4356701076030731,
        -0.02402971126139164,
        -0.09089150279760361,
        0.12146330624818802,
        0.19355662167072296,
        -0.33532577753067017,
        0.09884113818407059,
        0.2148149460554123
      ],
      [
        -0.5005888342857361,
        -0.4073648750782013,
        -0.49435991048812866,
        -0.030034245923161507,
        -0.48335832357406616,
        -0.2707899212837219,
        0.39995628595352173,
        0.3264051675796509,
        0.2863137722015381,
        -0.02811608649790287,
        0.6567851901054382,
        0.07269757241010666
      ],
      [
        0.08559267222881317,
        -0.2503047287464142,
        0.5747702717781067,
        0.27385562658309937,
        -0.15184353291988373,
        0.25120848417282104,
        0.12397613376379013,
        -0.48139095306396484,
        -0.08441640436649323,
        -0.7417023181915283,
        0.15550261735916138,
        -0.10598721355199814
      ],
      [
        0.7114019989967346,
        0.075231172144413,
        -0.2842639684677124,
        0.4328871965408325,
        -0.3821321129798889,
        -0.13457413017749786,
        0.1298406422138214,
        -0.2763638198375702,
        -0.2785813808441162,
        0.24982385337352753,
        -0.20232775807380676,
        -0.23554615676403046
      ],
      [
        0.4049939513206482,
        -0.3514377474784851,
        -0.8253387808799744,
        0.0509074404835701,
        0.1744835078716278,
        -0.2183981090784073,
        0.392466276884079,
        0.08022557944059372,
        0.11247079819440842,
        -0.13241517543792725,
        0.25361886620521545,
        -0.0704343169927597
      ],
      [
        0.06216268613934517,
        -0.17367884516716003,
        0.45573022961616516,
        0.037094734609127045,
        -0.11928926408290863,
        -0.621755838394165,
        0.16885775327682495,
        0.3288714289665222,
        -0.11578180640935898,
        -0.5132861137390137,
        0.08574910461902618,
        0.16419139504432678
      ],
      [
        0.5182110667228699,
        -0.11093282699584961,
        -0.09057477116584778,
        -0.4690162241458893,
        -0.8085522055625916,
        0.41459739208221436,
        0.14832620322704315,
        0.05689559876918793,
        -0.06354574114084244,
        0.09764071553945541,
        -0.14562441408634186,
        0.7077827453613281
      ],
      [
        0.14549627900123596,
        -0.7642216682434082,
        -0.2699424922466278,
        0.06422720849514008,
        0.27291539311408997,
        0.7600420713424683,
        0.016311217099428177,
        -0.11252289265394211,
        -0.7769110798835754,
        0.38942039012908936,
        0.5637186765670776,
        0.1358395516872406
      ],
      [
        0.5889520049095154,
        -0.15708285570144653,
        0.23888462781906128,
        0.10980208963155746,
        0.2778156101703644,
        -0.06702853739261627,
        0.05319451540708542,
        -0.1517123579978943,
        -0.5373736023902893,
        -0.32747402787208557,
        -0.06643049418926239,
        0.5739449858665466
      ],
      [
        -0.04797181487083435,
        0.17308932542800903,
        0.24535074830055237,
        -0.3352189064025879,
        -0.32473835349082947,
        -0.007236488629132509,
        0.8086193799972534,
        -0.1867264360189438,
        -0.573451578617096,
        0.11976567655801773,
        0.13954533636569977,
        0.3130260705947876
      ],
      [
        0.29022666811943054,
        -0.9040724039077759,
        0.10350582748651505,
        0.6075850129127502,
        -0.11425790190696716,
        -0.23042522370815277,
        -0.29481205344200134,
        0.005288096610456705,
        0.21084433794021606,
        0.21636509895324707,
        0.08826033025979996,
        0.08554857224225998
      ],
      [
        0.3247571885585785,
        -0.6027058959007263,
        0.12477041780948639,
        -0.12617340683937073,
        0.10382498800754547,
        -0.27023783326148987,
        -0.19630418717861176,
        -0.2149890810251236,
        0.2268897145986557,
        0.5882173180580139,
        0.5767956972122192,
        -0.09977385401725769
      ],
      [
        0.46752500534057617,
        -0.1623440682888031,
        -0.15262487530708313,
        -0.09376978129148483,
        -0.308951735496521,
        -0.11960780620574951,
        -0.16308686137199402,
        0.07783422619104385,
        0.17790193855762482,
        -0.8543333411216736,
        0.17574013769626617,
        0.3811855614185333
      ],
      [
        0.020570144057273865,
        0.37941405177116394,
        -0.7770147323608398,
        -0.1770494431257248,
        0.27822282910346985,
        0.06333576887845993,
        0.2905653119087219,
        -0.6447024941444397,
        0.23843039572238922,
        0.0014545128215104342,
        0.14686785638332367,
        0.22229835391044617
      ],
      [
        0.31159162521362305,
        -0.5783318877220154,
        0.14895370602607727,
        -0.12840566039085388,
        -0.3267616033554077,
        0.19898493587970734,
        0.2260858416557312,
        0.4924358129501343,
        -0.17259380221366882,
        -0.36029791831970215,
        0.41829729080200195,
        -0.10151944309473038
      ],
      [
        0.4152175486087799,
        -0.4674952030181885,
        -0.1569342315196991,
        -0.56843101978302,
        -0.2095988541841507,
        -0.006044536363333464,
        0.021588124334812164,
        0.5851863026618958,
        0.5604586601257324,
        0.34018173813819885,
        -0.08466474711894989,
        0.0986909419298172
      ],
      [
        0.4696625769138336,
        -0.13093680143356323,
        0.1292492300271988,
        -0.2112095057964325,
        0.25605669617652893,
        -0.3668380677700043,
        0.4175668954849243,
        -0.00045049627078697085,
        -0.8234456777572632,
        0.08934660255908966,
        0.929194986820221,
        -0.48266297578811646
      ],
      [
        -0.1420629769563675,
        0.5220065712928772,
        0.031685635447502136,
        -0.6520380973815918,
        -0.103123739361763,
        0.08342638611793518,
        -0.045492105185985565,
        -0.03389092907309532,
        -0.6147894263267517,
        0.3732229173183441,
        0.07819579541683197,
        0.23803427815437317
      ],
      [
        -0.29360851645469666,
        -0.09816402196884155,
        0.13578380644321442,
        0.10026230663061142,
        0.1892785131931305,
        -0.2467409372329712,
        0.08204790204763412,
        -0.07892845571041107,
        -0.2573181390762329,
        -0.30168870091438293,
        0.06439618766307831,
        1.135433554649353
      ],
      [
        0.8594300746917725,
        0.14751455187797546,
        0.13606606423854828,
        -0.16596347093582153,
        0.0009650930296629667,
        -0.39657455682754517,
        0.558759868144989,
        -0.636741042137146,
        -0.06419262290000916,
        -0.3021944761276245,
        0.05482171103358269,
        -0.07022151350975037
      ],
      [
        0.16579963266849518,
        -0.005137191619724035,
        -0.44491255283355713,
        0.8585098385810852,
        -0.03636164963245392,
        0.27427780628204346,
        0.3730943202972412,
        -0.24024958908557892,
        -0.30817341804504395,
        -0.5046465396881104,
        0.5251692533493042,
        -0.6318435668945312
      ],
      [
        0.24449802935123444,
        0.28503623604774475,
        0.27291473746299744,
        0.19886568188667297,
        -0.39158955216407776,
        -0.0403691865503788,
        0.05193011462688446,
        0.5817798376083374,
        -0.17080241441726685,
        0.13290241360664368,
        0.06518502533435822,
        -0.341630756855011
      ],
      [
        0.2584337294101715,
        -0.5337073802947998,
        -0.621103048324585,
        0.5427318811416626,
        0.3029504716396332,
        0.17302899062633514,
        -0.0748760774731636,
        -0.1237315982580185,
        0.5671131610870361,
        -0.004432092420756817,
        -0.18190796673297882,
        -0.23867104947566986
      ],
      [
        0.43593892455101013,
        -0.8007282018661499,
        0.29752305150032043,
        -0.29811540246009827,
        0.020498530939221382,
        0.48349738121032715,
        -0.08414246886968613,
        0.38059452176094055,
        0.519250750541687,
        0.11832650005817413,
        -0.0043123634532094,
        -0.3895936608314514
      ],
      [
        0.33465439081192017,
        0.21417419612407684,
        -0.1367534101009369,
        0.0853864774107933,
        -0.2271445095539093,
        -0.1723424792289734,
        -0.32655709981918335,
        0.6037377715110779,
        -0.6117494702339172,
        -0.4085559844970703,
        0.3987087905406952,
        -0.176939457654953
      ],
      [
        0.32425883412361145,
        0.009090181440114975,
        -0.7157813906669617,
        0.3833249807357788,
        0.5019664168357849,
        -0.42624086141586304,
        -0.44171494245529175,
        -0.3674652576446533,
        -0.1954820305109024,
        -0.017652180045843124,
        0.7853729724884033,
        -0.14213357865810394
      ],
      [
        -0.12761427462100983,
        0.34624212980270386,
        -0.3426641821861267,
        -0.13475866615772247,
        0.5053709745407104,
        -0.4703758955001831,
        0.18131013214588165,
        0.12008468061685562,
        0.30147916078567505,
        -0.5347461104393005,
        -0.13138103485107422,
        0.38475239276885986
      ],
      [
        0.4210124611854553,
        0.3021029531955719,
        -0.29691237211227417,
        0.019070954993367195,
        -0.011087855324149132,
        -0.13927720487117767,
        -0.18095391988754272,
        0.6504892706871033,
        -0.24252615869045258,
        -0.5441747903823853,
        0.008290952071547508,
        -0.4848369061946869
      ],
      [
        -0.3325140178203583,
        0.2968733608722687,
        -0.11761840432882309,
        0.3874496817588806,
        0.4826255440711975,
        -0.5154476761817932,
        -0.18901558220386505,
        -0.1824854016304016,
        -0.013899738900363445,
        -0.13262207806110382,
        0.6413212418556213,
        -0.3448624014854431
      ],
      [
        0.38377508521080017,
        -0.013464788906276226,
        -0.7257258892059326,
        -0.49297693371772766,
        0.25928160548210144,
        0.24677400290966034,
        -0.29945337772369385,
        -0.04834733530879021,
        0.3476327359676361,
        0.23505093157291412,
        -0.0956854298710823,
        0.06347274780273438
      ],
      [
        0.11191274225711823,
        -0.18017789721488953,
        0.049367986619472504,
        -0.06389148533344269,
        -0.6115245819091797,
        0.8370615243911743,
        0.10592502355575562,
        -0.06212840601801872,
        -0.4430226981639862,
        -0.23433077335357666,
        -0.12899769842624664,
        0.37549638748168945
      ],
      [
        0.4255855679512024,
        0.1651955246925354,
        -0.2807897925376892,
        -0.2817666232585907,
        0.20502695441246033,
        -0.553413987159729,
        0.611014723777771,
        0.32378143072128296,
        -0.23326511681079865,
        0.021297728642821312,
        -0.25580549240112305,
        0.31161752343177795
      ],
      [
        -0.3708266615867615,
        -0.1732129156589508,
        0.13936884701251984,
        -0.21953928470611572,
        0.45896363258361816,
        -0.4488053023815155,
        0.017782485112547874,
        0.2680392861366272,
        -0.08576355874538422,
        0.035641398280858994,
        0.2531640827655792,
        -0.02983333170413971
      ],
      [
        0.5584985017776489,
        -0.5450935363769531,
        -0.16102173924446106,
        0.4821957051753998,
        -0.906170666217804,
        -0.054881222546100616,
        -0.11885862797498703,
        0.5607351660728455,
        -0.17456533014774323,
        -0.1299591362476349,
        0.764836847782135,
        -0.22605879604816437
      ],
      [
        -0.48029783368110657,
        -0.14291688799858093,
        -0.27008485794067383,
        0.10921351611614227,
        0.2841593623161316,
        0.2934699058532715,
        0.09552249312400818,
        0.23902080953121185,
        0.04229196161031723,
        -0.42573902010917664,
        0.1257798820734024,
        0.39886489510536194
      ],
      [
        -0.3620203733444214,
        -0.2139875739812851,
        0.5778311491012573,
        0.17766542732715607,
        -0.13599815964698792,
        -0.09730207175016403,
        0.3161581754684448,
        0.17471115291118622,
        -0.5055201053619385,
        0.09637757390737534,
        0.357003390789032,
        0.1182263121008873
      ],
      [
        -0.0422217883169651,
        -0.1715831458568573,
        -0.111126609146595,
        0.09995941072702408,
        0.3109067380428314,
        0.6172003149986267,
        0.5873669981956482,
        0.1475551426410675,
        0.1149606704711914,
        -0.896165668964386,
        -0.17022153735160828,
        -0.030161717906594276
      ],
      [
        0.18030154705047607,
        -0.20289945602416992,
        -0.359247088432312,
        -0.10766497999429703,
        -0.20000691711902618,
        0.5924036502838135,
        0.541052520275116,
        -0.5427919626235962,
        0.023542514070868492,
        0.5459432601928711,
        -0.29714515805244446,
        -0.273004949092865
      ],
      [
        0.7432941198348999,
        -0.1895303577184677,
        -0.24005292356014252,
        -0.7513880133628845,
        -0.10493715107440948,
        -0.2849808931350708,
        -0.3892190158367157,
        0.34200599789619446,
        -0.11150054633617401,
        0.1357925832271576,
        0.5725057721138,
        0.40782350301742554
      ],
      [
        -0.3682253956794739,
        -0.6335163712501526,
        0.08347178250551224,
        0.05470309033989906,
        0.2857692539691925,
        0.04768671840429306,
        -0.1863057017326355,
        0.45628008246421814,
        -0.31746920943260193,
        0.2540654242038727,
        0.3469539284706116,
        -0.12064756453037262
      ],
      [
        -0.1778700202703476,
        -0.27194881439208984,
        0.6111288666725159,
        -0.23585550487041473,
        -0.33704811334609985,
        -0.38494637608528137,
        0.01764724776148796,
        -0.5048065781593323,
        0.008855453692376614,
        0.4578777849674225,
        0.4679959714412689,
        0.19646109640598297
      ],
      [
        0.45501232147216797,
        -0.7475816607475281,
        0.10681696236133575,
        0.04197663813829422,
        -0.5534478425979614,
        0.048411983996629715,
        -0.7125487327575684,
        0.25309544801712036,
        0.10232793539762497,
        0.11010396480560303,
        0.3052627742290497,
        0.5620971918106079
      ]
    ],
    "ff.lin1.bias": [
      -0.4485921859741211,
      -0.7819052338600159,
      -0.560095489025116,
      -0.5866101980209351,
      -0.6012140512466431,
      -0.5748000741004944,
      -0.44609594345092773,
      -0.23420953750610352,
      -0.8307657837867737,
      -0.19170503318309784,
      -0.15430651605129242,
      -0.4144819974899292,
      -0.7968447804450989,
      -0.2703322470188141,
      -0.31225648522377014,
      -0.4342406094074249,
      -0.70670086145401,
      -0.24781973659992218,
      -0.4793350398540497,
      -1.1823943853378296,
      -0.041444115340709686,
      -0.8797873258590698,
      -0.37070995569229126,
      -0.5941539406776428,
      -0.45756781101226807,
      -0.4726082682609558,
      -0.5871767401695251,
      -0.6001698970794678,
      -0.5143736600875854,
      -0.9020071029663086,
      -0.45452436804771423,
      -0.703888475894928,
      -0.4782378077507019,
      -0.5216246247291565,
      -0.6268666982650757,
      -0.760701060295105,
      -0.7143282294273376,
      -0.6329123377799988,
      -0.7729402184486389,
      -0.3872852325439453,
      -0.31365206837654114,
      -0.21198835968971252,
      -0.6430872082710266,
      -0.7004729509353638,
      -0.368114709854126,
      -0.5226723551750183,
      -0.4205455183982849,
      -0.40274447202682495
    ],
    "ff.lin2.weight": [
      [
        0.20660074055194855,
        0.17722946405410767,
        -0.5579705834388733,
        0.4191266894340515,
        -0.1701774001121521,
        -0.46005338430404663,
        -0.11106307059526443,
        -0.03008563257753849,
        -0.1979619413614273,
        0.01760825514793396,
        0.10363178700208664,
        0.42931631207466125,
        -0.30802229046821594,
        0.07511927932500839,
        0.21513767540454865,
        0.4355871379375458,
        0.19705110788345337,
        -0.41514039039611816,
        -0.07256268709897995,
        -0.4005660116672516,
        -0.22517111897468567,
        -0.2676306962966919,
        0.07048427313566208,
        0.08601320534944534,
        0.013479028828442097,
        0.3066509962081909,
        -0.03503905236721039,
        0.1787695437669754,
        0.18118202686309814,
        -0.23605820536613464,
        -0.16730736196041107,
        0.04364367946982384,
        -0.571284294128418,
        -0.2525481581687927,
        -0.19888491928577423,
        0.11420908570289612,
        -0.34560292959213257,
        0.17941127717494965,
        -0.0956105962395668,
        -0.46608245372772217,
        0.03447059541940689,
        0.24585753679275513,
        -0.3635747730731964,
        -0.22234605252742767,
        -0.055060092359781265,
        0.12623074650764465,
        -0.03893537074327469,
        -0.010365678928792477
      ],
      [
        -0.39101117849349976,
        -0.22568072378635406,
        -0.2471376359462738,
        -0.0005608798237517476,
        -0.002337624551728368,
        -0.25921738147735596,
        0.10064847767353058,
        -0.04185910150408745,
        -0.19990000128746033,
        -0.05674054101109505,
        -0.029301749542355537,
        -0.19000811874866486,
        0.4621991515159607,
        0.03673570230603218,
        0.08453883975744247,
        -0.4548457860946655,
        0.2750696837902069,
        0.3951047658920288,
        0.5089659690856934,
        0.06841535121202469,
        0.5179809927940369,
        0.05750969052314758,
        0.11145169287919998,
        -0.24799636006355286,
        -0.38519781827926636,
        0.4089081287384033,
        0.006746065337210894,
        0.17924925684928894,
        -0.45120519399642944,
        0.6652606129646301,
        0.18735338747501373,
        0.4537748396396637,
        -0.01880178041756153,
        0.019162019714713097,
        0.23029915988445282,
        -0.359636127948761,
        0.5127143263816833,
        -0.13871273398399353,
        -0.13329988718032837,
        0.7125735878944397,
        -0.28024786710739136,
        -0.1918673813343048,
        0.1667400747537613,
        -0.0829237550497055,
        -0.5605067610740662,
        -0.18105646967887878,
        -0.01884348876774311,
        -0.018233004957437515
      ],
      [
        -0.08778546005487442,
        -0.13614243268966675,
        0.5102667212486267,
        -0.07123987376689911,
        0.25237753987312317,
        -0.025286221876740456,
        -0.03051210753619671,
        -0.43991565704345703,
        0.009116996079683304,
        0.06502272188663483,
        -0.21812482178211212,
        0.08939225226640701,
        0.4647712707519531,
        -0.1116282120347023,
        0.09898697584867477,
        0.21361510455608368,
        -0.13916249573230743,
        0.07603327929973602,
        0.20056533813476562,
        -0.25198158621788025,
        -0.1201607882976532,
        -0.2859121859073639,
        0.023188583552837372,
        0.1654461920261383,
        0.1569935828447342,
        0.19071254134178162,
        -0.31779101490974426,
        -0.04462295398116112,
        0.28889554738998413,
        0.38746485114097595,
        0.1229371577501297,
        0.07281792908906937,
        -0.2630697786808014,
        0.08656484633684158,
        0.14308182895183563,
        -0.22409579157829285,
        -0.09814775735139847,
        -0.34487929940223694,
        0.09082602709531784,
        0.28152114152908325,
        0.08452633023262024,
        0.013660142198204994,
        0.24930068850517273,
        0.15190812945365906,
        -0.256350576877594,
        -0.06087024137377739,
        -0.3411619961261749,
        0.2806485593318939
      ],
      [
        -0.44005995988845825,
        0.2485053986310959,
        -0.18577396869659424,
        0.21679142117500305,
        -0.009763593785464764,
        -0.141398087143898,
        0.3096812963485718,
        0.38162973523139954,
        0.09462160617113113,
        -0.44909191131591797,
        -0.009267904795706272,
        -0.07304271310567856,
        -0.12764039635658264,
        0.17209763824939728,
        -0.01331500057131052,
        0.045796722173690796,
        0.028428491204977036,
        -0.07245083898305893,
        0.42271485924720764,
        -0.04852721467614174,
        -0.5202636122703552,
        0.08471199125051498,
        0.2658381760120392,
        -0.43197980523109436,
        -0.1043287068605423,
        -0.27912968397140503,
        0.27056676149368286,
        -0.5008790493011475,
        -0.17883600294589996,
        -0.38128432631492615,
        -0.5185202360153198,
        -0.413874089717865,
        0.430250346660614,
        -0.13639305531978607,
        -0.1752261072397232,
        0.29483070969581604,
        -0.28609487414360046,
        -0.18074646592140198,
        -0.1905331313610077,
        0.6816099882125854,
        -0.41009607911109924,
        0.10293944180011749,
        -0.2559525966644287,
        -0.03514484688639641,
        0.13415125012397766,
        -0.3406335115432739,
        0.20911018550395966,
        -0.10578407347202301
      ],
      [
        -0.15988600254058838,
        0.07813514024019241,
        -0.300302654504776,
        -0.06896320730447769,
        0.03875139728188515,
        0.04450598731637001,
        -0.20221145451068878,
        0.017032336443662643,
        -0.17296189069747925,
        0.08462649583816528,
        0.3231554925441742,
        0.0688972994685173,
        -0.31933915615081787,
        0.3376450836658478,
        -0.08465071022510529,
        -0.05931755527853966,
        -0.5509933233261108,
        -0.18669387698173523,
        -0.006416936870664358,
        -0.09510482847690582,
        0.11675035208463669,
        0.2870623767375946,
        -0.3783333897590637,
        -0.1487072855234146,
        0.3484747111797333,
        0.20155641436576843,
        0.4113144874572754,
        0.13069725036621094,
        -0.2415444254875183,
        -0.011738021858036518,
        -0.15875355899333954,
        -0.17567764222621918,
        0.3726823925971985,
        -0.039026107639074326,
        -0.6260235905647278,
        0.08501559495925903,
        -0.277957558631897,
        -0.04963899031281471,
        -0.24927181005477905,
        0.4099586308002472,
        -0.09390035271644592,
        -0.0177091583609581,
        0.09144037961959839,
        -0.14871840178966522,
        0.09422560781240463,
        0.09243157505989075,
        -0.1768294721841812,
        -0.07561436295509338
      ],
      [
        0.1949944645166397,
        0.08817049115896225,
        0.45169419050216675,
        -0.07536643743515015,
        -0.03612159192562103,
        -0.09513059258460999,
        0.24474993348121643,
        0.5306443572044373,
        -0.24916259944438934,
        0.15409177541732788,
        0.24293354153633118,
        -0.3504006266593933,
        -0.21605288982391357,
        -0.7952765226364136,
        -0.11573512852191925,
        0.1692769080400467,
        -0.26178017258644104,
        -0.4034973978996277,
        0.15216851234436035,
        0.5180885791778564,
        0.3983895182609558,
        -0.25250229239463806,
        -0.2102792114019394,
        -0.18971958756446838,
        0.34372177720069885,
        -0.09227383136749268,
        -0.8144881725311279,
        -0.08162131160497665,
        -0.029554620385169983,
        -0.44415345788002014,
        0.5749344229698181,
        -0.210991770029068,
        -0.14116305112838745,
        0.45591607689857483,
        0.18964819610118866,
        0.013467252254486084,
        -0.36113953590393066,
        -0.06975884735584259,
        -0.1578921675682068,
        -0.48347413539886475,
        0.3098064363002777,
        0.14134547114372253,
        -0.24559235572814941,
        0.8675854206085205,
        0.6010095477104187,
        0.09374421089887619,
        0.2268187254667282,
        0.5748902559280396
      ],
      [
        -0.3805480897426605,
        -0.08509901165962219,
        -0.0875171571969986,
        0.08709545433521271,
        -0.10663586854934692,
        -0.06633566319942474,
        -0.30344077944755554,
        0.23372617363929749,
        0.33277440071105957,
        -0.04348943009972572,
        0.25450199842453003,
        -0.5988779067993164,
        0.29667916893959045,
        0.567781925201416,
        -0.3918397128582001,
        -0.10335390269756317,
        0.28972259163856506,
        0.17265154421329498,
        -0.09807421267032623,
        -0.6138906478881836,
        -0.09653778374195099,
        0.34778934717178345,
        -0.06229858100414276,
        0.3812372088432312,
        -0.5198712944984436,
        0.1407318264245987,
        0.29995110630989075,
        -0.11689358204603195,
        -0.01577186957001686,
        0.0821930319070816,
        0.010232026688754559,
        -0.14544638991355896,
        0.062304068356752396,
        0.5360435247421265,
        0.26546457409858704,
        0.11426309496164322,
        0.2821785509586334,
        -0.3958856165409088,
        0.15480977296829224,
        0.031636614352464676,
        -0.04947257786989212,
        0.16383978724479675,
        0.0023097891826182604,
        -0.12041869014501572,
        -0.7478892803192139,
        -0.1049511656165123,
        0.18875879049301147,
        -0.6075433492660522
      ],
      [
        0.011946658603847027,
        -0.11141080409288406,
        0.2662542164325714,
        -0.43326619267463684,
        -0.0698671042919159,
        0.11426544189453125,
        0.23862288892269135,
        -0.02704561874270439,
        0.18737560510635376,
        0.06101485714316368,
        0.011894173920154572,
        0.31251299381256104,
        -0.23097079992294312,
        0.2624324858188629,
        -0.15188005566596985,
        -0.09144649654626846,
        0.5332493782043457,
        0.3662281930446625,
        -0.04721662029623985,
        0.6392223834991455,
        -0.12131420522928238,
        -0.5375497937202454,
        0.6900293827056885,
        0.2840804159641266,
        -0.11908556520938873,
        -0.9059141874313354,
        -0.5093761086463928,
        0.38231441378593445,
        -0.35530638694763184,
        -0.40301892161369324,
        -0.4889048933982849,
        0.454473614692688,
        -0.041494470089673996,
        -0.19611245393753052,
        0.1712869256734848,
        0.043794069439172745,
        0.16705235838890076,
        0.2903237044811249,
        0.23081931471824646,
        -0.35566675662994385,
        0.005082885269075632,
        0.2928180694580078,
        -0.5560559630393982,
        0.0812159925699234,
        -0.03014598973095417,
        0.5641841888427734,
        -0.29909878969192505,
        -0.06519930064678192
      ],
      [
        0.4550080895423889,
        -0.2379550039768219,
        -0.0034213424660265446,
        0.20374463498592377,
        0.105406753718853,
        0.06888418644666672,
        -0.07390343397855759,
        0.17166882753372192,
        0.5975433588027954,
        -0.2585591673851013,
        0.13793443143367767,
        0.25365397334098816,
        0.04288814216852188,
        0.23198464512825012,
        -0.03203391283750534,
        -0.49044468998908997,
        -0.12841174006462097,
        -0.033604156225919724,
        -0.3172186613082886,
        -0.019571561366319656,
        0.02925165556371212,
        -0.06316851079463959,
        -0.03150305896997452,
        0.028332648798823357,
        -0.2799873948097229,
        -0.06213252991437912,
        -0.2757558524608612,
        0.10436267405748367,
        0.2731712758541107,
        -0.1562165766954422,
        0.33192944526672363,
        -0.3038492202758789,
        -0.3406355381011963,
        -0.1296502947807312,
        -0.3286910057067871,
        0.3533424139022827,
        -0.5458729863166809,
        -0.022150462493300438,
        0.2500132918357849,
        -0.13542169332504272,
        -0.2455810010433197,
        0.346149206161499,
        -0.19743062555789948,
        0.10397206246852875,
        0.2698317766189575,
        0.36274513602256775,
        0.2667740285396576,
        -0.46749019622802734
      ],
      [
        0.42073437571525574,
        -0.4920653998851776,
        0.31889209151268005,
        -0.4029611349105835,
        -0.11398348957300186,
        0.3972850739955902,
        0.18744850158691406,
        -0.2324361652135849,
        -0.07360972464084625,
        0.5211119055747986,
        -0.004830039571970701,
        -0.11820627003908157,
        -0.28998127579689026,
        -0.3260590732097626,
        0.43191367387771606,
        -0.09973394125699997,
        -0.1126934289932251,
        -0.17459625005722046,
        -0.441506028175354,
        -0.0007722596055828035,
        -0.05031735822558403,
        0.2497929185628891,
        0.2187434881925583,
        -0.47557908296585083,
        0.24736769497394562,
        0.20736758410930634,
        0.28357696533203125,
        0.3685785233974457,
        0.11729434132575989,
        0.49373406171798706,
        0.11933477967977524,
        -0.3689495325088501,
        -0.08740075677633286,
        0.21978290379047394,
        0.2764720916748047,
        -0.5519256591796875,
        0.450578510761261,
        0.2151360809803009,
        0.10088840872049332,
        -0.07066796720027924,
        0.19359363615512848,
        -0.4407082200050354,
        0.0008560853311792016,
        -0.5842187404632568,
        0.20198020339012146,
        -0.3778761029243469,
        -0.44485464692115784,
        0.39671561121940613
      ],
      [
        0.1932583451271057,
        -0.07906167209148407,
        -0.10117475688457489,
        -0.47645869851112366,
        -0.11872900277376175,
        0.23432140052318573,
        -0.06673450022935867,
        -0.6290110945701599,
        -0.2402123063802719,
        0.1899814009666443,
        -0.06157413125038147,
        0.12969955801963806,
        -0.13238906860351562,
        -0.3956337869167328,
        -0.015410265885293484,
        0.33815640211105347,
        -0.07259893417358398,
        0.4447319209575653,
        -0.24512697756290436,
        -0.36857402324676514,
        -0.18689340353012085,
        -0.07077609747648239,
        0.12216682732105255,
        -0.052117884159088135,
        0.3237643241882324,
        0.07375136017799377,
        0.30982834100723267,
        -0.3550775647163391,
        0.40652742981910706,
        -0.3305933475494385,
        -0.3425370156764984,
        0.6578038930892944,
        0.12366726249456406,
        -0.23218995332717896,
        0.15539975464344025,
        0.1368841826915741,
        0.25172099471092224,
        0.47218939661979675,
        -0.13070201873779297,
        -0.4441426396369934,
        0.22588509321212769,
        -0.12220250070095062,
        0.6855153441429138,
        0.1445828080177307,
        0.3854043185710907,
        -0.10850708931684494,
        0.17498640716075897,
        0.4789668917655945
      ],
      [
        -0.030060308054089546,
        0.6883286833763123,
        -0.09094758331775665,
        0.23690885305404663,
        0.27822569012641907,
        0.1967788189649582,
        -0.1513831913471222,
        0.15984906256198883,
        -0.44583117961883545,
        0.0865030288696289,
        -0.4635421335697174,
        0.03441117703914642,
        -0.04749448597431183,
        0.1207093894481659,
        -0.11302763223648071,
        0.20451855659484863,
        0.15261830389499664,
        -0.11337897926568985,
        0.004904672969132662,
        0.28715142607688904,
        -0.1996898055076599,
        0.5750823616981506,
        -0.7942324280738831,
        0.45033973455429077,
        -0.30016571283340454,
        -0.1877199411392212,
        0.3019314706325531,
        -0.27307960391044617,
        -0.05218299478292465,
        0.16246946156024933,
        0.22810988128185272,
        -0.1604529619216919,
        -0.020934246480464935,
        -0.5803890824317932,
        -0.04412127286195755,
        0.004192491061985493,
        -0.13982458412647247,
        0.1307414323091507,
        0.12972934544086456,
        -0.2751174569129944,
        0.09437131881713867,
        -0.4320622682571411,
        0.18007799983024597,
        -0.15798966586589813,
        -0.18798580765724182,
        0.20851567387580872,
        0.46703583002090454,
        -0.4017854928970337
      ]
    ],
    "ff.lin2.bias": [
      0.05446728318929672,
      0.029805073514580727,
      -0.14417338371276855,
      -0.19111892580986023,
      -0.1456824094057083,
      0.14613287150859833,
      0.005468505900353193,
      0.08521586656570435,
      -0.201612651348114,
      0.2607231140136719,
      0.20680099725723267,
      -0.22351978719234467
    ]
  }
}