{
  "block_0": {
    "att.W_query.weight": [
      [
        0.0710902288556099,
        0.20681561529636383,
        -0.17554409801959991,
        0.3114968538284302,
        0.3209325671195984,
        0.14732079207897186,
        0.22999857366085052,
        -0.1271839588880539,
        -0.3025868833065033,
        -0.4621618092060089,
        0.07912055402994156,
        -0.16049738228321075,
        0.11201199144124985,
        0.40649133920669556,
        -0.43874990940093994,
        0.04913957044482231,
        -0.16945497691631317,
        -0.03135118633508682,
        0.313310444355011,
        0.17767776548862457,
        -0.40264272689819336,
        -0.13367193937301636,
        0.417315274477005,
        0.2804577052593231
      ],
      [
        0.07021445780992508,
        -0.32693517208099365,
        0.3801547586917877,
        -0.04499759152531624,
        -0.23333288729190826,
        0.3659074008464813,
        0.3695589601993561,
        0.2213561236858368,
        0.5208112597465515,
        -0.20012733340263367,
        0.06433920562267303,
        -0.07492069900035858,
        -0.031565431505441666,
        -0.18525058031082153,
        -0.18450017273426056,
        0.31503215432167053,
        -0.002926587825641036,
        -0.1737675815820694,
        -0.3805626928806305,
        0.2058151215314865,
        -0.6372878551483154,
        0.0649825930595398,
        0.07524564862251282,
        -0.45400336384773254
      ],
      [
        -0.23325659334659576,
        0.3019854426383972,
        0.24380123615264893,
        0.49865949153900146,
        -0.12045644223690033,
        -0.22070260345935822,
        -0.18294177949428558,
        -0.037491604685783386,
        -0.2548258602619171,
        -0.24722112715244293,
        0.06060166284441948,
        0.2466350644826889,
        -0.24463266134262085,
        0.33287757635116577,
        0.023214122280478477,
        0.3865627348423004,
        -0.17219178378582,
        -0.1590091586112976,
        0.1994793564081192,
        0.04827028140425682,
        -0.15994231402873993,
        -0.16235797107219696,
        0.14367951452732086,
        0.16177745163440704
      ],
      [
        0.16429923474788666,
        -0.015154319815337658,
        -0.017766376957297325,
        -0.26095330715179443,
        -0.42166224122047424,
        0.4538325369358063,
        0.033433616161346436,
        -0.07316809892654419,
        0.06878252327442169,
        -0.01719338819384575,
        -0.26547515392303467,
        0.0072930725291371346,
        -0.015650173649191856,
        0.009360725060105324,
        -0.17624014616012573,
        0.27465903759002686,
        -0.0465967133641243,
        -0.44982725381851196,
        0.1922895312309265,
        -0.06416275352239609,
        -0.027461085468530655,
        -0.05296092852950096,
        0.2904648184776306,
        0.18927335739135742
      ],
      [
        0.27626827359199524,
        0.0573456808924675,
        0.1954655945301056,
        -0.24390606582164764,
        -0.1297934353351593,
        0.28807350993156433,
        -0.14291945099830627,
        -0.36251723766326904,
        -0.0551375187933445,
        -0.18454138934612274,
        -0.030511826276779175,
        -0.3823690414428711,
        -0.033103346824645996,
        0.24353724718093872,
        0.1617356687784195,
        -0.5507683157920837,
        0.06070166826248169,
        0.34377315640449524,
        0.24139714241027832,
        -0.2185782939195633,
        0.06246529147028923,
        -0.15558744966983795,
        -0.1286560297012329,
        -0.16902650892734528
      ],
      [
        0.03343304246664047,
        -0.20687268674373627,
        -0.27165740728378296,
        0.40765058994293213,
        0.5880140066146851,
        -0.19056223332881927,
        -0.13356201350688934,
        -0.041271355003118515,
        -0.41919177770614624,
        -0.09711529314517975,
        0.5665881633758545,
        -0.26072958111763,
        0.04394754022359848,
        0.24035754799842834,
        -0.0480206124484539,
        0.3052884340286255,
        -0.5621766448020935,
        -0.14665865898132324,
        0.34330877661705017,
        0.28279373049736023,
        -0.08042147755622864,
        0.1142825111746788,
        0.25121819972991943,
        -0.11843296885490417
      ],
      [
        -0.21059592068195343,
        0.2715480625629425,
        -0.024521267041563988,
        -0.0003071785904467106,
        0.09017723798751831,
        -0.2203705906867981,
        0.3042084276676178,
        0.32084205746650696,
        0.2099422812461853,
        -0.26125627756118774,
        0.12415677309036255,
        -0.5365191102027893,
        0.29717472195625305,
        -0.026079097762703896,
        -0.2672038972377777,
        0.4823065996170044,
        0.2280886322259903,
        -0.020310664549469948,
        -0.04939465597271919,
        0.02983129769563675,
        -0.20326001942157745,
        -0.018353434279561043,
        0.07330101728439331,
        -0.3075476586818695
      ],
      [
        -0.20384828746318817,
        0.08626831322908401,
        0.5173896551132202,
        0.13204564154148102,
        0.045870885252952576,
        0.08285918831825256,
        0.025864508002996445,
        -0.25721263885498047,
        -0.1918639838695526,
        -0.055526867508888245,
        0.021427707746624947,
        -0.2800498604774475,
        0.40318411588668823,
        -0.3291356861591339,
        -0.3032817244529724,
        0.36276280879974365,
        -0.1369270235300064,
        -0.16632694005966187,
        -0.20603828132152557,
        0.09512145817279816,
        0.16725292801856995,
        0.1550198644399643,
        0.33921173214912415,
        0.23633435368537903
      ],
      [
        0.398414671421051,
        -0.18032921850681305,
        -0.6896826028823853,
        -0.05517840385437012,
        -0.07849390804767609,
        0.022860588505864143,
        -0.12769204378128052,
        0.29855358600616455,
        -0.18815481662750244,
        0.03150637820363045,
        0.2832488715648651,
        0.2558014988899231,
        -0.13787974417209625,
        0.36015594005584717,
        -0.1538763791322708,
        -0.42025312781333923,
        0.03188570961356163,
        -0.21129973232746124,
        0.2694266736507416,
        -0.1639709323644638,
        0.2762488126754761,
        0.32738903164863586,
        0.3789820075035095,
        0.05687125027179718
      ],
      [
        -0.08330187946557999,
        0.23743654787540436,
        -0.2946118116378784,
        0.46530622243881226,
        -0.17642615735530853,
        0.3551006317138672,
        0.4717874526977539,
        -0.027706444263458252,
        -0.20991097390651703,
        -0.35681745409965515,
        -0.17829450964927673,
        -0.16328975558280945,
        0.29921436309814453,
        0.0746699869632721,
        -0.05802787467837334,
        0.11792422831058502,
        -0.16541147232055664,
        -0.027973702177405357,
        0.1313464194536209,
        -0.3018198311328888,
        -0.16581140458583832,
        0.018121659755706787,
        -0.2430402934551239,
        0.31189075112342834
      ],
      [
        0.2738155722618103,
        -0.34159955382347107,
        -0.1930743008852005,
        -0.32133936882019043,
        -0.27460190653800964,
        -0.208999365568161,
        0.22766532003879547,
        0.3930308520793915,
        -0.03398556262254715,
        -0.40451934933662415,
        0.06418605893850327,
        -0.06682077050209045,
        0.1792544722557068,
        -0.25922146439552307,
        0.4043493866920471,
        0.4403790533542633,
        0.37095093727111816,
        0.35603034496307373,
        0.23311617970466614,
        0.2126186490058899,
        0.26111313700675964,
        0.16049276292324066,
        -0.2504503130912781,
        -0.5372381806373596
      ],
      [
        -0.06750399619340897,
        0.27266567945480347,
        0.4404565393924713,
        -0.23888830840587616,
        -0.13386350870132446,
        -0.1189885288476944,
        -0.39047712087631226,
        0.022724736481904984,
        -0.060846276581287384,
        -0.3201211988925934,
        0.4460499584674835,
        -0.09889695048332214,
        0.13955919444561005,
        -0.011354688555002213,
        -0.01656346209347248,
        0.14942239224910736,
        0.41509655117988586,
        -0.0894632637500763,
        0.3657606542110443,
        -0.18947042524814606,
        -0.23768702149391174,
        -0.012105894275009632,
        0.009736458770930767,
        0.29654359817504883
      ],
      [
        -0.30798983573913574,
        0.04261117801070213,
        0.1524546891450882,
        0.07847907394170761,
        0.0989876389503479,
        0.16842961311340332,
        -0.10507998615503311,
        -0.44315195083618164,
        -0.03589066118001938,
        0.6625455617904663,
        0.2302558869123459,
        -0.24260053038597107,
        -0.27549684047698975,
        0.33026716113090515,
        -0.3336104154586792,
        -0.1586747169494629,
        0.519105076789856,
        -0.7274444103240967,
        -0.07255282998085022,
        0.16016452014446259,
        -0.16170170903205872,
        0.12198639661073685,
        -0.04714878275990486,
        0.06667297333478928
      ],
      [
        0.5105640888214111,
        -0.4677116572856903,
        0.13096797466278076,
        0.3928566575050354,
        -0.16903716325759888,
        0.3564331531524658,
        0.026876669377088547,
        0.3055223226547241,
        0.0692731961607933,
        -0.40287014842033386,
        -0.10408858209848404,
        -0.2739628851413727,
        0.20260825753211975,
        -0.036736782640218735,
        -0.3413711488246918,
        0.18376006186008453,
        -0.4722401201725006,
        0.295901894569397,
        0.036752063781023026,
        -0.0808301568031311,
        -0.212344229221344,
        0.28671950101852417,
        -0.2271096557378769,
        0.08373290300369263
      ],
      [
        0.04460138455033302,
        -0.2969060242176056,
        0.4049359858036041,
        0.3476410210132599,
        -0.03847089409828186,
        0.29603978991508484,
        -0.13439811766147614,
        0.008758905343711376,
        -0.16928447782993317,
        -0.06702020019292831,
        0.13701684772968292,
        0.45766595005989075,
        0.07224953919649124,
        -0.36842700839042664,
        -0.3806591033935547,
        0.1552107334136963,
        -0.6313611268997192,
        0.4180113673210144,
        -0.037414610385894775,
        -0.23642374575138092,
        0.3080000877380371,
        -0.0001786943757906556,
        -0.23114372789859772,
        0.04106965288519859
      ],
      [
        -0.20747344195842743,
        -0.3728720247745514,
        0.3791639804840088,
        0.37174192070961,
        0.288446843624115,
        0.006250105798244476,
        0.165678933262825,
        -0.19613701105117798,
        0.15652917325496674,
        -0.1471751183271408,
        0.17580069601535797,
        -0.04430941864848137,
        0.016067178919911385,
        -0.00604448514059186,
        0.13717450201511383,
        -0.12869328260421753,
        -0.07402404397726059,
        -0.09673647582530975,
        -0.3252798318862915,
        0.25905463099479675,
        -0.4347747564315796,
        -0.053783684968948364,
        0.09915313869714737,
        -0.028396138921380043
      ],
      [
        -0.2674318850040436,
        -0.013840931467711926,
        0.3193706274032593,
        0.023498356342315674,
        -0.01932217925786972,
        -0.13515235483646393,
        -0.371417760848999,
        0.3584839105606079,
        -0.3921326994895935,
        -0.38684576749801636,
        0.27111655473709106,
        0.16211408376693726,
        0.6733936667442322,
        -0.1979755163192749,
        0.2975621819496155,
        0.14166247844696045,
        -0.12574918568134308,
        -0.39339759945869446,
        0.16771312057971954,
        0.2788490951061249,
        0.07626184821128845,
        0.15628229081630707,
        -0.020772982388734818,
        -0.06586043536663055
      ],
      [
        -0.3007763624191284,
        0.13585223257541656,
        0.46079206466674805,
        0.2367914915084839,
        0.16749438643455505,
        0.2730186879634857,
        -0.34501656889915466,
        -0.21874944865703583,
        -0.3711402714252472,
        0.2623816430568695,
        0.31083452701568604,
        0.2879893481731415,
        -0.08656582981348038,
        0.2064223736524582,
        -0.11074691265821457,
        -0.10947071015834808,
        -0.1736975610256195,
        -0.11780521273612976,
        -0.38635870814323425,
        -0.51887446641922,
        0.036858730018138885,
        0.42124825716018677,
        0.15652906894683838,
        -0.2063271403312683
      ],
      [
        -0.3481251895427704,
        -0.46365490555763245,
        0.26512277126312256,
        0.06073349341750145,
        -0.11364152282476425,
        0.3590991497039795,
        0.06344912201166153,
        0.027551602572202682,
        0.011544784530997276,
        -0.02663099206984043,
        0.12364630401134491,
        0.14195002615451813,
        0.12535755336284637,
        0.20211172103881836,
        -0.14663434028625488,
        0.17306771874427795,
        0.3107936680316925,
        -0.16297703981399536,
        -0.08358774334192276,
        0.2147231101989746,
        -0.22032518684864044,
        -0.18951237201690674,
        0.26289355754852295,
        0.09709113836288452
      ],
      [
        -0.2229253202676773,
        -0.12526217103004456,
        0.3618887960910797,
        -0.2590342164039612,
        -0.42222344875335693,
        0.31493067741394043,
        0.2816856801509857,
        -0.2531813085079193,
        0.3391537070274353,
        0.484917014837265,
        -0.18025927245616913,
        0.10200513899326324,
        -0.13065451383590698,
        -0.1418420970439911,
        -0.4882076382637024,
        0.02291196770966053,
        0.15710857510566711,
        0.384452223777771,
        -0.2545152008533478,
        -0.27896955609321594,
        -0.08256589621305466,
        -0.008063002489507198,
        0.08058083802461624,
        0.05807073041796684
      ],
      [
        0.07284016162157059,
        -0.15080900490283966,
        0.3689398169517517,
        0.18278689682483673,
        0.09827885031700134,
        0.13965114951133728,
        0.21664759516716003,
        -0.015160799957811832,
        -0.04298139736056328,
        0.05588024854660034,
        -0.18095557391643524,
        0.030858704820275307,
        0.4402008652687073,
        0.07681617140769958,
        -0.5279504656791687,
        0.07856415212154388,
        0.031832609325647354,
        0.13394327461719513,
        0.1432580053806305,
        -0.3768530786037445,
        -0.23176422715187073,
        0.32822301983833313,
        -0.07522980123758316,
        -0.29345613718032837
      ],
      [
        -0.4844611883163452,
        -0.24114391207695007,
        -0.09614276140928268,
        0.07319851219654083,
        0.35357576608657837,
        0.1359991878271103,
        0.026418250054121017,
        0.09782028198242188,
        0.15193749964237213,
        0.04886390641331673,
        0.19798028469085693,
        0.02753322757780552,
        -0.37795981764793396,
        0.042187999933958054,
        -0.11136530339717865,
        -0.22183586657047272,
        0.09732646495103836,
        -0.04621606320142746,
        -0.03930608183145523,
        0.06376729160547256,
        -0.08048109710216522,
        0.18844780325889587,
        0.6902491450309753,
        -0.25315895676612854
      ],
      [
        0.1867176741361618,
        0.3350127041339874,
        -0.1855013370513916,
        0.09102217108011246,
        -0.10653561353683472,
        0.21117615699768066,
        -0.12770015001296997,
        0.3064272105693817,
        0.17455296218395233,
        0.1470678597688675,
        -0.26533740758895874,
        -0.19862879812717438,
        0.24223464727401733,
        0.21628116071224213,
        -0.33458730578422546,
        -0.1012364849448204,
        0.16262120008468628,
        0.09423711895942688,
        0.052893687039613724,
        -0.008295773528516293,
        -0.1822981834411621,
        -0.10425465553998947,
        -0.34785550832748413,
        -0.09123086929321289
      ],
      [
        -0.22420158982276917,
        -0.5640211701393127,
        0.11395516991615295,
        -0.21857191622257233,
        0.2020583599805832,
        -0.13444681465625763,
        0.30820783972740173,
        -0.5069437623023987,
        0.5846917629241943,
        0.5275352597236633,
        0.0475955456495285,
        0.2301022708415985,
        -0.4029563069343567,
        -0.3261663019657135,
        -0.16797207295894623,
        0.13206364214420319,
        -0.3940751552581787,
        0.0555451437830925,
        -0.35449084639549255,
        0.42020365595817566,
        0.2660937011241913,
        0.27599525451660156,
        0.10564360022544861,
        -0.17749832570552826
      ]
    ],
    "att.W_query.bias": null,
    "att.W_key.weight": [
      [
        0.06429930031299591,
        0.15051469206809998,
        -0.054619379341602325,
        -0.16992340981960297,
        -0.6100492477416992,
        0.014535536989569664,
        -0.5628162026405334,
        0.19597579538822174,
        0.24406857788562775,
        -0.15403789281845093,
        -0.22172775864601135,
        0.42650577425956726,
        0.19443920254707336,
        -0.029888784512877464,
        0.46392545104026794,
        0.020432371646165848,
        -0.20262189209461212,
        0.04621049389243126,
        -0.32716792821884155,
        -0.1922110617160797,
        0.045119285583496094,
        0.34959232807159424,
        -0.10165508091449738,
        0.3245590031147003
      ],
      [
        -0.44084569811820984,
        -0.2519087791442871,
        0.0005220971070230007,
        -0.4884814918041229,
        0.2305566370487213,
        -0.05682535842061043,
        -0.2707551121711731,
        0.32878708839416504,
        0.005418419372290373,
        0.04878750070929527,
        -0.23391546308994293,
        0.3562674820423126,
        -0.029129106551408768,
        0.6238346099853516,
        -0.1767302304506302,
        -0.36230170726776123,
        0.21956373751163483,
        0.3993961811065674,
        0.16640689969062805,
        0.11875651776790619,
        -0.008989077992737293,
        -0.04606996104121208,
        0.1889203041791916,
        0.05297853425145149
      ],
      [
        -0.012345279566943645,
        0.06821390986442566,
        -0.37909871339797974,
        0.11109451949596405,
        -0.33120042085647583,
        0.24540647864341736,
        0.19750219583511353,
        0.14604587852954865,
        0.32603806257247925,
        -0.3548378348350525,
        -0.14504192769527435,
        0.13164091110229492,
        0.07222722470760345,
        -0.020338760688900948,
        0.4480961263179779,
        -0.16981008648872375,
        -0.260563462972641,
        -0.20041699707508087,
        -0.16562411189079285,
        -0.010170377790927887,
        0.1766425520181656,
        -0.07542360574007034,
        -0.35283005237579346,
        -0.518849790096283
      ],
      [
        -0.08749803155660629,
        0.3384785056114197,
        0.05832318216562271,
        0.4151911437511444,
        -0.11368316411972046,
        -0.057171788066625595,
        -0.2839978337287903,
        -0.11357614398002625,
        -0.2313316911458969,
        0.008078288286924362,
        -0.12407517433166504,
        0.03519779443740845,
        0.20150505006313324,
        0.2304636389017105,
        0.0400957390666008,
        -0.36528992652893066,
        -0.09670847654342651,
        0.08379434049129486,
        0.47653040289878845,
        -0.0739455372095108,
        0.16993404924869537,
        -0.18367360532283783,
        -0.19931776821613312,
        -0.263607382774353
      ],
      [
        0.18669205904006958,
        0.42205896973609924,
        -0.0982932522892952,
        0.1314355731010437,
        0.35158705711364746,
        -0.24040021002292633,
        0.19978991150856018,
        0.020197689533233643,
        -0.2091783881187439,
        -0.12984897196292877,
        -0.11556626856327057,
        -0.20894555747509003,
        -0.04816807061433792,
        -0.023391898721456528,
        -0.25217387080192566,
        -0.08282123506069183,
        -0.04934440925717354,
        -0.19557541608810425,
        -0.5409814715385437,
        -0.06431757658720016,
        0.1882072389125824,
        0.4880869388580322,
        0.4123767614364624,
        0.2944590151309967
      ],
      [
        -0.24053873121738434,
        0.18695323169231415,
        0.004264896269887686,
        -0.5558911561965942,
        -0.43673989176750183,
        0.3450154960155487,
        -0.15371693670749664,
        0.16930030286312103,
        0.1833733320236206,
        -0.321980357170105,
        -0.09720433503389359,
        0.22777137160301208,
        -0.07038339227437973,
        -0.31899911165237427,
        0.5979243516921997,
        0.48910820484161377,
        0.10557328164577484,
        -0.023172348737716675,
        -0.38267019391059875,
        -0.26111507415771484,
        -0.17749632894992828,
        0.13668017089366913,
        0.3101786971092224,
        0.18823939561843872
      ],
      [
        0.010603668168187141,
        -0.01772046647965908,
        0.008344666101038456,
        -0.24273699522018433,
        -0.2601580023765564,
        0.2853713929653168,
        0.1314002126455307,
        0.20883269608020782,
        -0.10542972385883331,
        0.21074432134628296,
        -0.3277636170387268,
        0.2613648474216461,
        0.14237183332443237,
        -0.0331493578851223,
        0.0072976392693817616,
        -0.43316543102264404,
        -0.3338574767112732,
        0.3081860840320587,
        0.2200477123260498,
        0.1606910675764084,
        -0.36370614171028137,
        -0.43003565073013306,
        0.0766015499830246,
        0.42599061131477356
      ],
      [
        0.1784505993127823,
        0.22077088057994843,
        -0.2880476713180542,
        -0.1720724105834961,
        0.07134655863046646,
        0.16909116506576538,
        -0.12700462341308594,
        0.290583074092865,
        0.20056621730327606,
        0.05403227359056473,
        -0.15363052487373352,
        -0.1318310648202896,
        0.15824304521083832,
        0.04374941810965538,
        0.17914393544197083,
        -0.13933004438877106,
        -0.15278370678424835,
        0.5093765258789062,
        0.035582441836595535,
        -0.42290785908699036,
        -0.5960863828659058,
        -0.0465891994535923,
        -0.4374687969684601,
        -0.010824221186339855
      ],
      [
        -0.21667395532131195,
        0.1888720989227295,
        0.42288416624069214,
        0.26467007398605347,
        -0.1032351478934288,
        -0.40522241592407227,
        -0.304739385843277,
        -0.26664310693740845,
        -0.33692508935928345,
        -0.08984676003456116,
        0.3013322949409485,
        -0.19386400282382965,
        -0.042019523680210114,
        -0.4007335603237152,
        0.36132556200027466,
        0.0938318744301796,
        0.29090625047683716,
        -0.216614231467247,
        -0.16823618113994598,
        0.19686870276927948,
        0.4878566861152649,
        -0.26390591263771057,
        -0.033317577093839645,
        0.23675526678562164
      ],
      [
        0.1250394582748413,
        -0.0027457294054329395,
        0.06926706433296204,
        0.3689252734184265,
        -0.32453596591949463,
        0.44701921939849854,
        -0.26298749446868896,
        0.23722174763679504,
        0.000570255855564028,
        -0.1197890043258667,
        -0.43475887179374695,
        0.14832058548927307,
        0.0065908972173929214,
        0.0929984301328659,
        -0.014090580865740776,
        -0.04167451336979866,
        -0.441458523273468,
        0.3672999143600464,
        -0.26386383175849915,
        -0.01133717317134142,
        0.11211498826742172,
        0.05201597884297371,
        -0.3300608992576599,
        -0.04938127472996712
      ],
      [
        -0.055848050862550735,
        0.18714149296283722,
        0.5162559151649475,
        0.18194632232189178,
        0.113926462829113,
        0.18350237607955933,
        0.40072041749954224,
        -0.056574560701847076,
        0.0011510222684592009,
        -0.040170930325984955,
        -0.06717067956924438,
        0.12147451937198639,
        -0.7023213505744934,
        0.18199816346168518,
        -0.40694335103034973,
        -0.21370072662830353,
        -0.07059914618730545,
        0.3135683536529541,
        0.2518993318080902,
        0.07725856453180313,
        -0.012905552983283997,
        -0.660923421382904,
        0.3831983804702759,
        0.23823218047618866
      ],
      [
        0.49989834427833557,
        0.4061298072338104,
        -0.2163674384355545,
        0.12429179251194,
        0.1698409467935562,
        -0.1405973881483078,
        0.34316232800483704,
        0.025827964767813683,
        -0.25709399580955505,
        -0.20680442452430725,
        -0.04412513226270676,
        0.09644808620214462,
        -0.3379325270652771,
        -0.15025433897972107,
        0.20295001566410065,
        -0.4468783736228943,
        -0.32124537229537964,
        0.2429465800523758,
        0.15646860003471375,
        0.33420026302337646,
        -0.07940841466188431,
        0.0707968920469284,
        -0.18137504160404205,
        -0.035531748086214066
      ],
      [
        0.19690661132335663,
        -0.16732576489448547,
        -0.15340663492679596,
        -0.3537195920944214,
        0.04405618831515312,
        -0.40657946467399597,
        -0.09682878106832504,
        0.01300615631043911,
        -0.03455526381731033,
        0.09757433831691742,
        -0.6390658617019653,
        0.15682244300842285,
        -0.14001010358333588,
        0.3991566598415375,
        0.39779162406921387,
        0.47513526678085327,
        0.5239758491516113,
        0.22652235627174377,
        -0.23671549558639526,
        0.4217808246612549,
        0.0024972662795335054,
        -0.24277986586093903,
        -0.274142861366272,
        -0.19449447095394135
      ],
      [
        -0.47009557485580444,
        0.01637754775583744,
        0.576750636100769,
        0.31121590733528137,
        0.34794652462005615,
        -0.19761806726455688,
        0.04051612317562103,
        0.15418753027915955,
        -0.21286553144454956,
        -0.07361207157373428,
        0.3601594865322113,
        -0.8172347545623779,
        -0.0677298977971077,
        -0.05287386476993561,
        -0.3901912569999695,
        -0.07233403623104095,
        -0.03548671677708626,
        -0.07845792919397354,
        -0.14649926126003265,
        -0.17236189544200897,
        0.09813898801803589,
        -0.048975493758916855,
        0.10193231701850891,
        -0.016917211934924126
      ],
      [
        0.04065664857625961,
        0.07739090919494629,
        -0.01759466528892517,
        0.30581948161125183,
        0.1669355183839798,
        0.04648524522781372,
        -0.23689480125904083,
        0.4919913709163666,
        0.27473869919776917,
        -0.32327061891555786,
        0.29623883962631226,
        -0.5113168358802795,
        0.6365734338760376,
        0.15708968043327332,
        -0.12520144879817963,
        0.16843314468860626,
        -0.05576173588633537,
        -0.18689319491386414,
        -0.13270027935504913,
        -0.3810240626335144,
        0.13368448615074158,
        0.3107890784740448,
        -0.37609928846359253,
        -0.6514574289321899
      ],
      [
        -0.5545864105224609,
        0.06456311792135239,
        0.40914827585220337,
        0.08874524384737015,
        -0.17095425724983215,
        0.2934165298938751,
        -0.3091273903846741,
        -0.11385387182235718,
        -0.24530352652072906,
        -0.13931666314601898,
        -0.09853948652744293,
        -0.4082595705986023,
        -0.22365237772464752,
        0.08972915261983871,
        0.208105206489563,
        0.24611160159111023,
        -0.06270658224821091,
        0.10364824533462524,
        0.06977567821741104,
        0.041004110127687454,
        0.30751705169677734,
        -0.20320011675357819,
        -0.054852452129125595,
        0.07309439778327942
      ],
      [
        0.4696454405784607,
        0.10958514362573624,
        -0.09621495753526688,
        0.030065273866057396,
        -0.09906264394521713,
        0.0579371377825737,
        0.2801561653614044,
        -0.16826988756656647,
        0.08762986212968826,
        0.11727447807788849,
        0.2215869277715683,
        -0.2853737473487854,
        -0.006402209401130676,
        0.05565594881772995,
        -0.2710205912590027,
        0.49202069640159607,
        -0.5447994470596313,
        -0.09478890150785446,
        0.39263948798179626,
        -0.14936138689517975,
        -0.06938992440700531,
        -0.07096440345048904,
        -0.7120274901390076,
        0.17284977436065674
      ],
      [
        0.22987115383148193,
        -0.3068814277648926,
        -0.24282722175121307,
        0.03493701294064522,
        0.0868629664182663,
        -0.11092390865087509,
        -0.045283108949661255,
        0.24685944616794586,
        0.3581708073616028,
        -0.4095563292503357,
        0.09392993897199631,
        0.010354692116379738,
        0.25465184450149536,
        0.2186720222234726,
        0.3878300189971924,
        0.4341776967048645,
        0.04823237285017967,
        0.007105931174010038,
        -0.04139212891459465,
        0.2791672945022583,
        0.20669959485530853,
        0.36349251866340637,
        -0.708329439163208,
        -0.5294914245605469
      ],
      [
        -0.47981879115104675,
        0.17214764654636383,
        0.23082898557186127,
        0.01888137310743332,
        0.2410138100385666,
        -0.09617899358272552,
        0.09073008596897125,
        -0.316714346408844,
        0.14256146550178528,
        0.0674910843372345,
        -0.4527861177921295,
        -0.29911983013153076,
        -0.1734386831521988,
        -0.24600622057914734,
        0.32931122183799744,
        0.31858450174331665,
        0.0300301406532526,
        -0.04064283147454262,
        0.12538811564445496,
        -0.13723503053188324,
        -0.008736484684050083,
        -0.3692438304424286,
        0.12250341475009918,
        0.05409012362360954
      ],
      [
        -0.4362338185310364,
        -0.08940599858760834,
        0.0981365293264389,
        -0.055659834295511246,
        0.18847587704658508,
        -0.06472865492105484,
        -0.2297089397907257,
        0.039089225232601166,
        0.07467146217823029,
        -0.2685602605342865,
        0.09547413885593414,
        0.10976340621709824,
        0.037385646253824234,
        -0.40397411584854126,
        0.14527413249015808,
        0.11990755051374435,
        0.7576306462287903,
        0.06287799030542374,
        -0.10783381015062332,
        -0.4069772958755493,
        -0.29044660925865173,
        -0.14307323098182678,
        0.28373605012893677,
        -0.5665126442909241
      ],
      [
        -0.28491243720054626,
        -0.23513665795326233,
        0.28673985600471497,
        -0.07095446437597275,
        -0.07815258949995041,
        0.012698723934590816,
        0.3244135081768036,
        -0.1098269373178482,
        -0.03278203308582306,
        -0.3873562514781952,
        0.43822169303894043,
        -0.3893355131149292,
        0.12241557985544205,
        -0.20342910289764404,
        0.2074117362499237,
        0.2135729342699051,
        0.5218715071678162,
        -0.25467175245285034,
        -0.20149514079093933,
        -0.06453387439250946,
        0.15607425570487976,
        -0.009840896353125572,
        0.031665656715631485,
        -0.24606001377105713
      ],
      [
        -0.09122713655233383,
        -0.031544432044029236,
        0.21728500723838806,
        -0.0880250334739685,
        -0.15134915709495544,
        -0.06081951782107353,
        -0.17935647070407867,
        0.11516167223453522,
        0.13288581371307373,
        -0.1028333529829979,
        -0.26843687891960144,
        -0.18812178075313568,
        -0.1373646855354309,
        -0.391357421875,
        0.4847283959388733,
        0.04196017235517502,
        0.12749411165714264,
        0.04803445562720299,
        -0.039164334535598755,
        0.29193225502967834,
        0.5565781593322754,
        -0.14859339594841003,
        0.002779002534225583,
        0.18305572867393494
      ],
      [
        -0.008213884197175503,
        -0.22107769548892975,
        -0.06403704732656479,
        0.254133015871048,
        0.19516196846961975,
        -0.2281237095594406,
        0.31014561653137207,
        -0.15398435294628143,
        -0.5059863924980164,
        0.13519689440727234,
        0.06613761186599731,
        0.061224617063999176,
        -0.25981539487838745,
        -0.1400720328092575,
        0.12318158149719238,
        0.04845630005002022,
        0.06997153162956238,
        -0.12791255116462708,
        -0.10596661269664764,
        0.06650322675704956,
        -0.2290416955947876,
        -0.005490862764418125,
        0.4591377377510071,
        -0.1861380636692047
      ],
      [
        0.050777558237314224,
        -0.275866836309433,
        0.29119813442230225,
        0.07221759855747223,
        -0.46960145235061646,
        0.2791309952735901,
        -0.7069089412689209,
        0.6092555522918701,
        0.00676365103572607,
        -0.08695652335882187,
        -0.17146988213062286,
        -0.4275912940502167,
        0.4681442081928253,
        0.09049946814775467,
        0.1892823874950409,
        -0.1790439784526825,
        0.5539051294326782,
        0.23503534495830536,
        -0.17856092751026154,
        -0.19558361172676086,
        -0.1446414738893509,
        -0.113278329372406,
        -0.21530862152576447,
        -0.012546864338219166
      ]
    ],
    "att.W_key.bias": null,
    "att.W_value.weight": [
      [
        -0.04972387105226517,
        0.16127268970012665,
        0.4465896189212799,
        0.04740811884403229,
        0.20326079428195953,
        0.23551809787750244,
        -0.3807743191719055,
        -0.10824599862098694,
        -0.2299133688211441,
        0.426801860332489,
        0.2443286031484604,
        0.23310217261314392,
        -0.18411172926425934,
        -0.15806733071804047,
        -0.02897096797823906,
        -0.16319675743579865,
        0.20779038965702057,
        0.17396016418933868,
        -0.1627507358789444,
        0.11274264752864838,
        -0.026535436511039734,
        -0.22704005241394043,
        -0.06254130601882935,
        -0.10756978392601013
      ],
      [
        -0.3293142020702362,
        0.20094138383865356,
        -0.01647072844207287,
        -0.09928037971258163,
        0.11989471316337585,
        -0.12484490126371384,
        0.27296769618988037,
        -0.10568076372146606,
        0.16929741203784943,
        -0.022901486605405807,
        -0.2470933496952057,
        -0.02402740903198719,
        -0.15360510349273682,
        -0.23361599445343018,
        0.09054678678512573,
        0.05595352500677109,
        0.36636272072792053,
        -0.3023355305194855,
        0.22058917582035065,
        0.44690990447998047,
        -0.11873898655176163,
        0.19821974635124207,
        0.24155877530574799,
        0.07153917104005814
      ],
      [
        0.003180768107995391,
        -0.012248750776052475,
        -0.1801382303237915,
        -0.15549755096435547,
        -0.026177067309617996,
        0.3944997489452362,
        0.02276100404560566,
        0.30499741435050964,
        0.15577594935894012,
        -0.12006853520870209,
        0.3042028546333313,
        -0.27414068579673767,
        -0.053994204849004745,
        0.07814445346593857,
        0.04970451071858406,
        -0.36459746956825256,
        0.14269740879535675,
        -0.24611923098564148,
        -0.5917695164680481,
        -0.0989459678530693,
        -0.1867678165435791,
        -0.17948485910892487,
        0.24393245577812195,
        0.27969661355018616
      ],
      [
        0.20866768062114716,
        -0.03205125406384468,
        -0.14208446443080902,
        0.31578493118286133,
        -0.4659534692764282,
        -0.06992582976818085,
        0.12070582807064056,
        0.26450029015541077,
        0.4021553695201874,
        -0.12041067332029343,
        0.07598412781953812,
        -0.31711545586586,
        -0.28976401686668396,
        0.033953193575143814,
        -0.11824797093868256,
        0.10182546824216843,
        0.04367232695221901,
        0.002585947746410966,
        -0.23301246762275696,
        -0.1575455516576767,
        -0.21834643185138702,
        -0.02737899124622345,
        0.007048343308269978,
        -0.13515610992908478
      ],
      [
        0.09022395312786102,
        0.2317081242799759,
        -0.30463913083076477,
        0.03835262730717659,
        0.19136285781860352,
        0.24043473601341248,
        -0.2359892874956131,
        -0.28707826137542725,
        -0.08074242621660233,
        -0.3686313331127167,
        0.4216015040874481,
        0.2822807729244232,
        -0.40807557106018066,
        0.024407392367720604,
        -0.05576302483677864,
        -0.06774484366178513,
        -0.0009448117925785482,
        0.15983451902866364,
        0.20996472239494324,
        0.08285403996706009,
        -0.39453113079071045,
        0.45918917655944824,
        -0.12308590859174728,
        -0.023147914558649063
      ],
      [
        0.10472822189331055,
        -0.2903304696083069,
        -0.0883556455373764,
        -0.05859426409006119,
        0.15456260740756989,
        -0.17299765348434448,
        -0.21268025040626526,
        0.14528504014015198,
        -0.02462969906628132,
        0.44234925508499146,
        -0.022250661626458168,
        0.0690491795539856,
        0.17459584772586823,
        -0.23283898830413818,
        0.15400122106075287,
        -0.1900663822889328,
        -0.37744343280792236,
        0.18191225826740265,
        0.1733746975660324,
        -0.45530059933662415,
        0.17252977192401886,
        -0.05502057075500488,
        0.006134916562587023,
        0.3634777069091797
      ],
      [
        0.06555628776550293,
        -0.4082457423210144,
        -0.17624616622924805,
        -0.08113754540681839,
        0.019489450380206108,
        7.275988900801167e-05,
        -0.01883430778980255,
        0.1298391968011856,
        0.05672382935881615,
        -0.13755732774734497,
        0.2090982347726822,
        0.3882508873939514,
        -0.028628487139940262,
        -0.4727253019809723,
        -0.02772621624171734,
        -0.05475122854113579,
        0.0010048095136880875,
        0.16395212709903717,
        0.07784698158502579,
        -0.4069032073020935,
        0.28049054741859436,
        0.4704321622848511,
        0.12991483509540558,
        -0.09315306693315506
      ],
      [
        -0.28951454162597656,
        -0.07006681710481644,
        0.14467690885066986,
        -0.1034875214099884,
        0.2547556459903717,
        0.127573162317276,
        -0.19333672523498535,
        0.5042967796325684,
        0.05165732651948929,
        -0.14429359138011932,
        0.16099318861961365,
        -0.12456263601779938,
        -0.39670658111572266,
        0.02728067897260189,
        -0.36357587575912476,
        0.4275248646736145,
        -0.020354431122541428,
        0.039602864533662796,
        0.2006009966135025,
        -0.265414834022522,
        -0.07654469460248947,
        0.009270718321204185,
        -0.24828116595745087,
        -0.1521439105272293
      ],
      [
        -0.1819210648536682,
        -0.1315121352672577,
        -0.11769251525402069,
        -0.1960117071866989,
        -0.08204096555709839,
        -0.08801242709159851,
        0.10520844906568527,
        0.19732730090618134,
        -0.06095190718770027,
        0.19193941354751587,
        0.06169278919696808,
        0.37718191742897034,
        0.10739341378211975,
        -0.11792155355215073,
        -0.00981120578944683,
        -0.37992823123931885,
        0.11372202634811401,
        0.16995832324028015,
        -0.19543097913265228,
        -0.19547806680202484,
        0.12734146416187286,
        0.2634621560573578,
        -0.04103522747755051,
        -0.23544636368751526
      ],
      [
        -0.08389778435230255,
        -0.13000649213790894,
        -0.09634595364332199,
        0.1384401023387909,
        0.3249127268791199,
        -0.18476495146751404,
        0.07158471643924713,
        -0.17736299335956573,
        0.0387386754155159,
        0.22059179842472076,
        -0.20057940483093262,
        -0.1660732477903366,
        -0.2336166650056839,
        0.5268545150756836,
        0.04918035864830017,
        -0.0181107334792614,
        0.13006450235843658,
        -0.06466146558523178,
        0.31408002972602844,
        0.4044683873653412,
        -0.3072322607040405,
        -0.07325565814971924,
        -0.1548541784286499,
        -0.07374519854784012
      ],
      [
        0.20888979732990265,
        -0.02943277731537819,
        -0.044214848428964615,
        -0.3686031401157379,
        0.018154950812458992,
        -0.12938660383224487,
        0.02963639236986637,
        -0.25180742144584656,
        0.11843080818653107,
        0.035659246146678925,
        0.5497226715087891,
        -0.1252393275499344,
        0.0990137904882431,
        0.01614544726908207,
        -0.1494278460741043,
        0.1823394000530243,
        -0.034404393285512924,
        0.07373040169477463,
        0.29130619764328003,
        0.310259610414505,
        0.025480279698967934,
        -0.23165392875671387,
        -0.33149462938308716,
        -0.06686792522668839
      ],
      [
        -0.21229451894760132,
        0.2078484445810318,
        -0.22757825255393982,
        0.018755456432700157,
        0.2277069240808487,
        -0.00015267357230186462,
        0.11067546159029007,
        -0.3609571158885956,
        -0.052766937762498856,
        -0.09034392237663269,
        -0.19724154472351074,
        -0.22045178711414337,
        -0.020623829215765,
        -0.03411959856748581,
        0.11368563771247864,
        0.32672467827796936,
        -0.1257566213607788,
        0.317900687456131,
        -0.5250369310379028,
        0.14399556815624237,
        -0.11684286594390869,
        0.08085349947214127,
        -0.23942390084266663,
        0.4978453516960144
      ],
      [
        0.10022945702075958,
        -0.03732949122786522,
        0.26575717329978943,
        -0.05979730561375618,
        0.22074227035045624,
        -0.19834038615226746,
        -0.2030453085899353,
        0.3830442428588867,
        0.09749040752649307,
        -0.12271793931722641,
        -0.10529552400112152,
        0.32510101795196533,
        -0.1479971706867218,
        -0.6831932663917542,
        -0.14329516887664795,
        -0.09570129215717316,
        0.20672480762004852,
        -0.12236153334379196,
        -0.11413128674030304,
        -0.12292859703302383,
        -0.09941086173057556,
        0.6161461472511292,
        0.14971135556697845,
        -0.2618216574192047
      ],
      [
        -0.005993380676954985,
        0.04079875722527504,
        0.22596830129623413,
        -0.28690850734710693,
        -0.33442384004592896,
        0.008488118648529053,
        -0.11107151210308075,
        0.040591876953840256,
        0.08251094073057175,
        0.2625959515571594,
        -0.18969611823558807,
        0.05422716587781906,
        -0.09453050047159195,
        -0.2192978411912918,
        -0.11383160203695297,
        0.38412347435951233,
        0.004372234921902418,
        -0.26920589804649353,
        0.10257842391729355,
        0.1253679096698761,
        -0.09062428027391434,
        0.1521548181772232,
        -0.2794452905654907,
        0.09881525486707687
      ],
      [
        -0.025552455335855484,
        0.01277924608439207,
        0.15000155568122864,
        -0.02992345206439495,
        -0.18394404649734497,
        0.33040279150009155,
        0.0533771738409996,
        -0.11225056648254395,
        -0.0072423359379172325,
        -0.1786452978849411,
        0.20683561265468597,
        0.0782690942287445,
        -0.48900189995765686,
        -0.0576348602771759,
        -0.2260972410440445,
        0.3194095492362976,
        -0.027782343327999115,
        0.01855843886733055,
        -0.13577397167682648,
        0.24138487875461578,
        0.32059329748153687,
        -0.24978403747081757,
        0.10229694843292236,
        0.14129702746868134
      ],
      [
        0.08910147845745087,
        -0.4480655789375305,
        -0.3166935443878174,
        -0.10413751751184464,
        0.3869728744029999,
        -0.12163739651441574,
        -0.026288125663995743,
        -0.04977734014391899,
        0.11501596868038177,
        -0.13483446836471558,
        0.0366983599960804,
        -0.043778374791145325,
        0.0326664075255394,
        -0.04659878835082054,
        0.20387935638427734,
        -0.26390108466148376,
        -0.09449026733636856,
        -0.04731334000825882,
        -0.029731636866927147,
        -0.2233998328447342,
        0.2223813533782959,
        -0.063377246260643,
        0.18291279673576355,
        0.0045236861333251
      ],
      [
        0.10457547008991241,
        0.3575652539730072,
        -0.246605783700943,
        0.41848036646842957,
        0.33763405680656433,
        -0.1616368442773819,
        -0.0357792004942894,
        0.09454472362995148,
        -0.4790768027305603,
        0.01851527765393257,
        -0.18758471310138702,
        0.20499785244464874,
        -0.14080798625946045,
        -0.45659035444259644,
        0.08017662167549133,
        0.1684149205684662,
        -0.13001254200935364,
        -0.15650656819343567,
        0.007735121063888073,
        -0.09117447584867477,
        -0.12501254677772522,
        0.1067868247628212,
        -0.18311044573783875,
        0.1349668800830841
      ],
      [
        -0.005615268833935261,
        -0.12121719866991043,
        0.02936261147260666,
        0.03834668919444084,
        0.06774074584245682,
        -0.4024837613105774,
        0.37267664074897766,
        -0.3114871680736542,
        0.20823907852172852,
        -0.07490599900484085,
        0.18669229745864868,
        -0.10082338005304337,
        0.02328677475452423,
        0.015150326304137707,
        -0.09588836878538132,
        0.2077498883008957,
        0.07541249692440033,
        0.529712975025177,
        -0.07483819872140884,
        0.25971201062202454,
        -0.11297640949487686,
        -0.10882051289081573,
        0.15002505481243134,
        -0.38772159814834595
      ],
      [
        0.08523788303136826,
        -0.10963422060012817,
        0.3887014389038086,
        0.014136964455246925,
        0.5207563638687134,
        0.2177000194787979,
        0.02558063343167305,
        -0.1446874588727951,
        -0.065909244120121,
        -0.05246098339557648,
        0.14012964069843292,
        -0.1274755746126175,
        -0.09262767434120178,
        -0.5126322507858276,
        0.12977448105812073,
        0.01449127309024334,
        0.15435156226158142,
        -0.21765919029712677,
        -0.30034202337265015,
        -0.0057754539884626865,
        -0.020098630338907242,
        -0.6676929593086243,
        -0.0770140215754509,
        0.1040482446551323
      ],
      [
        -0.07307539135217667,
        0.21873553097248077,
        -0.15670664608478546,
        0.0008096708916127682,
        0.14976686239242554,
        -0.048980485647916794,
        -0.26204055547714233,
        -0.05869050696492195,
        -0.28182315826416016,
        0.3585313558578491,
        0.25472959876060486,
        -0.11150647699832916,
        0.18139223754405975,
        0.35105225443840027,
        0.09512154757976532,
        -0.29364943504333496,
        -0.19637137651443481,
        -0.24130433797836304,
        0.11199185252189636,
        0.11006985604763031,
        0.27418097853660583,
        0.055703938007354736,
        0.1579727828502655,
        -0.2178078591823578
      ],
      [
        0.437134325504303,
        -0.25818997621536255,
        0.0055337948724627495,
        0.030767153948545456,
        -0.23844079673290253,
        0.29105257987976074,
        -0.09703023731708527,
        -0.015737859532237053,
        -0.029333733022212982,
        0.27803248167037964,
        0.24220216274261475,
        0.1746658980846405,
        -0.44368553161621094,
        0.138749361038208,
        -0.098605215549469,
        -0.0706293061375618,
        -0.000725208199582994,
        0.062297675758600235,
        0.19335106015205383,
        0.09370578825473785,
        0.0017630234360694885,
        -0.03906368836760521,
        0.06468129903078079,
        -0.22491133213043213
      ],
      [
        0.2858242988586426,
        0.03521547093987465,
        0.15089868009090424,
        -0.23625117540359497,
        0.097236767411232,
        0.22730836272239685,
        -0.0677981898188591,
        -0.05828166380524635,
        -0.21123552322387695,
        -0.2488943338394165,
        0.10837269574403763,
        -0.1250787377357483,
        -0.08399450778961182,
        0.006960486527532339,
        0.09419050812721252,
        -0.474799245595932,
        0.05771958827972412,
        -0.2751061022281647,
        0.3508491814136505,
        -0.2436068058013916,
        0.2639135420322418,
        0.09298586845397949,
        0.22574429214000702,
        0.0716327577829361
      ],
      [
        0.10627786070108414,
        -0.1455739289522171,
        -0.13844020664691925,
        -0.2591642439365387,
        0.05719374120235443,
        0.12287265062332153,
        -0.399953693151474,
        0.00897501315921545,
        -0.15977603197097778,
        0.47535353899002075,
        0.1987917721271515,
        -0.17991098761558533,
        -0.10584448277950287,
        0.02095693349838257,
        0.02049889788031578,
        0.2524937093257904,
        -0.11732174456119537,
        0.09441285580396652,
        0.20666781067848206,
        0.24543580412864685,
        0.16707251965999603,
        0.050237879157066345,
        -0.3895450830459595,
        0.16560792922973633
      ],
      [
        -0.14229318499565125,
        0.10262126475572586,
        0.21716585755348206,
        -0.3609176576137543,
        0.10760492086410522,
        0.1001107394695282,
        0.20196694135665894,
        -0.19762022793293,
        0.009462314657866955,
        -0.18049973249435425,
        -0.3317728638648987,
        0.06322447955608368,
        0.00041303978650830686,
        0.3139232099056244,
        -0.09069786220788956,
        -0.004757856950163841,
        0.22122807800769806,
        0.2672303020954132,
        -0.032561302185058594,
        -0.2549414038658142,
        0.3200579285621643,
        0.2457011640071869,
        0.03691835701465607,
        -0.18346671760082245
      ]
    ],
    "att.W_value.bias": null,
    "att.out_proj.weight": [
      [
        -0.0249699167907238,
        0.12948930263519287,
        -0.02334020659327507,
        -0.028829142451286316,
        -0.2236049324274063,
        0.09348021447658539,
        0.2259025126695633,
        -0.24681195616722107,
        0.03650366887450218,
        -0.0888286605477333,
        -0.17854280769824982,
        -0.25996172428131104,
        -0.23841215670108795,
        0.11298912018537521,
        0.27250349521636963,
        0.03655383735895157,
        -0.2699597477912903,
        -0.12898461520671844,
        -0.00869228970259428,
        0.011476566083729267,
        0.052459023892879486,
        -0.09013628214597702,
        0.03932898864150047,
        -0.010398682206869125
      ],
      [
        0.09755652397871017,
        0.41351503133773804,
        0.4434998631477356,
        0.14667391777038574,
        0.3616267740726471,
        -0.431292325258255,
        0.06249288097023964,
        0.1278069019317627,
        0.2641398012638092,
        0.12552332878112793,
        -0.04320226237177849,
        0.09549577534198761,
        0.46745404601097107,
        0.38811397552490234,
        0.220899298787117,
        0.010276715271174908,
        -0.08513931930065155,
        0.17506757378578186,
        0.30286553502082825,
        0.028891626745462418,
        0.2554571032524109,
        -0.09098608791828156,
        0.1958717405796051,
        -0.1492607146501541
      ],
      [
        -0.294217973947525,
        -0.18117281794548035,
        -0.47298726439476013,
        0.3034651279449463,
        -0.008001566864550114,
        0.2528383731842041,
        0.09513910859823227,
        0.04013671353459358,
        -0.02166503481566906,
        0.07165757566690445,
        0.16054247319698334,
        -0.09807523339986801,
        -0.46309709548950195,
        -0.038620561361312866,
        0.1691250056028366,
        -0.05451616272330284,
        -0.32789742946624756,
        0.24324333667755127,
        -0.1135079562664032,
        -0.24110741913318634,
        0.16194084286689758,
        -0.059109222143888474,
        0.007637498434633017,
        -0.07367903739213943
      ],
      [
        -0.14482755959033966,
        0.03640264645218849,
        0.12424232810735703,
        0.2705053985118866,
        -0.16032713651657104,
        -0.3681395947933197,
        -0.04331892728805542,
        -0.19330476224422455,
        0.06656264513731003,
        0.04805733636021614,
        -0.020643731579184532,
        0.08721572905778885,
        0.0326852947473526,
        0.2119721919298172,
        -0.045935846865177155,
        -0.08758795261383057,
        -0.002858051098883152,
        -0.34130290150642395,
        -0.16787169873714447,
        0.08252793550491333,
        -0.07750432938337326,
        0.20016619563102722,
        -0.07890058308839798,
        0.03800249472260475
      ],
      [
        0.2123769223690033,
        0.17681816220283508,
        0.17645548284053802,
        0.2174626886844635,
        -0.30496397614479065,
        -0.19399529695510864,
        -0.03303670138120651,
        0.3398496210575104,
        -0.10805046558380127,
        -0.24442823231220245,
        -0.2046053260564804,
        0.15948332846164703,
        0.3667108118534088,
        -0.06264225393533707,
        -0.017526749521493912,
        -0.23850077390670776,
        -0.24837058782577515,
        0.14094039797782898,
        0.23956023156642914,
        -0.3567808270454407,
        -0.2652990221977234,
        -0.08854204416275024,
        -0.5782521963119507,
        0.21554923057556152
      ],
      [
        -0.3440098762512207,
        -0.3075622022151947,
        0.09342062473297119,
        0.23337909579277039,
        -0.3231278657913208,
        0.1786162555217743,
        0.25084254145622253,
        -0.13558603823184967,
        -0.046155862510204315,
        -0.2243041694164276,
        0.23248746991157532,
        0.03716835752129555,
        -0.20187115669250488,
        0.3672161102294922,
        -0.2772110402584076,
        0.1403292566537857,
        0.08834142237901688,
        -0.16247305274009705,
        -0.35649433732032776,
        -0.15069787204265594,
        0.017039131373167038,
        -0.38109561800956726,
        0.4205697178840637,
        -0.3138943612575531
      ],
      [
        0.14134813845157623,
        0.06325149536132812,
        -0.05044388771057129,
        -0.01691567339003086,
        0.11943721771240234,
        -0.13849429786205292,
        0.148695170879364,
        -0.14365684986114502,
        0.35045701265335083,
        -0.19660842418670654,
        0.1827968955039978,
        -0.09956502914428711,
        0.1073705330491066,
        0.26571521162986755,
        -0.02543233521282673,
        -0.2945020794868469,
        0.3101964592933655,
        -0.5641706585884094,
        0.1461205929517746,
        -0.06517593562602997,
        -0.1958368867635727,
        0.1669832020998001,
        -0.08786076307296753,
        -0.07016849517822266
      ],
      [
        -0.1252231001853943,
        0.027500463649630547,
        0.0723055973649025,
        -0.09135016798973083,
        -0.3159054219722748,
        -0.25704559683799744,
        -0.44293704628944397,
        0.20456229150295258,
        -0.19235193729400635,
        0.3325095772743225,
        0.151356503367424,
        -0.029363170266151428,
        0.044931307435035706,
        -0.006427399348467588,
        -0.2167624682188034,
        0.178566113114357,
        -0.15446212887763977,
        0.13857059180736542,
        0.12373118102550507,
        -0.22125156223773956,
        -0.08410833775997162,
        0.08695711195468903,
        -0.006956984288990498,
        0.11466707289218903
      ],
      [
        -0.17612968385219574,
        0.21836300194263458,
        0.29355388879776,
        -0.1516350507736206,
        0.46700841188430786,
        -0.007580151781439781,
        0.2105327993631363,
        -0.4206797480583191,
        0.14001040160655975,
        -0.021279288455843925,
        0.014412976801395416,
        0.0691952109336853,
        0.024254098534584045,
        -0.015103830024600029,
        -0.36475059390068054,
        0.09772764146327972,
        -0.008063390851020813,
        -0.24242989718914032,
        -0.24582791328430176,
        0.3539324104785919,
        -0.2376517355442047,
        0.12979161739349365,
        0.19735467433929443,
        -0.28028160333633423
      ],
      [
        0.09707174450159073,
        0.01523661706596613,
        -0.009200084023177624,
        -0.05450774356722832,
        -0.170552596449852,
        0.1799149215221405,
        -0.04129834473133087,
        -0.16094116866588593,
        0.10178256034851074,
        0.05865633115172386,
        -0.26128989458084106,
        0.03777004033327103,
        0.13712391257286072,
        0.1703370064496994,
        -0.1337798684835434,
        -0.2782650291919708,
        0.4250798523426056,
        0.1492397040128708,
        0.29502448439598083,
        -0.184892937541008,
        0.1669154018163681,
        -0.12390431016683578,
        0.08378827571868896,
        -0.20275989174842834
      ],
      [
        -0.07789541780948639,
        -0.016432933509349823,
        -0.25898730754852295,
        0.09893639385700226,
        0.1546098291873932,
        -0.40747278928756714,
        -0.1360243707895279,
        -0.10165330767631531,
        0.00038930168375372887,
        -0.01022707112133503,
        -0.14377765357494354,
        0.14560234546661377,
        0.23031823337078094,
        -0.0411781370639801,
        0.02775835245847702,
        0.046485189348459244,
        -0.02718583308160305,
        0.13144294917583466,
        -0.4954838752746582,
        -0.0846414864063263,
        0.32769906520843506,
        0.0645744800567627,
        -0.15221546590328217,
        0.03196509927511215
      ],
      [
        0.10335169732570648,
        0.5038316249847412,
        -0.20140467584133148,
        -0.3823406994342804,
        -0.25626981258392334,
        -0.029545770958065987,
        -0.3024708330631256,
        -0.1216650977730751,
        -0.10392279922962189,
        0.38133731484413147,
        -0.21392595767974854,
        0.1415930837392807,
        -0.2679402232170105,
        -0.22620245814323425,
        -0.20485840737819672,
        0.11850212514400482,
        -0.05058436468243599,
        0.2920912504196167,
        -0.002655985066667199,
        0.21011130511760712,
        -0.3411962389945984,
        -0.3156818449497223,
        -0.2103908360004425,
        0.06359405070543289
      ],
      [
        -0.042690254747867584,
        -0.1530984491109848,
        0.12135671824216843,
        -0.1704443246126175,
        0.005999322514981031,
        0.030670637264847755,
        -0.037766508758068085,
        0.1041172593832016,
        -0.06053249165415764,
        -0.012385939247906208,
        -0.22477462887763977,
        -0.10295715183019638,
        0.1126665472984314,
        0.08724161982536316,
        -0.011696103028953075,
        -0.16232988238334656,
        -0.10757985711097717,
        -0.0021021394059062004,
        0.11102969199419022,
        0.21089276671409607,
        0.23327849805355072,
        0.04322964698076248,
        0.27154234051704407,
        0.13862378895282745
      ],
      [
        0.42432764172554016,
        -0.26374539732933044,
        0.2781081795692444,
        -0.0872177928686142,
        0.21291743218898773,
        0.20853711664676666,
        -0.005756250582635403,
        0.44599610567092896,
        0.059187550097703934,
        0.22090120613574982,
        -0.11369907110929489,
        -0.15301580727100372,
        -0.2017095535993576,
        -0.11855988204479218,
        -0.2502976357936859,
        0.13355650007724762,
        -0.026168664917349815,
        -0.3928090035915375,
        -0.16897223889827728,
        0.2791883647441864,
        0.18474029004573822,
        0.4525233805179596,
        0.17010903358459473,
        0.021518833935260773
      ],
      [
        0.154382586479187,
        0.07429519295692444,
        -0.3000389039516449,
        -0.2839035987854004,
        0.3815256953239441,
        0.17732395231723785,
        0.6091247797012329,
        0.2557777762413025,
        0.1370806097984314,
        -0.24562661349773407,
        0.256830632686615,
        -0.11784915626049042,
        -0.19729174673557281,
        -0.3069632947444916,
        -0.09111831337213516,
        0.3178615868091583,
        0.4500831961631775,
        -0.10298064351081848,
        0.47970470786094666,
        0.36074647307395935,
        -0.4245818555355072,
        0.35382699966430664,
        0.14062388241291046,
        0.3673466444015503
      ],
      [
        0.20137935876846313,
        -0.4747648239135742,
        -0.23882079124450684,
        -0.34029099345207214,
        0.02258218824863434,
        0.3043014705181122,
        0.09076903760433197,
        -0.10503392666578293,
        0.1922147125005722,
        -0.022932734340429306,
        -0.07962141185998917,
        0.30115899443626404,
        -0.0761885866522789,
        -0.053831446915864944,
        -0.023607900366187096,
        -0.21962101757526398,
        0.03391795977950096,
        0.15644682943820953,
        -0.14231351017951965,
        -0.09828843176364899,
        0.05174422636628151,
        -0.43676409125328064,
        -0.05490945279598236,
        0.09781135618686676
      ],
      [
        -0.16723290085792542,
        -0.17494438588619232,
        0.25976064801216125,
        0.13875393569469452,
        -0.1060950830578804,
        0.06941822916269302,
        -0.29449671506881714,
        -0.43906593322753906,
        -0.007096919231116772,
        -0.13273179531097412,
        0.3277040123939514,
        0.22987699508666992,
        -0.1007034033536911,
        -0.06510600447654724,
        -0.16326022148132324,
        0.11866092681884766,
        -0.0513443760573864,
        -0.06821275502443314,
        0.09379851073026657,
        -0.0644184798002243,
        -0.01910121738910675,
        -0.14742058515548706,
        -0.19816580414772034,
        0.05082143470644951
      ],
      [
        -0.37646228075027466,
        -0.04892492666840553,
        0.23858603835105896,
        0.37832388281822205,
        0.3579976558685303,
        -0.1252048909664154,
        -0.03545701503753662,
        0.11741085350513458,
        -0.3707710802555084,
        -0.20232334733009338,
        -0.11053992062807083,
        0.19124050438404083,
        0.0850270688533783,
        -0.2130356729030609,
        0.07471873611211777,
        -0.05882950499653816,
        0.44610753655433655,
        0.1617739498615265,
        -0.264018177986145,
        0.05848630517721176,
        -0.2236514389514923,
        -0.169045552611351,
        -0.16326729953289032,
        -0.2590973675251007
      ],
      [
        -0.05160374939441681,
        0.02541065216064453,
        -0.11166079342365265,
        -0.14845725893974304,
        -0.007210829760879278,
        0.02192988060414791,
        0.008867754600942135,
        0.34295278787612915,
        -0.06997060775756836,
        0.02788245864212513,
        0.33181431889533997,
        0.3516862988471985,
        0.37653395533561707,
        0.10647998750209808,
        0.08287663757801056,
        0.11495146155357361,
        0.1473398208618164,
        -0.09595584124326706,
        0.17218412458896637,
        -0.39538896083831787,
        -0.11503465473651886,
        0.026194263249635696,
        -0.05873745679855347,
        0.13688458502292633
      ],
      [
        -0.14905400574207306,
        -0.16407810151576996,
        0.14924125373363495,
        -0.06296943128108978,
        -0.3651408553123474,
        0.25935396552085876,
        0.07268252223730087,
        0.15064053237438202,
        0.2825548052787781,
        -0.2943839728832245,
        -0.20189325511455536,
        0.010856925509870052,
        0.028214847669005394,
        0.1929100751876831,
        -0.00047638220712542534,
        -0.17191165685653687,
        0.07101786881685257,
        0.06138528883457184,
        0.04127957299351692,
        0.02075374685227871,
        -0.22825267910957336,
        -0.29892945289611816,
        0.11641564965248108,
        -0.13969635963439941
      ],
      [
        -0.49804970622062683,
        -0.13344192504882812,
        -0.04862091690301895,
        0.06978696584701538,
        -0.0999007299542427,
        0.2985374629497528,
        0.10125061124563217,
        -0.14765764772891998,
        0.14800132811069489,
        -0.04604369029402733,
        -0.25232037901878357,
        -0.2186034470796585,
        0.12164553999900818,
        0.029603183269500732,
        0.13250821828842163,
        -0.008794176392257214,
        -0.35756587982177734,
        -0.06964090466499329,
        0.0318816676735878,
        -0.09695696085691452,
        -0.14300352334976196,
        0.10807851701974869,
        -0.1732107251882553,
        0.05676990747451782
      ],
      [
        0.08493292331695557,
        -0.011057990603148937,
        -0.27738156914711,
        -0.2550063729286194,
        0.19411000609397888,
        -0.040507953613996506,
        -0.4025401473045349,
        0.11458278447389603,
        -0.09895142912864685,
        0.2557835280895233,
        0.23404178023338318,
        0.21102100610733032,
        -0.45591118931770325,
        0.14938321709632874,
        0.5494028925895691,
        -0.2619960904121399,
        0.08103043586015701,
        -0.07990315556526184,
        -0.07052440196275711,
        0.0816652923822403,
        0.005003778263926506,
        0.1756456047296524,
        0.16580738127231598,
        0.3507104218006134
      ],
      [
        0.13619258999824524,
        -0.24450702965259552,
        -0.20089568197727203,
        -0.057458873838186264,
        -0.23538687825202942,
        -0.11089257150888443,
        -0.11420119553804398,
        -0.0140422023832798,
        -0.03308092802762985,
        -0.2574956715106964,
        0.3450486958026886,
        -0.526877760887146,
        0.003288881853222847,
        -0.303482323884964,
        0.3249903619289398,
        0.36224091053009033,
        -0.07888972014188766,
        0.06354359537363052,
        0.5802794694900513,
        -0.009295187890529633,
        0.06312186270952225,
        0.15534113347530365,
        -0.15008659660816193,
        -0.3091276288032532
      ],
      [
        -0.3004484474658966,
        0.02352815866470337,
        -0.07536609470844269,
        0.2026364952325821,
        0.17798371613025665,
        -0.22239795327186584,
        0.136294886469841,
        0.11459321528673172,
        0.10252492129802704,
        0.2944987416267395,
        0.1798030138015747,
        -0.4054398834705353,
        -0.00010147455031983554,
        -0.04216163232922554,
        -0.02406288869678974,
        -0.05628286302089691,
        -0.14475391805171967,
        0.2946142256259918,
        -0.17592743039131165,
        0.032431814819574356,
        -0.08503495156764984,
        0.020007260143756866,
        -0.18773046135902405,
        0.22967101633548737
      ]
    ],
    "att.out_proj.bias": [
      -0.07421426475048065,
      -0.05899098142981529,
      0.0785028487443924,
      0.283988356590271,
      0.1780736744403839,
      -0.00047742784954607487,
      0.036621615290641785,
      -0.019490594044327736,
      -0.12377873063087463,
      0.06147865951061249,
      0.18227730691432953,
      0.04313640296459198,
      0.07999423891305923,
      -0.09271751344203949,
      -0.23214782774448395,
      -0.08909997344017029,
      0.029497969895601273,
      0.10198245942592621,
      -0.03177261725068092,
      -0.010911282151937485,
      0.013945583254098892,
      -0.0646568238735199,
      0.0946829542517662,
      -0.04147918149828911
    ],
    "norm1.scale": [
      0.6886931657791138,
      0.6593576669692993,
      0.8850390911102295,
      0.687326967716217,
      0.8530387282371521,
      0.5768152475357056,
      0.6975756883621216,
      0.6486700177192688,
      0.5659801959991455,
      0.7832922339439392,
      0.7246819734573364,
      0.7293343544006348,
      0.8384262919425964,
      0.9513665437698364,
      0.6145471334457397,
      0.9908841252326965,
      0.762281596660614,
      0.611641526222229,
      0.7323821783065796,
      0.7931441068649292,
      0.6588994264602661,
      0.7676914930343628,
      0.835877001285553,
      0.7261946797370911
    ],
    "norm1.shift": [
      -0.2011292725801468,
      -0.022234994918107986,
      -0.09549728035926819,
      -0.12789197266101837,
      0.15169264376163483,
      0.17307883501052856,
      0.1783866286277771,
      -0.010169180110096931,
      0.1499025672674179,
      -0.09573059529066086,
      -0.06716892868280411,
      0.09189782291650772,
      -0.004402447957545519,
      0.013351359404623508,
      0.07247857749462128,
      -0.03059685416519642,
      -0.2584402561187744,
      -0.19954778254032135,
      0.09730550646781921,
      0.06540506333112717,
      0.021544482558965683,
      0.2583085298538208,
      -0.15988636016845703,
      -0.04349156841635704
    ],
    "norm2.scale": [
      0.8271684050559998,
      0.6799346804618835,
      0.7731804847717285,
      0.7980159521102905,
      0.7670180201530457,
      0.7098149657249451,
      0.6643869280815125,
      0.8613518476486206,
      0.7064141035079956,
      0.6917791962623596,
      0.8654088377952576,
      0.9303979873657227,
      0.914217472076416,
      0.8399812579154968,
      0.7384292483329773,
      0.8504163026809692,
      0.7984685897827148,
      0.8705213665962219,
      0.7715358138084412,
      0.8545666933059692,
      0.7639737725257874,
      0.6934340000152588,
      0.8278658986091614,
      0.8243203163146973
    ],
    "norm2.shift": [
      0.16381166875362396,
      -0.16156896948814392,
      0.11820098012685776,
      0.09397803992033005,
      0.06670262664556503,
      -0.05792481079697609,
      -0.22867022454738617,
      -0.1896015703678131,
      -0.09593100845813751,
      0.13463400304317474,
      0.25870028138160706,
      -0.10636063665151596,
      0.006129097659140825,
      0.1165316253900528,
      -0.11572261899709702,
      -0.037651557475328445,
      -0.174729585647583,
      0.16605187952518463,
      -0.265585333108902,
      0.12354571372270584,
      0.050956591963768005,
      0.12567642331123352,
      0.45430970191955566,
      -0.39044123888015747
    ],
    "ff.lin1.weight": [
      [
        0.41627001762390137,
        -0.005468939896672964,
        -0.44461286067962646,
        0.1845489740371704,
        0.03337986394762993,
        -0.1336902678012848,
        0.19537095725536346,
        -0.11215882003307343,
        -0.12006782740354538,
        -0.10525558888912201,
        -0.10219449549913406,
        0.029650282114744186,
        -0.16341811418533325,
        0.16533084213733673,
        -0.15718403458595276,
        -0.023888003081083298,
        0.33395829796791077,
        -0.21646560728549957,
        0.10703445225954056,
        0.2836652100086212,
        -0.04442596063017845,
        -0.030738674104213715,
        -0.1708718240261078,
        -0.050173383206129074
      ],
      [
        -0.1301163136959076,
        0.03192039951682091,
        -0.3083626925945282,
        -0.27008041739463806,
        -0.16920845210552216,
        -0.11023897677659988,
        -0.28505510091781616,
        0.21418707072734833,
        0.41047799587249756,
        0.03390546888113022,
        -0.18093916773796082,
        0.14595738053321838,
        0.03605967015028,
        0.2338939905166626,
        0.34843146800994873,
        -0.057842619717121124,
        -0.14611908793449402,
        0.01674378104507923,
        -0.28635525703430176,
        -0.2727268636226654,
        0.2611854672431946,
        0.1259050816297531,
        -0.559445321559906,
        0.31747761368751526
      ],
      [
        -0.42031130194664,
        0.03223256394267082,
        -0.26600000262260437,
        0.32550662755966187,
        -0.20011571049690247,
        -0.2558214068412781,
        -0.14838026463985443,
        0.27111655473709106,
        0.42075422406196594,
        -0.056600622832775116,
        -0.7223263382911682,
        0.19951540231704712,
        -0.437954306602478,
        -0.2285427749156952,
        0.3719978928565979,
        -0.1581941395998001,
        -0.13278543949127197,
        0.08233886957168579,
        0.27932000160217285,
        0.1694241762161255,
        0.39426976442337036,
        0.323477178812027,
        -0.16804496943950653,
        -0.03174663707613945
      ],
      [
        -0.06865169107913971,
        0.3918479084968567,
        0.0972781702876091,
        -0.3430973291397095,
        -0.33254483342170715,
        0.20828919112682343,
        0.12280850112438202,
        -0.25694793462753296,
        0.062364790588617325,
        -0.09688806533813477,
        0.18607904016971588,
        0.1219242587685585,
        -0.08644533902406693,
        -0.2956317067146301,
        -0.05688464641571045,
        0.1497037261724472,
        0.03183598443865776,
        -0.3271229565143585,
        -0.06493940204381943,
        0.4103996157646179,
        -0.028373168781399727,
        -0.06618878990411758,
        -0.018561357632279396,
        -0.26167139410972595
      ],
      [
        -0.09946726262569427,
        -0.017209580168128014,
        0.2291715145111084,
        -0.010226327925920486,
        0.13498227298259735,
        0.5551783442497253,
        0.2456367462873459,
        0.21592530608177185,
        0.1023402065038681,
        -0.28481054306030273,
        -0.049460187554359436,
        0.0872940793633461,
        -0.2328641563653946,
        -0.623645007610321,
        -0.14204473793506622,
        -0.042842477560043335,
        0.28389042615890503,
        0.29759711027145386,
        0.1499825417995453,
        0.07949987053871155,
        0.05353651940822601,
        -0.05409486964344978,
        -0.4373246133327484,
        0.17520847916603088
      ],
      [
        -0.09613309055566788,
        0.03257253021001816,
        -0.08368931710720062,
        -0.07769983261823654,
        0.2656334340572357,
        -0.11758392304182053,
        0.29377299547195435,
        0.7068548798561096,
        0.5264914035797119,
        0.18216490745544434,
        -0.2867632806301117,
        -0.2589794993400574,
        0.10918977111577988,
        -0.046986062079668045,
        0.08849669992923737,
        0.1974574625492096,
        -0.057441309094429016,
        0.07046189904212952,
        0.08451361954212189,
        -0.2802903652191162,
        -0.05839525908231735,
        -0.5053122639656067,
        -0.21655309200286865,
        0.11813850700855255
      ],
      [
        0.1858951300382614,
        0.20615506172180176,
        0.03182986378669739,
        0.013359636068344116,
        0.22705326974391937,
        0.14386701583862305,
        0.02753048576414585,
        -0.2709386944770813,
        -0.09803793579339981,
        0.19055411219596863,
        -0.5280869603157043,
        0.1354147344827652,
        0.4484141767024994,
        -0.031830012798309326,
        -0.054226379841566086,
        0.10159696638584137,
        -0.14645637571811676,
        -0.18302787840366364,
        0.3276924192905426,
        -0.2698744833469391,
        0.17262306809425354,
        -0.08879180997610092,
        -0.19594106078147888,
        -0.09127851575613022
      ],
      [
        -0.028568703681230545,
        -0.024870963767170906,
        -0.05104389414191246,
        -0.22039225697517395,
        -0.39832401275634766,
        -0.007244591601192951,
        0.45556744933128357,
        0.11820096522569656,
        -0.20206347107887268,
        -0.3753930926322937,
        -0.4618588984012604,
        0.2281094789505005,
        0.08171220123767853,
        0.18404316902160645,
        0.16855096817016602,
        0.10067211836576462,
        0.3211258053779602,
        -0.14768728613853455,
        0.02633044496178627,
        0.2696921229362488,
        0.08471988886594772,
        -0.14254775643348694,
        -0.07764766365289688,
        0.10211779177188873
      ],
      [
        0.26178261637687683,
        -0.15728236734867096,
        -0.13281850516796112,
        0.0510089211165905,
        -0.20113645493984222,
        -0.11751659214496613,
        -0.1679052710533142,
        0.13558685779571533,
        0.1884554624557495,
        -0.027817556634545326,
        0.014453067444264889,
        0.3027292788028717,
        -0.10526113957166672,
        -0.43490976095199585,
        0.08153019845485687,
        0.07215570658445358,
        0.3220035135746002,
        -0.08479190617799759,
        0.7378677129745483,
        -0.10121265798807144,
        -0.12747009098529816,
        -0.17231664061546326,
        -0.21460573375225067,
        -0.08348049223423004
      ],
      [
        0.1850503832101822,
        -0.2028694748878479,
        -0.14222492277622223,
        -0.04326477646827698,
        0.15756238996982574,
        -0.3973044455051422,
        0.09334180504083633,
        -0.06036609411239624,
        0.3705771267414093,
        0.004071325529366732,
        -0.2921788692474365,
        0.2506810426712036,
        -0.1835106462240219,
        -0.5110213160514832,
        0.12044323235750198,
        0.2218669056892395,
        -0.053567126393318176,
        0.15752072632312775,
        0.20337823033332825,
        0.018961116671562195,
        0.2732689082622528,
        -0.07249095290899277,
        -0.3982229232788086,
        0.14699682593345642
      ],
      [
        0.08179722726345062,
        0.0034727605525404215,
        -0.1693461686372757,
        -0.28789934515953064,
        0.1938730627298355,
        0.2253062129020691,
        0.3455001711845398,
        0.36820775270462036,
        0.004752584267407656,
        0.08513758331537247,
        -0.5945392847061157,
        0.356476753950119,
        0.21820586919784546,
        -0.020108139142394066,
        -0.424504816532135,
        0.5492686033248901,
        0.4468870460987091,
        0.08392772078514099,
        0.0959741473197937,
        -0.17914022505283356,
        -0.6821562647819519,
        -0.0738862007856369,
        -0.00196163821965456,
        -0.08800891041755676
      ],
      [
        0.3652673065662384,
        0.1870425045490265,
        -0.14825476706027985,
        -0.18383243680000305,
        -0.2775142788887024,
        0.14780151844024658,
        -0.12233249098062515,
        0.2526017725467682,
        0.014034499414265156,
        -0.26939401030540466,
        -0.10731387883424759,
        0.1287054568529129,
        -0.15478889644145966,
        -0.4106962978839874,
        0.2710321843624115,
        0.08836136758327484,
        -0.025353729724884033,
        0.45895135402679443,
        0.20683631300926208,
        0.24319636821746826,
        -0.3938523530960083,
        -0.3373754918575287,
        0.024758223444223404,
        -0.1185275986790657
      ],
      [
        -0.1825028508901596,
        -0.18793007731437683,
        0.12753379344940186,
        0.12667587399482727,
        0.3980397880077362,
        -0.08538296818733215,
        0.2195400446653366,
        -0.19792255759239197,
        -0.003455827943980694,
        0.1903700977563858,
        0.20831868052482605,
        0.14535662531852722,
        0.0652812123298645,
        -0.18919499218463898,
        -0.0409359447658062,
        0.260265588760376,
        -0.08272205293178558,
        -0.4531281590461731,
        -0.27465298771858215,
        0.1259240210056305,
        0.05752618610858917,
        -0.5479552149772644,
        -0.2713303565979004,
        0.03895973041653633
      ],
      [
        0.08700238913297653,
        0.12531109154224396,
        -0.30493056774139404,
        -0.1286681592464447,
        -0.04046458378434181,
        0.1997329592704773,
        -0.15426665544509888,
        0.32007503509521484,
        -0.2502664029598236,
        -0.07540719211101532,
        0.0942039042711258,
        0.2713690400123596,
        0.2305891215801239,
        -0.0890958309173584,
        0.24706831574440002,
        -0.5528706312179565,
        0.2074638307094574,
        0.0698668509721756,
        -0.04430447891354561,
        -0.3302571773529053,
        0.15146814286708832,
        0.1378507912158966,
        -0.35007986426353455,
        -0.0054727597162127495
      ],
      [
        0.05773642659187317,
        -0.3469078242778778,
        -0.07497034966945648,
        0.20251403748989105,
        0.2760777771472931,
        -0.2600398361682892,
        0.004904420115053654,
        0.7386611700057983,
        0.08914414048194885,
        -0.1736496239900589,
        -0.05257923901081085,
        -0.10204196721315384,
        -0.18556684255599976,
        0.29223528504371643,
        -0.20341797173023224,
        0.4037928581237793,
        -0.0705752894282341,
        -0.3216293454170227,
        0.3725414574146271,
        -0.33811020851135254,
        -0.12883105874061584,
        0.14728392660617828,
        -0.44618213176727295,
        0.08120699226856232
      ],
      [
        0.04370468109846115,
        -0.10647836327552795,
        -0.17335227131843567,
        -0.09630134701728821,
        -0.3822893500328064,
        0.299930602312088,
        -0.25323668122291565,
        -0.04105057567358017,
        0.16517221927642822,
        -0.10368231683969498,
        -0.011358741670846939,
        -0.009790604934096336,
        -0.10692858695983887,
        0.0253408495336771,
        0.2862916588783264,
        0.39216530323028564,
        -0.16600652039051056,
        -0.2177141159772873,
        0.14033915102481842,
        -0.13663341104984283,
        0.3987012505531311,
        -0.06942811608314514,
        -0.13265541195869446,
        0.494055837392807
      ],
      [
        0.39621779322624207,
        0.12272419780492783,
        0.1773395538330078,
        -0.28260350227355957,
        -0.3788222074508667,
        0.15290138125419617,
        -0.012443413957953453,
        -0.23468239605426788,
        0.1615867167711258,
        -0.2253171056509018,
        -0.2562570869922638,
        0.15407922863960266,
        0.08627612888813019,
        -0.41073623299598694,
        -0.21652936935424805,
        -0.2457229048013687,
        0.2629254162311554,
        0.2591549754142761,
        0.3456536531448364,
        0.1446285992860794,
        -0.1228412464261055,
        0.11836200952529907,
        -0.32012808322906494,
        0.18445420265197754
      ],
      [
        -0.25758495926856995,
        -0.15549953281879425,
        -0.0037181912921369076,
        -0.05588121339678764,
        0.06167979910969734,
        -0.08280906826257706,
        0.08527767658233643,
        -0.07633257657289505,
        0.03961825743317604,
        0.10800514370203018,
        0.07969047129154205,
        -0.19960032403469086,
        -0.30917927622795105,
        -0.05151357874274254,
        0.16238124668598175,
        0.12383047491312027,
        -0.08428242057561874,
        -0.07834644615650177,
        -0.10215497016906738,
        0.09074050188064575,
        0.02460622414946556,
        0.10998277366161346,
        0.157694011926651,
        0.04847259074449539
      ],
      [
        0.010653572157025337,
        -0.007323736324906349,
        0.14279761910438538,
        -0.35358667373657227,
        -0.2954762578010559,
        0.36115679144859314,
        0.10888517647981644,
        0.4599117040634155,
        -0.16643348336219788,
        0.10932030528783798,
        -0.10332921147346497,
        0.2092924267053604,
        -0.297007292509079,
        -0.536139965057373,
        0.02254396863281727,
        -0.2854796350002289,
        0.16327382624149323,
        0.3202112317085266,
        0.24455736577510834,
        -0.10026993602514267,
        -0.05120149627327919,
        0.001682604313828051,
        -0.3763245642185211,
        -0.11708451807498932
      ],
      [
        -0.1769411265850067,
        0.2225418984889984,
        -0.1363685578107834,
        -0.011289392597973347,
        -0.06375311315059662,
        -0.15561088919639587,
        -0.11273490637540817,
        -0.27337217330932617,
        -0.1818394809961319,
        -0.18663011491298676,
        0.1116468757390976,
        -0.13125473260879517,
        -0.13550758361816406,
        0.3615397810935974,
        -0.04116237536072731,
        0.07643584161996841,
        -0.18197554349899292,
        0.18813632428646088,
        0.6659286618232727,
        -0.03165408596396446,
        0.032254502177238464,
        0.08088111132383347,
        -0.3655441403388977,
        0.28003209829330444
      ],
      [
        -0.09616543352603912,
        0.46983736753463745,
        -0.2982455790042877,
        0.06010963395237923,
        -0.3323671519756317,
        -0.2581874132156372,
        0.4153392016887665,
        0.09459405392408371,
        -0.3463432490825653,
        0.1865246295928955,
        0.21860389411449432,
        0.377961665391922,
        -0.2692451775074005,
        0.07920173555612564,
        -0.2738150954246521,
        0.3718179762363434,
        0.008325138129293919,
        -0.5420146584510803,
        0.27047663927078247,
        0.002467317972332239,
        -0.32343971729278564,
        -0.04141755774617195,
        -0.581397533416748,
        0.2498127520084381
      ],
      [
        -0.13651315867900848,
        0.4798186421394348,
        -0.41698235273361206,
        -0.025020640343427658,
        -0.2583390176296234,
        0.2667155861854553,
        0.048178624361753464,
        0.34047508239746094,
        -0.2644278109073639,
        -0.009754803031682968,
        -0.1987578123807907,
        -0.2998106777667999,
        0.1358507126569748,
        0.09784969687461853,
        -0.07747312635183334,
        -0.00761206541210413,
        0.08818213641643524,
        -0.3684086799621582,
        -0.280809611082077,
        0.4052356481552124,
        -0.053382884711027145,
        0.41296979784965515,
        -0.5625842809677124,
        0.03044302389025688
      ],
      [
        0.6745032668113708,
        0.04282083362340927,
        0.09533999115228653,
        -0.036525871604681015,
        0.09178189188241959,
        0.20590466260910034,
        0.18142037093639374,
        0.049930743873119354,
        0.03541817516088486,
        -0.18808771669864655,
        -0.03625422343611717,
        -0.539138674736023,
        -0.3494277894496918,
        -0.5237382054328918,
        0.13152198493480682,
        0.04992017149925232,
        -0.030547454953193665,
        -0.010995827615261078,
        0.1838161200284958,
        -0.28981226682662964,
        0.2914518415927887,
        0.07198051363229752,
        -0.22569908201694489,
        -0.22322112321853638
      ],
      [
        -0.36211350560188293,
        -0.01552771870046854,
        0.2805517315864563,
        -0.42053237557411194,
        -0.10653061419725418,
        -0.2689553201198578,
        0.5246285796165466,
        0.05142080411314964,
        -0.00014370447024703026,
        -0.025473402813076973,
        -0.540588915348053,
        0.19189627468585968,
        0.3176819980144501,
        0.3410240709781647,
        -0.0858437791466713,
        -0.10056309401988983,
        0.1785343438386917,
        0.07615060359239578,
        -0.38470110297203064,
        0.17063750326633453,
        0.024251265451312065,
        0.16229377686977386,
        -0.3044160008430481,
        -0.02348087914288044
      ],
      [
        -0.24927394092082977,
        0.11295250058174133,
        -0.3316352665424347,
        -0.3687853217124939,
        -0.14576472342014313,
        0.22773905098438263,
        -0.1690349578857422,
        0.2267630398273468,
        0.12891528010368347,
        -0.40692055225372314,
        -0.4123844504356384,
        -0.21756580471992493,
        0.014295421540737152,
        -0.03531518578529358,
        -0.13388296961784363,
        0.013716253452003002,
        0.26943087577819824,
        0.10049290210008621,
        0.13000056147575378,
        -0.16487464308738708,
        0.3345920741558075,
        0.11496732383966446,
        -0.3130103647708893,
        0.5858994126319885
      ],
      [
        -0.06689437478780746,
        0.2778875231742859,
        -0.045644182711839676,
        -0.04148618504405022,
        -0.48446375131607056,
        -0.07844455540180206,
        -0.042124707251787186,
        -0.0511358343064785,
        -0.09150727093219757,
        0.11414260417222977,
        0.0790911614894867,
        0.04770437628030777,
        -0.0973878875374794,
        -0.38241472840309143,
        0.4722975790500641,
        0.20142114162445068,
        0.09422284364700317,
        -0.18336597084999084,
        0.23905643820762634,
        0.1173456609249115,
        0.23835979402065277,
        -0.1092754527926445,
        -0.2793200612068176,
        0.3677348494529724
      ],
      [
        -0.31092238426208496,
        0.35907384753227234,
        -0.0777118131518364,
        0.23043963313102722,
        -0.1546536237001419,
        -0.186592698097229,
        -0.0012650059070438147,
        0.4003097712993622,
        0.037805065512657166,
        -0.036687396466732025,
        -0.16974522173404694,
        0.015059124678373337,
        0.23095571994781494,
        -0.22951409220695496,
        0.2384745180606842,
        -0.32522162795066833,
        -0.07764557749032974,
        -0.08611645549535751,
        0.20066069066524506,
        -0.09026604145765305,
        0.23478828370571136,
        0.017475400120019913,
        -0.07372372597455978,
        0.14551807940006256
      ],
      [
        -0.23297414183616638,
        0.07786037772893906,
        -0.25937339663505554,
        0.08713328838348389,
        -0.16211840510368347,
        -0.16267265379428864,
        0.31908702850341797,
        0.025526659563183784,
        -0.3179769217967987,
        -0.2972571551799774,
        0.4271528124809265,
        0.22531822323799133,
        0.20097744464874268,
        0.16177907586097717,
        0.04414134472608566,
        -0.15781953930854797,
        0.5189453959465027,
        0.06284669041633606,
        -0.04583844542503357,
        -0.2635549306869507,
        0.19451802968978882,
        -0.24970702826976776,
        0.10439442843198776,
        0.02810859866440296
      ],
      [
        0.4051339030265808,
        -0.1338156759738922,
        -0.35098782181739807,
        -0.26554960012435913,
        0.1214640736579895,
        -0.26477083563804626,
        -0.06555002182722092,
        -0.32452428340911865,
        0.2662537693977356,
        -0.1847529113292694,
        0.25609368085861206,
        0.2321600615978241,
        -0.4296816885471344,
        0.08703570812940598,
        -0.02858625166118145,
        0.08462834358215332,
        -0.12406200170516968,
        -0.20872220396995544,
        -0.042372945696115494,
        -0.09640486538410187,
        -0.07538846880197525,
        0.06501926481723785,
        -0.2904672622680664,
        0.3075132668018341
      ],
      [
        0.19322066009044647,
        -0.22707617282867432,
        -0.027324901893734932,
        -0.0776185616850853,
        -0.2871675491333008,
        -0.2691321074962616,
        0.17702537775039673,
        -0.031236965209245682,
        0.48628997802734375,
        -0.21169912815093994,
        0.12355006486177444,
        -0.03330816701054573,
        0.3230457603931427,
        -0.31671178340911865,
        0.0008136642863973975,
        0.4219394326210022,
        0.4847659170627594,
        0.10276743024587631,
        0.4350842535495758,
        0.14553536474704742,
        -0.3130221366882324,
        -0.40470412373542786,
        -0.2835642695426941,
        -0.2038157433271408
      ],
      [
        0.09759242832660675,
        -0.06586067378520966,
        0.03180324658751488,
        -0.048858582973480225,
        -0.2202935516834259,
        0.3529580235481262,
        0.013050127774477005,
        0.20466174185276031,
        -0.006047386676073074,
        -0.020728709176182747,
        -0.3328224718570709,
        -0.1426917016506195,
        0.040081508457660675,
        0.20487844944000244,
        -0.3437258303165436,
        0.4957031309604645,
        0.365629643201828,
        -0.10264191031455994,
        0.03702735900878906,
        -0.08201078325510025,
        0.17112259566783905,
        -0.2944047451019287,
        0.04368314892053604,
        -0.22381313145160675
      ],
      [
        -0.1808462142944336,
        -0.3217011094093323,
        -0.026815980672836304,
        -0.14663563668727875,
        -0.01846865378320217,
        0.27044737339019775,
        0.26568809151649475,
        -0.09263339638710022,
        -0.03962668776512146,
        -0.4054929316043854,
        0.141398623585701,
        0.3389398753643036,
        0.3311435580253601,
        -0.21183744072914124,
        -0.01693861372768879,
        -0.44341543316841125,
        0.4344533383846283,
        0.06086747348308563,
        0.4426938593387604,
        0.39983272552490234,
        -0.05247398838400841,
        -0.2649495303630829,
        -0.22062470018863678,
        0.12541480362415314
      ],
      [
        -0.018027009442448616,
        -0.07700612396001816,
        0.2056538611650467,
        0.11070454120635986,
        -0.42226356267929077,
        0.355654239654541,
        0.2897897958755493,
        -0.12107793986797333,
        0.02642138861119747,
        -0.03846101462841034,
        -0.3089098334312439,
        0.25976136326789856,
        -0.15793377161026,
        -0.04282273352146149,
        -0.01519580464810133,
        -0.12906426191329956,
        0.1074814721941948,
        -0.6219376921653748,
        -0.08771224319934845,
        -0.27661657333374023,
        0.2834032475948334,
        0.0733199492096901,
        0.04041888192296028,
        0.2076098918914795
      ],
      [
        0.04720486328005791,
        0.12335129082202911,
        0.008332690224051476,
        0.04985151067376137,
        0.09276392310857773,
        0.058982979506254196,
        -0.1494280844926834,
        -0.13413764536380768,
        0.12993939220905304,
        0.3776363432407379,
        0.1999751776456833,
        -0.10068592429161072,
        0.1367003321647644,
        -0.2577720880508423,
        -0.21043384075164795,
        0.12631481885910034,
        0.004997873213142157,
        -0.26698803901672363,
        -0.22967366874217987,
        -0.20408734679222107,
        -0.10808045417070389,
        0.3164929747581482,
        -0.3029792010784149,
        0.04191683605313301
      ],
      [
        -0.22210267186164856,
        0.18283554911613464,
        -0.29490697383880615,
        -0.2528569996356964,
        0.18582984805107117,
        0.048505209386348724,
        -0.07885486632585526,
        0.20592834055423737,
        0.04875120520591736,
        -0.32006534934043884,
        -0.03158121928572655,
        0.14101466536521912,
        0.19587068259716034,
        -0.336120069026947,
        0.308000385761261,
        0.08909255266189575,
        0.5646893978118896,
        -0.10439063608646393,
        -0.057286787778139114,
        -0.602050244808197,
        -0.0111739132553339,
        0.11350717395544052,
        0.24467770755290985,
        0.16680020093917847
      ],
      [
        -0.3560473322868347,
        0.17389295995235443,
        -0.08370950073003769,
        0.13498421013355255,
        -0.29078248143196106,
        -0.16319270431995392,
        0.13876111805438995,
        -0.05584362894296646,
        -0.1632145494222641,
        0.01020770613104105,
        -0.24313288927078247,
        0.02323036827147007,
        0.08362733572721481,
        -0.07225499302148819,
        0.1200396865606308,
        -0.07147054374217987,
        0.360751748085022,
        -0.05545007809996605,
        0.08994611352682114,
        0.17785421013832092,
        0.11261988431215286,
        0.03134913742542267,
        0.1676182895898819,
        -0.19633720815181732
      ],
      [
        -0.007102840580046177,
        0.004497962072491646,
        -0.062212925404310226,
        -0.5107274651527405,
        -0.15030838549137115,
        0.3386562764644623,
        -0.038847535848617554,
        0.5307985544204712,
        0.3703280985355377,
        0.2194586992263794,
        -0.4500599205493927,
        -0.27073559165000916,
        -0.3577270805835724,
        0.13032767176628113,
        0.16025377810001373,
        -0.11203132569789886,
        -0.21461275219917297,
        0.26181551814079285,
        -0.04525746777653694,
        -0.13384073972702026,
        0.1026429831981659,
        0.1251291185617447,
        -0.13149729371070862,
        0.3164839446544647
      ],
      [
        -0.1249515488743782,
        -0.056519441306591034,
        -0.28074830770492554,
        -0.3775866627693176,
        0.05512579530477524,
        -0.027613582089543343,
        -0.06150076538324356,
        0.19922609627246857,
        0.7379454970359802,
        0.031223461031913757,
        -0.6068612337112427,
        0.3337398171424866,
        -0.25711286067962646,
        -0.27091825008392334,
        -0.24139972031116486,
        0.3029080629348755,
        0.19440238177776337,
        -0.757864773273468,
        -0.25392359495162964,
        0.531909704208374,
        -0.09057417511940002,
        0.407766193151474,
        -0.01944497786462307,
        0.1279602199792862
      ],
      [
        -0.0888839140534401,
        0.1800680160522461,
