{
  "block_0": {
    "att.W_query.weight": [
      [
        -0.49423325061798096,
        0.2471090704202652,
        0.014780453406274319,
        -0.2907661497592926,
        -0.05933791771531105,
        0.016888704150915146,
        -0.0019649972673505545,
        -0.511544942855835,
        0.013030272908508778,
        -0.27175092697143555,
        0.5362577438354492,
        0.10069392621517181
      ],
      [
        0.05713677033782005,
        0.07682614773511887,
        -0.582846999168396,
        0.22684691846370697,
        0.24779026210308075,
        -0.5534934401512146,
        -0.34768348932266235,
        0.02493574097752571,
        0.4542466104030609,
        -0.10421554744243622,
        -0.053766559809446335,
        0.2097041755914688
      ],
      [
        -0.013068127445876598,
        -0.2531726658344269,
        -0.6564072370529175,
        -0.04121662303805351,
        -0.5378828048706055,
        0.021035855636000633,
        0.5057507157325745,
        0.3204229474067688,
        0.4577527344226837,
        -0.04937881603837013,
        -0.28085559606552124,
        -0.21665826439857483
      ],
      [
        0.3446667194366455,
        -0.7163408994674683,
        0.3210541009902954,
        0.03576956316828728,
        -0.2968151867389679,
        0.07359404116868973,
        -0.340858519077301,
        0.1439393013715744,
        -0.06678298115730286,
        -0.1252986043691635,
        0.2590591311454773,
        0.6182605028152466
      ],
      [
        0.14221245050430298,
        -0.0404965803027153,
        -0.44410672783851624,
        0.47651538252830505,
        0.18926090002059937,
        0.4796231985092163,
        0.0738232359290123,
        0.08233723789453506,
        0.2270878702402115,
        -0.20196868479251862,
        -0.23203445971012115,
        -0.10496960580348969
      ],
      [
        0.2842842936515808,
        -0.07809159904718399,
        0.32067838311195374,
        0.015202139504253864,
        0.19073422253131866,
        0.3595115840435028,
        -0.4844142496585846,
        -0.11052025109529495,
        0.7465096712112427,
        0.06896595656871796,
        -0.06648090481758118,
        -0.32758811116218567
      ],
      [
        -0.16351820528507233,
        -0.13925397396087646,
        0.5276036262512207,
        0.1475372016429901,
        -0.17966526746749878,
        0.8453609943389893,
        -0.27593377232551575,
        -0.4801328480243683,
        0.03531838208436966,
        0.23104646801948547,
        -0.1517326831817627,
        -0.20143333077430725
      ],
      [
        0.5679965615272522,
        -0.5015174150466919,
        -0.10199051350355148,
        0.36908602714538574,
        0.6013556122779846,
        0.05908060818910599,
        -0.23943354189395905,
        -0.4493597745895386,
        0.7838000655174255,
        -0.1360977590084076,
        0.11915773153305054,
        -0.03513984754681587
      ],
      [
        0.1716526746749878,
        0.017281148582696915,
        -0.1500692218542099,
        0.10853395611047745,
        0.34973621368408203,
        -0.37506118416786194,
        -0.4073411822319031,
        -0.40111392736434937,
        -0.377851277589798,
        0.14158892631530762,
        -0.1416328102350235,
        0.3762168884277344
      ],
      [
        0.05343681201338768,
        -0.7259817123413086,
        -0.3182542622089386,
        0.10759139060974121,
        -0.661095142364502,
        0.022973913699388504,
        0.6447256803512573,
        0.3509739637374878,
        0.16406123340129852,
        0.735877513885498,
        0.047725509852170944,
        -0.23862795531749725
      ],
      [
        -0.17649316787719727,
        0.20810550451278687,
        -0.08821996301412582,
        -0.6203564405441284,
        0.0174073688685894,
        0.11863704770803452,
        0.12801511585712433,
        -0.17292360961437225,
        -0.07797244191169739,
        -0.1695381999015808,
        0.12651048600673676,
        0.21004600822925568
      ],
      [
        0.15474510192871094,
        -0.5426208972930908,
        0.11225885152816772,
        -0.6960362792015076,
        -0.12689055502414703,
        -0.008924664929509163,
        -0.0354689322412014,
        0.5724692344665527,
        -0.017152411863207817,
        -0.08790573477745056,
        -0.03644876554608345,
        0.19691647589206696
      ]
    ],
    "att.W_query.bias": null,
    "att.W_key.weight": [
      [
        0.2680511176586151,
        -0.14458005130290985,
        -0.576682448387146,
        0.2141704112291336,
        -0.11347248405218124,
        0.6157236099243164,
        -0.410982608795166,
        0.07961007952690125,
        0.33083096146583557,
        -0.2022903561592102,
        0.009467130526900291,
        0.056416869163513184
      ],
      [
        -0.7390792369842529,
        -0.07869510352611542,
        -0.04551679641008377,
        0.3995186686515808,
        0.06638957560062408,
        0.13244839012622833,
        0.32098791003227234,
        -0.16183488070964813,
        -0.4631827473640442,
        0.009826678782701492,
        -0.061076968908309937,
        0.21830834448337555
      ],
      [
        -0.12985964119434357,
        -0.04998445510864258,
        0.236602321267128,
        -0.4285155236721039,
        0.3443339765071869,
        -0.17812548577785492,
        0.16719090938568115,
        0.43258699774742126,
        -0.11362472176551819,
        -0.3158942759037018,
        -0.5622860789299011,
        0.39664024114608765
      ],
      [
        -0.3780740201473236,
        0.4983038008213043,
        -0.26930996775627136,
        -0.16601258516311646,
        0.2854148745536804,
        -0.18231987953186035,
        -0.294543981552124,
        0.15501399338245392,
        -0.48287203907966614,
        -0.12720410525798798,
        0.9520594477653503,
        -0.18765132129192352
      ],
      [
        -0.12193437665700912,
        0.11511717736721039,
        0.47071895003318787,
        -0.3889310956001282,
        -0.01597699150443077,
        0.08276569098234177,
        0.21150299906730652,
        0.3137734830379486,
        -0.47723835706710815,
        0.18152089416980743,
        -0.34381458163261414,
        -0.1162262037396431
      ],
      [
        -0.3670407831668854,
        0.3660515546798706,
        0.3294205665588379,
        0.2436426430940628,
        0.1085256040096283,
        -0.38659313321113586,
        0.0930110365152359,
        0.3351607918739319,
        0.06504730135202408,
        -0.0988042801618576,
        -0.4178982973098755,
        -0.6797100901603699
      ],
      [
        -0.1484147310256958,
        0.0790286436676979,
        0.04354899376630783,
        -0.188394695520401,
        0.1643897444009781,
        -0.5730632543563843,
        0.2937353253364563,
        -0.41761085391044617,
        -0.267573744058609,
        -0.3580326735973358,
        0.682741105556488,
        0.2870834171772003
      ],
      [
        -0.23394203186035156,
        0.11430491507053375,
        0.48856765031814575,
        -0.01985505409538746,
        -0.3681821823120117,
        -0.5122345089912415,
        -0.652231752872467,
        0.14413465559482574,
        -0.277802437543869,
        0.24079565703868866,
        -0.022935962304472923,
        0.7394969463348389
      ],
      [
        0.009048630483448505,
        0.2625141143798828,
        -0.07130517810583115,
        -0.34013083577156067,
        -0.126850426197052,
        0.3908458352088928,
        -0.29816383123397827,
        0.022921336814761162,
        -0.617733895778656,
        0.2663947343826294,
        0.021499665454030037,
        -0.3014882206916809
      ],
      [
        0.7414554953575134,
        0.25801849365234375,
        -0.11699316650629044,
        0.2585083246231079,
        0.17473745346069336,
        -0.1135009378194809,
        -0.1001555547118187,
        -0.07987165451049805,
        0.22674062848091125,
        -0.6582764387130737,
        -0.4065561890602112,
        0.7291189432144165
      ],
      [
        -0.321889728307724,
        -0.06081228330731392,
        -0.284858763217926,
        0.32380983233451843,
        0.34532424807548523,
        -0.03304457291960716,
        0.35212841629981995,
        -0.2702625095844269,
        0.056196179240942,
        0.23495759069919586,
        -0.11637318134307861,
        -0.4580502510070801
      ],
      [
        0.12408597022294998,
        0.25735676288604736,
        -0.02172103151679039,
        0.6213525533676147,
        -0.5693642497062683,
        0.06873119622468948,
        0.18471041321754456,
        -0.23678727447986603,
        0.12903764843940735,
        -0.13708573579788208,
        -0.1036064624786377,
        0.28153058886528015
      ]
    ],
    "att.W_key.bias": null,
    "att.W_value.weight": [
      [
        0.2722060978412628,
        0.5483691096305847,
        -0.2038080096244812,
        -0.04956949129700661,
        0.1992075890302658,
        -0.05439779534935951,
        -0.37966474890708923,
        -0.20022492110729218,
        0.21100078523159027,
        0.325169175863266,
        -0.24021852016448975,
        0.023630330339074135
      ],
      [
        0.7278961539268494,
        0.6336843967437744,
        -0.03898106515407562,
        -0.14430828392505646,
        -0.532640278339386,
        0.15590408444404602,
        0.07235606759786606,
        0.17641372978687286,
        -0.42067354917526245,
        -0.31515443325042725,
        0.0979757308959961,
        -0.16585254669189453
      ],
      [
        -0.04515574499964714,
        0.5423868894577026,
        -0.016633104532957077,
        0.45359984040260315,
        0.11863622069358826,
        -0.4248001277446747,
        -0.2673285901546478,
        -0.11215901374816895,
        0.24744385480880737,
        -0.06800159811973572,
        0.2528344392776489,
        0.15456674993038177
      ],
      [
        -0.4224257469177246,
        0.4465673863887787,
        -0.31432539224624634,
        -0.3382982611656189,
        0.3949028551578522,
        0.15774182975292206,
        0.241542249917984,
        0.38853389024734497,
        0.07198970019817352,
        0.35164526104927063,
        -0.0422079898416996,
        -0.2501662075519562
      ],
      [
        -0.0902128666639328,
        -0.18933290243148804,
        -0.028282131999731064,
        0.4424234926700592,
        0.23219233751296997,
        0.433586061000824,
        -0.30428338050842285,
        0.14497049152851105,
        -0.15069885551929474,
        -0.34796807169914246,
        0.02793079800903797,
        -0.5704687833786011
      ],
      [
        -0.07978065311908722,
        0.1499064862728119,
        0.4081413745880127,
        -0.4678952991962433,
        0.2833371162414551,
        -0.18545424938201904,
        -0.139848992228508,
        -0.49435871839523315,
        -0.0981205552816391,
        -0.24115067720413208,
        0.29461222887039185,
        -0.1433902531862259
      ],
      [
        -0.25161013007164,
        0.2235526740550995,
        -0.08665439486503601,
        0.6802727580070496,
        -0.30824360251426697,
        -0.24365659058094025,
        -0.4350760281085968,
        -0.2799309194087982,
        0.3605499267578125,
        0.008698063902556896,
        0.044383253902196884,
        -0.24246981739997864
      ],
      [
        -0.018794259056448936,
        0.09221208840608597,
        0.5071571469306946,
        -0.22322069108486176,
        -0.11768905073404312,
        -0.03978309407830238,
        -0.2750442326068878,
        -0.25351303815841675,
        -0.023136287927627563,
        0.4183824956417084,
        -0.17477691173553467,
        -0.17083628475666046
      ],
      [
        0.1654345989227295,
        0.04749073088169098,
        0.4716407358646393,
        0.0408460795879364,
        -0.10534367710351944,
        -0.2815953493118286,
        0.1426587849855423,
        0.0003487633657641709,
        0.4512485861778259,
        -0.3764050602912903,
        -0.12002811580896378,
        -0.5332757234573364
      ],
      [
        -0.6418050527572632,
        -0.1265743374824524,
        0.12496373057365417,
        0.04181466996669769,
        0.08134502917528152,
        0.23915861546993256,
        -0.3209444284439087,
        -0.00019097799668088555,
        -0.055628370493650436,
        -0.6144528985023499,
        0.29693982005119324,
        0.06665585935115814
      ],
      [
        -0.3502129316329956,
        -0.030067043378949165,
        0.11106468737125397,
        -0.19619061052799225,
        -0.4090636968612671,
        0.4629550278186798,
        0.17937877774238586,
        -0.46110284328460693,
        0.49395808577537537,
        0.16231657564640045,
        0.07157374173402786,
        0.15419888496398926
      ],
      [
        0.007654000073671341,
        0.3515892028808594,
        0.07039866596460342,
        0.08564817160367966,
        -0.32800957560539246,
        0.028761062771081924,
        0.06120046600699425,
        0.19541096687316895,
        -0.49939650297164917,
        -0.15370850265026093,
        0.42172178626060486,
        -0.2940075099468231
      ]
    ],
    "att.W_value.bias": null,
    "att.out_proj.weight": [
      [
        0.13651351630687714,
        0.4547256827354431,
        0.008694089017808437,
        0.10952131450176239,
        0.15856780111789703,
        -0.08278855681419373,
        -0.22308683395385742,
        0.1349547952413559,
        -0.0774998888373375,
        0.177618145942688,
        -0.09342797845602036,
        -0.12509123980998993
      ],
      [
        -0.1825728863477707,
        0.2942739427089691,
        0.07192791998386383,
        -0.6198842525482178,
        -0.1516936719417572,
        0.1022120863199234,
        -0.33461591601371765,
        -0.15587733685970306,
        0.020400194451212883,
        0.12965795397758484,
        0.30843743681907654,
        0.4406263530254364
      ],
      [
        0.5004252195358276,
        -0.31462252140045166,
        0.2469569742679596,
        -0.03604232147336006,
        0.062025438994169235,
        -0.39409777522087097,
        0.6815903782844543,
        0.023161448538303375,
        0.0469171367585659,
        -0.014158356003463268,
        0.0055654640309512615,
        -0.15094836056232452
      ],
      [
        -0.4188010096549988,
        -0.6648358106613159,
        -0.04148756340146065,
        0.10435625165700912,
        -0.09062004834413528,
        0.13020877540111542,
        -0.07294579595327377,
        0.12995757162570953,
        -0.310698926448822,
        -0.15682049095630646,
        0.24851864576339722,
        -0.14982765913009644
      ],
      [
        0.033809296786785126,
        0.37939363718032837,
        0.4683769941329956,
        0.14500901103019714,
        0.050379395484924316,
        0.21527110040187836,
        0.004571907222270966,
        -0.3299090564250946,
        -0.14614680409431458,
        -0.3773359954357147,
        -0.03532122075557709,
        -0.1053563803434372
      ],
      [
        0.3335978090763092,
        -0.17860989272594452,
        0.0951143354177475,
        -0.20562195777893066,
        -0.13822738826274872,
        -0.04835476726293564,
        -0.35502126812934875,
        0.2949064075946808,
        -0.31059688329696655,
        -0.14207755029201508,
        -0.3961714804172516,
        0.021824775263667107
      ],
      [
        -0.3166232705116272,
        -0.17111711204051971,
        -0.09093807637691498,
        0.07748115807771683,
        0.6821422576904297,
        -0.2257707715034485,
        -0.3020114600658417,
        -0.16182604432106018,
        0.04748165234923363,
        0.13868799805641174,
        -0.08363457024097443,
        -0.02253872901201248
      ],
      [
        -0.05241626501083374,
        -0.17985223233699799,
        0.24218802154064178,
        -0.051547419279813766,
        -0.11406298726797104,
        0.4515409469604492,
        0.10042128711938858,
        0.14574144780635834,
        0.5568560361862183,
        0.39330580830574036,
        -0.2679194509983063,
        -0.09681596606969833
      ],
      [
        -0.1605861485004425,
        0.1943342238664627,
        -0.32134851813316345,
        0.12934009730815887,
        -0.585391640663147,
        -0.18993766605854034,
        0.17709782719612122,
        -0.16174572706222534,
        -0.3802831470966339,
        0.5829987525939941,
        0.17420943081378937,
        0.05843483284115791
      ],
      [
        -0.38750210404396057,
        0.006564137991517782,
        -0.3484318256378174,
        -0.5018994808197021,
        0.4806559085845947,
        -0.07846241444349289,
        0.48440298438072205,
        0.2877204120159149,
        0.10516953468322754,
        -0.3693462610244751,
        -0.0792747288942337,
        0.5033300518989563
      ],
      [
        0.19130143523216248,
        0.2355334311723709,
        -0.437090128660202,
        0.3196974992752075,
        0.274823397397995,
        0.24833077192306519,
        -0.14616677165031433,
        0.29419174790382385,
        0.16910052299499512,
        -0.2805328667163849,
        0.561237633228302,
        -0.38035595417022705
      ],
      [
        -0.022289017215371132,
        0.05480886250734329,
        -0.08310197293758392,
        0.26524418592453003,
        -0.09353464841842651,
        -0.5235531330108643,
        -0.1841648370027542,
        -0.11487232893705368,
        0.37271323800086975,
        0.00032834179000929,
        -0.38468992710113525,
        0.127824068069458
      ]
    ],
    "att.out_proj.bias": [
      -0.043463822454214096,
      -0.007802140899002552,
      0.08305427432060242,
      -0.008990798145532608,
      0.003306332742795348,
      0.05406462773680687,
      0.09594394266605377,
      -0.0025979105848819017,
      -0.02998281642794609,
      0.02409418299794197,
      0.04223911464214325,
      -0.0177285298705101
    ],
    "norm1.scale": [
      0.8854248523712158,
      0.8366585373878479,
      0.6140165328979492,
      0.9194054007530212,
      0.721428632736206,
      0.9563634395599365,
      0.7596102356910706,
      0.6723554134368896,
      0.9286195635795593,
      0.8442143201828003,
      0.7883242964744568,
      0.9593724608421326
    ],
    "norm1.shift": [
      -0.24607835710048676,
      0.2917681932449341,
      -0.22593823075294495,
      -0.1787966936826706,
      -0.0231558196246624,
      -0.19607879221439362,
      0.15976044535636902,
      -0.26420581340789795,
      -0.06644158810377121,
      0.014657022431492805,
      0.11011048406362534,
      -0.10420367121696472
    ],
    "norm2.scale": [
      0.8403823971748352,
      0.7912065386772156,
      0.8831061720848083,
      0.8176449537277222,
      0.8200801610946655,
      0.841460645198822,
      0.806948184967041,
      0.8375129699707031,
      0.7985910177230835,
      0.8149744868278503,
      0.7460258603096008,
      0.7651419639587402
    ],
    "norm2.shift": [
      0.2067366987466812,
      -0.3030361533164978,
      -0.04432229325175285,
      -0.006198421586304903,
      0.24995337426662445,
      0.3483515977859497,
      -0.001121728797443211,
      -0.030759088695049286,
      -0.6123695373535156,
      0.005145087372511625,
      -0.4921433627605438,
      0.44328704476356506
    ],
    "ff.lin1.weight": [
      [
        0.22341708838939667,
        0.002237047767266631,
        -0.25066834688186646,
        0.23243755102157593,
        -0.3356476426124573,
        0.19302600622177124,
        0.23681704699993134,
        -0.2866274416446686,
        -0.16892823576927185,
        0.009375693276524544,
        0.02836877852678299,
        -0.065092533826828
      ],
      [
        0.27230870723724365,
        0.11405669897794724,
        0.19141319394111633,
        0.6304714679718018,
        0.29167598485946655,
        -0.1224222332239151,
        0.0986873060464859,
        -0.38422447443008423,
        0.13262978196144104,
        -0.4661562740802765,
        0.024713290855288506,
        0.10637207329273224
      ],
      [
        -0.20494985580444336,
        0.21899224817752838,
        0.39721447229385376,
        0.07363573461771011,
        -0.7261481285095215,
        0.09743761271238327,
        -0.07292602956295013,
        0.057029567658901215,
        -0.04063694551587105,
        0.16086864471435547,
        0.5213273167610168,
        -0.6122639179229736
      ],
      [
        0.333452045917511,
        -0.039249517023563385,
        -0.34508541226387024,
        -0.2393644154071808,
        0.2782951891422272,
        0.08723081648349762,
        -0.65760338306427,
        0.032358333468437195,
        -0.12592579424381256,
        0.24763153493404388,
        0.26158273220062256,
        0.044467635452747345
      ],
      [
        0.16254958510398865,
        0.46769124269485474,
        -0.31944647431373596,
        -0.4037034511566162,
        0.04608557000756264,
        -0.29954952001571655,
        -0.27975010871887207,
        0.2712029814720154,
        0.25666096806526184,
        0.10772116482257843,
        0.10263250768184662,
        0.17796769738197327
      ],
      [
        -0.030220981687307358,
        0.31588199734687805,
        0.1677028238773346,
        -0.03360706940293312,
        0.27909907698631287,
        -0.05814104899764061,
        0.5253468751907349,
        -0.27102670073509216,
        -0.11563409864902496,
        0.07537258416414261,
        -0.021310104057192802,
        -0.3718986213207245
      ],
      [
        -0.06560663878917694,
        0.1478281319141388,
        0.1518433392047882,
        -0.3496910035610199,
        -0.10657671838998795,
        0.44479188323020935,
        0.16783851385116577,
        -0.4720454812049866,
        0.3060069978237152,
        -0.1066637635231018,
        -0.3620961904525757,
        0.1708536446094513
      ],
      [
        0.4691906273365021,
        0.15820634365081787,
        -0.046238142997026443,
        0.017385346814990044,
        0.21126563847064972,
        -0.15969334542751312,
        0.19587764143943787,
        0.18370024859905243,
        -0.4188290238380432,
        0.2165948450565338,
        0.09279561042785645,
        -0.4928593635559082
      ],
      [
        0.038516610860824585,
        -0.1917528361082077,
        -0.05851329490542412,
        0.09754328429698944,
        0.24478934705257416,
        0.04771809279918671,
        0.5000975131988525,
        -0.7619858384132385,
        0.2291191816329956,
        0.18329447507858276,
        -0.17945235967636108,
        -0.3280555009841919
      ],
      [
        -0.33211517333984375,
        0.1854579746723175,
        0.026656534522771835,
        0.3765938878059387,
        0.1842166930437088,
        0.5260456800460815,
        -0.6999791264533997,
        0.019608253613114357,
        0.05339529365301132,
        -0.2822554111480713,
        0.05350390449166298,
        -0.26324760913848877
      ],
      [
        -0.0006959738675504923,
        0.8390461206436157,
        0.08217805624008179,
        0.04368915781378746,
        0.2389262318611145,
        -0.18968503177165985,
        -0.20199550688266754,
        -0.007925066165626049,
        -0.08133278042078018,
        -0.17879937589168549,
        -0.07338449358940125,
        0.19329297542572021
      ],
      [
        0.021012987941503525,
        -0.40876132249832153,
        0.7676126956939697,
        0.5712796449661255,
        -0.18651068210601807,
        0.2858394384384155,
        -0.14952890574932098,
        0.14237959682941437,
        0.20578764379024506,
        0.2586643695831299,
        0.0012713142205029726,
        -0.6530826687812805
      ],
      [
        -0.2675850987434387,
        0.17017053067684174,
        -0.41267481446266174,
        -0.44221392273902893,
        0.1829546093940735,
        -0.5783482193946838,
        0.14869923889636993,
        0.40470030903816223,
        0.32711973786354065,
        0.42616865038871765,
        0.13283316791057587,
        0.11069141328334808
      ],
      [
        0.46289584040641785,
        0.006763104815036058,
        0.6174808144569397,
        -0.023587295785546303,
        -0.303615003824234,
        -0.2889808714389801,
        -0.18338115513324738,
        -0.5849723219871521,
        0.8022457361221313,
        0.2813047766685486,
        0.07346469163894653,
        -0.2915792465209961
      ],
      [
        0.14540068805217743,
        0.111885666847229,
        -0.27769970893859863,
        0.13740971684455872,
        -0.21159055829048157,
        -0.1402050256729126,
        -0.04966398701071739,
        -0.03151125833392143,
        -0.4126085937023163,
        0.00825249683111906,
        0.6871567368507385,
        0.19218342006206512
      ],
      [
        -0.2361573576927185,
        -0.4722258150577545,
        0.0039510405622422695,
        0.42233550548553467,
        -0.2602693438529968,
        0.1222444400191307,
        0.027720170095562935,
        -0.5173711180686951,
        0.5331159234046936,
        0.5282149910926819,
        0.4457874596118927,
        -0.3481252193450928
      ],
      [
        0.06743980199098587,
        0.300327330827713,
        -0.40617039799690247,
        0.16098028421401978,
        -0.32972535490989685,
        -0.47364646196365356,
        -0.7038158178329468,
        0.3090435564517975,
        0.517595112323761,
        0.7228150963783264,
        0.05736647546291351,
        -0.1743188500404358
      ],
      [
        -0.4341515004634857,
        -0.30721157789230347,
        0.29280054569244385,
        -0.18554414808750153,
        0.31104978919029236,
        -0.1951865702867508,
        -0.019440846517682076,
        -0.5217111706733704,
        0.6325518488883972,
        0.04151524230837822,
        -0.047112930566072464,
        0.06880871206521988
      ],
      [
        0.029831429943442345,
        -0.010938877239823341,
        -0.1369081288576126,
        -0.37274014949798584,
        0.07731405645608902,
        -0.09136403352022171,
        -0.3748745620250702,
        -0.05463315173983574,
        0.7494077682495117,
        -0.10773832350969315,
        0.005201429594308138,
        -0.011204149574041367
      ],
      [
        -0.49220430850982666,
        -0.033555272966623306,
        -0.1717490702867508,
        -0.36439645290374756,
        0.3610419034957886,
        -0.145998015999794,
        0.20633246004581451,
        0.22736237943172455,
        0.49299052357673645,
        -0.040331628173589706,
        0.044014498591423035,
        -0.4025813341140747
      ],
      [
        -0.2797311842441559,
        0.10565034300088882,
        -0.028169261291623116,
        -0.15692943334579468,
        0.0738564059138298,
        0.01861802488565445,
        0.2601940929889679,
        0.36469292640686035,
        -0.15253879129886627,
        -0.25466158986091614,
        0.17538923025131226,
        -0.37890657782554626
      ],
      [
        0.31458666920661926,
        -0.20869667828083038,
        0.15825343132019043,
        0.454258531332016,
        0.2509758770465851,
        -0.22461266815662384,
        -0.3638729453086853,
        0.007817800156772137,
        0.26370659470558167,
        -0.11048369109630585,
        -0.17207464575767517,
        -0.17865370213985443
      ],
      [
        0.07845265418291092,
        0.6604966521263123,
        0.3615780472755432,
        0.5080283284187317,
        -0.7571491003036499,
        -0.00035664578899741173,
        -0.053195562213659286,
        0.0698375329375267,
        -0.011906596831977367,
        0.08032513409852982,
        -0.25430697202682495,
        -0.6093702912330627
      ],
      [
        -0.5720154047012329,
        -0.7515106797218323,
        0.4258831739425659,
        -0.02208629436790943,
        0.13618305325508118,
        -0.2867794334888458,
        -0.056213319301605225,
        -0.004330414347350597,
        0.5229175090789795,
        0.08263280242681503,
        0.702014148235321,
        -0.3006233274936676
      ],
      [
        -0.2611449956893921,
        -0.24517622590065002,
        0.10401743650436401,
        -0.3385356366634369,
        0.3942338228225708,
        -0.2575312852859497,
        -0.14063389599323273,
        -0.15938948094844818,
        0.5532416701316833,
        0.460593044757843,
        0.6438887119293213,
        -0.647388756275177
      ],
      [
        -0.09226036071777344,
        -0.03758338838815689,
        -0.12010078877210617,
        0.5850578546524048,
        -0.05633002519607544,
        -0.6608544588088989,
        0.12354952096939087,
        0.19912472367286682,
        0.007304191589355469,
        0.14278671145439148,
        0.4885667860507965,
        -0.12505294382572174
      ],
      [
        0.004525127820670605,
        -0.28771811723709106,
        -0.19515381753444672,
        -0.15576429665088654,
        -0.668511688709259,
        0.37459537386894226,
        0.14666514098644257,
        0.42420610785484314,
        0.5122377276420593,
        -0.25565263628959656,
        0.17500823736190796,
        -0.11115267872810364
      ],
      [
        0.15201900899410248,
        0.084645576775074,
        -0.33063364028930664,
        -0.3181832432746887,
        0.1124420017004013,
        -0.4865252375602722,
        0.1973714381456375,
        -0.2158452719449997,
        0.6464004516601562,
        0.4870641827583313,
        -0.07655509561300278,
        -0.38542234897613525
      ],
      [
        -0.02692859247326851,
        0.38872769474983215,
        0.40234315395355225,
        0.2848404049873352,
        -0.3728344738483429,
        -0.08333094418048859,
        -0.12620583176612854,
        0.034005213528871536,
        -0.3204568922519684,
        -0.22385618090629578,
        -0.33991551399230957,
        -0.38843992352485657
      ],
      [
        0.23148378729820251,
        -0.13554039597511292,
        -0.021478330716490746,
        0.013692749664187431,
        0.11701863259077072,
        -0.4245166778564453,
        -0.2847740948200226,
        0.24203376471996307,
        0.21235129237174988,
        -0.4833698272705078,
        0.6373158097267151,
        0.4180974066257477
      ],
      [
        -0.07984253764152527,
        0.11425569653511047,
        -0.46065497398376465,
        -0.11544845253229141,
        -0.3974186182022095,
        -0.2423265129327774,
        0.17661042511463165,
        -0.41639572381973267,
        0.19403274357318878,
        0.35718777775764465,
        0.2353971153497696,
        0.46754440665245056
      ],
      [
        -0.4896250367164612,
        -0.20316176116466522,
        0.07139130681753159,
        0.21654115617275238,
        0.2427842766046524,
        0.20115934312343597,
        0.3344115614891052,
        -0.028706850484013557,
        0.16550610959529877,
        -0.2703631818294525,
        -0.04710300639271736,
        0.20164301991462708
      ],
      [
        -0.3155372142791748,
        0.2700583040714264,
        -0.45167893171310425,
        -0.19998005032539368,
        0.211712047457695,
        -0.6877766847610474,
        0.4764329493045807,
        0.1638427972793579,
        -0.21896180510520935,
        0.5385349988937378,
        0.6181950569152832,
        -0.2156902253627777
      ],
      [
        0.5704757571220398,
        0.000672788533847779,
        0.13444600999355316,
        -0.5064447522163391,
        -0.6568243503570557,
        -0.5930750966072083,
        0.2973480224609375,
        0.5790147185325623,
        0.3766416907310486,
        -0.1618114411830902,
        0.4106002748012543,
        -0.26396888494491577
      ],
      [
        -0.1600343883037567,
        0.07041684538125992,
        -0.06661786139011383,
        0.10076456516981125,
        -0.5271989703178406,
        0.33589497208595276,
        -0.047772351652383804,
        -0.047502271831035614,
        0.2626253068447113,
        -0.4306336045265198,
        -0.4137061834335327,
        0.1988300383090973
      ],
      [
        -0.09659191220998764,
        -0.08539779484272003,
        -0.2530931532382965,
        0.33693230152130127,
        -0.3280736207962036,
        -0.3082772493362427,
        0.3865169882774353,
        0.28657928109169006,
        0.17961038649082184,
        -0.5197393298149109,
        0.038144662976264954,
        -0.1631118506193161
      ],
      [
        0.8600054979324341,
        -0.44178304076194763,
        -0.06514861434698105,
        -0.1530972570180893,
        -0.05768978223204613,
        -0.6353028416633606,
        -0.3384481966495514,
        0.10409049689769745,
        0.45218396186828613,
        -0.21494361758232117,
        0.31267595291137695,
        -0.19324134290218353
      ],
      [
        0.44348663091659546,
        -0.4909916818141937,
        0.11658360809087753,
        -0.1071178987622261,
        -0.3974251449108124,
        -0.31340262293815613,
        0.11959283798933029,
        0.19294124841690063,
        0.5478874444961548,
        0.4949207901954651,
        -0.18865403532981873,
        -0.3352295160293579
      ],
      [
        0.648449718952179,
        -0.018002772703766823,
        0.3807372748851776,
        0.11132602393627167,
        -0.3128628730773926,
        -0.1351819932460785,
        -0.2801579535007477,
        -0.5474250912666321,
        0.01177849993109703,
        -0.12110986560583115,
        0.11567787826061249,
        -0.5036899447441101
      ],
      [
        -0.2953225374221802,
        0.24603042006492615,
        -0.044383421540260315,
        0.2933940291404724,
        -0.6150824427604675,
        0.01510287169367075,
        0.10343057662248611,
        -0.5616335272789001,
        0.5997658371925354,
        -0.3473028838634491,
        0.1775878220796585,
        -0.013406924903392792
      ],
      [
        -0.02676348015666008,
        0.4189275801181793,
        0.2805745005607605,
        0.363446444272995,
        -0.07426057010889053,
        -0.049772538244724274,
        -0.6235921382904053,
        -0.3076058030128479,
        0.22402340173721313,
        0.22535797953605652,
        -0.03032863140106201,
        0.07646095007658005
      ],
      [
        -0.14603956043720245,
        -0.0007192378398030996,
        -0.456295371055603,
        -0.3991706371307373,
        -0.1085871011018753,
        0.174723818898201,
        -0.14946262538433075,
        0.23390080034732819,
        -0.13030211627483368,
        0.19860564172267914,
        0.7424010038375854,
        -0.33487093448638916
      ],
      [
        0.03974000737071037,
        0.33090609312057495,
        0.41364341974258423,
        -0.29884737730026245,
        -0.056084904819726944,
        -0.24559323489665985,
        -0.21347381174564362,
        -0.4786105155944824,
        0.16778987646102905,
        0.0278570968657732,
        0.2529822885990143,
        0.2737472355365753
      ],
      [
        0.07787497341632843,
        -0.4549773931503296,
        0.14023137092590332,
        -0.396497517824173,
        -0.1433669626712799,
        0.15588875114917755,
        -0.013773459941148758,
        -0.05236717686057091,
        0.3737157881259918,
        -0.09999670833349228,
        -0.09155643731355667,
        0.16750803589820862
      ],
      [
        -0.05164109542965889,
        -0.11572426557540894,
        -0.3049222528934479,
        0.42604583501815796,
        -0.4508136510848999,
        0.029820065945386887,
        -0.2133910208940506,
        0.10829530656337738,
        0.2781130373477936,
        0.4190666377544403,
        0.11307946592569351,
        -0.14470306038856506
      ],
      [
        -0.36066964268684387,
        -0.2221408486366272,
        -0.49042996764183044,
        -0.18619392812252045,
        0.317735493183136,
        0.019680751487612724,
        -0.002606597961857915,
        -0.43092310428619385,
        0.5128779411315918,
        0.16761155426502228,
        0.2047530561685562,
        0.2454311102628708
      ],
      [
        -0.0813843384385109,
        0.2642744481563568,
        0.4885588586330414,
        0.2568846046924591,
        -0.15770316123962402,
        -0.41586512327194214,
        0.13958217203617096,
        0.06352825462818146,
        0.2819403409957886,
        -0.08946065604686737,
        -0.2992963194847107,
        0.0343773178756237
      ],
      [
        -0.47161245346069336,
        0.1441836804151535,
        0.11305259168148041,
        0.13270224630832672,
        -0.33980241417884827,
        0.0741000548005104,
        0.4430401623249054,
        0.2393169403076172,
        0.040026720613241196,
        -0.32075703144073486,
        0.2972663640975952,
        -0.7675352096557617
      ]
    ],
    "ff.lin1.bias": [
      -0.4863026738166809,
      -0.13238032162189484,
      -0.24836347997188568,
      -0.8899163007736206,
      -0.3286770284175873,
      -0.2434859424829483,
      -0.6931658387184143,
      -0.4484294652938843,
      -0.09537097811698914,
      -0.5045986771583557,
      -0.8174396753311157,
      -0.6828951835632324,
      -0.6384987235069275,
      -0.5687841176986694,
      -0.5382410883903503,
      -0.33444544672966003,
      -0.4267774820327759,
      -0.5923616886138916,
      0.007023564074188471,
      -0.2807890474796295,
      -0.35741057991981506,
      -0.2543553113937378,
      -0.5146690607070923,
      -0.6973477005958557,
      -0.3664308488368988,
      -0.33276405930519104,
      -0.7912294864654541,
      -0.5527482628822327,
      -0.4921961724758148,
      -0.5858525633811951,
      -0.16566438972949982,
      -0.7061187624931335,
      -0.8554312586784363,
      -0.9435961842536926,
      -0.5219908952713013,
      -0.438154011964798,
      -0.6019774079322815,
      -0.37396958470344543,
      -0.349287211894989,
      -0.23940478265285492,
      -0.1862432211637497,
      -0.3118474781513214,
      -0.468305766582489,
      -0.5280226469039917,
      -0.26162412762641907,
      -0.15469078719615936,
      -0.3133150637149811,
      -0.4940069615840912
    ],
    "ff.lin2.weight": [
      [
        -0.02750568464398384,
        0.024215932935476303,
        -0.22202706336975098,
        -0.15253013372421265,
        -0.17248737812042236,
        -0.26456397771835327,
        0.18762995302677155,
        0.20069976150989532,
        -0.07029308378696442,
        -0.09858008474111557,
        -0.05648888275027275,
        -0.04752453416585922,
        0.3732697069644928,
        -0.5430883169174194,
        -0.2592196464538574,
        -0.15731459856033325,
        -0.07301173359155655,
        0.20620505511760712,
        0.29352420568466187,
        0.06197389215230942,
        -0.27006691694259644,
        0.042561110109090805,
        0.3124431371688843,
        0.12648360431194305,
        0.13584868609905243,
        -0.05857719108462334,
        -0.3893904387950897,
        0.30730387568473816,
        0.10653664171695709,
        0.12658226490020752,
        0.4011496901512146,
        -0.14514440298080444,
        0.599205493927002,
        0.08596597611904144,
        -0.0028574136085808277,
        -0.4320971369743347,
        -0.03473494201898575,
        -0.05578092113137245,
        0.1822560727596283,
        0.30173346400260925,
        -0.26651424169540405,
        0.032761480659246445,
        0.1381029188632965,
        -0.0390779934823513,
        0.048382289707660675,
        0.3063752055168152,
        0.3274384140968323,
        -0.0036502666771411896
      ],
      [
        0.030296655371785164,
        -0.07573173195123672,
        0.35344693064689636,
        0.18460695445537567,
        0.3184516429901123,
        0.2235862761735916,
        0.3526065945625305,
        0.3409862220287323,
        -0.04967304691672325,
        -0.05264022946357727,
        -0.2878291606903076,
        -0.12315738201141357,
        -0.16194291412830353,
        -0.29822254180908203,
        -0.0025109737180173397,
        -0.09465133398771286,
        0.07938609272241592,
        -0.050950001925230026,
        -0.12120658159255981,
        -0.24373485147953033,
        0.13548025488853455,
        -0.325203537940979,
        -0.14751246571540833,
        0.17715418338775635,
        0.1652967631816864,
        0.0722465068101883,
        -0.091099314391613,
        -0.3490700125694275,
        0.008893044665455818,
        0.16190998256206512,
        0.05461278185248375,
        0.4411105811595917,
        -0.31017225980758667,
        -0.009423223324120045,
        0.12826299667358398,
        -0.13910356163978577,
        0.08466663956642151,
        0.14281971752643585,
        -0.08037491887807846,
        0.015997884795069695,
        -0.1580023616552353,
        -0.1572188287973404,
        0.09073890000581741,
        -0.4601987302303314,
        -0.004316863138228655,
        0.07610103487968445,
        0.0007094446336850524,
        0.42926299571990967
      ],
      [
        0.1881013959646225,
        -0.02759774588048458,
        -0.05738211050629616,
        -0.0171300508081913,
        0.1442468762397766,
        -0.21136890351772308,
        0.07148341089487076,
        -0.1436769962310791,
        0.003160601481795311,
        -0.15205252170562744,
        0.12155594676733017,
        -0.03189477697014809,
        0.3476797938346863,
        0.6029961705207825,
        0.25300684571266174,
        0.07112139463424683,
        0.5562139749526978,
        0.11965157091617584,
        -0.046926405280828476,
        0.2102065533399582,
        -0.018778646364808083,
        0.35044243931770325,
        -0.10556551814079285,
        0.3885113000869751,
        0.5195618271827698,
        0.07078808546066284,
        -0.3247952163219452,
        0.031687282025814056,
        0.02305009216070175,
        -0.2427140176296234,
        0.018233830109238625,
        -0.129463791847229,
        -0.06590884923934937,
        -0.429928183555603,
        0.21852019429206848,
        -0.1877649873495102,
        -0.0900035947561264,
        -0.16228936612606049,
        0.07544301450252533,
        -0.41748693585395813,
        0.044672831892967224,
        -0.1546691656112671,
        -0.15557758510112762,
        0.1100817620754242,
        0.05169438570737839,
        -0.1863841861486435,
        0.2101471722126007,
        -0.06779827922582626
      ],
      [
        0.03235331177711487,
        -0.3121115565299988,
        -0.289713978767395,
        -0.06034628674387932,
        0.03716421127319336,
        -0.18148227035999298,
        0.10126866400241852,
        0.12174461036920547,
        0.2726188600063324,
        -0.1172143965959549,
        -0.015860289335250854,
        -0.19298997521400452,
        0.21055670082569122,
        -0.11444583535194397,
        0.2744787037372589,
        -0.05790206044912338,
        -0.11486776173114777,
        -0.2775037884712219,
        -0.15205614268779755,
        -0.18314413726329803,
        -0.047738175839185715,
        0.21746434271335602,
        -0.5228886604309082,
        0.02141459472477436,
        0.11974892765283585,
        -0.26353469491004944,
        -0.08044645935297012,
        -0.14932632446289062,
        -0.21240560710430145,
        -0.21399444341659546,
        -0.11214610189199448,
        -0.027317307889461517,
        -0.15224787592887878,
        -0.5988088846206665,
        -0.029323440045118332,
        0.31742575764656067,
        0.05676191672682762,
        -0.2191658616065979,
        0.24752278625965118,
        0.4078209102153778,
        0.40900465846061707,
        -0.34512484073638916,
        0.05219853296875954,
        -0.2463710457086563,
        -0.19148840010166168,
        -0.13471388816833496,
        0.03363543003797531,
        0.06254631280899048
      ],
      [
        -0.44656452536582947,
        0.04921570047736168,
        -0.03675519675016403,
        -0.20227238535881042,
        0.22668589651584625,
        0.18680952489376068,
        0.126627117395401,
        -0.1112956628203392,
        0.22312211990356445,
        0.3066747188568115,
        0.5724346041679382,
        0.15779803693294525,
        -0.008434483781456947,
        -0.2870303988456726,
        -0.22224515676498413,
        -0.5706216096878052,
        -0.12920384109020233,
        -0.4131523370742798,
        -0.09540019929409027,
        0.028315741568803787,
        0.06354312598705292,
        0.22774235904216766,
        -0.1127612516283989,
        -0.09053955227136612,
        -0.05054079368710518,
        0.2841562330722809,
        0.4740830957889557,
        0.23270852863788605,
        0.05571763217449188,
        0.0663989782333374,
        -0.5748990178108215,
        -0.011576572433114052,
        0.21372660994529724,
        0.20484842360019684,
        -0.2755071222782135,
        0.14404508471488953,
        -0.2078886330127716,
        0.22209025919437408,
        -0.20987260341644287,
        0.11575213074684143,
        -0.176260307431221,
        0.11351106315851212,
        0.02330917678773403,
        0.027216317132115364,
        -0.24156829714775085,
        0.17235279083251953,
        -0.17957384884357452,
        0.47812119126319885
      ],
      [
        -0.08480007201433182,
        -0.09905941039323807,
        -0.0684928148984909,
        -0.11054091155529022,
        0.06390953809022903,
        0.06820381432771683,
        0.038806620985269547,
        -0.15489885210990906,
        0.3830549120903015,
        0.3415899872779846,
        -0.43942150473594666,
        0.07116726040840149,
        -0.15314096212387085,
        0.07834913581609726,
        0.4682747423648834,
        0.31305819749832153,
        -0.03189569339156151,
        0.219163179397583,
        0.29933062195777893,
        0.06130285561084747,
        -0.06144621968269348,
        0.015084696002304554,
        0.24726811051368713,
        -0.002202669158577919,
        0.23666119575500488,
        -0.05988099053502083,
        -0.13113948702812195,
        0.21587476134300232,
        0.12794305384159088,
        0.06302106380462646,
        0.18767113983631134,
        0.19395941495895386,
        -0.16174277663230896,
        -0.12261996418237686,
        0.1068391501903534,
        -0.09716660529375076,
        0.18501350283622742,
        -0.2545700967311859,
        0.38254624605178833,
        -0.16756677627563477,
        0.16061069071292877,
        0.4925551116466522,
        -0.3191279470920563,
        0.07473096251487732,
        0.053800810128450394,
        -0.12370981276035309,
        -0.2798609435558319,
        -0.13498197495937347
      ],
      [
        0.02718675509095192,
        0.0001984917325899005,
        0.26204898953437805,
        0.07784737646579742,
        -0.26517632603645325,
        0.3419974148273468,
        -0.32809019088745117,
        -0.021693546324968338,
        0.3362414836883545,
        0.45787253975868225,
        0.1056395024061203,
        0.2383025586605072,
        -0.43405935168266296,
        0.40755850076675415,
        -0.1754370629787445,
        0.24431395530700684,
        -0.40763434767723083,
        0.1254306137561798,
        0.05382205918431282,
        -0.04805386811494827,
        -0.1939375251531601,
        -0.022408436983823776,
        0.24531161785125732,
        0.6518324017524719,
        0.08920751512050629,
        0.01168117020279169,
        0.2285238802433014,
        -0.03367292508482933,
        0.35583171248435974,
        0.10887610167264938,
        0.30030807852745056,
        -0.2936735451221466,
        0.4468608796596527,
        0.3556289076805115,
        -0.19148463010787964,
        0.042150843888521194,
        0.05867261439561844,
        0.17332018911838531,
        -0.19410571455955505,
        0.11757374554872513,
        -0.019518952816724777,
        0.1746356189250946,
        -0.48436176776885986,
        0.005856826901435852,
        0.08070176094770432,
        -0.10902523249387741,
        0.34998956322669983,
        -0.2435566931962967
      ],
      [
        0.27426379919052124,
        -0.17787277698516846,
        -0.2273305058479309,
        0.28397026658058167,
        0.45537081360816956,
        -0.16512523591518402,
        -0.5188925862312317,
        -0.1667022556066513,
        -0.057286299765110016,
        -0.24321597814559937,
        -0.2096056044101715,
        0.7203270196914673,
        0.37366753816604614,
        0.4401063621044159,
        0.09187635034322739,
        -0.336676687002182,
        0.06876447796821594,
        -0.14310325682163239,
        0.045461609959602356,
        0.044725194573402405,
        0.3301573693752289,
        -0.143025740981102,
        0.013316025026142597,
        -0.16492699086666107,
        -0.2562884986400604,
        -0.5836262106895447,
        0.5631250143051147,
        0.46045511960983276,
        0.18936164677143097,
        0.4965862035751343,
        -0.05281670764088631,
        -0.006511031184345484,
        0.21746884286403656,
        -0.9330101013183594,
        0.47121763229370117,
        -0.09323517978191376,
        -0.28860363364219666,
        0.5128200650215149,
        -0.5301700234413147,
        0.20585224032402039,
        -0.06800799071788788,
        0.22819927334785461,
        -0.1541975736618042,
        0.10451079905033112,
        -0.20581117272377014,
        -0.16295793652534485,
        0.01481245644390583,
        -0.3871411085128784
      ],
      [
        0.05614449083805084,
        0.2281021922826767,
        -0.39116528630256653,
        -0.17933976650238037,
        0.0794445276260376,
        -0.0438489094376564,
        -0.1761128008365631,
        -0.0879615843296051,
        -0.2781364917755127,
        0.14956505596637726,
        0.22998815774917603,
        -0.27450627088546753,
        -0.2312190979719162,
        -0.15799787640571594,
        -0.17799071967601776,
        0.4685373902320862,
        -0.13943332433700562,
        0.19596336781978607,
        0.32411280274391174,
        0.5209918022155762,
        0.2341734915971756,
        -0.19669628143310547,
        0.09305992722511292,
        -0.3147418200969696,
        0.0860954001545906,
        -0.079158253967762,
        0.052017565816640854,
        -0.05455442890524864,
        -0.0509696900844574,
        0.1594327986240387,
        -0.04690420255064964,
        -0.0855654627084732,
        -0.22381599247455597,
        0.21088683605194092,
        -0.26836714148521423,
        0.03902881592512131,
        -0.15338657796382904,
        -0.18894189596176147,
        0.288614958524704,
        0.04532553628087044,
        0.4375630021095276,
        -0.11121524125337601,
        0.11221309006214142,
        -0.0864727571606636,
        0.031090376898646355,
        0.08472073078155518,
        -0.05285343900322914,
        -0.055056311190128326
      ],
      [
        0.224790558218956,
        -0.053521979600191116,
        0.19369490444660187,
        0.1530877649784088,
        -0.23243825137615204,
        0.16292382776737213,
        -0.1413005292415619,
        -0.4089367389678955,
        -0.16076970100402832,
        -0.20537129044532776,
        0.256878137588501,
        -0.25764212012290955,
        -0.23132756352424622,
        0.1147744432091713,
        -0.418096661567688,
        0.029023857787251472,
        -0.40896424651145935,
        0.1552990972995758,
        -0.026757212355732918,
        0.19955773651599884,
        0.0798286646604538,
        -0.05698927119374275,
        -0.005544221960008144,
        -0.5906186699867249,
        -0.6479130983352661,
        0.008166112937033176,
        0.0533660426735878,
        -0.3152677118778229,
        -0.19217896461486816,
        -0.4101393222808838,
        -0.031751520931720734,
        0.09990306198596954,
        -0.790859043598175,
        0.3501514196395874,
        0.05444454401731491,
        0.46557289361953735,
        0.8671942353248596,
        -0.026721306145191193,
        -0.05731514096260071,
        -0.45880967378616333,
        -0.014687594957649708,
        0.034698814153671265,
        0.3454580307006836,
        -0.041842442005872726,
        0.5129313468933105,
        -0.03320308029651642,
        0.14497864246368408,
        -0.05743682011961937
      ],
      [
        -0.04202187806367874,
        0.09726377576589584,
        0.28283846378326416,
        -0.3499784469604492,
        -0.041956640779972076,
        -0.03635387122631073,
        -0.09348105639219284,
        0.0691232979297638,
        -0.23487965762615204,
        -0.08534891903400421,
        -0.08010614663362503,
        0.013491700403392315,
        0.07725924253463745,
        -0.3059605062007904,
        -0.1133434996008873,
        0.2645990252494812,
        0.022927558049559593,
        0.005272220820188522,
        -0.12091051787137985,
        -0.15926916897296906,
        -0.016022726893424988,
        -0.007891643792390823,
        0.06201311573386192,
        -0.6272905468940735,
        0.26398250460624695,
        0.2977715730667114,
        -0.012064382433891296,
        -0.08263187855482101,
        -0.3472905457019806,
        -0.003919011913239956,
        -0.13342489302158356,
        -0.16509641706943512,
        -0.2817164957523346,
        0.3152523934841156,
        -0.009534805081784725,
        0.09349289536476135,
        -0.07056813687086105,
        0.003720730310305953,
        0.035138510167598724,
        0.01571349799633026,
        -0.026813430711627007,
        -0.2936955392360687,
        0.30598488450050354,
        0.08237157762050629,
        -0.025877607986330986,
        -0.006104911211878061,
        -0.3387342393398285,
        0.1017998680472374
      ],
      [
        -0.1633235216140747,
        0.4436841309070587,
        0.217380553483963,
        0.3094400465488434,
        -0.23543168604373932,
        -0.03191642090678215,
        0.21888664364814758,
        0.17975211143493652,
        -0.3430272936820984,
        -0.21692723035812378,
        -0.02226661518216133,
        0.012505547143518925,
        0.0745149627327919,
        0.1483101099729538,
        0.12625160813331604,
        0.01482744887471199,
        0.20962917804718018,
        0.13773472607135773,
        -0.22926263511180878,
        -0.015376976691186428,
        0.26259902119636536,
        0.0336679071187973,
        -0.14454728364944458,
        0.39190566539764404,
        -0.37782925367355347,
        0.252785861492157,
        -0.19098541140556335,
        -0.21088284254074097,
        0.01958250068128109,
        -0.3859435021877289,
        0.11811166256666183,
        0.3060951828956604,
        0.3271843492984772,
        0.2506295442581177,
        -0.0007839450263418257,
        -0.24877211451530457,
        -0.3757448196411133,
        0.0369570292532444,
        -0.126777783036232,
        -0.04609663411974907,
        -0.33331507444381714,
        0.27595055103302,
        -0.048000358045101166,
        0.1284572333097458,
        -0.07338633388280869,
        0.33183753490448,
        -0.061895135790109634,
        -0.10841169953346252
      ]
    ],
    "ff.lin2.bias": [
      0.08087237179279327,
      -0.030144458636641502,
      0.08060401678085327,
      -0.1294141262769699,
      -0.03202519193291664,
      -0.0075972313061356544,
      0.12984392046928406,
      0.22888080775737762,
      -0.017830336466431618,
      -0.13515916466712952,
      -0.07699787616729736,
      0.05865052714943886
    ]
  }
}