{
  "block_0": {
    "att.W_query.weight": [
      [
        -0.4824758470058441,
        -0.5611090064048767,
        -0.23217245936393738,
        -0.16303718090057373,
        0.43592581152915955,
        0.2784278988838196,
        -0.30204612016677856,
        0.3282856047153473,
        -0.06583558022975922,
        0.9239146113395691,
        0.19320130348205566,
        -0.45247387886047363
      ],
      [
        -0.35497504472732544,
        -0.0502702072262764,
        0.24536290764808655,
        -0.3739432692527771,
        -0.2210739105939865,
        -0.3000682294368744,
        0.1952420324087143,
        0.4253396689891815,
        -0.4249863922595978,
        -0.18268577754497528,
        0.6966843008995056,
        -0.2946476936340332
      ],
      [
        -0.4434923529624939,
        0.3510761857032776,
        0.19276487827301025,
        -0.18191556632518768,
        1.2256789207458496,
        -0.1543647050857544,
        0.15389300882816315,
        -0.4944576919078827,
        -0.4546501338481903,
        0.2733222246170044,
        0.37214112281799316,
        0.34191927313804626
      ],
      [
        0.5086392760276794,
        0.24773797392845154,
        -0.20550699532032013,
        0.36149024963378906,
        0.6612371206283569,
        -0.7442523241043091,
        -0.7078540325164795,
        0.32662102580070496,
        0.2859223484992981,
        -0.4348371922969818,
        -0.23018383979797363,
        0.33765479922294617
      ],
      [
        0.3596421778202057,
        -1.1891920566558838,
        -0.06242719292640686,
        0.3850274980068207,
        0.5133937001228333,
        0.034122709184885025,
        0.07382378727197647,
        -0.4837045669555664,
        0.04705142229795456,
        -0.275399386882782,
        -0.1571216732263565,
        0.06972677260637283
      ],
      [
        0.14922188222408295,
        0.14279566705226898,
        -0.7756587266921997,
        0.4321969151496887,
        -0.4937290549278259,
        -0.04395465552806854,
        0.3757936656475067,
        0.14630070328712463,
        -0.7230373024940491,
        0.35153740644454956,
        -0.5372843146324158,
        0.05972757190465927
      ],
      [
        0.3410341441631317,
        0.5185443162918091,
        -0.49186453223228455,
        -0.03871972858905792,
        -1.2111079692840576,
        -0.1007222980260849,
        0.10582660138607025,
        0.35388123989105225,
        -0.35067299008369446,
        0.023704059422016144,
        0.45024287700653076,
        0.42902159690856934
      ],
      [
        -0.628851056098938,
        -0.010788727551698685,
        0.5379540920257568,
        -0.2485436052083969,
        -0.27264341711997986,
        0.46983498334884644,
        -0.3256359398365021,
        -0.6319689750671387,
        0.6844967007637024,
        0.10759824514389038,
        0.5644145607948303,
        0.47579365968704224
      ],
      [
        0.4509664475917816,
        -0.3091820776462555,
        -0.5001916289329529,
        0.03308069705963135,
        0.27822378277778625,
        -0.8115164637565613,
        -0.49475592374801636,
        -0.34604978561401367,
        0.6337466835975647,
        -0.28585392236709595,
        0.10791289806365967,
        0.005241096019744873
      ],
      [
        -0.2833048403263092,
        0.4280860424041748,
        -0.1560359001159668,
        0.7811146974563599,
        -0.5096650123596191,
        -0.18822041153907776,
        -0.08590111881494522,
        -0.2798925042152405,
        -0.07333119958639145,
        0.5978015661239624,
        -0.7527905106544495,
        0.17172272503376007
      ],
      [
        -0.5672402381896973,
        -0.23976600170135498,
        -0.2498147338628769,
        0.392520010471344,
        0.2846404016017914,
        -0.6206812858581543,
        0.1348613053560257,
        -0.233977809548378,
        -0.6524099111557007,
        0.6111630797386169,
        0.42374032735824585,
        0.1279524713754654
      ],
      [
        -0.9851464033126831,
        0.610753059387207,
        -0.1907389909029007,
        -0.4230169355869293,
        0.5736902356147766,
        -0.46759331226348877,
        -0.28911706805229187,
        0.6878013610839844,
        -0.1759585291147232,
        -0.07092183828353882,
        1.0620934963226318,
        -0.36771872639656067
      ]
    ],
    "att.W_query.bias": null,
    "att.W_key.weight": [
      [
        0.6670747399330139,
        -0.12736403942108154,
        0.04552919790148735,
        0.3960764408111572,
        0.3163008689880371,
        0.018707897514104843,
        0.1592971533536911,
        -1.0122582912445068,
        -0.18171119689941406,
        -0.5452777147293091,
        0.023338820785284042,
        -0.08686643838882446
      ],
      [
        0.10736328363418579,
        0.8995810747146606,
        -0.49171778559684753,
        -0.2835339605808258,
        -0.1423083245754242,
        -0.24265319108963013,
        -0.30797457695007324,
        -0.13112656772136688,
        0.17691603302955627,
        -0.2531290650367737,
        -0.04318308085203171,
        0.4276784360408783
      ],
      [
        0.6385200619697571,
        0.3095705509185791,
        -0.5354599952697754,
        0.661240816116333,
        0.1317727118730545,
        -0.12329910695552826,
        0.43215417861938477,
        0.3074996769428253,
        -0.5565616488456726,
        -0.37006402015686035,
        -0.535323441028595,
        -0.318280965089798
      ],
      [
        -0.2829511761665344,
        -0.5045194029808044,
        -0.8001044392585754,
        -0.35149481892585754,
        -0.09160581231117249,
        0.8786113858222961,
        0.5514196753501892,
        0.021221552044153214,
        -0.13351832330226898,
        0.6404057145118713,
        0.06775463372468948,
        -0.04024837911128998
      ],
      [
        -0.254808247089386,
        -0.3701260983943939,
        0.6495897769927979,
        -0.647465705871582,
        0.5590283870697021,
        -0.19407473504543304,
        0.4146425127983093,
        -0.05021551251411438,
        0.03413066267967224,
        0.3499295711517334,
        -0.655732274055481,
        -0.3818989098072052
      ],
      [
        -0.12113478034734726,
        -0.5107392072677612,
        0.22665539383888245,
        -0.028406519442796707,
        0.04694986715912819,
        0.41482776403427124,
        -0.31766054034233093,
        0.13432081043720245,
        1.0610841512680054,
        -0.6522272825241089,
        0.17353926599025726,
        -0.4736578166484833
      ],
      [
        0.10547176003456116,
        -0.11497464030981064,
        -0.12795081734657288,
        0.1706194132566452,
        0.716392457485199,
        -0.9132723808288574,
        0.18002857267856598,
        -0.03516807779669762,
        0.0453953854739666,
        0.426995187997818,
        0.5938803553581238,
        -0.7317707538604736
      ],
      [
        -0.1775353103876114,
        -0.34599748253822327,
        -0.6238285899162292,
        -0.15207843482494354,
        -0.02383381873369217,
        0.5725395679473877,
        0.4151599407196045,
        0.685501754283905,
        -0.5118659138679504,
        -0.7241078019142151,
        0.038417886942625046,
        0.4662536382675171
      ],
      [
        0.40107789635658264,
        0.11890649050474167,
        -0.3601016402244568,
        -0.8460197448730469,
        -0.24021613597869873,
        0.4618156850337982,
        -0.051946815103292465,
        -0.3565561771392822,
        0.21410147845745087,
        0.6324236392974854,
        0.284646600484848,
        -0.13820792734622955
      ],
      [
        -0.2482440173625946,
        1.2640037536621094,
        0.16170679032802582,
        -0.5305271148681641,
        0.06559869647026062,
        -0.39431577920913696,
        -0.046719469130039215,
        0.4933532178401947,
        -0.009362170472741127,
        0.10143857449293137,
        0.042521774768829346,
        -0.26253071427345276
      ],
      [
        -0.7423977851867676,
        0.16528922319412231,
        0.20509029924869537,
        -0.2509123980998993,
        0.032577257603406906,
        -0.014883399941027164,
        0.6341561675071716,
        0.355585515499115,
        0.4458795487880707,
        0.47049278020858765,
        -0.6520922780036926,
        -0.15748536586761475
      ],
      [
        -0.05357656255364418,
        -1.0214869976043701,
        0.3613940179347992,
        -0.40513813495635986,
        0.27681124210357666,
        -0.23666232824325562,
        1.199841022491455,
        -0.15102121233940125,
        0.36276257038116455,
        -0.20763778686523438,
        -0.5973147749900818,
        0.4368707239627838
      ]
    ],
    "att.W_key.bias": null,
    "att.W_value.weight": [
      [
        -0.39889025688171387,
        0.3133772611618042,
        0.03976653143763542,
        -0.07683765888214111,
        0.08845298737287521,
        0.28012508153915405,
        0.360134482383728,
        0.26752713322639465,
        -0.3247579336166382,
        -0.2981065809726715,
        0.22095651924610138,
        -0.8141369819641113
      ],
      [
        -0.32713842391967773,
        -0.03048587031662464,
        -0.33906158804893494,
        0.3140332102775574,
        0.34629684686660767,
        0.03371260315179825,
        -0.09613117575645447,
        -0.24828125536441803,
        0.5859955549240112,
        -0.5396693348884583,
        -0.01712377928197384,
        0.016806820407509804
      ],
      [
        0.22535988688468933,
        -0.11200123280286789,
        -0.411591112613678,
        0.3869345486164093,
        -0.07715825736522675,
        -0.17369578778743744,
        -0.5652858018875122,
        0.6765634417533875,
        -0.06924254447221756,
        -0.03913464397192001,
        0.23051030933856964,
        -0.13335800170898438
      ],
      [
        -0.2130272537469864,
        0.2162102311849594,
        0.4279431104660034,
        0.41101136803627014,
        0.2822183668613434,
        -0.33312296867370605,
        -0.3891200125217438,
        -0.07414564490318298,
        -0.4002453088760376,
        0.12712126970291138,
        0.08305536210536957,
        -0.17155328392982483
      ],
      [
        0.04265518859028816,
        0.2389179766178131,
        0.056917279958724976,
        -0.25834882259368896,
        -0.04128216579556465,
        0.5379234552383423,
        -0.7058850526809692,
        -0.10938288271427155,
        0.15984296798706055,
        0.252831369638443,
        -0.39881226420402527,
        -0.21721221506595612
      ],
      [
        0.27430689334869385,
        -0.15193426609039307,
        0.28692492842674255,
        -0.3200339674949646,
        -0.02926027402281761,
        -0.0677853599190712,
        -0.33079445362091064,
        -0.40074825286865234,
        -0.011273611336946487,
        -0.23132307827472687,
        0.5544365644454956,
        0.12207217514514923
      ],
      [
        -0.2946767210960388,
        0.09510233998298645,
        -0.1959826946258545,
        -0.04225439578294754,
        -0.2607440650463104,
        -0.2627474367618561,
        0.20651645958423615,
        0.4547261893749237,
        -0.00620552571490407,
        0.117637999355793,
        0.41138768196105957,
        0.20962831377983093
      ],
      [
        0.2574295997619629,
        -0.17378786206245422,
        0.6102308034896851,
        -0.562054455280304,
        -0.14450164139270782,
        -0.15267536044120789,
        -0.19849403202533722,
        0.2989468574523926,
        -0.3500366508960724,
        0.0838986411690712,
        -0.2613048255443573,
        0.24249359965324402
      ],
      [
        -0.6682197451591492,
        0.2920144498348236,
        -0.14096511900424957,
        -0.02943659946322441,
        -0.016587698832154274,
        -0.2592442035675049,
        -0.056928347796201706,
        -0.060879599303007126,
        0.004121588077396154,
        0.007975430227816105,
        -0.19707442820072174,
        0.5271444916725159
      ],
      [
        -0.09643059223890305,
        -0.06863042712211609,
        -0.43971455097198486,
        0.10045570135116577,
        0.2121397852897644,
        0.3622590899467468,
        -0.44440585374832153,
        0.5214456915855408,
        -0.14465320110321045,
        0.17048190534114838,
        -0.12511283159255981,
        -0.18014255166053772
      ],
      [
        -0.0653364285826683,
        0.12897802889347076,
        -0.02638283371925354,
        0.31080329418182373,
        0.13761360943317413,
        0.31781187653541565,
        0.3802778422832489,
        -0.3197280466556549,
        -0.6317689418792725,
        0.6795833110809326,
        -0.10827024281024933,
        -0.24952147901058197
      ],
      [
        0.43562057614326477,
        0.25594383478164673,
        -0.3123171329498291,
        0.384718656539917,
        0.05022946372628212,
        -0.39968234300613403,
        0.3672986328601837,
        0.1131628155708313,
        -0.3188728094100952,
        -0.5299743413925171,
        -0.3397458791732788,
        0.2744922935962677
      ]
    ],
    "att.W_value.bias": null,
    "att.out_proj.weight": [
      [
        0.9162430167198181,
        0.18163730204105377,
        -0.27493205666542053,
        -0.10196289420127869,
        0.04827774316072464,
        0.10867996513843536,
        0.18728643655776978,
        -0.2465018332004547,
        0.003576137823984027,
        -0.21801750361919403,
        -0.08437267690896988,
        0.5045685172080994
      ],
      [
        -0.3375806510448456,
        0.026920827105641365,
        -0.280534029006958,
        -0.168068066239357,
        0.4023963212966919,
        0.20868948101997375,
        -0.15678009390830994,
        -0.318351149559021,
        0.4472203552722931,
        -0.5074959993362427,
        0.18874318897724152,
        -0.32880493998527527
      ],
      [
        -0.10489563643932343,
        0.428169310092926,
        0.06133878603577614,
        0.04342833161354065,
        0.2579491436481476,
        0.16129490733146667,
        -0.5850837826728821,
        -0.3432646095752716,
        0.008483024314045906,
        0.1933843493461609,
        -0.30021733045578003,
        0.03979621082544327
      ],
      [
        0.09761567413806915,
        -0.23027797043323517,
        0.35015466809272766,
        -0.18072998523712158,
        0.23038186132907867,
        -0.2024262249469757,
        0.13897478580474854,
        -0.4088076949119568,
        -0.1109442412853241,
        0.31993600726127625,
        0.3366330862045288,
        -0.38898974657058716
      ],
      [
        0.07004838436841965,
        0.045285601168870926,
        0.6455020308494568,
        -0.17251895368099213,
        -0.17204825580120087,
        -0.018070735037326813,
        -0.07385000586509705,
        -0.0050436039455235004,
        -0.05618096888065338,
        0.20639468729496002,
        0.017486561089754105,
        0.6775872111320496
      ],
      [
        -0.18333612382411957,
        -0.5051312446594238,
        0.26110199093818665,
        -0.18024776875972748,
        -0.4123976528644562,
        -0.2637934684753418,
        0.2142801135778427,
        -0.10027201473712921,
        0.1373257339000702,
        -0.2313719540834427,
        -0.22377070784568787,
        -0.03948681056499481
      ],
      [
        -0.226873978972435,
        -0.4927561283111572,
        -0.12932227551937103,
        0.21038517355918884,
        -0.1613548994064331,
        0.6122459173202515,
        0.21456187963485718,
        0.24570132791996002,
        0.3319094181060791,
        0.09880976378917694,
        0.4348019063472748,
        0.33187568187713623
      ],
      [
        -0.0023613208904862404,
        0.05073131248354912,
        0.10678496956825256,
        0.49566900730133057,
        0.2257704883813858,
        -0.0769161507487297,
        -0.20480473339557648,
        0.5793668031692505,
        -0.4051986038684845,
        -0.2358783334493637,
        0.041199032217264175,
        -0.2372530698776245
      ],
      [
        0.06111755967140198,
        0.4053851366043091,
        -0.14102110266685486,
        -0.15527325868606567,
        -0.7002105712890625,
        0.10778351128101349,
        -0.059824541211128235,
        -0.3113850951194763,
        -0.28922608494758606,
        -0.09286011755466461,
        0.44735538959503174,
        -0.3358033299446106
      ],
      [
        -0.3232014775276184,
        0.37794214487075806,
        0.1785779595375061,
        0.13967721164226532,
        -0.24551501870155334,
        -0.024541761726140976,
        0.431569904088974,
        0.03385813161730766,
        -0.15718263387680054,
        -0.05494072660803795,
        -0.7860165238380432,
        0.053023599088191986
      ],
      [
        0.2208673655986786,
        -0.1251930147409439,
        -0.3055574893951416,
        0.16560772061347961,
        -0.08340402692556381,
        -0.4495905339717865,
        0.0742795318365097,
        0.30351582169532776,
        0.365764319896698,
        0.4236702620983124,
        -0.17280475795269012,
        -0.31891927123069763
      ],
      [
        -0.233053058385849,
        0.2245814949274063,
        -0.705536425113678,
        -0.615898072719574,
        0.27405446767807007,
        -0.39127638936042786,
        -0.29490190744400024,
        0.32487952709198,
        0.054790280759334564,
        0.027233844622969627,
        0.1453312486410141,
        0.3163132667541504
      ]
    ],
    "att.out_proj.bias": [
      -0.014149890281260014,
      -0.13860122859477997,
      -0.06393232196569443,
      -0.02343791536986828,
      0.12067344039678574,
      0.03253418952226639,
      0.05823681131005287,
      -0.029121026396751404,
      0.11612245440483093,
      0.02595204859972,
      -0.05183454230427742,
      0.021137308329343796
    ],
    "norm1.scale": [
      0.6021186113357544,
      0.6659725904464722,
      0.6113338470458984,
      0.5769667625427246,
      0.45366209745407104,
      0.5475199222564697,
      0.7797113656997681,
      0.6679591536521912,
      0.6052790284156799,
      0.7570846080780029,
      0.5194258689880371,
      0.37273186445236206
    ],
    "norm1.shift": [
      -0.02167176641523838,
      0.1948283165693283,
      0.07756132632493973,
      -0.11334867030382156,
      0.1273854374885559,
      0.10000017285346985,
      -0.04058470204472542,
      -0.01539106760174036,
      -0.16687682271003723,
      0.023528004065155983,
      -0.022878075018525124,
      0.2567225396633148
    ],
    "norm2.scale": [
      0.5803807377815247,
      0.6142001748085022,
      0.6576251983642578,
      0.5604256391525269,
      0.5347089767456055,
      0.7152786254882812,
      0.682243287563324,
      0.7415082454681396,
      0.5566527843475342,
      0.5806336998939514,
      0.6570809483528137,
      0.5890176892280579
    ],
    "norm2.shift": [
      -0.1096702367067337,
      0.26916512846946716,
      0.06106932833790779,
      -0.464304119348526,
      -0.5389201045036316,
      -0.6529152393341064,
      -0.22234632074832916,
      0.16776572167873383,
      0.1512012928724289,
      -0.2849578857421875,
      0.1881389319896698,
      -0.21371681988239288
    ],
    "ff.lin1.weight": [
      [
        0.2396220862865448,
        -0.46628913283348083,
        0.30634233355522156,
        -0.041378241032361984,
        0.0630994364619255,
        0.11197049170732498,
        -0.5357016324996948,
        -0.027563318610191345,
        0.21151770651340485,
        0.45703190565109253,
        -0.10087739676237106,
        0.8053044676780701
      ],
      [
        -0.13913637399673462,
        0.5751352310180664,
        -0.020573629066348076,
        0.3176707327365875,
        0.6342089772224426,
        -0.10866136103868484,
        -0.5576171875,
        0.2766808569431305,
        -0.6935548186302185,
        0.12388558685779572,
        -0.23620255291461945,
        0.07747102528810501
      ],
      [
        -0.22479352355003357,
        -0.4023391604423523,
        0.1857888102531433,
        0.7978342771530151,
        -0.312008798122406,
        -0.05710258334875107,
        0.358925998210907,
        0.2639918923377991,
        0.41655221581459045,
        -0.21336226165294647,
        -0.5292707681655884,
        0.0030199470929801464
      ],
      [
        -0.2172648161649704,
        -0.4048821032047272,
        -0.5753875374794006,
        0.5699906945228577,
        0.31632718443870544,
        0.5006821751594543,
        -0.48668527603149414,
        0.16024580597877502,
        0.47965705394744873,
        -0.2502545118331909,
        0.306404173374176,
        0.3067309260368347
      ],
      [
        -0.17041520774364471,
        0.31142109632492065,
        0.49766531586647034,
        -0.3407975137233734,
        0.02168547734618187,
        0.005545471794903278,
        0.021900387480854988,
        0.09458369761705399,
        -0.06604421883821487,
        0.1882653534412384,
        -0.4002476930618286,
        0.5239526629447937
      ],
      [
        0.584466278553009,
        -0.5014556646347046,
        0.25810694694519043,
        0.051796648651361465,
        -0.39860183000564575,
        1.1398855447769165,
        -0.2673802375793457,
        0.05500075966119766,
        -0.3104175627231598,
        0.6097419261932373,
        -0.516025960445404,
        0.5533860921859741
      ],
      [
        0.010128555819392204,
        0.2517865002155304,
        0.18070238828659058,
        0.8293110132217407,
        -0.245783269405365,
        -0.10246157646179199,
        0.22858814895153046,
        -0.5599144697189331,
        -0.28317055106163025,
        0.4343020021915436,
        0.10786990076303482,
        -0.0012648331467062235
      ],
      [
        0.5212298631668091,
        -0.25881221890449524,
        -0.3035832345485687,
        0.45519307255744934,
        -0.014768620021641254,
        0.7837005853652954,
        -0.22159910202026367,
        -0.7114148736000061,
        -0.16130207479000092,
        -0.29605600237846375,
        0.025175824761390686,
        0.7268213033676147
      ],
      [
        0.3548074960708618,
        -0.2811116874217987,
        0.44268861413002014,
        0.329413503408432,
        -0.3023790419101715,
        0.2756754755973816,
        -0.635033369064331,
        0.4151075482368469,
        -0.350212961435318,
        0.26499614119529724,
        0.24753059446811676,
        0.3658812940120697
      ],
      [
        0.30836984515190125,
        -0.8342875838279724,
        0.2674490213394165,
        0.4465649425983429,
        0.36233919858932495,
        -0.4428156614303589,
        0.43330350518226624,
        0.16870072484016418,
        -0.20770174264907837,
        0.19955229759216309,
        -0.35489773750305176,
        0.7110907435417175
      ],
      [
        -0.01045803353190422,
        0.34950944781303406,
        0.7872545719146729,
        0.3375943601131439,
        0.7310525178909302,
        0.07000350207090378,
        0.09580112248659134,
        -0.31635168194770813,
        -0.6257753372192383,
        0.04493006691336632,
        -0.04889103025197983,
        -0.23963898420333862
      ],
      [
        -0.6489351987838745,
        -0.3013339936733246,
        -0.1741301715373993,
        0.906387984752655,
        0.2726829946041107,
        0.6213675141334534,
        -0.07449427992105484,
        -0.3329918682575226,
        0.2666044235229492,
        0.7207907438278198,
        0.3768492341041565,
        -0.35311952233314514
      ],
      [
        -0.28155016899108887,
        0.5024159550666809,
        -0.4740693271160126,
        0.05664033442735672,
        -0.3381396532058716,
        0.5917171239852905,
        -0.08651131391525269,
        0.42025497555732727,
        -0.26327621936798096,
        0.07149696350097656,
        0.2741027772426605,
        0.2588355541229248
      ],
      [
        0.5109041929244995,
        0.07276386767625809,
        -0.7407257556915283,
        0.18548381328582764,
        -0.15765507519245148,
        0.0743631049990654,
        0.49644920229911804,
        -0.1840180605649948,
        -0.16820396482944489,
        0.7657197117805481,
        0.2926138937473297,
        0.040393177419900894
      ],
      [
        0.22117562592029572,
        -0.07589492946863174,
        -0.1329282969236374,
        0.14900146424770355,
        -0.39701807498931885,
        0.9137275815010071,
        0.7932256460189819,
        -0.2687694728374481,
        0.21061870455741882,
        -0.20611810684204102,
        -0.3780001103878021,
        0.46488210558891296
      ],
      [
        0.3320159316062927,
        -0.47362446784973145,
        -0.00644331332296133,
        0.3491930067539215,
        0.9650461077690125,
        -0.0724954828619957,
        -0.309924840927124,
        -0.5265134572982788,
        0.09316694736480713,
        0.6550908088684082,
        -0.41198548674583435,
        0.018834032118320465
      ],
      [
        -0.007909141480922699,
        0.21914999186992645,
        -0.08833067119121552,
        0.1494881957769394,
        0.2590315639972687,
        0.058765560388565063,
        0.9643893241882324,
        -0.23647451400756836,
        -0.5847516059875488,
        -0.47153693437576294,
        0.46171700954437256,
        -0.06979016214609146
      ],
      [
        -0.2383051961660385,
        -0.5585759282112122,
        -0.43723228573799133,
        0.6524550318717957,
        0.8589497208595276,
        -0.36033138632774353,
        0.8650982975959778,
        -0.3068329691886902,
        -0.03531559184193611,
        0.6077413558959961,
        0.31494155526161194,
        -0.28286710381507874
      ],
      [
        -0.6053045988082886,
        -0.6245656609535217,
        0.37871676683425903,
        0.23368419706821442,
        0.07976361364126205,
        0.4058239161968231,
        -0.1692708432674408,
        0.5873512625694275,
        0.13724808394908905,
        0.1545095443725586,
        0.0978861153125763,
        0.16766972839832306
      ],
      [
        0.38871151208877563,
        0.09497620165348053,
        -0.3877420425415039,
        1.1311044692993164,
        0.8139345049858093,
        -0.15026067197322845,
        -0.14823336899280548,
        -0.4407767057418823,
        -0.07118917256593704,
        0.15056388080120087,
        -0.1525406390428543,
        -0.17421536147594452
      ],
      [
        0.2230556607246399,
        -0.052026648074388504,
        0.15484020113945007,
        0.9004915356636047,
        0.31334027647972107,
        -0.05286959186196327,
        -0.061538636684417725,
        -0.9476696848869324,
        -0.15084972977638245,
        0.2526068091392517,
        -0.02889692597091198,
        0.4625861644744873
      ],
      [
        0.3585008978843689,
        -0.26792991161346436,
        -0.16362793743610382,
        -0.07606247067451477,
        0.7883027791976929,
        0.6477470397949219,
        0.7116015553474426,
        -0.4037400782108307,
        -0.42363083362579346,
        -0.4638892412185669,
        0.5855879783630371,
        0.12350904941558838
      ],
      [
        -0.27637386322021484,
        0.07132371515035629,
        -0.36719346046447754,
        0.2701079547405243,
        1.0229971408843994,
        -0.35066086053848267,
        -0.12186431139707565,
        -0.12936988472938538,
        0.23995867371559143,
        0.14950920641422272,
        -0.23174035549163818,
        0.41669195890426636
      ],
      [
        -0.2114679217338562,
        0.494469553232193,
        0.07297521829605103,
        0.16555272042751312,
        0.2891915738582611,
        -0.09741732478141785,
        0.264392226934433,
        -0.4556674063205719,
        -0.4383004903793335,
        0.05673827975988388,
        0.06428159773349762,
        0.7707290053367615
      ],
      [
        0.2497940957546234,
        0.2462824285030365,
        0.40700361132621765,
        0.3173018991947174,
        0.3757891058921814,
        -0.14846429228782654,
        0.6947553753852844,
        -0.02772838994860649,
        -0.5605827569961548,
        -0.013861325569450855,
        -0.9407671093940735,
        0.15899799764156342
      ],
      [
        0.01440945640206337,
        -0.6511802077293396,
        -0.1736951470375061,
        -0.2820025086402893,
        0.30830496549606323,
        0.6066869497299194,
        0.3724633455276489,
        0.11567362397909164,
        0.3755261301994324,
        0.010329844430088997,
        -0.09127406775951385,
        -0.2108747363090515
      ],
      [
        0.2714465260505676,
        0.13884469866752625,
        0.267406165599823,
        -0.1558300405740738,
        1.0699512958526611,
        0.5908434987068176,
        0.5252912640571594,
        -0.7539744973182678,
        -0.19391198456287384,
        -0.05458081141114235,
        0.4379945695400238,
        -0.4941859841346741
      ],
      [
        0.3012674152851105,
        -0.06506099551916122,
        -0.658135712146759,
        0.3572923541069031,
        0.12516681849956512,
        0.13430140912532806,
        -0.02565963752567768,
        0.6259350180625916,
        -0.6341384649276733,
        -0.06292739510536194,
        0.3806282579898834,
        0.860333263874054
      ],
      [
        0.06519724428653717,
        -0.0009103742195293307,
        -0.0036980516742914915,
        0.7785542607307434,
        -0.27535107731819153,
        0.8795749545097351,
        0.19177287817001343,
        -0.15076109766960144,
        -0.3646717071533203,
        0.5381706953048706,
        0.011802302673459053,
        -0.477344274520874
      ],
      [
        -0.641232430934906,
        -0.05697077885270119,
        0.5620893836021423,
        0.4049697518348694,
        0.24941974878311157,
        0.9283466339111328,
        -0.14358913898468018,
        -0.03227546811103821,
        0.12199072539806366,
        0.2609296441078186,
        -0.8058415055274963,
        -0.16426414251327515
      ],
      [
        0.6005079746246338,
        -0.1809653341770172,
        0.20550505816936493,
        0.4618549942970276,
        -0.27500635385513306,
        -0.09601619839668274,
        0.20648938417434692,
        -0.0955619215965271,
        -0.7051083445549011,
        1.0056147575378418,
        -0.7056246399879456,
        0.3782765567302704
      ],
      [
        0.8902949094772339,
        -0.8054622411727905,
        -0.11281843483448029,
        0.541840672492981,
        0.17742271721363068,
        0.09183598309755325,
        0.05989885702729225,
        -0.037924669682979584,
        -0.058926060795784,
        0.45437267422676086,
        -0.023698413744568825,
        -0.5297018885612488
      ],
      [
        0.41555342078208923,
        0.3029240071773529,
        -0.9555907249450684,
        0.623774528503418,
        0.4636053144931793,
        -0.14595933258533478,
        -0.2652193009853363,
        0.148000106215477,
        0.14845751225948334,
        0.691932737827301,
        -0.30036741495132446,
        -0.4466930031776428
      ],
      [
        -0.09450878202915192,
        0.11749391257762909,
        0.15875157713890076,
        0.07186408340930939,
        0.08404973149299622,
        0.7784720063209534,
        -0.09284532815217972,
        -0.6498543620109558,
        0.48777756094932556,
        -0.07249771058559418,
        0.38127461075782776,
        -0.24228623509407043
      ],
      [
        -0.581933319568634,
        -0.029754379764199257,
        -0.10665340721607208,
        0.12485897541046143,
        -0.13996735215187073,
        0.7362163066864014,
        -0.06479925662279129,
        0.014278838410973549,
        0.26304203271865845,
        -0.14250603318214417,
        -0.041231922805309296,
        0.7691290378570557
      ],
      [
        0.6497589945793152,
        -0.2540382742881775,
        0.3059590756893158,
        -0.09621445089578629,
        0.3660585582256317,
        0.42401671409606934,
        -0.054961610585451126,
        0.033235084265470505,
        0.4956340193748474,
        -0.3590342402458191,
        -0.2076304405927658,
        -0.1920364946126938
      ],
      [
        0.17975451052188873,
        -0.697390079498291,
        -0.45558515191078186,
        0.08250381797552109,
        0.05006086081266403,
        0.45197856426239014,
        -0.030852695927023888,
        0.30461472272872925,
        -0.20310547947883606,
        0.8007602095603943,
        -0.16377535462379456,
        0.5318518280982971
      ],
      [
        -0.09605418890714645,
        -0.2784940004348755,
        -0.3420783281326294,
        -0.0605386346578598,
        0.1011020615696907,
        -0.0738636925816536,
        -0.03532872721552849,
        0.6963536143302917,
        -0.18179917335510254,
        0.5800506472587585,
        0.1029709205031395,
        -0.0763607919216156
      ],
      [
        -0.25839340686798096,
        0.2636720538139343,
        -0.07311169803142548,
        0.17157568037509918,
        0.03159553185105324,
        0.8676272034645081,
        -0.11822114139795303,
        0.296220988035202,
        -0.5344429612159729,
        0.45599111914634705,
        -0.4275018572807312,
        -0.08304847776889801
      ],
      [
        -0.17756298184394836,
        0.4032171368598938,
        0.2755466401576996,
        0.44092634320259094,
        -0.1686876118183136,
        0.7239122986793518,
        0.3195931911468506,
        0.05189476162195206,
        0.12989287078380585,
        -0.2886202037334442,
        0.32579439878463745,
        -0.4051054120063782
      ],
      [
        -0.24813474714756012,
        -0.18314172327518463,
        0.20372311770915985,
        0.1139322817325592,
        0.49435490369796753,
        -0.11554574221372604,
        0.49765700101852417,
        0.5602573752403259,
        0.4069388210773468,
        -0.2385568916797638,
        -0.6010448336601257,
        0.21695132553577423
      ],
      [
        0.37725111842155457,
        -0.09624066948890686,
        -0.12924259901046753,
        0.21302299201488495,
        0.0955822765827179,
        -0.2821245491504669,
        0.5280366539955139,
        -0.380676805973053,
        0.19551749527454376,
        -0.3115241527557373,
        0.22752180695533752,
        0.2831149697303772
      ],
      [
        -0.11864032596349716,
        0.21147912740707397,
        -0.006042418070137501,
        0.13105368614196777,
        0.8101747035980225,
        0.06258072704076767,
        0.5055854320526123,
        -0.247543603181839,
        -0.1990867704153061,
        0.7439808249473572,
        -0.42648953199386597,
        -0.48262497782707214
      ],
      [
        0.23208633065223694,
        -0.5489343404769897,
        -0.24663813412189484,
        0.5533231496810913,
        0.6942058205604553,
        -0.08759213984012604,
        0.6677067279815674,
        -0.000946159241721034,
        0.3493901789188385,
        -0.21162590384483337,
        -0.8574512600898743,
        0.18196693062782288
      ],
      [
        0.18604783713817596,
        -0.816419780254364,
        -0.316468209028244,
        0.5653467178344727,
        -0.0013069016858935356,
        0.4992204010486603,
        0.6483983993530273,
        0.3929915428161621,
        -0.41739583015441895,
        -0.22987471520900726,
        0.1081395372748375,
        0.15069901943206787
      ],
      [
        0.6348148584365845,
        0.06875535845756531,
        0.28209489583969116,
        1.0148967504501343,
        -0.18669450283050537,
        0.04776198789477348,
        0.0016425676876679063,
        -0.11777444928884506,
        -0.5184943079948425,
        -0.28170639276504517,
        -0.5915195941925049,
        0.07566539198160172
      ],
      [
        0.5080828666687012,
        -0.6002843379974365,
        -0.4744926691055298,
        -0.10493874549865723,
        0.211414635181427,
        0.7556207180023193,
        0.8932843208312988,
        -0.17276453971862793,
        -0.7034193277359009,
        -0.2519717216491699,
        -0.3104243576526642,
        0.31074297428131104
      ],
      [
        0.5320091247558594,
        0.32315924763679504,
        -0.7604986429214478,
        0.18613137304782867,
        0.1423991322517395,
        -0.04380354657769203,
        0.5040907263755798,
        0.7833611369132996,
        -0.7483950853347778,
        -0.0006096139550209045,
        -0.31275421380996704,
        0.5533635020256042
      ]
    ],
    "ff.lin1.bias": [
      -0.6177905797958374,
      -0.7247320413589478,
      -0.5788969993591309,
      -0.6103857159614563,
      -0.7247247695922852,
      -0.6319547891616821,
      -0.45386046171188354,
      -0.2410108596086502,
      -0.4414777457714081,
      -0.4585675299167633,
      -0.7152494192123413,
      -0.638931393623352,
      -0.7721503973007202,
      -0.4769732356071472,
      -0.8201016783714294,
      -0.4971194863319397,
      -0.6814900040626526,
      -0.841768205165863,
      -0.5769711136817932,
      -0.5913029909133911,
      -0.6233155727386475,
      -0.8236191272735596,
      -0.5823007822036743,
      -0.5778687000274658,
      -0.5003646016120911,
      -0.4624558985233307,
      -0.7877415418624878,
      -0.5610142350196838,
      -0.40188440680503845,
      -0.5399577021598816,
      -0.29411566257476807,
      -0.5132344365119934,
      -0.3957763612270355,
      -0.8796957731246948,
      -0.36638474464416504,
      -0.6364206075668335,
      -0.7080233693122864,
      -0.6039613485336304,
      -0.26474782824516296,
      -0.781923234462738,
      -0.5551413893699646,
      -0.43614140152931213,
      -0.28893643617630005,
      -0.39238375425338745,
      -0.24516524374485016,
      -0.577583909034729,
      -0.32764390110969543,
      -0.9544425010681152
    ],
    "ff.lin2.weight": [
      [
        0.1074313223361969,
        -0.1170104369521141,
        -0.40560391545295715,
        -0.42508465051651,
        0.5453819632530212,
        0.625458300113678,
        0.003199200611561537,
        0.13650299608707428,
        0.3341902792453766,
        0.19671787321567535,
        0.1813582181930542,
        -0.2226058393716812,
        0.31104597449302673,
        -0.12307503819465637,
        0.002639001701027155,
        -0.4100777208805084,
        -0.375575989484787,
        -0.15775085985660553,
        -0.23824679851531982,
        -0.21506932377815247,
        -0.018171321600675583,
        -0.6438762545585632,
        -0.26375070214271545,
        -0.24189580976963043,
        -0.2051575779914856,
        0.057809244841337204,
        -0.09021463245153427,
        -0.26336777210235596,
        0.02409309335052967,
        -0.13659001886844635,
        0.17824019491672516,
        0.6008381843566895,
        0.5622338652610779,
        0.06934483349323273,
        -0.34590035676956177,
        -0.28591015934944153,
        0.07849088311195374,
        0.3810146749019623,
        0.31706467270851135,
        -0.020894145593047142,
        -0.03532589226961136,
        0.22616049647331238,
        -0.4029168486595154,
        -0.16960565745830536,
        0.02674327977001667,
        -0.23390443623065948,
        0.1811889261007309,
        -0.0306403748691082
      ],
      [
        0.07574852555990219,
        -0.2811930179595947,
        0.33093544840812683,
        0.1080319806933403,
        0.08149968832731247,
        -0.11377827078104019,
        0.11955992132425308,
        -0.1994391232728958,
        -0.18991835415363312,
        0.02900947444140911,
        -0.16231860220432281,
        -0.18130163848400116,
        -0.12054566293954849,
        -0.15853412449359894,
        0.2849046587944031,
        -0.1205257922410965,
        0.29096364974975586,
        -0.6084980368614197,
        -0.22756581008434296,
        0.04653916880488396,
        0.11904627084732056,
        0.7631161212921143,
        -0.16250228881835938,
        -0.06157759577035904,
        -0.12310300022363663,
        0.19786177575588226,
        0.2367950975894928,
        0.2209256887435913,
        -0.17652074992656708,
        0.030580192804336548,
        -0.4231855571269989,
        0.06969130039215088,
        -0.21992558240890503,
        -0.11307452619075775,
        0.1706818789243698,
        0.11214807629585266,
        0.3297790288925171,
        -0.4986198842525482,
        -0.08562253415584564,
        0.02050112746655941,
        -0.09084044396877289,
        0.06525541096925735,
        -0.0037258355878293514,
        0.004940082784742117,
        -0.2502581775188446,
        -0.06165327504277229,
        -0.034666284918785095,
        0.4402059316635132
      ],
      [
        -0.09179458767175674,
        -0.06355424225330353,
        -0.16377411782741547,
        -0.5270645618438721,
        -0.12606045603752136,
        0.0588386170566082,
        0.046667374670505524,
        0.14661511778831482,
        -0.16674651205539703,
        -0.2059558928012848,
        0.41634032130241394,
        0.3098798096179962,
        -0.20674248039722443,
        0.0935901552438736,
        -0.04918992519378662,
        0.36607789993286133,
        -0.029568282887339592,
        0.2439277172088623,
        0.36898255348205566,
        -0.2867738902568817,
        -0.17209011316299438,
        -0.10088746249675751,
        -0.010810840874910355,
        0.003059683134779334,
        -0.13756445050239563,
        -0.06950733810663223,
        0.2519591152667999,
        0.24040229618549347,
        -0.2507176101207733,
        0.45382604002952576,
        0.02138635888695717,
        0.3495045602321625,
        0.20281629264354706,
        -0.003987942356616259,
        0.26477906107902527,
        -0.09636188298463821,
        -0.5650638937950134,
        -0.039354901760816574,
        -0.4512198567390442,
        0.021532010287046432,
        -0.11935652047395706,
        0.018918922170996666,
        0.09105634689331055,
        0.17711928486824036,
        -0.0404231920838356,
        -0.0032960441894829273,
        -0.32138246297836304,
        0.5098860859870911
      ],
      [
        -0.2954584062099457,
        0.286613792181015,
        -0.17309735715389252,
        0.19803938269615173,
        -0.23884424567222595,
        -0.00399702787399292,
        0.26728007197380066,
        0.25624769926071167,
        0.30152153968811035,
        -0.011105556972324848,
        0.30683633685112,
        -0.018230412155389786,
        0.018856436014175415,
        -0.28834083676338196,
        0.016649408265948296,
        -0.09772161394357681,
        0.0972493514418602,
        -0.25008848309516907,
        -0.05515902861952782,
        -0.06584130972623825,
        0.3493991792201996,
        -0.06486184149980545,
        0.06511224061250687,
        -0.11003659665584564,
        0.535528302192688,
        0.1363600343465805,
        0.04026732221245766,
        -0.4331837296485901,
        -0.2086997777223587,
        -0.36886534094810486,
        0.1869749128818512,
        -0.26382091641426086,
        -0.16885526478290558,
        0.20139849185943604,
        -0.06734196841716766,
        0.14053930342197418,
        -0.02224135398864746,
        -0.14048011600971222,
        0.16053767502307892,
        -0.23123988509178162,
        0.11597441136837006,
        0.04134811460971832,
        -0.057824138551950455,
        -0.07046180963516235,
        0.6484301090240479,
        0.08250684291124344,
        -0.042845189571380615,
        -0.4240538477897644
      ],
      [
        -0.02307605743408203,
        0.18767103552818298,
        -0.16474558413028717,
        0.23718348145484924,
        0.06786885112524033,
        -0.3356715440750122,
        -0.0766666829586029,
        -0.013717155903577805,
        -0.2966960370540619,
        -0.2666470408439636,
        -0.16068346798419952,
        0.15236647427082062,
        -0.04564603045582771,
        -0.11983005702495575,
        0.47029128670692444,
        -0.5140063166618347,
        0.2108858972787857,
        -0.25384262204170227,
        0.1511954367160797,
        -0.21627101302146912,
        -0.24084290862083435,
        0.3574005663394928,
        0.17767369747161865,
        0.10368066281080246,
        -0.13395386934280396,
        0.029448673129081726,
        -0.08217468112707138,
        -0.08583174645900726,
        0.43633556365966797,
        0.012966414913535118,
        0.000819965498521924,
        0.22906893491744995,
        -0.47019192576408386,
        -0.5197608470916748,
        0.14952051639556885,
        0.058464787900447845,
        0.01945084147155285,
        0.041786983609199524,
        -0.3412852883338928,
        -0.1248278096318245,
        0.2219521701335907,
        -0.3387228846549988,
        0.1729177087545395,
        -0.09605512022972107,
        -0.346107542514801,
        -0.11106869578361511,
        -0.23714317381381989,
        0.11916010826826096
      ],
      [
        0.36487799882888794,
        0.10442650318145752,
        0.055271048098802567,
        0.04391951486468315,
        -0.26621076464653015,
        -0.38170260190963745,
        0.026335230097174644,
        -0.30230873823165894,
        -0.06511855870485306,
        -0.10024026781320572,
        -0.025137539952993393,
        -0.05749088153243065,
        -0.2328178584575653,
        0.4209027588367462,
        -0.20612315833568573,
        0.047160591930150986,
        -0.28476664423942566,
        0.4652855694293976,
        0.03241787478327751,
        -0.048642873764038086,
        -0.5697332620620728,
        -0.00931248627603054,
        -0.18877583742141724,
        -0.05091418698430061,
        0.0715412050485611,
        0.19354476034641266,
        -0.05574444681406021,
        0.1267472207546234,
        -0.09958595037460327,
        0.18829278647899628,
        0.3822139799594879,
        -0.24324586987495422,
        0.09260937571525574,
        -0.21861332654953003,
        0.23471400141716003,
        0.01785164326429367,
        0.27630120515823364,
        0.05013196915388107,
        0.3238983154296875,
        0.2241937667131424,
        -0.2861672639846802,
        0.02208564057946205,
        -0.2135767936706543,
        0.023366151377558708,
        -0.2507493197917938,
        0.1552523374557495,
        0.45137250423431396,
        0.5278608798980713
      ],
      [
        -0.11111558228731155,
        -0.4360806941986084,
        -0.12252074480056763,
        0.17702002823352814,
        -0.21575047075748444,
        -0.23406946659088135,
        -0.04242774471640587,
        -0.29550647735595703,
        -0.01049153320491314,
        -0.29054969549179077,
        0.11798709630966187,
        -0.418871134519577,
        -0.06317261606454849,
        0.2501365840435028,
        0.1280917078256607,
        0.027034668251872063,
        0.20908237993717194,
        0.4046245515346527,
        -0.05518495291471481,
        -0.06553495675325394,
        -0.004880325403064489,
        0.005015595816075802,
        0.5050655007362366,
        0.09800311923027039,
        -0.12326178699731827,
        -0.06821518391370773,
        -0.4100002646446228,
        0.211289182305336,
        -0.21694405376911163,
        0.41812863945961,
        0.28139376640319824,
        -0.1919204294681549,
        0.06978687644004822,
        0.1882747858762741,
        -0.08571732044219971,
        -0.1728358268737793,
        0.05610199272632599,
        0.06651976704597473,
        0.11837821453809738,
        0.05651235207915306,
        -0.26873257756233215,
        0.1380641907453537,
        -0.020673735067248344,
        -0.5608891844749451,
        0.3789641559123993,
        0.07732909917831421,
        0.1497241109609604,
        -0.13217729330062866
      ],
      [
        -0.08864493668079376,
        0.03984514996409416,
        -0.11721604317426682,
        0.3803469240665436,
        0.20233920216560364,
        0.2065482884645462,
        0.17188335955142975,
        -0.3590516448020935,
        0.04302394017577171,
        0.15334947407245636,
        -0.24323730170726776,
        -0.2302446812391281,
        -0.004036548547446728,
        -0.01956445723772049,
        -0.20947661995887756,
        0.09703792631626129,
        0.1975577026605606,
        -0.3559916913509369,
        0.11445609480142593,
        0.03447774425148964,
        0.4174758791923523,
        0.06310725957155228,
        -0.39520150423049927,
        -0.3163573443889618,
        0.3271360695362091,
        -0.09831644594669342,
        -0.4282319247722626,
        0.6052461266517639,
        -0.05167245492339134,
        0.10308994352817535,
        -0.14614252746105194,
        -0.03722824528813362,
        0.07602426409721375,
        -0.10858196765184402,
        -0.29822051525115967,
        0.08932334184646606,
        0.07083117961883545,
        0.20328307151794434,
        0.0720210149884224,
        0.05985986068844795,
        0.3323187232017517,
        -0.025910470634698868,
        0.29408586025238037,
        0.22003038227558136,
        -0.10470008105039597,
        0.10661621391773224,
        -0.33645352721214294,
        -0.3561820089817047
      ],
      [
        0.06520090997219086,
        0.04710021987557411,
        0.08495572209358215,
        0.13089223206043243,
        -0.15983551740646362,
        0.6582390069961548,
        0.0672837346792221,
        -0.39970630407333374,
        0.30434006452560425,
        -0.556624710559845,
        -0.14426234364509583,
        0.049701109528541565,
        0.02100210078060627,
        -0.3104824125766754,
        0.18723078072071075,
        0.11601368337869644,
        -0.4046105146408081,
        0.42975693941116333,
        -0.06648620218038559,
        0.35917794704437256,
        -0.4569186866283417,
        -0.04279961809515953,
        0.5138183832168579,
        -0.15049700438976288,
        -0.04335582256317139,
        -0.22711005806922913,
        0.24285078048706055,
        0.0724339410662651,
        0.10193338245153427,
        0.009502504020929337,
        0.07479334622621536,
        -0.1414187252521515,
        0.6740226745605469,
        0.5178000926971436,
        0.001854226691648364,
        -0.428439736366272,
        0.01790008880198002,
        0.20117273926734924,
        -0.3531332015991211,
        0.4348156452178955,
        0.1226457878947258,
        -0.1492641568183899,
        0.42436179518699646,
        0.4637615978717804,
        -0.24883998930454254,
        0.0980682224035263,
        0.38608720898628235,
        0.5343142151832581
      ],
      [
        -0.017642691731452942,
        0.18588978052139282,
        0.5435885190963745,
        -0.022966815158724785,
        0.07934052497148514,
        -0.38976266980171204,
        -0.13053663074970245,
        0.41864052414894104,
        0.025495365262031555,
        0.2752459943294525,
        0.21423132717609406,
        -0.3116265535354614,
        -0.23489749431610107,
        -0.001631632330827415,
        0.3956463634967804,
        0.23867322504520416,
        0.01669996604323387,
        -0.6053342819213867,
        -0.17913424968719482,
        -0.02973361872136593,
        -0.07667434960603714,
        -0.3309856951236725,
        0.262620210647583,
        0.37897831201553345,
        -0.18978525698184967,
        -0.15424004197120667,
        0.482354998588562,
        -0.31428343057632446,
        0.40260782837867737,
        -0.21005114912986755,
        -0.1878533810377121,
        -0.23677529394626617,
        -0.2132102996110916,
        -0.0869288444519043,
        -0.23684369027614594,
        0.2065008580684662,
        -0.048966582864522934,
        -0.05195319652557373,
        0.16509903967380524,
        -0.2968350648880005,
        0.24849160015583038,
        -0.013359869830310345,
        -0.15788127481937408,
        0.06613905727863312,
        -0.04792916029691696,
        -0.2709762156009674,
        -0.0350210927426815,
        -0.49350157380104065
      ],
      [
        -0.04043896868824959,
        0.06613214313983917,
        -0.02653544396162033,
        -0.025378162041306496,
        -0.18790870904922485,
        0.04860924184322357,
        -0.25022268295288086,
        0.2529275715351105,
        -0.1516585499048233,
        0.36979663372039795,
        -0.16912934184074402,
        0.26583799719810486,
        0.32090577483177185,
        0.4082249104976654,
        -0.4107629060745239,
        0.21909354627132416,
        -0.3657698929309845,
        0.09931094199419022,
        -0.03745950013399124,
        0.19247600436210632,
        0.16275475919246674,
        0.17751847207546234,
        0.0470799021422863,
        0.23611417412757874,
        -0.1355527639389038,
        -0.23198141157627106,
        -0.6223037838935852,
        -0.19176127016544342,
        -0.012129274196922779,
        -0.7233569622039795,
        -0.3515320420265198,
        0.1762498915195465,
        -0.2889028489589691,
        0.006757606286555529,
        0.008032597601413727,
        0.45334145426750183,
        -0.08603810518980026,
        -0.1375085860490799,
        -0.03441960737109184,
        0.1302134096622467,
        -0.17531833052635193,
        -0.13546118140220642,
        -0.12177205830812454,
        -0.008118875324726105,
        0.1100514829158783,
        -0.3003078103065491,
        -0.04003290832042694,
        -0.39161884784698486
      ],
      [
        0.29397520422935486,
        0.3661007285118103,
        0.4536496102809906,
        -0.001929122838191688,
        0.19795627892017365,
        -0.002610516967251897,
        -0.09397710114717484,
        0.23951469361782074,
        0.015954870730638504,
        0.20147381722927094,
        -0.2133166640996933,
        0.31658995151519775,
        0.3729685842990875,
        -0.29492896795272827,
        -0.3226682245731354,
        -0.05563855171203613,
        -0.10438943654298782,
        0.04713951796293259,
        0.27678820490837097,
        0.24302642047405243,
        0.29281845688819885,
        -0.2969636917114258,
        -0.35379549860954285,
        -0.17516086995601654,
        0.01937398500740528,
        0.17005297541618347,
        0.5359532237052917,
        -0.010994368232786655,
        0.2105094939470291,
        0.6782698035240173,
        0.1872027963399887,
        -0.6578541398048401,
        -0.21676774322986603,
        -0.2694507837295532,
        0.18969044089317322,
        -0.09674496203660965,
        -0.1486397683620453,
        -0.10040213167667389,
        0.35888469219207764,
        -0.7292417883872986,
        0.22538703680038452,
        0.19904111325740814,
        -0.00931137427687645,
        0.21922452747821808,
        -0.2635801434516907,
        0.5582162141799927,
        -0.03137725964188576,
        -0.013799180276691914
      ]
    ],
    "ff.lin2.bias": [
      -0.06915425509214401,
      -0.06782867759466171,
      0.05403214320540428,
      0.1348945051431656,
      -0.08242732286453247,
      0.044098690152168274,
      -0.019176466390490532,
      -0.046028923243284225,
      0.30789056420326233,
      -0.07284369319677353,
      -0.22128631174564362,
      -0.006135653238743544
    ]
  }
}