{
  "block_0": {
    "att.W_query.weight": [
      [
        -0.18096543848514557,
        0.4542319178581238,
        -0.38964515924453735,
        0.12512698769569397,
        -0.854012668132782,
        -0.15247762203216553,
        0.6496071815490723,
        -0.5403657555580139,
        -0.034223951399326324,
        0.3112255930900574,
        0.2271917313337326,
        0.12811587750911713
      ],
      [
        -0.12263208627700806,
        0.21978305280208588,
        0.02518269047141075,
        0.11579916626214981,
        -0.10496313869953156,
        0.48070722818374634,
        -0.08288419991731644,
        0.42323562502861023,
        -0.6604660749435425,
        -0.07049182802438736,
        0.5582734942436218,
        -0.07032713294029236
      ],
      [
        0.14850133657455444,
        -0.08239047974348068,
        -0.3921425938606262,
        -0.07942906767129898,
        0.11409417539834976,
        0.40303677320480347,
        -0.6049391031265259,
        -0.03476179018616676,
        0.28298595547676086,
        0.5780407190322876,
        0.10730505734682083,
        0.40423741936683655
      ],
      [
        -0.12862162292003632,
        0.04635006934404373,
        0.3334943950176239,
        0.5045170783996582,
        -0.031894948333501816,
        -0.36927446722984314,
        -0.2176956683397293,
        0.7599349021911621,
        -0.4293602705001831,
        -0.3461812436580658,
        0.11893291771411896,
        0.012424463406205177
      ],
      [
        0.3655574917793274,
        0.34085577726364136,
        -0.27703502774238586,
        0.08695736527442932,
        0.3890845775604248,
        -0.07811305671930313,
        0.19624964892864227,
        -0.0649096816778183,
        0.2874131202697754,
        -0.12344716489315033,
        -0.18238666653633118,
        0.5350081324577332
      ],
      [
        -0.4329521358013153,
        -0.38940632343292236,
        0.15481214225292206,
        0.41027897596359253,
        0.42356157302856445,
        -0.2744460999965668,
        0.5966329574584961,
        -0.23996837437152863,
        0.5077943801879883,
        -0.32433411478996277,
        -0.034779325127601624,
        -0.5679727792739868
      ],
      [
        0.40851008892059326,
        0.5103259086608887,
        0.023190589621663094,
        0.0653986781835556,
        0.2985128164291382,
        -0.6020821928977966,
        0.023024654015898705,
        0.3989786207675934,
        0.2587980628013611,
        -0.45898503065109253,
        0.24426735937595367,
        -0.23357991874217987
      ],
      [
        -0.002919789869338274,
        0.16118797659873962,
        0.4569137990474701,
        0.006452671252191067,
        0.4157521426677704,
        -0.029878444969654083,
        0.18403658270835876,
        -0.34862226247787476,
        -0.17556393146514893,
        -0.12085038423538208,
        -0.5087201595306396,
        -0.18795475363731384
      ],
      [
        -0.3800721764564514,
        0.11307477951049805,
        0.43477964401245117,
        -0.013538174331188202,
        0.5419672131538391,
        -0.19366544485092163,
        -0.5549331307411194,
        -0.6066777110099792,
        0.04974054917693138,
        -0.0819515809416771,
        0.6880975365638733,
        0.2605037987232208
      ],
      [
        -0.27278825640678406,
        -0.28583645820617676,
        0.3415029048919678,
        -0.3057011663913727,
        -0.27668488025665283,
        0.3998318016529083,
        -0.15762054920196533,
        -0.07604414224624634,
        0.24880066514015198,
        0.766238272190094,
        -0.08458220213651657,
        0.10445769131183624
      ],
      [
        -0.10732544958591461,
        0.6374248266220093,
        -0.705399751663208,
        -0.35270798206329346,
        -0.3133867681026459,
        0.10734247416257858,
        -0.0064298491925001144,
        0.27372825145721436,
        -0.31549784541130066,
        -0.19745998084545135,
        -0.39101892709732056,
        0.1542009562253952
      ],
      [
        0.16750091314315796,
        -0.22204023599624634,
        -0.7083333730697632,
        0.3798142075538635,
        -0.3994291126728058,
        -0.20971329510211945,
        0.2364659458398819,
        -0.5109719634056091,
        -0.08990977704524994,
        0.4154133200645447,
        0.6934055089950562,
        0.11754355579614639
      ]
    ],
    "att.W_query.bias": null,
    "att.W_key.weight": [
      [
        -0.10247859358787537,
        0.22621330618858337,
        -0.308667927980423,
        -0.41317927837371826,
        0.33254480361938477,
        -0.5893667936325073,
        0.7541297078132629,
        0.25166013836860657,
        -0.7526045441627502,
        0.1728341430425644,
        0.10135641694068909,
        -0.21487681567668915
      ],
      [
        -0.2661243677139282,
        0.4814164340496063,
        0.341510534286499,
        -0.6639882922172546,
        -0.3467561900615692,
        -0.43118569254875183,
        -0.03941050544381142,
        0.18415482342243195,
        0.5495298504829407,
        0.06997289508581161,
        -0.07480624318122864,
        -0.0771864652633667
      ],
      [
        -0.5723159909248352,
        0.5800357460975647,
        0.19973598420619965,
        0.25006103515625,
        -0.022794922813773155,
        0.16987064480781555,
        0.23072613775730133,
        -0.627853274345398,
        -0.03877710923552513,
        -0.34644821286201477,
        0.1951604038476944,
        0.2283322662115097
      ],
      [
        0.7453828454017639,
        0.3506036400794983,
        0.14506211876869202,
        -0.5524866580963135,
        -0.16602425277233124,
        0.24439702928066254,
        -0.16518986225128174,
        -0.22759005427360535,
        -0.07377643138170242,
        0.2663196325302124,
        -0.4749203324317932,
        0.09004246443510056
      ],
      [
        -0.3239154517650604,
        -0.23267975449562073,
        0.32649514079093933,
        -0.3591921925544739,
        0.12405665963888168,
        -0.21896077692508698,
        -0.12880605459213257,
        -0.3335028886795044,
        0.1972552388906479,
        0.05588608980178833,
        0.5146837830543518,
        -0.07219044864177704
      ],
      [
        0.845429003238678,
        -0.4071653187274933,
        0.25980710983276367,
        0.399788498878479,
        -0.1981430947780609,
        -0.4101080000400543,
        -0.08570656180381775,
        -0.048450253903865814,
        -0.4235606789588928,
        -0.1129087284207344,
        0.1595517247915268,
        0.7306481003761292
      ],
      [
        -0.020434238016605377,
        0.4772301912307739,
        -0.3195328712463379,
        -1.0384289026260376,
        0.09788219630718231,
        -0.06335745006799698,
        0.044304944574832916,
        0.18521490693092346,
        0.2428250014781952,
        -0.16087956726551056,
        0.24911203980445862,
        0.05521225556731224
      ],
      [
        0.2643299102783203,
        0.1717095673084259,
        0.28557664155960083,
        0.03429744765162468,
        -0.34592223167419434,
        -0.2569087743759155,
        -0.20891216397285461,
        0.286795437335968,
        -0.4415050745010376,
        -0.05184895917773247,
        0.44959497451782227,
        -0.2741813063621521
      ],
      [
        -0.08605433255434036,
        -0.08706789463758469,
        0.20758938789367676,
        -0.05327451974153519,
        -0.567514955997467,
        -0.7514781355857849,
        0.3870488703250885,
        0.14106854796409607,
        0.6653757095336914,
        0.06902483105659485,
        0.16660550236701965,
        -0.180621936917305
      ],
      [
        0.23137357831001282,
        -0.19357991218566895,
        0.20404209196567535,
        0.030385535210371017,
        0.20986928045749664,
        -0.4994092881679535,
        -0.6237452030181885,
        0.0027987747453153133,
        0.44316303730010986,
        0.12336268275976181,
        0.5302780270576477,
        -0.058389805257320404
      ],
      [
        -0.07141482830047607,
        -0.7221956849098206,
        -0.4486598074436188,
        -0.05876792222261429,
        0.7743133902549744,
        -0.0575840063393116,
        0.600877046585083,
        -0.07843068987131119,
        -0.33340513706207275,
        0.11643368005752563,
        -0.006824892945587635,
        -0.24221040308475494
      ],
      [
        0.15750697255134583,
        0.15784260630607605,
        0.12877382338047028,
        -0.39092907309532166,
        0.16645970940589905,
        0.02836836501955986,
        -0.04263173043727875,
        0.6235682368278503,
        -0.3575522005558014,
        0.26020538806915283,
        -0.10870811343193054,
        -1.0473978519439697
      ]
    ],
    "att.W_key.bias": null,
    "att.W_value.weight": [
      [
        -0.33454346656799316,
        -0.33829236030578613,
        -0.11868537217378616,
        0.4351820647716522,
        -0.02039945125579834,
        -0.27233776450157166,
        0.16686934232711792,
        0.0430883914232254,
        -0.08701658248901367,
        0.13556934893131256,
        -0.2550324499607086,
        0.0002923836000263691
      ],
      [
        0.4876887798309326,
        0.10766291618347168,
        0.23417088389396667,
        0.16172868013381958,
        -0.2328876256942749,
        0.06217028200626373,
        0.10082204639911652,
        -0.15715919435024261,
        0.10015750676393509,
        -0.20422951877117157,
        -0.7137776017189026,
        -0.08550668507814407
      ],
      [
        -0.22550660371780396,
        0.3120671212673187,
        -0.26415809988975525,
        0.2623498737812042,
        0.18986380100250244,
        0.19025498628616333,
        -0.32646510004997253,
        -0.05255755037069321,
        -0.3338417708873749,
        0.19481153786182404,
        -0.38904204964637756,
        0.3600062131881714
      ],
      [
        0.19580890238285065,
        0.08623247593641281,
        -0.18274299800395966,
        0.5289701819419861,
        0.1348056048154831,
        -0.23812200129032135,
        -0.4949030876159668,
        -0.01771537959575653,
        0.5111289024353027,
        -0.2390146702528,
        -0.4444985091686249,
        -0.15841461718082428
      ],
      [
        0.059976935386657715,
        0.015039671212434769,
        -0.014033876359462738,
        -0.19949713349342346,
        0.630565345287323,
        0.42039039731025696,
        -0.016867751255631447,
        -0.2976266145706177,
        0.07786573469638824,
        -0.284304678440094,
        -0.24079018831253052,
        0.48943594098091125
      ],
      [
        0.057479411363601685,
        -0.27413180470466614,
        0.08546940237283707,
        -0.16025668382644653,
        -0.2110125869512558,
        0.05026119202375412,
        -0.3390440344810486,
        -0.1486455500125885,
        0.19896234571933746,
        0.8234617710113525,
        0.012361105531454086,
        -0.07558251917362213
      ],
      [
        0.18568456172943115,
        -0.35362708568573,
        -0.11064291000366211,
        -0.3576957881450653,
        -0.40881940722465515,
        0.3735605776309967,
        -0.09243076294660568,
        0.5086215138435364,
        0.05628916248679161,
        0.03210023045539856,
        0.05198335647583008,
        -0.29935112595558167
      ],
      [
        0.031468652188777924,
        -0.38640961050987244,
        0.23167771100997925,
        -0.5040175914764404,
        0.205109640955925,
        -0.04312421381473541,
        0.2705347239971161,
        -0.4808853566646576,
        0.003954743966460228,
        0.20937812328338623,
        0.25805798172950745,
        -0.05268784984946251
      ],
      [
        -0.3910955786705017,
        0.11825702339410782,
        0.15473894774913788,
        -0.14295145869255066,
        0.6059110760688782,
        -0.047415945678949356,
        0.06318909674882889,
        0.2809697091579437,
        0.2686711549758911,
        0.04003869742155075,
        -0.2919870913028717,
        -0.7044996023178101
      ],
      [
        0.18787865340709686,
        0.30902257561683655,
        -0.15525171160697937,
        0.1301800012588501,
        -0.010035639628767967,
        -0.15694685280323029,
        -0.07913682609796524,
        -0.34206435084342957,
        -0.4856854975223541,
        -0.14320257306098938,
        0.5340191721916199,
        0.10152200609445572
      ],
      [
        0.2655025124549866,
        -0.31534942984580994,
        0.3990741968154907,
        -0.4722871780395508,
        -0.07916302978992462,
        0.04333594813942909,
        -0.18481135368347168,
        -0.2114412635564804,
        -0.45080500841140747,
        0.15975122153759003,
        -0.03641887754201889,
        0.10357031226158142
      ],
      [
        0.2259288728237152,
        0.26162591576576233,
        -0.0731908455491066,
        -0.21983584761619568,
        -0.012481165118515491,
        -0.05523784086108208,
        -0.3006194531917572,
        0.24645929038524628,
        0.24342216551303864,
        -0.7428646683692932,
        -0.06157935783267021,
        -0.055490631610155106
      ]
    ],
    "att.W_value.bias": null,
    "att.out_proj.weight": [
      [
        0.3404289484024048,
        -0.16831201314926147,
        0.2369324266910553,
        0.2868388295173645,
        0.0782114565372467,
        -0.09251825511455536,
        -0.3561268746852875,
        -0.13593535125255585,
        -0.021115846931934357,
        0.22176149487495422,
        0.17622141540050507,
        0.24428552389144897
      ],
      [
        -0.4250897467136383,
        -0.04019028693437576,
        0.13138574361801147,
        -0.18001273274421692,
        0.3844524025917053,
        0.18679194152355194,
        0.16426591575145721,
        0.22890828549861908,
        0.06651869416236877,
        0.4878198802471161,
        0.5509156584739685,
        0.015440101735293865
      ],
      [
        0.2114475667476654,
        -0.13122136890888214,
        -0.10805296897888184,
        -0.23650529980659485,
        -0.44465896487236023,
        0.4760207533836365,
        0.015730779618024826,
        0.20148853957653046,
        -0.13516969978809357,
        -0.059672243893146515,
        0.021160507574677467,
        -0.3076174855232239
      ],
      [
        0.20008516311645508,
        -0.34800004959106445,
        0.1362173855304718,
        -0.07557683438062668,
        0.30086269974708557,
        -0.27513912320137024,
        -0.40940263867378235,
        -0.09347648918628693,
        0.23094519972801208,
        -0.04820118099451065,
        -0.14191068708896637,
        -0.36357244849205017
      ],
      [
        -0.2105819433927536,
        0.15804710984230042,
        -0.5551408529281616,
        0.1965031921863556,
        0.2277403324842453,
        0.2778176963329315,
        -0.37556639313697815,
        0.22949913144111633,
        0.5879862904548645,
        -0.18911771476268768,
        -0.22911715507507324,
        0.29796305298805237
      ],
      [
        0.00898053776472807,
        -0.037452440708875656,
        -0.06916926056146622,
        -0.19437222182750702,
        -0.3878636956214905,
        0.20160256326198578,
        -0.3475860357284546,
        -0.06664241850376129,
        -0.33670130372047424,
        0.14876966178417206,
        -0.0020128758624196053,
        0.10200920701026917
      ],
      [
        -0.3970692753791809,
        -0.10058394819498062,
        -0.02346661128103733,
        0.18708792328834534,
        -0.14981265366077423,
        0.2876257002353668,
        0.23419871926307678,
        -0.06834284216165543,
        -0.21292847394943237,
        0.41497787833213806,
        -0.5263491868972778,
        0.3040504455566406
      ],
      [
        -0.04088591784238815,
        0.8599168062210083,
        0.20791566371917725,
        0.29812565445899963,
        0.15890571475028992,
        -0.3717420995235443,
        0.036472249776124954,
        -0.24105873703956604,
        -0.2011163979768753,
        0.07000880688428879,
        0.3262227177619934,
        -0.10717363655567169
      ],
      [
        -0.022966565564274788,
        -0.00033254449954256415,
        0.2994641363620758,
        -0.5203201770782471,
        0.18527041375637054,
        -0.05647578835487366,
        0.026177698746323586,
        0.3840336203575134,
        -0.34167927503585815,
        -0.3501078486442566,
        0.01861298270523548,
        0.12762048840522766
      ],
      [
        0.2339726984500885,
        -0.09347238391637802,
        -0.3443075716495514,
        0.374959796667099,
        -0.410869300365448,
        0.1561690717935562,
        0.2209939807653427,
        0.253234326839447,
        0.06024397909641266,
        0.009287201799452305,
        -0.13910095393657684,
        -0.593490719795227
      ],
      [
        -0.1262618899345398,
        -0.13214991986751556,
        -0.19190926849842072,
        -0.24400556087493896,
        -0.31788578629493713,
        -0.5063927173614502,
        0.40071985125541687,
        -0.6693262457847595,
        -0.07836586982011795,
        -0.523723840713501,
        -0.04945851117372513,
        0.2766951024532318
      ],
      [
        0.05505954101681709,
        -0.19590707123279572,
        0.34759822487831116,
        0.26535189151763916,
        0.17446868121623993,
        -0.07566453516483307,
        0.4110145568847656,
        0.03744392469525337,
        0.45281684398651123,
        -0.17778852581977844,
        -0.1830148696899414,
        0.12984199821949005
      ]
    ],
    "att.out_proj.bias": [
      0.04343049228191376,
      0.009272215887904167,
      0.04465008154511452,
      0.00110348267480731,
      -0.07984165847301483,
      -0.07776868343353271,
      -0.04207729548215866,
      0.1302635818719864,
      -0.03797105327248573,
      -0.07222655415534973,
      0.06705481559038162,
      0.047495171427726746
    ],
    "norm1.scale": [
      0.797424852848053,
      0.8420125842094421,
      0.5847049355506897,
      0.972541332244873,
      0.9891034364700317,
      0.6729961633682251,
      0.8617862462997437,
      0.8778581619262695,
      1.0397202968597412,
      0.800344705581665,
      0.8923524022102356,
      0.9356955289840698
    ],
    "norm1.shift": [
      0.056337278336286545,
      0.12478131800889969,
      0.3508940041065216,
      -0.03456135094165802,
      0.08981023728847504,
      0.01791577972471714,
      -0.16763004660606384,
      0.04880713298916817,
      0.21316970884799957,
      -0.023529214784502983,
      0.09231850504875183,
      -0.02830980345606804
    ],
    "norm2.scale": [
      0.91526859998703,
      0.8259292840957642,
      0.7036576867103577,
      0.8109181523323059,
      0.7470068335533142,
      0.8230909705162048,
      0.9743686318397522,
      0.7479622960090637,
      0.9748860001564026,
      0.9080766439437866,
      0.6626824140548706,
      0.7632001042366028
    ],
    "norm2.shift": [
      -0.023174237459897995,
      -0.4727688729763031,
      -0.13030599057674408,
      0.36151713132858276,
      -0.476687490940094,
      0.06417703628540039,
      -0.2679252624511719,
      -0.2968013882637024,
      0.1998574137687683,
      -0.46811601519584656,
      0.1734839677810669,
      0.44501492381095886
    ],
    "ff.lin1.weight": [
      [
        -0.44011640548706055,
        -0.011537391692399979,
        0.15175384283065796,
        -0.32259321212768555,
        -0.08662468194961548,
        0.2881375253200531,
        0.013818537816405296,
        -0.3208313584327698,
        0.12262029200792313,
        0.16433963179588318,
        0.29339078068733215,
        -0.2888723909854889
      ],
      [
        -0.46246621012687683,
        0.016239311546087265,
        -0.2911871671676636,
        0.0045019276440143585,
        0.7969846129417419,
        -0.1685992330312729,
        0.7411633133888245,
        -0.24498237669467926,
        0.27024173736572266,
        0.6711995601654053,
        -0.12872377038002014,
        -0.177464559674263
      ],
      [
        -0.12086708843708038,
        0.9582346081733704,
        -0.4464091658592224,
        -0.5678678154945374,
        0.31372299790382385,
        0.2633180618286133,
        -0.2831415832042694,
        -0.19944611191749573,
        -0.19415593147277832,
        0.40070095658302307,
        -0.353357195854187,
        0.12776218354701996
      ],
      [
        0.2125338464975357,
        0.22495175898075104,
        -0.05783039331436157,
        -0.32707300782203674,
        -0.37149742245674133,
        0.438425213098526,
        0.6442679762840271,
        0.4921867251396179,
        0.31823569536209106,
        0.12226604670286179,
        -0.5841973423957825,
        0.0035728393122553825
      ],
      [
        -0.1628902703523636,
        0.2718561589717865,
        -0.3067256510257721,
        0.18811817467212677,
        0.08227419853210449,
        -0.3961968421936035,
        0.24295683205127716,
        0.2529560327529907,
        -0.6135296821594238,
        0.4357563257217407,
        0.38359498977661133,
        0.17145437002182007
      ],
      [
        0.06828252971172333,
        0.1004590094089508,
        -0.5156952738761902,
        0.11071199923753738,
        0.26764485239982605,
        0.29758620262145996,
        -0.0009225302492268384,
        -0.4362030327320099,
        -0.16788829863071442,
        0.09660278260707855,
        -0.0012483606114983559,
        -0.6130126118659973
      ],
      [
        -0.09462239593267441,
        0.5181290507316589,
        0.12451088428497314,
        -0.03701874613761902,
        0.056801535189151764,
        0.11232390999794006,
        -0.043924637138843536,
        0.008160659112036228,
        0.33329999446868896,
        0.13626782596111298,
        -0.4240981936454773,
        -0.6042377352714539
      ],
      [
        -0.15609778463840485,
        -0.3148117661476135,
        0.08576616644859314,
        0.5331805348396301,
        0.12250851094722748,
        -0.16071262955665588,
        0.028912419453263283,
        0.0980546772480011,
        0.09458151459693909,
        0.28943613171577454,
        0.07215164601802826,
        -0.18687132000923157
      ],
      [
        -0.7536373138427734,
        0.358350545167923,
        0.10613395273685455,
        -0.029051313176751137,
        -0.20432235300540924,
        -0.559498131275177,
        0.198637917637825,
        0.238570436835289,
        0.06109694018959999,
        -0.11036993563175201,
        0.37325823307037354,
        -0.2570766508579254
      ],
      [
        0.013399550691246986,
        -0.2695949673652649,
        0.11127177625894547,
        0.26650142669677734,
        0.38023537397384644,
        0.27642157673835754,
        -0.042796790599823,
        -0.4473769962787628,
        -0.28146958351135254,
        0.503187358379364,
        0.2438405454158783,
        -0.6530188918113708
      ],
      [
        0.271485298871994,
        -0.14075085520744324,
        -0.2991216480731964,
        -0.04432675987482071,
        0.1556001603603363,
        0.2521645426750183,
        0.19086943566799164,
        -0.269136518239975,
        0.49996498227119446,
        -0.2054820954799652,
        -0.050960931926965714,
        -0.1642373949289322
      ],
      [
        0.10855887830257416,
        0.40789633989334106,
        0.16917334496974945,
        -0.48675820231437683,
        -0.3583715856075287,
        -0.1781785935163498,
        0.5538890957832336,
        0.3565666079521179,
        0.5269040465354919,
        0.19624608755111694,
        0.08464838564395905,
        -0.736977756023407
      ],
      [
        0.4545225501060486,
        0.38297024369239807,
        0.07055693864822388,
        0.3047619163990021,
        -0.23152843117713928,
        -0.3241298496723175,
        0.3294994831085205,
        0.35951051115989685,
        0.26463568210601807,
        -0.17492377758026123,
        0.009247192181646824,
        0.07300170511007309
      ],
      [
        0.2477506548166275,
        0.49938932061195374,
        0.09388398379087448,
        -0.20363086462020874,
        0.278266042470932,
        -0.5779584050178528,
        0.19349905848503113,
        -0.002127026906237006,
        0.05143635720014572,
        0.1802600771188736,
        -0.18962174654006958,
        0.23785603046417236
      ],
      [
        0.31112122535705566,
        0.028448602184653282,
        0.11727059632539749,
        -0.1979168951511383,
        0.004077630117535591,
        -0.28306496143341064,
        -0.2985656261444092,
        -0.051467739045619965,
        0.35207363963127136,
        -0.1872754842042923,
        0.3685758113861084,
        -0.18174968659877777
      ],
      [
        -0.043709900230169296,
        -0.06244399771094322,
        -0.024430138990283012,
        0.1518561840057373,
        0.4050671458244324,
        0.38795432448387146,
        -0.5648860931396484,
        -0.08719784766435623,
        -0.27369022369384766,
        -0.015803564339876175,
        0.1509157121181488,
        -0.29156747460365295
      ],
      [
        0.1659368872642517,
        0.3034763038158417,
        0.38210150599479675,
        -0.07071135938167572,
        0.4098435938358307,
        0.2392633855342865,
        -0.140167236328125,
        -0.1264299750328064,
        -0.2754207253456116,
        -0.3299604058265686,
        -0.305820494890213,
        0.0031496332958340645
      ],
      [
        0.44277697801589966,
        0.3409264087677002,
        -0.36881953477859497,
        -0.0940924733877182,
        0.087751105427742,
        0.004224786069244146,
        0.5364663600921631,
        0.3897190988063812,
        -0.2670871615409851,
        -0.37120482325553894,
        -0.359455943107605,
        -0.06739455461502075
      ],
      [
        0.3980228900909424,
        0.279170960187912,
        0.3000127673149109,
        0.05927534028887749,
        0.15484581887722015,
        -0.12028800696134567,
        0.1768190860748291,
        -0.12520967423915863,
        -0.3857552707195282,
        -0.32704341411590576,
        0.4980778098106384,
        -0.011583592742681503
      ],
      [
        0.14908048510551453,
        0.07400020956993103,
        -0.08648115396499634,
        -0.04928138107061386,
        0.3410979211330414,
        -0.23766294121742249,
        0.9052706360816956,
        -0.04082134738564491,
        -0.40088024735450745,
        0.13066884875297546,
        -0.09491019695997238,
        -0.46339988708496094
      ],
      [
        -0.3754029870033264,
        0.22739338874816895,
        -0.24733039736747742,
        -0.3624115288257599,
        0.4169943630695343,
        0.3660547435283661,
        0.015613097697496414,
        0.3917669951915741,
        0.09650544822216034,
        0.4075835049152374,
        -0.6403769254684448,
        -0.3556956946849823
      ],
      [
        -0.2166711837053299,
        -0.012082374654710293,
        0.12079069018363953,
        0.2566186487674713,
        0.26084640622138977,
        0.05700293555855751,
        0.03426680713891983,
        -0.1910931020975113,
        0.2508830428123474,
        -0.09387543797492981,
        -0.23199307918548584,
        0.30451348423957825
      ],
      [
        0.5695427656173706,
        0.3119564950466156,
        -0.3229341208934784,
        -0.3733721375465393,
        -0.16320374608039856,
        0.5935527682304382,
        -0.25234681367874146,
        0.17564281821250916,
        -0.2576253414154053,
        0.20273149013519287,
        0.04348067194223404,
        -0.34148600697517395
      ],
      [
        0.2913435995578766,
        0.05016352981328964,
        0.021387282758951187,
        -0.15558311343193054,
        0.537517249584198,
        -0.35102468729019165,
        -0.14400145411491394,
        0.6683598160743713,
        0.40742868185043335,
        -0.21700134873390198,
        -0.23298339545726776,
        -0.41293755173683167
      ],
      [
        -0.40282225608825684,
        0.008565239608287811,
        0.40243011713027954,
        -0.3707834482192993,
        -0.11879017949104309,
        -0.31291431188583374,
        -0.09303228557109833,
        0.6682591438293457,
        -0.41499048471450806,
        0.13083769381046295,
        0.12099167704582214,
        -0.07119397819042206
      ],
      [
        0.6460363268852234,
        -0.25080227851867676,
        0.3678322732448578,
        -0.34779465198516846,
        0.4662056565284729,
        -0.12693572044372559,
        0.43646785616874695,
        0.21359343826770782,
        -0.2072608917951584,
        -0.11800801753997803,
        0.06798595935106277,
        -0.5531131625175476
      ],
      [
        -0.4685600697994232,
        0.055558715015649796,
        0.036408305168151855,
        0.01805262640118599,
        0.5026953220367432,
        -0.5126203894615173,
        0.48563817143440247,
        0.2579609751701355,
        0.24454258382320404,
        -0.3613010048866272,
        -0.0461689718067646,
        0.025520192459225655
      ],
      [
        -0.376788467168808,
        0.2095220535993576,
        0.17284341156482697,
        -0.24116571247577667,
        0.5748948454856873,
        0.12658141553401947,
        0.4398772418498993,
        -0.24302783608436584,
        0.18383508920669556,
        -0.1586134433746338,
        -0.13468511402606964,
        0.2691493332386017
      ],
      [
        0.3263078033924103,
        0.15523186326026917,
        -0.43180301785469055,
        0.2869473099708557,
        0.5092167258262634,
        0.2537205219268799,
        -0.01197808701545,
        -0.05159962549805641,
        -0.5639002919197083,
        -0.19020648300647736,
        0.0970015898346901,
        0.18609507381916046
      ],
      [
        -0.08792511373758316,
        0.5666946768760681,
        -0.4447398781776428,
        -0.048286452889442444,
        0.2258254438638687,
        -0.1342524141073227,
        0.26450473070144653,
        0.3401479125022888,
        0.6511622667312622,
        0.01396708283573389,
        0.026463782414793968,
        -0.12632660567760468
      ],
      [
        -0.15018300712108612,
        -0.33264032006263733,
        -0.1740090548992157,
        -0.14608129858970642,
        0.03284291923046112,
        0.05775041505694389,
        -0.32039937376976013,
        0.5103089213371277,
        -0.06980051100254059,
        0.5972597002983093,
        -0.3079066574573517,
        0.0017572555225342512
      ],
      [
        -0.356330007314682,
        0.14290699362754822,
        -0.5302513837814331,
        -0.3539005517959595,
        -0.034649211913347244,
        -0.1276557743549347,
        0.3881281018257141,
        0.3390979766845703,
        0.43709632754325867,
        0.3884807229042053,
        -0.4762093722820282,
        0.5238415002822876
      ],
      [
        0.0015533617697656155,
        0.32687509059906006,
        0.006283008027821779,
        -0.06779470294713974,
        0.01755545660853386,
        0.06270486861467361,
        -0.4215388894081116,
        0.33389410376548767,
        -0.4459299147129059,
        0.26968294382095337,
        0.1517062783241272,
        0.28421592712402344
      ],
      [
        0.1952551156282425,
        0.41486960649490356,
        0.3115021586418152,
        -0.4939565062522888,
        0.005926033947616816,
        0.12736359238624573,
        -0.44854626059532166,
        -0.21514062583446503,
        -0.19607749581336975,
        0.030299045145511627,
        0.04359111562371254,
        0.04744444414973259
      ],
      [
        -0.031267885118722916,
        0.10042916983366013,
        0.3546629846096039,
        -0.021168619394302368,
        0.08352553099393845,
        0.2942766845226288,
        -0.15646331012248993,
        0.5856796503067017,
        -0.3403923213481903,
        0.162763774394989,
        -0.12991458177566528,
        -0.8183901906013489
      ],
      [
        0.30502641201019287,
        0.7887631058692932,
        -0.026421532034873962,
        -0.4171825349330902,
        0.05141531676054001,
        0.4876263737678528,
        -0.15222132205963135,
        -0.09550672769546509,
        -0.3046742081642151,
        -0.16073772311210632,
        -0.34085917472839355,
        0.2885030210018158
      ],
      [
        -0.2374790757894516,
        0.2979888916015625,
        0.0963473841547966,
        -0.20975907146930695,
        0.1669977605342865,
        -0.42615100741386414,
        0.2532903254032135,
        0.11139242351055145,
        0.3806000351905823,
        0.8353419303894043,
        -0.252269446849823,
        0.10339804738759995
      ],
      [
        0.3810320198535919,
        0.34737470746040344,
        0.25564950704574585,
        -0.7113271355628967,
        0.38150686025619507,
        0.02801642194390297,
        0.18295148015022278,
        -0.5047215819358826,
        -0.4482979476451874,
        0.6861258149147034,
        0.07847684621810913,
        0.055217109620571136
      ],
      [
        0.019339395686984062,
        0.1027253270149231,
        0.5920999646186829,
        -0.43328696489334106,
        0.20629802346229553,
        -0.0355970561504364,
        -0.5709229111671448,
        -0.11986653506755829,
        0.25859904289245605,
        0.5345712304115295,
        -0.37373337149620056,
        -0.10437715798616409
      ],
      [
        0.07914178818464279,
        0.21582114696502686,
        0.5688328742980957,
        -0.4454025626182556,
        -0.22400160133838654,
        -0.48991653323173523,
        -0.1330801546573639,
        0.0761183351278305,
        0.1792028695344925,
        -0.08560415357351303,
        0.14730989933013916,
        -0.37472739815711975
      ],
      [
        0.2596050500869751,
        -0.06424926221370697,
        -0.5455754399299622,
        -0.2580759823322296,
        -0.09283696115016937,
        0.044912468641996384,
        0.38698458671569824,
        0.4757164418697357,
        -0.1134876012802124,
        0.6229909658432007,
        -0.02060997299849987,
        -0.5321441292762756
      ],
      [
        0.4036060869693756,
        -0.32553473114967346,
        0.06393609941005707,
        -0.15637540817260742,
        0.05834794044494629,
        0.37343743443489075,
        0.12710857391357422,
        0.3335518538951874,
        0.004133465234190226,
        -0.23892316222190857,
        -0.8341315984725952,
        -0.3147045075893402
      ],
      [
        -0.05458899587392807,
        0.10621847957372665,
        0.2474847435951233,
        0.2974066734313965,
        -0.20365847647190094,
        0.1874089390039444,
        0.3248891830444336,
        0.14523309469223022,
        -0.4309943914413452,
        0.3216060996055603,
        -0.3424219489097595,
        -0.2877354919910431
      ],
      [
        0.11647695302963257,
        -0.21461845934391022,
        -0.23827090859413147,
        -0.5297526717185974,
        0.29079383611679077,
        0.5546740293502808,
        -0.11472580581903458,
        0.07184001803398132,
        -0.5318173766136169,
        0.29274678230285645,
        -0.08875703811645508,
        0.047680631279945374
      ],
      [
        0.16991236805915833,
        0.6799758672714233,
        -0.044423509389162064,
        -0.043787162750959396,
        -0.5312492847442627,
        -0.32150760293006897,
        -0.08497604727745056,
        0.2812759578227997,
        0.022672602906823158,
        0.4608900547027588,
        -0.18418632447719574,
        -0.25783562660217285
      ],
      [
        -0.3040604889392853,
        0.22994384169578552,
        -0.16171403229236603,
        0.6006457805633545,
        0.0402381606400013,
        -0.05020034313201904,
        0.379759818315506,
        -0.24112491309642792,
        -0.09152118116617203,
        0.3854018449783325,
        -0.0996183529496193,
        -0.1406678557395935
      ],
      [
        0.06597328931093216,
        0.4354231357574463,
        -0.3756381869316101,
        -0.5136206150054932,
        0.4937305152416229,
        0.30937308073043823,
        -0.017245233058929443,
        0.19121716916561127,
        -0.2685687839984894,
        -0.4168236553668976,
        0.03420845419168472,
        -0.008980358019471169
      ],
      [
        -0.0954979881644249,
        -0.37958481907844543,
        0.055496055632829666,
        -0.2716587483882904,
        0.5344544053077698,
        0.44689440727233887,
        -0.10587795078754425,
        -0.27787965536117554,
        -0.3281557857990265,
        0.31691470742225647,
        0.013340054079890251,
        -0.34714025259017944
      ]
    ],
    "ff.lin1.bias": [
      -0.2445726990699768,
      -0.8866005539894104,
      -0.39571866393089294,
      -0.4896775484085083,
      -0.5150438547134399,
      -0.23701786994934082,
      -0.064605213701725,
      -0.5080888867378235,
      -0.5099419355392456,
      -0.44235458970069885,
      -0.2965661883354187,
      -0.33302661776542664,
      -0.6208226084709167,
      -0.18170961737632751,
      -0.36363089084625244,
      -0.43464013934135437,
      -0.21758094429969788,
      0.014170384034514427,
      -0.45301562547683716,
      -0.32042112946510315,
      -0.222512349486351,
      -0.5329124927520752,
      -0.14964644610881805,
      -0.3559154272079468,
      -0.36616772413253784,
      -0.17830991744995117,
      -0.37183845043182373,
      -0.1794106811285019,
      -0.3851486146450043,
      -0.3055621385574341,
      -0.5933709144592285,
      -0.5984650254249573,
      -0.4658847451210022,
      -0.3287665843963623,
      -0.13072168827056885,
      -0.3292180895805359,
      -0.1789514124393463,
      -0.6321143507957458,
      -0.5957915782928467,
      -0.21759748458862305,
      -0.06904315948486328,
      -0.5544248819351196,
      -0.15842479467391968,
      -0.20168930292129517,
      -0.551102340221405,
      -0.5294644832611084,
      -0.4731772840023041,
      -0.43248239159584045
    ],
    "ff.lin2.weight": [
      [
        0.07005017250776291,
        -0.0947355404496193,
        -0.6023746728897095,
        -0.4238228499889374,
        -0.16661803424358368,
        -0.050443246960639954,
        -0.2086867094039917,
        0.08474129438400269,
        -0.3426429033279419,
        0.17015276849269867,
        0.249693363904953,
        -0.01647987589240074,
        -0.1892157942056656,
        0.353153795003891,
        -0.17016001045703888,
        0.0864659771323204,
        0.10180733352899551,
        0.18927063047885895,
        -0.3131856322288513,
        0.05877816677093506,
        -0.3244117200374603,
        0.2801922857761383,
        0.14614969491958618,
        0.18114005029201508,
        0.2061653882265091,
        -0.07253960520029068,
        -0.3637000322341919,
        -0.142141193151474,
        -0.1860974282026291,
        0.019307591021060944,
        -0.15475821495056152,
        0.28850534558296204,
        0.14635078608989716,
        -0.0675426796078682,
        -0.15957897901535034,
        0.17841742932796478,
        -0.062116414308547974,
        0.34949395060539246,
        -0.2811999022960663,
        -0.14533738791942596,
        -0.18596680462360382,
        -0.19669565558433533,
        0.36639395356178284,
        -0.28772106766700745,
        -0.25990602374076843,
        -0.12052641063928604,
        -0.23675276339054108,
        -0.3844369649887085
      ],
      [
        0.13153764605522156,
        -0.3356339633464813,
        0.07174205780029297,
        0.20968535542488098,
        0.23796910047531128,
        0.29651570320129395,
        -0.033330366015434265,
        -0.5179471969604492,
        -0.006687062792479992,
        -0.4850277602672577,
        0.23800808191299438,
        -0.19132590293884277,
        -0.037564344704151154,
        0.0045498935505747795,
        0.021452246233820915,
        -0.5175524353981018,
        -0.12889382243156433,
        0.02433186024427414,
        0.10090824216604233,
        -0.18100018799304962,
        0.05017178878188133,
        0.18546614050865173,
        -0.42629215121269226,
        0.29545852541923523,
        0.21891282498836517,
        0.24180538952350616,
        -0.19783025979995728,
        0.08142311871051788,
        0.2010149210691452,
        0.32110899686813354,
        -0.23387333750724792,
        0.0636996477842331,
        0.1299506574869156,
        0.10536935180425644,
        0.2586192786693573,
        -0.5847567319869995,
        -0.4083566963672638,
        0.051428236067295074,
        0.10228855907917023,
        -0.08951634913682938,
        -0.5092466473579407,
        -0.1668013334274292,
        0.1380760222673416,
        -0.13996098935604095,
        0.05758580565452576,
        0.13281521201133728,
        -0.4350314438343048,
        0.04579371213912964
      ],
      [
        0.060220979154109955,
        -0.17436833679676056,
        0.5267847776412964,
        0.07124495506286621,
        0.1384490430355072,
        -0.2777664065361023,
        -0.038902632892131805,
        -0.13503600656986237,
        0.0792817696928978,
        -0.027220332995057106,
        0.012543736025691032,
        -0.08064442127943039,
        0.21744894981384277,
        0.0500141903758049,
        0.4222905933856964,
        0.18308895826339722,
        0.25396308302879333,
        -0.3844625949859619,
        0.2536246180534363,
        0.18349900841712952,
        -0.22447335720062256,
        0.05758927762508392,
        -0.0761747807264328,
        0.13522695004940033,
        -0.5925813913345337,
        0.128081813454628,
        -0.1378060132265091,
        -0.07729220390319824,
        0.27519458532333374,
        -0.3879113793373108,
        -0.27998289465904236,
        0.14115600287914276,
        -0.22055953741073608,
        0.0987326130270958,
        -0.2995729148387909,
        0.04386116936802864,
        0.27887994050979614,
        0.4953900873661041,
        -0.4064182639122009,
        0.20595213770866394,
        -0.03244027495384216,
        0.2681146562099457,
        0.08664192259311676,
        0.322597473859787,
        0.10125010460615158,
        0.35182416439056396,
        -0.3907557725906372,
        0.1271786242723465
      ],
      [
        -0.07685832679271698,
        -0.2986254096031189,
        0.3205467760562897,
        -0.20601053535938263,
        -0.29677897691726685,
        0.1487656980752945,
        0.2822111248970032,
        0.22083915770053864,
        -0.2564941346645355,
        -0.18159475922584534,
        -0.2559362053871155,
        0.11931527405977249,
        -0.11840427666902542,
        -0.23773600161075592,
        -0.061896804720163345,
        0.10142520815134048,
        0.1436251699924469,
        -0.12891821563243866,
        0.32571500539779663,
        0.06308096647262573,
        -0.04977593570947647,
        -0.16498926281929016,
        -0.0859392061829567,
        -0.30682429671287537,
        -0.25057876110076904,
        -0.08597511053085327,
        0.30263739824295044,
        -0.1722063422203064,
        0.13710159063339233,
        -0.0016027272213250399,
        0.2556120455265045,
        -0.3052615821361542,
        -0.19435375928878784,
        0.0948353111743927,
        0.28587448596954346,
        -0.23681922256946564,
        -0.14012689888477325,
        -0.11787991970777512,
        -0.12938520312309265,
        -0.2912052869796753,
        0.30803146958351135,
        -0.2702983617782593,
        -0.0750318244099617,
        0.027617158368229866,
        0.1471126228570938,
        0.24977995455265045,
        0.3581840395927429,
        -0.32795438170433044
      ],
      [
        -0.13354133069515228,
        0.017403388395905495,
        -0.35449647903442383,
        0.01399209350347519,
        -0.0966121256351471,
        0.4028110206127167,
        -0.09930643439292908,
        -0.1080256998538971,
        0.2149963080883026,
        0.08513614535331726,
        -0.0014960408443585038,
        0.08434456586837769,
        -0.512315034866333,
        0.1260831505060196,
        0.07488059997558594,
        0.21739184856414795,
        -0.12902410328388214,
        -0.12335667759180069,
        -0.28140074014663696,
        0.06234285980463028,
        -0.1016424149274826,
        -0.20387206971645355,
        -0.14046210050582886,
        -0.18872591853141785,
        0.24852940440177917,
        0.177683487534523,
        0.048400674015283585,
        0.26675617694854736,
        -0.2863089442253113,
        -0.10725957900285721,
        -0.23686441779136658,
        -0.3654504418373108,
        0.20476098358631134,
        0.08722911030054092,
        -0.10438978672027588,
        -0.43250933289527893,
        -0.49086806178092957,
        -0.1974712759256363,
        0.13495366275310516,
        0.030110308900475502,
        0.2360026240348816,
        -0.2542445659637451,
        0.01861102692782879,
        -0.03552444279193878,
        -0.03969867154955864,
        0.03785962983965874,
        -0.23225124180316925,
        -0.11289017647504807
      ],
      [
        0.40132030844688416,
        0.047259360551834106,
        -0.3710290789604187,
        -0.06656952947378159,
        0.03050088882446289,
        -0.008494595065712929,
        0.03576722368597984,
        0.10480174422264099,
        0.49234259128570557,
        -0.10467890650033951,
        -0.050070621073246,
        0.23671016097068787,
        0.15398015081882477,
        -0.40621474385261536,
        -0.37239620089530945,
        -0.2059507668018341,
        0.10244952887296677,
        -0.4341793954372406,
        -0.018761832267045975,
        -0.6361832022666931,
        0.12299302965402603,
        0.07930141687393188,
        0.34406667947769165,
        -0.17570151388645172,
        0.47466471791267395,
        0.27656126022338867,
        -0.07483510673046112,
        -0.16867880523204803,
        0.12228082865476608,
        -0.18724821507930756,
        -0.11538518220186234,
        0.36482444405555725,
        -0.03238074481487274,
        -0.22508637607097626,
        0.04305974021553993,
        0.031969573348760605,
        -0.04784781485795975,
        0.2536107301712036,
        -0.06350009143352509,
        -0.04065440595149994,
        -0.504645824432373,
        0.1808115541934967,
        0.03148996829986572,
        0.030961625277996063,
        0.028395650908350945,
        0.04709881916642189,
        -0.02691611833870411,
        0.02198266237974167
      ],
      [
        -0.2663919925689697,
        -0.003854182781651616,
        0.27976253628730774,
        0.1319299042224884,
        0.23969024419784546,
        -0.2136583775281906,
        -0.003916538320481777,
        -0.06685996800661087,
        0.00888003408908844,
        -0.14619645476341248,
        0.16707678139209747,
        0.6946663856506348,
        0.06973237544298172,
        0.30431100726127625,
        -0.2891979515552521,
        0.01615423895418644,
        0.2570273280143738,
        -0.1609022468328476,
        -0.044867247343063354,
        -0.28954482078552246,
        0.049204643815755844,
        -0.031053144484758377,
        0.042260728776454926,
        -0.14337950944900513,
        -0.10369545966386795,
        0.506901204586029,
        0.22088414430618286,
        0.08970300853252411,
        0.4003949463367462,
        -0.08347474783658981,
        0.2613300085067749,
        -0.20614677667617798,
        0.19330526888370514,
        0.2648472785949707,
        0.040066175162792206,
        0.40405282378196716,
        0.2664087116718292,
        -0.3347295820713043,
        0.13903486728668213,
        0.13683822751045227,
        0.3257981538772583,
        0.5383855104446411,
        -0.07538314163684845,
        0.3455447554588318,
        0.12143871933221817,
        0.08542617410421371,
        -0.06714686006307602,
        0.1310427039861679
      ],
      [
        0.17548638582229614,
        -0.00906472746282816,
        -0.09440582990646362,
        0.313032865524292,
        0.47618693113327026,
        -0.18956245481967926,
        -0.12345270067453384,
        -0.1667308807373047,
        -0.2875158488750458,
        0.48738574981689453,
        -0.0672866627573967,
        -0.48700660467147827,
        0.21241319179534912,
        0.013021104969084263,
        0.126057431101799,
        0.21337680518627167,
        0.011391169391572475,
        0.19784404337406158,
        0.010297780856490135,
        -0.025978971272706985,
        0.266543984413147,
        0.024692481383681297,
        -0.05208083987236023,
        0.6535030603408813,
        -0.11909046769142151,
        -0.44847381114959717,
        0.04886870086193085,
        -0.04885794594883919,
        -0.019695648923516273,
        -0.2227833867073059,
        -0.08339892327785492,
        0.32439035177230835,
        -0.24684350192546844,
        -0.09905818849802017,
        0.3210083544254303,
        -0.06257664412260056,
        -0.17543931305408478,
        -0.8594445586204529,
        0.1298699527978897,
        0.44395869970321655,
        0.08745090663433075,
        -0.1881769746541977,
        -0.006209914572536945,
        -0.041379164904356,
        0.08474332839250565,
        -0.4788091480731964,
        0.3902602791786194,
        0.39839792251586914
      ],
      [
        -0.10506012290716171,
        -0.18935143947601318,
        -0.0017751329578459263,
        -0.3358655869960785,
        0.07495976984500885,
        -0.3087158203125,
        0.6054441332817078,
        0.011348784901201725,
        0.27682626247406006,
        0.11721496284008026,
        0.2650618255138397,
        0.10952603071928024,
        0.0039865197613835335,
        -0.07835140079259872,
        0.002108328277245164,
        -0.14618124067783356,
        -0.2996094524860382,
        -0.05884387344121933,
        0.0827268734574318,
        -0.48768913745880127,
        0.5065387487411499,
        0.049739938229322433,
        -0.21887867152690887,
        0.053067754954099655,
        0.056717514991760254,
        -0.4208618998527527,
        0.09347735345363617,
        0.22884143888950348,
        -0.22465994954109192,
        0.17300055921077728,
        0.31165552139282227,
        -0.4833100736141205,
        0.17385880649089813,
        -0.4702279567718506,
        -0.45779645442962646,
        0.27893736958503723,
        0.2693758010864258,
        0.33475831151008606,
        -0.11975089460611343,
        -0.3621058166027069,
        0.19636106491088867,
        0.23498080670833588,
        -0.24877120554447174,
        0.2513653337955475,
        -0.2490161657333374,
        -0.1202453151345253,
        0.1652008444070816,
        -0.0655633881688118
      ],
      [
        0.06660936027765274,
        0.8718062043190002,
        0.11982832103967667,
        0.32231223583221436,
        0.03906158730387688,
        0.18892833590507507,
        0.08825872838497162,
        -0.03911907225847244,
        -0.09217110276222229,
        0.1063583493232727,
        -0.2828947603702545,
        -0.3896077871322632,
        -0.1821030080318451,
        -0.08863072097301483,
        0.22187207639217377,
        -0.1487734317779541,
        -0.04183054342865944,
        0.11959900707006454,
        -0.1503620743751526,
        0.27507033944129944,
        -0.2828768789768219,
        0.09380661696195602,
        0.31936341524124146,
        0.050482604652643204,
        -0.11529439687728882,
        -0.13207575678825378,
        0.17577782273292542,
        -0.2302108108997345,
        0.1007719486951828,
        0.163563072681427,
        -0.2369692176580429,
        0.0013577272184193134,
        -0.1229654923081398,
        0.020047739148139954,
        0.2508835792541504,
        0.024765923619270325,
        0.21404996514320374,
        -0.47702041268348694,
        0.829140305519104,
        0.0030859760008752346,
        -0.2709708511829376,
        0.17349392175674438,
        -0.1987772136926651,
        -0.355033814907074,
        0.31889423727989197,
        0.07105183601379395,
        -0.368237167596817,
        -0.041942983865737915
      ],
      [
        -0.24763311445713043,
        -0.09322049468755722,
        0.38876113295555115,
        -0.026691587641835213,
        -0.4162193834781647,
        0.2084158957004547,
        -0.21780653297901154,
        0.2025660276412964,
        0.20025362074375153,
        -0.16202782094478607,
        -0.01849471777677536,
        -0.12008345872163773,
        0.29339271783828735,
        -0.03946780413389206,
        -0.014795411378145218,
        0.007233050651848316,
        -0.29139262437820435,
        0.33654266595840454,
        -0.03248540684580803,
        0.35637611150741577,
        -0.0638713538646698,
        -0.08694002032279968,
        0.391530305147171,
        -0.32532715797424316,
        0.03574923053383827,
        0.37741389870643616,
        -0.0556001141667366,
        -0.3133249878883362,
        -0.1514533907175064,
        0.10487702488899231,
        0.10460885614156723,
        0.033719487488269806,
        -0.08477361500263214,
        0.09757200628519058,
        -0.0989481657743454,
        0.3975019156932831,
        0.08379551768302917,
        0.0776674747467041,
        -0.5396471619606018,
        0.0007995259948074818,
        0.03025956265628338,
        -0.1821841299533844,
        -0.44055691361427307,
        0.012023714371025562,
        0.12575964629650116,
        -0.04868561029434204,
        0.21141941845417023,
        -0.21367929875850677
      ],
      [
        -0.10830186307430267,
        -0.23118466138839722,
        -0.12342029809951782,
        -0.15546488761901855,
        -0.09338689595460892,
        -0.28200575709342957,
        -0.2446611374616623,
        0.059797488152980804,
        -0.2737247049808502,
        0.28324249386787415,
        -0.12463955581188202,
        -0.007631149608641863,
        -0.034849975258111954,
        -0.043272942304611206,
        -0.03927915543317795,
        0.1326395869255066,
        -0.032226867973804474,
        0.2994614243507385,
        0.10507673025131226,
        0.48164916038513184,
        0.0032152205239981413,
        -0.10895311087369919,
        -0.05440349876880646,
        -0.2459796816110611,
        -0.20490030944347382,
        -0.22797401249408722,
        -0.1561143696308136,
        0.4106350541114807,
        0.027480024844408035,
        0.02416841685771942,
        0.24027429521083832,
        0.19994421303272247,
        0.40322428941726685,
        0.06499927490949631,
        -0.1713552474975586,
        0.17167708277702332,
        0.034078504890203476,
        0.16033712029457092,
        0.025052206590771675,
        0.17305631935596466,
        0.22049449384212494,
        -0.01102893054485321,
        0.09442073851823807,
        0.22786712646484375,
        -0.4876810908317566,
        0.039864927530288696,
        0.4939468801021576,
        0.17652291059494019
      ]
    ],
    "ff.lin2.bias": [
      -0.1656106561422348,
      -0.18536418676376343,
      -0.008874411694705486,
      0.16288110613822937,
      -0.14027026295661926,
      -0.00890327338129282,
      0.07799237221479416,
      -0.08890517055988312,
      -0.15438531339168549,
      0.1607627421617508,
      0.041195958852767944,
      0.09207470715045929
    ]
  }
}