// Automatically generated file - model_emb12_h4_l1_d001_ep500_bs8_lr0005_model.cpp
#include "model_emb12_h4_l1_d001_ep500_bs8_lr0005_model.h"

namespace model_emb12_h4_l1_d001_ep500_bs8_lr0005 {
// Weight definitions
const float MODEL_DATA_STORAGE tok_emb_weight[VOCAB_SIZE][EMB_DIM] = {{-0.55999482f, -0.50004435f, 0.27395159f, -1.57734144f, -0.55667251f, -0.02064738f, 0.55503136f, 0.55874616f, -0.33218911f, -0.24738880f, -0.15524222f, 0.20338294f}, {0.89907742f, 0.19779852f, -1.32229877f, -0.02043987f, -0.37170121f, -0.63252789f, -0.08853039f, 0.15162483f, -1.17790258f, -0.63604313f, -0.49836788f, -1.38690662f}, {-0.44234273f, 0.59930700f, -0.42146757f, -0.40328625f, 0.81708884f, 0.01830303f, -1.74264097f, -1.03015828f, 0.86501122f, -0.75476944f, -0.38935539f, 0.57887924f}, {-0.42434105f, -1.32752097f, -0.37968805f, 0.97101367f, -0.09945368f, 0.50264293f, -0.13596492f, 0.22602637f, 0.14365822f, -0.83766377f, 0.53900254f, -0.87849772f}, {-1.53587794f, 1.02512372f, -0.12992956f, -0.52119428f, -0.52951771f, -0.09499127f, 0.13656777f, -0.32168525f, 0.84824389f, 0.03296340f, -0.83839208f, 0.08947748f}, {-0.75025791f, -1.12207365f, 0.59652841f, -0.95357478f, -0.63818204f, 1.24571276f, 0.37325662f, 0.05472525f, 0.44492608f, 0.12195683f, 0.40828469f, -0.06281774f}, {-0.29106647f, 1.06836510f, 1.43643355f, -0.78611469f, 1.00960231f, 0.19017848f, 0.01321950f, -0.44657141f, 0.92534512f, -1.57195854f, -0.42424148f, 0.52374500f}, {-0.59323984f, 0.17157643f, -0.70206350f, 1.13812244f, -0.39290407f, -1.10156000f, 0.97394377f, 0.48991108f, 0.50215203f, -0.24047276f, -0.18579927f, -0.19594350f}, {-1.77400374f, -0.35080293f, 1.07212293f, 0.17837870f, -1.54000235f, 0.26449645f, 0.42977041f, 0.87965000f, -0.65495801f, -0.72104305f, 2.61527681f, 1.15565932f}, {-0.62322992f, 0.84512287f, -0.70125371f, 0.58349836f, 1.07842433f, -0.44072479f, 0.25234532f, -1.87155879f, 0.70040888f, 0.50824863f, -1.46905768f, -0.55458540f}, {0.39322814f, -0.76148993f, -1.55733490f, 0.67235762f, 0.66048598f, -0.30344847f, 0.99515170f, 0.71440333f, -0.12775299f, 1.07519603f, -0.72829211f, -0.89343160f}, {0.19720531f, -0.66818511f, 0.81710052f, -1.36515284f, -0.62183350f, 1.32553840f, 1.32553947f, -1.16555774f, 1.19095671f, -1.76082861f, 0.39904529f, 2.55161047f}, {1.01715505f, -0.38799086f, -0.35564578f, -0.76274025f, 0.33225432f, -1.46712852f, 1.32692361f, 0.17635019f, 0.27749738f, -0.52526975f, 1.05245566f, 1.26727867f}, {-0.61688137f, -1.66926944f, 1.38190353f, -1.01094103f, 0.22258219f, -2.00630498f, 0.68331075f, 0.73571980f, 0.34954128f, 0.35056496f, -0.46853411f, 0.74567407f}, {1.52654576f, -1.24354732f, 1.10258448f, 0.99260837f, 0.06685833f, -0.57590365f, -1.64110923f, -0.42740622f, -0.46397462f, 0.87352759f, 0.06647512f, 0.25888696f}, {0.18983631f, 1.35063708f, -0.88638550f, -1.63949978f, -0.06722552f, 0.41149503f, 1.64554894f, -0.71161985f, 0.10651454f, -2.51708603f, 0.97784454f, 0.18524839f}, {1.14941013f, 0.80589348f, -0.35261893f, -0.23197019f, -0.03025383f, 0.44459513f, 0.44732526f, -0.53975993f, -1.56824481f, 1.81760228f, 0.70801997f, 0.19861381f}, {0.59242803f, 0.49278665f, -0.45859444f, -0.89296687f, 0.78430295f, -0.64214814f, 0.37221476f, -0.92597771f, -0.64364916f, -0.33323374f, -0.86334610f, 1.35737813f}, {-0.53359753f, 1.09200406f, 0.62516052f, -0.13830301f, 0.51590943f, 0.12040430f, -0.98000908f, -1.02045345f, 0.60681713f, -0.38822821f, -0.89160681f, 1.05309176f}, {0.46372229f, 0.54522520f, -0.22822936f, 0.76423967f, 0.13395280f, -0.57401866f, 0.03532813f, 0.36646542f, -0.62784892f, 0.11654245f, 0.55533284f, 0.25128716f}, {0.11241084f, -0.55768335f, 0.55178851f, 0.85136211f, 0.31020626f, 0.84422094f, -0.67351973f, 1.27657425f, 0.34607297f, -1.59037149f, -0.66092545f, 0.38269547f}, {-0.33761701f, -0.08681180f, -0.18932825f, 1.10293448f, -0.28250325f, 0.72489065f, -0.29656890f, -0.94144982f, -0.78773731f, -0.18534505f, -1.21956074f, 0.58759671f}, {-0.34660518f, 0.43418372f, -0.03342311f, -0.26689073f, 0.42195714f, -0.09239130f, -0.30221820f, 0.30770963f, -0.36852092f, 0.51527166f, 1.03562307f, -2.70621228f}, {-0.14347276f, 1.66800284f, -0.53148395f, -2.47289824f, 1.61441278f, 0.30573952f, 0.75813484f, -0.29839683f, -0.38243243f, 0.53263980f, 0.34170163f, 0.35671815f}, {-1.45257604f, -0.73664075f, 1.27558231f, -1.59514439f, -0.07290695f, -0.78931028f, 0.84645110f, 0.84588581f, -0.76915449f, -0.33614156f, -0.11554173f, -1.09915221f}, {-0.75086910f, 2.04142761f, -0.33889747f, -0.56781453f, -0.27199593f, -0.17360412f, -0.65417993f, -0.81049228f, -0.03760962f, -2.13285279f, 1.22874737f, 1.32932246f}, {-1.41796458f, -0.25951874f, 0.30412191f, 1.73461318f, 0.11396697f, -0.57425404f, -0.07467807f, 0.37838280f, 0.30742037f, 1.53019977f, -3.48191285f, 2.08451486f}, {1.19372022f, 0.34879377f, -0.29703808f, -1.17370415f, -0.28411001f, -0.62699002f, -0.51293749f, 1.79636097f, -0.27098650f, -0.56621748f, 0.70502353f, -0.53706288f}, {-1.09322929f, 0.46845543f, -0.63960934f, 0.01959283f, -1.14036906f, -0.40435117f, 0.32481703f, 0.88939375f, 0.30794176f, 0.24535757f, -1.01093173f, 1.02084339f}, {0.90404099f, 0.64781964f, 1.48680544f, 0.15093461f, -1.26314890f, -0.74276328f, -0.44347572f, -0.41706023f, 0.49091306f, -0.29028854f, -0.22832258f, 0.13085441f}, {-1.92513287f, 1.14234257f, -0.46860918f, -0.23941985f, 0.55906230f, 1.22653437f, -0.84035277f, 1.63148081f, -0.27620295f, 1.00455678f, -1.58094311f, -0.15249300f}, {-0.80107546f, -0.82267857f, 0.39699030f, 0.75665885f, -0.09889611f, -0.03434197f, -0.51205868f, -0.04594169f, 0.69754452f, -1.35425568f, 0.22628021f, -1.19539070f}, {-1.08225977f, 0.75387186f, -0.79544401f, 0.12689601f, -0.82159036f, -0.66157407f, 0.42679092f, 1.19082546f, -0.67938697f, 1.33418119f, -0.02115308f, 1.18296564f}, {-0.34675100f, -0.89067990f, 0.36254475f, 0.12430689f, 0.31311893f, 0.41354814f, 0.22402711f, -0.83733326f, 0.78729528f, 0.60523582f, 0.47510636f, -0.30460262f}, {-0.84771764f, 1.46155405f, -0.85464251f, -1.61172605f, -0.11361557f, -0.14774144f, 0.38896549f, -1.58310211f, 0.78607786f, 0.41528323f, -0.56218946f, -0.65276629f}, {1.41342509f, -1.43748307f, -1.74559033f, 1.47302532f, -0.88897008f, 1.38179851f, 0.53279269f, 1.45843101f, 0.73472220f, -1.13980186f, 1.04776299f, -1.04782712f}, {1.88367891f, -0.56252575f, -0.88432336f, -1.92979348f, 0.04300231f, 1.04565132f, 0.81396717f, -0.09929548f, -0.37438312f, -0.31290832f, 0.75384170f, -0.79672742f}, {1.15696800f, -0.21744721f, 0.38329667f, -1.33279812f, 1.37015915f, 0.15625647f, -0.68047136f, 0.29988885f, 0.15105604f, -1.40520000f, 0.06760683f, -1.12256062f}, {-0.46270111f, 1.00576627f, -1.31253457f, 0.66102803f, 1.29828298f, -1.44288361f, -0.43018270f, 0.24921109f, 0.53888631f, 1.32362258f, -0.48933125f, 0.62566751f}, {1.29497516f, 0.65520799f, 0.06576660f, 0.48667568f, 0.26676151f, -1.73602986f, 0.56113803f, -0.10095644f, -0.11870328f, -0.64014846f, -0.35264218f, -1.87785697f}, {0.70833188f, -1.86340833f, -0.07309545f, -0.77741808f, 0.03360156f, -0.22254352f, -0.37355018f, 0.18017748f, 0.92608130f, 0.75104362f, -1.01902938f, 0.66159821f}, {0.70282841f, 0.30917916f, 1.39680493f, 0.34644902f, 0.50468343f, -0.97840071f, -1.99274170f, -0.90405929f, -0.14654933f, -0.11719508f, 1.75662649f, 0.18436082f}, {-0.20619656f, 0.80429566f, -0.23875012f, 0.11034326f, -0.41552770f, 0.73152453f, -1.60358894f, -0.18789655f, 0.44681162f, -0.96686578f, -0.01193685f, 0.07229418f}, {0.61777258f, -0.71512169f, 0.40772063f, -1.37678564f, 1.91866434f, 0.87230480f, -0.80678082f, -1.83848143f, 0.16417682f, 0.37920010f, -0.67939949f, -0.10493845f}, {0.32315803f, 1.66103458f, -0.80489451f, 0.44529164f, -0.06968398f, -0.61257553f, -0.61661416f, -2.37284279f, 0.12108896f, 0.50874090f, -0.74080330f, 1.34406030f}, {-0.81070286f, 1.53374207f, -2.73589110f, -0.01193841f, -0.14593700f, -0.19455940f, 0.63357037f, 0.61795974f, 0.01063802f, 0.15281421f, 1.64647090f, 0.29043695f}, {-0.41317070f, -0.11832990f, 0.14173968f, 0.00432730f, 0.18560733f, 0.08940948f, 0.55497968f, 0.17720480f, 0.88589895f, -0.01335417f, -0.63300425f, -1.25837660f}, {-1.26339090f, -0.41701046f, -0.67449826f, 0.76238883f, -0.03188084f, -0.04359672f, 0.95638859f, -0.01858762f, 0.63271260f, -0.32827774f, -1.80256331f, 0.21912557f}, {-0.66739482f, -0.79825252f, 0.01969310f, -0.03014015f, -0.70741105f, 0.68502611f, 0.40651852f, -0.35598597f, 1.05805707f, -0.92498899f, 1.03828490f, -1.39101112f}, {-0.61373156f, -0.09306644f, 0.26244280f, -1.23279095f, -0.00031319f, -0.82814687f, -1.68752551f, 0.48891813f, 0.30069736f, 0.79773009f, -0.51841515f, 0.51837194f}, {0.59920126f, 0.81483173f, -0.13921407f, 1.22554290f, 0.41512740f, 0.80991876f, 0.56536204f, -0.97136074f, 0.51527894f, -1.29225421f, -2.16436553f, -0.40939766f}, {-0.13827668f, 1.35578561f, -0.18985122f, -1.90075874f, 0.13844797f, -0.15642644f, 0.80176944f, 1.98886371f, 0.91113859f, 1.14032304f, 0.96684194f, -1.18030715f}, {0.82618362f, 0.96129227f, 1.85090518f, -2.24737549f, 1.08601761f, -0.45079687f, 1.01510346f, -0.15743789f, -0.33876246f, 1.09439099f, -1.95883584f, -0.38775501f}, {-0.44127262f, 0.11268532f, 0.09343688f, 0.74695510f, -1.22542250f, -0.51610607f, -1.92380846f, 0.72652155f, 0.81359214f, 1.97679961f, -1.42728746f, 1.06725109f}, {0.15067080f, 1.02139461f, -1.58985019f, 0.71408284f, -0.38525674f, 1.57027197f, 0.71650553f, -1.15661645f, -0.98233151f, 0.64689547f, -0.20537269f, 0.41917926f}, {0.49104679f, 0.45342734f, 0.65055567f, 0.15881628f, -0.88060063f, -0.45804366f, -0.13571316f, 0.90986019f, -0.07327989f, -0.69944704f, -0.58755732f, 0.02510770f}, {-0.11415013f, -1.22095680f, 0.94891214f, -0.13907129f, 1.09163129f, 0.09600069f, -0.29983881f, 0.82773131f, -0.96812862f, -0.22383560f, -1.37912977f, 1.14135528f}, {1.29223299f, 0.69727916f, 2.02348876f, 0.23941378f, -0.38506737f, -0.60136992f, -1.22427022f, 0.09112056f, -1.69792211f, 0.50270724f, -0.04913584f, -2.35601091f}, {0.53045082f, -0.68482625f, 0.57443756f, 0.30632713f, -1.01554787f, 1.29146755f, 0.39247513f, 0.35370710f, 1.18238187f, -1.04628277f, 0.54930806f, 0.53931320f}, {-0.51535928f, -0.03367826f, 1.21776390f, 0.38180283f, -0.52822155f, 0.75528759f, -0.92461383f, 1.27102351f, 0.05204924f, -0.10556594f, 0.47403163f, -0.60129744f}, {-0.38192153f, 0.81209111f, -0.24491404f, -1.59381652f, -0.02136749f, -0.51519579f, 2.31972218f, 0.43739367f, -0.85921752f, -0.21199059f, -0.13403128f, -1.09024513f}, {0.64451605f, 0.92256218f, -0.38128129f, -0.53598720f, -0.18354227f, 0.95406991f, 0.11539752f, 0.13388206f, 1.02807069f, 1.62080538f, -0.27013066f, 0.01385922f}, {-2.42355394f, 1.60429037f, -0.79733610f, 0.16932817f, 1.33093786f, 0.06447361f, 1.39042926f, 0.37966657f, -0.48008522f, 0.60380167f, -0.21080129f, -0.16030006f}, {-0.63081741f, -2.29142022f, 0.30939573f, -0.96549511f, 1.24323368f, 0.93734807f, -0.70002174f, 0.15232487f, 0.45108366f, -0.12495402f, 0.78600866f, -0.18640752f}, {0.20084959f, 0.07199296f, -0.35125285f, 1.54481709f, -0.13620657f, 0.17198971f, 0.23205994f, 0.63954741f, 0.02454702f, -0.04174500f, -2.36452842f, -0.41211960f}, {0.71179110f, -0.51809937f, 1.01839936f, 0.19468108f, 0.40555719f, -1.30802131f, -3.39089775f, 0.50358313f, -0.70461696f, 0.39065751f, 1.50185525f, 0.08434214f}, {-1.22336924f, -0.22845514f, 0.08638350f, 0.82376695f, 0.93655908f, -0.96847844f, -0.13812564f, 1.58528852f, 2.06470561f, -1.00547576f, -1.48450112f, 2.18948770f}, {0.28115857f, -0.18951111f, -1.38254201f, 1.95227706f, 0.17089434f, -1.98941386f, 0.60912085f, -0.69365013f, 0.27010491f, 1.26405835f, 1.07811368f, -0.56941825f}, {1.32575119f, 1.43657541f, -0.73651969f, -0.20776349f, -0.22456710f, 0.55586123f, -0.08968229f, 0.09415361f, -0.40428036f, 0.90147656f, 0.24456601f, -2.31316423f}, {0.53691369f, 0.23889953f, 0.26585168f, 0.28477705f, 0.56042099f, 0.36391568f, -1.43263805f, -1.00362480f, -0.16138715f, -0.73372954f, 0.02600655f, 0.65269709f}, {1.41575873f, -1.17375231f, -0.57637507f, 0.50985748f, 0.66273808f, -0.60458207f, -1.54863548f, -0.86885160f, -0.09412896f, 0.92710924f, 0.16587508f, -0.65723032f}, {-0.22968005f, -0.57945162f, -0.38207960f, 0.41117325f, 1.01852858f, -1.88120079f, -0.59453839f, -0.02515933f, 0.07503016f, 0.12252000f, 0.62417871f, -0.05252307f}, {1.05087888f, -2.54690146f, 0.03280725f, 0.49448410f, 1.73574865f, -2.03145647f, -1.89786994f, 0.23151809f, -0.11939194f, -0.82632333f, 0.26491469f, 0.48918855f}, {0.97085679f, -1.40256500f, -0.55486238f, -0.04173815f, -0.79501194f, 0.97650188f, -0.16160253f, 0.81330001f, -0.95438105f, -0.29093534f, -0.19415206f, -0.55243039f}, {-2.09491849f, 0.37305892f, -0.56491768f, -0.45546129f, -0.14315702f, -0.49471614f, 0.05896509f, 0.91051060f, 1.30256391f, -1.04063582f, -0.27807012f, 0.16325472f}, {1.05448604f, -1.81655216f, -0.85836524f, -0.58132565f, 0.68385518f, 0.00366669f, 0.56641072f, -0.65374386f, 0.07731730f, -0.40864015f, -0.88418448f, 0.33750358f}, {-0.63369411f, -0.26780418f, 0.07608432f, 0.43360692f, 0.08814568f, -1.71256065f, 0.69389582f, 2.38125134f, -0.27211338f, 1.31986570f, 0.20132709f, 0.58463627f}, {-0.16864483f, -0.13894922f, 0.80800015f, -0.18435943f, 0.96008003f, -0.80383354f, -1.53741908f, -0.65019375f, 0.07501203f, 2.07772613f, 0.61539161f, -1.26856673f}, {0.35885727f, -1.68848825f, -1.55845845f, -0.37362015f, -0.61751390f, 0.02426013f, 0.31935689f, 2.06937456f, 0.19367445f, 1.00444841f, -1.81682229f, -0.34154975f}, {0.13891301f, 0.49007452f, -0.60457236f, -0.93447185f, 1.53121030f, 0.80456793f, -0.90265000f, -1.39992142f, 0.52934051f, 0.10644775f, -0.57919830f, -1.09198534f}, {0.89126879f, -0.24673901f, 0.84282738f, -1.02686012f, 1.14453256f, -0.89192939f, 0.45155296f, -1.44739151f, 0.06907064f, 0.90278447f, 0.93150276f, -1.52795410f}, {-0.65431017f, 0.02197463f, -1.03244376f, 0.10112630f, 0.67226243f, 0.41842872f, 0.62107950f, 0.79070991f, -0.77617532f, -0.58310634f, -1.33850741f, 0.59812820f}, {-0.89932072f, 0.43807244f, -0.17287271f, -0.45399049f, 0.22768287f, 0.06909210f, 1.02717566f, -0.37002054f, -0.49343461f, 1.44391334f, -0.78940117f, -0.48815632f}, {0.01792337f, 1.59291792f, 0.66772282f, 0.00668343f, -2.06545138f, 2.28300428f, -1.21992970f, 0.30977902f, -1.99104571f, 0.01305229f, -0.90878147f, 1.00558257f}, {0.31233022f, -0.65285110f, -0.09956871f, -0.70687211f, 0.85932958f, -2.00939107f, 0.97414565f, 1.37072575f, 0.68635541f, -2.07341719f, -0.43644622f, -0.92356825f}, {0.60312331f, 0.60589379f, 1.69169617f, 0.82382864f, -0.42460957f, -0.39135256f, -1.97541428f, -0.42948037f, -1.23606086f, -0.14340004f, 0.50213736f, 0.12112771f}, {-0.68506032f, -0.52999341f, 0.00554458f, -0.47931236f, -0.79685158f, 1.37458479f, -0.48096418f, 0.27912012f, -0.10347866f, -0.24881801f, -0.35352874f, 0.61777139f}, {0.02880536f, -0.59635562f, 0.96891493f, 0.04255556f, 1.64246917f, 1.31257164f, -0.64271700f, -0.70899695f, 0.24921787f, -0.01469153f, -0.51052099f, -0.06762423f}, {0.19296026f, 0.73719603f, 1.06964493f, -0.24058731f, 1.43858933f, -0.67846018f, -0.75706434f, -0.10612751f, 0.99437952f, -0.30576876f, 0.05420680f, -0.28338751f}, {-1.71980834f, -0.58176225f, 0.39082533f, -0.29562914f, -0.47129774f, 0.56034201f, -0.18848053f, 0.51062167f, 0.24622314f, 0.29939508f, -0.17051190f, -0.67856312f}, {-0.01155138f, -1.02567732f, -0.74719346f, 2.08086872f, -0.60902125f, 0.55310750f, -0.24610555f, 1.43275368f, -1.20941138f, 0.20065926f, -2.12040639f, 1.36826205f}, {2.43985581f, 0.08652939f, -0.11792801f, -0.69746709f, -0.46051785f, -0.30275071f, -0.14767690f, -0.34305429f, -0.19584131f, -0.62089705f, 0.00900413f, -1.03607714f}, {-0.63708550f, -0.28094077f, 0.65255904f, 1.86106694f, -0.38340071f, 0.26256454f, 1.47114730f, 0.53329772f, -1.65645242f, -0.29342493f, -0.57281762f, 1.33863378f}, {0.68291599f, -0.54942423f, -0.92050135f, 1.29736364f, 0.50941020f, 0.37695432f, 1.62061286f, -0.45601532f, -0.16033077f, -0.96706891f, 0.51491153f, 0.02495370f}, {0.20538867f, -0.05986355f, 0.80551410f, -1.38650131f, 0.39460796f, 1.11818802f, -0.51844871f, -0.17150809f, 0.40897167f, 0.02017502f, -1.04306531f, 0.17617358f}, {-0.11862707f, -0.77199638f, -1.65473342f, 0.99052906f, 0.43564636f, -0.40727931f, 1.10667133f, 0.85287917f, -0.63459033f, -0.86006981f, -0.14333491f, 0.69513518f}, {-0.40162811f, 0.56003803f, -0.61886197f, -1.09515107f, 1.02964377f, -0.26916572f, -1.46366835f, -0.44238225f, 0.81650758f, 0.59356368f, 1.41851366f, -0.68379962f}, {0.62057000f, 1.01358628f, 0.88706273f, 0.26152116f, -0.97914654f, -0.83129835f, -1.86270511f, -0.66679579f, 0.28420532f, 0.02970979f, 1.18640447f, -0.16267627f}, {0.41556600f, -0.97732347f, 0.19217867f, -0.20550554f, 0.94526368f, -0.33039436f, -2.60562372f, 0.94135302f, -1.37488306f, -0.86013585f, 0.48328447f, -0.62843978f}, {-0.51099253f, 1.19033360f, 0.88408214f, 1.12072790f, -1.27305424f, 1.60148084f, -1.78771913f, -1.56674302f, -0.66955101f, -1.67010343f, 0.88303173f, 0.43545932f}, {0.49798036f, -0.17468962f, -0.18690997f, 0.66031742f, -0.49762157f, 0.07137892f, -1.15166044f, -2.34103775f, 0.55266041f, -0.10700378f, -0.66536927f, -1.04542112f}, {-0.76186550f, 0.27632242f, -0.86396277f, -0.86601096f, 0.15128587f, -0.45729727f, -1.44980121f, -0.72824675f, -1.16881824f, 1.16198993f, 0.74521220f, -0.07237813f}, {-0.17567709f, 0.20652349f, -0.33590409f, -1.96338820f, 1.34906697f, -0.32952711f, -0.01636810f, 1.08143675f, 1.18521893f, 0.06350800f, -2.23028231f, 0.13531929f}, {1.37486792f, 0.19798592f, -0.28920862f, -0.44931230f, -1.12978947f, -0.73078859f, 1.13538194f, 0.64432210f, -0.36370236f, 0.55521315f, 0.50565022f, -0.25236556f}, {0.58321434f, -0.19063243f, -0.75606412f, 0.39259693f, 0.25319481f, -0.52012986f, 1.52019882f, -0.54868025f, -1.51379597f, -0.36542454f, 0.04789475f, -0.27131519f}, {-1.00634599f, -0.22856319f, -0.17619960f, -0.57037771f, 1.04111338f, 0.42986760f, 0.82183558f, 0.38055292f, 0.52098727f, 0.48467958f, -0.28130746f, -0.90508175f}, {-0.07536047f, -1.44752204f, -0.23213196f, 0.71270186f, -0.09986117f, -0.29144934f, 0.26877445f, 0.76643032f, -0.40707096f, 0.14225270f, 0.40071598f, -0.50553173f}, {0.47566602f, 1.15785825f, 0.96429408f, -0.17576514f, -1.88610315f, 0.06835048f, -0.00863281f, -0.12892878f, -1.62009871f, 1.37208200f, -0.22806883f, -1.29056537f}, {0.10303003f, -0.52028066f, -0.98174572f, -0.17340426f, 1.15609920f, -0.17260413f, 0.29252580f, -1.94562638f, 0.41479641f, -0.83502907f, -3.07185602f, 2.16569281f}, {-0.46674630f, -0.52114713f, -0.48535550f, 0.86381608f, 0.38701013f, 0.76908165f, 0.80988896f, -1.17988896f, 0.70968163f, -0.39679050f, -0.20289794f, -0.06929246f}, {-1.31188440f, 1.41439223f, 0.83258331f, 0.45754728f, -1.06876755f, 0.61267120f, -0.97530591f, 1.53610694f, -0.37116051f, -0.19468370f, -0.97531301f, 0.29488638f}, {0.57722408f, 0.97860503f, -0.21767421f, -0.32520983f, -0.09823940f, 0.50762510f, -0.27122951f, 0.57622349f, -0.22101539f, -0.16136800f, -0.54859853f, -1.09100819f}, {0.74853820f, -0.23924984f, -0.49161762f, 0.87292254f, -1.23860550f, -1.43685174f, -0.06847775f, 0.51924777f, -0.51373172f, 0.93064147f, -0.40041733f, 0.82141602f}, {1.65269971f, -0.25091365f, 0.74874133f, 0.19584796f, -1.01495075f, -0.37929422f, 0.79167581f, 0.23963179f, -1.16930652f, 0.75402361f, 0.11581087f, -0.98684859f}, {0.86918491f, -0.37698957f, -0.11852165f, 0.11621384f, -0.32844663f, -0.92449892f, 0.36613318f, -0.95853436f, 0.86350673f, -0.54761720f, -0.73009998f, 1.05889249f}, {-0.77760261f, -0.67375684f, 0.93619239f, -1.33323014f, 0.39598912f, -1.27892351f, -0.49323821f, -1.35745788f, 1.06827927f, 0.03624381f, 0.62751400f, -0.98555899f}, {0.21120125f, -1.14594972f, 1.31017017f, 0.44330305f, 1.90626228f, 0.35441250f, -1.37730563f, -0.86325413f, 1.31087220f, 0.82597715f, -1.30298364f, -0.72662371f}, {-0.89118028f, 0.12398759f, -0.54314750f, -0.42235228f, 0.52465880f, -0.14862193f, -0.37844300f, 1.54813564f, 0.04248242f, 0.76086748f, -0.23294102f, -0.30721611f}, {-0.63476312f, -0.99359888f, 0.22991881f, -0.13905427f, 1.25541472f, -0.88650572f, -0.91392404f, -0.89177459f, -2.64445543f, 0.25979125f, 0.87275666f, 1.00900805f}, {0.91611439f, -0.43804708f, 0.52386880f, -1.40418804f, 0.16643469f, -0.82665724f, -1.97787333f, 2.77761173f, 1.69136083f, 0.63186181f, -1.29509091f, -1.43231165f}, {-2.66008162f, 1.30538917f, -0.07027254f, 0.62577862f, 0.26127988f, 0.34571972f, -0.54956692f, 0.23309481f, -0.91359794f, -1.15891004f, 0.84888476f, -0.30808800f}, {0.38030908f, -0.28941217f, -0.18844971f, -0.32217076f, -1.80048931f, 0.29329404f, -0.18124954f, -2.20130301f, -0.51438767f, 2.04710221f, 0.33082759f, -0.37665513f}, {0.30423665f, -0.77687621f, 0.00803987f, 0.77611411f, -1.09215987f, 1.54536700f, -0.96075058f, 0.15479524f, 0.46433491f, -1.09971952f, -1.27034700f, 0.51510638f}, {-0.22868466f, -0.23933005f, -0.32285312f, -0.36474827f, 1.65613449f, -0.76134712f, -0.20031591f, 0.01821578f, 0.46798864f, 1.13986719f, 0.31488940f, 0.13508575f}, {0.44624349f, 1.22842860f, -0.84073186f, 0.15284747f, 0.38881204f, 1.13103187f, -0.02982870f, -0.49475932f, -0.26733157f, 1.22669435f, -0.44408715f, -1.36898255f}, {1.21747398f, 0.22899568f, 0.22240214f, -1.14395511f, 0.34887040f, 0.51369184f, 0.70595855f, -0.78982151f, -0.63331550f, -0.56245190f, 1.41041231f, -0.51980644f}, {-1.45628655f, -0.18668617f, 0.18911396f, 0.94814634f, -0.10798260f, -0.41930464f, -0.03153705f, -0.13749351f, -0.69870126f, -0.00507676f, 0.49353576f, -0.42260864f}, {2.30986404f, -2.18274069f, 0.30847803f, 0.39918491f, 0.21460092f, -0.44841343f, 0.58933175f, -1.47319412f, 0.13755395f, -0.33569568f, 0.72551310f, 1.04657948f}, {-1.11538231f, -1.50558865f, -0.70242774f, 0.75849843f, 0.10458420f, -0.60650700f, 0.19474478f, 0.12390687f, 1.05274153f, 0.01402461f, -0.22322568f, -0.17184514f}, {1.94534183f, 1.72986877f, 1.03942502f, -0.84905386f, -1.03452241f, -1.17894959f, -0.86660761f, 1.11234248f, 1.37187183f, 0.22719274f, -0.06209134f, -1.33517444f}, {0.21281421f, 0.44022498f, -1.27905107f, 0.92115527f, -0.94050616f, 0.79158235f, -0.30609655f, 1.52652109f, 0.35952660f, -0.39561176f, 0.23365645f, 1.63452506f}, {1.37505317f, -0.46752915f, -0.70047575f, -0.74956888f, 1.19003510f, 0.50199097f, 0.28073165f, -1.38373756f, 0.10118308f, 0.53333431f, -0.42110327f, 0.32836255f}, {0.14598432f, 0.93360639f, -1.59494460f, -0.30633202f, 1.55042636f, -1.85091138f, -0.39464974f, -0.21378714f, 1.73865891f, 0.69387120f, -1.10668874f, -0.50081587f}, {0.75904590f, 0.93233323f, -0.31470570f, -1.21298230f, 2.10396624f, -0.28724000f, 0.13466315f, -0.27534547f, -0.24507976f, -1.67181861f, -0.46718270f, 0.93902642f}, {0.81423622f, -0.12340946f, 0.23015209f, -0.88106072f, -0.93427265f, -0.43156141f, -2.00050902f, -0.26974410f, -1.17995143f, -0.90178138f, 1.27585053f, 0.50727808f}, {-0.88054836f, -0.04036605f, 2.11366940f, -2.11399961f, -0.25743636f, 0.94822574f, -0.85735995f, 2.33523107f, 0.93009919f, 0.76333773f, -0.17966656f, -0.34134874f}, {0.65559971f, 1.14548099f, -0.11298861f, 0.16883747f, -0.47592738f, 0.68254364f, 0.48445454f, 0.72186404f, 0.32440752f, 1.06188023f, 0.41213140f, -1.67993593f}, {1.03771460f, -0.11276716f, -0.47505558f, -1.07795572f, -1.40896523f, -1.07827306f, -1.09071100f, -0.19779450f, 0.04558721f, -0.02818697f, 0.30892798f, 1.34373069f}, {0.81447828f, 0.48712561f, 0.43975759f, -0.37453756f, 0.43197393f, -0.04845013f, 2.26910114f, -0.12357587f, -0.17317906f, -0.86888546f, 0.29118901f, -0.48850051f}, {-0.52994138f, -1.15357339f, 0.56585431f, -0.44290063f, 0.56605953f, -1.39878452f, -0.03369753f, 0.84392905f, 0.25876537f, -0.21111871f, -0.04917048f, -1.08175004f}, {1.37122953f, -0.47255081f, 0.36348110f, -0.03033710f, -2.02195740f, -0.00578333f, -1.52249575f, -0.77670252f, 0.30166519f, -0.69684660f, -0.29774478f, -0.80042964f}, {-0.33129767f, -0.66021824f, -0.91693830f, 0.64973551f, 0.49125245f, -0.01728528f, 0.33716717f, -0.06962599f, 0.35033005f, -1.01678634f, 0.28095797f, 0.33063713f}, {-0.47116759f, -0.46472126f, -1.51098716f, -0.46562162f, 0.77833360f, 0.99466825f, -0.14435676f, -0.57796705f, 0.32957986f, 1.65415668f, -0.69386131f, -1.19228804f}, {-0.92269176f, 0.45555511f, 0.51548171f, -1.34180260f, -1.54042518f, -0.63737071f, 0.51472670f, -0.58538443f, -1.98441947f, 0.79378688f, -0.26314482f, 2.38682246f}, {0.71597481f, 0.09574728f, 1.74115539f, -1.25854993f, 0.30931351f, -0.35717350f, -0.44437146f, 0.53856075f, 0.83011514f, -1.39638746f, 0.03659549f, -1.88150930f}, {0.22851641f, -0.09940868f, -0.36874771f, 1.17667675f, 0.09010542f, -0.93769950f, 0.67693782f, 1.40170443f, -1.89073157f, -0.13786565f, -0.01249471f, -0.53373247f}, {0.07372691f, 0.34497601f, 0.54152519f, -0.57927138f, 0.29292038f, -1.09657598f, -1.41764891f, -0.37528598f, 0.75639766f, 0.28976545f, 0.21359159f, -0.06664091f}, {0.22440927f, -0.59151417f, -0.74696124f, -1.13646281f, 0.56472766f, 1.68939888f, -1.11526084f, -0.09921056f, -0.29396880f, 1.01932776f, -3.00413299f, 0.50874031f}, {-0.18698186f, -1.09167719f, -0.07507869f, -1.08815610f, 0.71774232f, 1.55368328f, 0.33347845f, -0.25447771f, 0.82335758f, -0.52408528f, 0.18570735f, 0.70729256f}, {1.26992202f, 0.82707763f, -1.22956097f, -0.79559922f, 0.08240423f, 1.20370698f, -0.27293989f, -0.45659682f, -0.28946012f, 2.59521103f, 0.26670012f, -1.65750301f}, {0.43461621f, 0.05761017f, 0.42283010f, -0.12045443f, -1.27725887f, -0.53207612f, 0.28992754f, 0.77188009f, 0.35592672f, -0.57525247f, 0.24949002f, -0.31862524f}, {0.71360707f, 0.99454409f, -0.18358792f, 0.05804341f, 0.34516513f, -0.87561208f, 0.04617194f, 0.96453953f, 0.58826834f, -1.20579529f, -1.30047178f, -0.41451505f}, {1.36021745f, -0.90195662f, -0.11917954f, -0.35214296f, -0.12210426f, -0.29634333f, -0.73165113f, -0.02626845f, -0.55717361f, 0.71987563f, -0.94442815f, 1.03873599f}, {0.20538694f, 1.21484172f, 1.52884722f, 0.42071682f, 1.01951444f, -0.72501105f, -1.03643036f, -0.73518842f, 0.79609895f, -0.93796152f, -1.54627824f, 0.07930896f}, {0.54652053f, -0.10915877f, -0.73968464f, -0.15470441f, 0.36622077f, 1.39778674f, -0.90800542f, 0.97091585f, -1.22935271f, 0.78245491f, -2.15396619f, 1.41806662f}, {1.22017276f, -1.46544468f, -1.30576515f, 0.12770103f, 0.30554229f, 0.57302159f, 0.10220677f, 1.81024253f, 0.21768221f, -0.86024988f, -0.39028105f, 0.27701163f}, {-0.90717602f, -0.32306030f, -0.01326083f, 0.87760782f, 1.76489365f, -1.13268018f, -1.77713609f, -0.99237853f, 0.55245262f, -1.63790905f, 2.87552619f, 0.99058306f}, {-0.25103170f, -0.28312919f, 0.31772482f, 0.07673474f, -0.13868092f, 0.43838543f, 0.00084586f, -0.57491207f, 0.20765515f, -1.83744204f, 0.29704162f, 0.06677991f}, {1.17775834f, -1.00719106f, 0.49028906f, -0.17266528f, -1.12546170f, -1.45408034f, -1.95507216f, 0.57973301f, 0.02832252f, 0.05168781f, 1.07765031f, -0.69638163f}, {0.03626181f, 0.80146670f, -1.30377984f, -0.02790460f, 0.16371524f, 2.29587007f, 0.65148574f, -0.41969812f, -0.08326772f, -0.45963660f, -0.26959446f, -0.93332231f}, {-1.40415800f, -0.53742838f, 1.50456703f, -0.83632857f, -1.15472209f, 1.63594329f, 0.42545226f, 2.52048349f, 0.90638876f, -2.41965246f, -0.62578672f, -2.80832744f}, {1.32320607f, 0.13954024f, -0.77307832f, -0.11285676f, 1.01957273f, -1.19829237f, -0.48576835f, -0.72256202f, -1.57709718f, 0.19379592f, -0.24344061f, 0.97791332f}, {-0.40970093f, 0.95943683f, 0.42290768f, 0.90931082f, 0.37007609f, 1.32768893f, 0.10525154f, -0.73634088f, -0.57325578f, 0.71634394f, -0.81498617f, -0.20951977f}, {0.79792917f, 0.42254940f, 0.76829249f, -1.04677606f, -0.50314045f, 1.19828045f, -0.48253810f, 1.60586166f, -0.48595598f, 0.93440557f, -0.83707619f, 1.37326813f}, {0.98067349f, -0.37781683f, -0.82193667f, -0.45202824f, 0.14130290f, -0.03697195f, 0.13210303f, -0.60197276f, 0.07619709f, -1.55935073f, 2.14113903f, 0.42984080f}, {0.21815789f, 2.61506653f, -0.41522181f, -1.02604675f, -1.65491498f, 2.57273245f, -1.69636011f, -1.07402396f, 0.64916688f, -0.57893312f, 1.76051617f, -0.50654078f}, {1.91860926f, 0.50049657f, -0.31563410f, -1.45907164f, -2.97108650f, -2.15374684f, -0.60229903f, -0.33270690f, 0.80568361f, 1.75847805f, -0.63151228f, 1.68431985f}, {0.51897705f, -0.18382315f, -0.42584845f, -0.30669639f, -0.14986868f, 0.76265049f, 1.14345968f, -1.04614115f, -0.61326402f, -0.25849169f, -0.20160045f, -0.38322774f}, {1.04474676f, -0.81005961f, 0.39822426f, -1.96522915f, 1.00301766f, 0.77192914f, -0.23052911f, 1.12393391f, -1.58784080f, -0.73661798f, 0.60007191f, 0.78787631f}, {1.12486255f, 0.38891661f, 0.07331686f, -0.24616483f, -1.32656229f, 0.10516869f, -1.52531970f, -0.17103259f, -0.57851976f, 0.70556039f, 0.03400308f, -0.47710234f}, {-0.44193470f, 0.15027514f, -0.30440265f, -0.10795721f, -0.13873003f, -1.09960127f, -0.99751234f, 0.47938746f, 0.52054286f, -0.24025352f, 0.44442356f, 0.35636768f}, {-0.85653943f, -1.14388335f, 1.35131490f, -0.09642261f, -1.65356421f, -0.84906608f, -0.47661531f, -0.54461527f, 1.28485274f, 0.47866267f, 1.20211613f, 0.36151558f}, {0.73874170f, -2.47857833f, -0.31978112f, 0.35290301f, 0.12895344f, -1.52699327f, -0.91591686f, 1.08304942f, -0.81591690f, 0.22000286f, -1.64124978f, 0.33887175f}, {0.94069117f, 1.19233489f, 1.12394941f, 0.75946903f, -2.09385586f, 1.08849704f, 1.09447908f, -1.36805654f, 0.72412747f, -1.28087652f, -0.48760092f, 0.69311148f}, {0.27678367f, 0.54509032f, 1.67421269f, 0.26024446f, -1.14942002f, 0.34155360f, 0.31203175f, 1.72555709f, 1.42671776f, -1.52534485f, -1.76035166f, -0.21059164f}, {0.66805840f, -0.68800503f, 0.64080298f, 0.76577055f, 1.00666809f, -0.11679706f, -1.71266603f, -0.24266265f, 0.67504400f, 0.63450491f, -0.02362134f, -0.49982670f}, {0.65608346f, 0.03160017f, 0.44472229f, -1.73617959f, 0.69343680f, 0.76501667f, -1.28884602f, 1.07537985f, -0.00722830f, 0.73303807f, -1.82129467f, 0.49766222f}, {0.34103552f, 0.59250140f, 0.07786603f, -0.22345252f, 0.56536400f, 0.52755278f, -0.59474164f, -1.28057206f, 0.77214646f, 1.19870234f, -0.64870447f, -0.83822376f}, {1.32699776f, -0.54427552f, 0.45662460f, -0.59759349f, -1.20380914f, -0.46823207f, 0.13017881f, -0.06942168f, 0.38710752f, 0.38718691f, -0.07202180f, 1.43838608f}, {-0.88503051f, -0.34052846f, -1.49005258f, -0.25114164f, -0.19963343f, 1.53440511f, -0.87940508f, -0.90565604f, 0.34804273f, 1.20212817f, -0.20443217f, -1.01313615f}, {-0.36576074f, -0.22986974f, -0.26065063f, -1.33610880f, 1.46993864f, 1.38503098f, -1.46781695f, -0.55813944f, 0.38563520f, 0.40478450f, 1.45715272f, -0.28713810f}, {-1.32427800f, -0.31687683f, 0.67789340f, -0.63619828f, 0.25130919f, -0.40408921f, 0.90415657f, -0.04229478f, 0.19781178f, 0.18956521f, 0.25977269f, -0.38385236f}, {0.93490493f, -0.18335371f, -1.32292342f, -0.28968832f, -0.20093955f, 0.45265153f, 0.73767376f, 0.15720782f, -0.33805498f, 1.32520556f, 0.05585198f, -1.32028306f}, {0.69059712f, 0.37946093f, -0.36870348f, 1.96390569f, 2.46765995f, -0.89153129f, 0.38050601f, -1.16268837f, -1.21310234f, -0.81599444f, -1.03639400f, -1.75046384f}, {0.59712029f, -0.01391018f, 1.09069312f, -1.02402246f, -0.93999279f, 0.33398506f, 0.90038407f, 1.32869601f, 0.09140909f, 1.62256742f, -0.34611595f, -1.52349424f}, {0.24466240f, 0.23614560f, 0.64817899f, -0.17096782f, -0.34224105f, -1.08979273f, 0.39403838f, 0.21534219f, -0.57394165f, 0.58423781f, -0.00196595f, -0.66456407f}, {-0.45879680f, -0.60167474f, 0.45035270f, -0.77559340f, -0.50121099f, 1.70748615f, 2.31121373f, -0.20259963f, 1.48416412f, -1.11715412f, -0.41089967f, 0.29140028f}, {0.35568246f, -0.27861598f, 0.31715652f, -0.77046418f, 1.24661958f, 1.30669117f, -1.12784922f, -1.09873652f, 0.89427716f, -0.32376638f, -0.37924108f, -0.16320401f}, {-0.23702537f, 0.45032555f, -0.70644051f, -1.26773119f, -0.18386763f, -0.87810463f, 0.14702873f, 0.64331549f, -2.05770087f, -0.03874867f, 0.78590465f, 0.02979937f}, {0.24700317f, -0.67917907f, -1.14855826f, 0.09902104f, -0.63911283f, -0.58319968f, -0.29835016f, -0.49385586f, 3.43103290f, -1.32188118f, 0.63699293f, 0.20359968f}, {0.87870985f, -1.08554661f, 1.06108320f, 0.30394644f, 0.00849429f, -0.39465147f, -0.28649300f, -0.23804477f, -0.57074076f, 0.53788465f, -0.30598921f, -0.44474623f}, {2.22246385f, 0.05983258f, -0.60668492f, -2.34939361f, -1.62232947f, 2.32815528f, 0.07211364f, 1.80871642f, 1.57105184f, -1.58861184f, 1.53157020f, 0.16307800f}, {0.37298721f, 0.51528215f, 0.28819641f, -0.53898007f, -0.29638478f, 0.38238871f, 0.99452823f, 1.20636714f, -0.01946940f, 1.48658288f, 0.17781743f, -0.98526275f}, {0.84316844f, 0.47310179f, -1.97470713f, 1.28405464f, 1.26482821f, -0.64859301f, 1.66698992f, -1.82202864f, 0.14756067f, -0.73418927f, -0.64123768f, -0.62191057f}, {1.46102345f, 0.40753114f, -0.96521950f, 1.45586717f, 0.83380103f, -0.91518450f, 0.69064760f, -0.51278728f, -1.57279599f, -0.86242485f, -1.62243104f, 0.84168220f}, {-0.31219620f, -0.57921511f, -0.95922464f, 0.85651040f, -0.30139089f, 2.43130684f, -1.85709691f, 0.69844437f, 0.55945843f, 0.11440991f, -0.22592987f, 0.30643183f}, {-0.42795444f, -0.96235704f, -1.35979688f, -0.60553372f, 0.69761497f, 0.31421110f, 0.43724817f, 0.10719898f, 1.17661190f, 0.08669939f, 0.66052169f, -0.00518478f}, {-0.09559705f, 1.35788691f, 0.75250262f, 0.82516575f, -0.58213550f, 0.33561301f, 1.64637148f, -0.31309155f, -0.86815840f, 0.18259113f, -0.11291151f, -0.50465691f}, {-1.36348355f, 0.20929073f, -1.82012916f, -2.05580640f, -0.82387322f, 1.48260498f, -0.61733627f, -0.20926760f, 1.18731165f, 0.55236804f, -0.16218314f, 1.16034365f}, {-0.25031760f, 0.23442833f, 0.02175333f, 0.05799199f, -0.32128364f, -0.34417897f, 0.34436393f, -0.77405465f, 1.59350693f, -1.80039477f, -1.20475709f, 0.67286521f}, {0.32056326f, 1.49636722f, -0.59073728f, -0.74829847f, 0.71069884f, -2.62796116f, -0.51823461f, 0.49385735f, 0.25706479f, -0.52078372f, 0.13560465f, 0.90576452f}, {-0.24406423f, -0.45729274f, 0.94479555f, 0.48787206f, 1.05753970f, 1.10515738f, -0.45995280f, -0.06594073f, -0.11513078f, -0.23715483f, -0.25262490f, -0.31422934f}, {-0.35314390f, -0.87618655f, 0.04576503f, 1.17947197f, -1.21255112f, 0.16569959f, -0.23716263f, 1.41797471f, 1.13737750f, 0.11463818f, 0.69675648f, 1.01074815f}, {1.02950275f, -0.69208312f, -0.67716593f, 0.19538006f, 0.22090049f, 1.08134174f, 0.85998106f, -0.93017107f, 0.64067453f, -0.79705524f, 0.90268767f, 0.43918189f}, {1.44236922f, -0.87232524f, -1.27665019f, 0.26214054f, 1.93016255f, 1.45405018f, -0.41307265f, 0.79172170f, 0.01039216f, -0.23842961f, -0.02716984f, -0.45976791f}, {0.78559738f, -0.12772050f, -0.10386309f, -0.13374162f, 0.43863261f, -0.00920871f, -0.35361803f, -0.03175396f, -0.64049858f, 1.91229331f, -1.36271560f, -1.22982228f}, {0.25779095f, -1.10348248f, 0.52668160f, 1.55022132f, -1.43152773f, -1.12591279f, -1.62344241f, -0.17186522f, 1.00453341f, 2.15684581f, -1.30857718f, -0.67428446f}, {-0.11357909f, 0.28153145f, -0.32591432f, 0.36629158f, -0.23980470f, -0.25506607f, -0.10361606f, -0.57651007f, -1.02705598f, -1.46872997f, -0.67520046f, 1.13282323f}, {-0.56163347f, -0.21067448f, 0.08035628f, -1.83050358f, -0.06270863f, -1.08093154f, 0.00535873f, 0.26922864f, -0.43714830f, 1.90963888f, 0.58600563f, 0.25881493f}, {-0.88570976f, 0.25429457f, 0.18544014f, 0.91359884f, -0.74398768f, 0.39202380f, 0.03261783f, -0.78619015f, -0.23225218f, -1.25730789f, -0.14666630f, 0.73231828f}, {0.21946718f, -0.38808012f, -0.54244328f, 0.24449345f, 0.07701229f, 0.80956000f, 0.34511882f, -0.50968271f, 0.04231511f, -0.27467123f, -0.04726744f, -1.48203790f}, {2.32446790f, -1.45746148f, -0.59021473f, 0.90601236f, 0.34880888f, -0.50495118f, 1.02703154f, -0.78497571f, 0.74291492f, -0.16053484f, -0.03714254f, -0.11901803f}, {-0.63612729f, -0.07982600f, 0.40966338f, 0.12090556f, 1.63106155f, 1.01466393f, 0.00893287f, 0.94112289f, -1.10810852f, 0.12283309f, 0.75635296f, 0.55320764f}, {0.35281461f, -0.01455707f, -0.10156339f, 1.28325224f, 0.50838554f, 0.35741833f, 0.11001607f, -1.73831844f, -0.70581901f, -0.86697417f, 1.47315073f, -1.22146559f}, {0.75196403f, -0.56977654f, 0.71091694f, -0.21040918f, 0.51169330f, 0.13810046f, -0.47668344f, -1.27152777f, 1.00950551f, 0.64661205f, -0.18330058f, 0.16579804f}, {0.36784005f, -1.22791421f, 1.24226296f, 0.53693461f, 0.76678723f, -2.07130623f, -1.06841207f, -0.15303820f, 0.85714525f, -0.04791355f, -0.88528728f, -0.18897688f}, {0.91982234f, 0.23193984f, -0.12712097f, -1.79015255f, -0.17108764f, 0.67179644f, -0.60370594f, 0.01098415f, 0.58185804f, -1.68131733f, 1.01855111f, -0.90523744f}, {-1.08111703f, -1.29830945f, 0.10116515f, 1.10172105f, 0.18891752f, -0.76124513f, -0.34255072f, -0.10954238f, 1.01026714f, -0.15179440f, 1.67600083f, -0.24961524f}, {1.26707840f, 0.89103234f, -0.82393885f, 0.21852624f, -0.29005128f, -0.92448807f, -0.60602379f, 0.82585508f, -0.87146288f, 0.71186501f, 0.29156548f, -0.39499533f}, {0.59320879f, 0.10290644f, 0.49910602f, 0.54380828f, -0.31923014f, 0.40722018f, 1.12503242f, -0.23144002f, -0.19100475f, 0.68705356f, -1.94458771f, 0.68902445f}, {-0.46672049f, 0.49434254f, 1.16885626f, -0.57047164f, -1.00026906f, 0.27256471f, -1.14643133f, -0.24956848f, 0.56927752f, -0.85546684f, 0.59357750f, 0.21188855f}, {0.24261151f, -0.44731274f, 0.14507061f, -0.78043675f, 0.82934266f, -0.23371103f, -0.62351763f, -0.01426612f, 0.78147244f, -0.62511820f, -0.73914331f, -1.90728295f}, {-1.94686258f, -0.31628367f, 0.92275995f, -1.05012989f, -1.15429676f, -0.46810287f, 1.13883269f, 0.26406807f, -0.85968965f, 0.09774551f, 0.82179391f, 0.23099729f}, {0.03983413f, -0.22148183f, 0.44035435f, -0.11549006f, -0.18177298f, 1.59863925f, -1.09120512f, -0.18016960f, 0.05973350f, -0.09560231f, -0.54048795f, 0.03313023f}, {-1.61648989f, 0.68955326f, -0.69872701f, 0.15490565f, -0.21547841f, -0.36012521f, -0.74639583f, 0.22451726f, -0.53930432f, -0.43832150f, 1.76189089f, -0.04312778f}, {1.39790094f, 0.27908975f, -1.69731820f, -1.62836921f, 0.72674990f, -0.02789784f, -0.31853905f, -0.34769541f, 0.14773053f, -0.22193959f, 0.80641198f, -0.26566449f}, {-0.71074659f, -0.74492538f, -0.09192626f, -0.59851277f, 1.46028721f, -0.13585049f, -0.71619546f, -0.66366190f, 0.23367257f, 1.04230917f, 0.00337406f, 0.38004294f}, {0.79755044f, -0.53399861f, 0.39680496f, 0.19205913f, -0.04398407f, 0.10697011f, -0.12538987f, 0.19337539f, 1.28315890f, 0.89867175f, 0.50260860f, 0.44202021f}, {-0.21535704f, 0.80914062f, 2.02689385f, -0.37861234f, -0.45493013f, -0.24720009f, -0.25478196f, 0.72131461f, 1.05746055f, 0.45705563f, -0.53670430f, -1.12729883f}, {0.68984866f, -0.87611723f, 0.32251301f, 0.65925264f, 0.20451078f, 0.05636402f, -1.58358622f, 0.47597307f, 0.00201450f, -1.45505381f, 0.14889479f, -0.74872047f}, {0.64725733f, 0.10502104f, -2.61955333f, 0.51442128f, -0.30710787f, 2.11379743f, -0.37707248f, 1.02913785f, 1.39460540f, -2.09491801f, 0.12499241f, 1.33617818f}, {0.08261898f, -0.20575839f, -0.93931258f, -0.31850132f, 0.41611746f, 1.03400743f, 1.24605668f, 0.00860742f, 0.12872094f, 0.96410877f, -0.83406973f, -0.19048387f}, {-0.20450157f, 0.24169417f, -0.81230938f, -0.09136216f, 0.05188058f, -0.21950424f, -0.88430613f, 0.14050288f, 0.12415001f, -0.23078570f, -0.47702798f, 0.41996583f}, {0.45628932f, -0.06170224f, -1.11276436f, -1.42721403f, 0.64285994f, -1.33819366f, 0.11558965f, -0.34909746f, 1.07094467f, 0.10505641f, -0.32892120f, -0.99645251f}, {-1.58140779f, 0.44508618f, 0.10158359f, -0.22915150f, 0.60909337f, 0.53701961f, -0.03410638f, -1.20239305f, -0.24545342f, -0.65680474f, -0.30119377f, 0.54996961f}, {-0.73992550f, -0.83546305f, 1.42684269f, 0.97852546f, -0.36225620f, 0.23870030f, -0.62513417f, -0.21353318f, 0.72567511f, -2.03942990f, -1.33503985f, 0.13977912f}, {0.73371804f, 0.77964079f, 1.31793845f, 0.77512646f, 0.14429398f, 0.10906896f, -0.20754558f, -0.66070873f, -0.24125075f, -1.13031280f, 0.62784773f, -0.43798205f}, {0.20552127f, -0.15274353f, -0.31446427f, -0.22647959f, 0.60191822f, -0.38510197f, -0.13840899f, 0.04783815f, 0.18299808f, -0.52752042f, 0.68334550f, 0.23869132f}, {0.52186871f, 0.70855492f, 0.59368449f, 0.76295382f, 0.86982805f, -1.53609264f, 1.68773508f, -0.50678086f, 0.37811843f, -0.95434332f, -0.08416616f, -0.96759337f}, {-0.47356862f, 0.20880073f, 0.68122905f, -0.75732273f, -0.58603770f, -0.07052451f, -0.46527368f, -1.52973342f, -0.69441557f, 1.74364328f, -0.74477255f, -0.84011310f}, {-0.10805282f, -0.20206106f, -0.02848086f, -0.73154098f, 0.03741418f, 0.40572244f, 0.63191777f, -0.15463237f, -0.72971874f, 0.37246504f, 0.41175169f, -0.37124068f}, {-0.05971840f, 0.13112324f, -0.33381331f, 1.04922056f, 0.54044384f, -1.00475037f, -1.76819348f, 1.18904555f, 0.36619008f, 1.06615233f, -0.75680310f, 0.03785558f}, {-0.97164702f, 0.29087627f, 2.55514979f, -0.58124059f, -0.72471422f, -1.13905120f, 0.25604516f, -0.37984824f, 1.66417408f, -0.44256544f, 1.68930161f, -2.36896491f}, {0.27181312f, -0.11527586f, 0.71379232f, 2.61391521f, -1.00234747f, -1.27986097f, -0.86471653f, 0.56551421f, -0.06686546f, -0.43938205f, -0.11853404f, 1.59571326f}, {-0.04698528f, 1.33341515f, 0.28179079f, 0.19101290f, -1.72535205f, 0.91828823f, -0.90827596f, -1.72739840f, 0.00872913f, 0.49302238f, 1.07639503f, 0.78768021f}, {-0.64536506f, -0.61292130f, -0.42474344f, -0.19789638f, 0.27864930f, 0.02432512f, -1.11333013f, 0.98494017f, 0.32778153f, 1.13094950f, -0.31998566f, 0.81805307f}, {0.14924386f, 0.75860512f, 0.99750602f, 0.64291668f, -1.21836722f, -0.72702765f, -1.00944448f, 0.04531567f, -0.43473819f, 2.15631676f, -0.17838344f, -0.02779112f}, {-0.75207388f, -0.03395443f, -0.96825618f, -0.70112211f, -0.67553514f, 0.22448651f, -0.09242745f, -1.16797876f, -0.08136185f, 1.03924787f, 0.79865247f, -1.26194227f}, {-0.54503018f, 1.72151208f, -0.28461209f, -1.31419754f, 0.27288303f, 0.34263399f, 0.57016110f, -1.49387980f, -0.02901772f, -0.15242106f, -0.14985858f, -1.55282867f}, {1.55352175f, 1.42285264f, -0.30028132f, 0.60178280f, -0.19175839f, 1.17296052f, -1.51025808f, 1.34535170f, 0.85681736f, -0.81284118f, -0.14678656f, -0.36994570f}, {1.06296825f, -0.72981113f, 0.23200712f, -0.62768257f, -0.71095985f, 1.71884680f, -1.10247016f, -0.38912117f, -0.01976440f, -0.29333839f, -0.24614832f, 0.74373299f}, {-1.08172464f, 0.91707498f, 1.04979169f, -1.54473281f, -0.55885446f, -0.52515787f, 0.37941992f, 0.22706752f, -0.64546716f, 1.50056493f, 1.21328461f, -0.20125437f}, {-0.19535717f, 1.04985416f, -1.31792676f, 0.06320520f, -1.07124341f, 2.08565927f, 0.27900752f, -0.14346966f, 0.06856449f, -1.58912969f, -0.75852865f, -0.93532968f}, {-0.50122029f, 0.58030552f, -0.90955055f, 0.55252844f, 0.44615087f, 0.47341684f, -0.70561445f, 0.32695970f, -1.57826328f, -0.12333498f, -1.12616003f, 0.66554773f}, {1.52350330f, -0.47181669f, 1.38999581f, 0.77671218f, -1.66712296f, -0.72514951f, -0.19809155f, -1.87833941f, -0.40599594f, 1.16619742f, -0.48999694f, 0.47600535f}, {-1.53799355f, 0.11716345f, -1.24360931f, 2.07194829f, 0.89467371f, -1.56623471f, -0.00978245f, 0.57092398f, 1.52189744f, -0.50545013f, -0.88903034f, 0.25027570f}, {1.00515389f, 0.12180197f, 0.55942851f, 0.39360204f, -0.04885001f, -1.15184903f, 0.11506404f, 0.83589530f, 0.29759941f, -0.36626229f, -1.12720048f, -0.34932965f}, {0.76235777f, -1.16860211f, -0.23257096f, -1.69881833f, 0.37636983f, -1.40012896f, 1.31326151f, -0.14996088f, 0.81331068f, -0.91063207f, 1.02427804f, -0.57568246f}, {0.03727471f, 0.42640525f, -1.02276433f, 0.63254750f, 0.84504437f, 0.83003759f, 0.64594769f, 0.14439599f, -0.24117741f, 0.50087047f, -0.56249452f, -1.51223493f}, {1.35864651f, -0.31480771f, -0.77842182f, -0.44294319f, -0.45012462f, 1.30277944f, -0.20040067f, 1.70044088f, 0.49465656f, 0.01697392f, -0.35959059f, 0.09424324f}, {0.54851991f, -1.05324388f, 1.83897030f, 0.05510177f, -0.47554299f, -0.06845929f, -0.48623696f, -1.28959012f, -2.20206881f, 0.47121632f, -0.04900540f, 0.41461989f}, {1.74696720f, -0.29552391f, -0.19313711f, -1.26094472f, 0.44694927f, 0.90524608f, 0.10251214f, -0.36760631f, 1.38158846f, -1.20758414f, -1.29106367f, 0.96472985f}, {0.13575272f, -0.39446563f, 0.18284813f, 0.06878430f, 1.21015608f, 0.35392213f, -1.36269736f, -0.99693823f, -0.06963985f, -0.34296539f, 0.02007982f, -0.26521438f}, {-0.07375796f, 1.72785687f, -1.68153143f, -0.47529712f, 1.07740200f, -0.82559866f, 0.25934145f, 0.85172737f, -1.82999933f, -0.44087344f, 2.05413914f, -1.14087367f}, {-0.21652488f, -0.31536663f, 0.13621230f, 0.78516579f, -0.52085686f, 0.81279027f, -0.55422819f, -0.88817275f, -0.75098187f, -1.16836166f, -0.91100663f, 0.41796312f}, {-0.17295609f, 0.68153560f, -0.39777744f, 1.53810287f, 0.47577214f, -2.31903887f, -0.33806771f, -1.35929859f, 0.55635262f, 1.54829025f, 0.87688947f, -1.01390648f}, {-1.00911331f, 1.16277313f, 0.71725893f, -0.27299866f, 0.79596007f, -0.77439916f, -0.37738189f, 0.66771650f, -0.71372688f, -1.23413253f, -0.79517478f, -0.70452428f}, {1.28241575f, 0.56155550f, -0.89262801f, -2.72879505f, -0.19350213f, 0.23996787f, -0.03371404f, -0.37656447f, -1.74388528f, -0.62485522f, -0.55767691f, 0.43366018f}, {-0.30449858f, -0.02156161f, -0.95128804f, -1.42672300f, -0.43186849f, 0.64803112f, 0.05291605f, 1.00639367f, -1.44644463f, 0.90669000f, -0.23321408f, 0.15764807f}, {-1.36002994f, 1.25035954f, -0.90249074f, -1.05825078f, -0.77423698f, -0.13828222f, -0.29674470f, 0.64745641f, 0.32203561f, 0.33684424f, -0.62213165f, -2.52946496f}, {2.19465303f, -0.41735926f, -0.69269162f, -1.42256260f, -1.02636361f, 0.96222490f, -0.27649841f, -0.26470551f, -0.27311087f, 0.56159019f, 1.22819769f, -0.42127457f}, {-0.58838791f, 1.28638613f, -1.24404085f, 1.12383878f, -0.22960016f, -0.40366542f, 0.39485967f, 0.60743821f, 0.11601891f, -0.69551134f, 1.43354106f, 0.60697633f}, {-1.67978823f, 0.97208685f, -0.77185613f, -0.23974472f, 0.21177149f, 2.03587079f, -0.40693694f, -0.58940965f, -1.32274616f, -0.54638749f, 1.03736150f, -0.62874812f}, {-0.00541607f, -0.25465187f, -0.04901269f, 0.07029607f, -0.62588006f, -0.25639760f, 0.36268231f, -0.07103750f, 0.19905509f, 1.15061677f, -0.80921996f, -0.51902068f}, {0.46636519f, 1.10429454f, -0.99624830f, -0.23975953f, 0.44319388f, 1.04589486f, 0.43303016f, -0.32020164f, -0.30323827f, 0.84528029f, -0.44605300f, -0.63534451f}, {1.45084155f, 0.25720769f, 0.11230111f, -0.76040000f, 0.36581919f, 1.51125753f, -1.35427868f, -1.38027239f, -0.68754131f, 1.15071881f, 1.54651439f, -0.96542263f}, {-0.49163887f, 0.53516227f, -0.13696772f, 0.38603443f, -0.17375867f, -0.35205758f, 1.06497562f, -0.67403281f, -0.77953440f, -1.73171854f, -1.01782942f, 0.88984430f}, {-0.33962536f, 1.76021636f, -0.53697276f, 0.37758675f, 0.79276401f, -0.78898799f, 0.19514669f, -0.74873966f, -0.55873108f, 0.66218495f, -0.10860347f, -0.60350221f}, {-0.34571841f, -0.06073151f, 0.18656293f, -0.46190235f, -0.77190614f, -1.19088173f, -1.59671843f, -0.00729072f, 0.00854533f, 0.05995198f, 1.11851239f, -0.78223860f}, {-0.99816126f, 1.95878851f, -0.20226692f, 1.38539255f, 0.54773796f, 0.23712079f, -0.41888833f, -0.17041989f, -0.93288785f, -0.34520486f, -0.50520456f, 0.14670080f}, {-0.12850283f, -0.56575763f, -0.50631130f, -1.20556164f, 0.84512436f, 0.54087549f, 0.01418699f, -0.61913556f, 0.53822649f, -0.21700861f, -0.32235754f, -0.54509157f}, {-0.18808234f, 0.43236312f, 0.10544830f, -0.60391641f, 0.24049276f, 0.39549908f, -0.32579878f, -0.33000541f, -1.21746886f, -0.78227580f, 1.45525205f, 0.68016016f}, {1.07610488f, 0.26336113f, 0.08675380f, -0.61528504f, -0.66273469f, 0.50424051f, 0.43624529f, -0.50076723f, 1.13357151f, 1.21214771f, -0.26260209f, 0.97540468f}, {0.57890308f, -0.68304831f, 0.14360721f, 0.12999530f, 1.11762238f, 0.44914550f, -0.93464041f, 0.44981763f, 0.68848556f, -0.71056533f, -0.56038040f, -0.77448666f}, {1.08008552f, 0.49831015f, -1.41207361f, 0.50051975f, 0.54056793f, 0.83131224f, 0.46338069f, 0.48221120f, -0.40252820f, -0.21340832f, -0.85375386f, -0.85382831f}, {-1.06066430f, -0.80702686f, -0.34741420f, 1.42769754f, 1.24499857f, -1.24181235f, -1.29958105f, -0.12639275f, 0.81485283f, -1.58448493f, 0.34551343f, -0.41007251f}, {-0.43074578f, -0.72159880f, 1.26277196f, -0.56631094f, -1.40595996f, -0.32998043f, -1.95691967f, -0.00586696f, 0.11946206f, 0.54810685f, 0.42531210f, -0.37997589f}, {0.00302259f, 0.55821460f, 0.70656669f, -1.73977876f, -1.34443402f, -2.20111179f, -0.09706631f, 1.36255515f, 0.81555873f, 0.79373682f, -0.04900511f, -0.98498094f}, {0.06365449f, -0.04924898f, 0.02002741f, -0.22834346f, 0.51043731f, 0.62532312f, -1.41369343f, -1.15985024f, -0.10994603f, 0.72603184f, -0.66122735f, -0.73858845f}, {-0.39969963f, -0.13731322f, -1.53180397f, -0.60488462f, -1.07841778f, -0.98048383f, 0.92261696f, 0.79539490f, 1.14028120f, 0.82951617f, 0.54564470f, 1.03446269f}, {0.44952625f, -1.44106460f, -0.13348563f, 0.36043763f, 1.69015741f, -1.17924094f, -0.72000730f, 1.18570375f, 0.31483033f, 1.17398798f, -0.24685764f, -1.47650206f}, {2.32808542f, 0.40139383f, -0.22755033f, 0.35063773f, 0.93097234f, -0.37166592f, -2.08887672f, -0.45750007f, -0.15478614f, 0.21303228f, 0.11571798f, -0.95691305f}, {-0.15397769f, -0.44782931f, -1.64233494f, -0.83517259f, 1.24637902f, -1.85215163f, 0.26385495f, -0.18490949f, -0.59700602f, 0.59748006f, -0.09004223f, -0.43992826f}, {0.77200896f, -0.19576369f, -1.60518336f, -0.68496579f, 0.43318972f, -0.07858200f, 0.63548583f, -0.53432626f, -0.87521613f, 0.77281445f, -0.21242456f, -0.34850162f}, {1.18667686f, -0.22727771f, -0.00268534f, -1.04684460f, -1.41671109f, -0.42574373f, 0.08840544f, -0.44663215f, -0.38767052f, 0.37887597f, -0.99608427f, 1.68164575f}, {0.20730211f, -0.41357327f, 0.38675034f, -0.18536870f, -0.34737363f, -1.55599773f, -1.36515546f, 0.81199658f, 0.03286964f, -0.78979826f, 1.21773243f, -0.31116116f}, {-0.88954759f, -0.35821673f, 0.03780386f, 2.29568052f, -1.08489263f, 0.61593139f, 0.80937785f, 1.68096697f, -1.58289814f, -0.03693606f, -0.04810274f, 1.15446794f}, {1.14564955f, 1.50577211f, 0.06683707f, -0.66607141f, -0.50866538f, 0.01672700f, 0.44516906f, 1.14068663f, -0.62688106f, 0.10434532f, 0.65418130f, -1.67025006f}, {-1.92980015f, 0.86976272f, -0.53159267f, 0.60464180f, 0.16685821f, 0.36977816f, -0.86966181f, 0.09308980f, 0.32020494f, -0.21394253f, -0.70073855f, 0.71494502f}, {-0.09559164f, -0.50347131f, -0.00084489f, -1.27549493f, -1.87829518f, 0.06429002f, 0.11333281f, 2.43328404f, -0.83861196f, -0.29354700f, 1.36870158f, 2.13279796f}, {-0.58275861f, 0.20961875f, -0.79364395f, 0.74469817f, -0.55140841f, 0.97273010f, 0.47691417f, -1.63518846f, 0.08247713f, 0.68276429f, -0.69835347f, -0.80809933f}, {-0.69620538f, 0.60902023f, -0.38475120f, 0.21172312f, -0.06582049f, 0.70503002f, 0.41965964f, -0.58316505f, -1.37416208f, -0.53615266f, 0.16459982f, 0.69024599f}, {-0.63984978f, -1.65328050f, 0.86692792f, 0.50001222f, -0.19675964f, -0.58044326f, 1.02163398f, 0.24463597f, -1.60105002f, 0.45100614f, -0.28199947f, 0.63540494f}, {1.07485640f, 0.30756950f, 0.31891185f, -1.08545423f, -1.09730124f, 0.96136832f, -0.88888168f, 1.50184798f, -0.59424919f, -0.17231505f, -1.00782418f, 0.90562552f}, {0.75329006f, 1.03043640f, -1.31364226f, -0.67899847f, -0.58268160f, -0.19192430f, -0.11246059f, -0.60780251f, 0.03759316f, 0.70349443f, 0.89142722f, 0.22008269f}, {0.09841035f, -0.12031125f, 0.71150768f, -0.90610141f, -0.08771101f, -0.83528602f, 0.02057455f, -1.04896510f, -0.15114340f, 0.78921551f, 0.13225512f, 0.73572326f}, {0.85774761f, -1.01874006f, 0.36459944f, -0.76061922f, -0.07081510f, -0.10212500f, 0.31200725f, -0.83862925f, 1.75557566f, -0.56236368f, -0.43817586f, 0.69552284f}, {0.35916886f, -0.76781189f, -0.89945149f, -0.32847428f, 0.78850669f, 0.32875991f, -0.51604766f, -1.14851260f, 0.29291081f, 1.87603533f, -0.20069149f, -0.36711323f}, {-0.33661482f, 0.41163638f, -0.78268868f, -0.32428041f, -0.61922085f, 1.53007352f, -0.04070282f, -0.19258158f, 2.16653395f, -0.94177735f, 0.96899229f, 0.85907036f}, {0.89863706f, -0.32643780f, 0.24690689f, -1.46280825f, -1.80925190f, 0.73709738f, 0.31766298f, 0.80475008f, -1.16352248f, 1.77924621f, -0.73519230f, 0.23205672f}, {-0.21201999f, 0.24296375f, 0.43361112f, 0.65561610f, -1.38104773f, 0.65848398f, 0.33745655f, 0.05687615f, 1.22658300f, -0.20642914f, 0.30993634f, 0.94136691f}, {-0.18616521f, -0.55261368f, -0.40273142f, -0.75780547f, 0.32641116f, 0.88272834f, -0.01489085f, 0.91968244f, -1.17372239f, 1.21603930f, -0.38853225f, 0.62222719f}, {0.56432104f, 0.19719441f, -0.12211679f, -1.42461395f, -0.33456114f, 1.74370527f, -0.25487241f, 0.68296790f, 0.00067030f, -1.01224780f, -1.01215589f, 0.54103661f}, {0.00641012f, 1.59508371f, 0.82305139f, -1.48421884f, -1.52322257f, 1.32982218f, -0.68783975f, -0.57482487f, -1.20169282f, -0.06105255f, -0.31173623f, 1.27547491f}, {-0.57126665f, -1.03153980f, 1.32967329f, 1.80043626f, 0.90885156f, -1.23242021f, -0.99511671f, -0.03157566f, -0.34285873f, -0.30312175f, -0.32898146f, 0.82762533f}, {-0.61233455f, -0.60435587f, -0.81978327f, -1.76290023f, 1.04213428f, -0.70025325f, 0.90318751f, -0.28335360f, 0.28628933f, 0.24735874f, 0.85101479f, 0.37973714f}, {-0.50445175f, 0.04588752f, -0.16969785f, -0.81758183f, 0.89834672f, -0.09278008f, -0.40527967f, 0.92903382f, -2.01369619f, 0.04744112f, 1.11070824f, -0.94380409f}, {-0.00600517f, 0.29041219f, 0.51735157f, -1.82176149f, -0.19580939f, 1.92167866f, 0.39977860f, 2.03064394f, -0.80354661f, 0.47364607f, -0.67182082f, -0.11023961f}, {1.35795593f, 0.07618329f, 0.24188513f, -0.87238085f, -1.20875919f, -0.43395364f, -0.57763052f, -0.53437960f, -0.33838797f, 0.17007849f, -0.63428175f, -0.65552127f}, {0.20217355f, 1.14357030f, -1.26315296f, -0.38050365f, 0.21513812f, 1.67263722f, -0.53447223f, -1.13102484f, 0.93774265f, -2.04580688f, 0.50597912f, 2.18319106f}, {-2.52660584f, 0.98849058f, -0.16356714f, 0.57956803f, 0.66156203f, 1.06186295f, -1.26471043f, -0.61016977f, 0.53429800f, 0.61955065f, 0.66223770f, 0.37921929f}, {-2.46170664f, -0.83696502f, 0.61892664f, -0.36966160f, -0.12031671f, 0.02456608f, -0.05953619f, 0.94571263f, 0.63530684f, 0.21382266f, 0.15953498f, 1.35285711f}, {0.83379430f, -0.33842850f, -0.16643296f, -0.02301622f, 0.07824661f, 0.37362778f, -0.25721619f, -0.94313949f, 0.96475565f, 0.08562549f, 0.19101571f, 0.52671599f}, {0.55593133f, -0.71156389f, -0.35258391f, -0.12292169f, 1.16393197f, 0.42391065f, -1.17490661f, -0.73754770f, 0.82996064f, 0.47872683f, -0.63807350f, -0.65252799f}, {0.50353456f, 1.17293668f, 0.57547617f, 0.89461738f, -0.24129295f, 0.67051005f, -1.54038417f, -1.32670522f, -1.18922305f, -1.62323701f, -1.52967072f, -1.34533310f}, {-0.56525433f, 0.30357885f, -1.32362294f, 0.02285276f, -0.88266641f, -0.07574386f, -0.20549282f, -0.64527911f, 0.89369178f, -0.66609079f, -0.15415761f, -0.24956009f}, {0.18427707f, 0.86311144f, 0.32541800f, 0.24129574f, -0.42987436f, 1.01507092f, 1.25858855f, 0.06034242f, -0.69828379f, 1.01365006f, 0.94523472f, -0.36944833f}, {-0.05663533f, 0.57003117f, -0.57645047f, 1.22478938f, 0.74148816f, 1.08035362f, -0.09768825f, -0.14222969f, 1.20068800f, -0.18318398f, 1.04701984f, 0.31560555f}, {0.16389053f, 0.26786691f, -0.17681059f, -0.37380311f, 0.58297253f, -1.64735579f, -0.56052470f, -1.24140584f, 1.36632371f, 0.23880239f, -0.26171264f, -0.01463342f}, {0.19592635f, -0.16936997f, -1.48911417f, 1.58112895f, 1.60483229f, -0.33605662f, 0.00573696f, 0.35261568f, 0.16691238f, -0.80954832f, -1.64629030f, -0.77496284f}, {-0.03335639f, 0.13875872f, 0.15351540f, -0.78078043f, -0.10173088f, 1.57127213f, 0.16819891f, -1.09465957f, 0.16688958f, 0.97706383f, -1.13085938f, -1.09349692f}, {0.99759769f, 1.17096722f, -0.38519296f, -1.32711458f, -1.62286568f, 0.59295130f, 0.28576520f, -1.18132901f, -0.89707541f, 0.24655110f, 1.47628689f, -0.69377625f}, {0.59548450f, -1.18118167f, 0.89239460f, -1.63998723f, 1.85078168f, -0.83484989f, 0.49202281f, 0.83437783f, 0.35266110f, -0.28894442f, 0.72858733f, 0.71517736f}, {1.58140898f, 1.13180733f, -1.59021211f, -0.43024832f, 0.13589209f, 0.18441741f, -0.00614665f, 0.25582197f, -0.49394104f, 1.23730731f, 0.11160728f, -1.58441150f}, {-0.11615274f, -0.71084869f, 0.27147096f, 0.11080600f, -0.07128985f, -0.79460233f, 0.56446761f, 1.09338975f, -0.82701725f, -0.51138353f, 0.73766756f, 0.99946529f}, {0.44086358f, -1.46752620f, 0.48926657f, 1.20120764f, -0.43512219f, 1.24941230f, 0.39648631f, -0.39916858f, -0.56087816f, -1.37667489f, -0.39477977f, -0.65644526f}, {0.84623468f, 0.89109415f, -1.04996443f, -0.57904315f, -1.14690208f, -0.03000733f, 0.14658806f, 0.92387140f, -0.63477200f, 0.25913563f, 0.48111719f, -1.37338316f}, {-0.78995472f, -0.61383754f, 2.19916630f, -1.00637674f, -1.09442770f, -0.49581754f, 0.74923193f, -0.10621669f, 1.66389620f, -0.23493107f, 1.47352731f, -1.75186372f}, {-0.21057475f, 1.19399869f, 0.15090922f, -0.12116569f, 0.71196723f, -0.04726533f, -1.29050088f, 0.13128144f, -1.44116223f, 0.35216320f, 0.00833430f, 0.83750755f}, {-0.35014814f, 0.39031094f, -1.39948940f, 0.47416532f, -1.26647019f, 0.46960279f, -0.82172775f, 0.83904088f, -0.91120297f, -0.92414421f, 1.11756551f, 1.66296983f}, {1.91332722f, -1.46681130f, 0.13648036f, 0.86524010f, 0.03416108f, -1.62899673f, 0.09561097f, -0.95216620f, 0.89888370f, -0.05575915f, -0.57892776f, -0.94420868f}, {0.37166488f, 0.18603083f, 0.62137175f, -0.48128328f, -2.01461506f, -0.37042084f, -0.35882691f, 1.54629362f, 0.33441445f, -0.35126433f, -0.28384224f, -1.64732015f}, {0.58216643f, -0.87516439f, -0.50328767f, 0.66269988f, 0.14856808f, 0.58995926f, -0.74384868f, -2.50666475f, -0.96146369f, -0.37235680f, -1.07911658f, 2.03318262f}, {0.17667128f, -2.01769376f, 0.76135105f, 0.68972838f, 0.13013226f, -0.92441142f, 0.32716018f, -0.81092167f, 0.78218800f, 1.25829327f, 0.59335929f, -0.35520786f}, {-1.75369000f, -0.08788668f, 1.05254674f, -0.06318665f, -0.24671318f, 1.24101508f, -0.24272259f, 0.51651961f, 0.79027712f, 0.99930316f, 0.20469062f, -0.03832151f}, {0.07592934f, 0.32965803f, -0.27609581f, 0.09142093f, -0.32872999f, -1.23874855f, 0.11258402f, 0.02028630f, -1.25761557f, -0.31382430f, 1.11769962f, -0.10221071f}, {-0.13504663f, 0.84679425f, 0.42228267f, 0.14945985f, -0.07760511f, -0.81244504f, 0.31781000f, 0.46229780f, -0.04786475f, 0.65843558f, 0.38755968f, 0.57791144f}, {-0.37264809f, 0.56411713f, -0.05609368f, 1.34409046f, 0.02588091f, -2.14998531f, -0.28140986f, -0.53243458f, 0.55927438f, -0.59794343f, 0.18235511f, 1.06357145f}, {-0.26210675f, 0.51558441f, -0.66947526f, 0.41815585f, 1.26238155f, 1.28635001f, 1.45917928f, -0.60746455f, 0.79525256f, 1.29263449f, -0.47710764f, -0.75225353f}, {1.76758528f, 0.22472918f, -0.17956558f, 0.88094008f, -1.72966099f, 0.63502133f, 0.64186281f, -1.77555037f, -0.44264334f, 0.11902173f, -0.48302791f, 0.87563825f}, {-0.13338557f, -0.82549739f, -0.16931291f, -0.15341230f, -0.96331310f, 1.54865563f, -0.98031843f, -0.84063804f, -1.31238854f, 1.75235236f, -0.96772987f, 1.12295020f}, {-0.43250480f, -0.95270747f, 1.17941844f, 1.56696880f, -1.36266613f, -0.78673875f, -1.66388273f, 0.58447295f, -1.39209294f, 0.54478085f, 0.37009802f, 1.80346882f}, {0.76047945f, 0.53878421f, 1.03376663f, 1.35117352f, 0.86532694f, -0.62609577f, -1.33257103f, -0.20840658f, 0.05732766f, 1.01022410f, 0.15269035f, -3.11331105f}, {1.83256745f, -1.50626266f, 0.01578464f, 1.23666894f, -0.63592124f, 1.03604650f, 0.22511293f, 0.34577554f, 0.43811971f, -1.48811364f, -0.55931026f, -0.04005240f}, {0.23722067f, 0.42222384f, -0.92313248f, -0.03345716f, -0.15719435f, 0.45480031f, -0.65674376f, 0.17348889f, 1.15974927f, -1.94819880f, -0.15366156f, -0.62086332f}, {0.42202294f, 0.06660734f, -0.64922953f, -1.24903405f, -0.83583969f, 0.93186164f, 0.51551592f, -0.32296041f, -0.88520771f, 1.12796521f, -1.00630248f, -0.80040497f}, {-1.74837399f, -0.30449995f, 0.24064127f, -1.09406018f, -0.14279670f, -0.01019892f, 0.82410550f, 0.42998588f, -0.41278401f, 1.43889666f, -0.86889976f, -0.48108643f}, {0.07932388f, -0.00258978f, 0.40930292f, -0.55283684f, 0.62050623f, -0.28910059f, -0.28515071f, 0.44515324f, -1.49170256f, 2.22459960f, -0.40462720f, -0.64743602f}, {-1.78299975f, 0.66256833f, 0.58821958f, 0.23096035f, 0.44921806f, -0.11124525f, -0.44069022f, -0.37597531f, 1.18656409f, 0.67302454f, 0.52259785f, -1.04125845f}, {0.10878545f, 0.58576620f, 0.35391420f, -0.59714109f, 0.73971659f, -2.33421969f, 1.29198790f, -1.82731509f, -1.26098382f, 1.07817340f, 1.45539248f, 1.93727183f}, {-0.38729119f, 0.01600137f, -3.07940578f, -0.51483774f, -2.07913017f, 0.33856061f, 2.05398035f, 1.30282700f, 0.54747045f, -0.94685680f, 0.01996564f, 1.07766986f}, {0.86847860f, -0.16561568f, 0.13746412f, 1.14943099f, 0.12519473f, 0.49572685f, 1.18596995f, 1.78491724f, -0.66521746f, -0.00940960f, -0.86910641f, 0.45271423f}, {-0.28884545f, 1.36886764f, -0.69225669f, 0.17772432f, 0.78084582f, 0.57696313f, -0.49783182f, 0.07425021f, 0.83156770f, -2.02010560f, 0.25569662f, -0.56746393f}, {0.35370386f, 0.96175998f, -0.10190092f, 0.61420345f, 0.14655598f, 0.52416974f, -1.47390461f, -0.15606850f, -0.08236541f, 0.54045194f, -0.15400845f, -0.13942766f}, {0.56861246f, 0.71785754f, 0.25094569f, 0.87518179f, 0.10750754f, -0.41095230f, 0.39626685f, -1.68804967f, 0.83083677f, 0.00623254f, -0.96644598f, 0.08569754f}, {-0.41822031f, 0.22520036f, 0.45421368f, 0.23688479f, -0.18094365f, -0.45422831f, -0.57658380f, -0.51775515f, -0.79897302f, 2.03416467f, 0.46192136f, -0.75322163f}, {-0.51140618f, -0.36258548f, -1.19384599f, -0.58807576f, -1.16488469f, -0.26027349f, -0.16756719f, 2.05729890f, 0.09996872f, 0.53575969f, -0.66123110f, -2.11363792f}, {0.66349900f, -1.31738484f, -1.03349018f, -0.66144049f, 1.09717512f, 0.73494017f, -0.55434740f, 0.01144538f, -0.35007566f, -0.75827783f, -0.45348662f, -0.81808043f}, {-1.12724185f, -0.88788021f, 0.30216876f, -0.45270482f, -0.11990252f, -1.40543306f, 1.29003799f, 1.02769327f, 1.08325338f, -1.11366940f, 0.65641385f, 0.22607270f}, {-0.26550621f, -1.65495384f, 0.55149746f, 1.07290947f, -0.41834894f, 0.75313723f, -0.32126883f, -1.97712076f, 0.45517594f, 1.48191738f, -0.36339757f, 0.61779982f}, {0.79338861f, 1.02345705f, 0.74217886f, -0.38786516f, 1.15829587f, 0.55003917f, -0.43152907f, -1.52988100f, -0.00220738f, 0.49547076f, 0.05610423f, 0.74711150f}, {-1.54145789f, 0.67565942f, 1.16453063f, -0.24407533f, -0.54518849f, 0.01594700f, -0.33315581f, 0.03801603f, 0.35634893f, 1.37514448f, -0.06070592f, -0.45995015f}, {1.45188415f, -0.70579457f, -0.99163532f, -1.15726912f, 0.14991464f, -0.70864379f, -0.49730584f, -0.02949168f, -0.53781831f, -0.70796204f, 0.37238860f, 0.98221540f}, {-1.32917702f, 0.40779752f, 0.24780782f, -1.98041117f, 1.26898468f, -1.48974121f, 2.10042453f, -0.08486638f, 0.15915290f, 0.04139462f, 0.02279008f, 0.30500495f}, {1.13584960f, -0.19287935f, 1.09941387f, 1.67650449f, -0.59980083f, -0.08729488f, -0.63367218f, -0.73481750f, 0.37174791f, -0.91514540f, 1.27019119f, -1.73074985f}, {0.89594704f, 0.27169785f, -0.35926545f, 0.52357948f, 0.13198432f, 0.74594378f, -0.46120310f, -0.88381189f, 1.43753755f, -0.34346896f, 0.60826004f, -1.29286265f}, {0.80941135f, -0.07579413f, -1.86837065f, -0.03874728f, -0.15372443f, -0.41192934f, 0.03822273f, -1.02869344f, -0.86512506f, 1.18701732f, -0.37185121f, -0.94625175f}, {-1.16936576f, -0.58746397f, 0.61761594f, -0.52032757f, 0.25392962f, 0.89213985f, -1.64030325f, -0.19001433f, -1.13975406f, 0.32395887f, 0.13096531f, -0.40637028f}, {0.66922617f, -0.18634684f, 0.09945526f, -0.18055317f, -0.49738088f, 0.07699132f, 0.27568755f, -0.83794934f, 0.97024024f, 0.50838214f, 0.31855211f, 0.98308647f}, {-0.81529689f, -0.88341326f, 0.75875217f, -0.32503903f, 1.64113259f, -2.29538965f, 0.71262783f, -1.05428362f, 0.42773101f, 0.94684923f, -0.94091451f, -0.64637655f}, {-0.03227743f, -1.33052051f, 1.22422588f, -1.29728472f, -0.53069222f, -0.20644906f, -0.71150714f, 0.93248588f, -0.14278811f, -0.82198501f, -0.95136535f, 0.28851804f}, {0.82190651f, 0.48034057f, 0.32325616f, -0.99762464f, -0.54218811f, 1.63065445f, 0.51063633f, -1.08746552f, -1.01584709f, 0.30480030f, 0.05645071f, 0.91482109f}, {-0.53180021f, 1.12966895f, -0.81509900f, -0.75757694f, 0.03018308f, -1.08587003f, 0.84707564f, -0.60534632f, 0.28814772f, -1.32466877f, 0.93872297f, 0.36631081f}, {0.07942348f, -0.17209147f, 1.37252152f, -0.49718961f, -1.33412886f, 0.72029322f, -0.23084170f, -0.36459649f, 1.24079049f, -0.42287254f, -1.19873488f, -0.16191223f}, {-0.13815364f, -0.27515289f, 0.32403842f, 0.73491979f, -1.33317792f, -1.89696372f, 0.09938153f, 1.42252111f, -1.33381188f, -0.91202420f, -0.66282165f, 0.65383106f}, {1.17722952f, 0.61762321f, -0.22093390f, -0.29710642f, -1.21457601f, -0.17535943f, 0.86844528f, 0.20125839f, -1.17042387f, 0.43236259f, -0.67257583f, -0.63881528f}, {0.03397235f, 1.33925378f, -1.10078251f, -1.69340134f, -1.24576056f, -0.09398526f, -0.50135726f, 0.37891075f, 0.09518824f, 1.72271562f, 1.33074152f, 0.53105271f}, {1.04643953f, -0.53145194f, -0.94132471f, 0.72943372f, 0.89229542f, 0.73039210f, 0.26983386f, 0.08909144f, 0.62676412f, 0.44706652f, -0.04797976f, -0.36510524f}, {-0.68853796f, 0.04038750f, -0.09343313f, -1.18462586f, 0.37940952f, -1.36706531f, 0.17832460f, -2.35078216f, 1.34646606f, 0.49048331f, -0.29077235f, 0.05536222f}, {-1.77527320f, 1.82057989f, -1.23838055f, 0.47263643f, -0.41942307f, 0.41407022f, 0.12124140f, -0.35834199f, 0.39213559f, 0.17306197f, 0.94368839f, -0.73150486f}, {1.31270242f, 0.76529294f, 0.29866794f, 0.05994030f, -0.71704692f, -0.05864476f, 0.03004107f, -0.86802948f, -0.26141670f, 1.49063194f, 0.86139828f, -0.84165621f}, {-0.41605678f, -0.02580612f, 0.44825801f, 1.16484153f, 0.37540200f, 0.76753652f, 1.43945503f, 0.40507922f, 1.73518848f, -0.35277310f, -0.49128166f, 0.14207989f}, {0.06492424f, 0.07412641f, -1.18031561f, 0.56085849f, 0.81098777f, -0.47724035f, -0.47113994f, 0.29457879f, 1.35132456f, 1.01157212f, 0.69387311f, 1.04055202f}, {0.36561301f, -0.36186710f, -0.69673842f, -0.86546016f, -1.84415936f, -0.42526576f, 0.56323981f, -0.07350943f, -0.70709139f, 1.00035238f, 0.06277926f, -0.83852279f}, {0.70524281f, -0.53669357f, 0.17270492f, 0.35658634f, -1.45180988f, 0.26387632f, 0.64987153f, -1.15622854f, -1.31981218f, 0.52396250f, 0.44457561f, -0.84953237f}, {-0.34059095f, -0.94162905f, -3.12488675f, 0.93199027f, 1.18450463f, 0.23844440f, -0.08879864f, 0.51916689f, -0.04131375f, 0.42009878f, 0.33105963f, 0.45809135f}, {0.35646158f, 0.05408471f, -0.40048715f, -0.01765495f, 0.57402897f, 0.77119309f, -0.70407152f, -0.79962558f, -0.07541827f, -0.06829894f, -0.49405265f, -0.40947276f}, {-0.79912508f, -2.69505668f, -1.06939971f, 1.50249016f, 0.51535773f, 0.05527354f, -0.65729010f, 2.72811437f, -1.24774587f, 0.24538958f, 0.14679301f, -0.23247550f}, {-0.59770983f, -0.87365937f, -0.51111221f, -1.85759842f, -0.54390800f, -0.79390091f, -0.87809891f, -1.52558684f, -0.17169242f, 0.51328355f, 1.64148390f, 0.84872353f}, {0.80282384f, 0.66238779f, -0.32202023f, -0.74386179f, -0.34710884f, 0.26444721f, -0.25421694f, -0.63217807f, 1.02764904f, -0.01906601f, 0.45899275f, 0.98841202f}, {0.11235195f, 0.11739974f, 1.09903848f, -0.93796283f, -0.20835654f, -1.25354731f, 1.38786769f, -1.41978908f, 0.02541053f, -0.11376118f, -0.26604766f, -0.83332372f}, {0.11589481f, 0.73799860f, 0.17667396f, -0.28453842f, -0.33686453f, 0.65763372f, -0.59453410f, -1.84556210f, -1.19675410f, 0.90039134f, -0.56358403f, -0.22614339f}, {0.27020866f, 0.89191538f, -0.38492429f, -0.44579345f, -1.50164688f, 0.52811503f, 1.84729314f, -0.17569259f, -0.65061873f, 0.43118104f, -0.65625966f, -0.29093865f}, {-0.35789394f, 2.00975156f, -0.51014721f, 0.46767059f, -0.84960085f, 1.98183405f, -1.08072174f, 0.86529893f, -0.58377379f, -0.52625364f, -0.43797690f, 1.04596710f}, {0.44314143f, 0.62584740f, -0.05565160f, -0.20428215f, -0.16671902f, 0.43984783f, 1.21771479f, 0.22798771f, -0.04397774f, 2.17873502f, -0.63310713f, -0.53799182f}, {0.01130315f, 0.49974403f, 0.14450568f, 0.20402190f, -0.74112898f, -0.67118597f, 0.36949992f, 0.78976434f, 0.43181750f, 0.00949981f, 1.12099445f, 0.75261241f}, {0.85717005f, -0.16173384f, -0.57657391f, -1.37288415f, 0.77802652f, 2.22981477f, 0.56239116f, -1.39725578f, 0.71736324f, 1.51508629f, -0.46250075f, 0.62668091f}, {0.19362482f, 0.81435698f, 1.02541673f, -0.35731757f, 1.57164836f, 1.58807254f, 1.87646973f, -1.13736725f, -1.97154367f, -0.37889540f, 0.49812245f, -0.30873039f}, {-0.72131509f, -0.25573245f, -1.06413257f, 0.68749458f, -1.27403450f, 1.15360987f, 0.48351136f, 0.75719798f, -0.28686401f, 0.30876172f, 1.24313366f, 2.09387279f}, {0.74193680f, 0.63568825f, -0.68279451f, 0.21986115f, 0.26778537f, 0.13505335f, -0.89156914f, -1.58937347f, 0.68628603f, 0.68733943f, 0.17724110f, -0.91660762f}, {1.42496145f, 0.97569358f, -0.66145283f, 0.58299756f, 0.50236094f, -0.51889712f, -0.89801693f, -0.44247496f, -0.03695104f, 1.36348009f, 0.05864467f, -0.55686253f}, {0.77755433f, 0.68357849f, -0.71159697f, -0.37415141f, -0.27516860f, 0.93973398f, 0.14292721f, -0.16805010f, 0.12670951f, -0.73859614f, 1.62530911f, -0.90509611f}, {-0.20360591f, -2.10411143f, -0.24820358f, 0.55462492f, 1.08591962f, -0.03000388f, 0.77722079f, 1.33521008f, 0.12923767f, 0.46710739f, -0.53158605f, 0.24182028f}, {0.12193818f, 0.51807636f, 0.42631584f, -0.65445942f, 1.07520461f, -0.28268969f, -1.90017915f, -1.19589782f, 0.69693416f, 1.19062662f, -0.34953263f, -1.01143408f}, {1.13593292f, 0.22132334f, -1.15490711f, -1.70013320f, 1.36261714f, 0.82424074f, 0.05334536f, 1.90525854f, 0.55718464f, -1.64676154f, 0.10988497f, 0.61149383f}, {-1.44301391f, 0.53769678f, -0.09877774f, 0.27652505f, 1.72261715f, -0.86533654f, 0.24705926f, -0.78342992f, 0.01020854f, -0.14631732f, -0.49983424f, 1.46267164f}, {0.44807452f, 0.14613573f, 1.05852520f, 0.00376024f, -2.55995440f, 0.02854734f, 0.20633844f, -0.29082137f, -1.31443310f, -0.07593486f, 0.91039401f, -0.15835649f}, {0.79342067f, -0.43692937f, 1.01874042f, -1.38102758f, 0.54299086f, -0.88151515f, 0.40262359f, -1.03619480f, -0.35676575f, 0.94598067f, -0.29268637f, -1.53900516f}, {-0.00884213f, 0.06314240f, 0.77159488f, -0.57759398f, -1.20620978f, -0.69433087f, -0.88094282f, -0.41234073f, 0.72075665f, 2.02166605f, 1.18312764f, -0.74481577f}, {-0.15695253f, -0.36512944f, 0.61767668f, -0.31474087f, 0.70653570f, -0.53454673f, 0.73424697f, -0.38953421f, 0.56510383f, -0.74548960f, 0.60447592f, -0.12259483f}, {0.47048944f, 0.45499453f, 1.11918426f, -2.02527666f, -0.66847980f, -0.69398618f, -0.97261226f, -1.38286197f, -1.42205787f, 0.64585823f, 0.59700572f, -0.49548036f}, {-0.38459378f, 1.61684287f, 0.35105231f, 0.24979648f, -0.07332268f, -1.43157494f, -0.58272713f, 0.35065642f, 0.85931456f, -0.20983791f, -0.17949203f, 0.17072956f}, {0.23772021f, 0.45901832f, 0.59023231f, -0.28065941f, -1.20951605f, 0.42394820f, -0.57559627f, -0.78562140f, -0.43818310f, 0.25112852f, 0.07877284f, -0.24930851f}, {0.00781719f, 0.11513024f, 1.43681550f, 0.46177918f, 0.77397478f, -1.28329873f, 0.40635124f, -0.47077149f, 0.54689288f, -0.47022042f, -1.26378667f, 0.94181901f}, {-1.01911640f, -0.45089635f, -0.38473055f, -1.09915459f, 0.98206526f, 0.59551352f, 1.83006668f, 0.14083357f, 0.00160219f, -0.63660413f, -0.28716153f, -0.22387598f}, {0.65802884f, -1.13043988f, 0.23436448f, 0.97769833f, 0.19512314f, 0.35678625f, -0.21993406f, 0.30227771f, -0.57185781f, 0.28068975f, -1.09765041f, 1.90414774f}, {0.64125967f, -0.14731444f, -0.23167056f, 1.09028494f, 0.67314887f, -0.05926406f, 0.61054486f, -0.74105006f, -0.40633336f, 0.35448864f, 0.28353119f, -2.07948828f}, {-0.01988013f, 0.22457470f, -0.76550370f, -1.16504836f, 0.37065372f, 1.14985728f, 0.38707700f, 0.34590593f, 0.37909174f, 0.32080978f, 1.13255608f, -1.09999371f}, {1.33420300f, 0.55774873f, -0.84719056f, 0.22784789f, -1.23689806f, -1.09068906f, -0.52968460f, 0.06841015f, -0.02791698f, 0.57776648f, -0.86744905f, 0.06023341f}, {-0.98389184f, -0.28584781f, -0.64384276f, -0.97340137f, 0.34899169f, 0.50346780f, 0.46663046f, -0.33384392f, 0.11429617f, 1.57008898f, -0.40888605f, -1.13607633f}, {1.08940005f, 0.17039943f, 0.21388158f, 1.21183169f, 0.77136171f, 1.33535194f, -0.66563880f, -0.33958036f, -1.26540399f, -1.47959208f, -1.75849760f, -1.35154986f}, {-1.89240777f, 0.54977554f, 0.71637380f, -2.00058150f, -1.44893289f, 0.31534064f, 0.42669064f, -1.36915910f, 1.01613462f, -0.23312934f, 1.44986188f, -0.09641730f}, {0.82298934f, 0.33763561f, -0.82173526f, -0.78775752f, 0.20952168f, -0.48259148f, -0.29311866f, 0.62844819f, -0.56784254f, 1.28138077f, -0.79771906f, -0.64616263f}, {0.37421036f, 1.40281343f, 0.54434860f, -0.23770058f, -0.68941444f, -0.03126560f, -0.41967571f, -2.32036638f, -0.01147478f, -1.47317386f, 0.19045655f, -0.05816134f}, {-0.00209512f, 0.53523135f, 0.33122629f, 0.68681538f, -0.75268608f, -0.01889507f, 0.28575420f, -0.23290022f, 0.24350646f, 0.09823077f, 0.32550246f, -0.70833933f}, {-0.11453527f, -0.09477682f, -1.99532115f, 0.19688065f, -0.48441339f, -0.40660620f, -2.41677570f, 0.91902375f, 0.34520748f, 0.21954888f, 0.34296355f, 0.17701903f}, {0.49769664f, -0.30718988f, -0.89902914f, -0.07915603f, -0.21606359f, 0.63087904f, 1.00771451f, -0.66107702f, 0.67827231f, 0.68686342f, 0.40876633f, -0.53006750f}, {-0.85733551f, 1.12675476f, 0.34692264f, -1.02057159f, 0.77794510f, -0.16570441f, 0.50955141f, 1.44008446f, -1.30668509f, -0.40552422f, -1.57715833f, 0.78962505f}, {0.08081242f, -0.65775937f, 0.24627095f, -0.22211392f, -0.31164163f, -0.13092862f, 0.11448295f, -1.24959910f, -1.36398363f, 1.85540593f, -0.14571470f, 0.64401799f}, {-1.29713333f, 0.76133341f, 1.06095994f, -0.93520236f, 0.69372225f, 0.55897439f, -0.52638751f, 0.48528954f, 0.18335800f, -0.83745313f, 0.65901029f, -0.31340539f}, {-1.62467396f, -0.29119423f, 0.50442612f, -0.77406901f, 0.35952416f, 0.59499478f, 0.01789628f, 1.09503865f, -0.16043861f, -0.25937879f, 0.94423956f, -0.25636458f}, {0.26947197f, -0.65646380f, -0.37515014f, 0.32818690f, 0.37522772f, -0.29370773f, -0.48404351f, -0.94689316f, 0.09176634f, 0.63271743f, -0.32766154f, -0.28082398f}};
const float MODEL_DATA_STORAGE pos_emb_weight[CONTEXT_LENGTH][EMB_DIM] = {{-0.77289402f, 0.34778166f, 0.35189113f, -1.97981000f, 0.74519688f, 1.03454423f, 0.95284438f, 0.14264795f, 1.03506064f, 0.22260822f, -0.33788627f, 0.55480552f}, {0.44172794f, -0.32536647f, -0.95585251f, -0.80569661f, -1.52501571f, -0.22668466f, 1.28006876f, 0.53967661f, 0.16683006f, 0.10500695f, 0.56368679f, -0.14163516f}, {-0.38161823f, -0.97476697f, -0.52828813f, 0.02355295f, -1.86024785f, 0.16312151f, 0.54784906f, 0.15799934f, 0.02237715f, 0.35790685f, -0.34646648f, 1.27063179f}, {0.27138829f, -0.39142796f, -0.12158620f, 0.36219496f, 0.96064210f, -0.23095345f, 0.24082141f, 0.04225781f, -0.25183126f, -0.06408307f, 0.50017273f, -0.91788161f}, {-0.54422593f, 0.16924506f, 0.65415490f, -0.31200191f, 0.29506961f, -0.70097387f, -0.07507300f, 0.26955271f, 0.09729076f, -0.22781780f, 0.96638036f, 0.21446863f}, {-0.70739037f, -0.66478270f, 0.43324187f, 0.17916705f, 0.16591132f, 0.87496459f, 0.85647207f, 0.00792076f, -0.30366525f, 0.48948136f, 0.37570521f, -0.08310761f}, {0.15550663f, 0.03510183f, 0.06254496f, -0.14326608f, 0.54935122f, 1.22705567f, -1.29041016f, -0.55357468f, -0.14404899f, -0.04097341f, 0.80096281f, 0.45135152f}, {-0.03161357f, -0.56079799f, 1.13875020f, 0.16843244f, -0.40227118f, 0.55309123f, 0.06237194f, -0.66509175f, -0.00722776f, -0.08246148f, 0.15789810f, 0.21577199f}, {0.70281535f, -0.21953776f, 0.42061669f, -0.13033238f, -0.48913068f, 0.72958922f, 0.62973136f, -0.59345001f, -0.37151623f, -0.57340699f, -0.24823068f, -0.27233353f}, {0.44255000f, -0.18921348f, 0.69508600f, 0.77286911f, -0.28150073f, 0.11960380f, -0.49991718f, 0.26240253f, 0.14723347f, 0.15174505f, -0.46079037f, -0.21307458f}, {1.08537114f, 0.08390027f, 0.31329119f, 0.21859433f, 0.27842408f, -0.48159379f, -0.29168341f, 1.04176271f, -0.37191957f, 0.72893727f, -1.20365191f, 0.40817559f}, {0.33265543f, 0.21913619f, -0.09750774f, 0.48857862f, -0.41524425f, 0.06710298f, -0.10682590f, -0.19915079f, 0.38939691f, 0.59277660f, -0.32315081f, 0.48029763f}, {0.74661881f, 0.75037491f, -0.41979691f, 0.05546888f, -0.69944835f, -0.66373897f, 0.01068810f, 0.67846531f, 0.20508482f, 0.17944519f, 0.35025716f, -0.17679715f}, {0.85102952f, 0.08519591f, -1.19646466f, 0.22131564f, 0.21498080f, 0.17631303f, 0.74351692f, 0.10951769f, -0.81160760f, 0.14658299f, 0.42860195f, 0.20941970f}, {0.17522332f, -0.52633762f, -0.39242858f, -0.94772667f, -0.82000017f, 0.51876307f, 0.63084334f, 0.15737721f, 0.85093212f, 0.00845207f, -0.13431396f, -0.07536231f}, {0.34154922f, 0.04677253f, -1.45968270f, -0.81752700f, 0.07959528f, -0.32566744f, -0.14179212f, -0.74500328f, 0.71667403f, 0.58123636f, 0.25760502f, -0.11844054f}, {0.18321182f, 1.17233825f, -0.09730069f, -0.84931660f, 1.26491046f, 0.42437881f, -0.37284225f, -0.19504842f, 0.22512671f, 0.45584399f, -0.63327885f, -0.98825228f}, {0.16527571f, 0.15278091f, -0.54143649f, 0.42546299f, 0.52729285f, 1.25857639f, 0.71315104f, -0.25893605f, 0.24513410f, 1.41935802f, 0.10740104f, -0.54722869f}, {-0.18491787f, 1.21313155f, -0.08113351f, 0.41922623f, 0.44086361f, 1.00573385f, -0.03859733f, 0.44872591f, -1.06834745f, 0.03210000f, -0.43126822f, -0.79213923f}, {-0.78048384f, 0.34521830f, -0.01670847f, 0.14678754f, 0.51176649f, 0.56248724f, -0.51882476f, -0.30090952f, 1.06172609f, 0.35706139f, 0.58974379f, -0.44313794f}, {-0.36668053f, 0.33946896f, -0.83448231f, -0.82820028f, 0.75541359f, 0.61604506f, 0.26299506f, -1.25871336f, -0.81681240f, 0.24336773f, 0.10815024f, -0.22755727f}, {0.79316956f, 1.15224624f, 1.18601036f, -0.86089343f, -0.41437721f, 0.02785228f, 0.23954037f, 0.67232782f, -1.06670296f, -0.49910071f, 0.86517698f, -1.76660264f}, {-0.10164455f, 0.10830557f, -0.48003399f, -0.25303179f, 0.64356750f, -0.01317872f, -0.45078939f, -0.32506070f, -0.21407822f, -1.28693354f, -0.05755320f, -0.21182056f}, {-0.27221349f, -0.11070223f, -0.95640922f, -0.54456961f, -0.88814241f, -1.35900676f, 0.46153647f, 0.28380680f, -0.96194148f, -0.05383037f, -0.42361724f, 0.30015317f}, {0.18712518f, 0.28554899f, -0.78595495f, 0.53150731f, -1.20680916f, -0.41836017f, 0.52263492f, -0.06858829f, -0.40776062f, -1.22786665f, 0.23079693f, 0.71365416f}};

#if N_LAYERS > 0
const float MODEL_DATA_STORAGE trf_att_W_query_weight[N_LAYERS][EMB_DIM][EMB_DIM] = {{{0.03545772f, 0.09651592f, 0.62938631f, -0.13772409f, 0.45164889f, -0.00045743f, -0.66343540f, -0.13653670f, 0.26857868f, -0.27527720f, 0.05446427f, -0.95087320f}, {0.32392982f, -0.09291974f, 0.09523835f, -0.55400568f, 0.31812859f, 0.20551021f, -0.52871132f, -0.20855448f, -0.67734802f, -0.32425523f, 0.45289266f, 0.71176589f}, {0.89011943f, 0.52594388f, 0.21523231f, -0.35394740f, -0.15323578f, -0.58695811f, -0.16243291f, 0.37140185f, -0.15634660f, -0.28708196f, 0.09023905f, -0.09409535f}, {0.12616363f, -0.04661496f, -0.24172373f, 0.67789549f, 0.51669550f, -0.62182486f, -0.06949265f, 0.15206578f, -0.11035229f, 0.16187115f, -0.59018505f, 0.33739617f}, {0.52930140f, 0.35324314f, -0.23708947f, -0.13457000f, 0.45660126f, -0.09979592f, -0.55288142f, 0.57458186f, 0.04338393f, 0.03748927f, 0.34792653f, -0.28683007f}, {-0.25205478f, 0.50216562f, 0.51130831f, -0.39315343f, -0.21612288f, -0.31640920f, -0.69770235f, 0.36908430f, 0.52177823f, 0.06676271f, -0.04340164f, 0.35435379f}, {0.37311849f, 0.37574419f, -0.37330610f, -0.35413444f, -0.15293574f, -0.27053827f, 0.44703266f, -0.33280331f, 0.44370243f, 0.43582776f, -0.19204880f, 0.11445103f}, {-0.14820395f, -0.12245695f, -0.31222621f, -0.19293307f, 0.41257894f, 0.42319900f, -0.70203817f, -0.24249552f, -0.17812060f, 0.32373837f, -0.08621774f, 0.38452697f}, {-0.87182283f, 0.20964836f, 0.17241581f, -0.02782242f, -0.20342448f, 0.51779842f, 0.74254483f, -0.08214425f, 0.04025523f, 0.27685407f, -0.41542137f, 0.31611502f}, {-0.22368596f, -0.12466909f, -0.40787855f, 0.41922036f, 0.10622907f, 0.40319899f, -0.22309770f, -0.62599152f, -0.03798646f, -0.54911518f, -0.14245175f, 0.15175241f}, {-0.18940628f, -0.49135831f, -0.33083588f, 0.46253386f, -0.37657559f, -0.62231946f, 0.31799799f, -0.12452130f, 0.12897517f, 0.38233349f, 0.38302383f, 0.11886566f}, {-0.03064398f, -0.88396990f, 0.60054940f, 0.62137312f, 0.58406931f, 0.32845190f, 0.86499274f, -0.35561234f, -0.37330449f, -0.20026471f, 0.10619604f, -0.25647750f}}};
const float MODEL_DATA_STORAGE trf_att_W_key_weight[N_LAYERS][EMB_DIM][EMB_DIM] = {{{-0.65937662f, 0.10188455f, -0.44719958f, 0.06758267f, -0.27052361f, 0.06310613f, 0.77691257f, 0.08990122f, -0.20588495f, 0.01693995f, -0.09852286f, 0.67680460f}, {-0.24122171f, 0.36277926f, 0.44141939f, -0.04886658f, -0.55463308f, 0.09010261f, -0.43414894f, 0.04382300f, 0.97848070f, 0.01515672f, -0.70968384f, 0.38704875f}, {-0.20378217f, -0.20511284f, -0.07757898f, -0.66562200f, -0.32019028f, 0.84925747f, -0.19727764f, -0.10674062f, 0.04717300f, 0.06009965f, 0.38082954f, 0.75391269f}, {-0.18425331f, 0.43173373f, 0.26008496f, 0.11651606f, -0.80862612f, -0.35249588f, 0.44168732f, -0.51832283f, 0.41848725f, -0.27438003f, -0.08038349f, -0.22809592f}, {-0.19290143f, 0.04585786f, 0.43331030f, 0.33842176f, -0.18474799f, -0.00319129f, -0.55788016f, 0.29960623f, 0.45623937f, -0.41618094f, -0.55529714f, -0.40104836f}, {0.62376344f, -0.09516657f, 0.36943632f, 0.25293291f, -0.29853341f, 0.60608578f, -0.03413062f, -0.28103539f, -0.52953917f, 0.29019493f, -0.58128124f, -0.38841552f}, {0.57320535f, -0.41820127f, -0.10679354f, -0.13536033f, 0.42003918f, 0.05790431f, 0.05432166f, 0.63424104f, -0.11692861f, 0.17429158f, -0.11228795f, -0.37178656f}, {-0.42329130f, 0.36714426f, 0.16727805f, 0.12038208f, -0.06297502f, -0.12029141f, 0.26114118f, 0.17022002f, -0.03662280f, -0.54083830f, 0.78812253f, -0.20589024f}, {0.54077142f, 0.20420952f, -0.74131846f, -0.42095017f, 0.69059545f, 0.30405658f, -0.69239187f, -0.07728995f, -0.16422062f, 0.07174125f, 0.34212446f, 0.00074583f}, {0.04626779f, -0.09800853f, 0.37221429f, -0.03642134f, -0.20524484f, -0.11741082f, -0.08360384f, 0.78357160f, -0.65413970f, -0.03203166f, -0.03553559f, 0.20900366f}, {-0.16384664f, 0.43306160f, -0.01238678f, 0.16062777f, -0.52622515f, 0.55174345f, 0.55216110f, -0.29883906f, -0.65001500f, 0.00074391f, 0.30652508f, -0.13902296f}, {-0.31678906f, 0.31394324f, -0.40454727f, 0.36177474f, 0.06623953f, 0.20657757f, 0.06876020f, 0.74287158f, -0.67364681f, 0.66898787f, -0.59246308f, -0.40843567f}}};
const float MODEL_DATA_STORAGE trf_att_W_value_weight[N_LAYERS][EMB_DIM][EMB_DIM]= {{{0.21063548f, -0.42487320f, 0.27211916f, 0.26103625f, 0.36124298f, -0.04222182f, 0.13884068f, -0.70582443f, -0.12364974f, 0.01256214f, -0.36679554f, -0.07087873f}, {-0.42368096f, 0.49019790f, 0.12912565f, -0.21505657f, 0.34821969f, 0.14210021f, -0.16152158f, -0.27027801f, -0.15236065f, -0.00412073f, 0.33600831f, 0.05544753f}, {-0.37251750f, -0.31230864f, 0.06347437f, 0.20867229f, 0.13500328f, -0.35211357f, -0.23952280f, 0.50360763f, -0.17117932f, 0.59758723f, -0.28211370f, -0.00448061f}, {0.04939533f, -0.35642383f, -0.09061792f, 0.06542468f, -0.09118372f, 0.34308970f, 0.03467906f, -0.37220845f, -0.08792333f, -0.64651799f, -0.20385820f, 0.59157264f}, {-0.34110299f, -0.52538913f, 0.37128526f, 0.08010241f, 0.20889899f, -0.19924971f, -0.15088677f, -0.15285355f, 0.11572561f, 0.26516238f, -0.14466713f, 0.53471589f}, {-0.05382320f, 0.49291512f, -0.15923113f, -0.22182702f, -0.27384755f, 0.40602112f, -0.45219654f, -0.29381841f, 0.10428988f, 0.35254514f, 0.09296529f, 0.42753848f}, {-0.42811728f, 0.26672933f, 0.52780074f, -0.26003328f, 0.04005284f, -0.42513418f, 0.02568366f, 0.34422442f, 0.13268460f, 0.22493844f, 0.03552288f, 0.12737697f}, {-0.45983019f, -0.19512950f, -0.17516623f, 0.16328621f, 0.21408881f, -0.03011991f, -0.22129397f, -0.24613181f, -0.43358794f, 0.63883471f, 0.04743258f, 0.33604318f}, {-0.08872081f, -0.16051717f, 0.19983546f, -0.16792908f, -0.01950650f, 0.05418928f, -0.10188229f, 0.39342171f, -0.60505372f, -0.36610988f, 0.39733663f, 0.44194508f}, {-0.10949958f, 0.17682081f, 0.34669441f, 0.37225905f, -0.48408270f, 0.34842375f, -0.09151257f, 0.02485001f, -0.00544703f, 0.31591403f, -0.70180845f, 0.34103414f}, {0.09045991f, -0.50866544f, -0.38683909f, -0.02110988f, 0.04737137f, 0.00840522f, 0.22395666f, -0.42378491f, 0.21049157f, 0.61898398f, -0.12940961f, 0.07650335f}, {0.05866246f, 0.58686763f, -0.42777154f, -0.20681170f, -0.01494393f, -0.13706532f, -0.12637837f, 0.24140842f, 0.36943057f, 0.25549257f, -0.04269556f, 0.19005106f}}};
const float MODEL_DATA_STORAGE trf_att_out_proj_weight[N_LAYERS][EMB_DIM][EMB_DIM] = {{{-0.44155264f, 0.17771834f, 0.29185450f, 0.02378146f, 0.23541306f, 0.09438256f, -0.24101235f, 0.34222737f, -0.54129183f, 0.29420537f, 0.20962591f, 0.05003557f}, {0.13510916f, -0.01775855f, -0.35436994f, -0.06983247f, 0.01417100f, 0.22933067f, -0.49043649f, 0.34641156f, 0.34276021f, 0.40820190f, 0.11401024f, -0.10693444f}, {0.07788141f, 0.04066916f, -0.20004411f, 0.03261393f, -0.00509380f, -0.19495122f, -0.30142227f, 0.07718752f, 0.30354685f, -0.38596374f, -0.12830625f, -0.13491413f}, {0.03231929f, 0.02866257f, -0.15675226f, 0.20678493f, -0.30791286f, -0.55897200f, -0.32168037f, -0.33101395f, -0.41885799f, -0.05798452f, -0.00153593f, -0.21643427f}, {0.19486211f, -0.22674559f, 0.15948464f, 0.26461363f, 0.20038563f, 0.20552869f, -0.03263752f, -0.40227637f, -0.14576817f, 0.47531146f, -0.32304078f, -0.10478477f}, {-0.15716448f, 0.06031764f, -0.36577666f, -0.23507731f, -0.16223750f, -0.13423534f, 0.13266207f, 0.39555320f, 0.17318414f, 0.23077820f, 0.21771225f, 0.16831490f}, {-0.14846256f, -0.43578953f, -0.26476979f, 0.49496642f, 0.07404263f, 0.17030257f, 0.18879713f, -0.30756831f, 0.20835648f, -0.00168391f, 0.32316247f, -0.35594401f}, {0.35503587f, 0.10722059f, 0.42689663f, -0.29889968f, -0.28503254f, 0.17022754f, 0.40782058f, 0.32650319f, -0.09850984f, 0.09514028f, 0.11758168f, -0.39740506f}, {0.18143578f, -0.33975387f, 0.35803866f, -0.52839506f, 0.00324285f, -0.06671984f, -0.08575623f, -0.02624641f, -0.19283089f, -0.01020893f, -0.06782681f, 0.43359792f}, {0.14038628f, 0.43923819f, -0.15013063f, 0.23502004f, 0.51361024f, -0.33936211f, 0.46590129f, 0.03303001f, 0.13515857f, 0.07147113f, -0.46526909f, 0.08880144f}, {0.32401368f, 0.11694828f, -0.08426373f, -0.08924457f, -0.41957951f, 0.49856567f, 0.23899314f, -0.35065618f, -0.01967366f, -0.63161629f, 0.64883924f, 0.41041678f}, {-0.45390278f, -0.22239341f, 0.17418955f, 0.03655608f, -0.14691167f, 0.48128507f, 0.13538978f, -0.36513433f, 0.13493736f, -0.23720002f, -0.34460390f, -0.25474650f}}};
const float MODEL_DATA_STORAGE trf_att_out_proj_bias[N_LAYERS][EMB_DIM] = {{-0.03488861f, -0.04837631f, -0.02117350f, 0.08066748f, -0.09322211f, 0.09457046f, 0.05543530f, -0.24012411f, 0.01057554f, 0.07964192f, 0.08738175f, -0.05596913f}};
const float MODEL_DATA_STORAGE trf_ff_lin1_weight[N_LAYERS][4*EMB_DIM][EMB_DIM]= {{{0.15351577f, -0.24830289f, -0.18207619f, -0.52523685f, 0.45668855f, -0.10271618f, -0.06670041f, -0.32996199f, 0.02799412f, 0.75630355f, 0.22198032f, 0.34009990f}, {-0.17012440f, -0.30890116f, 0.54791760f, 0.01242644f, -0.00803332f, 0.33338237f, -0.34680215f, -0.52971429f, 0.28541800f, 0.55953258f, -0.36026609f, -0.22005284f}, {0.06309108f, 0.24969421f, 0.08076816f, -0.52877641f, 0.20119925f, -0.40498051f, -0.16924666f, 0.56486279f, -0.20314477f, -0.33063504f, 0.07779501f, -0.28961861f}, {-0.15661708f, 0.64586270f, 0.41156521f, -0.45812127f, -0.02194744f, -0.68702132f, -0.31682563f, 0.20357552f, 0.18659721f, -0.29464656f, 0.39448401f, -0.08708879f}, {-0.04677552f, 0.01167804f, 0.07512628f, -0.12520561f, 0.41453108f, 0.03081739f, -1.10792410f, -0.28043321f, 0.17582116f, -0.04774403f, 0.22602430f, 0.64544749f}, {0.64639747f, 0.08162545f, 0.74905974f, -0.01140969f, -0.59518391f, 0.05732064f, -0.78258479f, -0.01586776f, 0.07370391f, -0.02244653f, 0.57307392f, -0.31657302f}, {-0.06792419f, -0.17980739f, 0.74514312f, -0.21522616f, 0.18116498f, 0.50772417f, -0.25540489f, -0.22840050f, -0.03093329f, -0.20071864f, -0.32243454f, -0.15578128f}, {-0.54287153f, 0.04161699f, 0.20191361f, -0.02585153f, -0.13799365f, 0.33883318f, -0.47481167f, 0.02575335f, -0.08187418f, -0.21398377f, 0.62060791f, 0.42572957f}, {0.31383145f, 0.21268398f, 0.35308161f, 0.18153451f, -0.31292948f, -0.06085748f, -0.34922862f, 0.51504683f, 0.12491942f, -0.42600319f, 0.17486352f, -0.17133281f}, {0.22433428f, -0.33635256f, -0.05621084f, 0.70628965f, -0.11865057f, 0.30107018f, -0.27999046f, -0.02346940f, -0.04037695f, -0.01123211f, -0.14258164f, 0.25817168f}, {-0.33338937f, -0.35304016f, 0.48230159f, 0.25836965f, 0.07348593f, -0.12892842f, -0.48126945f, -0.11374951f, -0.17054634f, 0.16241871f, -0.17655820f, 0.29313508f}, {0.39489529f, 0.16166006f, -0.03112669f, -0.68770057f, 0.36196792f, -0.12262412f, -0.66738826f, -0.06641600f, 0.00471530f, 0.06073087f, -0.10769321f, 0.57286239f}, {0.54487860f, -0.24576297f, 0.94259953f, 0.45228377f, 0.09747411f, -0.43821001f, -0.37375590f, -0.18351483f, 0.25677752f, -0.26395103f, 0.08819566f, -0.19978531f}, {0.53013015f, -0.03502733f, 0.03432190f, 0.24390136f, 0.34652457f, 0.47331238f, -0.38223577f, -0.41411602f, -0.51104760f, 0.06492630f, 0.16961081f, -0.35877094f}, {-0.11585627f, 0.42095941f, -0.24437369f, 0.46079198f, -0.02917425f, 0.16792788f, 0.09064161f, -0.38136721f, -0.00179836f, -0.20476457f, 0.12230866f, 0.38394794f}, {-0.42449763f, -0.53636301f, 0.16069275f, 0.18581650f, 0.06354851f, -0.38547057f, -0.26574296f, 0.51653767f, 0.09298299f, 0.63670707f, 0.55886263f, -0.35791111f}, {0.57462436f, -0.62800395f, 0.29339594f, -0.31994691f, 0.33330312f, -0.00299654f, 0.10718806f, 0.53770459f, -0.43021405f, -0.38567126f, 0.50783324f, -0.07058119f}, {0.35577258f, 0.06620381f, -0.43979350f, 0.17494509f, 0.68677002f, -0.53535932f, 0.13870849f, 0.10153769f, -0.46036920f, 0.00329430f, 0.28080770f, -0.43064320f}, {0.84026033f, -0.20743257f, -0.20193759f, -0.32216921f, 0.23910876f, 0.19189379f, -0.45758030f, 0.09850363f, -0.18154877f, -0.23051108f, 0.32372710f, -0.14792626f}, {0.46991920f, 0.05432790f, 0.31885439f, -0.02862789f, 0.13087426f, -0.54344863f, -0.25675181f, 0.78287768f, -0.24691147f, -0.64015532f, -0.30185142f, 0.55782276f}, {-0.00151797f, -0.58501488f, 0.27343708f, -0.28076130f, 1.00792098f, -0.10511941f, -0.95699078f, -0.34136268f, 0.54831386f, 0.10858557f, 0.11237668f, 0.32326406f}, {0.13525178f, -0.27037913f, 0.43408397f, 0.01541712f, -0.36312526f, -0.38519374f, -0.03761167f, -0.21942873f, 0.44331244f, 0.55290782f, 0.07934008f, 0.05181257f}, {0.58424169f, 0.14205995f, 0.60076869f, -0.44058406f, -0.17515495f, -0.00112806f, -0.27393585f, -0.05464386f, 0.12486416f, -0.11829725f, -0.12952472f, 0.11294927f}, {-0.40644285f, 0.60306370f, 0.56732589f, 0.03684630f, 0.57583076f, -0.20888503f, -0.39035606f, -0.62351978f, 0.00946713f, -0.03763777f, -0.05580172f, 0.02039029f}, {0.29807132f, -0.48532635f, 0.77315974f, -0.26294613f, -0.06141400f, 0.43555564f, -0.35232723f, 0.18018334f, 0.12041776f, -0.14611316f, 0.27113527f, -0.28931016f}, {0.25842181f, 0.42800528f, 0.44383869f, -0.22525977f, -0.62732798f, -0.34611711f, -0.49401957f, 0.11718368f, -0.15442666f, -0.39609936f, 0.30677232f, 0.37071016f}, {-0.25128126f, 0.55121082f, -0.47974437f, -0.31768405f, 0.22741768f, -0.13466837f, 0.01117896f, 0.00228869f, 0.37541303f, -0.28239909f, 0.38279557f, -0.25778776f}, {0.08597359f, 0.08623155f, 0.84839559f, 0.29979843f, -0.62712485f, -0.33692887f, 0.03020326f, 0.09337481f, -0.38227773f, -0.30617997f, 0.07735232f, -0.22105466f}, {0.43588412f, 0.12700301f, 0.15295696f, -0.55189806f, 0.02040401f, -0.87025261f, 0.08005311f, 0.11813314f, -0.55982637f, 0.21910255f, 0.48671311f, 0.17742622f}, {0.35005552f, -0.43310475f, 0.76824981f, -0.63531333f, 0.12594415f, -0.12017196f, -0.25211746f, -0.10592005f, 0.15873176f, -0.43239281f, 0.23587315f, 0.53725308f}, {0.00997515f, -0.28192541f, 0.16573124f, 0.32994834f, -0.18315506f, -0.02919160f, -0.09321307f, 0.21996716f, 0.54906142f, 0.28030953f, 0.16982205f, -0.38376260f}, {0.76047456f, -0.37061107f, 0.06173313f, -0.29265699f, -0.08205777f, -0.26487142f, -0.19794959f, 0.43758944f, 0.08400521f, 0.31185070f, 0.65141594f, -0.70349723f}, {0.39771974f, 0.04462597f, -0.13784111f, 0.28181800f, 0.11496765f, -0.58017081f, -0.75436407f, 0.23608360f, -0.38104147f, 0.12878947f, -0.32036349f, 0.03466732f}, {-0.02743090f, 0.12342060f, 0.17664368f, 0.53025460f, -0.16964953f, 0.09660490f, -0.41991162f, 0.16378613f, -0.28440234f, 0.61766493f, 0.06661981f, 0.06926942f}, {-0.32860637f, -0.05743037f, 0.49865699f, -0.11519477f, 0.03259976f, -0.05863769f, -0.68461716f, 0.18318348f, 0.37660658f, -0.14774944f, 0.06248911f, 0.35612461f}, {0.51185435f, -0.29636407f, 0.39682797f, -0.74457335f, -0.19889656f, 0.02080139f, 0.17330363f, -0.04811369f, -0.36809406f, 0.47412208f, -0.06525031f, 0.53718978f}, {0.02127641f, 0.27318722f, 0.24244262f, 0.12070084f, 0.07803101f, -0.51040810f, 0.48572907f, -0.02555817f, 0.00298160f, 0.07053208f, -0.45898312f, -0.09485379f}, {0.27402964f, -0.02062835f, 0.47567838f, -0.36196503f, 0.79883987f, -0.12221720f, -0.23905411f, -0.13492595f, -0.05096351f, 0.01598522f, 0.76180094f, -0.83753920f}, {0.46471426f, 0.36214474f, -0.06939367f, 0.17502116f, -0.30893302f, -0.28721786f, 0.05487075f, 0.29030740f, -0.88374525f, -0.16810480f, 0.56507868f, -0.36386675f}, {-0.26054913f, -0.02373670f, 0.59968489f, -0.07061146f, 0.12615730f, -0.54180288f, 0.47925565f, -0.52401423f, -0.32846731f, -0.43701264f, 0.16580306f, 0.08573865f}, {-0.01204831f, -0.23033929f, -0.04040429f, 0.69528270f, 0.41554543f, 0.18031003f, 0.01580448f, -0.65398395f, -0.32932833f, 0.07879246f, 0.22979778f, 0.15783046f}, {-0.02540144f, -0.18911286f, 0.16153988f, 0.14544879f, 0.17222302f, 0.71943665f, -0.21956405f, -0.20384054f, -0.68891418f, -0.04028697f, -0.10777935f, 0.19211441f}, {0.32600352f, 0.69683093f, -0.07949459f, -0.24110192f, -0.05801168f, 0.03026278f, -0.00480727f, -0.30528319f, -0.77385366f, -0.16254738f, 0.52462423f, -0.06716160f}, {-0.23594689f, 0.39767092f, 0.18102203f, 0.26035500f, -0.00693249f, -0.54433650f, -0.16206014f, -0.07751761f, 0.47354281f, -0.25857103f, 0.00638549f, -0.20868598f}, {-0.11049182f, -0.29800132f, 0.14671397f, 0.22018933f, 0.60605645f, 0.19445281f, -0.56149501f, -0.48576987f, -0.01311795f, -0.55662692f, 0.28078851f, 0.38914344f}, {0.30613181f, 0.18060206f, -0.05269309f, -0.42162001f, 0.53808528f, -0.82031387f, -0.63105434f, -0.21301593f, -0.08268873f, 0.13388294f, -0.03975667f, 0.14317159f}, {-0.08419164f, -0.34928250f, 0.22114386f, 0.38331872f, 0.39973554f, -0.09923648f, 0.02943285f, 0.47547290f, -0.55233347f, -0.55184859f, 0.30635953f, -0.46965873f}, {0.71347046f, -0.46912569f, 0.17085196f, -0.06560037f, 0.02102144f, -0.26382604f, -0.18767142f, 0.04031407f, -0.24045403f, 0.30612296f, -0.38948643f, -0.41791135f}}};
const float MODEL_DATA_STORAGE trf_ff_lin1_bias[N_LAYERS][4*EMB_DIM] = {{-0.58297545f, -0.14341293f, -0.22069590f, -0.24144755f, -0.67581165f, -0.47520521f, -0.40291592f, -0.33105263f, -0.25022969f, -0.32578263f, -0.35166219f, -0.45018241f, -0.19212887f, -0.33252519f, -0.44203073f, -0.37986463f, -0.30506083f, -0.23363340f, -0.64095080f, -0.05236895f, -0.74940729f, -0.16486128f, -0.12927964f, -0.05400113f, -0.19170870f, -0.35020855f, -0.67216104f, -0.16867483f, -0.41216436f, -0.29497600f, -0.55402613f, -0.46400446f, 0.03394201f, -0.13898326f, -0.09557794f, -0.14518340f, -0.13757426f, 0.01269070f, -0.20390475f, -0.29381943f, -0.52493995f, -0.25561261f, -0.54252583f, -0.41326788f, -0.26334253f, -0.16668952f, -0.25779790f, -0.07778512f}};
