{
  "block_0": {
    "att.W_query.weight": [
      [
        0.35915079712867737,
        -0.4629986882209778,
        -0.8191472887992859,
        -0.10531321913003922,
        0.34764641523361206,
        0.4707891047000885,
        -0.2605091333389282,
        -0.1384819597005844,
        0.5580071210861206,
        -0.41956648230552673,
        0.4314180314540863,
        0.8399999141693115
      ],
      [
        0.02845706045627594,
        -0.22770307958126068,
        0.9072784781455994,
        0.2916000187397003,
        -0.12919604778289795,
        -0.6137194633483887,
        -0.7550849914550781,
        0.2117527276277542,
        0.11202972382307053,
        -0.1588216871023178,
        0.7124204635620117,
        0.12495651841163635
      ],
      [
        -0.1344214826822281,
        -0.15403668582439423,
        -0.532823383808136,
        0.6464369297027588,
        0.1596606969833374,
        -0.4910120666027069,
        0.4103354513645172,
        0.22071798145771027,
        -0.607262909412384,
        -0.7852931618690491,
        -0.025255367159843445,
        0.318976491689682
      ],
      [
        -0.43179580569267273,
        -0.06475755572319031,
        0.1592322140932083,
        0.626056969165802,
        0.5889987945556641,
        -0.2760564088821411,
        -0.17725421488285065,
        0.012497322633862495,
        0.9869480729103088,
        -0.41400405764579773,
        0.14953255653381348,
        -0.7079163789749146
      ],
      [
        0.03700529783964157,
        -0.896024763584137,
        -0.49586182832717896,
        -0.4515637755393982,
        0.5715194344520569,
        0.053371112793684006,
        0.5706824064254761,
        0.10338310152292252,
        -0.6225034594535828,
        0.529582679271698,
        0.4853828549385071,
        0.15334075689315796
      ],
      [
        0.2628049850463867,
        -0.020756065845489502,
        0.09957633167505264,
        -0.527259886264801,
        1.0667781829833984,
        0.7051356434822083,
        -0.6127231121063232,
        0.8411235213279724,
        0.19280312955379486,
        -0.19736738502979279,
        -0.13919343054294586,
        -0.02246716059744358
      ],
      [
        0.04565548896789551,
        0.23134075105190277,
        -0.834272563457489,
        0.35047468543052673,
        0.6443281769752502,
        0.3364003598690033,
        -0.2100057452917099,
        0.17494769394397736,
        -0.644237756729126,
        -0.23776154220104218,
        0.2064698338508606,
        -0.8472694158554077
      ],
      [
        0.0755230113863945,
        0.4141472578048706,
        -0.8638994693756104,
        0.6627084016799927,
        0.10033269971609116,
        -0.612281084060669,
        0.2015010118484497,
        0.05496084690093994,
        0.007884163409471512,
        -1.2080657482147217,
        -0.11601396650075912,
        0.02521560713648796
      ],
      [
        -0.5186187624931335,
        -0.6233105659484863,
        0.06656278669834137,
        1.2107560634613037,
        0.21515244245529175,
        -0.33530446887016296,
        -0.8008909225463867,
        0.3390062153339386,
        0.3179868757724762,
        -0.44026803970336914,
        0.23856113851070404,
        -0.26491788029670715
      ],
      [
        -0.2905847728252411,
        -0.06263431161642075,
        0.0035766316577792168,
        -0.45109131932258606,
        0.02161850407719612,
        0.8637027740478516,
        -0.6038651466369629,
        -0.3276747167110443,
        -0.07615968585014343,
        0.526352047920227,
        0.5425127148628235,
        0.7165471911430359
      ],
      [
        -0.5946646332740784,
        0.5185341835021973,
        -0.15815353393554688,
        1.4000498056411743,
        -0.7927561402320862,
        -0.3856942057609558,
        0.28213056921958923,
        -0.1875721961259842,
        -0.6777615547180176,
        0.3110266923904419,
        -0.8313254117965698,
        0.2259264439344406
      ],
      [
        0.1786748170852661,
        -0.28459855914115906,
        -0.1846596747636795,
        -0.31943637132644653,
        -1.0555778741836548,
        -0.18282878398895264,
        0.3405982553958893,
        -0.2757265269756317,
        0.31318503618240356,
        -0.024219265207648277,
        0.5984412431716919,
        0.05861135944724083
      ]
    ],
    "att.W_query.bias": null,
    "att.W_key.weight": [
      [
        -0.7674168348312378,
        0.06860405206680298,
        -0.0604633092880249,
        -0.4318768084049225,
        0.0075782896019518375,
        -0.3082321286201477,
        0.4231577515602112,
        0.6993004679679871,
        0.2257336676120758,
        0.7884845733642578,
        -0.8692991137504578,
        0.34017184376716614
      ],
      [
        0.3550183176994324,
        -0.4601899981498718,
        -0.5886749625205994,
        0.25980323553085327,
        0.022413980215787888,
        0.5129764080047607,
        0.4852745234966278,
        -0.7117884755134583,
        -0.02456524409353733,
        0.21099695563316345,
        -0.723671555519104,
        0.29514023661613464
      ],
      [
        -0.2462729513645172,
        -0.4284820258617401,
        -0.5356357097625732,
        -0.07136309891939163,
        -0.12008674442768097,
        0.341408371925354,
        0.6163185238838196,
        0.6472106575965881,
        -0.001378819695673883,
        0.0777122974395752,
        0.5446878671646118,
        -0.8279383182525635
      ],
      [
        0.7299842238426208,
        0.477790892124176,
        -0.7123633623123169,
        -0.4935484230518341,
        -0.2922748327255249,
        0.3098791837692261,
        0.5673962235450745,
        0.01275411993265152,
        -0.6808131337165833,
        -0.1065625250339508,
        -0.3987705707550049,
        0.3026660084724426
      ],
      [
        -0.6930549740791321,
        0.11158930510282516,
        -0.44729673862457275,
        0.4079592227935791,
        0.027663307264447212,
        -0.6673303246498108,
        -0.00399310328066349,
        0.4864242672920227,
        1.1397945880889893,
        -0.12730589509010315,
        0.14096710085868835,
        0.4927331507205963
      ],
      [
        -0.13173703849315643,
        0.3972678482532501,
        0.02347887121140957,
        0.1822495311498642,
        -0.04539579153060913,
        -0.7935187816619873,
        0.8055195808410645,
        -0.031730346381664276,
        -1.0051689147949219,
        0.3806317150592804,
        -0.5010654330253601,
        0.6441882848739624
      ],
      [
        0.7918244004249573,
        -0.20912136137485504,
        -0.11074882745742798,
        -0.13007234036922455,
        -0.1986323893070221,
        -0.25354576110839844,
        -0.4034610390663147,
        -0.745124340057373,
        0.4779147803783417,
        1.2693699598312378,
        0.0627257227897644,
        0.0011769244447350502
      ],
      [
        -0.3506593704223633,
        -0.44663166999816895,
        -0.21888723969459534,
        -0.035300981253385544,
        0.47144538164138794,
        0.7905210852622986,
        -0.8169976472854614,
        -0.6149024963378906,
        0.5742027759552002,
        0.35437312722206116,
        -0.46088510751724243,
        0.5608734488487244
      ],
      [
        0.6758001446723938,
        0.5784350633621216,
        -0.32393619418144226,
        -0.21964962780475616,
        0.22298727929592133,
        0.36450713872909546,
        0.5064778923988342,
        -1.2225147485733032,
        0.05175099894404411,
        0.22490063309669495,
        -0.7526032328605652,
        0.1050756648182869
      ],
      [
        0.5360236167907715,
        -0.15984371304512024,
        0.8641011118888855,
        -0.49170058965682983,
        -0.10290521383285522,
        -0.5591834187507629,
        0.47716331481933594,
        0.4689345061779022,
        -0.2977255880832672,
        -0.19834934175014496,
        -0.026663871482014656,
        -0.6570766568183899
      ],
      [
        0.04818747192621231,
        -0.55109703540802,
        -0.6467226147651672,
        -0.16529406607151031,
        0.9201675057411194,
        -0.08303990215063095,
        -0.04020465910434723,
        -0.31785839796066284,
        -0.19748547673225403,
        -0.8551544547080994,
        0.555450975894928,
        1.2358863353729248
      ],
      [
        -0.693662166595459,
        0.4511103630065918,
        0.3526347279548645,
        -0.2315116673707962,
        -0.04350830987095833,
        -0.12605051696300507,
        -0.2680583596229553,
        0.9376044273376465,
        -0.17259937524795532,
        -0.51624995470047,
        -0.2827180325984955,
        0.8641042113304138
      ]
    ],
    "att.W_key.bias": null,
    "att.W_value.weight": [
      [
        0.38863682746887207,
        0.31722205877304077,
        -0.2065906971693039,
        -0.14600740373134613,
        0.436254620552063,
        -0.6772069931030273,
        0.44331470131874084,
        -0.05585514381527901,
        0.3383365869522095,
        0.4625478684902191,
        0.060583896934986115,
        -0.46302375197410583
      ],
      [
        -0.4048820436000824,
        0.38864049315452576,
        0.07408669590950012,
        0.2976530194282532,
        -0.07733501493930817,
        0.07393289357423782,
        -0.13623978197574615,
        -0.1923799067735672,
        0.4093957841396332,
        0.5147193670272827,
        -0.7477165460586548,
        -0.26024430990219116
      ],
      [
        -0.802973210811615,
        0.7714554071426392,
        -0.3721705675125122,
        0.09612099826335907,
        -0.29722023010253906,
        -0.09687360376119614,
        0.3042822480201721,
        -0.16954095661640167,
        -0.2722492516040802,
        -0.12171176820993423,
        0.5869885683059692,
        0.4254588484764099
      ],
      [
        -0.017017308622598648,
        -0.2625133693218231,
        0.0227782242000103,
        0.2665272057056427,
        -0.15299400687217712,
        -0.31164371967315674,
        0.7198318243026733,
        -0.4101300835609436,
        0.2357657253742218,
        -0.610271155834198,
        -0.39525526762008667,
        0.23934970796108246
      ],
      [
        -0.6483657956123352,
        -0.020418722182512283,
        0.3027012348175049,
        -0.35183727741241455,
        -0.06355302035808563,
        0.4909670352935791,
        0.3956166207790375,
        -0.1000429019331932,
        0.4728618860244751,
        0.15102078020572662,
        0.1757231503725052,
        -0.4125988185405731
      ],
      [
        0.3364274799823761,
        0.5124586820602417,
        0.1401195377111435,
        0.198703333735466,
        -0.08965262025594711,
        0.23339207470417023,
        -0.2052019238471985,
        0.6374985575675964,
        0.006543617695569992,
        -0.6290872693061829,
        -0.10286767035722733,
        -0.41691169142723083
      ],
      [
        0.4017203748226166,
        -0.20289058983325958,
        0.204652339220047,
        0.4415266811847687,
        -0.5369887948036194,
        0.6290385127067566,
        -0.38929563760757446,
        -0.1334773451089859,
        -0.459278404712677,
        -0.1735704392194748,
        0.2902078926563263,
        -0.02001224271953106
      ],
      [
        0.36847156286239624,
        0.025857826694846153,
        -0.26463747024536133,
        0.8306753039360046,
        -0.15686069428920746,
        -0.3955211043357849,
        0.4054727256298065,
        -0.2774718105792999,
        0.4726925790309906,
        -0.025918949395418167,
        -0.07540443539619446,
        0.12231607735157013
      ],
      [
        0.11896087974309921,
        -0.006282188463956118,
        -0.2883071303367615,
        -0.09554450958967209,
        0.3381427228450775,
        -0.08849287033081055,
        -0.489285409450531,
        0.21043233573436737,
        0.32759934663772583,
        -0.5262561440467834,
        0.0006645012181252241,
        -0.21015997231006622
      ],
      [
        0.1920289397239685,
        -0.33168265223503113,
        0.8285624384880066,
        -0.21822966635227203,
        0.0186118483543396,
        -0.06594782322645187,
        0.004622007720172405,
        0.07106929272413254,
        -0.10106994211673737,
        -0.14627370238304138,
        -0.5115054249763489,
        0.17978355288505554
      ],
      [
        -0.11721156537532806,
        -0.591449499130249,
        0.0943901464343071,
        -0.2550530433654785,
        -0.20351965725421906,
        -0.3349708616733551,
        -0.15995121002197266,
        0.0925314798951149,
        0.5622151494026184,
        0.3017567992210388,
        0.6542558073997498,
        0.37862473726272583
      ],
      [
        0.3433597683906555,
        0.4609343111515045,
        -0.29978251457214355,
        -0.20894230902194977,
        -0.5545355677604675,
        -0.03765532746911049,
        -0.25979742407798767,
        0.5193536281585693,
        -0.06384535878896713,
        -0.045370250940322876,
        -0.3309148848056793,
        0.44266095757484436
      ]
    ],
    "att.W_value.bias": null,
    "att.out_proj.weight": [
      [
        0.41242480278015137,
        -0.25063401460647583,
        0.2126498967409134,
        -0.10583249479532242,
        -0.012148555368185043,
        0.6854121088981628,
        0.14980143308639526,
        -0.08483735471963882,
        0.19410569965839386,
        -0.3484192192554474,
        -0.6393133401870728,
        0.03196847066283226
      ],
      [
        0.3949792683124542,
        0.06502329558134079,
        -0.016692399978637695,
        0.4545092284679413,
        -0.14590491354465485,
        -0.06802694499492645,
        0.4308488368988037,
        0.11136240512132645,
        -0.3146384060382843,
        -0.03256947919726372,
        0.28006982803344727,
        -0.5293036103248596
      ],
      [
        -0.6628071069717407,
        -0.5731916427612305,
        0.0488576665520668,
        0.5801844596862793,
        -0.17237034440040588,
        0.1016644760966301,
        -0.24017487466335297,
        -0.2955361604690552,
        -0.27160871028900146,
        0.17317087948322296,
        -0.3496004641056061,
        -0.07807410508394241
      ],
      [
        -0.08305779844522476,
        -0.41849932074546814,
        0.6796830892562866,
        -0.3184121251106262,
        0.12085940688848495,
        -0.5777767300605774,
        -0.09406385570764542,
        -0.23735329508781433,
        -0.4290652871131897,
        -0.25444552302360535,
        0.4758363962173462,
        0.02865450829267502
      ],
      [
        0.3827792704105377,
        -0.07396633177995682,
        -0.5002368688583374,
        -0.37813088297843933,
        -0.15406517684459686,
        -0.08008617907762527,
        0.07106144726276398,
        -0.4935000538825989,
        0.05743604898452759,
        0.48556551337242126,
        -0.3782591223716736,
        0.19064444303512573
      ],
      [
        -0.11208163946866989,
        -0.5967810750007629,
        -0.4736744165420532,
        -0.4945608377456665,
        -0.12623745203018188,
        0.3013145327568054,
        -0.18341581523418427,
        0.2315591275691986,
        0.008442791178822517,
        -0.057809971272945404,
        0.5581689476966858,
        0.29494088888168335
      ],
      [
        0.27300262451171875,
        0.1949543058872223,
        -0.2353232502937317,
        0.0007224096916615963,
        -0.09722386300563812,
        0.2124689519405365,
        -0.7730230689048767,
        0.6121178865432739,
        -0.15230420231819153,
        0.20058687031269073,
        -0.05912807211279869,
        -0.4096684455871582
      ],
      [
        -0.4919523596763611,
        0.35211893916130066,
        -0.46082568168640137,
        -0.36722931265830994,
        -0.3157503306865692,
        -0.006033649668097496,
        -0.14518414437770844,
        -0.28660520911216736,
        0.56447833776474,
        -0.28220123052597046,
        0.30092278122901917,
        -0.32115739583969116
      ],
      [
        -0.4676166772842407,
        0.36210358142852783,
        0.10165368765592575,
        -0.40334826707839966,
        0.8141525387763977,
        -0.002031132346019149,
        0.46359893679618835,
        0.2330106794834137,
        -0.2728496491909027,
        -0.140480175614357,
        -0.18126976490020752,
        0.32759344577789307
      ],
      [
        -0.4527044892311096,
        0.08264172077178955,
        -0.24962715804576874,
        0.20769242942333221,
        0.3121553063392639,
        0.338236927986145,
        0.28517335653305054,
        -0.26376524567604065,
        0.13353845477104187,
        0.5483071208000183,
        0.13059835135936737,
        0.0827397033572197
      ],
      [
        0.39190801978111267,
        0.2857721745967865,
        -0.3210122883319855,
        0.5867738127708435,
        0.16974805295467377,
        -0.5544559955596924,
        -0.26682811975479126,
        0.40175604820251465,
        0.21466095745563507,
        -0.1278543621301651,
        0.056268829852342606,
        0.7123225331306458
      ],
      [
        0.010129215195775032,
        0.1831376999616623,
        0.6201599836349487,
        0.13248784840106964,
        -0.5949913859367371,
        0.24482585489749908,
        0.2835986018180847,
        0.5207899808883667,
        0.25207415223121643,
        -0.1877751648426056,
        -0.11590643972158432,
        -0.0917852520942688
      ]
    ],
    "att.out_proj.bias": [
      0.1591554433107376,
      0.11307840049266815,
      0.017730053514242172,
      0.02189333364367485,
      -0.14075040817260742,
      -0.10847481340169907,
      0.014056116342544556,
      -0.12972132861614227,
      -0.043483808636665344,
      -0.06621628254652023,
      0.11504770815372467,
      0.09121956676244736
    ],
    "norm1.scale": [
      0.4336179494857788,
      0.5214449763298035,
      0.543111264705658,
      0.40052178502082825,
      0.4658129811286926,
      0.554504930973053,
      0.6167710423469543,
      0.46644654870033264,
      0.5454015731811523,
      0.6143191456794739,
      0.6271656155586243,
      0.6419075131416321
    ],
    "norm1.shift": [
      0.09984485805034637,
      -0.15013828873634338,
      0.11924005299806595,
      -0.17603953182697296,
      0.3681928813457489,
      0.13777372241020203,
      -0.06949511170387268,
      0.20857657492160797,
      0.08561144769191742,
      0.13025207817554474,
      -0.052905354648828506,
      -0.05145072191953659
    ],
    "norm2.scale": [
      0.644547700881958,
      0.488738477230072,
      0.6357296705245972,
      0.610992431640625,
      0.5473549962043762,
      0.7397242784500122,
      0.5694113969802856,
      0.41431766748428345,
      0.6457352638244629,
      0.7715747952461243,
      0.6543874144554138,
      0.6577242612838745
    ],
    "norm2.shift": [
      0.06294278055429459,
      -0.24164147675037384,
      0.4001854360103607,
      -0.538684070110321,
      0.1115376353263855,
      0.2187572568655014,
      -0.38942405581474304,
      -0.1308106631040573,
      -0.11708397418260574,
      -0.6960523724555969,
      0.29709723591804504,
      0.006838995963335037
    ],
    "ff.lin1.weight": [
      [
        0.4189256429672241,
        0.30149394273757935,
        -0.41951417922973633,
        -0.09219182282686234,
        -0.23044447600841522,
        -0.5153195261955261,
        0.6037083864212036,
        -0.2661605179309845,
        -0.16645538806915283,
        0.018935073167085648,
        -0.39847302436828613,
        0.18663175404071808
      ],
      [
        0.3157021701335907,
        0.45199331641197205,
        0.15976451337337494,
        1.1575959920883179,
        -0.3733952045440674,
        -0.20647692680358887,
        0.19745011627674103,
        -0.31355056166648865,
        -0.519568681716919,
        0.22928602993488312,
        -0.8006020188331604,
        0.20680955052375793
      ],
      [
        -0.12518984079360962,
        -0.15221652388572693,
        0.8337922692298889,
        0.15939761698246002,
        -0.025114616379141808,
        -0.20379722118377686,
        0.1022840142250061,
        0.17007283866405487,
        0.28240707516670227,
        0.4355272054672241,
        0.08887661248445511,
        -0.5776509046554565
      ],
      [
        -0.02202693559229374,
        0.03041207604110241,
        0.2777823209762573,
        0.294643759727478,
        0.15017202496528625,
        -0.9516054391860962,
        0.06595834344625473,
        0.1364338994026184,
        0.067167729139328,
        1.023593783378601,
        -0.30521145462989807,
        -0.32343190908432007
      ],
      [
        -0.5016301870346069,
        -0.001784645952284336,
        0.02012668177485466,
        0.5017117857933044,
        -0.1957971453666687,
        0.5362098217010498,
        0.25028878450393677,
        -0.13597635924816132,
        -0.12709933519363403,
        0.24326524138450623,
        0.010459608398377895,
        -0.35254138708114624
      ],
      [
        -0.9549521803855896,
        -0.17139175534248352,
        -0.18869180977344513,
        0.2606859505176544,
        0.603203296661377,
        0.14458408951759338,
        0.15414689481258392,
        -0.02334434911608696,
        -0.07226274162530899,
        0.8105815649032593,
        0.0461035817861557,
        0.38956204056739807
      ],
      [
        -0.17243647575378418,
        0.6637627482414246,
        -0.17212674021720886,
        -0.2744686007499695,
        -0.46551796793937683,
        -0.39247947931289673,
        0.890211820602417,
        0.49905386567115784,
        -0.6796529293060303,
        0.30814120173454285,
        -0.2959357798099518,
        0.623018741607666
      ],
      [
        0.3555377423763275,
        -0.009724541567265987,
        -0.0796208456158638,
        0.8754580616950989,
        0.6487295627593994,
        -0.20578522980213165,
        -0.20715616643428802,
        -0.15439271926879883,
        -0.5607562065124512,
        0.3310738801956177,
        0.05988418683409691,
        -0.12871277332305908
      ],
      [
        -0.0677308589220047,
        1.0952426195144653,
        -0.8154329061508179,
        0.2219407558441162,
        0.05102841183543205,
        -0.043550051748752594,
        0.5823936462402344,
        -0.3301376402378082,
        -0.6144068837165833,
        0.2782353162765503,
        -0.18646951019763947,
        0.10129135102033615
      ],
      [
        -0.4443420171737671,
        0.4921782314777374,
        -0.1909327656030655,
        0.44607388973236084,
        -0.8664970397949219,
        -0.09608937799930573,
        0.7183452248573303,
        -0.794235348701477,
        0.8956655263900757,
        0.4150974452495575,
        -0.7735539674758911,
        0.39120060205459595
      ],
      [
        -0.5537014603614807,
        -0.14286921918392181,
        -0.42733949422836304,
        0.739039421081543,
        0.8238898515701294,
        0.11320523917675018,
        0.5694239735603333,
        -0.04429532587528229,
        -0.05955667793750763,
        0.2812720239162445,
        0.4859028160572052,
        -0.4206211268901825
      ],
      [
        0.056554049253463745,
        -0.04790806397795677,
        -0.359598845243454,
        0.8657804131507874,
        -0.17582298815250397,
        -0.3021460175514221,
        0.3848625421524048,
        -0.1308998167514801,
        0.3282186686992645,
        0.4313116669654846,
        0.1522746980190277,
        -0.7945038080215454
      ],
      [
        -0.005456545855849981,
        0.9909863471984863,
        0.19082510471343994,
        -0.3542362153530121,
        -0.1536390781402588,
        -0.17049826681613922,
        0.4497455656528473,
        0.00046770554035902023,
        -0.38973262906074524,
        -0.014373394660651684,
        -0.26287370920181274,
        -0.19738204777240753
      ],
      [
        0.3955676853656769,
        0.1812167763710022,
        -0.3663657605648041,
        0.4262535870075226,
        0.2859738767147064,
        -0.7982768416404724,
        0.16665120422840118,
        -0.06827601045370102,
        -0.28560829162597656,
        0.3327113091945648,
        -0.018634431064128876,
        -0.13317489624023438
      ],
      [
        0.7149779200553894,
        0.32229089736938477,
        -0.28238213062286377,
        0.1256418228149414,
        -0.7572975754737854,
        0.5139704346656799,
        0.4665384590625763,
        -0.10965240001678467,
        -0.13958331942558289,
        0.2483140528202057,
        0.004023323766887188,
        0.04660097509622574
      ],
      [
        -0.8190315961837769,
        0.8319905400276184,
        -0.17972484230995178,
        0.3840073347091675,
        -0.4654516577720642,
        0.05381310358643532,
        0.6039818525314331,
        0.26578623056411743,
        0.24769972264766693,
        -0.6083034873008728,
        -0.003860641736537218,
        0.45878908038139343
      ],
      [
        0.600001335144043,
        -0.3637641966342926,
        0.40175861120224,
        0.7002822756767273,
        -0.2007005214691162,
        0.45423203706741333,
        0.5849065184593201,
        -0.49310219287872314,
        -0.2139628380537033,
        0.5455321073532104,
        -0.4894167482852936,
        -0.4402082860469818
      ],
      [
        -0.3012152314186096,
        0.38332435488700867,
        0.4422399699687958,
        0.1872425228357315,
        -0.050983235239982605,
        -0.5555745363235474,
        0.7840744853019714,
        -0.12311329692602158,
        -0.2851678133010864,
        0.08569242060184479,
        0.02097293548285961,
        -0.5962896347045898
      ],
      [
        0.7092944979667664,
        0.3326725363731384,
        -0.9068118333816528,
        0.4430471658706665,
        0.5079826712608337,
        0.26223456859588623,
        -0.24069100618362427,
        -0.3354623317718506,
        -0.11582081764936447,
        0.5415626168251038,
        -0.18385320901870728,
        -0.1027965247631073
      ],
      [
        -0.14266955852508545,
        -0.25147414207458496,
        -0.6356735825538635,
        0.45205989480018616,
        0.7653948664665222,
        0.37230077385902405,
        -0.06395064294338226,
        0.3606836199760437,
        0.35199615359306335,
        0.860063910484314,
        -0.07992417365312576,
        -0.6860907077789307
      ],
      [
        0.37563395500183105,
        -0.12543733417987823,
        0.11419874429702759,
        -0.21451015770435333,
        -0.22421155869960785,
        0.24095740914344788,
        0.9714645743370056,
        -0.4968622922897339,
        -0.06982361525297165,
        0.05436740070581436,
        -0.6562966704368591,
        0.4446112811565399
      ],
      [
        -1.1762839555740356,
        0.18556907773017883,
        -0.5717687606811523,
        0.8216778039932251,
        0.22502532601356506,
        -0.8167181611061096,
        0.02435256354510784,
        0.2647998332977295,
        0.7909691333770752,
        0.4016590118408203,
        -0.41889527440071106,
        0.4050261974334717
      ],
      [
        -0.1185072660446167,
        0.023127635940909386,
        0.0008096183883026242,
        1.2467730045318604,
        -0.2185303121805191,
        -0.09533028304576874,
        0.48575517535209656,
        0.3016926646232605,
        0.16809476912021637,
        -0.6366313695907593,
        -0.3803083002567291,
        0.20217065513134003
      ],
      [
        -0.6012036800384521,
        -0.19572149217128754,
        0.21947383880615234,
        -0.004460132215172052,
        0.10104161500930786,
        -0.7420945763587952,
        1.0416163206100464,
        0.9809606671333313,
        0.10888424515724182,
        0.1397215723991394,
        0.37343043088912964,
        0.18516288697719574
      ],
      [
        0.40835490822792053,
        -0.09903888404369354,
        -0.9149827361106873,
        0.4920862913131714,
        -0.3998928964138031,
        -0.6660322546958923,
        -0.3094621002674103,
        0.8537085056304932,
        0.10164248198270798,
        0.8745431303977966,
        0.3956444561481476,
        0.5625967979431152
      ],
      [
        0.23189611732959747,
        0.5668120980262756,
        -1.0753155946731567,
        0.08996924012899399,
        -0.11501099914312363,
        -0.3038567304611206,
        0.6427797079086304,
        0.7842702865600586,
        0.3872571289539337,
        -0.38085055351257324,
        -0.5135635137557983,
        0.15562285482883453
      ],
      [
        -0.6102010011672974,
        -0.015950018540024757,
        -0.9716763496398926,
        0.27977845072746277,
        -0.606180727481842,
        0.49035242199897766,
        -0.12050340324640274,
        0.3065013289451599,
        1.0850539207458496,
        0.7357199788093567,
        -0.3351288437843323,
        -0.04465256631374359
      ],
      [
        0.01112366933375597,
        0.5185814499855042,
        -0.06661765277385712,
        0.05377081409096718,
        0.16076669096946716,
        -0.140924870967865,
        -0.3060976266860962,
        0.08200027793645859,
        -0.40170347690582275,
        0.2705312669277191,
        -0.16969411075115204,
        0.8899688720703125
      ],
      [
        -0.2031567245721817,
        -0.28958767652511597,
        0.5680097341537476,
        -0.3305106461048126,
        -0.26203662157058716,
        -0.10180797427892685,
        0.7466731667518616,
        0.39953380823135376,
        0.31805387139320374,
        0.06839311122894287,
        -0.3567657768726349,
        0.17184843122959137
      ],
      [
        0.05089275538921356,
        0.8003854751586914,
        -0.19160227477550507,
        0.10366286337375641,
        0.33431151509284973,
        -0.0073570553213357925,
        0.44520336389541626,
        -0.7410423755645752,
        -0.14879664778709412,
        0.8043226003646851,
        0.20726041495800018,
        -0.5930601358413696
      ],
      [
        0.15231239795684814,
        -0.4082539677619934,
        0.281452476978302,
        1.0292305946350098,
        -0.2871847450733185,
        -1.0384756326675415,
        0.30377599596977234,
        0.015696892514824867,
        0.13213711977005005,
        0.3689401149749756,
        -0.565210223197937,
        0.3996739983558655
      ],
      [
        0.40058696269989014,
        -0.14773467183113098,
        -0.10955449938774109,
        0.0157339908182621,
        -0.7595391273498535,
        0.2112237513065338,
        -0.0141958799213171,
        0.30068549513816833,
        0.5821271538734436,
        0.6633605360984802,
        0.14605054259300232,
        -0.4277810752391815
      ],
      [
        -0.5238209962844849,
        -0.28153425455093384,
        -0.22268979251384735,
        0.3802708387374878,
        0.15858954191207886,
        0.10748013108968735,
        -0.2582851052284241,
        0.020994015038013458,
        0.7207114100456238,
        0.6599410176277161,
        -0.18896107375621796,
        0.6836310029029846
      ],
      [
        -0.156802237033844,
        -0.5675430297851562,
        -0.6750965118408203,
        0.30561715364456177,
        -0.24753154814243317,
        -0.07622120529413223,
        0.8540021777153015,
        -0.599883496761322,
        0.5082942247390747,
        0.7767907381057739,
        0.2431512176990509,
        0.6101217269897461
      ],
      [
        0.04314456880092621,
        0.11699113994836807,
        -0.018096433952450752,
        0.566220760345459,
        -0.2897144854068756,
        0.4718003273010254,
        -0.3014261722564697,
        -0.34322184324264526,
        0.22226528823375702,
        0.753587007522583,
        -0.7802874445915222,
        0.022667162120342255
      ],
      [
        0.421173095703125,
        -0.2941000163555145,
        -0.8168699145317078,
        0.6174247860908508,
        -0.15473751723766327,
        -0.18369635939598083,
        0.9720821380615234,
        0.8142985105514526,
        0.5149880051612854,
        -0.007968098856508732,
        -1.183958649635315,
        0.2705010771751404
      ],
      [
        0.1794288456439972,
        0.38280126452445984,
        -0.2588423490524292,
        0.5090404152870178,
        -0.17211781442165375,
        -1.3115499019622803,
        0.2745809257030487,
        0.29099035263061523,
        -0.1069730594754219,
        0.07925901561975479,
        -0.2649398446083069,
        -0.07835856825113297
      ],
      [
        -0.10534650832414627,
        0.2726242244243622,
        -0.34681814908981323,
        -0.052681416273117065,
        0.07167676091194153,
        0.08167951554059982,
        0.4327768087387085,
        0.8727077841758728,
        -0.3278653025627136,
        0.1502886861562729,
        0.14581699669361115,
        -0.6065001487731934
      ],
      [
        -0.15984602272510529,
        0.37829771637916565,
        0.1407012939453125,
        0.7792350053787231,
        0.06752314418554306,
        0.25824519991874695,
        -0.479584664106369,
        -0.34466174244880676,
        -0.2982674539089203,
        0.6327980160713196,
        -0.03643321618437767,
        -0.24501663446426392
      ],
      [
        -1.168115258216858,
        -0.06333517283201218,
        0.5604151487350464,
        1.0657740831375122,
        0.3103565573692322,
        -0.2585228383541107,
        0.6095520257949829,
        0.7824211716651917,
        -0.089019775390625,
        0.541367769241333,
        -0.3611273169517517,
        0.0802840143442154
      ],
      [
        -0.30887070298194885,
        -0.7947939038276672,
        -0.4193878769874573,
        0.22738029062747955,
        0.4771655797958374,
        -0.13693150877952576,
        0.6731331944465637,
        0.38160112500190735,
        0.5549129247665405,
        0.2398310899734497,
        -0.45912966132164,
        0.5571570992469788
      ],
      [
        0.4532753825187683,
        0.8534060120582581,
        -0.28264379501342773,
        -0.20109708607196808,
        -0.437381386756897,
        -0.20435352623462677,
        -0.1464083194732666,
        -0.11639022827148438,
        0.17953179776668549,
        1.2230621576309204,
        -0.24081410467624664,
        -0.2337506264448166
      ],
      [
        0.06391100585460663,
        0.10867562144994736,
        0.0004887048271484673,
        0.061984170228242874,
        0.7544591426849365,
        -0.16644981503486633,
        0.2022029161453247,
        0.01166580244898796,
        0.07815735787153244,
        -0.16345587372779846,
        -0.7724561095237732,
        -0.11091303825378418
      ],
      [
        -0.25907883048057556,
        -0.02440924383699894,
        0.2596427798271179,
        0.5757084488868713,
        -0.14948606491088867,
        -0.6264739036560059,
        0.4528981149196625,
        0.13679572939872742,
        0.22152464091777802,
        0.4210401773452759,
        -1.01936674118042,
        0.3167319595813751
      ],
      [
        0.3549931049346924,
        0.5830069184303284,
        -1.1255556344985962,
        0.19800446927547455,
        -0.632911741733551,
        -0.7169908285140991,
        0.5776620507240295,
        0.05571071058511734,
        -0.21875736117362976,
        0.5064045786857605,
        0.4448021352291107,
        0.4816747009754181
      ],
      [
        -0.2938653826713562,
        0.3260282874107361,
        -0.46157875657081604,
        -0.14870867133140564,
        -0.3841305673122406,
        -0.48776865005493164,
        0.37813931703567505,
        -0.2401437908411026,
        0.7093687057495117,
        -0.019333982840180397,
        -0.1434916853904724,
        0.2689533531665802
      ],
      [
        0.025978904217481613,
        -0.09515368938446045,
        -0.6696417331695557,
        0.004907787777483463,
        0.4828234314918518,
        -0.10476528853178024,
        0.05243290588259697,
        -0.3582436740398407,
        0.24174869060516357,
        1.1570639610290527,
        -1.2804608345031738,
        0.8320351839065552
      ],
      [
        -0.21658702194690704,
        0.45907437801361084,
        0.014138739556074142,
        0.7483658790588379,
        -0.40484124422073364,
        0.1577337384223938,
        -0.23010368645191193,
        0.11035783588886261,
        0.3260442614555359,
        -0.09506852179765701,
        -0.556412398815155,
        -0.388455867767334
      ]
    ],
    "ff.lin1.bias": [
      -0.23802660405635834,
      -0.6371264457702637,
      -0.6747634410858154,
      -0.3872166872024536,
      -0.4132183790206909,
      -0.5029600262641907,
      -0.6540481448173523,
      -0.7972032427787781,
      -0.646389365196228,
      -0.21622341871261597,
      -0.742576539516449,
      -0.22101148962974548,
      -0.4706301987171173,
      -0.3179941177368164,
      -0.7270268797874451,
      -0.848690927028656,
      -0.7729877233505249,
      -0.6866922974586487,
      -0.5903734564781189,
      -0.8331471085548401,
      -0.44044584035873413,
      -0.3794318735599518,
      -0.5850633382797241,
      -0.7650370597839355,
      -0.8437230587005615,
      -0.8092718124389648,
      -0.8785871863365173,
      -0.7016382813453674,
      -0.6325775384902954,
      -0.49299415946006775,
      -0.6748247742652893,
      -0.6219160556793213,
      -0.39533257484436035,
      -0.19934600591659546,
      -0.3298095166683197,
      -0.7204267382621765,
      0.014667906798422337,
      -0.6009896993637085,
      -0.49291419982910156,
      -0.8546062111854553,
      -0.3055661618709564,
      -0.8137781023979187,
      -0.8162654042243958,
      0.0586811788380146,
      -0.6747533082962036,
      0.038241319358348846,
      -0.4016493260860443,
      -0.08186207711696625
    ],
    "ff.lin2.weight": [
      [
        0.5338888764381409,
        -0.11339865624904633,
        -0.09461647272109985,
        0.20624396204948425,
        0.07569229602813721,
        0.2602181136608124,
        0.11371079087257385,
        0.15077871084213257,
        0.11389634013175964,
        0.16914872825145721,
        0.2508232295513153,
        0.1246028020977974,
        0.17651869356632233,
        0.24538476765155792,
        -0.26572832465171814,
        -0.1683036983013153,
        0.5403055548667908,
        -0.3538861572742462,
        0.0923755019903183,
        -0.1541028618812561,
        0.16560840606689453,
        -0.019651910290122032,
        0.09306606650352478,
        0.14027293026447296,
        0.2343187928199768,
        -0.529751181602478,
        0.003919397480785847,
        -0.24640554189682007,
        -0.1802625060081482,
        0.396139919757843,
        -0.9567621350288391,
        0.22620907425880432,
        0.257127583026886,
        -0.1982550323009491,
        -0.13190211355686188,
        0.24608038365840912,
        0.41271287202835083,
        -0.12057257443666458,
        0.36380207538604736,
        0.2199452966451645,
        -0.33825308084487915,
        0.12681356072425842,
        -0.19011835753917694,
        -0.08842001110315323,
        0.7310200333595276,
        0.18926264345645905,
        0.4457271099090576,
        0.05165478214621544
      ],
      [
        -0.021620899438858032,
        0.2964586615562439,
        0.1296122968196869,
        -0.21615321934223175,
        -0.06526228785514832,
        -0.3296232223510742,
        0.2613534927368164,
        0.11636299639940262,
        -0.416033536195755,
        0.19951936602592468,
        -1.092971920967102,
        -0.08626917004585266,
        0.3111276924610138,
        -0.09723033756017685,
        -0.20042869448661804,
        0.22948232293128967,
        0.19760578870773315,
        0.3374112844467163,
        0.20487713813781738,
        0.10246686637401581,
        -0.5639995336532593,
        -0.160697802901268,
        -0.08791381865739822,
        -0.0443212054669857,
        -0.3711066246032715,
        -0.22201548516750336,
        -0.2569371461868286,
        -0.21408827602863312,
        -0.3254014253616333,
        0.07862800359725952,
        -0.010178453288972378,
        0.19041280448436737,
        -0.12853005528450012,
        0.3761686384677887,
        0.2554672956466675,
        -0.113680899143219,
        -0.22791171073913574,
        0.016107594594359398,
        0.037146322429180145,
        -0.5295116901397705,
        -0.1819969266653061,
        0.022989332675933838,
        0.1303238570690155,
        -0.23993545770645142,
        0.06094290316104889,
        -0.07136804610490799,
        0.030952120199799538,
        0.0025778673589229584
      ],
      [
        0.03365449607372284,
        0.009291321039199829,
        0.1647619605064392,
        -0.448790967464447,
        0.25559201836586,
        0.16273096203804016,
        -0.19161590933799744,
        0.3723829686641693,
        -0.285895437002182,
        -0.041755907237529755,
        0.12141554057598114,
        -0.21602597832679749,
        0.12967917323112488,
        -0.06285630166530609,
        -0.35498061776161194,
        -0.281432181596756,
        -0.08922112733125687,
        -0.05448494851589203,
        -0.30428361892700195,
        0.37882137298583984,
        -0.029710788279771805,
        0.025570744648575783,
        0.07094112783670425,
        0.2835046648979187,
        -0.04133448749780655,
        -0.28960350155830383,
        0.24672497808933258,
        0.18623627722263336,
        -0.4032749533653259,
        -0.28335055708885193,
        0.49861907958984375,
        0.1578422337770462,
        0.1586536318063736,
        0.03645181655883789,
        0.04677537456154823,
        -0.11910396069288254,
        0.3281274139881134,
        -0.1068311482667923,
        -0.5223637223243713,
        0.7739194631576538,
        -0.02682979218661785,
        0.9697387218475342,
        0.11601772159337997,
        0.3698453903198242,
        -0.6994756460189819,
        0.29372796416282654,
        0.23351432383060455,
        -0.11567047983407974
      ],
      [
        0.16407974064350128,
        -0.3746527135372162,
        -0.02175086736679077,
        0.5492461323738098,
        -0.09095912426710129,
        0.16145847737789154,
        0.27643558382987976,
        0.06828228384256363,
        0.04344627261161804,
        0.3019203841686249,
        -0.24577711522579193,
        0.3656713366508484,
        -0.09142988175153732,
        -0.05510443449020386,
        0.05706889554858208,
        -0.18108661472797394,
        0.030697587877511978,
        0.08724813908338547,
        -0.1694435030221939,
        -0.015149650163948536,
        0.20384812355041504,
        0.241379052400589,
        0.25443196296691895,
        0.4025002419948578,
        -0.36300691962242126,
        0.10541537404060364,
        -0.3526255190372467,
        -0.11768469214439392,
        -0.02064349502325058,
        0.07787062227725983,
        0.16913451254367828,
        -0.14540629088878632,
        0.0034057204611599445,
        0.12114079296588898,
        -0.7294522523880005,
        -0.401621550321579,
        -0.09576650708913803,
        0.13304391503334045,
        -0.11101032793521881,
        -0.24492911994457245,
        -0.438849538564682,
        -0.27406322956085205,
        0.23054221272468567,
        0.027369318529963493,
        -0.3646583557128906,
        -0.08290807902812958,
        0.09470625221729279,
        0.2170272022485733
      ],
      [
        -0.4420320689678192,
        -0.7710106372833252,
        -0.10503987967967987,
        0.13277208805084229,
        0.279591828584671,
        0.4426770508289337,
        0.014904034323990345,
        -0.08879657089710236,
        -0.3684086203575134,
        -0.7672041654586792,
        0.6323827505111694,
        0.2109927237033844,
        -0.24225632846355438,
        -0.1763976514339447,
        0.058852922171354294,
        0.47557008266448975,
        -0.258150577545166,
        0.4202672243118286,
        -0.2817575931549072,
        0.22558237612247467,
        -0.03420540690422058,
        0.42133891582489014,
        0.02881004847586155,
        -0.06156601384282112,
        0.08423426747322083,
        0.05033406987786293,
        -1.1854335069656372,
        0.24528342485427856,
        -0.24895958602428436,
        0.1330449879169464,
        0.1421622782945633,
        -0.7212259769439697,
        -0.5332979559898376,
        -0.7612645626068115,
        0.2392953634262085,
        0.16565199196338654,
        0.05737705156207085,
        0.4744436740875244,
        0.4964071810245514,
        0.1182551234960556,
        0.9580759406089783,
        -0.4094430208206177,
        0.18018163740634918,
        0.08047250658273697,
        0.2987375259399414,
        -0.909388542175293,
        0.006980309262871742,
        -0.7054937481880188
      ],
      [
        0.15551282465457916,
        0.1257636547088623,
        -0.3861439824104309,
        0.03641112148761749,
        0.0009701501694507897,
        0.1534876972436905,
        0.5521798133850098,
        0.14683525264263153,
        0.5545738935470581,
        0.6842539310455322,
        -0.331631600856781,
        -0.8148999810218811,
        -0.05179879814386368,
        -0.012428759597241879,
        -0.4280261695384979,
        0.06271201372146606,
        -0.43959906697273254,
        -0.1259273886680603,
        0.9780650734901428,
        0.13949786126613617,
        0.7109441161155701,
        -0.4556266963481903,
        -0.6629130244255066,
        -0.30675795674324036,
        0.0181217473000288,
        -0.10656411200761795,
        1.2697833776474,
        -0.17655949294567108,
        0.13755959272384644,
        -0.47437146306037903,
        0.2624772787094116,
        0.6345114707946777,
        0.5740397572517395,
        0.08029269427061081,
        0.11609958112239838,
        0.7222213745117188,
        -0.1424788236618042,
        -0.3322256803512573,
        0.055929068475961685,
        -0.2626301646232605,
        -0.05688540264964104,
        0.22412049770355225,
        -0.40416428446769714,
        0.5128692388534546,
        -0.19362585246562958,
        0.4163643717765808,
        0.24358277022838593,
        0.5223128199577332
      ],
      [
        -0.11798988282680511,
        0.2553297281265259,
        -0.5185850262641907,
        -0.1450161635875702,
        -0.2745910584926605,
        -0.18038895726203918,
        0.19033615291118622,
        0.36781179904937744,
        0.24594980478286743,
        -0.5725888609886169,
        -0.3538159728050232,
        0.3102710247039795,
        -0.02095014974474907,
        0.0751032754778862,
        0.07808446139097214,
        -0.010860084556043148,
        -0.03324449434876442,
        -0.3493134081363678,
        0.1007460504770279,
        -0.5255357623100281,
        -0.3784154951572418,
        -0.3325411081314087,
        0.5710084438323975,
        0.41008689999580383,
        -0.10550160706043243,
        0.2593221962451935,
        -0.03348313644528389,
        0.12718583643436432,
        0.18267059326171875,
        0.3797108829021454,
        -0.09945091605186462,
        0.4212789535522461,
        -0.14131690561771393,
        -0.019285107031464577,
        -0.20631136000156403,
        -0.751384973526001,
        -0.5649023652076721,
        0.2786405086517334,
        -0.6166608929634094,
        -0.09296684712171555,
        -0.033999018371105194,
        -0.1276366114616394,
        0.15355518460273743,
        -0.012087168172001839,
        0.20915891230106354,
        -0.2348688244819641,
        -0.4590228796005249,
        -0.22636918723583221
      ],
      [
        -0.1277800351381302,
        0.2533332109451294,
        -0.1772167980670929,
        0.5314626097679138,
        -0.19881671667099,
        -0.06613165885210037,
        -0.15811945497989655,
        -0.2565155327320099,
        0.6491560935974121,
        0.011333282105624676,
        0.4819153845310211,
        0.45389029383659363,
        -0.2934495806694031,
        0.05858079716563225,
        0.27666452527046204,
        -0.45567137002944946,
        -0.27512338757514954,
        0.07350311428308487,
        0.16260235011577606,
        -0.23245273530483246,
        0.1104082465171814,
        -0.0338829942047596,
        0.21891401708126068,
        0.02324950322508812,
        0.1332104653120041,
        0.11607963591814041,
        0.3688450753688812,
        -0.11067764461040497,
        -0.05363927781581879,
        0.21188242733478546,
        0.26039743423461914,
        -0.2908497154712677,
        0.06924384087324142,
        -0.09303224086761475,
        -0.12722362577915192,
        0.31336042284965515,
        0.16054792702198029,
        0.12700456380844116,
        -0.3350642919540405,
        -0.17586269974708557,
        0.22044774889945984,
        -0.8133055567741394,
        0.2373688668012619,
        0.20100586116313934,
        0.110401451587677,
        0.027570798993110657,
        0.15157344937324524,
        -0.21202977001667023
      ],
      [
        0.015418972820043564,
        0.07579322159290314,
        -0.15801149606704712,
        -0.2866670787334442,
        -0.2663067877292633,
        -0.5471230149269104,
        -0.7491058111190796,
        -0.33288827538490295,
        -0.3076328635215759,
        -0.2706252932548523,
        -0.1364896595478058,
        -0.0031983298249542713,
        -0.14647097885608673,
        -0.030888153240084648,
        0.18800172209739685,
        0.711327314376831,
        -0.018727779388427734,
        -0.07305432856082916,
        -0.03665633127093315,
        0.3585287928581238,
        0.034279029816389084,
        -0.32940953969955444,
        0.10773851722478867,
        -0.2389276772737503,
        -0.262756884098053,
        0.19815629720687866,
        -0.22381043434143066,
        -0.2155918926000595,
        -0.07730186730623245,
        -0.158120796084404,
        0.27581140398979187,
        0.11615205556154251,
        -0.08838136494159698,
        -0.16028742492198944,
        -0.198617622256279,
        0.23502707481384277,
        0.29374998807907104,
        0.01184909138828516,
        -0.18774138391017914,
        -0.12378419935703278,
        0.1514306664466858,
        0.3956495225429535,
        -0.012862315401434898,
        -0.4380156695842743,
        -0.18990331888198853,
        -0.16925892233848572,
        -0.5543844103813171,
        -0.09001298993825912
      ],
      [
        0.1239548772573471,
        0.375448077917099,
        0.35712018609046936,
        0.13410906493663788,
        0.05419139936566353,
        0.19167287647724152,
        -0.18883126974105835,
        -0.3517056107521057,
        0.07265989482402802,
        -0.12521933019161224,
        0.023561926558613777,
        0.28974688053131104,
        -0.11661373823881149,
        -0.26250287890434265,
        -0.2908077836036682,
        -0.22159965336322784,
        0.3858979642391205,
        -0.12016341090202332,
        -0.45053428411483765,
        -0.0500900074839592,
        -0.027442567050457,
        -0.41395628452301025,
        -0.3039848208427429,
        -0.18952661752700806,
        0.3103334903717041,
        -0.0026911913882941008,
        -0.02926289662718773,
        0.5188850164413452,
        -0.03921659663319588,
        0.15853378176689148,
        -0.12105973064899445,
        -0.3858889937400818,
        -0.15540769696235657,
        0.20656733214855194,
        0.00665168697014451,
        -0.2556208670139313,
        -0.30337196588516235,
        -0.19121865928173065,
        -0.012736937962472439,
        0.1815727949142456,
        -0.07437764108181,
        -0.572638750076294,
        0.12436769157648087,
        -0.21431078016757965,
        0.038170795887708664,
        0.2322985976934433,
        -0.15999792516231537,
        0.2096085250377655
      ],
      [
        -0.052040405571460724,
        -0.21020188927650452,
        0.01423962228000164,
        -0.39176392555236816,
        0.5125137567520142,
        0.15845362842082977,
        0.044659968465566635,
        -0.276020884513855,
        -0.3284076154232025,
        0.41368362307548523,
        0.16439564526081085,
        -0.5326536297798157,
        -0.2863001525402069,
        0.30100321769714355,
        0.42509180307388306,
        0.0366227962076664,
        -0.174831822514534,
        0.04132625460624695,
        0.38669800758361816,
        0.32776910066604614,
        0.38223692774772644,
        0.5077932476997375,
        -0.1361030638217926,
        -0.10117147862911224,
        0.9803926944732666,
        0.23095452785491943,
        0.4077882170677185,
        0.0008247140212915838,
        0.37408193945884705,
        -0.21817953884601593,
        -0.2144920527935028,
        -0.5670093894004822,
        -0.41044268012046814,
        -0.5361388921737671,
        0.385166198015213,
        0.21511678397655487,
        0.8055635094642639,
        -0.1237461194396019,
        0.40404653549194336,
        0.043678175657987595,
        0.202175110578537,
        -0.4669976234436035,
        -0.28858697414398193,
        0.17335893213748932,
        0.8732419013977051,
        0.27538639307022095,
        0.5263637900352478,
        0.278763085603714
      ],
      [
        0.24095234274864197,
        0.22989261150360107,
        0.44507575035095215,
        -0.08408348262310028,
        -0.11791762709617615,
        0.08803257346153259,
        -0.3107731342315674,
        0.18208204209804535,
        -0.1785009503364563,
        -0.24315670132637024,
        0.5379980802536011,
        -0.1765516698360443,
        0.2711688280105591,
        0.28364819288253784,
        0.2045951634645462,
        -0.060207318514585495,
        -0.48062604665756226,
        0.016532089561223984,
        -0.08855820447206497,
        -0.24736514687538147,
        0.03455789014697075,
        0.9032929539680481,
        -0.04190867021679878,
        -0.2518295347690582,
        -0.23752477765083313,
        0.30028119683265686,
        -0.19905568659305573,
        0.2047445923089981,
        0.1654282808303833,
        -0.36989080905914307,
        -0.4684467017650604,
        0.1956610232591629,
        0.24396659433841705,
        0.6867808103561401,
        0.2789992094039917,
        -0.08580191433429718,
        0.05073244497179985,
        -0.16508378088474274,
        0.14426958560943604,
        0.06323552131652832,
        -0.16760209202766418,
        -0.04368085041642189,
        -0.26138296723365784,
        -0.14502374827861786,
        -0.20771390199661255,
        -0.17913559079170227,
        -0.2999548316001892,
        -0.14888526499271393
      ]
    ],
    "ff.lin2.bias": [
      0.10063444077968597,
      -0.010730733163654804,
      -0.05025022476911545,
      0.011856415309011936,
      -0.2446497082710266,
      0.06977176666259766,
      -0.10422883927822113,
      0.03677918761968613,
      -0.0054437848739326,
      -0.033105216920375824,
      0.22087980806827545,
      0.06618369370698929
    ]
  }
}