{
  "block_0": {
    "att.W_query.weight": [
      [
        -0.10629923641681671,
        0.0810021236538887,
        0.20093245804309845,
        0.1449187695980072,
        0.2658461034297943,
        -0.7646638751029968,
        0.3900928199291229,
        -0.013063553720712662,
        0.3281501829624176,
        -1.1792808771133423,
        -0.14050337672233582,
        0.05173712596297264
      ],
      [
        -0.47005054354667664,
        -1.1868085861206055,
        -0.10635235160589218,
        0.2341170608997345,
        -0.5867536664009094,
        0.7720521092414856,
        1.3658970594406128,
        0.39590489864349365,
        -0.5547686815261841,
        -0.4944707453250885,
        0.2486623227596283,
        0.599718451499939
      ],
      [
        0.801247239112854,
        1.1887600421905518,
        -0.5504127740859985,
        -0.8200962543487549,
        -0.8343827724456787,
        1.1601893901824951,
        0.3792228102684021,
        0.8867664933204651,
        0.437540203332901,
        -0.44357067346572876,
        -0.8110260963439941,
        -0.24087586998939514
      ],
      [
        -0.10688021779060364,
        0.6627453565597534,
        0.6453388929367065,
        0.031064411625266075,
        -0.09518776088953018,
        0.29740509390830994,
        0.6249715089797974,
        -1.0000274181365967,
        -0.6485930681228638,
        0.8782375454902649,
        0.0848488062620163,
        -0.37637200951576233
      ],
      [
        -0.2916005253791809,
        0.16755636036396027,
        -1.3897607326507568,
        0.6800163984298706,
        0.5975151062011719,
        -0.07271307706832886,
        1.0821031332015991,
        -0.7343262434005737,
        0.9264520406723022,
        -0.3186735510826111,
        0.24704156816005707,
        -1.3641210794448853
      ],
      [
        0.13627414405345917,
        0.46570634841918945,
        -0.5839251279830933,
        0.9820694327354431,
        0.0835556760430336,
        -0.2728375792503357,
        -0.06886452436447144,
        -0.12474977225065231,
        -0.21551918983459473,
        0.3601941764354706,
        -0.8386074304580688,
        0.7025687098503113
      ],
      [
        -0.5625513195991516,
        0.5662420392036438,
        0.6097896695137024,
        -0.45747268199920654,
        -0.3653964102268219,
        0.020401567220687866,
        0.16484124958515167,
        -0.38069653511047363,
        0.17262789607048035,
        -0.8730359673500061,
        -0.2913977801799774,
        0.8871678709983826
      ],
      [
        -0.6191659569740295,
        -0.475226491689682,
        -0.18363726139068604,
        -0.1867530196905136,
        0.4287136495113373,
        0.8627287149429321,
        0.47776129841804504,
        0.4347588121891022,
        0.18141356110572815,
        -0.5434916615486145,
        -0.5590416193008423,
        -0.3139711022377014
      ],
      [
        0.5957123041152954,
        -0.23912541568279266,
        1.0494152307510376,
        -0.734876811504364,
        0.02341626025736332,
        0.4919408857822418,
        -0.7478029727935791,
        1.143368124961853,
        -1.2578071355819702,
        0.006405009422451258,
        -0.08918004482984543,
        0.8300352096557617
      ],
      [
        0.30774590373039246,
        0.8903719782829285,
        -0.12136241048574448,
        -0.715537965297699,
        0.6342108845710754,
        0.4446670413017273,
        0.3735642731189728,
        0.3333597481250763,
        -0.08333117514848709,
        -0.9759411215782166,
        -0.7691590189933777,
        -0.44816696643829346
      ],
      [
        0.3275431990623474,
        0.5284802913665771,
        1.1053498983383179,
        0.25000470876693726,
        -0.4778313934803009,
        0.6228819489479065,
        -1.0954464673995972,
        -0.788803219795227,
        -0.09159013628959656,
        -0.850624680519104,
        -0.4872805178165436,
        0.35266244411468506
      ],
      [
        0.005029714200645685,
        -0.3958454430103302,
        0.12098666280508041,
        0.454132616519928,
        -0.3428976237773895,
        0.03989727795124054,
        0.22822356224060059,
        -0.09551345556974411,
        -0.8171226978302002,
        -0.4972537159919739,
        0.8416106104850769,
        -0.352691113948822
      ]
    ],
    "att.W_query.bias": null,
    "att.W_key.weight": [
      [
        -0.28363037109375,
        0.6874125599861145,
        0.8156439661979675,
        0.04683935269713402,
        -0.013237912207841873,
        0.6304486393928528,
        -0.5516599416732788,
        0.05890583246946335,
        -0.3598455786705017,
        -0.12658201158046722,
        -0.6305013298988342,
        -0.0714515745639801
      ],
      [
        0.873089611530304,
        1.1358165740966797,
        0.49068254232406616,
        -0.22782953083515167,
        0.3621545433998108,
        -1.7605173587799072,
        -0.359762042760849,
        -0.3042396605014801,
        0.00027738092467188835,
        -0.27863290905952454,
        0.21981003880500793,
        -0.1455167829990387
      ],
      [
        -0.22459377348423004,
        -0.4086739420890808,
        -0.6316156387329102,
        -0.1702505648136139,
        0.7580751180648804,
        -0.39585915207862854,
        0.21741031110286713,
        -0.7880488634109497,
        -0.025601154193282127,
        1.0722368955612183,
        -1.162366509437561,
        1.4630935192108154
      ],
      [
        -0.02159683033823967,
        -0.1673608273267746,
        -0.7242200374603271,
        -0.4043756127357483,
        -0.26058921217918396,
        0.3301168978214264,
        -0.858318567276001,
        0.5663250684738159,
        0.907006025314331,
        0.3080657720565796,
        0.8544981479644775,
        0.23441457748413086
      ],
      [
        -1.031424880027771,
        0.41807639598846436,
        0.09353791177272797,
        0.5296135544776917,
        -0.5402929782867432,
        -0.1436823010444641,
        -0.7487881183624268,
        1.279335618019104,
        0.26719850301742554,
        -0.7629584670066833,
        -0.9677788615226746,
        0.9039779901504517
      ],
      [
        -0.3059290647506714,
        -0.3896963894367218,
        0.41286996006965637,
        0.09919504076242447,
        0.18176673352718353,
        0.6058720946311951,
        -0.2063656747341156,
        -1.0814573764801025,
        0.6376504898071289,
        -0.6400690078735352,
        0.3900707960128784,
        0.18692754209041595
      ],
      [
        -0.3833361566066742,
        0.482431024312973,
        -0.8929799795150757,
        0.925220251083374,
        -0.3070714771747589,
        -0.13628415763378143,
        -0.23668617010116577,
        -0.30156373977661133,
        0.6824882626533508,
        -0.12716244161128998,
        0.6735731959342957,
        -0.2688480019569397
      ],
      [
        1.078708529472351,
        0.8689367175102234,
        -0.41084903478622437,
        -0.3039882183074951,
        0.1904297024011612,
        -0.28040167689323425,
        -0.12523213028907776,
        -0.36720550060272217,
        -0.044270534068346024,
        -0.5531521439552307,
        0.33477362990379333,
        0.5911661982536316
      ],
      [
        -1.1470057964324951,
        0.14563991129398346,
        -0.6924648880958557,
        -0.14016515016555786,
        0.08251714706420898,
        1.0924227237701416,
        0.03102734498679638,
        -0.9471250772476196,
        0.9623435735702515,
        0.3239147663116455,
        -0.19367191195487976,
        1.129834532737732
      ],
      [
        0.44902196526527405,
        0.397623211145401,
        -0.07914450764656067,
        0.08177899569272995,
        -0.6847583055496216,
        -0.872556746006012,
        -0.3822130262851715,
        -0.6691421270370483,
        0.6270292401313782,
        -0.3160964548587799,
        0.8660265207290649,
        0.8666967749595642
      ],
      [
        -1.127407193183899,
        0.788232684135437,
        -0.6753351092338562,
        0.2918735146522522,
        -1.1650210618972778,
        0.14676940441131592,
        0.6590506434440613,
        0.07341662049293518,
        0.7733957171440125,
        0.20104174315929413,
        0.34199410676956177,
        0.13376648724079132
      ],
      [
        0.24193963408470154,
        -0.5484127402305603,
        -0.3684583008289337,
        -0.24561277031898499,
        -0.06020846590399742,
        0.4939912259578705,
        -0.27693530917167664,
        1.22725248336792,
        0.33316004276275635,
        -0.03744291141629219,
        -0.8247042298316956,
        0.34471139311790466
      ]
    ],
    "att.W_key.bias": null,
    "att.W_value.weight": [
      [
        0.7982802987098694,
        -0.33879294991493225,
        0.13001367449760437,
        -0.5794311165809631,
        -0.4320380389690399,
        0.13366565108299255,
        0.2140512317419052,
        0.16019834578037262,
        0.39506563544273376,
        -0.22835569083690643,
        -0.3966711461544037,
        -0.16690871119499207
      ],
      [
        0.19064301252365112,
        -0.8482227921485901,
        0.01475793868303299,
        0.545483410358429,
        -0.08252715319395065,
        0.1921887844800949,
        -0.8017152547836304,
        0.06502007693052292,
        -0.5882097482681274,
        0.40974220633506775,
        0.21113644540309906,
        -0.2729603350162506
      ],
      [
        0.3442467153072357,
        -0.33937275409698486,
        0.022641055285930634,
        -0.623680591583252,
        0.009286077693104744,
        -0.4898807108402252,
        -0.5745037198066711,
        0.5508694648742676,
        -0.4414028823375702,
        0.3091420829296112,
        0.045838985592126846,
        0.3652786314487457
      ],
      [
        -0.5528056621551514,
        -0.36368876695632935,
        0.3380439579486847,
        0.3072441518306732,
        -0.5267729163169861,
        -0.41004738211631775,
        0.345777690410614,
        0.14033927023410797,
        -0.21037963032722473,
        0.4473250210285187,
        -0.06633719056844711,
        -0.22555433213710785
      ],
      [
        -0.32093656063079834,
        0.40396949648857117,
        -0.03345521166920662,
        -0.7875123023986816,
        -0.040405210107564926,
        0.32899659872055054,
        0.340173602104187,
        0.5010083317756653,
        -0.7337467670440674,
        0.12000735849142075,
        -0.3190189301967621,
        -0.5166510343551636
      ],
      [
        0.56904536485672,
        0.24782595038414001,
        -0.07948818802833557,
        0.4902152121067047,
        -0.8750289678573608,
        0.2246292531490326,
        0.143187016248703,
        -0.41075465083122253,
        -0.567832350730896,
        -0.3674018085002899,
        0.30365028977394104,
        0.474074125289917
      ],
      [
        -0.16451025009155273,
        0.4654175043106079,
        0.27943211793899536,
        -0.05681075528264046,
        0.4832576513290405,
        -0.7505823373794556,
        -0.18410725891590118,
        -0.0997503474354744,
        0.10700957477092743,
        0.4259759485721588,
        -0.877912163734436,
        -0.17113853991031647
      ],
      [
        -0.20226696133613586,
        0.3933470845222473,
        0.6047996878623962,
        -0.8116071224212646,
        -0.678203284740448,
        0.04530531167984009,
        -0.2473572939634323,
        0.2555638253688812,
        0.287333607673645,
        0.1785895824432373,
        0.052215609699487686,
        -0.3814376890659332
      ],
      [
        -0.3290630280971527,
        -0.2285158485174179,
        0.05424348637461662,
        -0.12835727632045746,
        0.20137600600719452,
        -0.3926225006580353,
        -0.5984494686126709,
        0.06655413657426834,
        0.7477216720581055,
        0.03810420632362366,
        0.43192577362060547,
        0.1756586879491806
      ],
      [
        0.17109188437461853,
        -0.3592625558376312,
        0.30373069643974304,
        0.4343928396701813,
        -0.28179070353507996,
        0.5970211029052734,
        -0.4582127332687378,
        -0.36353349685668945,
        0.3411908447742462,
        -0.05879729986190796,
        -0.7449108362197876,
        0.09588375687599182
      ],
      [
        -0.607140302658081,
        -0.43158864974975586,
        0.33811429142951965,
        0.08279116451740265,
        -0.583706796169281,
        -0.4080297350883484,
        0.02974635548889637,
        0.3084515929222107,
        -0.17336444556713104,
        0.03851775825023651,
        -0.1191454529762268,
        0.5616240501403809
      ],
      [
        -0.07593286782503128,
        0.32228538393974304,
        -0.10554128885269165,
        -0.012568626552820206,
        0.4474986791610718,
        0.255670428276062,
        -0.17991043627262115,
        0.5215132832527161,
        0.16993418335914612,
        -1.1490554809570312,
        0.22190189361572266,
        -0.15050655603408813
      ]
    ],
    "att.W_value.bias": null,
    "att.out_proj.weight": [
      [
        0.27833810448646545,
        -0.0001686332980170846,
        0.2051549255847931,
        -1.0245773792266846,
        -0.003282906487584114,
        -0.19916337728500366,
        0.014663239009678364,
        0.33760082721710205,
        0.4858766794204712,
        -0.007150623947381973,
        -0.402284175157547,
        -0.2410174012184143
      ],
      [
        0.27800077199935913,
        0.39496487379074097,
        -0.46600931882858276,
        0.2943015396595001,
        0.14371240139007568,
        -0.2618592083454132,
        -0.2870255410671234,
        -0.10336121916770935,
        0.5351753234863281,
        0.4671551585197449,
        0.4169602692127228,
        0.4055936634540558
      ],
      [
        -0.3192576467990875,
        0.12556055188179016,
        0.37901777029037476,
        0.07208319753408432,
        0.683807909488678,
        0.4336079955101013,
        0.08819331228733063,
        -0.395801842212677,
        -0.3328569531440735,
        0.3100781738758087,
        -0.6076220273971558,
        0.5677016377449036
      ],
      [
        0.25602900981903076,
        -0.7254388928413391,
        -0.3417391777038574,
        0.008924541994929314,
        0.5497962236404419,
        0.2507621645927429,
        1.114306092262268,
        0.4254976212978363,
        -0.3844694197177887,
        0.9104295372962952,
        0.492319256067276,
        -0.41274598240852356
      ],
      [
        -0.5989231467247009,
        -0.5428435802459717,
        -0.3930515646934509,
        -0.12464512139558792,
        -0.05581027641892433,
        -0.3481259346008301,
        -0.5501822233200073,
        -0.3777480125427246,
        0.01697525568306446,
        -0.026013322174549103,
        -0.05546291545033455,
        -0.1418454945087433
      ],
      [
        -0.3278716504573822,
        0.42046594619750977,
        -0.08212798833847046,
        -0.0031442809849977493,
        0.0703558400273323,
        -0.2475922554731369,
        -0.2854219377040863,
        0.4643608033657074,
        -0.11772377043962479,
        0.23405499756336212,
        -0.35670265555381775,
        0.48794081807136536
      ],
      [
        0.15539959073066711,
        0.1898130178451538,
        0.25527581572532654,
        0.041828133165836334,
        0.009504538029432297,
        0.24080166220664978,
        -0.505115270614624,
        -0.5624213218688965,
        -0.7337208390235901,
        0.26935550570487976,
        0.3661544620990753,
        -0.20192359387874603
      ],
      [
        0.3497646152973175,
        -0.15810056030750275,
        -0.4558379352092743,
        0.09099970012903214,
        -0.012022887356579304,
        0.9041815400123596,
        -0.011848866939544678,
        0.3941813111305237,
        -0.03256617486476898,
        -0.5304970741271973,
        0.17272107303142548,
        0.09928906708955765
      ],
      [
        0.48260387778282166,
        -0.011398451402783394,
        0.45392149686813354,
        0.33546173572540283,
        0.03556492552161217,
        -0.6125475764274597,
        0.28303974866867065,
        -0.13484692573547363,
        -0.1487385332584381,
        0.11409516632556915,
        -0.5174040198326111,
        -0.33198633790016174
      ],
      [
        -0.48597681522369385,
        0.3555438816547394,
        0.20093071460723877,
        0.08816280215978622,
        -1.106641411781311,
        0.3695404529571533,
        0.5416076183319092,
        -0.48388344049453735,
        0.22188304364681244,
        -0.5612666606903076,
        -0.03472733497619629,
        0.1978091299533844
      ],
      [
        0.05951539799571037,
        -0.6192071437835693,
        0.015645848587155342,
        0.1338546872138977,
        -0.025156570598483086,
        -0.4418196380138397,
        0.07574757188558578,
        0.29104703664779663,
        -0.11604063957929611,
        -0.6139611601829529,
        0.006970800459384918,
        0.521564781665802
      ],
      [
        -0.48974546790122986,
        0.3906088173389435,
        0.4169558584690094,
        0.2016940712928772,
        0.2052677571773529,
        -0.02851995639503002,
        -0.13652226328849792,
        0.3967234790325165,
        0.10797689110040665,
        0.009541437029838562,
        0.3815048635005951,
        -0.8177255392074585
      ]
    ],
    "att.out_proj.bias": [
      -0.07632645964622498,
      -0.01478759665042162,
      0.021591700613498688,
      -0.02375970408320427,
      0.1385992467403412,
      0.06693116575479507,
      -0.013009835965931416,
      -0.03061017021536827,
      -0.01849731057882309,
      -0.002494397107511759,
      0.02792711742222309,
      -0.09683532267808914
    ],
    "norm1.scale": [
      0.5210838913917542,
      0.5193302631378174,
      0.2966277301311493,
      0.39102479815483093,
      0.4799841642379761,
      0.5348155498504639,
      0.434318870306015,
      0.4140901267528534,
      0.5658164024353027,
      0.41967126727104187,
      0.49902692437171936,
      0.5022703409194946
    ],
    "norm1.shift": [
      0.10367563366889954,
      -0.010658644139766693,
      0.06966976076364517,
      -0.16200760006904602,
      -0.001179161830805242,
      0.05485261231660843,
      0.029092416167259216,
      -0.06771818548440933,
      0.030338363721966743,
      0.1699676513671875,
      0.0058140987530350685,
      0.20609857141971588
    ],
    "norm2.scale": [
      0.6426644325256348,
      0.43776124715805054,
      0.5434725880622864,
      0.5233510136604309,
      0.5661417245864868,
      0.5871849656105042,
      0.5069620013237,
      0.6363184452056885,
      0.5322297215461731,
      0.43350163102149963,
      0.6234034895896912,
      0.544977068901062
    ],
    "norm2.shift": [
      0.9462720155715942,
      -0.09155438095331192,
      0.6264604330062866,
      -0.201352059841156,
      -0.03676528111100197,
      -0.23868606984615326,
      0.32603487372398376,
      0.008547336794435978,
      0.15503625571727753,
      0.022333774715662003,
      -0.8742581009864807,
      -0.0534619577229023
    ],
    "ff.lin1.weight": [
      [
        -0.5182457566261292,
        0.31960180401802063,
        -0.6413189172744751,
        -0.17047040164470673,
        1.088371753692627,
        -0.21069322526454926,
        -0.6654262542724609,
        0.5133528113365173,
        -0.39223238825798035,
        -0.45553719997406006,
        0.31432780623435974,
        -0.09800679236650467
      ],
      [
        -0.3014090359210968,
        -0.05573210120201111,
        -0.3384219706058502,
        0.16302312910556793,
        -0.8099698424339294,
        0.11060885339975357,
        0.07484891265630722,
        -0.3531078100204468,
        -1.0257782936096191,
        0.9206235408782959,
        0.29136836528778076,
        0.8481926321983337
      ],
      [
        -0.7696672081947327,
        0.3493645191192627,
        0.2355767786502838,
        0.32101306319236755,
        0.39116397500038147,
        -0.47852224111557007,
        -0.797457218170166,
        -0.6188742518424988,
        -0.3240678012371063,
        1.0049036741256714,
        0.9754751324653625,
        -0.7815577983856201
      ],
      [
        -0.7025294899940491,
        -0.46919527649879456,
        -0.4354008734226227,
        0.7255211472511292,
        -0.44698429107666016,
        -0.32113391160964966,
        -1.035517930984497,
        0.6511216759681702,
        -0.5110111832618713,
        0.04097651690244675,
        1.4366761445999146,
        0.6697773933410645
      ],
      [
        -0.5089414715766907,
        -0.5103631615638733,
        -0.505969226360321,
        0.3037116527557373,
        0.3187011778354645,
        0.9103789925575256,
        -0.9098430275917053,
        0.6119349598884583,
        0.259485125541687,
        -0.48015159368515015,
        0.003920986782759428,
        0.5189226865768433
      ],
      [
        -1.2298287153244019,
        0.3385091722011566,
        -0.6626501083374023,
        -0.6566935181617737,
        -0.47658851742744446,
        0.11448660492897034,
        -0.019957076758146286,
        0.29793649911880493,
        0.12766133248806,
        0.5966856479644775,
        0.641582727432251,
        0.45968592166900635
      ],
      [
        -0.8702529668807983,
        1.2507346868515015,
        -0.749609649181366,
        0.34126538038253784,
        0.0004999294178560376,
        -0.41109365224838257,
        -0.7738829851150513,
        0.9119394421577454,
        -0.29489314556121826,
        0.626103937625885,
        0.8070876598358154,
        -0.9131729006767273
      ],
      [
        -0.6060386300086975,
        0.2614211440086365,
        -0.525932788848877,
        0.6471791863441467,
        -0.31034162640571594,
        0.07903105765581131,
        0.23701417446136475,
        -1.1389191150665283,
        -0.5085069537162781,
        0.2417299896478653,
        1.1112635135650635,
        0.37884268164634705
      ],
      [
        -0.5700328946113586,
        -0.3048096001148224,
        0.5153056383132935,
        0.6204896569252014,
        -0.11233343183994293,
        0.9525535106658936,
        -0.3880080282688141,
        -0.39107128977775574,
        -0.8664217591285706,
        -0.3020937144756317,
        0.022739747539162636,
        -0.03153613582253456
      ],
      [
        -0.4311012923717499,
        -0.11047423630952835,
        0.37613824009895325,
        -1.0337495803833008,
        0.3999050259590149,
        0.35107657313346863,
        -0.7191646695137024,
        0.4617595374584198,
        -0.6984012722969055,
        0.4369846284389496,
        1.1452915668487549,
        0.21787163615226746
      ],
      [
        -0.8849917650222778,
        -0.06969548761844635,
        -0.4478185474872589,
        -0.9003248810768127,
        -0.08154597878456116,
        0.9014795422554016,
        0.4125482439994812,
        -0.7916324734687805,
        -0.2902935743331909,
        0.6694672703742981,
        0.9164566397666931,
        0.28989988565444946
      ],
      [
        -1.7037843465805054,
        0.19409726560115814,
        -0.054118748754262924,
        0.4788556694984436,
        -0.8625850677490234,
        -0.8605581521987915,
        -0.24330204725265503,
        0.7186372876167297,
        0.12827475368976593,
        0.19296549260616302,
        1.0261813402175903,
        0.01563987135887146
      ],
      [
        -0.20668230950832367,
        -0.41095811128616333,
        -1.1721346378326416,
        0.33992987871170044,
        0.32440218329429626,
        0.949565589427948,
        -0.6432254314422607,
        0.22283412516117096,
        -0.02504783496260643,
        0.7263059616088867,
        0.37796661257743835,
        -0.7474753260612488
      ],
      [
        -0.929595410823822,
        1.1205042600631714,
        -0.305094838142395,
        0.6049624681472778,
        0.2265244573354721,
        -0.20110198855400085,
        -0.1893801987171173,
        -1.0930951833724976,
        -0.167129248380661,
        -0.24594800174236298,
        0.3955329656600952,
        0.14024686813354492
      ],
      [
        -0.3350647985935211,
        0.1570974588394165,
        -1.2468945980072021,
        0.46757569909095764,
        0.6467450857162476,
        0.7280702590942383,
        0.1322968602180481,
        0.6987345218658447,
        0.1114627793431282,
        -0.3055610656738281,
        0.22540158033370972,
        -0.8450360894203186
      ],
      [
        -0.18172474205493927,
        -0.4215784966945648,
        0.3421098291873932,
        0.4659655690193176,
        -0.36445221304893494,
        0.3792862892150879,
        -0.7360129356384277,
        -0.07426557689905167,
        -0.12406211346387863,
        0.34364041686058044,
        0.7238789200782776,
        -0.5439518094062805
      ],
      [
        -0.8099909424781799,
        0.07648257911205292,
        -0.7996796369552612,
        0.7664613723754883,
        -1.0675464868545532,
        0.6721012592315674,
        -0.2812138497829437,
        0.5835863351821899,
        0.3157757818698883,
        0.07699884474277496,
        0.14983254671096802,
        0.018940525129437447
      ],
      [
        -0.07912473380565643,
        0.14945946633815765,
        -0.8868728876113892,
        0.75361567735672,
        -0.36401769518852234,
        -0.5134386420249939,
        -0.3031143248081207,
        0.2520463764667511,
        0.8515294790267944,
        -0.1948188841342926,
        0.14928103983402252,
        -0.30324694514274597
      ],
      [
        -1.7563605308532715,
        0.565662145614624,
        -0.22989453375339508,
        0.21716544032096863,
        -0.11185144633054733,
        0.49108651280403137,
        0.48128998279571533,
        -0.5274322032928467,
        0.6100362539291382,
        -0.8463038206100464,
        0.9064712524414062,
        0.1267181932926178
      ],
      [
        -1.0047259330749512,
        0.06795403361320496,
        -0.15811333060264587,
        0.0013094451278448105,
        0.512183666229248,
        -0.6810250282287598,
        -0.06114953011274338,
        -0.3747064769268036,
        0.8417091965675354,
        -0.5792827010154724,
        1.0379585027694702,
        -0.4936036467552185
      ],
      [
        -0.35291948914527893,
        -0.10308907926082611,
        -0.5128992795944214,
        -0.2928720712661743,
        -0.8657918572425842,
        0.9247929453849792,
        0.6118189096450806,
        -0.6207112669944763,
        -0.04617287218570709,
        -0.26286396384239197,
        0.5465648770332336,
        0.6723974347114563
      ],
      [
        -0.03786242753267288,
        0.3114672005176544,
        -1.5940659046173096,
        0.6380508542060852,
        -0.5662887096405029,
        0.030556876212358475,
        0.008301839232444763,
        0.11280343681573868,
        0.19911381602287292,
        -0.253513365983963,
        0.282532662153244,
        0.024873575195670128
      ],
      [
        -0.0630173534154892,
        -1.1580162048339844,
        -1.4645565748214722,
        0.6992371082305908,
        0.21390976011753082,
        0.10841779410839081,
        0.37062326073646545,
        0.1968184858560562,
        -0.21543267369270325,
        0.0810900330543518,
        0.5328726172447205,
        0.5617818832397461
      ],
      [
        -1.0286451578140259,
        -0.6465268135070801,
        -0.8338173627853394,
        0.18899740278720856,
        1.0841902494430542,
        0.16244730353355408,
        0.08631743490695953,
        -0.34201282262802124,
        -0.3847818970680237,
        0.48502007126808167,
        0.38574475049972534,
        -0.283366858959198
      ],
      [
        -0.6385334730148315,
        -0.05560576170682907,
        -0.939754068851471,
        -0.06151287630200386,
        0.5199390649795532,
        -0.07549060881137848,
        -0.14509758353233337,
        -0.8422358632087708,
        0.4836687743663788,
        -0.19350750744342804,
        1.3951383829116821,
        0.5101866126060486
      ],
      [
        -0.6387070417404175,
        1.3754826784133911,
        -0.2524268329143524,
        -0.019687039777636528,
        0.15705037117004395,
        0.489137202501297,
        -0.5022022128105164,
        -0.7822861075401306,
        -0.8332604765892029,
        0.27197930216789246,
        0.30339035391807556,
        0.011073320172727108
      ],
      [
        0.13376423716545105,
        0.6045041084289551,
        -1.1312297582626343,
        0.06385479867458344,
        0.17729592323303223,
        0.8055906891822815,
        0.07590053230524063,
        -0.14353281259536743,
        -0.35627397894859314,
        -0.3156917989253998,
        0.23152537643909454,
        -0.5628262758255005
      ],
      [
        -0.4027268588542938,
        0.5582958459854126,
        -1.3484586477279663,
        0.17151512205600739,
        0.20455844700336456,
        -0.310468465089798,
        -0.8715441823005676,
        -0.520896852016449,
        0.1357644647359848,
        1.0736796855926514,
        0.6324974298477173,
        -0.0552758164703846
      ],
      [
        -0.004046515095978975,
        0.9330191612243652,
        -0.9907577037811279,
        0.32048481702804565,
        -0.8499594330787659,
        0.7204936146736145,
        0.6481156349182129,
        -0.9438627362251282,
        -0.3718439042568207,
        -0.7178426384925842,
        0.7208929061889648,
        -0.13170574605464935
      ],
      [
        -0.49192339181900024,
        0.18057765066623688,
        0.4501274526119232,
        -0.8024070262908936,
        -0.17629310488700867,
        0.08104285597801208,
        -0.03940682113170624,
        -0.7000647187232971,
        -0.13669423758983612,
        0.017820412293076515,
        0.4951642155647278,
        0.43602943420410156
      ],
      [
        0.09896613657474518,
        0.004353873897343874,
        -0.8789669275283813,
        -0.15253998339176178,
        -0.020684313029050827,
        -0.649688184261322,
        -0.05899360030889511,
        -0.27164745330810547,
        -0.43221500515937805,
        -0.03919930011034012,
        1.394964575767517,
        0.5381284952163696
      ],
      [
        -0.5674973726272583,
        -0.007804602850228548,
        -0.4567098617553711,
        0.004985304083675146,
        0.4875997304916382,
        0.43695834279060364,
        -1.3014813661575317,
        -0.7611657381057739,
        0.0877636969089508,
        0.16663159430027008,
        0.3262699246406555,
        1.4484940767288208
      ],
      [
        -0.5669251084327698,
        -0.5431689620018005,
        -0.09326271712779999,
        0.5793350338935852,
        0.30284371972084045,
        -0.04863743856549263,
        0.5363674163818359,
        -0.06647691130638123,
        -0.5120874643325806,
        0.7163630127906799,
        0.5616849660873413,
        -1.0058130025863647
      ],
      [
        -0.14735642075538635,
        0.9046615362167358,
        -0.2608848810195923,
        -0.19221580028533936,
        0.21352048218250275,
        -0.40163227915763855,
        -1.1950385570526123,
        0.7167088389396667,
        0.032981835305690765,
        -0.19959165155887604,
        0.7081587910652161,
        -0.8703353404998779
      ],
      [
        -0.43620404601097107,
        -0.06333862990140915,
        0.07585712522268295,
        -0.14560185372829437,
        -0.16509056091308594,
        0.2294461727142334,
        -0.1431751400232315,
        -0.6463194489479065,
        -0.4417930245399475,
        -0.5585060715675354,
        1.5348281860351562,
        0.8129875063896179
      ],
      [
        -1.0460600852966309,
        0.0697401836514473,
        0.1611451506614685,
        -0.06537149846553802,
        -0.08542006462812424,
        -0.7289084792137146,
        -0.191428080201149,
        0.3936481177806854,
        -0.584031343460083,
        0.6859186291694641,
        0.4175410866737366,
        0.28165870904922485
      ],
      [
        -0.5136855244636536,
        -0.3838450312614441,
        -0.737245500087738,
        0.49671339988708496,
        -0.1724187284708023,
        -0.46528202295303345,
        0.12562556564807892,
        -0.6626762747764587,
        0.5887596607208252,
        0.75405353307724,
        0.5709343552589417,
        -0.6883189082145691
      ],
      [
        -0.33628278970718384,
        0.6717974543571472,
        -0.7826933860778809,
        -0.7213925123214722,
        0.1558753401041031,
        0.30306121706962585,
        0.7372653484344482,
        -0.6508909463882446,
        -0.6232436895370483,
        0.3472689390182495,
        0.7213489413261414,
        -0.39692696928977966
      ],
      [
        0.32343804836273193,
        -0.19469726085662842,
        -0.12429757416248322,
        -0.40163731575012207,
        -0.32387012243270874,
        0.04323991760611534,
        0.1804189234972,
        -1.1119660139083862,
        -0.39619407057762146,
        0.6456832885742188,
        0.7049371600151062,
        0.13204118609428406
      ],
      [
        -0.3854062855243683,
        -0.008219996467232704,
        -0.9791008830070496,
        0.6193989515304565,
        -0.8048083186149597,
        1.2210191488265991,
        -0.28121519088745117,
        -0.6644982695579529,
        0.03772756829857826,
        0.6937527656555176,
        0.6185779571533203,
        -0.11402623355388641
      ],
      [
        -1.2262985706329346,
        0.4645289480686188,
        -0.34185701608657837,
        0.19833330810070038,
        -0.3521202504634857,
        -0.502861738204956,
        0.9121784567832947,
        -0.6511685848236084,
        -0.14211870729923248,
        -0.4251846373081207,
        0.5123156309127808,
        0.004766798112541437
      ],
      [
        -0.762040913105011,
        -0.429379940032959,
        0.32859036326408386,
        -0.33460476994514465,
        0.10978943109512329,
        0.6656436324119568,
        -1.027404546737671,
        0.312824010848999,
        -0.09150461107492447,
        -0.16016879677772522,
        1.2409991025924683,
        0.007008098065853119
      ],
      [
        -0.4160902500152588,
        0.43613356351852417,
        -0.6147646903991699,
        -0.40043097734451294,
        0.8467362523078918,
        -0.19534428417682648,
        0.674858570098877,
        -0.09733536094427109,
        -1.3514056205749512,
        -0.18740658462047577,
        0.9213461875915527,
        0.015756089240312576
      ],
      [
        -0.9567561149597168,
        0.17022773623466492,
        0.04382627457380295,
        1.2356234788894653,
        0.037706244736909866,
        0.6764922142028809,
        -0.8751733303070068,
        0.13686136901378632,
        -1.1628996133804321,
        0.2995941638946533,
        1.073836326599121,
        0.30849888920783997
      ],
      [
        -1.2610564231872559,
        0.32698673009872437,
        0.05869002267718315,
        0.9304661154747009,
        0.3871639370918274,
        -0.11182864010334015,
        -0.6690571904182434,
        0.4897248446941376,
        -0.5331956148147583,
        -0.35169291496276855,
        0.03434503450989723,
        0.15944837033748627
      ],
      [
        -1.166896939277649,
        -0.4605940282344818,
        -0.2527329623699188,
        -0.5364100337028503,
        0.30383825302124023,
        0.5579257607460022,
        -0.8466466069221497,
        0.7450367212295532,
        0.8166804313659668,
        -0.6605660915374756,
        -0.22037342190742493,
        0.756624698638916
      ],
      [
        -0.7583227753639221,
        -0.5541360378265381,
        -0.9399625062942505,
        0.3158755600452423,
        -0.3616732060909271,
        0.6567965745925903,
        -0.2848206162452698,
        0.09290693700313568,
        0.4320530295372009,
        -0.7457108497619629,
        0.37159648537635803,
        1.3255475759506226
      ],
      [
        -0.8564659357070923,
        0.1966225802898407,
        -0.20704180002212524,
        0.4759101867675781,
        -0.4896775484085083,
        0.4056105315685272,
        -0.240894615650177,
        0.18955455720424652,
        0.652618944644928,
        -0.17983825504779816,
        0.026292935013771057,
        0.24543870985507965
      ]
    ],
    "ff.lin1.bias": [
      -0.6155049204826355,
      -0.7006033658981323,
      -0.5665910840034485,
      -0.6511638760566711,
      -0.4386579394340515,
      -0.1740560233592987,
      -1.0403996706008911,
      -0.3341485857963562,
      -0.8126729130744934,
      -0.8958454728126526,
      -0.2970454692840576,
      -1.1506000757217407,
      -0.6053009629249573,
      -0.3289411962032318,
      -0.8192057609558105,
      -0.5073290467262268,
      -0.3286629915237427,
      -0.25107938051223755,
      -0.7719788551330566,
      -0.5980989933013916,
      -0.9638361930847168,
      -1.2974107265472412,
      -1.3164329528808594,
      -0.8274181485176086,
      -0.2878377437591553,
      -0.8194736838340759,
      -0.6542910933494568,
      -0.6256340146064758,
      -0.9084842801094055,
      -0.6003217697143555,
      -1.1574591398239136,
      -0.0914822593331337,
      -0.5342695116996765,
      -1.6511123180389404,
      -0.44331109523773193,
      -0.301788866519928,
      -1.1158441305160522,
      -0.9288289546966553,
      -0.5339544415473938,
      -0.3129582703113556,
      -1.1968634128570557,
      -0.2675669491291046,
      -0.42503616213798523,
      -0.3613925576210022,
      -0.5996776223182678,
      -1.8586204051971436,
      -0.6757045984268188,
      -0.0418710857629776
    ],
    "ff.lin2.weight": [
      [
        -0.287488728761673,
        0.0695502758026123,
        -0.03965180739760399,
        -0.03611939400434494,
        0.1625681221485138,
        0.15277038514614105,
        0.4756878614425659,
        -0.8869249820709229,
        0.49517619609832764,
        -0.026777813211083412,
        -0.501296877861023,
        0.9013944268226624,
        0.17397233843803406,
        -0.27923065423965454,
        0.14555999636650085,
        0.18084962666034698,
        -0.49831622838974,
        0.10665910691022873,
        0.7739745378494263,
        -0.0006939079612493515,
        -0.37009549140930176,
        1.0669459104537964,
        -0.17669616639614105,
        -0.08241967111825943,
        0.13130821287631989,
        0.06456364691257477,
        0.3221074342727661,
        -0.38471710681915283,
        -0.08885733038187027,
        -0.13506251573562622,
        -0.40353211760520935,
        0.23070774972438812,
        -0.13379377126693726,
        0.04044617339968681,
        -0.04513723403215408,
        0.04974507912993431,
        0.1618885099887848,
        0.1029999777674675,
        -0.1319994032382965,
        0.05315672606229782,
        0.35860541462898254,
        0.3341750204563141,
        0.28373271226882935,
        -0.5412085652351379,
        -0.022312544286251068,
        0.3227245807647705,
        0.1940034031867981,
        -0.41385191679000854
      ],
      [
        -0.2880725860595703,
        0.4378616213798523,
        -0.11456931382417679,
        0.41548675298690796,
        -0.03148118779063225,
        -0.10315005481243134,
        0.12710657715797424,
        0.09532161056995392,
        -0.032271191477775574,
        0.2556161880493164,
        -0.01452129241079092,
        -0.44599026441574097,
        -0.19912073016166687,
        0.010809584520757198,
        0.3059036433696747,
        -0.4358350336551666,
        -0.43272125720977783,
        0.008776657283306122,
        0.27097761631011963,
        -3.083015326410532e-05,
        -0.03897027671337128,
        -0.15842489898204803,
        0.6164544820785522,
        -0.37162598967552185,
        -0.6032625436782837,
        0.2524149715900421,
        -0.1687900274991989,
        -0.0983038917183876,
        0.215562105178833,
        -0.08244726061820984,
        -0.1355118602514267,
        -0.1529548317193985,
        -0.02736811526119709,
        0.045833807438611984,
        -0.11574991047382355,
        0.14986151456832886,
        0.006128956098109484,
        -0.09538128972053528,
        0.14881905913352966,
        -0.1361076980829239,
        0.0829605907201767,
        0.36667168140411377,
        -0.0775531604886055,
        0.23091086745262146,
        -0.1849796026945114,
        0.7925741076469421,
        -0.4684284031391144,
        -0.02583613432943821
      ],
      [
        -0.3553946912288666,
        -0.4675300419330597,
        -1.0325387716293335,
        -0.8941418528556824,
        0.11201613396406174,
        -0.2641788125038147,
        -0.023524805903434753,
        -0.3351195752620697,
        0.04104973375797272,
        1.3308411836624146,
        -0.9086180925369263,
        -0.08979392796754837,
        1.148708462715149,
        0.22238405048847198,
        0.7704364061355591,
        -0.07313479483127594,
        0.5986015200614929,
        -0.3164668381214142,
        0.2756076753139496,
        0.18739372491836548,
        0.33512893319129944,
        1.4391711950302124,
        0.4127142131328583,
        0.971680760383606,
        0.6943000555038452,
        -0.36494946479797363,
        -0.02423625811934471,
        -0.24334801733493805,
        -0.21831505000591278,
        0.7901428937911987,
        0.49814337491989136,
        -0.2699066996574402,
        0.10779228806495667,
        -0.4141579568386078,
        -0.9864015579223633,
        -0.46067869663238525,
        0.002629276132211089,
        0.024824736639857292,
        -0.4261139929294586,
        -0.6421909928321838,
        0.6260963082313538,
        0.510541558265686,
        0.40719401836395264,
        -0.4655536115169525,
        -0.02073800563812256,
        -0.48113274574279785,
        0.3569703698158264,
        0.3085058331489563
      ],
      [
        0.047009095549583435,
        -0.30274051427841187,
        -0.2569374442100525,
        -1.1057378053665161,
        0.15280407667160034,
        -0.3083437979221344,
        0.07261047512292862,
        -0.029250159859657288,
        -0.05966982617974281,
        -0.02246234193444252,
        0.25831711292266846,
        -0.042768694460392,
        -0.37425610423088074,
        -0.15658147633075714,
        -0.028643149882555008,
        0.15561488270759583,
        -0.05136295408010483,
        0.026009680703282356,
        -0.3012518882751465,
        0.14328519999980927,
        0.25566616654396057,
        -0.237752303481102,
        0.12730829417705536,
        0.47870752215385437,
        -0.3489338755607605,
        -0.40541672706604004,
        -0.5319125652313232,
        0.30187684297561646,
        0.17774948477745056,
        -0.15802182257175446,
        0.6075149178504944,
        -0.22859294712543488,
        0.051285270601511,
        -0.0034676827490329742,
        0.2932923138141632,
        -0.11224955320358276,
        0.13524654507637024,
        -0.0039030674379318953,
        0.0172619316726923,
        -0.4894637167453766,
        -0.09668242186307907,
        -0.36578401923179626,
        -0.007963924668729305,
        0.8171057105064392,
        1.228114366531372,
        0.03042435832321644,
        0.19917868077754974,
        0.19870157539844513
      ],
      [
        0.2964474558830261,
        0.19558002054691315,
        -0.12737947702407837,
        0.46021437644958496,
        -0.12636420130729675,
        0.34184369444847107,
        0.22094039618968964,
        0.16397728025913239,
        -0.372245192527771,
        0.23396681249141693,
        0.2120242416858673,
        -0.01850873976945877,
        -0.2284068912267685,
        0.24235521256923676,
        -0.27853336930274963,
        -0.10072691738605499,
        0.5125126242637634,
        -0.1382828801870346,
        -0.1671072542667389,
        0.08971012383699417,
        0.3090192973613739,
        -0.1836174726486206,
        -0.9923377633094788,
        0.06084221974015236,
        -0.30602890253067017,
        0.016801422461867332,
        -0.05850983411073685,
        0.005999539513140917,
        0.4473877251148224,
        0.17970433831214905,
        0.5024228692054749,
        0.047541141510009766,
        0.18553906679153442,
        -0.07862350344657898,
        -0.341310054063797,
        0.15204735100269318,
        -0.44031429290771484,
        -0.04480261728167534,
        -0.04896116256713867,
        0.20686951279640198,
        0.1562783569097519,
        -0.3327878415584564,
        -0.5523449182510376,
        -0.4763403832912445,
        -0.13248677551746368,
        -0.06325016915798187,
        0.2267555594444275,
        0.272025465965271
      ],
      [
        0.43633171916007996,
        0.013120749965310097,
        0.2739739716053009,
        -0.3413262665271759,
        0.6388270854949951,
        0.2108858823776245,
        0.23298019170761108,
        -0.24417927861213684,
        -0.37939944863319397,
        0.033278003334999084,
        -0.14304499328136444,
        -0.29790419340133667,
        -0.717946469783783,
        0.1146644577383995,
        -0.30977898836135864,
        0.047764088958501816,
        0.4842677414417267,
        0.4715566039085388,
        0.13974802196025848,
        0.16056521236896515,
        -0.00986133236438036,
        -0.1973292976617813,
        -0.12927593290805817,
        0.07356961816549301,
        0.10832861810922623,
        -0.2858351171016693,
        -0.1779477596282959,
        -0.300273060798645,
        0.54726243019104,
        0.24656634032726288,
        0.15260355174541473,
        -0.14310912787914276,
        -0.23535926640033722,
        0.3532496392726898,
        0.2215786576271057,
        -0.13807640969753265,
        0.22997909784317017,
        0.0849076583981514,
        0.42089390754699707,
        0.5941339731216431,
        -0.1377517580986023,
        0.09253314882516861,
        0.45558518171310425,
        -0.027183910831809044,
        0.05517420545220375,
        0.12000469118356705,
        0.06463281065225601,
        0.0397358238697052
      ],
      [
        -0.3088352382183075,
        0.22932258248329163,
        -0.009045249782502651,
        0.0957024097442627,
        -0.44425883889198303,
        0.03182191029191017,
        -0.19727714359760284,
        -0.07768440991640091,
        0.22337867319583893,
        0.2201436460018158,
        -0.17993642389774323,
        0.29464468359947205,
        0.6004390716552734,
        -0.358109712600708,
        -0.24300940334796906,
        0.1890353113412857,
        -0.010240234434604645,
        0.007326990365982056,
        0.15875568985939026,
        -0.19761668145656586,
        0.3275093138217926,
        -0.25980091094970703,
        0.061230383813381195,
        0.0848548486828804,
        -0.19495351612567902,
        0.1380433887243271,
        -0.40370258688926697,
        0.6443989872932434,
        -0.16860926151275635,
        -0.34444165229797363,
        0.014680045656859875,
        -0.39758995175361633,
        0.3707348108291626,
        -0.041348718106746674,
        0.255808025598526,
        0.23327241837978363,
        0.03962945565581322,
        -0.18196263909339905,
        -0.022638287395238876,
        0.1516803503036499,
        -0.11201051622629166,
        -0.11538539826869965,
        0.013774827122688293,
        -0.09350290894508362,
        0.02779087796807289,
        -0.05599549040198326,
        -0.36247608065605164,
        0.039403047412633896
      ],
      [
        0.052277497947216034,
        -0.3458150327205658,
        0.41006898880004883,
        -0.297590970993042,
        -0.17413479089736938,
        0.4138028621673584,
        0.36323538422584534,
        0.5439674854278564,
        -0.2854252755641937,
        -0.34408465027809143,
        0.4029379189014435,
        0.22184862196445465,
        -0.02906658872961998,
        0.13313303887844086,
        0.21050460636615753,
        0.09671447426080704,
        0.10865575820207596,
        -0.1714983731508255,
        -0.3829435110092163,
        0.14110328257083893,
        0.24308067560195923,
        -0.7239783406257629,
        -0.03984243422746658,
        0.08461228758096695,
        0.5212826132774353,
        0.09035488218069077,
        0.21735155582427979,
        0.2110503762960434,
        -0.6210401654243469,
        0.22996708750724792,
        -0.2692447006702423,
        0.4317786991596222,
        -0.07914275676012039,
        -0.21455471217632294,
        0.2913430631160736,
        0.1904115378856659,
        -0.076516292989254,
        -0.44598251581192017,
        -0.04152702912688255,
        0.028688153252005577,
        -0.22236143052577972,
        0.20084896683692932,
        -0.27391019463539124,
        -0.3739202618598938,
        0.06881465017795563,
        -0.49063774943351746,
        0.2676360607147217,
        0.03306626155972481
      ],
      [
        0.3277796506881714,
        0.09993171691894531,
        -0.14278917014598846,
        0.13429585099220276,
        -0.21027907729148865,
        0.014222037978470325,
        -0.4640407860279083,
        0.0568428635597229,
        0.27872493863105774,
        0.028515130281448364,
        0.029868219047784805,
        0.3994762897491455,
        -0.18508844077587128,
        -0.060530491173267365,
        -0.29743796586990356,
        -0.1297476887702942,
        0.18659555912017822,
        -0.02898804284632206,
        -0.1839139461517334,
        -0.015933945775032043,
        0.3739822804927826,
        0.5461875796318054,
        -0.3463219106197357,
        0.3590768575668335,
        -0.5482945442199707,
        0.5237472653388977,
        -0.2107337862253189,
        -0.016436390578746796,
        -0.2832065224647522,
        -0.4975244998931885,
        0.21217910945415497,
        -0.3706025183200836,
        0.17105190455913544,
        0.06941324472427368,
        -0.1082405298948288,
        -0.08900227397680283,
        0.33010539412498474,
        -0.18990100920200348,
        0.09398578852415085,
        -0.1666819155216217,
        -0.1750633865594864,
        0.070794977247715,
        -0.07375942170619965,
        -0.2471112161874771,
        -0.5178605914115906,
        -0.33417171239852905,
        -0.03736899420619011,
        -0.10427650809288025
      ],
      [
        -0.1914142221212387,
        -0.017861220985651016,
        0.10544844716787338,
        0.2963962256908417,
        0.2164253145456314,
        -0.15263791382312775,
        0.12363310903310776,
        0.08286722004413605,
        0.37993910908699036,
        0.2410033941268921,
        0.046481527388095856,
        -0.37483903765678406,
        0.45525142550468445,
        0.681006133556366,
        0.4347340166568756,
        0.2287786602973938,
        -0.33259883522987366,
        -0.32753875851631165,
        0.28822290897369385,
        -0.4619671404361725,
        -0.11824721843004227,
        0.04853573814034462,
        -0.3211551904678345,
        -0.09904377907514572,
        0.4533723294734955,
        -0.43821150064468384,
        0.4685570299625397,
        0.3832969665527344,
        -0.2618582546710968,
        -0.04744846746325493,
        -0.23389290273189545,
        0.2569124102592468,
        0.16709962487220764,
        0.4001447856426239,
        0.14475180208683014,
        -0.4494750499725342,
        -0.25450655817985535,
        -0.28226611018180847,
        0.16885101795196533,
        -0.1544283926486969,
        0.39205312728881836,
        -0.21733126044273376,
        -0.2824069559574127,
        0.1858084499835968,
        -0.025057781487703323,
        0.29357656836509705,
        -0.16095629334449768,
        0.09393103420734406
      ],
      [
        -0.06356751918792725,
        -0.046441420912742615,
        0.2275390475988388,
        0.8609381318092346,
        -0.14971081912517548,
        -0.12303309887647629,
        -0.34526652097702026,
        -0.2965877056121826,
        0.012727035209536552,
        -0.29400408267974854,
        0.27232488989830017,
        -0.28415319323539734,
        0.17251573503017426,
        -0.04459298029541969,
        -0.18697495758533478,
        0.13534633815288544,
        -0.017708074301481247,
        0.15162771940231323,
        0.26361075043678284,
        0.8744189143180847,
        -0.45805221796035767,
        -0.8588231801986694,
        0.21508851647377014,
        -0.5751306414604187,
        0.48132431507110596,
        -0.22043392062187195,
        0.27181270718574524,
        -0.8116076588630676,
        -0.052358824759721756,
        -0.1669280081987381,
        -0.4473514258861542,
        0.4327612519264221,
        -0.5202893614768982,
        -0.1525924950838089,
        0.0019769605714827776,
        0.21630869805812836,
        -0.2467256486415863,
        0.39207398891448975,
        0.08829693496227264,
        0.43490079045295715,
        -0.470081090927124,
        -0.24501517415046692,
        0.05851278081536293,
        0.2462879866361618,
        0.08075077831745148,
        -0.25621888041496277,
        -0.0315435566008091,
        -0.034329723566770554
      ],
      [
        -0.4591163098812103,
        -0.1328076273202896,
        0.15663833916187286,
        -0.08214195817708969,
        -0.03168489411473274,
        -0.2997247874736786,
        0.04847421497106552,
        0.05560019239783287,
        -0.05571942403912544,
        -0.23010800778865814,
        0.22217512130737305,
        -0.10057687014341354,
        -0.55209881067276,
        -0.26945221424102783,
        -0.032245516777038574,
        0.08412189036607742,
        -0.2384822517633438,
        0.03491310402750969,
        -0.7044318318367004,
        -0.008966026827692986,
        -0.03532721847295761,
        0.29220038652420044,
        0.9722692966461182,
        -0.15149752795696259,
        0.14752952754497528,
        0.3242691159248352,
        0.15631945431232452,
        -0.03330690413713455,
        -0.15130148828029633,
        0.07217694073915482,
        -0.21234354376792908,
        -0.23036518692970276,
        0.2801954448223114,
        0.15604126453399658,
        -0.18171361088752747,
        0.0929984599351883,
        0.10013255476951599,
        0.47672760486602783,
        -0.15196308493614197,
        -0.2786957621574402,
        0.27947813272476196,
        -0.17501124739646912,
        0.4889182448387146,
        0.37827208638191223,
        0.29179513454437256,
        0.3349960148334503,
        -0.2931346595287323,
        -0.23367851972579956
      ]
    ],
    "ff.lin2.bias": [
      -0.09786329418420792,
      0.06499212235212326,
      0.10957203060388565,
      0.0735100731253624,
      0.04670624062418938,
      0.18091493844985962,
      -0.1239277571439743,
      -8.191342931240797e-05,
      -0.18982374668121338,
      0.01818244159221649,
      -0.003864515107125044,
      -0.09264125674962997
    ]
  }
}