{
  "block_0": {
    "att.W_query.weight": [
      [
        -0.5888394713401794,
        0.3458902835845947,
        0.3606173098087311,
        0.3683769106864929,
        -0.4514949917793274,
        0.1303686946630478,
        -0.1370079517364502,
        -0.27513203024864197,
        -0.480322927236557,
        -0.09701523184776306,
        0.40696805715560913,
        0.791717529296875
      ],
      [
        -0.08519157022237778,
        0.3792511820793152,
        -0.3791465163230896,
        0.3250753581523895,
        0.047504864633083344,
        0.48480772972106934,
        0.1828422099351883,
        0.11716621369123459,
        0.25331205129623413,
        -0.747319757938385,
        -0.2729948163032532,
        -0.11649605631828308
      ],
      [
        -0.25429266691207886,
        -0.11696067452430725,
        -0.23540164530277252,
        0.39617919921875,
        0.6976698637008667,
        0.3868117332458496,
        0.17728494107723236,
        -0.7789346575737,
        -0.4755871295928955,
        0.3580191135406494,
        0.25407055020332336,
        -0.5784769058227539
      ],
      [
        0.0119803911074996,
        0.13763763010501862,
        0.30284997820854187,
        -0.3502541184425354,
        -0.3945797383785248,
        0.2096003293991089,
        0.32564064860343933,
        0.46003541350364685,
        -0.5397389531135559,
        0.33213621377944946,
        0.45119380950927734,
        -0.21137849986553192
      ],
      [
        -0.3598763644695282,
        0.39861980080604553,
        -0.031879596412181854,
        -0.051478877663612366,
        0.511512279510498,
        -0.597569465637207,
        0.4786428213119507,
        -0.3130429685115814,
        -0.09702680259943008,
        -0.2701065242290497,
        0.016082335263490677,
        0.0948033556342125
      ],
      [
        0.5097599029541016,
        -0.3511302173137665,
        -0.2511821389198303,
        0.36260125041007996,
        -0.5740929245948792,
        -0.045418526977300644,
        0.6225039958953857,
        -0.5393829941749573,
        -0.12358008325099945,
        0.43353477120399475,
        -0.36117926239967346,
        0.18973132967948914
      ],
      [
        0.11700918525457382,
        0.744116485118866,
        0.25064966082572937,
        0.3806140720844269,
        0.38950487971305847,
        -0.292675644159317,
        -0.12766674160957336,
        0.3396247625350952,
        -0.09493108093738556,
        -0.061656445264816284,
        -0.338712602853775,
        -0.4860247075557709
      ],
      [
        -0.17209495604038239,
        -0.01053533609956503,
        0.30889615416526794,
        -0.23348566889762878,
        -0.27186161279678345,
        0.22358626127243042,
        -0.502135694026947,
        0.10907477885484695,
        0.2928061783313751,
        -0.6825898289680481,
        0.45571112632751465,
        -0.28874671459198
      ],
      [
        0.09978184849023819,
        0.37053200602531433,
        0.12423937022686005,
        -0.2864994704723358,
        -0.022272035479545593,
        -0.26147568225860596,
        -0.4701319634914398,
        0.24630874395370483,
        0.397392213344574,
        -0.5188084244728088,
        -0.14243929088115692,
        0.8369473218917847
      ],
      [
        0.13404487073421478,
        0.5204294323921204,
        -0.055485017597675323,
        -0.1410786658525467,
        -0.1637371927499771,
        -0.5256626009941101,
        -0.024882860481739044,
        -0.8018112182617188,
        0.1490982323884964,
        0.4146992862224579,
        0.4209469258785248,
        0.06617016345262527
      ],
      [
        0.26048657298088074,
        -0.0011381004005670547,
        0.40843769907951355,
        -1.1949950456619263,
        0.21004945039749146,
        -0.18225498497486115,
        0.08645500987768173,
        0.14255253970623016,
        0.008519329130649567,
        0.4671795070171356,
        0.3611801564693451,
        -0.022746045142412186
      ],
      [
        -0.08214559406042099,
        -0.20266608893871307,
        0.54139643907547,
        0.5315847396850586,
        0.22678351402282715,
        -0.7698129415512085,
        -0.3204016387462616,
        0.30300527811050415,
        -0.3182019889354706,
        0.5900963544845581,
        -0.10117854177951813,
        -0.047229498624801636
      ]
    ],
    "att.W_query.bias": null,
    "att.W_key.weight": [
      [
        0.33666422963142395,
        -0.6468862295150757,
        0.21429570019245148,
        -0.555098295211792,
        0.07859493046998978,
        0.5041374564170837,
        -0.3195009231567383,
        0.34609323740005493,
        0.37965863943099976,
        -0.513486921787262,
        -0.08602657914161682,
        -0.224342942237854
      ],
      [
        0.2530956268310547,
        0.19541293382644653,
        -0.009861359372735023,
        -0.9694551825523376,
        -0.052566856145858765,
        -0.48084548115730286,
        0.2488296926021576,
        0.24472825229167938,
        0.11899357289075851,
        0.6005627512931824,
        0.11128824949264526,
        0.002641817322000861
      ],
      [
        0.580130934715271,
        0.5618565678596497,
        -0.4132024943828583,
        0.3011953830718994,
        -0.012674504891037941,
        -0.5938894152641296,
        -0.25258612632751465,
        0.547596275806427,
        -0.47508493065834045,
        -0.48881077766418457,
        0.24348704516887665,
        -0.18888649344444275
      ],
      [
        -0.1436018943786621,
        0.303378701210022,
        0.27184972167015076,
        0.008097276091575623,
        0.5715345740318298,
        0.24913270771503448,
        -0.4076364040374756,
        -0.3671989440917969,
        0.06821926683187485,
        -0.5427250862121582,
        -0.27115508913993835,
        0.32179293036460876
      ],
      [
        0.19424918293952942,
        -0.254019558429718,
        0.23594936728477478,
        0.5501818656921387,
        -0.29009824991226196,
        -0.3694789707660675,
        -0.5762431621551514,
        0.5440831780433655,
        0.1871580332517624,
        0.05613480508327484,
        -0.23086395859718323,
        0.4275503158569336
      ],
      [
        -0.4435979425907135,
        0.203642800450325,
        -0.03526526317000389,
        0.3242846727371216,
        0.15340591967105865,
        -0.257478266954422,
        0.279090017080307,
        0.32330596446990967,
        0.47344210743904114,
        -0.07180967181921005,
        0.09899835288524628,
        -0.95135498046875
      ],
      [
        0.6561001539230347,
        0.31320327520370483,
        0.05597250163555145,
        0.1709437221288681,
        -0.01534542441368103,
        0.6147552132606506,
        0.06832938641309738,
        -0.5186285376548767,
        0.08212683349847794,
        -0.17843659222126007,
        0.5278863310813904,
        -0.16121235489845276
      ],
      [
        0.23165655136108398,
        -0.29212671518325806,
        -0.2421838343143463,
        0.15303564071655273,
        0.21951177716255188,
        -0.5328859090805054,
        0.3209104537963867,
        0.26890215277671814,
        0.33712270855903625,
        0.03511882200837135,
        0.36527055501937866,
        -0.6718034148216248
      ],
      [
        -0.49964940547943115,
        0.4007997214794159,
        0.003518798854202032,
        -0.4045242965221405,
        0.329525887966156,
        -0.14276573061943054,
        -0.11811178922653198,
        -0.14783602952957153,
        0.6094149947166443,
        0.3991926908493042,
        -0.08902009576559067,
        -0.6656007170677185
      ],
      [
        -0.16864053905010223,
        -0.019707949832081795,
        -0.6738519668579102,
        -0.4420437514781952,
        -0.1751185953617096,
        0.6437997817993164,
        0.2330556958913803,
        0.2508469223976135,
        -0.06692074984312057,
        0.5049692392349243,
        0.24948351085186005,
        0.1826934516429901
      ],
      [
        -0.6853808164596558,
        -0.33886876702308655,
        -0.7419323325157166,
        0.2978074252605438,
        0.7324057817459106,
        0.554816484451294,
        0.4840153455734253,
        0.053719788789749146,
        -0.09754899889230728,
        0.1250467747449875,
        -0.28811004757881165,
        -0.2508855164051056
      ],
      [
        -0.4316997826099396,
        -0.005147144198417664,
        0.027699487283825874,
        -0.31081709265708923,
        -0.06395383924245834,
        0.924813985824585,
        0.5559804439544678,
        -0.2592686116695404,
        0.2091870903968811,
        -0.6771279573440552,
        0.14887785911560059,
        0.17744074761867523
      ]
    ],
    "att.W_key.bias": null,
    "att.W_value.weight": [
      [
        0.49262458086013794,
        -0.10128078609704971,
        -0.20966845750808716,
        -0.053852684795856476,
        -0.07137894630432129,
        0.17995266616344452,
        0.44208821654319763,
        0.026576092466711998,
        0.27377423644065857,
        0.11905255168676376,
        -0.9309176206588745,
        0.0354442298412323
      ],
      [
        0.2473098635673523,
        0.39611712098121643,
        0.3723553419113159,
        0.020921392366290092,
        0.25695979595184326,
        -0.543107271194458,
        0.1187114268541336,
        -0.3651794493198395,
        -0.06237266957759857,
        -0.243285670876503,
        -0.18131056427955627,
        -0.17793770134449005
      ],
      [
        0.10968177020549774,
        0.561625599861145,
        -0.05529522895812988,
        0.24539600312709808,
        -0.08909105509519577,
        0.13834886252880096,
        -0.8235468864440918,
        0.05400553345680237,
        -0.07230959832668304,
        0.2507961690425873,
        -0.49459800124168396,
        -0.18207436800003052
      ],
      [
        -0.029536087065935135,
        -0.09034841507673264,
        0.1297159045934677,
        -0.14617717266082764,
        0.7340436577796936,
        0.031115129590034485,
        0.19781522452831268,
        0.2463873326778412,
        -0.397418349981308,
        0.001404523034580052,
        0.31363484263420105,
        0.3769576847553253
      ],
      [
        0.5936718583106995,
        -0.040370095521211624,
        0.13723090291023254,
        -0.010068153031170368,
        -0.7076822519302368,
        0.15682943165302277,
        0.047078587114810944,
        -0.03283604234457016,
        -0.41629403829574585,
        -0.1877463012933731,
        0.3146553337574005,
        -0.08796001970767975
      ],
      [
        -0.42761164903640747,
        0.0401950478553772,
        0.2970872223377228,
        -0.08269110321998596,
        -0.34757164120674133,
        -0.40042516589164734,
        -0.06792730838060379,
        0.42784035205841064,
        0.15540650486946106,
        -0.1054638996720314,
        -0.3810838758945465,
        0.3869573473930359
      ],
      [
        0.23131656646728516,
        0.3403579294681549,
        -0.3233184218406677,
        -0.4039864242076874,
        -0.045827269554138184,
        -0.18197283148765564,
        -0.11255063861608505,
        0.4389077126979828,
        -0.5516772270202637,
        -0.08505678921937943,
        -0.10090048611164093,
        -0.1958998441696167
      ],
      [
        0.28320905566215515,
        -0.6768351793289185,
        0.1604839414358139,
        0.0675559714436531,
        -0.07556645572185516,
        0.19927003979682922,
        -0.1279360055923462,
        0.2843610942363739,
        -0.02159935235977173,
        -0.3958045542240143,
        -0.42785412073135376,
        -0.20114994049072266
      ],
      [
        0.32650241255760193,
        0.2442665994167328,
        -0.4159383177757263,
        0.08539700508117676,
        0.08627977222204208,
        0.11280863732099533,
        0.37757423520088196,
        -0.0982244461774826,
        0.5557758212089539,
        -0.2758696377277374,
        -0.33899205923080444,
        -0.23554624617099762
      ],
      [
        0.07778950035572052,
        -0.27123433351516724,
        0.16005155444145203,
        -0.5300179719924927,
        0.01627565734088421,
        -0.3383103311061859,
        0.35946124792099,
        -0.13974471390247345,
        0.3695463240146637,
        0.25639185309410095,
        0.06315605342388153,
        0.27244627475738525
      ],
      [
        0.3234952390193939,
        -0.41562265157699585,
        -0.29900750517845154,
        -0.05000723525881767,
        0.44330838322639465,
        -0.11194472759962082,
        -0.6223757863044739,
        -0.1928309053182602,
        0.13962014019489288,
        0.2034148871898651,
        0.14928992092609406,
        0.005706366151571274
      ],
      [
        -0.2401505708694458,
        0.19673065841197968,
        0.6159874796867371,
        -0.05803601071238518,
        0.22970543801784515,
        -0.24536845088005066,
        0.09917204827070236,
        0.08301310241222382,
        -0.10963637381792068,
        -0.4440562427043915,
        -0.11475104093551636,
        -0.25901100039482117
      ]
    ],
    "att.W_value.bias": null,
    "att.out_proj.weight": [
      [
        0.3251248896121979,
        0.20168013870716095,
        -0.47842520475387573,
        -0.2041783332824707,
        0.14480353891849518,
        -0.27956271171569824,
        -0.088730588555336,
        -0.12004268169403076,
        -0.5705084800720215,
        0.1439080387353897,
        -0.002293935976922512,
        0.19485172629356384
      ],
      [
        -0.07445471733808517,
        -0.07963547110557556,
        0.04176202416419983,
        0.6032500267028809,
        0.05138205364346504,
        -0.03369681537151337,
        -0.007617186289280653,
        0.4316060245037079,
        -0.12675315141677856,
        0.075795978307724,
        0.3086538314819336,
        -0.3590927720069885
      ],
      [
        0.0244571752846241,
        0.09316934645175934,
        0.6336823105812073,
        -0.0625535100698471,
        -0.1977761834859848,
        -0.29880836606025696,
        0.1943693906068802,
        0.09480194002389908,
        -0.3738669753074646,
        -0.25979846715927124,
        0.5531021952629089,
        -0.04459891468286514
      ],
      [
        -0.4464426338672638,
        0.10200750827789307,
        0.08927535265684128,
        0.23613697290420532,
        0.19938507676124573,
        -0.30954256653785706,
        -0.034954700618982315,
        -0.12028532475233078,
        -0.1820252686738968,
        0.037208862602710724,
        -0.26477113366127014,
        0.15499374270439148
      ],
      [
        -0.20835134387016296,
        0.34881797432899475,
        0.5246639251708984,
        -0.5015862584114075,
        0.4348612129688263,
        -0.044011190533638,
        -0.36194026470184326,
        0.13263162970542908,
        0.49887266755104065,
        0.09878478944301605,
        0.020755765959620476,
        -0.03692324087023735
      ],
      [
        0.4973422586917877,
        -0.10499127209186554,
        0.1550217568874359,
        -0.1675962507724762,
        -0.0641191378235817,
        0.5189967155456543,
        0.1995454877614975,
        0.06327075511217117,
        0.05720267817378044,
        0.30301040410995483,
        -0.15598183870315552,
        -0.14465366303920746
      ],
      [
        -0.562911868095398,
        -0.012253659777343273,
        -0.18115949630737305,
        -0.014570459723472595,
        -0.4584098160266876,
        0.34939783811569214,
        -0.40691953897476196,
        -0.10839914530515671,
        0.1333131492137909,
        0.44839808344841003,
        0.20899607241153717,
        0.16534800827503204
      ],
      [
        0.05218030512332916,
        0.24782882630825043,
        -0.13034190237522125,
        0.30791664123535156,
        -0.4553576707839966,
        -0.5419610738754272,
        -0.06898554414510727,
        -0.15447461605072021,
        0.41047683358192444,
        -0.09134596586227417,
        0.08178838342428207,
        0.03305923566222191
      ],
      [
        -0.17318671941757202,
        0.4278719127178192,
        -0.30136120319366455,
        0.021673819050192833,
        0.21050667762756348,
        0.3736329972743988,
        0.7320458889007568,
        0.23110441863536835,
        0.09782952070236206,
        -0.12473320960998535,
        -0.1274666041135788,
        0.6474330425262451
      ],
      [
        0.32080981135368347,
        -0.3008714020252228,
        -0.24202291667461395,
        -0.011168908327817917,
        -0.1293746829032898,
        -0.11694499850273132,
        -0.1388259083032608,
        0.37072303891181946,
        0.2248181700706482,
        -0.21688830852508545,
        -0.47323817014694214,
        0.07157677412033081
      ],
      [
        -0.17300079762935638,
        -0.6303837299346924,
        -0.22234182059764862,
        -0.19728818535804749,
        0.38328003883361816,
        -0.22984373569488525,
        0.21817101538181305,
        -0.6118003129959106,
        0.13263583183288574,
        0.17874157428741455,
        -0.14264003932476044,
        -0.38960111141204834
      ],
      [
        0.13801568746566772,
        -0.15848781168460846,
        0.44503119587898254,
        -0.36527755856513977,
        -0.3172164261341095,
        0.07419504225254059,
        -0.09053411334753036,
        -0.22098885476589203,
        -0.13526014983654022,
        -0.6914482712745667,
        -0.23682892322540283,
        -0.11674570292234421
      ]
    ],
    "att.out_proj.bias": [
      -0.05496338754892349,
      0.06396828591823578,
      0.1384563148021698,
      0.01392949465662241,
      0.04662485048174858,
      -0.00042103586019948125,
      0.03476168215274811,
      -0.003527277149260044,
      0.10520707815885544,
      -0.11950317770242691,
      0.010911475867033005,
      -0.08851170539855957
    ],
    "norm1.scale": [
      0.7176390290260315,
      0.6726809740066528,
      0.580415666103363,
      0.7776147127151489,
      0.8183906078338623,
      0.9381325244903564,
      0.9150404930114746,
      0.6135683059692383,
      0.7186374664306641,
      0.7031044363975525,
      0.6928057074546814,
      0.7012923359870911
    ],
    "norm1.shift": [
      0.06414356827735901,
      -0.005754929501563311,
      -0.14111605286598206,
      0.2263275384902954,
      -0.06006770208477974,
      0.17623285949230194,
      0.05810480937361717,
      -0.14265727996826172,
      0.15421812236309052,
      -0.3768187165260315,
      -0.18256115913391113,
      0.14781157672405243
    ],
    "norm2.scale": [
      0.7632773518562317,
      0.6844807267189026,
      0.7007747888565063,
      0.7494560480117798,
      0.6219358444213867,
      0.8410372138023376,
      0.675502598285675,
      0.6563103795051575,
      0.7537076473236084,
      0.7511125206947327,
      0.5730342268943787,
      0.6994552612304688
    ],
    "norm2.shift": [
      0.001040759263560176,
      -0.5020047426223755,
      -0.41021302342414856,
      0.04883889853954315,
      0.14302495121955872,
      0.24390389025211334,
      -0.8511648178100586,
      -0.1431247740983963,
      -0.09149341285228729,
      0.19126088917255402,
      -0.2756369709968567,
      -0.3904585540294647
    ],
    "ff.lin1.weight": [
      [
        0.16680556535720825,
        1.1377792358398438,
        0.3942060172557831,
        -0.03678019717335701,
        0.2256704717874527,
        -0.41548582911491394,
        0.39447009563446045,
        0.4556504786014557,
        -0.11249636858701706,
        0.023656172677874565,
        -0.6301465034484863,
        0.09944510459899902
      ],
      [
        0.1311291754245758,
        -0.07696253061294556,
        -0.10115823894739151,
        -0.10330885648727417,
        0.07448308169841766,
        -0.06234430894255638,
        0.5265132188796997,
        -0.23206591606140137,
        -0.47603246569633484,
        0.628362238407135,
        0.03846127539873123,
        0.6357604265213013
      ],
      [
        0.43373623490333557,
        0.024389496073126793,
        1.0257731676101685,
        0.13604898750782013,
        0.2730042040348053,
        0.017821557819843292,
        0.12102650851011276,
        0.1376328319311142,
        -0.48891082406044006,
        0.4694964289665222,
        -0.0032546352595090866,
        -0.3929024934768677
      ],
      [
        0.04065711423754692,
        -0.37621068954467773,
        0.3811579644680023,
        0.15252678096294403,
        0.2779477834701538,
        -0.03775046765804291,
        0.32642650604248047,
        -0.13174305856227875,
        0.33146989345550537,
        0.6144338846206665,
        -0.10099893063306808,
        -0.059084247797727585
      ],
      [
        0.1980801373720169,
        0.003888700157403946,
        -0.3532388508319855,
        -0.07021617889404297,
        -0.7167096734046936,
        0.2019670158624649,
        0.9260757565498352,
        -0.11542686820030212,
        0.4006301760673523,
        0.3996981084346771,
        0.5488431453704834,
        0.09327132999897003
      ],
      [
        0.2887750566005707,
        0.13364967703819275,
        -0.34715014696121216,
        -0.47578519582748413,
        0.02222931943833828,
        -0.7039015889167786,
        0.289298415184021,
        0.12813179194927216,
        0.4673241674900055,
        -0.0958523079752922,
        0.6728798151016235,
        0.12405495345592499
      ],
      [
        0.08444580435752869,
        0.5293488502502441,
        0.005850278772413731,
        0.23124420642852783,
        0.15561285614967346,
        -0.4244256913661957,
        0.3188225328922272,
        -0.08105573058128357,
        0.6486939787864685,
        -0.5259425044059753,
        -0.33362865447998047,
        -0.015876945108175278
      ],
      [
        -0.0319141186773777,
        -0.6055129766464233,
        0.7779893279075623,
        -0.4890284836292267,
        0.11124145239591599,
        0.1980373114347458,
        0.24353919923305511,
        -0.144938662648201,
        -0.09774386882781982,
        -0.04358910396695137,
        0.3893030285835266,
        0.08911539614200592
      ],
      [
        -0.1653836965560913,
        0.02195735275745392,
        0.10912492126226425,
        -0.6291792392730713,
        0.677746057510376,
        -0.6702117323875427,
        0.2779771685600281,
        0.4041929841041565,
        -0.0998610258102417,
        -0.20155908167362213,
        0.2909531891345978,
        0.2752159833908081
      ],
      [
        -0.1527916043996811,
        0.4038239121437073,
        0.26688942313194275,
        -0.16369971632957458,
        -0.10620607435703278,
        0.14715950191020966,
        0.8244810104370117,
        -0.13016217947006226,
        -0.251539409160614,
        0.7446169257164001,
        -0.2932890057563782,
        -0.3532339632511139
      ],
      [
        -0.5375348329544067,
        0.5684091448783875,
        -0.3731875717639923,
        -0.2950649857521057,
        -0.0014041224494576454,
        0.25675320625305176,
        0.3153795897960663,
        -0.3517649173736572,
        0.2061329185962677,
        0.1865389496088028,
        0.41268667578697205,
        0.14798219501972198
      ],
      [
        -0.1856185495853424,
        0.1586708277463913,
        0.3266008496284485,
        -0.31815701723098755,
        -0.3028486967086792,
        0.2202686220407486,
        0.11511630564928055,
        -0.2229316681623459,
        0.08832013607025146,
        0.08926153182983398,
        0.03628158941864967,
        0.6539413332939148
      ],
      [
        -0.027288397774100304,
        -0.217786967754364,
        0.057243674993515015,
        0.1912192702293396,
        -0.03211702033877373,
        -0.14439690113067627,
        0.4823870360851288,
        0.03409534692764282,
        0.017541738227009773,
        -0.5345510244369507,
        0.3395349383354187,
        1.0878496170043945
      ],
      [
        0.8229426145553589,
        -0.16091421246528625,
        -0.021207526326179504,
        0.10664108395576477,
        0.36321866512298584,
        -0.01024168636649847,
        0.1783803105354309,
        0.06214175745844841,
        0.22517839074134827,
        -0.13615132868289948,
        -0.12359700351953506,
        -0.14788633584976196
      ],
      [
        -0.5407589077949524,
        0.6708899736404419,
        0.04849456623196602,
        0.4401175379753113,
        0.06278715282678604,
        -0.1841641068458557,
        0.06282934546470642,
        -0.06425338238477707,
        0.012177950702607632,
        0.5032071471214294,
        0.006261531729251146,
        0.3097090721130371
      ],
      [
        -0.06807813048362732,
        0.4487473964691162,
        -0.3114910423755646,
        0.3229338228702545,
        -0.10029460489749908,
        -0.3974919319152832,
        0.7625601887702942,
        -0.20284903049468994,
        0.3651603162288666,
        0.0045293765142560005,
        0.4929432272911072,
        0.2653023302555084
      ],
      [
        0.2227926403284073,
        -0.02355821616947651,
        0.5328127145767212,
        -0.022296294569969177,
        0.3908393383026123,
        -0.6726669073104858,
        0.11822832375764847,
        -0.14370794594287872,
        0.5247519016265869,
        -0.19209922850131989,
        -0.28717270493507385,
        -0.03566606715321541
      ],
      [
        0.23482868075370789,
        0.6295186281204224,
        -0.07773379981517792,
        -0.29464319348335266,
        -0.3851223886013031,
        -0.029391832649707794,
        0.26687052845954895,
        -0.31418275833129883,
        0.2546975910663605,
        -0.40669453144073486,
        0.506874144077301,
        0.061223048716783524
      ],
      [
        -0.19958747923374176,
        0.060958512127399445,
        0.6816848516464233,
        0.10726597905158997,
        -0.042383141815662384,
        -0.2961481809616089,
        0.19605110585689545,
        -0.4264528155326843,
        0.33904269337654114,
        -0.1313171088695526,
        0.3492646813392639,
        0.08418631553649902
      ],
      [
        0.36387720704078674,
        -0.13692188262939453,
        0.1610976904630661,
        0.04139523208141327,
        0.2896295189857483,
        -0.7303913235664368,
        0.43870264291763306,
        0.02767052687704563,
        0.328580379486084,
        0.1613040268421173,
        -0.4276292026042938,
        0.5596284866333008
      ],
      [
        0.200829416513443,
        -0.044551510363817215,
        0.41482168436050415,
        0.21390217542648315,
        -0.034856267273426056,
        -0.10431569069623947,
        -0.07130831480026245,
        -0.40602341294288635,
        -0.12310490757226944,
        0.3767891526222229,
        -0.30980512499809265,
        0.37607017159461975
      ],
      [
        -0.34728220105171204,
        -0.04922187700867653,
        0.09436564892530441,
        -0.8103891611099243,
        0.16138190031051636,
        0.6669057011604309,
        0.40787917375564575,
        -0.15678860247135162,
        -0.13051171600818634,
        0.1646731197834015,
        0.23958559334278107,
        0.3199058175086975
      ],
      [
        -0.06277378648519516,
        0.07224947214126587,
        0.4743899405002594,
        -0.07928112149238586,
        0.20376789569854736,
        -0.03870110958814621,
        -0.016225896775722504,
        0.2689789831638336,
        0.2053622007369995,
        -0.11090975999832153,
        -0.004163403529673815,
        -0.4212515950202942
      ],
      [
        -0.6271057724952698,
        0.5450933575630188,
        0.3359644412994385,
        -0.44143837690353394,
        -0.17491988837718964,
        -0.1913936734199524,
        0.24841055274009705,
        0.11868906021118164,
        0.261283278465271,
        -0.595781147480011,
        0.33860671520233154,
        0.2791561484336853
      ],
      [
        0.12967200577259064,
        0.30372849106788635,
        -0.018079061061143875,
        -0.5205029845237732,
        -0.6159884929656982,
        -0.02581285499036312,
        0.21221648156642914,
        -0.18833966553211212,
        0.03388132527470589,
        0.7131485342979431,
        0.40728574991226196,
        0.02867860347032547
      ],
      [
        -0.4768413007259369,
        -0.185295969247818,
        -0.0887075886130333,
        0.27111631631851196,
        -0.022534631192684174,
        -0.5519534945487976,
        0.8237023949623108,
        0.27573922276496887,
        -0.22170889377593994,
        0.15937644243240356,
        0.43082600831985474,
        0.2924124598503113
      ],
      [
        -0.3067828416824341,
        0.32772505283355713,
        0.7341816425323486,
        -0.6402209997177124,
        -0.3499920666217804,
        -0.6333110332489014,
        0.9795997142791748,
        -0.11182019114494324,
        0.14974713325500488,
        -0.07173656672239304,
        0.16077132523059845,
        -0.15211935341358185
      ],
      [
        0.26959022879600525,
        -0.15144342184066772,
        0.29148101806640625,
        0.41693416237831116,
        0.3469984531402588,
        -0.21552914381027222,
        0.5541796684265137,
        -0.10252070426940918,
        -0.4964923560619354,
        0.3229324221611023,
        -0.17135471105575562,
        -0.20890866219997406
      ],
      [
        0.07535640895366669,
        0.4478069543838501,
        0.11314580589532852,
        0.18536630272865295,
        -0.5461057424545288,
        0.11770056188106537,
        -0.04627952724695206,
        0.3495520055294037,
        -0.5248373746871948,
        0.2913416624069214,
        -0.09672728925943375,
        0.7072588801383972
      ],
      [
        -0.0767027959227562,
        -0.1869540959596634,
        -0.019247420132160187,
        -0.03936665877699852,
        -0.3011431396007538,
        -0.06351714581251144,
        0.21842488646507263,
        0.5540880560874939,
        -0.028779620304703712,
        0.6092130541801453,
        0.16374439001083374,
        0.05380404368042946
      ],
      [
        0.7612643241882324,
        -0.015180404298007488,
        0.1318819522857666,
        -0.31840282678604126,
        0.17281295359134674,
        -0.04641057178378105,
        0.3237130045890808,
        0.2657870948314667,
        -0.2107715904712677,
        0.0007143895491026342,
        -0.0629519447684288,
        0.18234765529632568
      ],
      [
        0.031196169555187225,
        0.49415937066078186,
        -0.22889655828475952,
        0.04567686840891838,
        0.16976295411586761,
        0.07859013229608536,
        -0.16998432576656342,
        0.49330583214759827,
        -0.025676922872662544,
        -0.21683697402477264,
        -0.1099441647529602,
        0.3516547679901123
      ],
      [
        -0.10988202691078186,
        0.27345573902130127,
        -0.11571350693702698,
        -0.30098187923431396,
        -0.13220863044261932,
        -0.3868578374385834,
        0.38624581694602966,
        0.5694984793663025,
        0.37899699807167053,
        -0.03206934034824371,
        0.6189427375793457,
        -0.13128259778022766
      ],
      [
        -0.4616321623325348,
        0.6009358763694763,
        0.05210081487894058,
        0.1771286278963089,
        0.4467247724533081,
        0.421486496925354,
        0.7509876489639282,
        0.48039090633392334,
        -0.5779129266738892,
        -0.40096136927604675,
        -0.04326283186674118,
        0.6618024110794067
      ],
      [
        -0.17413878440856934,
        -0.019456325098872185,
        0.8154066801071167,
        -0.15051482617855072,
        -0.7739585638046265,
        0.04723517224192619,
        0.5040382146835327,
        0.14955638349056244,
        -0.07967982441186905,
        -0.18237338960170746,
        -0.19139301776885986,
        -0.13826985657215118
      ],
      [
        0.1360846608877182,
        0.3783634603023529,
        -0.2601534128189087,
        0.31808000802993774,
        -0.3069801926612854,
        -0.4456290900707245,
        0.12789788842201233,
        0.6574709415435791,
        0.3688054382801056,
        0.18907374143600464,
        -0.24654312431812286,
        0.10115078091621399
      ],
      [
        0.6361168026924133,
        0.36448028683662415,
        0.6336496472358704,
        0.12149401009082794,
        -0.6184496283531189,
        -0.18944516777992249,
        -0.11022595316171646,
        0.2649771571159363,
        0.05920296907424927,
        -0.27163058519363403,
        0.059876032173633575,
        -0.34432440996170044
      ],
      [
        0.4446384310722351,
        0.7813238501548767,
        -0.3561694025993347,
        -0.0032214384991675615,
        -0.09768760204315186,
        -0.01940305531024933,
        -0.23731845617294312,
        0.02823295257985592,
        0.11088007688522339,
        -0.04621703922748566,
        -0.019767530262470245,
        0.26157793402671814
      ],
      [
        0.5984966158866882,
        0.06627166271209717,
        -0.13333550095558167,
        0.07248349487781525,
        -0.8189043402671814,
        0.17941933870315552,
        0.15926383435726166,
        0.22055555880069733,
        0.27430063486099243,
        -0.11092261224985123,
        0.5352177619934082,
        0.21207797527313232
      ],
      [
        0.13654735684394836,
        0.19649241864681244,
        0.22259002923965454,
        0.27498841285705566,
        -0.057680707424879074,
        0.2764134109020233,
        0.6861478090286255,
        -0.2982061505317688,
        -0.1793639063835144,
        -0.227265402674675,
        0.19794605672359467,
        -0.5097048878669739
      ],
      [
        -0.3176768124103546,
        0.06082094833254814,
        0.28282034397125244,
        0.4356813430786133,
        -0.21041764318943024,
        0.14557187259197235,
        0.1367415189743042,
        0.6361504197120667,
        0.3564494252204895,
        -0.5501679182052612,
        0.16371884942054749,
        0.2745822072029114
      ],
      [
        0.22537314891815186,
        0.2821008861064911,
        0.5320777297019958,
        -0.03482627496123314,
        -0.5065100789070129,
        -0.6149698495864868,
        0.19397836923599243,
        0.0667870044708252,
        -0.6070621013641357,
        -0.22401182353496552,
        0.012254604138433933,
        0.3294960558414459
      ],
      [
        0.03867947682738304,
        -0.09618037194013596,
        0.3583851456642151,
        -0.6645329594612122,
        -0.1821417361497879,
        0.19242699444293976,
        0.38664859533309937,
        0.7431665658950806,
        0.0990455374121666,
        -0.17905084788799286,
        0.21615338325500488,
        0.05094407498836517
      ],
      [
        -0.19257888197898865,
        0.23230844736099243,
        0.19225308299064636,
        0.6046798825263977,
        -0.08597710728645325,
        0.09787096828222275,
        0.01730768010020256,
        -0.08571287989616394,
        -0.10718153417110443,
        -0.3698515295982361,
        0.014798243530094624,
        0.02895975299179554
      ],
      [
        -0.10711859911680222,
        0.09503021836280823,
        -0.19198858737945557,
        -0.013976923190057278,
        0.10934130102396011,
        -0.13137193024158478,
        -0.10096456855535507,
        -0.15454217791557312,
        0.2569502294063568,
        0.4336775541305542,
        0.5416117310523987,
        0.2137729525566101
      ],
      [
        0.07375713437795639,
        0.02625279314815998,
        -0.27310487627983093,
        -0.22859534621238708,
        -0.0026916861534118652,
        0.5048326253890991,
        0.5483044385910034,
        -0.12257196754217148,
        0.3593306839466095,
        0.011604988016188145,
        -0.232260063290596,
        0.614294707775116
      ],
      [
        0.2570919096469879,
        0.2820696234703064,
        0.26496750116348267,
        -0.13859307765960693,
        0.09845554083585739,
        -0.4855782687664032,
        -0.25453102588653564,
        0.7844207286834717,
        -0.11507847905158997,
        0.10848207771778107,
        -0.03131586313247681,
        -0.4063732624053955
      ],
      [
        -0.05354619771242142,
        -0.2923847734928131,
        0.006496896967291832,
        0.04824276268482208,
        0.01086405199021101,
        -0.09513124078512192,
        0.48569586873054504,
        0.21737663447856903,
        -0.5718752145767212,
        -0.13958069682121277,
        0.45531007647514343,
        0.06583031266927719
      ]
    ],
    "ff.lin1.bias": [
      -0.7237350344657898,
      -0.48994046449661255,
      -1.0528264045715332,
      -0.5808946490287781,
      -0.7079898118972778,
      -0.20864428579807281,
      -0.4217280149459839,
      -0.5227939486503601,
      -0.6027054190635681,
      -0.47672930359840393,
      -0.6486300230026245,
      -0.5111402273178101,
      -0.6435427069664001,
      -0.6071295738220215,
      -0.5204406380653381,
      -0.21063625812530518,
      -0.8166418671607971,
      -0.2994295060634613,
      -0.12898392975330353,
      -0.38591691851615906,
      -0.6712568402290344,
      -0.6969211101531982,
      -0.2151699662208557,
      -0.32428014278411865,
      -0.5750381946563721,
      -0.30300432443618774,
      -0.19387343525886536,
      -0.4547518491744995,
      -0.7781432271003723,
      -0.564326822757721,
      -0.2825073003768921,
      -0.42743974924087524,
      -0.7442433834075928,
      -1.0723658800125122,
      -0.1657906025648117,
      -0.25590020418167114,
      -0.5944244861602783,
      -0.38523831963539124,
      -0.5349195599555969,
      -0.4282817244529724,
      -0.8902036547660828,
      -0.4913806915283203,
      -0.4136204123497009,
      -0.4069492816925049,
      -0.5450975298881531,
      -0.6005220413208008,
      -0.7761113047599792,
      -0.43260860443115234
    ],
    "ff.lin2.weight": [
      [
        -0.12300828844308853,
        0.2667348086833954,
        -0.17818084359169006,
        0.007120531052350998,
        -0.11955780535936356,
        -0.14683778584003448,
        0.06943941116333008,
        -0.16510190069675446,
        -0.21409116685390472,
        -0.11802898347377777,
        0.3771951198577881,
        -0.1919710338115692,
        0.27975961565971375,
        0.10033071786165237,
        -0.01074372511357069,
        0.32756564021110535,
        0.1387540102005005,
        -0.06484794616699219,
        -0.053567565977573395,
        -0.2640753388404846,
        -0.2102094143629074,
        -0.017359139397740364,
        -0.38695812225341797,
        0.12572966516017914,
        -0.27106863260269165,
        0.3364476263523102,
        0.347857803106308,
        -0.20034122467041016,
        -0.17150886356830597,
        0.11809549480676651,
        0.18272072076797485,
        -0.16340234875679016,
        -0.0027903157752007246,
        -0.6464764475822449,
        0.04137737303972244,
        -0.21278397738933563,
        -0.16943149268627167,
        0.15517117083072662,
        -0.032842833548784256,
        0.01738533191382885,
        0.171408012509346,
        0.5230843424797058,
        0.02516629733145237,
        -0.07793187350034714,
        0.08595501631498337,
        -0.13974474370479584,
        -0.03075840324163437,
        0.053624410182237625
      ],
      [
        -0.6791414022445679,
        0.4270637333393097,
        -0.2396409660577774,
        0.14334964752197266,
        -0.4147070050239563,
        0.03544047474861145,
        -0.02670946530997753,
        -0.22230905294418335,
        0.18506993353366852,
        -0.32988840341567993,
        0.07733780890703201,
        0.11472359299659729,
        -0.13387680053710938,
        -0.04961993917822838,
        0.06423360854387283,
        0.06279423087835312,
        -0.09132622182369232,
        0.41738054156303406,
        -0.07803414762020111,
        -0.32906368374824524,
        0.19070479273796082,
        -0.05166085436940193,
        0.18336577713489532,
        0.3358073830604553,
        -0.03786400705575943,
        -0.18686456978321075,
        -0.19646835327148438,
        0.14666740596294403,
        0.0342191606760025,
        -0.39237692952156067,
        -0.35265424847602844,
        -0.29086801409721375,
        0.15866971015930176,
        0.31413373351097107,
        -0.02009711042046547,
        -0.12259650975465775,
        -0.12669968605041504,
        0.08274918794631958,
        0.03248685598373413,
        0.24448131024837494,
        -0.3213917315006256,
        0.08576586842536926,
        0.14025650918483734,
        -0.2042711228132248,
        0.044543053954839706,
        0.013609825633466244,
        -0.06851143389940262,
        0.03535393252968788
      ],
      [
        0.02878287434577942,
        0.1211586594581604,
        0.2519203722476959,
        0.38601449131965637,
        -0.2763484716415405,
        -0.2914234399795532,
        0.28022322058677673,
        0.1757081001996994,
        0.0605427511036396,
        0.0968262180685997,
        -0.25366994738578796,
        0.18286746740341187,
        0.2307264804840088,
        0.41029468178749084,
        0.09729394316673279,
        -0.7178242206573486,
        0.6158838868141174,
        -0.128581702709198,
        -0.053057875484228134,
        -0.08046314865350723,
        -0.252242773771286,
        0.11542767286300659,
        0.07944630831480026,
        -0.024981170892715454,
        0.004278659354895353,
        -0.41773727536201477,
        0.11800748854875565,
        0.17565278708934784,
        -0.0754053071141243,
        0.1314994990825653,
        -0.10960091650485992,
        0.16405946016311646,
        -0.507608950138092,
        0.11188865453004837,
        0.5142536163330078,
        0.021416500210762024,
        0.09569333493709564,
        0.30923137068748474,
        -0.3763347268104553,
        0.1023082435131073,
        -0.23764048516750336,
        -0.22568342089653015,
        -0.29884400963783264,
        -0.3013412654399872,
        0.05363507196307182,
        -0.1866057813167572,
        0.4140329360961914,
        -0.02520923502743244
      ],
      [
        -0.24345313012599945,
        -0.013538053259253502,
        -0.3367418348789215,
        0.009371135383844376,
        0.264098197221756,
        -0.05376387760043144,
        -0.29238831996917725,
        -0.21420800685882568,
        -0.10464051365852356,
        0.12661442160606384,
        0.2222275286912918,
        -0.13683201372623444,
        0.07171735912561417,
        0.31044262647628784,
        -0.1972823590040207,
        0.10153183341026306,
        -0.133760467171669,
        -0.02003541588783264,
        0.1577490270137787,
        0.015979912132024765,
        0.18462806940078735,
        0.34448301792144775,
        -0.009891786612570286,
        0.28081467747688293,
        0.004902833141386509,
        0.4692271053791046,
        0.24539509415626526,
        0.22961832582950592,
        -0.2555176317691803,
        0.08600958436727524,
        0.11072085797786713,
        0.15134774148464203,
        -0.09044814854860306,
        -0.07969183474779129,
        -0.03826569765806198,
        -0.06793510168790817,
        0.391223669052124,
        0.0396723598241806,
        -0.3094685971736908,
        -0.33703142404556274,
        -0.03554252162575722,
        -0.00958984810858965,
        -0.3137645125389099,
        0.05889570713043213,
        -0.20750059187412262,
        0.21514882147312164,
        -0.4834326207637787,
        0.009103064425289631
      ],
      [
        -0.011826743371784687,
        -0.19989074766635895,
        0.25996771454811096,
        0.08377387374639511,
        0.1620301753282547,
        -0.23942802846431732,
        0.07264924794435501,
        0.40653863549232483,
        -0.015485871583223343,
        0.01726078800857067,
        0.17774595320224762,
        0.023001043125987053,
        -0.3007428050041199,
        0.07493147253990173,
        0.07067634910345078,
        0.373420774936676,
        0.21302886307239532,
        0.09471506625413895,
        0.03726989030838013,
        0.20017968118190765,
        -0.14415781199932098,
        0.18750505149364471,
        -0.15806147456169128,
        -0.4484254717826843,
        0.1457434445619583,
        -0.3081018030643463,
        -0.4206799566745758,
        -0.35401904582977295,
        0.1957300752401352,
        0.13540855050086975,
        0.15493783354759216,
        -0.12153974175453186,
        0.20028609037399292,
        0.031895712018013,
        -0.5097907185554504,
        0.056577496230602264,
        -0.23604834079742432,
        -0.2617338299751282,
        0.20237845182418823,
        -0.05723505839705467,
        -0.23791545629501343,
        0.38863757252693176,
        -0.1525435596704483,
        0.053549230098724365,
        0.11667550355195999,
        -0.2802726626396179,
        0.561533510684967,
        -0.0789451003074646
      ],
      [
        0.5463687181472778,
        -0.1159178614616394,
        -0.4312126636505127,
        -0.26131942868232727,
        -0.027964895591139793,
        -0.011283855885267258,
        -0.3862566351890564,
        -0.1246175542473793,
        0.43212443590164185,
        -0.03927076607942581,
        -0.01165997888892889,
        0.1631154716014862,
        0.3375421464443207,
        -0.23621301352977753,
        0.15727506577968597,
        -0.36705508828163147,
        0.13204331696033478,
        -0.05655820295214653,
        -0.314091295003891,
        -0.22731533646583557,
        0.06583897024393082,
        0.07664527744054794,
        -0.07213917374610901,
        0.2727052867412567,
        0.04015307128429413,
        0.2002633661031723,
        -0.5614317655563354,
        0.1637030392885208,
        0.021975627169013023,
        -0.1555202603340149,
        -0.007136031985282898,
        0.0519077330827713,
        -0.02405863255262375,
        -0.250316858291626,
        -0.007997551001608372,
        -0.33774855732917786,
        -0.4301852881908417,
        -0.2868518531322479,
        0.1667812168598175,
        0.09100169688463211,
        0.13933946192264557,
        0.02558102458715439,
        0.21600167453289032,
        -0.04099143296480179,
        0.2724321782588959,
        0.1480204164981842,
        -0.1554119884967804,
        0.48090028762817383
      ],
      [
        -0.15694133937358856,
        0.013052188791334629,
        0.10417888313531876,
        -0.04668467119336128,
        0.25406762957572937,
        0.24345555901527405,
        -0.41012242436408997,
        -0.16078417003154755,
        -0.4379957914352417,
        0.2847427427768707,
        0.17399130761623383,
        0.22423085570335388,
        0.12535862624645233,
        0.018531516194343567,
        -0.44158118963241577,
        0.0940627008676529,
        -0.46785783767700195,
        -0.16167175769805908,
        0.3220789134502411,
        -0.15411604940891266,
        0.16967907547950745,
        0.2913669943809509,
        0.03349993750452995,
        -0.2674545645713806,
        -0.4269774556159973,
        -0.0790097564458847,
        0.2762131094932556,
        -0.003146091476082802,
        0.449362188577652,
        -0.28837206959724426,
        0.1433544009923935,
        0.19775338470935822,
        0.19105803966522217,
        -0.4028846025466919,
        -0.18708272278308868,
        0.36412471532821655,
        -0.04315256327390671,
        0.21724845468997955,
        0.2056530863046646,
        0.25688156485557556,
        0.05395239219069481,
        -0.2342136949300766,
        -0.23024646937847137,
        0.19948624074459076,
        0.013575663790106773,
        -0.08607262372970581,
        0.18036840856075287,
        -0.42632851004600525
      ],
      [
        -0.07101515680551529,
        0.23399917781352997,
        0.34748363494873047,
        -0.184265598654747,
        0.4867110848426819,
        -0.15227602422237396,
        0.4138656258583069,
        0.3875220715999603,
        -0.6174008250236511,
        0.06527151167392731,
        -0.19483289122581482,
        -0.1177482008934021,
        0.4018779695034027,
        -0.2533332109451294,
        -0.10473532974720001,
        0.09235672652721405,
        0.2957223951816559,
        0.22425515949726105,
        0.023612935096025467,
        -0.03849863260984421,
        -0.06283873319625854,
        -0.09948182851076126,
        0.3901299834251404,
        0.09297648072242737,
        -0.042518772184848785,
        -0.05531483516097069,
        -0.08501344174146652,
        0.0403030700981617,
        0.2351331114768982,
        -0.18369437754154205,
        -0.12616696953773499,
        0.06601406633853912,
        0.10537975281476974,
        0.19802843034267426,
        -0.12392999976873398,
        0.028448129072785378,
        0.07395634055137634,
        0.12645913660526276,
        0.11312548071146011,
        -0.34155136346817017,
        0.1496983915567398,
        -0.4102479815483093,
        0.5116817951202393,
        -0.2714499831199646,
        -0.21312715113162994,
        -0.0874517410993576,
        -0.15651655197143555,
        0.010412121191620827
      ],
      [
        0.22907014191150665,
        -0.5496537685394287,
        -0.19968478381633759,
        0.04225826635956764,
        0.24017484486103058,
        -0.29690560698509216,
        0.08726482093334198,
        0.0019817068241536617,
        0.3628813326358795,
        -0.37317439913749695,
        -0.13663607835769653,
        0.022307582199573517,
        -0.20744600892066956,
        -0.03189977630972862,
        -0.17424404621124268,
        0.14467619359493256,
        -0.35320743918418884,
        -0.016387194395065308,
        -0.11453946679830551,
        0.5333674550056458,
        0.09829524904489517,
        -0.23787689208984375,
        0.10041696578264236,
        0.04760712757706642,
        0.2961990237236023,
        0.26519614458084106,
        0.7080608606338501,
        -0.42723092436790466,
        -0.28761056065559387,
        0.08162661641836166,
        0.02193661965429783,
        -0.1460377275943756,
        -0.25891542434692383,
        -1.2129807472229004,
        0.49937957525253296,
        -0.1855771392583847,
        -0.1901940256357193,
        0.14166259765625,
        -0.16107279062271118,
        0.08957189321517944,
        0.2173391729593277,
        -0.15334993600845337,
        0.1286037713289261,
        0.17768670618534088,
        -0.014945135451853275,
        0.3238176107406616,
        -0.2613566517829895,
        -0.29821696877479553
      ],
      [
        0.5443272590637207,
        0.019407540559768677,
        0.4142225682735443,
        0.15217283368110657,
        -0.364927738904953,
        -0.04843130707740784,
        -0.023824872449040413,
        -0.09799493104219437,
        -0.03440428525209427,
        -0.05438534542918205,
        -0.5308418869972229,
        0.04759286716580391,
        -0.11044642329216003,
        -0.1119573786854744,
        -0.09317336231470108,
        -0.16943980753421783,
        -0.4278469383716583,
        0.045678477734327316,
        -0.12199022620916367,
        0.023924341425299644,
        0.1558048278093338,
        0.1468064934015274,
        0.08668418228626251,
        0.38810721039772034,
        0.07016350328922272,
        -0.17367279529571533,
        -0.6949220895767212,
        -0.019882434979081154,
        0.16736412048339844,
        0.2971239686012268,
        0.0018852371722459793,
        -0.3524676561355591,
        0.165385901927948,
        0.20451918244361877,
        -0.2645050287246704,
        0.3047638535499573,
        0.2795087993144989,
        -0.14533865451812744,
        0.2742934823036194,
        -0.0021139835007488728,
        0.3013494610786438,
        0.14592395722866058,
        -0.02764435112476349,
        -0.06709373742341995,
        -0.13147194683551788,
        0.1903175413608551,
        -0.17019455134868622,
        0.227399542927742
      ],
      [
        0.069976307451725,
        -0.006565550807863474,
        -0.04010680690407753,
        0.1493958979845047,
        0.5552710890769958,
        1.0153563022613525,
        0.041365884244441986,
        0.15769436955451965,
        -0.30158892273902893,
        0.3905898630619049,
        0.04923660680651665,
        -0.11074355989694595,
        -0.27988147735595703,
        0.019369298592209816,
        0.15133324265480042,
        0.14986738562583923,
        -0.027728287503123283,
        -0.1829497218132019,
        0.12233622372150421,
        -0.05366141349077225,
        -0.04176364839076996,
        -0.5209363698959351,
        -0.023373737931251526,
        -0.16632547974586487,
        0.32542240619659424,
        -0.19232545793056488,
        0.4577719271183014,
        0.10146083682775497,
        -0.3712159991264343,
        -0.16186565160751343,
        0.11759092658758163,
        -0.028384096920490265,
        0.16282254457473755,
        0.1292443424463272,
        0.3042868971824646,
        0.19743871688842773,
        0.09205713123083115,
        -0.21860647201538086,
        -0.20460811257362366,
        0.10084236413240433,
        -0.04132657125592232,
        -0.12265753000974655,
        0.05377043038606644,
        0.18961840867996216,
        0.30995988845825195,
        0.04298583045601845,
        0.03167521581053734,
        -0.13625860214233398
      ],
      [
        -0.12612088024616241,
        -0.19961927831172943,
        -0.09234555065631866,
        -0.2338734269142151,
        -0.14539921283721924,
        0.1571422815322876,
        0.09116652607917786,
        -0.1614122837781906,
        0.6018056869506836,
        0.025232482701539993,
        -0.09025944024324417,
        -0.17361393570899963,
        -0.5729278326034546,
        -0.161464124917984,
        0.6281196475028992,
        0.1034562736749649,
        0.09218283742666245,
        -0.1868198961019516,
        0.2137221097946167,
        0.3997116982936859,
        -0.11524216830730438,
        -0.31219378113746643,
        -0.15662606060504913,
        -0.4866560697555542,
        -0.1601487398147583,
        0.049340154975652695,
        0.33284106850624084,
        -0.1980988085269928,
        0.2884311079978943,
        0.07167364656925201,
        -0.1779809296131134,
        0.1810614913702011,
        0.16601917147636414,
        0.5508326292037964,
        0.35584360361099243,
        -0.11364077031612396,
        0.37401726841926575,
        0.14227783679962158,
        -0.10468094795942307,
        0.009957856498658657,
        -0.2692113518714905,
        -0.20918309688568115,
        0.1637515425682068,
        0.2483767569065094,
        -0.10552391409873962,
        -0.4066685438156128,
        0.03417414799332619,
        -0.1046796664595604
      ]
    ],
    "ff.lin2.bias": [
      -0.1429382562637329,
      -0.03482368588447571,
      0.0015776923391968012,
      0.0325908437371254,
      0.03372909501194954,
      -0.09093716740608215,
      0.12260399013757706,
      0.12068114429712296,
      -0.2269177883863449,
      0.03118767775595188,
      0.17504791915416718,
      0.02994752861559391
    ]
  }
}