{
  "tok_emb.weight": [
    [
      0.9660688042640686,
      0.3204578757286072,
      -1.4906936883926392,
      0.05447683855891228,
      -0.5377556681632996,
      -0.7237316966056824,
      0.1904115080833435,
      -2.1449780464172363,
      -0.44002243876457214,
      0.47974732518196106,
      0.171650692820549,
      -1.5444492101669312
    ],
    [
      0.3847735524177551,
      -0.9055583477020264,
      -0.6026675701141357,
      -0.21293233335018158,
      -0.7442224025726318,
      -0.02642030268907547,
      -0.030716707929968834,
      -0.06514879316091537,
      0.36288779973983765,
      0.24913755059242249,
      1.1282902956008911,
      -0.36833930015563965
    ],
    [
      0.9519270062446594,
      -0.5584022998809814,
      -0.8517832159996033,
      -0.4155849814414978,
      0.1492571234703064,
      -0.12572157382965088,
      -0.1568441241979599,
      -0.2012711465358734,
      0.3699929714202881,
      0.8679189085960388,
      -0.24812355637550354,
      0.1094285324215889
    ],
    [
      -0.3047869801521301,
      2.000213623046875,
      -0.5537431240081787,
      0.251008540391922,
      1.241916298866272,
      -0.5049194097518921,
      -1.3903473615646362,
      0.4354475736618042,
      0.4748166799545288,
      0.4790973961353302,
      -0.4399223327636719,
      0.9386585354804993
    ],
    [
      -0.2119874358177185,
      -0.9144263863563538,
      -0.8778113126754761,
      0.7241951823234558,
      0.9579433798789978,
      -0.23314091563224792,
      0.38497671484947205,
      0.058490365743637085,
      1.088266134262085,
      -0.6787461638450623,
      0.8830617666244507,
      -0.2943677008152008
    ],
    [
      0.7747401595115662,
      0.40254876017570496,
      0.8175214529037476,
      0.4777989983558655,
      0.8358408212661743,
      0.20568163692951202,
      1.0417985916137695,
      -3.0056943893432617,
      -0.563491940498352,
      -0.1800568848848343,
      0.07432500272989273,
      -2.5946695804595947
    ],
    [
      0.3847699761390686,
      -0.2502189874649048,
      1.2358306646347046,
      1.590724229812622,
      0.46255770325660706,
      0.7061930894851685,
      0.7773721218109131,
      -1.8877791166305542,
      0.9172274470329285,
      -1.862953543663025,
      -1.658273696899414,
      -0.2976374924182892
    ],
    [
      -0.11567451059818268,
      -0.2679802179336548,
      0.056889209896326065,
      -0.4524233639240265,
      1.5048624277114868,
      0.5908586978912354,
      0.05300871655344963,
      -0.9999377727508545,
      -0.4389173686504364,
      0.6667710542678833,
      1.077062964439392,
      -1.2910667657852173
    ],
    [
      -1.843322515487671,
      0.6776626706123352,
      -0.2914949357509613,
      0.7432171702384949,
      1.530889630317688,
      -0.17008784413337708,
      0.6985723376274109,
      -3.515918016433716,
      -0.43452537059783936,
      0.28682002425193787,
      -0.36876583099365234,
      2.8225183486938477
    ],
    [
      1.3034549951553345,
      -2.0283467769622803,
      -1.475003957748413,
      1.509954810142517,
      -0.5180609822273254,
      0.3231259286403656,
      1.4465811252593994,
      0.34432488679885864,
      -1.2320269346237183,
      0.24853400886058807,
      1.3079767227172852,
      -1.394836187362671
    ],
    [
      -0.1808142364025116,
      0.671652615070343,
      -0.7498891949653625,
      0.8255085945129395,
      -2.3349058628082275,
      -0.8936598896980286,
      0.6485349535942078,
      1.5943055152893066,
      0.6579815745353699,
      0.24150709807872772,
      0.9065682888031006,
      -1.392866849899292
    ],
    [
      1.9350273609161377,
      -1.2297805547714233,
      0.6299363970756531,
      -2.0595204830169678,
      -1.361770749092102,
      -0.4924502670764923,
      -0.5127946138381958,
      -1.0976917743682861,
      2.292888879776001,
      0.12057486176490784,
      -0.09556490927934647,
      0.20780763030052185
    ],
    [
      0.36274483799934387,
      -0.40630337595939636,
      -1.0200188159942627,
      0.20734959840774536,
      -0.2771663963794708,
      -2.7802274227142334,
      1.3315463066101074,
      -0.9784954786300659,
      0.7823005318641663,
      -0.2276003509759903,
      0.18523357808589935,
      0.13294415175914764
    ],
    [
      0.493924081325531,
      0.12118002027273178,
      -1.5097507238388062,
      -0.28865522146224976,
      0.33300405740737915,
      -0.11689334362745285,
      0.5572972297668457,
      1.7974913120269775,
      -1.3383475542068481,
      0.9265989661216736,
      -0.09448111057281494,
      -0.9467886090278625
    ],
    [
      -2.308344841003418,
      0.9102231860160828,
      0.6659978032112122,
      1.2407293319702148,
      -1.1309187412261963,
      -0.6203866004943848,
      0.6965137720108032,
      0.9780072569847107,
      -0.9499521255493164,
      -0.3858887553215027,
      0.6225922107696533,
      0.8120211362838745
    ],
    [
      0.38430607318878174,
      -1.6014080047607422,
      0.2934587895870209,
      -0.26392996311187744,
      0.1137353777885437,
      0.49634528160095215,
      -0.7649614214897156,
      1.3304808139801025,
      -0.333237886428833,
      2.0253372192382812,
      0.4511401355266571,
      0.5622346997261047
    ],
    [
      0.590631902217865,
      -0.07178045809268951,
      0.5386015772819519,
      0.6960543990135193,
      -1.0326908826828003,
      0.8950296640396118,
      -0.16204479336738586,
      0.9378055334091187,
      -1.8396151065826416,
      -0.4974974989891052,
      -0.8305955529212952,
      0.7984405755996704
    ],
    [
      1.238211989402771,
      0.9448748230934143,
      -0.5474204421043396,
      0.4538734257221222,
      -1.0636883974075317,
      0.012371816672384739,
      -0.694928765296936,
      0.5330612659454346,
      -0.2531386911869049,
      -0.92975914478302,
      -0.16327990591526031,
      0.09140640497207642
    ],
    [
      -1.2148678302764893,
      -0.6908507943153381,
      -2.67718768119812,
      1.4015189409255981,
      1.4629215002059937,
      1.6710002422332764,
      0.7249614596366882,
      1.4256398677825928,
      -2.332071542739868,
      1.5642619132995605,
      1.7904670238494873,
      -0.29939010739326477
    ],
    [
      -2.049347162246704,
      0.06796891242265701,
      0.8779113292694092,
      0.4058012068271637,
      -1.66304349899292,
      0.45983579754829407,
      -0.24726927280426025,
      0.8312419056892395,
      1.643092393875122,
      1.9569363594055176,
      -1.3395906686782837,
      -0.4497584402561188
    ],
    [
      -0.9768460988998413,
      1.8468929529190063,
      -0.4440171420574188,
      -0.047000449150800705,
      -0.31204694509506226,
      -1.4439518451690674,
      -1.6024887561798096,
      1.2351006269454956,
      0.52855384349823,
      0.25239720940589905,
      0.8684679865837097,
      0.14569659531116486
    ],
    [
      1.719222903251648,
      0.29624342918395996,
      -2.0101523399353027,
      -0.23443739116191864,
      -1.4002236127853394,
      0.8451933264732361,
      1.2511637210845947,
      2.366919755935669,
      0.5460136532783508,
      -0.10254684090614319,
      0.8598049283027649,
      -0.649320125579834
    ],
    [
      -0.2651444375514984,
      0.017631344497203827,
      0.7192366123199463,
      -0.13291625678539276,
      -0.08277725428342819,
      0.7093170881271362,
      -1.3507710695266724,
      0.9088693857192993,
      -2.103729486465454,
      -0.8141801357269287,
      -1.2802928686141968,
      0.07210302352905273
    ],
    [
      -1.628870964050293,
      2.1389968395233154,
      -0.5655772089958191,
      1.2190607786178589,
      1.6269482374191284,
      -1.0506234169006348,
      2.2914953231811523,
      -0.035588767379522324,
      -1.7079966068267822,
      -1.520703911781311,
      0.28621965646743774,
      -3.774190664291382
    ],
    [
      -1.2109578847885132,
      -0.8748300671577454,
      0.2671240270137787,
      0.8858622908592224,
      1.3148609399795532,
      -2.043536424636841,
      -0.04682464525103569,
      -1.166337013244629,
      1.344874382019043,
      0.43718594312667847,
      1.6547619104385376,
      0.14414063096046448
    ],
    [
      0.2845136821269989,
      -0.7177081108093262,
      -1.056993842124939,
      2.83604097366333,
      -2.2784268856048584,
      1.2793046236038208,
      0.1092616468667984,
      -1.0755791664123535,
      -0.2600996792316437,
      0.3246881663799286,
      1.770201325416565,
      -0.40497949719429016
    ],
    [
      -2.240814447402954,
      2.306199312210083,
      -0.8875433206558228,
      -0.42312151193618774,
      0.2661212086677551,
      -1.2836118936538696,
      -1.938134789466858,
      0.5223720669746399,
      1.0687421560287476,
      -0.31901416182518005,
      2.240992307662964,
      -0.847373366355896
    ],
    [
      -0.888565719127655,
      -1.3904855251312256,
      1.8784667253494263,
      -1.260143518447876,
      -1.2825230360031128,
      -0.10723703354597092,
      2.427468776702881,
      0.933006763458252,
      -1.024536371231079,
      -0.614648699760437,
      0.8810982704162598,
      -1.1103519201278687
    ],
    [
      -0.367106169462204,
      -1.2465888261795044,
      -0.5982671976089478,
      0.722154974937439,
      -0.247964546084404,
      -0.7331678867340088,
      0.722568690776825,
      -0.7815273404121399,
      -0.08329478651285172,
      0.7302762866020203,
      1.3827556371688843,
      0.9856722354888916
    ],
    [
      -2.506065607070923,
      -0.5494997501373291,
      0.4817608594894409,
      0.03720809519290924,
      -0.033156316727399826,
      -0.1502285748720169,
      1.628989338874817,
      0.7068484425544739,
      -1.1357698440551758,
      0.5340964794158936,
      -0.43941953778266907,
      0.8045494556427002
    ],
    [
      -0.5669112205505371,
      -0.14042118191719055,
      -3.5149989128112793,
      2.544175624847412,
      0.05542847514152527,
      1.2951831817626953,
      1.2753132581710815,
      0.43198686838150024,
      0.7769356966018677,
      -0.37740325927734375,
      0.2747006416320801,
      -0.884468138217926
    ],
    [
      0.2539028525352478,
      0.5708916783332825,
      -0.1682789921760559,
      0.03356178477406502,
      -0.5339253544807434,
      -1.0573567152023315,
      -0.15745507180690765,
      2.4045796394348145,
      1.1440234184265137,
      -1.975143313407898,
      0.6090917587280273,
      1.9992194175720215
    ],
    [
      -1.5342906713485718,
      -0.7596668004989624,
      -1.4139893054962158,
      0.657631516456604,
      0.3449491858482361,
      -0.3347229063510895,
      0.8647118210792542,
      0.11343168467283249,
      0.9055856466293335,
      0.35006988048553467,
      0.5279983878135681,
      0.28810879588127136
    ],
    [
      0.6789295077323914,
      0.1785515695810318,
      1.2487540245056152,
      0.19145624339580536,
      -0.7527661919593811,
      0.8655160069465637,
      -0.4437374770641327,
      -0.16967611014842987,
      -0.2120770663022995,
      0.11261726915836334,
      -0.1691959947347641,
      0.8289970755577087
    ],
    [
      -0.44100221991539,
      -1.562038540840149,
      -0.9595102071762085,
      0.3658876419067383,
      -0.10555502772331238,
      -2.0437703132629395,
      -0.28269070386886597,
      0.2241356521844864,
      0.021751105785369873,
      2.2204413414001465,
      2.7764670848846436,
      0.928598940372467
    ],
    [
      -1.0117086172103882,
      0.4207009971141815,
      1.7978837490081787,
      -0.81158447265625,
      0.12200027704238892,
      -0.465057909488678,
      -1.324790120124817,
      -0.8643825650215149,
      0.10884582996368408,
      0.14913947880268097,
      1.1841970682144165,
      1.3314028978347778
    ],
    [
      0.21381983160972595,
      0.7321797609329224,
      -0.326782763004303,
      -0.9513378739356995,
      -0.47800499200820923,
      1.0731096267700195,
      -1.5085994005203247,
      0.17886678874492645,
      0.5751084089279175,
      0.5108839869499207,
      -1.7728101015090942,
      -0.7005057334899902
    ],
    [
      2.074831962585449,
      -1.3127987384796143,
      0.38429781794548035,
      -0.7809982895851135,
      -0.5201511979103088,
      -0.8175099492073059,
      -1.1624901294708252,
      -1.2275460958480835,
      2.056871175765991,
      0.9124120473861694,
      -1.567873239517212,
      1.407715082168579
    ],
    [
      1.3351070880889893,
      0.21957933902740479,
      -0.18578417599201202,
      -0.2255420833826065,
      -0.48441484570503235,
      -0.41026172041893005,
      -0.42674389481544495,
      -0.4006466865539551,
      0.24057307839393616,
      1.4427545070648193,
      1.1483744382858276,
      -1.3278769254684448
    ],
    [
      1.655773639678955,
      -0.1350138783454895,
      1.1123988628387451,
      -1.213611125946045,
      -0.9568876028060913,
      -1.6448924541473389,
      -1.712767243385315,
      0.410902202129364,
      1.8514196872711182,
      -0.9682883024215698,
      1.375097393989563,
      -0.3170872926712036
    ],
    [
      0.4085884392261505,
      -0.057289306074380875,
      -0.8589841723442078,
      -0.38034549355506897,
      -1.126712679862976,
      -0.49592071771621704,
      0.6220987439155579,
      0.7872684001922607,
      -0.46014806628227234,
      0.4483543932437897,
      0.871601402759552,
      0.5129660367965698
    ],
    [
      -0.8712896704673767,
      -1.5830436944961548,
      1.4238367080688477,
      0.7344507575035095,
      -0.9847142696380615,
      -0.9561137557029724,
      0.19375523924827576,
      0.05698753520846367,
      -1.6579469442367554,
      2.030564546585083,
      -0.20120519399642944,
      1.6041064262390137
    ],
    [
      -0.9525472521781921,
      0.5986589789390564,
      -0.10883893072605133,
      -1.6999927759170532,
      0.13516144454479218,
      1.0046422481536865,
      -0.13168388605117798,
      0.23118561506271362,
      0.8513829708099365,
      0.01217811368405819,
      0.911191463470459,
      -0.06298495084047318
    ],
    [
      1.8804811239242554,
      0.7153528928756714,
      0.974538266658783,
      -0.2240561693906784,
      0.03675524890422821,
      0.548744797706604,
      0.3890262246131897,
      1.219916582107544,
      -1.4960966110229492,
      -0.7550392150878906,
      -2.104121208190918,
      2.07491135597229
    ],
    [
      -0.34732648730278015,
      -0.21989361941814423,
      -1.3716816902160645,
      1.0893561840057373,
      0.3941422402858734,
      1.375281810760498,
      -0.34297385811805725,
      -0.3869777023792267,
      -0.7351078987121582,
      -0.985237181186676,
      1.899025797843933,
      1.7335118055343628
    ],
    [
      0.5070268511772156,
      -1.231426477432251,
      -0.6663900017738342,
      -0.5932322144508362,
      0.2745699882507324,
      3.216306447982788,
      -1.4207903146743774,
      -0.9113411903381348,
      -0.8760423064231873,
      1.1298539638519287,
      -0.6257292032241821,
      1.6982311010360718
    ],
    [
      0.8605536222457886,
      -0.8542432188987732,
      0.29788288474082947,
      -0.37113285064697266,
      -0.35152921080589294,
      0.1250578612089157,
      -0.4234282970428467,
      -0.19089381396770477,
      -1.0404077768325806,
      -0.4675683379173279,
      1.0489317178726196,
      0.7228057980537415
    ],
    [
      -0.06956163793802261,
      -1.425079345703125,
      0.20901209115982056,
      -0.37336552143096924,
      0.6375511288642883,
      0.6338223218917847,
      -0.193841353058815,
      -0.9155474305152893,
      1.167044997215271,
      0.8706038594245911,
      -0.27016931772232056,
      -0.32960882782936096
    ],
    [
      2.1136090755462646,
      0.01496141403913498,
      -0.4002179801464081,
      -0.9189000725746155,
      -0.08492651581764221,
      0.8915968537330627,
      -0.8496391773223877,
      -2.1203205585479736,
      -1.0317798852920532,
      2.0885202884674072,
      2.1212918758392334,
      1.2316913604736328
    ],
    [
      -0.9490113854408264,
      0.9383233785629272,
      1.2773292064666748,
      -0.003796529956161976,
      -0.6522405743598938,
      0.296492338180542,
      0.8771270513534546,
      -0.1581970751285553,
      -0.28324753046035767,
      -1.116477370262146,
      -0.20863310992717743,
      -0.5311516523361206
    ],
    [
      0.17918668687343597,
      1.0624451637268066,
      -0.02650432474911213,
      1.2582906484603882,
      0.9616169929504395,
      0.9863971471786499,
      -0.35399487614631653,
      1.6503082513809204,
      1.554469347000122,
      -2.867295503616333,
      -1.4225316047668457,
      -0.4271785020828247
    ],
    [
      0.4562567174434662,
      -0.6682366132736206,
      -1.362534761428833,
      1.3735027313232422,
      0.5858949422836304,
      3.280165195465088,
      -1.2362821102142334,
      1.1854422092437744,
      -0.8873757719993591,
      -0.15783272683620453,
      0.16483211517333984,
      -1.762498378753662
    ],
    [
      1.5738953351974487,
      -1.1908096075057983,
      -0.612028956413269,
      1.4877731800079346,
      1.1238189935684204,
      0.711940348148346,
      -1.0592663288116455,
      -0.13625547289848328,
      -0.6641222834587097,
      0.12422269582748413,
      -0.5995932221412659,
      -1.155826449394226
    ],
    [
      0.13137565553188324,
      -1.8243696689605713,
      -0.2933897078037262,
      1.8103915452957153,
      0.2537429630756378,
      -0.7096436023712158,
      0.5403733253479004,
      2.619988441467285,
      -1.6901237964630127,
      -0.4483066201210022,
      2.836430788040161,
      -1.2591240406036377
    ],
    [
      0.17618833482265472,
      -0.3963206708431244,
      0.9349102973937988,
      0.8223946690559387,
      -0.699314296245575,
      -0.495343953371048,
      -0.2513456344604492,
      0.32182368636131287,
      -0.2605639696121216,
      -1.2198644876480103,
      0.47146737575531006,
      -0.004422755911946297
    ],
    [
      -0.38382765650749207,
      0.7622082829475403,
      -0.9593904614448547,
      0.07358605414628983,
      0.4561930298805237,
      -1.2603793144226074,
      0.2844010591506958,
      -0.49962857365608215,
      0.7253216505050659,
      0.38191795349121094,
      0.9664282202720642,
      1.1710585355758667
    ],
    [
      -0.3142586946487427,
      -0.2402421087026596,
      -0.46333885192871094,
      -0.8272466063499451,
      0.3509872555732727,
      1.0455433130264282,
      -0.9116107821464539,
      1.927704930305481,
      -0.327409952878952,
      1.0955158472061157,
      -1.1223021745681763,
      -0.07990562915802002
    ],
    [
      -1.0881388187408447,
      -1.3972753286361694,
      0.6040827035903931,
      -0.7751902341842651,
      0.05046510696411133,
      -0.7379229664802551,
      1.3843507766723633,
      0.7942034602165222,
      -0.732495129108429,
      0.7441635131835938,
      -0.7921083569526672,
      -1.0092757940292358
    ],
    [
      -0.6588899493217468,
      1.2297863960266113,
      0.21153420209884644,
      0.21578086912631989,
      0.30539119243621826,
      -1.2822086811065674,
      -1.016356348991394,
      0.6993821859359741,
      -0.13578565418720245,
      -0.8472483158111572,
      -0.7764612436294556,
      1.5855190753936768
    ],
    [
      0.39069923758506775,
      0.5074170231819153,
      0.9993443489074707,
      -0.5450208783149719,
      0.0422426238656044,
      -0.26471322774887085,
      1.3868532180786133,
      -0.283263236284256,
      0.13501688838005066,
      0.7213083505630493,
      -1.449629783630371,
      -0.8752672076225281
    ],
    [
      -2.1859583854675293,
      -0.6601992249488831,
      -0.2956775426864624,
      0.0037041485775262117,
      -0.16114410758018494,
      -1.1864246129989624,
      0.0628560334444046,
      0.6802570819854736,
      1.3240926265716553,
      -0.5810884237289429,
      1.916877031326294,
      2.4021122455596924
    ],
    [
      1.0897045135498047,
      -0.020863257348537445,
      -0.8026149868965149,
      -0.14201952517032623,
      -0.974922239780426,
      0.44590067863464355,
      -0.7762702107429504,
      0.15304650366306305,
      0.47787871956825256,
      0.18870237469673157,
      -1.5164698362350464,
      1.0016825199127197
    ],
    [
      1.3655738830566406,
      1.0718457698822021,
      -1.405362844467163,
      -1.9096133708953857,
      0.35537785291671753,
      2.379511833190918,
      -1.1958674192428589,
      -0.33287933468818665,
      -1.5356732606887817,
      2.029935359954834,
      -0.36105743050575256,
      -1.6042110919952393
    ],
    [
      -0.1952466070652008,
      1.8483891487121582,
      0.4408014416694641,
      0.6766842603683472,
      0.39375609159469604,
      0.21778623759746552,
      0.03577011078596115,
      -0.15463212132453918,
      -0.1040942594408989,
      -0.8337613940238953,
      -0.8338268399238586,
      -1.2197744846343994
    ],
    [
      -0.9554014801979065,
      0.2160484343767166,
      -0.18717652559280396,
      0.6559237241744995,
      0.9749864339828491,
      0.4697076678276062,
      -0.4480553865432739,
      2.545416831970215,
      0.15778294205665588,
      -1.9512214660644531,
      -1.520495891571045,
      -1.0061521530151367
    ],
    [
      -2.1170835494995117,
      -0.16833236813545227,
      0.8636512160301208,
      -0.9979045987129211,
      -0.529290497303009,
      -0.3135565221309662,
      0.16992191970348358,
      1.80255925655365,
      -0.3212992250919342,
      0.20582222938537598,
      0.6847871541976929,
      0.7363007664680481
    ],
    [
      0.1616210639476776,
      -1.7513340711593628,
      0.15169396996498108,
      1.6850022077560425,
      -0.30813851952552795,
      0.5031499862670898,
      3.1094207763671875,
      0.8387126922607422,
      -1.7826858758926392,
      -1.037172794342041,
      -1.7343755960464478,
      -0.19804976880550385
    ],
    [
      2.45114803314209,
      -0.6803126335144043,
      0.6513549089431763,
      -1.8448294401168823,
      0.03359153866767883,
      0.7532699108123779,
      2.1086366176605225,
      -2.335127830505371,
      -0.7038806080818176,
      0.7400109767913818,
      -0.3028140068054199,
      -1.377444863319397
    ],
    [
      0.8170121312141418,
      -0.037931106984615326,
      0.9151089191436768,
      0.11690905690193176,
      -1.0078023672103882,
      0.6049216389656067,
      -0.5958468914031982,
      0.9405486583709717,
      -1.4003608226776123,
      -1.503549575805664,
      -0.8204740881919861,
      2.109292984008789
    ],
    [
      0.6866083741188049,
      0.8178908824920654,
      0.7040499448776245,
      0.8481731414794922,
      -0.5366807579994202,
      -1.0921703577041626,
      0.2246735394001007,
      0.315840482711792,
      0.49718785285949707,
      0.03550643473863602,
      0.05792175605893135,
      -1.3794195652008057
    ],
    [
      -1.8996340036392212,
      0.43257859349250793,
      2.580447196960449,
      0.7611663937568665,
      -0.3808930814266205,
      0.03149754926562309,
      1.243079662322998,
      1.4053609371185303,
      0.9488925933837891,
      -1.7001149654388428,
      -0.7305078506469727,
      0.019516652449965477
    ],
    [
      1.035598635673523,
      -0.40902066230773926,
      -0.06332740187644958,
      -1.153243064880371,
      -0.00960577093064785,
      0.7441660761833191,
      1.8646966218948364,
      -0.8154852986335754,
      0.29082778096199036,
      0.1321108639240265,
      -0.0713096633553505,
      -1.3887228965759277
    ],
    [
      -1.450520396232605,
      0.5426072478294373,
      -0.38633131980895996,
      0.3818979859352112,
      -1.338297963142395,
      -0.7809545993804932,
      -0.46142396330833435,
      -0.12226124107837677,
      0.03066013753414154,
      0.7981386184692383,
      0.8293768763542175,
      0.6307620406150818
    ],
    [
      -1.3040937185287476,
      0.22930411994457245,
      0.9629516005516052,
      -0.7787561416625977,
      -0.4468657374382019,
      -0.06630593538284302,
      -0.6318588852882385,
      -0.9964359998703003,
      0.04759031906723976,
      -0.08078472316265106,
      0.4458293616771698,
      0.06702148914337158
    ],
    [
      -0.3928696811199188,
      -0.6972993612289429,
      1.118424415588379,
      1.1456985473632812,
      -1.3253494501113892,
      0.10830365121364594,
      1.5962826013565063,
      -1.8892573118209839,
      1.1726994514465332,
      0.6827419400215149,
      0.9002305269241333,
      -1.0906795263290405
    ],
    [
      0.456622838973999,
      -0.8703237175941467,
      0.16138875484466553,
      0.13783709704875946,
      -0.20275574922561646,
      -0.015944933518767357,
      0.9838183522224426,
      1.2369275093078613,
      -0.08866903185844421,
      0.22251972556114197,
      0.12971413135528564,
      -1.728023648262024
    ],
    [
      0.9995471239089966,
      0.41147515177726746,
      0.1629045307636261,
      -1.9012573957443237,
      0.5657926201820374,
      -1.528407335281372,
      -0.8588824272155762,
      2.494464159011841,
      0.7446441054344177,
      0.7584778666496277,
      0.7812129259109497,
      -2.9386284351348877
    ],
    [
      -1.556213617324829,
      -0.9824939966201782,
      0.5828342437744141,
      0.6977818012237549,
      0.6226312518119812,
      0.3729501962661743,
      0.8273935317993164,
      0.2235741764307022,
      -0.31684714555740356,
      -0.1105247512459755,
      -0.6517438888549805,
      0.20934495329856873
    ],
    [
      -1.6111423969268799,
      -0.8374643325805664,
      -0.040559783577919006,
      -1.498672366142273,
      1.4048351049423218,
      -1.9402934312820435,
      -0.36445730924606323,
      2.365859031677246,
      1.1158748865127563,
      0.6881905198097229,
      0.7162284255027771,
      -0.22178098559379578
    ],
    [
      0.8963333368301392,
      0.7510303854942322,
      0.08657540380954742,
      0.014799974858760834,
      -0.02668704465031624,
      0.9578123688697815,
      0.053614918142557144,
      0.004893792327493429,
      -0.9443812370300293,
      -1.5380219221115112,
      -1.644766926765442,
      1.496354341506958
    ],
    [
      -0.8874783515930176,
      0.7903363704681396,
      0.07936966419219971,
      0.7374081611633301,
      0.9286141991615295,
      -0.3154887855052948,
      2.1225881576538086,
      0.21867051720619202,
      -1.4549179077148438,
      -0.6606754660606384,
      -0.29442787170410156,
      -0.5154893398284912
    ],
    [
      -0.008717820979654789,
      -0.6182281970977783,
      -0.33336198329925537,
      -0.8765685558319092,
      1.926369071006775,
      1.2780230045318604,
      -0.2755889296531677,
      -0.10355052351951599,
      0.7568264603614807,
      -0.9155846238136292,
      0.6718407869338989,
      -0.12086363136768341
    ],
    [
      -0.4152020514011383,
      0.7938898801803589,
      -0.33972686529159546,
      0.8268347382545471,
      -0.2504230737686157,
      -1.3440059423446655,
      0.28879401087760925,
      0.601776659488678,
      0.5757833123207092,
      -1.6383470296859741,
      0.13272586464881897,
      0.22351834177970886
    ],
    [
      0.12444019317626953,
      -0.9135329127311707,
      -1.184928059577942,
      1.7447150945663452,
      -2.9721217155456543,
      1.0754395723342896,
      -1.8272384405136108,
      0.8553302884101868,
      0.04144051671028137,
      0.9846329092979431,
      0.15948545932769775,
      3.1600699424743652
    ],
    [
      0.6017603874206543,
      0.4445478320121765,
      -0.14541751146316528,
      2.170060634613037,
      0.21612116694450378,
      0.6320923566818237,
      1.3873405456542969,
      -1.1818379163742065,
      -0.3852902948856354,
      -1.472761631011963,
      -0.10378088057041168,
      -2.320814847946167
    ],
    [
      -1.7797704935073853,
      -0.08009596168994904,
      2.3651280403137207,
      0.5179458856582642,
      -1.157741665840149,
      -0.712963342666626,
      -0.3846483528614044,
      0.38489148020744324,
      0.5358543992042542,
      0.2978275418281555,
      -1.1272010803222656,
      0.24931570887565613
    ],
    [
      1.214592456817627,
      1.9352614879608154,
      0.4675447344779968,
      -1.3356047868728638,
      0.42871662974357605,
      -1.1323065757751465,
      2.3434793949127197,
      -0.21541406214237213,
      -0.5248059034347534,
      1.1241722106933594,
      0.09894125163555145,
      -0.16768504679203033
    ],
    [
      0.8492615818977356,
      0.7502777576446533,
      0.648955225944519,
      0.16631388664245605,
      -0.6335561871528625,
      0.1145256906747818,
      0.25446516275405884,
      0.13255561888217926,
      -0.04233214259147644,
      -1.0963214635849,
      -1.5130856037139893,
      0.8669503331184387
    ],
    [
      -1.6051442623138428,
      1.976084589958191,
      -1.2231223583221436,
      0.3779379427433014,
      -0.3389657735824585,
      0.15924344956874847,
      0.7477151155471802,
      -0.22532248497009277,
      -1.0679614543914795,
      1.6928224563598633,
      1.1307798624038696,
      -0.5130231976509094
    ],
    [
      0.295561283826828,
      2.13641357421875,
      -0.782635509967804,
      -0.4998677968978882,
      -1.1287873983383179,
      -0.1386517733335495,
      0.5544005632400513,
      -0.5739613175392151,
      1.9336358308792114,
      -0.6880775690078735,
      0.5468761324882507,
      -1.2727179527282715
    ],
    [
      0.31047916412353516,
      -2.2555596828460693,
      -1.4883016347885132,
      0.14667925238609314,
      2.283536672592163,
      -0.4083804786205292,
      -0.47036013007164,
      2.0185744762420654,
      0.2635645866394043,
      1.9579133987426758,
      0.11266717314720154,
      -1.6499758958816528
    ],
    [
      0.5058054327964783,
      -1.3408775329589844,
      1.9646947383880615,
      0.0028449527453631163,
      -1.0265965461730957,
      -1.813218116760254,
      0.7560439109802246,
      0.6288867592811584,
      -0.0868278220295906,
      -1.246968388557434,
      -0.6144733428955078,
      0.1956162452697754
    ],
    [
      -0.41004714369773865,
      -1.6538560390472412,
      -0.8843320608139038,
      -0.494003564119339,
      0.23934032022953033,
      1.7045722007751465,
      0.32922470569610596,
      1.091966986656189,
      -0.16508187353610992,
      2.7879457473754883,
      0.8285967707633972,
      -2.5268056392669678
    ],
    [
      1.7228467464447021,
      0.35370081663131714,
      -0.9457714557647705,
      -1.6855120658874512,
      -0.21526435017585754,
      1.2703913450241089,
      -1.9677824974060059,
      -1.1777201890945435,
      1.4217170476913452,
      0.1638057380914688,
      -1.3996843099594116,
      0.4940811097621918
    ],
    [
      0.46038880944252014,
      0.48791468143463135,
      0.014896005392074585,
      0.07297344505786896,
      -0.30774861574172974,
      0.48874631524086,
      -0.2120850682258606,
      0.5110552906990051,
      -0.40629473328590393,
      -0.5125698447227478,
      -0.6463631987571716,
      1.1026208400726318
    ],
    [
      -1.9706196784973145,
      -1.9760886430740356,
      -0.6559642553329468,
      0.024781741201877594,
      1.4516513347625732,
      -0.07249997556209564,
      -1.9452290534973145,
      1.463639259338379,
      -0.20420818030834198,
      2.6932952404022217,
      1.7049715518951416,
      2.5632259845733643
    ],
    [
      -0.13200260698795319,
      -0.008340719155967236,
      0.3330514430999756,
      0.3485957980155945,
      -0.2715068459510803,
      1.0988174676895142,
      1.9131391048431396,
      -1.173467755317688,
      -0.9542942047119141,
      -0.750798761844635,
      -0.7329834699630737,
      -0.15594539046287537
    ],
    [
      -1.4721174240112305,
      -0.9514182209968567,
      0.6635643243789673,
      -0.6342997550964355,
      -0.8779358863830566,
      -1.5469781160354614,
      1.7277939319610596,
      0.8060315251350403,
      -2.2630691528320312,
      1.7018388509750366,
      0.3568275570869446,
      0.33694592118263245
    ],
    [
      -0.04700401797890663,
      0.4617137610912323,
      -1.0609179735183716,
      0.9290038347244263,
      -0.31343895196914673,
      -0.5104030966758728,
      1.1007676124572754,
      -0.11830862611532211,
      0.28782835602760315,
      0.3575161397457123,
      -0.18425880372524261,
      -0.28420189023017883
    ],
    [
      0.010034401901066303,
      1.0514687299728394,
      -2.3592851161956787,
      0.39987847208976746,
      1.3250540494918823,
      0.9381711483001709,
      1.0646311044692993,
      -0.2694590389728546,
      -0.4594268798828125,
      0.48504942655563354,
      1.2745177745819092,
      -2.2272133827209473
    ],
    [
      2.2386505603790283,
      0.743053138256073,
      -0.20542028546333313,
      -1.645020604133606,
      -1.2092955112457275,
      -0.6029342412948608,
      -0.3686487674713135,
      1.26522958278656,
      0.04547985643148422,
      -1.0233378410339355,
      0.33306676149368286,
      0.292544960975647
    ],
    [
      -1.8183910846710205,
      -1.8565270900726318,
      -1.9972319602966309,
      0.34729909896850586,
      0.47316962480545044,
      0.7708053588867188,
      -0.3716947138309479,
      0.6549723148345947,
      1.0170738697052002,
      1.988304615020752,
      0.768190324306488,
      0.38868603110313416
    ],
    [
      2.024479389190674,
      -2.6300880908966064,
      -1.201468825340271,
      -0.26627540588378906,
      1.6819242238998413,
      1.5968139171600342,
      -2.0051798820495605,
      1.4124969244003296,
      1.3969616889953613,
      -0.1884021908044815,
      -0.749754786491394,
      -1.1102068424224854
    ],
    [
      0.886028528213501,
      0.689568817615509,
      1.0040744543075562,
      0.028969155624508858,
      -0.6090782880783081,
      0.41361239552497864,
      -0.17857369780540466,
      0.198248490691185,
      -0.8032837510108948,
      -1.2310731410980225,
      -1.4153122901916504,
      0.5228592157363892
    ],
    [
      2.2065012454986572,
      1.1188349723815918,
      -0.6023783087730408,
      -1.2911841869354248,
      -1.246944785118103,
      0.5527045726776123,
      0.13822300732135773,
      -0.32092300057411194,
      -0.7065849900245667,
      -0.8688226938247681,
      -0.169479638338089,
      0.7622784972190857
    ],
    [
      0.7774828672409058,
      1.2281842231750488,
      0.03429907187819481,
      0.20120251178741455,
      -0.07409477978944778,
      0.9721649289131165,
      0.3186512887477875,
      0.13556835055351257,
      1.2660527229309082,
      -1.3086317777633667,
      -0.6795114874839783,
      -2.0946953296661377
    ],
    [
      1.4282889366149902,
      0.14297077059745789,
      1.0344529151916504,
      -1.375988245010376,
      0.23734375834465027,
      0.16236643493175507,
      0.9425782561302185,
      -0.4877687990665436,
      -0.388107568025589,
      -0.1092648133635521,
      0.10555945336818695,
      -1.6290289163589478
    ],
    [
      -1.5919893980026245,
      0.2694007158279419,
      1.939969539642334,
      -0.1991034746170044,
      0.9994931817054749,
      -0.41845637559890747,
      1.5899505615234375,
      1.7996820211410522,
      -0.414567232131958,
      -0.6277604699134827,
      -1.275404691696167,
      -0.6995231509208679
    ],
    [
      0.4426834285259247,
      -0.2293463945388794,
      1.0797252655029297,
      1.361970067024231,
      1.2484856843948364,
      -1.7381565570831299,
      0.6729527115821838,
      -0.2228064239025116,
      -1.7943557500839233,
      0.8757800459861755,
      0.5005940794944763,
      -1.7117135524749756
    ],
    [
      -0.8036288619041443,
      -0.6636171936988831,
      0.9856892228126526,
      -0.0063402787782251835,
      0.3651779890060425,
      -1.1869385242462158,
      0.16424550116062164,
      -0.09276913851499557,
      0.5576333403587341,
      -0.18430501222610474,
      -0.3763277232646942,
      -0.06197755038738251
    ],
    [
      -0.22085754573345184,
      -1.8839393854141235,
      -1.2392024993896484,
      1.7198126316070557,
      -0.483324259519577,
      -0.6458840370178223,
      0.5115382075309753,
      -0.6397414207458496,
      1.3340140581130981,
      0.2286374717950821,
      0.24633580446243286,
      0.17730270326137543
    ],
    [
      0.3210583031177521,
      -0.4503636360168457,
      -0.2417546957731247,
      -0.10444463789463043,
      -1.0071566104888916,
      0.28837355971336365,
      -0.2649574279785156,
      -0.049283914268016815,
      -0.07265602797269821,
      0.6994288563728333,
      -0.03615047410130501,
      0.04546484723687172
    ],
    [
      -1.0638489723205566,
      0.6874635219573975,
      -0.36327308416366577,
      1.2515599727630615,
      -1.4360229969024658,
      -2.2726199626922607,
      -0.5841906070709229,
      0.42164725065231323,
      1.2522410154342651,
      0.4894452393054962,
      1.0449467897415161,
      1.3548623323440552
    ],
    [
      -1.8409947156906128,
      -0.722979724407196,
      0.3992236256599426,
      0.39740970730781555,
      -0.940054714679718,
      -1.1488486528396606,
      2.12001633644104,
      0.9640576839447021,
      -0.7947846055030823,
      0.28376439213752747,
      0.5619951486587524,
      0.26123926043510437
    ],
    [
      0.849202573299408,
      1.3789327144622803,
      -0.8638734221458435,
      1.146798849105835,
      0.09476706385612488,
      -0.5345078110694885,
      0.036563578993082047,
      -1.610681414604187,
      0.720231294631958,
      -1.4597727060317993,
      0.4777207672595978,
      -0.7641773223876953
    ],
    [
      -1.2641905546188354,
      -2.3527719974517822,
      -0.32018768787384033,
      -1.0861324071884155,
      -1.2155466079711914,
      1.9741686582565308,
      -0.5021668672561646,
      0.2298312485218048,
      2.245954751968384,
      0.4579758644104004,
      1.3618837594985962,
      -0.47475382685661316
    ],
    [
      -0.07220949977636337,
      -0.15886592864990234,
      -0.3768000900745392,
      -0.11871498078107834,
      -2.2561988830566406,
      -0.10696950554847717,
      -0.9049904942512512,
      1.1127516031265259,
      0.7909655570983887,
      -0.5064197182655334,
      -0.3783717751502991,
      1.0205731391906738
    ],
    [
      0.6686171889305115,
      0.4869489073753357,
      -0.6166760325431824,
      -2.0295238494873047,
      1.3244960308074951,
      -1.1601159572601318,
      0.6243088841438293,
      0.3053790032863617,
      1.037628412246704,
      -0.6294169425964355,
      -1.291314721107483,
      1.6787842512130737
    ],
    [
      -0.8402475118637085,
      0.5343765020370483,
      -0.5998185873031616,
      -0.09658575803041458,
      -1.3898980617523193,
      -1.039084553718567,
      1.8140836954116821,
      0.1550862044095993,
      0.20939747989177704,
      -1.6610302925109863,
      0.9917588233947754,
      0.36240142583847046
    ],
    [
      1.892274022102356,
      0.5220510959625244,
      -0.5122129917144775,
      -0.8705559968948364,
      0.5001229643821716,
      0.518454909324646,
      -0.5057315826416016,
      -0.9180241227149963,
      -3.5911142826080322,
      1.5386162996292114,
      3.1218409538269043,
      -1.3010776042938232
    ],
    [
      0.25791922211647034,
      -0.07985541224479675,
      -2.14148211479187,
      1.5179450511932373,
      -1.5100008249282837,
      0.8014503717422485,
      4.1091694831848145,
      -1.643885612487793,
      0.9648258686065674,
      0.764819324016571,
      0.5191996097564697,
      -1.4075208902359009
    ],
    [
      -1.958593726158142,
      -1.2771803140640259,
      1.3835668563842773,
      1.2771999835968018,
      -0.8644755482673645,
      -0.9824034571647644,
      0.775509774684906,
      -0.13181470334529877,
      1.2377532720565796,
      1.6279942989349365,
      -1.1116410493850708,
      0.8047738671302795
    ],
    [
      -1.5144699811935425,
      0.6802036166191101,
      0.8913185596466064,
      0.30441099405288696,
      0.1185588389635086,
      -1.0751115083694458,
      -2.0846166610717773,
      1.6836491823196411,
      1.1356390714645386,
      -0.930700957775116,
      1.0083012580871582,
      0.4092507064342499
    ],
    [
      0.4664914011955261,
      0.5959950685501099,
      -1.1651415824890137,
      -0.33798903226852417,
      0.5131476521492004,
      0.3441406488418579,
      0.8858726024627686,
      -1.0605522394180298,
      -0.21733807027339935,
      0.3642396032810211,
      0.02638949081301689,
      -0.09650608897209167
    ],
    [
      0.4348355233669281,
      -0.019531125202775,
      0.22439534962177277,
      -0.516783595085144,
      -1.4118291139602661,
      0.29043930768966675,
      -1.2576383352279663,
      0.7803344130516052,
      -1.3730390071868896,
      -0.6546753644943237,
      -1.7165381908416748,
      1.4353523254394531
    ],
    [
      1.7872247695922852,
      -0.869037926197052,
      1.655983328819275,
      -0.7692408561706543,
      -1.8466160297393799,
      0.9741858839988708,
      0.7080268859863281,
      -0.8943755030632019,
      0.8676023483276367,
      2.7917230129241943,
      -0.9059025645256042,
      -1.912433385848999
    ],
    [
      0.07125954329967499,
      -0.0913957953453064,
      0.1867293119430542,
      -0.9054732918739319,
      0.3614661693572998,
      -0.6085254549980164,
      -0.33366966247558594,
      -0.26267173886299133,
      0.14885911345481873,
      0.22400204837322235,
      -1.1359604597091675,
      1.7980514764785767
    ],
    [
      -0.7450020909309387,
      0.025086255744099617,
      -0.577930748462677,
      0.5672022700309753,
      -0.6828140616416931,
      -0.6148257255554199,
      0.8331773281097412,
      -1.0425617694854736,
      -0.3448846936225891,
      0.504269540309906,
      1.0015369653701782,
      0.9330118894577026
    ],
    [
      -0.8077643513679504,
      -0.48068252205848694,
      -1.2237145900726318,
      -1.4866855144500732,
      1.8778213262557983,
      -0.17077641189098358,
      0.9005420804023743,
      -0.2001418024301529,
      -0.4091423749923706,
      1.8502000570297241,
      0.500800609588623,
      -0.303594708442688
    ],
    [
      1.1826666593551636,
      -0.4022429585456848,
      -1.9917124509811401,
      2.357870101928711,
      -1.8225538730621338,
      -1.6838352680206299,
      -0.9669343829154968,
      0.9353116154670715,
      0.2335142344236374,
      0.5466412901878357,
      1.398030400276184,
      -0.37787261605262756
    ],
    [
      -0.8442223072052002,
      0.7714516520500183,
      -0.012485574930906296,
      0.17792974412441254,
      1.7479133605957031,
      -1.0179507732391357,
      -0.9635120034217834,
      -0.6736642718315125,
      -0.5739411115646362,
      -0.7116930484771729,
      1.773573637008667,
      0.5134735107421875
    ],
    [
      1.9473778009414673,
      0.2858319878578186,
      0.931047260761261,
      -1.0637646913528442,
      -1.9379239082336426,
      0.1847502887248993,
      -1.1951767206192017,
      -0.5272825360298157,
      -0.3523162603378296,
      0.4658912420272827,
      -1.6914024353027344,
      -0.0016199531964957714
    ],
    [
      1.5071523189544678,
      -0.7025198340415955,
      -0.882780909538269,
      -1.156535267829895,
      1.6979608535766602,
      0.5551291704177856,
      0.4793435037136078,
      -0.9184401631355286,
      -0.7448751926422119,
      -2.3018290996551514,
      1.6105564832687378,
      2.0520308017730713
    ],
    [
      0.27621832489967346,
      0.5788163542747498,
      -0.7523949146270752,
      1.350567102432251,
      -2.4910945892333984,
      1.5993397235870361,
      -0.4630385935306549,
      0.13016022741794586,
      -1.0794556140899658,
      -0.8363291621208191,
      1.4366505146026611,
      -1.1496529579162598
    ],
    [
      0.1346122771501541,
      -0.8987541794776917,
      0.7414891719818115,
      0.3034478724002838,
      -0.5808417201042175,
      -1.796815276145935,
      0.5210980772972107,
      1.571123480796814,
      -1.3824163675308228,
      2.153317928314209,
      -0.4529806077480316,
      0.8341391086578369
    ],
    [
      -1.419588327407837,
      -2.3364779949188232,
      -0.12747766077518463,
      -1.1893945932388306,
      3.279036283493042,
      -0.17857013642787933,
      0.035020023584365845,
      -0.22974134981632233,
      0.8269999623298645,
      0.4177464246749878,
      1.3659484386444092,
      -0.33099231123924255
    ],
    [
      0.647268533706665,
      0.5077379941940308,
      -0.11427457630634308,
      0.24701224267482758,
      -0.5786039233207703,
      0.36811327934265137,
      -0.23540660738945007,
      0.4174976348876953,
      0.012952794320881367,
      -0.8169705271720886,
      -0.8393933176994324,
      1.025023341178894
    ],
    [
      0.45864859223365784,
      1.0045944452285767,
      0.07629378139972687,
      0.14446330070495605,
      -1.556275725364685,
      -0.7640862464904785,
      1.5935492515563965,
      -0.7752390503883362,
      -1.956484317779541,
      0.5360884070396423,
      0.24279293417930603,
      -1.5369477272033691
    ],
    [
      0.7472711801528931,
      0.1880837380886078,
      -0.9095311760902405,
      1.4553529024124146,
      -1.0895525217056274,
      -0.4564479887485504,
      -1.2832003831863403,
      -1.0890734195709229,
      1.3014403581619263,
      -0.4708269238471985,
      -0.7765917181968689,
      1.1005265712738037
    ],
    [
      1.2996108531951904,
      -2.059250593185425,
      1.196347713470459,
      -0.9709312915802002,
      0.0025095257442444563,
      -1.2048060894012451,
      -0.1386297196149826,
      -1.0525084733963013,
      0.8466477394104004,
      0.5539479851722717,
      0.4410964250564575,
      1.3256731033325195
    ],
    [
      -1.0375806093215942,
      0.25865933299064636,
      0.023077772930264473,
      -1.1564891338348389,
      -1.6971795558929443,
      0.9903843998908997,
      -0.09901165217161179,
      1.1518880128860474,
      -0.3770442605018616,
      2.086472988128662,
      -0.8647393584251404,
      0.9923911094665527
    ],
    [
      -0.3032693862915039,
      -0.9181210398674011,
      0.06797865033149719,
      -1.1627548933029175,
      1.4599230289459229,
      -0.39306870102882385,
      -0.5374675393104553,
      -0.10591896623373032,
      -0.3879361152648926,
      2.0599756240844727,
      1.2066558599472046,
      0.8369833827018738
    ],
    [
      1.3896852731704712,
      0.2579687535762787,
      1.1190953254699707,
      0.22971682250499725,
      -0.40428969264030457,
      0.3514844477176666,
      -0.4666249454021454,
      -0.6468296051025391,
      -1.3584070205688477,
      -0.9105672240257263,
      -2.0880892276763916,
      0.7170723080635071
    ],
    [
      1.0952134132385254,
      1.778222918510437,
      -2.810091495513916,
      0.27774253487586975,
      2.2049567699432373,
      2.001220226287842,
      0.10264730453491211,
      -0.5905157327651978,
      -0.2741621732711792,
      -1.4026811122894287,
      -1.1875321865081787,
      -0.8348823189735413
    ],
    [
      1.5344512462615967,
      -2.6211435794830322,
      1.6961687803268433,
      -0.17510934174060822,
      -0.2580183744430542,
      -0.9725085496902466,
      0.7606009840965271,
      -2.617157220840454,
      1.322732925415039,
      -1.1841039657592773,
      -0.0014575893292203546,
      2.8230602741241455
    ],
    [
      1.3005409240722656,
      0.40176913142204285,
      -1.5885298252105713,
      -0.09231491386890411,
      1.4304465055465698,
      -0.5588434338569641,
      0.37315353751182556,
      -0.3531239628791809,
      0.06690942496061325,
      1.7805438041687012,
      -1.4079434871673584,
      -1.199352741241455
    ],
    [
      -0.8348085284233093,
      -0.8195680975914001,
      0.5982595086097717,
      -1.1678659915924072,
      -0.728535532951355,
      1.121873378753662,
      1.6031526327133179,
      1.1105327606201172,
      0.027618056163191795,
      0.43519237637519836,
      -0.0923110619187355,
      0.18465130031108856
    ],
    [
      -1.0594971179962158,
      -3.6087639331817627,
      1.3062975406646729,
      -1.3036739826202393,
      0.5451597571372986,
      1.5685756206512451,
      1.3365592956542969,
      -0.8306543827056885,
      -0.37413424253463745,
      0.41781333088874817,
      -0.2845665216445923,
      1.6235108375549316
    ],
    [
      1.0298221111297607,
      0.9766378402709961,
      0.7000092267990112,
      0.4844207465648651,
      2.142583131790161,
      -1.1779375076293945,
      -2.9045498371124268,
      0.5858464241027832,
      -0.8567661046981812,
      -1.2103859186172485,
      -0.3539504110813141,
      -1.2232089042663574
    ],
    [
      0.8016391396522522,
      0.28506219387054443,
      0.7498492002487183,
      -0.6192694306373596,
      -1.0666133165359497,
      1.2884386777877808,
      -0.25598493218421936,
      0.6265498995780945,
      -1.3726191520690918,
      -0.820309579372406,
      -1.3180114030838013,
      0.8040370345115662
    ],
    [
      -0.2634143829345703,
      0.8738415241241455,
      1.292838215827942,
      -2.814891815185547,
      0.8140692114830017,
      0.6869879364967346,
      -1.9935731887817383,
      -0.42405202984809875,
      0.3754044771194458,
      0.7579872608184814,
      -0.2368783950805664,
      -0.9946910738945007
    ],
    [
      0.20476360619068146,
      0.8422122001647949,
      -1.578399419784546,
      0.29359370470046997,
      0.42979052662849426,
      0.10130612552165985,
      -1.1244237422943115,
      1.6211247444152832,
      0.8513794541358948,
      -1.3311333656311035,
      -0.24273930490016937,
      0.6871466040611267
    ],
    [
      -1.331202745437622,
      0.9066036939620972,
      0.6647878289222717,
      0.6259949803352356,
      -0.8019049763679504,
      0.5904848575592041,
      -0.22152213752269745,
      1.5486860275268555,
      0.4685174524784088,
      0.5404649376869202,
      -1.0661970376968384,
      -0.8647916316986084
    ],
    [
      -0.2070668637752533,
      -1.6501284837722778,
      -0.3342377245426178,
      1.1371804475784302,
      0.2620995342731476,
      -1.0263570547103882,
      -1.3480418920516968,
      1.370547890663147,
      0.2718920111656189,
      1.7410907745361328,
      -1.7607264518737793,
      -1.5289310216903687
    ],
    [
      -0.6481201648712158,
      -1.8195253610610962,
      0.9561594724655151,
      -1.1823292970657349,
      -0.7107661366462708,
      0.7579947113990784,
      2.1128780841827393,
      -0.27889543771743774,
      1.3473796844482422,
      -0.5621735453605652,
      0.09113689512014389,
      1.073158860206604
    ],
    [
      -0.4799180030822754,
      1.3073285818099976,
      1.106335997581482,
      -0.11073410511016846,
      1.2011924982070923,
      -1.170346736907959,
      -2.424004077911377,
      0.2776328921318054,
      0.5584725737571716,
      -1.0149370431900024,
      -0.7400997877120972,
      -0.6814730763435364
    ],
    [
      -0.8293992280960083,
      1.8056175708770752,
      -2.3780040740966797,
      0.40806955099105835,
      -2.650341033935547,
      -0.2811717092990875,
      -0.32832789421081543,
      -0.7704296708106995,
      -2.2913668155670166,
      1.5737919807434082,
      0.25926673412323,
      2.796656370162964
    ],
    [
      3.4218366146087646,
      0.4296245574951172,
      -2.336979866027832,
      0.9213241338729858,
      0.845821738243103,
      -1.1306469440460205,
      -0.07711103558540344,
      0.7343583703041077,
      0.010354132391512394,
      -1.7003048658370972,
      -0.19634711742401123,
      -0.19995173811912537
    ],
    [
      -0.4577926695346832,
      -0.22490614652633667,
      0.6876545548439026,
      0.3514921963214874,
      -1.3061861991882324,
      -1.0984644889831543,
      0.20164209604263306,
      -0.598553478717804,
      -0.9598776698112488,
      1.0368943214416504,
      1.0775768756866455,
      1.785433292388916
    ],
    [
      -0.1598474085330963,
      1.0976872444152832,
      0.10798273235559464,
      -0.25577864050865173,
      -0.44229593873023987,
      -0.033649954944849014,
      -0.47592371702194214,
      0.41100695729255676,
      -0.9634996652603149,
      -1.0671263933181763,
      -0.2586144506931305,
      1.129741907119751
    ],
    [
      0.12614507973194122,
      -0.5890944600105286,
      -0.06735842674970627,
      1.3902009725570679,
      -1.7712210416793823,
      2.1107735633850098,
      1.3517119884490967,
      2.6600356101989746,
      -0.6811924576759338,
      -2.2750349044799805,
      -0.41739240288734436,
      -2.099325656890869
    ],
    [
      1.0432490110397339,
      0.3499642312526703,
      -1.0609989166259766,
      -1.016324520111084,
      1.1815574169158936,
      0.18220745027065277,
      -0.024124184623360634,
      0.4787556827068329,
      -0.5734355449676514,
      -0.9858676791191101,
      1.0936199426651,
      -0.8458166122436523
    ],
    [
      0.500088632106781,
      0.36887094378471375,
      1.0105408430099487,
      1.4757094383239746,
      -1.0654304027557373,
      -0.5862780213356018,
      1.1874970197677612,
      -1.1600852012634277,
      1.0980050563812256,
      -1.2225656509399414,
      0.08985783159732819,
      -1.507115125656128
    ],
    [
      -1.8164116144180298,
      -1.1381794214248657,
      1.3472015857696533,
      -1.2377125024795532,
      -0.600365936756134,
      1.0990896224975586,
      0.7957341074943542,
      0.3389096260070801,
      -0.3895401358604431,
      -0.01094886939972639,
      1.2054500579833984,
      0.3616861402988434
    ],
    [
      1.099920392036438,
      1.3253477811813354,
      1.3124767541885376,
      -0.23781909048557281,
      0.028953347355127335,
      -0.6860418915748596,
      -2.033226251602173,
      -0.9684085845947266,
      -0.7073197960853577,
      -0.1875072419643402,
      2.536449670791626,
      0.10665737837553024
    ],
    [
      2.631639003753662,
      -2.9357924461364746,
      -1.2749576568603516,
      -2.944185495376587,
      0.5540108680725098,
      2.7220678329467773,
      0.13394376635551453,
      2.5080454349517822,
      -1.9485738277435303,
      -0.7937304973602295,
      1.9804728031158447,
      0.06019284948706627
    ],
    [
      2.2398173809051514,
      1.90999436378479,
      -1.1341840028762817,
      1.8115798234939575,
      -1.0321705341339111,
      1.57194185256958,
      1.775736927986145,
      -0.20386987924575806,
      -2.147885799407959,
      0.043481387197971344,
      -0.27776479721069336,
      -3.2549679279327393
    ],
    [
      0.8703359365463257,
      1.1094396114349365,
      -0.5893007516860962,
      -0.04056277498602867,
      -1.3482199907302856,
      0.8966420292854309,
      -1.0406713485717773,
      1.2806026935577393,
      0.6267633438110352,
      -1.224852442741394,
      -1.408074140548706,
      0.16546611487865448
    ],
    [
      -1.3636497259140015,
      -0.931191086769104,
      1.483299970626831,
      -1.211258053779602,
      0.2973809540271759,
      0.9170994758605957,
      -0.5283321738243103,
      -0.5944477319717407,
      0.14877712726593018,
      0.5266530513763428,
      1.3854773044586182,
      1.0714715719223022
    ],
    [
      -1.9327377080917358,
      -0.5810319781303406,
      1.4969568252563477,
      -0.2035304307937622,
      -0.2965763211250305,
      -0.2810330092906952,
      1.1272732019424438,
      0.9604535698890686,
      -0.01636100374162197,
      0.7126603126525879,
      -0.36781394481658936,
      -0.6431910395622253
    ],
    [
      0.16214826703071594,
      -0.02264908142387867,
      -0.4341493844985962,
      -1.1730694770812988,
      -0.9562942981719971,
      0.4711206555366516,
      0.34298983216285706,
      -0.04917142912745476,
      0.4104543626308441,
      0.44248610734939575,
      1.224595308303833,
      2.0735952854156494
    ],
    [
      -1.5289102792739868,
      2.318225383758545,
      0.4551393687725067,
      -0.6708090305328369,
      0.31085479259490967,
      1.8495270013809204,
      -0.3087848126888275,
      0.15957865118980408,
      -1.3381123542785645,
      0.48986634612083435,
      -1.5066416263580322,
      0.36124905943870544
    ],
    [
      1.0533230304718018,
      -0.4377766251564026,
      -0.5533649325370789,
      -0.4649589955806732,
      -0.9835319519042969,
      -1.3493131399154663,
      -0.22943250834941864,
      2.2208428382873535,
      -0.21997573971748352,
      1.7467764616012573,
      -1.1267846822738647,
      -0.5290305018424988
    ],
    [
      0.9621734023094177,
      -1.4506946802139282,
      0.29811611771583557,
      0.40255385637283325,
      -0.4865242540836334,
      0.5446314215660095,
      -0.7140135169029236,
      1.659057378768921,
      0.09641965478658676,
      -0.29896044731140137,
      -0.6433262825012207,
      -0.7487074136734009
    ],
    [
      0.48171722888946533,
      0.13889086246490479,
      -0.8111069202423096,
      1.505629062652588,
      0.49834930896759033,
      0.5068062543869019,
      -2.2055916786193848,
      -0.9502986073493958,
      0.9009891748428345,
      -1.5832470655441284,
      -0.487204372882843,
      0.742781400680542
    ],
    [
      1.5661565065383911,
      -0.7840033769607544,
      -1.2926007509231567,
      -0.6830783486366272,
      -0.8898146748542786,
      -0.8721967935562134,
      -2.1071937084198,
      1.3726108074188232,
      2.177830219268799,
      -0.6339905261993408,
      -0.8793913125991821,
      1.6216754913330078
    ],
    [
      -1.115164875984192,
      -1.542737603187561,
      2.627337694168091,
      -1.1637803316116333,
      0.2405787706375122,
      0.6143904328346252,
      0.9920781254768372,
      -0.7127342820167542,
      -0.8901140093803406,
      -0.4624183475971222,
      -0.11979242414236069,
      0.6496593952178955
    ],
    [
      0.49170950055122375,
      -0.24718433618545532,
      0.5043221116065979,
      0.05029503256082535,
      -0.8942485451698303,
      0.5516892671585083,
      -0.252600759267807,
      0.6136852502822876,
      -0.5942375063896179,
      -1.1251182556152344,
      -2.1579511165618896,
      1.6186096668243408
    ],
    [
      -0.7032287120819092,
      -0.6192881464958191,
      0.9186757206916809,
      0.7336317300796509,
      -1.425044298171997,
      -0.10400009900331497,
      0.325390100479126,
      -1.2310010194778442,
      0.5343192219734192,
      -0.08278302848339081,
      0.7300640344619751,
      1.4261029958724976
    ],
    [
      0.5239202380180359,
      0.5597081184387207,
      0.5355045795440674,
      -0.022217631340026855,
      -0.9127528071403503,
      1.2231727838516235,
      0.12572987377643585,
      0.9190343618392944,
      -1.106063961982727,
      -0.9079557061195374,
      -0.6502134203910828,
      1.1605098247528076
    ],
    [
      -0.7487951517105103,
      0.030529513955116272,
      -0.3958739936351776,
      -1.7922086715698242,
      -0.05183612182736397,
      2.0124213695526123,
      0.6918859481811523,
      0.36655816435813904,
      0.0735897347331047,
      0.6854607462882996,
      0.17105568945407867,
      -0.2746005654335022
    ],
    [
      0.5000187754631042,
      1.0716793537139893,
      -0.5142338871955872,
      -0.05708574131131172,
      -0.08977973461151123,
      -0.9264698624610901,
      0.7723115682601929,
      -0.32122141122817993,
      1.0323834419250488,
      -1.3521437644958496,
      -1.2043356895446777,
      0.8747483491897583
    ],
    [
      0.38994866609573364,
      0.03894796594977379,
      0.13406825065612793,
      -0.5894668102264404,
      -0.6309742331504822,
      -0.3228914737701416,
      -0.9366874694824219,
      0.19755832850933075,
      -0.5561670064926147,
      -0.8187096118927002,
      0.006427905522286892,
      0.9803170561790466
    ],
    [
      0.45176661014556885,
      -1.8112308979034424,
      -0.11540523916482925,
      0.682884156703949,
      0.4061143100261688,
      2.320347309112549,
      2.197999954223633,
      1.3203420639038086,
      -1.7725244760513306,
      -0.3835318386554718,
      0.49967053532600403,
      -1.0138612985610962
    ],
    [
      -1.130104899406433,
      1.4815250635147095,
      0.6076257824897766,
      -1.0863505601882935,
      0.9467130899429321,
      0.3987528681755066,
      -0.9994602799415588,
      0.24038200080394745,
      1.830489993095398,
      0.5438618659973145,
      -0.14428569376468658,
      -1.55165433883667
    ],
    [
      -0.4553636908531189,
      -0.914682149887085,
      1.6041481494903564,
      -0.20165438950061798,
      -0.7948705554008484,
      1.0702611207962036,
      1.733412265777588,
      0.8684160709381104,
      -0.21737343072891235,
      -0.18513227999210358,
      -0.4101082980632782,
      -0.5677118301391602
    ],
    [
      -0.8201084733009338,
      -0.5527417063713074,
      0.3860764801502228,
      0.17267733812332153,
      1.1688274145126343,
      -2.1899032592773438,
      0.6478486657142639,
      1.8581844568252563,
      2.432715892791748,
      -0.3429487645626068,
      -1.79599130153656,
      0.21251298487186432
    ],
    [
      0.3542121350765228,
      0.22359231114387512,
      0.2214003950357437,
      -0.23548448085784912,
      -0.7600230574607849,
      -0.12968988716602325,
      -0.501223087310791,
      0.2244415581226349,
      -0.8466594219207764,
      -1.551129937171936,
      -1.4094328880310059,
      1.0832738876342773
    ],
    [
      0.23666872084140778,
      1.1866430044174194,
      -1.6929267644882202,
      -0.6611624956130981,
      1.0348955392837524,
      1.60712468624115,
      2.0837299823760986,
      -0.8993383646011353,
      -0.7595602869987488,
      -1.7381577491760254,
      -0.5254124402999878,
      -1.164867877960205
    ],
    [
      -0.5715969800949097,
      -1.171112060546875,
      -2.6815457344055176,
      1.6921886205673218,
      1.3422931432724,
      -0.6689060926437378,
      0.9084233641624451,
      -0.2603124976158142,
      0.16133420169353485,
      1.0824882984161377,
      2.3658056259155273,
      -0.5061545372009277
    ],
    [
      -1.9643723964691162,
      0.739591121673584,
      1.1124048233032227,
      0.7599539756774902,
      0.640598714351654,
      -0.567215085029602,
      1.4240480661392212,
      2.1946074962615967,
      -0.8268999457359314,
      0.6320776343345642,
      -0.26431354880332947,
      -0.36381813883781433
    ],
    [
      1.0395386219024658,
      1.35987389087677,
      0.2846219837665558,
      0.1372688263654709,
      0.9035454392433167,
      -1.2108463048934937,
      -2.2760016918182373,
      -1.4442639350891113,
      0.25395429134368896,
      -0.24905496835708618,
      1.0604501962661743,
      1.808213710784912
    ],
    [
      0.12196922302246094,
      -0.10789811611175537,
      0.33793726563453674,
      -0.17177291214466095,
      -0.8014724254608154,
      0.6608510613441467,
      -1.0870908498764038,
      0.37522414326667786,
      -0.9147405028343201,
      -0.6015558242797852,
      -0.15543720126152039,
      0.2422638088464737
    ],
    [
      2.591897487640381,
      -0.45641574263572693,
      1.4361642599105835,
      -2.0974552631378174,
      2.577237367630005,
      1.0821456909179688,
      -1.4811127185821533,
      -2.23883056640625,
      -0.42851799726486206,
      -0.2706747055053711,
      -2.0030407905578613,
      0.5567396879196167
    ],
    [
      1.4634487628936768,
      0.4087265729904175,
      -2.502655267715454,
      1.339389443397522,
      1.0122807025909424,
      -0.5177730917930603,
      -1.5200146436691284,
      -0.43353986740112305,
      -0.7688416838645935,
      1.2038880586624146,
      0.675222635269165,
      0.6736856698989868
    ],
    [
      -0.5740753412246704,
      2.6981775760650635,
      -1.247789740562439,
      -0.09616675972938538,
      2.9621188640594482,
      -0.2580217123031616,
      -3.0010502338409424,
      0.21295954287052155,
      1.343821406364441,
      1.940390706062317,
      -0.19147029519081116,
      -2.037257671356201
    ],
    [
      3.4217748641967773,
      -0.5948060154914856,
      -1.5228582620620728,
      0.8766984343528748,
      -0.3522252142429352,
      2.056410312652588,
      -1.9830565452575684,
      -0.666039764881134,
      -1.434571623802185,
      1.7828649282455444,
      0.07135522365570068,
      0.30634835362434387
    ],
    [
      1.139811635017395,
      1.0405113697052002,
      -0.884399950504303,
      1.970335602760315,
      0.2669820785522461,
      -0.6659966707229614,
      -2.258399724960327,
      -0.6061776876449585,
      1.437891960144043,
      -2.315098524093628,
      -1.072004795074463,
      -0.545814037322998
    ],
    [
      1.3377538919448853,
      -0.1440441906452179,
      -0.5550229549407959,
      -0.692044734954834,
      -1.8039766550064087,
      0.6962133646011353,
      1.6440327167510986,
      -1.029369592666626,
      0.8472133874893188,
      0.008083620108664036,
      2.2818727493286133,
      -2.3910694122314453
    ],
    [
      0.12074965238571167,
      -1.3411197662353516,
      -0.207311749458313,
      1.4706125259399414,
      -1.475704550743103,
      3.2615323066711426,
      -0.8722168803215027,
      -1.3965822458267212,
      -0.7069058418273926,
      0.0933912992477417,
      1.2036938667297363,
      -1.0903252363204956
    ],
    [
      -0.65798020362854,
      -0.46244359016418457,
      -1.1053001880645752,
      0.5504535436630249,
      1.726564645767212,
      0.9038175344467163,
      -2.2906997203826904,
      0.7826797366142273,
      0.5825413465499878,
      1.4263029098510742,
      -1.3680349588394165,
      -0.9497439861297607
    ],
    [
      0.24364767968654633,
      -0.005065151955932379,
      -0.0015758366789668798,
      -0.12162698805332184,
      -1.0838347673416138,
      -0.07052083313465118,
      -1.0556930303573608,
      0.08031605929136276,
      0.3030957877635956,
      -0.916105329990387,
      -0.7021953463554382,
      0.6318647861480713
    ],
    [
      -0.025611041113734245,
      0.6477206945419312,
      3.5752928256988525,
      0.43315380811691284,
      0.2732943594455719,
      -0.768406331539154,
      0.10702913254499435,
      -2.099604845046997,
      -0.7747114300727844,
      0.585335910320282,
      -0.019804904237389565,
      1.5017690658569336
    ],
    [
      -0.3945043683052063,
      1.2654824256896973,
      0.8688220381736755,
      -1.3095532655715942,
      0.7167538404464722,
      -1.00681471824646,
      0.04672612249851227,
      0.672912061214447,
      -1.6519094705581665,
      -1.3002502918243408,
      1.285422444343567,
      0.9548878073692322
    ],
    [
      0.4663965702056885,
      0.9015914797782898,
      0.2501823306083679,
      0.6959051489830017,
      1.0097825527191162,
      -0.38223016262054443,
      -1.9006959199905396,
      1.3646551370620728,
      -0.2292112410068512,
      -0.7126014828681946,
      -0.7695484757423401,
      -0.10992669314146042
    ],
    [
      -1.8359624147415161,
      1.1716119050979614,
      0.5612220168113708,
      0.9162715077400208,
      0.760310173034668,
      -0.48612678050994873,
      0.22791384160518646,
      -0.19241945445537567,
      0.5762127637863159,
      -0.7877001762390137,
      -0.6812841296195984,
      0.41685789823532104
    ],
    [
      -0.6106117963790894,
      -0.5230376720428467,
      -0.10826405882835388,
      0.0149445915594697,
      -2.9721624851226807,
      -0.11118139326572418,
      1.8901495933532715,
      2.4538073539733887,
      -1.344882845878601,
      0.7044057846069336,
      0.5343223214149475,
      0.6555683612823486
    ],
    [
      1.5946576595306396,
      -0.9242184162139893,
      -1.4447951316833496,
      1.2241231203079224,
      0.37874293327331543,
      -0.921188235282898,
      -1.5895888805389404,
      0.9893286228179932,
      -0.9477092623710632,
      0.6808418035507202,
      0.9082252979278564,
      1.0514757633209229
    ],
    [
      0.38912490010261536,
      -1.4778220653533936,
      -0.7283169031143188,
      -1.5011308193206787,
      -0.10484504699707031,
      1.2406822443008423,
      0.619215726852417,
      0.46916601061820984,
      -0.8105508685112,
      0.18553957343101501,
      1.3683245182037354,
      -1.8944679498672485
    ],
    [
      1.2553550004959106,
      1.4080709218978882,
      0.5789766311645508,
      0.6408509016036987,
      -0.6944236755371094,
      -0.6873233914375305,
      1.1206709146499634,
      -0.8394547700881958,
      -0.4834598898887634,
      -0.9977661371231079,
      0.8241596817970276,
      -1.6870464086532593
    ],
    [
      1.076818585395813,
      0.09043646603822708,
      0.40051379799842834,
      -0.4093181788921356,
      -0.017005428671836853,
      0.861295759677887,
      -0.8389475345611572,
      0.7703659534454346,
      -0.5624253153800964,
      -0.07861451804637909,
      -1.1011773347854614,
      0.041690874844789505
    ],
    [
      1.9998501539230347,
      1.2274826765060425,
      0.4276212751865387,
      -0.010342421010136604,
      -1.3105390071868896,
      -0.9752500653266907,
      -1.4947291612625122,
      0.4998622238636017,
      0.48668622970581055,
      -0.8148077130317688,
      -0.6886995434761047,
      -0.7823718190193176
    ],
    [
      -2.3292393684387207,
      1.5361671447753906,
      -1.1213884353637695,
      -0.7719781398773193,
      0.5768058896064758,
      -1.983737826347351,
      1.6381096839904785,
      1.0200611352920532,
      1.2333496809005737,
      0.4364030957221985,
      -0.6055188179016113,
      -0.06786137074232101
    ],
    [
      2.711226224899292,
      -0.35798656940460205,
      1.5031882524490356,
      -1.1844476461410522,
      -1.2124274969100952,
      0.6180142760276794,
      -0.44654637575149536,
      0.40063124895095825,
      0.685522735118866,
      -1.6222292184829712,
      1.3317073583602905,
      1.063107967376709
    ],
    [
      0.3756558299064636,
      0.1463935673236847,
      -0.2846561372280121,
      -0.35703298449516296,
      -0.7349094748497009,
      0.45270174741744995,
      -0.6482326984405518,
      0.5372041463851929,
      -0.45756930112838745,
      -0.21362078189849854,
      -0.6257193088531494,
      0.08176533877849579
    ],
    [
      1.5691256523132324,
      0.8880535960197449,
      -0.509273111820221,
      0.5654546618461609,
      -0.10337904095649719,
      0.12226251512765884,
      -1.5498123168945312,
      0.23299762606620789,
      0.41233915090560913,
      0.028938105329871178,
      -0.25752314925193787,
      -1.1269731521606445
    ],
    [
      -0.6115521192550659,
      -1.1261940002441406,
      -0.4637359380722046,
      -0.8122762441635132,
      -1.7579387426376343,
      2.0168399810791016,
      -1.0225603580474854,
      2.0709877014160156,
      0.37873539328575134,
      -1.0389169454574585,
      -0.043678440153598785,
      -0.35878732800483704
    ],
    [
      0.00045979241258464754,
      -0.7099031209945679,
      -0.7637451887130737,
      -1.1228781938552856,
      -2.1456286907196045,
      1.609985113143921,
      1.4270604848861694,
      -0.4355677664279938,
      -0.7676041722297668,
      2.2730441093444824,
      1.435023546218872,
      3.0279934406280518
    ],
    [
      -1.282273769378662,
      0.29284486174583435,
      1.583774447441101,
      -0.8029355406761169,
      -1.0207080841064453,
      0.3142024278640747,
      -0.7692264914512634,
      0.25646093487739563,
      1.2267671823501587,
      0.6388198733329773,
      0.022195685654878616,
      0.18319645524024963
    ],
    [
      1.4145429134368896,
      -0.8339163064956665,
      1.9681371450424194,
      -0.3268354833126068,
      -0.6028759479522705,
      -2.1268057823181152,
      -0.36512312293052673,
      -0.6218866109848022,
      2.2657995223999023,
      -0.6742216944694519,
      0.3221956491470337,
      -0.9693978428840637
    ],
    [
      0.39479926228523254,
      1.532941460609436,
      -0.7995030879974365,
      -1.5506294965744019,
      -1.2415761947631836,
      -0.6276809573173523,
      -0.8962894678115845,
      -1.3995641469955444,
      3.0363051891326904,
      -0.5970233678817749,
      1.4590001106262207,
      -1.226081371307373
    ],
    [
      1.1440356969833374,
      1.9659324884414673,
      -0.11467326432466507,
      -2.376384973526001,
      -1.4966135025024414,
      0.978970468044281,
      0.6170454621315002,
      0.20959585905075073,
      1.0032169818878174,
      -0.002464564749971032,
      -1.2269121408462524,
      0.5016019344329834
    ],
    [
      1.2773146629333496,
      0.22303979098796844,
      1.1765615940093994,
      -1.504193663597107,
      0.4309932589530945,
      -0.7816619277000427,
      -1.1046503782272339,
      1.2967445850372314,
      -0.5803520679473877,
      0.7129268646240234,
      0.37037137150764465,
      -0.6392451524734497
    ],
    [
      0.3985278010368347,
      2.0961828231811523,
      1.0514899492263794,
      -1.3090355396270752,
      1.3831017017364502,
      -0.4401455819606781,
      0.893110454082489,
      -0.07904873788356781,
      -0.8230947852134705,
      0.6359179615974426,
      0.8114805221557617,
      -0.473513126373291
    ],
    [
      -0.1261833906173706,
      0.45578905940055847,
      -0.18161533772945404,
      -0.1850486844778061,
      0.5979387164115906,
      0.2551594376564026,
      -0.6156488656997681,
      0.8299829363822937,
      -1.9473711252212524,
      1.159224510192871,
      1.8639183044433594,
      -0.2540498673915863
    ],
    [
      -0.09289368987083435,
      1.313200831413269,
      0.45214709639549255,
      0.3886697292327881,
      0.21220020949840546,
      0.8543556332588196,
      0.7375687956809998,
      -0.16996274888515472,
      -1.8641237020492554,
      -1.5222896337509155,
      0.921940267086029,
      -1.9012112617492676
    ],
    [
      -1.4758881330490112,
      -0.36344805359840393,
      0.19309046864509583,
      -1.189843773841858,
      0.6080993413925171,
      -1.1265531778335571,
      1.3594622611999512,
      1.3185032606124878,
      -0.28058385848999023,
      -0.1312529593706131,
      0.15783415734767914,
      -0.0065618036314845085
    ],
    [
      -1.9447630643844604,
      0.12578080594539642,
      1.3774007558822632,
      0.29532837867736816,
      -0.9200854301452637,
      0.5836062431335449,
      0.4950214922428131,
      0.20981569588184357,
      0.34830355644226074,
      0.6485445499420166,
      -1.1473515033721924,
      -0.12044218182563782
    ],
    [
      -0.22289538383483887,
      -0.17805078625679016,
      -1.3109186887741089,
      1.2235132455825806,
      -1.4023607969284058,
      -0.19776365160942078,
      0.34015554189682007,
      1.991698980331421,
      0.8457037210464478,
      -0.46130916476249695,
      0.3681240975856781,
      -0.6999792456626892
    ],
    [
      0.8669413924217224,
      -0.5124639272689819,
      -0.6935888528823853,
      -0.6549938321113586,
      -0.06730859726667404,
      -1.8438440561294556,
      -1.3940539360046387,
      1.3122820854187012,
      1.6968637704849243,
      0.6148633360862732,
      0.07992152869701385,
      0.08843927085399628
    ],
    [
      -1.6349681615829468,
      0.40104424953460693,
      1.1147534847259521,
      0.3357088267803192,
      2.006969928741455,
      -0.4271031618118286,
      -1.3005821704864502,
      0.718955397605896,
      -0.41989824175834656,
      -1.354636311531067,
      1.1804956197738647,
      -0.004235051106661558
    ],
    [
      1.317037582397461,
      1.2900201082229614,
      1.4624565839767456,
      -0.4089113771915436,
      -0.356943815946579,
      0.30272072553634644,
      -0.7344233393669128,
      0.6705788373947144,
      -0.8727867007255554,
      -1.2991961240768433,
      -0.4976021945476532,
      0.9415836334228516
    ],
    [
      -0.5761467218399048,
      1.4774749279022217,
      -0.9404149055480957,
      -1.373296856880188,
      -0.3141762614250183,
      0.14250370860099792,
      -0.35151994228363037,
      -0.3082961440086365,
      0.47457313537597656,
      2.4923858642578125,
      -0.21539781987667084,
      -0.784447968006134
    ],
    [
      -0.2988904118537903,
      -1.220834493637085,
      -1.0865137577056885,
      0.7911533117294312,
      0.9049146175384521,
      1.4230576753616333,
      -0.34130650758743286,
      0.5780770182609558,
      -0.6048799753189087,
      1.7461744546890259,
      0.20179300010204315,
      0.04549235850572586
    ],
    [
      -0.529904842376709,
      0.6941062808036804,
      -0.8017671704292297,
      1.7709277868270874,
      -1.5024751424789429,
      0.665347158908844,
      0.04850732162594795,
      -0.8125782012939453,
      -1.0781052112579346,
      2.6389100551605225,
      2.0152461528778076,
      -0.6631205677986145
    ],
    [
      1.1057004928588867,
      -0.5074228644371033,
      -0.5781302452087402,
      0.8800978660583496,
      -0.23797307908535004,
      -0.34189432859420776,
      0.7207342982292175,
      -1.8371998071670532,
      -0.9378724098205566,
      -0.757430374622345,
      1.74772047996521,
      -0.10794432461261749
    ],
    [
      2.752516031265259,
      -0.014371544122695923,
      -0.5806980133056641,
      -1.6311001777648926,
      -1.83112633228302,
      -0.44849053025245667,
      -1.1956110000610352,
      2.003031015396118,
      0.928034245967865,
      -0.15449346601963043,
      -1.8728759288787842,
      -0.23805274069309235
    ],
    [
      -1.0084362030029297,
      3.1499557495117188,
      0.2095670849084854,
      -2.558828830718994,
      -1.047565221786499,
      -0.2243538647890091,
      1.1513512134552002,
      1.095505714416504,
      1.5259031057357788,
      1.6567978858947754,
      -0.5837762951850891,
      1.9857903718948364
    ],
    [
      -0.6414853930473328,
      -1.3770002126693726,
      -0.6211500763893127,
      2.8601596355438232,
      0.9268673658370972,
      -1.313167691230774,
      0.5747227072715759,
      0.7082865834236145,
      -1.4998329877853394,
      2.890479803085327,
      -0.44038698077201843,
      2.751343011856079
    ],
    [
      -0.48692622780799866,
      -1.0127862691879272,
      0.3834229111671448,
      1.3800185918807983,
      -1.5991878509521484,
      -0.23572508990764618,
      0.9724990129470825,
      0.6735086441040039,
      0.28356805443763733,
      1.248979926109314,
      0.7566513419151306,
      0.746873140335083
    ],
    [
      -0.6345654129981995,
      -0.4263359010219574,
      0.7939937114715576,
      -0.5288024544715881,
      0.083940789103508,
      1.0899473428726196,
      -1.9481059312820435,
      0.6973965167999268,
      -1.7925971746444702,
      -0.664451539516449,
      -1.7705919742584229,
      0.7435309886932373
    ],
    [
      -1.524975299835205,
      0.3044913709163666,
      0.7244674563407898,
      -0.4240857660770416,
      0.6663938164710999,
      -1.504536509513855,
      -0.08705410361289978,
      1.1415635347366333,
      -0.026376819238066673,
      2.2309322357177734,
      -0.9455229043960571,
      -0.6164268255233765
    ],
    [
      3.3478312492370605,
      -0.1403047889471054,
      -0.6493732929229736,
      -1.6822576522827148,
      -1.2370706796646118,
      0.007137253414839506,
      -1.8679866790771484,
      -1.0848352909088135,
      2.338860511779785,
      -0.04370905086398125,
      0.8035992980003357,
      -0.39470383524894714
    ],
    [
      -0.8259289264678955,
      -0.9351171851158142,
      0.7426249384880066,
      -0.6152945756912231,
      -1.761736512184143,
      0.6915456652641296,
      -1.9014030694961548,
      0.08684295415878296,
      0.32331234216690063,
      2.0250518321990967,
      2.4948782920837402,
      -2.327575206756592
    ],
    [
      1.0312962532043457,
      -1.7809720039367676,
      -0.39069536328315735,
      1.3692158460617065,
      -0.41382819414138794,
      -1.7683559656143188,
      -0.5667861700057983,
      3.6516146659851074,
      -2.04642391204834,
      1.1545405387878418,
      -0.4326198995113373,
      -1.4417036771774292
    ],
    [
      0.55098956823349,
      1.342361330986023,
      -1.9993369579315186,
      1.0069832801818848,
      -2.1972625255584717,
      0.2745060920715332,
      0.8428323268890381,
      0.6756932735443115,
      1.147179365158081,
      -0.5381335616111755,
      0.17507986724376678,
      -2.0812833309173584
    ],
    [
      -2.6012070178985596,
      0.08323367685079575,
      1.2717067003250122,
      0.6256752014160156,
      -0.785328209400177,
      -0.3790593147277832,
      0.2667865753173828,
      2.050555467605591,
      -0.109212726354599,
      -0.2884035110473633,
      0.7272701263427734,
      -0.7864599227905273
    ],
    [
      0.6177241802215576,
      -0.24945753812789917,
      0.68406742811203,
      -0.2788054347038269,
      -0.31588056683540344,
      1.0394346714019775,
      0.3257766366004944,
      -0.12820397317409515,
      -1.3198504447937012,
      -1.4387658834457397,
      -0.12143351137638092,
      1.3472524881362915
    ],
    [
      1.1531697511672974,
      -1.601940393447876,
      -0.8690618872642517,
      1.7734125852584839,
      -1.8621232509613037,
      -1.9866223335266113,
      1.5099084377288818,
      1.8550270795822144,
      -0.2030644416809082,
      -0.6911180019378662,
      1.428855061531067,
      1.3676992654800415
    ],
    [
      -0.8224852085113525,
      0.9511712789535522,
      -0.24473954737186432,
      -1.4697184562683105,
      3.097766160964966,
      -0.07147890329360962,
      -2.4504263401031494,
      -0.8021501302719116,
      1.383376121520996,
      -0.2422528862953186,
      0.18172992765903473,
      1.1572622060775757
    ],
    [
      -0.854604184627533,
      -0.8758896589279175,
      -1.2458549737930298,
      0.2730228900909424,
      -2.60963773727417,
      2.4013731479644775,
      0.6726834177970886,
      0.7517237663269043,
      1.6542888879776,
      -0.5114479660987854,
      1.7928961515426636,
      -0.5160768628120422
    ],
    [
      1.242550253868103,
      1.2625198364257812,
      -1.7564899921417236,
      -0.7290470004081726,
      1.4016081094741821,
      0.9110085964202881,
      1.5910958051681519,
      -0.24567680060863495,
      -0.27229243516921997,
      -0.7501857280731201,
      -0.526364803314209,
      -0.8157563209533691
    ],
    [
      1.113281011581421,
      -1.208303451538086,
      0.5246230959892273,
      -1.7637240886688232,
      2.408926010131836,
      -0.2532041668891907,
      0.11684174090623856,
      1.8912162780761719,
      -0.6324294209480286,
      -1.7925066947937012,
      -0.2582692801952362,
      -0.5177738666534424
    ],
    [
      0.20018230378627777,
      -0.7759535908699036,
      2.424203872680664,
      -0.7777551412582397,
      -0.0681919977068901,
      -1.847328782081604,
      -1.1004035472869873,
      -0.8102051615715027,
      2.8619799613952637,
      -0.5330772399902344,
      0.8594724535942078,
      -1.4923609495162964
    ],
    [
      -2.7835633754730225,
      -0.2932482659816742,
      0.9982070922851562,
      0.49541252851486206,
      -1.4870058298110962,
      0.27057790756225586,
      0.4175271987915039,
      0.6049178838729858,
      -0.051780566573143005,
      0.7726749181747437,
      0.156423881649971,
      -0.63599693775177
    ],
    [
      0.9618329405784607,
      -2.108520269393921,
      -2.0757126808166504,
      2.520275354385376,
      -0.5888072848320007,
      0.10119730234146118,
      -1.5315393209457397,
      0.4958372712135315,
      1.3170166015625,
      0.5174387097358704,
      1.74044930934906,
      0.46722888946533203
    ],
    [
      0.9628068208694458,
      0.2502601146697998,
      -0.2544684112071991,
      -2.0994362831115723,
      -0.4271474778652191,
      -1.8388890027999878,
      -0.6109389662742615,
      0.6785750389099121,
      1.6724838018417358,
      -1.2299851179122925,
      1.2390975952148438,
      0.8878488540649414
    ],
    [
      0.24645018577575684,
      0.808684766292572,
      -2.2325239181518555,
      1.3385088443756104,
      1.254719853401184,
      -1.7805485725402832,
      0.928773820400238,
      0.26330432295799255,
      -1.5001585483551025,
      0.2909035086631775,
      -0.3000006377696991,
      -2.3787336349487305
    ],
    [
      0.624789297580719,
      -0.0981430932879448,
      0.7752230763435364,
      -0.5041078329086304,
      -0.8034709692001343,
      -0.004236424807459116,
      0.5333769917488098,
      -0.1090431809425354,
      -0.36909806728363037,
      -0.611167848110199,
      -1.6507620811462402,
      1.4491395950317383
    ],
    [
      -0.3042595386505127,
      0.7100240588188171,
      0.5931367874145508,
      -0.45600831508636475,
      -0.8032445311546326,
      -2.228759527206421,
      -2.1822054386138916,
      1.6934325695037842,
      -0.3798902928829193,
      -0.3702937364578247,
      1.1668516397476196,
      0.8708955645561218
    ],
    [
      -2.1659095287323,
      0.741400420665741,
      -0.629451334476471,
      0.40005823969841003,
      -0.6304430365562439,
      -0.8380737900733948,
      0.17334401607513428,
      0.28597357869148254,
      -0.2504533529281616,
      0.727773129940033,
      -0.4321235716342926,
      1.0338104963302612
    ],
    [
      1.504050374031067,
      0.26423555612564087,
      0.8521349430084229,
      1.9258157014846802,
      0.38515710830688477,
      -1.5465548038482666,
      0.5253826379776001,
      0.22885417938232422,
      -1.861547589302063,
      1.1409757137298584,
      -1.0347034931182861,
      -1.3548957109451294
    ],
    [
      0.3053034245967865,
      0.4908517301082611,
      0.5613983273506165,
      0.049573492258787155,
      0.027655335143208504,
      0.4000903069972992,
      0.10414281487464905,
      0.25942233204841614,
      0.5417652130126953,
      -0.2603359818458557,
      -1.0654011964797974,
      1.253108024597168
    ],
    [
      1.1959879398345947,
      1.0355771780014038,
      0.16135036945343018,
      -2.1327712535858154,
      -0.7337623834609985,
      0.744960367679596,
      2.240473985671997,
      0.36847612261772156,
      0.26745250821113586,
      -2.6361591815948486,
      0.07106345146894455,
      0.5402494072914124
    ],
    [
      -0.31392738223075867,
      -0.0904032289981842,
      -1.0324156284332275,
      0.26090940833091736,
      -0.17351439595222473,
      2.6402974128723145,
      -1.118640661239624,
      0.18725889921188354,
      1.919357419013977,
      -2.259422540664673,
      0.22740134596824646,
      -0.3824092149734497
    ],
    [
      1.3807814121246338,
      -0.1630336344242096,
      0.23806090652942657,
      -0.9859311580657959,
      -1.720134973526001,
      0.15481817722320557,
      0.896661102771759,
      -1.3970860242843628,
      0.4730477035045624,
      0.7186868190765381,
      0.2934228777885437,
      -0.67033451795578
    ],
    [
      0.689585268497467,
      -0.5054745078086853,
      -0.8439886569976807,
      -0.15726840496063232,
      1.5504592657089233,
      -1.4346694946289062,
      -0.3676031827926636,
      -1.6561731100082397,
      1.5764893293380737,
      0.22088371217250824,
      0.5613979697227478,
      0.24441438913345337
    ],
    [
      0.20354431867599487,
      2.793879270553589,
      -0.7931163907051086,
      -0.3270292580127716,
      0.7966144680976868,
      -0.4679878354072571,
      -0.2469433844089508,
      -1.7468891143798828,
      1.5598598718643188,
      -0.47470253705978394,
      -0.8792760968208313,
      -0.49679750204086304
    ],
    [
      -0.04401395469903946,
      -1.2110081911087036,
      1.0072085857391357,
      -0.8137556314468384,
      0.10796891897916794,
      0.452190637588501,
      0.03205762431025505,
      -0.5862633585929871,
      -0.38476213812828064,
      -0.40224093198776245,
      0.31523188948631287,
      1.1077581644058228
    ],
    [
      -0.0051672374829649925,
      0.7263839244842529,
      -1.8327804803848267,
      0.8506102561950684,
      3.410417318344116,
      -1.5323001146316528,
      -2.7946128845214844,
      0.6918163895606995,
      0.5349901914596558,
      1.038480281829834,
      0.6030524969100952,
      -0.3043224811553955
    ],
    [
      -0.050948068499565125,
      2.8058903217315674,
      0.5149275660514832,
      -1.2927073240280151,
      -0.2524840533733368,
      0.8486052751541138,
      -1.028178095817566,
      -0.6812700033187866,
      -0.8623899221420288,
      -0.49821922183036804,
      -0.4441693127155304,
      -0.3244127631187439
    ],
    [
      0.08038286864757538,
      -0.9327440857887268,
      -0.050172287970781326,
      -0.003577795810997486,
      -1.7693264484405518,
      0.13116663694381714,
      2.8499755859375,
      -1.520344614982605,
      -1.5611129999160767,
      0.9153463840484619,
      1.303294062614441,
      -0.5102794766426086
    ],
    [
      1.0213472843170166,
      2.16458797454834,
      -0.1055728867650032,
      0.35132431983947754,
      0.5846457481384277,
      -0.7332208752632141,
      -1.6933130025863647,
      -0.7415667772293091,
      -0.22527724504470825,
      1.463405966758728,
      2.206946611404419,
      -1.7587120532989502
    ],
    [
      -0.4994608759880066,
      -0.19220715761184692,
      0.9004420638084412,
      0.0983605906367302,
      -0.5663303136825562,
      -0.7735331058502197,
      1.7374430894851685,
      0.4416784644126892,
      -1.0570929050445557,
      1.1046900749206543,
      -0.10636623948812485,
      0.4573635756969452
    ],
    [
      0.37896451354026794,
      0.14630287885665894,
      0.2072049379348755,
      0.10244989395141602,
      0.08429516851902008,
      0.38386085629463196,
      0.5594578385353088,
      0.5208008885383606,
      -0.7837607264518738,
      -0.4149453639984131,
      -0.11806061863899231,
      1.1574604511260986
    ],
    [
      -2.473283529281616,
      1.5160490274429321,
      1.062311053276062,
      -1.223731279373169,
      0.7974749803543091,
      2.7700257301330566,
      0.9477779865264893,
      -0.9389269948005676,
      -0.903511643409729,
      -1.8633008003234863,
      0.6236366033554077,
      -0.7529320120811462
    ],
    [
      -0.06747934967279434,
      -0.7131443023681641,
      0.9742584228515625,
      -1.192297339439392,
      1.1565392017364502,
      0.9415816068649292,
      0.5014417767524719,
      1.4373817443847656,
      0.7378126978874207,
      0.283549427986145,
      1.923666000366211,
      -3.0902624130249023
    ],
    [
      0.9605370759963989,
      -1.7963377237319946,
      0.2583882212638855,
      1.714022159576416,
      -0.007770020514726639,
      0.662604808807373,
      -1.6091464757919312,
      0.7324262261390686,
      -1.8253014087677002,
      0.9253901243209839,
      -0.23417867720127106,
      -1.295946717262268
    ],
    [
      -1.7139077186584473,
      0.01470719650387764,
      0.7454790472984314,
      -0.14230124652385712,
      -0.7623987197875977,
      0.5482762455940247,
      1.4578882455825806,
      1.5221896171569824,
      -0.5989394783973694,
      -0.2866612374782562,
      -0.24419428408145905,
      -1.096132516860962
    ],
    [
      2.1099295616149902,
      -0.5169747471809387,
      -0.47395065426826477,
      0.851904034614563,
      -0.28289490938186646,
      1.1104556322097778,
      0.3585765063762665,
      -0.5338478088378906,
      -0.7582264542579651,
      -2.1441938877105713,
      1.1469714641571045,
      -1.3638302087783813
    ],
    [
      0.50566565990448,
      0.6538115739822388,
      0.9738912582397461,
      0.5325956344604492,
      -0.19681471586227417,
      0.6076047420501709,
      -0.15139466524124146,
      -0.2846999764442444,
      -0.8966183066368103,
      -1.06235671043396,
      -0.8199159502983093,
      0.8110173344612122
    ],
    [
      -1.9713720083236694,
      -0.7114683985710144,
      -0.3632432818412781,
      0.25485336780548096,
      -1.5069600343704224,
      0.5241509079933167,
      1.2822728157043457,
      3.1319611072540283,
      0.13785246014595032,
      0.10923243314027786,
      0.412388414144516,
      -0.9258532524108887
    ],
    [
      -0.09946807473897934,
      -0.5425889492034912,
      1.683323860168457,
      0.255327433347702,
      -0.614643394947052,
      -2.02386212348938,
      1.7186254262924194,
      -0.6065662503242493,
      -0.22404833137989044,
      0.386481910943985,
      0.4461824595928192,
      -0.9533358812332153
    ],
    [
      0.9667739272117615,
      -0.7199887037277222,
      -0.13849593698978424,
      -0.15831653773784637,
      -1.256330966949463,
      -2.199880599975586,
      0.7271021008491516,
      -0.1540130227804184,
      0.6123193502426147,
      -1.70144522190094,
      -0.11832225322723389,
      2.116917133331299
    ],
    [
      0.3550373613834381,
      1.1049021482467651,
      0.0752822533249855,
      0.7321595549583435,
      -0.6399888396263123,
      0.036554913967847824,
      0.3221026062965393,
      0.14993304014205933,
      0.006502474192529917,
      -0.9975924491882324,
      -0.933724582195282,
      0.7545501589775085
    ],
    [
      1.892401933670044,
      -2.154048442840576,
      -2.0248420238494873,
      1.3142625093460083,
      1.0632320642471313,
      2.8152732849121094,
      1.7195243835449219,
      -2.255549669265747,
      -1.3614407777786255,
      0.361115038394928,
      -0.9587258100509644,
      0.33148494362831116
    ],
    [
      -1.9108667373657227,
      -0.18741540610790253,
      0.2679385840892792,
      0.7417460083961487,
      -1.2351938486099243,
      -0.5869455337524414,
      -0.6049654483795166,
      0.3920785188674927,
      1.1887458562850952,
      0.3247954249382019,
      -0.5748176574707031,
      1.4892336130142212
    ],
    [
      1.0171293020248413,
      -1.365763545036316,
      0.44496965408325195,
      0.9216980934143066,
      1.5329571962356567,
      -1.1855541467666626,
      -2.2789857387542725,
      -0.14604724943637848,
      2.0416789054870605,
      0.23255963623523712,
      -0.5835686326026917,
      1.3925094604492188
    ],
    [
      0.5725815892219543,
      0.41795119643211365,
      -0.06750034540891647,
      -0.17046447098255157,
      -0.10666488111019135,
      0.2954618036746979,
      -0.4594448208808899,
      0.40184542536735535,
      -0.4207346439361572,
      -0.7270534634590149,
      -0.9591202735900879,
      0.2533440589904785
    ],
    [
      -0.39120030403137207,
      2.556415319442749,
      -2.3040120601654053,
      -0.20184840261936188,
      -1.5042790174484253,
      -0.9727303385734558,
      0.9949926733970642,
      1.841278076171875,
      0.16959194839000702,
      -2.175100088119507,
      2.3912367820739746,
      -2.147627592086792
    ],
    [
      0.27233895659446716,
      1.5910892486572266,
      -0.6458469033241272,
      1.4021241664886475,
      -1.3216166496276855,
      -0.7396045923233032,
      -0.07289055734872818,
      0.5674974322319031,
      0.6796097159385681,
      -1.8771452903747559,
      0.34971848130226135,
      -1.4245504140853882
    ],
    [
      -0.9372267723083496,
      -0.5409720540046692,
      0.7430312633514404,
      0.3141629695892334,
      -1.8380420207977295,
      -1.1337026357650757,
      1.1252816915512085,
      2.2525665760040283,
      0.44707947969436646,
      0.3132968246936798,
      0.320391446352005,
      0.25674423575401306
    ],
    [
      0.9457118511199951,
      1.5705631971359253,
      -0.624048113822937,
      0.03172449767589569,
      0.16330207884311676,
      -0.5394890904426575,
      0.2586843967437744,
      1.8254425525665283,
      -0.2778019309043884,
      -1.8413937091827393,
      0.7063717246055603,
      -1.8462858200073242
    ],
    [
      1.0066685676574707,
      0.913804292678833,
      0.4849321246147156,
      0.14693200588226318,
      0.33295124769210815,
      1.4685113430023193,
      0.17814898490905762,
      0.2665451765060425,
      -0.04691252484917641,
      -0.5250585675239563,
      -0.4263625741004944,
      1.1148244142532349
    ],
    [
      0.6936073899269104,
      -1.2534197568893433,
      2.2173233032226562,
      -0.029801541939377785,
      -1.5227264165878296,
      1.9331632852554321,
      -0.38399335741996765,
      0.9837010502815247,
      1.3561196327209473,
      -1.3007580041885376,
      -1.2001638412475586,
      -1.3285037279129028
    ],
    [
      -1.5846339464187622,
      -0.34406158328056335,
      -1.000022292137146,
      -0.041396886110305786,
      -1.0587189197540283,
      -0.4738280475139618,
      2.7413814067840576,
      -0.3484789729118347,
      0.039671026170253754,
      1.2912399768829346,
      0.6082209348678589,
      1.8170065879821777
    ],
    [
      -1.170852541923523,
      1.0800548791885376,
      -0.2971023619174957,
      0.5052115321159363,
      0.25510236620903015,
      -1.3323554992675781,
      -0.09807151556015015,
      -2.0280978679656982,
      0.6718757748603821,
      0.8326059579849243,
      0.5236815214157104,
      1.4585365056991577
    ],
    [
      0.4365693926811218,
      -0.20891697704792023,
      0.6275289058685303,
      0.23695799708366394,
      -0.7942491173744202,
      0.025099709630012512,
      0.08337276428937912,
      0.6303099989891052,
      -1.2436010837554932,
      -0.3041967451572418,
      -1.2708131074905396,
      1.2023346424102783
    ],
    [
      -1.1485999822616577,
      -0.8106130957603455,
      -0.39143529534339905,
      1.4212627410888672,
      1.0146085023880005,
      1.5192153453826904,
      0.06501056253910065,
      1.7543123960494995,
      0.1990288496017456,
      -0.15911714732646942,
      0.09402591735124588,
      -0.9300812482833862
    ],
    [
      0.3648941218852997,
      -0.6824964880943298,
      -0.7105723023414612,
      -0.14696116745471954,
      1.433742880821228,
      0.12780648469924927,
      2.614473819732666,
      0.0070127760991454124,
      0.14521941542625427,
      -1.1930099725723267,
      -1.6565183401107788,
      -0.4626319110393524
    ],
    [
      -0.22408735752105713,
      0.5463010668754578,
      -0.14042603969573975,
      -0.3514135181903839,
      -0.3889558017253876,
      -0.10198664665222168,
      -0.36745232343673706,
      -0.30874931812286377,
      -0.24758806824684143,
      -0.7104817032814026,
      -0.7807403802871704,
      0.5273569226264954
    ],
    [
      -0.3384896516799927,
      -1.319167137145996,
      -0.33890658617019653,
      0.7842271327972412,
      0.723621666431427,
      0.3922555148601532,
      -0.345366895198822,
      0.9911784529685974,
      -0.8531592488288879,
      -0.32316669821739197,
      -0.48041415214538574,
      2.177846908569336
    ],
    [
