{
  "block_0": {
    "att.W_query.weight": [
      [
        1.3711116313934326,
        0.36871835589408875,
        -0.48045796155929565,
        -0.31465333700180054,
        0.44423773884773254,
        -0.5084121227264404,
        -0.591037929058075,
        0.07221865653991699,
        -0.4911021590232849,
        0.7824816703796387,
        -0.9004486203193665,
        0.28814423084259033
      ],
      [
        0.2700141668319702,
        0.028657715767621994,
        0.36557480692863464,
        -0.08720792084932327,
        -0.7488461136817932,
        -0.2844436466693878,
        0.12141391634941101,
        0.8254351019859314,
        0.3648280203342438,
        -0.22016756236553192,
        -0.10059804469347,
        -0.7955947518348694
      ],
      [
        0.7121214270591736,
        -1.0119311809539795,
        -0.155983567237854,
        -0.1889781504869461,
        1.2957022190093994,
        1.318623423576355,
        -1.0854198932647705,
        0.1346149891614914,
        -0.32687613368034363,
        -0.24928997457027435,
        0.16403956711292267,
        -0.6188862919807434
      ],
      [
        -0.2151896357536316,
        -0.21027113497257233,
        -0.0871800109744072,
        -0.23484592139720917,
        -0.17991197109222412,
        0.05540487542748451,
        -1.2485898733139038,
        0.2742445766925812,
        0.5794436931610107,
        0.2503572702407837,
        -0.07041939347982407,
        1.0128917694091797
      ],
      [
        1.0098121166229248,
        0.7053875923156738,
        -0.6697874665260315,
        0.05010869354009628,
        -0.27791640162467957,
        -1.008567214012146,
        -0.20922954380512238,
        -0.11938981711864471,
        -1.336630940437317,
        0.9924229979515076,
        0.27106180787086487,
        0.8831775784492493
      ],
      [
        -0.6205639839172363,
        -0.2629202902317047,
        0.06320134550333023,
        1.0521780252456665,
        -0.31796881556510925,
        -0.029425714164972305,
        -0.045867156237363815,
        -0.969057559967041,
        0.0981261283159256,
        0.6181071400642395,
        0.6021267771720886,
        0.5649303197860718
      ],
      [
        -0.25031185150146484,
        0.7688923478126526,
        0.7593000531196594,
        0.09873094409704208,
        -0.6779018640518188,
        -1.1754134893417358,
        0.019421305507421494,
        0.47334927320480347,
        0.9822141528129578,
        -0.6440263986587524,
        -0.6793625354766846,
        -0.2052503526210785
      ],
      [
        -0.3261567950248718,
        0.013011209666728973,
        0.07420729100704193,
        1.0777430534362793,
        -0.017399689182639122,
        0.3520147204399109,
        -0.6540093421936035,
        -0.4686693251132965,
        0.28544560074806213,
        0.6327529549598694,
        -0.3101763427257538,
        -0.5430590510368347
      ],
      [
        0.5619533658027649,
        0.474454790353775,
        0.5580077171325684,
        0.07814662903547287,
        0.40385666489601135,
        0.029006952419877052,
        -0.4076403081417084,
        0.14808371663093567,
        -0.7952720522880554,
        -0.3303177058696747,
        -0.4245634377002716,
        -0.3307894766330719
      ],
      [
        0.3518615663051605,
        0.8745460510253906,
        -0.17070990800857544,
        -0.6989661455154419,
        0.10224626213312149,
        -0.6880585551261902,
        0.42013540863990784,
        0.561841607093811,
        -0.10858376324176788,
        -0.6331483721733093,
        -0.4113251268863678,
        0.25486063957214355
      ],
      [
        0.8117436766624451,
        -0.6690117716789246,
        -0.4387192130088806,
        0.04493742436170578,
        -0.4151436388492584,
        0.31406617164611816,
        0.3260177671909332,
        0.45813098549842834,
        -1.0393860340118408,
        -0.23238027095794678,
        -0.2123992145061493,
        1.329808235168457
      ],
      [
        0.6724498271942139,
        -0.07398441433906555,
        -0.3205508291721344,
        -0.7929920554161072,
        0.5721688270568848,
        0.05497094988822937,
        0.2157774269580841,
        -0.8351784348487854,
        -0.18933382630348206,
        0.96943598985672,
        -0.11080377548933029,
        0.5402264595031738
      ]
    ],
    "att.W_query.bias": null,
    "att.W_key.weight": [
      [
        -0.28003019094467163,
        -1.1928951740264893,
        0.5130923390388489,
        0.2579598128795624,
        -0.06054558604955673,
        0.8116525411605835,
        -0.24267500638961792,
        -0.1367304027080536,
        0.4584425985813141,
        -1.5008690357208252,
        0.7711254358291626,
        -0.2195279896259308
      ],
      [
        -0.15044158697128296,
        -0.299365371465683,
        0.7448910474777222,
        0.6794415712356567,
        -0.08605345338582993,
        -0.43296507000923157,
        0.1925474852323532,
        -0.725842297077179,
        -0.1511978954076767,
        0.325344055891037,
        0.48401013016700745,
        -0.3955853581428528
      ],
      [
        -0.8275040984153748,
        0.7982802987098694,
        -0.6337186694145203,
        0.9371418356895447,
        -0.2913740575313568,
        0.31339526176452637,
        -0.027173684909939766,
        0.6899527907371521,
        0.43404924869537354,
        -1.3391000032424927,
        -1.1327571868896484,
        0.19755659997463226
      ],
      [
        0.3006350100040436,
        0.8950380086898804,
        -0.45315366983413696,
        0.17638468742370605,
        -0.4815270006656647,
        -0.25140926241874695,
        0.19898012280464172,
        0.12740735709667206,
        -1.0218257904052734,
        0.889281690120697,
        0.1469724327325821,
        -0.2664795219898224
      ],
      [
        -0.6405017971992493,
        -0.5792663097381592,
        0.40658995509147644,
        -0.2616064250469208,
        0.6278138160705566,
        -0.8241283893585205,
        1.237989902496338,
        0.6506603956222534,
        0.29982781410217285,
        -0.1261911243200302,
        -0.0029414319433271885,
        -1.1525635719299316
      ],
      [
        0.0922863557934761,
        0.4409397542476654,
        -0.30373311042785645,
        -0.8009479641914368,
        -0.22979223728179932,
        -0.22714748978614807,
        -0.5653570890426636,
        1.0832165479660034,
        0.28564390540122986,
        0.5337640047073364,
        -0.7793258428573608,
        0.7435482144355774
      ],
      [
        -1.2839863300323486,
        0.8917667865753174,
        -0.7358900904655457,
        0.039556972682476044,
        0.07015997916460037,
        0.442607045173645,
        -0.8169242739677429,
        -0.5251642465591431,
        -0.021209275349974632,
        1.182012677192688,
        0.4440496265888214,
        -0.0230877548456192
      ],
      [
        -0.273858904838562,
        0.1108190268278122,
        -0.43709635734558105,
        -0.03968455642461777,
        0.5004658699035645,
        -0.02549101784825325,
        0.7169265151023865,
        -0.2066657841205597,
        0.2193707376718521,
        -0.16660521924495697,
        -1.5403084754943848,
        0.41068410873413086
      ],
      [
        -0.7764407992362976,
        -0.6241940855979919,
        -0.6582838892936707,
        0.3894270360469818,
        0.09814702719449997,
        0.43107202649116516,
        0.36147332191467285,
        0.3859519958496094,
        0.09356319159269333,
        -0.15226855874061584,
        0.6284006237983704,
        -0.14596359431743622
      ],
      [
        -0.7389154434204102,
        0.5096424221992493,
        0.6168259978294373,
        -0.06097133830189705,
        -1.1237801313400269,
        0.6183286905288696,
        -0.16844135522842407,
        0.2607771158218384,
        -0.35360702872276306,
        -0.40662992000579834,
        -0.6914783716201782,
        0.9204473495483398
      ],
      [
        -0.3866322636604309,
        1.181050419807434,
        0.30157220363616943,
        0.29357609152793884,
        -0.3474385440349579,
        -0.307955801486969,
        1.0551538467407227,
        -0.08703282475471497,
        -1.179459810256958,
        0.49593886733055115,
        -0.15886159241199493,
        -0.43176114559173584
      ],
      [
        0.6282597780227661,
        0.5418227910995483,
        -0.23272192478179932,
        0.8260875940322876,
        0.43517136573791504,
        -0.36678799986839294,
        -0.11513632535934448,
        -0.24223442375659943,
        -0.681348443031311,
        -1.1393389701843262,
        0.08634396642446518,
        0.14133429527282715
      ]
    ],
    "att.W_key.bias": null,
    "att.W_value.weight": [
      [
        0.14618220925331116,
        0.2194284200668335,
        -0.03975556418299675,
        0.6061369776725769,
        -0.7538161873817444,
        -0.043249357491731644,
        0.16204842925071716,
        -0.7434879541397095,
        0.4685664176940918,
        -0.09670638293027878,
        0.001019991235807538,
        -0.04087667912244797
      ],
      [
        0.035298414528369904,
        0.03654937073588371,
        -0.40528666973114014,
        -0.12339550256729126,
        -0.9160609245300293,
        0.16162610054016113,
        0.35566556453704834,
        0.6604183912277222,
        -0.4673954248428345,
        0.29251807928085327,
        0.24911193549633026,
        -0.10760807245969772
      ],
      [
        0.558222234249115,
        -0.20475852489471436,
        -0.4140390455722809,
        0.5454409122467041,
        0.1537771075963974,
        0.060382962226867676,
        -0.22458525002002716,
        0.08753816038370132,
        -0.5856465101242065,
        -0.23849248886108398,
        0.3401305377483368,
        0.40287938714027405
      ],
      [
        -0.4257069230079651,
        0.3467959463596344,
        -0.030310237780213356,
        0.028990190476179123,
        -0.11753148585557938,
        0.7078476548194885,
        0.2589721083641052,
        0.5411233305931091,
        -0.03129807114601135,
        -0.06298099458217621,
        -0.5274376273155212,
        -0.46458500623703003
      ],
      [
        -0.4969983398914337,
        0.7230470180511475,
        0.36389631032943726,
        -0.19429820775985718,
        0.3757399618625641,
        -0.5275958180427551,
        -0.15999174118041992,
        0.15180011093616486,
        -0.04493924602866173,
        -0.20378918945789337,
        -0.0016234137583523989,
        0.18078266084194183
      ],
      [
        0.024069711565971375,
        -0.28965872526168823,
        -0.3738262355327606,
        -0.019799206405878067,
        0.38893353939056396,
        0.438702255487442,
        -0.714377224445343,
        0.6625532507896423,
        -0.0042068543843925,
        -0.06020333990454674,
        0.5857821702957153,
        -0.3457891345024109
      ],
      [
        0.44010886549949646,
        -0.09641510248184204,
        0.11275744438171387,
        0.05283353105187416,
        -0.5809014439582825,
        0.621508777141571,
        -0.3459123969078064,
        -0.6065038442611694,
        -0.08932635188102722,
        0.4944979250431061,
        0.18479420244693756,
        -0.3862762451171875
      ],
      [
        0.030046340078115463,
        0.39939871430397034,
        0.39680519700050354,
        -0.5764780044555664,
        0.45884379744529724,
        0.3408081829547882,
        -0.48344847559928894,
        -0.3624446988105774,
        -0.4128391146659851,
        0.08530528098344803,
        -0.3328869640827179,
        0.3823325037956238
      ],
      [
        0.18521948158740997,
        0.2691477835178375,
        0.5662900805473328,
        -0.8962053060531616,
        -0.3668590486049652,
        0.6495041251182556,
        0.2879810929298401,
        0.07043775916099548,
        0.07770782709121704,
        -0.03210367262363434,
        -0.29864153265953064,
        -0.49652087688446045
      ],
      [
        0.341000497341156,
        -0.5320732593536377,
        0.07166142016649246,
        0.04731191694736481,
        -0.09523279219865799,
        -0.04447392746806145,
        -0.3504323661327362,
        -0.1805383414030075,
        -0.20022797584533691,
        0.32747820019721985,
        -0.07117591053247452,
        0.25272470712661743
      ],
      [
        0.6482465863227844,
        -0.40512192249298096,
        0.5035574436187744,
        -0.6511151790618896,
        -0.252730131149292,
        -0.056087467819452286,
        0.3210689127445221,
        0.6571716666221619,
        -0.18679946660995483,
        -0.22575049102306366,
        0.008175509050488472,
        -0.08740513771772385
      ],
      [
        0.0343022421002388,
        0.31931790709495544,
        -0.5573768019676208,
        -0.8816540241241455,
        0.04826945811510086,
        0.04786165803670883,
        0.45711323618888855,
        -0.43771305680274963,
        0.1568458527326584,
        -0.16283470392227173,
        0.5033707618713379,
        0.14877019822597504
      ]
    ],
    "att.W_value.bias": null,
    "att.out_proj.weight": [
      [
        -0.4399957060813904,
        -0.30241191387176514,
        -0.25188007950782776,
        0.04776456579566002,
        -0.01818948984146118,
        0.303760290145874,
        -0.45547351241111755,
        -0.1401395946741104,
        -0.2636582553386688,
        -0.37512996792793274,
        -0.38433706760406494,
        0.2169860452413559
      ],
      [
        -0.09430341422557831,
        0.08171159774065018,
        0.33192312717437744,
        -0.014265738427639008,
        0.6821681261062622,
        -0.5597729086875916,
        0.2578340172767639,
        0.23643817007541656,
        -0.13796430826187134,
        -0.08845778554677963,
        -0.1808539181947708,
        -0.3160497546195984
      ],
      [
        0.33833688497543335,
        -0.653095543384552,
        -0.4570557475090027,
        0.6321008801460266,
        0.21068759262561798,
        0.09399586915969849,
        0.1864774376153946,
        0.24538376927375793,
        -0.3306432068347931,
        -0.07689760625362396,
        0.08098592609167099,
        -0.16604039072990417
      ],
      [
        -0.3428300619125366,
        0.14329800009727478,
        0.1674354523420334,
        0.38145971298217773,
        0.07792907953262329,
        0.6426648497581482,
        0.08100332319736481,
        -0.13733860850334167,
        -0.03672086447477341,
        0.21476532518863678,
        0.3719191253185272,
        -0.0998932421207428
      ],
      [
        0.21699757874011993,
        0.35316312313079834,
        -0.5047016143798828,
        -0.06511589139699936,
        -0.25554999709129333,
        -0.10452114790678024,
        -0.3824571967124939,
        -0.1558377593755722,
        0.3364097476005554,
        0.05111261457204819,
        -0.38063862919807434,
        -0.6391696929931641
      ],
      [
        -0.02957446128129959,
        -0.1935100108385086,
        -0.15000250935554504,
        -0.44362500309944153,
        0.06603105366230011,
        -0.6666498780250549,
        -0.4240076243877411,
        0.7092097997665405,
        0.08462727814912796,
        0.5537568926811218,
        -0.5227855443954468,
        0.4427170157432556
      ],
      [
        0.1312696486711502,
        -0.2875819206237793,
        0.09088276326656342,
        -0.4392399191856384,
        -0.3056309223175049,
        0.19543977081775665,
        0.6723292469978333,
        0.22904673218727112,
        0.1073841080069542,
        0.35994753241539,
        0.29035189747810364,
        -0.39716821908950806
      ],
      [
        0.38219916820526123,
        -0.3574024438858032,
        0.48436200618743896,
        -0.21551571786403656,
        -0.49885720014572144,
        0.17778380215168,
        -0.012057003565132618,
        0.12654560804367065,
        -0.015242871828377247,
        -0.13965202867984772,
        -0.7192894816398621,
        0.22095853090286255
      ],
      [
        0.2551778256893158,
        0.39831599593162537,
        0.0406329520046711,
        -0.5596053600311279,
        0.22282841801643372,
        0.06060246378183365,
        -0.40657496452331543,
        -0.6408154368400574,
        -1.196566104888916,
        -0.05322837829589844,
        -0.09585265815258026,
        0.37365004420280457
      ],
      [
        0.17966321110725403,
        0.012570668011903763,
        0.4532158076763153,
        -0.0800609439611435,
        0.3864549398422241,
        -0.249831885099411,
        -0.11093820631504059,
        -0.583808183670044,
        0.23433943092823029,
        -0.16134609282016754,
        0.46734440326690674,
        -0.11947749555110931
      ],
      [
        -1.0058032274246216,
        0.09820607304573059,
        -0.026878077536821365,
        -0.05657818168401718,
        0.14484526216983795,
        0.37045398354530334,
        -0.32455918192863464,
        0.6693626642227173,
        0.4532707631587982,
        0.17481058835983276,
        0.3793599307537079,
        0.4572751522064209
      ],
      [
        0.11839837580919266,
        0.8012130260467529,
        -0.06844206154346466,
        0.5374885201454163,
        -0.4990369379520416,
        -0.5684421062469482,
        0.6580427289009094,
        -0.3264336884021759,
        0.4750833213329315,
        -0.12890002131462097,
        0.3018583059310913,
        0.7145379185676575
      ]
    ],
    "att.out_proj.bias": [
      -0.07328867167234421,
      0.07710949331521988,
      -0.04556330665946007,
      0.08348142355680466,
      -0.12904848158359528,
      -0.0647311881184578,
      -0.12397440522909164,
      -0.09511319547891617,
      -0.011355143040418625,
      0.0496576689183712,
      0.10688158124685287,
      -0.06504591554403305
    ],
    "norm1.scale": [
      0.5870926380157471,
      0.5250998735427856,
      0.3723253011703491,
      0.5979792475700378,
      0.5703082084655762,
      0.5373135805130005,
      0.5683518052101135,
      0.5232172012329102,
      0.339337021112442,
      0.47038984298706055,
      0.44008973240852356,
      0.34233877062797546
    ],
    "norm1.shift": [
      -0.042437661439180374,
      -0.16338646411895752,
      0.009292412549257278,
      0.006249699741601944,
      0.06676509976387024,
      0.1580984741449356,
      0.03122517466545105,
      -0.1579211801290512,
      0.06035223230719566,
      0.09190279245376587,
      -0.12480487674474716,
      0.13494884967803955
    ],
    "norm2.scale": [
      0.5180649757385254,
      0.5739576816558838,
      0.5222014784812927,
      0.5831689834594727,
      0.49683088064193726,
      0.5698082447052002,
      0.4647390842437744,
      0.5227810144424438,
      0.5192387700080872,
      0.6179389357566833,
      0.4680647552013397,
      0.45869606733322144
    ],
    "norm2.shift": [
      0.18574285507202148,
      -0.5158393383026123,
      -0.5611764788627625,
      0.13434898853302002,
      0.4962376356124878,
      -0.057763464748859406,
      -0.08805166929960251,
      0.31064480543136597,
      0.09083365648984909,
      -0.37918564677238464,
      -0.27518704533576965,
      -0.11991520971059799
    ],
    "ff.lin1.weight": [
      [
        0.07098623365163803,
        0.8416957855224609,
        0.4641660451889038,
        0.35848063230514526,
        -0.330432265996933,
        0.5849946141242981,
        -0.9102652072906494,
        0.02281337045133114,
        -0.34755459427833557,
        0.3792281448841095,
        -0.41232335567474365,
        0.17888577282428741
      ],
      [
        0.36693865060806274,
        0.022355977445840836,
        -0.06696727871894836,
        -0.25195157527923584,
        -0.2632531225681305,
        -0.10170473903417587,
        -0.296146959066391,
        0.2685891091823578,
        -0.9818378686904907,
        0.8610262870788574,
        1.0526905059814453,
        0.3508819043636322
      ],
      [
        0.5700511336326599,
        -0.2779713273048401,
        0.46015989780426025,
        -0.7913027405738831,
        -0.8915505409240723,
        -0.5108035206794739,
        -0.43298855423927307,
        -0.1674947440624237,
        0.0460304357111454,
        0.6166192889213562,
        0.6421942710876465,
        1.3536640405654907
      ],
      [
        0.2640349268913269,
        0.9341028928756714,
        -0.3243870437145233,
        0.31620511412620544,
        -0.21422652900218964,
        -0.7921122908592224,
        0.1333165466785431,
        -0.12403025478124619,
        0.5184482932090759,
        0.010418539866805077,
        0.2942724823951721,
        -0.22983352839946747
      ],
      [
        -0.4973631203174591,
        0.17359855771064758,
        0.5762205719947815,
        -0.26664331555366516,
        -0.10413306951522827,
        0.9502197504043579,
        -0.382398396730423,
        0.265353262424469,
        -0.2244979739189148,
        0.3481842875480652,
        -0.34363389015197754,
        -0.08121486008167267
      ],
      [
        0.06176326796412468,
        -0.019064275547862053,
        -0.02943178080022335,
        0.00919380970299244,
        0.07642750442028046,
        -0.03215855732560158,
        0.02656271681189537,
        -0.13135389983654022,
        -0.033525433391332626,
        0.10250022262334824,
        -0.105489581823349,
        0.10002166032791138
      ],
      [
        0.19614313542842865,
        1.0407488346099854,
        0.6609076261520386,
        -0.40512436628341675,
        0.36107999086380005,
        -0.9181399345397949,
        0.11192060261964798,
        -0.47184503078460693,
        -0.08158315718173981,
        -0.26899924874305725,
        0.44449853897094727,
        0.2819206714630127
      ],
      [
        -0.8032214045524597,
        -0.06052008643746376,
        0.8973066210746765,
        0.218086838722229,
        -0.053234923630952835,
        0.2895124554634094,
        -0.06655916571617126,
        0.3229207694530487,
        -0.9887794256210327,
        0.5298768281936646,
        0.3735121786594391,
        -0.07528301328420639
      ],
      [
        0.13645021617412567,
        0.6343344449996948,
        0.26187077164649963,
        0.09016633033752441,
        -1.0687655210494995,
        0.1179443895816803,
        -0.42064300179481506,
        -0.7911573648452759,
        -0.7152266502380371,
        0.8576391935348511,
        0.6086317896842957,
        0.2544505298137665
      ],
      [
        -0.6170989274978638,
        0.5092729926109314,
        0.3317559063434601,
        -0.2570045590400696,
        -0.5428900122642517,
        -0.21546965837478638,
        -0.3951531946659088,
        0.49083730578422546,
        -0.6961688995361328,
        0.8377572894096375,
        -0.016008252277970314,
        0.7882509231567383
      ],
      [
        0.38687121868133545,
        0.054006416350603104,
        0.7258139252662659,
        -0.12887634336948395,
        -0.7226765155792236,
        -0.5139489769935608,
        0.503332793712616,
        0.3912641704082489,
        0.06875990331172943,
        0.8052489161491394,
        -0.925553560256958,
        0.12606281042099
      ],
      [
        -0.2682493329048157,
        -0.031685490161180496,
        0.35619136691093445,
        0.4565739929676056,
        0.4296267032623291,
        -0.17477282881736755,
        -0.15080097317695618,
        -0.20607607066631317,
        -0.1993894726037979,
        0.6991930603981018,
        -0.5223566889762878,
        0.17214873433113098
      ],
      [
        -1.16739821434021,
        0.8003968000411987,
        0.39352765679359436,
        0.1910991221666336,
        0.12475813180208206,
        -0.375637024641037,
        0.048420194536447525,
        -0.13471418619155884,
        0.3560473620891571,
        0.1407199501991272,
        -0.21808722615242004,
        0.4696950912475586
      ],
      [
        -1.0926703214645386,
        0.9264336228370667,
        0.08870185166597366,
        0.16543173789978027,
        -0.08463160693645477,
        0.04489672929048538,
        0.9171849489212036,
        -0.37508121132850647,
        -0.6057302951812744,
        0.01292834710329771,
        -0.009328171610832214,
        0.050087813287973404
      ],
      [
        -0.0451078787446022,
        0.6385680437088013,
        1.4563041925430298,
        -0.4620494544506073,
        -0.31129685044288635,
        -0.8066287636756897,
        0.07210898399353027,
        -0.5873777866363525,
        0.033276259899139404,
        0.3950802683830261,
        -0.16974760591983795,
        0.17240449786186218
      ],
      [
        0.6517171263694763,
        0.5808477997779846,
        0.9303995370864868,
        -0.8080334663391113,
        0.02118333801627159,
        -0.4305594563484192,
        0.42499351501464844,
        -0.746757984161377,
        -0.46249160170555115,
        1.0482470989227295,
        -0.12938430905342102,
        -0.47703880071640015
      ],
      [
        -0.6080025434494019,
        0.8073155283927917,
        1.6966361999511719,
        -0.19142559170722961,
        -0.14921784400939941,
        -0.07333774119615555,
        0.26659590005874634,
        0.02171906642615795,
        0.12035924941301346,
        -0.4967784285545349,
        0.09384208917617798,
        -0.6890376806259155
      ],
      [
        0.6428003311157227,
        -0.45055797696113586,
        0.08636706322431564,
        -0.9395086765289307,
        -0.6317686438560486,
        0.023583874106407166,
        0.6603658199310303,
        -0.8371933698654175,
        -0.17374125123023987,
        0.07119058072566986,
        0.8696281313896179,
        1.0056555271148682
      ],
      [
        -0.20867286622524261,
        0.5073872804641724,
        0.3272313177585602,
        -1.4235525131225586,
        -0.6038704514503479,
        0.6914314031600952,
        0.685687243938446,
        -0.21724626421928406,
        0.24917645752429962,
        0.22122278809547424,
        0.04418342188000679,
        0.5559850335121155
      ],
      [
        -0.3207583427429199,
        1.1909774541854858,
        0.05164824798703194,
        0.6050645112991333,
        -0.2597450613975525,
        -0.17423690855503082,
        -0.581856369972229,
        -0.5409044623374939,
        -0.03972776234149933,
        -0.7409641742706299,
        0.5069772005081177,
        0.5781256556510925
      ],
      [
        -0.10234449803829193,
        0.4560370147228241,
        1.0096110105514526,
        -0.7038754224777222,
        -0.1856018453836441,
        -0.035270050168037415,
        -0.24822236597537994,
        -0.5988144278526306,
        0.6958707571029663,
        -0.8347533941268921,
        0.2979595959186554,
        0.8178667426109314
      ],
      [
        -0.7106001377105713,
        0.5552088022232056,
        1.1010613441467285,
        0.722952127456665,
        -0.28078320622444153,
        -0.41466405987739563,
        -0.08027367293834686,
        -0.7050668001174927,
        -0.3580210208892822,
        0.4668748676776886,
        -0.011960035189986229,
        -0.1329578310251236
      ],
      [
        0.7369400858879089,
        -0.4376761317253113,
        0.38980790972709656,
        -0.276178777217865,
        -0.23208272457122803,
        -0.1319529265165329,
        0.055197734385728836,
        -0.8540831804275513,
        0.4166043996810913,
        0.1824146807193756,
        -0.1839180886745453,
        0.5727764964103699
      ],
      [
        -0.44949811697006226,
        -0.006544145755469799,
        -0.06393447518348694,
        -0.20292456448078156,
        0.49749913811683655,
        0.16568663716316223,
        -0.5877334475517273,
        -0.013683757744729519,
        -0.5594675540924072,
        0.04321671277284622,
        0.8455359935760498,
        0.46935850381851196
      ],
      [
        -0.19692330062389374,
        0.3830960988998413,
        0.03299262747168541,
        0.17820945382118225,
        -0.49345362186431885,
        0.5385937094688416,
        0.9066712856292725,
        0.36759474873542786,
        -0.06221752241253853,
        0.15484552085399628,
        -0.8445166349411011,
        -0.31953608989715576
      ],
      [
        0.33731645345687866,
        0.22053022682666779,
        -0.0684463381767273,
        0.1452823430299759,
        -0.9708935022354126,
        1.3671399354934692,
        0.07940064370632172,
        -0.06673639267683029,
        -1.1319009065628052,
        0.8820887804031372,
        0.36088278889656067,
        -0.6264458298683167
      ],
      [
        -0.11266351491212845,
        0.364138126373291,
        0.23896607756614685,
        -0.2235628068447113,
        -0.8774203062057495,
        -0.48341473937034607,
        -1.001481056213379,
        0.20773637294769287,
        0.6226292252540588,
        0.812571108341217,
        0.7720480561256409,
        -0.03315482661128044
      ],
      [
        -0.23681803047657013,
        1.0628890991210938,
        0.8493363261222839,
        -0.23919619619846344,
        -0.27779433131217957,
        -0.20487500727176666,
        0.38477203249931335,
        0.33869874477386475,
        -0.8711658120155334,
        -0.6219278573989868,
        -0.07962874323129654,
        -0.06764042377471924
      ],
      [
        0.4245074987411499,
        -0.2012714147567749,
        0.20263399183750153,
        -0.2908437252044678,
        -0.40466415882110596,
        -0.24299763143062592,
        -0.00402873195707798,
        -0.329922080039978,
        -0.20341363549232483,
        -0.25707122683525085,
        0.9588057398796082,
        0.08424840867519379
      ],
      [
        -0.18468400835990906,
        -0.5123291611671448,
        0.3873932361602783,
        -0.37916770577430725,
        -1.1190111637115479,
        0.1638985276222229,
        0.20475232601165771,
        0.768711268901825,
        0.21710079908370972,
        0.40423959493637085,
        0.07443564385175705,
        -0.19675582647323608
      ],
      [
        0.2735176980495453,
        -0.30137258768081665,
        0.35932034254074097,
        0.4567587673664093,
        -0.6965551972389221,
        -0.09535674750804901,
        -0.08738098293542862,
        0.5595030188560486,
        0.4057070314884186,
        0.8874742388725281,
        -0.3611236810684204,
        -0.6845741271972656
      ],
      [
        -0.5587221384048462,
        0.6835991740226746,
        0.18868191540241241,
        0.5050463676452637,
        -0.9007240533828735,
        0.810070276260376,
        0.5937747359275818,
        -0.6456146836280823,
        0.19919024407863617,
        -0.3108169734477997,
        -0.276699036359787,
        -0.1872405856847763
      ],
      [
        -0.6465376019477844,
        0.04894958809018135,
        1.3347121477127075,
        0.9831962585449219,
        0.21125474572181702,
        -0.883777379989624,
        0.22506627440452576,
        -0.2885589301586151,
        -0.027290865778923035,
        0.6878883838653564,
        0.9351885914802551,
        -0.5379524230957031
      ],
      [
        -0.4946075677871704,
        1.1576682329177856,
        0.42292729020118713,
        -0.42798683047294617,
        0.4385327100753784,
        0.8647289276123047,
        0.3113890290260315,
        -0.27351143956184387,
        -0.41860678791999817,
        -0.21718214452266693,
        -0.024069396778941154,
        -0.270980566740036
      ],
      [
        0.10845685750246048,
        1.0547999143600464,
        -0.09021952748298645,
        -0.4334709048271179,
        -0.08005797117948532,
        -0.6595605611801147,
        0.00902062188833952,
        -0.5163474678993225,
        -0.2993994355201721,
        0.9646016359329224,
        0.3770681917667389,
        0.6532285809516907
      ],
      [
        -0.591281533241272,
        0.34220775961875916,
        0.5906018018722534,
        -0.4317410886287689,
        -0.11845086514949799,
        0.288045734167099,
        -0.40901482105255127,
        0.8609671592712402,
        0.4311745762825012,
        -0.16705743968486786,
        -0.46946948766708374,
        0.5053327679634094
      ],
      [
        0.4327300190925598,
        0.6911088228225708,
        -0.22924143075942993,
        -0.5222578644752502,
        -1.463044285774231,
        0.7680899500846863,
        0.5707337260246277,
        0.6855589151382446,
        0.17325355112552643,
        0.4903108477592468,
        0.006075312849134207,
        -0.6567820310592651
      ],
      [
        0.28063610196113586,
        0.1384878009557724,
        0.2981617748737335,
        0.5046675205230713,
        -0.0014889308949932456,
        -0.08622153103351593,
        -0.3175411820411682,
        -1.5375311374664307,
        0.047495145350694656,
        -0.15326867997646332,
        0.20790405571460724,
        0.7740028500556946
      ],
      [
        0.6282506585121155,
        0.298768550157547,
        -0.5211955904960632,
        0.23788897693157196,
        -0.7691624164581299,
        1.0952787399291992,
        -0.36517640948295593,
        -0.330910325050354,
        0.20921893417835236,
        0.6921327114105225,
        -0.13211573660373688,
        -0.3356185555458069
      ],
      [
        0.18791894614696503,
        1.0911823511123657,
        0.3356464207172394,
        -1.0346941947937012,
        -0.027608200907707214,
        0.07337818294763565,
        0.26144087314605713,
        -0.3124910891056061,
        0.6017208695411682,
        -0.06361483037471771,
        0.3711100220680237,
        -0.5342269539833069
      ],
      [
        0.10022156685590744,
        0.055023450404405594,
        1.4925251007080078,
        -0.41586941480636597,
        0.321806401014328,
        -0.06975575536489487,
        -0.09770803898572922,
        -1.0499777793884277,
        -0.5862716436386108,
        0.3509614169597626,
        0.08024749159812927,
        0.030751248821616173
      ],
      [
        -0.24571895599365234,
        -0.07269859313964844,
        0.8700599074363708,
        0.24299420416355133,
        -0.2658275067806244,
        -0.33030956983566284,
        -0.4175992012023926,
        0.15470583736896515,
        0.3266901671886444,
        -0.7371519804000854,
        0.7343365550041199,
        0.29105454683303833
      ],
      [
        0.29101693630218506,
        0.4762788712978363,
        0.17897529900074005,
        -0.7334933876991272,
        -0.4584093987941742,
        0.5737013816833496,
        -0.0002543083392083645,
        -0.3794174790382385,
        -0.3169957399368286,
        -0.6880271434783936,
        0.22000758349895477,
        0.19931668043136597
      ],
      [
        -0.26404523849487305,
        0.7856212854385376,
        0.1232292428612709,
        0.5785296559333801,
        -0.4708516597747803,
        0.41878649592399597,
        0.18114304542541504,
        0.06318622082471848,
        -1.391926646232605,
        -0.2004997432231903,
        0.46033215522766113,
        -0.19359050691127777
      ],
      [
        -0.3252597451210022,
        1.064050316810608,
        -0.1070689857006073,
        -0.7505951523780823,
        -0.8774927258491516,
        -0.4666406214237213,
        1.1391048431396484,
        -0.1068040281534195,
        0.3308562636375427,
        0.4987896978855133,
        -0.18229542672634125,
        0.5583720207214355
      ],
      [
        -0.44929239153862,
        -0.08305477350950241,
        0.1681719869375229,
        0.4170033633708954,
        -0.5374007821083069,
        0.4122304916381836,
        0.5826790928840637,
        -0.6702438592910767,
        -0.6450192332267761,
        -0.16069260239601135,
        0.7568073868751526,
        0.09167519211769104
      ],
      [
        0.1687581092119217,
        0.621845543384552,
        0.131590336561203,
        -0.5414931774139404,
        0.03610262647271156,
        0.5783290266990662,
        0.5997838377952576,
        -0.4836213290691376,
        -0.17966216802597046,
        0.18085266649723053,
        -0.8989176154136658,
        0.4031287729740143
      ],
      [
        -0.0006097351433709264,
        0.06822072714567184,
        -0.01916477270424366,
        0.29485541582107544,
        -0.6404807567596436,
        0.23950563371181488,
        -0.4963650107383728,
        -0.1766376495361328,
        -0.23262064158916473,
        0.21735604107379913,
        -0.046874262392520905,
        0.7768206000328064
      ]
    ],
    "ff.lin1.bias": [
      -0.5179943442344666,
      -1.1534756422042847,
      -0.7977603673934937,
      -0.8508377075195312,
      -1.1097872257232666,
      -0.10338497906923294,
      -0.6180393695831299,
      -0.36534950137138367,
      -0.2302907407283783,
      -0.41732022166252136,
      -0.7185928225517273,
      -0.5399155616760254,
      -0.5237032771110535,
      -0.3074615001678467,
      -0.2727689743041992,
      -0.611124575138092,
      -0.7624382972717285,
      -1.2616113424301147,
      -0.9108742475509644,
      -0.9053495526313782,
      -1.0292632579803467,
      -0.2692236304283142,
      -0.6750378012657166,
      -0.8833284378051758,
      -0.808594822883606,
      -1.1723756790161133,
      -0.7523987889289856,
      -0.553896963596344,
      -0.28708043694496155,
      -0.5691220164299011,
      -1.0972568988800049,
      -0.7649421095848083,
      -1.3222535848617554,
      -1.1200902462005615,
      -0.7752116918563843,
      -1.490757703781128,
      -0.9857950806617737,
      -0.6272233128547668,
      -1.0068724155426025,
      -0.5887097120285034,
      -0.6741380095481873,
      -0.8440237641334534,
      -0.19479304552078247,
      -0.486381858587265,
      -0.80137699842453,
      -0.38775891065597534,
      -0.7960687279701233,
      -0.3674931824207306
    ],
    "ff.lin2.weight": [
      [
        0.203058660030365,
        0.05721188709139824,
        -0.37997156381607056,
        -0.12931497395038605,
        0.06984557211399078,
        0.0882839486002922,
        0.05144478753209114,
        -0.3807430863380432,
        -0.11761834472417831,
        -0.008003180846571922,
        0.17162352800369263,
        0.05344569310545921,
        0.10417458415031433,
        -0.39379146695137024,
        -0.04269050061702728,
        0.14384052157402039,
        -0.3504486382007599,
        0.23822511732578278,
        -0.4091741144657135,
        -0.2767491936683655,
        -0.6387578845024109,
        -0.11160147190093994,
        0.07102049887180328,
        -0.07629156857728958,
        0.18671797215938568,
        -0.10997842252254486,
        -0.9117685556411743,
        0.13501019775867462,
        0.09104947745800018,
        0.03686914220452309,
        -0.2775886058807373,
        -0.3479191064834595,
        0.18215283751487732,
        0.09928016364574432,
        0.029209570959210396,
        -0.0036683313082903624,
        0.19218941032886505,
        0.3609048128128052,
        -0.05944094434380531,
        -0.08224222809076309,
        0.07461165636777878,
        0.007113094441592693,
        0.2720780372619629,
        -0.09605032205581665,
        0.06412705034017563,
        -0.4060405492782593,
        0.1139712780714035,
        -0.005884783808141947
      ],
      [
        0.22482283413410187,
        0.180311918258667,
        0.5239220261573792,
        -0.01155348215252161,
        0.069064199924469,
        -0.015047521330416203,
        -0.07549184560775757,
        0.14351516962051392,
        0.33964404463768005,
        0.26609277725219727,
        -0.16043484210968018,
        0.07366888970136642,
        -0.47668614983558655,
        0.21998092532157898,
        -0.16005505621433258,
        -0.26726821064949036,
        0.10519345104694366,
        -0.31479647755622864,
        0.08347054570913315,
        0.2493065893650055,
        0.3077734708786011,
        -0.06131057068705559,
        -0.20622466504573822,
        0.17263223230838776,
        0.3561951518058777,
        0.1709156185388565,
        -0.13312214612960815,
        -0.003352760337293148,
        0.12046793103218079,
        -0.04983619228005409,
        -0.3537162244319916,
        -0.1547636240720749,
        -0.22241395711898804,
        -0.40224185585975647,
        -0.3280838131904602,
        -0.18886154890060425,
        0.506044328212738,
        0.03720184043049812,
        -0.4078396260738373,
        0.545508861541748,
        -0.1283707320690155,
        -0.25295186042785645,
        0.07100208848714828,
        0.2759307026863098,
        0.25616881251335144,
        0.15297219157218933,
        0.12813085317611694,
        0.17658786475658417
      ],
      [
        0.03198100998997688,
        0.5883550643920898,
        -0.13489480316638947,
        0.7313504815101624,
        0.057885415852069855,
        -0.08974544703960419,
        0.18988683819770813,
        0.41411471366882324,
        -0.1773121953010559,
        0.3682946264743805,
        -0.14683125913143158,
        -0.30569398403167725,
        -0.06574814021587372,
        0.012155700474977493,
        0.005911604966968298,
        0.4053994417190552,
        0.4630157947540283,
        -0.7239543199539185,
        0.5449367761611938,
        -0.22549444437026978,
        -0.13502533733844757,
        -0.14245355129241943,
        -0.11271348595619202,
        0.16872312128543854,
        -0.27819207310676575,
        -0.06301173567771912,
        0.10116229206323624,
        -0.01462410856038332,
        0.009519732557237148,
        -0.27656108140945435,
        -0.26685377955436707,
        0.06778181344270706,
        0.15120196342468262,
        0.05373569577932358,
        -0.3037520945072174,
        -0.09142320603132248,
        0.0035598319955170155,
        -0.269111305475235,
        -0.34287378191947937,
        -0.10102084279060364,
        0.46284374594688416,
        0.005389138124883175,
        -0.1789758950471878,
        -0.1807582974433899,
        0.4284425675868988,
        0.13568022847175598,
        0.012456217780709267,
        0.06000623106956482
      ],
      [
        0.023108448833227158,
        -0.31926229596138,
        0.17563022673130035,
        -0.2473340481519699,
        -0.02380569837987423,
        0.004841686226427555,
        -0.14675357937812805,
        0.32017308473587036,
        -0.07018380612134933,
        0.036242496222257614,
        0.04532821476459503,
        0.30210182070732117,
        0.2812919616699219,
        0.38123202323913574,
        -0.07431190460920334,
        -0.6504572629928589,
        0.02229970321059227,
        -0.3048126995563507,
        0.0828067883849144,
        -0.26212894916534424,
        -0.1991398185491562,
        0.5035707354545593,
        -0.03456197306513786,
        -0.20172260701656342,
        0.38270339369773865,
        0.443268358707428,
        0.19655545055866241,
        0.26746976375579834,
        0.24855469167232513,
        -0.05813954025506973,
        0.29169607162475586,
        0.007699446752667427,
        0.44677042961120605,
        -0.0450565405189991,
        0.1491035521030426,
        0.18587027490139008,
        0.4595889449119568,
        -0.23974740505218506,
        0.10843406617641449,
        0.1631496399641037,
        -0.45133745670318604,
        0.3041042387485504,
        -0.12278158217668533,
        -0.34981152415275574,
        0.4948398470878601,
        -0.3144756555557251,
        0.10203661024570465,
        0.08269362151622772
      ],
      [
        0.12755200266838074,
        -0.3923848867416382,
        -0.5587869882583618,
        0.02675768733024597,
        -0.006757539696991444,
        0.0037919720634818077,
        -0.6961145997047424,
        -0.11068666726350784,
        -0.3610946834087372,
        -0.14420264959335327,
        -0.001357189379632473,
        -0.2699195444583893,
        0.05773450434207916,
        0.25860661268234253,
        -0.49062609672546387,
        -0.011271006427705288,
        0.0978020429611206,
        0.26476436853408813,
        0.23511622846126556,
        0.5063069462776184,
        -0.4379350543022156,
        0.11146470159292221,
        -0.3039489686489105,
        0.12390812486410141,
        -0.13085250556468964,
        0.3251428008079529,
        0.3237242102622986,
        0.39609578251838684,
        -0.006572018843144178,
        -0.38132423162460327,
        0.13334843516349792,
        0.23266944289207458,
        0.08597566187381744,
        0.37860000133514404,
        -0.03503141552209854,
        -0.2905082702636719,
        -0.21429945528507233,
        -0.12607914209365845,
        -0.31678590178489685,
        0.12337985634803772,
        -0.13988207280635834,
        0.11137743294239044,
        0.02386557124555111,
        -0.03447166830301285,
        -0.06816288828849792,
        -0.019136495888233185,
        0.3096201419830322,
        -0.3875581920146942
      ],
      [
        0.17824909090995789,
        0.5665490031242371,
        -0.9545882940292358,
        -0.2428690493106842,
        0.2537136375904083,
        -0.018587816506624222,
        0.6580355763435364,
        -0.04795591160655022,
        0.8569952249526978,
        -0.14696989953517914,
        -0.364120215177536,
        -0.37005022168159485,
        -0.2220315933227539,
        0.0443083755671978,
        0.8830578327178955,
        0.9483979344367981,
        -0.06385751068592072,
        -0.4884859323501587,
        -0.3800312876701355,
        0.2497570663690567,
        0.03937797248363495,
        -0.09476730227470398,
        -0.3641531467437744,
        -0.059898629784584045,
        0.24432878196239471,
        -1.1603182554244995,
        0.2540701925754547,
        0.19664795696735382,
        -0.3304685354232788,
        0.5515991449356079,
        0.4089933931827545,
        0.8054313659667969,
        -1.851686716079712,
        -0.025449465960264206,
        0.7790047526359558,
        -0.31370899081230164,
        -0.1305759847164154,
        0.05861317366361618,
        -0.3827422857284546,
        -0.07523231208324432,
        0.42755749821662903,
        0.14517366886138916,
        0.105103999376297,
        -0.295335054397583,
        -0.1480870097875595,
        0.005246810149401426,
        0.23727452754974365,
        0.11553408950567245
      ],
      [
        0.12863868474960327,
        0.1721189022064209,
        0.576569139957428,
        0.0938655212521553,
        -0.05138280987739563,
        0.03802178055047989,
        0.1250535547733307,
        -0.2608173191547394,
        0.1914811134338379,
        -0.31601768732070923,
        0.3400520980358124,
        0.2779274880886078,
        -0.2001587599515915,
        -0.43359166383743286,
        0.05373762547969818,
        -0.14066314697265625,
        0.4500466287136078,
        -0.431620329618454,
        0.27578607201576233,
        0.12840868532657623,
        -0.39469364285469055,
        -0.025497542694211006,
        -0.16817249357700348,
        -0.3532015085220337,
        -0.1511627733707428,
        0.21577708423137665,
        0.17209036648273468,
        -0.35341396927833557,
        -0.03391461819410324,
        0.43141502141952515,
        -0.1274951845407486,
        -0.3693999946117401,
        0.03347716107964516,
        -0.10798576474189758,
        -0.15280596911907196,
        -0.0016948948614299297,
        -0.11679119616746902,
        0.2161920964717865,
        -0.10929562896490097,
        0.25078094005584717,
        0.2795827388763428,
        0.17552922666072845,
        -0.2437753826379776,
        -0.21590842306613922,
        -0.586189329624176,
        0.16166606545448303,
        -0.2418852299451828,
        -0.1244182139635086
      ],
      [
        -0.15424595773220062,
        0.04132426902651787,
        -0.08860956877470016,
        -0.07422429323196411,
        -0.008989769965410233,
        0.02309672348201275,
        0.29892194271087646,
        -0.09931493550539017,
        -0.2798328399658203,
        -0.16430427134037018,
        0.3241553008556366,
        -0.0716777965426445,
        0.18731115758419037,
        0.2016492784023285,
        0.35934683680534363,
        -0.018444988876581192,
        -0.15541809797286987,
        0.6836326718330383,
        -0.211488276720047,
        -0.11731752008199692,
        0.3809184432029724,
        -0.15887939929962158,
        0.1695273369550705,
        -0.025729447603225708,
        -0.07569601386785507,
        0.6870148181915283,
        0.127753347158432,
        0.19638592004776,
        0.33025965094566345,
        -0.2900533676147461,
        0.06707601249217987,
        -0.44270023703575134,
        0.11354156583547592,
        0.3212411403656006,
        -0.652269721031189,
        0.6314947605133057,
        -0.6547608375549316,
        -0.4351575970649719,
        0.6078664660453796,
        0.33987581729888916,
        -0.2421102225780487,
        -0.1648769974708557,
        0.4572394788265228,
        0.56770259141922,
        -0.6515844464302063,
        -0.07060551643371582,
        -0.3912368416786194,
        -0.027638660743832588
      ],
      [
        -0.32298481464385986,
        -0.35984325408935547,
        -0.050425127148628235,
        -0.48682352900505066,
        -0.40318581461906433,
        -0.031413041055202484,
        0.07623594999313354,
        0.560027539730072,
        0.20005857944488525,
        0.08316141366958618,
        0.3665325343608856,
        -0.22924593091011047,
        0.8586901426315308,
        -0.019914161413908005,
        -0.37716642022132874,
        -0.34196463227272034,
        -0.5096224546432495,
        0.25267499685287476,
        -0.28995874524116516,
        -0.038244687020778656,
        0.03738382086157799,
        0.3950108289718628,
        0.6366241574287415,
        -0.06897760927677155,
        0.09043686836957932,
        0.743830144405365,
        -0.17366962134838104,
        -0.09030650556087494,
        -0.054021336138248444,
        -0.2557543218135834,
        0.21086105704307556,
        0.006316740065813065,
        -0.1407107412815094,
        -0.054388657212257385,
        0.6368804574012756,
        -0.18677763640880585,
        0.20332781970500946,
        0.25286975502967834,
        0.2972825765609741,
        0.12057823687791824,
        -0.3157690465450287,
        -0.4393177926540375,
        -0.1830601841211319,
        -0.2076498419046402,
        -0.10008526593446732,
        0.3468107283115387,
        0.22459501028060913,
        -0.22596611082553864
      ],
      [
        0.3006133437156677,
        -0.6552290916442871,
        0.2865821123123169,
        -0.16968998312950134,
        0.07203585654497147,
        0.019332950934767723,
        -0.3998030126094818,
        -0.18749716877937317,
        -0.4642542898654938,
        0.37627553939819336,
        0.07163597643375397,
        0.3641543984413147,
        -0.05288727208971977,
        0.045770514756441116,
        -0.21297457814216614,
        0.0742299035191536,
        -0.17375491559505463,
        0.5615414977073669,
        -0.2537342309951782,
        -0.05134913697838783,
        0.07377726584672928,
        -0.1343943029642105,
        -0.054495472460985184,
        0.11747221648693085,
        -0.042100224643945694,
        -0.5715077519416809,
        -0.4724087715148926,
        -0.04674884304404259,
        -0.1162169873714447,
        0.02953426167368889,
        -0.10809573531150818,
        0.22652527689933777,
        0.35910534858703613,
        -0.03113710694015026,
        0.48421624302864075,
        0.32631683349609375,
        0.07421053200960159,
        0.04632142558693886,
        -0.013918823562562466,
        -0.28227919340133667,
        -0.05399630218744278,
        0.07405425608158112,
        -0.17889504134655,
        0.19498500227928162,
        0.04836256429553032,
        -0.216759592294693,
        -0.018299199640750885,
        0.13285721838474274
      ],
      [
        -0.5075622200965881,
        -0.3660355806350708,
        0.2525172829627991,
        -0.19631752371788025,
        -0.13385722041130066,
        0.08486734330654144,
        -0.2567225992679596,
        -0.0226229727268219,
        -0.1403680294752121,
        -0.1441124677658081,
        -0.019627979025244713,
        -0.06491047888994217,
        -0.24857252836227417,
        -0.19553060829639435,
        0.24527908861637115,
        -0.088929682970047,
        -0.06687027961015701,
        -0.003965555224567652,
        -0.14570198953151703,
        -0.02775127999484539,
        0.3726731538772583,
        0.2717486321926117,
        0.18562348186969757,
        0.13335020840168,
        -0.3655155599117279,
        -0.381183385848999,
        0.7221592664718628,
        -0.3124287724494934,
        0.20601551234722137,
        -0.14249888062477112,
        0.1308032125234604,
        -0.3089723587036133,
        0.1498681604862213,
        -0.45899492502212524,
        -0.13497641682624817,
        -0.19462385773658752,
        -0.6722294092178345,
        0.3722163736820221,
        0.14193618297576904,
        0.003928030375391245,
        -0.07353786379098892,
        -0.018902083858847618,
        -0.08748626708984375,
        0.2577801048755646,
        0.0018036060500890017,
        0.5447589755058289,
        -0.07848762720823288,
        0.1162044033408165
      ],
      [
        -0.36799824237823486,
        0.24825182557106018,
        -0.10156115144491196,
        0.08779300004243851,
        -0.07453043758869171,
        0.09214102476835251,
        0.2785396873950958,
        -0.22140613198280334,
        0.2804597020149231,
        -0.4420464038848877,
        -0.31837210059165955,
        0.11276392638683319,
        -0.1468765139579773,
        0.3792768120765686,
        0.09666252136230469,
        0.13768328726291656,
        0.5468798279762268,
        0.04414702579379082,
        0.042391564697027206,
        0.15164560079574585,
        0.3835735619068146,
        -0.5714017152786255,
        0.16518740355968475,
        0.16353724896907806,
        0.08214223384857178,
        -0.7508070468902588,
        -0.5504163503646851,
        0.07225732505321503,
        -0.1983834058046341,
        0.021218357607722282,
        0.32928115129470825,
        -0.18884988129138947,
        -0.30569830536842346,
        0.14552702009677887,
        -0.003440540051087737,
        0.08330120146274567,
        0.36152124404907227,
        0.01904022879898548,
        -0.006592594087123871,
        -0.9752158522605896,
        0.03409914672374725,
        0.2202288955450058,
        0.22960315644741058,
        0.007657486014068127,
        0.6821544170379639,
        -0.3509390652179718,
        -0.03335995599627495,
        0.30457261204719543
      ]
    ],
    "ff.lin2.bias": [
      -0.030005067586898804,
      0.1212494745850563,
      -0.0218682698905468,
      0.2429787963628769,
      -0.2054014503955841,
      -0.17491762340068817,
      -0.13110274076461792,
      -0.02819748967885971,
      0.16628412902355194,
      0.03861039876937866,
      0.1408260017633438,
      -0.1389116793870926
    ]
  }
}