{
  "block_0": {
    "att.W_query.weight": [
      [
        0.3033177852630615,
        -0.14468756318092346,
        -0.6310594081878662,
        0.5178701281547546,
        0.3913714289665222,
        1.3871632814407349,
        0.0385185144841671,
        1.1420836448669434,
        0.35385796427726746,
        0.23243188858032227,
        -0.27261024713516235,
        -1.4163053035736084
      ],
      [
        -0.7398228645324707,
        -0.2985684275627136,
        0.24141070246696472,
        0.19475312530994415,
        0.09282959252595901,
        -0.10388166457414627,
        0.12107397615909576,
        1.3818780183792114,
        -0.6851500272750854,
        0.1563476175069809,
        -0.717372477054596,
        0.800841748714447
      ],
      [
        0.7043938636779785,
        -1.248343586921692,
        0.13487374782562256,
        -0.18807543814182281,
        0.047491591423749924,
        0.1769033819437027,
        0.03288087993860245,
        -0.015467498451471329,
        -0.3713759183883667,
        0.9073868989944458,
        -0.027311941608786583,
        0.5537952184677124
      ],
      [
        -0.14567209780216217,
        0.030024733394384384,
        -0.2158522605895996,
        1.539485216140747,
        0.4216839075088501,
        0.9398924112319946,
        -0.20173998177051544,
        -0.4277072250843048,
        -0.19977155327796936,
        0.19691194593906403,
        -1.1660228967666626,
        0.1926453709602356
      ],
      [
        0.6160544753074646,
        -0.5678480863571167,
        0.9103820323944092,
        -0.19054576754570007,
        -0.26147720217704773,
        -0.33890628814697266,
        -0.583407998085022,
        -1.239619255065918,
        -0.43279537558555603,
        1.5009735822677612,
        -0.33116307854652405,
        0.6781447529792786
      ],
      [
        -0.0006291831377893686,
        -0.8218835592269897,
        0.31344786286354065,
        0.38193830847740173,
        -0.1639462262392044,
        1.8744468688964844,
        -0.9397146701812744,
        0.09664036333560944,
        -0.06478291004896164,
        0.19425417482852936,
        0.4246414303779602,
        -0.2283259481191635
      ],
      [
        0.9580127596855164,
        -1.8723329305648804,
        1.0016016960144043,
        -0.27338793873786926,
        -0.5263867974281311,
        0.007179507054388523,
        0.6012864708900452,
        0.5580493807792664,
        -1.2057095766067505,
        -0.0016890323022380471,
        0.2379867136478424,
        -0.16987313330173492
      ],
      [
        -0.3948124945163727,
        -0.29810717701911926,
        -0.3859279453754425,
        0.2762323021888733,
        0.3514196574687958,
        1.1572623252868652,
        -0.35642749071121216,
        1.0970823764801025,
        -0.9364041686058044,
        -0.4871598184108734,
        0.10518762469291687,
        -0.42975345253944397
      ],
      [
        -0.6559091806411743,
        0.4720815122127533,
        0.7112524509429932,
        0.3334321081638336,
        -0.2208215743303299,
        -1.566810965538025,
        0.8961841464042664,
        -0.0011684484779834747,
        -0.008302468806505203,
        -0.395366907119751,
        -0.3833833336830139,
        -0.34189680218696594
      ],
      [
        0.2730768322944641,
        0.29320481419563293,
        1.114537000656128,
        -0.2322966307401657,
        -0.5804722905158997,
        0.5423529744148254,
        -0.336681067943573,
        -0.01492606196552515,
        -0.4388531446456909,
        0.6166552901268005,
        0.046702560037374496,
        -0.3403981924057007
      ],
      [
        -0.18882229924201965,
        -0.4063146114349365,
        1.4507040977478027,
        0.07343446463346481,
        -0.6626405715942383,
        -1.5626931190490723,
        0.5136019587516785,
        -0.3912343680858612,
        0.10673563927412033,
        -0.12670059502124786,
        0.44490453600883484,
        1.173952341079712
      ],
      [
        0.08504526317119598,
        0.15893231332302094,
        0.1614207774400711,
        -0.35989415645599365,
        -0.26601046323776245,
        0.010631945915520191,
        -0.5409008860588074,
        1.3906339406967163,
        -1.094864845275879,
        -0.651630163192749,
        0.04078461602330208,
        0.22159910202026367
      ]
    ],
    "att.W_query.bias": null,
    "att.W_key.weight": [
      [
        -0.19598683714866638,
        0.3609329164028168,
        0.8963686227798462,
        -1.7019708156585693,
        0.6190522313117981,
        -0.7961075305938721,
        -0.6233794689178467,
        0.39143750071525574,
        0.8231402635574341,
        -0.07206938415765762,
        -0.02300223335623741,
        -0.32498160004615784
      ],
      [
        0.49988192319869995,
        0.3073560893535614,
        -0.8419817090034485,
        -0.22735358774662018,
        -0.6439145803451538,
        0.5280970335006714,
        -0.41425812244415283,
        -0.7955586910247803,
        1.0726433992385864,
        -0.47863373160362244,
        0.23464320600032806,
        0.11020396649837494
      ],
      [
        0.3040919005870819,
        -0.705941379070282,
        0.3734933137893677,
        0.647702693939209,
        -0.9746279120445251,
        0.19983652234077454,
        -0.15145602822303772,
        0.944766104221344,
        0.07927284389734268,
        -0.27883055806159973,
        0.3066808581352234,
        -0.10653295367956161
      ],
      [
        -0.19126369059085846,
        -0.15938934683799744,
        1.5500447750091553,
        -0.9988502264022827,
        0.6610921025276184,
        -0.26189249753952026,
        0.6197404265403748,
        -0.34003689885139465,
        -0.3999740183353424,
        -0.5304152369499207,
        0.15911416709423065,
        -0.10007264465093613
      ],
      [
        0.9718247652053833,
        -0.7897027730941772,
        -0.5073733329772949,
        0.6470863819122314,
        0.8632763028144836,
        -0.12857972085475922,
        -0.1620350182056427,
        0.17979395389556885,
        0.23027530312538147,
        -0.7388943433761597,
        1.1020402908325195,
        -0.9222565293312073
      ],
      [
        -0.5060238242149353,
        -0.5585073828697205,
        0.7862904071807861,
        0.1303456425666809,
        -0.12394507974386215,
        0.14863945543766022,
        1.5834426879882812,
        0.9549208879470825,
        -0.552795946598053,
        -0.34014731645584106,
        0.2281062752008438,
        -0.49563804268836975
      ],
      [
        -0.613878607749939,
        0.10610774904489517,
        -0.568266749382019,
        0.2418660670518875,
        -0.3820972442626953,
        0.6192193627357483,
        -2.0600216388702393,
        0.7024041414260864,
        1.0631855726242065,
        0.3868542015552521,
        0.3001994490623474,
        -0.3526381552219391
      ],
      [
        0.21594060957431793,
        0.2599216103553772,
        -0.14179542660713196,
        -0.185897096991539,
        0.19604983925819397,
        -0.7448263168334961,
        0.637248694896698,
        -1.0978589057922363,
        0.4988255202770233,
        1.2279133796691895,
        -0.24301746487617493,
        -0.5533386468887329
      ],
      [
        -0.10259158164262772,
        0.6679913401603699,
        -0.5166522264480591,
        -0.4936337172985077,
        0.023160357028245926,
        0.8065872192382812,
        -0.40008214116096497,
        0.4108343720436096,
        -1.2655136585235596,
        -0.6127121448516846,
        1.2636168003082275,
        -0.07877026498317719
      ],
      [
        0.11337483674287796,
        -0.6117762923240662,
        0.938541054725647,
        0.3357888460159302,
        -0.013863204047083855,
        0.2890658974647522,
        -0.3800024390220642,
        -0.42913055419921875,
        0.7475814819335938,
        -0.9225145578384399,
        -0.21071018278598785,
        0.25893962383270264
      ],
      [
        0.15819333493709564,
        -0.4128609001636505,
        -0.14886385202407837,
        -1.329102635383606,
        1.8469923734664917,
        0.7754955291748047,
        -0.5862948298454285,
        -0.30899977684020996,
        0.36325350403785706,
        0.08328268676996231,
        -0.20887406170368195,
        0.04968549683690071
      ],
      [
        0.3631184995174408,
        0.0014279105234891176,
        0.10805629193782806,
        0.45805901288986206,
        0.0739581435918808,
        0.634596049785614,
        0.2513275742530823,
        -0.5964615345001221,
        0.32401227951049805,
        -0.5250125527381897,
        0.7148385047912598,
        -1.2622312307357788
      ]
    ],
    "att.W_key.bias": null,
    "att.W_value.weight": [
      [
        0.47962313890457153,
        0.34677207469940186,
        -0.014847753569483757,
        0.5084461569786072,
        0.02569662034511566,
        -0.14562982320785522,
        -0.2451055496931076,
        0.2966531217098236,
        0.009799199178814888,
        -1.0927590131759644,
        -0.429017037153244,
        -0.4302040934562683
      ],
      [
        0.1514449566602707,
        -0.3101296126842499,
        -0.2244175374507904,
        0.27104055881500244,
        0.6347610950469971,
        -0.13905979692935944,
        0.12934067845344543,
        -0.492769330739975,
        0.16154329478740692,
        -0.033910807222127914,
        0.7978163957595825,
        -0.477203905582428
      ],
      [
        -0.8694249987602234,
        -0.0878460705280304,
        0.19483830034732819,
        0.1992727816104889,
        0.1049671471118927,
        0.06454832851886749,
        -0.14063942432403564,
        -0.20376546680927277,
        0.16054870188236237,
        -0.6377184391021729,
        0.4638109505176544,
        0.5355267524719238
      ],
      [
        -0.31110334396362305,
        0.10428314656019211,
        -0.15501752495765686,
        -0.12606126070022583,
        0.1786242425441742,
        -0.12019955366849899,
        0.32126757502555847,
        0.32657283544540405,
        1.0176688432693481,
        -0.47205862402915955,
        0.253555566072464,
        -0.6102724075317383
      ],
      [
        0.7183015942573547,
        -0.5749452710151672,
        -0.3309538960456848,
        -0.31044766306877136,
        -0.2628725469112396,
        0.21212317049503326,
        0.6088204383850098,
        0.3809822201728821,
        0.3364708721637726,
        -0.06810477375984192,
        -0.7203571796417236,
        0.28761932253837585
      ],
      [
        0.47510725259780884,
        0.013146228156983852,
        0.562269926071167,
        -0.42513155937194824,
        -0.6586018800735474,
        0.02729964815080166,
        -0.3092537224292755,
        0.0788303017616272,
        0.4717629551887512,
        0.5248358249664307,
        0.033233143389225006,
        -0.5481991767883301
      ],
      [
        0.14097699522972107,
        -0.04138921573758125,
        -0.38371309638023376,
        -0.6567342281341553,
        0.29779747128486633,
        -0.23642943799495697,
        -0.14849375188350677,
        0.02554529719054699,
        0.2467298060655594,
        0.3387486934661865,
        0.7252616286277771,
        0.12806476652622223
      ],
      [
        1.1720731258392334,
        0.0006037070415914059,
        -0.3853650987148285,
        -0.29190000891685486,
        -0.1454642117023468,
        0.05224952474236488,
        -0.2208051085472107,
        0.23914627730846405,
        0.007414609659463167,
        -0.1189265251159668,
        -0.6869431734085083,
        0.33520057797431946
      ],
      [
        -0.0034747060853987932,
        -0.17793087661266327,
        0.4114607572555542,
        0.1248125210404396,
        1.2051067352294922,
        -0.15466849505901337,
        -0.29943862557411194,
        0.11254860460758209,
        0.0786822959780693,
        -0.05259895697236061,
        -0.45256513357162476,
        -0.5025741457939148
      ],
      [
        -0.021517865359783173,
        -0.17770014703273773,
        -0.5692269802093506,
        -0.32957908511161804,
        -0.4679390788078308,
        -0.16577599942684174,
        -0.5652870535850525,
        0.06711868196725845,
        0.47380658984184265,
        -0.08043450117111206,
        0.49279356002807617,
        0.18886753916740417
      ],
      [
        -0.5445042848587036,
        0.040891122072935104,
        -0.06216501444578171,
        -0.6087290644645691,
        -0.2596966028213501,
        0.19246694445610046,
        0.6810383796691895,
        -0.4439372420310974,
        0.09316179901361465,
        0.7001816034317017,
        0.2640225887298584,
        -0.44844138622283936
      ],
      [
        0.22505491971969604,
        -0.5309815406799316,
        -0.19519327580928802,
        0.35629647970199585,
        -0.044029440730810165,
        -0.018743041902780533,
        -0.27913224697113037,
        0.1614128202199936,
        0.24353331327438354,
        0.5632404088973999,
        -0.4441063702106476,
        -0.48591935634613037
      ]
    ],
    "att.W_value.bias": null,
    "att.out_proj.weight": [
      [
        -0.5689961910247803,
        -0.823250949382782,
        -0.8476133346557617,
        0.10491634905338287,
        0.359417587518692,
        0.40013474225997925,
        0.13900552690029144,
        0.27799269556999207,
        0.23620352149009705,
        -0.21572625637054443,
        0.07786913216114044,
        -0.36905884742736816
      ],
      [
        -0.4906734526157379,
        0.051974933594465256,
        -0.0555453822016716,
        0.11266914755105972,
        -1.2646291255950928,
        0.817691445350647,
        -0.6474973559379578,
        0.131316140294075,
        0.5311200618743896,
        -0.30566418170928955,
        0.04501793161034584,
        0.8114540576934814
      ],
      [
        -0.22014090418815613,
        0.05030076578259468,
        0.11955581605434418,
        0.11448293924331665,
        -0.29834461212158203,
        -0.030275115743279457,
        0.5469183325767517,
        0.06578873097896576,
        -0.19898158311843872,
        -0.08261438459157944,
        -0.9241665601730347,
        0.09175151586532593
      ],
      [
        0.09671542048454285,
        0.13197633624076843,
        0.22388258576393127,
        0.06673874706029892,
        0.4794222414493561,
        0.5028959512710571,
        -0.5648310780525208,
        -0.12336824089288712,
        0.03429211676120758,
        -0.6345730423927307,
        -0.1702839732170105,
        0.35682716965675354
      ],
      [
        0.05327969789505005,
        -0.12303949892520905,
        0.02778065949678421,
        -0.717098593711853,
        0.31498679518699646,
        0.2691861689090729,
        -0.24433530867099762,
        0.12459684908390045,
        -0.6821156144142151,
        0.48703572154045105,
        -0.22428523004055023,
        0.020241396501660347
      ],
      [
        0.3877560794353485,
        0.14891330897808075,
        0.23650585114955902,
        0.33559882640838623,
        0.3910352289676666,
        0.04292767494916916,
        0.1065264493227005,
        -1.0043812990188599,
        0.5237635374069214,
        0.7269116044044495,
        0.10742560774087906,
        0.1803366094827652
      ],
      [
        0.6197549700737,
        -0.388174831867218,
        0.017346665263175964,
        -0.10300534218549728,
        -0.20267358422279358,
        -0.4192420244216919,
        -0.25207990407943726,
        -0.15595565736293793,
        0.030627727508544922,
        -0.1632397621870041,
        0.3402842879295349,
        -0.07095498591661453
      ],
      [
        -0.08092004805803299,
        0.5858519673347473,
        -0.33664724230766296,
        -0.09866631031036377,
        0.16819718480110168,
        -0.4731573760509491,
        -0.09532709419727325,
        0.33180806040763855,
        -0.43655431270599365,
        0.20189036428928375,
        0.2921253740787506,
        0.11825387924909592
      ],
      [
        -0.5426303744316101,
        0.18808670341968536,
        0.2421712875366211,
        -0.6645079255104065,
        -0.19651852548122406,
        -0.058838505297899246,
        0.006350148469209671,
        -0.38230693340301514,
        0.28461289405822754,
        -0.010128754191100597,
        -0.01429347600787878,
        -0.3286133408546448
      ],
      [
        -0.1321113556623459,
        -0.34891584515571594,
        0.6771643161773682,
        0.5079126954078674,
        -0.038463491946458817,
        -0.5007514357566833,
        0.023247485980391502,
        -0.18195393681526184,
        -0.46506720781326294,
        0.13377097249031067,
        0.5559675097465515,
        0.3025357127189636
      ],
      [
        0.5812233090400696,
        0.058547794818878174,
        0.09789107739925385,
        0.4292508661746979,
        -0.03870256990194321,
        0.00984082743525505,
        0.17573823034763336,
        0.7973701357841492,
        0.4536578059196472,
        0.4153805673122406,
        -0.3870745897293091,
        0.09802353382110596
      ],
      [
        0.20979705452919006,
        0.20658688247203827,
        0.05738506838679314,
        0.1569715291261673,
        -0.2996860146522522,
        0.39176198840141296,
        0.5690841674804688,
        -0.17893031239509583,
        -0.4566236436367035,
        -0.009095112793147564,
        0.6520969867706299,
        -0.5980969667434692
      ]
    ],
    "att.out_proj.bias": [
      0.08351585268974304,
      0.2290922850370407,
      -0.05707421898841858,
      -0.0025631701573729515,
      -0.04429798945784569,
      -0.09967607259750366,
      0.041905857622623444,
      0.014596179127693176,
      0.03631563112139702,
      0.01875838078558445,
      -0.04128962755203247,
      -0.17242681980133057
    ],
    "norm1.scale": [
      0.576755702495575,
      0.23473592102527618,
      0.5736368298530579,
      0.5912847518920898,
      0.5536932349205017,
      0.3108035922050476,
      0.5463109612464905,
      0.42702409625053406,
      0.33008694648742676,
      0.5357208251953125,
      0.5443767309188843,
      0.44265422224998474
    ],
    "norm1.shift": [
      0.03520401567220688,
      -0.1886245459318161,
      0.06952106952667236,
      -0.11293046921491623,
      -0.021917689591646194,
      -0.24885527789592743,
      -0.011671071872115135,
      -0.014811020344495773,
      -0.022446177899837494,
      0.0654238685965538,
      0.057676900178194046,
      0.10716675966978073
    ],
    "norm2.scale": [
      0.4608759880065918,
      0.4768548607826233,
      0.6197489500045776,
      0.648730993270874,
      0.5146691799163818,
      0.3822348415851593,
      0.6780756115913391,
      0.601833701133728,
      0.6173999309539795,
      0.5832609534263611,
      0.5096827745437622,
      0.6454490423202515
    ],
    "norm2.shift": [
      0.27747079730033875,
      -0.19426791369915009,
      0.6881188154220581,
      0.03473592549562454,
      0.07408806681632996,
      0.20223568379878998,
      -0.7868608832359314,
      0.29480239748954773,
      0.3947196900844574,
      -0.46861952543258667,
      0.06805366277694702,
      0.7606099247932434
    ],
    "ff.lin1.weight": [
      [
        -0.8803766965866089,
        0.756449282169342,
        -0.6390175819396973,
        -0.38307684659957886,
        -0.43944430351257324,
        0.7121070027351379,
        0.4335884153842926,
        -0.31934070587158203,
        -0.6770129203796387,
        0.8539360165596008,
        -0.52271968126297,
        -0.7391382455825806
      ],
      [
        0.665026843547821,
        0.06814157962799072,
        -0.6067198514938354,
        0.3460036516189575,
        0.08229230344295502,
        0.4327065646648407,
        0.8400623798370361,
        0.043150074779987335,
        -0.7107620239257812,
        0.7074854969978333,
        -0.3653636872768402,
        -0.35029736161231995
      ],
      [
        -0.5108924508094788,
        0.5389758944511414,
        0.1615096479654312,
        -0.5877062082290649,
        0.902054488658905,
        0.2111165076494217,
        0.29073870182037354,
        -0.8052844405174255,
        -1.0070233345031738,
        0.20844221115112305,
        0.18502992391586304,
        -0.6396503448486328
      ],
      [
        0.2985903024673462,
        0.40518736839294434,
        -1.0863932371139526,
        -0.2057511806488037,
        0.2224521040916443,
        0.5527026653289795,
        0.004768372513353825,
        -0.4408780038356781,
        0.2042725384235382,
        0.7851980328559875,
        -1.4614877700805664,
        -0.2204136997461319
      ],
      [
        -1.062989354133606,
        0.3059065043926239,
        -0.6026551127433777,
        0.5923013687133789,
        0.3662702143192291,
        -0.9185168147087097,
        0.7932353615760803,
        -0.48137253522872925,
        0.38290199637413025,
        -0.02085338719189167,
        0.5956833958625793,
        -0.3120127320289612
      ],
      [
        -0.6124343276023865,
        0.4733404517173767,
        -1.9465903043746948,
        -0.43168914318084717,
        0.13644564151763916,
        0.7040666341781616,
        0.2585281431674957,
        -0.47462794184684753,
        -0.5467833280563354,
        0.7359291911125183,
        -0.050805773586034775,
        -0.0430310033261776
      ],
      [
        -0.4255540668964386,
        -0.46972450613975525,
        -1.203513741493225,
        1.0694996118545532,
        -0.5826420783996582,
        0.19860538840293884,
        0.43213900923728943,
        -0.13429293036460876,
        -0.5553044676780701,
        -0.5135785341262817,
        0.7592679858207703,
        -0.5377371311187744
      ],
      [
        -0.7187230587005615,
        0.3129236400127411,
        -0.2649889886379242,
        -0.8798168897628784,
        0.13470187783241272,
        0.5458844900131226,
        0.2368844449520111,
        -0.5551465749740601,
        0.07395629584789276,
        -0.24998880922794342,
        0.9592615365982056,
        -0.3206525444984436
      ],
      [
        0.03000638261437416,
        0.04652165248990059,
        -0.24172957241535187,
        0.11107524484395981,
        0.3906186819076538,
        -0.14340084791183472,
        0.23271030187606812,
        -0.357189804315567,
        -1.6478646993637085,
        0.742344856262207,
        0.4096709191799164,
        -0.5588688850402832
      ],
      [
        -0.35946667194366455,
        -0.6021092534065247,
        -0.5670047998428345,
        0.5071651339530945,
        0.5347981452941895,
        -0.33711564540863037,
        0.9480854272842407,
        0.4155144691467285,
        0.05945589393377304,
        0.8022320866584778,
        -0.546323835849762,
        -0.4860905408859253
      ],
      [
        0.8507463335990906,
        -0.5301511883735657,
        -0.8253140449523926,
        0.029881944879889488,
        -0.5366514325141907,
        -0.3533245921134949,
        0.38388070464134216,
        1.1319255828857422,
        -0.7549700736999512,
        0.05894402787089348,
        -0.1254478096961975,
        -0.8242315053939819
      ],
      [
        -0.07986584305763245,
        0.6328939199447632,
        -0.6699935793876648,
        -0.1862756758928299,
        -0.3031432628631592,
        -0.8093222975730896,
        0.6543005108833313,
        0.1701122671365738,
        0.28241726756095886,
        0.38677844405174255,
        0.13195589184761047,
        -1.019176959991455
      ],
      [
        -0.30748724937438965,
        -0.8281700611114502,
        0.021539004519581795,
        -0.5086417198181152,
        0.3466440737247467,
        0.002718844683840871,
        0.974334180355072,
        -0.39044520258903503,
        -1.0391809940338135,
        0.8009213209152222,
        -0.749691903591156,
        0.03180621936917305
      ],
      [
        -1.1082929372787476,
        -1.050580620765686,
        -0.511715292930603,
        0.20901687443256378,
        0.646281361579895,
        0.5356316566467285,
        -0.17532727122306824,
        -0.21681030094623566,
        -0.2889312207698822,
        0.9115498661994934,
        0.5170724987983704,
        -0.5781286358833313
      ],
      [
        -0.3527582287788391,
        -0.9813951849937439,
        -1.1132469177246094,
        0.22697576880455017,
        0.8871815204620361,
        -0.49438831210136414,
        0.3303164839744568,
        -0.8056180477142334,
        -0.5871028304100037,
        1.5184767246246338,
        0.32461047172546387,
        -0.2713518440723419
      ],
      [
        0.5822986364364624,
        0.38931265473365784,
        -0.4308629333972931,
        0.7042365074157715,
        -0.47024455666542053,
        -0.7088338732719421,
        0.14687249064445496,
        -1.0291619300842285,
        0.22650659084320068,
        0.5301445126533508,
        0.3079530894756317,
        -0.9771783947944641
      ],
      [
        -0.06792937964200974,
        0.6613956689834595,
        -0.5055104494094849,
        -0.6285025477409363,
        -0.357744038105011,
        -1.017905831336975,
        0.4882717728614807,
        -0.24174518883228302,
        -0.41885653138160706,
        0.6803499460220337,
        0.5216639637947083,
        -0.7473935484886169
      ],
      [
        -0.3230687081813812,
        0.11573697626590729,
        -0.7243776917457581,
        0.05598105490207672,
        -0.5388340950012207,
        0.09024298936128616,
        0.8787270188331604,
        0.8184561133384705,
        -0.033949077129364014,
        0.7420645356178284,
        -0.7970336079597473,
        -1.3790844678878784
      ],
      [
        0.7282372713088989,
        -0.25287991762161255,
        -0.0891852155327797,
        -0.7703996896743774,
        -0.3019533157348633,
        -0.5916157364845276,
        1.0014981031417847,
        -0.7968323230743408,
        -0.28008368611335754,
        -0.13533373177051544,
        0.2089259773492813,
        -0.21105356514453888
      ],
      [
        -0.66823410987854,
        0.8366972804069519,
        -0.018288899213075638,
        0.5792353749275208,
        -0.6536681056022644,
        -0.07479318976402283,
        0.7997044324874878,
        0.291731595993042,
        -1.5826045274734497,
        -0.5264769792556763,
        0.39908865094184875,
        -0.7309718132019043
      ],
      [
        -0.3176277279853821,
        -0.5244771838188171,
        -0.445767343044281,
        0.37017595767974854,
        -0.2681659758090973,
        -0.060858629643917084,
        0.5406283140182495,
        -0.6433773636817932,
        0.5344574451446533,
        -0.2591226100921631,
        -0.05067121610045433,
        0.20444875955581665
      ],
      [
        -0.11637379974126816,
        -0.1449478268623352,
        -0.6121780872344971,
        -0.750943660736084,
        0.20902225375175476,
        0.9339022040367126,
        -0.3237123489379883,
        0.33482295274734497,
        -0.8835538029670715,
        0.4593817889690399,
        -0.41735267639160156,
        -1.5106332302093506
      ],
      [
        -0.6462604999542236,
        0.9125632047653198,
        -1.1988049745559692,
        0.794251024723053,
        -0.48422613739967346,
        0.1549166589975357,
        -0.11339865624904633,
        -0.15218597650527954,
        -0.29413101077079773,
        0.4243474304676056,
        -0.16138304769992828,
        -0.47171610593795776
      ],
      [
        -0.14361624419689178,
        -0.8442746996879578,
        -0.3719229996204376,
        -0.41986343264579773,
        0.7946116328239441,
        -0.5813894271850586,
        0.18049362301826477,
        -0.30108535289764404,
        0.7984656691551208,
        0.13177968561649323,
        0.024722253903746605,
        -0.46635013818740845
      ],
      [
        -0.7243344187736511,
        0.8311944007873535,
        -0.2690702974796295,
        -1.2670323848724365,
        0.6793283224105835,
        0.04758242890238762,
        0.9801586270332336,
        -0.8218593001365662,
        0.00708039803430438,
        0.8671666383743286,
        -0.7073591947555542,
        -0.21563009917736053
      ],
      [
        -0.3193555176258087,
        -0.9135151505470276,
        -1.171358346939087,
        0.1255573332309723,
        -0.8211427927017212,
        0.45167675614356995,
        0.5424964427947998,
        0.06836172938346863,
        -0.4166060984134674,
        1.2080262899398804,
        0.12427153438329697,
        0.07770959287881851
      ],
      [
        0.056182458996772766,
        0.4652738571166992,
        -0.6555249691009521,
        -0.4342612028121948,
        -1.186324119567871,
        0.3284394443035126,
        -0.3872942328453064,
        -0.4161160886287689,
        0.3853411078453064,
        0.35637661814689636,
        -0.10428671538829803,
        -1.1358165740966797
      ],
      [
        0.5436726212501526,
        -0.02737686224281788,
        -0.6290880441665649,
        0.9651480317115784,
        -0.4114224910736084,
        -0.36112192273139954,
        0.7214220762252808,
        -0.9574913382530212,
        -1.210793375968933,
        0.9300218224525452,
        0.1574677973985672,
        -0.6202384829521179
      ],
      [
        0.41667884588241577,
        -0.36101698875427246,
        -1.2078310251235962,
        0.7078309655189514,
        0.3519732356071472,
        -0.020278042182326317,
        0.027260394766926765,
        0.025897715240716934,
        0.09674961119890213,
        0.3610118329524994,
        -0.3161987364292145,
        -0.2515024244785309
      ],
      [
        0.4781794548034668,
        0.7167738676071167,
        -1.3407258987426758,
        0.673665463924408,
        -0.775010347366333,
        -0.42194634675979614,
        0.42008236050605774,
        0.3109482526779175,
        -0.46964770555496216,
        0.4952542185783386,
        -0.3247280418872833,
        -1.3455092906951904
      ],
      [
        -0.13416722416877747,
        -0.3530961275100708,
        -0.21340380609035492,
        0.6150029301643372,
        1.1719858646392822,
        -0.19250446557998657,
        0.2473577857017517,
        -0.8518978953361511,
        -0.9609656929969788,
        0.3361455500125885,
        0.4010939598083496,
        -0.49544838070869446
      ],
      [
        -0.29857391119003296,
        -0.1629553735256195,
        -0.10954813659191132,
        -0.6900597214698792,
        0.033980727195739746,
        -0.9462896585464478,
        1.4618940353393555,
        0.16727910935878754,
        -0.6054279804229736,
        0.38250499963760376,
        0.5178220868110657,
        -0.5009488463401794
      ],
      [
        -0.6599687337875366,
        -0.5956375598907471,
        0.11155775189399719,
        0.14372512698173523,
        0.702555775642395,
        -0.46122220158576965,
        0.9337624311447144,
        -0.740924596786499,
        -0.3079017400741577,
        0.9817707538604736,
        0.22774161398410797,
        -0.34063586592674255
      ],
      [
        -0.1068992093205452,
        0.2460232675075531,
        -1.2053234577178955,
        0.1576087325811386,
        -1.1944830417633057,
        -0.1990939825773239,
        0.47554609179496765,
        0.8349321484565735,
        -0.26853761076927185,
        0.49189266562461853,
        -1.0511261224746704,
        0.1394171416759491
      ],
      [
        -0.11846550554037094,
        0.2391928732395172,
        -0.8572680950164795,
        -0.7692931890487671,
        -0.1335689276456833,
        -0.4045378863811493,
        0.7653309106826782,
        0.3450542092323303,
        -0.6625701785087585,
        -0.27670934796333313,
        0.8683987855911255,
        0.24122725427150726
      ],
      [
        -0.3257957994937897,
        0.3259667456150055,
        0.06751996278762817,
        -0.14829912781715393,
        0.5992699861526489,
        -0.4668130576610565,
        1.313532829284668,
        -0.6982775330543518,
        -0.6442806124687195,
        -0.12182866036891937,
        0.5524184107780457,
        -0.32771629095077515
      ],
      [
        -0.3511096239089966,
        -0.49868395924568176,
        -0.4391013979911804,
        0.19010673463344574,
        -0.3655789792537689,
        0.40989950299263,
        -0.02375241369009018,
        -0.2380589097738266,
        -0.5736932754516602,
        1.3604611158370972,
        -0.9216210246086121,
        -0.02853638119995594
      ],
      [
        0.4082062542438507,
        -0.3702359199523926,
        -1.180614948272705,
        0.22995483875274658,
        -0.650307834148407,
        0.6167393326759338,
        0.5031510591506958,
        0.16963498294353485,
        -0.7014219760894775,
        0.6909612417221069,
        -0.4739099144935608,
        -1.0171695947647095
      ],
      [
        0.3411848545074463,
        0.7367025017738342,
        -0.7762672305107117,
        -0.3241649568080902,
        0.009709060192108154,
        0.33726897835731506,
        0.9726297855377197,
        0.007203828543424606,
        0.13293825089931488,
        -0.718929648399353,
        -0.5767391324043274,
        -1.134361982345581
      ],
      [
        -0.3633391261100769,
        -0.33748799562454224,
        -0.5622267127037048,
        -0.19096960127353668,
        0.31329506635665894,
        -0.3456082344055176,
        1.2549302577972412,
        0.14631620049476624,
        -0.7342275977134705,
        -0.17788834869861603,
        -0.6302658915519714,
        0.17109796404838562
      ],
      [
        0.01853618025779724,
        -0.665907621383667,
        -0.40738722681999207,
        -0.42195844650268555,
        0.1371748149394989,
        -0.24872168898582458,
        0.2153572291135788,
        -0.6739577651023865,
        0.05804620310664177,
        0.8706591725349426,
        0.1058787927031517,
        -0.3886512815952301
      ],
      [
        -1.2516309022903442,
        0.08943355828523636,
        -1.5297735929489136,
        -0.5363835692405701,
        0.9575497508049011,
        0.2482292503118515,
        0.6419564485549927,
        -0.7653030157089233,
        -0.07287824898958206,
        0.8557788729667664,
        -0.014648064970970154,
        -0.5352638363838196
      ],
      [
        -1.6158326864242554,
        0.17507651448249817,
        -0.7398535013198853,
        0.5670263767242432,
        0.5464268326759338,
        0.20391829311847687,
        0.06220148131251335,
        0.05566084012389183,
        -0.6129583120346069,
        0.49187853932380676,
        -0.869006335735321,
        -0.03621280565857887
      ],
      [
        0.1964040994644165,
        0.4004320800304413,
        -0.015579181723296642,
        -0.1358976662158966,
        0.09955437481403351,
        0.7157043814659119,
        0.4789712429046631,
        -0.5989061594009399,
        -0.3028644919395447,
        0.5737677216529846,
        -0.18641142547130585,
        -1.4012079238891602
      ],
      [
        0.2857798635959625,
        0.7752854824066162,
        -0.12335245311260223,
        -0.8036007881164551,
        0.4561725854873657,
        -1.0346401929855347,
        0.5412463545799255,
        -0.17204254865646362,
        -0.34512442350387573,
        -0.3377918303012848,
        -0.5050901770591736,
        -0.9078649282455444
      ],
      [
        0.4903188943862915,
        -0.3310483992099762,
        -0.05738779157400131,
        -0.11172520369291306,
        -0.25012993812561035,
        -0.7406229972839355,
        0.3125643730163574,
        -0.7742519974708557,
        0.42966151237487793,
        0.35162460803985596,
        -0.042382948100566864,
        -0.2884950637817383
      ],
      [
        0.05567707493901253,
        1.088688850402832,
        -0.9546767473220825,
        -0.3964129388332367,
        -0.012086388655006886,
        0.058930929750204086,
        -0.5255718231201172,
        -0.25098150968551636,
        -1.1993964910507202,
        0.2770034372806549,
        -0.7664316892623901,
        -0.26428884267807007
      ],
      [
        -0.7343074083328247,
        0.16524052619934082,
        -0.39650970697402954,
        -0.23698389530181885,
        0.40278419852256775,
        0.5017195343971252,
        1.1457240581512451,
        0.3535636365413666,
        -0.6767791509628296,
        -0.29837533831596375,
        0.4900246858596802,
        -2.084733486175537
      ]
    ],
    "ff.lin1.bias": [
      -0.9453015327453613,
      0.27667462825775146,
      -0.4576234817504883,
      -0.5695669054985046,
      -0.7013276815414429,
      -0.7587140798568726,
      -0.9555383324623108,
      -0.6555538773536682,
      -0.649316668510437,
      -0.19462482631206512,
      -0.7581649422645569,
      -0.5434488654136658,
      -1.0178539752960205,
      -0.8914430141448975,
      -1.0360757112503052,
      -0.7903687357902527,
      -0.9097292423248291,
      -0.5887085795402527,
      -0.7715303301811218,
      -0.9622050523757935,
      -0.7378352880477905,
      -1.1506325006484985,
      -0.132218599319458,
      -0.6535323262214661,
      -0.31588178873062134,
      -0.9557590484619141,
      -1.1161199808120728,
      -0.5407804250717163,
      -0.27959302067756653,
      -0.5128440856933594,
      -0.3399209678173065,
      -0.7965314984321594,
      -0.32529106736183167,
      -1.1503835916519165,
      -0.6865589022636414,
      -0.18303105235099792,
      -0.8943925499916077,
      -0.887172520160675,
      -0.5102571249008179,
      -0.8900709748268127,
      -1.0454198122024536,
      -0.8855769634246826,
      -1.0744563341140747,
      -0.05279461666941643,
      -1.0578173398971558,
      -0.7371097207069397,
      -0.9732196927070618,
      -0.8746356964111328
    ],
    "ff.lin2.weight": [
      [
        -0.0272278543561697,
        -0.4439631998538971,
        0.3001145124435425,
        0.40934860706329346,
        -0.17094796895980835,
        -0.21007570624351501,
        0.09841705113649368,
        0.05056111142039299,
        -0.0890626311302185,
        0.39944955706596375,
        -0.5791431069374084,
        -0.12861765921115875,
        -0.2943345308303833,
        -0.22026075422763824,
        0.18077759444713593,
        -0.04922132566571236,
        -0.0287215206772089,
        -0.2702691853046417,
        0.4027191996574402,
        0.24558696150779724,
        0.08662660419940948,
        0.25295963883399963,
        0.19093480706214905,
        0.030869783833622932,
        0.6466744542121887,
        0.05909848213195801,
        -0.14655709266662598,
        0.036290694028139114,
        -0.32577839493751526,
        0.3305802047252655,
        0.16090621054172516,
        0.1250506043434143,
        0.026479540392756462,
        -0.3645021915435791,
        -0.32532697916030884,
        -0.34123003482818604,
        0.12264423072338104,
        0.7818971276283264,
        -0.6641428470611572,
        0.5360938310623169,
        -0.174892395734787,
        -0.037070032209157944,
        0.07292058318853378,
        -0.3975282311439514,
        -0.39841681718826294,
        0.10988704860210419,
        0.08051300048828125,
        0.08934293687343597
      ],
      [
        -1.5896369218826294,
        -0.28840959072113037,
        0.7908660173416138,
        -0.24402955174446106,
        -0.028084130957722664,
        -0.5776692628860474,
        0.38322916626930237,
        -0.4000930190086365,
        -0.19110599160194397,
        0.05958528816699982,
        0.45496678352355957,
        -0.3144737482070923,
        0.37950313091278076,
        -0.4403393864631653,
        1.3680124282836914,
        -0.6108883023262024,
        -0.8430027365684509,
        0.4237051010131836,
        0.08593601733446121,
        0.6595519185066223,
        -0.1846873015165329,
        0.17639319598674774,
        -0.2851981818675995,
        -0.12470537424087524,
        0.520298957824707,
        0.42647895216941833,
        -0.7013263702392578,
        -0.1727265566587448,
        -0.5560879111289978,
        0.3116374611854553,
        -0.18038126826286316,
        0.11992917209863663,
        -0.4238241910934448,
        0.19722069799900055,
        -0.05286765843629837,
        0.03620429337024689,
        -0.11144526302814484,
        -0.674108624458313,
        0.12343107908964157,
        0.1012660413980484,
        -0.050131794065237045,
        -0.347819060087204,
        0.08929931372404099,
        1.6319342851638794,
        -1.0909242630004883,
        -0.23885966837406158,
        -0.9301794171333313,
        0.6297826170921326
      ],
      [
        0.31500405073165894,
        -0.4452996253967285,
        0.06631523370742798,
        -0.1259603202342987,
        -0.21217650175094604,
        0.19591450691223145,
        -0.2701151371002197,
        -0.07614768296480179,
        -0.43569114804267883,
        -0.469592422246933,
        0.26054084300994873,
        0.008718278259038925,
        0.03214924782514572,
        0.2824450731277466,
        -0.26682889461517334,
        -0.24609002470970154,
        0.405342161655426,
        0.5326263308525085,
        -0.358742356300354,
        0.024480899795889854,
        0.19115476310253143,
        -0.01933501847088337,
        0.02536347508430481,
        -0.007716285530477762,
        -0.7159223556518555,
        0.14852255582809448,
        -0.1713058054447174,
        -0.11897515505552292,
        -0.14030499756336212,
        0.0768359899520874,
        0.07581520080566406,
        -0.01957894116640091,
        -0.05276226997375488,
        -0.23038986325263977,
        -0.12827655673027039,
        0.1618661880493164,
        -0.07266879826784134,
        0.7816669940948486,
        -0.134427011013031,
        0.39701056480407715,
        0.2044064998626709,
        0.9646548628807068,
        -0.058450616896152496,
        0.09534142166376114,
        0.10392154008150101,
        -0.06502661854028702,
        0.11850438266992569,
        -0.5537430644035339
      ],
      [
        0.1993308961391449,
        0.03482113778591156,
        -0.2598761320114136,
        -0.17060458660125732,
        0.1901758760213852,
        0.2785428762435913,
        -0.4133363962173462,
        0.417031854391098,
        0.28664177656173706,
        -0.09422461688518524,
        0.12944652140140533,
        0.28266340494155884,
        -0.17544524371623993,
        -0.11184048652648926,
        0.038897834718227386,
        0.10780016332864761,
        -0.15288898348808289,
        0.19161449372768402,
        -0.04466946795582771,
        0.42567700147628784,
        -0.05076057091355324,
        -0.21103690564632416,
        0.1946190893650055,
        -0.10388847440481186,
        -0.29073184728622437,
        0.007824796251952648,
        0.4687079191207886,
        -0.143672913312912,
        -0.026918534189462662,
        0.11896232515573502,
        0.366160124540329,
        -0.24658240377902985,
        -0.20156848430633545,
        -0.0378199927508831,
        -0.3178514540195465,
        -0.0375557541847229,
        0.0723688155412674,
        -0.40646156668663025,
        -0.5625054836273193,
        0.03278689458966255,
        -0.09222183376550674,
        0.31343770027160645,
        -0.22027820348739624,
        -0.24369274079799652,
        -0.022494280710816383,
        -0.0346255898475647,
        -0.14723268151283264,
        -0.10659246891736984
      ],
      [
        0.03269336000084877,
        -0.05010909587144852,
        -0.056800901889801025,
        0.05677573010325432,
        -0.14255407452583313,
        -0.5322751402854919,
        0.0590222105383873,
        0.3331270217895508,
        0.2611106038093567,
        -0.46330270171165466,
        -0.0604407899081707,
        0.3218347132205963,
        0.028358090668916702,
        0.24957731366157532,
        -0.06511390209197998,
        0.3841690123081207,
        -0.10610582679510117,
        -0.2563190162181854,
        0.3883354365825653,
        -0.25625079870224,
        -0.2263765186071396,
        -0.22266745567321777,
        -0.12814250588417053,
        -0.13485044240951538,
        0.024685444310307503,
        -0.03456468880176544,
        0.15258321166038513,
        0.4353795051574707,
        0.12434384226799011,
        -0.47996535897254944,
        -0.1177649199962616,
        -0.0205276720225811,
        0.3601093888282776,
        0.5122240781784058,
        -0.10079847276210785,
        0.046890534460544586,
        -0.16711200773715973,
        -0.3091566562652588,
        0.49362894892692566,
        -0.2249038964509964,
        -0.1282833367586136,
        -0.5311101078987122,
        -0.29426729679107666,
        0.1412370800971985,
        -0.1980426162481308,
        0.2452193796634674,
        -0.028880588710308075,
        0.36888715624809265
      ],
      [
        -0.38340210914611816,
        -0.07173603773117065,
        -0.23110006749629974,
        -0.0029742764309048653,
        0.0462409071624279,
        0.48617225885391235,
        0.18146848678588867,
        0.2948943078517914,
        -0.05160971358418465,
        0.3608989417552948,
        -0.6081943511962891,
        0.4353623688220978,
        0.3701428771018982,
        -0.1046607568860054,
        -0.3773595690727234,
        0.435554176568985,
        0.35264506936073303,
        -0.17339913547039032,
        -0.08658772706985474,
        -0.28778523206710815,
        -0.392636239528656,
        -0.4433422386646271,
        0.047061048448085785,
        0.556291937828064,
        -0.27055394649505615,
        0.05442323535680771,
        0.23199230432510376,
        -0.2053888738155365,
        0.13907358050346375,
        -0.3883155882358551,
        -0.19085538387298584,
        0.47669488191604614,
        0.01724342815577984,
        -0.014642474241554737,
        0.37992069125175476,
        -0.8685244917869568,
        -0.03474932163953781,
        0.43428802490234375,
        0.4178939759731293,
        -0.40385276079177856,
        0.1815001517534256,
        -0.022240489721298218,
        -0.346826434135437,
        -0.4886108636856079,
        -0.37006980180740356,
        0.27206918597221375,
        0.07954677194356918,
        0.6018396615982056
      ],
      [
        -0.331389844417572,
        0.19879592955112457,
        -0.31359413266181946,
        -0.4122879207134247,
        -0.4256132245063782,
        0.03254678472876549,
        -0.1524241715669632,
        -0.08080300688743591,
        -0.048898644745349884,
        0.12216921150684357,
        0.1798970252275467,
        0.15597574412822723,
        0.14813736081123352,
        0.544135570526123,
        0.31711187958717346,
        0.19240032136440277,
        0.037932101637125015,
        -0.4657250940799713,
        -0.021885275840759277,
        -0.1860366314649582,
        0.027676580473780632,
        0.3500418961048126,
        0.08319897204637527,
        -0.11237624287605286,
        0.13224156200885773,
        -0.16927440464496613,
        0.03144717589020729,
        0.7282904386520386,
        -0.3025468587875366,
        -0.1444648802280426,
        -0.07543706893920898,
        0.2600885331630707,
        -0.036580268293619156,
        -0.10654697567224503,
        -0.17886875569820404,
        -0.3831843435764313,
        -0.42816054821014404,
        -0.20047767460346222,
        0.6606637239456177,
        -0.05273301526904106,
        -0.0430012084543705,
        0.35008469223976135,
        0.4200302064418793,
        -0.09273228049278259,
        0.3689073622226715,
        -0.20335827767848969,
        -0.0435105562210083,
        -0.463442325592041
      ],
      [
        0.34125107526779175,
        0.025825267657637596,
        0.1387166678905487,
        0.1908157467842102,
        -0.053406473249197006,
        0.06052910536527634,
        0.2850795090198517,
        -0.19944490492343903,
        0.015385840088129044,
        0.3528408706188202,
        0.05353019759058952,
        -0.25653645396232605,
        -0.2535243034362793,
        0.024896755814552307,
        0.40147510170936584,
        0.13767872750759125,
        0.11706476658582687,
        -0.21485337615013123,
        0.07513170689344406,
        0.3033949136734009,
        0.018211767077445984,
        -0.43489640951156616,
        -0.02740710787475109,
        -0.028988700360059738,
        -0.002100521232932806,
        -0.31925466656684875,
        -0.2920806407928467,
        0.2508162558078766,
        0.05299096181988716,
        0.35029056668281555,
        0.23604698479175568,
        -0.15188263356685638,
        0.2778469920158386,
        -0.06050819903612137,
        0.04229820519685745,
        0.045377183705568314,
        -0.04577697068452835,
        -0.631570041179657,
        -0.19889244437217712,
        0.08037462085485458,
        0.0543852262198925,
        -0.2446359246969223,
        -0.10269922763109207,
        0.041745156049728394,
        -0.0008643611217848957,
        -0.0767369493842125,
        -0.15202561020851135,
        0.02182779274880886
      ],
      [
        -0.0852576419711113,
        -0.07205738127231598,
        -0.05368494987487793,
        -0.06679631024599075,
        0.20023544132709503,
        -0.05697380378842354,
        0.3112996220588684,
        0.21640746295452118,
        0.17943435907363892,
        -0.13300766050815582,
        0.26564478874206543,
        -0.2147057205438614,
        0.24173402786254883,
        0.1517869085073471,
        0.03251606971025467,
        -0.20272931456565857,
        0.014131349511444569,
        -0.05045846477150917,
        -0.18159841001033783,
        -0.1745639145374298,
        0.2730240225791931,
        0.12926214933395386,
        -0.003459072671830654,
        0.1465640515089035,
        -0.014378326013684273,
        -0.20904038846492767,
        -0.8562723994255066,
        -0.11147613823413849,
        0.08529053628444672,
        0.016280224546790123,
        -0.5027173757553101,
        0.022724801674485207,
        -0.46955645084381104,
        -0.17133034765720367,
        0.4115585386753082,
        0.3360418379306793,
        -0.02030077576637268,
        -0.15688972175121307,
        -0.11301430314779282,
        -0.09876169264316559,
        0.024609457701444626,
        0.36084309220314026,
        -0.15147343277931213,
        0.16570468246936798,
        -0.020247627049684525,
        -0.20472405850887299,
        0.029151782393455505,
        -0.24743123352527618
      ],
      [
        0.29860496520996094,
        -0.13844949007034302,
        -0.09283272922039032,
        -0.33810290694236755,
        -0.6531341671943665,
        0.5438601970672607,
        0.14862771332263947,
        -0.07586874812841415,
        0.037883445620536804,
        0.02256840094923973,
        0.0333121232688427,
        -0.005204442888498306,
        -0.29769766330718994,
        -0.23697035014629364,
        -0.6207464933395386,
        -0.03249267861247063,
        0.13620425760746002,
        -0.3903809189796448,
        0.18633225560188293,
        -0.1529427021741867,
        -0.007948008365929127,
        0.0971553772687912,
        -0.10216074436903,
        -0.1763545274734497,
        -0.14425036311149597,
        0.36309191584587097,
        0.30761417746543884,
        -0.1909627467393875,
        -0.13047052919864655,
        0.22094111144542694,
        -0.24402011930942535,
        0.14040455222129822,
        -0.25744515657424927,
        -0.13064929842948914,
        -0.12534721195697784,
        -0.35433611273765564,
        0.09559760987758636,
        -0.06802625209093094,
        0.18231631815433502,
        -0.035013698041439056,
        -0.14060786366462708,
        -0.34663471579551697,
        0.5173105001449585,
        0.06159313768148422,
        -0.0016379328444600105,
        0.3316727876663208,
        0.07216023653745651,
        -0.3414900004863739
      ],
      [
        -0.4672321379184723,
        -0.10573729127645493,
        0.1688060164451599,
        0.001152584794908762,
        0.33293306827545166,
        -0.29456523060798645,
        -0.20428068935871124,
        -0.13169187307357788,
        -0.058180660009384155,
        -0.005505301523953676,
        0.08408793807029724,
        -0.26421040296554565,
        -0.5766626596450806,
        -0.2052454948425293,
        -0.6059260368347168,
        0.09207413345575333,
        -0.013659016229212284,
        0.06559842079877853,
        0.25566452741622925,
        -0.45147570967674255,
        0.12992799282073975,
        -0.1062391921877861,
        0.08474113792181015,
        -0.015317603945732117,
        -0.06460434198379517,
        -0.0008314906153827906,
        -0.1426226794719696,
        -0.5209001898765564,
        0.23875512182712555,
        -0.24755771458148956,
        0.05727601796388626,
        -0.16390307247638702,
        0.07186205685138702,
        0.15904518961906433,
        -0.003695653285831213,
        0.8302962183952332,
        0.07383688539266586,
        0.20935311913490295,
        -0.025270815938711166,
        0.08907514810562134,
        -0.11047548055648804,
        -0.28645801544189453,
        -0.1904296725988388,
        -0.03162328526377678,
        0.2700870931148529,
        -0.09376674145460129,
        0.34649816155433655,
        0.35423922538757324
      ],
      [
        1.1423269510269165,
        0.34734871983528137,
        -0.2958620488643646,
        0.4306792914867401,
        0.7123019695281982,
        -0.25622057914733887,
        -0.2125396430492401,
        -0.12470263987779617,
        0.1689164936542511,
        -0.19245462119579315,
        0.28517186641693115,
        -0.14221633970737457,
        0.10659940540790558,
        0.12919460237026215,
        -0.4918701946735382,
        -0.5528215169906616,
        0.5150963068008423,
        0.5618681311607361,
        -0.37310001254081726,
        0.4502706229686737,
        0.3588370680809021,
        0.35198819637298584,
        -0.6953403353691101,
        0.054629385471343994,
        0.25940725207328796,
        -0.23647379875183105,
        0.6695166230201721,
        -0.03801075369119644,
        0.11731261759996414,
        -0.9081582427024841,
        0.5355315804481506,
        -0.364796906709671,
        0.6332285404205322,
        0.11430656909942627,
        -0.25502729415893555,
        0.2869662642478943,
        0.030054565519094467,
        0.34968101978302,
        0.44652920961380005,
        -0.14045153558254242,
        -0.014912606216967106,
        -0.5606263875961304,
        -0.29309624433517456,
        -0.6016037464141846,
        0.5076471567153931,
        -0.3176864981651306,
        -0.7091451287269592,
        0.500163733959198
      ]
    ],
    "ff.lin2.bias": [
      0.14641761779785156,
      0.34266719222068787,
      -0.16339604556560516,
      0.005223152227699757,
      0.10394766181707382,
      -0.21877288818359375,
      0.11771669238805771,
      0.03690916299819946,
      -0.01556437462568283,
      -0.1588536649942398,
      0.06701424717903137,
      -0.05855978652834892
    ]
  }
}