{
  "tok_emb.weight": [
    [
      1.0958985090255737,
      0.46624556183815,
      0.8228265047073364,
      -0.029731309041380882,
      0.8458165526390076,
      -2.2727396488189697,
      -0.6065475344657898,
      -1.1498042345046997,
      0.6499348282814026,
      1.1780931949615479,
      0.19660285115242004,
      0.5627629160881042
    ],
    [
      -0.3935278356075287,
      0.491015762090683,
      0.12235838174819946,
      -0.23163484036922455,
      0.4932619333267212,
      0.6935642957687378,
      0.46223703026771545,
      -0.33687877655029297,
      0.01751440390944481,
      0.6317018866539001,
      -0.07742461562156677,
      -0.105856753885746
    ],
    [
      -0.4862939119338989,
      0.2868970036506653,
      -0.07225414365530014,
      0.38877469301223755,
      0.3721833825111389,
      -0.31059640645980835,
      -0.41022947430610657,
      0.4487902522087097,
      0.36435577273368835,
      -0.5883183479309082,
      -0.15855304896831512,
      0.5349419713020325
    ],
    [
      1.0004783868789673,
      0.4478938579559326,
      -0.18492931127548218,
      0.2551529109477997,
      -0.05653618276119232,
      -0.622144341468811,
      0.16830429434776306,
      -0.135981485247612,
      0.08784671127796173,
      -0.26034924387931824,
      -0.4908463656902313,
      0.05384477600455284
    ],
    [
      1.4131927490234375,
      0.6531054973602295,
      0.20941202342510223,
      -1.2358158826828003,
      0.3536563813686371,
      0.5137354135513306,
      -1.2389739751815796,
      -0.4598202705383301,
      -0.24449416995048523,
      0.4762137532234192,
      0.2300824671983719,
      -1.1288552284240723
    ],
    [
      1.4249532222747803,
      -0.32214781641960144,
      0.1130036935210228,
      -0.44592592120170593,
      -0.3498913049697876,
      -2.6856417655944824,
      1.4458013772964478,
      0.2676975429058075,
      1.1739517450332642,
      -0.3297220766544342,
      -0.12148961424827576,
      0.05758126452565193
    ],
    [
      -0.3167106509208679,
      0.1598922312259674,
      -0.6272243857383728,
      -0.42565852403640747,
      0.503653347492218,
      -0.780532717704773,
      0.20303045213222504,
      0.055248361080884933,
      -1.0601742267608643,
      0.967154324054718,
      1.5064716339111328,
      1.3155444860458374
    ],
    [
      1.3976792097091675,
      0.4090644419193268,
      0.30554431676864624,
      -0.7074024677276611,
      -0.9111618995666504,
      1.141156554222107,
      -0.15885406732559204,
      -0.46033838391304016,
      -0.17737844586372375,
      0.9486963748931885,
      -0.7980172634124756,
      -0.8092630505561829
    ],
    [
      -1.2178210020065308,
      1.2561389207839966,
      1.776829481124878,
      -1.0044429302215576,
      -0.7706825733184814,
      0.8515851497650146,
      0.7551358342170715,
      0.10570462048053741,
      -1.377956509590149,
      0.9446999430656433,
      -1.7087082862854004,
      0.5580514073371887
    ],
    [
      -0.08698689937591553,
      0.5123898983001709,
      0.9763079285621643,
      0.5999140739440918,
      1.9553176164627075,
      -0.46559593081474304,
      -0.6770572662353516,
      1.1015686988830566,
      -2.141737937927246,
      -1.463464617729187,
      -0.47182518243789673,
      -0.25531378388404846
    ],
    [
      0.6165855526924133,
      0.883148193359375,
      -1.7243783473968506,
      0.48563918471336365,
      0.4397262632846832,
      -1.7374886274337769,
      2.19917893409729,
      1.411072850227356,
      -0.8378291130065918,
      -0.7646705508232117,
      0.08237411081790924,
      -0.14029203355312347
    ],
    [
      -1.870540738105774,
      0.630487859249115,
      -1.6864874362945557,
      -0.1078266128897667,
      0.32469579577445984,
      0.7864776253700256,
      0.2341931015253067,
      -0.5096520185470581,
      -0.3087622821331024,
      0.35178279876708984,
      2.2279415130615234,
      1.7130074501037598
    ],
    [
      -0.5566109418869019,
      -0.013092540204524994,
      -0.8234984874725342,
      0.1285715103149414,
      0.1555645763874054,
      0.5610424876213074,
      0.43820077180862427,
      -0.46970006823539734,
      -2.8663835525512695,
      -0.3087059259414673,
      1.145049810409546,
      0.08993858098983765
    ],
    [
      -0.4158613085746765,
      -0.4841979146003723,
      0.846759557723999,
      0.4440689980983734,
      -0.2590533196926117,
      0.9131150841712952,
      -0.9564061760902405,
      -0.5977314114570618,
      0.22882217168807983,
      -0.47447434067726135,
      1.1251269578933716,
      -0.7490260004997253
    ],
    [
      0.48319894075393677,
      -0.7930717468261719,
      -1.3602527379989624,
      0.4250432252883911,
      -1.265967607498169,
      0.0964130312204361,
      0.581486701965332,
      1.2808358669281006,
      0.0659344270825386,
      0.16300058364868164,
      -1.4400819540023804,
      1.5917725563049316
    ],
    [
      -1.1422004699707031,
      -0.036448344588279724,
      0.27113476395606995,
      0.12009821087121964,
      -0.48637881875038147,
      0.002559211803600192,
      -0.8980095982551575,
      0.22596168518066406,
      0.7285959124565125,
      -1.0524224042892456,
      0.9794642329216003,
      1.3492724895477295
    ],
    [
      -1.1568524837493896,
      -0.9327672719955444,
      0.4031635522842407,
      1.2823817729949951,
      1.5273168087005615,
      -1.1994855403900146,
      0.8631928563117981,
      -1.1816915273666382,
      0.7188860177993774,
      0.9691148996353149,
      -0.06751491129398346,
      0.0099662309512496
    ],
    [
      -1.0136994123458862,
      0.22228781878948212,
      0.38996395468711853,
      0.7442159652709961,
      -0.24557799100875854,
      0.768327534198761,
      0.12685133516788483,
      -0.5493074655532837,
      -0.04280700162053108,
      1.133052110671997,
      0.9016270637512207,
      -0.3095177412033081
    ],
    [
      -1.3220362663269043,
      -0.911149799823761,
      1.0522410869598389,
      1.1015496253967285,
      -1.8360506296157837,
      1.554218053817749,
      -2.292888641357422,
      -0.43995535373687744,
      1.4747005701065063,
      1.092847466468811,
      0.1130160391330719,
      -0.08656782656908035
    ],
    [
      -0.2686241865158081,
      0.2133837789297104,
      -3.4524025917053223,
      -0.837200939655304,
      -0.31660690903663635,
      -0.6965307593345642,
      1.270422339439392,
      0.5687944889068604,
      0.09942781925201416,
      1.030231237411499,
      -0.46686720848083496,
      0.434142142534256
    ],
    [
      -1.6873812675476074,
      1.1081446409225464,
      1.5340299606323242,
      -0.19208386540412903,
      0.804642379283905,
      -0.21908609569072723,
      0.16586600244045258,
      0.41828829050064087,
      -0.9471492767333984,
      1.3538227081298828,
      -1.6020073890686035,
      -0.43212705850601196
    ],
    [
      -0.7441521286964417,
      -0.10248306393623352,
      1.3890767097473145,
      -0.21982751786708832,
      -1.876952052116394,
      -1.4565047025680542,
      -1.249678611755371,
      1.5910184383392334,
      1.0326569080352783,
      -0.6400299668312073,
      -0.19437162578105927,
      -0.48311668634414673
    ],
    [
      -1.6991832256317139,
      0.017923029139637947,
      0.4613173007965088,
      -0.19019624590873718,
      1.4559409618377686,
      -0.8856714963912964,
      0.1484675109386444,
      -0.6631463170051575,
      1.386335015296936,
      0.8203634023666382,
      0.7060369849205017,
      0.04122140631079674
    ],
    [
      -0.3496275842189789,
      -1.3002686500549316,
      -0.9027584791183472,
      1.8631845712661743,
      1.8443970680236816,
      -0.8041970133781433,
      0.0636669248342514,
      -0.7156016230583191,
      -0.38904687762260437,
      -1.2180825471878052,
      0.6080458760261536,
      0.7973532676696777
    ],
    [
      0.3962784707546234,
      -0.40784308314323425,
      -0.2552185654640198,
      -0.5871193408966064,
      -0.6781125664710999,
      0.9090080857276917,
      -1.0818212032318115,
      0.10827457904815674,
      -1.092858910560608,
      -0.4285084307193756,
      0.14549501240253448,
      1.8609716892242432
    ],
    [
      -0.23172780871391296,
      1.8479087352752686,
      -0.8001833558082581,
      0.4485960900783539,
      0.5976966619491577,
      1.1606861352920532,
      -0.11599927395582199,
      -1.6446073055267334,
      0.5685117244720459,
      -1.2570874691009521,
      -0.6365145444869995,
      -0.688045084476471
    ],
    [
      1.0357905626296997,
      -1.597555160522461,
      -0.8255524635314941,
      1.3809943199157715,
      -0.4018751382827759,
      -1.005631685256958,
      0.9273179769515991,
      -0.37631067633628845,
      -0.1963731348514557,
      -0.6296325325965881,
      0.5156487226486206,
      0.5740945935249329
    ],
    [
      0.9509040117263794,
      -0.7981999516487122,
      -0.9729662537574768,
      0.09091965854167938,
      1.8153798580169678,
      1.5894664525985718,
      -0.41143476963043213,
      0.3941307067871094,
      -0.28913983702659607,
      1.449939489364624,
      -1.1658519506454468,
      -1.6919082403182983
    ],
    [
      0.9266652464866638,
      1.21196448802948,
      1.0117000341415405,
      -0.10056867450475693,
      -0.46772268414497375,
      0.2286708503961563,
      -0.9193037152290344,
      0.636210024356842,
      -1.1366389989852905,
      -0.5886374711990356,
      -1.0448771715164185,
      -0.0288422629237175
    ],
    [
      -0.810361921787262,
      0.024543045088648796,
      -0.6789805293083191,
      0.3803131878376007,
      0.2302781194448471,
      -0.576154351234436,
      -1.4922001361846924,
      0.45596325397491455,
      -0.45495888590812683,
      -0.45868757367134094,
      -1.456960678100586,
      1.115175724029541
    ],
    [
      0.20165899395942688,
      0.26564550399780273,
      0.6349258422851562,
      0.3726164400577545,
      -1.1788984537124634,
      2.2136247158050537,
      -0.3293873965740204,
      2.0737836360931396,
      -0.9530159831047058,
      -1.1421087980270386,
      -0.7247434854507446,
      -0.41480833292007446
    ],
    [
      -0.03556203842163086,
      -0.48713481426239014,
      -0.21344876289367676,
      -1.0335077047348022,
      -0.6779045462608337,
      -0.12751786410808563,
      -1.044633388519287,
      0.33562222123146057,
      0.7539709210395813,
      1.5000900030136108,
      -0.49632173776626587,
      1.7089964151382446
    ],
    [
      -0.5891709923744202,
      0.9905627369880676,
      0.09214244037866592,
      -1.1380159854888916,
      -0.6588747501373291,
      1.047969937324524,
      -0.2969512343406677,
      0.6513864398002625,
      -1.6227577924728394,
      0.6029366850852966,
      0.8225736021995544,
      -0.6854162216186523
    ],
    [
      -0.04838346689939499,
      -0.9001356959342957,
      0.027620887383818626,
      0.21463261544704437,
      1.3085938692092896,
      -0.8693363070487976,
      0.9375787377357483,
      -0.813390851020813,
      0.9878101348876953,
      0.5972263216972351,
      -0.9857209920883179,
      -0.6945724487304688
    ],
    [
      0.19914913177490234,
      1.4759016036987305,
      0.01170873548835516,
      0.02002563700079918,
      2.0176901817321777,
      0.07397089153528214,
      -1.3736447095870972,
      0.14107190072536469,
      -1.5573399066925049,
      0.33861011266708374,
      -1.6006295680999756,
      0.3553004264831543
    ],
    [
      0.1828009933233261,
      0.14997898042201996,
      1.2286244630813599,
      -1.1547318696975708,
      1.106242299079895,
      -2.5880117416381836,
      3.12811017036438,
      -0.2004108726978302,
      -0.04993776977062225,
      0.2870018780231476,
      -0.06079796701669693,
      -0.863840639591217
    ],
    [
      -0.7745013236999512,
      1.3641782999038696,
      -1.5235453844070435,
      -0.2923216223716736,
      0.8905335068702698,
      -0.902528703212738,
      0.9952841401100159,
      -0.729616105556488,
      1.0830702781677246,
      0.18495947122573853,
      0.5490058064460754,
      -0.5489044189453125
    ],
    [
      -1.1911413669586182,
      0.816092312335968,
      -0.9681826233863831,
      -0.0930238664150238,
      0.7636275291442871,
      0.8411937355995178,
      -1.196041226387024,
      0.6194377541542053,
      -0.02112765423953533,
      0.12636704742908478,
      0.5351243019104004,
      0.7549272775650024
    ],
    [
      -0.2245410680770874,
      0.993049681186676,
      0.2998110055923462,
      0.2806364595890045,
      0.8974668383598328,
      0.4778679609298706,
      0.5721907615661621,
      -0.09782551229000092,
      -0.11599338054656982,
      -0.8583224415779114,
      -0.9640257954597473,
      -0.17609816789627075
    ],
    [
      -0.1018044725060463,
      -0.14865988492965698,
      0.4256299138069153,
      1.4623905420303345,
      0.3880765438079834,
      -0.23393934965133667,
      -0.12140919268131256,
      -1.932999610900879,
      0.0334814116358757,
      1.4562959671020508,
      0.44915446639060974,
      0.47877469658851624
    ],
    [
      0.7746057510375977,
      -1.5060315132141113,
      0.8639129996299744,
      -0.07890923321247101,
      0.5213591456413269,
      -0.3943662941455841,
      -0.9615010619163513,
      1.2823050022125244,
      0.9360179305076599,
      0.5844448208808899,
      -0.13248616456985474,
      -0.7383957505226135
    ],
    [
      -0.4337470233440399,
      -1.5181080102920532,
      -0.22764615714550018,
      -0.7174078226089478,
      1.8874306678771973,
      -0.23953711986541748,
      0.20925843715667725,
      -0.6228346228599548,
      -0.10165930539369583,
      1.1470838785171509,
      0.5505410432815552,
      0.38748788833618164
    ],
    [
      -0.6462876200675964,
      -0.16864851117134094,
      1.1217437982559204,
      -0.681337833404541,
      -1.0018997192382812,
      -0.025613272562623024,
      0.7295812368392944,
      -0.17540514469146729,
      0.4827435612678528,
      -0.8345800042152405,
      0.9849547147750854,
      -1.1406922340393066
    ],
    [
      -1.3868910074234009,
      -0.7089239954948425,
      -0.6286645531654358,
      1.3194698095321655,
      0.15839464962482452,
      -0.8587037324905396,
      1.1481900215148926,
      -1.2514662742614746,
      1.0586329698562622,
      1.6525212526321411,
      0.5199465751647949,
      -0.08318588882684708
    ],
    [
      0.4824070930480957,
      0.8049403429031372,
      -1.1887937784194946,
      -0.10352764278650284,
      -1.380761742591858,
      2.305891752243042,
      -0.8623853325843811,
      0.06564848870038986,
      0.7883848547935486,
      -1.2007215023040771,
      -0.6938346028327942,
      0.5066269040107727
    ],
    [
      1.2228831052780151,
      -0.5735501646995544,
      0.025489632040262222,
      0.7253677845001221,
      -1.7481849193572998,
      1.0849136114120483,
      -1.5052839517593384,
      1.2751917839050293,
      -0.32036709785461426,
      -0.07283813506364822,
      0.2438950091600418,
      -0.5846168994903564
    ],
    [
      0.03197614476084709,
      0.24589581787586212,
      -0.582787275314331,
      -0.39727893471717834,
      0.7001145482063293,
      0.02088390663266182,
      -0.35563960671424866,
      0.06255148351192474,
      0.5232895612716675,
      0.03229083865880966,
      -0.5114232301712036,
      0.43004006147384644
    ],
    [
      0.6084451675415039,
      1.6759814023971558,
      -0.20747330784797668,
      -0.755988597869873,
      -1.911576509475708,
      0.3485869765281677,
      -0.18541716039180756,
      0.29572591185569763,
      -0.20503075420856476,
      0.33567482233047485,
      0.5451722741127014,
      -0.015436261892318726
    ],
    [
      0.497068852186203,
      -0.7764118313789368,
      0.6925141215324402,
      0.29559606313705444,
      -0.1283455342054367,
      0.43543803691864014,
      0.12998157739639282,
      -1.7905973196029663,
      0.6150667667388916,
      -0.4782816171646118,
      -3.174076557159424,
      0.8066152334213257
    ],
    [
      0.24274097383022308,
      -0.08679037541151047,
      -2.704397439956665,
      -0.7040766477584839,
      0.7431467771530151,
      -0.7910705804824829,
      0.7073089480400085,
      0.5685145854949951,
      0.24233002960681915,
      -0.1401848942041397,
      -0.1394113153219223,
      0.5117239356040955
    ],
    [
      0.05556400865316391,
      -0.678333044052124,
      0.3869442045688629,
      0.5542889833450317,
      0.57233065366745,
      -2.095374345779419,
      -1.9910292625427246,
      1.732130765914917,
      -0.49711111187934875,
      -0.8124473690986633,
      0.9396407008171082,
      -0.8148024082183838
    ],
    [
      -0.936211109161377,
      0.7806889414787292,
      0.0949423760175705,
      1.2501362562179565,
      -0.6069724559783936,
      0.821698009967804,
      -1.5979950428009033,
      0.6332650184631348,
      -0.3122505247592926,
      -0.5030508041381836,
      -0.09687632322311401,
      -0.36946356296539307
    ],
    [
      -0.3434019982814789,
      0.44673997163772583,
      0.25815796852111816,
      1.0425705909729004,
      -1.1316229104995728,
      -0.7720844745635986,
      -1.8887742757797241,
      0.4762711226940155,
      -0.6688562631607056,
      0.23869732022285461,
      0.9117897748947144,
      0.2505643665790558
    ],
    [
      0.2714287340641022,
      -0.6987752318382263,
      -2.49453067779541,
      -1.7196711301803589,
      0.7699393630027771,
      1.5976115465164185,
      -1.182487964630127,
      0.5133243203163147,
      0.6801291108131409,
      0.8723059892654419,
      -0.4090244472026825,
      -0.3247678577899933
    ],
    [
      0.5568952560424805,
      -0.7998301982879639,
      0.6852853894233704,
      0.9868051409721375,
      0.2333487868309021,
      -0.7458657622337341,
      -0.2640557587146759,
      -0.38300856947898865,
      1.7766742706298828,
      -0.769167959690094,
      0.3184162974357605,
      0.41428858041763306
    ],
    [
      -1.5514689683914185,
      0.42735064029693604,
      0.3461008667945862,
      0.5809587836265564,
      0.683883547782898,
      0.21336916089057922,
      -0.11293638497591019,
      0.43478989601135254,
      -0.2552723288536072,
      0.39414435625076294,
      -2.1178736686706543,
      1.0705392360687256
    ],
    [
      0.24537299573421478,
      -0.15084455907344818,
      0.7716914415359497,
      -1.3909640312194824,
      -0.613473653793335,
      0.9167476296424866,
      -0.5783175230026245,
      -0.7720658183097839,
      0.39659222960472107,
      -0.8883718848228455,
      1.4370421171188354,
      0.5267896056175232
    ],
    [
      -1.2260303497314453,
      -0.4062630236148834,
      -0.6966850161552429,
      1.280832290649414,
      -0.31688398122787476,
      0.11522731930017471,
      0.415775865316391,
      -0.736301600933075,
      -0.21856321394443512,
      0.204400435090065,
      -0.46704933047294617,
      1.1171152591705322
    ],
    [
      -1.0919584035873413,
      0.6097865700721741,
      0.04028952866792679,
      0.8291877508163452,
      -0.13312962651252747,
      -1.028424620628357,
      -0.2512352168560028,
      1.1368008852005005,
      0.5852563381195068,
      -0.17542819678783417,
      -0.09389155358076096,
      -1.0776294469833374
    ],
    [
      0.1824241429567337,
      -0.3130388855934143,
      0.531863808631897,
      -0.31805822253227234,
      -0.2356289178133011,
      -1.3904350996017456,
      0.7976869344711304,
      -0.09074711799621582,
      0.12550686299800873,
      -0.5020472407341003,
      -0.5031722187995911,
      0.9467722773551941
    ],
    [
      0.3612404465675354,
      0.17598114907741547,
      -1.0900849103927612,
      -0.3016393482685089,
      0.0835244208574295,
      0.621394693851471,
      -0.7464475631713867,
      -1.5564452409744263,
      -0.019132491201162338,
      0.3102213144302368,
      1.9056798219680786,
      0.27277517318725586
    ],
    [
      -0.9985158443450928,
      -0.6900951266288757,
      -0.7097561359405518,
      1.205609679222107,
      -0.3489476442337036,
      -0.612296462059021,
      0.6183120608329773,
      -0.5854240655899048,
      0.24074062705039978,
      0.7988111972808838,
      0.2420201301574707,
      0.25917303562164307
    ],
    [
      1.2698081731796265,
      0.9530551433563232,
      0.16114158928394318,
      1.2646695375442505,
      -1.5357786417007446,
      -0.9721160531044006,
      0.31310877203941345,
      -0.972067654132843,
      -0.28115546703338623,
      0.36308833956718445,
      0.35250920057296753,
      -1.2165155410766602
    ],
    [
      1.6975849866867065,
      -0.46772632002830505,
      0.0391639769077301,
      -1.0423617362976074,
      1.0982178449630737,
      -0.07822861522436142,
      0.4861741065979004,
      0.3139317035675049,
      0.8907778859138489,
      -1.0519092082977295,
      -0.36026981472969055,
      -0.195168137550354
    ],
    [
      0.443162202835083,
      -0.7120575904846191,
      0.06739774346351624,
      1.2879165410995483,
      -1.1359694004058838,
      0.11810451000928879,
      -2.141533374786377,
      1.3824620246887207,
      -0.6091642379760742,
      -0.21354450285434723,
      1.1065834760665894,
      -0.89829421043396
    ],
    [
      -0.4510772228240967,
      -0.11566248536109924,
      -1.1579785346984863,
      -0.6377252340316772,
      1.6039246320724487,
      -0.6463151574134827,
      -0.32525068521499634,
      -0.5330525040626526,
      1.2883342504501343,
      0.7486305236816406,
      -0.9251508712768555,
      0.4751727283000946
    ],
    [
      0.3865088224411011,
      1.9865586757659912,
      0.6452181339263916,
      0.7231795191764832,
      0.4771207571029663,
      -1.396955966949463,
      -0.8434889912605286,
      -0.19873905181884766,
      -1.5594382286071777,
      1.0549402236938477,
      -1.0517048835754395,
      1.1657466888427734
    ],
    [
      2.516608715057373,
      -0.4494345486164093,
      -1.3287599086761475,
      0.5697447657585144,
      1.231488823890686,
      0.8631395101547241,
      1.0786409378051758,
      1.774294376373291,
      0.5504642128944397,
      -0.18490111827850342,
      -1.6970335245132446,
      -0.6308330297470093
    ],
    [
      -2.0289676189422607,
      -1.2027510404586792,
      -0.8198975920677185,
      1.4162393808364868,
      0.46106913685798645,
      -0.9972041249275208,
      1.4329384565353394,
      -1.6494803428649902,
      0.417423278093338,
      1.353555679321289,
      -0.26099416613578796,
      0.25858640670776367
    ],
    [
      -1.9309625625610352,
      -1.1263058185577393,
      0.5266839265823364,
      0.982684314250946,
      0.09651809930801392,
      -0.6701774001121521,
      1.061830759048462,
      0.2225344479084015,
      0.005407149437814951,
      0.6555071473121643,
      -0.9293628931045532,
      -0.5760594010353088
    ],
    [
      0.16389618813991547,
      -0.3166741132736206,
      -2.868600845336914,
      -1.2172609567642212,
      0.724463939666748,
      0.8450394868850708,
      -0.42426401376724243,
      0.45888638496398926,
      0.48791250586509705,
      1.1680492162704468,
      -0.18579719960689545,
      0.48679137229919434
    ],
    [
      2.018516778945923,
      0.11587924510240555,
      -2.285355567932129,
      -0.02301253192126751,
      1.1598029136657715,
      1.8258823156356812,
      1.0665805339813232,
      1.1785073280334473,
      -1.7149399518966675,
      -0.36732128262519836,
      -2.522321939468384,
      -0.6294432878494263
    ],
    [
      0.18153658509254456,
      -1.4503895044326782,
      0.7394883632659912,
      -0.5261557698249817,
      -0.19632793962955475,
      -0.22107186913490295,
      -0.9712114930152893,
      0.40003398060798645,
      0.5695309042930603,
      0.8843136429786682,
      -0.11014419794082642,
      -0.16754251718521118
    ],
    [
      -0.10951438546180725,
      -0.48629581928253174,
      0.3962933421134949,
      -0.649021565914154,
      0.11701347678899765,
      0.4282139837741852,
      1.1635675430297852,
      0.9114818572998047,
      0.42847591638565063,
      -0.08424856513738632,
      -0.3738466501235962,
      -0.4739907681941986
    ],
    [
      -0.2298884242773056,
      0.6926546692848206,
      0.4742681682109833,
      1.3494069576263428,
      -0.5032637715339661,
      -1.245750069618225,
      -0.08717429637908936,
      -1.6391600370407104,
      0.17895978689193726,
      1.6394481658935547,
      -0.5058532357215881,
      0.6757301092147827
    ],
    [
      0.33545824885368347,
      0.5822343230247498,
      2.1015329360961914,
      -0.02655722014605999,
      -0.5526410341262817,
      1.3068230152130127,
      0.42968282103538513,
      0.6119227409362793,
      -1.3334970474243164,
      -1.806954264640808,
      0.6653133034706116,
      -1.4768065214157104
    ],
    [
      -0.37784337997436523,
      -1.2322139739990234,
      1.4478713274002075,
      0.3081982135772705,
      -0.024364493787288666,
      0.5231577754020691,
      -0.1727927327156067,
      0.3402666747570038,
      0.9746864438056946,
      -0.3459058105945587,
      -0.9679152369499207,
      -0.6950371861457825
    ],
    [
      -0.2792755961418152,
      0.06506934762001038,
      -0.46185103058815,
      0.8695011138916016,
      -0.0500335656106472,
      -0.17694728076457977,
      -0.09016919136047363,
      1.1408507823944092,
      -0.30728238821029663,
      0.3012489676475525,
      -1.8540592193603516,
      1.1585336923599243
    ],
    [
      0.6010985970497131,
      1.356939673423767,
      -0.356155663728714,
      1.3506418466567993,
      1.1266963481903076,
      0.2837722599506378,
      -1.1407699584960938,
      0.9474835395812988,
      -0.6093044281005859,
      -0.7000100016593933,
      -2.422186851501465,
      1.2072960138320923
    ],
    [
      -1.363732933998108,
      -0.8441623449325562,
      -1.584326982498169,
      1.4144151210784912,
      0.3028580844402313,
      -0.784023106098175,
      1.5068296194076538,
      -1.0327848196029663,
      0.8940259218215942,
      1.2901787757873535,
      0.22946713864803314,
      -0.005895286798477173
    ],
    [
      0.42839905619621277,
      0.9241847395896912,
      0.392678439617157,
      0.36872780323028564,
      -1.4509247541427612,
      -0.9292864799499512,
      0.19290068745613098,
      0.7845870852470398,
      1.047863483428955,
      -1.5416451692581177,
      -0.0843658372759819,
      -0.3064102828502655
    ],
    [
      0.9959719777107239,
      0.23327705264091492,
      -0.8585305213928223,
      0.7579406499862671,
      0.5300403237342834,
      -1.017139196395874,
      -0.47986024618148804,
      -0.7845786213874817,
      -0.8065332770347595,
      -0.1953388750553131,
      0.7108882069587708,
      0.799723207950592
    ],
    [
      -0.7299292087554932,
      -0.2560552656650543,
      -0.5839976072311401,
      -0.6778570413589478,
      -0.0948839783668518,
      -1.6120903491973877,
      -1.2414934635162354,
      2.0371880531311035,
      0.14086861908435822,
      0.7629649639129639,
      0.689267098903656,
      -0.6305575966835022
    ],
    [
      -0.42225226759910583,
      0.70607590675354,
      0.22435875236988068,
      -2.3623878955841064,
      -1.344142198562622,
      -2.0690016746520996,
      -1.7531323432922363,
      2.2323100566864014,
      1.0361871719360352,
      -1.1500022411346436,
      -0.1886965036392212,
      1.6487843990325928
    ],
    [
      -0.2726237177848816,
      1.1801272630691528,
      1.7217607498168945,
      0.027487237006425858,
      -2.1073148250579834,
      -0.34870436787605286,
      0.5453863143920898,
      0.13227620720863342,
      -0.6088191866874695,
      -1.3744888305664062,
      1.1236679553985596,
      -0.516434907913208
    ],
    [
      -0.4697813391685486,
      0.11788436770439148,
      0.17400720715522766,
      -1.0768499374389648,
      2.0438382625579834,
      -0.13053132593631744,
      -0.2899959087371826,
      -0.3372865617275238,
      0.32110559940338135,
      -0.20431502163410187,
      -0.3201364576816559,
      1.2835335731506348
    ],
    [
      -0.07114146649837494,
      1.4126394987106323,
      0.5005773901939392,
      0.15967194736003876,
      0.6547400951385498,
      -1.2013946771621704,
      1.4413269758224487,
      0.07449221611022949,
      -0.6427291631698608,
      -0.6413087844848633,
      0.1018332913517952,
      0.9209786653518677
    ],
    [
      -0.6903029084205627,
      -1.0331450700759888,
      -0.41446739435195923,
      0.9410585165023804,
      1.1630967855453491,
      -0.5584571957588196,
      0.47393399477005005,
      -0.2833420932292938,
      1.2963467836380005,
      0.14920081198215485,
      0.3931543529033661,
      0.21754293143749237
    ],
    [
      1.082677960395813,
      -0.3964952826499939,
      0.9279752373695374,
      1.3296852111816406,
      -1.1214263439178467,
      -1.814416766166687,
      -0.057714417576789856,
      0.3379245698451996,
      -1.158923625946045,
      0.7128864526748657,
      -1.7602171897888184,
      -0.13842405378818512
    ],
    [
      0.9674311280250549,
      -1.1706830263137817,
      1.584310531616211,
      -0.8695634007453918,
      0.7037413120269775,
      0.8377037048339844,
      0.49225160479545593,
      -0.8441624045372009,
      0.5111004710197449,
      -0.6251452565193176,
      -0.35866430401802063,
      0.10122595727443695
    ],
    [
      1.0225263833999634,
      2.0602731704711914,
      0.9413117170333862,
      -0.12453366816043854,
      -0.9715791940689087,
      -1.4204859733581543,
      -0.8495668768882751,
      -1.0208064317703247,
      -0.6618222594261169,
      -3.711355686187744,
      0.4232327342033386,
      1.8761557340621948
    ],
    [
      -1.2102422714233398,
      0.5471404790878296,
      0.3541790246963501,
      0.02399519644677639,
      1.3025484085083008,
      1.252441167831421,
      -0.30193841457366943,
      -0.7742822170257568,
      0.8105791807174683,
      1.4905614852905273,
      -0.28536927700042725,
      -0.20728828012943268
    ],
    [
      2.7948665618896484,
      1.0647027492523193,
      -0.27568405866622925,
      -1.382997989654541,
      -1.194509506225586,
      0.45530784130096436,
      -0.36982065439224243,
      -1.0693588256835938,
      -0.698239803314209,
      -0.907158613204956,
      -0.14769910275936127,
      0.9597912430763245
    ],
    [
      0.011332823894917965,
      0.2312290221452713,
      -0.4098478853702545,
      -0.7773042917251587,
      -0.18489737808704376,
      1.947477102279663,
      1.3949401378631592,
      -0.956299901008606,
      0.5459635853767395,
      -0.9549693465232849,
      -0.3086544871330261,
      -0.9667584300041199
    ],
    [
      -0.2821439206600189,
      -0.9035829901695251,
      -1.2018139362335205,
      0.9534156322479248,
      0.3690653443336487,
      -0.1631307452917099,
      0.567207396030426,
      -0.13132058084011078,
      0.5809560418128967,
      0.40657809376716614,
      0.051662005484104156,
      0.17546112835407257
    ],
    [
      2.50972318649292,
      1.4010308980941772,
      1.0677381753921509,
      -0.7075290679931641,
      -0.6907849311828613,
      -0.9497021436691284,
      -1.2018293142318726,
      -2.248901128768921,
      2.312222480773926,
      -0.40813741087913513,
      1.2301957607269287,
      -1.3782025575637817
    ],
    [
      0.1061716303229332,
      0.7034264802932739,
      -0.9428262114524841,
      0.2525985836982727,
      -1.310490369796753,
      -1.577248215675354,
      0.6329927444458008,
      0.11310853064060211,
      0.1182183176279068,
      0.48570433259010315,
      0.6018051505088806,
      -0.3053199052810669
    ],
    [
      0.2671290934085846,
      -0.8977323770523071,
      -0.5269145965576172,
      0.463111013174057,
      0.2668493390083313,
      0.7398631572723389,
      -0.6800941228866577,
      0.4256366789340973,
      1.171349287033081,
      1.3326401710510254,
      -1.9036991596221924,
      1.1995282173156738
    ],
    [
      0.6011021733283997,
      -1.9513877630233765,
      0.6133805513381958,
      -0.794686496257782,
      -0.23270298540592194,
      -0.18716520071029663,
      0.1957884579896927,
      0.8732410669326782,
      0.7155559062957764,
      0.6595697402954102,
      2.0406508445739746,
      -0.7717909812927246
    ],
    [
      -0.9039559960365295,
      1.3687936067581177,
      -1.677686333656311,
      0.0722256675362587,
      1.0420348644256592,
      -0.1634398102760315,
      -1.7161505222320557,
      0.8400794267654419,
      -0.35346657037734985,
      -2.0378570556640625,
      -0.12818187475204468,
      1.5586587190628052
    ],
    [
      -0.1712513417005539,
      -0.7537396550178528,
      -0.8262165188789368,
      0.20668719708919525,
      0.38198062777519226,
      -0.08698640763759613,
      -0.3821249306201935,
      -1.0358054637908936,
      0.9402927160263062,
      0.9758057594299316,
      -0.18741221725940704,
      1.45705246925354
    ],
    [
      -0.12243299186229706,
      0.052332911640405655,
      -0.008268507197499275,
      0.5281722545623779,
      -1.3273537158966064,
      2.299886703491211,
      1.211512565612793,
      -0.05975742265582085,
      -2.325709819793701,
      0.2864934206008911,
      -0.8576400876045227,
      -0.5251649022102356
    ],
    [
      0.9099957942962646,
      0.6710766553878784,
      -2.124422788619995,
      1.240185260772705,
      -1.2826608419418335,
      1.8302868604660034,
      0.12912163138389587,
      -1.1329538822174072,
      -0.20427224040031433,
      0.6201320290565491,
      1.3781911134719849,
      -2.0818941593170166
    ],
    [
      -0.4501572251319885,
      -0.9569841623306274,
      0.7414318323135376,
      0.7832069993019104,
      0.8590838313102722,
      -0.28130391240119934,
      0.7677475214004517,
      -1.2849605083465576,
      0.8284152150154114,
      0.684647262096405,
      -0.048529624938964844,
      -0.1212514191865921
    ],
    [
      -1.050525426864624,
      -0.3336813747882843,
      -0.3725292980670929,
      0.5109589695930481,
      -0.7323358058929443,
      0.8160015344619751,
      1.7814748287200928,
      -0.5832839012145996,
      -0.6277545690536499,
      0.6925495266914368,
      0.5438449382781982,
      -1.0500353574752808
    ],
    [
      1.60209321975708,
      0.5523470044136047,
      -0.855480432510376,
      -0.42386436462402344,
      -0.22756460309028625,
      -1.144262433052063,
      0.3429185152053833,
      0.39127328991889954,
      0.2837456464767456,
      -0.524284303188324,
      0.256914347410202,
      -0.25095176696777344
    ],
    [
      0.6297219395637512,
      -0.6522825956344604,
      0.2226344347000122,
      -1.2366143465042114,
      1.6639617681503296,
      -0.8194427490234375,
      1.031185269355774,
      0.36817696690559387,
      -0.2601410448551178,
      0.4237842857837677,
      -0.512617826461792,
      0.08806976675987244
    ],
    [
      -0.5056624412536621,
      -0.7038297057151794,
      -0.6836091876029968,
      -0.8882108330726624,
      1.8846697807312012,
      -0.49258553981781006,
      -0.01312515139579773,
      -0.9755408763885498,
      0.8112303614616394,
      1.1817291975021362,
      -0.38724008202552795,
      0.808475136756897
    ],
    [
      2.3576955795288086,
      -0.2885550856590271,
      -2.8610966205596924,
      0.4436472952365875,
      1.8529059886932373,
      -0.0844179019331932,
      -2.1675684452056885,
      1.0828880071640015,
      -1.7486419677734375,
      -0.08257275819778442,
      0.4843824505805969,
      -0.3001360297203064
    ],
    [
      -0.5401463508605957,
      -0.5517465472221375,
      0.7030971050262451,
      0.16229461133480072,
      -1.564710021018982,
      0.8012206554412842,
      1.2155828475952148,
      -0.22027991712093353,
      0.09162121266126633,
      -0.6820969581604004,
      -0.6897321939468384,
      0.30674687027931213
    ],
    [
      2.0799384117126465,
      -0.3808220326900482,
      -0.32922548055648804,
      -2.9976773262023926,
      0.27701297402381897,
      -0.410381019115448,
      -1.5497828722000122,
      0.481134831905365,
      0.38761353492736816,
      0.6988176703453064,
      0.4025944471359253,
      -0.405136376619339
    ],
    [
      -0.6911012530326843,
      -0.4730202853679657,
      0.021653391420841217,
      0.8901071548461914,
      -0.24325229227542877,
      0.287472128868103,
      -0.22184760868549347,
      -0.9026241302490234,
      0.3130818009376526,
      -0.0534103699028492,
      0.6349526643753052,
      -0.50029057264328
    ],
    [
      -1.3002095222473145,
      -1.0780693292617798,
      -0.16827982664108276,
      0.5336833000183105,
      0.9278579950332642,
      0.9200989603996277,
      -1.6117569208145142,
      0.8619019389152527,
      0.21457605063915253,
      -0.20288199186325073,
      -0.8585098385810852,
      0.061289820820093155
    ],
    [
      0.237541064620018,
      0.4972975254058838,
      -0.6035667657852173,
      -0.5545472502708435,
      1.1572790145874023,
      -0.7064279913902283,
      -0.36569124460220337,
      -0.2086719125509262,
      0.430745005607605,
      0.02353706769645214,
      -2.050266981124878,
      2.1321139335632324
    ],
    [
      -0.4280744791030884,
      0.48303917050361633,
      0.9805732369422913,
      0.6257221698760986,
      -0.48930296301841736,
      -2.043609142303467,
      -0.2937174439430237,
      1.0032507181167603,
      -0.3754555284976959,
      -1.0065425634384155,
      0.34071433544158936,
      0.019663304090499878
    ],
    [
      -1.382707118988037,
      0.44764596223831177,
      0.4695076644420624,
      0.33921292424201965,
      -0.21372126042842865,
      1.3081355094909668,
      -2.1092689037323,
      -0.3283948302268982,
      -0.7484428882598877,
      1.1664928197860718,
      0.32692864537239075,
      -0.18732206523418427
    ],
    [
      -0.02804761752486229,
      -0.7496511340141296,
      0.29905620217323303,
      0.7976444363594055,
      -0.23742444813251495,
      -0.2096138596534729,
      -0.4848591387271881,
      -0.5519712567329407,
      0.24546383321285248,
      1.046003818511963,
      -0.17585213482379913,
      0.7765557765960693
    ],
    [
      -0.680505096912384,
      0.7112486362457275,
      -1.2711676359176636,
      -0.08066725730895996,
      0.8319495320320129,
      1.1482985019683838,
      -0.8500824570655823,
      1.2598426342010498,
      0.5551455020904541,
      -1.159632921218872,
      -0.2645260691642761,
      -0.9459823369979858
    ],
    [
      0.24279075860977173,
      -0.8676704168319702,
      0.21182237565517426,
      -0.428890198469162,
      1.151829481124878,
      0.9844721555709839,
      0.6634896397590637,
      -0.026749620214104652,
      0.04713486507534981,
      -1.5649771690368652,
      0.3308275043964386,
      0.330721914768219
    ],
    [
      -0.9644182324409485,
      1.2989903688430786,
      -0.24256721138954163,
      0.3090731203556061,
      1.1178410053253174,
      0.7834711074829102,
      0.9097955226898193,
      -0.9196696281433105,
      -1.2054955959320068,
      1.784437656402588,
      -1.2623982429504395,
      1.0148476362228394
    ],
    [
      0.2954872250556946,
      -1.2075923681259155,
      -0.4377143681049347,
      1.1193420886993408,
      1.5838075876235962,
      1.1807637214660645,
      -1.57117760181427,
      -0.012910059653222561,
      2.022282361984253,
      -0.5525944828987122,
      1.6449741125106812,
      -0.6269975900650024
    ],
    [
      -1.373387336730957,
      -0.1397506445646286,
      -1.2175695896148682,
      -0.2608221769332886,
      0.007623131852596998,
      -0.31011727452278137,
      1.071163296699524,
      0.027208954095840454,
      0.053834810853004456,
      0.6194543242454529,
      -0.44862842559814453,
      1.0390994548797607
    ],
    [
      -1.0899500846862793,
      0.40643060207366943,
      2.419534683227539,
      -1.225571870803833,
      0.2210955023765564,
      0.3486493229866028,
      -0.3165109157562256,
      0.5027254819869995,
      -0.14706943929195404,
      0.38352328538894653,
      -2.2201943397521973,
      0.17442424595355988
    ],
    [
      1.6474947929382324,
      -0.3292444944381714,
      -0.9101475477218628,
      0.23363244533538818,
      -0.6420331597328186,
      -0.0390809066593647,
      1.081626057624817,
      0.5793924331665039,
      -0.14404168725013733,
      -0.04515373334288597,
      0.6552185416221619,
      -1.1586122512817383
    ],
    [
      -0.6386975646018982,
      -0.4760627746582031,
      -0.4218766689300537,
      1.0226221084594727,
      0.41493868827819824,
      -1.054349422454834,
      0.5052893161773682,
      -0.9578158259391785,
      0.19299252331256866,
      0.993866503238678,
      -0.7333287000656128,
      -0.15058593451976776
    ],
    [
      0.18410226702690125,
      0.7111276388168335,
      -0.5107594132423401,
      1.3338525295257568,
      0.7546824812889099,
      -0.20744501054286957,
      -0.2218824177980423,
      -0.6309259533882141,
      0.9829965233802795,
      -1.109679102897644,
      -1.7917964458465576,
      1.0927594900131226
    ],
    [
      0.16730237007141113,
      -0.33077722787857056,
      0.4651446044445038,
      1.7240281105041504,
      -0.6958518624305725,
      -0.1301768720149994,
      1.0401737689971924,
      -0.3950346112251282,
      -1.2337887287139893,
      -0.4025006890296936,
      -1.1502013206481934,
      0.6515973210334778
    ],
    [
      0.9421190619468689,
      -1.9998832941055298,
      0.9240590333938599,
      -0.5448726415634155,
      -0.5104448795318604,
      -2.00873064994812,
      -0.7446709275245667,
      0.9756876230239868,
      0.9733497500419617,
      1.3168848752975464,
      -0.6171029210090637,
      -0.35047778487205505
    ],
    [
      1.336357593536377,
      0.955990195274353,
      -0.5084416270256042,
      -1.544664740562439,
      -0.7702261209487915,
      0.21157538890838623,
      0.8796427249908447,
      -1.2648930549621582,
      1.035921335220337,
      1.135851263999939,
      -1.1189631223678589,
      -0.4049639105796814
    ],
    [
      0.30944621562957764,
      -0.16949830949306488,
      0.7505207061767578,
      -0.8684531450271606,
      0.21466246247291565,
      2.9835238456726074,
      -1.4628803730010986,
      1.1103878021240234,
      -0.08229465782642365,
      -0.06175345182418823,
      0.40311774611473083,
      -2.329440116882324
    ],
    [
      -0.5711669325828552,
      1.555302381515503,
      1.9918442964553833,
      -0.9820098280906677,
      -1.4746403694152832,
      -1.2512998580932617,
      0.1442026048898697,
      0.9309865832328796,
      -0.32102227210998535,
      0.38687461614608765,
      -1.1554027795791626,
      -0.2016298919916153
    ],
    [
      -1.6109693050384521,
      -0.2573142647743225,
      0.47242364287376404,
      0.8868056535720825,
      1.3445055484771729,
      -1.3214735984802246,
      1.0603407621383667,
      -0.9447751641273499,
      1.2219548225402832,
      1.5654964447021484,
      -1.0507665872573853,
      0.33557796478271484
    ],
    [
      0.8906682729721069,
      0.17497265338897705,
      -1.5020792484283447,
      1.1580212116241455,
      -0.24176113307476044,
      1.366944670677185,
      -0.2332647293806076,
      0.7686694860458374,
      0.33556434512138367,
      0.31807756423950195,
      0.03361429646611214,
      -0.7695727944374084
    ],
    [
      0.6122086644172668,
      -0.3445174992084503,
      -0.07137738913297653,
      0.8264768719673157,
      -1.8133316040039062,
      0.6391769647598267,
      0.38013574481010437,
      -1.639988660812378,
      1.130948543548584,
      -0.47057148814201355,
      0.7041204571723938,
      0.6166390776634216
    ],
    [
      -0.35862526297569275,
      0.43989983201026917,
      -0.3331126570701599,
      -0.45411571860313416,
      1.5668022632598877,
      0.09010303020477295,
      -0.769570529460907,
      -0.471985399723053,
      1.575217366218567,
      0.45512622594833374,
      -1.148596167564392,
      0.791660487651825
    ],
    [
      -0.965554416179657,
      -0.9982423186302185,
      -1.2264695167541504,
      0.7165375351905823,
      -1.5717236995697021,
      2.8817036151885986,
      0.07477162778377533,
      -0.10712909698486328,
      -0.23663216829299927,
      0.08762506395578384,
      1.4947444200515747,
      -0.14296601712703705
    ],
    [
      -0.5987244844436646,
      -0.3902600407600403,
      -0.2016046643257141,
      0.7657600045204163,
      0.5658586025238037,
      -0.737132728099823,
      0.514754056930542,
      -0.511528730392456,
      0.044942233711481094,
      1.1875312328338623,
      0.5905406475067139,
      0.16865098476409912
    ],
    [
      -1.8684532642364502,
      0.6456787586212158,
      0.24687109887599945,
      0.5115338563919067,
      -0.046723827719688416,
      -0.4262997508049011,
      -0.14862167835235596,
      -1.01096773147583,
      1.7250537872314453,
      -0.7474530339241028,
      -0.2986072301864624,
      -1.2191247940063477
    ],
    [
      -0.39398810267448425,
      0.4021664261817932,
      0.8471778035163879,
      0.3106292486190796,
      -1.373307228088379,
      0.7945320010185242,
      -1.5032697916030884,
      1.4243143796920776,
      -1.1858198642730713,
      1.0556570291519165,
      1.2127094268798828,
      0.5253817439079285
    ],
    [
      -0.3685312569141388,
      1.8830649852752686,
      -0.012074928730726242,
      -0.9482262134552002,
      -1.2194758653640747,
      0.1634710729122162,
      0.4688136577606201,
      -0.18877699971199036,
      -0.15048806369304657,
      -0.8223702311515808,
      0.5395755767822266,
      1.2045373916625977
    ],
    [
      -0.25668105483055115,
      -0.7466412782669067,
      -1.519126534461975,
      -0.8047000765800476,
      0.055496297776699066,
      0.5298686623573303,
      -0.1257450431585312,
      -0.055175308138132095,
      -0.11599675565958023,
      0.09859981387853622,
      0.04710822552442551,
      1.6419343948364258
    ],
    [
      0.4156450927257538,
      0.40711796283721924,
      1.4701803922653198,
      -1.5108575820922852,
      -0.5770880579948425,
      -0.32792097330093384,
      0.59247887134552,
      -0.8887699246406555,
      1.270384430885315,
      -0.5086711049079895,
      -0.0464654378592968,
      0.11439833045005798
    ],
    [
      -1.0494931936264038,
      -1.288642406463623,
      -0.5914672613143921,
      1.660692572593689,
      0.6786216497421265,
      -1.632742166519165,
      0.9525936245918274,
      -1.4326823949813843,
      1.5250191688537598,
      1.307280421257019,
      -0.14770445227622986,
      -1.534761905670166
    ],
    [
      -1.3362315893173218,
      -0.3821403980255127,
      1.1511874198913574,
      -0.13427536189556122,
      1.0776344537734985,
      -2.0468947887420654,
      -0.7495934367179871,
      -1.2755544185638428,
      -0.46910083293914795,
      -1.3446636199951172,
      2.4034838676452637,
      1.7878739833831787
    ],
    [
      -0.7038799524307251,
      -0.036943867802619934,
      -1.397269368171692,
      -0.7791523337364197,
      0.0499211810529232,
      1.6223106384277344,
      1.3301985263824463,
      0.6158435344696045,
      -0.14751224219799042,
      -1.137248158454895,
      0.9104465842247009,
      1.5099629163742065
    ],
    [
      -0.3984051048755646,
      -1.642931342124939,
      0.9505867958068848,
      -1.1264996528625488,
      -0.4088991582393646,
      0.06964503228664398,
      -0.29018107056617737,
      -0.19755713641643524,
      0.8856298923492432,
      0.9694357514381409,
      1.722272276878357,
      -0.9293171167373657
    ],
    [
      -0.9890660643577576,
      -0.37707942724227905,
      -0.7182474732398987,
      0.7289040088653564,
      -0.8571444749832153,
      -0.0615210086107254,
      -0.062319353222846985,
      1.3928899765014648,
      -0.2204107642173767,
      0.03588821366429329,
      -0.29015591740608215,
      0.17194916307926178
    ],
    [
      0.2450188547372818,
      -1.218788504600525,
      -0.9151850938796997,
      1.6255894899368286,
      0.4706386625766754,
      1.3813971281051636,
      0.7020566463470459,
      0.18511416018009186,
      -0.7740290760993958,
      1.0874587297439575,
      -0.8885066509246826,
      -1.3006218671798706
    ],
    [
      0.05982155725359917,
      1.2807555198669434,
      -0.5249167680740356,
      -2.027434825897217,
      0.5139948129653931,
      -1.4026178121566772,
      1.4615707397460938,
      0.27645349502563477,
      -1.5373852252960205,
      1.2391235828399658,
      -0.6440327167510986,
      -1.07462739944458
    ],
    [
      -1.5720040798187256,
      -1.112539529800415,
      -0.2684761881828308,
      1.5556683540344238,
      1.2838501930236816,
      -0.6265833973884583,
      1.2517424821853638,
      -1.3767671585083008,
      0.6780891418457031,
      0.9207407832145691,
      -0.6004441976547241,
      -0.06986802816390991
    ],
    [
      -0.5816905498504639,
      0.1859969049692154,
      1.260509967803955,
      -2.182640790939331,
      -0.17263470590114594,
      -0.5281145572662354,
      0.4899671971797943,
      -0.198309987783432,
      -0.27265167236328125,
      -0.20282122492790222,
      -1.2735391855239868,
      0.7872282266616821
    ],
    [
      0.893605649471283,
      0.1228443831205368,
      0.09724423289299011,
      1.439769983291626,
      0.050143755972385406,
      -0.612022340297699,
      -1.390659213066101,
      0.7634919881820679,
      -0.08168314397335052,
      -0.07818793505430222,
      0.41295182704925537,
      -0.055835574865341187
    ],
    [
      -0.638960599899292,
      -0.4555123746395111,
      0.17281493544578552,
      -1.3666929006576538,
      0.19918133318424225,
      1.2449586391448975,
      -0.6281793117523193,
      0.38675594329833984,
      -0.5591108202934265,
      0.10343475639820099,
      0.2289503961801529,
      2.104578733444214
    ],
    [
      0.9146603941917419,
      0.3309732973575592,
      1.7428207397460938,
      -0.8152482509613037,
      0.8354605436325073,
      -0.064888596534729,
      -2.8845596313476562,
      0.7870197296142578,
      -1.5064647197723389,
      1.0934699773788452,
      0.529956579208374,
      -1.0463887453079224
    ],
    [
      0.7656381726264954,
      -1.2256124019622803,
      -1.3655452728271484,
      -0.6400878429412842,
      -0.31504765152931213,
      0.7989587187767029,
      0.20898491144180298,
      0.811630129814148,
      -0.6796684861183167,
      0.9822171926498413,
      1.3693221807479858,
      -0.3220261037349701
    ],
    [
      -0.4020616412162781,
      0.5736562013626099,
      -0.32577353715896606,
      -1.3148889541625977,
      0.5180932283401489,
      -0.8336862921714783,
      0.5155899524688721,
      2.5669267177581787,
      0.3929134011268616,
      0.4357377290725708,
      -0.7905922532081604,
      -0.9223896861076355
    ],
    [
      1.400202751159668,
      -0.5543085336685181,
      1.9093884229660034,
      0.8222610354423523,
      1.240218162536621,
      -2.6192572116851807,
      -0.7331226468086243,
      -1.1973994970321655,
      -1.6747450828552246,
      1.3044191598892212,
      -0.546583354473114,
      0.06267162412405014
    ],
    [
      -0.5021146535873413,
      1.8062201738357544,
      -1.5468783378601074,
      1.6118322610855103,
      0.9116120934486389,
      1.0154852867126465,
      0.1202138140797615,
      -1.258518934249878,
      -1.5687289237976074,
      -0.03350028395652771,
      -1.4522476196289062,
      0.23660443723201752
    ],
    [
      -0.7654514908790588,
      0.07879449427127838,
      0.4579901695251465,
      0.39950090646743774,
      1.1587018966674805,
      -0.2973219156265259,
      -0.08801683038473129,
      0.1690228283405304,
      0.9638151526451111,
      1.6430306434631348,
      -0.5998464226722717,
      -0.1937028020620346
    ],
    [
      -0.629815399646759,
      -1.009500503540039,
      -0.49517765641212463,
      0.624478280544281,
      -0.280414879322052,
      -0.12672658264636993,
      0.9666428565979004,
      -0.12447561323642731,
      0.41305381059646606,
      0.5102484822273254,
      0.02459045499563217,
      0.7940099239349365
    ],
    [
      1.6264249086380005,
      -0.702140748500824,
      1.7463576793670654,
      -2.730149269104004,
      2.276730537414551,
      0.46701520681381226,
      0.10524321347475052,
      -0.669059693813324,
      0.3934982717037201,
      1.4641791582107544,
      -1.027769684791565,
      -0.3449702858924866
    ],
    [
      1.3301957845687866,
      -2.2174887657165527,
      0.5048233270645142,
      -0.38393476605415344,
      -0.43727102875709534,
      1.1198264360427856,
      0.9445653557777405,
      -0.8449645042419434,
      -0.578157365322113,
      -0.31238147616386414,
      -0.13667747378349304,
      -0.49722349643707275
    ],
    [
      -1.3014923334121704,
      -0.2936113774776459,
      0.6420873403549194,
      1.6122304201126099,
      0.02536076307296753,
      -0.7985237836837769,
      1.2087594270706177,
      -0.5917340517044067,
      -1.4304237365722656,
      0.5226640105247498,
      -0.5300434827804565,
      0.012659433297812939
    ],
    [
      -1.0263079404830933,
      -0.4375649392604828,
      -0.7759231925010681,
      0.987471878528595,
      -0.35465338826179504,
      -0.1831665337085724,
      0.5123516321182251,
      0.23605629801750183,
      -1.5692425966262817,
      0.37549978494644165,
      0.32942602038383484,
      -0.8594450354576111
    ],
    [
      -0.7062277793884277,
      0.2337968647480011,
      -0.21852648258209229,
      -0.7774306535720825,
      1.1102838516235352,
      -0.46970251202583313,
      1.8621529340744019,
      -1.626539945602417,
      -0.8001828193664551,
      2.6978604793548584,
      -0.623466968536377,
      -0.688553512096405
    ],
    [
      -0.06814685463905334,
      -0.7246429324150085,
      -0.3705902099609375,
      2.269948720932007,
      0.37345442175865173,
      2.5104470252990723,
      1.4185791015625,
      1.7466676235198975,
      -0.5933283567428589,
      -2.5650393962860107,
      -1.7527337074279785,
      0.32668739557266235
    ],
    [
      -0.7963006496429443,
      0.9360002875328064,
      0.9561437368392944,
      1.1510852575302124,
      1.081217646598816,
      1.594282865524292,
      -0.648329496383667,
      -0.4914838969707489,
      -0.8339395523071289,
      -2.344633102416992,
      1.4190176725387573,
      0.821523904800415
    ],
    [
      -0.8942757248878479,
      -0.6818183660507202,
      0.6518527269363403,
      0.6471006870269775,
      -0.29754340648651123,
      1.0790503025054932,
      0.677708625793457,
      -1.0656765699386597,
      -0.3205367922782898,
      0.2285405397415161,
      0.01700422167778015,
      0.19976507127285004
    ],
    [
      0.42424243688583374,
      0.5304299592971802,
      -0.45430874824523926,
      -0.44243547320365906,
      1.329990267753601,
      0.6861319541931152,
      0.02325468510389328,
      0.877811074256897,
      0.8941820859909058,
      -0.11745338141918182,
      -0.3723994791507721,
      0.36765560507774353
    ],
    [
      0.6055724024772644,
      -0.916725218296051,
      -1.4250600337982178,
      0.15919344127178192,
      -1.2482513189315796,
      1.2462469339370728,
      -0.29980358481407166,
      1.1469758749008179,
      0.581309974193573,
      -0.3954879343509674,
      -1.0736851692199707,
      0.8178943395614624
    ],
    [
      -0.5425356030464172,
      -0.4924847185611725,
      -0.3301377594470978,
      -0.5908181667327881,
      0.3282865583896637,
      1.2129771709442139,
      1.5769821405410767,
      -0.5343159437179565,
      -0.14615611732006073,
      -0.47438982129096985,
      -0.49690988659858704,
      -0.2508507966995239
    ],
    [
      -0.04530564323067665,
      0.6437902450561523,
      -0.8733360171318054,
      0.719550609588623,
      -0.8422830700874329,
      -0.7413435578346252,
      -0.007847409695386887,
      0.2908439636230469,
      1.1117311716079712,
      -1.4016177654266357,
      0.8399428725242615,
      1.4264543056488037
    ],
    [
      -1.2994112968444824,
      0.08181922137737274,
      1.2317041158676147,
      -0.4216189980506897,
      0.12423383444547653,
      1.6566073894500732,
      0.018392590805888176,
      0.22317057847976685,
      0.10228854417800903,
      -0.02787524275481701,
      -0.25545716285705566,
      -0.24354635179042816
    ],
    [
      -2.0746850967407227,
      0.47595706582069397,
      0.7277154326438904,
      -0.6125242710113525,
      -2.605586290359497,
      0.03689827769994736,
      -0.7338975071907043,
      1.1194900274276733,
      -0.40555399656295776,
      1.1161682605743408,
      -1.3118797540664673,
      0.24210809171199799
    ],
    [
      -0.536614716053009,
      1.0722475051879883,
      0.01548051182180643,
      1.3877443075180054,
      -1.8050662279129028,
      0.36572515964508057,
      1.484110713005066,
      -0.3867611587047577,
      -0.15203100442886353,
      0.5391044020652771,
      -0.8984165191650391,
      -1.7935090065002441
    ],
    [
      -0.7645164728164673,
      -0.6370111703872681,
      -0.8638052344322205,
      0.8971686959266663,
      -2.054278612136841,
      -0.22953851521015167,
      -1.1740131378173828,
      -0.01983501762151718,
      1.01775324344635,
      1.1860371828079224,
      -0.47122183442115784,
      0.383795827627182
    ],
    [
      0.3568841218948364,
      -0.9328886866569519,
      -0.770637571811676,
      0.5179593563079834,
      1.024274230003357,
      0.5920253992080688,
      -0.17333771288394928,
      0.6956047415733337,
      0.17557556927204132,
      1.9154235124588013,
      0.8884910941123962,
      -2.255354404449463
    ],
    [
      -0.34187668561935425,
      -0.11458612233400345,
      -0.7917982339859009,
      0.1538507044315338,
      0.7829644680023193,
      -0.07492872327566147,
      0.19425110518932343,
      0.04667786881327629,
      0.26713019609451294,
      0.6409401297569275,
      0.5179252624511719,
      0.15641765296459198
    ],
    [
      -0.881431519985199,
      -0.5107948780059814,
      -0.09742879122495651,
      -0.5844583511352539,
      0.1017361655831337,
      -0.30326318740844727,
      0.153503879904747,
      -0.5181260108947754,
      -0.6960176229476929,
      1.00046968460083,
      1.4546515941619873,
      0.822446346282959
    ],
    [
      -1.14604651927948,
      -1.1081749200820923,
      -0.6937797665596008,
      0.9229031205177307,
      0.6698327660560608,
      -0.42731449007987976,
      1.2753105163574219,
      -1.0307068824768066,
      0.6109312772750854,
      0.2594352066516876,
      -0.5439527034759521,
      -0.1858532875776291
    ],
    [
      -0.7295499444007874,
      -0.4263085126876831,
      -0.626360297203064,
      0.2070561647415161,
      0.16489998996257782,
      -1.053970456123352,
      -0.8191992044448853,
      -0.06955118477344513,
      0.015383169054985046,
      -0.026134168729186058,
      2.50201416015625,
      -1.4251044988632202
    ],
    [
      -0.553409993648529,
      0.1779794543981552,
      0.9795076251029968,
      -0.03935205191373825,
      0.8885761499404907,
      0.0947628989815712,
      -0.31064894795417786,
      0.381275475025177,
      -0.43283066153526306,
      -1.163362741470337,
      0.657489001750946,
      -0.7071122527122498
    ],
    [
      -0.16190394759178162,
      -1.3838591575622559,
      -0.18630598485469818,
      0.46626973152160645,
      0.358042448759079,
      -1.158373236656189,
      0.4414827823638916,
      -0.37803971767425537,
      0.34665483236312866,
      0.45123791694641113,
      -0.512992799282074,
      -0.2981638014316559
    ],
    [
      -0.20911681652069092,
      -1.2904596328735352,
      0.35711172223091125,
      1.4878489971160889,
      -0.14319191873073578,
      -0.45101335644721985,
      0.1602666825056076,
      0.23731200397014618,
      -0.7225303649902344,
      -0.2650294303894043,
      -0.7874773740768433,
      -1.0285097360610962
    ],
    [
      -1.286956548690796,
      -0.008927715010941029,
      0.3425661325454712,
      -1.0459814071655273,
      1.0947296619415283,
      0.7008978128433228,
      1.807958722114563,
      -1.4222781658172607,
      -1.6199719905853271,
      -0.12367142736911774,
      0.23595644533634186,
      0.14046932756900787
    ],
    [
      -0.863149881362915,
      0.15789201855659485,
      -1.3938249349594116,
      -0.24122954905033112,
      -0.037000562995672226,
      -0.4463385343551636,
      0.054881710559129715,
      1.521267056465149,
      0.1789117455482483,
      1.4517167806625366,
      1.3535207509994507,
      0.11514778435230255
    ],
    [
      -0.1305360496044159,
      -2.5615196228027344,
      0.9946305751800537,
      1.1001008749008179,
      -2.614152193069458,
      -1.686630129814148,
      0.7956169843673706,
      1.0539782047271729,
      2.1352272033691406,
      -0.6800815463066101,
      0.48355114459991455,
      1.270620584487915
    ],
    [
      -1.0406079292297363,
      -1.0714915990829468,
      -0.2841535806655884,
      0.9303399324417114,
      0.39844629168510437,
      -0.17384977638721466,
      0.6859578490257263,
      -0.6399859189987183,
      1.4806876182556152,
      -0.017427988350391388,
      1.0481305122375488,
      0.2880285084247589
    ],
    [
      -0.45577678084373474,
      -0.5900653004646301,
      1.1200989484786987,
      -0.3660847246646881,
      0.10332050174474716,
      -0.788963258266449,
      -1.0111169815063477,
      -1.108532428741455,
      0.9864679574966431,
      -0.5707107186317444,
      1.3526549339294434,
      0.3466218411922455
    ],
    [
      0.23079931735992432,
      0.45162588357925415,
      0.20738433301448822,
      0.04157734662294388,
      -0.15499864518642426,
      1.3519550561904907,
      -0.45176854729652405,
      -0.8590644001960754,
      -0.21294206380844116,
      1.3472076654434204,
      -0.9443130493164062,
      -1.5837223529815674
    ],
    [
      0.6544477939605713,
      -0.3540494441986084,
      -1.0033352375030518,
      -1.1339178085327148,
      0.11391817778348923,
      -0.17320115864276886,
      -0.2233748435974121,
      -0.39984163641929626,
      1.0446429252624512,
      0.13232360780239105,
      -0.33933475613594055,
      1.110797643661499
    ],
    [
      0.3959365487098694,
      0.26278817653656006,
      -0.4092804789543152,
      -1.280824065208435,
      -0.057767849415540695,
      0.3673628568649292,
      0.9788621664047241,
      -0.27721571922302246,
      0.7490729093551636,
      2.0798332691192627,
      -0.5293442606925964,
      -1.0108537673950195
    ],
    [
      -0.08760646730661392,
      -0.718268871307373,
      0.1541900634765625,
      0.7892817854881287,
      0.6486377716064453,
      -1.3841782808303833,
      0.6203988194465637,
      -0.09967505931854248,
      0.4356284737586975,
      1.3057812452316284,
      -0.5504776835441589,
      -0.3717564046382904
    ],
    [
      1.0150320529937744,
      -1.251724123954773,
      0.33585551381111145,
      -0.8001510500907898,
      -0.3356582224369049,
      1.913792371749878,
      1.9800081253051758,
      0.5818995833396912,
      2.2535204887390137,
      -1.110451579093933,
      -1.3823816776275635,
      -1.8038139343261719
    ],
    [
      -1.4016450643539429,
      1.713708519935608,
      1.815513253211975,
      0.17590607702732086,
      -1.4805560111999512,
      1.4671151638031006,
      -0.8570226430892944,
      1.0661979913711548,
      -0.11664844304323196,
      -0.03412705287337303,
      -1.1639081239700317,
      -0.2475327104330063
    ],
    [
      -0.9942782521247864,
      1.3725804090499878,
      0.48654672503471375,
      -0.8190149068832397,
      -1.5847797393798828,
      1.9643259048461914,
      -0.8938823342323303,
      -0.758210301399231,
      -0.20180252194404602,
      0.007220690604299307,
      0.10815415531396866,
      1.3490378856658936
    ],
    [
      -1.397000789642334,
      -1.8073549270629883,
      -1.7584103345870972,
      0.5966656804084778,
      0.5849465727806091,
      0.656622588634491,
      0.4275042414665222,
      -0.5961417555809021,
      -0.9814345240592957,
      1.0103472471237183,
      1.002068281173706,
      1.78937566280365
    ],
    [
      -1.1991931200027466,
      -0.44905033707618713,
      1.2119419574737549,
      0.46240121126174927,
      0.6311917901039124,
      -0.564153790473938,
      -1.1119681596755981,
      -0.0971728265285492,
      -0.7674950957298279,
      0.46591925621032715,
      0.6913480758666992,
      1.340803861618042
    ],
    [
      1.7467176914215088,
      -0.693534255027771,
      -0.023804455995559692,
      -2.114663600921631,
      0.639051616191864,
      -1.7516802549362183,
      -0.17597870528697968,
      0.12294834107160568,
      1.739456295967102,
      -1.093305230140686,
      0.24254268407821655,
      0.924752414226532
    ],
    [
      -2.0525288581848145,
      -0.47072315216064453,
      0.26788485050201416,
      -0.09211106598377228,
      1.2628121376037598,
      0.09921012073755264,
      -0.17594291269779205,
      0.41630813479423523,
      0.3678422272205353,
      -1.8011465072631836,
      0.6449533104896545,
      1.3601462841033936
    ],
    [
      -0.208029642701149,
      1.3541656732559204,
      -0.5209176540374756,
      1.7893445491790771,
      -0.37726834416389465,
      0.05894758924841881,
      -0.6743057370185852,
      -0.10855181515216827,
      -0.10818024724721909,
      -1.7896862030029297,
      -0.23317848145961761,
      1.317617654800415
    ],
    [
      -0.3817777931690216,
      -1.0611485242843628,
      0.008452476933598518,
      0.5890076756477356,
      0.7876399159431458,
      -0.851368248462677,
      0.36507540941238403,
      -0.5350906848907471,
      1.3209185600280762,
      0.2005012184381485,
      0.7077781558036804,
      -0.044875793159008026
    ],
    [
      0.3425225019454956,
      -1.153893232345581,
      0.6865214705467224,
      0.651918888092041,
      -1.7222059965133667,
      -1.2927640676498413,
      1.612557053565979,
      -0.24290654063224792,
      -0.31837591528892517,
      0.8553670048713684,
      -0.9877851605415344,
      1.4932974576950073
    ],
    [
      -1.0013892650604248,
      0.2056071162223816,
      0.18424813449382782,
      0.5959577560424805,
      -1.1553343534469604,
      -0.8882013559341431,
      2.4331443309783936,
      1.1001203060150146,
      -0.7365912199020386,
      1.0326098203659058,
      -1.0505627393722534,
      -0.27285102009773254
    ],
    [
      -0.05651012063026428,
      0.947258710861206,
      0.7955900430679321,
      -1.3834482431411743,
      1.304109811782837,
      0.015541037544608116,
      0.1877065747976303,
      -1.409600853919983,
      -0.7505651116371155,
      -0.15342888236045837,
      -0.4223059415817261,
      -1.1033029556274414
    ],
    [
      -0.47826361656188965,
      -0.309247225522995,
      -0.9603728652000427,
      -0.8555749654769897,
      0.25276023149490356,
      -1.1840319633483887,
      -0.15093082189559937,
      0.6162030696868896,
      0.16235050559043884,
      1.367984652519226,
      -0.4783991277217865,
      1.0169471502304077
    ],
    [
      0.6084524393081665,
      -0.5544763207435608,
      -2.3578126430511475,
      -0.2977830171585083,
      2.412691354751587,
      0.5709689855575562,
      -1.4918739795684814,
      0.48952415585517883,
      1.395098328590393,
      -0.05527287721633911,
      -1.0030910968780518,
      1.0917589664459229
    ],
    [
      -1.0115232467651367,
      0.2955092191696167,
      0.5779036283493042,
      1.6313750743865967,
      -1.1122617721557617,
      -0.6936718821525574,
      0.5246604084968567,
      -0.5053210258483887,
      -0.4837849736213684,
      0.03224589303135872,
      1.5076555013656616,
      -0.17107361555099487
    ],
    [
      0.5154757499694824,
      1.6975507736206055,
      -1.4732192754745483,
      0.34688663482666016,
      -1.2277551889419556,
      -0.008774221874773502,
      -0.4497077763080597,
      1.5752391815185547,
      1.3720287084579468,
      -1.0198988914489746,
      -0.7435566186904907,
      -0.5653438568115234
    ],
    [
      -1.0349923372268677,
      -0.3496093451976776,
      1.1484254598617554,
      0.8434669375419617,
      -2.626230478286743,
      1.7942150831222534,
      1.1893343925476074,
      0.06634583324193954,
      -0.39015820622444153,
      0.7613264918327332,
      -0.8883561491966248,
      0.18791115283966064
    ],
    [
      -1.404320240020752,
      0.039182718843221664,
      -0.4182645380496979,
      0.9337684512138367,
      0.14843297004699707,
      -0.4581007957458496,
      0.963919997215271,
      0.004425295162945986,
      -0.8392292857170105,
      0.48786675930023193,
      0.8346304297447205,
      0.020669134333729744
    ],
    [
      -0.24976080656051636,
      -0.546074390411377,
      1.7700084447860718,
      0.058925095945596695,
      -0.19807608425617218,
      0.05320395156741142,
      -0.854354977607727,
      -0.6808596253395081,
      0.02886059321463108,
      -0.7899662852287292,
      0.1044941395521164,
      0.17750683426856995
    ],
    [
      0.5151224136352539,
      0.03978613018989563,
      -0.22685649991035461,
      -0.40112215280532837,
      -0.501866340637207,
      -0.21551142632961273,
      0.5535296201705933,
      0.9683985114097595,
      -0.016396893188357353,
      -2.1916301250457764,
      1.6338084936141968,
      -0.25531092286109924
    ],
    [
      -0.6835429668426514,
      -0.20337632298469543,
      0.0934499055147171,
      -0.7159446477890015,
      -0.7168983817100525,
      -0.7496681809425354,
      -0.11061344295740128,
      -0.9907151460647583,
      0.5793372392654419,
      1.4057687520980835,
      0.25408077239990234,
      0.952819287776947
    ],
    [
      -0.6232001781463623,
      -1.134504795074463,
      -0.07824387401342392,
      0.5684579014778137,
      -0.778603196144104,
      0.32084229588508606,
      1.6749836206436157,
      -0.5043525099754333,
      -0.2229631394147873,
      0.7611401081085205,
      0.49748495221138,
      -0.15047842264175415
    ],
    [
      0.08779589831829071,
      0.9945734739303589,
      -1.11742103099823,
      -0.7091529369354248,
      -0.0779111459851265,
      0.8147875666618347,
      -0.696026623249054,
      0.32064545154571533,
      -0.32513147592544556,
      0.7240139842033386,
      0.0006932581309229136,
      -0.07657545804977417
    ],
    [
      0.7425926923751831,
      0.8748021125793457,
      -1.3856825828552246,
      0.959854781627655,
      1.533565878868103,
      -0.6478318572044373,
      0.10747991502285004,
      -0.3438234329223633,
      0.39768287539482117,
      -1.7501814365386963,
      -0.4889415502548218,
      -0.9409266710281372
    ],
    [
      0.9943788647651672,
      -0.6676617860794067,
      -0.21767672896385193,
      -1.042961835861206,
      0.3791964650154114,
      -0.14993944764137268,
      0.2177504450082779,
      1.1947863101959229,
      -1.4957454204559326,
      0.31194162368774414,
      -0.4630761742591858,
      0.3845214247703552
    ],
    [
      -0.11141308397054672,
      0.23547813296318054,
      -1.195125937461853,
      -1.336449146270752,
      1.1030573844909668,
      0.3936096131801605,
      -0.5901546478271484,
      0.5187028646469116,
      0.5293370485305786,
      -0.052498504519462585,
      -0.5993133783340454,
      1.58547842502594
    ],
    [
      0.006754940375685692,
      -0.4640752673149109,
      -0.044357310980558395,
      -0.11602144688367844,
      0.17780734598636627,
      0.49833035469055176,
      -0.17627574503421783,
      0.6586053967475891,
      -2.2722690105438232,
      1.1290842294692993,
      0.9478573203086853,
      0.6693481802940369
    ],
    [
      1.6225086450576782,
      -1.5474073886871338,
      -0.1944875717163086,
      -2.1733880043029785,
      0.532768726348877,
      0.005017968360334635,
      1.1265723705291748,
      -0.5846177339553833,
      0.3372982144355774,
      -2.4882466793060303,
      -0.39122146368026733,
      3.0516717433929443
    ],
    [
      -0.820646345615387,
      0.4447624981403351,
      -0.38556402921676636,
      -1.0330418348312378,
      1.4367650747299194,
      -0.035310640931129456,
      -0.13272610306739807,
      0.60834801197052,
      1.293413758277893,
      0.48916590213775635,
      0.44050055742263794,
      0.37573057413101196
    ],
    [
      0.9911791086196899,
      0.41090449690818787,
      0.9082109928131104,
      0.6043755412101746,
      0.6816763281822205,
      -0.5998706221580505,
      0.5843430757522583,
      0.36068955063819885,
      0.5856607556343079,
      -0.9965671896934509,
      -2.0417518615722656,
      -0.6110127568244934
    ],
    [
      -0.4152129888534546,
      0.5467218160629272,
      0.9450438618659973,
      0.26075172424316406,
      0.6529576778411865,
      -0.952476978302002,
      1.5506114959716797,
      -0.392648309469223,
      -0.8271572589874268,
      -1.0733803510665894,
      -0.22552134096622467,
      0.5556067228317261
    ],
    [
      1.0018731355667114,
      -2.227991819381714,
      0.5314483046531677,
      -0.3211740553379059,
      -0.12404842674732208,
      0.5218954682350159,
      0.09775201231241226,
      0.7259480357170105,
      0.6557873487472534,
      -0.7265405058860779,
      -0.9539244174957275,
      -0.08355408906936646
    ],
    [
      -1.7035808563232422,
      0.3516017496585846,
      -2.646728277206421,
      -0.25874054431915283,
      0.45745375752449036,
      -0.042485546320676804,
      0.4522511065006256,
      -0.26764315366744995,
      1.4255714416503906,
      0.19099824130535126,
      0.4945538341999054,
      1.1477649211883545
    ],
    [
      0.5852900743484497,
      -0.6180891394615173,
      -0.22036929428577423,
      -0.6781317591667175,
      -0.6553016901016235,
      -1.1675044298171997,
      0.7697561979293823,
      2.415667772293091,
      0.2864932119846344,
      -0.2960731089115143,
      0.9224757552146912,
      -0.9144258499145508
    ],
    [
      0.15662401914596558,
      0.07670407742261887,
      -0.8121421337127686,
      -0.12671120464801788,
      0.8018710017204285,
      -0.05555976182222366,
      -1.172719120979309,
      1.0816646814346313,
      -0.2825525104999542,
      -0.8326565623283386,
      -0.46684548258781433,
      -0.4469587504863739
    ],
    [
      0.29262131452560425,
      0.8057844042778015,
      -1.3285517692565918,
      1.5145821571350098,
      0.592326283454895,
      1.9805878400802612,
      -1.337386131286621,
      1.7657642364501953,
      -1.0629346370697021,
      -1.4252640008926392,
      1.190900444984436,
      -0.6121818423271179
    ],
    [
      1.2556487321853638,
      -0.8233115077018738,
      1.61467707157135,
      0.360809326171875,
      0.31109461188316345,
      -0.14539195597171783,
      -1.3041801452636719,
      0.15261152386665344,
      -0.6409919857978821,
      0.3067152202129364,
      -1.7448444366455078,
      -0.006918358150869608
    ],
    [
      -0.9736298322677612,
      1.7632465362548828,
      2.8997998237609863,
      -1.4899952411651611,
      0.8327314257621765,
      -0.6089558005332947,
      -0.04675600305199623,
      0.11487945914268494,
      1.7209727764129639,
      -0.5207312107086182,
      -0.11787913739681244,
      0.8085625171661377
    ],
    [
      -1.3443951606750488,
      -0.05749441683292389,
      -0.2940640449523926,
      0.2037559300661087,
      0.9874235391616821,
      -1.9661657810211182,
      0.025430314242839813,
      0.014279177412390709,
      0.9233222007751465,
      1.3664993047714233,
      0.251142293214798,
      0.05285612866282463
    ],
    [
      0.731911301612854,
      -1.1625192165374756,
      0.2298683375120163,
      0.18574155867099762,
      -0.20844362676143646,
      0.8706952333450317,
      1.1180444955825806,
      0.13305924832820892,
      -0.5510262250900269,
      -1.0633782148361206,
      1.3261933326721191,
      -0.3599006235599518
    ],
    [
      -1.1582731008529663,
      0.7917291522026062,
      -0.014542237855494022,
      0.761114239692688,
      -0.8061882257461548,
      -0.7207525968551636,
      -2.017942190170288,
      -1.482957124710083,
      -0.6578032970428467,
      0.2670329809188843,
      1.8699374198913574,
      1.640015959739685
    ],
    [
      -1.6488316059112549,
      -0.1304016262292862,
      -0.32954248785972595,
      -0.15950939059257507,
      -0.037739284336566925,
      -0.15043912827968597,
      0.1380058079957962,
      0.3645907938480377,
      2.2770583629608154,
      -0.9587861895561218,
      -0.9971268177032471,
      0.2221001237630844
    ],
    [
      -1.5857055187225342,
      0.28466159105300903,
      1.6638295650482178,
      0.681845486164093,
      1.9088654518127441,
      -1.4667880535125732,
      -1.6163108348846436,
      -0.364102303981781,
      0.07103834301233292,
      0.3778696060180664,
      -0.48029303550720215,
      0.9015740752220154
    ],
    [
      -1.286627173423767,
      -1.0098921060562134,
      0.3154144585132599,
      -0.3043130934238434,
      -0.8713411688804626,
      -0.48639750480651855,
      -0.6432742476463318,
      -0.39871490001678467,
      -0.12867558002471924,
      0.5219275951385498,
      0.18476268649101257,
      0.7915971875190735
    ],
    [
      1.0586875677108765,
      -0.5557941794395447,
      1.2797331809997559,
      -1.5205106735229492,
      0.030286267399787903,
      0.44292518496513367,
      -1.0069383382797241,
      3.4595561027526855,
      -1.616875171661377,
      -1.9423505067825317,
      1.3477213382720947,
      0.16074062883853912
    ],
    [
      0.8010770678520203,
      -0.24958352744579315,
      1.6559853553771973,
      0.3215807378292084,
      -1.8221945762634277,
      1.6299474239349365,
      -0.21180155873298645,
      -1.4458047151565552,
      -0.00509660504758358,
      0.19303247332572937,
      -1.3465986251831055,
      1.5611852407455444
    ],
    [
      -0.3995339870452881,
      0.24733859300613403,
      -1.3773337602615356,
      0.23403678834438324,
      1.2925471067428589,
      -0.3904281556606293,
      0.07771555334329605,
      -0.1478351652622223,
      0.18756122887134552,
      -0.1707548201084137,
      -1.8025760650634766,
      1.557008147239685
    ],
    [
      -1.5351372957229614,
      0.04431094601750374,
      0.1589021533727646,
      1.118804693222046,
      0.8592627644538879,
      -0.45784786343574524,
      0.7893113493919373,
      -1.3193596601486206,
      0.8845049142837524,
      0.8641512393951416,
      0.7188569903373718,
      0.3612016439437866
    ],
    [
      -0.9062283039093018,
      -1.1764613389968872,
      -0.877448558807373,
      -0.0699998289346695,
      -0.6429465413093567,
      -0.27829092741012573,
      -0.4581161141395569,
      1.6712534427642822,
      0.6316210031509399,
      0.5353123545646667,
      -1.4127438068389893,
      -0.39309099316596985
    ],
    [
      0.35645177960395813,
      -0.5495262742042542,
      -0.9803704619407654,
      1.3913109302520752,
      -0.023530855774879456,
      1.6068423986434937,
      1.3646528720855713,
      -1.557712435722351,
      -0.40585747361183167,
      -0.33391061425209045,
      -1.898298740386963,
      1.514036774635315
    ],
    [
      -1.9027974605560303,
      -0.021956490352749825,
      1.7798620462417603,
      -0.5760951042175293,
      0.09622883051633835,
      0.34102267026901245,
      -0.1787511259317398,
      1.5982990264892578,
      0.5701531171798706,
      -0.7786149382591248,
      -1.31913423538208,
      -0.7877447009086609
    ],
    [
      -0.1898256093263626,
      0.9694806933403015,
      1.4602762460708618,
      1.2091702222824097,
      -0.6422920227050781,
      1.3224536180496216,
      0.6576139330863953,
      -1.5151716470718384,
      0.9697306752204895,
      -2.521618127822876,
      -1.1885079145431519,
      -1.6577410697937012
    ],
    [
      1.032354712486267,
      0.3490360975265503,
      1.307174563407898,
      0.43572402000427246,
      1.578760027885437,
      0.7153822183609009,
      0.14476312696933746,
      -0.6430538892745972,
      0.8283170461654663,
      -1.7048015594482422,
      -1.4101591110229492,
      -1.0204036235809326
    ],
    [
      -1.7924842834472656,
      -0.9840602278709412,
      -0.7626960277557373,
      0.9918638467788696,
      -0.2058325707912445,
      -0.16535647213459015,
      0.2712666094303131,
      -0.15330924093723297,
      0.41248008608818054,
      1.6248294115066528,
      -0.7109962105751038,
      0.6447658538818359
    ],
    [
      -0.8740767240524292,
      0.31494638323783875,
      -0.38069725036621094,
      0.952803373336792,
      0.06111377850174904,
      -0.6662981510162354,
      1.247511386871338,
      -1.5239858627319336,
      1.009049654006958,
      0.5971946120262146,
      0.07934325933456421,
      -0.18357610702514648
    ],
    [
      -0.404979944229126,
      -1.1789863109588623,
      -0.6876924633979797,
      1.0867505073547363,
      0.9174589514732361,
      1.643352746963501,
      -0.3376013934612274,
      0.4087528586387634,
      -1.034122347831726,
      -2.2135558128356934,
      0.05122893676161766,
      0.7565900087356567
    ],
    [
      1.3366742134094238,
      -2.1359832286834717,
      0.6805952787399292,
      -0.8776041269302368,
      0.3846501410007477,
      -1.0727185010910034,
      -0.41531938314437866,
      -0.7665957808494568,
      1.2788410186767578,
      1.1867796182632446,
      -0.005042896140366793,
      -0.4749445617198944
    ],
    [
      -0.3338591456413269,
      -2.008906841278076,
      0.784891664981842,
      -0.5800440311431885,
      0.6332253217697144,
      1.9790000915527344,
      -1.1815489530563354,
      0.405150830745697,
      1.3027781248092651,
      -0.05804828181862831,
      0.16050773859024048,
      0.2431996613740921
    ],
    [
      -0.5876653790473938,
      0.41702231764793396,
      1.513129472732544,
      0.13080710172653198,
      1.6015161275863647,
      -0.6480593681335449,
      0.20948457717895508,
      -2.3340647220611572,
      0.2529814541339874,
      -0.5140222311019897,
      0.5033201575279236,
      0.11403495818376541
    ],
    [
      0.25800836086273193,
      1.3950645923614502,
      0.30200937390327454,
      0.6711994409561157,
      -0.6914368867874146,
      -1.2223769426345825,
      -1.4627412557601929,
      0.20805567502975464,
      -0.1531057059764862,
      -1.0228970050811768,
      1.0524626970291138,
      0.4749338924884796
    ],
    [
      2.1456549167633057,
      -0.30957159399986267,
      -0.1801339089870453,
      -0.5573894381523132,
      -0.11537373065948486,
      -0.6405243873596191,
      -1.8307849168777466,
      -0.27473166584968567,
      1.4948970079421997,
      -0.5086445212364197,
      -0.22993995249271393,
      0.46740323305130005
    ],
    [
      -1.583435297012329,
      -1.270272135734558,
      -1.2200847864151,
      -0.23844070732593536,
      1.0493673086166382,
      1.03770112991333,
      -0.4796910881996155,
      1.079224944114685,
      0.4186909794807434,
      1.3619341850280762,
      -0.5095939040184021,
      1.1895359754562378
    ],
    [
      0.5811676383018494,
      -0.022627802565693855,
      0.15459580719470978,
      -0.8646905422210693,
      0.49392613768577576,
      0.02318190224468708,
      -0.19771192967891693,
      -1.7506107091903687,
      1.1839991807937622,
      1.596144676208496,
      0.5380159020423889,
      -1.225346565246582
    ],
    [
      0.6679450273513794,
      -0.36064600944519043,
      0.6927344799041748,
      -1.5268133878707886,
      -1.1063584089279175,
      -0.7572887539863586,
      -1.5774050951004028,
      -0.8217539191246033,
      0.7050088047981262,
      1.927931547164917,
      -0.49908891320228577,
      0.039723265916109085
    ],
    [
      1.0227582454681396,
      -0.537760853767395,
      0.6380606293678284,
      0.5151511430740356,
      0.26694223284721375,
      0.38767749071121216,
      -2.218461275100708,
      -0.7668623328208923,
      0.02890070527791977,
      -0.434211403131485,
      1.6478701829910278,
      -0.4130931794643402
    ],
    [
      -0.6460632681846619,
      -1.2516281604766846,
      -0.24645985662937164,
      0.48200663924217224,
      0.4500454366207123,
      -0.8190712928771973,
      0.7300936579704285,
      -0.5196446776390076,
      0.1330941766500473,
      0.4913816750049591,
      -0.7388540506362915,
      -1.1773841381072998
    ],
    [
      -1.3315026760101318,
      0.6388281583786011,
      -0.12909537553787231,
      1.8364499807357788,
      0.19846002757549286,
      -1.1371982097625732,
      2.0143649578094482,
      0.7347442507743835,
      -0.7106611132621765,
      1.4202395677566528,
      -0.6755616664886475,
      -1.8033729791641235
    ],
    [
      -1.9921261072158813,
      -0.5456441640853882,
      -1.5200004577636719,
      -0.4639008343219757,
      -0.40459877252578735,
      0.2948565185070038,
      -0.45854446291923523,
      0.25578200817108154,
      1.1854385137557983,
      2.2907707691192627,
      0.2209703028202057,
      -0.020438291132450104
    ],
    [
      0.9115757942199707,
      -0.4513704776763916,
      -0.4928334057331085,
      1.592041015625,
      -0.6335129737854004,
      -0.11492115259170532,
      -0.540846586227417,
      0.43815523386001587,
      -1.6125942468643188,
      0.23371244966983795,
      0.20045681297779083,
      -0.3498589098453522
    ],
    [
      -0.4446665048599243,
      -1.0616428852081299,
      -0.3257027566432953,
      0.5009980201721191,
      0.4796992838382721,
      -0.33647626638412476,
      0.8696171641349792,
      -0.7207177877426147,
      0.9229908585548401,
      -0.19161352515220642,
      0.44095057249069214,
      0.9554190635681152
    ],
    [
      -1.4482393264770508,
      -0.9411394596099854,
      -0.04658405855298042,
      -0.45331162214279175,
      -0.403833270072937,
      -0.19515590369701385,
      0.024019140750169754,
      0.9076213836669922,
      0.525688886642456,
      0.6738154292106628,
      1.577518105506897,
      -0.3638303875923157
    ],
    [
      0.4635683298110962,
      0.5102153420448303,
      1.9183365106582642,
      -0.20707754790782928,
      0.4217398464679718,
      -0.834844172000885,
      -2.060887575149536,
      -0.3216664493083954,
      1.2511322498321533,
      -1.371171474456787,
      -0.6537873148918152,
      0.27975428104400635
    ],
    [
      0.7562215924263,
      0.01221681758761406,
      -0.9053050875663757,
      0.6754782795906067,
      1.6555922031402588,
      1.7032389640808105,
      0.8291756510734558,
      0.8382167816162109,
      0.6022496819496155,
      -0.3138551712036133,
      -1.2142338752746582,
      0.0066804466769099236
    ],
    [
      1.1700174808502197,
      0.6501462459564209,
      0.05933580920100212,
      -0.43838798999786377,
      0.40348386764526367,
      0.04879771173000336,
      0.5286749601364136,
      -0.8121832013130188,
      -1.5344010591506958,
      -0.30341923236846924,
      -0.6747390031814575,
      0.6659117937088013
    ],
    [
      0.8720160126686096,
      -0.36280035972595215,
      -1.2337361574172974,
      -0.2546670734882355,
      0.4265763759613037,
      2.4030959606170654,
      1.785120964050293,
      -0.7886434197425842,
      0.6191288828849792,
      -0.3422713577747345,
      -0.28225159645080566,
      -1.349348545074463
    ],
    [
      0.9750632643699646,
      -1.070633888244629,
      -0.7241357564926147,
      1.4264734983444214,
      -0.17866754531860352,
      -1.1936084032058716,
      1.2571808099746704,
      1.7357162237167358,
      -0.037843190133571625,
      0.4946349561214447,
      0.6517001390457153,
      -1.2179882526397705
    ],
    [
      -1.0906039476394653,
      0.374953955411911,
      0.6602292656898499,
      2.869938850402832,
      -0.6456634998321533,
      0.10144644230604172,
      0.06362423300743103,
      -1.5052154064178467,
      0.36112502217292786,
      -0.4782051742076874,
      -0.46749353408813477,
      -0.3485877513885498
    ],
    [
      -0.1602768748998642,
      0.3914053440093994,
      -2.2478601932525635,
      1.3061773777008057,
      -2.1316022872924805,
      -1.9673539400100708,
      2.083791732788086,
      -0.46225830912590027,
      0.930061936378479,
      -0.9171762466430664,
      0.3694680333137512,
      0.06844943761825562
    ],
    [
      -0.38048458099365234,
      0.019053352996706963,
      -0.9115078449249268,
      2.6026525497436523,
      0.3821994960308075,
      0.21985472738742828,
      0.8743099570274353,
      -0.9530846476554871,
      -0.4620383679866791,
      0.12225905805826187,
      0.03819750249385834,
      -0.17760877311229706
    ],
    [
      -0.9847349524497986,
      0.007063708268105984,
      0.09912198781967163,
      0.3759557604789734,
      0.19541427493095398,
      1.0665605068206787,
      1.729833722114563,
      -1.7411020994186401,
      0.05133851617574692,
      -0.764869749546051,
      -0.7166219353675842,
      1.5543075799942017
    ],
    [
      -0.5568507313728333,
      -0.8443836569786072,
      -0.19471240043640137,
      1.5015513896942139,
      -0.8085161447525024,
      -0.9860453605651855,
      0.722831666469574,
      -0.6202907562255859,
      -0.5883848071098328,
      0.649832546710968,
      -0.21515043079853058,
      0.9795944690704346
    ],
    [
      -1.0368931293487549,
      -0.8511165976524353,
      -0.20157180726528168,
      0.2254813313484192,
      -0.18677550554275513,
      0.8848794102668762,
      0.5245003700256348,
      -0.7585527300834656,
      0.5113827586174011,
      0.34678587317466736,
      0.7397412061691284,
      -0.945521891117096
    ],
    [
      -0.09219085425138474,
      -0.245489239692688,
      0.7945788502693176,
      1.6270949840545654,
      1.6803312301635742,
      -0.9754554033279419,
      -0.2946157157421112,
      -0.17297445237636566,
      -0.4766022562980652,
      -0.03314785286784172,
      0.9729585647583008,
      -0.7122705578804016
    ],
    [
      -0.024828597903251648,
      1.2473289966583252,
      0.41879889369010925,
      1.4895436763763428,
      -1.3124221563339233,
      0.2749170958995819,
      0.9721085429191589,
      -1.044467806816101,
      -0.12565095722675323,
      -1.0315752029418945,
      -2.125115394592285,
      -1.0491645336151123
    ],
    [
      -0.3440769910812378,
      1.3616983890533447,
      0.5960041880607605,
      -0.096547432243824,
      0.17744635045528412,
      -0.22466972470283508,
      -0.8269402384757996,
      -1.2036998271942139,
      0.8818491697311401,
      0.20845820009708405,
      0.011707757599651814,
      0.7503541707992554
    ],
    [
      0.5651248097419739,
      -0.7499385476112366,
      -1.3477967977523804,
      1.5643812417984009,
      -0.44133228063583374,
      -0.6286885142326355,
      2.091792583465576,
      0.727615475654602,
      0.4330730736255646,
      0.37149491906166077,
      -0.9722787141799927,
      1.0642719268798828
    ],
    [
      1.0228673219680786,
      -0.1533604860305786,
      0.02786053530871868,
      0.951663613319397,
      0.1990339159965515,
      0.6234689354896545,
      -0.8216798305511475,
      -1.0113602876663208,
      0.7912569046020508,
      -0.6636432409286499,
      -0.5266507863998413,
      -0.34986254572868347
    ],
    [
      -0.6157681345939636,
      -1.0374398231506348,
      -0.3966444730758667,
      0.31539931893348694,
      -0.3791685998439789,
      -1.2569352388381958,
      0.6714348196983337,
      -1.2941209077835083,
      0.5706341862678528,
      1.0513709783554077,
      0.33339881896972656,
      -1.0765247344970703
    ],
    [
      -1.3565351963043213,
      -1.7421795129776,
      0.941291868686676,
      0.5723528861999512,
      -1.0545474290847778,
      0.06236496940255165,
      -0.24260520935058594,
      1.0391407012939453,
      -0.13067708909511566,
      0.2529681324958801,
      0.47373250126838684,
      -1.1740612983703613
    ],
    [
      0.24050118029117584,
      0.09390782564878464,
      -0.7601988911628723,
      -1.1874804496765137,
      1.436722755432129,
      0.20626920461654663,
      -0.9245415329933167,
      -0.2205163985490799,
      -0.6839384436607361,
      1.369336724281311,
      -0.35025864839553833,
      0.3695940375328064
    ],
    [
      0.21010944247245789,
      0.4585202932357788,
      1.6528071165084839,
      0.5242196917533875,
      0.30157288908958435,
      0.22039389610290527,
      -0.6347744464874268,
      -1.5028212070465088,
      1.2276489734649658,
      0.27902939915657043,
      1.0585473775863647,
      -0.32774224877357483
    ],
    [
      -0.585031270980835,
      -1.1273161172866821,
      -0.24177046120166779,
      0.6447225213050842,
      0.14409156143665314,
      0.21011318266391754,
      0.6823999285697937,
      -0.41051575541496277,
      0.6982149481773376,
      0.006739185191690922,
      0.18582719564437866,
      0.12962394952774048
    ],
    [
      0.8956224918365479,
      0.4755316376686096,
      0.6820220351219177,
      1.2418110370635986,
      0.4512234628200531,
      -0.9371656775474548,
      2.325622081756592,
      1.4145796298980713,
      -1.58717942237854,
      -1.2476351261138916,
      -1.0101792812347412,
      -1.5140001773834229
    ],
    [
      -1.11985445022583,
      -1.7494949102401733,
      -0.6359670758247375,
      -1.432582139968872,
      -0.09710565954446793,
      -0.8770735263824463,
      0.3479280471801758,
      0.3662150204181671,
      1.0275179147720337,
      1.7611702680587769,
      0.8023828864097595,
      0.9701309204101562
    ],
    [
      0.6901793479919434,
      0.009611151181161404,
      -1.1997311115264893,
      1.3749369382858276,
      -0.2761920094490051,
      0.5162323117256165,
      -0.7944447994232178,
      -0.6315893530845642,
      -2.160154342651367,
      -0.6692715883255005,
      0.17253510653972626,
      0.9684693813323975
    ],
    [
      -0.14703041315078735,
      -0.7597553133964539,
      -0.32248783111572266,
      0.6986194252967834,
      0.8425754308700562,
      -0.6920357346534729,
      0.7136914730072021,
      -0.14322225749492645,
      0.9326225519180298,
      -0.013442876748740673,
      0.46308717131614685,
      0.3313472867012024
    ],
    [
      0.2661578059196472,
      0.3685096800327301,
      -1.000935435295105,
      1.1700702905654907,
      0.15095341205596924,
      -1.1717318296432495,
      -0.2953149080276489,
      0.8397253155708313,
      -1.2758084535598755,
      -0.38174790143966675,
      -1.073407530784607,
      1.8189141750335693
    ],
    [
      0.5147362351417542,
      0.5008251667022705,
      -0.4476960301399231,
      0.6760167479515076,
      1.833903193473816,
      -0.5175647139549255,
      0.8919300436973572,
      0.5147759318351746,
      0.21861739456653595,
      -1.9044392108917236,
      -1.4227176904678345,
      -0.7081330418586731
    ],
    [
      -0.18086498975753784,
      -0.19121265411376953,
      -2.2421932220458984,
      -0.13056796789169312,
      -0.016531232744455338,
      -0.911838948726654,
      0.556890070438385,
      0.42810487747192383,
      -0.7893989682197571,
      0.4073409140110016,
      -1.2483041286468506,
      0.45196762681007385
    ],
    [
      0.5619010329246521,
      0.19931772351264954,
      -0.3543274402618408,
      -0.21173621714115143,
      -1.1826796531677246,
      1.465049386024475,
      0.3804439604282379,
      2.336552381515503,
      -0.8361402750015259,
      -2.7780306339263916,
      0.7004553079605103,
      -1.1024701595306396
    ],
    [
      -0.45233720541000366,
      -0.05426305532455444,
      -0.5337499976158142,
      0.4385204613208771,
      -0.6498451828956604,
      -0.9907129406929016,
      0.7354117035865784,
      -0.9608922600746155,
      0.6244837045669556,
      0.9121627807617188,
      0.1021176427602768,
      -0.11041679233312607
    ],
    [
      0.07759059965610504,
      0.22294585406780243,
      -0.7066931128501892,
      1.4348700046539307,
      0.5165453553199768,
      -0.6101083755493164,
      0.5634833574295044,
      -0.935442328453064,
      -0.6142203211784363,
      0.3946504592895508,
      -0.3353213667869568,
      -0.10938894748687744
    ],
    [
      -0.41814813017845154,
      -0.17695152759552002,
      0.4407404661178589,
      0.7337005138397217,
      -0.1668257862329483,
      -0.5178095102310181,
      0.1708177775144577,
      0.373506098985672,
      -0.9521672129631042,
      0.9902852773666382,
      -0.49675777554512024,
      -0.6090251803398132
    ],
    [
      0.08143530786037445,
      1.3179291486740112,
      1.5919808149337769,
      -1.0796966552734375,
      -1.1938198804855347,
      -1.0053257942199707,
      0.4131386876106262,
      0.9061591625213623,
      -0.622668445110321,
      -0.7106571197509766,
      -0.2347000539302826,
      -0.27075424790382385
    ],
    [
      -0.7874220609664917,
      -0.7470101714134216,
      -0.06262704730033875,
      1.271942138671875,
      0.45963001251220703,
      -0.3329537808895111,
      0.8697831630706787,
      -0.16416297852993011,
      0.7580158114433289,
      0.9024524092674255,
      0.25147005915641785,
      -0.5648272037506104
    ],
    [
      -0.04957246035337448,
      1.6012380123138428,
      0.4330439865589142,
      -1.201823353767395,
      0.21475449204444885,
      -1.2975399494171143,
      -1.760090947151184,
      0.06456772238016129,
      -0.8355544805526733,
      -0.006753678899258375,
      -0.28344711661338806,
      1.2724847793579102
    ],
    [
      0.45282846689224243,
      0.839827835559845,
      0.7316265106201172,
      0.7812918424606323,
      -1.1075721979141235,
      0.4263029098510742,
      -0.06753945350646973,
      -1.188815712928772,
      -0.4293197989463806,
      0.04193907231092453,
      0.46659785509109497,
      0.03988169506192207
    ],
    [
      -0.15251752734184265,
      -0.9575610160827637,
      -0.17748954892158508,
      0.3398596942424774,
      0.6866105198860168,
      -0.2838427722454071,
      0.26604071259498596,
      -0.21582156419754028,
      0.4781137704849243,
      0.29194918274879456,
      0.4681677520275116,
      0.5457664132118225
    ],
    [
      -1.004412293434143,
      0.2016686052083969,
      -0.5088735818862915,
      0.4416205585002899,
