{
  "block_0": {
    "att.W_query.weight": [
      [
        0.3324629068374634,
        -0.9066774249076843,
        -0.11051018536090851,
        0.4393847584724426,
        0.021024953573942184,
        0.15440338850021362,
        0.12287583202123642,
        -0.19778241217136383,
        0.8757840394973755,
        -0.356057345867157,
        0.4277545213699341,
        -0.9461444616317749
      ],
      [
        -0.4739292860031128,
        0.41794055700302124,
        0.20179298520088196,
        0.18118566274642944,
        0.912574291229248,
        0.07752083986997604,
        -0.37159231305122375,
        0.271613746881485,
        1.132204294204712,
        0.8014714121818542,
        -0.39560672640800476,
        -0.2846285104751587
      ],
      [
        -0.41058266162872314,
        0.3596130907535553,
        -0.12732914090156555,
        -0.06061694771051407,
        0.7687745690345764,
        -0.011451715603470802,
        -0.38922613859176636,
        -0.25327596068382263,
        -1.092888355255127,
        0.7096682190895081,
        -0.36131057143211365,
        -0.6167194247245789
      ],
      [
        -1.2275668382644653,
        -0.2501913607120514,
        0.8013927340507507,
        0.7847422957420349,
        0.43500274419784546,
        -0.20161136984825134,
        0.20592425763607025,
        0.6374353170394897,
        -0.0701684057712555,
        -0.5361471772193909,
        0.5129780173301697,
        0.6543254256248474
      ],
      [
        0.8106048107147217,
        -1.046438217163086,
        -0.2151937037706375,
        0.8559458255767822,
        0.2814362049102783,
        -0.5457776784896851,
        -0.3624495267868042,
        -0.6890160441398621,
        0.09931258857250214,
        0.4222249984741211,
        -0.3497389554977417,
        0.5571174025535583
      ],
      [
        -0.0785880833864212,
        0.43904194235801697,
        -1.232970118522644,
        0.319210946559906,
        0.7450799942016602,
        -0.5115180611610413,
        1.2257556915283203,
        -0.004424193874001503,
        0.1328096091747284,
        0.636051595211029,
        0.4589795172214508,
        0.6346455812454224
      ],
      [
        -0.17059671878814697,
        0.47141191363334656,
        -0.11359003186225891,
        0.1061316579580307,
        0.2697625458240509,
        -1.0642024278640747,
        0.26263555884361267,
        -0.0767357274889946,
        -0.6428506374359131,
        0.008873438462615013,
        0.48499470949172974,
        0.9101101160049438
      ],
      [
        -0.3288421034812927,
        -0.3697851002216339,
        -0.20862822234630585,
        0.4479384124279022,
        0.3102959096431732,
        0.3145510256290436,
        -0.7858260273933411,
        0.16052010655403137,
        -0.4325603246688843,
        -0.07202830910682678,
        0.7942854166030884,
        -0.5625291466712952
      ],
      [
        -0.6031341552734375,
        -0.6341025829315186,
        -0.34058839082717896,
        -0.010142569430172443,
        -0.4074898362159729,
        0.7525966167449951,
        0.25039711594581604,
        0.8545030951499939,
        -0.060505885630846024,
        0.513953447341919,
        0.5698974132537842,
        0.4743238687515259
      ],
      [
        -0.638706386089325,
        -0.13958902657032013,
        0.8265282511711121,
        1.1720776557922363,
        0.0748681128025055,
        -0.054635483771562576,
        0.5600541830062866,
        0.09450434148311615,
        0.10165971517562866,
        0.8205219507217407,
        -0.48465442657470703,
        0.29530060291290283
      ],
      [
        -0.7514351010322571,
        -0.08792558312416077,
        0.7463574409484863,
        0.32130861282348633,
        0.08121313154697418,
        0.5014158487319946,
        0.4895305335521698,
        0.3280520737171173,
        1.0330164432525635,
        -0.44781267642974854,
        0.5291395783424377,
        0.2683558464050293
      ],
      [
        -0.19300681352615356,
        0.1880909651517868,
        -1.2444208860397339,
        0.46993592381477356,
        1.1119776964187622,
        0.2164335399866104,
        0.785306453704834,
        -0.06546332687139511,
        0.0548875667154789,
        0.016696831211447716,
        0.7993000149726868,
        -0.3322376608848572
      ]
    ],
    "att.W_query.bias": null,
    "att.W_key.weight": [
      [
        -0.06277496367692947,
        0.011914919130504131,
        -0.3199039697647095,
        -0.4098341763019562,
        0.5550041198730469,
        -0.22611942887306213,
        0.6059860587120056,
        -0.1029599979519844,
        -0.661834180355072,
        1.247904896736145,
        -0.7963104844093323,
        0.22785957157611847
      ],
      [
        0.4715978801250458,
        -0.11449044197797775,
        0.8232084512710571,
        0.054979030042886734,
        -0.2668704390525818,
        -1.5360239744186401,
        -0.2501002550125122,
        -0.037882350385189056,
        0.03246905654668808,
        0.5127658247947693,
        -0.38452473282814026,
        0.2999309301376343
      ],
      [
        -0.31894463300704956,
        -0.28900253772735596,
        0.6527644395828247,
        -0.07806302607059479,
        -1.3447166681289673,
        0.06919368356466293,
        -0.3552270829677582,
        0.5865233540534973,
        0.6971288919448853,
        0.14338986575603485,
        0.10789432376623154,
        0.19660921394824982
      ],
      [
        0.7410058379173279,
        -0.25877898931503296,
        -0.3936719000339508,
        -0.043479565531015396,
        0.13944032788276672,
        -0.45047590136528015,
        0.27795371413230896,
        -1.717026710510254,
        0.30521538853645325,
        -0.3917783200740814,
        0.4381581246852875,
        0.4526638984680176
      ],
      [
        -0.07850579172372818,
        0.7165539860725403,
        -0.9223030805587769,
        -0.19039714336395264,
        0.18173334002494812,
        -0.5604386329650879,
        -0.7671921849250793,
        0.04930971562862396,
        0.9682843089103699,
        0.5130361318588257,
        -0.5554919242858887,
        0.14424757659435272
      ],
      [
        0.6158451437950134,
        0.9785125851631165,
        0.03372636064887047,
        0.41967660188674927,
        -0.5494897961616516,
        -0.1603754758834839,
        0.5084861516952515,
        -0.7666996121406555,
        0.15160255134105682,
        -0.976015031337738,
        -1.0260053873062134,
        0.3325299024581909
      ],
      [
        -0.28741180896759033,
        0.025806164368987083,
        0.5129503607749939,
        -0.2207942008972168,
        0.09149929136037827,
        1.079882025718689,
        -0.803716778755188,
        -0.3464144468307495,
        0.9056439995765686,
        -0.07306408882141113,
        -0.5165748000144958,
        -0.3532799184322357
      ],
      [
        -0.37224602699279785,
        0.17047177255153656,
        -0.4940643608570099,
        0.3357059955596924,
        -0.33274394273757935,
        -0.017808299511671066,
        -0.22211378812789917,
        -0.054348599165678024,
        -0.1814751774072647,
        0.27825993299484253,
        0.1986466497182846,
        1.2759556770324707
      ],
      [
        0.1338060349225998,
        0.5366566777229309,
        0.5393387079238892,
        -0.5039778351783752,
        0.7364679574966431,
        0.04677068069577217,
        -1.0920628309249878,
        0.018210675567388535,
        -0.6120777726173401,
        0.17266905307769775,
        -0.20013150572776794,
        0.10047143697738647
      ],
      [
        -0.02728188782930374,
        0.6261940002441406,
        0.040870148688554764,
        -0.8788929581642151,
        -0.003472196636721492,
        0.13543322682380676,
        -1.118604063987732,
        0.18322913348674774,
        0.2939550578594208,
        0.2253960520029068,
        0.6585298776626587,
        -0.89250648021698
      ],
      [
        0.39642807841300964,
        0.24348919093608856,
        0.9946117997169495,
        -0.39559006690979004,
        -0.1543014645576477,
        -0.9886229634284973,
        -0.9086456894874573,
        -0.03891274333000183,
        0.11655579507350922,
        -0.10415902733802795,
        0.7980100512504578,
        -0.021826518699526787
      ],
      [
        0.37142646312713623,
        0.11778538674116135,
        0.7087275385856628,
        -1.4424993991851807,
        -0.22066210210323334,
        0.6096053719520569,
        -0.14904093742370605,
        -0.8161088228225708,
        0.1136775091290474,
        0.45621198415756226,
        -0.3238624632358551,
        0.6931577920913696
      ]
    ],
    "att.W_key.bias": null,
    "att.W_value.weight": [
      [
        -0.4249887764453888,
        -0.6113145351409912,
        -0.31781622767448425,
        -0.19457651674747467,
        0.26600146293640137,
        -0.8570183515548706,
        0.4791819155216217,
        0.08880427479743958,
        -0.23051737248897552,
        0.25047585368156433,
        0.02882147952914238,
        0.40974804759025574
      ],
      [
        0.004247546195983887,
        0.18858075141906738,
        0.07123180478811264,
        0.16169361770153046,
        0.5251767635345459,
        -0.3209002614021301,
        0.2328532189130783,
        -0.2146550416946411,
        0.2908394932746887,
        -0.2706714868545532,
        -0.4203464984893799,
        -1.2335923910140991
      ],
      [
        0.28098031878471375,
        0.6022253632545471,
        -0.4419926404953003,
        -0.24177315831184387,
        -0.1760970652103424,
        -0.053358159959316254,
        -0.35061579942703247,
        0.7149176001548767,
        -0.09655783325433731,
        -0.06661617010831833,
        -0.5161574482917786,
        0.32605597376823425
      ],
      [
        -0.14916591346263885,
        -0.5751882195472717,
        -0.49377426505088806,
        -0.12024841457605362,
        0.2729584574699402,
        -0.07098482549190521,
        -0.06931175291538239,
        0.036245353519916534,
        0.8541374802589417,
        0.28154629468917847,
        0.11410108208656311,
        -0.3202962875366211
      ],
      [
        -0.7658556699752808,
        -0.12397336959838867,
        0.17805176973342896,
        -0.09907160699367523,
        -0.29691481590270996,
        0.42139679193496704,
        0.27356138825416565,
        -0.5469497442245483,
        0.4684793949127197,
        -0.21593914926052094,
        -0.6565573811531067,
        0.35587140917778015
      ],
      [
        0.6020624041557312,
        -0.7738282680511475,
        0.3810374438762665,
        -0.1697205752134323,
        0.3323548138141632,
        -0.13882151246070862,
        0.24861763417720795,
        0.49186596274375916,
        -0.07091893255710602,
        -0.44217684864997864,
        -0.41031166911125183,
        0.1886485368013382
      ],
      [
        0.011967753060162067,
        0.2467804104089737,
        0.26634854078292847,
        0.23060625791549683,
        0.3920832574367523,
        0.07328944653272629,
        -0.10528646409511566,
        0.7571561336517334,
        -0.5278462767601013,
        -0.5296506285667419,
        -0.5345221161842346,
        0.5120402574539185
      ],
      [
        0.2659643292427063,
        0.14288018643856049,
        -0.44754526019096375,
        -0.6559052467346191,
        -0.2912854254245758,
        -0.22997549176216125,
        0.6439118385314941,
        0.5985291600227356,
        -0.42869824171066284,
        0.49708959460258484,
        0.4075368344783783,
        -0.21794772148132324
      ],
      [
        -0.3183179497718811,
        1.0273258686065674,
        -0.3813810646533966,
        -0.5841273665428162,
        0.48383599519729614,
        -0.053390491753816605,
        0.023640405386686325,
        -0.011638841591775417,
        0.5088914036750793,
        -0.10470802336931229,
        -0.24568501114845276,
        -0.1266835331916809
      ],
      [
        -0.5406052470207214,
        0.4689157009124756,
        0.016539396718144417,
        0.5410711169242859,
        -0.07780739665031433,
        -0.24407082796096802,
        0.40059223771095276,
        -0.7664932608604431,
        -0.24243952333927155,
        0.22398854792118073,
        0.09152866899967194,
        0.4664456844329834
      ],
      [
        -0.4614807665348053,
        0.10274063050746918,
        -0.3335924744606018,
        0.49655693769454956,
        0.5552387237548828,
        0.19811809062957764,
        0.19236981868743896,
        -0.6774176955223083,
        -0.17847271263599396,
        -0.1835913211107254,
        0.31368353962898254,
        -0.5249557495117188
      ],
      [
        -0.07786039263010025,
        0.31631386280059814,
        0.4572310447692871,
        0.7282564640045166,
        -0.19669154286384583,
        -0.1900555044412613,
        0.05031631141901016,
        0.07626396417617798,
        -0.39948657155036926,
        0.6773199439048767,
        -0.44441521167755127,
        -0.5787595510482788
      ]
    ],
    "att.W_value.bias": null,
    "att.out_proj.weight": [
      [
        -0.09026384353637695,
        0.6168893575668335,
        0.16632859408855438,
        0.3881210684776306,
        0.1715080291032791,
        -0.8586934804916382,
        -0.4062923192977905,
        0.5742067098617554,
        -0.13188505172729492,
        0.3401622176170349,
        0.13124477863311768,
        0.20952284336090088
      ],
      [
        0.012529771775007248,
        -0.6041874289512634,
        0.07422909140586853,
        -0.41223397850990295,
        0.5086217522621155,
        -0.3126577138900757,
        -0.04666991904377937,
        -0.5667538046836853,
        -0.25633639097213745,
        -0.04634309932589531,
        0.39355993270874023,
        0.269047349691391
      ],
      [
        -0.543411135673523,
        -0.1227201372385025,
        -0.13336819410324097,
        -0.44302695989608765,
        -0.3067692518234253,
        -0.30754560232162476,
        -0.04852096363902092,
        0.47244325280189514,
        0.18142926692962646,
        -0.1148781105875969,
        -0.2135792076587677,
        -0.2264159768819809
      ],
      [
        -0.38668587803840637,
        0.14051811397075653,
        -0.012951217591762543,
        0.19177590310573578,
        0.29856351017951965,
        -0.35044655203819275,
        0.7012673616409302,
        0.27296319603919983,
        -1.0184032917022705,
        -0.7568768262863159,
        -0.757790207862854,
        -0.1330835521221161
      ],
      [
        0.013220942579209805,
        -0.6049806475639343,
        -0.34561318159103394,
        0.5060879588127136,
        0.3511309027671814,
        0.0698968693614006,
        0.08126107603311539,
        -0.27451834082603455,
        0.36008548736572266,
        0.11789827048778534,
        -0.516684889793396,
        0.3924930989742279
      ],
      [
        -0.2684822678565979,
        0.22843006253242493,
        -0.014714659191668034,
        -0.1712677925825119,
        0.5626975297927856,
        0.3961193859577179,
        0.539517879486084,
        -0.17704354226589203,
        -0.27133023738861084,
        0.74192214012146,
        -0.1010114848613739,
        -0.30419960618019104
      ],
      [
        0.2500081956386566,
        0.621901273727417,
        -0.4691592752933502,
        -0.23048035800457,
        0.35561415553092957,
        0.38251766562461853,
        -0.5705280900001526,
        0.15543632209300995,
        0.33608385920524597,
        -0.4325178563594818,
        -0.5918195247650146,
        -0.1450599581003189
      ],
      [
        0.7478634119033813,
        -0.3152714669704437,
        -0.051960527896881104,
        0.04920652508735657,
        -0.029526900500059128,
        0.14935781061649323,
        -0.5165004134178162,
        0.3267870545387268,
        -0.2902759313583374,
        0.14803488552570343,
        0.22281116247177124,
        0.48564982414245605
      ],
      [
        -0.16233758628368378,
        0.39989617466926575,
        0.9105914235115051,
        -0.18416835367679596,
        -0.38061434030532837,
        0.6132907867431641,
        0.5564705729484558,
        -0.6568746566772461,
        -0.26573053002357483,
        0.09215627610683441,
        0.21858187019824982,
        0.38071393966674805
      ],
      [
        0.2917042374610901,
        -0.45867568254470825,
        0.485256165266037,
        0.16670191287994385,
        -0.4691445529460907,
        0.19752144813537598,
        0.1357482224702835,
        0.20075440406799316,
        0.5934257507324219,
        -0.5022478103637695,
        0.20408084988594055,
        -0.6826379895210266
      ],
      [
        -0.12013591080904007,
        0.2619154751300812,
        -0.3552126884460449,
        0.5269195437431335,
        -0.3431869149208069,
        0.3417048752307892,
        -0.38566499948501587,
        -0.47405338287353516,
        -0.17663009464740753,
        0.05088416486978531,
        -0.14498090744018555,
        -0.6732901334762573
      ],
      [
        0.04298904910683632,
        0.4606788754463196,
        -0.4201537072658539,
        -0.03475761041045189,
        -0.40085870027542114,
        -0.25251147150993347,
        0.35343050956726074,
        0.03785005584359169,
        0.4455311894416809,
        0.3019399046897888,
        0.5231733322143555,
        0.08359465003013611
      ]
    ],
    "att.out_proj.bias": [
      0.0041436017490923405,
      -0.026173237711191177,
      -0.22770579159259796,
      0.09472287446260452,
      -0.05121835321187973,
      -0.06835462898015976,
      0.1987622082233429,
      0.18382926285266876,
      -0.14971017837524414,
      -0.04059634730219841,
      0.0562361478805542,
      0.2124490588903427
    ],
    "norm1.scale": [
      0.4205065965652466,
      0.6655676960945129,
      0.5976094603538513,
      0.5454325675964355,
      0.41775718331336975,
      0.3633088767528534,
      0.43640896677970886,
      0.7074016332626343,
      0.6365606188774109,
      0.478092759847641,
      0.5142790079116821,
      0.6423550844192505
    ],
    "norm1.shift": [
      -0.016692597419023514,
      -0.08943593502044678,
      0.08152760565280914,
      0.047634463757276535,
      -0.1507296860218048,
      0.10702458024024963,
      -0.3807576596736908,
      -0.02118467539548874,
      -0.056644149124622345,
      -0.1322040855884552,
      -0.1581314206123352,
      -0.14987586438655853
    ],
    "norm2.scale": [
      0.5712248682975769,
      0.4993395507335663,
      0.7071792483329773,
      0.45672479271888733,
      0.6118416786193848,
      0.5032787919044495,
      0.49335846304893494,
      0.5872765779495239,
      0.4638100862503052,
      0.5017030239105225,
      0.5622746348381042,
      0.5276639461517334
    ],
    "norm2.shift": [
      0.2992299199104309,
      0.012723630294203758,
      -0.2576662600040436,
      0.005784133914858103,
      -0.3756178021430969,
      -0.2049914449453354,
      -0.17371612787246704,
      0.01204669289290905,
      -0.06285842508077621,
      0.19409924745559692,
      0.07785243541002274,
      -0.12987859547138214
    ],
    "ff.lin1.weight": [
      [
        -0.685362696647644,
        -0.22552983462810516,
        0.3063918948173523,
        0.7197374701499939,
        0.09000145643949509,
        0.19788910448551178,
        0.03847074136137962,
        0.4073050022125244,
        0.04143853858113289,
        -0.22926969826221466,
        -0.9973568320274353,
        0.5383332371711731
      ],
      [
        -0.7093404531478882,
        0.20503517985343933,
        0.08972883969545364,
        -0.617112934589386,
        0.7165873050689697,
        0.5708929896354675,
        -0.518792450428009,
        0.24724851548671722,
        1.0502052307128906,
        0.5375686883926392,
        -0.5637018084526062,
        0.6019758582115173
      ],
      [
        -0.03515114635229111,
        -0.2153220772743225,
        0.6663132905960083,
        0.25233176350593567,
        -0.014761602506041527,
        -0.3437066078186035,
        -0.8079882264137268,
        0.1714964210987091,
        0.797100841999054,
        0.4726809859275818,
        0.47226500511169434,
        0.14215201139450073
      ],
      [
        0.4081525206565857,
        0.9693130850791931,
        0.33202502131462097,
        -0.5561975836753845,
        0.5618740320205688,
        0.31390923261642456,
        -0.46331608295440674,
        -0.3811310827732086,
        0.35447296500205994,
        -0.14565050601959229,
        -0.44359922409057617,
        0.1230442151427269
      ],
      [
        -0.9740630388259888,
        0.37366729974746704,
        -0.27218756079673767,
        1.2057890892028809,
        0.38543495535850525,
        -0.35314416885375977,
        -0.2009628266096115,
        -0.22124548256397247,
        0.4132373332977295,
        -0.217499241232872,
        0.05329511687159538,
        0.23804038763046265
      ],
      [
        0.040846481919288635,
        -0.34164053201675415,
        0.5223527550697327,
        -0.1954227089881897,
        0.7118415832519531,
        0.3282342553138733,
        0.5529291033744812,
        -0.9216145873069763,
        0.8969399333000183,
        -0.33508193492889404,
        -0.8912500143051147,
        -0.5778050422668457
      ],
      [
        -0.436941921710968,
        0.06616134196519852,
        -0.2715771794319153,
        0.25400424003601074,
        1.26072096824646,
        0.4662318229675293,
        -0.21243999898433685,
        -0.234088733792305,
        0.7624578475952148,
        -0.42735087871551514,
        -0.5995598435401917,
        -0.2631547749042511
      ],
      [
        0.015698768198490143,
        0.13445207476615906,
        -0.36741557717323303,
        0.37675485014915466,
        0.08753502368927002,
        0.7501466870307922,
        0.8511612415313721,
        -0.33457151055336,
        -0.29400843381881714,
        0.49941956996917725,
        -0.9751772880554199,
        -0.21366918087005615
      ],
      [
        0.14305798709392548,
        -0.12306676059961319,
        0.3742842674255371,
        0.7234911918640137,
        0.8222634792327881,
        -0.39634162187576294,
        -0.00809437409043312,
        0.35231494903564453,
        0.2645816206932068,
        0.21331855654716492,
        -0.8304727673530579,
        -0.4945424199104309
      ],
      [
        0.03511348366737366,
        -0.4201863706111908,
        1.4857358932495117,
        -0.21193206310272217,
        0.8546553254127502,
        0.5846774578094482,
        -0.13962802290916443,
        -0.011461077257990837,
        0.5924856066703796,
        -1.4865529537200928,
        -0.09274062514305115,
        -0.3385479748249054
      ],
      [
        0.20601540803909302,
        -0.3308158814907074,
        -0.11476356536149979,
        0.709153950214386,
        -0.23262646794319153,
        0.19468240439891815,
        -0.3553535044193268,
        0.14110435545444489,
        -0.3138545751571655,
        -0.1261116862297058,
        0.1259147971868515,
        0.30010631680488586
      ],
      [
        -1.3433111906051636,
        0.49493569135665894,
        -0.16086092591285706,
        0.25024279952049255,
        0.16168314218521118,
        -0.4310900568962097,
        0.29402485489845276,
        -0.12570850551128387,
        0.6385320425033569,
        -0.8187839984893799,
        0.8764291405677795,
        -0.10952890664339066
      ],
      [
        -0.48378777503967285,
        -0.33610716462135315,
        0.32792526483535767,
        0.5186325311660767,
        -0.13361549377441406,
        0.5546558499336243,
        -0.32505008578300476,
        -0.756966769695282,
        0.023716313764452934,
        0.5930597186088562,
        -0.2803927958011627,
        0.4951253831386566
      ],
      [
        0.15056312084197998,
        -0.5543136596679688,
        0.4383065402507782,
        -0.0946374163031578,
        0.5169476270675659,
        -0.7044714093208313,
        0.9872351288795471,
        -0.6244053244590759,
        0.7337839007377625,
        -0.29248183965682983,
        0.4546022415161133,
        -0.7629063129425049
      ],
      [
        -0.493251770734787,
        -0.4258801341056824,
        0.10072494298219681,
        0.5784786343574524,
        -0.3849720358848572,
        0.6250768303871155,
        1.2631220817565918,
        -0.30427518486976624,
        -0.4469338357448578,
        -0.5071752071380615,
        0.08033929765224457,
        0.06235981360077858
      ],
      [
        0.5234764814376831,
        -0.560104250907898,
        0.1211051195859909,
        0.14263470470905304,
        0.19930106401443481,
        -0.12042544037103653,
        0.5925459861755371,
        0.17612376809120178,
        -0.121635302901268,
        -0.3572154939174652,
        0.12031479179859161,
        -0.5322921276092529
      ],
      [
        0.5911712646484375,
        -0.43243587017059326,
        0.2348070591688156,
        -0.09560243785381317,
        0.0159140694886446,
        0.7529675364494324,
        -0.27767878770828247,
        -0.5342631340026855,
        -0.23106749355793,
        -0.4482119679450989,
        0.06198043003678322,
        0.49586424231529236
      ],
      [
        -0.29188069701194763,
        -0.7501515746116638,
        0.5391069054603577,
        -0.1890794187784195,
        0.7335965633392334,
        0.7688306570053101,
        0.9248848557472229,
        0.14291329681873322,
        -0.17658330500125885,
        -0.8534255623817444,
        -0.32508835196495056,
        -0.19672927260398865
      ],
      [
        -0.08056637644767761,
        -0.4995017647743225,
        -0.04155665263533592,
        1.0319026708602905,
        -0.12997359037399292,
        -0.2328798472881317,
        0.928666353225708,
        -0.26410001516342163,
        -0.40087324380874634,
        -0.5983977317810059,
        0.11622262001037598,
        0.20617757737636566
      ],
      [
        0.2288377434015274,
        -0.314005583524704,
        1.0645276308059692,
        -0.12013915926218033,
        0.5435928702354431,
        0.48577722907066345,
        -0.16525474190711975,
        0.11603157967329025,
        -0.0596638061106205,
        -0.11827147006988525,
        -0.5010507702827454,
        -0.6103532910346985
      ],
      [
        -0.23345395922660828,
        0.5353282690048218,
        -0.18863536417484283,
        0.5653269290924072,
        -0.32242143154144287,
        0.14466974139213562,
        -0.4283841550350189,
        0.44297224283218384,
        0.3727920353412628,
        -0.01712637022137642,
        -0.5798715949058533,
        0.4900175631046295
      ],
      [
        -0.2472112774848938,
        0.6784629821777344,
        -0.1744619905948639,
        -0.16679497063159943,
        0.42844510078430176,
        0.39786213636398315,
        0.7373318076133728,
        0.7424948811531067,
        -0.5991798043251038,
        -0.19570913910865784,
        -0.8827984929084778,
        0.12164326012134552
      ],
      [
        -0.47843271493911743,
        -0.5291177034378052,
        0.0004417549353092909,
        0.6892026662826538,
        0.4616335928440094,
        0.6171842217445374,
        0.05510023236274719,
        0.6635545492172241,
        -0.33652806282043457,
        -0.5115678310394287,
        0.23085443675518036,
        -0.6785809993743896
      ],
      [
        -0.8661458492279053,
        -0.1942700296640396,
        -0.7116408944129944,
        -0.1268233209848404,
        1.2680481672286987,
        0.17164622247219086,
        -0.40171492099761963,
        0.42544370889663696,
        -0.2342081069946289,
        0.008835555985569954,
        0.24298487603664398,
        0.9101251363754272
      ],
      [
        -0.0805632472038269,
        -0.8066721558570862,
        0.6131476163864136,
        0.544675886631012,
        -0.050357937812805176,
        0.2789223790168762,
        -0.13309074938297272,
        -0.2920447587966919,
        0.8998624086380005,
        -0.2735713720321655,
        -0.28033629059791565,
        -0.2904542088508606
      ],
      [
        -1.2692245244979858,
        -0.2552764117717743,
        -0.297958105802536,
        -0.7693653702735901,
        0.6690515279769897,
        0.606616199016571,
        0.3819941282272339,
        0.11535602807998657,
        0.42025357484817505,
        0.4725114405155182,
        0.3556279242038727,
        0.27025270462036133
      ],
      [
        -0.39095568656921387,
        -0.5944635272026062,
        -0.32046523690223694,
        0.7632436752319336,
        0.5248355865478516,
        -0.05392692983150482,
        0.04510001838207245,
        0.24378755688667297,
        0.08265378326177597,
        0.7730914950370789,
        -0.607604444026947,
        0.05962572246789932
      ],
      [
        -0.623388409614563,
        0.18902066349983215,
        -0.1567026823759079,
        -0.43081316351890564,
        -0.3375433087348938,
        -0.3116686940193176,
        0.3195505440235138,
        0.3350321650505066,
        0.0965525433421135,
        0.556496798992157,
        0.7180487513542175,
        0.6601613163948059
      ],
      [
        0.26118171215057373,
        -0.5313218235969543,
        -0.09363850206136703,
        0.4518882930278778,
        0.6484753489494324,
        -0.708385169506073,
        0.28306815028190613,
        0.21037301421165466,
        0.3439808189868927,
        -0.08444614708423615,
        -0.4504111707210541,
        1.094380497932434
      ],
      [
        -1.077391266822815,
        0.0382176898419857,
        0.42529791593551636,
        0.09013762325048447,
        0.8542562127113342,
        0.18025553226470947,
        0.46429285407066345,
        0.41763851046562195,
        -0.8507408499717712,
        0.4936832785606384,
        0.13744516670703888,
        -0.12906897068023682
      ],
      [
        0.07210510224103928,
        -0.9829494953155518,
        0.5550828576087952,
        -0.2408110797405243,
        0.5589732527732849,
        -0.204653799533844,
        -0.43305280804634094,
        0.06702867150306702,
        0.20912185311317444,
        0.013765989802777767,
        0.012203143909573555,
        1.031516432762146
      ],
      [
        -0.45933017134666443,
        -0.41523003578186035,
        0.411298006772995,
        0.7247313261032104,
        0.6378364562988281,
        0.043334901332855225,
        0.2621403634548187,
        -0.3353326916694641,
        0.8499374389648438,
        -1.0629304647445679,
        0.011641317047178745,
        -0.740724503993988
      ],
      [
        -0.6801654696464539,
        -0.3370802700519562,
        0.7375122308731079,
        0.1333318054676056,
        -0.3122495114803314,
        0.5002924203872681,
        -0.2170034945011139,
        -0.169356569647789,
        0.20062729716300964,
        -0.5920692682266235,
        0.44322407245635986,
        0.7234374284744263
      ],
      [
        -0.46381476521492004,
        0.03950555995106697,
        0.2520464062690735,
        -0.7627452611923218,
        -0.05146000161767006,
        0.21062789857387543,
        -0.05166535824537277,
        0.41586121916770935,
        0.7936964631080627,
        0.164347842335701,
        0.8384531140327454,
        -0.4054614305496216
      ],
      [
        -0.11536325514316559,
        0.3599952459335327,
        0.9463932514190674,
        -0.22277642786502838,
        0.5598573684692383,
        -0.12571267783641815,
        0.044481754302978516,
        -0.5924475193023682,
        -0.03606768324971199,
        -0.6109890341758728,
        0.3848118782043457,
        -0.5768958330154419
      ],
      [
        -0.7266378998756409,
        -0.12524303793907166,
        0.5303827524185181,
        0.5442713499069214,
        -0.03685569763183594,
        -0.7076706290245056,
        0.49800196290016174,
        0.5611937642097473,
        0.44043073058128357,
        -0.5976352691650391,
        -0.4633185565471649,
        0.3887976408004761
      ],
      [
        -0.4217027425765991,
        -0.3111571669578552,
        0.6627243757247925,
        -0.04891389608383179,
        1.344585657119751,
        0.36557719111442566,
        -0.46823522448539734,
        -0.6063496470451355,
        0.2338332235813141,
        -0.23702788352966309,
        0.1992802917957306,
        0.2170918881893158
      ],
      [
        -0.45939546823501587,
        0.2662326395511627,
        0.581230103969574,
        0.5350698232650757,
        -0.2935459613800049,
        0.8371354341506958,
        -0.11323554068803787,
        0.021081702783703804,
        -0.6377395391464233,
        -0.07689710706472397,
        -0.25811463594436646,
        0.6929846405982971
      ],
      [
        -0.28379568457603455,
        0.32783064246177673,
        0.4244405925273895,
        -0.523939847946167,
        0.16985847055912018,
        0.8609523773193359,
        -0.6774128079414368,
        0.31587204337120056,
        -0.22605344653129578,
        -0.24050123989582062,
        0.12921807169914246,
        1.0459201335906982
      ],
      [
        -0.630593478679657,
        0.21104468405246735,
        -0.5000960826873779,
        0.23712892830371857,
        0.54183030128479,
        0.8410431146621704,
        0.7622587084770203,
        -0.6701146960258484,
        -0.4318261444568634,
        -0.1464177370071411,
        0.2683289349079132,
        0.01634100265800953
      ],
      [
        0.4511573612689972,
        -0.35548242926597595,
        0.6567782759666443,
        0.43752816319465637,
        0.6389472484588623,
        -0.721015453338623,
        0.1282804161310196,
        -1.158994197845459,
        0.4839112162590027,
        -0.19055883586406708,
        -0.058727607131004333,
        -0.003132434794679284
      ],
      [
        -0.39961740374565125,
        0.6270409226417542,
        0.7565418481826782,
        -0.00897794310003519,
        0.14815418422222137,
        -0.7204614877700806,
        -0.043186455965042114,
        -0.15558002889156342,
        -0.230251744389534,
        -0.31780901551246643,
        0.30187004804611206,
        0.48010507225990295
      ],
      [
        -0.09527695178985596,
        -0.5066528916358948,
        -0.18587028980255127,
        -0.06985484063625336,
        0.9567268490791321,
        -0.4868180453777313,
        0.03547137230634689,
        -0.21276304125785828,
        1.1073544025421143,
        -0.057653702795505524,
        0.5072477459907532,
        -0.4057859480381012
      ],
      [
        -1.432409405708313,
        0.8803417086601257,
        0.7444097995758057,
        0.024697203189134598,
        0.27079758048057556,
        -0.01994352415204048,
        -0.1962103396654129,
        0.11774469166994095,
        -0.039487242698669434,
        0.2686583995819092,
        0.5771500468254089,
        -0.27156174182891846
      ],
      [
        -0.19512704014778137,
        0.5694219470024109,
        0.24068497121334076,
        -0.11801758408546448,
        -0.060978181660175323,
        0.12675601243972778,
        -0.5361928343772888,
        -0.8764294385910034,
        0.5147713422775269,
        0.012349684722721577,
        0.7185683250427246,
        -0.186513751745224
      ],
      [
        -1.121636152267456,
        0.22617250680923462,
        1.3222613334655762,
        0.283649742603302,
        0.23042280972003937,
        0.05465521290898323,
        -0.23435227572917938,
        -0.8022317886352539,
        0.1991225928068161,
        -0.4570978581905365,
        0.6769629716873169,
        -0.14775602519512177
      ],
      [
        -0.622988760471344,
        0.630128800868988,
        0.7694364190101624,
        -0.29366806149482727,
        0.1040913313627243,
        -0.48741376399993896,
        0.8335159420967102,
        -0.9602167010307312,
        0.18356435000896454,
        -0.4339039623737335,
        -0.333406537771225,
        0.30672889947891235
      ],
      [
        0.48091596364974976,
        -0.11195019632577896,
        0.06020832434296608,
        -0.3534076511859894,
        0.28537002205848694,
        0.5042955279350281,
        0.08716784417629242,
        0.46910718083381653,
        0.5365254878997803,
        -0.3419089615345001,
        -0.9331369996070862,
        0.16427141427993774
      ]
    ],
    "ff.lin1.bias": [
      -0.32382649183273315,
      -0.701720654964447,
      -0.7649987936019897,
      -0.85260009765625,
      -0.45186474919319153,
      -0.5105426907539368,
      -0.3023524284362793,
      -0.9233171939849854,
      -0.781708300113678,
      -0.34543806314468384,
      -0.5556647181510925,
      -0.6688318252563477,
      -0.21226884424686432,
      -0.6790761351585388,
      -0.8480455279350281,
      -0.8109369277954102,
      -0.6022530198097229,
      -0.46666446328163147,
      -0.7750303149223328,
      -0.664801836013794,
      -0.7139248847961426,
      -0.6890763640403748,
      -0.5054280161857605,
      -0.9091060161590576,
      -0.5763723254203796,
      -0.6292501091957092,
      -0.6172076463699341,
      -1.044236183166504,
      -0.8291838765144348,
      -0.5890971422195435,
      -0.2870886027812958,
      -0.6219325661659241,
      -0.36669450998306274,
      -0.8021519184112549,
      -0.16596285998821259,
      -0.6592970490455627,
      -0.33073922991752625,
      -0.8754620552062988,
      -0.7856668829917908,
      -0.7710710763931274,
      -0.4879479706287384,
      -0.5582557916641235,
      -0.7634212374687195,
      -0.892787516117096,
      -0.7690169811248779,
      -1.0616205930709839,
      0.01577572152018547,
      -0.7198537588119507
    ],
    "ff.lin2.weight": [
      [
        -0.6051587462425232,
        0.2605677843093872,
        -0.19292540848255157,
        -0.45595473051071167,
        -0.5492087602615356,
        0.1656842976808548,
        -0.24197331070899963,
        0.6822280287742615,
        -0.42037728428840637,
        0.5727530717849731,
        0.028988035395741463,
        -0.24331365525722504,
        -0.8732162117958069,
        0.13194531202316284,
        -0.9892528057098389,
        0.9559134840965271,
        -0.4097512662410736,
        -0.37948888540267944,
        -0.04150846600532532,
        -0.7650288939476013,
        -0.39067232608795166,
        0.39943620562553406,
        -0.24460482597351074,
        0.275055855512619,
        0.21729807555675507,
        0.5643091797828674,
        -0.5687878727912903,
        0.5581443905830383,
        0.23480483889579773,
        -0.3537903130054474,
        0.048024069517850876,
        0.3166865408420563,
        -0.4332422614097595,
        0.021331826224923134,
        -0.24205048382282257,
        -0.03144344687461853,
        -0.359700471162796,
        0.3376215696334839,
        -0.07373161613941193,
        -0.36794570088386536,
        0.3762418329715729,
        0.37526220083236694,
        -0.3832954168319702,
        -0.3217352330684662,
        -0.05109398066997528,
        -0.0703371912240982,
        0.02233743853867054,
        0.5862544775009155
      ],
      [
        -0.36129605770111084,
        -0.10445965826511383,
        -0.10565849393606186,
        0.31356576085090637,
        0.5091738104820251,
        -0.12505969405174255,
        -0.22297127544879913,
        -0.3509983718395233,
        -0.0035602073185145855,
        -0.02141713909804821,
        -0.052529506385326385,
        0.49276670813560486,
        -0.1562710553407669,
        -0.28700268268585205,
        -0.3056144416332245,
        0.16644622385501862,
        0.09060274809598923,
        0.7719646096229553,
        -0.303354412317276,
        -0.2938050627708435,
        0.012465386651456356,
        -0.10594343394041061,
        -0.048488374799489975,
        -0.06417658925056458,
        0.2562134861946106,
        0.05058236047625542,
        -0.2202025204896927,
        0.6612366437911987,
        -0.326718807220459,
        -0.2182081639766693,
        -0.46598944067955017,
        0.3876703381538391,
        -0.2321259081363678,
        0.19587495923042297,
        -0.03862180933356285,
        0.06468632817268372,
        0.12611064314842224,
        0.08809258788824081,
        -0.2206970602273941,
        0.13756301999092102,
        0.19029420614242554,
        -0.021885452792048454,
        -0.5363603830337524,
        -0.1110299751162529,
        0.38050714135169983,
        0.04782470315694809,
        -0.08815392851829529,
        -0.3179047405719757
      ],
      [
        0.2081938236951828,
        -0.38227325677871704,
        0.49875375628471375,
        -0.435215026140213,
        0.3639882504940033,
        -0.06209881231188774,
        -0.5016081929206848,
        0.1655745953321457,
        -0.06585396081209183,
        -0.9776159524917603,
        -0.08045553416013718,
        -0.12833894789218903,
        -0.3861504793167114,
        0.04156363382935524,
        0.213253453373909,
        -0.2191629558801651,
        0.2599198520183563,
        0.27785781025886536,
        0.36464595794677734,
        0.191429004073143,
        0.04574747756123543,
        -0.30883657932281494,
        0.012358862906694412,
        -0.2606879770755768,
        -0.1261797994375229,
        0.249928817152977,
        -0.0743572860956192,
        -0.6196951270103455,
        -0.18258382380008698,
        0.4536937475204468,
        0.17248335480690002,
        -0.2550709545612335,
        0.30671805143356323,
        0.013377594761550426,
        -0.3434334099292755,
        0.8194533586502075,
        -0.5068718194961548,
        -0.22097162902355194,
        -0.27682194113731384,
        0.35657671093940735,
        -0.5451048016548157,
        0.001434929552488029,
        0.10583475977182388,
        0.2730732858181,
        -0.17877931892871857,
        -0.133573979139328,
        -0.05978676304221153,
        -0.09239330887794495
      ],
      [
        0.37953445315361023,
        -0.608755350112915,
        -0.21899673342704773,
        0.3723876476287842,
        0.17783135175704956,
        -0.30258238315582275,
        -0.18689094483852386,
        0.08973883092403412,
        0.34258678555488586,
        0.03789081051945686,
        -0.03015512228012085,
        0.23582199215888977,
        0.18789301812648773,
        -0.7041455507278442,
        0.20520739257335663,
        -0.1285150647163391,
        -0.11832796782255173,
        -0.8123390078544617,
        0.21130520105361938,
        0.8597010970115662,
        0.27234122157096863,
        0.14519502222537994,
        -0.2333625704050064,
        -0.24715420603752136,
        0.15645194053649902,
        -0.6443923711776733,
        -0.23157759010791779,
        0.2798771262168884,
        -0.31474432349205017,
        -0.3333021104335785,
        -0.09098871052265167,
        0.890027642250061,
        -0.3216005861759186,
        0.20934034883975983,
        -0.19085296988487244,
        -0.41395464539527893,
        0.4368232190608978,
        -0.191780224442482,
        -0.04935469105839729,
        0.22189566493034363,
        0.005112343467772007,
        -0.5216442942619324,
        0.8965272903442383,
        -0.11780232936143875,
        -0.6484204530715942,
        0.6250786185264587,
        -0.755516767501831,
        0.4438658356666565
      ],
      [
        -0.22813239693641663,
        -0.5558577179908752,
        0.42939963936805725,
        -0.029929669573903084,
        0.2189474254846573,
        0.268582284450531,
        0.19001564383506775,
        0.328133225440979,
        -0.15872794389724731,
        -0.1363380402326584,
        -0.15698465704917908,
        -0.5782060623168945,
        -0.24792353808879852,
        -0.2602502405643463,
        0.3443000912666321,
        0.2674142122268677,
        0.2562865614891052,
        0.6866024732589722,
        0.4736446142196655,
        -0.2064463496208191,
        -0.3397584557533264,
        -0.303029865026474,
        -0.505723774433136,
        -0.5232856273651123,
        -0.5814095735549927,
        -0.4961220324039459,
        -0.06963148713111877,
        0.015445665456354618,
        -0.20599240064620972,
        0.30479294061660767,
        -0.32547685503959656,
        -0.5668410062789917,
        0.21858631074428558,
        -0.14423400163650513,
        -0.15645551681518555,
        0.08790378272533417,
        0.7668067812919617,
        -0.08937687426805496,
        0.8423578143119812,
        -0.3398708999156952,
        -0.2533968985080719,
        0.4112963378429413,
        -0.088096484541893,
        -0.1916680783033371,
        -0.12915006279945374,
        -1.1342661380767822,
        -0.3526790738105774,
        0.1269688606262207
      ],
      [
        0.08472561091184616,
        -0.16589993238449097,
        -0.38004186749458313,
        -0.06261102855205536,
        -0.5911878347396851,
        0.8598127365112305,
        0.22923439741134644,
        -0.21606488525867462,
        0.19497662782669067,
        -0.9840660095214844,
        -0.0751505047082901,
        -0.7994825839996338,
        -0.06151523068547249,
        -0.2666647732257843,
        -0.17147809267044067,
        -0.14560070633888245,
        -0.09266374260187149,
        -0.19901922345161438,
        -0.1637154519557953,
        0.2336186170578003,
        0.26980623602867126,
        0.10127393156290054,
        0.16034117341041565,
        -0.11201799660921097,
        0.0871802493929863,
        0.03546445444226265,
        -0.01685944013297558,
        0.40040647983551025,
        0.13697627186775208,
        -0.07679364830255508,
        0.29360511898994446,
        0.002433616202324629,
        0.35049742460250854,
        0.02281883917748928,
        -0.3550855815410614,
        0.20590147376060486,
        -0.03961819037795067,
        0.13878954946994781,
        0.06816159188747406,
        0.5643633008003235,
        -1.078330159187317,
        0.14225764572620392,
        -0.07460665702819824,
        0.1390022337436676,
        0.31097716093063354,
        -0.5029379725456238,
        -0.04825294017791748,
        0.14787112176418304
      ],
      [
        0.037431854754686356,
        0.9773327112197876,
        -0.1558493971824646,
        0.6483012437820435,
        0.7225761413574219,
        -0.576418936252594,
        0.2490188181400299,
        1.8100829124450684,
        -0.4398990571498871,
        0.44002294540405273,
        -0.9339190125465393,
        -0.43950799107551575,
        -0.18951548635959625,
        1.8949114084243774,
        -0.598534107208252,
        0.03430556878447533,
        -0.6888441443443298,
        -1.2337040901184082,
        -0.792951762676239,
        -0.42644619941711426,
        -0.15160509943962097,
        2.0560436248779297,
        0.41639643907546997,
        0.4902156889438629,
        -0.07026578485965729,
        -0.07766718417406082,
        -0.5225698351860046,
        -0.894997239112854,
        0.29925769567489624,
        0.44784000515937805,
        -0.3630600571632385,
        0.08600950241088867,
        0.17740167677402496,
        0.5886075496673584,
        0.5060665011405945,
        -0.19687053561210632,
        -1.0245909690856934,
        -0.7167882323265076,
        0.029982365667819977,
        -0.14096727967262268,
        0.31016162037849426,
        -0.44112226366996765,
        0.6534040570259094,
        -1.0755995512008667,
        0.5034693479537964,
        -0.667853057384491,
        1.6220074892044067,
        0.9425880312919617
      ],
      [
        0.24351108074188232,
        0.23194119334220886,
        -0.4458156228065491,
        -0.3564571738243103,
        -0.395853191614151,
        0.06267718970775604,
        0.5751592516899109,
        -0.2856019139289856,
        0.4503393769264221,
        0.8409929871559143,
        0.08867375552654266,
        -0.1087045967578888,
        0.025119632482528687,
        0.14830940961837769,
        -0.48657333850860596,
        -0.03454030305147171,
        0.14638514816761017,
        0.1417604386806488,
        0.047554485499858856,
        -0.10011236369609833,
        -0.039869628846645355,
        0.024177631363272667,
        0.28459733724594116,
        0.7913616895675659,
        -0.29224762320518494,
        0.31174352765083313,
        0.080926813185215,
        -0.05498719960451126,
        0.5756857991218567,
        0.2551428973674774,
        -0.10651499032974243,
        -0.1285381317138672,
        0.15793047845363617,
        -0.11502614617347717,
        0.13216231763362885,
        0.15188708901405334,
        0.2309904396533966,
        0.2169066220521927,
        0.31320086121559143,
        -0.4434998631477356,
        0.30286961793899536,
        -0.22531373798847198,
        -0.08271057158708572,
        0.5795373916625977,
        -0.48550915718078613,
        -0.301817387342453,
        0.08356324583292007,
        -0.4540290832519531
      ],
      [
        -0.4061184823513031,
        0.06697023659944534,
        0.765138566493988,
        0.00011792549048550427,
        0.10596873611211777,
        -0.6423673629760742,
        0.02205805294215679,
        -0.1735241562128067,
        -0.6406336426734924,
        0.4903053641319275,
        0.2673611342906952,
        -0.12528711557388306,
        0.28375574946403503,
        0.05444017052650452,
        0.42977195978164673,
        0.049170687794685364,
        -0.03604507073760033,
        0.49135592579841614,
        0.275638222694397,
        0.3652019500732422,
        0.1643502563238144,
        -0.6355686783790588,
        -0.18147480487823486,
        -1.061090111732483,
        0.4258328974246979,
        0.12472677230834961,
        0.27891668677330017,
        0.03666345030069351,
        -0.7006574273109436,
        -0.135345458984375,
        0.37753018736839294,
        0.3441001772880554,
        -0.059471674263477325,
        -0.11554402112960815,
        -0.07719343155622482,
        -0.16140830516815186,
        0.21519216895103455,
        -0.7270504832267761,
        -0.11435180902481079,
        0.4397203326225281,
        0.10387874394655228,
        -0.24290233850479126,
        -0.04340151324868202,
        0.6504650115966797,
        0.14794035255908966,
        0.4594232738018036,
        -0.30023401975631714,
        -0.20787176489830017
      ],
      [
        -0.023311836645007133,
        0.06460261344909668,
        -0.05610806867480278,
        -0.1147456243634224,
        -0.3262658715248108,
        0.9248060584068298,
        0.3316568434238434,
        -0.20597121119499207,
        0.4989510476589203,
        0.334659606218338,
        0.21781021356582642,
        0.032793816179037094,
        0.4296388328075409,
        -0.015848178416490555,
        0.44206616282463074,
        -0.11940740793943405,
        0.276699423789978,
        -0.4194735884666443,
        -0.40823572874069214,
        -0.25699135661125183,
        -0.25821083784103394,
        0.24299192428588867,
        0.11497041583061218,
        0.27774977684020996,
        0.2233961671590805,
        -0.776628315448761,
        0.6120052337646484,
        -0.10014984011650085,
        0.02670697681605816,
        -0.23213079571723938,
        0.05544741079211235,
        -0.2069309800863266,
        -0.15622085332870483,
        -0.5911974906921387,
        0.3323739469051361,
        -0.43456798791885376,
        -0.19378654658794403,
        0.5067523717880249,
        -0.3029400706291199,
        -0.17365367710590363,
        0.2744477391242981,
        0.33262303471565247,
        -0.2079157829284668,
        0.08594190329313278,
        0.17061054706573486,
        0.8944154381752014,
        0.40431419014930725,
        0.12095456570386887
      ],
      [
        0.2818489968776703,
        0.3840752840042114,
        0.006968799978494644,
        -0.17361950874328613,
        -0.18205663561820984,
        -0.5700299143791199,
        -0.1736413985490799,
        -0.17678925395011902,
        0.11753635108470917,
        0.11542079597711563,
        0.16881833970546722,
        0.4592241942882538,
        0.3512219190597534,
        -0.3098132014274597,
        0.20455944538116455,
        -0.06674415618181229,
        -0.2554713487625122,
        0.14460837841033936,
        -0.05334942042827606,
        0.010582664050161839,
        -0.14712673425674438,
        -0.22477459907531738,
        0.5281577110290527,
        0.07617563754320145,
        -0.34365537762641907,
        0.010270442813634872,
        0.19696152210235596,
        -0.23921851813793182,
        0.10357371717691422,
        -0.2262076884508133,
        -0.8768818974494934,
        -0.5133380889892578,
        0.2710140347480774,
        0.5095375776290894,
        0.8197572827339172,
        0.34864890575408936,
        -0.21593885123729706,
        -0.11648116260766983,
        0.13022087514400482,
        -0.39666399359703064,
        -0.1902284026145935,
        0.12179967015981674,
        -0.05789825692772865,
        -0.24196304380893707,
        0.46404990553855896,
        0.20727775990962982,
        -0.4048898220062256,
        -0.22208210825920105
      ],
      [
        0.15503567457199097,
        0.29535454511642456,
        -0.17523972690105438,
        0.2614668309688568,
        -0.24090038239955902,
        0.04361632466316223,
        0.05841854214668274,
        -0.09938748180866241,
        -0.3440338373184204,
        -0.426213800907135,
        0.07723985612392426,
        0.5351563692092896,
        0.42950889468193054,
        0.21517600119113922,
        0.14228171110153198,
        0.025065837427973747,
        -0.194577157497406,
        -0.3948163092136383,
        -0.019826563075184822,
        0.08416659384965897,
        0.3659566640853882,
        -0.018687104806303978,
        -0.31707748770713806,
        0.2891700565814972,
        -0.16134168207645416,
        0.3530651330947876,
        -0.19811615347862244,
        0.08176887780427933,
        0.4519850015640259,
        0.05198837071657181,
        0.5801231265068054,
        0.12724226713180542,
        -0.2115437090396881,
        -0.16673922538757324,
        0.012829639948904514,
        -0.60015869140625,
        0.42939668893814087,
        0.1975056678056717,
        -0.48119255900382996,
        -0.1727992743253708,
        0.5283952951431274,
        0.34616819024086,
        0.2455841600894928,
        -0.1409277766942978,
        -0.13115331530570984,
        0.09299760311841965,
        0.14454379677772522,
        -0.18166305124759674
      ]
    ],
    "ff.lin2.bias": [
      0.19430573284626007,
      -0.17993251979351044,
      -0.036255449056625366,
      -0.3476749062538147,
      0.06518145650625229,
      -0.26364174485206604,
      0.8205020427703857,
      0.07931438833475113,
      -0.13225769996643066,
      0.02461094781756401,
      -0.021728981286287308,
      0.02074444480240345
    ]
  }
}