{
  "tok_emb.weight": [
    [
      -1.20359206199646,
      -1.4945396184921265,
      0.6183191537857056,
      0.736828625202179,
      0.8300522565841675,
      0.11556557565927505,
      0.8065776824951172,
      -1.427757978439331,
      0.3247770369052887,
      -3.513521671295166,
      0.5960147380828857,
      -0.23625397682189941,
      -0.4418787360191345,
      0.24074049293994904,
      -0.7720710635185242,
      -0.8895334005355835,
      0.6936272978782654,
      0.28928661346435547,
      0.7285557985305786,
      0.6175774931907654,
      -0.8172970414161682,
      -0.05533783510327339,
      0.394494891166687,
      0.8670359253883362
    ],
    [
      -0.35994985699653625,
      0.6132620573043823,
      -0.42205244302749634,
      -0.6642128229141235,
      -0.5613440275192261,
      0.06362829357385635,
      1.1481539011001587,
      0.844780683517456,
      -0.41588595509529114,
      -0.9516124129295349,
      0.4654403626918793,
      -0.15794461965560913,
      0.2756243348121643,
      0.11112107336521149,
      -0.14983223378658295,
      -0.18415653705596924,
      0.5904832482337952,
      0.49925556778907776,
      -0.6742016077041626,
      0.3333756625652313,
      -0.894535481929779,
      0.3320813477039337,
      1.65410315990448,
      -0.6942970156669617
    ],
    [
      -1.4259628057479858,
      -0.24120037257671356,
      1.7612539529800415,
      0.6102540493011475,
      -1.154142141342163,
      -0.8530767560005188,
      -1.1711689233779907,
      0.3606606125831604,
      -0.29873597621917725,
      -0.15665008127689362,
      -0.5703678131103516,
      -1.2345199584960938,
      0.25329819321632385,
      0.01736954227089882,
      0.07435791939496994,
      0.4862176477909088,
      0.6359283924102783,
      0.16187012195587158,
      -0.9687883257865906,
      0.12695170938968658,
      -0.7580749988555908,
      -0.5961057543754578,
      -2.1479759216308594,
      -0.2045862376689911
    ],
    [
      -0.8298908472061157,
      0.11263274401426315,
      0.0669245570898056,
      -0.05225277692079544,
      -0.6704984307289124,
      0.37950602173805237,
      -0.10654579848051071,
      -0.15213970839977264,
      0.18598760664463043,
      -0.9912120699882507,
      -0.4960760474205017,
      -0.48916468024253845,
      0.14449097216129303,
      -0.34626123309135437,
      -0.5119072198867798,
      -0.7329214811325073,
      0.9565733075141907,
      -0.07247383147478104,
      -0.3174383044242859,
      0.01350903045386076,
      1.51823890209198,
      0.42326217889785767,
      0.3352707028388977,
      -0.35913509130477905
    ],
    [
      0.4353765547275543,
      -0.219295471906662,
      0.5507810711860657,
      0.27555856108665466,
      -0.2115003615617752,
      -0.4541111886501312,
      -1.106147289276123,
      0.008427707478404045,
      0.46297553181648254,
      -0.29702112078666687,
      -0.015254388563334942,
      -1.0958077907562256,
      0.8465801477432251,
      -1.8701798915863037,
      0.10455232858657837,
      -0.6478465795516968,
      -0.08629420399665833,
      1.4368925094604492,
      0.4365730583667755,
      -0.1385785937309265,
      -0.5909205675125122,
      0.19045676290988922,
      0.2542795240879059,
      0.6592025756835938
    ],
    [
      0.8659746646881104,
      -0.4227885901927948,
      -0.5716861486434937,
      -0.32290902733802795,
      0.21624772250652313,
      0.2536153793334961,
      -0.13032600283622742,
      -0.012933406047523022,
      0.6596508622169495,
      3.6127490997314453,
      -0.20299360156059265,
      0.45616668462753296,
      -0.6830747127532959,
      -0.26520243287086487,
      0.07738850265741348,
      0.43881163001060486,
      0.2729187309741974,
      -0.496182918548584,
      0.30644190311431885,
      1.1482348442077637,
      0.46185579895973206,
      0.07460767030715942,
      -1.6942670345306396,
      1.3402578830718994
    ],
    [
      0.7468517422676086,
      0.8220123648643494,
      -1.587227702140808,
      0.15856344997882843,
      -0.5490321516990662,
      0.30361464619636536,
      -1.9431155920028687,
      -1.4466601610183716,
      0.15049460530281067,
      -1.641491413116455,
      1.1014153957366943,
      -0.5332638025283813,
      -0.3399515450000763,
      -0.7446821331977844,
      -0.6776782870292664,
      0.7561119794845581,
      0.5304822325706482,
      -0.25331592559814453,
      0.6161860823631287,
      -0.17671392858028412,
      1.3775907754898071,
      1.0838018655776978,
      -0.6475540995597839,
      -0.33389097452163696
    ],
    [
      -0.7110165357589722,
      -0.13610737025737762,
      0.2370593249797821,
      -0.40597206354141235,
      -0.273088276386261,
      -0.33681395649909973,
      1.167231559753418,
      0.07611992955207825,
      0.2509183883666992,
      -0.16371096670627594,
      1.326636552810669,
      -0.9777928590774536,
      -0.7679857611656189,
      -1.0597881078720093,
      -0.32949909567832947,
      0.7147513628005981,
      -1.026932954788208,
      0.27852684259414673,
      -1.1036579608917236,
      -0.7815892100334167,
      -0.4189492166042328,
      1.378527283668518,
      -0.08167028427124023,
      0.8224504590034485
    ],
    [
      -2.4052798748016357,
      -0.05410608649253845,
      -1.752645492553711,
      0.1062934473156929,
      2.462017059326172,
      -0.9081199169158936,
      -0.863537073135376,
      -0.23514530062675476,
      1.4235038757324219,
      0.18699641525745392,
      1.1114871501922607,
      0.7058863639831543,
      -1.3405882120132446,
      -1.003341555595398,
      0.33468276262283325,
      -0.15720054507255554,
      -1.6969718933105469,
      0.05091175436973572,
      0.9984332919120789,
      0.2806130051612854,
      0.8103296160697937,
      -0.742426872253418,
      -0.013460757210850716,
      0.8487637042999268
    ],
    [
      0.9468644261360168,
      -0.2336866855621338,
      -0.6702792048454285,
      -1.0757427215576172,
      -0.7640924453735352,
      0.38366684317588806,
      0.3258351683616638,
      1.4855822324752808,
      2.2385411262512207,
      1.3453032970428467,
      -0.5552119016647339,
      -1.2782412767410278,
      -0.10696473717689514,
      -0.5914846658706665,
      0.4179645776748657,
      1.040328025817871,
      -1.3128176927566528,
      -0.3394663333892822,
      0.24988624453544617,
      -1.1745288372039795,
      -1.3508256673812866,
      -1.0368022918701172,
      0.615764319896698,
      -0.9785773754119873
    ],
    [
      -1.4553834199905396,
      -0.551647424697876,
      -0.190982848405838,
      -0.9930433630943298,
      0.7051855325698853,
      1.4513723850250244,
      0.40965309739112854,
      0.4969136118888855,
      -1.3120245933532715,
      0.04498462751507759,
      0.4570281505584717,
      -0.6284376382827759,
      -0.29985225200653076,
      0.8953171968460083,
      -0.42198142409324646,
      -0.21714597940444946,
      -1.3570060729980469,
      -0.9081532955169678,
      0.4402596950531006,
      -0.38442596793174744,
      0.08525028824806213,
      1.1477980613708496,
      0.21960385143756866,
      -0.5671459436416626
    ],
    [
      1.4029057025909424,
      1.3907546997070312,
      0.19124780595302582,
      -1.1194359064102173,
      0.8799858093261719,
      -1.2180230617523193,
      0.09282822161912918,
      -0.6547960638999939,
      -0.289109468460083,
      -0.8379337191581726,
      -0.13754667341709137,
      -0.9442898631095886,
      1.7825746536254883,
      0.9683961272239685,
      0.022166334092617035,
      -0.5684643387794495,
      -2.438103199005127,
      1.1136142015457153,
      -0.33790281414985657,
      1.1563395261764526,
      1.5849225521087646,
      -0.09766074270009995,
      -0.7668882012367249,
      -0.4379005432128906
    ],
    [
      0.07512562721967697,
      -0.26280227303504944,
      1.1136367321014404,
      -0.43881627917289734,
      0.23207509517669678,
      -0.3958880603313446,
      1.5405311584472656,
      -0.044191356748342514,
      0.47747597098350525,
      0.5879414677619934,
      -0.4855785667896271,
      0.25747957825660706,
      0.258108526468277,
      -0.8610332608222961,
      1.0262104272842407,
      -0.15536810457706451,
      -1.4699491262435913,
      -0.5844603776931763,
      -0.28491413593292236,
      1.2148913145065308,
      -2.2217588424682617,
      0.5318973660469055,
      0.17361554503440857,
      -1.5682129859924316
    ],
    [
      1.0689281225204468,
      0.9545406103134155,
      0.7101171016693115,
      -0.04306696727871895,
      0.9338346719741821,
      -0.24524864554405212,
      0.6107625961303711,
      -0.4085819721221924,
      -0.3037250339984894,
      0.8119274377822876,
      -0.6637016534805298,
      1.5450233221054077,
      1.176436185836792,
      -0.06904326379299164,
      0.08243408054113388,
      0.05527354031801224,
      0.1891874372959137,
      1.6232709884643555,
      -0.8908123970031738,
      -1.0440057516098022,
      -1.357200264930725,
      1.943752408027649,
      -0.9226604700088501,
      -0.2516472339630127
    ],
    [
      1.2397621870040894,
      0.3104169964790344,
      0.09324337542057037,
      -0.33861517906188965,
      0.8081104159355164,
      -0.03849971666932106,
      0.610618531703949,
      -0.4839453399181366,
      0.9389597177505493,
      -1.2780555486679077,
      1.344712495803833,
      1.211521029472351,
      0.18358877301216125,
      0.15856626629829407,
      0.5127198100090027,
      -0.829537570476532,
      1.037672519683838,
      -0.21686886250972748,
      0.009901391342282295,
      -0.7050826549530029,
      -0.3758730888366699,
      -1.007039189338684,
      0.015082678757607937,
      0.09622552990913391
    ],
    [
      -0.5275311470031738,
      0.7869492173194885,
      -0.9088481664657593,
      0.8677645921707153,
      -1.820875883102417,
      0.6261420845985413,
      -0.0322236604988575,
      0.21178855001926422,
      0.49857383966445923,
      -0.9517921209335327,
      0.36356425285339355,
      -0.06465382874011993,
      1.5064231157302856,
      -0.7184382677078247,
      -0.31414595246315,
      -0.341429203748703,
      -1.0562894344329834,
      0.1413327008485794,
      0.3846612572669983,
      -1.0711852312088013,
      0.02815939672291279,
      2.1665523052215576,
      0.5624505281448364,
      -0.5321339964866638
    ],
    [
      -0.19136260449886322,
      -0.5565987825393677,
      1.1765729188919067,
      0.44705140590667725,
      1.345605492591858,
      -0.11639389395713806,
      -0.9244164824485779,
      -0.027626769617199898,
      -0.7846153974533081,
      0.9871093034744263,
      -0.31249505281448364,
      -0.07202136516571045,
      0.1256503462791443,
      1.55474853515625,
      -0.5613853335380554,
      -0.2807246148586273,
      1.1942647695541382,
      -0.9864932894706726,
      -1.1542742252349854,
      -0.5854105353355408,
      0.582838237285614,
      -0.875899076461792,
      -0.7071415781974792,
      0.9866065979003906
    ],
    [
      1.7387335300445557,
      -0.27562686800956726,
      1.110211730003357,
      -0.30886420607566833,
      1.1476916074752808,
      -0.7210578918457031,
      -1.7222026586532593,
      -0.7474188804626465,
      -0.5313132405281067,
      0.7562369704246521,
      -0.5589849948883057,
      1.0611275434494019,
      -0.28556525707244873,
      0.09104319661855698,
      1.4130233526229858,
      -0.5355786085128784,
      -0.19125106930732727,
      -0.6209954619407654,
      0.6378087997436523,
      -1.1154122352600098,
      -0.08743149787187576,
      -0.2538730204105377,
      0.9364877939224243,
      0.7144275307655334
    ],
    [
      0.8218212723731995,
      0.632041871547699,
      -0.16868188977241516,
      -0.5841147899627686,
      -1.0308473110198975,
      0.47584179043769836,
      1.1051105260849,
      0.23514612019062042,
      0.1210499256849289,
      -0.8912070393562317,
      -0.8035502433776855,
      -0.1154707670211792,
      1.1440774202346802,
      -0.9239031076431274,
      -1.9018750190734863,
      -1.1493299007415771,
      -1.072263240814209,
      -0.3004007637500763,
      1.2025648355484009,
      0.3360997140407562,
      -0.3492124378681183,
      -0.11185354739427567,
      -0.07985842227935791,
      0.3463842570781708
    ],
    [
      0.012317282147705555,
      -0.3846006393432617,
      -0.29042771458625793,
      1.0911937952041626,
      -0.38599875569343567,
      -0.473174124956131,
      0.4509910047054291,
      -1.4132472276687622,
      2.3208820819854736,
      -0.1643921434879303,
      0.4654683768749237,
      0.5049391984939575,
      -0.06913717836141586,
      -0.09852950274944305,
      0.39406201243400574,
      -2.0622620582580566,
      0.24652528762817383,
      -1.4055358171463013,
      -0.9649515151977539,
      0.04846843704581261,
      0.08916124701499939,
      -0.3307015895843506,
      -0.5958291888237,
      -1.204367995262146
    ],
    [
      0.6998737454414368,
      -1.0263307094573975,
      1.3157742023468018,
      -0.40477317571640015,
      -1.0795296430587769,
      0.2536751925945282,
      0.9792405962944031,
      -0.5820836424827576,
      -0.6564435958862305,
      0.18700194358825684,
      -1.7410318851470947,
      -1.477616310119629,
      -1.6770024299621582,
      0.05218243971467018,
      0.4563160538673401,
      -0.8339752554893494,
      0.6706507205963135,
      1.1697275638580322,
      -0.10981951653957367,
      0.11590349674224854,
      -0.3361627459526062,
      0.008074314333498478,
      -0.41047006845474243,
      1.7233023643493652
    ],
    [
      -1.087760090827942,
      0.48496949672698975,
      -0.32597440481185913,
      -1.057770013809204,
      0.7602550387382507,
      -0.23982517421245575,
      -1.3757213354110718,
      0.9543159604072571,
      -0.43018805980682373,
      0.043707381933927536,
      1.3369351625442505,
      0.6050443053245544,
      -0.12302684783935547,
      0.43881216645240784,
      -0.19180285930633545,
      1.0993666648864746,
      -0.21559710800647736,
      0.5464454293251038,
      -1.4781633615493774,
      -1.1815682649612427,
      -0.15030130743980408,
      0.4616214334964752,
      1.4305288791656494,
      0.576932430267334
    ],
    [
      -0.972240686416626,
      -0.19442717730998993,
      0.6515079140663147,
      -0.42892056703567505,
      2.065593957901001,
      0.03920016810297966,
      0.7294880151748657,
      -0.7736372351646423,
      -0.3263053297996521,
      0.1559857875108719,
      -0.753327488899231,
      0.2943471074104309,
      0.21460598707199097,
      0.308089017868042,
      0.17373982071876526,
      -0.5133166313171387,
      1.5211256742477417,
      0.26234573125839233,
      -0.44589948654174805,
      -0.6624271869659424,
      1.3621281385421753,
      -0.1632731705904007,
      -0.3202499449253082,
      0.22219307720661163
    ],
    [
      0.41842120885849,
      -0.9630511999130249,
      0.2178565114736557,
      -1.013891577720642,
      1.4415956735610962,
      1.6530128717422485,
      0.7593968510627747,
      -0.5439741015434265,
      0.6503211855888367,
      0.502376914024353,
      -0.2150895893573761,
      -0.15373682975769043,
      -0.6366186738014221,
      0.18370483815670013,
      0.985485315322876,
      -1.1452429294586182,
      0.011936045251786709,
      0.44202306866645813,
      0.07113838195800781,
      -0.8814374804496765,
      -0.22337892651557922,
      -1.2086814641952515,
      -1.8100908994674683,
      0.9415345191955566
    ],
    [
      -0.009765886701643467,
      0.45697715878486633,
      1.1586294174194336,
      -0.6159682869911194,
      -0.06416104733943939,
      -0.5449630618095398,
      0.12985749542713165,
      -0.1273355484008789,
      -0.6459830403327942,
      0.008173419162631035,
      0.46114909648895264,
      0.17687185108661652,
      0.4538052976131439,
      0.09161299467086792,
      -0.556840181350708,
      0.2370627224445343,
      0.9700341820716858,
      0.19347837567329407,
      0.658654510974884,
      1.331838846206665,
      0.8929816484451294,
      -0.43336477875709534,
      1.5000765323638916,
      -0.5443285703659058
    ],
    [
      1.040571928024292,
      -1.764860987663269,
      1.3599141836166382,
      -1.0348713397979736,
      -0.15611764788627625,
      -1.041075587272644,
      -0.37796783447265625,
      0.6136176586151123,
      -0.7507630586624146,
      0.6988838911056519,
      0.17606016993522644,
      0.3076280951499939,
      -0.17036139965057373,
      -0.3967157006263733,
      0.9377986192703247,
      0.3474116623401642,
      1.4478282928466797,
      -0.43093934655189514,
      1.5339043140411377,
      -0.5876584649085999,
      -0.2300119400024414,
      -1.1558988094329834,
      -0.061313122510910034,
      -0.42304137349128723
    ],
    [
      -0.6489100456237793,
      -1.5698407888412476,
      0.33125847578048706,
      -0.08011449873447418,
      -0.5047773718833923,
      -1.6926476955413818,
      0.8468700051307678,
      0.36959487199783325,
      0.44496288895606995,
      -0.12285597622394562,
      0.12558165192604065,
      0.828226625919342,
      -0.10671854019165039,
      -1.2112035751342773,
      -0.6160080432891846,
      -0.665967583656311,
      -0.026369469240307808,
      -0.6849761009216309,
      1.6196463108062744,
      -0.2408474087715149,
      0.5775724649429321,
      0.17727740108966827,
      0.8710804581642151,
      -0.33652201294898987
    ],
    [
      -0.5656805634498596,
      0.3289034962654114,
      -0.20780815184116364,
      0.07098140567541122,
      0.007915428839623928,
      -2.1277151107788086,
      -1.6256383657455444,
      -0.9028862714767456,
      -0.5806707143783569,
      1.7507292032241821,
      0.4371596872806549,
      0.3269779086112976,
      0.25048166513442993,
      -0.6027975082397461,
      0.4221040904521942,
      -0.6250636577606201,
      1.303765892982483,
      -0.9665758013725281,
      0.8470891118049622,
      -0.5759247541427612,
      -1.2564719915390015,
      -0.07837723195552826,
      -0.17400792241096497,
      1.1757924556732178
    ],
    [
      1.2506639957427979,
      -0.04108497127890587,
      -1.1508629322052002,
      -0.9578849673271179,
      0.5049076080322266,
      -1.1836342811584473,
      -1.7479028701782227,
      0.6563373804092407,
      -1.0210117101669312,
      0.1131601631641388,
      0.791296124458313,
      -0.7553149461746216,
      0.5768738389015198,
      -0.3733554184436798,
      -0.7650505900382996,
      1.6149356365203857,
      -0.40584462881088257,
      0.5949024558067322,
      0.6000586748123169,
      0.33341148495674133,
      0.26214125752449036,
      0.3900018334388733,
      0.5193974375724792,
      0.3802614212036133
    ],
    [
      -0.41027817130088806,
      -1.0718555450439453,
      0.3981172740459442,
      -1.9053694009780884,
      0.6013622879981995,
      0.959481954574585,
      -0.46212050318717957,
      0.30814605951309204,
      0.07697796821594238,
      -0.8295950889587402,
      -0.267137736082077,
      0.6009251475334167,
      -0.706564724445343,
      1.2329089641571045,
      0.17533531785011292,
      1.5517112016677856,
      0.15018747746944427,
      -2.2297427654266357,
      0.8232030868530273,
      0.6321020126342773,
      -1.9963058233261108,
      0.26547378301620483,
      -0.38237789273262024,
      -0.6828250885009766
    ],
    [
      1.629059910774231,
      -1.515687346458435,
      -1.1580942869186401,
      -1.401747703552246,
      -1.1723204851150513,
      1.3809542655944824,
      -0.46358901262283325,
      0.33828678727149963,
      1.5877089500427246,
      -0.41479796171188354,
      -1.47935950756073,
      -0.1689801961183548,
      0.010578799992799759,
      -0.02899261750280857,
      0.2978174686431885,
      -1.7403063774108887,
      0.22939041256904602,
      0.15829434990882874,
      -0.2612663507461548,
      1.3162308931350708,
      0.2917301058769226,
      0.10925859957933426,
      0.8013736605644226,
      -0.35008007287979126
    ],
    [
      -0.6663479208946228,
      -0.5669381618499756,
      -0.5336206555366516,
      0.3495478332042694,
      1.4152615070343018,
      0.8697527050971985,
      -1.203507423400879,
      0.6580878496170044,
      -0.42045992612838745,
      1.2115864753723145,
      0.22635768353939056,
      -1.4544047117233276,
      -0.720211923122406,
      0.8305434584617615,
      1.0330289602279663,
      0.13557949662208557,
      -0.34316158294677734,
      1.6368945837020874,
      1.3296860456466675,
      -1.0164226293563843,
      -0.5758070349693298,
      -0.9096329212188721,
      -0.19672663509845734,
      -1.3384853601455688
    ],
    [
      -0.048405565321445465,
      -0.07716697454452515,
      0.41459402441978455,
      0.7269805073738098,
      -0.8230434060096741,
      -0.027987077832221985,
      -1.716234564781189,
      0.15777556598186493,
      1.5836031436920166,
      1.5469337701797485,
      0.5486336350440979,
      -0.41800397634506226,
      -0.9214428663253784,
      -1.3817622661590576,
      -0.7904362678527832,
      0.7149890065193176,
      -1.0433883666992188,
      1.1350171566009521,
      0.14043091237545013,
      0.10014607757329941,
      -0.4299072325229645,
      0.437283456325531,
      0.40393298864364624,
      0.004330053459852934
    ],
    [
      -0.9508491158485413,
      -0.9828462600708008,
      -0.2302362322807312,
      -1.1523406505584717,
      0.34058359265327454,
      -0.6902968287467957,
      -0.268646776676178,
      -0.9051850438117981,
      -1.0186492204666138,
      0.9636886715888977,
      -0.5106547474861145,
      0.703732430934906,
      0.018505282700061798,
      0.37171614170074463,
      0.6188019514083862,
      0.14116863906383514,
      0.8270149827003479,
      -0.21065665781497955,
      -0.5700779557228088,
      1.0992182493209839,
      0.3385542333126068,
      -0.012159859761595726,
      1.0260887145996094,
      0.027393652126193047
    ],
    [
      -0.16316866874694824,
      -0.4311840534210205,
      0.9836474061012268,
      -1.4109030961990356,
      1.373571753501892,
      -0.7270583510398865,
      1.2043957710266113,
      -0.5051486492156982,
      0.7585569024085999,
      0.2979329526424408,
      1.7845174074172974,
      0.1055842712521553,
      -0.5270553827285767,
      0.8592087626457214,
      0.7637266516685486,
      -1.7132233381271362,
      0.8403710126876831,
      0.1701904833316803,
      -0.07349851727485657,
      -1.008401870727539,
      -0.7310508489608765,
      -0.3619418144226074,
      0.33898159861564636,
      -0.7004684805870056
    ],
    [
      -1.2305071353912354,
      1.8626364469528198,
      -0.3877607583999634,
      -0.14136604964733124,
      -2.337002754211426,
      0.7587510943412781,
      3.000000238418579,
      -1.6579879522323608,
      -0.10656390339136124,
      -1.0143009424209595,
      -0.5244966149330139,
      0.6066057682037354,
      -0.15967632830142975,
      0.4159282445907593,
      -0.7116463780403137,
      -0.1268025040626526,
      -0.9477251172065735,
      -0.3087075650691986,
      0.18963976204395294,
      0.7801263928413391,
      -0.6008870005607605,
      -0.3574824631214142,
      1.7647815942764282,
      0.16347306966781616
    ],
    [
      -0.37663668394088745,
      -2.7078495025634766,
      1.1999132633209229,
      1.2704042196273804,
      0.09003214538097382,
      -1.2915599346160889,
      -1.4886103868484497,
      -0.7934268712997437,
      0.3766232430934906,
      -0.039902281016111374,
      -0.607082724571228,
      0.13334710896015167,
      0.6337416172027588,
      0.472422331571579,
      -0.5906948447227478,
      0.2624300718307495,
      1.3823044300079346,
      0.6065697073936462,
      -2.194939374923706,
      1.8817211389541626,
      0.6534484028816223,
      -0.6675286889076233,
      0.016538772732019424,
      1.1450835466384888
    ],
    [
      -0.05912454426288605,
      0.17462706565856934,
      0.8011429309844971,
      -1.1389033794403076,
      0.3416023552417755,
      -0.15893134474754333,
      0.1507405787706375,
      0.76621413230896,
      -0.17776377499103546,
      -1.4631438255310059,
      0.37762194871902466,
      -1.8124243021011353,
      0.0018688689451664686,
      1.4997912645339966,
      1.4533177614212036,
      1.3069870471954346,
      -2.2067911624908447,
      0.4869547486305237,
      0.5442633032798767,
      -0.3924368619918823,
      1.5453015565872192,
      0.22267410159111023,
      -0.1735781878232956,
      -1.4524354934692383
    ],
    [
      0.22098641097545624,
      1.2432057857513428,
      0.49804359674453735,
      0.1165815219283104,
      0.14209036529064178,
      0.2586754262447357,
      1.2243964672088623,
      0.47979995608329773,
      -2.1292836666107178,
      0.6371897459030151,
      1.302456021308899,
      -0.6629836559295654,
      1.1109063625335693,
      -0.01935284025967121,
      0.46467095613479614,
      0.9069842100143433,
      -1.0092204809188843,
      -0.3924471139907837,
      -0.12709961831569672,
      -0.2872346043586731,
      -0.9272569417953491,
      -0.5785958766937256,
      0.07875265926122665,
      0.5058820843696594
    ],
    [
      -0.6849980354309082,
      -1.9185987710952759,
      0.2150111049413681,
      0.9995502829551697,
      1.4549241065979004,
      1.2402454614639282,
      -0.7033451795578003,
      -0.9510504007339478,
      0.5445165634155273,
      1.6853690147399902,
      -1.0344964265823364,
      -0.5011119842529297,
      0.24131250381469727,
      0.6379985809326172,
      0.41760557889938354,
      -0.8142545223236084,
      0.06330858170986176,
      1.0162935256958008,
      -0.3244990110397339,
      0.8482299447059631,
      -0.9428719878196716,
      0.09278847277164459,
      1.2696088552474976,
      -1.0543601512908936
    ],
    [
      0.033672187477350235,
      -1.0141314268112183,
      -1.104194164276123,
      -0.208028182387352,
      1.342427372932434,
      -0.223649799823761,
      0.4596414268016815,
      1.3626092672348022,
      1.0301777124404907,
      -1.529015302658081,
      -0.26426514983177185,
      -0.1507551670074463,
      0.9519001841545105,
      -0.8899174332618713,
      -1.1756099462509155,
      -0.12163534015417099,
      0.8708377480506897,
      -0.19818627834320068,
      0.24612228572368622,
      -0.4804542362689972,
      0.14283111691474915,
      1.308840274810791,
      0.18530598282814026,
      -1.2998237609863281
    ],
    [
      0.8130113482475281,
      -1.3438163995742798,
      0.5552349090576172,
      -1.152268648147583,
      1.1890521049499512,
      0.46384164690971375,
      1.2684533596038818,
      -1.613886833190918,
      0.001414859783835709,
      -0.06043698638677597,
      1.6666316986083984,
      1.0302232503890991,
      0.3119123578071594,
      0.936238706111908,
      -0.23632758855819702,
      0.09705831855535507,
      0.17697671055793762,
      -0.05667252838611603,
      -1.7247194051742554,
      -0.17935152351856232,
      -0.5979094505310059,
      0.17085595428943634,
      -0.45479676127433777,
      0.039709772914648056
    ],
    [
      -1.3502777814865112,
      0.191250279545784,
      1.0677974224090576,
      1.3479959964752197,
      0.27586889266967773,
      -0.40133050084114075,
      0.3410792648792267,
      0.19278471171855927,
      0.4708273410797119,
      0.982107937335968,
      0.6508536338806152,
      -1.2981605529785156,
      -0.9869338870048523,
      -1.0442813634872437,
      -0.9654961824417114,
      -0.8227672576904297,
      -0.45355144143104553,
      -0.4407312870025635,
      -0.6888343095779419,
      0.9256383180618286,
      -0.8072993159294128,
      -0.038960061967372894,
      0.8286237716674805,
      0.8711087703704834
    ],
    [
      -0.22347486019134521,
      -0.5972339510917664,
      0.03268788382411003,
      -0.06389248371124268,
      1.2695300579071045,
      0.09188190847635269,
      0.36714476346969604,
      -0.30584481358528137,
      -0.7143546938896179,
      0.738749623298645,
      -1.0960239171981812,
      1.1657071113586426,
      -0.48722878098487854,
      1.825577974319458,
      -0.04921708256006241,
      -0.684474527835846,
      0.9950025081634521,
      0.18584951758384705,
      -1.3825223445892334,
      -1.0454316139221191,
      1.0270555019378662,
      0.3281971216201782,
      -0.4962114095687866,
      1.1373165845870972
    ],
    [
      0.5477758049964905,
      -0.5878667831420898,
      -0.46156319975852966,
      1.3780879974365234,
      -0.19334669411182404,
      -0.011266907677054405,
      -1.4023445844650269,
      1.2004218101501465,
      -1.9919360876083374,
      1.3861336708068848,
      -0.7508389949798584,
      0.06198393926024437,
      1.6031397581100464,
      -1.872085690498352,
      -0.419669508934021,
      -0.5168960690498352,
      1.2258408069610596,
      -0.45893460512161255,
      -0.12512613832950592,
      -0.5065903663635254,
      -0.06027686968445778,
      -0.8784358501434326,
      0.008529972285032272,
      -0.06093069538474083
    ],
    [
      -1.219380497932434,
      0.6741729974746704,
      0.04683934524655342,
      -0.13458846509456635,
      -2.7223739624023438,
      -0.18726564943790436,
      0.3452543616294861,
      1.7111481428146362,
      -0.4158414304256439,
      1.242058277130127,
      0.7203290462493896,
      -1.3453938961029053,
      0.7102543711662292,
      0.2906343638896942,
      -1.4490505456924438,
      0.735422670841217,
      -1.4010646343231201,
      -1.5328305959701538,
      0.2361208200454712,
      -0.26129698753356934,
      0.8815864324569702,
      -1.1831623315811157,
      0.4498977065086365,
      0.4311973452568054
    ],
    [
      -1.1531206369400024,
      -0.16414567828178406,
      -0.31322142481803894,
      0.3329220116138458,
      -0.5532384514808655,
      -0.8588787913322449,
      0.2269684225320816,
      -0.1748911589384079,
      -0.24241802096366882,
      -0.73423832654953,
      0.3494201600551605,
      -0.2993766665458679,
      -0.6336575746536255,
      0.30081653594970703,
      0.0614914707839489,
      1.0877234935760498,
      0.7025691866874695,
      -0.8584023714065552,
      -0.008804424665868282,
      -0.9644664525985718,
      1.2387160062789917,
      0.8515428900718689,
      0.28072836995124817,
      0.6207585334777832
    ],
    [
      0.9080431461334229,
      0.23701195418834686,
      1.0102486610412598,
      0.8318231105804443,
      0.9244185090065002,
      -1.4116151332855225,
      0.4677749574184418,
      -0.7519909739494324,
      -0.9727484583854675,
      -0.18545396625995636,
      0.09802892059087753,
      0.5012360215187073,
      -0.9585863351821899,
      -1.0597498416900635,
      -0.4994942545890808,
      0.5048792958259583,
      -0.37283048033714294,
      0.772434413433075,
      0.8035376071929932,
      0.6599252223968506,
      0.2315550446510315,
      1.4528656005859375,
      -0.6406816244125366,
      -0.5687347650527954
    ],
    [
      -1.0461125373840332,
      -1.362507939338684,
      -1.1702271699905396,
      -1.3388583660125732,
      -1.7929027080535889,
      0.18888558447360992,
      -0.5670745372772217,
      -0.5291293263435364,
      -0.43052956461906433,
      0.8744022846221924,
      2.0692713260650635,
      1.2354907989501953,
      -1.3368374109268188,
      -0.8075413107872009,
      2.077807664871216,
      0.28354477882385254,
      1.3520424365997314,
      0.12299791723489761,
      -1.2723255157470703,
      0.34691664576530457,
      -1.337044358253479,
      1.7046853303909302,
      1.922155499458313,
      0.19578291475772858
    ],
    [
      0.21988913416862488,
      0.21402093768119812,
      -0.30508196353912354,
      -1.3727085590362549,
      -0.8816683888435364,
      -0.9773321151733398,
      0.16856862604618073,
      -0.0030875226948410273,
      -0.4196893572807312,
      0.12084168195724487,
      1.7832175493240356,
      -0.03975186496973038,
      1.8800290822982788,
      0.4409986436367035,
      0.6289204359054565,
      0.37595826387405396,
      -0.2090938538312912,
      -1.4386364221572876,
      -0.6001142859458923,
      0.9768453240394592,
      -0.6025508642196655,
      -1.2510355710983276,
      -0.11841186881065369,
      0.2833726406097412
    ],
    [
      2.658907175064087,
      0.493012011051178,
      -1.5115652084350586,
      -1.81342613697052,
      0.5383433699607849,
      -1.1597824096679688,
      0.028566451743245125,
      0.6510149836540222,
      -0.16330359876155853,
      1.458835482597351,
      -0.21202832460403442,
      -2.325174331665039,
      -0.35104840993881226,
      -0.22276411950588226,
      -0.43577566742897034,
      -1.8401544094085693,
      0.03806339576840401,
      -0.11905749887228012,
      -0.8027122020721436,
      1.3978681564331055,
      -0.3398353159427643,
      1.1220433712005615,
      0.5749133229255676,
      -0.9582861065864563
    ],
    [
      1.7597993612289429,
      1.0297536849975586,
      1.3474657535552979,
      -0.46815526485443115,
      -0.8493568897247314,
      1.068647027015686,
      0.3747084438800812,
      -0.6077049970626831,
      0.36722153425216675,
      -0.9670888781547546,
      -0.8410183787345886,
      -2.234384059906006,
      -0.8659999370574951,
      0.02517574094235897,
      1.7243494987487793,
      0.3034924864768982,
      -0.8354624509811401,
      0.22327910363674164,
      -0.44069021940231323,
      -1.8910722732543945,
      0.035936057567596436,
      1.5628230571746826,
      -0.005205176770687103,
      0.834780216217041
    ],
    [
      0.542500913143158,
      1.7413780689239502,
      1.7206178903579712,
      0.2936913073062897,
      0.9855597019195557,
      -0.7147842049598694,
      -0.037229545414447784,
      -0.4855296313762665,
      -0.009609082713723183,
      0.045407846570014954,
      0.7677037715911865,
      -1.4430781602859497,
      -1.614143967628479,
      -1.030240774154663,
      0.7666295766830444,
      0.8964592218399048,
      0.3518061339855194,
      -0.5548940896987915,
      0.4351024031639099,
      -0.7558502554893494,
      -0.8143014311790466,
      -1.0762815475463867,
      -1.0330349206924438,
      0.38486310839653015
    ],
    [
      1.4400246143341064,
      0.8051161766052246,
      -1.4836589097976685,
      0.8281905055046082,
      -0.6251493692398071,
      0.46244505047798157,
      -0.3853687047958374,
      1.0169446468353271,
      0.8897844552993774,
      -0.4559166431427002,
      -0.9209863543510437,
      -0.9213181734085083,
      -1.153421401977539,
      -2.424227714538574,
      0.6793593168258667,
      -1.2272320985794067,
      1.8836299180984497,
      0.18308211863040924,
      -0.645793616771698,
      0.9983407855033875,
      -0.520978569984436,
      0.49077561497688293,
      -0.36471259593963623,
      0.5905892252922058
    ],
    [
      1.11488676071167,
      -0.4997391700744629,
      1.2399604320526123,
      1.1096227169036865,
      -0.1831655353307724,
      0.5422956943511963,
      1.1050549745559692,
      -1.376564621925354,
      -0.7785501480102539,
      1.2488514184951782,
      0.2489667385816574,
      0.03230820223689079,
      1.1876678466796875,
      -0.33421945571899414,
      -0.25316935777664185,
      0.9167807698249817,
      0.4357229471206665,
      -0.5963748097419739,
      -0.05405866354703903,
      0.1004205197095871,
      0.7082677483558655,
      -0.19298088550567627,
      -0.40886980295181274,
      0.30087390542030334
    ],
    [
      -0.5946968793869019,
      0.07440212368965149,
      0.7437304854393005,
      0.8093130588531494,
      -0.864197313785553,
      -0.16763372719287872,
      0.34353357553482056,
      -1.0376067161560059,
      -0.26304733753204346,
      1.1458200216293335,
      -1.1658796072006226,
      0.9618120789527893,
      0.045279670506715775,
      -1.2534985542297363,
      -1.2465730905532837,
      0.19397661089897156,
      1.0600106716156006,
      1.3125091791152954,
      -0.1984703242778778,
      1.2932367324829102,
      -0.12441254407167435,
      0.08373598754405975,
      1.777217149734497,
      -0.7631139755249023
    ],
    [
      0.6227356195449829,
      1.3991698026657104,
      -0.4197448790073395,
      0.16954343020915985,
      0.32620400190353394,
      0.1855507493019104,
      -1.3650580644607544,
      -0.6582544445991516,
      -0.9926355481147766,
      -0.34863632917404175,
      -0.4451545178890228,
      -0.48261600732803345,
      0.5006861090660095,
      -0.13165313005447388,
      0.3484974205493927,
      1.977637767791748,
      -0.6664998531341553,
      -0.2959272265434265,
      -0.2936890721321106,
      -1.5296934843063354,
      -0.46197497844696045,
      0.8251394033432007,
      0.43157362937927246,
      0.3028847277164459
    ],
    [
      -0.04639703407883644,
      -0.24832746386528015,
      -0.10768201947212219,
      2.0988082885742188,
      0.04014328494668007,
      -0.292549192905426,
      1.271410584449768,
      0.3838388919830322,
      0.9755836129188538,
      -0.6024580001831055,
      0.41227033734321594,
      0.909048318862915,
      -0.3089475929737091,
      0.37564903497695923,
      -0.3797629773616791,
      -0.38489651679992676,
      1.068620204925537,
      -1.6871148347854614,
      -0.21487058699131012,
      -0.06604796648025513,
      0.0059964912943542,
      0.04117336869239807,
      -0.8222311735153198,
      -0.39057213068008423
    ],
    [
      -0.4871976971626282,
      1.147881031036377,
      0.15197765827178955,
      -0.7805147767066956,
      -0.8285760879516602,
      1.8661407232284546,
      1.2488934993743896,
      -1.1344846487045288,
      -0.1528206616640091,
      0.15406450629234314,
      -0.6538464426994324,
      0.3225940465927124,
      0.7316925525665283,
      0.3904910087585449,
      1.2604563236236572,
      -0.9937553405761719,
      -0.04252847656607628,
      0.10223741084337234,
      -0.13515712320804596,
      0.6753175258636475,
      1.2198288440704346,
      -1.195631504058838,
      0.7747814059257507,
      0.6977161765098572
    ],
    [
      0.861027717590332,
      0.5697676539421082,
      -0.6626770496368408,
      0.17575541138648987,
      0.2073894590139389,
      -0.8579448461532593,
      -0.5099701285362244,
      1.7522728443145752,
      -1.018041968345642,
      0.20265521109104156,
      0.5537753701210022,
      1.0170687437057495,
      -1.4227300882339478,
      0.3593710958957672,
      -0.21462252736091614,
      0.8722511529922485,
      -0.34929534792900085,
      0.8943848609924316,
      0.4521167576313019,
      -0.2912124693393707,
      0.8849751949310303,
      -0.6924161911010742,
      -0.5195979475975037,
      -0.3587014973163605
    ],
    [
      -1.0806288719177246,
      0.514253556728363,
      0.06539259105920792,
      0.1575288027524948,
      0.20391297340393066,
      -1.6668612957000732,
      0.9245041012763977,
      1.0365937948226929,
      1.298808217048645,
      0.537964940071106,
      -1.552700400352478,
      0.37248772382736206,
      -0.5455443859100342,
      0.8772882223129272,
      -0.674074113368988,
      -0.43456554412841797,
      0.49263429641723633,
      -0.9086793065071106,
      -0.33359965682029724,
      -0.06737256795167923,
      -0.785406231880188,
      1.2508909702301025,
      -1.9712779521942139,
      -0.28365635871887207
    ],
    [
      0.10695306956768036,
      -0.26316067576408386,
      1.2119576930999756,
      0.11992915719747543,
      -0.45841318368911743,
      0.8579620718955994,
      0.14429953694343567,
      -0.6778753399848938,
      -0.31301528215408325,
      0.43099966645240784,
      0.432813823223114,
      1.2385129928588867,
      -0.3530159890651703,
      -0.6220150589942932,
      -0.014830786734819412,
      -0.00931704230606556,
      0.5024901628494263,
      1.1357191801071167,
      0.09160861372947693,
      -0.2186202108860016,
      1.2980343103408813,
      -0.7576356530189514,
      -1.0339345932006836,
      0.4665035307407379
    ],
    [
      1.125684380531311,
      0.8152388334274292,
      -0.5420428514480591,
      -0.4234207570552826,
      -1.8613699674606323,
      1.0138250589370728,
      -0.6002623438835144,
      1.2996026277542114,
      -0.2403159886598587,
      0.0923844426870346,
      0.0472898930311203,
      -0.885796070098877,
      -1.7299680709838867,
      -0.2516292929649353,
      -1.004521131515503,
      -0.17626897990703583,
      0.38158291578292847,
      -0.117737777531147,
      1.286357045173645,
      -2.165034294128418,
      0.7728549242019653,
      -0.3464415371417999,
      -0.23959772288799286,
      2.263395309448242
    ],
    [
      0.028018737211823463,
      -0.6867986917495728,
      -0.700068473815918,
      0.14790044724941254,
      0.1630275398492813,
      1.3161201477050781,
      -0.6655250191688538,
      0.462526798248291,
      0.5105233192443848,
      -0.47917816042900085,
      0.33427903056144714,
      0.6080153584480286,
      -0.6759082078933716,
      0.6454432010650635,
      -0.6735349297523499,
      -0.4802212417125702,
      -0.6837284564971924,
      -0.6952770948410034,
      0.5211111903190613,
      0.07374703884124756,
      -0.07196511328220367,
      0.22914262115955353,
      -0.9212089776992798,
      -1.4203699827194214
    ],
    [
      1.9146387577056885,
      -0.29094287753105164,
      -0.6891304850578308,
      -1.9456905126571655,
      -1.783990502357483,
      0.4858074188232422,
      -0.2211134135723114,
      1.1685612201690674,
      1.046899676322937,
      0.9694700837135315,
      -0.3684464693069458,
      -2.1344168186187744,
      0.6300842761993408,
      -0.4218762516975403,
      -0.8768045902252197,
      -0.09277777373790741,
      1.8949605226516724,
      -0.6784979104995728,
      0.2743225693702698,
      0.8554627299308777,
      -0.09765568375587463,
      1.5366158485412598,
      0.33148276805877686,
      -0.7033500075340271
    ],
    [
      0.26789891719818115,
      -0.349500834941864,
      0.4218912720680237,
      -0.637702465057373,
      0.2543489933013916,
      0.3714030683040619,
      0.002829383360221982,
      -1.2726062536239624,
      0.7247692346572876,
      -1.5818840265274048,
      0.0625794306397438,
      -0.07214643061161041,
      -0.39948391914367676,
      0.87845778465271,
      -0.7456333637237549,
      0.1552613228559494,
      1.3001759052276611,
      -0.2551696300506592,
      -0.37282273173332214,
      1.0327842235565186,
      -0.427249550819397,
      -1.3207602500915527,
      -1.7323086261749268,
      -0.6118434071540833
    ],
    [
      -1.437119722366333,
      1.1452933549880981,
      1.3142497539520264,
      -0.17597773671150208,
      1.693351149559021,
      0.14878959953784943,
      -0.2789219319820404,
      0.6914816498756409,
      -0.9766791462898254,
      0.21419353783130646,
      -0.09908415377140045,
      0.22580434381961823,
      -0.6592802405357361,
      -1.2690422534942627,
      -2.742006540298462,
      1.1685494184494019,
      0.4595346450805664,
      1.396283507347107,
      -1.1945804357528687,
      -1.1327334642410278,
      -0.03806541860103607,
      0.4290706217288971,
      -0.8543208837509155,
      0.42891576886177063
    ],
    [
      -0.44238442182540894,
      -0.22695577144622803,
      -0.895223081111908,
      1.3768236637115479,
      -0.16520826518535614,
      0.7417359948158264,
      0.6763800978660583,
      -0.338577002286911,
      -0.6423248052597046,
      0.7129433155059814,
      0.0017763585783541203,
      -0.3958154320716858,
      0.8819589614868164,
      -0.9577646255493164,
      0.21233949065208435,
      0.6694607734680176,
      -1.6102380752563477,
      -0.14035625755786896,
      -2.0431342124938965,
      0.21137116849422455,
      -1.2476922273635864,
      0.030491845682263374,
      0.36247217655181885,
      1.2117732763290405
    ],
    [
      -0.22907038033008575,
      -0.5536465644836426,
      0.7376815676689148,
      0.14137539267539978,
      0.9162510633468628,
      0.6421164870262146,
      0.07233211398124695,
      -0.7269988059997559,
      -0.08343248814344406,
      -0.007654601242393255,
      -0.6950109004974365,
      0.7090134024620056,
      -0.38302522897720337,
      0.8700513243675232,
      -0.13872110843658447,
      0.17101936042308807,
      1.6177935600280762,
      1.1788638830184937,
      0.1138773187994957,
      -1.1123148202896118,
      1.0708438158035278,
      -1.2065283060073853,
      0.03856481984257698,
      -0.1323215663433075
    ],
    [
      -1.2579773664474487,
      0.6827462911605835,
      -0.6982733607292175,
      -0.8340827822685242,
      1.438992977142334,
      0.3761163651943207,
      -0.5224817991256714,
      0.6565427780151367,
      0.9863442778587341,
      1.2142369747161865,
      -0.8376362919807434,
      0.1821967512369156,
      -0.7780598998069763,
      0.251904159784317,
      -0.8834890127182007,
      -0.6150999665260315,
      0.2823490500450134,
      0.20011678338050842,
      1.88456130027771,
      1.4008573293685913,
      0.19110241532325745,
      -0.7023727893829346,
      -0.4094095230102539,
      -1.3928154706954956
    ],
    [
      1.0564895868301392,
      -0.2829769551753998,
      0.05967085808515549,
      -0.4110207259654999,
      0.42671629786491394,
      0.652270495891571,
      0.5546675324440002,
      -0.7695708870887756,
      2.273348331451416,
      0.005151774734258652,
      0.6626313924789429,
      0.207352876663208,
      2.003352403640747,
      0.4705539047718048,
      2.1826894283294678,
      0.07668289542198181,
      0.7072982788085938,
      -1.5621590614318848,
      -1.3140735626220703,
      0.2965044379234314,
      0.06996292620897293,
      -0.058081891387701035,
      -0.9442253112792969,
      0.22730021178722382
    ],
    [
      -0.04061632603406906,
      -0.20125812292099,
      -0.693787693977356,
      1.131404161453247,
      0.3722494840621948,
      1.0935554504394531,
      0.891473114490509,
      1.0454204082489014,
      -1.2243856191635132,
      0.2537755072116852,
      -0.27871230244636536,
      0.5983220338821411,
      0.30839553475379944,
      -0.6957417130470276,
      -0.10416094213724136,
      1.5259701013565063,
      -2.0533840656280518,
      -1.1749964952468872,
      -1.4581044912338257,
      -0.24495965242385864,
      -1.7585381269454956,
      -0.5287961959838867,
      1.121104121208191,
      0.4662122130393982
    ],
    [
      0.6254209876060486,
      -0.5734917521476746,
      -0.7629270553588867,
      0.44855034351348877,
      0.22465945780277252,
      -0.697877824306488,
      1.4369770288467407,
      0.2336517572402954,
      0.7812331914901733,
      -0.700323760509491,
      0.5340327620506287,
      -0.680691123008728,
      -1.5326557159423828,
      0.4131505489349365,
      -0.3162606656551361,
      -0.5275649428367615,
      0.17897039651870728,
      -0.48507165908813477,
      1.7399550676345825,
      0.4037243127822876,
      0.0704563707113266,
      -0.5907869338989258,
      0.18696269392967224,
      -1.3792306184768677
    ],
    [
      -0.9471781849861145,
      1.1880189180374146,
      0.2963399887084961,
      0.7318453192710876,
      -0.559137761592865,
      -0.14900150895118713,
      3.6672805435955524e-05,
      -0.4040827453136444,
      -1.2312458753585815,
      -0.3116540312767029,
      -0.7458595633506775,
      -0.6834964752197266,
      0.12705117464065552,
      -0.44432833790779114,
      1.6904302835464478,
      -2.098193883895874,
      0.041564252227544785,
      -1.3985410928726196,
      0.04165276139974594,
      1.0440232753753662,
      0.1761152446269989,
      -0.5671303272247314,
      -0.01393126416951418,
      -0.0011528620962053537
    ],
    [
      0.5027216672897339,
      0.03789443522691727,
      -0.572252094745636,
      0.03399549797177315,
      -0.2916034758090973,
      -0.1287859082221985,
      1.5932111740112305,
      0.5555570125579834,
      0.7930936217308044,
      2.2712435722351074,
      0.6151233911514282,
      1.4851651191711426,
      0.39538654685020447,
      -0.7762523889541626,
      -0.4959714412689209,
      -1.6216702461242676,
      -1.1036635637283325,
      -0.17061403393745422,
      0.3148699104785919,
      1.526281714439392,
      -1.89609956741333,
      0.41169247031211853,
      -0.7284601330757141,
      -1.6085717678070068
    ],
    [
      -0.19751538336277008,
      -0.6626946926116943,
      -1.658968210220337,
      -0.41602832078933716,
      -0.6571596264839172,
      0.35143351554870605,
      -0.9343472123146057,
      -0.21402209997177124,
      -0.28668317198753357,
      0.495609849691391,
      0.40193235874176025,
      1.1122616529464722,
      1.2396254539489746,
      0.5205807089805603,
      -0.5776792764663696,
      0.5156523585319519,
      -1.3577700853347778,
      1.9888312816619873,
      -1.1435790061950684,
      -0.5303623676300049,
      -0.03125350549817085,
      0.5238032341003418,
      0.4300549626350403,
      -0.674462080001831
    ],
    [
      0.35775676369667053,
      -0.1247553676366806,
      1.3547115325927734,
      0.5892649292945862,
      -1.6638189554214478,
      0.24361929297447205,
      0.42940521240234375,
      1.0829187631607056,
      -0.2169104367494583,
      -0.7021389603614807,
      1.0795449018478394,
      0.3251073956489563,
      -0.3378233313560486,
      -0.07716669887304306,
      -0.7494990229606628,
      0.3387521505355835,
      -0.2701587378978729,
      0.3384894132614136,
      0.17138360440731049,
      -0.8497069478034973,
      -1.7203892469406128,
      0.5868656635284424,
      -0.406206876039505,
      -0.7833247780799866
    ],
    [
      -0.5177594423294067,
      -0.3606696128845215,
      1.1677467823028564,
      -0.43143701553344727,
      -0.21451273560523987,
      1.815680742263794,
      0.32216891646385193,
      0.07286036014556885,
      -0.950335681438446,
      -0.20030063390731812,
      1.1960619688034058,
      -0.06021172180771828,
      -0.7445056438446045,
      0.6271737217903137,
      0.8491663932800293,
      0.924498438835144,
      0.4883461594581604,
      -1.9555493593215942,
      -1.5620962381362915,
      0.19532054662704468,
      -1.9179941415786743,
      -1.187071442604065,
      0.5643554329872131,
      -0.062306277453899384
    ],
    [
      1.5319699048995972,
      1.525308609008789,
      1.3618894815444946,
      -1.4883524179458618,
      0.8336864709854126,
      -1.0635850429534912,
      -0.24064821004867554,
      -0.043417226523160934,
      -0.5238853096961975,
      -0.9284276366233826,
      0.6109012365341187,
      -0.12200717628002167,
      1.3657524585723877,
      -0.5953847169876099,
      1.1329435110092163,
      -0.6270292401313782,
      0.2065373659133911,
      -0.12451737374067307,
      0.24184700846672058,
      -0.027057871222496033,
      0.31874167919158936,
      -0.47172677516937256,
      0.9683273434638977,
      0.3840029239654541
    ],
    [
      0.08803994953632355,
      0.30888134241104126,
      -0.00534600205719471,
      -0.7424103021621704,
      0.22574158012866974,
      -0.22718411684036255,
      0.2176104187965393,
      -0.9840875864028931,
      -1.179658055305481,
      0.9046655893325806,
      -1.116079330444336,
      0.622011125087738,
      -0.975709855556488,
      1.4080455303192139,
      0.46456578373908997,
      -0.009008409455418587,
      0.6511896848678589,
      1.604278326034546,
      -0.9336528778076172,
      0.08926188945770264,
      0.5913009643554688,
      -0.8604707717895508,
      -0.8768735527992249,
      1.2425720691680908
    ],
    [
      -0.2992740571498871,
      0.2603773772716522,
      0.5698663592338562,
      0.4264758229255676,
      0.17139460146427155,
      0.25223541259765625,
      0.9551120400428772,
      -1.0828605890274048,
      1.1397868394851685,
      0.004388128407299519,
      -0.18961971998214722,
      -0.03100934810936451,
      -1.0572001934051514,
      0.23787087202072144,
      0.7997235059738159,
      -1.406101107597351,
      1.3089624643325806,
      -0.29872748255729675,
      0.9279764294624329,
      -0.10839580744504929,
      -1.3811858892440796,
      -0.6284932494163513,
      -1.6361947059631348,
      -0.09257425367832184
    ],
    [
      0.17692366242408752,
      0.14347603917121887,
      0.3910444378852844,
      0.8231135606765747,
      -0.8640512824058533,
      -0.015104778110980988,
      -0.43567779660224915,
      -1.8757516145706177,
      0.6683929562568665,
      0.675117015838623,
      0.892754077911377,
      1.043544888496399,
      0.40383297204971313,
      -1.5978378057479858,
      0.9999266266822815,
      -0.013886558823287487,
      0.4162155091762543,
      0.517113208770752,
      0.9409549832344055,
      -1.5188714265823364,
      0.6060105562210083,
      0.935598611831665,
      0.1829914152622223,
      -1.6882144212722778
    ],
    [
      1.343047022819519,
      0.723053514957428,
      -1.5745700597763062,
      -0.06046172231435776,
      0.7177971005439758,
      -0.264091432094574,
      1.1761178970336914,
      0.07661445438861847,
      -0.8114582300186157,
      -1.3072915077209473,
      -0.22609065473079681,
      0.7739192247390747,
      -0.862127423286438,
      0.7230623364448547,
      1.4347662925720215,
      -0.43948814272880554,
      0.8242485523223877,
      -2.4116320610046387,
      -1.1616308689117432,
      -0.31676042079925537,
      0.3784978687763214,
      0.22268825769424438,
      0.18345528841018677,
      1.0821243524551392
    ],
    [
      0.8548259735107422,
      -0.709763765335083,
      0.7589880228042603,
      -1.5598514080047607,
      -0.5025129318237305,
      -1.5414942502975464,
      0.5190821886062622,
      -0.9806154370307922,
      -0.1285235583782196,
      -1.5388517379760742,
      2.0258548259735107,
      0.17676596343517303,
      1.636797308921814,
      -1.6078730821609497,
      -1.32191002368927,
      1.6100873947143555,
      0.9079232811927795,
      -0.9814141392707825,
      0.01943141035735607,
      1.3006556034088135,
      0.8538222312927246,
      -0.5246339440345764,
      0.034643977880477905,
      -0.9791312217712402
    ],
    [
      0.017992762848734856,
      0.0531233474612236,
      0.2927251160144806,
      0.07361074537038803,
      -2.1060595512390137,
      -1.0844024419784546,
      -0.37384551763534546,
      0.354155570268631,
      -0.07736456394195557,
      -0.15053313970565796,
      0.43047958612442017,
      -0.15227927267551422,
      0.11192557960748672,
      0.17170490324497223,
      -0.8375764489173889,
      2.103752374649048,
      0.3307243883609772,
      0.9859396815299988,
      -1.487172245979309,
      0.5107455253601074,
      0.8155197501182556,
      0.9926176071166992,
      1.02056884765625,
      -0.23028694093227386
    ],
    [
      0.5001938343048096,
      -0.8783281445503235,
      0.663837194442749,
      -0.02959439530968666,
      1.703356146812439,
      0.4363529086112976,
      0.6801972985267639,
      -1.2901380062103271,
      0.6765139698982239,
      -0.9355919361114502,
      0.07620128244161606,
      1.445120096206665,
      -0.058152493089437485,
      0.20541587471961975,
      1.2202202081680298,
      -1.2859492301940918,
      -0.10176654160022736,
      -0.6009305119514465,
      -0.5591326951980591,
      1.9452022314071655,
      -1.0144635438919067,
      -0.70351243019104,
      -0.9704789519309998,
      -0.35630980134010315
    ],
    [
      -1.3836573362350464,
      1.699139952659607,
      -1.5055245161056519,
      -0.032638952136039734,
      0.45763254165649414,
      -0.6265661716461182,
      1.59717857837677,
      1.1184608936309814,
      -1.1603608131408691,
      1.499205470085144,
      0.678624153137207,
      0.5714067220687866,
      -2.1974830627441406,
      0.9643282294273376,
      0.8137746453285217,
      1.4379842281341553,
      -1.947594165802002,
      0.431302934885025,
      0.3814660310745239,
      0.8961546421051025,
      0.0933871641755104,
      -0.2891862392425537,
      -0.7319154143333435,
      0.6203214526176453
    ],
    [
      -0.8215832114219666,
      -1.5317293405532837,
      -0.09666551649570465,
      0.7571776509284973,
      1.007340431213379,
      -0.16545182466506958,
      0.2677661180496216,
      -1.0342562198638916,
      -0.4102568030357361,
      0.40478062629699707,
      -0.3708668351173401,
      1.042159914970398,
      -0.45599785447120667,
      0.6492162942886353,
      0.08700335025787354,
      0.473450630903244,
      0.9680891036987305,
      -0.688723087310791,
      -0.551636278629303,
      -0.44914424419403076,
      0.5680909752845764,
      -0.5113595128059387,
      0.42943501472473145,
      0.12738093733787537
    ],
    [
      1.4923123121261597,
      -0.7981246113777161,
      -0.32696571946144104,
      -1.981105923652649,
      0.7429893612861633,
      1.2807146310806274,
      0.63581782579422,
      1.147765040397644,
      -0.0557703822851181,
      0.17898356914520264,
      0.6038371920585632,
      -1.1485704183578491,
      -0.7307882905006409,
      -0.677112340927124,
      0.14587874710559845,
      1.3548327684402466,
      0.13237448036670685,
      -1.5124303102493286,
      -0.07788028568029404,
      0.04886890947818756,
      0.11639027297496796,
      -0.3058202862739563,
      0.5137771368026733,
      -1.3596856594085693
    ],
    [
      -1.090911626815796,
      -0.3614600598812103,
      -1.0394182205200195,
      -0.6634758114814758,
      0.6872184872627258,
      -0.21800048649311066,
      -0.12457200884819031,
      0.9318780303001404,
      0.4451886713504791,
      0.6108881235122681,
      0.579352080821991,
      -1.0887746810913086,
      -0.8291028738021851,
      1.0059603452682495,
      1.0749424695968628,
      -0.7681422829627991,
      0.23987925052642822,
      -0.8781219124794006,
      -0.6027980446815491,
      0.2003020942211151,
      1.1921017169952393,
      0.4040270447731018,
      -0.7617029547691345,
      -0.9903412461280823
    ],
    [
      0.6676006317138672,
      1.7267462015151978,
      0.7332443594932556,
      -1.325608730316162,
      -1.0571107864379883,
      0.8744944334030151,
      -0.03737230598926544,
      0.8461843132972717,
      -0.29538965225219727,
      0.7321870923042297,
      -1.8976187705993652,
      -1.4123077392578125,
      1.441536784172058,
      -0.21287813782691956,
      1.1370418071746826,
      -0.2977646291255951,
      -1.6106789112091064,
      -1.2977409362792969,
      -0.48034149408340454,
      0.12489796429872513,
      -0.9107562899589539,
      -0.2157503217458725,
      1.6262080669403076,
      0.6445021629333496
    ],
    [
      0.49298012256622314,
      -1.5082190036773682,
      0.22373849153518677,
      -0.8874462246894836,
      0.5535680651664734,
      1.577290654182434,
      -0.7262570858001709,
      0.2614470422267914,
      -0.5487471222877502,
      -0.30087581276893616,
      -0.49788615107536316,
      0.9051000475883484,
      -0.35693320631980896,
      0.7598617672920227,
      -0.9362072944641113,
      -0.3532773554325104,
      -0.2930903136730194,
      0.07416752725839615,
      -0.4816409945487976,
      0.46563923358917236,
      0.14128561317920685,
      -0.04629453271627426,
      -0.8694907426834106,
      0.6282240748405457
    ],
    [
      -0.5537661910057068,
      1.6782641410827637,
      0.10857555270195007,
      -0.12081782519817352,
      -1.59213387966156,
      0.04929224029183388,
      -0.6580612063407898,
      0.07275524735450745,
      0.11688335984945297,
      -0.4978809654712677,
      -0.9338511228561401,
      0.3677762746810913,
      0.6726703643798828,
      -0.7896572351455688,
      0.6111634373664856,
      1.9209377765655518,
      -1.6476365327835083,
      0.892409086227417,
      -1.2668336629867554,
      0.5942400097846985,
      -0.8107209205627441,
      0.3427298069000244,
      1.5403422117233276,
      -0.7473625540733337
    ],
    [
      -0.09722194820642471,
      -0.31680062413215637,
      0.5820786356925964,
      1.058679223060608,
      0.09853776544332504,
      -0.3690321445465088,
      -0.4441992938518524,
      1.8754035234451294,
      -1.0885909795761108,
      0.7256703972816467,
      -1.785443663597107,
      0.4664251208305359,
      0.8466500043869019,
      -0.7700083255767822,
      0.6458848714828491,
      0.3879832625389099,
      -0.6570029854774475,
      -0.6038138270378113,
      1.4304686784744263,
      0.2832173705101013,
      0.46533724665641785,
      -0.41119274497032166,
      0.8810304403305054,
      -0.4395577907562256
    ],
    [
      -0.4544645845890045,
      -0.8583433628082275,
      -0.536602258682251,
      0.1424812376499176,
      -0.017587101086974144,
      0.10220126807689667,
      0.03107476606965065,
      -1.1747294664382935,
      -0.17386291921138763,
      -0.10925111919641495,
      -0.5047588348388672,
      -0.12657350301742554,
      -0.624098539352417,
      0.9557712078094482,
      -0.7397079467773438,
      -0.05716222897171974,
      1.0866155624389648,
      0.37840530276298523,
      -0.604219913482666,
      -0.6472187638282776,
      0.6136845946311951,
      -0.2975016236305237,
      -1.0034573078155518,
      0.2227708250284195
    ],
    [
      0.1714167445898056,
      0.6751792430877686,
      2.5740482807159424,
      -1.554545283317566,
      -0.9653176069259644,
      -1.12473726272583,
      0.9828273057937622,
      -1.3333145380020142,
      1.1036715507507324,
      -0.15329554677009583,
      -0.017071466892957687,
      1.1137373447418213,
      -2.4857778549194336,
      0.9000399708747864,
      0.6253432035446167,
      -1.1958165168762207,
      0.4346562922000885,
      1.3204745054244995,
      0.22183939814567566,
      -1.0513577461242676,
      -0.5511899590492249,
      0.5584390759468079,
      1.505872130393982,
      -0.9891114830970764
    ],
    [
      -1.0130704641342163,
      -0.7995250821113586,
      1.7613784074783325,
      0.4785998463630676,
      0.2779463827610016,
      0.3378283679485321,
      -1.3990648984909058,
      -0.3259056806564331,
      -0.8266790509223938,
      -0.6551020741462708,
      0.6796891689300537,
      -0.1864410936832428,
      -0.23026561737060547,
      0.10550489276647568,
      1.0028525590896606,
      -0.3366262912750244,
      0.291537344455719,
      0.4354313611984253,
      -1.1818886995315552,
      -0.12045402079820633,
      -0.092313751578331,
      0.037129372358322144,
      0.9369156360626221,
      -0.7009948492050171
    ],
    [
      0.40767449140548706,
      -1.1416864395141602,
      -0.6120826005935669,
      -1.0803132057189941,
      -0.05813988670706749,
      0.4969301223754883,
      -0.4861505925655365,
      -0.616973340511322,
      1.0515687465667725,
      -1.228386640548706,
      0.15072281658649445,
      1.0162526369094849,
      -0.236103355884552,
      1.5125045776367188,
      -0.8291033506393433,
      0.014432210475206375,
      1.6483359336853027,
      -0.3563480079174042,
      0.29740092158317566,
      0.14761470258235931,
      -0.07522093504667282,
      -0.38024967908859253,
      -1.081510066986084,
      0.6896613836288452
    ],
    [
      -0.018336381763219833,
      -2.0986745357513428,
      -0.28385573625564575,
      0.3108493685722351,
      -0.02718617580831051,
      1.4640611410140991,
      1.073131799697876,
      0.8873493671417236,
      0.8137580752372742,
      -0.4412851929664612,
      0.05347161367535591,
      -1.2693898677825928,
      -0.435225248336792,
      0.11340635269880295,
      -0.34891918301582336,
      -0.3829468786716461,
      0.05050678178668022,
      -1.3364553451538086,
      0.06540972739458084,
      1.6003928184509277,
      1.5019621849060059,
      -0.0931946337223053,
      -0.5293176770210266,
      -1.1270917654037476
    ],
    [
      -1.0932430028915405,
      -0.1710272878408432,
      -0.5903456807136536,
      0.0012882708106189966,
      -0.46606627106666565,
      1.465340256690979,
      -1.162180781364441,
      0.5820299386978149,
      -1.6670713424682617,
      0.42896121740341187,
      1.9217000007629395,
      0.04364216327667236,
      0.027808427810668945,
      -0.49135351181030273,
      -0.9840505719184875,
      0.9295809268951416,
      0.3460879325866699,
      -1.0974605083465576,
      -0.06093355268239975,
      0.6126502156257629,
      -0.6188340187072754,
      -0.420916885137558,
      0.7459650635719299,
      -1.3904290199279785
    ],
    [
      -0.6009003520011902,
      -1.1170415878295898,
      -0.2999764680862427,
      0.10524912923574448,
      0.08783252537250519,
      0.9989273548126221,
      -0.2738386392593384,
      -0.20590099692344666,
      -0.8910368084907532,
      0.9869822859764099,
      -0.01723496988415718,
      -0.15912754833698273,
      -0.23065540194511414,
      1.6909828186035156,
      -0.027354707941412926,
      1.688797950744629,
      -0.1384705901145935,
      0.14990966022014618,
      0.6547752022743225,
      -0.9267041087150574,
      -1.2131918668746948,
      0.1321832239627838,
      0.36114147305488586,
      -1.5933046340942383
    ],
    [
      0.03356151655316353,
      1.3494772911071777,
      -0.1153048723936081,
      1.8465826511383057,
      -0.4798872768878937,
      0.4972836375236511,
      -0.6443063020706177,
      1.2922532558441162,
      0.14157293736934662,
      1.070716142654419,
      -0.7584211826324463,
      0.0947856605052948,
      -0.7505059838294983,
      -1.793864130973816,
      -0.49661558866500854,
      -1.7523969411849976,
      -0.012231183238327503,
      0.6587221026420593,
      -0.71056067943573,
      -0.8695694804191589,
      1.0918471813201904,
      -1.3773287534713745,
      0.44055670499801636,
      0.36004558205604553
    ],
    [
      1.0853279829025269,
      0.1286139041185379,
      1.4468576908111572,
      0.5374206900596619,
      0.45763665437698364,
      0.792239248752594,
      1.1823716163635254,
      -1.0104597806930542,
      2.2213222980499268,
      1.1234837770462036,
      0.47733020782470703,
      -0.35918518900871277,
      -0.4551122486591339,
      -1.5085145235061646,
      0.85158371925354,
      0.7230070233345032,
      -1.5029233694076538,
      -1.4893357753753662,
      -0.6874161958694458,
      -0.6429899334907532,
      -1.0318289995193481,
      -0.09062448143959045,
      1.3468365669250488,
      -1.159407615661621
    ],
    [
      -1.2350727319717407,
      -0.34405049681663513,
      -0.780792772769928,
      -0.26000574231147766,
      1.5266406536102295,
      0.9946509599685669,
      0.42251092195510864,
      0.135830357670784,
      -0.9449439644813538,
      0.8761091232299805,
      -0.14513228833675385,
      1.1488497257232666,
      -0.3741450309753418,
      0.2643599510192871,
      -0.23182827234268188,
      0.38626164197921753,
      1.7793385982513428,
      0.7451579570770264,
      -0.9148582220077515,
      -0.7529147267341614,
      0.4256044924259186,
      -0.7906545996665955,
      0.21452438831329346,
      2.152902603149414
    ],
    [
      1.0433427095413208,
      -0.8930796980857849,
      1.4303405284881592,
      0.7453247904777527,
      0.4574119448661804,
      -0.8498971462249756,
      0.31192758679389954,
      -1.473509430885315,
      -1.055373191833496,
      -0.03641226515173912,
      -1.418335199356079,
      1.4525521993637085,
      0.09489021450281143,
      1.3339693546295166,
      0.7850184440612793,
      0.26240938901901245,
      0.17120401561260223,
      0.6132071614265442,
      -0.539631724357605,
      -1.1269077062606812,
      1.0069321393966675,
      0.12657688558101654,
      -0.5020027756690979,
      1.0122981071472168
    ],
    [
      1.0242129564285278,
      -0.47663283348083496,
      -0.5413116812705994,
      -0.5745093822479248,
      0.18994420766830444,
      0.3150656223297119,
      -1.3633605241775513,
      0.21821734309196472,
      0.22171922028064728,
      -0.09220928698778152,
      0.7401875853538513,
      -1.3427685499191284,
      0.12054907530546188,
      0.11671886593103409,
      0.49877074360847473,
      -0.16889704763889313,
      0.7741027474403381,
      0.5764904022216797,
      -1.3566261529922485,
      -0.13669195771217346,
      -0.5227007865905762,
      2.5150763988494873,
      0.33024346828460693,
      -0.001499829231761396
    ],
    [
      -0.614630937576294,
      1.917244791984558,
      -0.42105817794799805,
      0.46318745613098145,
      0.5297237038612366,
      0.3706299662590027,
      1.6066044569015503,
      1.1003669500350952,
      -0.5604220032691956,
      -0.04120640084147453,
      -0.884149432182312,
      -0.32374128699302673,
      -1.4331332445144653,
      0.27760738134384155,
      1.4088190793991089,
      1.4121119976043701,
      -0.4462619721889496,
      -0.23498909175395966,
      -1.3348321914672852,
      -0.15131664276123047,
      1.382338047027588,
      0.2169250100851059,
      -1.9410812854766846,
      -0.9110517501831055
    ],
    [
      0.5367483496665955,
      -0.2758054733276367,
      -1.0983275175094604,
      -0.5379605293273926,
      0.15365521609783173,
      0.5927473902702332,
      -0.6784968376159668,
      -2.0709311962127686,
      2.803354263305664,
      -1.08302640914917,
      -0.6443665623664856,
      1.3762879371643066,
      0.7910074591636658,
      0.06064556911587715,
      -0.8052992820739746,
      0.31984254717826843,
      1.307673692703247,
      -0.3682505190372467,
      -0.7321956157684326,
      0.19710268080234528,
      0.84429532289505,
      0.10154315829277039,
      -0.2233281433582306,
      1.1086963415145874
    ],
    [
      -0.204486683011055,
      0.15617325901985168,
      -0.5641497373580933,
      -0.23352845013141632,
      -0.14144708216190338,
      -1.048291563987732,
      1.643813967704773,
      -0.4721316695213318,
      1.4569979906082153,
      1.274558424949646,
      0.22323830425739288,
      -1.2784353494644165,
      0.5362117886543274,
      -0.862575888633728,
      -1.3269089460372925,
      -0.5810336470603943,
      -0.7375898957252502,
      -0.5230358242988586,
      2.2244420051574707,
      -0.7216928005218506,
      0.6697818636894226,
      0.36957478523254395,
      -0.8632625937461853,
      -1.165079116821289
    ],
    [
      -0.10801377147436142,
      1.2435355186462402,
      0.6912914514541626,
      -1.2075936794281006,
      1.287194848060608,
      -0.3677452504634857,
      0.5726453065872192,
      1.6300930976867676,
      0.01705179736018181,
      -1.4737017154693604,
      0.1325659602880478,
      0.20446594059467316,
      -0.7312731742858887,
      -0.16778111457824707,
      0.641461193561554,
      -0.6099074482917786,
      1.1017848253250122,
      0.33907845616340637,
      -0.2269202470779419,
      -0.8068848252296448,
      -0.24022699892520905,
      -0.08934658765792847,
      -0.5417531132698059,
      -0.7181779146194458
    ],
    [
      1.518369197845459,
      -0.24329480528831482,
      0.080963134765625,
      -1.1248105764389038,
      -0.5199850797653198,
      -0.26087409257888794,
      -1.0878621339797974,
      -0.758470356464386,
      0.546114981174469,
      0.6927384734153748,
      0.46232014894485474,
      -0.7857986092567444,
      0.832661509513855,
      -1.138543963432312,
      -0.2346930056810379,
      -1.5060412883758545,
      1.108931541442871,
      -0.8686855435371399,
      1.8296899795532227,
      0.31584519147872925,
      1.8783766031265259,
      1.0902233123779297,
      -0.5407836437225342,
      -0.6141186952590942
    ],
    [
      -0.42461472749710083,
      -0.3008754849433899,
      0.8480720520019531,
      -0.2730148434638977,
      1.1080392599105835,
      0.18292221426963806,
      -0.15809965133666992,
      -0.0718233659863472,
      -0.4000270962715149,
      -0.021485159173607826,
      -0.5585514307022095,
      0.45791515707969666,
      0.988145649433136,
      0.4747832119464874,
      -0.5787261128425598,
      -0.8418086171150208,
      1.0272389650344849,
      -0.6015937924385071,
      -0.30915364623069763,
      -0.5742372870445251,
      0.7280405759811401,
      -0.3232804238796234,
      -1.0529530048370361,
      1.0286803245544434
    ],
    [
      0.37479710578918457,
      0.7021285891532898,
      2.5024831295013428,
      -0.49869462847709656,
      -1.1661491394042969,
      1.591729760169983,
      -0.18725453317165375,
      -1.0945531129837036,
      0.7560755610466003,
      1.0406317710876465,
      -0.194933220744133,
      -0.371672660112381,
      -0.6695829033851624,
      -0.8023055195808411,
      0.7658780813217163,
      0.5202345252037048,
      0.0038506800774484873,
      -0.9272220730781555,
      -0.4184902012348175,
      -0.02983814664185047,
      -0.889241635799408,
      -1.1571662425994873,
      1.2978532314300537,
      -0.08968508243560791
    ],
    [
      0.46045738458633423,
      -0.7131358981132507,
      0.23301739990711212,
      0.4535142779350281,
      -0.3080123960971832,
      1.2546347379684448,
      -0.37142443656921387,
      -0.8975895643234253,
      1.304692029953003,
      -0.8291860222816467,
      0.5603678822517395,
      1.1992204189300537,
      -0.312017560005188,
      0.3553209602832794,
      -1.0842763185501099,
      -0.08000226318836212,
      1.0082602500915527,
      -0.14998620748519897,
      0.3644043505191803,
      0.3640602231025696,
      -0.150412455201149,
      -1.606432557106018,
      0.640964686870575,
      0.8795267939567566
    ],
    [
      -0.0002696643059607595,
      0.651460587978363,
      0.5465846061706543,
      1.2454359531402588,
      -0.7970120906829834,
      -1.2456822395324707,
      -0.6905552744865417,
      0.34083813428878784,
      -0.17715272307395935,
      0.7208520770072937,
      -0.5272521376609802,
      -0.8446003198623657,
      0.9034485816955566,
      -0.10759365558624268,
      -0.0716482549905777,
      1.9432871341705322,
      -0.9290605783462524,
      -0.07550341635942459,
      0.9694309830665588,
      -0.930806577205658,
      -0.8990863561630249,
      0.9782288074493408,
      0.21192367374897003,
      -0.49609798192977905
    ],
    [
      0.192835733294487,
      -0.24197238683700562,
      -0.032262641936540604,
      -0.44672834873199463,
      -1.8728013038635254,
      -0.6334962844848633,
      0.4421735405921936,
      0.7417172789573669,
      -0.028888629749417305,
      -0.26975178718566895,
      -1.5879268646240234,
      -2.5661864280700684,
      -0.3135018050670624,
      0.09904733300209045,
      0.9511288404464722,
      -0.49848759174346924,
      1.7793583869934082,
      0.16177409887313843,
      1.4809802770614624,
      -1.0480868816375732,
      -0.735794186592102,
      -1.7899465560913086,
      0.2388984113931656,
      0.006513700354844332
    ],
    [
      -0.5577652454376221,
      -1.085604190826416,
      -0.04788946360349655,
      -0.6483341455459595,
      0.015974177047610283,
      0.5881887078285217,
      0.2207954078912735,
      -0.8601242303848267,
      -0.364132285118103,
      0.524544358253479,
      0.33996614813804626,
      -0.9081559777259827,
      0.32628437876701355,
      1.1742595434188843,
      0.04788753390312195,
      -0.12828396260738373,
      0.7248050570487976,
      -0.13224658370018005,
      -0.02874787151813507,
      0.6875459551811218,
      -0.34928178787231445,
      0.2012147605419159,
      -0.680219829082489,
      -0.24263523519039154
    ],
    [
      1.4050326347351074,
      -0.30363133549690247,
      0.06825172156095505,
      0.2057119458913803,
      0.7507023811340332,
      1.4158775806427002,
      0.4187978506088257,
      -0.46625620126724243,
      -0.4525749385356903,
      -0.8523327708244324,
      -2.128018856048584,
      0.04514345899224281,
      -1.3954447507858276,
      0.3646787703037262,
      0.5930302143096924,
      0.08845200389623642,
      0.9783441424369812,
      -1.2574068307876587,
      -0.12120688706636429,
      0.013359869830310345,
      -0.7987063527107239,
      -0.11840561777353287,
      0.21374964714050293,
      0.43303442001342773
    ],
    [
      1.8792436122894287,
      0.6201192140579224,
      -0.17859065532684326,
      1.1391479969024658,
      -0.9333433508872986,
      0.3353049159049988,
      -0.5282689332962036,
      -0.09740515053272247,
      1.7177473306655884,
      -0.7104259133338928,
      -0.9206605553627014,
      1.5168489217758179,
      -1.4450969696044922,
      -0.43101510405540466,
      -0.4889906346797943,
      -0.9139522910118103,
      0.710645854473114,
      -0.32146018743515015,
      -0.010595693252980709,
      -0.9415349960327148,
      0.0016591295134276152,
      -0.0243851225823164,
      0.7189452052116394,
      0.1908010095357895
    ],
    [
      -1.3659707307815552,
      -0.8754336833953857,
      -0.2257447987794876,
      1.064825177192688,
      1.6428813934326172,
      0.07237125933170319,
      -1.2204538583755493,
      -1.7852736711502075,
      -0.3907041847705841,
      0.513739287853241,
      0.7242246866226196,
      0.38639506697654724,
      -0.08022059500217438,
      -0.8655121326446533,
      0.2710876762866974,
      -0.9696828722953796,
      1.9182130098342896,
      0.5118392705917358,
      -0.7871569395065308,
      -0.5872601270675659,
      0.8652237057685852,
      1.3944791555404663,
      1.240454077720642,
      -1.5680088996887207
    ],
    [
      0.8371970653533936,
      0.1436457633972168,
      -1.4233607053756714,
      1.5214588642120361,
      -0.39963456988334656,
      -0.19969792664051056,
      1.113856554031372,
      0.46364137530326843,
      -0.22851671278476715,
      0.873788058757782,
      -0.5406391024589539,
      0.46790263056755066,
      -0.6727704405784607,
      -0.33360278606414795,
      -0.8164950013160706,
      -0.7451615929603577,
      0.0063613178208470345,
      -1.3544261455535889,
      0.9577231407165527,
      0.44369223713874817,
      0.7769219279289246,
      0.15820002555847168,
      0.07426463812589645,
      -1.8177521228790283
    ],
    [
      0.038487471640110016,
      1.1272852420806885,
      -1.181193470954895,
      -0.19609086215496063,
      1.4103586673736572,
      -0.001865785219706595,
      -0.8290219902992249,
      -0.3884994089603424,
      0.007003167178481817,
      -0.7958427667617798,
      1.0951670408248901,
      0.9854134917259216,
      -0.892189621925354,
      -0.006057455204427242,
      -0.47423985600471497,
      -0.5816022753715515,
      -0.22044634819030762,
      -1.209614634513855,
      -1.22222101688385,
      0.7247849702835083,
      -0.9628713726997375,
      0.06830669194459915,
      -0.3882734775543213,
      0.6733430027961731
    ],
    [
      0.3707127571105957,
      -0.5096122622489929,
      -2.336357355117798,
      -0.654819905757904,
      -1.5023882389068604,
      -0.614324152469635,
      0.398812860250473,
      0.1741521805524826,
      -0.5681080222129822,
      -1.7658237218856812,
      -0.2117002159357071,
      0.8388620018959045,
      0.1162634789943695,
      1.131719708442688,
      -1.1767961978912354,
      -1.0101513862609863,
      1.5787626504898071,
      0.15212377905845642,
      0.04702345281839371,
      1.4671450853347778,
      -0.31270626187324524,
      0.3255962133407593,
      0.7419753074645996,
      -0.34905028343200684
    ],
    [
      0.09994711726903915,
      -0.6573731303215027,
      -0.013588006608188152,
      -0.352561354637146,
      0.3477679491043091,
      0.4990323483943939,
      0.947126030921936,
      1.0894056558609009,
      0.3587004542350769,
      -1.0687624216079712,
      -1.1988500356674194,
      -0.596644401550293,
      -0.13432089984416962,
      -1.2136741876602173,
      1.0440418720245361,
      0.25186362862586975,
      -0.2020588517189026,
      -1.304028034210205,
      -1.1693466901779175,
      0.8049367666244507,
      0.3183706998825073,
      -0.08669797331094742,
      -0.4386390447616577,
      0.013368252664804459
    ],
    [
      -0.8575055599212646,
      -1.4807257652282715,
      0.08199657499790192,
      -0.6266241669654846,
      0.8295699954032898,
      0.6084828972816467,
      -0.43256044387817383,
      -0.9591670632362366,
      -0.78125,
      0.6212865114212036,
      -0.5148229002952576,
      2.2530806064605713,
      0.14956091344356537,
      0.3370594382286072,
      -0.02129257470369339,
      -0.7610148191452026,
      0.8984442949295044,
      0.23628829419612885,
      -0.795092761516571,
      -0.2772827446460724,
      0.37823039293289185,
      -0.7563702464103699,
      -0.058113593608140945,
      0.9187926650047302
    ],
    [
      2.2005515098571777,
      -2.034688711166382,
      0.3538179397583008,
      -0.479754775762558,
      0.4271481931209564,
      -0.4778673052787781,
      0.14463500678539276,
      -0.6053580641746521,
      0.6056374311447144,
      -0.019787883386015892,
      -0.4460359811782837,
      -0.44015365839004517,
      0.3307892978191376,
      0.9532289505004883,
      -0.4533822238445282,
      -0.2956691384315491,
      -0.9641870260238647,
      -1.1309360265731812,
      -0.22062426805496216,
      0.5441428422927856,
      1.6805884838104248,
      1.3901541233062744,
      -0.1267646998167038,
      1.8032677173614502
    ],
    [
      -1.9580143690109253,
      0.4167611598968506,
      0.4235018789768219,
      -0.8899096250534058,
      -0.9483374357223511,
      1.4716579914093018,
      0.7836472392082214,
      0.9318991303443909,
      0.7882084846496582,
      0.643886387348175,
      0.21807096898555756,
      -0.3208242952823639,
      -0.43426012992858887,
      -0.15012121200561523,
      1.089824914932251,
      0.28145989775657654,
      0.2587750554084778,
      0.6680964231491089,
      0.8158224821090698,
      -0.08149030059576035,
      1.1629217863082886,
      0.12164618819952011,
      -0.4010557532310486,
      -1.4479163885116577
    ],
    [
      1.3788297176361084,
      -0.6914817690849304,
      -0.7168161273002625,
      -0.31032800674438477,
      0.7606483101844788,
      -1.294663429260254,
      0.2077319175004959,
      0.6235225200653076,
      0.10472768545150757,
      -0.9409376978874207,
      -0.17891283333301544,
      -0.8414905667304993,
      -0.2333679050207138,
      -0.6494311094284058,
      -2.006781816482544,
      1.2785252332687378,
      -0.3460604250431061,
      0.29411643743515015,
      -0.4062541425228119,
      -0.7563877701759338,
      -0.9343138933181763,
      -0.4096675515174866,
      0.6508047580718994,
      -0.6945927143096924
    ],
    [
      0.532423734664917,
      -0.5863804817199707,
      -0.13243235647678375,
      0.03874048963189125,
      0.343448668718338,
      -1.6374095678329468,
      0.6539924740791321,
      1.6987881660461426,
      0.6391584277153015,
      -1.0672296285629272,
      0.44608941674232483,
      -0.09981989860534668,
      -1.7715831995010376,
      0.01994912140071392,
      -0.1346741020679474,
      -1.1110436916351318,
      0.4615839123725891,
      1.363610029220581,
      -0.7573869824409485,
      1.05555260181427,
      -0.4665442407131195,
      0.8464785218238831,
      0.409026563167572,
      0.6245603561401367
    ],
    [
      1.0040745735168457,
      0.2954886257648468,
      -0.5612581372261047,
      -0.7193441987037659,
      -0.08225622773170471,
      1.1725995540618896,
      -1.8600585460662842,
      1.3503165245056152,
      0.18614491820335388,
      1.7349412441253662,
      0.7773470878601074,
      0.33003100752830505,
      0.062010329216718674,
      -1.4360588788986206,
      0.19724583625793457,
      -0.6767600178718567,
      0.9042437076568604,
      -0.5770896077156067,
      -1.142238974571228,
      -0.7516116499900818,
      -0.31153106689453125,
      1.6087760925292969,
      0.5787797570228577,
      0.1792447417974472
    ],
    [
      0.27827852964401245,
      0.40826305747032166,
      -0.9655773639678955,
      0.006053874734789133,
      -0.5803263187408447,
      -0.1565222144126892,
      -0.3004325330257416,
      0.6228334307670593,
      0.7890737056732178,
      -0.7513620853424072,
      -0.738946259021759,
      -0.2415146380662918,
      -1.155633807182312,
      0.13857625424861908,
      -1.296112298965454,
      -0.2855175733566284,
      0.06515176594257355,
      0.16849493980407715,
      -0.9066713452339172,
      3.356034994125366,
      0.328220933675766,
      -0.3785845637321472,
      1.9728991985321045,
      -0.6973026394844055
    ],
    [
      0.055781275033950806,
      -1.116616129875183,
      0.07093748450279236,
      -0.21820195019245148,
      0.6535819172859192,
      0.010293420404195786,
      0.6361175775527954,
      0.4843893051147461,
      0.2777571678161621,
      0.6549474000930786,
      -0.9953473806381226,
      0.8541123270988464,
      0.09130717068910599,
      0.6259039044380188,
      -0.23393110930919647,
      -0.2384275197982788,
      1.040590763092041,
      -0.1330217570066452,
      -0.9494099617004395,
      -0.756666898727417,
      0.5513328909873962,
      -0.9200249910354614,
      -0.7540852427482605,
      0.8311704397201538
    ],
    [
      1.428831934928894,
      -0.11364194750785828,
      0.20279443264007568,
      0.7671564221382141,
      0.269999235868454,
      -0.5643943548202515,
      -0.8851845264434814,
      -0.062093138694763184,
      -1.3644288778305054,
      0.4991152584552765,
      -0.566931962966919,
      -0.7486556172370911,
      0.08238904923200607,
      -2.0545265674591064,
      0.33031710982322693,
      -0.864740252494812,
      -0.5827215909957886,
      -0.29172655940055847,
      -0.9687883257865906,
      0.5438006520271301,
      -0.37936925888061523,
      0.5824760794639587,
      2.195099115371704,
      0.6493661403656006
    ],
    [
      0.7320067882537842,
      0.47035253047943115,
      1.2901725769042969,
      -0.6350693106651306,
      0.5216634273529053,
      -2.116199254989624,
      0.03486724570393562,
      1.80193293094635,
      0.33872145414352417,
      -0.3160906732082367,
      -0.6773278713226318,
      0.3704492449760437,
      -1.6285778284072876,
      -1.267935037612915,
      0.033743008971214294,
      -0.17685124278068542,
      0.8566434979438782,
      -0.8106568455696106,
      0.4934230446815491,
      -0.4053456485271454,
      1.6249606609344482,
      0.9303878545761108,
      -1.1481456756591797,
      1.8273937702178955
    ],
    [
      0.18467560410499573,
      0.1365751177072525,
      -0.6983073949813843,
      -1.1146055459976196,
      0.8429847955703735,
      1.8882654905319214,
      0.07923327386379242,
      0.41399461030960083,
      0.5881844162940979,
      -0.6031371355056763,
      -0.5231066346168518,
      -0.16458532214164734,
      0.9430553913116455,
      0.3297593295574188,
      0.2085646241903305,
      -0.7517930269241333,
      0.8716097474098206,
      0.5309985876083374,
      -0.854872465133667,
      1.5642013549804688,
      -0.5477375984191895,
      -0.5313386917114258,
      -1.0571943521499634,
      -1.0998029708862305
    ],
    [
      -0.8237507343292236,
      1.6244869232177734,
      0.4198003113269806,
      1.6496435403823853,
      -0.8728793859481812,
      -0.06915050745010376,
      0.29546916484832764,
      -0.5276408791542053,
      0.09790033847093582,
      -0.776940107345581,
      -0.00017093095812015235,
      -1.7298460006713867,
      0.26094746589660645,
      -0.23768605291843414,
      0.47418415546417236,
      -0.9237884879112244,
      1.2974151372909546,
      0.10416562855243683,
      -0.2927640974521637,
      -1.3488314151763916,
      0.5166797637939453,
      1.2707279920578003,
      0.8659594058990479,
      -0.30268803238868713
    ],
    [
      -1.0552995204925537,
      -0.4310343861579895,
      -1.155631422996521,
      -0.7387006282806396,
      0.24860700964927673,
      0.9237176179885864,
      -0.45052868127822876,
      -0.3387041985988617,
      -0.2875775992870331,
      -0.02971877157688141,
      -0.23126301169395447,
      0.6692495346069336,
      -0.09864604473114014,
      -0.2078048288822174,
      -0.45589327812194824,
      -0.02227693609893322,
      0.7024881839752197,
      0.7360330820083618,
      -0.36010903120040894,
      -1.0653793811798096,
      0.22437238693237305,
      -0.393791526556015,
      -0.3161475658416748,
      0.2616630494594574
    ],
    [
      0.6803367733955383,
      1.1091797351837158,
      -0.16857779026031494,
      -0.26932671666145325,
      -1.3011651039123535,
      0.2664186656475067,
      0.5094900131225586,
      0.10562562197446823,
      -0.8933107852935791,
      0.3154985308647156,
      0.44108304381370544,
      -0.062487274408340454,
      0.7772472500801086,
      -0.48170149326324463,
      -0.16555960476398468,
      -0.6222967505455017,
      1.7965691089630127,
      1.5714422464370728,
      -0.9856367707252502,
      -0.2005229890346527,
      1.2556977272033691,
      0.8213768005371094,
      -0.7583389282226562,
      -0.16823233664035797
    ],
    [
      -0.6693903803825378,
      -0.774307906627655,
      -1.3554723262786865,
      -1.4330090284347534,
      0.5436046719551086,
      0.006133598275482655,
      -0.44245409965515137,
      -0.7499094009399414,
      0.32282590866088867,
      -0.6043472290039062,
      -0.45636817812919617,
      0.5760684609413147,
      -0.20256677269935608,
      0.8094667196273804,
      -0.00940825417637825,
      -1.1331329345703125,
      -0.593022882938385,
      -0.14174720644950867,
      -0.47310754656791687,
      -0.49153900146484375,
      0.9834908843040466,
      1.0788514614105225,
      1.6989595890045166,
      0.3921251893043518
    ],
    [
      0.2363901287317276,
      1.387605905532837,
      0.36035823822021484,
      0.22236233949661255,
      0.20916412770748138,
      -0.11202120780944824,
      -0.6763375997543335,
      -0.4193076491355896,
      -0.8324822187423706,
      -1.3101457357406616,
      0.5780338644981384,
      -0.7804736495018005,
      1.4462343454360962,
      0.1468900740146637,
      -1.174106478691101,
      -0.41904500126838684,
      -1.1366275548934937,
      1.329937219619751,
      0.0531187430024147,
      0.5435157418251038,
      0.8530165553092957,
      0.21396295726299286,
      0.9754030108451843,
      -0.8236149549484253
    ],
    [
      0.9791306257247925,
      -0.17864403128623962,
      0.13111773133277893,
      -0.7067736387252808,
      0.8189565539360046,
      0.42763063311576843,
      -0.007518197875469923,
      -0.8447334170341492,
      0.7118014693260193,
      -0.5777366757392883,
      0.3175216615200043,
      0.08856131881475449,
      -1.2784792184829712,
      1.478311538696289,
      0.5262821316719055,
      -1.480231523513794,
      -0.5499613881111145,
      -0.5599694848060608,
      0.215559184551239,
      0.12738025188446045,
      1.277396321296692,
      -1.042719841003418,
      -0.5839435458183289,
      -0.5469443202018738
    ],
    [
      0.9307806491851807,
      0.260261207818985,
      -0.16310107707977295,
      -0.08615303784608841,
      -1.5753939151763916,
      -1.8090095520019531,
      0.8894215226173401,
      -0.3910084664821625,
      0.1402147263288498,
      0.1345507800579071,
      -0.12055061757564545,
      1.2102196216583252,
      -1.5943471193313599,
      -0.2632067799568176,
      0.7970457077026367,
      -0.44743815064430237,
      -0.4861414134502411,
      1.5996830463409424,
      0.117515929043293,
      0.20925560593605042,
      -0.382872998714447,
      0.526502251625061,
      0.38026466965675354,
      -0.05386056378483772
    ],
    [
      -0.33407875895500183,
      0.10019264370203018,
      0.21890172362327576,
      -0.28826114535331726,
      1.006233811378479,
      0.027203116565942764,
      0.9602723121643066,
      -0.7299031615257263,
      -0.7009438872337341,
      0.8195236325263977,
      -1.237526774406433,
      1.8007267713546753,
      -0.2723848521709442,
      0.4183076322078705,
      -0.07174985855817795,
      -0.5082995295524597,
      0.7279017567634583,
      -0.2506791055202484,
      -0.9874938130378723,
      -0.1257341057062149,
      0.7566903829574585,
      0.4493662118911743,
      -0.23110006749629974,
      1.1546976566314697
    ],
    [
      0.2448313981294632,
      0.8579686284065247,
      -0.29938074946403503,
      1.3802154064178467,
      0.1828877478837967,
      0.47342026233673096,
      -0.44222158193588257,
      -0.37003523111343384,
      1.6901739835739136,
      1.297855019569397,
      0.3306005597114563,
      -0.3271457254886627,
      0.07074440270662308,
      -2.1379919052124023,
      -0.38295799493789673,
      0.17509634792804718,
      -1.003156065940857,
      -0.5287864208221436,
      2.181687116622925,
      -1.084244966506958,
      -0.1528254747390747,
      -1.6754481792449951,
      -0.6377535462379456,
      -0.2389107197523117
    ],
    [
      0.6554322838783264,
      1.4820799827575684,
      -0.5067026615142822,
      1.1479734182357788,
      0.25449076294898987,
      -1.2807111740112305,
      0.38152816891670227,
      -0.9092575907707214,
      -1.1282438039779663,
      -1.798380732536316,
      -0.03603973612189293,
      0.4103507399559021,
      1.5264488458633423,
      1.516606092453003,
      0.31637680530548096,
      1.4837647676467896,
      -1.4851136207580566,
      0.848782479763031,
      1.8988666534423828,
      0.2740640342235565,
      1.4910273551940918,
      -0.9334965348243713,
      -0.5433279871940613,
      -1.7923628091812134
    ],
    [
      0.09820006042718887,
      -0.8371488451957703,
      0.3933131694793701,
      0.4818790555000305,
      1.021082878112793,
      -0.5861337780952454,
      0.09695534408092499,
      -0.9031298160552979,
      0.5355626344680786,
      0.09849218279123306,
      -0.9968776702880859,
      1.1223993301391602,
      -0.4510095715522766,
      -0.9244379997253418,
      0.33428066968917847,
      1.4625201225280762,
      -0.5384687185287476,
      -2.084890127182007,
      -1.2242084741592407,
      -0.5453012585639954,
      1.32266366481781,
      1.8035064935684204,
      -0.020479166880249977,
      0.5466882586479187
    ],
    [
      0.6379536986351013,
      -0.8860599994659424,
      -0.5009750723838806,
      -0.1281963288784027,
      -0.4144667685031891,
      1.1304419040679932,
      -0.06345026195049286,
      -0.4706524610519409,
      0.6409317255020142,
      -0.9365965127944946,
      0.11589201539754868,
      0.30206966400146484,
      -1.0207449197769165,
      -0.3829149305820465,
      -0.24552613496780396,
      0.04203761741518974,
      0.28610989451408386,
      0.29469016194343567,
      -0.28185680508613586,
      -0.13858728110790253,
      -0.6359005570411682,
      -0.8947811722755432,
      0.10192914307117462,
      0.2730367183685303
    ],
    [
      -0.6017311215400696,
      0.9319756031036377,
      1.2066447734832764,
      2.305116891860962,
      -0.9365453124046326,
      -1.3463160991668701,
      -0.983885645866394,
      -0.3030184209346771,
      -2.7354037761688232,
      1.0330243110656738,
      0.013169676996767521,
      -0.3167877793312073,
      0.5391621589660645,
      0.14368678629398346,
      1.1655622720718384,
      -1.1171058416366577,
      -0.3888983428478241,
      0.3946661055088043,
      0.6097932457923889,
      -1.130133032798767,
      -0.9392679929733276,
      -1.6762187480926514,
      0.23341363668441772,
      1.4807323217391968
    ],
    [
      -0.02275286801159382,
      -0.3199189007282257,
      -0.6582815647125244,
      0.4035811424255371,
      0.17776797711849213,
      -0.9788548946380615,
      1.0058225393295288,
      -0.5607484579086304,
      0.7932908535003662,
      -0.6516653895378113,
      -0.9529558420181274,
      -1.1946306228637695,
      0.5554312467575073,
      -0.021236250177025795,
      0.7387941479682922,
      -0.8998283743858337,
      -0.266591876745224,
      0.5779800415039062,
      -0.6698808073997498,
      -0.25678151845932007,
      0.2342747300863266,
      -0.2772921621799469,
      1.5301334857940674,
      0.10708362609148026
    ],
    [
      -0.39525142312049866,
      0.12998132407665253,
      0.17653043568134308,
      -0.2962189018726349,
      0.08828610181808472,
      0.1904582679271698,
      0.8174553513526917,
      -0.13395516574382782,
      -0.9397035837173462,
      0.7810966372489929,
      -0.7564463019371033,
      0.570462167263031,
      -0.22115777432918549,
      1.5613329410552979,
      -0.4352602958679199,
      0.44917014241218567,
      2.0725173950195312,
      0.046678997576236725,
      -1.6241275072097778,
      -1.3988571166992188,
      0.4950130581855774,
      -0.9647297263145447,
      -1.301647424697876,
      0.573171079158783
    ],
    [
      -0.6009839773178101,
      0.1029813289642334,
      -0.2951721251010895,
      1.0745583772659302,
      -0.6834442615509033,
      0.5107885599136353,
      0.30202916264533997,
      0.21900013089179993,
      -0.5504117608070374,
      -0.5071673393249512,
      -0.36898568272590637,
      -1.6728664636611938,
      0.03425724431872368,
      -0.2241138070821762,
      1.4791371822357178,
      -0.06145140528678894,
      -0.44658201932907104,
      0.27405306696891785,
      0.5508222579956055,
      0.8567653298377991,
      -0.30909380316734314,
      -1.8611693382263184,
      0.213385671377182,
      -0.10558341443538666
    ],
    [
      0.4963330924510956,
      -1.3054717779159546,
      -1.1198865175247192,
      -0.5999203324317932,
      -0.300263911485672,
      -0.15590591728687286,
      -0.31627848744392395,
      1.5117403268814087,
      0.5412545204162598,
      0.21808838844299316,
      0.685597836971283,
      -0.3148151934146881,
      -0.6718161702156067,
      -1.7585021257400513,
      -0.5703348517417908,
      0.37728673219680786,
      -0.4358028173446655,
      -1.5292253494262695,
      1.3522108793258667,
      0.39308038353919983,
      0.4550497829914093,
      -0.1797989159822464,
      -0.38652801513671875,
      0.6669002771377563
    ],
    [
      0.3790616989135742,
      -0.06927653402090073,
      0.6055354475975037,
      -1.3357182741165161,
      1.0413295030593872,
      0.47706809639930725,
      -0.05686087906360626,
      -1.2662405967712402,
      0.12408779561519623,
      -0.9647537469863892,
      2.055727243423462,
      0.0998842716217041,
      0.2935732305049896,
      0.9113754630088806,
      0.14636701345443726,
      0.34557628631591797,
      -0.3890543282032013,
      -0.35025522112846375,
      -1.210442304611206,
      0.5284777283668518,
      -1.8425005674362183,
      -0.06988207250833511,
      -0.5456250309944153,
      0.17641757428646088
    ],
    [
      -0.6327835917472839,
      1.0821484327316284,
      -0.5097185969352722,
      0.2952636480331421,
