{
  "block_0": {
    "att.W_query.weight": [
      [
        -0.2431967705488205,
        0.17137624323368073,
        -0.27986517548561096,
        -0.9227098822593689,
        0.07864532619714737,
        0.2468002289533615,
        0.07816244661808014,
        -0.3961596190929413,
        -0.4017900824546814,
        0.3513781428337097,
        0.3280710279941559,
        -0.15667738020420074
      ],
      [
        0.30178841948509216,
        0.01410525944083929,
        -0.2884550392627716,
        -0.18809795379638672,
        -0.2503494322299957,
        -0.2040044665336609,
        0.8208320140838623,
        0.8023215532302856,
        0.9292343258857727,
        -0.3613632917404175,
        0.10946283489465714,
        -0.5289468169212341
      ],
      [
        0.1561739593744278,
        -0.707141101360321,
        0.4431343078613281,
        -0.3171432614326477,
        0.9663212895393372,
        0.051377635449171066,
        0.19290554523468018,
        -0.8076377511024475,
        0.27858713269233704,
        -0.9879064559936523,
        -0.1771921068429947,
        0.5198188424110413
      ],
      [
        0.05419652909040451,
        0.5623354315757751,
        -0.23218438029289246,
        -0.13851001858711243,
        0.02060200646519661,
        1.1049690246582031,
        -0.3791202902793884,
        0.48820310831069946,
        0.6248406767845154,
        -0.8920329809188843,
        -0.35610052943229675,
        -0.4687727391719818
      ],
      [
        0.740376353263855,
        0.33024200797080994,
        -0.14059315621852875,
        0.12276318669319153,
        -0.834579586982727,
        0.2169061154127121,
        0.6466275453567505,
        0.4774380326271057,
        -0.3347034752368927,
        0.09695889800786972,
        -0.7518618106842041,
        -0.2913663685321808
      ],
      [
        -0.1502000242471695,
        0.8974248170852661,
        -0.8984552025794983,
        -0.11589750647544861,
        -0.08596868067979813,
        -0.3816593587398529,
        -0.6842992305755615,
        -0.08351913839578629,
        0.16478025913238525,
        0.7452085614204407,
        0.4861757457256317,
        0.2626712918281555
      ],
      [
        -0.6420920491218567,
        0.5946868062019348,
        -0.24141886830329895,
        -1.182091474533081,
        -0.10389074683189392,
        0.4427400827407837,
        0.027617383748292923,
        -0.1819756031036377,
        -0.30962446331977844,
        1.089194893836975,
        0.7395789623260498,
        0.03152071684598923
      ],
      [
        0.5853469371795654,
        -0.059513453394174576,
        0.4085271656513214,
        0.12733341753482819,
        -0.010601554997265339,
        -0.4512844383716583,
        -0.5200552344322205,
        -1.0575002431869507,
        -0.12540191411972046,
        0.45777714252471924,
        -0.009782384149730206,
        0.47974711656570435
      ],
      [
        -0.033015068620443344,
        0.006487167440354824,
        -0.07088799774646759,
        -0.21919631958007812,
        -0.4570710062980652,
        1.2555716037750244,
        -0.7364134192466736,
        -0.6707303524017334,
        0.231022909283638,
        -0.49632155895233154,
        -0.20538055896759033,
        1.2810754776000977
      ],
      [
        0.3544480800628662,
        -0.7902603149414062,
        0.09073451161384583,
        -0.3772538900375366,
        -0.4459543824195862,
        -0.3648914694786072,
        0.5556283593177795,
        0.044749900698661804,
        0.1496686339378357,
        -0.16442818939685822,
        0.6530700325965881,
        0.2485538125038147
      ],
      [
        -0.6416271328926086,
        0.3432239592075348,
        -0.23584793508052826,
        0.7813540101051331,
        -0.6956008076667786,
        -0.9294983744621277,
        0.31730127334594727,
        0.001376176718622446,
        -0.2218678593635559,
        0.8513597846031189,
        0.6144778728485107,
        -0.01833740621805191
      ],
      [
        0.07838958501815796,
        -0.3127972483634949,
        -0.8128804564476013,
        0.01022789254784584,
        0.5375142097473145,
        -0.22270819544792175,
        0.2158288210630417,
        0.04244488477706909,
        -0.652612030506134,
        0.02789262682199478,
        0.14954598248004913,
        0.7805691957473755
      ]
    ],
    "att.W_query.bias": null,
    "att.W_key.weight": [
      [
        0.15301431715488434,
        -0.0782376229763031,
        -0.36258041858673096,
        1.075455665588379,
        -0.10515615344047546,
        -0.2651454210281372,
        -0.20797817409038544,
        0.7327625155448914,
        0.25077635049819946,
        -0.1698867380619049,
        0.007009340915828943,
        0.06569082289934158
      ],
      [
        0.6824985146522522,
        0.06007852032780647,
        0.6038292050361633,
        -0.14257560670375824,
        -1.0748093128204346,
        0.40729594230651855,
        -0.10006203502416611,
        -0.5580230951309204,
        -0.12160424888134003,
        0.3698544204235077,
        0.1280965805053711,
        -0.29136210680007935
      ],
      [
        -1.2205915451049805,
        0.8269661664962769,
        -0.008482887409627438,
        -0.7231399416923523,
        -0.43468865752220154,
        0.4041823446750641,
        0.20546270906925201,
        0.6058014631271362,
        0.26242026686668396,
        -0.2898797392845154,
        -0.2283935546875,
        0.11840295791625977
      ],
      [
        0.17579828202724457,
        -1.1830079555511475,
        -0.46938616037368774,
        0.002562255132943392,
        0.09791155904531479,
        -0.27681201696395874,
        0.12567828595638275,
        -0.28081953525543213,
        0.7145715355873108,
        0.2882843315601349,
        0.8585796356201172,
        0.34530022740364075
      ],
      [
        -0.7401142716407776,
        -0.12132959812879562,
        0.19562120735645294,
        -0.2686719596385956,
        0.2618172764778137,
        -0.2147645503282547,
        0.1902165561914444,
        0.25089970231056213,
        1.1427870988845825,
        -0.9084483981132507,
        0.062411900609731674,
        0.632665753364563
      ],
      [
        0.017897216603159904,
        -0.1770891696214676,
        1.0266281366348267,
        -0.4214949905872345,
        -0.6081457734107971,
        0.17445898056030273,
        -0.8055229783058167,
        0.6475051045417786,
        0.04008349031209946,
        0.3536020517349243,
        -0.24532757699489594,
        -0.8777077794075012
      ],
      [
        0.7643551230430603,
        -0.2384071797132492,
        0.3105609118938446,
        0.4912741184234619,
        -0.07265067100524902,
        0.12290888279676437,
        0.4587739408016205,
        -0.3868817985057831,
        -0.19860808551311493,
        -0.2661927342414856,
        -1.592591404914856,
        -0.742323637008667
      ],
      [
        0.04225229099392891,
        -0.4024808704853058,
        -0.22947776317596436,
        0.4730251431465149,
        0.059088412672281265,
        0.18539460003376007,
        0.24118825793266296,
        0.7161307334899902,
        -1.2622566223144531,
        0.17388050258159637,
        0.5101656317710876,
        0.18730083107948303
      ],
      [
        0.12090644985437393,
        0.19558516144752502,
        -0.41076168417930603,
        0.20734602212905884,
        0.968061625957489,
        0.15032228827476501,
        -0.6187503337860107,
        -0.19029957056045532,
        -1.0874024629592896,
        0.09123227745294571,
        0.9448808431625366,
        -0.8106903433799744
      ],
      [
        -0.3293811082839966,
        0.8086826205253601,
        -0.25474753975868225,
        -0.13052116334438324,
        0.011148244142532349,
        0.2539064884185791,
        -0.36276543140411377,
        -0.1468459814786911,
        0.594552755355835,
        0.43543165922164917,
        -0.2388957142829895,
        -0.7973587512969971
      ],
      [
        0.6251617670059204,
        1.1305819749832153,
        -0.562764585018158,
        -0.17766638100147247,
        0.015177086926996708,
        -0.30300453305244446,
        -0.5379117727279663,
        0.8434792757034302,
        0.2867317497730255,
        -0.6913732886314392,
        0.12403082102537155,
        -0.03024139814078808
      ],
      [
        -0.40121543407440186,
        0.7406980395317078,
        0.8234737515449524,
        -0.321989506483078,
        0.3620634973049164,
        -0.6758527159690857,
        -0.38971805572509766,
        0.1833193600177765,
        -0.3720995783805847,
        -0.2342035323381424,
        -0.19729083776474,
        0.3394758999347687
      ]
    ],
    "att.W_key.bias": null,
    "att.W_value.weight": [
      [
        -0.22448177635669708,
        -0.09472472220659256,
        0.5544042587280273,
        0.5221744179725647,
        -0.27814003825187683,
        -0.12902340292930603,
        -0.39801740646362305,
        0.6776406168937683,
        -0.008504660800099373,
        -0.07974862307310104,
        -0.09871944785118103,
        -0.5413950681686401
      ],
      [
        -0.2551042139530182,
        -0.09123720228672028,
        0.05801432952284813,
        -0.28089720010757446,
        -0.3079991340637207,
        -0.22025495767593384,
        0.47889766097068787,
        0.14884255826473236,
        0.4058268964290619,
        0.3291298449039459,
        0.7125301361083984,
        -0.32754525542259216
      ],
      [
        0.2752768099308014,
        0.07017061859369278,
        0.2790132164955139,
        -0.1590290665626526,
        0.4455529451370239,
        -0.5122115015983582,
        0.6741278171539307,
        0.01987670734524727,
        -0.5987114906311035,
        -0.49550196528434753,
        -0.2200174331665039,
        -0.11438152939081192
      ],
      [
        0.2651308476924896,
        0.5465806126594543,
        -0.1816706657409668,
        -0.3704777956008911,
        -0.7799174785614014,
        0.006144226528704166,
        0.20355826616287231,
        0.27220481634140015,
        -0.026684723794460297,
        -0.04899138584733009,
        0.4251148998737335,
        -0.13275130093097687
      ],
      [
        -0.4326392114162445,
        -0.22994819283485413,
        0.7244912981987,
        -0.21348799765110016,
        -0.0009180427878163755,
        -0.2552391588687897,
        0.13678473234176636,
        0.27769461274147034,
        -0.6296629905700684,
        -0.0966961458325386,
        0.14522600173950195,
        0.24176612496376038
      ],
      [
        -0.5492476224899292,
        0.3483225405216217,
        0.16262437403202057,
        -0.2809915840625763,
        -0.07505249232053757,
        0.19793342053890228,
        -0.3235222101211548,
        -0.5443428754806519,
        -0.08252286165952682,
        0.11280622333288193,
        0.17187157273292542,
        0.3157784640789032
      ],
      [
        -0.16659602522850037,
        0.6236392259597778,
        0.4830820858478546,
        -0.11325910687446594,
        0.3227215111255646,
        -0.4747123122215271,
        0.44120022654533386,
        -0.18995772302150726,
        -0.4121509790420532,
        -0.11712576448917389,
        -0.02600715681910515,
        0.10865826159715652
      ],
      [
        0.4181152284145355,
        -0.44852617383003235,
        0.5910057425498962,
        -0.10566436499357224,
        -0.09555148333311081,
        -0.09407839179039001,
        -0.5732787251472473,
        -0.1807558387517929,
        -0.30181533098220825,
        0.5855017304420471,
        0.3118950128555298,
        -0.22484108805656433
      ],
      [
        -0.19962958991527557,
        0.09057240933179855,
        -0.06097209081053734,
        0.3786405026912689,
        -1.0363597869873047,
        -0.016183577477931976,
        0.13441546261310577,
        -0.0010603959672152996,
        -0.07287068665027618,
        0.36281880736351013,
        0.29358306527137756,
        -0.021758511662483215
      ],
      [
        0.5512003302574158,
        -0.03010532632470131,
        0.5208213925361633,
        -0.5356667041778564,
        -0.3782965838909149,
        -0.09225491434335709,
        -0.2908581793308258,
        -0.44960442185401917,
        0.5253236293792725,
        -0.17881953716278076,
        0.07511493563652039,
        -0.003096490865573287
      ],
      [
        -0.2817077934741974,
        0.35370588302612305,
        0.15435267984867096,
        0.563412070274353,
        0.1401970088481903,
        -0.027215102687478065,
        0.04615386947989464,
        -0.5752382874488831,
        -0.015166073106229305,
        -0.6568265557289124,
        0.024743566289544106,
        -0.10561417788267136
      ],
      [
        0.48751598596572876,
        -0.05467933043837547,
        0.21449004113674164,
        0.2479383647441864,
        -0.10304299741983414,
        0.3048083186149597,
        -0.012724285945296288,
        0.12228471040725708,
        -0.32107022404670715,
        0.1809057891368866,
        -0.9619662761688232,
        -0.666858971118927
      ]
    ],
    "att.W_value.bias": null,
    "att.out_proj.weight": [
      [
        0.8159793019294739,
        0.4470067024230957,
        -0.2577246427536011,
        -0.07562422752380371,
        -0.28082674741744995,
        -0.45856672525405884,
        0.278974711894989,
        0.13845989108085632,
        -0.18819643557071686,
        -0.2246595323085785,
        0.15544529259204865,
        -0.2272232323884964
      ],
      [
        -0.2064221352338791,
        0.07454920560121536,
        -0.46117639541625977,
        0.16147366166114807,
        -0.0660153403878212,
        0.010717199184000492,
        -0.2804698646068573,
        0.04152454063296318,
        -0.44539889693260193,
        -0.4018901288509369,
        0.4229435920715332,
        0.4052368998527527
      ],
      [
        -0.49935728311538696,
        0.3644326627254486,
        0.14700886607170105,
        0.232055202126503,
        0.4327361583709717,
        -0.024097424000501633,
        0.5513795614242554,
        -0.11135662347078323,
        -0.22905415296554565,
        0.45431581139564514,
        -0.01522914320230484,
        0.3266337215900421
      ],
      [
        0.5016639828681946,
        -0.7281431555747986,
        -0.007743485737591982,
        0.18706926703453064,
        0.41881176829338074,
        -0.23606202006340027,
        -0.03306256979703903,
        -0.5976654291152954,
        0.5517087578773499,
        -0.44801589846611023,
        -0.45841512084007263,
        0.44911688566207886
      ],
      [
        0.017040010541677475,
        -0.2985458970069885,
        0.542366087436676,
        0.05412251874804497,
        -0.15769661962985992,
        0.005101772025227547,
        -0.10368958115577698,
        -0.316516637802124,
        -0.4180009365081787,
        0.22456833720207214,
        0.0315595306456089,
        0.46289539337158203
      ],
      [
        -0.1587405651807785,
        -0.3796064555644989,
        0.19869570434093475,
        -0.6999689936637878,
        -0.06499235332012177,
        -0.22637739777565002,
        -0.4378010034561157,
        0.03628391772508621,
        -0.04635148495435715,
        0.5955248475074768,
        0.6391557455062866,
        -0.4569808542728424
      ],
      [
        0.2246263474225998,
        0.37024858593940735,
        0.03419947996735573,
        -0.1465958058834076,
        -0.751331090927124,
        0.047423772513866425,
        0.19305042922496796,
        0.2886815667152405,
        -0.17740483582019806,
        0.31325486302375793,
        -0.6472283601760864,
        0.16574643552303314
      ],
      [
        -0.3437809348106384,
        0.24805521965026855,
        -0.35816532373428345,
        0.7089136838912964,
        -0.19294598698616028,
        0.20334358513355255,
        -0.5021159052848816,
        -0.027526266872882843,
        0.17655998468399048,
        0.2729503810405731,
        0.004346566274762154,
        -0.2282809019088745
      ],
      [
        -0.20318640768527985,
        -0.20164887607097626,
        -0.09059413522481918,
        -0.39274072647094727,
        0.027787169441580772,
        0.5691614747047424,
        -0.09916656464338303,
        0.6834906935691833,
        0.4557672142982483,
        -0.2127998173236847,
        0.27987051010131836,
        0.13593700528144836
      ],
      [
        0.3161938786506653,
        -0.016521627083420753,
        -0.3197959363460541,
        0.1549420952796936,
        0.3138427436351776,
        0.3762107193470001,
        0.444453626871109,
        -0.3406970500946045,
        0.4387167990207672,
        0.008701931685209274,
        0.03788960725069046,
        -0.2958938479423523
      ],
      [
        -0.13358834385871887,
        -0.09626837819814682,
        -0.052031222730875015,
        -0.3483874499797821,
        0.3964090049266815,
        0.25442638993263245,
        0.1347334235906601,
        -0.15492241084575653,
        -0.2538314461708069,
        -0.3815567195415497,
        -0.11857344955205917,
        -0.6019136309623718
      ],
      [
        0.03826489299535751,
        0.29575493931770325,
        0.87143874168396,
        0.3738345801830292,
        -0.06330173462629318,
        -0.5305386185646057,
        -0.3433346748352051,
        0.5424855351448059,
        0.13752155005931854,
        -0.45931026339530945,
        -0.3478958010673523,
        -0.37767499685287476
      ]
    ],
    "att.out_proj.bias": [
      0.03585358336567879,
      0.05109276622533798,
      -0.021527212113142014,
      0.020009532570838928,
      -0.12615704536437988,
      -0.009188861586153507,
      -0.015287751331925392,
      0.09670441597700119,
      0.0012937302235513926,
      0.017255017533898354,
      0.09606190025806427,
      -0.07633021473884583
    ],
    "norm1.scale": [
      0.6722200512886047,
      0.5844395160675049,
      0.609052836894989,
      0.5686323046684265,
      0.7015692591667175,
      0.29035255312919617,
      0.3956789970397949,
      0.7879037857055664,
      0.6684906482696533,
      0.593555212020874,
      0.7483936548233032,
      0.41929274797439575
    ],
    "norm1.shift": [
      0.05532778799533844,
      -0.19665446877479553,
      0.14671240746974945,
      -0.11459915339946747,
      0.10037969797849655,
      -0.005067623686045408,
      0.0766403004527092,
      -0.04135003313422203,
      0.03327306732535362,
      -0.18124417960643768,
      -0.014604075811803341,
      0.23424285650253296
    ],
    "norm2.scale": [
      0.49319955706596375,
      0.641266942024231,
      0.6805118918418884,
      0.5012156367301941,
      0.6466211080551147,
      0.4867708086967468,
      0.5062045454978943,
      0.598486602306366,
      0.6505684852600098,
      0.6554995775222778,
      0.6496277451515198,
      0.48379746079444885
    ],
    "norm2.shift": [
      0.33426228165626526,
      0.19284480810165405,
      0.1450580209493637,
      0.33028027415275574,
      -0.08596182614564896,
      0.47612473368644714,
      0.08764936774969101,
      -0.377347469329834,
      0.4777267575263977,
      -0.41984131932258606,
      -0.22258685529232025,
      0.4434664249420166
    ],
    "ff.lin1.weight": [
      [
        -0.6060842275619507,
        0.1532077044248581,
        -0.3548898994922638,
        -0.4106758236885071,
        -0.6149324774742126,
        -0.5348431468009949,
        -0.21927067637443542,
        -0.02046368271112442,
        0.6381307244300842,
        -0.25617602467536926,
        0.8209025859832764,
        -0.20060458779335022
      ],
      [
        -0.06610661745071411,
        -0.1009756401181221,
        -0.3718307912349701,
        -0.7335043549537659,
        -0.27409446239471436,
        -0.22103460133075714,
        0.2750120162963867,
        0.7022738456726074,
        0.5049643516540527,
        0.5105553865432739,
        -0.20093485713005066,
        -0.6663463711738586
      ],
      [
        -0.8777778148651123,
        -0.47192254662513733,
        0.4185022711753845,
        -0.4878630042076111,
        0.39002880454063416,
        -0.20527727901935577,
        -0.5388876795768738,
        0.013436803594231606,
        0.035086072981357574,
        0.759884774684906,
        0.2943885922431946,
        -0.16948167979717255
      ],
      [
        -0.788794755935669,
        -0.44847020506858826,
        -0.01413481030613184,
        0.07108553498983383,
        -0.6995748281478882,
        0.5669764876365662,
        -0.03752364218235016,
        0.4056052267551422,
        -0.3915039300918579,
        -0.6405739784240723,
        0.7658372521400452,
        -0.1619667410850525
      ],
      [
        0.19047501683235168,
        -0.4063447117805481,
        0.09925854206085205,
        -0.3309590816497803,
        0.10700760781764984,
        -0.19348199665546417,
        -0.35226204991340637,
        0.5990214943885803,
        0.18730174005031586,
        -0.23300543427467346,
        0.5102618336677551,
        -0.793371319770813
      ],
      [
        0.17803554236888885,
        -1.1642382144927979,
        -0.8641577959060669,
        -0.9705876111984253,
        0.21216052770614624,
        0.43894535303115845,
        -0.38326531648635864,
        0.7869572639465332,
        -0.5293465256690979,
        0.9337013959884644,
        -0.2891266644001007,
        -0.1893654763698578
      ],
      [
        -0.576974093914032,
        0.30168747901916504,
        0.7072651982307434,
        0.42824751138687134,
        -0.3173585832118988,
        -0.7343310117721558,
        -0.21450403332710266,
        0.6504284739494324,
        -0.7118381857872009,
        -0.35035860538482666,
        0.22841548919677734,
        -0.04902828857302666
      ],
      [
        0.3308165967464447,
        -0.6950085759162903,
        0.19546228647232056,
        0.06830993294715881,
        -0.41445887088775635,
        -0.1763838827610016,
        -0.08694678544998169,
        0.36627086997032166,
        -0.4104231297969818,
        0.0028273335192352533,
        0.41373488306999207,
        0.36470475792884827
      ],
      [
        -0.17545107007026672,
        -0.08041072636842728,
        -0.4077206254005432,
        -0.20380441844463348,
        0.635355532169342,
        -0.540363609790802,
        -0.8133352994918823,
        0.3585584759712219,
        -0.8488364219665527,
        -0.19554723799228668,
        0.7122377157211304,
        0.2866431176662445
      ],
      [
        -0.45100292563438416,
        0.15954850614070892,
        -0.460121214389801,
        0.19010315835475922,
        0.11291398853063583,
        -0.6538724303245544,
        0.16162432730197906,
        1.1506627798080444,
        -0.09035266935825348,
        0.21058937907218933,
        -0.4767199754714966,
        -0.5440947413444519
      ],
      [
        0.275113970041275,
        -0.48309555649757385,
        -0.5110391974449158,
        -0.18313205242156982,
        0.1678968071937561,
        -0.3268742859363556,
        0.39093083143234253,
        0.32312440872192383,
        -0.7148661613464355,
        -0.3677712678909302,
        -0.006693720351904631,
        0.17852427065372467
      ],
      [
        -0.5070151686668396,
        -0.2483045756816864,
        0.2025725245475769,
        0.2971140146255493,
        0.05250057950615883,
        -0.5132803320884705,
        0.8214262127876282,
        -0.8849653005599976,
        -0.49332937598228455,
        0.37651124596595764,
        0.2365340292453766,
        -0.21710407733917236
      ],
      [
        -0.2919100224971771,
        0.5321031212806702,
        -0.11280541867017746,
        0.15265581011772156,
        -0.6627011895179749,
        0.034813374280929565,
        0.5594583749771118,
        0.32235559821128845,
        -0.19171561300754547,
        -0.07580666989088058,
        -0.1248752698302269,
        -0.4694007337093353
      ],
      [
        -0.7687820196151733,
        0.5836005210876465,
        -0.5248279571533203,
        -0.2148764580488205,
        0.763818621635437,
        -1.1127229928970337,
        -0.13063864409923553,
        -0.2356107532978058,
        0.5762560963630676,
        0.7429749965667725,
        -0.2563668489456177,
        -0.12612049281597137
      ],
      [
        0.05234895274043083,
        0.07301969826221466,
        -0.5690834522247314,
        0.09218526631593704,
        -0.36168035864830017,
        0.020713919773697853,
        0.5361135601997375,
        0.28166696429252625,
        -0.6915101408958435,
        0.6110200881958008,
        0.4638625383377075,
        -0.5494179129600525
      ],
      [
        0.2730715572834015,
        -0.5274589657783508,
        -0.42710888385772705,
        -0.3851524889469147,
        0.3529541492462158,
        0.4872661530971527,
        0.4513053297996521,
        -0.07954263687133789,
        -0.2388358861207962,
        0.22583656013011932,
        0.05196579918265343,
        -0.13169433176517487
      ],
      [
        -1.051627516746521,
        -0.4205162823200226,
        0.5130470991134644,
        -0.5423659682273865,
        0.17073503136634827,
        -0.041734762489795685,
        0.11570987105369568,
        -0.2689017653465271,
        0.6578587889671326,
        -0.26678094267845154,
        0.556519091129303,
        -0.696594774723053
      ],
      [
        0.1624310314655304,
        0.4043653607368469,
        -0.6507228016853333,
        -0.9517393708229065,
        0.4311256408691406,
        -0.3304068446159363,
        -0.25440216064453125,
        0.05455395206809044,
        -0.46276620030403137,
        -0.013280516490340233,
        0.41060957312583923,
        0.34765127301216125
      ],
      [
        0.648565948009491,
        -0.32167914509773254,
        -0.2189968377351761,
        -1.0228480100631714,
        0.9967654943466187,
        -0.4065033793449402,
        -0.3339173197746277,
        -0.21325263381004333,
        -0.4204879701137543,
        0.7481827735900879,
        -0.2222544252872467,
        -0.33417338132858276
      ],
      [
        -0.8604698777198792,
        -0.7790417075157166,
        -0.3336355984210968,
        -0.3733564615249634,
        -0.19395917654037476,
        0.3018914759159088,
        0.21622195839881897,
        0.408133864402771,
        -0.2763955891132355,
        1.1380729675292969,
        -0.34066352248191833,
        -0.22263121604919434
      ],
      [
        -0.5014826059341431,
        0.48051440715789795,
        -0.08166209608316422,
        0.2706508934497833,
        0.15666358172893524,
        0.21037448942661285,
        -0.8641185760498047,
        0.24253523349761963,
        -0.22451241314411163,
        -0.008590093813836575,
        -0.37171027064323425,
        -0.47357887029647827
      ],
      [
        -0.40566542744636536,
        -0.14415988326072693,
        0.05269576981663704,
        -0.6990484595298767,
        0.663406491279602,
        0.16212478280067444,
        0.48286521434783936,
        -0.18777009844779968,
        0.08579793572425842,
        0.43478313088417053,
        -0.7484349012374878,
        -0.41060957312583923
      ],
      [
        -0.26743072271347046,
        0.6347150802612305,
        -0.4158746898174286,
        -0.4243076741695404,
        -0.09280398488044739,
        0.11194241046905518,
        -0.10228259861469269,
        -0.49507227540016174,
        0.4686832129955292,
        0.4415038228034973,
        0.3800985813140869,
        -0.5043193101882935
      ],
      [
        -0.026187460869550705,
        0.04926977679133415,
        0.24269957840442657,
        -0.13262006640434265,
        -0.362229585647583,
        -1.251236081123352,
        -0.2404758632183075,
        0.5736188292503357,
        -0.15032687783241272,
        0.4582236111164093,
        0.7068256139755249,
        -0.19091618061065674
      ],
      [
        -0.11940231174230576,
        -0.8683651089668274,
        0.30158737301826477,
        -0.19882561266422272,
        0.4901774227619171,
        -0.03076395019888878,
        -0.19507859647274017,
        0.3767012357711792,
        -0.12277470529079437,
        -0.08053307980298996,
        -0.09840139001607895,
        0.11182650178670883
      ],
      [
        -0.7448161840438843,
        -0.5772953629493713,
        0.5361222624778748,
        -0.24719849228858948,
        -0.11810958385467529,
        -0.23447285592556,
        -0.40567708015441895,
        -0.406504362821579,
        -0.41448187828063965,
        0.057216983288526535,
        -0.27824005484580994,
        0.8108153939247131
      ],
      [
        -0.7266712188720703,
        -0.2619302570819855,
        0.40217122435569763,
        -0.08360335230827332,
        0.2729058265686035,
        -0.5887035727500916,
        0.18719542026519775,
        0.13165615499019623,
        -0.7837426066398621,
        0.6783306002616882,
        0.27242982387542725,
        0.47328928112983704
      ],
      [
        0.3569237291812897,
        0.1541379988193512,
        -0.5566994547843933,
        -0.05317758396267891,
        -0.08417045325040817,
        -0.15515126287937164,
        -0.38814577460289,
        0.07847274839878082,
        -0.8873809576034546,
        0.9406508207321167,
        -0.3363795876502991,
        0.18039196729660034
      ],
      [
        -0.8705629706382751,
        -0.40621864795684814,
        -0.3882614076137543,
        0.5801209807395935,
        0.501812219619751,
        -0.3919585943222046,
        0.20633035898208618,
        -0.436724454164505,
        -0.292594313621521,
        -0.10227227210998535,
        0.8712877631187439,
        -0.6327444911003113
      ],
      [
        -0.655134379863739,
        -0.38877132534980774,
        0.5866280198097229,
        0.01817471534013748,
        -0.1903221160173416,
        -0.11744017153978348,
        -0.05195327475667,
        -0.5548139214515686,
        0.05856708809733391,
        0.9142866730690002,
        -0.37723779678344727,
        -0.49023911356925964
      ],
      [
        -0.09158255904912949,
        0.057120345532894135,
        0.3864244222640991,
        -1.1981210708618164,
        0.44122374057769775,
        -0.6204976439476013,
        -0.1183488741517067,
        -0.22155804932117462,
        -0.34298449754714966,
        0.6589111089706421,
        -0.06898438930511475,
        0.44148269295692444
      ],
      [
        -0.18596264719963074,
        0.34764936566352844,
        -0.31404605507850647,
        -0.05244985595345497,
        -0.3167757987976074,
        -0.315280020236969,
        0.35089170932769775,
        0.014100153930485249,
        -0.5255345702171326,
        -0.3610529899597168,
        0.5588929057121277,
        0.21359093487262726
      ],
      [
        0.34261178970336914,
        -0.14082810282707214,
        0.14181266725063324,
        -0.8099828958511353,
        -0.1486206203699112,
        -0.5181470513343811,
        -0.19433344900608063,
        0.44510653614997864,
        -0.871532678604126,
        0.46960484981536865,
        0.5980837345123291,
        0.18053214251995087
      ],
      [
        -0.18501487374305725,
        0.20702126622200012,
        0.468278706073761,
        -0.04425957426428795,
        -0.5225558876991272,
        -0.48940417170524597,
        0.17171943187713623,
        0.14873197674751282,
        -0.5257062911987305,
        0.5099713802337646,
        -0.6437588334083557,
        0.1287587285041809
      ],
      [
        0.11474992334842682,
        -0.7798223495483398,
        -0.3853389322757721,
        -0.9567666053771973,
        0.13070255517959595,
        -0.3955652117729187,
        0.113047756254673,
        0.609992504119873,
        0.2314508855342865,
        0.022837979719042778,
        0.534179151058197,
        0.13478711247444153
      ],
      [
        0.36698588728904724,
        0.3873272240161896,
        -0.0819610208272934,
        -0.4332682490348816,
        0.6373522281646729,
        -0.31459566950798035,
        0.4456704556941986,
        0.14638513326644897,
        -0.16721272468566895,
        -0.4162144660949707,
        0.1437389850616455,
        -0.596947193145752
      ],
      [
        -0.4935548007488251,
        -0.021073097363114357,
        -0.3545747995376587,
        -0.007151295430958271,
        -0.5919899940490723,
        0.16642361879348755,
        -0.26368382573127747,
        0.9151922464370728,
        0.18643306195735931,
        0.2367047518491745,
        0.7607706785202026,
        -0.33957865834236145
      ],
      [
        -0.17128299176692963,
        -0.2056029736995697,
        0.9071195721626282,
        -0.15600119531154633,
        -0.23718981444835663,
        0.07669048756361008,
        0.14916490018367767,
        -0.35569047927856445,
        -0.5697284936904907,
        0.2967558205127716,
        -0.27312055230140686,
        -0.13692328333854675
      ],
      [
        0.3958345055580139,
        -0.2664705514907837,
        0.6007958054542542,
        0.2761315107345581,
        -0.2666216194629669,
        -0.4903941750526428,
        -0.8999437093734741,
        -0.11751072108745575,
        -0.8504869341850281,
        0.28625690937042236,
        0.19163253903388977,
        -0.5022402405738831
      ],
      [
        0.06891046464443207,
        -0.8255358338356018,
        -0.3612511456012726,
        -0.2487962245941162,
        0.38310980796813965,
        -0.014100485481321812,
        0.20016655325889587,
        0.819381594657898,
        -1.0351366996765137,
        -0.38992840051651,
        -0.05091343820095062,
        0.09876292198896408
      ],
      [
        -0.7677626609802246,
        -0.23495976626873016,
        0.04987907409667969,
        -0.04446776583790779,
        0.6097749471664429,
        -0.7643786668777466,
        0.9301505088806152,
        0.2748101055622101,
        0.011220192536711693,
        -0.2411137968301773,
        0.10381442308425903,
        -0.5846571922302246
      ],
      [
        -0.02530534565448761,
        0.29255831241607666,
        -0.5662990212440491,
        0.17273443937301636,
        -0.295288622379303,
        -0.23682159185409546,
        0.33646470308303833,
        0.00718146376311779,
        0.08861806988716125,
        0.0017153880326077342,
        -0.4830784499645233,
        -0.5216391086578369
      ],
      [
        0.16782861948013306,
        0.07626166939735413,
        0.1735600084066391,
        0.23586803674697876,
        0.2729361355304718,
        -0.816683828830719,
        -0.9056228995323181,
        -0.30095532536506653,
        0.06881704926490784,
        0.31763073801994324,
        0.23559677600860596,
        -0.6007360219955444
      ],
      [
        0.6893181204795837,
        -0.1508016735315323,
        -0.41995230317115784,
        0.06936323642730713,
        0.07293659448623657,
        -0.9821428656578064,
        0.05014495924115181,
        -0.5173963904380798,
        0.12416793406009674,
        0.0008770325221121311,
        0.508296012878418,
        -0.31233397126197815
      ],
      [
        -0.20902298390865326,
        0.3185788691043854,
        -0.4826463460922241,
        -0.4281890094280243,
        0.6402752995491028,
        -0.38436007499694824,
        0.1146637350320816,
        -0.213252454996109,
        0.12264551222324371,
        0.3861675560474396,
        -0.03730345144867897,
        0.2880061864852905
      ],
      [
        -0.3925293982028961,
        0.11762166023254395,
        -0.6677582859992981,
        -0.01142190769314766,
        -0.001863372279331088,
        0.29763177037239075,
        0.21163709461688995,
        -0.4693850874900818,
        -0.2151181697845459,
        -0.5379876494407654,
        1.0834015607833862,
        -1.2290866374969482
      ],
      [
        -0.5149133205413818,
        0.18373450636863708,
        0.34960073232650757,
        -1.1333893537521362,
        0.12472790479660034,
        -0.40478354692459106,
        -0.5199096202850342,
        0.09217828512191772,
        0.0660243034362793,
        0.570746123790741,
        0.2821900546550751,
        0.2420826107263565
      ],
      [
        -0.32410678267478943,
        0.0932796373963356,
        -0.7326748371124268,
        0.40605324506759644,
        -0.2172883152961731,
        0.1736994832754135,
        -0.2049490511417389,
        0.8085504174232483,
        -0.17948222160339355,
        -0.4348606467247009,
        -0.2047552615404129,
        -0.36812707781791687
      ]
    ],
    "ff.lin1.bias": [
      -0.9334010481834412,
      -0.541482150554657,
      -0.5720043182373047,
      -1.060501217842102,
      -0.6148828268051147,
      -0.9514897465705872,
      -0.6858812570571899,
      -0.47542816400527954,
      -0.4819672703742981,
      -0.7700241804122925,
      -0.5343743562698364,
      -0.6983198523521423,
      -0.5341054201126099,
      -0.5105717182159424,
      -0.022952906787395477,
      -0.28124120831489563,
      -0.9107493758201599,
      -0.8718972206115723,
      -0.3924858570098877,
      -0.5556694269180298,
      -0.6202664971351624,
      -0.5422928929328918,
      -0.4940762519836426,
      -0.5224549770355225,
      -0.5545458793640137,
      -0.930601954460144,
      -0.47140467166900635,
      -0.5405983328819275,
      -0.49859264492988586,
      -1.055673599243164,
      -0.3864704370498657,
      -0.6300625205039978,
      -0.5110125541687012,
      -0.6358100771903992,
      -0.3685375154018402,
      -0.6267726421356201,
      -0.5550803542137146,
      -0.7427074313163757,
      -0.6804444193840027,
      -0.46334195137023926,
      -0.4569346308708191,
      -0.7819567322731018,
      -0.3882976472377777,
      -0.4519108533859253,
      -0.1920846849679947,
      -1.1999820470809937,
      -0.3168436586856842,
      -0.7891330718994141
    ],
    "ff.lin2.weight": [
      [
        -0.26982545852661133,
        0.24696873128414154,
        -0.1630096286535263,
        -0.0754380151629448,
        -0.05311411991715431,
        -0.8195013403892517,
        -0.11064443737268448,
        -0.14146788418293,
        -0.12671680748462677,
        0.14488916099071503,
        0.05065251141786575,
        -0.3802720010280609,
        0.026471329852938652,
        -0.575635552406311,
        0.03135991469025612,
        -0.17381811141967773,
        -0.3386250138282776,
        0.1674364060163498,
        -0.13176794350147247,
        -0.006736449897289276,
        -0.03874191269278526,
        0.08644521236419678,
        0.20362907648086548,
        -0.08925601094961166,
        0.18597573041915894,
        0.18825677037239075,
        0.5035192966461182,
        0.2171863466501236,
        -0.40845856070518494,
        0.22609126567840576,
        0.22373710572719574,
        -0.19401682913303375,
        0.456936240196228,
        -0.5686215758323669,
        -0.008710496127605438,
        0.1189093291759491,
        0.3016778230667114,
        -0.0003181975334882736,
        0.48357173800468445,
        -0.08661233633756638,
        -0.17308375239372253,
        0.15187379717826843,
        -0.044520288705825806,
        0.08155608922243118,
        -0.07499964535236359,
        -0.25681009888648987,
        0.043488722294569016,
        0.2475440353155136
      ],
      [
        0.9678506255149841,
        -0.2840489149093628,
        -0.411636620759964,
        0.22933295369148254,
        -0.08108468353748322,
        1.1626452207565308,
        -0.26482996344566345,
        -0.1931743025779724,
        -0.3197234272956848,
        -0.09133293479681015,
        0.12862089276313782,
        0.13105139136314392,
        -0.33003130555152893,
        0.8758124113082886,
        -0.06653259694576263,
        0.32903292775154114,
        -0.23796403408050537,
        -0.16919724643230438,
        0.28830042481422424,
        0.1140943244099617,
        -0.23675218224525452,
        -0.06134958192706108,
        0.657903254032135,
        -0.17052602767944336,
        -0.4933725595474243,
        -0.5804071426391602,
        0.1842793971300125,
        0.4603797197341919,
        -0.3050617277622223,
        0.3784324824810028,
        0.10729870200157166,
        0.351177453994751,
        -0.15874013304710388,
        0.3919568657875061,
        -0.037265051156282425,
        0.35381385684013367,
        -0.2288806140422821,
        0.11854592710733414,
        -0.04126175865530968,
        0.2842339277267456,
        0.004816576838493347,
        -0.282532662153244,
        0.3140919804573059,
        -0.10036484897136688,
        0.28603044152259827,
        -0.07844656705856323,
        0.4086918532848358,
        0.2724493145942688
      ],
      [
        0.049052007496356964,
        -0.07514037191867828,
        0.2704518437385559,
        -0.15750809013843536,
        0.2943359315395355,
        0.19195245206356049,
        0.09290460497140884,
        -0.2962353229522705,
        -0.059251751750707626,
        -0.2727605104446411,
        -0.43970784544944763,
        0.16597667336463928,
        0.284315824508667,
        -0.10380332171916962,
        0.3716990351676941,
        -0.3498849868774414,
        0.527974545955658,
        -0.2909329831600189,
        0.09481199830770493,
        0.5233197212219238,
        0.27073267102241516,
        -0.13256067037582397,
        -0.602759599685669,
        0.34717878699302673,
        -0.05840907618403435,
        0.421388179063797,
        0.15296101570129395,
        -0.09352392703294754,
        1.3699289411306381e-05,
        -0.4488447308540344,
        -0.07766732573509216,
        -0.005029069725424051,
        0.373952180147171,
        0.004242131486535072,
        -0.3335721790790558,
        0.09669855237007141,
        -0.20138967037200928,
        -0.0775991901755333,
        0.10069651156663895,
        -0.27750012278556824,
        -0.26652389764785767,
        0.2555660605430603,
        -0.07604484260082245,
        -0.442250519990921,
        -0.5232727527618408,
        -0.34000256657600403,
        0.13778260350227356,
        0.08030397444963455
      ],
      [
        -0.3071078062057495,
        0.11881373077630997,
        0.2998974323272705,
        0.7223372459411621,
        0.16307534277439117,
        0.14428120851516724,
        0.0047141918912529945,
        0.337693452835083,
        0.07588393241167068,
        0.6451677680015564,
        -0.07129449397325516,
        -0.18929347395896912,
        -0.29702168703079224,
        0.32121601700782776,
        -0.7503228187561035,
        -0.2004166841506958,
        -0.36863353848457336,
        -0.18207207322120667,
        0.9043205976486206,
        -0.04311015084385872,
        -0.10617167502641678,
        -0.38990965485572815,
        -0.11766259372234344,
        -0.83160400390625,
        0.017468342557549477,
        0.04399010166525841,
        0.377275288105011,
        0.026579489931464195,
        -0.1444157063961029,
        -0.14713096618652344,
        0.18952879309654236,
        0.11254929006099701,
        -0.15931108593940735,
        0.3802618086338043,
        -0.019330069422721863,
        -0.13935714960098267,
        -0.22549350559711456,
        0.20416782796382904,
        0.523596465587616,
        -0.1016860380768776,
        0.13267697393894196,
        -0.13982416689395905,
        0.1415991187095642,
        0.5283441543579102,
        0.1550373136997223,
        0.22456151247024536,
        -0.20029181241989136,
        -0.42056673765182495
      ],
      [
        -0.05598631873726845,
        0.34937208890914917,
        -0.2260509729385376,
        0.059860941022634506,
        -0.19147273898124695,
        -0.5103616118431091,
        -0.19851799309253693,
        -0.08544766157865524,
        -0.25649142265319824,
        0.23517391085624695,
        0.16754359006881714,
        0.39859023690223694,
        -0.07984350621700287,
        -0.1644442230463028,
        0.3226992189884186,
        0.14096106588840485,
        0.3282449245452881,
        -0.41964268684387207,
        0.13097083568572998,
        -0.11001071333885193,
        0.38753122091293335,
        0.4797481894493103,
        0.11821699142456055,
        1.0005311965942383,
        0.17302364110946655,
        0.21032097935676575,
        0.11306081712245941,
        -0.21033553779125214,
        0.5899114012718201,
        -0.44184261560440063,
        0.13568954169750214,
        0.156232088804245,
        -0.21722452342510223,
        -0.11399102956056595,
        -0.3214685916900635,
        0.09331527352333069,
        0.6576640605926514,
        -0.4753684401512146,
        -0.21139736473560333,
        0.043779559433460236,
        -0.0820179134607315,
        0.15833772718906403,
        -0.31644579768180847,
        0.2657369077205658,
        -0.1422673910856247,
        0.1347947120666504,
        -0.035717904567718506,
        0.5629837512969971
      ],
      [
        -0.37544548511505127,
        0.22113829851150513,
        0.051802776753902435,
        -0.27371343970298767,
        -0.36585623025894165,
        0.0007135954219847918,
        0.4436112344264984,
        0.4007189869880676,
        0.27591753005981445,
        0.01859274134039879,
        0.006080515682697296,
        0.1017392948269844,
        0.31666484475135803,
        0.4595206081867218,
        -0.3598487973213196,
        0.4314245879650116,
        -0.38368120789527893,
        0.37230005860328674,
        0.6673762202262878,
        -0.11336541920900345,
        -0.24228237569332123,
        -0.2728820741176605,
        0.8390925526618958,
        -0.4502513110637665,
        -0.11419355124235153,
        -0.19189666211605072,
        -0.5151365995407104,
        0.031208258122205734,
        -0.04868718609213829,
        0.15201576054096222,
        0.21353968977928162,
        -0.14781871438026428,
        0.3558320105075836,
        -0.34175965189933777,
        0.0634247362613678,
        -0.5294349193572998,
        0.12207651883363724,
        0.5098936557769775,
        0.2370048463344574,
        0.10872044414281845,
        0.01810234785079956,
        -0.1304248720407486,
        -0.09961625188589096,
        -0.2454988658428192,
        0.19719700515270233,
        1.166996717453003,
        0.3375280499458313,
        0.08024954050779343
      ],
      [
        0.07529180496931076,
        -0.10998573899269104,
        -0.06955031305551529,
        -0.387713223695755,
        0.07084594666957855,
        -0.2901303768157959,
        0.07154139131307602,
        0.3818386197090149,
        -0.11778301000595093,
        -0.35933229327201843,
        -0.0024509690701961517,
        0.2849087417125702,
        0.09951026737689972,
        -0.12206843495368958,
        0.09249584376811981,
        -0.18119464814662933,
        -0.005149714648723602,
        -0.04060966148972511,
        -0.14827470481395721,
        0.145583376288414,
        -0.010587305761873722,
        0.09032672643661499,
        0.05611838400363922,
        -0.3910650312900543,
        -0.11404195427894592,
        0.21771636605262756,
        -0.16064158082008362,
        -0.11941877752542496,
        0.13591763377189636,
        0.0760963037610054,
        0.2405920773744583,
        0.09635207056999207,
        0.4212855398654938,
        0.021944591775536537,
        0.2636406719684601,
        0.2191116064786911,
        0.018518174067139626,
        0.07618387788534164,
        0.07008969038724899,
        -0.008363242261111736,
        -0.196549654006958,
        -0.046463631093502045,
        -0.4823218584060669,
        -0.243024542927742,
        0.09164228290319443,
        0.3042418658733368,
        0.008372615091502666,
        0.07335425913333893
      ],
      [
        0.3945837616920471,
        0.5889103412628174,
        -0.5543416738510132,
        -0.0256962813436985,
        0.24221891164779663,
        0.6744990348815918,
        -0.31521540880203247,
        -0.21184557676315308,
        0.36860084533691406,
        -0.10754810273647308,
        0.01941727101802826,
        -0.19991059601306915,
        -0.3307585120201111,
        0.33916038274765015,
        -0.4635656774044037,
        0.23916132748126984,
        -0.20438729226589203,
        -0.20259568095207214,
        -0.3680223524570465,
        0.04163387417793274,
        -0.3126578629016876,
        0.0015065190382301807,
        0.06106620654463768,
        -0.019936252385377884,
        0.07635888457298279,
        -0.07035604864358902,
        0.023765727877616882,
        0.5298786759376526,
        -0.0932016596198082,
        0.36411726474761963,
        -0.3721669912338257,
        -0.24173228442668915,
        -0.4018484652042389,
        -0.09641142189502716,
        -0.00460120290517807,
        0.10835061967372894,
        -0.13004997372627258,
        -0.13863791525363922,
        -0.019016295671463013,
        0.4204438626766205,
        0.6433108448982239,
        -0.2191210389137268,
        -0.21182329952716827,
        -0.10723691433668137,
        0.2170286923646927,
        0.3125435411930084,
        0.08201539516448975,
        -0.4462254047393799
      ],
      [
        -0.09495966881513596,
        0.20835979282855988,
        0.15824231505393982,
        -0.3785663843154907,
        -0.05538257956504822,
        0.1324574202299118,
        -0.22455589473247528,
        -0.205868661403656,
        0.07233916968107224,
        -0.06139058619737625,
        -0.2159232646226883,
        0.5351942181587219,
        0.177038311958313,
        -0.3666298985481262,
        0.5527564287185669,
        -0.03833587467670441,
        0.016349148005247116,
        0.3197099268436432,
        -0.06723708659410477,
        -0.7317937016487122,
        0.134017214179039,
        0.20511682331562042,
        0.037274397909641266,
        0.17446619272232056,
        0.35305657982826233,
        0.05212577432394028,
        -0.13591203093528748,
        -0.43735483288764954,
        0.00816487055271864,
        -0.08299608528614044,
        -0.05040280893445015,
        0.0471617728471756,
        -0.05151716619729996,
        0.1250637322664261,
        0.21041744947433472,
        -0.2236027866601944,
        0.1612623631954193,
        -0.029533760622143745,
        -0.3867705762386322,
        -0.35801488161087036,
        -0.05805857107043266,
        -0.09701212495565414,
        -0.017343055456876755,
        -0.10970991104841232,
        0.1798693686723709,
        -0.40564286708831787,
        -0.257671982049942,
        0.07125142216682434
      ],
      [
        0.27885666489601135,
        -0.3282983899116516,
        0.4621264338493347,
        0.8226021528244019,
        -0.16111613810062408,
        -0.20686346292495728,
        0.009628995321691036,
        -0.05641145259141922,
        -0.7812533974647522,
        -0.20567908883094788,
        0.12394914031028748,
        -0.4355846047401428,
        0.13666518032550812,
        0.23807327449321747,
        0.26465529203414917,
        0.13759483397006989,
        0.6122949123382568,
        -0.02079382725059986,
        -0.7067558765411377,
        0.007999951019883156,
        -0.1707426756620407,
        -0.22949357330799103,
        -0.28349387645721436,
        0.8351829648017883,
        -0.048059768974781036,
        0.06241645663976669,
        -0.5050076246261597,
        0.26674556732177734,
        0.3330517113208771,
        0.2085723578929901,
        -0.6741321682929993,
        0.23743462562561035,
        -0.22200427949428558,
        -0.3009594678878784,
        -0.47387266159057617,
        0.23775191605091095,
        0.5128954648971558,
        -0.056152403354644775,
        -0.15428504347801208,
        0.09231213480234146,
        -0.31945982575416565,
        0.20160749554634094,
        0.13013121485710144,
        0.31278157234191895,
        0.1776934266090393,
        -0.004894142039120197,
        -0.3597552478313446,
        0.12377828359603882
      ],
      [
        0.046142131090164185,
        -0.5532704591751099,
        -0.0062311431393027306,
        -0.1357382982969284,
        -0.09095966070890427,
        0.2654757499694824,
        0.35802048444747925,
        0.0556974932551384,
        0.6269469857215881,
        -0.4539705216884613,
        -0.01506238617002964,
        -0.02034766972064972,
        0.07836601883172989,
        0.14534759521484375,
        -0.17334233224391937,
        0.14506720006465912,
        -0.12939801812171936,
        0.07058551162481308,
        -0.2037866711616516,
        -0.11573567241430283,
        -0.2713106870651245,
        0.04301600903272629,
        -0.04933113977313042,
        -0.244442880153656,
        0.2453826367855072,
        -0.6230919361114502,
        0.08426705747842789,
        0.14121808111667633,
        -0.11443282663822174,
        -0.2646278142929077,
        0.37486565113067627,
        -0.2964891493320465,
        0.09563756734132767,
        0.5147920250892639,
        0.596028745174408,
        -0.18257656693458557,
        -0.5856581330299377,
        -0.04033191502094269,
        -0.3086598217487335,
        0.1696065068244934,
        0.28027892112731934,
        0.07369507849216461,
        0.3253713548183441,
        0.08983342349529266,
        -0.007074572611600161,
        -0.7285494208335876,
        -0.28376519680023193,
        0.07249727845191956
      ],
      [
        -0.21712101995944977,
        0.07375931739807129,
        0.3686463236808777,
        -0.5031174421310425,
        -0.23773442208766937,
        -0.2684883773326874,
        0.47579067945480347,
        -0.1347162425518036,
        -0.13582324981689453,
        0.46099141240119934,
        0.11803287267684937,
        -0.0828457698225975,
        -0.17826303839683533,
        -0.4615969657897949,
        0.1536145806312561,
        -0.035259317606687546,
        0.3383633494377136,
        0.2506125867366791,
        -0.046703871339559555,
        0.23965544998645782,
        0.385761022567749,
        0.008621284738183022,
        -0.7427577376365662,
        0.4078412652015686,
        -0.0033334887120872736,
        0.09162437170743942,
        -0.2663593590259552,
        -0.3512484133243561,
        -0.07756616175174713,
        -0.21329128742218018,
        0.100104920566082,
        0.08353950083255768,
        -0.13922323286533356,
        -0.16152282059192657,
        -0.12354675680398941,
        0.11528843641281128,
        0.1212657168507576,
        -0.4680631160736084,
        -0.0911320149898529,
        -0.33948779106140137,
        0.34540560841560364,
        0.27489104866981506,
        -0.019517648965120316,
        -0.6008625030517578,
        0.0059210192412137985,
        0.06807097047567368,
        0.3913739323616028,
        -0.48215052485466003
      ]
    ],
    "ff.lin2.bias": [
      0.16315147280693054,
      0.24496148526668549,
      -0.25493744015693665,
      0.14488624036312103,
      -0.01905793510377407,
      0.10201477259397507,
      0.08820580691099167,
      0.02615947648882866,
      -0.09551603347063065,
      0.013567417860031128,
      -0.0008032892365008593,
      -0.223996102809906
    ]
  }
}