{
  "block_0": {
    "att.W_query.weight": [
      [
        -0.024824751541018486,
        0.16555123031139374,
        -0.25843897461891174,
        -0.23045071959495544,
        -0.0891324132680893,
        0.6709867119789124,
        0.14092622697353363,
        0.232001394033432,
        0.027517108246684074,
        -0.4240534007549286,
        -0.026063652709126472,
        -0.3836840093135834
      ],
      [
        -0.06173762306571007,
        -0.2879602909088135,
        0.27386021614074707,
        -0.03497783839702606,
        -0.08019012212753296,
        0.33762016892433167,
        -0.14266087114810944,
        -0.5259377956390381,
        0.005208828020840883,
        -0.17616625130176544,
        0.2957139015197754,
        -0.014824573881924152
      ],
      [
        -0.19273428618907928,
        -0.264403373003006,
        0.5608027577400208,
        -0.0304111298173666,
        -0.38759946823120117,
        -0.04023485258221626,
        -0.17355620861053467,
        0.15055611729621887,
        0.2530197203159332,
        0.4567257761955261,
        0.2969006597995758,
        -0.24765349924564362
      ],
      [
        -0.31954309344291687,
        0.004139749798923731,
        -0.026459231972694397,
        -0.00467973155900836,
        0.43440279364585876,
        -0.21458950638771057,
        0.47876250743865967,
        -0.28340786695480347,
        0.4189643859863281,
        0.2730221748352051,
        0.06045399606227875,
        0.3239004909992218
      ],
      [
        -0.0303609911352396,
        -0.2788286507129669,
        0.6735037565231323,
        -0.09063051640987396,
        -0.01424795389175415,
        0.3043992817401886,
        -0.005427307449281216,
        0.28631311655044556,
        0.5553171038627625,
        0.05287233367562294,
        -0.4914671778678894,
        0.022926712408661842
      ],
      [
        -0.21873322129249573,
        -0.4907304048538208,
        0.034264374524354935,
        0.25001880526542664,
        0.12483936548233032,
        0.13326169550418854,
        0.11582113802433014,
        -0.13607507944107056,
        0.4500742554664612,
        0.0853254646062851,
        0.041915930807590485,
        -0.42067864537239075
      ],
      [
        0.27747392654418945,
        0.3881663680076599,
        0.3178092837333679,
        0.026867665350437164,
        -0.1807682067155838,
        -0.26407620310783386,
        0.02481837384402752,
        0.02719823643565178,
        -0.6471003293991089,
        -0.5055707693099976,
        0.06662380695343018,
        0.020912015810608864
      ],
      [
        0.37111979722976685,
        0.0491139255464077,
        0.062115054577589035,
        0.7437061667442322,
        -0.08351816982030869,
        -0.10156743973493576,
        -0.3676433563232422,
        -0.6982611417770386,
        0.1222718358039856,
        -0.33658573031425476,
        0.17034859955310822,
        0.080056332051754
      ],
      [
        0.48086172342300415,
        0.12477687001228333,
        0.04385533556342125,
        -0.12375674396753311,
        -0.5429375171661377,
        0.004303499590605497,
        -0.36458465456962585,
        -0.1669810563325882,
        0.2953343987464905,
        -0.11319110542535782,
        -0.3462435305118561,
        -0.10600369423627853
      ],
      [
        0.22480514645576477,
        -0.4787440299987793,
        -0.3019934296607971,
        0.2523561120033264,
        0.46095502376556396,
        0.15462853014469147,
        0.6504988074302673,
        0.10884727537631989,
        -0.19170482456684113,
        -0.6865206956863403,
        0.1579645425081253,
        0.5127021074295044
      ],
      [
        -0.028117842972278595,
        0.0919179916381836,
        0.3345373868942261,
        -0.35334932804107666,
        -0.21595166623592377,
        -0.17689895629882812,
        -0.5226898193359375,
        0.23452922701835632,
        -0.05091750994324684,
        -0.37380215525627136,
        0.19171208143234253,
        0.7471519112586975
      ],
      [
        0.08890748023986816,
        0.6172307133674622,
        -0.32941436767578125,
        -0.6362345814704895,
        -0.09655885398387909,
        0.2624809145927429,
        0.12036240845918655,
        -0.29937297105789185,
        0.44163259863853455,
        -0.21941415965557098,
        0.5563313364982605,
        -0.36872902512550354
      ]
    ],
    "att.W_query.bias": null,
    "att.W_key.weight": [
      [
        -0.34589847922325134,
        -0.651382565498352,
        0.06775709986686707,
        0.2182719111442566,
        -0.27617788314819336,
        -0.377123087644577,
        0.5595011711120605,
        0.11470135301351547,
        0.017242349684238434,
        -0.030976030975580215,
        0.19244663417339325,
        0.03053741343319416
      ],
      [
        0.2989574372768402,
        -0.11202290654182434,
        0.5375053286552429,
        -0.13642878830432892,
        -0.3129368722438812,
        -0.20392073690891266,
        -0.1383993774652481,
        0.020802946761250496,
        0.5587376356124878,
        -0.07958035916090012,
        0.01967703551054001,
        0.08322982490062714
      ],
      [
        0.010850226506590843,
        -0.012261164374649525,
        0.5594486594200134,
        -0.10326924175024033,
        0.551230788230896,
        -0.12403112649917603,
        -0.20844128727912903,
        0.026730941608548164,
        0.5507376194000244,
        0.2286181002855301,
        0.4129050374031067,
        -0.27493950724601746
      ],
      [
        0.3823324143886566,
        0.06252618134021759,
        -0.2690856456756592,
        -0.062153227627277374,
        -0.20001260936260223,
        0.017625296488404274,
        -0.265669047832489,
        -0.1281980723142624,
        -0.5379345417022705,
        0.0818389430642128,
        0.4759634733200073,
        0.3856634795665741
      ],
      [
        0.02708951197564602,
        0.44881656765937805,
        0.24417054653167725,
        0.42855799198150635,
        0.15920640528202057,
        -0.672810435295105,
        -0.0007275574025698006,
        -0.320424348115921,
        0.20149071514606476,
        -0.19331172108650208,
        0.5302094221115112,
        0.00792794581502676
      ],
      [
        -0.08264163136482239,
        0.060485515743494034,
        0.6102167367935181,
        -0.29403507709503174,
        0.09998580813407898,
        -0.420896977186203,
        -0.24643948674201965,
        -0.023442495614290237,
        0.013007624074816704,
        0.2018725425004959,
        0.4052836298942566,
        0.2537500262260437
      ],
      [
        0.309062659740448,
        0.5448193550109863,
        -0.2180309295654297,
        0.38612136244773865,
        0.1566963791847229,
        -0.10223975777626038,
        -0.3150130808353424,
        -0.2514529824256897,
        -0.4316714406013489,
        -0.14862357079982758,
        0.5945771336555481,
        0.18828900158405304
      ],
      [
        0.2364995777606964,
        0.06783220171928406,
        -0.25245946645736694,
        0.010940316133201122,
        0.6569951772689819,
        -0.2529261112213135,
        0.08390974998474121,
        0.5290936827659607,
        -0.6679543852806091,
        0.30107858777046204,
        -0.22527837753295898,
        -0.17963726818561554
      ],
      [
        0.006575749721378088,
        -0.3889329731464386,
        0.10541735589504242,
        -0.2750779390335083,
        0.10508646070957184,
        0.23419107496738434,
        -0.39028865098953247,
        0.2885814309120178,
        -0.38523679971694946,
        0.09497249871492386,
        0.39640623331069946,
        0.20440007746219635
      ],
      [
        -0.10069099813699722,
        0.17478980123996735,
        0.15249185264110565,
        0.4450724720954895,
        0.08878423273563385,
        -0.6358258724212646,
        0.11620527505874634,
        -0.45152243971824646,
        0.22029291093349457,
        0.1549546867609024,
        0.09964282810688019,
        -0.8641300201416016
      ],
      [
        -0.6137047410011292,
        0.49051323533058167,
        0.3483021855354309,
        0.021097177639603615,
        0.29778969287872314,
        -0.10144368559122086,
        -0.42102861404418945,
        -0.3150876462459564,
        -0.4029846787452698,
        -0.06037672236561775,
        0.12531614303588867,
        0.6646605730056763
      ],
      [
        0.4274293780326843,
        -0.8558403849601746,
        0.3428318202495575,
        0.40598851442337036,
        0.07439916580915451,
        0.16323769092559814,
        -0.06442734599113464,
        0.1397775411605835,
        -0.14979583024978638,
        -0.30451419949531555,
        -0.07860609143972397,
        0.3457392454147339
      ]
    ],
    "att.W_key.bias": null,
    "att.W_value.weight": [
      [
        -0.1449211686849594,
        -0.25442928075790405,
        0.47338682413101196,
        0.22415271401405334,
        -0.41365140676498413,
        0.29857760667800903,
        -0.42888861894607544,
        -0.38879266381263733,
        -0.2112492471933365,
        0.19224701821804047,
        -0.20534469187259674,
        0.28143545985221863
      ],
      [
        0.5222813487052917,
        0.028824839740991592,
        -0.2875939607620239,
        -0.26037395000457764,
        0.2469140887260437,
        -0.08119676262140274,
        -0.2150418758392334,
        -0.2710427939891815,
        0.01956680417060852,
        0.21561767160892487,
        -0.6204505562782288,
        0.33404576778411865
      ],
      [
        0.37603506445884705,
        0.04200728237628937,
        -0.02909252978861332,
        -0.44000551104545593,
        -0.5029907822608948,
        0.10253658145666122,
        0.2033572942018509,
        0.1366073340177536,
        0.439328670501709,
        -0.36143478751182556,
        -0.2961350381374359,
        0.16989926993846893
      ],
      [
        0.41350242495536804,
        -0.4526323080062866,
        0.1382632851600647,
        0.48412853479385376,
        0.1408931463956833,
        0.3787415325641632,
        -0.18251344561576843,
        -0.5307509899139404,
        0.0041413758881390095,
        -0.4279994070529938,
        0.17937728762626648,
        0.10990909487009048
      ],
      [
        -0.352922648191452,
        0.18993517756462097,
        -0.044255632907152176,
        0.13110987842082977,
        0.18442746996879578,
        0.08420093357563019,
        -0.6023998260498047,
        0.4059063792228699,
        0.19574393332004547,
        -0.1369892805814743,
        -0.3175608515739441,
        0.2778344750404358
      ],
      [
        -0.4807020425796509,
        -0.12038683146238327,
        -0.0894613265991211,
        0.37519073486328125,
        -0.47469562292099,
        -0.3958297669887543,
        0.23309822380542755,
        0.535856306552887,
        0.03560919687151909,
        0.024556806311011314,
        0.015389267355203629,
        0.3786235749721527
      ],
      [
        -0.10940118879079819,
        -0.22323302924633026,
        0.06389568001031876,
        0.33612146973609924,
        0.37276002764701843,
        -0.22061024606227875,
        -0.22626656293869019,
        -0.28695017099380493,
        -0.08854205906391144,
        0.17649830877780914,
        0.3514452874660492,
        0.28667086362838745
      ],
      [
        0.308006227016449,
        0.2819446325302124,
        0.31258416175842285,
        0.28640538454055786,
        0.49376213550567627,
        0.09692364186048508,
        -0.34104397892951965,
        -0.48106926679611206,
        -0.025758253410458565,
        -0.3539891839027405,
        -0.28156089782714844,
        -0.33058568835258484
      ],
      [
        0.01264242734760046,
        -0.3792937994003296,
        0.40148940682411194,
        -0.18874730169773102,
        -0.09312380850315094,
        0.22660499811172485,
        0.4058542847633362,
        -0.4665525555610657,
        -0.18823117017745972,
        -0.1559373289346695,
        0.2749706208705902,
        0.0976126417517662
      ],
      [
        0.04448263719677925,
        0.03475068509578705,
        -0.579332709312439,
        0.12046215683221817,
        0.0956706553697586,
        0.3114267885684967,
        0.12989845871925354,
        -0.025346245616674423,
        0.0615103542804718,
        -0.21241171658039093,
        0.5224390029907227,
        -0.22953209280967712
      ],
      [
        0.2857379913330078,
        -0.3926135301589966,
        0.2984183430671692,
        -0.047782380133867264,
        0.2802515923976898,
        -0.4376082420349121,
        0.04171103984117508,
        0.01656569354236126,
        -0.04821162298321724,
        0.43017032742500305,
        -0.006726862862706184,
        -0.16795708239078522
      ],
      [
        0.1792081594467163,
        0.17949554324150085,
        0.3758726716041565,
        -0.5833239555358887,
        -0.27376845479011536,
        -0.028383931145071983,
        -0.06710837036371231,
        -0.22456304728984833,
        0.1723977029323578,
        0.16998732089996338,
        0.5064072608947754,
        0.08588574826717377
      ]
    ],
    "att.W_value.bias": null,
    "att.out_proj.weight": [
      [
        -0.4947044551372528,
        -0.09252600371837616,
        -0.46372607350349426,
        -0.10091910511255264,
        -0.15523861348628998,
        0.0483449287712574,
        0.48284393548965454,
        -0.4989841878414154,
        0.33752694725990295,
        -0.09641841053962708,
        -0.0639180839061737,
        -0.19006001949310303
      ],
      [
        -0.5471370816230774,
        0.24889051914215088,
        0.5977354049682617,
        -0.42895397543907166,
        -0.3528144955635071,
        -0.5597301721572876,
        -0.2006341516971588,
        -0.2413489818572998,
        0.33995476365089417,
        -0.0785713940858841,
        0.2182489037513733,
        0.4852096438407898
      ],
      [
        -0.22242116928100586,
        -0.18783877789974213,
        -0.2711203694343567,
        -0.5395352840423584,
        -0.05592508614063263,
        0.3660888075828552,
        0.16396549344062805,
        0.7865977883338928,
        -0.09473617374897003,
        -0.16395007073879242,
        0.12401112914085388,
        -0.12570245563983917
      ],
      [
        0.11244864761829376,
        -0.3962198793888092,
        0.15557193756103516,
        -0.14405271410942078,
        -0.2562849223613739,
        0.3985489010810852,
        -0.3417476415634155,
        -0.025760577991604805,
        -0.004805613774806261,
        -0.12622040510177612,
        -0.39147070050239563,
        0.11083842813968658
      ],
      [
        -0.2331123799085617,
        -0.2858152389526367,
        0.1631467044353485,
        0.2397747039794922,
        0.43147772550582886,
        0.05942591279745102,
        -0.42839309573173523,
        0.2621113657951355,
        0.2642929255962372,
        0.37145259976387024,
        -0.3224213123321533,
        -0.3120279908180237
      ],
      [
        -0.02919282764196396,
        -0.26222485303878784,
        -0.25010183453559875,
        0.5317613482475281,
        -0.5456302762031555,
        -0.1420905590057373,
        0.20177370309829712,
        -0.2498525083065033,
        -0.19430743157863617,
        -0.19860844314098358,
        -0.2133406400680542,
        0.3695511221885681
      ],
      [
        0.48154622316360474,
        0.3217717111110687,
        -0.17129148542881012,
        0.2952274680137634,
        -0.0828888788819313,
        -0.3833836317062378,
        0.2924828827381134,
        0.26019376516342163,
        0.15306426584720612,
        -0.12391412258148193,
        0.16262999176979065,
        0.3044452667236328
      ],
      [
        -0.16620932519435883,
        0.2829572558403015,
        -0.0403934046626091,
        0.36244040727615356,
        -0.12074524909257889,
        -0.6357022523880005,
        -0.23222318291664124,
        -0.12475734204053879,
        -0.5207559466362,
        -0.34924641251564026,
        0.0977092906832695,
        -0.3997805714607239
      ],
      [
        0.2540145814418793,
        -0.05993516743183136,
        0.44581639766693115,
        0.278425008058548,
        0.15691223740577698,
        0.47786909341812134,
        0.02216367796063423,
        -0.2731986343860626,
        0.030334442853927612,
        -0.17136113345623016,
        0.4456900954246521,
        0.012450109235942364
      ],
      [
        0.22883687913417816,
        -0.3413500487804413,
        -0.3966660797595978,
        -0.1199873685836792,
        0.26171714067459106,
        -0.12891419231891632,
        0.12972109019756317,
        0.22812825441360474,
        0.13748520612716675,
        0.28809821605682373,
        0.1564631164073944,
        0.14768125116825104
      ],
      [
        -0.042657047510147095,
        0.2675338685512543,
        0.01029073353856802,
        0.11333876103162766,
        -0.02688629925251007,
        0.1847381442785263,
        -0.06696967780590057,
        -0.0361047126352787,
        -0.36273500323295593,
        0.43847739696502686,
        -0.3076280951499939,
        -0.0342252291738987
      ],
      [
        0.1254480630159378,
        0.5461284518241882,
        -0.07095301896333694,
        -0.1370437741279602,
        0.42528459429740906,
        0.33323314785957336,
        0.20725320279598236,
        -0.16785511374473572,
        -0.3233010172843933,
        0.07730616629123688,
        0.1567600965499878,
        -0.39861100912094116
      ]
    ],
    "att.out_proj.bias": [
      0.10833191126585007,
      0.13806766271591187,
      0.08905087411403656,
      0.14472049474716187,
      -0.04541640356183052,
      0.01924864947795868,
      -0.05160831660032272,
      -0.06455725431442261,
      -0.0919862911105156,
      -0.027277706190943718,
      -0.09048141539096832,
      -0.050404492765665054
    ],
    "norm1.scale": [
      0.7613745927810669,
      0.9764021635055542,
      0.9252132177352905,
      0.9577946066856384,
      0.8635085821151733,
      0.9303464293479919,
      0.8038369417190552,
      0.9537732005119324,
      0.9148610234260559,
      0.6992966532707214,
      0.9422379732131958,
      0.8798492550849915
    ],
    "norm1.shift": [
      -0.008650685660541058,
      0.1470116525888443,
      -0.0412004180252552,
      0.037919413298368454,
      0.09422940760850906,
      -0.22907128930091858,
      0.034371472895145416,
      0.09643153101205826,
      -0.014811626635491848,
      -0.005774485878646374,
      0.024942180141806602,
      0.20659296214580536
    ],
    "norm2.scale": [
      1.1929643154144287,
      0.9866199493408203,
      0.9788388609886169,
      1.1670855283737183,
      1.075113296508789,
      1.0008301734924316,
      0.9882458448410034,
      1.1318719387054443,
      1.1364219188690186,
      1.186505675315857,
      1.080036997795105,
      0.8628422617912292
    ],
    "norm2.shift": [
      0.7192274928092957,
      0.31650498509407043,
      -0.07465109974145889,
      -0.022283172234892845,
      0.19603654742240906,
      -0.12402576953172684,
      0.037975139915943146,
      -0.3780107796192169,
      0.1254940629005432,
      -0.6690965294837952,
      -0.08261922746896744,
      0.010877149179577827
    ],
    "ff.lin1.weight": [
      [
        -0.5355462431907654,
        0.1532115340232849,
        -0.028354456648230553,
        0.04172874614596367,
        0.4917967617511749,
        -0.27003857493400574,
        -0.15481840074062347,
        0.19154079258441925,
        -0.04149385169148445,
        -0.026127876713871956,
        -0.3367300033569336,
        0.4386570155620575
      ],
      [
        0.26854437589645386,
        -0.43387502431869507,
        -0.13774923980236053,
        -0.04698771983385086,
        -0.4017195999622345,
        0.334323912858963,
        0.2967837154865265,
        0.2183634489774704,
        0.2297658920288086,
        0.5563543438911438,
        0.488445907831192,
        -0.5021598935127258
      ],
      [
        -0.060763951390981674,
        -0.40143173933029175,
        -0.4763457775115967,
        -0.0994984582066536,
        -0.2849777638912201,
        0.6001240015029907,
        -0.06997913122177124,
        -0.0999487116932869,
        -0.0437818206846714,
        -0.06459531933069229,
        0.32044002413749695,
        0.3372865319252014
      ],
      [
        -0.5179471969604492,
        -0.13611723482608795,
        0.12664151191711426,
        0.24484404921531677,
        0.026239732280373573,
        0.21750693023204803,
        0.11042796820402145,
        -0.14452169835567474,
        0.026766274124383926,
        -0.40944692492485046,
        0.33998408913612366,
        -0.2588595747947693
      ],
      [
        -0.6423446536064148,
        -0.11178366839885712,
        -0.07300713658332825,
        0.5333229303359985,
        -0.795664370059967,
        0.29250067472457886,
        0.015670964494347572,
        0.2908098101615906,
        0.06030144914984703,
        -0.272584468126297,
        0.561417281627655,
        0.03226824477314949
      ],
      [
        0.044294800609350204,
        -0.6953107118606567,
        0.07919208705425262,
        0.4438261091709137,
        -0.37344086170196533,
        0.5572770833969116,
        -0.15769945085048676,
        0.019389338791370392,
        -0.13480809330940247,
        0.052056752145290375,
        -0.09606433659791946,
        -0.2561607360839844
      ],
      [
        -0.12561890482902527,
        -0.24416808784008026,
        -0.7922775745391846,
        -0.5061104893684387,
        0.12467925250530243,
        -0.2411048263311386,
        -0.17219458520412445,
        0.43738436698913574,
        0.29004988074302673,
        0.236531063914299,
        0.7540683746337891,
        0.5116750001907349
      ],
      [
        -0.5749609470367432,
        -0.07057254761457443,
        -0.034531570971012115,
        -0.14520645141601562,
        -0.24832355976104736,
        0.30728840827941895,
        0.1498538851737976,
        0.5098543167114258,
        -0.5249466300010681,
        0.5475270748138428,
        -0.35467174649238586,
        -0.1959276646375656
      ],
      [
        0.054111920297145844,
        0.13656312227249146,
        -0.09765364229679108,
        0.3613131642341614,
        -0.3587707281112671,
        0.30357569456100464,
        -0.09048588573932648,
        -0.48477452993392944,
        0.2720480263233185,
        -0.0986449122428894,
        0.030041705816984177,
        0.03303011506795883
      ],
      [
        -0.6312966346740723,
        0.1255364865064621,
        -0.2087373584508896,
        0.22224028408527374,
        -0.371523380279541,
        -0.3203744888305664,
        -0.10866376757621765,
        0.06450976431369781,
        0.5337903499603271,
        0.212377667427063,
        -0.12241355329751968,
        0.3303578197956085
      ],
      [
        -0.22693660855293274,
        -0.14154818654060364,
        -0.20549564063549042,
        0.146744042634964,
        -0.5056706070899963,
        0.4830966591835022,
        0.02453520894050598,
        -0.17604634165763855,
        -0.11102289706468582,
        0.9822424054145813,
        0.5444190502166748,
        0.2992197871208191
      ],
      [
        -0.03771466761827469,
        0.16837945580482483,
        -0.4968157708644867,
        -0.16356010735034943,
        -0.004703017883002758,
        0.24427057802677155,
        -0.42875027656555176,
        0.6052579283714294,
        -0.1395777016878128,
        0.7054141759872437,
        -0.4262959957122803,
        -0.1396927833557129
      ],
      [
        0.0054429667070508,
        0.32107555866241455,
        0.3936391770839691,
        0.3403772711753845,
        -0.1955435872077942,
        -0.07012224942445755,
        -0.4480969309806824,
        0.2599789500236511,
        -0.7842140197753906,
        -0.035455282777547836,
        -0.04259422421455383,
        -0.08746647834777832
      ],
      [
        0.06570547074079514,
        0.09814970940351486,
        0.27944061160087585,
        -0.08289191871881485,
        -0.10185660421848297,
        -0.14641478657722473,
        0.34745049476623535,
        0.37300485372543335,
        -0.035883933305740356,
        -0.23852655291557312,
        0.07549635320901871,
        -0.10784769058227539
      ],
      [
        -0.19607281684875488,
        0.2877713739871979,
        0.0683358833193779,
        -0.2423509806394577,
        -0.252289742231369,
        -0.3112585246562958,
        -0.3720570206642151,
        0.581743597984314,
        0.29659736156463623,
        -0.1393839418888092,
        0.7295370101928711,
        -0.12325139343738556
      ],
      [
        -0.6627143621444702,
        0.07539545744657516,
        0.28452742099761963,
        0.4970012605190277,
        -0.20674006640911102,
        0.37962105870246887,
        -0.40456530451774597,
        -0.19684451818466187,
        0.33639585971832275,
        0.5366816520690918,
        0.009975999593734741,
        -0.36484643816947937
      ],
      [
        -0.008449031040072441,
        -0.5104925036430359,
        -0.27028554677963257,
        -0.4985286295413971,
        0.07486861199140549,
        0.17823165655136108,
        -0.02142092026770115,
        0.5086429119110107,
        -0.19671407341957092,
        -0.19983088970184326,
        -0.011787701398134232,
        0.27652764320373535
      ],
      [
        -0.16512955725193024,
        -0.0009542040061205626,
        -0.7385857701301575,
        0.19783823192119598,
        -0.31135115027427673,
        0.0010463299695402384,
        0.9465193152427673,
        -0.11472319811582565,
        -0.49362632632255554,
        0.49852797389030457,
        0.05950009450316429,
        -0.13003794848918915
      ],
      [
        -0.1616627424955368,
        0.44134825468063354,
        -0.4261113405227661,
        -0.18486344814300537,
        -0.0969521775841713,
        0.1676817238330841,
        0.12177713960409164,
        0.32832348346710205,
        0.4033491313457489,
        -0.41640469431877136,
        0.14982472360134125,
        -0.6777355074882507
      ],
      [
        -0.19639737904071808,
        -0.6811114549636841,
        0.4091651439666748,
        0.41127508878707886,
        0.08425216376781464,
        0.5259544849395752,
        -0.37386372685432434,
        -0.134925976395607,
        -0.5226301550865173,
        0.329150915145874,
        0.25007399916648865,
        0.29870733618736267
      ],
      [
        -0.4478098154067993,
        -0.07210742682218552,
        -0.023466989398002625,
        0.5857794284820557,
        -0.5600572228431702,
        -0.4581662118434906,
        0.22831067442893982,
        0.281475692987442,
        0.35431087017059326,
        0.5361554622650146,
        -0.10840783268213272,
        -0.3594420552253723
      ],
      [
        0.2074270397424698,
        -0.18058983981609344,
        -0.549330472946167,
        0.397357314825058,
        0.22086431086063385,
        -0.16979900002479553,
        -0.3750067949295044,
        0.3493170440196991,
        -0.4114818572998047,
        0.28025907278060913,
        0.16550010442733765,
        -0.3799087405204773
      ],
      [
        0.11841266602277756,
        -0.1430787891149521,
        -0.18781235814094543,
        0.11104240268468857,
        -0.3498077392578125,
        -0.19410166144371033,
        0.1504746526479721,
        0.7199867963790894,
        0.011080890893936157,
        -0.07200093567371368,
        -0.5243045091629028,
        0.062196534126996994
      ],
      [
        0.12028679996728897,
        -0.07667361944913864,
        0.3507038652896881,
        0.0015288644935935736,
        -0.49609267711639404,
        0.30389633774757385,
        0.06395980715751648,
        0.43333664536476135,
        0.16460548341274261,
        0.290362685918808,
        0.5305674076080322,
        -0.8141100406646729
      ],
      [
        -0.07858873903751373,
        -0.3202704191207886,
        0.004104523453861475,
        0.060242291539907455,
        0.2743319272994995,
        0.20347890257835388,
        0.08096574246883392,
        -0.32696375250816345,
        0.5962929725646973,
        -0.3283979594707489,
        -0.14910665154457092,
        0.14889979362487793
      ],
      [
        0.04154691845178604,
        0.25493189692497253,
        0.41107985377311707,
        -0.7720162272453308,
        -0.2605864107608795,
        -0.07977180927991867,
        -0.18084223568439484,
        0.4671614468097687,
        0.13292568922042847,
        0.3553633391857147,
        -0.2990403175354004,
        -0.043559424579143524
      ],
      [
        -0.22468481957912445,
        0.4966621398925781,
        -0.07930386811494827,
        -0.8442748785018921,
        0.02607128769159317,
        0.003108586184680462,
        -0.16984923183918,
        0.10622258484363556,
        0.3033066391944885,
        0.3567574918270111,
        0.16289585828781128,
        -0.3082490563392639
      ],
      [
        -1.0383875370025635,
        0.27278247475624084,
        0.4940590560436249,
        0.32993918657302856,
        -0.21396389603614807,
        -0.3542233407497406,
        0.09484182298183441,
        0.24689774215221405,
        0.2263466715812683,
        0.08925705403089523,
        0.13217179477214813,
        0.11945302784442902
      ],
      [
        -0.40354302525520325,
        0.30744296312332153,
        0.04478633031249046,
        -0.01750139892101288,
        -0.9455298185348511,
        0.26180657744407654,
        0.21116593480110168,
        0.0369139164686203,
        0.02319253422319889,
        -0.009176259860396385,
        0.3044247031211853,
        0.5977383852005005
      ],
      [
        -0.04874567687511444,
        -0.06328299641609192,
        0.24833498895168304,
        0.14748796820640564,
        0.02314649149775505,
        -0.47235825657844543,
        0.22835645079612732,
        0.08772198855876923,
        -0.3909226059913635,
        -0.20262417197227478,
        0.502478837966919,
        0.2743079960346222
      ],
      [
        -0.34542566537857056,
        -0.06612294167280197,
        -0.04648001492023468,
        0.11725340783596039,
        -0.6875349283218384,
        0.466217041015625,
        0.01988837495446205,
        -0.5118951797485352,
        -0.06753639131784439,
        0.43978387117385864,
        0.7065982222557068,
        0.17679022252559662
      ],
      [
        -0.6662182807922363,
        -0.5265615582466125,
        0.14993873238563538,
        -0.21056021749973297,
        0.006105992943048477,
        -0.5443404912948608,
        0.06329437345266342,
        0.7897457480430603,
        0.39287111163139343,
        0.6656993627548218,
        -0.051374319940805435,
        -0.09332472831010818
      ],
      [
        -0.7654995322227478,
        -0.1721949577331543,
        0.22645704448223114,
        0.38212892413139343,
        -0.2316887378692627,
        0.6060101985931396,
        0.2827874422073364,
        0.06372429430484772,
        -0.3246159255504608,
        0.07456812262535095,
        -0.45750313997268677,
        0.3145938813686371
      ],
      [
        -0.2446662336587906,
        0.09236650913953781,
        -0.29038527607917786,
        -0.05229800194501877,
        0.24447312951087952,
        0.2917870879173279,
        0.25372493267059326,
        0.5141801834106445,
        -0.19186703860759735,
        -0.2973656952381134,
        -0.36541542410850525,
        0.044684141874313354
      ],
      [
        0.02939504198729992,
        -0.5133954286575317,
        -0.11283273994922638,
        0.3927117586135864,
        0.003492939518764615,
        -0.20885325968265533,
        -0.29774367809295654,
        -0.15680426359176636,
        0.5521271228790283,
        0.44908079504966736,
        0.4049547016620636,
        -0.1925569772720337
      ],
      [
        -0.15919514000415802,
        0.3518942594528198,
        0.1840354949235916,
        -0.35973262786865234,
        -0.2825092375278473,
        0.3007325828075409,
        -0.47397202253341675,
        -0.061819884926080704,
        -0.08922014385461807,
        0.1411827951669693,
        0.49311161041259766,
        -0.3063114881515503
      ],
      [
        -0.3440897762775421,
        -0.2610754668712616,
        -0.4285493791103363,
        0.17289653420448303,
        0.19646476209163666,
        -0.22693832218647003,
        0.7069531679153442,
        -0.3425540030002594,
        -0.1356470286846161,
        0.7030830383300781,
        -0.16353827714920044,
        0.18779586255550385
      ],
      [
        0.3377727270126343,
        -0.27680689096450806,
        -0.15831108391284943,
        -0.19891339540481567,
        -0.25161388516426086,
        -0.20710605382919312,
        -0.039686817675828934,
        -0.31745022535324097,
        -0.10125480592250824,
        -0.4216148257255554,
        0.21345791220664978,
        0.014727316796779633
      ],
      [
        -0.8143300414085388,
        -0.2191682755947113,
        0.06764014065265656,
        -0.21374717354774475,
        -0.027045724913477898,
        -0.26321351528167725,
        0.738051176071167,
        0.338553249835968,
        0.32302430272102356,
        -0.04228901118040085,
        -0.31246116757392883,
        0.13997885584831238
      ],
      [
        -0.6287144422531128,
        0.22050952911376953,
        0.43442246317863464,
        0.31019118428230286,
        -0.05698273703455925,
        0.1792205423116684,
        0.06015237793326378,
        -0.32152801752090454,
        0.39644280076026917,
        0.5201983451843262,
        -0.5992526412010193,
        -0.33954185247421265
      ],
      [
        -0.6970402002334595,
        0.23405861854553223,
        -0.028420206159353256,
        -0.1428513079881668,
        0.054581236094236374,
        0.3550819158554077,
        0.3342829644680023,
        0.2670145034790039,
        -0.6655921339988708,
        -0.14907169342041016,
        0.09752184897661209,
        -0.025478001683950424
      ],
      [
        -0.31177061796188354,
        -0.21381080150604248,
        -0.3481405973434448,
        0.21574614942073822,
        -0.26078715920448303,
        0.23424211144447327,
        -0.03548162057995796,
        0.37318164110183716,
        0.2618207335472107,
        0.8651548027992249,
        -0.18254490196704865,
        0.37708401679992676
      ],
      [
        -0.18573889136314392,
        -0.34910762310028076,
        0.3567483127117157,
        0.25573450326919556,
        0.17699968814849854,
        -0.5129984021186829,
        -0.34970641136169434,
        0.726879894733429,
        -0.5200883150100708,
        0.29020029306411743,
        0.4236489236354828,
        -0.17003534734249115
      ],
      [
        0.077378049492836,
        0.686482310295105,
        -0.23305971920490265,
        -0.12541590631008148,
        -0.397749125957489,
        -0.14392679929733276,
        -0.1946132779121399,
        0.28922683000564575,
        -0.4558436870574951,
        0.2830953299999237,
        0.15324275195598602,
        -0.029408378526568413
      ],
      [
        -0.19569718837738037,
        0.005945869255810976,
        0.035266388207674026,
        -0.5255688428878784,
        -0.4032444357872009,
        0.6303479671478271,
        -0.3809033930301666,
        -0.12322439253330231,
        0.34664320945739746,
        -0.12618020176887512,
        0.09854740649461746,
        0.5056816935539246
      ],
      [
        0.06502033770084381,
        0.136898472905159,
        0.1736362874507904,
        0.20886275172233582,
        -0.5366514921188354,
        0.2703990340232849,
        -0.5084671974182129,
        0.3342093527317047,
        0.3661940097808838,
        0.40146419405937195,
        -0.2409772425889969,
        -0.053417887538671494
      ],
      [
        0.06608729064464569,
        -0.014002660289406776,
        -0.07271347939968109,
        -0.06618046760559082,
        0.6451255083084106,
        -0.1588859111070633,
        0.14941523969173431,
        0.16377435624599457,
        -0.5356163382530212,
        0.45244207978248596,
        0.23813298344612122,
        0.2031724750995636
      ],
      [
        -0.30315321683883667,
        0.032367948442697525,
        -0.7394331097602844,
        0.2647574841976166,
        -0.195761576294899,
        -0.17826944589614868,
        0.6351231932640076,
        0.15345695614814758,
        0.22642956674098969,
        0.2113109827041626,
        0.2934039235115051,
        -0.06226377561688423
      ]
    ],
    "ff.lin1.bias": [
      -0.226657897233963,
      0.052617378532886505,
      -0.02715911716222763,
      -0.22700752317905426,
      -0.0807742327451706,
      -0.29962357878685,
      -0.623624324798584,
      -0.2620696723461151,
      -0.16517502069473267,
      -0.21162161231040955,
      -0.4286034405231476,
      -0.14811086654663086,
      -0.37585118412971497,
      -0.5331152081489563,
      -0.5179089903831482,
      0.024020276963710785,
      -0.2919465899467468,
      -0.18954384326934814,
      -0.21229764819145203,
      -0.22631646692752838,
      -0.23176605999469757,
      -0.2228994518518448,
      -0.13699665665626526,
      -0.2552565038204193,
      -0.46409907937049866,
      -0.3531261682510376,
      -0.12037476152181625,
      -0.7731905579566956,
      -0.1440051794052124,
      -0.35533949732780457,
      -0.5039955973625183,
      0.03334673494100571,
      -0.07787009328603745,
      -0.1043122336268425,
      -0.5157935619354248,
      -0.3189978301525116,
      -0.1958949863910675,
      -0.5815482139587402,
      -0.11747762560844421,
      -0.4263435900211334,
      -0.2957299053668976,
      -0.3445380926132202,
      -0.45535773038864136,
      -0.3918825685977936,
      0.0362870991230011,
      -0.10896523296833038,
      -0.15736761689186096,
      -0.04047388583421707
    ],
    "ff.lin2.weight": [
      [
        -0.26579609513282776,
        0.05054192245006561,
        -0.19978001713752747,
        -0.11381285637617111,
        0.3581295311450958,
        -0.14663486182689667,
        -0.0515444353222847,
        0.3640788495540619,
        -0.016797101125121117,
        -0.31762459874153137,
        -0.20025420188903809,
        -0.17953066527843475,
        0.15273825824260712,
        -0.1928282380104065,
        0.14233292639255524,
        -0.14069199562072754,
        -0.30018314719200134,
        0.3294268250465393,
        0.3621547222137451,
        0.25658753514289856,
        0.42278915643692017,
        0.20587673783302307,
        -0.0419490672647953,
        -0.00706849480047822,
        -0.18734796345233917,
        -0.47941747307777405,
        -0.010707123205065727,
        -0.41931021213531494,
        0.3111782968044281,
        -0.01832723431289196,
        -0.045327797532081604,
        0.42136839032173157,
        0.2748907804489136,
        -0.16843824088573456,
        0.15120087563991547,
        -0.02252022735774517,
        0.1550135612487793,
        0.38799482583999634,
        0.18524129688739777,
        -0.4578531086444855,
        -0.03848645091056824,
        -0.2413562834262848,
        0.1663530170917511,
        0.08556821197271347,
        -0.0733814612030983,
        -0.24436254799365997,
        0.08081052452325821,
        -0.1925233155488968
      ],
      [
        0.13834722340106964,
        0.1775209754705429,
        0.23294876515865326,
        0.15534472465515137,
        0.07976578921079636,
        -0.10742036998271942,
        0.022340524941682816,
        0.05518045648932457,
        0.0021907708141952753,
        0.09859180450439453,
        0.23699095845222473,
        0.02195943519473076,
        0.09923917055130005,
        -0.15549688041210175,
        0.06206970289349556,
        -0.17255191504955292,
        0.15386269986629486,
        -0.13095879554748535,
        0.24798418581485748,
        0.17524582147598267,
        -0.3550916612148285,
        -0.21485255658626556,
        -0.011761576868593693,
        0.32897046208381653,
        -0.16747751832008362,
        -0.036830805242061615,
        -0.42368295788764954,
        0.487213671207428,
        0.05788876488804817,
        -0.2582090497016907,
        0.433908075094223,
        -0.10066178441047668,
        -0.4174290597438812,
        -0.033679913729429245,
        -0.4872531592845917,
        -0.015442471019923687,
        0.1763465851545334,
        -0.13931217789649963,
        -0.2970982789993286,
        -0.09873227775096893,
        0.15465401113033295,
        0.30547788739204407,
        -0.35676130652427673,
        -0.14110107719898224,
        -0.5291708111763,
        -0.16859783232212067,
        -0.13012441992759705,
        0.36377274990081787
      ],
      [
        0.06209500506520271,
        -0.33468446135520935,
        -0.07426932454109192,
        0.03288247436285019,
        -0.6014348864555359,
        -0.21733146905899048,
        0.26231080293655396,
        -0.16480030119419098,
        0.03179790824651718,
        0.3601154088973999,
        -0.5915666818618774,
        -0.3192412257194519,
        -0.1528513878583908,
        0.17261391878128052,
        0.18812169134616852,
        -0.5592482686042786,
        -0.46955013275146484,
        0.4167194068431854,
        0.08724652975797653,
        -0.6652458906173706,
        -0.5453564524650574,
        -0.10999882966279984,
        -0.35549047589302063,
        -0.2707133889198303,
        -0.014908225275576115,
        0.12124168127775192,
        0.21350373327732086,
        0.3283955752849579,
        -0.3003881871700287,
        0.1822916716337204,
        -0.2632577121257782,
        0.8086159229278564,
        -0.17955994606018066,
        -0.2841397523880005,
        -0.6574404835700989,
        0.26039519906044006,
        0.7976824045181274,
        -0.003505974542349577,
        0.013824885711073875,
        -0.37903711199760437,
        0.08339235186576843,
        -0.5230488181114197,
        0.7203079462051392,
        0.04483907297253609,
        0.2753232419490814,
        0.11300566047430038,
        0.23436763882637024,
        0.24035218358039856
      ],
      [
        -0.2586270570755005,
        -0.5914753675460815,
        0.10980908572673798,
        0.2980695366859436,
        0.1949722319841385,
        0.22753280401229858,
        -0.3282682001590729,
        -0.16270489990711212,
        0.3872411251068115,
        0.1289636641740799,
        -0.005942665971815586,
        0.39737245440483093,
        -0.38667038083076477,
        -0.07976189255714417,
        0.18680988252162933,
        0.14478935301303864,
        -0.10001540184020996,
        -0.06543102860450745,
        0.001031224732287228,
        0.14580069482326508,
        -0.1731802374124527,
        0.08714894950389862,
        -0.07989200949668884,
        0.11381775885820389,
        0.37769222259521484,
        0.3965334892272949,
        0.3406233787536621,
        -0.034057777374982834,
        -0.015900179743766785,
        -0.3615027964115143,
        -0.16572803258895874,
        -0.06354127079248428,
        -0.08261856436729431,
        0.22385573387145996,
        -0.12290327996015549,
        -0.17321544885635376,
        -0.25635233521461487,
        -0.20598863065242767,
        0.02924915961921215,
        -0.15566964447498322,
        -0.30653321743011475,
        0.3048034906387329,
        0.49277204275131226,
        0.4837314188480377,
        0.05763058736920357,
        0.37101665139198303,
        -0.08090153336524963,
        -0.2980733811855316
      ],
      [
        0.12807154655456543,
        0.3262835144996643,
        -0.2137669324874878,
        -0.15273456275463104,
        0.18342405557632446,
        0.3817625045776367,
        0.023844607174396515,
        0.37409383058547974,
        -0.265997052192688,
        -0.13094866275787354,
        0.03290582448244095,
        0.10103645920753479,
        -0.0446166954934597,
        -0.28333473205566406,
        0.06715305149555206,
        -0.0141829214990139,
        -0.15080298483371735,
        -0.41622960567474365,
        -0.2781153917312622,
        0.10477584600448608,
        -0.1688036024570465,
        -0.41764307022094727,
        0.21002554893493652,
        0.41711559891700745,
        0.17403465509414673,
        0.11611036956310272,
        0.19325366616249084,
        -0.7700511813163757,
        -0.1347903311252594,
        0.04155609756708145,
        -0.09434670954942703,
        -0.43324217200279236,
        0.09561242908239365,
        0.22600799798965454,
        0.05169767141342163,
        0.07572732865810394,
        -0.15215131640434265,
        0.0949617400765419,
        -0.3850429654121399,
        0.1427192986011505,
        0.31199583411216736,
        0.24692565202713013,
        -0.24697504937648773,
        -0.1665787249803543,
        -0.20191369950771332,
        -2.7078203856945038e-05,
        0.07121969014406204,
        -0.1675289273262024
      ],
      [
        0.383584588766098,
        0.6496512293815613,
        -0.08642171323299408,
        0.2670597732067108,
        0.1285591423511505,
        -0.4046105742454529,
        0.7751197218894958,
        0.6367923021316528,
        -0.21052956581115723,
        -0.3853945732116699,
        -0.5604082942008972,
        -0.003949304111301899,
        0.3845152258872986,
        0.19855424761772156,
        -0.5796012282371521,
        0.037836432456970215,
        -0.0018715588375926018,
        0.6217703819274902,
        -0.5238959789276123,
        -0.5864448547363281,
        -0.28790968656539917,
        0.18604888021945953,
        0.0066472371108829975,
        0.5922171473503113,
        -0.25549548864364624,
        0.04272998124361038,
        -0.4106086194515228,
        0.14066676795482635,
        -0.522461473941803,
        -0.05703972280025482,
        -0.7818136215209961,
        -0.21635447442531586,
        -0.16037394106388092,
        -0.057647690176963806,
        -0.37936514616012573,
        -0.1808985471725464,
        -0.04213183745741844,
        -0.018503278493881226,
        0.3534693419933319,
        0.5351225137710571,
        -0.05711524561047554,
        -0.2441166639328003,
        0.05480549857020378,
        -0.21277523040771484,
        0.16204509139060974,
        0.2393614798784256,
        -0.23667947947978973,
        0.5292543172836304
      ],
      [
        -0.09557710587978363,
        -0.21074247360229492,
        0.08455502986907959,
        -0.20830893516540527,
        -0.3997246026992798,
        0.3057839870452881,
        -0.26345008611679077,
        0.06097755581140518,
        -0.13525493443012238,
        -0.0983467549085617,
        0.4857557415962219,
        -0.49110710620880127,
        -0.03667508065700531,
        0.09505011886358261,
        -0.2650548219680786,
        0.5580553412437439,
        0.1223524957895279,
        -0.45196473598480225,
        0.09074494987726212,
        0.38329705595970154,
        0.06295707076787949,
        -0.30023059248924255,
        0.3028188645839691,
        -0.26811474561691284,
        -0.32429078221321106,
        -0.17263540625572205,
        0.3272084593772888,
        0.34277161955833435,
        0.16111749410629272,
        0.05972176790237427,
        0.11505941301584244,
        -0.10655363649129868,
        0.3866014778614044,
        0.21232545375823975,
        0.38194000720977783,
        -0.07148202508687973,
        -0.6062678694725037,
        0.0021487518679350615,
        0.10380128771066666,
        0.2643830180168152,
        0.04490882158279419,
        -0.09401684999465942,
        -0.031878117471933365,
        0.08046235144138336,
        0.10785248875617981,
        -0.270211398601532,
        -0.28677642345428467,
        -0.1956876963376999
      ],
      [
        0.12369997799396515,
        -0.2330765724182129,
        0.10777953267097473,
        -0.11483514308929443,
        -0.07468239963054657,
        -0.23282527923583984,
        -0.37558209896087646,
        -0.0028225674759596586,
        -0.1726425737142563,
        0.2073051929473877,
        -0.0743262842297554,
        -0.012508871965110302,
        -0.056097447872161865,
        0.1736985296010971,
        0.26844000816345215,
        0.1512461155653,
        0.36231866478919983,
        0.1539306640625,
        -0.34650713205337524,
        -0.2572266757488251,
        0.1864304095506668,
        0.11424090713262558,
        -0.0996006652712822,
        -0.5533254146575928,
        0.37971651554107666,
        0.03834967315196991,
        -0.30588990449905396,
        -0.17965269088745117,
        0.14793212711811066,
        -0.08839129656553268,
        0.4700932204723358,
        0.0017494484782218933,
        -0.5507614016532898,
        0.11271350830793381,
        0.13278254866600037,
        -0.15593689680099487,
        0.3073037564754486,
        0.3796806037425995,
        0.3360045850276947,
        0.152719184756279,
        -0.3697497546672821,
        0.3268812596797943,
        -0.2704284191131592,
        0.2552378475666046,
        0.04060475900769234,
        -0.324134886264801,
        0.14298704266548157,
        -0.1545594036579132
      ],
      [
        0.015512163750827312,
        -0.11466903984546661,
        -0.2469838261604309,
        0.008263151161372662,
        -0.559613823890686,
        0.17128205299377441,
        0.39679062366485596,
        -0.5148012042045593,
        -0.24434077739715576,
        0.009630175307393074,
        0.1767539232969284,
        0.5150316953659058,
        -0.2640954256057739,
        -0.03588014841079712,
        0.42976826429367065,
        -0.3474064767360687,
        0.0007116321939975023,
        -0.06334714591503143,
        0.1830400973558426,
        0.2100900560617447,
        -0.2662874758243561,
        0.30171310901641846,
        -0.10386818647384644,
        0.09346099942922592,
        -0.050735849887132645,
        -0.21804234385490417,
        -0.23238152265548706,
        -0.3488437831401825,
        0.3472460210323334,
        0.3884802758693695,
        0.1191449835896492,
        -0.10024627298116684,
        0.22646820545196533,
        -0.2591897249221802,
        0.007675474975258112,
        -0.17876772582530975,
        -0.02061089128255844,
        -0.10440155863761902,
        0.26840561628341675,
        -0.05818858742713928,
        -0.4099791646003723,
        0.10189736634492874,
        -0.2194584757089615,
        -0.5433889031410217,
        -0.05084212124347687,
        -0.22075803577899933,
        -0.3559657037258148,
        0.26958373188972473
      ],
      [
        -0.21405725181102753,
        -0.16512174904346466,
        0.1575430929660797,
        0.04599035903811455,
        0.048069536685943604,
        0.036813490092754364,
        -0.06511340290307999,
        -0.3266437351703644,
        0.1664087474346161,
        0.24739938974380493,
        -0.18363335728645325,
        -0.14781349897384644,
        -0.34748852252960205,
        -0.10381387919187546,
        -0.21306313574314117,
        0.3375379145145416,
        0.3437739610671997,
        0.12544608116149902,
        0.114385686814785,
        0.2788679003715515,
        0.47626030445098877,
        -0.3581157624721527,
        0.2499956488609314,
        0.004734891466796398,
        -0.009943319484591484,
        0.08282369375228882,
        0.14789935946464539,
        0.1768496185541153,
        -0.20150788128376007,
        -0.012036355212330818,
        -0.049295153468847275,
        0.5623135566711426,
        -0.5092556476593018,
        -0.27903831005096436,
        0.08077435195446014,
        -0.41678765416145325,
        -0.07653336971998215,
        0.02139464020729065,
        -0.31343355774879456,
        0.04675734043121338,
        0.3898770213127136,
        -0.19104334712028503,
        -0.00014980108244344592,
        0.120386503636837,
        0.25437602400779724,
        0.3949281573295593,
        0.4962603449821472,
        -0.23833246529102325
      ],
      [
        0.2907874286174774,
        0.03142276033759117,
        0.3811601400375366,
        0.2516466975212097,
        0.05936078727245331,
        0.011798391118645668,
        -0.5757696628570557,
        -0.3465273082256317,
        0.14461012184619904,
        0.18211130797863007,
        -0.14736558496952057,
        0.3144363462924957,
        0.09248844534158707,
        -0.08649364113807678,
        -0.2686372697353363,
        0.1272379755973816,
        0.008104586973786354,
        0.0007272675284184515,
        0.05409489944577217,
        -0.15052486956119537,
        0.20076656341552734,
        0.22304056584835052,
        -0.29800501465797424,
        -0.25945335626602173,
        -0.06261305510997772,
        -0.2630322277545929,
        0.07056466490030289,
        0.4435831904411316,
        -0.14955636858940125,
        0.2627770006656647,
        -0.2526121437549591,
        0.03894253075122833,
        0.006613588891923428,
        0.3625979721546173,
        0.5924675464630127,
        0.3106541037559509,
        -0.09277066588401794,
        -0.06846828758716583,
        -0.19354704022407532,
        -0.16078078746795654,
        0.17844852805137634,
        0.0032030674628913403,
        0.016906585544347763,
        0.23502951860427856,
        0.39322027564048767,
        0.03502638265490532,
        0.2758556008338928,
        0.08537422865629196
      ],
      [
        -0.3660682439804077,
        -0.10708445310592651,
        -0.27957794070243835,
        -0.30455735325813293,
        0.3548029363155365,
        -0.05304114148020744,
        0.30052608251571655,
        -0.25834232568740845,
        -0.00019981712102890015,
        -0.09347571432590485,
        0.48505014181137085,
        -0.5471059083938599,
        0.5034031867980957,
        0.1255451738834381,
        0.06023460999131203,
        -0.1237606555223465,
        0.10660365223884583,
        -0.28253620862960815,
        -0.19991526007652283,
        -0.04701501876115799,
        0.34881097078323364,
        0.23958151042461395,
        0.3443986177444458,
        -0.19198547303676605,
        0.014301251620054245,
        0.18933837115764618,
        -0.06237803027033806,
        0.2240753322839737,
        -0.1646202802658081,
        -0.06004226207733154,
        0.19670413434505463,
        -0.6026715636253357,
        0.27217647433280945,
        -0.2660083472728729,
        0.17391496896743774,
        0.2867540717124939,
        -0.027151307091116905,
        -0.2750402092933655,
        -0.14680635929107666,
        0.43791407346725464,
        -0.04223761707544327,
        -0.48823097348213196,
        -0.22976496815681458,
        -0.05256257578730583,
        -0.06486218422651291,
        0.009054728783667088,
        0.06763150542974472,
        0.06318176537752151
      ]
    ],
    "ff.lin2.bias": [
      -0.12257476896047592,
      0.15302859246730804,
      -0.37067273259162903,
      0.1144331693649292,
      0.23856773972511292,
      0.04774196073412895,
      0.04878121241927147,
      0.2855733335018158,
      -0.18465259671211243,
      0.2660285234451294,
      -0.031617287546396255,
      -0.3173111081123352
    ]
  }
}