{
  "block_0": {
    "att.W_query.weight": [
      [
        -0.1613253504037857,
        -0.2728748917579651,
        -0.37357398867607117,
        0.5273860692977905,
        -0.2813869118690491,
        -0.28916600346565247,
        0.2887716293334961,
        -0.5045546889305115,
        -0.07229127734899521,
        0.1744222491979599,
        0.4338667392730713,
        -0.04030393809080124,
        0.6074097752571106,
        0.26469460129737854,
        -0.07581398636102676,
        0.13370665907859802,
        0.0077798631973564625,
        0.0983247384428978,
        -0.348954975605011,
        0.29595890641212463,
        0.08729932457208633,
        0.1060139536857605,
        -0.26348596811294556,
        -0.36784517765045166
      ],
      [
        -0.0071906400844454765,
        -0.23301176726818085,
        0.11973705142736435,
        0.008399363607168198,
        -0.020078115165233612,
        0.08234056085348129,
        -0.37689319252967834,
        0.04976876825094223,
        -0.0420224592089653,
        -0.27564936876296997,
        -0.06297921389341354,
        -0.05117405205965042,
        0.04869277775287628,
        0.4917755722999573,
        0.1890740543603897,
        0.05244344100356102,
        -0.2987402081489563,
        0.1590961515903473,
        -0.10160466283559799,
        0.17763076722621918,
        -0.06406942754983902,
        0.10889140516519547,
        -0.32533320784568787,
        0.06261973083019257
      ],
      [
        0.2025965452194214,
        0.18162022531032562,
        -0.36403170228004456,
        0.44459810853004456,
        -0.11204910278320312,
        -0.049266643822193146,
        -0.009934415109455585,
        -0.22253915667533875,
        0.5497425198554993,
        -0.3732363283634186,
        0.05708089843392372,
        -0.21846288442611694,
        0.08877667039632797,
        -0.2524009048938751,
        -0.29598918557167053,
        0.2494281828403473,
        0.3286229372024536,
        -0.3725162744522095,
        0.5334702134132385,
        0.3173716068267822,
        -0.14161451160907745,
        -0.13131356239318848,
        0.058412496000528336,
        -0.30251291394233704
      ],
      [
        0.19540123641490936,
        -0.16784699261188507,
        -0.15047264099121094,
        -0.12818606197834015,
        -0.03906911611557007,
        0.1813139021396637,
        -0.4303160011768341,
        -0.39739155769348145,
        -0.004831177182495594,
        -0.032251037657260895,
        -0.048190221190452576,
        -0.09790536761283875,
        -0.12612468004226685,
        0.012799629010260105,
        -0.22402818500995636,
        0.44143787026405334,
        0.1899247169494629,
        -0.23739568889141083,
        -0.016190534457564354,
        0.422317773103714,
        0.05153341963887215,
        0.2773658037185669,
        0.1424611359834671,
        0.09550777077674866
      ],
      [
        -0.43919146060943604,
        -0.19075259566307068,
        0.018250975757837296,
        0.33677518367767334,
        0.4197676479816437,
        -0.142689511179924,
        -0.2823253273963928,
        0.21838311851024628,
        -0.26838886737823486,
        0.27236711978912354,
        0.07673723250627518,
        -0.009362490847706795,
        -0.17513608932495117,
        -0.14485175907611847,
        0.1359577625989914,
        0.12458536773920059,
        -0.18064166605472565,
        0.14714264869689941,
        0.14864641427993774,
        0.07529883086681366,
        -0.3038364052772522,
        0.28644460439682007,
        -0.1584465354681015,
        -0.24673166871070862
      ],
      [
        -0.36356121301651,
        0.29510363936424255,
        -0.18451617658138275,
        -0.11326631903648376,
        0.08287399262189865,
        -0.39678749442100525,
        -0.32603001594543457,
        -0.10027235746383667,
        -0.051093172281980515,
        -0.23641087114810944,
        0.23469632863998413,
        0.08322141319513321,
        0.17222653329372406,
        0.4114071726799011,
        -0.14116956293582916,
        0.014716696925461292,
        -0.12814635038375854,
        -0.15289370715618134,
        0.06351932883262634,
        0.23301127552986145,
        0.19684413075447083,
        0.17556911706924438,
        -0.3502573072910309,
        0.009837758727371693
      ],
      [
        0.23781293630599976,
        0.27835002541542053,
        -0.05430196598172188,
        -0.18378795683383942,
        0.12022101879119873,
        -0.3918757438659668,
        -0.19260892271995544,
        -0.3696683347225189,
        0.0012797389645129442,
        0.09023680537939072,
        0.10153801739215851,
        -0.22135615348815918,
        -0.07069142162799835,
        -0.32553768157958984,
        0.16301105916500092,
        0.18416385352611542,
        -0.38236910104751587,
        -0.08986476063728333,
        -0.036504704505205154,
        -0.08788371831178665,
        0.48658445477485657,
        0.38353231549263,
        -0.06552896648645401,
        -0.206522598862648
      ],
      [
        0.21971555054187775,
        -0.05625952407717705,
        -0.00013756175758317113,
        0.11745180934667587,
        0.2965088486671448,
        -0.2613881528377533,
        -0.4667782783508301,
        -0.5111843347549438,
        -0.30876076221466064,
        0.24534013867378235,
        0.2611776888370514,
        0.3895675837993622,
        0.4108434319496155,
        -0.17364901304244995,
        0.01194110419601202,
        0.11500178277492523,
        -0.04292791709303856,
        0.054624855518341064,
        -0.5362465381622314,
        0.3734625279903412,
        0.2954634428024292,
        -0.36067381501197815,
        -0.39721572399139404,
        0.12052663415670395
      ],
      [
        0.0023534579668194056,
        -0.3398403227329254,
        0.2004806250333786,
        0.34669557213783264,
        -0.34925577044487,
        0.00592833524569869,
        0.2601879835128784,
        0.05932158976793289,
        0.2163594663143158,
        -0.11638575792312622,
        0.20550109446048737,
        -0.4269416630268097,
        0.175479918718338,
        0.3436611294746399,
        -0.2573646903038025,
        0.0221128910779953,
        0.3976692855358124,
        0.09678798168897629,
        -0.25103849172592163,
        0.05639782175421715,
        0.3130011260509491,
        0.21943511068820953,
        0.09063203632831573,
        -0.27504268288612366
      ],
      [
        -0.26897934079170227,
        -0.10088015347719193,
        0.03851313889026642,
        0.2699947655200958,
        -0.17984376847743988,
        0.21615001559257507,
        -0.09214384108781815,
        0.167676642537117,
        -0.1693200170993805,
        0.08415044099092484,
        -0.23378027975559235,
        -0.10580824315547943,
        0.2194901555776596,
        -0.04232553392648697,
        -0.2894207537174225,
        0.4969634711742401,
        -0.29834845662117004,
        0.5281787514686584,
        0.286813884973526,
        -0.3722158372402191,
        0.046575143933296204,
        -0.08117307722568512,
        -0.4184582531452179,
        0.47564584016799927
      ],
      [
        0.1344645768404007,
        0.09375302493572235,
        0.48460251092910767,
        -0.3290889263153076,
        -0.10384437441825867,
        -0.4202898144721985,
        -0.3893694579601288,
        0.08393396437168121,
        0.03542327880859375,
        -0.29646676778793335,
        0.05310546234250069,
        0.10978565365076065,
        0.0029055369086563587,
        0.11038041114807129,
        0.09571067988872528,
        -0.08443175256252289,
        0.42957037687301636,
        0.6256309151649475,
        0.2069317102432251,
        -0.15703387558460236,
        -0.42924928665161133,
        -0.117465540766716,
        0.1377985179424286,
        0.22669094800949097
      ],
      [
        -0.019035395234823227,
        -0.4694023132324219,
        0.38999414443969727,
        0.05771293863654137,
        0.24620966613292694,
        0.213444322347641,
        -0.14496397972106934,
        0.0642581358551979,
        0.05502596125006676,
        0.2276882380247116,
        0.5991966128349304,
        -0.02616189792752266,
        0.02801535092294216,
        0.6717025637626648,
        -0.470456600189209,
        -0.3113235533237457,
        0.12245070189237595,
        -0.6480545401573181,
        -0.10608721524477005,
        -0.18350930511951447,
        -0.2134697288274765,
        0.07134981453418732,
        -0.0485839806497097,
        0.006478364113718271
      ],
      [
        -0.013590545393526554,
        0.1727100908756256,
        0.30245524644851685,
        0.25171396136283875,
        0.2667873799800873,
        -0.43283259868621826,
        -0.13265062868595123,
        -0.31557193398475647,
        0.09169305860996246,
        0.13767433166503906,
        0.5478329062461853,
        0.08432849496603012,
        -0.3338569700717926,
        -0.21665062010288239,
        -0.0958346500992775,
        -0.2340470254421234,
        -0.05236037075519562,
        0.05664172023534775,
        -0.14468668401241302,
        -0.19608154892921448,
        0.004136131145060062,
        -0.43256255984306335,
        0.34309715032577515,
        0.3816721439361572
      ],
      [
        -0.002911169081926346,
        0.22709865868091583,
        0.04413808882236481,
        -0.1986113339662552,
        0.15860408544540405,
        0.024799393489956856,
        -0.3726764917373657,
        0.2888200283050537,
        -0.24102076888084412,
        0.30564039945602417,
        -0.3233412802219391,
        -0.15483348071575165,
        -0.19610923528671265,
        0.12434002012014389,
        0.16529986262321472,
        0.029416048899292946,
        -0.7611449956893921,
        -0.08562646806240082,
        0.06716461479663849,
        -0.41150760650634766,
        0.0028481967747211456,
        0.6175710558891296,
        0.27961090207099915,
        0.050591032952070236
      ],
      [
        0.42607781291007996,
        -0.17206057906150818,
        0.02764040045440197,
        -0.6341543197631836,
        0.14400596916675568,
        0.10411282628774643,
        0.17012840509414673,
        0.36424094438552856,
        0.1476099193096161,
        -0.19806945323944092,
        0.058384545147418976,
        0.25170814990997314,
        -0.20549702644348145,
        -0.12470561265945435,
        0.22615042328834534,
        -0.2682473361492157,
        0.1558140069246292,
        -0.2928518056869507,
        -0.3370230495929718,
        -0.2654554545879364,
        0.08600137382745743,
        0.3515681028366089,
        0.26349538564682007,
        0.03473164513707161
      ],
      [
        0.4574452340602875,
        0.06660592555999756,
        0.167974054813385,
        0.16628839075565338,
        -0.46650230884552,
        -0.030221547931432724,
        -0.08919739723205566,
        -0.33183610439300537,
        0.1474377065896988,
        -0.01864650659263134,
        -0.058449454605579376,
        -0.15705524384975433,
        -0.3191450238227844,
        0.5302661061286926,
        -0.0213144663721323,
        0.16054095327854156,
        -0.019599467515945435,
        -0.0688399076461792,
        0.48232346773147583,
        -0.20057082176208496,
        -0.3626776337623596,
        -0.1952669471502304,
        0.32630297541618347,
        0.10266368836164474
      ],
      [
        0.1238258108496666,
        -0.0710185244679451,
        -0.14336609840393066,
        -0.2955641746520996,
        -0.30235788226127625,
        -0.1454395055770874,
        -0.3144776523113251,
        -0.2225426733493805,
        -0.2782647907733917,
        -0.1916809380054474,
        0.2553618550300598,
        0.47899001836776733,
        0.16844257712364197,
        0.40796107053756714,
        -0.03203640133142471,
        0.4199492335319519,
        -0.1921520233154297,
        0.3225647211074829,
        -0.43623533844947815,
        0.3447049558162689,
        0.2422380894422531,
        0.22928819060325623,
        0.21505218744277954,
        0.2025444358587265
      ],
      [
        0.31283098459243774,
        0.1648007184267044,
        -0.03471076488494873,
        0.0903133898973465,
        0.23461301624774933,
        0.10739133507013321,
        0.07693099975585938,
        0.0062391445972025394,
        -0.041043300181627274,
        0.36702343821525574,
        0.2751156687736511,
        -0.5484713912010193,
        -0.004010383039712906,
        0.19614703953266144,
        0.2255852371454239,
        -0.39824405312538147,
        -0.19588570296764374,
        -0.10589142888784409,
        -0.5414855480194092,
        -0.030531806871294975,
        0.1534547358751297,
        0.07919985055923462,
        -0.059161338955163956,
        0.22865574061870575
      ],
      [
        0.1495818942785263,
        -0.23529115319252014,
        -0.3841160535812378,
        0.28838667273521423,
        -0.04631520062685013,
        -0.1784362643957138,
        -0.17751732468605042,
        -0.6093417406082153,
        0.6254189014434814,
        0.16362202167510986,
        0.5129144191741943,
        -0.03534620255231857,
        0.20375880599021912,
        0.20805619657039642,
        -0.10046020150184631,
        0.3831632137298584,
        0.16693547368049622,
        -0.3221614956855774,
        -0.14189347624778748,
        0.014396230690181255,
        0.1133047342300415,
        0.5217145085334778,
        -0.09027726948261261,
        -0.6741193532943726
      ],
      [
        0.1993652731180191,
        -0.25851085782051086,
        -0.06237443536520004,
        0.2339676171541214,
        0.14787277579307556,
        0.023540785536170006,
        0.31238651275634766,
        -0.3833453357219696,
        0.3020746111869812,
        -0.3108713626861572,
        -0.38809528946876526,
        -0.2847216725349426,
        0.17994540929794312,
        -0.238937646150589,
        -0.08173099905252457,
        0.15230455994606018,
        0.16121965646743774,
        -0.6752651929855347,
        -0.35391905903816223,
        0.3406387269496918,
        -0.3984088599681854,
        -0.601375162601471,
        0.2852233350276947,
        0.05457787588238716
      ],
      [
        0.0952829048037529,
        0.3226204812526703,
        -0.4001845121383667,
        -0.1056036576628685,
        -0.05430262163281441,
        0.23375961184501648,
        -0.11233983933925629,
        0.0320248007774353,
        0.02974175475537777,
        0.270548939704895,
        0.002935619093477726,
        -0.014936697669327259,
        0.18985135853290558,
        0.01961020566523075,
        -0.23669295012950897,
        -0.6894088387489319,
        0.1102849692106247,
        0.45395568013191223,
        -0.037731148302555084,
        0.19117796421051025,
        -0.20175082981586456,
        0.0020260768942534924,
        0.35325750708580017,
        0.30452796816825867
      ],
      [
        0.3619152903556824,
        -0.3653910756111145,
        0.310842365026474,
        -0.24548476934432983,
        0.2396729290485382,
        -0.12656044960021973,
        -0.24816107749938965,
        -0.37344104051589966,
        0.07334945350885391,
        -0.215379536151886,
        -0.10224580764770508,
        0.008013451471924782,
        0.06634022295475006,
        -0.3254820704460144,
        0.2842329144477844,
        -0.02866543084383011,
        0.024556679651141167,
        -0.002493510488420725,
        -0.12692590057849884,
        -0.045652683824300766,
        0.19864529371261597,
        -0.11635325103998184,
        0.14447729289531708,
        0.07050952315330505
      ],
      [
        -0.4879668951034546,
        -0.1070437878370285,
        0.15143531560897827,
        0.24943077564239502,
        -0.4740409553050995,
        0.05725122615695,
        0.23210063576698303,
        0.24770528078079224,
        0.10074076056480408,
        0.03884128853678703,
        0.3042207956314087,
        -0.08228414505720139,
        0.022257085889577866,
        0.2176791876554489,
        -0.07411587238311768,
        -0.028367765247821808,
        0.2387978434562683,
        0.11052041500806808,
        -0.2879796028137207,
        -0.06170091778039932,
        -0.42968425154685974,
        0.3188714385032654,
        0.5404659509658813,
        0.027045391499996185
      ],
      [
        -0.42235884070396423,
        0.17959776520729065,
        -0.14636369049549103,
        0.22621357440948486,
        0.049005791544914246,
        0.06749170273542404,
        -0.23648923635482788,
        -0.280257910490036,
        -0.4180842638015747,
        0.32212740182876587,
        0.05193816125392914,
        -0.18884603679180145,
        0.3910005986690521,
        0.020749080926179886,
        0.16188177466392517,
        0.2965199947357178,
        -0.25744402408599854,
        0.061009813100099564,
        -0.015000528655946255,
        0.0982585921883583,
        -0.4287402927875519,
        -0.19934816658496857,
        -0.4344756603240967,
        -0.22943462431430817
      ]
    ],
    "att.W_query.bias": null,
    "att.W_key.weight": [
      [
        -0.24532034993171692,
        -0.015728212893009186,
        -0.0778355523943901,
        -0.03892950341105461,
        0.7691459655761719,
        0.06739024817943573,
        -0.008153281174600124,
        -0.15583613514900208,
        0.7140306830406189,
        -0.09286734461784363,
        -0.2997882664203644,
        0.29157382249832153,
        0.05062137171626091,
        -0.059667449444532394,
        -0.4593934714794159,
        0.10794731974601746,
        0.3332427442073822,
        0.14449016749858856,
        0.44025763869285583,
        -0.04174540936946869,
        -0.26819950342178345,
        -0.3012186288833618,
        0.3428075909614563,
        -0.21174168586730957
      ],
      [
        -0.15503637492656708,
        0.22868485748767853,
        -0.2696564793586731,
        0.18694570660591125,
        -0.030817219987511635,
        0.019037364050745964,
        0.5577017664909363,
        -0.24304771423339844,
        0.019817408174276352,
        0.20268447697162628,
        -0.04341613128781319,
        -0.17345227301120758,
        0.08905155211687088,
        -0.034289225935935974,
        -0.3012981712818146,
        -0.10419140756130219,
        -0.13804370164871216,
        -0.25982558727264404,
        0.1483493149280548,
        -0.12538984417915344,
        0.14952194690704346,
        -0.01060926727950573,
        0.1639193892478943,
        0.2031375914812088
      ],
      [
        0.015619687736034393,
        -0.11272880434989929,
        0.1932571828365326,
        -0.23639239370822906,
        0.3498699963092804,
        -0.3709045946598053,
        -0.21419757604599,
        0.06317009776830673,
        -0.3092411756515503,
        -0.12457213550806046,
        -0.4570799171924591,
        0.3581690490245819,
        0.30759191513061523,
        -0.0006017200066708028,
        -0.10820050537586212,
        -0.3523417115211487,
        0.09746526181697845,
        0.7658024430274963,
        0.07891661673784256,
        0.35449329018592834,
        -0.33477675914764404,
        0.07868754118680954,
        0.32709798216819763,
        0.05652236565947533
      ],
      [
        -0.30145859718322754,
        0.18921315670013428,
        0.042928341776132584,
        0.08255869150161743,
        -0.05170736834406853,
        -0.27514997124671936,
        0.1361611783504486,
        -0.14382529258728027,
        0.2932022511959076,
        -0.2921547293663025,
        0.14105211198329926,
        0.5489323735237122,
        0.2597614824771881,
        0.09809193015098572,
        0.11308908462524414,
        -0.14110800623893738,
        -0.45986995100975037,
        0.14018858969211578,
        0.20508666336536407,
        0.15277893841266632,
        -0.1286747008562088,
        0.09798169881105423,
        0.05736159533262253,
        -0.01707262545824051
      ],
      [
        -0.012570805847644806,
        0.37993621826171875,
        -0.038085345178842545,
        -0.19153495132923126,
        -0.27968037128448486,
        0.022129176184535027,
        0.3385371267795563,
        -0.19669082760810852,
        0.02873067930340767,
        0.04008210077881813,
        0.007042330224066973,
        0.4607686698436737,
        -0.020481672137975693,
        0.004046357702463865,
        0.1477646380662918,
        -0.09607218205928802,
        0.19666007161140442,
        -0.002784909913316369,
        0.2009027749300003,
        -0.49981650710105896,
        0.07348597794771194,
        -0.426390141248703,
        -0.33129292726516724,
        -0.038354676216840744
      ],
      [
        -0.44099071621894836,
        0.3264351487159729,
        0.2990080416202545,
        -0.09482838213443756,
        -0.18645355105400085,
        -0.2912377715110779,
        0.25978317856788635,
        0.03536384552717209,
        0.3113131523132324,
        -0.06181362271308899,
        -0.21707330644130707,
        0.1470918357372284,
        0.1946740299463272,
        -0.15903984010219574,
        0.059063609689474106,
        0.1361536979675293,
        0.3403691053390503,
        -0.10695469379425049,
        0.5032923817634583,
        -0.03753101825714111,
        -0.17164137959480286,
        0.08786295354366302,
        -0.1765957772731781,
        -0.3118342459201813
      ],
      [
        -0.08914738893508911,
        -0.05896208435297012,
        0.004943992011249065,
        0.03012063354253769,
        -0.3982657194137573,
        -0.3550712764263153,
        0.16991841793060303,
        -0.024354292079806328,
        0.5520848035812378,
        -0.10880378633737564,
        -0.019127367064356804,
        0.23642078042030334,
        0.263284832239151,
        0.11803653836250305,
        0.11288490146398544,
        0.060431722551584244,
        0.10040979832410812,
        0.13150712847709656,
        -0.1699511557817459,
        -0.14598622918128967,
        -0.3831196427345276,
        -0.11392915993928909,
        -0.5321822762489319,
        -0.32335492968559265
      ],
      [
        -0.08139105886220932,
        0.4622097313404083,
        0.024614106863737106,
        -0.2223842740058899,
        0.15671220421791077,
        -0.18053698539733887,
        0.2931746244430542,
        0.15692450106143951,
        0.6543391942977905,
        -0.46574053168296814,
        0.21538116037845612,
        0.4527532756328583,
        -0.2808724045753479,
        0.26420295238494873,
        -0.35165828466415405,
        -0.06545448303222656,
        -0.035744957625865936,
        -0.09633652865886688,
        0.1446305513381958,
        -0.01649584248661995,
        -0.2729540765285492,
        0.13232257962226868,
        -0.3404730260372162,
        -0.3258189857006073
      ],
      [
        -0.37779632210731506,
        -0.12310931831598282,
        -0.05971449613571167,
        0.11696287989616394,
        0.5228263139724731,
        -0.21501591801643372,
        -0.1689750701189041,
        0.057148534804582596,
        0.4560818672180176,
        0.21452681720256805,
        -0.4811502695083618,
        -0.09401241689920425,
        0.17391479015350342,
        -0.24334761500358582,
        0.05227319523692131,
        0.2004787027835846,
        -0.2741774022579193,
        0.06098198890686035,
        0.2490333616733551,
        0.26314017176628113,
        -0.22609993815422058,
        -0.15562348067760468,
        -0.004600080661475658,
        0.29712027311325073
      ],
      [
        0.21791085600852966,
        0.5034596920013428,
        -0.18333128094673157,
        -0.015367932617664337,
        -0.2626427412033081,
        -0.11764882504940033,
        -0.034397192299366,
        -0.3468904197216034,
        0.20435069501399994,
        0.29203248023986816,
        0.23923268914222717,
        0.3173958361148834,
        -0.15798795223236084,
        -0.0503966324031353,
        0.13733598589897156,
        -0.4228387176990509,
        0.5598003268241882,
        -0.3874254822731018,
        0.15887969732284546,
        0.46907687187194824,
        0.14204895496368408,
        -0.07331086695194244,
        -0.04326506704092026,
        -0.14654923975467682
      ],
      [
        -0.041798487305641174,
        0.28562238812446594,
        -0.23968617618083954,
        -0.20233796536922455,
        -0.06842583417892456,
        0.05732507258653641,
        -0.009259646758437157,
        0.015147443860769272,
        -0.08539924770593643,
        -0.04939316213130951,
        -0.4611843228340149,
        -0.19803409278392792,
        -0.1732776165008545,
        0.3753974139690399,
        0.5312916040420532,
        -0.066849485039711,
        -0.12731510400772095,
        -0.3283955156803131,
        0.16415829956531525,
        -0.1293540596961975,
        0.31162843108177185,
        0.5697495937347412,
        0.03905077278614044,
        0.43811163306236267
      ],
      [
        -0.3982747793197632,
        -0.18064342439174652,
        0.4959789216518402,
        -0.11221383512020111,
        0.10464515537023544,
        0.16123422980308533,
        -0.1982688158750534,
        0.025021640583872795,
        0.057865556329488754,
        0.6985738277435303,
        -0.03943575546145439,
        -0.045917898416519165,
        0.09223232418298721,
        -0.30762484669685364,
        -0.5304325819015503,
        0.006081025581806898,
        -0.22745509445667267,
        -0.43312227725982666,
        0.3635198473930359,
        -0.40199223160743713,
        -0.038172949105501175,
        0.08516436070203781,
        0.07439033687114716,
        0.4910966753959656
      ],
      [
        0.1097760871052742,
        0.15647131204605103,
        0.20296962559223175,
        -0.17820152640342712,
        -0.1823766529560089,
        0.27200791239738464,
        0.305952787399292,
        -0.09648015350103378,
        0.29797232151031494,
        0.1907140612602234,
        -0.3434833288192749,
        -0.14608627557754517,
        -0.15963611006736755,
        -0.09839165955781937,
        -0.15012286603450775,
        0.13955999910831451,
        -0.3276206851005554,
        -0.2268427610397339,
        0.14697162806987762,
        0.18728852272033691,
        0.17277894914150238,
        0.21495816111564636,
        -0.6732672452926636,
        -0.2667559087276459
      ],
      [
        0.03377709165215492,
        -0.1846136897802353,
        0.12182174623012543,
        0.212638258934021,
        -0.10570698976516724,
        -0.06646735966205597,
        0.331310510635376,
        0.22845683991909027,
        -0.05824314430356026,
        -0.08374171704053879,
        0.026043212041258812,
        -0.05918695777654648,
        -0.11335358023643494,
        -0.4162030816078186,
        -0.2949695885181427,
        0.32652369141578674,
        0.4414355158805847,
        0.4431738257408142,
        -0.17011518776416779,
        0.35983842611312866,
        -0.2202855348587036,
        -0.792384922504425,
        -0.05106037110090256,
        0.20909754931926727
      ],
      [
        0.017803538590669632,
        0.004246911965310574,
        0.39967313408851624,
        -0.13308803737163544,
        0.3140159547328949,
        -0.16010452806949615,
        -0.07303573191165924,
        -0.03556004539132118,
        -0.338983416557312,
        0.27084797620773315,
        -0.06492049992084503,
        -0.1982920914888382,
        0.31818273663520813,
        -0.17709024250507355,
        0.09767907112836838,
        0.1852215975522995,
        -0.4585570693016052,
        0.03388901799917221,
        -0.17000192403793335,
        0.37791159749031067,
        0.2698570787906647,
        -0.09650745987892151,
        0.5423083305358887,
        0.31069469451904297
      ],
      [
        0.08597438037395477,
        -0.39753201603889465,
        -0.26981106400489807,
        0.15850766003131866,
        0.023413222283124924,
        0.18818041682243347,
        0.3333800137042999,
        0.23675969243049622,
        -0.06200899928808212,
        -0.10728058218955994,
        0.042130809277296066,
        -0.05668101832270622,
        0.2229859083890915,
        0.13236004114151,
        0.29681506752967834,
        -0.4652562737464905,
        0.10121937841176987,
        -0.3696986436843872,
        -0.09787341952323914,
        0.22371920943260193,
        0.2524701654911041,
        -0.1408751904964447,
        -0.4988670349121094,
        -0.3208010196685791
      ],
      [
        0.3730792701244354,
        0.44961217045783997,
        -0.5079165101051331,
        0.08175494521856308,
        0.09377048909664154,
        -0.13531188666820526,
        0.29211023449897766,
        -0.00930347666144371,
        -0.11946404725313187,
        -0.20913593471050262,
        0.14846515655517578,
        -0.025276275351643562,
        -0.5918725728988647,
        -0.18173499405384064,
        0.30109018087387085,
        0.14957933127880096,
        -0.049037620425224304,
        -0.2922061085700989,
        0.5201740860939026,
        -0.33025261759757996,
        0.12723501026630402,
        -0.3144576847553253,
        -0.07633912563323975,
        0.16042806208133698
      ],
      [
        -0.17712759971618652,
        -0.2164466679096222,
        0.29654645919799805,
        0.4390427768230438,
        0.18247270584106445,
        0.290596067905426,
        0.03595740348100662,
        -0.2674160897731781,
        -0.4263255298137665,
        0.02483651228249073,
        -0.3631496727466583,
        -0.2002292275428772,
        -0.31627872586250305,
        0.22022517025470734,
        -0.37829041481018066,
        0.019679512828588486,
        0.32171472907066345,
        0.29955044388771057,
        0.14118550717830658,
        0.12878510355949402,
        0.04511921852827072,
        -0.07121947407722473,
        -0.05190993472933769,
        0.14542052149772644
      ],
      [
        0.5541768074035645,
        0.3718246519565582,
        0.18124106526374817,
        0.11775669455528259,
        -0.27142366766929626,
        0.3980962932109833,
        0.10794735699892044,
        -0.07965385168790817,
        -0.2695210576057434,
        0.2716572880744934,
        -0.28327393531799316,
        -0.4917357861995697,
        -0.076153963804245,
        0.2519838511943817,
        0.6983947157859802,
        -0.40968289971351624,
        0.2811071574687958,
        -0.03763848915696144,
        0.13423243165016174,
        -0.7000014185905457,
        -0.2910871207714081,
        -0.09507917612791061,
        0.01731334812939167,
        -0.19139406085014343
      ],
      [
        0.015625549480319023,
        -0.3979094624519348,
        0.33250388503074646,
        0.10841158777475357,
        0.06337021291255951,
        0.24024556577205658,
        -0.43558934330940247,
        -0.14425528049468994,
        -0.018174877390265465,
        -0.3862554430961609,
        0.2518574595451355,
        -0.0992918610572815,
        0.14415772259235382,
        0.3817257285118103,
        0.35305774211883545,
        -0.3345973789691925,
        -0.4119267463684082,
        0.12746180593967438,
        0.3322458267211914,
        -0.30661171674728394,
        0.5344652533531189,
        0.2395184487104416,
        0.05422056093811989,
        -0.3584967255592346
      ],
      [
        -0.0036502054426819086,
        -0.28764310479164124,
        -0.3194486200809479,
        0.0016785585321485996,
        -0.07753734290599823,
        -0.06797804683446884,
        0.0020389382261782885,
        -0.10248073935508728,
        0.09918617457151413,
        0.36948925256729126,
        -0.16610677540302277,
        0.06696055084466934,
        -0.47435620427131653,
        0.2854844331741333,
        0.36423009634017944,
        0.638810396194458,
        -0.020287705585360527,
        0.15061669051647186,
        -0.1179705560207367,
        0.28879234194755554,
        0.2496713548898697,
        -0.1348414272069931,
        0.04660949856042862,
        0.01815868355333805
      ],
      [
        0.13461150228977203,
        0.04576383903622627,
        0.11843134462833405,
        -0.21201959252357483,
        -0.006002974230796099,
        -0.284787654876709,
        0.22568188607692719,
        0.2527247369289398,
        -0.3365449607372284,
        -0.13749153912067413,
        0.13634099066257477,
        -0.13252203166484833,
        0.0923071950674057,
        -0.012819814495742321,
        -0.18688945472240448,
        0.1982627809047699,
        -0.6254982948303223,
        0.14430198073387146,
        0.36103078722953796,
        -0.40795081853866577,
        0.047891467809677124,
        0.029056228697299957,
        -0.1988476663827896,
        -0.24253706634044647
      ],
      [
        0.1278957575559616,
        -0.09084707498550415,
        -0.490937203168869,
        -0.05818432196974754,
        -0.2518633306026459,
        0.2615619897842407,
        -0.21637074649333954,
        -0.3924888074398041,
        -0.1595824807882309,
        0.21547828614711761,
        -0.16494937241077423,
        -0.11455226689577103,
        0.19416886568069458,
        0.24736830592155457,
        0.21461933851242065,
        -0.11152638494968414,
        -0.1256231814622879,
        -0.24822194874286652,
        -0.13526923954486847,
        0.5736499428749084,
        0.03345136716961861,
        -0.20586539804935455,
        0.3206934630870819,
        0.0022516134195029736
      ],
      [
        0.5602753758430481,
        -0.12534992396831512,
        -0.20888492465019226,
        -0.023753143846988678,
        -0.2387896180152893,
        0.13254739344120026,
        -0.021163292229175568,
        0.05040900036692619,
        0.18437325954437256,
        -0.38833796977996826,
        0.13751132786273956,
        -0.0011154810199514031,
        -0.2847985625267029,
        0.2511501908302307,
        -0.3431031405925751,
        -0.08196046948432922,
        0.5971470475196838,
        0.38665875792503357,
        0.08730443567037582,
        -0.18275433778762817,
        -0.17559246718883514,
        0.01665351167321205,
        -0.24357092380523682,
        0.17017477750778198
      ]
    ],
    "att.W_key.bias": null,
    "att.W_value.weight": [
      [
        -0.015464249067008495,
        0.016027843579649925,
        -0.13868044316768646,
        0.3492121696472168,
        -0.1683335304260254,
        0.1465952843427658,
        -0.09882331639528275,
        -0.021755652502179146,
        0.284649133682251,
        0.24447084963321686,
        0.24615271389484406,
        -0.3949585556983948,
        0.1563422977924347,
        0.042201120406389236,
        -0.4822535812854767,
        -0.3149619698524475,
        -0.03001539595425129,
        0.093253955245018,
        0.4684969186782837,
        0.45580875873565674,
        0.008382373489439487,
        -0.03341143950819969,
        -0.5398417711257935,
        0.07359004020690918
      ],
      [
        0.11953911185264587,
        -0.09356113523244858,
        0.5668502449989319,
        -0.45248034596443176,
        -0.17819975316524506,
        0.11717703193426132,
        0.4655414819717407,
        -0.3961279094219208,
        -0.030699146911501884,
        0.09036994725465775,
        -0.04535163193941116,
        -0.3248862624168396,
        -0.1525822877883911,
        0.38768211007118225,
        -0.10387501120567322,
        0.09250923246145248,
        -0.1576000303030014,
        -0.019230905920267105,
        0.011389640159904957,
        0.2513659596443176,
        -0.15356245636940002,
        0.23698513209819794,
        0.11084771156311035,
        -0.0014351503923535347
      ],
      [
        -0.21371987462043762,
        0.16774043440818787,
        -0.04399966448545456,
        -0.1704588681459427,
        0.43265268206596375,
        0.40268751978874207,
        -0.03426493704319,
        -0.018400711938738823,
        -0.05146069824695587,
        0.061583880335092545,
        0.022777928039431572,
        0.25393980741500854,
        -0.25139379501342773,
        0.010892430320382118,
        0.4468599259853363,
        -0.4963195323944092,
        -0.23254741728305817,
        0.023950623348355293,
        0.07037828117609024,
        0.3392544984817505,
        -0.5246706604957581,
        0.13253211975097656,
        -0.10678115487098694,
        0.0013745520263910294
      ],
      [
        0.11385641992092133,
        0.2921205163002014,
        -0.17205892503261566,
        0.09383269399404526,
        -0.10312352329492569,
        0.12970103323459625,
        -0.2183573991060257,
        -0.16025571525096893,
        -0.0036591864190995693,
        0.025820204988121986,
        0.26515549421310425,
        -0.05660405382514,
        0.24592895805835724,
        0.048902079463005066,
        -0.3300038278102875,
        0.09384369850158691,
        -0.19388622045516968,
        0.03492266684770584,
        -0.014996221289038658,
        -0.1223641186952591,
        -0.2588289678096771,
        -0.25196459889411926,
        0.21271508932113647,
        0.01681077666580677
      ],
      [
        0.21314072608947754,
        -0.026383867487311363,
        -0.21461932361125946,
        0.0746346265077591,
        -0.020283114165067673,
        0.09693991392850876,
        -0.27857717871665955,
        0.15199127793312073,
        -0.199958935379982,
        0.2963770031929016,
        -0.5165274143218994,
        0.3664855360984802,
        0.07557670772075653,
        0.34225085377693176,
        0.02126450277864933,
        -0.13030384480953217,
        0.019302671775221825,
        -0.3393692076206207,
        0.3775710165500641,
        0.06588008254766464,
        -0.10216294974088669,
        -0.26496341824531555,
        0.05560490861535072,
        -0.45659205317497253
      ],
      [
        -0.1368500292301178,
        -0.33589038252830505,
        -0.012895208783447742,
        0.1834864318370819,
        -0.0754552036523819,
        -0.4805698096752167,
        -0.21688692271709442,
        -0.01298472285270691,
        -0.2066498100757599,
        0.37680578231811523,
        0.5276088118553162,
        -0.12117630988359451,
        -0.389241486787796,
        0.06696049869060516,
        0.08847745507955551,
        -0.06734823435544968,
        0.006141240242868662,
        -0.13609665632247925,
        0.13996164500713348,
        0.16557817161083221,
        -0.18820300698280334,
        0.20543891191482544,
        0.42693787813186646,
        -0.23071777820587158
      ],
      [
        0.07171358168125153,
        0.05261962115764618,
        -0.2497783750295639,
        0.1329227089881897,
        0.2674573063850403,
        -0.16000565886497498,
        0.13245631754398346,
        0.32486578822135925,
        0.30592599511146545,
        0.13114280998706818,
        0.008045060560107231,
        -0.24299529194831848,
        0.026516269892454147,
        -0.17995166778564453,
        0.4217897951602936,
        0.36460694670677185,
        -0.42654749751091003,
        -0.2494657039642334,
        0.1336781084537506,
        -0.004918225109577179,
        -0.14147017896175385,
        0.11121318489313126,
        0.0503690242767334,
        -0.28559020161628723
      ],
      [
        -0.23160310089588165,
        -0.3507304787635803,
        -0.4487079977989197,
        -0.211409792304039,
        -0.23405413329601288,
        0.3785945773124695,
        -0.22506751120090485,
        0.1597576141357422,
        0.12039848417043686,
        -0.2820427119731903,
        0.36219513416290283,
        -0.15062054991722107,
        0.056451216340065,
        0.4696614742279053,
        -0.21195006370544434,
        0.3452281355857849,
        0.22151103615760803,
        -0.007276309188455343,
        0.13227681815624237,
        -0.3380793333053589,
        -0.35120490193367004,
        0.22703538835048676,
        0.1294301301240921,
        0.10986318439245224
      ],
      [
        0.16764087975025177,
        0.03557046875357628,
        0.015145082026720047,
        -0.05466366186738014,
        -0.24250799417495728,
        0.12408755719661713,
        0.07955104857683182,
        -0.4607766568660736,
        -0.04336066544055939,
        0.13301686942577362,
        0.030062725767493248,
        0.0033055713865906,
        -0.13962198793888092,
        0.050691571086645126,
        0.43582314252853394,
        0.3089766502380371,
        0.01305188424885273,
        -0.1899820864200592,
        0.40595147013664246,
        -0.1509394645690918,
        -0.2235807478427887,
        -0.44666826725006104,
        0.0010701867286115885,
        -0.14517560601234436
      ],
      [
        -0.18254980444908142,
        0.038607750087976456,
        -0.4710009694099426,
        -0.28807172179222107,
        0.2020624577999115,
        0.0996190756559372,
        -0.17083843052387238,
        0.03409475088119507,
        0.03412085026502609,
        0.09453988820314407,
        -0.2987322211265564,
        -0.10725630819797516,
        -0.3982906937599182,
        0.16255608201026917,
        -0.12806770205497742,
        0.22958673536777496,
        0.07320566475391388,
        0.31799545884132385,
        0.2259664386510849,
        -0.18777818977832794,
        0.10308069735765457,
        -0.144176185131073,
        -0.18000450730323792,
        0.36478254199028015
      ],
      [
        -0.3132421374320984,
        -0.5483362078666687,
        0.2017555683851242,
        0.639387309551239,
        -0.11462453752756119,
        0.042200248688459396,
        -0.1088782250881195,
        -0.08152380585670471,
        0.07264038175344467,
        0.08339230716228485,
        -0.21977083384990692,
        0.05360357463359833,
        -0.09269940853118896,
        0.049057990312576294,
        0.3030705749988556,
        -0.1536252647638321,
        0.20555780827999115,
        0.3108840584754944,
        0.12851984798908234,
        -0.0029259833972901106,
        0.10003878176212311,
        0.12048772722482681,
        0.04019143432378769,
        -0.007415749132633209
      ],
      [
        -0.1858583390712738,
        0.6049677729606628,
        -0.19289860129356384,
        0.02417719177901745,
        0.2193700671195984,
        0.22529900074005127,
        -0.026894908398389816,
        -0.027287961915135384,
        0.11684772372245789,
        0.051918040961027145,
        -0.17739905416965485,
        0.14625847339630127,
        -0.37831592559814453,
        -0.3759315609931946,
        -0.0902957022190094,
        0.06005558744072914,
        0.18558110296726227,
        -0.10444394499063492,
        0.13153165578842163,
        0.15417219698429108,
        0.23654745519161224,
        0.1180049329996109,
        0.27985888719558716,
        -0.29204288125038147
      ],
      [
        -0.23952817916870117,
        -0.020645836368203163,
        0.23408272862434387,
        -0.16854062676429749,
        0.5819994211196899,
        -0.2714622914791107,
        0.35281574726104736,
        -0.0073994230479002,
        -0.3984929621219635,
        0.4595332145690918,
        -0.06153646856546402,
        -0.5465484857559204,
        -0.13215044140815735,
        0.049415722489356995,
        0.09855975955724716,
        -0.0765802413225174,
        -0.028226951137185097,
        0.12283969670534134,
        0.14571750164031982,
        -0.08460353314876556,
        -0.5082696080207825,
        0.23378020524978638,
        0.04712814837694168,
        -0.012748884037137032
      ],
      [
        0.14521819353103638,
        -0.08067789673805237,
        0.18309836089611053,
        0.14103510975837708,
        -0.4223553538322449,
        -0.3210050165653229,
        -0.34078022837638855,
        -0.4555954933166504,
        -0.12082631140947342,
        0.07194100320339203,
        0.264663428068161,
        0.11220432072877884,
        -0.44308602809906006,
        -0.21301493048667908,
        0.31200137734413147,
        -0.0908026322722435,
        0.3121497929096222,
        0.19383227825164795,
        0.4641973376274109,
        0.16115638613700867,
        0.21853747963905334,
        0.07397241145372391,
        0.02409905567765236,
        0.22785285115242004
      ],
      [
        0.08884865045547485,
        0.19807036221027374,
        0.046912048012018204,
        0.13265307247638702,
        0.30121782422065735,
        -0.19568900763988495,
        -0.27090218663215637,
        -0.21212399005889893,
        0.042917151004076004,
        -0.13778991997241974,
        0.10494620352983475,
        0.3223806321620941,
        0.3773716986179352,
        0.056905683130025864,
        -0.03885173052549362,
        -0.031229855492711067,
        0.0649418905377388,
        -0.4489988684654236,
        0.30997422337532043,
        0.01875198632478714,
        -0.6296552419662476,
        -0.25764915347099304,
        0.629467248916626,
        -0.2268875241279602
      ],
      [
        -0.10139773786067963,
        -0.09220891445875168,
        -0.20385226607322693,
        0.12352573126554489,
        -0.5182973146438599,
        -0.13281452655792236,
        -0.00405329093337059,
        0.30746930837631226,
        0.1978999823331833,
        0.7049320340156555,
        0.5609377026557922,
        -0.18160034716129303,
        0.42333129048347473,
        -0.1765461564064026,
        0.0506996288895607,
        -0.1827555000782013,
        -0.2779563367366791,
        0.3239257335662842,
        0.12350471317768097,
        0.06162696331739426,
        0.013371828943490982,
        -0.38284650444984436,
        -0.008450016379356384,
        -0.498858779668808
      ],
      [
        0.17449291050434113,
        0.06545177102088928,
        0.3050389885902405,
        -0.5551088452339172,
        -0.37636950612068176,
        -0.31848564743995667,
        0.24573679268360138,
        0.2077074497938156,
        0.32747817039489746,
        0.04226111248135567,
        -0.31901785731315613,
        0.2238476425409317,
        0.16213303804397583,
        -0.03575540706515312,
        0.5344166159629822,
        -0.08547300100326538,
        -0.3666042685508728,
        -0.08758652210235596,
        -0.048856914043426514,
        0.0600682869553566,
        -0.17486734688282013,
        0.053571224212646484,
        -0.31165722012519836,
        0.1720525026321411
      ],
      [
        0.32782238721847534,
        0.11678653955459595,
        -0.09432173520326614,
        -0.12917712330818176,
        -0.06869518756866455,
        -0.08588621020317078,
        -0.33741340041160583,
        -0.3247365951538086,
        0.14703892171382904,
        0.11118100583553314,
        0.28090551495552063,
        -0.18772344291210175,
        0.13266627490520477,
        -0.26151782274246216,
        -0.26657453179359436,
        0.41994044184684753,
        -0.18396082520484924,
        -0.36193832755088806,
        -0.0794101282954216,
        0.32176366448402405,
        0.06268180161714554,
        0.19206932187080383,
        -0.12021617591381073,
        0.5765325427055359
      ],
      [
        -0.10373382270336151,
        0.2911475598812103,
        -0.04964467138051987,
        -0.07670886069536209,
        -0.08740182220935822,
        0.18129950761795044,
        -0.5922151803970337,
        0.058593619614839554,
        0.11193995177745819,
        0.2615082859992981,
        -0.014454184100031853,
        0.5131891965866089,
        -0.18170911073684692,
        0.28215929865837097,
        -0.014991655014455318,
        -0.29406145215034485,
        -0.22379498183727264,
        0.38509270548820496,
        -0.13606147468090057,
        -0.3780531585216522,
        -0.19952622056007385,
        0.44629237055778503,
        -0.009141049347817898,
        0.30618029832839966
      ],
      [
        -0.417838454246521,
        0.39957648515701294,
        -0.19963693618774414,
        -0.04036485031247139,
        0.15208034217357635,
        -0.12716668844223022,
        0.15308590233325958,
        0.3094231188297272,
        0.23231446743011475,
        -0.18112334609031677,
        0.485199511051178,
        0.06811243295669556,
        -0.38259631395339966,
        -0.2980990707874298,
        0.0943850502371788,
        0.09278237819671631,
        -0.039924945682287216,
        0.20957635343074799,
        -0.03533702343702316,
        0.28357505798339844,
        -0.13391344249248505,
        0.14202462136745453,
        -0.0913243293762207,
        -0.33790093660354614
      ],
      [
        -0.038561202585697174,
        -0.23413494229316711,
        0.11426348984241486,
        -0.08503871411085129,
        0.22909070551395416,
        0.3472464084625244,
        -0.23964671790599823,
        -0.23030121624469757,
        0.40035325288772583,
        0.0059639038518071175,
        0.2710981070995331,
        0.05535377934575081,
        0.24670042097568512,
        -0.24916671216487885,
        -0.13733090460300446,
        0.13080750405788422,
        -0.10193433612585068,
        0.08494166284799576,
        0.057349443435668945,
        -0.03884705528616905,
        -0.320314884185791,
        -0.12931255996227264,
        -0.04779130965471268,
        0.08100208640098572
      ],
      [
        -0.271615594625473,
        0.34830614924430847,
        -0.0716036707162857,
        0.04843011870980263,
        -0.11714695394039154,
        0.6770355105400085,
        -0.3397594094276428,
        0.04146384075284004,
        -0.11550334841012955,
        0.20228493213653564,
        -0.18684279918670654,
        -0.06983166188001633,
        -0.19030135869979858,
        -0.00494404137134552,
        0.3268539607524872,
        0.17945025861263275,
        -0.004724730271846056,
        -0.5598047375679016,
        0.19410941004753113,
        0.13162276148796082,
        -0.04748142138123512,
        0.05346352979540825,
        -0.029605543240904808,
        -0.3031994700431824
      ],
      [
        0.08287301659584045,
        0.40476974844932556,
        0.14216817915439606,
        0.10211917012929916,
        0.3269319236278534,
        -0.15064100921154022,
        0.1268368512392044,
        -0.1516185849905014,
        -0.1870831847190857,
        0.08327757567167282,
        0.20245392620563507,
        0.1195128783583641,
        0.0009786824230104685,
        -0.2111547589302063,
        -0.25562092661857605,
        -0.10875975340604782,
        -0.1608201116323471,
        -0.12525485455989838,
        0.028705792501568794,
        -0.14795134961605072,
        -0.004869203083217144,
        -0.157083198428154,
        -0.22177022695541382,
        -0.09165456891059875
      ],
      [
        0.026006612926721573,
        -0.5162551403045654,
        -0.3392118215560913,
        0.530662477016449,
        -0.026394499465823174,
        0.14879357814788818,
        0.20540465414524078,
        0.02703261747956276,
        0.10121516138315201,
        -0.20127885043621063,
        0.05846690759062767,
        0.091187983751297,
        -0.04160962626338005,
        -0.6287357211112976,
        0.3074027895927429,
        0.354505330324173,
        -0.14102014899253845,
        -0.03632620349526405,
        -0.26995664834976196,
        -0.22265157103538513,
        -0.28624284267425537,
        0.21453745663166046,
        -0.11574271321296692,
        0.20073996484279633
      ]
    ],
    "att.W_value.bias": null,
    "att.out_proj.weight": [
      [
        -0.0014661394525319338,
        -0.775948703289032,
        -0.25488245487213135,
        0.2992663085460663,
        -0.11723818629980087,
        0.011384506709873676,
        -0.21028098464012146,
        0.26312920451164246,
        -0.20407594740390778,
        -0.21140137314796448,
        -0.11965598911046982,
        0.4950145483016968,
        -0.3716719150543213,
        -0.13829419016838074,
        0.25784698128700256,
        0.11742745339870453,
        -0.7138089537620544,
        0.4094100296497345,
        -0.34220749139785767,
        0.21163205802440643,
        0.5356526970863342,
        0.013666019774973392,
        0.06159316375851631,
        0.2552993595600128
      ],
      [
        -0.28109437227249146,
        -0.0759652778506279,
        -0.4106222093105316,
        -0.09001393616199493,
        0.16090567409992218,
        0.07094772905111313,
        0.05779048800468445,
        0.30865514278411865,
        0.13574077188968658,
        -0.08702625334262848,
        0.23061931133270264,
        -0.32984405755996704,
        -0.16803254187107086,
        -0.03742564469575882,
        -0.32490748167037964,
        0.18354186415672302,
        -0.08898422867059708,
        -0.2669467031955719,
        0.17768540978431702,
        -0.3218911290168762,
        -0.2123001515865326,
        0.14605629444122314,
        -0.16453011333942413,
        -0.20616787672042847
      ],
      [
        0.18754954636096954,
        -0.095149464905262,
        0.04792565479874611,
        0.0022317494731396437,
        -0.06331586837768555,
        -0.15518365800380707,
        -0.12274984270334244,
        0.07729970663785934,
        0.03101210482418537,
        0.4209997057914734,
        0.31816136837005615,
        0.07008381187915802,
        0.10579293966293335,
        0.13061392307281494,
        -0.3025876581668854,
        0.24008890986442566,
        -0.010719154961407185,
        -0.10364031046628952,
        0.2800138592720032,
        0.0428621806204319,
        -0.028304381296038628,
        -0.2360609918832779,
        -0.03746427223086357,
        -0.33239346742630005
      ],
      [
        0.020005371421575546,
        0.05268217995762825,
        0.34546661376953125,
        0.02782224677503109,
        -0.22941365838050842,
        -0.029355697333812714,
        0.12986917793750763,
        -0.20860891044139862,
        -0.07821443676948547,
        0.11953359097242355,
        -0.030299831181764603,
        0.1619635820388794,
        -0.013098571449518204,
        -0.46786361932754517,
        0.13632965087890625,
        -0.6097089052200317,
        -0.11869380623102188,
        -0.09264721721410751,
        0.06310863792896271,
        -0.07237667590379715,
        0.28443554043769836,
        0.2265906035900116,
        0.12055116891860962,
        0.6566767692565918
      ],
      [
        -0.02998320385813713,
        0.24120362102985382,
        0.27174732089042664,
        -0.07310453057289124,
        -0.10617193579673767,
        -0.33751198649406433,
        -0.03804637864232063,
        0.08903321623802185,
        0.0460209921002388,
        0.0115896537899971,
        -0.4296177923679352,
        0.08215605467557907,
        0.37105026841163635,
        0.5254154205322266,
        -0.2867111563682556,
        -0.24008165299892426,
        -0.24036864936351776,
        0.1563253104686737,
        -0.15682891011238098,
        -0.162126824259758,
        -0.08186928927898407,
        0.09452484548091888,
        -0.09122207760810852,
        0.1542619913816452
      ],
      [
        -0.5138312578201294,
        0.1789768636226654,
        -0.08161129057407379,
        -0.02708113193511963,
        -0.030164698138833046,
        -0.2667839825153351,
        0.34676334261894226,
        -0.04415564611554146,
        -0.040785036981105804,
        -0.11033690720796585,
        -0.05208227410912514,
        0.2380637675523758,
        0.03346123546361923,
        -0.29440411925315857,
        -0.16161797940731049,
        0.17345058917999268,
        0.11324895918369293,
        -0.115650475025177,
        -0.3535228967666626,
        0.09579025208950043,
        -0.16823510825634003,
        0.006666678935289383,
        0.2846647799015045,
        0.06006968766450882
      ],
      [
        0.2810817360877991,
        0.012255691923201084,
        -0.5701170563697815,
        0.2307978719472885,
        0.22909954190254211,
        -0.21583841741085052,
        0.11925917118787766,
        -0.21742746233940125,
        0.04229746758937836,
        -0.3511969745159149,
        -0.23963363468647003,
        -0.20992210507392883,
        0.05119717866182327,
        -0.5266638398170471,
        0.0747477114200592,
        0.3671947121620178,
        0.08103806525468826,
        0.18119663000106812,
        0.19078189134597778,
        -0.1114354059100151,
        0.0940174087882042,
        0.0522308349609375,
        0.09044032543897629,
        -0.00833273958414793
      ],
      [
        -0.3839665949344635,
        0.09131968021392822,
        -0.2660248875617981,
        0.061120063066482544,
        -0.14186930656433105,
        0.3855763077735901,
        0.27869611978530884,
        0.07397235929965973,
        0.0402071438729763,
        -0.32637718319892883,
        -0.1507231444120407,
        -0.23194511234760284,
        0.3459702730178833,
        -0.011890686117112637,
        0.008687164634466171,
        -0.1566256731748581,
        0.26778334379196167,
        0.17533020675182343,
        0.2974761426448822,
        0.28213533759117126,
        0.3087814450263977,
        -0.20870795845985413,
        -0.2855289876461029,
        0.17938701808452606
      ],
      [
        -0.4698490798473358,
        -0.36175501346588135,
        0.1486334651708603,
        -0.05613202974200249,
        0.19440151751041412,
        -0.3155573010444641,
        0.07300180941820145,
        -0.07827538996934891,
        0.19968517124652863,
        0.04463662579655647,
        0.01951255090534687,
        0.32185500860214233,
        -0.21122287213802338,
        -0.09748511016368866,
        0.3106268644332886,
        -0.5198940634727478,
        0.2215651273727417,
        -0.11939749121665955,
        0.34228432178497314,
        -0.15616273880004883,
        0.03756311535835266,
        -0.04589459300041199,
        0.11510983109474182,
        -0.44316545128822327
      ],
      [
        0.3829496204853058,
        0.006433296017348766,
        -0.1555427610874176,
        -0.00810047797858715,
        0.31868284940719604,
        0.1348096877336502,
        -0.1520731896162033,
        0.061569612473249435,
        -0.13276778161525726,
        0.10430823266506195,
        0.06675942987203598,
        -0.06689386069774628,
        -0.44337424635887146,
        -0.138612300157547,
        -0.1599702090024948,
        -0.5805771350860596,
        -0.052968159317970276,
        0.5114642977714539,
        -0.14547671377658844,
        -0.144309401512146,
        -0.18191176652908325,
        0.057055652141571045,
        -0.17197051644325256,
        0.006163746118545532
      ],
      [
        0.1346794217824936,
        0.2292139232158661,
        0.22813737392425537,
        -0.16067014634609222,
        0.0617637000977993,
        0.27038997411727905,
        -0.06350668519735336,
        -0.4809530973434448,
        -0.422607958316803,
        -0.37399518489837646,
        0.09186892956495285,
        -0.14711467921733856,
        0.5616880655288696,
        -0.3544454276561737,
        -0.08020412176847458,
        -0.003094330197200179,
        -0.06389746069908142,
        0.011035404168069363,
        -0.09758859127759933,
        -0.3717851936817169,
        0.06328034400939941,
        -0.09226179122924805,
        0.11881500482559204,
        0.0005682462360709906
      ],
      [
        0.11230012029409409,
        0.0866800844669342,
        0.3437022864818573,
        0.10705836862325668,
        0.41704973578453064,
        -0.09156829863786697,
        0.2151329517364502,
        -0.09063173085451126,
        0.8360294103622437,
        -0.13230004906654358,
        -0.289522260427475,
        0.20169250667095184,
        0.2182147204875946,
        0.021234512329101562,
        -0.12876147031784058,
        0.16993407905101776,
        0.21825455129146576,
        0.048518210649490356,
        -0.16546718776226044,
        0.5656204223632812,
        -0.09338037669658661,
        0.19166259467601776,
        0.2502861022949219,
        -0.43651559948921204
      ],
      [
        -0.013873416930437088,
        0.13273322582244873,
        -0.2802509367465973,
        0.06012021005153656,
        -0.25612673163414,
        -0.36940208077430725,
        -0.1296064555644989,
        0.18537406623363495,
        -0.030774464830756187,
        0.3094283640384674,
        -0.2534438669681549,
        0.012973913922905922,
        0.016267456114292145,
        0.12301187962293625,
        0.04674925282597542,
        0.17999792098999023,
        -0.1609957069158554,
        0.03458210080862045,
        -0.09172862768173218,
        -0.1725129932165146,
        0.14213572442531586,
        -0.11747043579816818,
        0.11942420154809952,
        -0.1890643686056137
      ],
      [
        0.3730759620666504,
        -0.15248465538024902,
        0.13840699195861816,
        0.19901694357395172,
        0.19008712470531464,
        0.061431288719177246,
        0.16263066232204437,
        0.41464248299598694,
        0.05007069930434227,
        0.028432654216885567,
        0.06851741671562195,
        -0.13143345713615417,
        0.09355348348617554,
        0.31487149000167847,
        -0.0018137963488698006,
        -0.19920265674591064,
        0.09438645839691162,
        0.3643200695514679,
        0.20147469639778137,
        0.017578886821866035,
        0.038834016770124435,
        0.15573835372924805,
        0.24061517417430878,
        0.2662550210952759
      ],
      [
        -0.14385108649730682,
        -0.10410746932029724,
        0.17085154354572296,
        -0.14651267230510712,
        -0.017103400081396103,
        -0.016567900776863098,
        -0.2053292989730835,
        0.17464518547058105,
        -0.3257327377796173,
        0.044708263128995895,
        0.21672652661800385,
        -0.3652772605419159,
        -0.2274152636528015,
        -0.4398016929626465,
        -0.5475031137466431,
        0.07347290962934494,
        -0.2042035013437271,
        -0.23060692846775055,
        0.5259458422660828,
        0.25928759574890137,
        -0.07144410163164139,
        0.5421594977378845,
        -0.5368415713310242,
        0.5599071383476257
      ],
      [
        0.28329214453697205,
        0.40725934505462646,
        -0.2743636667728424,
        -0.13889089226722717,
        -0.3391585648059845,
        0.12005499750375748,
        -0.26284995675086975,
        0.023416398093104362,
        0.14823471009731293,
        0.04781819507479668,
        0.3692324161529541,
        -0.01346218679100275,
        0.23254553973674774,
        -0.05260642245411873,
        0.0342455729842186,
        0.0014579525450244546,
        -0.1394852101802826,
        -0.16564130783081055,
        -0.27496862411499023,
        0.4486328959465027,
        -0.10204482078552246,
        -0.2687038779258728,
        0.03021155297756195,
        -0.19848352670669556
      ],
      [
        0.23607362806797028,
        -0.2559405267238617,
        0.05727695673704147,
        -0.027136100456118584,
        -0.2803618609905243,
        0.10828963667154312,
        0.5531776547431946,
        0.14342287182807922,
        -0.06171582639217377,
        0.2615790069103241,
        -0.23070485889911652,
        0.0157124325633049,
        -0.07000718265771866,
        0.12933041155338287,
        0.06574027985334396,
        -0.008050935342907906,
        -0.024211876094341278,
        0.1778421550989151,
        -0.1603672355413437,
        0.25318989157676697,
        0.25981464982032776,
        0.2766227424144745,
        -0.07064815610647202,
        -0.010446415282785892
      ],
      [
        0.03294166177511215,
        -0.12292012572288513,
        0.08475713431835175,
        -0.27659809589385986,
        -0.02720019407570362,
        -0.272300660610199,
        0.0020629926584661007,
        -0.06850642710924149,
        0.028813064098358154,
        -0.28817304968833923,
        0.329166054725647,
        -0.3399084806442261,
        -0.18655654788017273,
        0.04613576456904411,
        0.01422452088445425,
        0.23802123963832855,
        0.6784584522247314,
        0.11988586187362671,
        -0.4472420811653137,
        -0.39823952317237854,
        -0.06420183181762695,
        -0.3691446781158447,
        -0.11892285197973251,
        0.35844266414642334
      ],
      [
        -0.31509482860565186,
        0.21044139564037323,
        0.07603597640991211,
        0.07152664661407471,
        0.1853644698858261,
        0.1196122020483017,
        -0.23258060216903687,
        0.38795024156570435,
        0.009757036343216896,
        0.2803614139556885,
        -0.29875367879867554,
        -0.242502823472023,
        0.31129181385040283,
        -0.19098597764968872,
        0.7301965355873108,
        0.2599809169769287,
        0.08200731873512268,
        -0.24421952664852142,
        -0.3182924687862396,
        -0.20475956797599792,
        -0.13788840174674988,
        0.519004225730896,
        -0.1848873794078827,
        -0.19885358214378357
      ],
      [
        0.06488572806119919,
        0.1338336318731308,
        0.30265018343925476,
        0.05753173679113388,
        0.09233478456735611,
        0.5662420392036438,
        -0.046677637845277786,
        0.48659688234329224,
        0.13544683158397675,
        -0.19278325140476227,
        0.27147766947746277,
        0.15405035018920898,
        0.09223144501447678,
        0.07463686913251877,
        0.3105066120624542,
        0.016212737187743187,
        -0.4067954421043396,
        0.03097987174987793,
        0.08051677793264389,
        0.19367927312850952,
        -0.08835626393556595,
        -0.5743474364280701,
        0.16441527009010315,
        -0.06271084398031235
      ],
      [
        -0.14586378633975983,
        -0.350175142288208,
        -0.0504501648247242,
        -0.1904931366443634,
        0.5809904336929321,
        0.2586984932422638,
        -0.09170762449502945,
        -0.5483821034431458,
        0.0576130636036396,
        0.12508028745651245,
        0.16248346865177155,
        0.3991161286830902,
        -0.2737949788570404,
        0.16165101528167725,
        0.04007658362388611,
        -0.04460413381457329,
        -0.09093435108661652,
        -0.812027096748352,
        0.0770554468035698,
        0.09800554066896439,
        -0.05677619203925133,
        -0.22874905169010162,
        0.05436067283153534,
        0.17231816053390503
      ],
      [
        -0.0661722719669342,
        0.1325838416814804,
        -0.05384531989693642,
        -0.133047953248024,
        -0.27407705783843994,
        -0.12729798257350922,
        -0.20720906555652618,
        -0.04018042981624603,
        -0.06469323486089706,
        0.048254117369651794,
        -0.059784285724163055,
        0.3976021409034729,
        0.14480407536029816,
        -0.069490946829319,
        -0.2099492996931076,
        -0.27638545632362366,
        -0.06564536690711975,
        -0.015215679071843624,
        -0.2696787714958191,
        0.15935760736465454,
        -0.25550511479377747,
        -0.030746424570679665,
        0.03087598644196987,
        -0.05858919024467468
      ],
      [
        0.0201855655759573,
        0.07327215373516083,
        -0.2103225737810135,
        -0.27955490350723267,
        -0.09760481119155884,
        0.41051918268203735,
        0.20484434068202972,
        0.06771314144134521,
        -0.07018966227769852,
        0.06904258579015732,
        0.011349919252097607,
        0.23287439346313477,
        -0.02693934366106987,
        0.2411268800497055,
        0.041288819164037704,
        -0.308239609003067,
        0.1060773953795433,
        0.0351463258266449,
        0.17176035046577454,
        -0.041870005428791046,
        -0.3290955126285553,
        0.2986030578613281,
        0.005619806703180075,
        -0.03934324160218239
      ],
      [
        0.09706521034240723,
        0.0066824546083807945,
        0.19412611424922943,
        0.09539473056793213,
        -0.35009098052978516,
        0.16953720152378082,
        -0.22031241655349731,
        -0.43047353625297546,
        0.09777364879846573,
        -0.27153536677360535,
        0.058005936443805695,
        -0.13750118017196655,
        -0.4274716377258301,
        0.5068002343177795,
        0.10653262585401535,
        0.41430696845054626,
        0.03384757786989212,
        0.17414771020412445,
        0.22049640119075775,
        0.0009792704368010163,
        -0.05806787684559822,
        -0.007777990307658911,
        0.11559012532234192,
        -0.06284399330615997
      ]
    ],
    "att.out_proj.bias": [
      -0.024453824386000633,
      -0.0486217737197876,
      0.04446388781070709,
      0.18349286913871765,
      -0.13648846745491028,
      -0.09950164705514908,
      -0.19923348724842072,
      0.042921312153339386,
      0.009014556184411049,
      -0.0057577830739319324,
      0.00242942594923079,
      0.015558547340333462,
      -0.013627864420413971,
      -0.09007100760936737,
      0.16282868385314941,
      -0.07012222707271576,
      0.02114989422261715,
      -0.06032613292336464,
      -0.019755151122808456,
      0.1055356115102768,
      -0.14141406118869781,
      0.10234896093606949,
      -0.020800789818167686,
      0.04287780076265335
    ],
    "norm1.scale": [
      0.5333307981491089,
      0.9049607515335083,
      0.6545600891113281,
      0.5785402059555054,
      0.8470072150230408,
      0.5921201109886169,
      0.8222390413284302,
      0.4782700538635254,
      0.6852543950080872,
      0.6963103413581848,
      0.8281638026237488,
      0.6694287657737732,
      0.5705437660217285,
      0.7060164213180542,
      0.8013924360275269,
      0.5866027474403381,
      0.6455959677696228,
      0.8910364508628845,
      0.6309991478919983,
      0.754930317401886,
      0.7916257977485657,
      0.7013110518455505,
      0.5851024985313416,
      0.7774233222007751
    ],
    "norm1.shift": [
      0.26153409481048584,
      -0.02140064164996147,
      0.1031472310423851,
      0.02746620401740074,
      0.06991948187351227,
      -0.11605564504861832,
      -0.030083203688263893,
      -0.21951547265052795,
      -0.14794519543647766,
      -0.0522676445543766,
      0.007766177412122488,
      -0.021692272275686264,
      0.15779146552085876,
      -0.012780901975929737,
      -0.12448004633188248,
      0.29635101556777954,
      -0.09856327623128891,
      -0.031929176300764084,
      -0.10557673126459122,
      -0.21145638823509216,
      0.06997883319854736,
      -0.03316664695739746,
      -0.2739007771015167,
      -0.06527113914489746
    ],
    "norm2.scale": [
      0.6048434972763062,
      0.8370807766914368,
      0.9216969013214111,
      0.6898585557937622,
      0.7737021446228027,
      0.8458895087242126,
      0.7277044057846069,
      0.6983868479728699,
      0.6747488975524902,
      0.6657634973526001,
      0.765964686870575,
      0.8228044509887695,
      0.77352374792099,
      0.7825963497161865,
      0.6578884720802307,
      0.7191147804260254,
      0.9769515991210938,
      0.7711556553840637,
      0.6482985615730286,
      0.7475348711013794,
      0.5689199566841125,
      0.8599961400032043,
      0.8177827596664429,
      0.7581079602241516
    ],
    "norm2.shift": [
      0.4361155927181244,
      0.38846492767333984,
      -0.2774316668510437,
      0.25992482900619507,
      0.17140603065490723,
      -0.5457570552825928,
      -0.325680673122406,
      0.039594631642103195,
      0.14197081327438354,
      -0.1657036542892456,
      -0.03340936079621315,
      0.42262157797813416,
      -0.19202649593353271,
      0.2606354057788849,
      -0.1497126668691635,
      -0.15761789679527283,
      -0.13441285490989685,
      -0.26771506667137146,
      0.36240318417549133,
      0.19628246128559113,
      0.009595082141458988,
      0.07984593510627747,
      -0.18548262119293213,
      0.2090325504541397
    ],
    "ff.lin1.weight": [
      [
        0.04870520159602165,
        -0.15186625719070435,
        0.528339684009552,
        -0.30163252353668213,
        0.42828747630119324,
        -0.10863609611988068,
        0.2837342619895935,
        0.21253766119480133,
        0.25843825936317444,
        -0.3175559341907501,
        0.2158200442790985,
        0.07654400914907455,
        -0.06222859397530556,
        -0.437924325466156,
        0.056478146463632584,
        0.0773615837097168,
        0.13388781249523163,
        -0.4243035912513733,
        -0.15029281377792358,
        -0.11352840811014175,
        0.06905796378850937,
        0.15030288696289062,
        -0.016413472592830658,
        -0.1917649805545807
      ],
      [
        0.1770380586385727,
        0.18252015113830566,
        0.03732169046998024,
        -0.34554529190063477,
        -0.4695367217063904,
        -0.02408198080956936,
        0.4810487926006317,
        -0.27154046297073364,
        0.19443313777446747,
        -0.16030864417552948,
        -0.09495759755373001,
        -0.21694530546665192,
        0.040611304342746735,
        0.04323741793632507,
        -0.02276976779103279,
        -0.047564223408699036,
        -0.3331911563873291,
        -0.2111818790435791,
        -0.530333399772644,
        0.1510728895664215,
        0.17744748294353485,
        0.27970758080482483,
        0.3915640711784363,
        -0.04708121344447136
      ],
      [
        0.46316343545913696,
        -0.07291445881128311,
        0.41665005683898926,
        -0.02929498627781868,
        -0.44479504227638245,
        0.3416309058666229,
        -0.3299213945865631,
        0.2225569635629654,
        0.10325881838798523,
        -0.16299347579479218,
        0.3426611125469208,
        0.03204571083188057,
        -0.17001858353614807,
        -0.2994803786277771,
        0.18918156623840332,
        -0.2039685994386673,
        0.1591520756483078,
        0.187800332903862,
        0.09428749233484268,
        -0.44465094804763794,
        0.12464699894189835,
        0.07285906374454498,
        0.20625361800193787,
        -0.15816935896873474
      ],
      [
        0.1112840473651886,
        -0.24825316667556763,
        0.26023027300834656,
        -0.5871663093566895,
        -0.23387053608894348,
        -0.12604311108589172,
        0.34385648369789124,
        -0.13868413865566254,
        0.2921827435493469,
        0.23186737298965454,
        0.28135010600090027,
        -0.1008080244064331,
        0.08351850509643555,
        0.3477436900138855,
        -0.3719884753227234,
        -0.4770212471485138,
        0.15340077877044678,
        0.40566614270210266,
        -0.06035442277789116,
        0.3500193655490875,
        -0.4341283440589905,
        0.196282759308815,
        -0.09861068427562714,
        -0.19288691878318787
      ],
      [
        0.07487046718597412,
        0.11594655364751816,
        0.5699175596237183,
        -0.4953872263431549,
        0.011577330529689789,
        0.41309231519699097,
        0.6336061358451843,
        -0.04565652832388878,
        -0.0357908196747303,
        0.09576098620891571,
        -0.3423653542995453,
        -0.3219042122364044,
        -0.03699568286538124,
        -0.10642319172620773,
        -0.28892311453819275,
        -0.266189306974411,
        0.033708732575178146,
        0.481934130191803,
        -0.46035441756248474,
        0.5213126540184021,
        -0.23507700860500336,
        0.30262935161590576,
        0.060030028223991394,
        0.00900217704474926
      ],
      [
        0.07442200183868408,
        0.06502381712198257,
        0.23053652048110962,
        -0.12244567275047302,
        0.16979838907718658,
        -0.04928023740649223,
        -0.1477724015712738,
        -0.06481090188026428,
        -0.20351001620292664,
        0.38382595777511597,
        0.12141458690166473,
        -0.609613835811615,
        -0.058568075299263,
        0.11926940083503723,
        -0.12948299944400787,
        0.2276097536087036,
        0.018984870985150337,
        0.0641101822257042,
        -0.10423257201910019,
        -0.19611307978630066,
        0.3609097898006439,
        0.18627285957336426,
        -0.053153637796640396,
        -0.21935917437076569
      ],
      [
        0.14053763449192047,
        0.19820581376552582,
        0.48899707198143005,
        0.29301348328590393,
        -0.2773021459579468,
        -0.12513722479343414,
        0.04438360035419464,
        0.447723388671875,
        -0.02639196068048477,
        0.07321996986865997,
        -0.020546577870845795,
        0.00038559225504286587,
        0.17515651881694794,
        -0.3344579339027405,
        -0.20269200205802917,
        0.19600127637386322,
        -0.08633825927972794,
        0.1268872171640396,
        -0.22125978767871857,
        -0.3261008560657501,
        -0.16530531644821167,
        -0.25680482387542725,
        -0.023724310100078583,
        -0.16939392685890198
      ],
      [
        0.28683578968048096,
        -0.3016652762889862,
        -0.4094272255897522,
        -0.07192417234182358,
        0.146505668759346,
        0.38989290595054626,
        0.170403853058815,
        -0.02075687050819397,
        0.10331817716360092,
        -0.3165310323238373,
        -0.2893742322921753,
        -0.28532788157463074,
        0.04696439206600189,
        -0.14172148704528809,
        0.1487564593553543,
        0.13894762098789215,
        -0.055739790201187134,
        0.41132083535194397,
        -0.11120184510946274,
        -0.2782023847103119,
        0.04442601650953293,
        -0.20204047858715057,
        0.516194224357605,
        -0.0269062090665102
      ],
      [
        -0.4493074119091034,
        -0.04706954210996628,
        -0.21107111871242523,
        0.1750669777393341,
        0.4572158455848694,
        -0.18242444097995758,
        0.15824291110038757,
        -0.16155074536800385,
        0.002451343694701791,
        0.3943870961666107,
        0.023222146555781364,
        -0.0724816620349884,
        0.25250717997550964,
        -0.11823569983243942,
        0.19501177966594696,
        0.17826639115810394,
        -0.19122594594955444,
        0.3322451412677765,
        -0.02512851357460022,
        -0.5107811689376831,
        -0.07412148267030716,
        -0.012051159515976906,
        0.15834318101406097,
        -0.04666425660252571
      ],
      [
        0.21035663783550262,
        -0.5800188779830933,
        -0.22067299485206604,
        -0.09262002259492874,
        -0.003960115369409323,
        0.6931508779525757,
        -0.32934656739234924,
        -0.03584640473127365,
        -0.2125145047903061,
        0.24332158267498016,
        0.17478376626968384,
        -0.3919772505760193,
        0.2822558283805847,
        -0.003991368692368269,
        -0.0699666365981102,
        0.28384169936180115,
        -0.028987661004066467,
        -0.04898905009031296,
        0.056765198707580566,
        -0.09293530136346817,
        0.1122903972864151,
        0.2831736207008362,
        0.037466663867235184,
        -0.024780210107564926
      ],
      [
        0.08564040064811707,
        -0.14063259959220886,
        -0.21066853404045105,
        0.22306573390960693,
        -0.134055033326149,
        -0.0048606800846755505,
        0.1301402896642685,
        0.14540913701057434,
        0.22907935082912445,
        -0.33830052614212036,
        -0.03794386610388756,
        0.2610699236392975,
        0.17494292557239532,
        -0.012631620280444622,
        -0.4577403962612152,
        -0.2191743403673172,
        0.13645611703395844,
        0.13439956307411194,
        -0.10049200057983398,
        -0.13896405696868896,
        -0.023842372000217438,
        -0.11578334122896194,
        0.29034358263015747,
        -0.21770119667053223
      ],
      [
        -0.005121246445924044,
        -0.16598674654960632,
        0.07580027729272842,
        0.07030433416366577,
        0.048460956662893295,
        0.16320624947547913,
        0.2503817677497864,
        -0.04149053990840912,
        0.11137706786394119,
        -0.06164046749472618,
        -0.3276333510875702,
        -0.2318134605884552,
        0.283351331949234,
        -0.3753064274787903,
        -0.13394257426261902,
        0.23360949754714966,
        -0.10279951244592667,
        -0.3489982485771179,
        -0.14554738998413086,
        0.14034542441368103,
        -0.14065591990947723,
        0.5205571055412292,
        0.6161659359931946,
        0.032695185393095016
      ],
      [
        0.08549275249242783,
        -0.36056649684906006,
        0.039151012897491455,
        -0.04507880657911301,
        -0.2398030161857605,
        -0.037879470735788345,
        0.16286933422088623,
        -0.20234785974025726,
        0.001190023380331695,
        -0.04919470101594925,
        -0.2634454667568207,
        -0.02613336220383644,
        0.09775466471910477,
        0.4928567111492157,
        0.13139235973358154,
        0.010983199812471867,
        0.08492795377969742,
        -0.3968813121318817,
        -0.17813707888126373,
        -0.05148867517709732,
        0.08422558009624481,
        0.2728256583213806,
        0.12172923982143402,
        -0.7475958466529846
      ],
      [
        -0.18407872319221497,
        -0.5160619020462036,
        0.10930172353982925,
        -0.09139584004878998,
        0.17356860637664795,
        0.1602790653705597,
        -0.011408329010009766,
        0.13120655715465546,
        0.20568187534809113,
        -0.0913378894329071,
        0.0977824330329895,
        -0.28048524260520935,
        0.018818864598870277,
        -0.368518203496933,
        0.08336538821458817,
        0.3184630870819092,
        -0.46902960538864136,
        -0.1803426891565323,
        0.20628072321414948,
        -0.3992745876312256,
        0.38445258140563965,
        0.04476148635149002,
        0.16332046687602997,
        -0.13514868915081024
      ],
      [
        -0.110768623650074,
        -0.31856176257133484,
        -0.00024131890677381307,
        -0.5712772011756897,
        -0.508324384689331,
        0.24167323112487793,
        0.8780171275138855,
        0.006693407893180847,
        -0.22877751290798187,
        0.10524967312812805,
        -0.3393719494342804,
        -0.5224048495292664,
        0.20921778678894043,
        -0.08114983141422272,
        -0.009667545557022095,
        0.2601267099380493,
        0.13895592093467712,
        -0.08139598369598389,
        0.5200260877609253,
        -0.5463178157806396,
        -0.16663235425949097,
        0.22413021326065063,
        0.22665490210056305,
        0.19015219807624817
      ],
      [
        -0.1818075329065323,
        0.00716782920062542,
        -0.1532420665025711,
        -0.3867020308971405,
        0.03282948583364487,
        0.1421140432357788,
        0.31163665652275085,
        -0.5066637992858887,
        -0.298688143491745,
        0.05671482905745506,
        0.42581894993782043,
        -0.18235750496387482,
        -0.21628037095069885,
        -0.40575292706489563,
        0.15418243408203125,
        0.19896884262561798,
        0.48091140389442444,
        -0.09263265132904053,
        -0.011568241752684116,
        -0.2571902573108673,
        0.3920005261898041,
        -0.5567471981048584,
        -0.450503408908844,
        -0.2274053394794464
      ],
      [
        0.2159515619277954,
        -0.3304678201675415,
        0.3067867159843445,
        -0.07222475111484528,
        -0.4795002341270447,
        -0.15495628118515015,
        0.04545322433114052,
        -0.06142740696668625,
        -0.5949020981788635,
        0.03781833127140999,
        0.08090037107467651,
        -0.40927788615226746,
        0.1684654802083969,
        -0.08035045862197876,
        -0.5276932716369629,
        -0.24688321352005005,
        0.3417450487613678,
        0.3790789842605591,
        -0.06744428724050522,
        0.10572987049818039,
        0.048209503293037415,
        0.23565122485160828,
        0.5163804292678833,
        -0.14090728759765625
      ],
      [
        0.41826462745666504,
        0.07464012503623962,
        -0.1973627507686615,
        -0.2737870216369629,
        -0.31350177526474,
        0.4611244797706604,
        -0.032080184668302536,
        0.19033928215503693,
        0.27712714672088623,
        -0.25785714387893677,
        -0.1575683057308197,
        -0.6609876751899719,
        0.10645923018455505,
        -0.06152484193444252,
        -0.15888550877571106,
        0.20946338772773743,
        0.23828326165676117,
        0.18566013872623444,
        0.05799848213791847,
        -0.35542893409729004,
        -0.3885449469089508,
        0.09609515219926834,
        0.37971702218055725,
        0.11203670501708984
      ],
      [
        -0.22722774744033813,
        0.14321187138557434,
        0.1459389626979828,
        -0.3635377883911133,
        0.3783942759037018,
        0.4249590039253235,
        -0.010076945647597313,
        -0.03994446620345116,
        0.0318559855222702,
        -0.03318779543042183,
        0.05390167608857155,
        0.16768714785575867,
        -0.3456970155239105,
        0.04980335757136345,
        -0.2800308167934418,
        -0.03867044672369957,
        0.5252859592437744,
        -0.10333267599344254,
        -0.3434504568576813,
        -0.12529036402702332,
        0.15241305530071259,
        0.16709890961647034,
        -0.035964563488960266,
        0.09829114377498627
      ],
      [
        -0.33088886737823486,
        0.1637287437915802,
        0.29716360569000244,
        0.4572873115539551,
        -0.4081452488899231,
        0.189100980758667,
        0.5597413778305054,
        0.32253673672676086,
        0.39496487379074097,
        0.024533990770578384,
        0.060780640691518784,
        -0.37526413798332214,
        0.07687081396579742,
        -0.1348668485879898,
        -0.1558542251586914,
        0.007850004360079765,
        0.013718636706471443,
        0.20048025250434875,
        -0.07638980448246002,
        0.21025612950325012,
        -0.15557193756103516,
        -0.09787491708993912,
        -0.2539830505847931,
        0.0878354087471962
      ],
      [
        -0.11158736050128937,
        -0.14588461816310883,
        -0.10846567153930664,
        -0.11672151833772659,
        0.09127770364284515,
        0.21924448013305664,
        0.0033464960288256407,
        0.180658221244812,
        -0.054424986243247986,
        0.42930904030799866,
        -0.46377450227737427,
        -0.21138355135917664,
        0.173980712890625,
        0.17576515674591064,
        -0.33124247193336487,
        0.03146819397807121,
        -0.029762787744402885,
        0.21000565588474274,
        -0.03218871355056763,
        0.1128987967967987,
        -0.4925388693809509,
        -0.19480599462985992,
        0.425932377576828,
        -0.25552934408187866
      ],
      [
        0.08411324769258499,
        0.0706351175904274,
        0.09328984469175339,
        -0.21338769793510437,
        -0.06865083426237106,
        0.04983202740550041,
        0.014547202736139297,
        0.19879409670829773,
        -0.24580232799053192,
        -0.08496040850877762,
        0.2278858721256256,
        0.09942387789487839,
        0.2245434820652008,
        0.12211107462644577,
        -0.3577547073364258,
        0.04578200355172157,
        -0.09242033958435059,
        0.19833151996135712,
        0.19046136736869812,
        -0.5278017520904541,
        0.03432755544781685,
        -0.15501292049884796,
        0.0696709081530571,
        -0.6781495809555054
      ],
      [
        -0.30536359548568726,
        0.012627354823052883,
        -0.13619627058506012,
        -0.00702853687107563,
        0.19204802811145782,
        0.579103410243988,
        0.2703549563884735,
        0.12678559124469757,
        0.06157111003994942,
        0.1218406930565834,
        0.1321198046207428,
        0.016559289768338203,
        -0.16248150169849396,
        -0.45092537999153137,
        0.19387578964233398,
        -0.24274617433547974,
        0.344751238822937,
        -0.47079628705978394,
        -0.0773002877831459,
        -0.1217462569475174,
        -0.0249246247112751,
        -0.346325159072876,
        -0.05925964191555977,
        -0.0281217023730278
      ],
      [
        -0.1847439706325531,
        -0.25920623540878296,
        0.09113026410341263,
        -0.17412765324115753,
        -0.2872713804244995,
        0.34917354583740234,
        -0.10362054407596588,
        -0.10084632784128189,
        0.45538341999053955,
        -0.08164740353822708,
        0.35609033703804016,
        -0.32810720801353455,
        0.15847504138946533,
        0.3973888158798218,
        0.1432841420173645,
        -0.17685416340827942,
        0.512894868850708,
        -0.05314730852842331,
        -0.4755251705646515,
        0.2491663545370102,
        -0.30950435996055603,
        -0.2217017412185669,
        0.12114973366260529,
        -0.05316793546080589
      ],
      [
        0.07880658656358719,
        -0.5776329040527344,
        -0.00958628486841917,
        0.40858912467956543,
        -0.2702902555465698,
        0.08483215421438217,
        0.13277044892311096,
        -0.3390212953090668,
        -0.25655436515808105,
        0.34495431184768677,
        -0.4096859395503998,
        -0.10071510076522827,
        -0.17569003999233246,
        -0.12066371738910675,
        0.035807397216558456,
        0.23817361891269684,
        -0.13239581882953644,
        -0.04752941429615021,
        -0.4127664864063263,
        -0.3857370913028717,
        0.4594109058380127,
        -0.24906010925769806,
        0.2292068898677826,
        0.28031298518180847
      ],
      [
        -0.35715460777282715,
        0.21660299599170685,
        0.24174699187278748,
        -0.13349491357803345,
        0.2044413536787033,
        0.4630235731601715,
        0.22849459946155548,
        0.4820718765258789,
        -0.43395736813545227,
        0.564975917339325,
        -0.12819688022136688,
        0.04834216460585594,
        -0.49888017773628235,
        0.12619785964488983,
        -0.1621653288602829,
        0.22576959431171417,
        -0.17559900879859924,
        0.05767138674855232,
        -0.01294933632016182,
        -0.572926938533783,
        0.4621174931526184,
        -0.4275054335594177,
        0.12262281775474548,
        0.22183667123317719
      ],
      [
        -0.10872218757867813,
        0.17437860369682312,
        0.1685716062784195,
        0.13035157322883606,
        -0.14112232625484467,
        -0.13020549714565277,
        -0.17704497277736664,
        0.0553077794611454,
        -0.07209548354148865,
        -0.47415027022361755,
        -0.16665257513523102,
        0.10989496111869812,
        0.411467045545578,
        -0.0028543013613671064,
        0.20631758868694305,
        0.5613917708396912,
        0.35739201307296753,
        -0.17049576342105865,
        -0.4369059205055237,
        -0.3645796477794647,
        0.4065553545951843,
        0.005267253145575523,
        -0.41953009366989136,
        -0.2289678305387497
      ],
      [
        -0.46199652552604675,
        0.21806953847408295,
        0.36709219217300415,
        0.4734742045402527,
        -0.3346101939678192,
        -0.16891813278198242,
        0.057277120649814606,
        0.17825597524642944,
        -0.26406848430633545,
        0.029963498935103416,
        -0.10056006163358688,
        0.21773669123649597,
        0.14685411751270294,
        -0.19750899076461792,
        -0.2459351122379303,
        0.0279660914093256,
        0.3254062235355377,
        -0.12551216781139374,
        -0.33133387565612793,
        -0.29566460847854614,
        -0.08811979740858078,
        0.2308356910943985,
        -0.38567042350769043,
        -0.2083357274532318
      ],
      [
        -0.11228388547897339,
        -0.14205655455589294,
        0.010233154520392418,
        0.0520603321492672,
        -0.16243785619735718,
        0.3710911273956299,
        0.39000204205513,
        -0.38092201948165894,
        0.07949928939342499,
        0.3609773814678192,
        0.17434221506118774,
        -0.36661651730537415,
        -0.27158764004707336,
        -0.40327689051628113,
        -0.021407442167401314,
        -0.34495919942855835,
        0.49060043692588806,
        0.0693587139248848,
        0.11332602053880692,
        -0.07719089835882187,
        -0.08977687358856201,
        0.10208325833082199,
        0.04878969490528107,
        -0.00010969489812850952
      ],
      [
        -0.10141792893409729,
        -0.14119790494441986,
        -0.3959029018878937,
        -0.1663265973329544,
        0.22705762088298798,
        0.12351304292678833,
        0.637929379940033,
        -0.23029765486717224,
        -0.024087421596050262,
        0.059603285044431686,
        -0.295820415019989,
        0.26471278071403503,
        0.2114560753107071,
        -0.10074028372764587,
        -0.1244393065571785,
        -0.10489906370639801,
        -0.17693932354450226,
        0.16881942749023438,
        0.21533502638339996,
        -0.2801036536693573,
        -0.011811632663011551,
        0.20844990015029907,
        0.38303714990615845,
        -0.10171913355588913
      ],
      [
        -0.23407842218875885,
        -0.25426235795021057,
        0.5008206963539124,
        0.049459487199783325,
        -0.2208702713251114,
        0.09804493933916092,
        0.14470277726650238,
        0.2824345827102661,
        -0.16138282418251038,
        -0.20834267139434814,
        -0.33039361238479614,
        0.07404112070798874,
        -0.36345982551574707,
        0.2524755895137787,
        -0.4074907600879669,
        0.16894042491912842,
        -0.5158042311668396,
        0.28685811161994934,
        0.11165133118629456,
        0.07116925716400146,
        0.0150621198117733,
        -0.14614363014698029,
        0.3654318153858185,
        -0.3272375166416168
      ],
      [
        -0.07547922432422638,
        -0.7062191367149353,
        0.015910767018795013,
        -0.5037464499473572,
        0.5361819267272949,
        -0.17859838902950287,
        0.4251333475112915,
        0.0991629958152771,
        -0.021704090759158134,
        0.17008814215660095,
        0.16560135781764984,
        0.04870239645242691,
        -0.2954426407814026,
        -0.415179044008255,
        0.17210038006305695,
        -0.009958433918654919,
        0.22166487574577332,
        0.27648863196372986,
        -0.2763020098209381,
        0.01766476035118103,
        -0.016069995239377022,
        0.1866489052772522,
        -0.19944249093532562,
        0.10481810569763184
      ],
      [
        0.00028611771995201707,
        -0.3441272974014282,
        -0.2402482032775879,
        -0.26893526315689087,
        -0.2330680787563324,
        0.5985059142112732,
        0.3195597231388092,
        0.0680273175239563,
        -0.12830615043640137,
        -0.049633000046014786,
        -0.25705280900001526,
        -0.2734585106372833,
        -0.3493031859397888,
        0.2834099233150482,
        0.10785408318042755,
        0.2663224935531616,
        -0.1950782835483551,
        0.5346444249153137,
        -0.1264982372522354,
        -0.11200345307588577,
        0.28363633155822754,
        0.22652675211429596,
        -0.18601849675178528,
        0.050015732645988464
      ],
      [
        -0.3081137239933014,
        -0.2904752492904663,
        0.4155842661857605,
        -0.1415635049343109,
        0.09737483412027359,
        0.1554209440946579,
        0.5686616897583008,
        -0.5110172033309937,
        0.04960683360695839,
        -0.028103839606046677,
        -0.3215925693511963,
        0.15909074246883392,
        0.010481789708137512,
        0.11277024447917938,
        0.23016734421253204,
        -0.24865365028381348,
        -0.17445610463619232,
        -0.14743873476982117,
        0.06540833413600922,
        -0.2132553607225418,
        -0.28958165645599365,
        0.07120268791913986,
        0.1065172329545021,
        -0.11536016315221786
      ],
      [
        0.4899407625198364,
        -0.1144440621137619,
        0.5712105631828308,
        -0.08997365832328796,
        0.2427918165922165,
        0.21592682600021362,
        0.06802710890769958,
        -0.5277119874954224,
        0.08474504947662354,
        -0.050690531730651855,
        -0.17381997406482697,
        -0.2939516007900238,
        0.1809631735086441,
        -0.2383037954568863,
        -0.10740656405687332,
        -0.045025888830423355,
        -0.09447260200977325,
        -0.25338345766067505,
        0.1597994863986969,
        -0.23478516936302185,
        0.1275428831577301,
        -0.06799205392599106,
        -0.23624159395694733,
        -0.1275331974029541
      ],
      [
        -0.06763565540313721,
        0.2485750913619995,
        0.15350660681724548,
        -0.01391541212797165,
        0.0355699248611927,
        0.326005220413208,
        0.10500980168581009,
        -0.310777485370636,
        -0.2523810565471649,
        -0.1381012201309204,
        0.16540946066379547,
        -0.09137994796037674,
        0.4867812991142273,
        -0.19691547751426697,
        0.13853031396865845,
        -0.3322134017944336,
        -0.050477415323257446,
        0.5930572748184204,
        -0.11270032823085785,
        -0.16749407351016998,
        0.10369682312011719,
        -0.02623675763607025,
        -0.042543310672044754,
        0.1548011302947998
      ],
      [
        -0.0451316274702549,
        -0.4119283854961395,
        -0.11376290768384933,
        -0.2597183883190155,
        -0.04793062061071396,
        0.32929834723472595,
        0.18169888854026794,
        -0.2657182812690735,
        0.023400455713272095,
        -0.11161739379167557,
        -0.6316069960594177,
        0.22512733936309814,
        0.07121802121400833,
        0.33789798617362976,
        -0.14510086178779602,
        0.4394831359386444,
        0.10165349394083023,
        0.08504346758127213,
        0.14661382138729095,
        -0.25782305002212524,
        0.02525758370757103,
        0.28632795810699463,
        -0.017383679747581482,
        0.1483759731054306
      ],
      [
        -0.3494911193847656,
        -0.24022215604782104,
        0.3126172423362732,
        -0.31792399287223816,
        -0.3005787134170532,
        0.2829383313655853,
        0.08727169781923294,
        -0.29065608978271484,
        0.15285344421863556,
        0.11561872065067291,
        0.3495444059371948,
        0.47471052408218384,
        0.17365942895412445,
        -0.12492422014474869,
        0.4209928810596466,
        -0.05369415134191513,
        0.3582581579685211,
        0.08596446365118027,
        -0.02752775326371193,
        -0.01660781539976597,
        -0.3170548379421234,
        -0.4236990213394165,
        0.3350290358066559,
        -0.36340534687042236
      ],
      [
        0.0012249326100572944,
        -0.04480884596705437,
        -0.038140542805194855,
        -0.1169646605849266,
        0.1333622932434082,
