{
  "block_0": {
    "att.W_query.weight": [
      [
        0.03545772284269333,
        0.09651591628789902,
        0.629386305809021,
        -0.13772408664226532,
        0.45164889097213745,
        -0.0004574288032017648,
        -0.6634353995323181,
        -0.13653670251369476,
        0.2685786783695221,
        -0.27527719736099243,
        0.054464273154735565,
        -0.9508731961250305
      ],
      [
        0.3239298164844513,
        -0.0929197371006012,
        0.0952383503317833,
        -0.5540056824684143,
        0.3181285858154297,
        0.205510213971138,
        -0.5287113189697266,
        -0.2085544764995575,
        -0.6773480176925659,
        -0.32425522804260254,
        0.4528926610946655,
        0.7117658853530884
      ],
      [
        0.8901194334030151,
        0.5259438753128052,
        0.21523231267929077,
        -0.35394740104675293,
        -0.1532357782125473,
        -0.586958110332489,
        -0.16243290901184082,
        0.371401846408844,
        -0.15634660422801971,
        -0.2870819568634033,
        0.09023904800415039,
        -0.09409534931182861
      ],
      [
        0.12616363167762756,
        -0.046614959836006165,
        -0.24172373116016388,
        0.6778954863548279,
        0.516695499420166,
        -0.6218248605728149,
        -0.0694926530122757,
        0.15206578373908997,
        -0.1103522852063179,
        0.16187115013599396,
        -0.5901850461959839,
        0.33739617466926575
      ],
      [
        0.5293014049530029,
        0.3532431423664093,
        -0.23708947002887726,
        -0.13457000255584717,
        0.45660126209259033,
        -0.09979592263698578,
        -0.5528814196586609,
        0.5745818614959717,
        0.04338392987847328,
        0.03748926520347595,
        0.347926527261734,
        -0.2868300676345825
      ],
      [
        -0.25205478072166443,
        0.5021656155586243,
        0.5113083124160767,
        -0.39315342903137207,
        -0.21612288057804108,
        -0.3164092004299164,
        -0.6977023482322693,
        0.36908429861068726,
        0.5217782258987427,
        0.06676270812749863,
        -0.04340164363384247,
        0.35435378551483154
      ],
      [
        0.37311848998069763,
        0.37574419379234314,
        -0.3733060956001282,
        -0.3541344404220581,
        -0.15293574333190918,
        -0.2705382704734802,
        0.4470326602458954,
        -0.33280330896377563,
        0.44370242953300476,
        0.43582776188850403,
        -0.1920488029718399,
        0.11445102840662003
      ],
      [
        -0.14820395410060883,
        -0.12245694547891617,
        -0.31222620606422424,
        -0.1929330676794052,
        0.4125789403915405,
        0.42319899797439575,
        -0.7020381689071655,
        -0.24249552190303802,
        -0.17812059819698334,
        0.32373836636543274,
        -0.0862177386879921,
        0.38452696800231934
      ],
      [
        -0.8718228340148926,
        0.20964835584163666,
        0.1724158078432083,
        -0.02782241813838482,
        -0.20342448353767395,
        0.5177984237670898,
        0.7425448298454285,
        -0.08214425295591354,
        0.04025522992014885,
        0.2768540680408478,
        -0.41542136669158936,
        0.31611502170562744
      ],
      [
        -0.22368596494197845,
        -0.12466908991336823,
        -0.4078785479068756,
        0.41922035813331604,
        0.10622906684875488,
        0.4031989872455597,
        -0.22309769690036774,
        -0.6259915232658386,
        -0.03798645734786987,
        -0.5491151809692383,
        -0.14245174825191498,
        0.15175241231918335
      ],
      [
        -0.18940627574920654,
        -0.49135830998420715,
        -0.33083587884902954,
        0.4625338613986969,
        -0.3765755891799927,
        -0.6223194599151611,
        0.3179979920387268,
        -0.12452130019664764,
        0.12897516787052155,
        0.3823334872722626,
        0.38302382826805115,
        0.11886566132307053
      ],
      [
        -0.03064398281276226,
        -0.8839699029922485,
        0.6005493998527527,
        0.6213731169700623,
        0.5840693116188049,
        0.32845190167427063,
        0.8649927377700806,
        -0.3556123375892639,
        -0.37330448627471924,
        -0.20026470720767975,
        0.10619603842496872,
        -0.2564775049686432
      ]
    ],
    "att.W_query.bias": null,
    "att.W_key.weight": [
      [
        -0.6593766212463379,
        0.10188455134630203,
        -0.44719958305358887,
        0.06758267432451248,
        -0.2705236077308655,
        0.06310612708330154,
        0.7769125699996948,
        0.08990122377872467,
        -0.20588494837284088,
        0.016939954832196236,
        -0.0985228642821312,
        0.6768046021461487
      ],
      [
        -0.24122171103954315,
        0.36277925968170166,
        0.441419392824173,
        -0.04886658489704132,
        -0.5546330809593201,
        0.09010260552167892,
        -0.4341489374637604,
        0.0438230000436306,
        0.9784806966781616,
        0.015156724490225315,
        -0.7096838355064392,
        0.38704875111579895
      ],
      [
        -0.20378217101097107,
        -0.20511284470558167,
        -0.07757897675037384,
        -0.6656219959259033,
        -0.32019028067588806,
        0.8492574691772461,
        -0.19727763533592224,
        -0.10674062371253967,
        0.047172997146844864,
        0.06009965017437935,
        0.3808295428752899,
        0.7539126873016357
      ],
      [
        -0.18425330519676208,
        0.43173372745513916,
        0.26008495688438416,
        0.11651606112718582,
        -0.808626115322113,
        -0.35249587893486023,
        0.44168731570243835,
        -0.5183228254318237,
        0.4184872508049011,
        -0.27438002824783325,
        -0.08038348704576492,
        -0.2280959188938141
      ],
      [
        -0.19290143251419067,
        0.045857857912778854,
        0.43331030011177063,
        0.3384217619895935,
        -0.18474799394607544,
        -0.003191293915733695,
        -0.557880163192749,
        0.29960623383522034,
        0.45623937249183655,
        -0.41618093848228455,
        -0.5552971363067627,
        -0.40104836225509644
      ],
      [
        0.6237634420394897,
        -0.09516657143831253,
        0.3694363236427307,
        0.25293290615081787,
        -0.2985334098339081,
        0.6060857772827148,
        -0.03413062170147896,
        -0.2810353934764862,
        -0.529539167881012,
        0.29019492864608765,
        -0.5812812447547913,
        -0.38841551542282104
      ],
      [
        0.5732053518295288,
        -0.4182012677192688,
        -0.10679353773593903,
        -0.13536033034324646,
        0.42003917694091797,
        0.057904310524463654,
        0.054321661591529846,
        0.6342410445213318,
        -0.11692861467599869,
        0.17429158091545105,
        -0.11228795349597931,
        -0.37178656458854675
      ],
      [
        -0.42329129576683044,
        0.36714425683021545,
        0.16727805137634277,
        0.12038207799196243,
        -0.06297501921653748,
        -0.12029141187667847,
        0.26114118099212646,
        0.1702200174331665,
        -0.036622803658246994,
        -0.5408383011817932,
        0.7881225347518921,
        -0.2058902382850647
      ],
      [
        0.5407714247703552,
        0.20420952141284943,
        -0.7413184642791748,
        -0.42095017433166504,
        0.6905954480171204,
        0.3040565848350525,
        -0.6923918724060059,
        -0.07728995382785797,
        -0.16422061622142792,
        0.0717412456870079,
        0.34212446212768555,
        0.0007458272157236934
      ],
      [
        0.046267785131931305,
        -0.09800852835178375,
        0.37221428751945496,
        -0.03642134368419647,
        -0.20524483919143677,
        -0.1174108237028122,
        -0.08360384404659271,
        0.7835716009140015,
        -0.6541396975517273,
        -0.03203166276216507,
        -0.03553558886051178,
        0.20900365710258484
      ],
      [
        -0.16384664177894592,
        0.4330615997314453,
        -0.012386780232191086,
        0.16062776744365692,
        -0.5262251496315002,
        0.5517434477806091,
        0.5521610975265503,
        -0.2988390624523163,
        -0.6500149965286255,
        0.0007439098553732038,
        0.3065250813961029,
        -0.13902296125888824
      ],
      [
        -0.31678906083106995,
        0.3139432370662689,
        -0.4045472741127014,
        0.361774742603302,
        0.06623952835798264,
        0.20657756924629211,
        0.06876020133495331,
        0.7428715825080872,
        -0.6736468076705933,
        0.6689878702163696,
        -0.5924630761146545,
        -0.4084356725215912
      ]
    ],
    "att.W_key.bias": null,
    "att.W_value.weight": [
      [
        0.2106354832649231,
        -0.4248732030391693,
        0.2721191644668579,
        0.2610362470149994,
        0.36124297976493835,
        -0.04222182184457779,
        0.1388406753540039,
        -0.7058244347572327,
        -0.12364973872900009,
        0.012562142685055733,
        -0.36679553985595703,
        -0.07087872922420502
      ],
      [
        -0.42368096113204956,
        0.49019789695739746,
        0.1291256546974182,
        -0.21505656838417053,
        0.34821969270706177,
        0.14210021495819092,
        -0.16152158379554749,
        -0.2702780067920685,
        -0.15236064791679382,
        -0.004120732191950083,
        0.33600831031799316,
        0.0554475300014019
      ],
      [
        -0.37251749634742737,
        -0.3123086392879486,
        0.0634743720293045,
        0.20867228507995605,
        0.13500328361988068,
        -0.3521135747432709,
        -0.2395227998495102,
        0.5036076307296753,
        -0.17117932438850403,
        0.5975872278213501,
        -0.2821137011051178,
        -0.004480605013668537
      ],
      [
        0.049395330250263214,
        -0.35642382502555847,
        -0.09061791747808456,
        0.06542468070983887,
        -0.09118372201919556,
        0.3430896997451782,
        0.03467905893921852,
        -0.37220844626426697,
        -0.0879233330488205,
        -0.6465179920196533,
        -0.20385819673538208,
        0.591572642326355
      ],
      [
        -0.3411029875278473,
        -0.5253891348838806,
        0.37128525972366333,
        0.08010241389274597,
        0.20889899134635925,
        -0.19924971461296082,
        -0.15088677406311035,
        -0.15285354852676392,
        0.11572560667991638,
        0.2651623785495758,
        -0.1446671336889267,
        0.5347158908843994
      ],
      [
        -0.05382320284843445,
        0.4929151237010956,
        -0.15923112630844116,
        -0.22182701528072357,
        -0.2738475501537323,
        0.4060211181640625,
        -0.45219653844833374,
        -0.2938184142112732,
        0.10428988188505173,
        0.3525451421737671,
        0.09296528995037079,
        0.4275384843349457
      ],
      [
        -0.4281172752380371,
        0.26672932505607605,
        0.5278007388114929,
        -0.2600332796573639,
        0.04005284234881401,
        -0.42513418197631836,
        0.02568366378545761,
        0.3442244231700897,
        0.1326846033334732,
        0.22493843734264374,
        0.03552287817001343,
        0.1273769736289978
      ],
      [
        -0.4598301947116852,
        -0.19512949883937836,
        -0.17516623437404633,
        0.1632862091064453,
        0.2140888124704361,
        -0.030119912698864937,
        -0.22129397094249725,
        -0.2461318075656891,
        -0.4335879385471344,
        0.6388347148895264,
        0.04743258282542229,
        0.33604317903518677
      ],
      [
        -0.08872081339359283,
        -0.16051717102527618,
        0.19983546435832977,
        -0.16792908310890198,
        -0.019506504759192467,
        0.054189283400774,
        -0.10188228636980057,
        0.3934217095375061,
        -0.605053722858429,
        -0.3661098778247833,
        0.3973366320133209,
        0.44194507598876953
      ],
      [
        -0.10949958115816116,
        0.1768208146095276,
        0.3466944098472595,
        0.3722590506076813,
        -0.4840826988220215,
        0.3484237492084503,
        -0.09151256829500198,
        0.024850009009242058,
        -0.0054470328614115715,
        0.3159140348434448,
        -0.7018084526062012,
        0.3410341441631317
      ],
      [
        0.090459905564785,
        -0.5086654424667358,
        -0.3868390917778015,
        -0.021109875291585922,
        0.04737136885523796,
        0.008405218832194805,
        0.2239566594362259,
        -0.42378491163253784,
        0.21049156785011292,
        0.6189839839935303,
        -0.12940961122512817,
        0.07650335133075714
      ],
      [
        0.05866245552897453,
        0.58686763048172,
        -0.42777153849601746,
        -0.20681169629096985,
        -0.01494392566382885,
        -0.1370653212070465,
        -0.1263783723115921,
        0.24140842258930206,
        0.3694305717945099,
        0.25549256801605225,
        -0.042695555835962296,
        0.19005106389522552
      ]
    ],
    "att.W_value.bias": null,
    "att.out_proj.weight": [
      [
        -0.44155263900756836,
        0.17771834135055542,
        0.29185450077056885,
        0.023781459778547287,
        0.235413059592247,
        0.09438256174325943,
        -0.2410123497247696,
        0.34222736954689026,
        -0.5412918329238892,
        0.29420536756515503,
        0.20962591469287872,
        0.05003557354211807
      ],
      [
        0.13510915637016296,
        -0.017758548259735107,
        -0.3543699383735657,
        -0.0698324665427208,
        0.014170996844768524,
        0.22933067381381989,
        -0.49043649435043335,
        0.3464115560054779,
        0.34276020526885986,
        0.4082019031047821,
        0.11401024460792542,
        -0.10693444311618805
      ],
      [
        0.07788141071796417,
        0.04066915810108185,
        -0.20004411041736603,
        0.03261392563581467,
        -0.005093798972666264,
        -0.19495122134685516,
        -0.30142226815223694,
        0.07718751579523087,
        0.30354684591293335,
        -0.3859637379646301,
        -0.12830625474452972,
        -0.13491412997245789
      ],
      [
        0.032319292426109314,
        0.02866256795823574,
        -0.15675225853919983,
        0.2067849338054657,
        -0.3079128563404083,
        -0.5589720010757446,
        -0.32168036699295044,
        -0.331013947725296,
        -0.41885799169540405,
        -0.05798451602458954,
        -0.001535929972305894,
        -0.2164342701435089
      ],
      [
        0.19486211240291595,
        -0.2267455905675888,
        0.1594846397638321,
        0.26461362838745117,
        0.20038563013076782,
        0.20552869141101837,
        -0.032637521624565125,
        -0.4022763669490814,
        -0.1457681655883789,
        0.4753114581108093,
        -0.32304078340530396,
        -0.1047847718000412
      ],
      [
        -0.15716448426246643,
        0.06031763553619385,
        -0.3657766580581665,
        -0.23507730662822723,
        -0.1622374951839447,
        -0.13423533737659454,
        0.1326620727777481,
        0.39555320143699646,
        0.17318414151668549,
        0.23077820241451263,
        0.21771225333213806,
        0.16831490397453308
      ],
      [
        -0.14846256375312805,
        -0.4357895255088806,
        -0.2647697925567627,
        0.49496641755104065,
        0.07404262572526932,
        0.17030256986618042,
        0.18879713118076324,
        -0.3075683116912842,
        0.20835648477077484,
        -0.001683913404121995,
        0.3231624662876129,
        -0.3559440076351166
      ],
      [
        0.3550358712673187,
        0.1072205901145935,
        0.4268966317176819,
        -0.29889968037605286,
        -0.2850325405597687,
        0.1702275425195694,
        0.40782058238983154,
        0.326503187417984,
        -0.09850984066724777,
        0.09514027833938599,
        0.11758168041706085,
        -0.39740505814552307
      ],
      [
        0.18143577873706818,
        -0.3397538661956787,
        0.35803866386413574,
        -0.5283950567245483,
        0.003242847276851535,
        -0.06671984493732452,
        -0.08575622737407684,
        -0.026246409863233566,
        -0.192830890417099,
        -0.01020892895758152,
        -0.06782680749893188,
        0.4335979223251343
      ],
      [
        0.14038628339767456,
        0.43923819065093994,
        -0.15013062953948975,
        0.23502004146575928,
        0.5136102437973022,
        -0.33936211466789246,
        0.46590128540992737,
        0.033030010759830475,
        0.13515856862068176,
        0.07147113233804703,
        -0.4652690887451172,
        0.08880144357681274
      ],
      [
        0.32401368021965027,
        0.11694828420877457,
        -0.08426373451948166,
        -0.08924456685781479,
        -0.41957950592041016,
        0.498565673828125,
        0.23899313807487488,
        -0.3506561815738678,
        -0.01967366226017475,
        -0.6316162943840027,
        0.6488392353057861,
        0.41041678190231323
      ],
      [
        -0.4539027810096741,
        -0.22239340841770172,
        0.17418955266475677,
        0.03655608370900154,
        -0.14691166579723358,
        0.48128506541252136,
        0.1353897750377655,
        -0.3651343286037445,
        0.1349373608827591,
        -0.23720002174377441,
        -0.34460389614105225,
        -0.2547464966773987
      ]
    ],
    "att.out_proj.bias": [
      -0.034888606518507004,
      -0.048376310616731644,
      -0.021173499524593353,
      0.08066748082637787,
      -0.09322211146354675,
      0.09457045793533325,
      0.05543529614806175,
      -0.24012410640716553,
      0.010575543157756329,
      0.0796419158577919,
      0.0873817503452301,
      -0.055969130247831345
    ],
    "norm1.scale": [
      0.9864178895950317,
      0.9264512062072754,
      0.9121688008308411,
      0.5392130017280579,
      0.7719940543174744,
      0.7105655670166016,
      0.917397677898407,
      1.0220733880996704,
      1.0881257057189941,
      1.0311285257339478,
      1.0034385919570923,
      0.9037692546844482
    ],
    "norm1.shift": [
      -0.02644621767103672,
      0.2649231553077698,
      0.2109230011701584,
      0.041339416056871414,
      0.005525047890841961,
      0.038461942225694656,
      0.2720127999782562,
      0.020052606239914894,
      0.01796317845582962,
      0.08638164401054382,
      -0.06252879649400711,
      0.030412880703806877
    ],
    "norm2.scale": [
      0.8813247084617615,
      0.8594192862510681,
      1.1067945957183838,
      0.8564161062240601,
      0.8743377327919006,
      1.0531944036483765,
      0.9097151160240173,
      0.7829558253288269,
      0.9267850518226624,
      0.8431675434112549,
      0.6725932359695435,
      1.0259934663772583
    ],
    "norm2.shift": [
      -0.22420743107795715,
      0.26744258403778076,
      -0.4627169072628021,
      -0.13747546076774597,
      -0.262633740901947,
      0.2507927417755127,
      0.4100862443447113,
      0.08711520582437515,
      0.18999531865119934,
      0.06987658888101578,
      -0.4049795866012573,
      0.0337710902094841
    ],
    "ff.lin1.weight": [
      [
        0.1535157710313797,
        -0.2483028918504715,
        -0.18207618594169617,
        -0.5252368450164795,
        0.4566885530948639,
        -0.10271617770195007,
        -0.06670040637254715,
        -0.32996198534965515,
        0.027994122356176376,
        0.7563035488128662,
        0.22198031842708588,
        0.34009990096092224
      ],
      [
        -0.17012439668178558,
        -0.3089011609554291,
        0.5479176044464111,
        0.012426435947418213,
        -0.008033324964344501,
        0.33338236808776855,
        -0.34680214524269104,
        -0.5297142863273621,
        0.28541800379753113,
        0.5595325827598572,
        -0.3602660894393921,
        -0.2200528383255005
      ],
      [
        0.06309107691049576,
        0.24969421327114105,
        0.0807681605219841,
        -0.5287764072418213,
        0.2011992484331131,
        -0.40498051047325134,
        -0.16924665868282318,
        0.5648627877235413,
        -0.20314477384090424,
        -0.33063504099845886,
        0.07779500633478165,
        -0.2896186113357544
      ],
      [
        -0.15661707520484924,
        0.6458626985549927,
        0.41156521439552307,
        -0.45812126994132996,
        -0.02194744162261486,
        -0.6870213150978088,
        -0.31682562828063965,
        0.2035755217075348,
        0.18659721314907074,
        -0.29464656114578247,
        0.3944840133190155,
        -0.08708878606557846
      ],
      [
        -0.046775516122579575,
        0.011678040027618408,
        0.0751262754201889,
        -0.1252056062221527,
        0.41453108191490173,
        0.030817387625575066,
        -1.1079241037368774,
        -0.28043320775032043,
        0.17582115530967712,
        -0.0477440282702446,
        0.2260242998600006,
        0.6454474925994873
      ],
      [
        0.6463974714279175,
        0.08162545412778854,
        0.7490597367286682,
        -0.011409686878323555,
        -0.5951839089393616,
        0.057320643216371536,
        -0.7825847864151001,
        -0.01586776413023472,
        0.07370390743017197,
        -0.022446531802415848,
        0.5730739235877991,
        -0.31657302379608154
      ],
      [
        -0.06792419403791428,
        -0.1798073947429657,
        0.7451431155204773,
        -0.2152261584997177,
        0.18116497993469238,
        0.5077241659164429,
        -0.25540488958358765,
        -0.22840049862861633,
        -0.030933288857340813,
        -0.20071864128112793,
        -0.32243454456329346,
        -0.15578128397464752
      ],
      [
        -0.5428715348243713,
        0.04161698743700981,
        0.20191361010074615,
        -0.025851529091596603,
        -0.13799364864826202,
        0.33883318305015564,
        -0.4748116731643677,
        0.02575334906578064,
        -0.08187417685985565,
        -0.21398377418518066,
        0.6206079125404358,
        0.42572957277297974
      ],
      [
        0.3138314485549927,
        0.21268397569656372,
        0.353081613779068,
        0.1815345138311386,
        -0.3129294812679291,
        -0.06085747852921486,
        -0.3492286205291748,
        0.5150468349456787,
        0.12491942197084427,
        -0.42600318789482117,
        0.1748635172843933,
        -0.17133280634880066
      ],
      [
        0.22433428466320038,
        -0.33635255694389343,
        -0.05621083825826645,
        0.7062896490097046,
        -0.11865057051181793,
        0.3010701835155487,
        -0.27999046444892883,
        -0.02346939779818058,
        -0.040376946330070496,
        -0.011232107877731323,
        -0.14258164167404175,
        0.2581716775894165
      ],
      [
        -0.33338937163352966,
        -0.3530401587486267,
        0.48230159282684326,
        0.25836965441703796,
        0.07348593324422836,
        -0.12892842292785645,
        -0.4812694489955902,
        -0.11374951153993607,
        -0.17054633796215057,
        0.16241870820522308,
        -0.17655819654464722,
        0.2931350767612457
      ],
      [
        0.3948952853679657,
        0.1616600602865219,
        -0.03112669102847576,
        -0.6877005696296692,
        0.36196792125701904,
        -0.12262412160634995,
        -0.6673882603645325,
        -0.06641600281000137,
        0.0047153024934232235,
        0.06073087453842163,
        -0.10769321024417877,
        0.5728623867034912
      ],
      [
        0.5448786020278931,
        -0.24576297402381897,
        0.9425995349884033,
        0.4522837698459625,
        0.0974741131067276,
        -0.43821001052856445,
        -0.37375590205192566,
        -0.18351483345031738,
        0.2567775249481201,
        -0.26395103335380554,
        0.08819565922021866,
        -0.19978530704975128
      ],
      [
        0.53013014793396,
        -0.03502732887864113,
        0.03432190418243408,
        0.2439013570547104,
        0.34652456641197205,
        0.4733123779296875,
        -0.3822357654571533,
        -0.4141160249710083,
        -0.5110476016998291,
        0.06492629647254944,
        0.16961081326007843,
        -0.3587709367275238
      ],
      [
        -0.11585627496242523,
        0.4209594130516052,
        -0.24437369406223297,
        0.4607919752597809,
        -0.02917424589395523,
        0.16792787611484528,
        0.09064161032438278,
        -0.38136720657348633,
        -0.001798364450223744,
        -0.20476457476615906,
        0.1223086565732956,
        0.3839479386806488
      ],
      [
        -0.4244976341724396,
        -0.5363630056381226,
        0.1606927514076233,
        0.18581649661064148,
        0.0635485127568245,
        -0.38547056913375854,
        -0.2657429575920105,
        0.5165376663208008,
        0.09298299252986908,
        0.636707067489624,
        0.5588626265525818,
        -0.3579111099243164
      ],
      [
        0.5746243596076965,
        -0.6280039548873901,
        0.2933959364891052,
        -0.31994691491127014,
        0.3333031237125397,
        -0.002996536437422037,
        0.10718806087970734,
        0.537704586982727,
        -0.4302140474319458,
        -0.3856712579727173,
        0.5078332424163818,
        -0.07058119028806686
      ],
      [
        0.35577258467674255,
        0.06620381027460098,
        -0.43979349732398987,
        0.17494508624076843,
        0.6867700219154358,
        -0.5353593230247498,
        0.13870848715305328,
        0.10153768956661224,
        -0.46036919951438904,
        0.0032942951656877995,
        0.2808077037334442,
        -0.4306432008743286
      ],
      [
        0.8402603268623352,
        -0.2074325680732727,
        -0.20193758606910706,
        -0.3221692144870758,
        0.23910875618457794,
        0.1918937861919403,
        -0.4575802981853485,
        0.09850362688302994,
        -0.18154877424240112,
        -0.23051108419895172,
        0.3237271010875702,
        -0.14792625606060028
      ],
      [
        0.46991920471191406,
        0.05432790145277977,
        0.3188543915748596,
        -0.028627892956137657,
        0.13087426126003265,
        -0.5434486269950867,
        -0.25675180554389954,
        0.7828776836395264,
        -0.24691146612167358,
        -0.6401553153991699,
        -0.30185142159461975,
        0.5578227639198303
      ],
      [
        -0.0015179698821157217,
        -0.5850148797035217,
        0.2734370827674866,
        -0.2807613015174866,
        1.0079209804534912,
        -0.10511940717697144,
        -0.9569907784461975,
        -0.34136268496513367,
        0.5483138561248779,
        0.10858556628227234,
        0.11237667500972748,
        0.32326406240463257
      ],
      [
        0.13525177538394928,
        -0.27037912607192993,
        0.4340839684009552,
        0.01541711762547493,
        -0.3631252646446228,
        -0.38519373536109924,
        -0.037611667066812515,
        -0.21942873299121857,
        0.4433124363422394,
        0.5529078245162964,
        0.07934007793664932,
        0.05181257426738739
      ],
      [
        0.5842416882514954,
        0.14205995202064514,
        0.6007686853408813,
        -0.44058406352996826,
        -0.17515495419502258,
        -0.0011280562030151486,
        -0.27393585443496704,
        -0.05464385822415352,
        0.12486416101455688,
        -0.11829724907875061,
        -0.12952472269535065,
        0.11294927448034286
      ],
      [
        -0.4064428508281708,
        0.603063702583313,
        0.5673258900642395,
        0.03684629872441292,
        0.5758307576179504,
        -0.20888502895832062,
        -0.39035606384277344,
        -0.623519778251648,
        0.00946713238954544,
        -0.037637773901224136,
        -0.055801715701818466,
        0.02039029449224472
      ],
      [
        0.29807132482528687,
        -0.48532634973526,
        0.7731597423553467,
        -0.26294612884521484,
        -0.061413999646902084,
        0.435555636882782,
        -0.35232722759246826,
        0.18018333613872528,
        0.1204177588224411,
        -0.14611315727233887,
        0.27113527059555054,
        -0.28931015729904175
      ],
      [
        0.25842180848121643,
        0.42800527811050415,
        0.4438386857509613,
        -0.22525976598262787,
        -0.6273279786109924,
        -0.3461171090602875,
        -0.4940195679664612,
        0.11718367785215378,
        -0.1544266641139984,
        -0.39609935879707336,
        0.3067723214626312,
        0.370710164308548
      ],
      [
        -0.2512812614440918,
        0.5512108206748962,
        -0.4797443747520447,
        -0.3176840543746948,
        0.22741767764091492,
        -0.13466836512088776,
        0.011178959161043167,
        0.0022886907681822777,
        0.37541303038597107,
        -0.28239908814430237,
        0.3827955722808838,
        -0.2577877640724182
      ],
      [
        0.0859735906124115,
        0.08623155206441879,
        0.848395586013794,
        0.2997984290122986,
        -0.6271248459815979,
        -0.3369288742542267,
        0.030203256756067276,
        0.0933748111128807,
        -0.3822777271270752,
        -0.3061799705028534,
        0.07735232263803482,
        -0.22105465829372406
      ],
      [
        0.43588411808013916,
        0.127003014087677,
        0.15295696258544922,
        -0.5518980622291565,
        0.02040400542318821,
        -0.8702526092529297,
        0.08005310595035553,
        0.11813314259052277,
        -0.5598263740539551,
        0.21910254657268524,
        0.48671311140060425,
        0.17742621898651123
      ],
      [
        0.3500555157661438,
        -0.4331047534942627,
        0.7682498097419739,
        -0.6353133320808411,
        0.12594415247440338,
        -0.12017196416854858,
        -0.25211745500564575,
        -0.10592005401849747,
        0.15873175859451294,
        -0.43239280581474304,
        0.23587314784526825,
        0.5372530817985535
      ],
      [
        0.00997515395283699,
        -0.28192541003227234,
        0.16573123633861542,
        0.3299483358860016,
        -0.18315505981445312,
        -0.029191603884100914,
        -0.09321307390928268,
        0.21996715664863586,
        0.5490614175796509,
        0.2803095281124115,
        0.16982205212116241,
        -0.3837625980377197
      ],
      [
        0.7604745626449585,
        -0.3706110715866089,
        0.06173313036561012,
        -0.2926569879055023,
        -0.08205776661634445,
        -0.26487141847610474,
        -0.1979495882987976,
        0.4375894367694855,
        0.084005206823349,
        0.3118506968021393,
        0.6514159440994263,
        -0.7034972310066223
      ],
      [
        0.39771974086761475,
        0.04462596774101257,
        -0.1378411054611206,
        0.2818180024623871,
        0.11496765166521072,
        -0.5801708102226257,
        -0.7543640732765198,
        0.23608359694480896,
        -0.3810414671897888,
        0.12878946959972382,
        -0.32036349177360535,
        0.034667324274778366
      ],
      [
        -0.02743089757859707,
        0.1234205961227417,
        0.17664368450641632,
        0.530254602432251,
        -0.16964952647686005,
        0.09660489857196808,
        -0.41991162300109863,
        0.1637861281633377,
        -0.28440234065055847,
        0.6176649332046509,
        0.06661980599164963,
        0.06926941871643066
      ],
      [
        -0.32860636711120605,
        -0.05743037164211273,
        0.4986569881439209,
        -0.11519476771354675,
        0.032599758356809616,
        -0.05863768979907036,
        -0.6846171617507935,
        0.1831834763288498,
        0.3766065835952759,
        -0.14774943888187408,
        0.0624891072511673,
        0.356124609708786
      ],
      [
        0.511854350566864,
        -0.29636406898498535,
        0.39682796597480774,
        -0.7445733547210693,
        -0.19889655709266663,
        0.020801393315196037,
        0.17330363392829895,
        -0.048113685101270676,
        -0.3680940568447113,
        0.4741220772266388,
        -0.06525031477212906,
        0.537189781665802
      ],
      [
        0.021276405081152916,
        0.27318722009658813,
        0.24244262278079987,
        0.12070084363222122,
        0.0780310109257698,
        -0.5104081034660339,
        0.48572906851768494,
        -0.025558166205883026,
        0.002981598488986492,
        0.07053207606077194,
        -0.4589831233024597,
        -0.09485378861427307
      ],
      [
        0.2740296423435211,
        -0.020628346130251884,
        0.47567838430404663,
        -0.36196503043174744,
        0.7988398671150208,
        -0.12221720069646835,
        -0.2390541136264801,
        -0.1349259465932846,
        -0.05096350610256195,
        0.01598522439599037,
        0.7618009448051453,
        -0.8375391960144043
      ],
      [
        0.46471425890922546,
        0.36214473843574524,
        -0.06939367204904556,
        0.17502115666866302,
        -0.3089330196380615,
        -0.2872178554534912,
        0.05487075448036194,
        0.2903074026107788,
        -0.8837452530860901,
        -0.16810479760169983,
        0.5650786757469177,
        -0.36386674642562866
      ],
      [
        -0.2605491280555725,
        -0.023736704140901566,
        0.5996848940849304,
        -0.07061146199703217,
        0.12615729868412018,
        -0.5418028831481934,
        0.47925564646720886,
        -0.5240142345428467,
        -0.32846730947494507,
        -0.437012642621994,
        0.16580305993556976,
        0.0857386514544487
      ],
      [
        -0.012048309668898582,
        -0.23033928871154785,
        -0.04040428623557091,
        0.6952826976776123,
        0.41554543375968933,
        0.18031002581119537,
        0.01580447517335415,
        -0.6539839506149292,
        -0.329328328371048,
        0.07879246026277542,
        0.22979778051376343,
        0.15783046185970306
      ],
      [
        -0.025401439517736435,
        -0.1891128569841385,
        0.16153988242149353,
        0.14544878900051117,
        0.1722230166196823,
        0.7194366455078125,
        -0.2195640504360199,
        -0.20384053885936737,
        -0.6889141798019409,
        -0.040286969393491745,
        -0.10777934640645981,
        0.19211441278457642
      ],
      [
        0.3260035216808319,
        0.6968309283256531,
        -0.07949458807706833,
        -0.2411019206047058,
        -0.058011677116155624,
        0.030262775719165802,
        -0.004807273391634226,
        -0.30528318881988525,
        -0.7738536596298218,
        -0.16254737973213196,
        0.524624228477478,
        -0.06716160476207733
      ],
      [
        -0.2359468936920166,
        0.3976709246635437,
        0.1810220330953598,
        0.26035499572753906,
        -0.006932493764907122,
        -0.5443364977836609,
        -0.16206014156341553,
        -0.07751760631799698,
        0.47354280948638916,
        -0.2585710287094116,
        0.006385485175997019,
        -0.2086859792470932
      ],
      [
        -0.11049181967973709,
        -0.29800131916999817,
        0.1467139720916748,
        0.22018933296203613,
        0.6060564517974854,
        0.19445280730724335,
        -0.5614950060844421,
        -0.4857698678970337,
        -0.013117953203618526,
        -0.5566269159317017,
        0.28078851103782654,
        0.3891434371471405
      ],
      [
        0.3061318099498749,
        0.1806020587682724,
        -0.052693091332912445,
        -0.4216200113296509,
        0.5380852818489075,
        -0.8203138709068298,
        -0.6310543417930603,
        -0.21301592886447906,
        -0.08268873393535614,
        0.13388293981552124,
        -0.039756666868925095,
        0.14317159354686737
      ],
      [
        -0.08419163525104523,
        -0.34928250312805176,
        0.22114385664463043,
        0.3833187222480774,
        0.39973554015159607,
        -0.09923648089170456,
        0.02943284995853901,
        0.47547289729118347,
        -0.5523334741592407,
        -0.5518485903739929,
        0.30635952949523926,
        -0.4696587324142456
      ],
      [
        0.713470458984375,
        -0.4691256880760193,
        0.1708519607782364,
        -0.06560037285089493,
        0.021021438762545586,
        -0.26382604241371155,
        -0.18767142295837402,
        0.040314074605703354,
        -0.2404540330171585,
        0.30612295866012573,
        -0.3894864320755005,
        -0.4179113507270813
      ]
    ],
    "ff.lin1.bias": [
      -0.582975447177887,
      -0.14341293275356293,
      -0.22069589793682098,
      -0.2414475530385971,
      -0.6758116483688354,
      -0.4752052128314972,
      -0.40291592478752136,
      -0.33105263113975525,
      -0.25022968649864197,
      -0.3257826268672943,
      -0.35166218876838684,
      -0.45018240809440613,
      -0.19212886691093445,
      -0.33252519369125366,
      -0.44203072786331177,
      -0.3798646330833435,
      -0.30506083369255066,
      -0.2336333990097046,
      -0.6409507989883423,
      -0.052368950098752975,
      -0.7494072914123535,
      -0.1648612767457962,
      -0.12927964329719543,
      -0.054001133888959885,
      -0.19170869886875153,
      -0.3502085506916046,
      -0.6721610426902771,
      -0.16867482662200928,
      -0.4121643602848053,
      -0.29497599601745605,
      -0.5540261268615723,
      -0.4640044569969177,
      0.03394201397895813,
      -0.13898326456546783,
      -0.09557794034481049,
      -0.14518339931964874,
      -0.13757425546646118,
      0.012690703384578228,
      -0.20390474796295166,
      -0.2938194274902344,
      -0.5249399542808533,
      -0.2556126117706299,
      -0.5425258278846741,
      -0.4132678806781769,
      -0.2633425295352936,
      -0.16668951511383057,
      -0.25779789686203003,
      -0.07778511941432953
    ],
    "ff.lin2.weight": [
      [
        -0.35281237959861755,
        -0.005162924528121948,
        0.12399366497993469,
        -0.25239938497543335,
        -0.38423195481300354,
        -0.05579967424273491,
        -0.404674768447876,
        -0.1191488727927208,
        0.003207538044080138,
        0.18801777064800262,
        0.2067413330078125,
        0.2435159981250763,
        -0.17657306790351868,
        0.33314910531044006,
        0.06513068825006485,
        0.27387505769729614,
        0.002915646880865097,
        -0.40603208541870117,
        -0.06739885360002518,
        0.3386906683444977,
        -0.4105009436607361,
        0.18141715228557587,
        -0.20936036109924316,
        0.2910776436328888,
        0.07247205078601837,
        -0.42911988496780396,
        0.331594318151474,
        0.14971183240413666,
        0.9337888956069946,
        -0.012075157836079597,
        0.022582314908504486,
        -0.43754953145980835,
        0.4078044891357422,
        0.07750578969717026,
        -0.02095482498407364,
        0.026727324351668358,
        -0.21895940601825714,
        -0.20115165412425995,
        -0.07891744375228882,
        -0.20249921083450317,
        0.2694723606109619,
        -0.014572341926395893,
        0.21570424735546112,
        -0.17433825135231018,
        0.019046209752559662,
        -0.11085470020771027,
        -0.6778023838996887,
        0.34071287512779236
      ],
      [
        0.35963743925094604,
        -0.11825338006019592,
        -0.1325574368238449,
        -0.5074727535247803,
        -0.044847067445516586,
        -0.26794588565826416,
        0.31714344024658203,
        0.11665304750204086,
        -0.36897823214530945,
        0.015618354082107544,
        -0.1536153256893158,
        -0.1703629344701767,
        -0.4264114797115326,
        -0.30681803822517395,
        0.3924499452114105,
        -0.1108269914984703,
        0.5961049199104309,
        -0.5961487293243408,
        -0.4801359176635742,
        -0.3110216557979584,
        0.28678640723228455,
        0.07292870432138443,
        -0.04989844188094139,
        -0.2884373962879181,
        -0.26707184314727783,
        -0.24363581836223602,
        0.22657038271427155,
        0.05083700269460678,
        0.07386019080877304,
        0.5326735377311707,
        0.4199645221233368,
        0.20848363637924194,
        0.19308051466941833,
        0.19765150547027588,
        -0.5952074527740479,
        -0.5335798263549805,
        0.047891221940517426,
        0.13995537161827087,
        -0.4834655225276947,
        0.18839536607265472,
        0.12775444984436035,
        -0.01091881562024355,
        0.3878735899925232,
        0.004476374480873346,
        0.3943443298339844,
        0.48980462551116943,
        -0.23102429509162903,
        0.20528535544872284
      ],
      [
        -0.15643712878227234,
        0.1384992003440857,
        -0.26553213596343994,
        0.5853874683380127,
        0.42461246252059937,
        -0.15077996253967285,
        0.05290724337100983,
        0.22848546504974365,
        -0.06622295081615448,
        -0.14524061977863312,
        0.09282929450273514,
        -0.5993824005126953,
        0.5911308526992798,
        0.2547053098678589,
        -0.04667093977332115,
        -0.19688941538333893,
        0.24123366177082062,
        0.037816207855939865,
        0.04973950237035751,
        -0.01558262761682272,
        -0.3905036151409149,
        -0.23212437331676483,
        0.11784922331571579,
        -0.04494526982307434,
        0.3835488259792328,
        0.2083858996629715,
        0.3032243251800537,
        0.013744551688432693,
        -0.278338760137558,
        -0.17488068342208862,
        -0.1029597595334053,
        -0.26897457242012024,
        0.06167307496070862,
        0.2283877432346344,
        -0.2775344252586365,
        0.16565515100955963,
        0.41188758611679077,
        -0.30218976736068726,
        -0.3018803298473358,
        -0.5556960701942444,
        -0.26170724630355835,
        0.29400360584259033,
        0.07732179760932922,
        0.11228470504283905,
        -0.005777565762400627,
        -0.5513863563537598,
        -0.026799436658620834,
        0.3536224365234375
      ],
      [
        0.09391742199659348,
        0.5270142555236816,
        0.45008882880210876,
        -0.22006669640541077,
        -0.429352343082428,
        0.28622037172317505,
        0.4083872437477112,
        0.05258683115243912,
        0.024182232096791267,
        0.2269269824028015,
        0.5556553602218628,
        0.30011340975761414,
        -0.022727280855178833,
        -0.186172217130661,
        0.1374455988407135,
        -0.02409452386200428,
        -0.37974533438682556,
        0.17047972977161407,
        0.08975932002067566,
        0.013207781128585339,
        0.24315130710601807,
        -0.33075061440467834,
        0.041562020778656006,
        -0.2686775326728821,
        0.30180859565734863,
        -0.14332471787929535,
        -0.03756774216890335,
        -0.23252446949481964,
        -0.39262327551841736,
        0.15211203694343567,
        -0.39962321519851685,
        -0.3225421607494354,
        0.40742120146751404,
        0.416570782661438,
        0.14425790309906006,
        0.17970892786979675,
        -0.2306142896413803,
        -0.3331466317176819,
        0.5395188331604004,
        0.4361894130706787,
        0.2164602279663086,
        -0.2986651360988617,
        0.23342497646808624,
        -0.007568779867142439,
        0.34966975450515747,
        0.05116870999336243,
        0.14323760569095612,
        -0.28614458441734314
      ],
      [
        0.25948330760002136,
        0.4565131366252899,
        0.256314218044281,
        0.2309449017047882,
        -0.4124765992164612,
        -0.1839524805545807,
        0.21427440643310547,
        -0.3370521366596222,
        -0.011613876558840275,
        -0.40114718675613403,
        -0.04307854175567627,
        -0.3055642247200012,
        -0.20755352079868317,
        -0.13249236345291138,
        -0.16708146035671234,
        0.15640583634376526,
        -0.38916918635368347,
        -0.24331790208816528,
        0.515245795249939,
        0.6950096487998962,
        -0.4784696102142334,
        0.07754403352737427,
        0.43451687693595886,
        0.6054286360740662,
        -0.2110101878643036,
        -0.11335360258817673,
        0.09096238017082214,
        -0.6922183036804199,
        -0.21501953899860382,
        0.47072675824165344,
        0.28819039463996887,
        0.27343830466270447,
        -0.43776777386665344,
        -0.3043237328529358,
        0.04239349439740181,
        0.04824855923652649,
        -0.08210018277168274,
        -0.5404016971588135,
        0.03866457939147949,
        -0.2616026997566223,
        0.01389597449451685,
        -0.05703425779938698,
        0.558046281337738,
        0.2927226424217224,
        0.4028148651123047,
        -0.33707568049430847,
        0.011630103923380375,
        -0.10099762678146362
      ],
      [
        0.20115405321121216,
        0.24245691299438477,
        -0.16307660937309265,
        0.48087188601493835,
        0.5108256936073303,
        0.6051051020622253,
        -0.10444247722625732,
        -0.16642530262470245,
        0.17983762919902802,
        -0.025650540366768837,
        -0.14756152033805847,
        0.18559369444847107,
        0.3169914782047272,
        -0.047280795872211456,
        0.16115862131118774,
        -0.06935348361730576,
        0.2639024555683136,
        0.3292488157749176,
        -0.14839056134223938,
        -0.10431298613548279,
        0.5245753526687622,
        0.11014071106910706,
        0.1454382985830307,
        -0.2773779034614563,
        -0.20703649520874023,
        0.636570155620575,
        -0.012162485159933567,
        -0.16792483627796173,
        -0.04092538729310036,
        0.3668963313102722,
        -0.1312316656112671,
        0.39202880859375,
        0.03438258171081543,
        -0.18852068483829498,
        0.24458111822605133,
        0.3503807485103607,
        -0.47022852301597595,
        0.5231301188468933,
        0.4712969660758972,
        -0.061264969408512115,
        -0.27788999676704407,
        -0.12725116312503815,
        -0.04224763438105583,
        0.025236936286091805,
        -0.003453037701547146,
        -0.35926344990730286,
        0.09319645166397095,
        0.21729378402233124
      ],
      [
        -0.13804590702056885,
        -0.15339510142803192,
        0.23305560648441315,
        -0.389920711517334,
        0.3275793790817261,
        -0.10850352793931961,
        0.1334509402513504,
        0.4104938805103302,
        0.12105732411146164,
        0.16761155426502228,
        -0.1731247752904892,
        -0.32264330983161926,
        0.6012985706329346,
        -0.18732421100139618,
        -0.12375792860984802,
        0.3254808187484741,
        -0.3259407579898834,
        0.46292755007743835,
        -0.62342768907547,
        0.12301721423864365,
        0.6945873498916626,
        -0.5981640815734863,
        -0.42463618516921997,
        -0.10778176784515381,
        0.41971054673194885,
        0.13886648416519165,
        -0.11416047811508179,
        0.019029999151825905,
        0.11551214754581451,
        0.45037031173706055,
        -0.3720291554927826,
        -0.04096371307969093,
        0.19609621167182922,
        -0.2816953659057617,
        0.20613032579421997,
        0.31247517466545105,
        0.1779836267232895,
        0.46742451190948486,
        0.03238933905959129,
        0.44860854744911194,
        0.019411060959100723,
        -0.33425042033195496,
        -0.5537326335906982,
        -0.6946396231651306,
        0.032396845519542694,
        -0.015099440701305866,
        0.24865131080150604,
        -0.3480655252933502
      ],
      [
        0.5703882575035095,
        -0.21799927949905396,
        -0.010530391708016396,
        0.2206404060125351,
        -0.3421120345592499,
        0.15493926405906677,
        0.45882394909858704,
        0.21100108325481415,
        0.047201354056596756,
        0.4522983133792877,
        -0.2758810818195343,
        0.4829481840133667,
        -0.6306577324867249,
        -0.2481617033481598,
        0.13874824345111847,
        0.27424225211143494,
        0.20249737799167633,
        -0.2763325870037079,
        -0.19818997383117676,
        -0.107440285384655,
        -0.09095712006092072,
        -0.27345213294029236,
        0.12131503224372864,
        -0.0949564203619957,
        0.3420148491859436,
        -0.07190681993961334,
        0.20450346171855927,
        -0.050441134721040726,
        -0.23036843538284302,
        -0.20330898463726044,
        -0.1359826624393463,
        -0.3452153503894806,
        -0.437836617231369,
        0.09193584322929382,
        0.019391685724258423,
        -0.2405211478471756,
        0.10386016219854355,
        -0.5256436467170715,
        -0.03554555028676987,
        0.10202619433403015,
        0.442460834980011,
        0.5343457460403442,
        -0.17719267308712006,
        0.0803963914513588,
        -0.6574020385742188,
        -0.04967251420021057,
        -0.32976263761520386,
        -0.1613239198923111
      ],
      [
        -0.18319828808307648,
        -0.1842181533575058,
        -0.26037976145744324,
        -0.18133994936943054,
        -0.04213660955429077,
        -0.06616294384002686,
        -0.07037345319986343,
        0.07862808555364609,
        0.37992075085639954,
        0.2191387116909027,
        -0.24248282611370087,
        -0.2867002487182617,
        0.20299117267131805,
        -0.4421858787536621,
        0.16126984357833862,
        -0.42755675315856934,
        0.1360328197479248,
        0.343410849571228,
        0.12862007319927216,
        -0.5254396796226501,
        -0.17693978548049927,
        -0.18330669403076172,
        0.3745507597923279,
        -0.02251741848886013,
        -0.40354278683662415,
        0.21631616353988647,
        -0.41893187165260315,
        0.39101648330688477,
        0.1421588510274887,
        -0.40065208077430725,
        0.038642946630716324,
        0.4110412895679474,
        -0.07073073089122772,
        -0.1747983992099762,
        0.15405113995075226,
        0.05172651261091232,
        -0.05065746232867241,
        0.060287754982709885,
        -0.010858844965696335,
        -0.30343660712242126,
        0.18559107184410095,
        -0.052366193383932114,
        -0.5220896005630493,
        0.0022365094628185034,
        -0.05471508204936981,
        0.44145461916923523,
        0.5073941349983215,
        0.1158190593123436
      ],
      [
        0.10682771354913712,
        0.0003338443348184228,
        -0.1074160784482956,
        -0.281739741563797,
        -0.1382787674665451,
        0.8168208599090576,
        0.020057210698723793,
        0.0009803022257983685,
        0.21247385442256927,
        -0.32119718194007874,
        -0.161527618765831,
        0.21465054154396057,
        0.19014936685562134,
        0.33396685123443604,
        -0.5114051699638367,
        0.17124421894550323,
        -0.3713744282722473,
        0.08985771983861923,
        0.16286304593086243,
        -0.2367718517780304,
        0.07294538617134094,
        0.08477513492107391,
        -0.12645260989665985,
        0.04706372320652008,
        -0.3288593292236328,
        0.19954431056976318,
        -0.013589690439403057,
        0.17050665616989136,
        -0.3518148958683014,
        -0.5674515962600708,
        0.0749138742685318,
        0.16453926265239716,
        -0.04011324420571327,
        0.0991879403591156,
        0.08532743901014328,
        0.3230057656764984,
        0.05944231525063515,
        -0.22994552552700043,
        0.42361682653427124,
        0.15921063721179962,
        0.15252527594566345,
        -0.4384848177433014,
        -0.02536465786397457,
        -0.13010139763355255,
        0.04219342768192291,
        -0.07851279526948929,
        0.11173126846551895,
        0.001246649888344109
      ],
      [
        -0.3834388554096222,
        0.12188893556594849,
        -0.32613345980644226,
        -0.4383077919483185,
        -0.06552233546972275,
        -0.47703975439071655,
        -0.47649914026260376,
        0.34661176800727844,
        -0.08877981454133987,
        -0.07037617266178131,
        0.20853357017040253,
        0.11319772899150848,
        0.043122801929712296,
        0.40385764837265015,
        -0.23696529865264893,
        0.46077632904052734,
        -0.7661109566688538,
        0.2997896075248718,
        0.4202594757080078,
        0.4929497241973877,
        0.2950110137462616,
        0.24533627927303314,
        0.021470552310347557,
        0.3068217635154724,
        0.18377989530563354,
        0.0399407260119915,
        -0.009231990203261375,
        -0.10980857163667679,
        0.08718404173851013,
        -0.332182377576828,
        0.059310637414455414,
        -0.4374656081199646,
        0.18795529007911682,
        -0.11670789122581482,
        0.2729209065437317,
        -0.4805559813976288,
        0.3315246105194092,
        -0.1443488448858261,
        -0.34296679496765137,
        -0.1054287850856781,
        -0.7323064804077148,
        0.32093578577041626,
        -0.061199817806482315,
        0.16326263546943665,
        -0.20247384905815125,
        -0.2597413659095764,
        -0.2708580791950226,
        -0.19028399884700775
      ],
      [
        -0.24850256741046906,
        -0.27850282192230225,
        0.16203336417675018,
        0.3466515839099884,
        0.6922684907913208,
        -0.10127414762973785,
        -0.26873090863227844,
        -0.5411181449890137,
        -0.2952254116535187,
        0.12070745974779129,
        0.26800569891929626,
        0.2252909392118454,
        -0.2739631235599518,
        -0.08806399255990982,
        0.07232126593589783,
        -0.19049841165542603,
        0.6255882382392883,
        -0.20739616453647614,
        0.22721494734287262,
        -0.06741830706596375,
        -0.42644453048706055,
        0.3204156756401062,
        -0.2530744969844818,
        -0.09018027782440186,
        0.08308541029691696,
        0.1751975119113922,
        -0.44177180528640747,
        0.21077407896518707,
        0.20168036222457886,
        -0.1925051212310791,
        0.19530798494815826,
        0.41710302233695984,
        -0.2570856809616089,
        0.14541885256767273,
        -0.06528884917497635,
        -0.05724778771400452,
        0.035131506621837616,
        0.9572176337242126,
        0.026152215898036957,
        0.016496241092681885,
        -0.036610737442970276,
        0.13947740197181702,
        -0.2120395004749298,
        0.2614825665950775,
        -0.41154566407203674,
        0.49742746353149414,
        0.35631319880485535,
        -0.24239879846572876
      ]
    ],
    "ff.lin2.bias": [
      0.03589250519871712,
      -0.36155271530151367,
      -0.06946106255054474,
      0.04770527780056,
      -0.07055427134037018,
      0.18324506282806396,
      0.10086378455162048,
      -0.017526526004076004,
      -0.011959724128246307,
      0.0023150222841650248,
      0.4296504259109497,
      -0.005484127905219793
    ]
  }
}