{
  "tok_emb.weight": [
    [
      0.6571825742721558,
      0.08886966109275818,
      0.8360353708267212,
      0.5161587595939636,
      -1.1851942539215088,
      -0.01938801258802414,
      -0.9192882776260376,
      0.23702800273895264,
      -0.475336492061615,
      -0.1010773554444313,
      0.38393592834472656,
      2.0186214447021484
    ],
    [
      0.4378243088722229,
      -0.33877435326576233,
      0.1873878687620163,
      -0.23137862980365753,
      -1.6190546751022339,
      -1.3052006959915161,
      0.02138649672269821,
      0.6571072936058044,
      -0.12282364815473557,
      0.07548544555902481,
      0.43208104372024536,
      -0.7275972962379456
    ],
    [
      -0.2811369299888611,
      0.06703371554613113,
      -0.49726060032844543,
      -0.5864185690879822,
      0.48914027214050293,
      0.0007585894782096148,
      -0.21604909002780914,
      -0.27482062578201294,
      -0.7449880242347717,
      0.04034744203090668,
      -0.39441394805908203,
      1.881887674331665
    ],
    [
      -0.41600948572158813,
      -0.2573738396167755,
      -1.1437677145004272,
      0.008465168066322803,
      -1.3620638847351074,
      0.35245344042778015,
      0.19910746812820435,
      -0.3363710343837738,
      -0.6755963563919067,
      0.778483510017395,
      0.4023125469684601,
      0.1576908826828003
    ],
    [
      0.752430260181427,
      -0.18088555335998535,
      0.2447250336408615,
      -0.0030951073858886957,
      -0.010926919057965279,
      1.0733306407928467,
      -1.2075798511505127,
      -0.19359639286994934,
      -0.8445135951042175,
      -0.1329008936882019,
      -0.12653586268424988,
      -0.10253948718309402
    ],
    [
      0.18546071648597717,
      -0.5876381397247314,
      -0.6210047602653503,
      -0.3662600517272949,
      -0.1946583390235901,
      -1.225073218345642,
      1.420014500617981,
      1.27077317237854,
      -1.4286341667175293,
      -0.022668851539492607,
      0.44036877155303955,
      0.7808984518051147
    ],
    [
      -0.18411803245544434,
      -2.1972248554229736,
      0.7626004219055176,
      -0.6415874361991882,
      -0.4543210566043854,
      0.8261293768882751,
      0.9752265214920044,
      0.9296072125434875,
      0.6801770329475403,
      -0.0064827329479157925,
      -0.29705366492271423,
      -0.46911558508872986
    ],
    [
      -0.07987833023071289,
      0.8817372918128967,
      0.1255086064338684,
      0.17929066717624664,
      0.09550322592258453,
      0.5982226133346558,
      0.17536015808582306,
      -0.7108185887336731,
      -1.0905959606170654,
      -1.0879333019256592,
      0.13756228983402252,
      0.3822833001613617
    ],
    [
      -0.13751088082790375,
      2.5645430088043213,
      0.7468791007995605,
      -2.985574960708618,
      0.21437112987041473,
      -0.14491157233715057,
      0.004829085431993008,
      -0.517198383808136,
      -0.2894444465637207,
      0.5191436409950256,
      -0.02937474101781845,
      -0.8540605902671814
    ],
    [
      -0.6367585062980652,
      1.0492362976074219,
      0.9974047541618347,
      0.03383670374751091,
      0.4744945168495178,
      -0.7628234624862671,
      -1.3826546669006348,
      -0.9606413245201111,
      1.4438862800598145,
      -0.2555032968521118,
      -0.5618242621421814,
      -0.2702668607234955
    ],
    [
      -2.23443603515625,
      0.3817085325717926,
      0.024519944563508034,
      -0.08744592219591141,
      0.49062326550483704,
      -0.38483941555023193,
      0.8172001838684082,
      -1.323400855064392,
      0.3368060886859894,
      0.9505330324172974,
      -0.2875038981437683,
      -0.17638279497623444
    ],
    [
      1.1622847318649292,
      -1.7518465518951416,
      1.2018840312957764,
      -1.2971856594085693,
      -0.3422803282737732,
      1.2139275074005127,
      0.9283441305160522,
      2.042236566543579,
      0.03837301954627037,
      -0.29337620735168457,
      -1.1547210216522217,
      0.373680055141449
    ],
    [
      -0.12764626741409302,
      -0.5525622963905334,
      1.438459038734436,
      0.8624534606933594,
      -1.2341511249542236,
      -1.1709387302398682,
      -0.39937856793403625,
      0.13954989612102509,
      -0.3475164771080017,
      -0.7857621908187866,
      1.5745387077331543,
      0.08768819272518158
    ],
    [
      0.10058020055294037,
      -0.003801800776273012,
      0.11641056835651398,
      1.1440733671188354,
      -0.9492409229278564,
      -0.1096327155828476,
      1.0269906520843506,
      0.28860726952552795,
      0.32392752170562744,
      -0.8069165945053101,
      0.12477819621562958,
      -0.7765411734580994
    ],
    [
      -1.2782052755355835,
      -0.894146740436554,
      -0.34060144424438477,
      -0.4625279903411865,
      0.346883088350296,
      -0.6749168634414673,
      0.7513359785079956,
      0.2143695205450058,
      1.6986615657806396,
      -0.4026484787464142,
      0.08019433915615082,
      -1.3971408605575562
    ],
    [
      -0.2556663155555725,
      0.1643463373184204,
      1.6680305004119873,
      0.3388388752937317,
      -0.9734265804290771,
      -0.2391226440668106,
      -0.8938263058662415,
      -0.9116488695144653,
      1.0140281915664673,
      0.26781049370765686,
      -1.0460052490234375,
      -1.3348207473754883
    ],
    [
      -0.15069514513015747,
      0.9493934512138367,
      -0.7753099203109741,
      0.5439102649688721,
      -1.6248364448547363,
      -0.9449495673179626,
      -0.6432830095291138,
      -0.11355151981115341,
      -1.1423752307891846,
      0.5405195951461792,
      0.38290607929229736,
      -0.5242905616760254
    ],
    [
      0.5793514847755432,
      -0.8581879138946533,
      -0.29636433720588684,
      1.2792295217514038,
      -0.6668160557746887,
      0.13036808371543884,
      -0.19537751376628876,
      0.08692897111177444,
      0.5917612910270691,
      -1.0123316049575806,
      -0.05503964424133301,
      0.3279407024383545
    ],
    [
      -0.24018675088882446,
      -0.6227920055389404,
      0.5688245296478271,
      -1.4458622932434082,
      0.795010507106781,
      0.06889907270669937,
      0.44184884428977966,
      0.24605149030685425,
      0.09498181194067001,
      -0.32618942856788635,
      0.5985267758369446,
      -2.0833911895751953
    ],
    [
      0.02746819704771042,
      -0.03067222237586975,
      -0.8652873635292053,
      -0.32704222202301025,
      0.6968632340431213,
      -0.25943729281425476,
      0.01692730002105236,
      0.18977832794189453,
      1.2706629037857056,
      0.623429000377655,
      -0.9468685984611511,
      -0.42530128359794617
    ],
    [
      0.03001304157078266,
      -0.36462053656578064,
      -0.22581200301647186,
      1.4053237438201904,
      0.5617775321006775,
      -0.08512286096811295,
      0.9405011534690857,
      -1.3466365337371826,
      0.13475514948368073,
      0.1998734027147293,
      -0.28951892256736755,
      0.041566748172044754
    ],
    [
      0.8790572285652161,
      -0.23680676519870758,
      0.8402086496353149,
      -1.3543907403945923,
      0.5034772157669067,
      0.06775403767824173,
      -0.2517099380493164,
      -0.7452964186668396,
      0.36616086959838867,
      -1.5791021585464478,
      0.43353262543678284,
      1.121018409729004
    ],
    [
      -0.22477960586547852,
      -0.04967818781733513,
      -0.2587835490703583,
      0.7151408791542053,
      -0.6706403493881226,
      -0.3490898311138153,
      -0.511982262134552,
      -0.7137147188186646,
      -0.262117475271225,
      0.8830432295799255,
      0.43975940346717834,
      -0.905754804611206
    ],
    [
      0.8530558347702026,
      -1.4614204168319702,
      -0.3083093464374542,
      1.423620343208313,
      2.5112321376800537,
      -1.0186185836791992,
      -0.9474301338195801,
      -1.5718687772750854,
      -0.6076034307479858,
      0.11097899079322815,
      0.15214207768440247,
      0.2471843957901001
    ],
    [
      1.291229009628296,
      0.2592005431652069,
      -0.3254748284816742,
      -1.6450879573822021,
      -1.7776174545288086,
      2.133305788040161,
      -1.4358066320419312,
      0.42300230264663696,
      0.38538143038749695,
      -1.4065996408462524,
      0.9393160343170166,
      0.26661625504493713
    ],
    [
      1.1771677732467651,
      1.9301508665084839,
      1.1097960472106934,
      1.1413633823394775,
      -0.11040392518043518,
      -0.8905331492424011,
      -2.1896159648895264,
      -0.03688523545861244,
      -1.0871413946151733,
      1.0380417108535767,
      -1.8730031251907349,
      -0.6615198254585266
    ],
    [
      -0.03778877854347229,
      -0.7069910168647766,
      -0.5081337094306946,
      -1.4470741748809814,
      1.0160833597183228,
      0.37572911381721497,
      -1.4212125539779663,
      0.951686441898346,
      0.21967735886573792,
      -1.0342463254928589,
      1.5895286798477173,
      0.6547163724899292
    ],
    [
      0.08301994949579239,
      2.8567771911621094,
      -0.297789990901947,
      0.9084544777870178,
      1.3404252529144287,
      -1.6070653200149536,
      0.6384245753288269,
      2.571922540664673,
      -0.5029768347740173,
      0.03691532462835312,
      0.14033827185630798,
      0.4671759307384491
    ],
    [
      1.5365396738052368,
      -0.46377551555633545,
      0.27803218364715576,
      -0.4517757296562195,
      -0.3676782548427582,
      -0.27211010456085205,
      0.22200340032577515,
      0.4681732952594757,
      -0.9121324419975281,
      -0.5152998566627502,
      0.5779687762260437,
      -0.454429566860199
    ],
    [
      -0.7286670207977295,
      0.8832892179489136,
      -0.2616313397884369,
      -0.6239496469497681,
      -0.00580939557403326,
      -0.2288794219493866,
      0.874020516872406,
      -0.6644864678382874,
      0.10138611495494843,
      1.2394288778305054,
      -0.05548727512359619,
      -0.1251576989889145
    ],
    [
      0.9328552484512329,
      -0.19676333665847778,
      1.5656598806381226,
      -0.08217986673116684,
      1.0651226043701172,
      -0.3022730350494385,
      -1.060381293296814,
      -0.43867626786231995,
      0.921025812625885,
      -0.29692304134368896,
      -2.0689520835876465,
      0.06080930307507515
    ],
    [
      -0.06752174347639084,
      -0.08842906355857849,
      -0.43386611342430115,
      -0.7497901916503906,
      0.25316187739372253,
      -0.04444911330938339,
      -1.4755676984786987,
      0.8495712280273438,
      0.9298230409622192,
      0.8843982815742493,
      -1.0669360160827637,
      -0.11477167159318924
    ],
    [
      0.7842741012573242,
      -0.005769841838628054,
      0.8246651887893677,
      -0.289262980222702,
      -0.2823816239833832,
      -0.2503442168235779,
      -1.1688944101333618,
      -0.7637948989868164,
      -0.38971707224845886,
      -0.6221998929977417,
      1.3843441009521484,
      0.6148105263710022
    ],
    [
      -0.07515712827444077,
      0.48264914751052856,
      -0.26812615990638733,
      0.2318160980939865,
      0.04067925363779068,
      -0.3784659206867218,
      0.44977134466171265,
      -0.35647547245025635,
      -0.772864580154419,
      0.9471494555473328,
      0.872445285320282,
      -0.43733060359954834
    ],
    [
      0.784439742565155,
      0.63118577003479,
      2.0536582469940186,
      2.8229563236236572,
      0.11363476514816284,
      -0.7514041662216187,
      -1.0552809238433838,
      -1.6154320240020752,
      -0.7017552852630615,
      -1.0150355100631714,
      0.2535460293292999,
      -1.5227470397949219
    ],
    [
      -0.25737661123275757,
      0.6909384727478027,
      1.4770047664642334,
      0.15866172313690186,
      0.34419333934783936,
      -0.5126188397407532,
      1.5245827436447144,
      -0.29440838098526,
      -2.432527780532837,
      -0.08761513233184814,
      -0.4271685779094696,
      0.016370736062526703
    ],
    [
      -0.3481915295124054,
      -0.38679200410842896,
      0.5829078555107117,
      0.8850244283676147,
      0.1773638278245926,
      -0.49052372574806213,
      -1.366355061531067,
      -0.472288578748703,
      -0.15460363030433655,
      0.4591774344444275,
      1.2005705833435059,
      -0.1667943298816681
    ],
    [
      1.2440227270126343,
      -0.7164598107337952,
      1.149564504623413,
      -1.4699079990386963,
      -1.254438042640686,
      0.6267072558403015,
      -0.3365075886249542,
      0.35039621591567993,
      -0.5547285676002502,
      0.8896159529685974,
      -0.6361148357391357,
      2.5007879734039307
    ],
    [
      0.889673113822937,
      0.14654113352298737,
      -0.5157344937324524,
      1.7540805339813232,
      1.174443244934082,
      -0.7011844515800476,
      0.37256401777267456,
      -1.2900217771530151,
      -0.699099063873291,
      -0.651918888092041,
      0.34762105345726013,
      0.22368015348911285
    ],
    [
      -0.5222498774528503,
      -0.34275689721107483,
      0.037328995764255524,
      -0.05437873303890228,
      0.20740123093128204,
      0.4279123544692993,
      -1.4157333374023438,
      0.843219518661499,
      0.1313156634569168,
      0.2177564948797226,
      -0.11239910125732422,
      0.36849287152290344
    ],
    [
      0.5150628685951233,
      0.26448434591293335,
      -1.025032877922058,
      -0.551633358001709,
      0.47096681594848633,
      1.1581863164901733,
      -0.04462301358580589,
      -0.710873007774353,
      -0.17279738187789917,
      0.3112308084964752,
      0.04620811343193054,
      -0.5603210926055908
    ],
    [
      -0.17847734689712524,
      0.41150814294815063,
      -1.16628897190094,
      0.9087539911270142,
      0.9923025369644165,
      -1.7491289377212524,
      -1.2752408981323242,
      0.5921029448509216,
      0.062436722218990326,
      -0.27238377928733826,
      0.7610868215560913,
      0.3314163386821747
    ],
    [
      0.49319908022880554,
      0.6074625849723816,
      0.0875105932354927,
      0.2835850417613983,
      0.059015776962041855,
      -0.3521764278411865,
      0.5988143682479858,
      -1.461543321609497,
      -1.403724193572998,
      1.0617707967758179,
      -0.09010563790798187,
      0.24530400335788727
    ],
    [
      -0.9318104386329651,
      0.956126868724823,
      -1.8003686666488647,
      0.908189594745636,
      -1.001902461051941,
      -0.14679421484470367,
      -0.8923946022987366,
      0.6368589997291565,
      -1.1905531883239746,
      1.303347110748291,
      0.8641483187675476,
      -1.2757049798965454
    ],
    [
      -0.949537456035614,
      -0.8938658237457275,
      1.5433918237686157,
      0.6710163354873657,
      -0.2027379274368286,
      0.33725112676620483,
      -0.6654655337333679,
      -0.194834902882576,
      0.21422018110752106,
      -0.5766883492469788,
      0.1725057065486908,
      1.2897995710372925
    ],
    [
      0.6001308560371399,
      0.5730029940605164,
      -1.2708696126937866,
      0.6667209267616272,
      1.0831602811813354,
      -0.5523568987846375,
      0.006273893639445305,
      0.07930655777454376,
      -1.3614554405212402,
      -0.3479905426502228,
      0.6381621360778809,
      -1.1824040412902832
    ],
    [
      -0.05903245136141777,
      0.027477780357003212,
      -0.05836871266365051,
      0.6124645471572876,
      0.44074222445487976,
      0.34899458289146423,
      0.41161835193634033,
      -0.18118318915367126,
      -0.28054019808769226,
      -0.9493485689163208,
      0.03408825024962425,
      -0.6087030172348022
    ],
    [
      0.6316914558410645,
      -0.38873860239982605,
      0.7180162072181702,
      -0.5126515626907349,
      -0.5044378042221069,
      1.384739875793457,
      0.5010600090026855,
      -0.5646476149559021,
      -0.7901405692100525,
      -0.4667935073375702,
      -0.060011137276887894,
      0.29469290375709534
    ],
    [
      0.40239107608795166,
      0.13967154920101166,
      0.2394726723432541,
      -1.5336023569107056,
      2.7264180183410645,
      -0.4361114501953125,
      -1.007676362991333,
      -0.009805356152355671,
      -1.2063161134719849,
      -0.3920050263404846,
      -0.6310766935348511,
      0.38983073830604553
    ],
    [
      -1.3156987428665161,
      -1.3002911806106567,
      -0.3205854892730713,
      0.509738028049469,
      0.48060598969459534,
      -0.9240294694900513,
      0.9865365028381348,
      0.5283676981925964,
      0.3207763135433197,
      0.2897827625274658,
      -0.42354896664619446,
      -0.4961684048175812
    ],
    [
      -0.42045438289642334,
      -2.064514636993408,
      0.7596311569213867,
      0.9948892593383789,
      0.7212165594100952,
      0.452496737241745,
      -0.3905825912952423,
      -0.7409173250198364,
      -0.5583168864250183,
      -0.7221177816390991,
      2.0332345962524414,
      -1.830595850944519
    ],
    [
      1.6557939052581787,
      0.8627196550369263,
      -0.7599270343780518,
      1.0271811485290527,
      -0.4469255208969116,
      1.4984737634658813,
      1.8344800472259521,
      -0.5858237147331238,
      -1.7942694425582886,
      -1.243280291557312,
      -0.47384539246559143,
      -1.6200971603393555
    ],
    [
      1.0438566207885742,
      0.14350812137126923,
      -1.8630785942077637,
      0.6311146020889282,
      0.03141670301556587,
      -0.7968753576278687,
      0.2708665430545807,
      1.0468156337738037,
      2.298062562942505,
      -1.1363176107406616,
      -0.6423054337501526,
      1.443037748336792
    ],
    [
      1.6709418296813965,
      -0.38672834634780884,
      1.110108733177185,
      0.042794764041900635,
      -0.8689013123512268,
      0.16634458303451538,
      -0.411406546831131,
      2.119532346725464,
      0.5692416429519653,
      -2.172807216644287,
      -0.9784308671951294,
      -0.9840019941329956
    ],
    [
      0.0461820550262928,
      -0.4925282299518585,
      0.3813844621181488,
      0.7900382280349731,
      -0.35869646072387695,
      0.15702198445796967,
      0.22767303884029388,
      0.05275233834981918,
      0.5065221190452576,
      0.3927786350250244,
      -0.3948877453804016,
      -0.6139652132987976
    ],
    [
      1.1316803693771362,
      0.48160243034362793,
      1.3217120170593262,
      -0.06750236451625824,
      -1.01607346534729,
      -1.2280704975128174,
      -0.44196993112564087,
      0.06449142843484879,
      0.2410474568605423,
      0.053714457899332047,
      -0.9620187282562256,
      -0.15181763470172882
    ],
    [
      0.15075601637363434,
      0.4972839653491974,
      -0.33887824416160583,
      0.31528908014297485,
      -1.5770692825317383,
      0.8190175890922546,
      0.6774057149887085,
      0.040966447442770004,
      0.5852752327919006,
      -0.6985204219818115,
      0.4059358239173889,
      0.37806835770606995
    ],
    [
      -0.3856552243232727,
      0.5245212316513062,
      -0.8431687951087952,
      0.04555681720376015,
      0.10102320462465286,
      -0.23332078754901886,
      0.35920554399490356,
      0.6096460223197937,
      1.7371517419815063,
      0.47841233015060425,
      0.41487500071525574,
      -0.719251275062561
    ],
    [
      -1.3686888217926025,
      0.5168884992599487,
      -0.9232866764068604,
      0.3240138590335846,
      1.4083224534988403,
      -0.5120596885681152,
      -0.5642021894454956,
      -0.5027722120285034,
      -0.05692998692393303,
      0.8704426884651184,
      -1.4351218938827515,
      1.416062355041504
    ],
    [
      0.06508945673704147,
      0.3006679117679596,
      0.22105884552001953,
      -0.37242841720581055,
      -0.8791333436965942,
      0.41555267572402954,
      0.8634281158447266,
      -0.48812052607536316,
      -0.6131457686424255,
      0.7152391076087952,
      -0.32334765791893005,
      -0.47373485565185547
    ],
    [
      -0.10234963148832321,
      0.6006628274917603,
      1.443712592124939,
      -0.5540080070495605,
      -1.2296380996704102,
      0.6975597143173218,
      -0.9407070279121399,
      0.22123850882053375,
      -1.9416471719741821,
      0.25951042771339417,
      0.9648745059967041,
      0.3380945920944214
    ],
    [
      0.39423811435699463,
      0.0449555441737175,
      -0.8574565649032593,
      0.18577373027801514,
      -0.12306681275367737,
      -0.07790226489305496,
      -0.13011154532432556,
      0.009644374251365662,
      0.795533299446106,
      1.5753666162490845,
      0.331415057182312,
      -0.7774936556816101
    ],
    [
      -0.015539105981588364,
      0.8110480308532715,
      -0.7101843357086182,
      0.697905957698822,
      1.389538288116455,
      0.3925727903842926,
      -0.23842528462409973,
      -2.1657512187957764,
      -1.597487449645996,
      0.31009840965270996,
      -0.3635977804660797,
      -0.03365980088710785
    ],
    [
      -1.7278679609298706,
      0.9012893438339233,
      0.35972973704338074,
      0.04938371852040291,
      0.42798861861228943,
      0.39965856075286865,
      -0.8422443866729736,
      0.04006659612059593,
      -0.057621631771326065,
      1.5595800876617432,
      0.010980554856359959,
      0.37549084424972534
    ],
    [
      -0.4156430661678314,
      -0.5476393103599548,
      0.6933035850524902,
      0.27095329761505127,
      1.27196204662323,
      0.18663762509822845,
      -0.9988049864768982,
      -0.5169224739074707,
      0.26310935616493225,
      -0.6835843920707703,
      1.526498556137085,
      -1.9811831712722778
    ],
    [
      -1.6917080879211426,
      -0.10846629738807678,
      -0.8183278441429138,
      -0.7593658566474915,
      0.027768736705183983,
      -0.035030901432037354,
      1.6764187812805176,
      0.7486485242843628,
      0.3767303228378296,
      0.785730242729187,
      -0.014993897639214993,
      -0.8266324400901794
    ],
    [
      2.2040152549743652,
      -0.4919661581516266,
      0.8189132809638977,
      1.0625524520874023,
      0.5158027410507202,
      -0.13446667790412903,
      -0.5202703475952148,
      -1.1484291553497314,
      0.9703429341316223,
      0.006392712239176035,
      -0.9075583815574646,
      -1.5092267990112305
    ],
    [
      0.31103643774986267,
      1.218407392501831,
      -1.6706607341766357,
      1.3685539960861206,
      0.4734496474266052,
      -0.3980880379676819,
      1.0630466938018799,
      -0.23834002017974854,
      -0.524429976940155,
      -1.4077460765838623,
      -0.7049536108970642,
      1.1091758012771606
    ],
    [
      -0.05557132512331009,
      0.6430371403694153,
      -1.6745432615280151,
      0.8295280337333679,
      -0.6398136019706726,
      -0.08756183087825775,
      -0.6081377267837524,
      0.5527116060256958,
      -0.7045932412147522,
      1.1959823369979858,
      1.0403395891189575,
      -0.431647390127182
    ],
    [
      -0.08115804195404053,
      -1.2761560678482056,
      0.4013291597366333,
      0.5030568838119507,
      -0.5003363490104675,
      -0.5927678346633911,
      1.5152060985565186,
      0.4711867570877075,
      -0.41726645827293396,
      1.179479956626892,
      0.47137531638145447,
      -1.9235994815826416
    ],
    [
      -0.5935696363449097,
      -0.681576132774353,
      -0.9427822828292847,
      0.2833612263202667,
      0.5021080374717712,
      0.5258186459541321,
      0.778484582901001,
      -0.5011003613471985,
      0.025303183123469353,
      0.5309889912605286,
      -0.4689660966396332,
      -0.49092215299606323
    ],
    [
      0.44102591276168823,
      1.1283838748931885,
      -1.9420578479766846,
      1.1544826030731201,
      0.45038771629333496,
      -0.24088896811008453,
      0.936603844165802,
      -0.04717525839805603,
      -0.38431912660598755,
      -1.1447992324829102,
      -0.560445249080658,
      0.6728306412696838
    ],
    [
      0.9228398203849792,
      0.655717670917511,
      -1.5037529468536377,
      -0.5400367975234985,
      1.0480718612670898,
      0.16700804233551025,
      0.4299590587615967,
      -0.5651134252548218,
      -0.2998966872692108,
      1.0700819492340088,
      -0.7630153894424438,
      -0.7530466914176941
    ],
    [
      -0.06393273174762726,
      0.49887287616729736,
      -0.13146719336509705,
      -0.4130459427833557,
      0.6676093935966492,
      -1.4520941972732544,
      1.3906402587890625,
      -0.4312952160835266,
      -0.3554202616214752,
      0.2598740756511688,
      -0.5029758214950562,
      0.46982061862945557
    ],
    [
      0.06212209537625313,
      -1.9061474800109863,
      0.9266734719276428,
      -0.7951682806015015,
      0.4536001980304718,
      -1.052854061126709,
      1.2741305828094482,
      -1.5354257822036743,
      0.4610345661640167,
      -0.9663941860198975,
      0.5841258764266968,
      -0.335781455039978
    ],
    [
      0.8272882699966431,
      1.090746283531189,
      -1.3925384283065796,
      0.9006550312042236,
      -1.4815113544464111,
      -0.14672580361366272,
      0.3276154100894928,
      -0.9664700031280518,
      0.5133275985717773,
      0.0628570169210434,
      -0.8745108842849731,
      0.6882783770561218
    ],
    [
      0.6462849974632263,
      1.3377872705459595,
      -0.02472427301108837,
      0.2259911447763443,
      -0.21178573369979858,
      -0.015307907946407795,
      1.0557563304901123,
      0.38215357065200806,
      -0.24845540523529053,
      0.21908283233642578,
      -1.118491530418396,
      -0.724879801273346
    ],
    [
      -0.2784617245197296,
      0.44241201877593994,
      0.4221539795398712,
      -0.6563432216644287,
      -0.18727366626262665,
      -0.9460179209709167,
      -0.8448889255523682,
      0.14453880488872528,
      0.23399890959262848,
      0.838472306728363,
      1.0841928720474243,
      0.30223768949508667
    ],
    [
      0.2304108738899231,
      -0.346325159072876,
      1.580711841583252,
      1.0747889280319214,
      0.09492728859186172,
      -0.9329418540000916,
      -1.4535197019577026,
      -0.08475838601589203,
      0.14556869864463806,
      -1.593374252319336,
      1.0107152462005615,
      -0.3875560760498047
    ],
    [
      -0.950764536857605,
      1.1582214832305908,
      -0.7329838275909424,
      1.3022706508636475,
      -0.7664880752563477,
      -0.4656965732574463,
      -1.062331199645996,
      0.3995297849178314,
      -0.5317227840423584,
      1.9289425611495972,
      0.502941370010376,
      -1.7465087175369263
    ],
    [
      0.3477535843849182,
      -1.4599751234054565,
      -0.1742163449525833,
      0.7859235405921936,
      1.540810227394104,
      1.1076802015304565,
      -0.4805086851119995,
      -0.7284316420555115,
      -1.2589010000228882,
      0.40982958674430847,
      -0.26216474175453186,
      -0.352276086807251
    ],
    [
      -0.6044306755065918,
      -0.43083399534225464,
      0.19456399977207184,
      0.3648209273815155,
      -0.48236560821533203,
      1.6727834939956665,
      0.20691035687923431,
      1.1640732288360596,
      -1.425646424293518,
      -0.6464411616325378,
      0.7681934237480164,
      -0.5153284072875977
    ],
    [
      -0.3842031955718994,
      -0.3478259742259979,
      -0.6516066193580627,
      0.5609074234962463,
      -0.48757579922676086,
      -0.05267949774861336,
      -1.4199118614196777,
      0.4211292266845703,
      0.13467247784137726,
      0.8847695589065552,
      0.894185483455658,
      1.2086631059646606
    ],
    [
      1.4650824069976807,
      0.6794007420539856,
      1.2484104633331299,
      1.1630167961120605,
      0.008474225178360939,
      -0.3046383559703827,
      0.40914908051490784,
      0.1131708174943924,
      0.8849505186080933,
      -1.90034818649292,
      -2.3446755409240723,
      1.255036473274231
    ],
    [
      0.7244272232055664,
      0.7271230816841125,
      -0.8719467520713806,
      1.1622203588485718,
      -1.3134307861328125,
      0.43011462688446045,
      -1.162166714668274,
      -0.34658360481262207,
      0.24643205106258392,
      -1.0256555080413818,
      -0.20218057930469513,
      1.2041233777999878
    ],
    [
      0.3546799421310425,
      0.8733795881271362,
      -1.9118305444717407,
      -1.2461129426956177,
      -0.39033272862434387,
      -1.9049912691116333,
      0.4456999599933624,
      -0.8799663186073303,
      0.17080257833003998,
      0.2847403287887573,
      1.8706789016723633,
      -0.1344567984342575
    ],
    [
      -0.22546695172786713,
      1.1580305099487305,
      -0.1363474577665329,
      -1.8860560655593872,
      -0.7902488112449646,
      -1.0199016332626343,
      1.3306790590286255,
      -1.1267513036727905,
      -1.5851006507873535,
      1.3335987329483032,
      1.0855447053909302,
      1.160372257232666
    ],
    [
      -0.31091973185539246,
      -0.09117137640714645,
      -0.5696296095848083,
      0.45000654458999634,
      -0.5973683595657349,
      -0.29449760913848877,
      0.24709144234657288,
      0.10317250341176987,
      0.7019562721252441,
      0.9396737813949585,
      0.5085549354553223,
      -0.6118749976158142
    ],
    [
      0.7654121518135071,
      0.7679563760757446,
      -0.6753668189048767,
      -0.017694802954792976,
      0.9688138365745544,
      0.2688681185245514,
      -1.0314011573791504,
      -0.9067478775978088,
      -0.7220664620399475,
      -0.006662134546786547,
      0.3935893774032593,
      -0.7601963877677917
    ],
    [
      -0.66225266456604,
      -0.7555068731307983,
      -0.5001094341278076,
      -1.0980569124221802,
      0.34139394760131836,
      0.9918432831764221,
      0.585404634475708,
      0.5537940859794617,
      0.5386670827865601,
      -0.34104782342910767,
      -0.33847251534461975,
      -0.6003822088241577
    ],
    [
      -0.38884657621383667,
      -0.4893779754638672,
      0.3866199553012848,
      -0.5830622911453247,
      -0.928105354309082,
      0.7857298851013184,
      -0.014619730412960052,
      -1.4453922510147095,
      -0.01806621253490448,
      2.7391324043273926,
      1.4302793741226196,
      -1.5611610412597656
    ],
    [
      -0.6919636130332947,
      0.6160380244255066,
      -0.5092229843139648,
      -0.09407473355531693,
      -0.9688702821731567,
      -1.1451044082641602,
      -0.4167444705963135,
      0.6119295954704285,
      -0.2577969431877136,
      1.955018162727356,
      0.5106402039527893,
      0.24711544811725616
    ],
    [
      -0.5272183418273926,
      0.9856047034263611,
      -0.6315443515777588,
      0.815388560295105,
      -1.1191256046295166,
      1.0185273885726929,
      0.4378345310688019,
      -1.9168912172317505,
      0.5070759057998657,
      -0.017356520518660545,
      1.4923925399780273,
      -0.9108058214187622
    ],
    [
      -1.0797510147094727,
      0.0685756579041481,
      0.9411469101905823,
      -1.0096861124038696,
      -1.2472108602523804,
      -0.3612441122531891,
      0.37044960260391235,
      1.279366374015808,
      0.49959272146224976,
      -0.3239575922489166,
      0.05884591490030289,
      0.3674905300140381
    ],
    [
      -0.4739001393318176,
      -0.35338065028190613,
      -0.8721739053726196,
      0.19799010455608368,
      -0.5493112802505493,
      -0.21817006170749664,
      -0.49084779620170593,
      0.8243860602378845,
      0.5109399557113647,
      1.2436631917953491,
      0.8697852492332458,
      -0.6221838593482971
    ],
    [
      -1.2256580591201782,
      1.0438244342803955,
      1.0801024436950684,
      -0.43814176321029663,
      1.0275139808654785,
      0.7652620077133179,
      -0.3733738958835602,
      -1.7626594305038452,
      -0.8041663765907288,
      0.4843229353427887,
      0.18310098350048065,
      -0.6912667751312256
    ],
    [
      -0.39747354388237,
      -0.7404400110244751,
      0.014527975581586361,
      0.7039142847061157,
      0.5085476040840149,
      -0.09843429177999496,
      0.2499666064977646,
      0.622812807559967,
      -0.832873523235321,
      0.3832150101661682,
      -0.4832017421722412,
      -0.5616489052772522
    ],
    [
      0.1993953287601471,
      0.01997370831668377,
      -1.4342784881591797,
      0.02353704534471035,
      0.5757275819778442,
      0.2459356188774109,
      0.5639820098876953,
      0.663618266582489,
      0.4243946671485901,
      0.31170451641082764,
      0.047416020184755325,
      -1.7768818140029907
    ],
    [
      0.024452272802591324,
      0.6015385985374451,
      -0.8397936820983887,
      -0.7330706715583801,
      0.10387180745601654,
      0.9065947532653809,
      -0.32514238357543945,
      -0.3720216453075409,
      -0.5641354918479919,
      0.8134114742279053,
      -0.6119068264961243,
      0.28322428464889526
    ],
    [
      0.30296555161476135,
      0.3155324161052704,
      1.2259596586227417,
      1.4646717309951782,
      1.4773527383804321,
      -1.1424299478530884,
      -1.746678113937378,
      -1.6819113492965698,
      -1.3919448852539062,
      -0.6344544291496277,
      0.01274689007550478,
      -1.4126874208450317
    ],
    [
      -1.0673781633377075,
      0.9552684426307678,
      -0.9624373912811279,
      -0.9683542251586914,
      1.6031876802444458,
      -0.30746617913246155,
      -1.7504832744598389,
      1.542781949043274,
      -0.018620984628796577,
      -0.25652453303337097,
      -1.1376922130584717,
      -1.455970048904419
    ],
    [
      1.2232723236083984,
      0.5915456414222717,
      0.7292374968528748,
      -1.0832724571228027,
      1.1195718050003052,
      -1.304352879524231,
      -0.8838786482810974,
      -1.0893746614456177,
      -0.658405065536499,
      -0.3196418583393097,
      0.1455748975276947,
      1.7887375354766846
    ],
    [
      1.2370330095291138,
      0.2649279832839966,
      -0.9715405702590942,
      1.8233449459075928,
      2.086789846420288,
      -0.4502975642681122,
      -2.76517391204834,
      -1.648798942565918,
      0.7860435247421265,
      -0.3156115710735321,
      -1.5586323738098145,
      0.08061208575963974
    ],
    [
      -0.11783070862293243,
      0.44905897974967957,
      -1.2088922262191772,
      0.30806630849838257,
      -0.38295644521713257,
      0.17477910220623016,
      0.10708840936422348,
      0.47400617599487305,
      0.08285923302173615,
      0.14379386603832245,
      0.5676444172859192,
      -0.3405228853225708
    ],
    [
      0.4503386914730072,
      0.329387366771698,
      -0.11586219072341919,
      2.2716617584228516,
      -1.1281745433807373,
      -1.027287483215332,
      -1.0212303400039673,
      0.5095378160476685,
      0.07749979197978973,
      -0.9272323250770569,
      -0.44276589155197144,
      0.006070743314921856
    ],
    [
      -0.5665425062179565,
      -0.18693384528160095,
      -0.631316602230072,
      0.3763798177242279,
      0.47108834981918335,
      1.7520394325256348,
      0.9876065850257874,
      -0.3386555314064026,
      -0.5312229990959167,
      -0.5726745128631592,
      -1.348293423652649,
      -0.15407422184944153
    ],
    [
      -0.1761121302843094,
      0.6169555187225342,
      -1.2089132070541382,
      -0.2814498841762543,
      -0.4664080739021301,
      0.1939782202243805,
      1.400253176689148,
      0.12747983634471893,
      -0.7683262228965759,
      -0.46999213099479675,
      -0.23361140489578247,
      0.13312271237373352
    ],
    [
      -0.47606608271598816,
      -0.9612085223197937,
      -1.4193147420883179,
      -0.30092671513557434,
      0.06996969133615494,
      0.45110031962394714,
      -0.5377201437950134,
      1.0925213098526,
      -0.18875840306282043,
      0.5199640393257141,
      0.5235882997512817,
      0.9762091636657715
    ],
    [
      1.5743653774261475,
      0.23859919607639313,
      1.103405237197876,
      -0.1832462102174759,
      1.6652861833572388,
      -0.7652246952056885,
      -0.30652251839637756,
      0.5206633806228638,
      -0.49048399925231934,
      -0.34458163380622864,
      -0.9172548651695251,
      -2.7907001972198486
    ],
    [
      -0.24001221358776093,
      0.6512976288795471,
      0.3516997992992401,
      -1.123112440109253,
      -0.6572586894035339,
      0.6385032534599304,
      -0.14616340398788452,
      0.20709796249866486,
      -0.05690492317080498,
      -0.18131735920906067,
      -0.06344715505838394,
      -0.20241926610469818
    ],
    [
      1.1115676164627075,
      0.9579699635505676,
      0.7966708540916443,
      -1.654415488243103,
      -0.4832823574542999,
      1.1061253547668457,
      -0.8046475052833557,
      0.26532816886901855,
      0.10801137238740921,
      -0.47088009119033813,
      -0.816028892993927,
      0.6359480023384094
    ],
    [
      -0.6657530069351196,
      -0.07117260992527008,
      -0.6001929044723511,
      0.15752524137496948,
      -0.14973996579647064,
      0.4051116704940796,
      -1.0542107820510864,
      -0.2656519412994385,
      -0.09495414048433304,
      -0.02146732062101364,
      0.21948985755443573,
      -0.005918106995522976
    ],
    [
      -1.0380719900131226,
      -0.09077002853155136,
      2.5020294189453125,
      0.7123034000396729,
      -1.1506999731063843,
      -0.7288289070129395,
      1.0423985719680786,
      -0.2723708152770996,
      -1.330320119857788,
      0.13215100765228271,
      2.6882450580596924,
      -0.6949149370193481
    ],
    [
      -0.5283097624778748,
      -1.2404041290283203,
      -0.9866620898246765,
      0.7659546732902527,
      0.3919494152069092,
      -0.25969719886779785,
      0.29157257080078125,
      0.02420814149081707,
      0.4461139738559723,
      0.13334627449512482,
      -0.2697064280509949,
      -0.3383029103279114
    ],
    [
      0.7332242131233215,
      -0.7298095226287842,
      1.1040949821472168,
      -0.8553352355957031,
      0.48402413725852966,
      -0.18861807882785797,
      0.5506292581558228,
      0.8091878890991211,
      0.24744130671024323,
      -0.9736257195472717,
      -0.47207894921302795,
      -0.40300241112709045
    ],
    [
      0.11801188439130783,
      -1.4454535245895386,
      2.27850341796875,
      -0.48777005076408386,
      -0.17819300293922424,
      2.176705837249756,
      -0.9823979139328003,
      -1.810439109802246,
      -1.5471138954162598,
      0.6352803707122803,
      0.22976373136043549,
      -1.3606829643249512
    ],
    [
      -0.1630222350358963,
      -0.12055201828479767,
      -0.4907633066177368,
      0.2795926034450531,
      -0.30341649055480957,
      0.35111960768699646,
      -1.162817358970642,
      -0.056818585842847824,
      0.5130330920219421,
      0.3440312445163727,
      0.1610565483570099,
      -0.7421569228172302
    ],
    [
      -0.560979425907135,
      -0.24289095401763916,
      -1.2643181085586548,
      0.8957185745239258,
      -0.11223488301038742,
      -0.7473070025444031,
      0.32549718022346497,
      -1.4102003574371338,
      0.6142841577529907,
      0.5132542252540588,
      0.2694908678531647,
      1.9979389905929565
    ],
    [
      0.5326617360115051,
      1.5167443752288818,
      -0.7078322172164917,
      -1.1079542636871338,
      0.013603831641376019,
      0.39733168482780457,
      -0.7853802442550659,
      0.4315688908100128,
      0.18130064010620117,
      0.261038601398468,
      -1.0512300729751587,
      0.8805413246154785
    ],
    [
      1.0978999137878418,
      0.07582391053438187,
      0.06141243502497673,
      -0.13067805767059326,
      0.7425297498703003,
      -0.4658236503601074,
      -1.7243854999542236,
      1.6915171146392822,
      -0.7925143241882324,
      -0.4934619963169098,
      -1.3614795207977295,
      -0.4151655435562134
    ],
    [
      -0.649839460849762,
      0.8655583262443542,
      0.04763617366552353,
      0.18472935259342194,
      0.3513427674770355,
      1.1249990463256836,
      -0.9545568227767944,
      -1.426134467124939,
      0.3362556993961334,
      0.22815702855587006,
      -1.5614796876907349,
      1.2648314237594604
    ],
    [
      -0.5485705137252808,
      -0.2510422170162201,
      -1.124252200126648,
      -0.5830367207527161,
      -1.070542573928833,
      -0.24586480855941772,
      1.3263877630233765,
      -0.9784371852874756,
      1.3253264427185059,
      1.2894814014434814,
      -0.5893703103065491,
      0.4602964222431183
    ],
    [
      -0.31022199988365173,
      -0.9728097915649414,
      0.8670564889907837,
      -1.1813414096832275,
      1.0207312107086182,
      -1.5737171173095703,
      0.39321574568748474,
      0.5949225425720215,
      1.3351130485534668,
      0.47206342220306396,
      -2.209193468093872,
      -0.10614682734012604
    ],
    [
      -0.5003647208213806,
      -0.34067854285240173,
      -0.4384235739707947,
      0.47445085644721985,
      0.49504634737968445,
      -0.12128269672393799,
      0.1921878308057785,
      -0.0757698193192482,
      -0.9839209914207458,
      -0.9244970679283142,
      0.3701193034648895,
      1.1194006204605103
    ],
    [
      0.22385554015636444,
      0.6912155151367188,
      -0.6235740780830383,
      0.37116366624832153,
      -0.26876163482666016,
      0.17954105138778687,
      -0.09888432919979095,
      0.14496943354606628,
      0.4842697083950043,
      1.3370569944381714,
      0.58000248670578,
      -1.103754997253418
    ],
    [
      0.7173446416854858,
      -0.26092463731765747,
      -0.1631096452474594,
      1.410000205039978,
      0.44681739807128906,
      -1.157017469406128,
      -1.3011348247528076,
      0.2502436935901642,
      0.4876667857170105,
      -0.14163607358932495,
      0.6934196352958679,
      1.2890303134918213
    ],
    [
      0.34418249130249023,
      0.14942294359207153,
      -0.05543195456266403,
      -0.7581631541252136,
      -0.3128441572189331,
      -0.8923546671867371,
      1.9121733903884888,
      -0.543202817440033,
      0.3150680661201477,
      0.049527306109666824,
      -0.01044996827840805,
      -0.04975707083940506
    ],
    [
      0.42195066809654236,
      -0.21619953215122223,
      -0.39115267992019653,
      -0.4046326279640198,
      0.9266443252563477,
      -0.0953635722398758,
      -1.5785605907440186,
      -0.7853244543075562,
      -0.10679864883422852,
      0.8246851563453674,
      0.5667112469673157,
      0.6273447275161743
    ],
    [
      -1.2009764909744263,
      0.8103502988815308,
      0.8237809538841248,
      -0.4748789966106415,
      0.5732240080833435,
      0.6253756284713745,
      -0.3831899166107178,
      -1.0966559648513794,
      -1.018789529800415,
      -0.9338213801383972,
      0.22796252369880676,
      1.3138949871063232
    ],
    [
      1.7332090139389038,
      0.3237901031970978,
      1.24167001247406,
      0.42813098430633545,
      -0.8577196002006531,
      0.40603354573249817,
      -1.2766224145889282,
      0.5505102276802063,
      -0.1998233050107956,
      0.3009941875934601,
      -1.167536973953247,
      -0.7190291881561279
    ],
    [
      -0.12898926436901093,
      0.549227237701416,
      1.4953922033309937,
      -0.7198463678359985,
      0.8476123809814453,
      -0.24573293328285217,
      0.4481138586997986,
      -0.0109013756737113,
      0.06068454682826996,
      -0.12126581370830536,
      -0.7722378373146057,
      0.1099184975028038
    ],
    [
      0.2651272416114807,
      0.9444943070411682,
      -2.6350066661834717,
      0.7053928971290588,
      -0.8062996864318848,
      -0.2579761743545532,
      -0.4784795045852661,
      0.8933702111244202,
      -0.9333812594413757,
      1.7000097036361694,
      0.8540669679641724,
      -1.604742169380188
    ],
    [
      -1.671668529510498,
      -0.46658071875572205,
      1.2177932262420654,
      1.210992455482483,
      1.2404038906097412,
      -0.48260945081710815,
      0.024076245725154877,
      1.1515169143676758,
      -0.02671780064702034,
      -1.3935483694076538,
      0.22071143984794617,
      0.19568166136741638
    ],
    [
      0.12394201755523682,
      -0.9054157733917236,
      0.9725245833396912,
      1.0138065814971924,
      0.030961494892835617,
      0.43254825472831726,
      -1.0633459091186523,
      -0.2539365887641907,
      0.5976232290267944,
      -1.5731719732284546,
      -0.3072439432144165,
      1.7098485231399536
    ],
    [
      -1.115569829940796,
      0.17251618206501007,
      -0.20950555801391602,
      0.3582133948802948,
      0.10098656266927719,
      -0.8326602578163147,
      1.3166234493255615,
      -0.06431041657924652,
      0.14476396143436432,
      0.1591331660747528,
      0.8565776944160461,
      -0.18396766483783722
    ],
    [
      0.28317132592201233,
      0.32204556465148926,
      2.036623239517212,
      -0.3030650019645691,
      -1.5156443119049072,
      0.28723448514938354,
      0.7143509387969971,
      -0.4582107961177826,
      -0.039958562701940536,
      -1.2274765968322754,
      0.5175474882125854,
      -2.037273645401001
    ],
    [
      0.49922940135002136,
      -0.5066537261009216,
      -1.9142591953277588,
      -0.012425434775650501,
      -0.18528345227241516,
      -0.3535723090171814,
      -0.5151510834693909,
      -0.1782282590866089,
      -0.0702960416674614,
      0.8584372997283936,
      -0.019999228417873383,
      -0.6622936725616455
    ],
    [
      -0.0357588529586792,
      -1.578287124633789,
      -0.05308615043759346,
      0.14863169193267822,
      2.413569211959839,
      -0.6412950754165649,
      -1.53267240524292,
      1.234495759010315,
      0.3456292152404785,
      -0.5358303189277649,
      0.599360466003418,
      -1.3181439638137817
    ],
    [
      -1.8862922191619873,
      -0.4377976953983307,
      0.0820985659956932,
      1.1865997314453125,
      0.12090185284614563,
      -0.37216413021087646,
      -0.5949034094810486,
      0.08504705131053925,
      0.9223167896270752,
      -0.5197395086288452,
      0.8729072213172913,
      0.11184489727020264
    ],
    [
      1.2566568851470947,
      -1.112323522567749,
      0.38319501280784607,
      0.002721241442486644,
      -1.736220359802246,
      0.9747946858406067,
      1.3021736145019531,
      0.8161192536354065,
      -0.5641067624092102,
      0.3401246666908264,
      -0.22871357202529907,
      -0.04492703452706337
    ],
    [
      -0.12554426491260529,
      -0.04774504899978638,
      -0.49586978554725647,
      0.7565079927444458,
      1.3370367288589478,
      -1.0291976928710938,
      0.31270837783813477,
      -0.8321028351783752,
      -0.593602180480957,
      0.4423024654388428,
      0.5946924090385437,
      0.34668660163879395
    ],
    [
      -0.4422329366207123,
      -0.16268053650856018,
      0.8608332276344299,
      -0.5964647531509399,
      0.2394200712442398,
      0.6537109017372131,
      0.3831554651260376,
      -0.13198432326316833,
      -0.9756748080253601,
      -0.1971808522939682,
      -0.9456441402435303,
      0.8668904900550842
    ],
    [
      -0.3261145353317261,
      1.1953476667404175,
      -0.5817792415618896,
      0.4650520384311676,
      -0.648503839969635,
      -0.3689400255680084,
      -0.30098214745521545,
      0.7396765351295471,
      -1.0730102062225342,
      0.6281828284263611,
      0.26240187883377075,
      -0.32429954409599304
    ],
    [
      0.7863752245903015,
      -1.826905369758606,
      1.3641167879104614,
      0.8521184325218201,
      -2.469285726547241,
      -0.25577694177627563,
      -1.6820123195648193,
      1.4661179780960083,
      0.8752815127372742,
      0.3681528866291046,
      1.8015711307525635,
      -0.6860222220420837
    ],
    [
      -0.11511477082967758,
      -2.269361734390259,
      1.4631404876708984,
      -1.5533329248428345,
      -1.37732994556427,
      0.653927743434906,
      0.6560391783714294,
      1.490052580833435,
      -0.6096210479736328,
      0.9059519171714783,
      0.9519093036651611,
      0.9176802635192871
    ],
    [
      -0.15941818058490753,
      -0.06333332508802414,
      -0.656090259552002,
      1.5676774978637695,
      -0.7705859541893005,
      -1.6177849769592285,
      1.3129667043685913,
      0.06156401336193085,
      0.07542135566473007,
      -0.5478590130805969,
      1.1505703926086426,
      1.6468679904937744
    ],
    [
      -1.4069401025772095,
      -0.13427653908729553,
      -0.6573115587234497,
      -0.7197962999343872,
      -0.7329297661781311,
      -0.3254386782646179,
      -0.7212643623352051,
      0.5287134647369385,
      1.1689631938934326,
      0.41361576318740845,
      0.3994266092777252,
      -0.07433556765317917
    ],
    [
      -1.441957712173462,
      1.1742560863494873,
      -0.6630808115005493,
      -0.44732722640037537,
      -0.5667559504508972,
      -1.1922703981399536,
      1.4466884136199951,
      2.0094070434570312,
      -0.46736863255500793,
      -0.502120852470398,
      -0.5244606137275696,
      -1.0830447673797607
    ],
    [
      -0.18383552134037018,
      0.38881203532218933,
      0.5415244698524475,
      0.9019619226455688,
      -0.45304203033447266,
      0.08008106797933578,
      -0.8034231662750244,
      0.7463607788085938,
      -0.7794607281684875,
      0.3849780857563019,
      -2.0879085063934326,
      0.9690563082695007
    ],
    [
      -0.26680290699005127,
      0.5297202467918396,
      -0.7342954874038696,
      0.2874721586704254,
      -0.6428353190422058,
      -0.8073326349258423,
      -1.1194419860839844,
      0.4115714430809021,
      -0.6321657299995422,
      1.190284252166748,
      1.3308051824569702,
      -0.9311522841453552
    ],
    [
      0.21447670459747314,
      1.6065248250961304,
      -0.749480128288269,
      -1.2070921659469604,
      -0.5817193388938904,
      0.737369954586029,
      1.011060118675232,
      0.7999727129936218,
      -2.2977402210235596,
      0.5661653876304626,
      0.6717043519020081,
      -0.4553506076335907
    ],
    [
      0.8729373812675476,
      -1.2271450757980347,
      0.015314208343625069,
      0.5291881561279297,
      -0.09293503314256668,
      0.3023781180381775,
      -0.874214768409729,
      -1.239157795906067,
      0.24168209731578827,
      -0.09589345753192902,
      0.5585039854049683,
      -0.03534612059593201
    ],
    [
      0.09438896179199219,
      -0.6878728866577148,
      -1.1662681102752686,
      -0.8426311016082764,
      -0.7271067500114441,
      -0.6002867817878723,
      0.16865094006061554,
      -0.796668291091919,
      0.5037780404090881,
      0.27974945306777954,
      0.8874881267547607,
      0.14294637739658356
    ],
    [
      0.5334907174110413,
      1.5909607410430908,
      0.11462905257940292,
      -1.7542718648910522,
      -0.3581400513648987,
      -0.3015533983707428,
      -1.6435577869415283,
      -0.722890317440033,
      -0.18561986088752747,
      0.06354249268770218,
      0.9789570569992065,
      -1.1982873678207397
    ],
    [
      -0.37236765027046204,
      1.5740183591842651,
      0.3026750087738037,
      -0.2510952651500702,
      0.6153587102890015,
      -2.0637166500091553,
      0.8734747767448425,
      0.3104267418384552,
      -1.0641121864318848,
      -0.31991034746170044,
      0.45899146795272827,
      0.15728552639484406
    ],
    [
      -0.8110532760620117,
      0.6565189361572266,
      0.0009044434409588575,
      1.289942979812622,
      1.3149317502975464,
      -0.5631644129753113,
      -0.6091521978378296,
      0.7902505397796631,
      -0.29090526700019836,
      0.29423975944519043,
      -1.9343947172164917,
      1.855231761932373
    ],
    [
      0.44883543252944946,
      2.9661126136779785,
      0.705001711845398,
      -1.0486247539520264,
      1.9986521005630493,
      -2.0235788822174072,
      -3.0314650535583496,
      -0.11099207401275635,
      -0.25500935316085815,
      1.8927133083343506,
      -0.10601498931646347,
      -0.931813657283783
    ],
    [
      0.36105239391326904,
      -1.3495768308639526,
      1.916862964630127,
      0.5435763001441956,
      -1.694237232208252,
      1.525475025177002,
      0.29600176215171814,
      -1.0685389041900635,
      0.9865047335624695,
      -0.2440246343612671,
      0.337218701839447,
      -2.0442638397216797
    ],
    [
      -0.24270601570606232,
      -0.5087414383888245,
      0.10057494789361954,
      1.0525318384170532,
      0.1714349389076233,
      -1.5331850051879883,
      -1.0622261762619019,
      0.2796404957771301,
      0.3901703953742981,
      0.16853588819503784,
      -0.22214315831661224,
      0.8576393127441406
    ],
    [
      -0.8638414740562439,
      0.4616086184978485,
      -1.4180614948272705,
      0.719352126121521,
      -0.9922865033149719,
      -0.20827233791351318,
      -0.174305722117424,
      0.5715686082839966,
      0.47667497396469116,
      0.2943289577960968,
      1.5008392333984375,
      -0.2153705656528473
    ],
    [
      1.563976526260376,
      -1.572898507118225,
      -1.2585982084274292,
      -1.0786137580871582,
      -0.2305252104997635,
      0.21625696122646332,
      0.9148657917976379,
      2.0737533569335938,
      0.04182400554418564,
      -1.5655946731567383,
      2.3447318077087402,
      -1.0501010417938232
    ],
    [
      -0.1274808794260025,
      0.22961129248142242,
      1.1396353244781494,
      0.9329890608787537,
      -0.21553702652454376,
      -1.1148699522018433,
      -0.3418768644332886,
      0.67711341381073,
      0.30818966031074524,
      -1.0193123817443848,
      0.6374791264533997,
      -0.05981098487973213
    ],
    [
      0.7826396226882935,
      -1.6952279806137085,
      0.33444744348526,
      0.8438283205032349,
      0.177448108792305,
      -0.8853806853294373,
      0.3092639446258545,
      0.3637702465057373,
      1.2343353033065796,
      1.2992465496063232,
      -0.31063312292099,
      -1.453337550163269
    ],
    [
      0.6084869503974915,
      0.6555166244506836,
      -0.5174559950828552,
      -0.2197466343641281,
      -0.1441488116979599,
      -1.7047518491744995,
      0.7276493310928345,
      0.8379701972007751,
      -0.3240787386894226,
      0.06635083258152008,
      -0.24682088196277618,
      -0.28434500098228455
    ],
    [
      0.15014994144439697,
      0.7630147337913513,
      1.362395167350769,
      0.5598979592323303,
      -1.6155238151550293,
      -0.07235773652791977,
      -0.02826053649187088,
      1.102577567100525,
      -0.7277358770370483,
      0.04581558331847191,
      -1.9676271677017212,
      1.259582757949829
    ],
    [
      -0.6829776763916016,
      -1.8137288093566895,
      -1.8681464195251465,
      2.6154866218566895,
      -0.8956998586654663,
      2.2520852088928223,
      2.509265661239624,
      1.3026342391967773,
      1.6546506881713867,
      -1.0287271738052368,
      -2.273063898086548,
      1.641398310661316
    ],
    [
      -0.35312703251838684,
      1.928126573562622,
      0.5515930652618408,
      -0.8496482968330383,
      1.1182280778884888,
      2.883845329284668,
      0.6419926285743713,
      -0.8498458862304688,
      0.5258229374885559,
      -1.9534584283828735,
      -1.4872584342956543,
      -1.5134665966033936
    ],
    [
      -1.0249912738800049,
      0.5096936821937561,
      0.4281608760356903,
      0.3344712555408478,
      -1.8978937864303589,
      -0.36662665009498596,
      -0.1574898660182953,
      0.9574568867683411,
      0.8573219776153564,
      -0.35730066895484924,
      0.9717162847518921,
      -0.3494267165660858
    ],
    [
      -0.3420563042163849,
      0.7495909333229065,
      -0.38827913999557495,
      -0.4986242651939392,
      0.8766295313835144,
      -0.7210991978645325,
      -0.08000770956277847,
      -0.8445144891738892,
      -0.10999681055545807,
      0.18712632358074188,
      0.15813764929771423,
      -0.7542011737823486
    ],
    [
      -0.2453155517578125,
      0.3224070966243744,
      -0.8682476878166199,
      0.21991613507270813,
      1.0338976383209229,
      -0.24699297547340393,
      0.7015332579612732,
      1.132360816001892,
      0.0016222185222432017,
      -1.091796636581421,
      0.45508459210395813,
      -1.1372168064117432
    ],
    [
      -0.1285071074962616,
      -0.41068920493125916,
      -0.2998183071613312,
      -0.11636488884687424,
      0.9709312319755554,
      0.39799386262893677,
      0.4452306926250458,
      0.28415945172309875,
      -0.6845599412918091,
      0.09253625571727753,
      -1.4554911851882935,
      1.0360387563705444
    ],
    [
      -1.0861564874649048,
      -1.5361042022705078,
      -0.589637815952301,
      0.685808539390564,
      1.4808425903320312,
      1.350677251815796,
      -0.8986785411834717,
      0.9072762131690979,
      -1.4179530143737793,
      0.7804402709007263,
      0.28522202372550964,
      -0.9900726079940796
    ],
    [
      0.9962085485458374,
      1.5682032108306885,
      -0.6006694436073303,
      -0.7861120104789734,
      -0.18766780197620392,
      0.4756528437137604,
      0.48109835386276245,
      2.0410711765289307,
      0.0463496632874012,
      -1.0460598468780518,
      0.37128278613090515,
      -1.766197919845581
    ],
    [
      1.3715195655822754,
      -0.4896732270717621,
      0.37950029969215393,
      0.8943575620651245,
      -0.3749786615371704,
      1.5421925783157349,
      -0.545295774936676,
      -1.6249029636383057,
      0.10744722187519073,
      -1.4925568103790283,
      -0.2311708629131317,
      -0.1819174438714981
    ],
    [
      -1.9907459020614624,
      -0.008312449790537357,
      1.9996522665023804,
      1.3394728899002075,
      -1.4418107271194458,
      2.281981945037842,
      -0.5311885476112366,
      -0.07435238361358643,
      0.24063566327095032,
      -1.4704924821853638,
      0.9840289354324341,
      1.6928530931472778
    ],
    [
      -0.02201603353023529,
      -0.05878913030028343,
      -0.8810042142868042,
      -1.6549304723739624,
      0.08138849586248398,
      -0.4386535882949829,
      -0.7572391033172607,
      0.7637856006622314,
      1.480086326599121,
      1.32343327999115,
      -0.6098119616508484,
      -0.14461807906627655
    ],
    [
      0.3016791343688965,
      1.807327151298523,
      -1.0285536050796509,
      -0.04670995473861694,
      -0.4077473282814026,
      -1.989603877067566,
      -0.0036458640825003386,
      0.8705989718437195,
      -0.27763092517852783,
      0.4042873978614807,
      -0.4271930456161499,
      0.31713545322418213
    ],
    [
      -0.4338415861129761,
      0.6545892953872681,
      0.31943240761756897,
      0.6897222399711609,
      -0.7790283560752869,
      -0.5775889754295349,
      -1.0228147506713867,
      0.37981587648391724,
      -0.3702872693538666,
      1.2622150182724,
      0.9208955764770508,
      -0.31227239966392517
    ],
    [
      -0.7919901609420776,
      -0.6392538547515869,
      -1.1283892393112183,
      0.6011484861373901,
      1.523586392402649,
      -1.196495532989502,
      -0.7091799378395081,
      0.9377569556236267,
      0.6371061205863953,
      0.4611845314502716,
      0.016417693346738815,
      -1.1127073764801025
    ],
    [
      -0.02653426118195057,
      0.7540393471717834,
      -1.281406044960022,
      0.5616706609725952,
      -0.7664549350738525,
      -0.5023212432861328,
      -0.606316328048706,
      0.23314881324768066,
      -0.2299080342054367,
      1.3922998905181885,
      0.8123862147331238,
      -0.3969044089317322
    ],
    [
      -1.8395806550979614,
      -0.46689435839653015,
      -0.11864153295755386,
      0.6956382393836975,
      0.44815701246261597,
      -0.3901708126068115,
      -0.6958090662956238,
      0.5354669094085693,
      -1.492084264755249,
      1.2056323289871216,
      0.27572402358055115,
      -1.3521239757537842
    ],
    [
      0.022349316626787186,
      -0.2915620505809784,
      -1.9399421215057373,
      1.3675737380981445,
      0.13716009259223938,
      1.2938650846481323,
      -0.6045940518379211,
      -0.44427603483200073,
      -0.06856931000947952,
      -0.1609099954366684,
      0.35294109582901,
      0.6996150612831116
    ],
    [
      -0.6351848244667053,
      1.2785637378692627,
      -0.46192824840545654,
      0.9751620888710022,
      -0.5464496612548828,
      -0.20032228529453278,
      -1.0250684022903442,
      0.3964027762413025,
      -0.43415194749832153,
      0.6800342202186584,
      0.3918306231498718,
      -0.8105694651603699
    ],
    [
      -0.7033838033676147,
      0.6040741801261902,
      -1.0549125671386719,
      -1.3263566493988037,
      0.6649582982063293,
      0.3064967095851898,
      -0.24279071390628815,
      0.3470497727394104,
      0.5059593319892883,
      -1.7119611501693726,
      0.5637223124504089,
      0.8818511962890625
    ],
    [
      1.6664906740188599,
      2.0023157596588135,
      -0.29219675064086914,
      0.1331828087568283,
      -1.8060710430145264,
      -0.4625476598739624,
      -1.0564866065979004,
      0.9652475714683533,
      -1.7335844039916992,
      2.047948122024536,
      -0.21071647107601166,
      0.5427513122558594
    ],
    [
      -1.0125011205673218,
      0.1313142627477646,
      -0.5512872338294983,
      -0.44373011589050293,
      -0.5359833836555481,
      -0.5755712985992432,
      -1.1341235637664795,
      2.06101131439209,
      0.08404848724603653,
      0.7807421088218689,
      1.209967851638794,
      1.0809597969055176
    ],
    [
      -0.06898237764835358,
      0.8421998620033264,
      -0.9985383152961731,
      -1.6778335571289062,
      -0.024933578446507454,
      1.4310892820358276,
      0.03600853309035301,
      -0.05625799298286438,
      2.6555399894714355,
      0.39836835861206055,
      -1.2895429134368896,
      -1.043893814086914
    ],
    [
      -0.28966066241264343,
      0.09333006292581558,
      -1.342503547668457,
      0.6263601183891296,
      -0.21040236949920654,
      0.3080216944217682,
      -0.5548573136329651,
      -0.013439865782856941,
      0.3511900305747986,
      0.6026352047920227,
      0.35301104187965393,
      -0.6347714066505432
    ],
    [
      -0.5233758091926575,
      -0.24649612605571747,
      1.1098355054855347,
      1.2244393825531006,
      -1.7029796838760376,
      -0.9590664505958557,
      -1.6298789978027344,
      1.6538623571395874,
      0.4052222967147827,
      0.7229426503181458,
      -0.1602599322795868,
      -0.27422624826431274
    ],
    [
      0.8531595468521118,
      1.1652730703353882,
      1.786664366722107,
      1.401506781578064,
      0.9427577257156372,
      -0.32684698700904846,
      -1.3522125482559204,
      -1.9142968654632568,
      0.2758067846298218,
      -1.1261705160140991,
      0.8851308226585388,
      0.11411669850349426
    ],
    [
      0.2996814250946045,
      0.5064511299133301,
      -0.7360990047454834,
      -0.25805872678756714,
      -0.27962782979011536,
      -0.6707043051719666,
      -0.5913540720939636,
      0.607110321521759,
      0.32490676641464233,
      0.8973987698554993,
      0.15397962927818298,
      0.3980019986629486
    ],
    [
      0.530484676361084,
      -0.16533024609088898,
      0.4754844903945923,
      0.23124045133590698,
      -1.3947558403015137,
      0.6659047603607178,
      0.14125007390975952,
      1.8311686515808105,
      -0.7897763252258301,
      0.3165833055973053,
      -2.255768299102783,
      0.6361265182495117
    ],
    [
      -0.2719755470752716,
      -0.2779814600944519,
      -0.6946923136711121,
      0.12066356837749481,
      -0.2985401451587677,
      -1.128607988357544,
      -0.5096922516822815,
      0.2982695996761322,
      -0.9405124187469482,
      1.0632176399230957,
      0.41332942247390747,
      -0.3309944272041321
    ],
    [
      -1.5089657306671143,
      1.3188809156417847,
      1.723935604095459,
      0.0897604450583458,
      -0.43546998500823975,
      -0.7941094636917114,
      1.2979581356048584,
      1.959740161895752,
      0.06905358284711838,
      -1.9013018608093262,
      -0.7308162450790405,
      0.8439905643463135
    ],
    [
      -0.04646565020084381,
      -1.5687012672424316,
      -1.3119277954101562,
      -0.22819213569164276,
      -0.3770647943019867,
      1.2713913917541504,
      -2.5790371894836426,
      1.0240838527679443,
      1.4848337173461914,
      -0.2034473717212677,
      -0.4872804582118988,
      1.897057294845581
    ],
    [
      0.35124459862709045,
      0.06214677542448044,
      -0.18476390838623047,
      0.32642558217048645,
      -0.4362293481826782,
      2.3147008419036865,
      -0.20847950875759125,
      0.3303675055503845,
      0.8965540528297424,
      -1.823041558265686,
      -0.9785264730453491,
      0.9001730680465698
    ],
    [
      -0.18806254863739014,
      1.571202278137207,
      0.6898768544197083,
      0.17035864293575287,
      0.28006893396377563,
      -1.3375521898269653,
      0.08512106537818909,
      -0.5208165049552917,
      1.1205419301986694,
      -0.8169313073158264,
      -0.9591729044914246,
      -1.8218302726745605
    ],
    [
      -0.6639986038208008,
      -1.1806693077087402,
      -0.9043211936950684,
      0.12639771401882172,
      -0.7443936467170715,
      -0.19848963618278503,
      -1.769945740699768,
      -0.517434298992157,
      0.8264084458351135,
      -0.18646742403507233,
      1.3656517267227173,
      -0.26112937927246094
    ],
    [
      1.0932567119598389,
      -0.01480151154100895,
      -0.8257339596748352,
      -1.3714077472686768,
      2.369274854660034,
      0.10601051896810532,
      1.285908818244934,
      0.56646728515625,
      -2.1517698764801025,
      -0.9884926080703735,
      -0.4572407007217407,
      0.5418487191200256
    ],
    [
      1.9946178197860718,
      1.124234914779663,
      -0.8845248222351074,
      1.1679757833480835,
      1.0064204931259155,
      -0.40849751234054565,
      0.02612263150513172,
      -0.5104652047157288,
      -0.3601594567298889,
      -0.7392635941505432,
      -1.557891607284546,
      -1.1816096305847168
    ],
    [
      0.9690144658088684,
      -0.5009599328041077,
      -0.41551893949508667,
      1.1050812005996704,
      0.09595870971679688,
      1.0335984230041504,
      -0.6196884512901306,
      -0.4584512412548065,
      1.1863744258880615,
      -0.1278897225856781,
      -0.9687569737434387,
      -1.4070847034454346
    ],
    [
      -0.2952783703804016,
      -0.13935130834579468,
      -0.18767708539962769,
      0.8605126142501831,
      0.2256540209054947,
      0.3402066230773926,
      0.39973223209381104,
      -0.18166717886924744,
      0.8665634393692017,
      1.0006126165390015,
      0.5447477102279663,
      -0.5441029667854309
    ],
    [
      0.3982757031917572,
      -0.07727057486772537,
      0.3034934997558594,
      -0.9044669270515442,
      -0.03801897168159485,
      0.6562325954437256,
      0.6547300815582275,
      0.15053358674049377,
      0.6806020140647888,
      -0.9760897159576416,
      0.3932022750377655,
      -1.5644750595092773
    ],
    [
      -2.001249313354492,
      0.09033256024122238,
      -0.5367230176925659,
      1.29239022731781,
      -0.0728229209780693,
      -0.09952718764543533,
      -0.08923445641994476,
      1.5781749486923218,
      0.2500920593738556,
      0.318410187959671,
      -1.4058839082717896,
      1.0668808221817017
    ],
    [
      -0.632824718952179,
      1.5770421028137207,
      -0.5843043923377991,
      0.8314191699028015,
      -0.5431956648826599,
      -0.61390221118927,
      -2.0971689224243164,
      0.8137156367301941,
      -0.46348878741264343,
      0.1762993484735489,
      -1.3588064908981323,
      1.155279517173767
    ],
    [
      -0.10596739500761032,
      0.6293191313743591,
      -1.451895833015442,
      -0.6789777874946594,
      -0.4334234595298767,
      -0.1384410560131073,
      -1.5205966234207153,
      0.8699394464492798,
      -0.13322430849075317,
      0.4243761897087097,
      0.6093367338180542,
      1.1743119955062866
    ],
    [
      -0.7614302635192871,
      0.40693768858909607,
      -0.9192526340484619,
      0.3654960095882416,
      -0.33824411034584045,
      -0.9484061598777771,
      0.9538394808769226,
      0.9500526189804077,
      0.5181858539581299,
      0.3037882149219513,
      0.7393038272857666,
      0.19467930495738983
    ],
    [
      -0.3072703778743744,
      -0.08462874591350555,
      -1.6645005941390991,
      -0.3656948506832123,
      -1.0114306211471558,
      1.4365980625152588,
      -0.5691632628440857,
      -1.0584629774093628,
      -0.35508620738983154,
      0.6044663190841675,
      -0.2519727647304535,
      -1.480548620223999
    ],
    [
      0.3118748068809509,
      1.0185645818710327,
      0.6695641279220581,
      0.18597713112831116,
      1.1200149059295654,
      0.05294458195567131,
      -0.14098219573497772,
      -1.2961018085479736,
      -0.32414692640304565,
      -0.04786910116672516,
      -0.8876125812530518,
      -0.16891969740390778
    ],
    [
      0.7598273754119873,
      -1.2378536462783813,
      0.24602988362312317,
      -0.3458405137062073,
      0.9191247224807739,
      -0.010754677467048168,
      1.0499787330627441,
      -0.090535968542099,
      -0.0017975637456402183,
      -0.0306533332914114,
      -0.9883543252944946,
      -0.6594362854957581
    ],
    [
      0.2571823298931122,
      -0.02816181443631649,
      -1.1504606008529663,
      0.7961934208869934,
      -0.7423871159553528,
      -0.4409700930118561,
      -0.26418372988700867,
      -0.010352687910199165,
      -0.46364808082580566,
      1.7921322584152222,
      0.520205557346344,
      -0.5774800181388855
    ],
    [
      -1.3166433572769165,
      0.2802738547325134,
      0.5808918476104736,
      -0.5845118165016174,
      -0.3931324779987335,
      -0.10291615128517151,
      -0.9917055368423462,
      1.9668257236480713,
      0.6962549090385437,
      -0.3385349214076996,
      0.10431066900491714,
      -1.308465600013733
    ],
    [
      -0.29765772819519043,
      -0.32230591773986816,
      -2.2323250770568848,
      -0.572433590888977,
      -0.2670368552207947,
      1.111716628074646,
      1.1048974990844727,
      -1.0586036443710327,
      -0.25292709469795227,
      0.7578660845756531,
      -0.9684049487113953,
      0.5271004438400269
    ],
    [
      -1.186442494392395,
      -0.09632979333400726,
      0.09510760754346848,
      -0.9211215376853943,
      0.140116348862648,
      -0.20266513526439667,
      -1.6996753215789795,
      2.381200075149536,
      0.12238030135631561,
      -0.2323017567396164,
      -0.004921868443489075,
      -0.10331228375434875
    ],
    [
      -0.636443555355072,
      0.6323603987693787,
      -0.254277765750885,
      0.7027111053466797,
      -0.4775352478027344,
      -0.5746649503707886,
      -1.3340938091278076,
      0.24081052839756012,
      -0.21811118721961975,
      1.2012245655059814,
      0.7161067724227905,
      -0.04573291912674904
    ],
    [
      -0.2623533606529236,
      -0.6642372608184814,
      0.2679365575313568,
      0.4912191927433014,
      -0.4144950211048126,
      0.31592679023742676,
      -1.0034514665603638,
      -1.2337334156036377,
      1.1005626916885376,
      0.7384834289550781,
      -0.9281353950500488,
      -0.7789086699485779
    ],
    [
      -0.011026591993868351,
      -1.5915682315826416,
      0.39611291885375977,
      1.53119695186615,
      0.8626428842544556,
      -0.9429774880409241,
      -0.4916190505027771,
      1.347651720046997,
      0.4463008940219879,
      0.3567757308483124,
      0.3589359223842621,
      -0.4567354619503021
    ],
    [
      0.4627535343170166,
      0.6157552599906921,
      -0.5367351770401001,
      -0.9786180853843689,
      0.9280747771263123,
      -0.048712294548749924,
      0.29511553049087524,
      -0.49683672189712524,
      -0.23839007318019867,
      -1.0999810695648193,
      -0.3752482831478119,
      0.12405718863010406
    ],
    [
      -1.4101120233535767,
      0.2640223205089569,
      0.2565611004829407,
      0.2685835063457489,
      0.7839198112487793,
      -1.7260745763778687,
      1.091318964958191,
      0.9537310004234314,
      0.7040073871612549,
      -0.2713642716407776,
      0.0123809315264225,
      -1.3527700901031494
    ],
    [
      -0.04031659662723541,
      -2.7498435974121094,
      -0.036891866475343704,
      -0.6757333874702454,
      -1.3556376695632935,
      1.1623388528823853,
      -0.15266099572181702,
      0.40633082389831543,
      1.1931527853012085,
      0.9249818325042725,
      0.44760897755622864,
      -0.22283555567264557
    ],
    [
      0.20541797578334808,
      -1.9428743124008179,
      0.7298989295959473,
      -2.19311785697937,
      -0.11561530828475952,
      -0.11634832620620728,
      -0.6593242287635803,
      -0.6626739501953125,
      1.5147103071212769,
      0.020902493968605995,
      -0.46758776903152466,
      1.4287846088409424
    ],
    [
      -0.6716721057891846,
      0.8072105646133423,
      -0.7093300819396973,
      -0.7107159495353699,
      -0.13639071583747864,
      -0.3443967401981354,
      1.0659050941467285,
      0.03287769481539726,
      0.7327893972396851,
      0.3572860658168793,
      -0.20033587515354156,
      -0.5336031317710876
    ],
    [
      0.35571810603141785,
      1.4151350259780884,
      0.3022126853466034,
      -0.4314238131046295,
      -0.6167675256729126,
      -0.5837500691413879,
      0.9793012738227844,
      0.7803624868392944,
      -0.9812555313110352,
      -0.19213411211967468,
      -1.0117710828781128,
      -0.30162400007247925
    ],
    [
      0.33718958497047424,
      0.9243972897529602,
      -0.33817529678344727,
      -2.097628116607666,
      -0.18017195165157318,
      0.29770269989967346,
      1.7457613945007324,
      -1.2555978298187256,
      -0.8278839588165283,
      0.35303452610969543,
      -0.014206789433956146,
      -0.3298604190349579
    ],
    [
      -0.7602357864379883,
      1.1633819341659546,
      1.5512901544570923,
      -0.4331275224685669,
      0.6020269989967346,
      -0.25628024339675903,
      -2.064838171005249,
      0.8894398212432861,
      -0.8922901153564453,
      -0.06444847583770752,
      -0.4759456515312195,
      0.18148428201675415
    ],
    [
      0.1455620974302292,
      0.1327981948852539,
      0.8389236330986023,
      -0.5530596971511841,
      1.0050808191299438,
      -2.0494329929351807,
      -1.1435223817825317,
      0.9386710524559021,
      0.0381818525493145,
      1.2830862998962402,
      0.007596892304718494,
      -1.6695042848587036
    ],
    [
      -1.2813687324523926,
      0.5860234498977661,
      -0.7489697337150574,
      -0.6404830813407898,
      -0.04530107602477074,
      0.6027001142501831,
      0.2295387238264084,
      0.9772746562957764,
      -0.5778671503067017,
      0.17393594980239868,
      0.021053582429885864,
      1.3062469959259033
    ],
    [
      -0.8409376740455627,
      0.2657395005226135,
      -0.7315698266029358,
      -0.28321272134780884,
      0.9082961678504944,
      -0.8066720962524414,
      0.5208563208580017,
      0.23113735020160675,
      0.3565009832382202,
      0.2185400128364563,
      -0.2098758965730667,
      -0.8224785327911377
    ],
    [
      0.6853913068771362,
      -0.02474932372570038,
      1.1330788135528564,
      0.24673566222190857,
      -0.3934987187385559,
      0.9526691436767578,
      -2.2245779037475586,
      0.20723557472229004,
      0.48951423168182373,
      0.2765052020549774,
      -0.3064723014831543,
      -0.8540924191474915
    ],
    [
      0.12096360325813293,
      0.5705775618553162,
      0.7476996779441833,
      -2.302849769592285,
      -0.021345848217606544,
      0.427517294883728,
      -0.3845164179801941,
      0.9723779559135437,
      0.737605094909668,
      0.49290740489959717,
      -0.37414416670799255,
      -1.0334511995315552
    ],
    [
      -1.7736817598342896,
      -0.08243174850940704,
      1.8242793083190918,
      -0.3558495044708252,
      1.0377154350280762,
      -0.09368819743394852,
      1.091244101524353,
      0.22619198262691498,
      -0.11461259424686432,
      -0.11894627660512924,
      -1.6614043712615967,
      -0.27347278594970703
    ],
    [
      0.12654338777065277,
      0.5490384697914124,
      -1.178031325340271,
      1.088571310043335,
      -0.24533484876155853,
      -0.6361166834831238,
      -0.22136461734771729,
      0.5725084543228149,
      -1.270325779914856,
      0.8405987024307251,
      0.9332231283187866,
      0.01213363278657198
    ],
    [
      -0.47382351756095886,
      0.7138171195983887,
      0.6484413146972656,
      0.20325298607349396,
      -1.013407588005066,
      0.12812474370002747,
      0.5263211727142334,
      -0.018506009131669998,
      -0.19148339331150055,
      -0.11692798882722855,
      0.7289870381355286,
      0.24833856523036957
    ],
    [
      0.4814390242099762,
      -0.637907087802887,
      0.31222960352897644,
      -0.7210263013839722,
      0.31737324595451355,
      -0.6144886016845703,
      -1.1741238832473755,
      -0.2471148818731308,
      1.8965048789978027,
      0.8485969305038452,
      -1.4077129364013672,
      -0.07182139158248901
    ],
    [
      0.8692097663879395,
      -1.1913869380950928,
      0.37181389331817627,
      -0.6941184401512146,
      0.42867913842201233,
      0.5320707559585571,
      -0.9568954110145569,
      0.39825478196144104,
      1.4048352241516113,
      1.0320138931274414,
      -1.7212039232254028,
      -0.38006725907325745
    ],
    [
      1.1246201992034912,
      0.4398879110813141,
      -0.7457607984542847,
      2.513012170791626,
      1.463012933731079,
      -1.20150887966156,
      -0.9683908820152283,
      -0.057530466467142105,
      1.1198482513427734,
      -2.0838279724121094,
      -0.14688609540462494,
      -0.7893781661987305
    ],
    [
      -0.4285486936569214,
      0.9972959756851196,
      -0.4925318956375122,
      -0.5583620667457581,
      0.5636571049690247,
      -0.5269076824188232,
      -2.458846092224121,
      0.846716582775116,
      -0.22353090345859528,
      -0.05076673626899719,
      0.05126995965838432,
      -0.13837754726409912
    ],
    [
      -1.8401014804840088,
      1.3325496912002563,
      -0.22200113534927368,
      -1.3878726959228516,
      0.2375888079404831,
      0.7298662662506104,
      0.29894718527793884,
      -0.061721064150333405,
      1.025847315788269,
      0.8367399573326111,
      -0.06902400404214859,
      0.44764435291290283
    ],
    [
      -0.8694242835044861,
      0.9723035097122192,
      -0.15950363874435425,
      -0.7124677896499634,
      0.8584702014923096,
      0.039867300540208817,
      1.3402353525161743,
      -1.1985634565353394,
      0.5038793087005615,
      -0.8351037502288818,
      -1.654731035232544,
      -0.18135523796081543
    ],
    [
      -0.18287552893161774,
      -0.48359206318855286,
      -0.611757755279541,
      0.8829973936080933,
      0.29002645611763,
      0.0991942286491394,
      -0.24432890117168427,
      -0.4627765715122223,
      0.15430834889411926,
      0.2585901916027069,
      -0.9716325998306274,
      0.5866047739982605
    ],
    [
      -0.0719209536910057,
      0.21773742139339447,
      -0.6197714805603027,
      0.6262245774269104,
      -0.3060145974159241,
      -0.08919662982225418,
      -0.6010145545005798,
      -0.09637541323900223,
      -0.7238752841949463,
      1.4804621934890747,
      1.0583707094192505,
      -0.855090856552124
    ],
    [
      -0.8280778527259827,
      0.22092750668525696,
      -1.1838048696517944,
      0.6982352137565613,
      0.5870546102523804,
      -0.6747202277183533,
      1.117668628692627,
      0.2734821140766144,
      1.2432774305343628,
      0.0012366576120257378,
      0.4594602584838867,
      -1.7417577505111694
    ],
    [
      0.9899883270263672,
      -0.856722354888916,
      0.9955180883407593,
      -0.7634563446044922,
      0.6338821053504944,
      -1.7272907495498657,
      -1.9559448957443237,
      -0.8250656723976135,
      0.9526785016059875,
      0.8962069749832153,
      -0.7905943393707275,
      1.35671067237854
    ],
    [
      2.9958784580230713,
      0.8426467776298523,
      0.6283023357391357,
      -0.33778759837150574,
      1.2782695293426514,
      -1.6434593200683594,
      1.9425770044326782,
      -1.9647365808486938,
      -0.19074279069900513,
      1.5664712190628052,
      0.650271475315094,
      -1.0846418142318726
    ],
    [
      0.7842932939529419,
      1.1522612571716309,
      -0.14009569585323334,
      -0.5388342142105103,
      -0.7102817893028259,
      -0.271602064371109,
      0.9678773880004883,
      -0.4540066123008728,
      1.360251545906067,
      0.8489972949028015,
      -1.914431095123291,
      -0.9570585489273071
    ],
    [
      -0.7110708355903625,
      -0.4682407081127167,
      -0.007054185960441828,
      -0.8531870245933533,
      0.4332770109176636,
      1.4422967433929443,
      -0.6657723188400269,
      -2.117865562438965,
      0.39345717430114746,
      0.48048844933509827,
      -0.578381359577179,
      -0.47183510661125183
    ],
    [
      -0.18885815143585205,
      -0.07780115306377411,
      -0.8905486464500427,
      -0.4591419994831085,
      0.8132111430168152,
      0.08850674331188202,
      0.31360262632369995,
      0.6992803812026978,
      0.5736711025238037,
      -0.28266650438308716,
      -0.3382878303527832,
      -0.735552966594696
    ],
    [
      -0.4659348130226135,
      0.06481849402189255,
      -1.3775254487991333,
      1.2140178680419922,
      -0.5413841009140015,
      0.728579580783844,
      -0.6267001032829285,
      1.1332600116729736,
      -0.6521389484405518,
      1.2402907609939575,
      -0.027754858136177063,
      -0.8027483820915222
    ],
    [
      -0.38576698303222656,
      -0.8406213521957397,
      0.23473943769931793,
      -0.7149187326431274,
      0.45667508244514465,
      -0.7734454870223999,
      -1.3731378316879272,
      -0.38920852541923523,
      -0.06257222592830658,
      0.0014753106515854597,
      0.9585126042366028,
      -0.7581322193145752
    ],
    [
      1.7181499004364014,
      -0.5672730803489685,
      0.4610818028450012,
      1.4833452701568604,
      -0.5765859484672546,
      -0.14301760494709015,
      0.2100628763437271,
      -0.16525736451148987,
      -0.32225871086120605,
      -1.5358293056488037,
      -1.3570911884307861,
      2.2050795555114746
    ],
    [
      1.6158934831619263,
      -0.6201484203338623,
      -1.3352525234222412,
      1.1304060220718384,
      0.9211441278457642,
      0.6923598647117615,
      -0.950179398059845,
      -1.450011968612671,
      -0.5807631015777588,
      1.4025020599365234,
      -1.1379852294921875,
      -0.30904439091682434
    ],
    [
      -0.48058953881263733,
      0.5527011752128601,
      1.0911310911178589,
      1.1193759441375732,
      -1.4516180753707886,
      -0.4325278103351593,
      -0.2822199761867523,
      0.8679133653640747,
      0.2530655860900879,
      0.1846693605184555,
      -0.048541486263275146,
      -1.159737467765808
    ],
    [
      2.384373426437378,
      1.6305750608444214,
      1.0577967166900635,
      -1.1298755407333374,
      0.7082785964012146,
      -0.4655400812625885,
      -0.7208080887794495,
      -0.9981380105018616,
      -1.5437620878219604,
      -1.19329833984375,
      -0.6136390566825867,
      0.14869916439056396
    ],
    [
      2.086073637008667,
      0.5111407041549683,
      0.1570323407649994,
      0.9589353203773499,
      0.11608081310987473,
      0.4625796973705292,
      0.1472001075744629,
      -1.5630193948745728,
      -0.19853374361991882,
      -0.7884756326675415,
      -2.164559841156006,
      -0.7594243884086609
    ],
    [
      -0.6549532413482666,
      0.5258644819259644,
      -1.4787195920944214,
      -0.3338170051574707,
      0.8538205623626709,
      -0.024258995428681374,
      0.8642408847808838,
      -0.032381780445575714,
      2.2240686416625977,
      0.17529673874378204,
      1.9614933729171753,
      -0.45831528306007385
    ],
    [
      -0.12184839695692062,
      0.20692439377307892,
      2.5556411743164062,
      -1.3565367460250854,
      0.04690222069621086,
      1.1198506355285645,
      -1.4462648630142212,
      -0.0949106365442276,
      0.0015682355733588338,
      -0.45878085494041443,
      -0.8626886606216431,
      1.1235387325286865
    ],
    [
      -1.9921340942382812,
      -0.06800123304128647,
      0.677417516708374,
      -1.1897423267364502,
      0.5435647964477539,
      -0.749431312084198,
      -2.254549980163574,
      1.2000924348831177,
      1.016903042793274,
      -0.8421285152435303,
      -0.10907675325870514,
      0.49667888879776
    ],
    [
      -0.4305044710636139,
      -0.5336034297943115,
      1.19931161403656,
      -0.6002422571182251,
      -0.7410619258880615,
      -0.0037427169736474752,
      -0.295659601688385,
      -0.48717719316482544,
      0.922324001789093,
      -0.9365692734718323,
      1.1982868909835815,
      -0.7517910003662109
    ],
    [
      -1.2264095544815063,
      -0.18559427559375763,
      -0.5099510550498962,
      0.5048852562904358,
      -1.3139704465866089,
      -0.5270067453384399,
      0.22221526503562927,
      1.4211772680282593,
      -1.1419322490692139,
      1.2762384414672852,
      1.4117964506149292,
      -0.7221834063529968
    ],
    [
      -1.304214358329773,
      0.8472315669059753,
      -0.42676734924316406,
      1.7346175909042358,
      0.7749086618423462,
      -0.7128039598464966,
      -0.10025758296251297,
      0.5488910675048828,
      -0.8303782343864441,
      0.006124086212366819,
      -1.8251219987869263,
      -0.9723761677742004
    ],
    [
      -0.15139712393283844,
      -0.05339290201663971,
      -1.601518988609314,
      -0.6439615488052368,
      -0.6603257060050964,
      0.20448657870292664,
      0.4417499303817749,
      -0.43335050344467163,
      2.0238888263702393,
      0.3481593728065491,
      -0.2264481484889984,
      0.2196648269891739
    ],
    [
      1.505924940109253,
      0.17350570857524872,
      0.4127715229988098,
      -0.3900303244590759,
      0.7461968660354614,
      -1.499951958656311,
      -0.2161218523979187,
      -0.38838979601860046,
      0.035460878163576126,
      0.09875097870826721,
      -0.6243999004364014,
      -1.9571000337600708
    ],
    [
      -0.44834470748901367,
      -0.816330075263977,
      -1.0958646535873413,
      0.7409729957580566,
      -0.6381393074989319,
      -0.5886707305908203,
      -0.6735777258872986,
      0.08928098529577255,
      0.29658597707748413,
      -0.6158894896507263,
      0.6931528449058533,
      -0.8293572664260864
    ],
    [
      0.4046194553375244,
      0.8914668560028076,
      -1.3271211385726929,
      0.16555114090442657,
      0.5709314346313477,
      0.5085945129394531,
      1.1540673971176147,
      0.534466028213501,
      0.4306367337703705,
      0.043117932975292206,
      -2.258441209793091,
      -0.4917263686656952
    ],
    [
      -0.13614441454410553,
      0.45293745398521423,
      -1.0354582071304321,
      -0.5183933973312378,
      -0.253073126077652,
      0.895513653755188,
      0.04895893484354019,
      0.4240100085735321,
      1.0732450485229492,
      -1.3959944248199463,
      0.22446267306804657,
      0.8844968676567078
    ],
    [
      0.8968151807785034,
      0.23577462136745453,
      -2.22930645942688,
      0.7823929786682129,
      1.2524768114089966,
      -1.2064330577850342,
      0.850386381149292,
      -1.5046793222427368,
      0.7080681324005127,
      -1.1507563591003418,
      -0.6154178380966187,
      1.1777591705322266
    ],
    [
      1.5221505165100098,
      -1.1256450414657593,
      -0.27192196249961853,
      -1.0411837100982666,
      -0.24842195212841034,
      0.3679443895816803,
      -0.07865042239427567,
      0.00445345276966691,
      0.6907573342323303,
      -0.5358512997627258,
      0.14456024765968323,
      1.4965564012527466
    ],
    [
      -1.0157214403152466,
      0.4726000428199768,
      0.5441893935203552,
      -0.4284680187702179,
      -0.9280660152435303,
      0.8115547895431519,
      -0.9377720952033997,
      1.137261152267456,
      1.172587275505066,
      -0.2405061423778534,
      -0.5167780518531799,
      1.0703426599502563
    ],
    [
      0.7257378101348877,
      1.7144325971603394,
      -0.9089954495429993,
      0.41623058915138245,
      0.018669867888092995,
      -1.7478421926498413,
      1.4275233745574951,
      0.6483892202377319,
      -1.0895941257476807,
      1.0746266841888428,
      -0.17039801180362701,
      -0.32193922996520996
    ],
    [
      -1.0347914695739746,
      0.24477209150791168,
      -0.23252107203006744,
      -1.662053108215332,
      1.9502471685409546,
      1.843867540359497,
      -2.33286190032959,
      0.9733614921569824,
      -0.0314892902970314,
      0.1179284006357193,
      -1.3788553476333618,
      -1.530380129814148
    ],
    [
      -1.37338387966156,
      -1.6711087226867676,
      -0.09339313209056854,
      -0.5844064354896545,
      1.0138707160949707,
      -0.9079098105430603,
      1.2490469217300415,
      0.5769638419151306,
      0.6155466437339783,
      2.181520700454712,
      -0.23695418238639832,
      -0.7330372333526611
    ],
    [
      -0.0030794020276516676,
      0.1975988745689392,
      1.0905452966690063,
      1.116111397743225,
      1.5268652439117432,
      -0.5866879820823669,
      -0.5289579629898071,
      -3.009896755218506,
      0.5426844358444214,
      2.11137056350708,
      -1.9095155000686646,
      -0.7566936016082764
    ],
    [
      -1.0116426944732666,
      0.44740548729896545,
      1.3543342351913452,
      -1.404252290725708,
      0.837783932685852,
      1.0115230083465576,
      -2.0496015548706055,
      0.044087015092372894,
      0.2677496373653412,
      -0.28415000438690186,
      -0.14628665149211884,
      0.6165557503700256
    ],
    [
      0.2705746293067932,
      -0.814427375793457,
      -1.9447267055511475,
      -0.7579274773597717,
      0.5912837386131287,
      -1.7254589796066284,
      -0.004680171608924866,
      0.11278405785560608,
      0.8494675159454346,
      -0.5336402058601379,
      0.637413740158081,
      -1.2374801635742188
    ],
    [
      -0.29615116119384766,
      0.9666250944137573,
      -0.12038565427064896,
      0.9853556752204895,
      -0.1792556345462799,
      0.2618701756000519,
      -0.23443636298179626,
      0.150031179189682,
      0.25588497519493103,
      0.3085904121398926,
      1.3696506023406982,
      -0.1546044796705246
    ],
    [
      -1.529507040977478,
      -0.064102903008461,
      -0.7177377343177795,
      0.002973794238641858,
      1.2946782112121582,
      -0.2305765151977539,
      -1.1085816621780396,
      1.3602566719055176,
      -1.1245033740997314,
      0.14661476016044617,
      1.10141122341156,
      -1.1407355070114136
    ],
    [
      1.0225151777267456,
      -1.7343584299087524,
      -0.5139364004135132,
      2.1869921684265137,
      0.6789954900741577,
      -1.204437017440796,
      0.9499356746673584,
      -1.2273719310760498,
      2.3027634620666504,
      -0.4796192944049835,
      -1.285828948020935,
      1.0712201595306396
    ],
    [
      -0.5076011419296265,
      -0.07555172592401505,
      1.3001190423965454,
      -0.8167726397514343,
      0.3055770993232727,
      1.2211339473724365,
      -0.1774195432662964,
      1.129590392112732,
      0.9392473697662354,
      -2.1091184616088867,
      0.21622462570667267,
      0.683571457862854
    ],
    [
      -0.7042917013168335,
      0.5725721716880798,
      -0.6084356904029846,
      -0.782600462436676,
      -0.13417412340641022,
      -1.0242764949798584,
      1.3083847761154175,
      0.7549626231193542,
      0.9434255361557007,
      -1.4654102415079251e-05,
      -1.145447850227356,
      -1.2803843021392822
    ],
    [
      0.6981025338172913,
      -1.6306629180908203,
      -0.38996589183807373,
      1.5323363542556763,
      0.4716465175151825,
      -0.7470108866691589,
      -0.9212543368339539,
      0.41847872734069824,
      0.49571549892425537,
      -0.9606984853744507,
      -0.40926021337509155,
      0.7876175045967102
    ],
    [
      -0.42059895396232605,
      0.6619106531143188,
      -1.0255218744277954,
      0.9903170466423035,
      -0.7500548362731934,
      -0.1820879727602005,
      -0.42344188690185547,
      0.537753164768219,
      -1.0057640075683594,
      1.0354926586151123,
      -0.4662657678127289,
      -1.0076189041137695
    ],
    [
      -0.3129268288612366,
      0.5375022292137146,
      -0.6436261534690857,
      -0.15063494443893433,
      0.5631998181343079,
      1.074347972869873,
      -2.440159559249878,
      -0.19740349054336548,
      -0.6223011016845703,
      2.0379793643951416,
      0.07427746802568436,
      -0.6238833069801331
    ],
    [
      -0.1159532368183136,
      -0.947537362575531,
      -0.8552595376968384,
      0.6323268413543701,
      -0.16102422773838043,
      -0.2986535131931305,
      -0.26532289385795593,
      0.7813745737075806,
      0.5732549428939819,
      0.7797582149505615,
      -0.05099668726325035,
      1.405776858329773
    ],
    [
      -0.7298059463500977,
      0.32359060645103455,
      -0.41681814193725586,
      -0.960308313369751,
      0.40297970175743103,
      0.43409472703933716,
      -1.170797348022461,
      1.597766399383545,
      0.5858169198036194,
      0.22936482727527618,
      -0.5463159680366516,
      -0.8403928875923157
    ],
    [
      -0.7850825190544128,
      0.19813956320285797,
      -0.2586088478565216,
      0.7642409205436707,
      -0.8188479542732239,
      0.10639622062444687,
      -0.5296926498413086,
      0.34212526679039,
      -0.03473350405693054,
      0.6237747669219971,
      0.5179309844970703,
      -0.36871567368507385
    ],
    [
      -0.823912501335144,
      1.3927572965621948,
      -0.05871625244617462,
      -1.950923204421997,
      1.3748315572738647,
      -0.11463877558708191,
      -0.6864850521087646,
      -0.5726029872894287,
      0.28169912099838257,
      -1.4520094394683838,
      1.1968398094177246,
      0.7061735987663269
    ],
    [
      -0.4961336851119995,
      0.5918771624565125,
      -0.525492787361145,
      -0.8096851706504822,
      0.11471842974424362,
      -0.16003698110580444,
      -0.18091720342636108,
      -1.172546625137329,
      0.050608307123184204,
      1.1133488416671753,
      -0.12929993867874146,
      -0.23627345263957977
    ],
    [
      1.2901500463485718,
      -0.06417792290449142,
      -0.16975964605808258,
      0.9967771768569946,
      -0.4670841097831726,
      -0.8314482569694519,
      1.6680169105529785,
      1.5528855323791504,
      -0.3580666184425354,
      -1.5466722249984741,
      -1.0301339626312256,
      0.16882549226284027
    ],
    [
      -0.3992418050765991,
      -0.06762024760246277,
      -0.31886082887649536,
      0.44496333599090576,
      -0.3143572509288788,
      -0.1785631626844406,
      -0.09035461395978928,
      -0.28235965967178345,
      0.1898515373468399,
      0.7588875889778137,
      0.7324233651161194,
      -0.1704055666923523
    ],
    [
      0.6342714428901672,
      1.059302568435669,
      0.7629148960113525,
      1.1559581756591797,
      -1.5692142248153687,
      2.3031413555145264,
      0.1091441661119461,
      -0.5329658389091492,
      -1.1050628423690796,
      -0.8255431652069092,
      -1.4039665460586548,
      -1.0923895835876465
    ],
    [
      -0.9517004489898682,
      -0.2575971782207489,
      0.12650945782661438,
      -1.4907158613204956,
      1.03365957736969,
      0.7363805174827576,
      -0.2624431550502777,
      1.0728546380996704,
      -0.8502434492111206,
      0.8039400577545166,
      -0.30831122398376465,
      -0.8792495131492615
    ],
    [
      -0.9296133518218994,
      -0.5251802802085876,
      -0.6170104146003723,
      -0.1475898027420044,
      0.07489487528800964,
      -0.49357420206069946,
      0.6629824042320251,
      1.087823748588562,
      -0.8824152946472168,
      0.14256104826927185,
      0.2235410511493683,
      -0.11775121837854385
    ],
    [
      0.057379551231861115,
      -0.0008304473012685776,
      0.40060603618621826,
      -1.3921924829483032,
      0.5857598781585693,
      0.24231190979480743,
      -0.0619766041636467,
      0.18890562653541565,
      1.1545354127883911,
      -1.0501781702041626,
      -0.08933751285076141,
      1.1805086135864258
    ],
    [
      -0.5614983439445496,
      0.22645296156406403,
      0.08241955935955048,
      0.5216749906539917,
      -0.9134743809700012,
      0.30621984601020813,
      -0.503538966178894,
      0.8175051808357239,
      -0.5861964821815491,
      1.0601691007614136,
      0.278704971075058,
      -0.4283248484134674
    ],
    [
      0.5999816060066223,
      -1.6903660297393799,
      -0.4655666947364807,
      0.7352465391159058,
      -0.9099156856536865,
      -1.2182785272598267,
      -0.6834977865219116,
      0.3036297559738159,
      0.6034249067306519,
      0.25154516100883484,
      0.3704630136489868,
      -0.18873830139636993
    ],
    [
      0.8693493604660034,
      0.20414894819259644,
      -0.3365630805492401,
      -1.1059319972991943,
      -0.35157325863838196,
      -0.633152425289154,
      0.0029243091121315956,
      0.5657274723052979,
      -1.0952916145324707,
      1.4876307249069214,
      -0.26528897881507874,
      -0.6530250906944275
    ],
    [
      -0.06589851528406143,
      0.5489277243614197,
      1.3249787092208862,
      -0.7105506062507629,
      -0.0267381202429533,
      -0.4668092131614685,
      0.852257251739502,
      -0.3895665109157562,
      0.005512092262506485,
      0.17348039150238037,
      -0.23671752214431763,
      0.005285337567329407
    ],
    [
      -0.5256363153457642,
      0.7157639861106873,
      -1.53469717502594,
      0.829922080039978,
      -0.25743159651756287,
      0.4875282645225525,
      -0.501249372959137,
      0.11524870246648788,
      0.35583144426345825,
      0.5012597441673279,
      0.2506673336029053,
      -0.37214791774749756
    ],
    [
      0.5568747520446777,
      1.6517764329910278,
      -0.085601307451725,
      0.06383928656578064,
      0.7201133966445923,
      0.7854276299476624,
      -1.039694905281067,
      -1.4593360424041748,
      1.1515265703201294,
      -0.5655457973480225,
      -0.7082917094230652,
      -0.09170186519622803
    ],
    [
      1.984371542930603,
      -1.8090590238571167,
      0.1499168872833252,
      2.707747220993042,
      -1.4141345024108887,
      1.8790065050125122,
      1.5478415489196777,
      -1.5213130712509155,
      0.2252906858921051,
      -1.4244040250778198,
      -0.40850117802619934,
      -1.3285895586013794
    ],
    [
      -0.7618309259414673,
      -0.1654943823814392,
      1.0012025833129883,
      0.8444185853004456,
      -1.160091757774353,
      -0.7635354995727539,
      -1.1134811639785767,
      0.22531314194202423,
      0.6333202719688416,
