{
  "block_0": {
    "att.W_query.weight": [
      [
        0.16386209428310394,
        -0.2321929633617401,
        -0.36695125699043274,
        -0.1006527841091156,
        0.17853261530399323,
        0.025778580456972122,
        -0.004619448445737362,
        0.4938102066516876,
        0.27954134345054626,
        -0.13517160713672638,
        -0.6430262923240662,
        0.3777894973754883
      ],
      [
        0.12232019752264023,
        0.42300909757614136,
        -0.48838913440704346,
        0.43819716572761536,
        -0.5936065316200256,
        0.4832006096839905,
        -0.18902431428432465,
        0.3576476573944092,
        0.006623698398470879,
        -0.19761532545089722,
        -0.1032773032784462,
        -0.450906366109848
      ],
      [
        0.7630400657653809,
        0.07658553123474121,
        -0.7606154084205627,
        -0.1852811574935913,
        0.24576573073863983,
        -0.5904620289802551,
        0.015644092112779617,
        -0.12960615754127502,
        0.14034007489681244,
        0.09253507107496262,
        0.12189209461212158,
        -0.15826278924942017
      ],
      [
        -0.811862587928772,
        0.3481896221637726,
        -0.17951452732086182,
        0.12283968925476074,
        0.03237580135464668,
        -0.6764804720878601,
        0.6339209079742432,
        0.5881558060646057,
        0.9343244433403015,
        0.5481331944465637,
        -0.4976043105125427,
        -0.12470316141843796
      ],
      [
        -0.3334819972515106,
        -0.1550968885421753,
        -0.28271326422691345,
        -0.6818345785140991,
        0.20186103880405426,
        0.3542596101760864,
        -0.1857343465089798,
        0.20498034358024597,
        0.28940701484680176,
        -0.2311229407787323,
        -0.11774048954248428,
        -0.399095356464386
      ],
      [
        0.11691766232252121,
        0.46923744678497314,
        0.12230999767780304,
        -0.4190588891506195,
        -0.50167316198349,
        0.18416249752044678,
        0.07107054442167282,
        -0.5144455432891846,
        -0.06188376247882843,
        0.2747969329357147,
        -0.22501888871192932,
        0.4440115690231323
      ],
      [
        -0.24165688455104828,
        0.36126983165740967,
        -0.6409004926681519,
        0.7284992337226868,
        -0.0897255688905716,
        -0.01946781761944294,
        -0.051872238516807556,
        0.43078184127807617,
        -0.14016537368297577,
        -0.3636893630027771,
        -0.36042463779449463,
        -0.6254627704620361
      ],
      [
        -0.5122764110565186,
        0.1777935028076172,
        -0.5110015273094177,
        -0.07641580700874329,
        0.07942846417427063,
        -0.3754558861255646,
        0.9226933717727661,
        -0.7180781960487366,
        -0.36590999364852905,
        -0.2315177321434021,
        0.3277648091316223,
        0.37553977966308594
      ],
      [
        -0.5806277394294739,
        -0.31269580125808716,
        0.13436315953731537,
        0.3094717264175415,
        -0.18878965079784393,
        0.06987286359071732,
        -0.013921158388257027,
        0.7462525367736816,
        -0.14453069865703583,
        0.4154623746871948,
        -0.7490425705909729,
        0.12562306225299835
      ],
      [
        -0.2130737602710724,
        -0.38185203075408936,
        -0.29462188482284546,
        0.3839333653450012,
        0.3073708415031433,
        -0.427256315946579,
        -0.13121774792671204,
        -0.45129844546318054,
        0.8137831687927246,
        0.23798848688602448,
        0.3744205832481384,
        0.36204466223716736
      ],
      [
        0.576623797416687,
        -0.9524365663528442,
        0.15436269342899323,
        0.04352797940373421,
        0.1546231061220169,
        -0.29243388772010803,
        0.4152127504348755,
        0.39437583088874817,
        0.09040527045726776,
        0.5428365468978882,
        -0.07649968564510345,
        -1.024648666381836
      ],
      [
        0.36583566665649414,
        -0.4513336420059204,
        0.4329121708869934,
        0.4071149528026581,
        -0.6500781178474426,
        0.5709046125411987,
        0.0975763201713562,
        -0.2890452444553375,
        -0.28030189871788025,
        -0.659324049949646,
        -0.06882783770561218,
        0.07506927102804184
      ]
    ],
    "att.W_query.bias": null,
    "att.W_key.weight": [
      [
        0.16429992020130157,
        0.03053336776793003,
        -0.4758472144603729,
        0.23917727172374725,
        -0.60191810131073,
        -0.057421110570430756,
        0.07082724571228027,
        -0.5825169086456299,
        -0.0954337790608406,
        0.11235172301530838,
        0.3014068603515625,
        0.3294903635978699
      ],
      [
        0.11490725725889206,
        0.08185447752475739,
        -0.21814826130867004,
        0.1561361402273178,
        0.18747194111347198,
        -0.6040812134742737,
        -0.25410497188568115,
        0.009709804318845272,
        -0.1048111617565155,
        0.2582145035266876,
        0.9482260346412659,
        -0.34599602222442627
      ],
      [
        -0.2806036174297333,
        -0.019096100702881813,
        0.18058666586875916,
        0.5617756843566895,
        -0.8924797773361206,
        -0.4460859000682831,
        0.06854524463415146,
        0.40143004059791565,
        0.14569127559661865,
        0.337184339761734,
        -0.2839190661907196,
        0.022923815995454788
      ],
      [
        0.6534640789031982,
        0.06987034529447556,
        0.008488520048558712,
        0.5947870016098022,
        -0.22550727427005768,
        0.4296860992908478,
        0.34971362352371216,
        -0.4446810185909271,
        -0.8212248682975769,
        -1.0408179759979248,
        0.17335982620716095,
        -0.0390128493309021
      ],
      [
        0.08349156379699707,
        -0.4125770628452301,
        -0.4173954725265503,
        0.45401376485824585,
        0.31724047660827637,
        -0.11262869089841843,
        -0.11509916931390762,
        -0.5644909143447876,
        0.04787568002939224,
        0.31006401777267456,
        0.014377451501786709,
        0.28619328141212463
      ],
      [
        -0.367247611284256,
        -0.17656627297401428,
        0.45781800150871277,
        -0.4710410535335541,
        0.2711327373981476,
        -0.4167570471763611,
        0.07451559603214264,
        -0.12284498661756516,
        0.46815699338912964,
        -0.4419044554233551,
        0.0010944445384666324,
        0.40211015939712524
      ],
      [
        0.18993555009365082,
        0.24748481810092926,
        -0.4917730391025543,
        -0.31669142842292786,
        0.5586228966712952,
        -0.0356636680662632,
        -0.2636769115924835,
        0.34257960319519043,
        0.0034866617061197758,
        0.5084923505783081,
        0.3531915843486786,
        -0.6734804511070251
      ],
      [
        -0.6763960719108582,
        -0.8686168193817139,
        0.17241470515727997,
        -0.15623055398464203,
        0.097029909491539,
        0.08887695521116257,
        -0.20085851848125458,
        0.5302262902259827,
        0.3147571384906769,
        -0.35515838861465454,
        0.5664594769477844,
        0.2521296441555023
      ],
      [
        0.5523738861083984,
        0.2821201682090759,
        -0.38489195704460144,
        -1.1958305835723877,
        0.338689386844635,
        -0.18571269512176514,
        0.26369762420654297,
        0.19168218970298767,
        -0.1798696517944336,
        -0.2353009730577469,
        0.07166818529367447,
        0.04955579340457916
      ],
      [
        -0.0817490741610527,
        -0.5245590209960938,
        0.322609543800354,
        0.12384146451950073,
        -0.037414226680994034,
        0.6505972146987915,
        0.07708439230918884,
        0.3208604156970978,
        -0.7795785069465637,
        -0.36330321431159973,
        0.12269289046525955,
        -0.1271682232618332
      ],
      [
        0.4603642225265503,
        0.25330042839050293,
        -0.7171022891998291,
        0.433393269777298,
        0.6658597588539124,
        0.3047701120376587,
        -0.2421061396598816,
        -0.3214989900588989,
        -0.16523057222366333,
        -0.1501544862985611,
        -0.8785877823829651,
        0.6778237223625183
      ],
      [
        -0.5475447773933411,
        0.08228529989719391,
        -0.2611526846885681,
        0.43988144397735596,
        -0.09383784234523773,
        -0.5399577617645264,
        0.8997348546981812,
        -0.14412541687488556,
        0.1897280514240265,
        0.5714477300643921,
        -0.174251988530159,
        0.03221827372908592
      ]
    ],
    "att.W_key.bias": null,
    "att.W_value.weight": [
      [
        0.21380682289600372,
        -0.11330138146877289,
        -0.5012807250022888,
        -0.1751994639635086,
        0.17004792392253876,
        0.2664342522621155,
        0.08139907568693161,
        0.14490017294883728,
        -0.4198687970638275,
        0.4074650704860687,
        -0.07631409168243408,
        0.28054532408714294
      ],
      [
        -0.25614431500434875,
        -0.09155020862817764,
        -0.005489916540682316,
        -0.04224048927426338,
        -0.24298608303070068,
        0.32179492712020874,
        -0.43505677580833435,
        0.2897557318210602,
        -0.19713014364242554,
        -0.02454490028321743,
        0.7125162482261658,
        0.39176875352859497
      ],
      [
        0.3764333426952362,
        -0.09862659871578217,
        0.08326170593500137,
        0.07493966817855835,
        0.7889549732208252,
        -0.0262264646589756,
        -0.4241296350955963,
        0.2900277376174927,
        0.09191606938838959,
        -0.18211549520492554,
        -0.11791396886110306,
        -0.2258131355047226
      ],
      [
        0.12526094913482666,
        -0.5538780093193054,
        0.08384105563163757,
        0.3663785755634308,
        -0.11508475989103317,
        0.21028193831443787,
        -0.21267685294151306,
        -0.5627143383026123,
        0.22208477556705475,
        0.0017193147214129567,
        -0.2369043231010437,
        0.19968494772911072
      ],
      [
        -0.4260234832763672,
        -0.3892134428024292,
        0.3417443037033081,
        0.3159586787223816,
        0.32954907417297363,
        -0.06678735464811325,
        0.5736381411552429,
        0.37541547417640686,
        -0.20616355538368225,
        -0.22027653455734253,
        0.16359707713127136,
        -0.032134659588336945
      ],
      [
        0.17533370852470398,
        -0.24551033973693848,
        -0.30708301067352295,
        -0.15434926748275757,
        -0.19906100630760193,
        0.5564355254173279,
        0.33321675658226013,
        0.23678673803806305,
        0.4297180473804474,
        -0.44306105375289917,
        0.03516200929880142,
        -0.13186407089233398
      ],
      [
        0.12389564514160156,
        -0.22862055897712708,
        0.07805047184228897,
        -0.36659911274909973,
        -0.11712078750133514,
        0.28701552748680115,
        0.1446707844734192,
        -0.28697267174720764,
        0.5820208787918091,
        0.4803208112716675,
        -0.07543305307626724,
        -0.07950738072395325
      ],
      [
        -0.045649267733097076,
        0.3882628083229065,
        0.15628699958324432,
        -0.011026115156710148,
        -0.5822018980979919,
        -0.12370868772268295,
        0.02258053794503212,
        0.3393077552318573,
        -0.13833989202976227,
        0.30314287543296814,
        0.1894446313381195,
        -0.20318862795829773
      ],
      [
        -0.4620802402496338,
        0.4366500675678253,
        0.056819286197423935,
        -0.39847683906555176,
        0.30123016238212585,
        0.4357019066810608,
        0.17697247862815857,
        -0.1588549017906189,
        0.03364957869052887,
        -0.37158313393592834,
        0.23703375458717346,
        -0.13427530229091644
      ],
      [
        -0.06217365711927414,
        0.03862819820642471,
        -0.5504388213157654,
        0.02479688823223114,
        -0.2460530549287796,
        -0.1279498040676117,
        0.39264440536499023,
        -0.1664864718914032,
        0.1854715347290039,
        -0.3666551411151886,
        0.3062189817428589,
        0.4655686318874359
      ],
      [
        -0.3176851272583008,
        -0.10799036175012589,
        -0.07650446146726608,
        -0.07994230091571808,
        0.331286758184433,
        -0.3087087571620941,
        -0.04648241773247719,
        -0.00481347506865859,
        -0.39226001501083374,
        0.4575941264629364,
        0.08798790723085403,
        0.1569889336824417
      ],
      [
        -0.15756158530712128,
        0.014692283235490322,
        0.5674169659614563,
        -0.07616612315177917,
        -0.0019508772529661655,
        -0.34916844964027405,
        -0.20047864317893982,
        -0.5613042116165161,
        0.21188797056674957,
        0.15722773969173431,
        0.11650045961141586,
        0.24547886848449707
      ]
    ],
    "att.W_value.bias": null,
    "att.out_proj.weight": [
      [
        0.28445670008659363,
        0.2668847143650055,
        -0.1156831830739975,
        -0.29358482360839844,
        -0.8341932892799377,
        -0.3103514313697815,
        -0.16969025135040283,
        -0.038001447916030884,
        0.08874848484992981,
        0.06557642668485641,
        0.13981235027313232,
        0.20411601662635803
      ],
      [
        0.1122833713889122,
        0.5064828991889954,
        -0.25334349274635315,
        -0.2030887007713318,
        -0.004501033574342728,
        0.25444939732551575,
        0.22627362608909607,
        0.08289964497089386,
        0.27401769161224365,
        0.06407926231622696,
        -0.3742532432079315,
        -0.27078181505203247
      ],
      [
        -0.39128774404525757,
        0.281659334897995,
        0.4849199950695038,
        0.006028246134519577,
        0.01704796403646469,
        0.06753437221050262,
        -0.09830733388662338,
        0.05317910760641098,
        -0.389649897813797,
        0.23870588839054108,
        -0.11618576943874359,
        0.05382217839360237
      ],
      [
        0.3445727527141571,
        -0.17161980271339417,
        0.09660375118255615,
        -0.26978254318237305,
        0.06935928761959076,
        0.4539318084716797,
        0.5705641508102417,
        -0.15885727107524872,
        -0.15790227055549622,
        -0.2091905176639557,
        0.21256835758686066,
        -0.23112037777900696
      ],
      [
        -0.038826074451208115,
        -0.009175493381917477,
        -0.17371122539043427,
        0.5860536098480225,
        0.12377262115478516,
        -0.005637555383145809,
        0.25077974796295166,
        -0.023994402959942818,
        0.11722477525472641,
        -0.22741098701953888,
        -0.09460289031267166,
        0.5643561482429504
      ],
      [
        -0.3049844801425934,
        -0.15479710698127747,
        -0.23382580280303955,
        -0.26790153980255127,
        0.2055656760931015,
        -0.07645213603973389,
        -0.12686552107334137,
        0.04130546748638153,
        -0.04574904963374138,
        0.11666836589574814,
        -0.12999273836612701,
        0.06413529068231583
      ],
      [
        -0.03275738283991814,
        -0.08616979420185089,
        -0.5376552939414978,
        -0.13353469967842102,
        -0.15432117879390717,
        0.263825923204422,
        -0.1345624178647995,
        -0.21573249995708466,
        -0.7842174768447876,
        0.03725680336356163,
        -0.15818803012371063,
        0.039817262440919876
      ],
      [
        0.007865323685109615,
        -0.40513452887535095,
        0.25500914454460144,
        0.47494566440582275,
        -0.4689169228076935,
        0.0057136607356369495,
        0.07370269298553467,
        0.2856787443161011,
        0.12805573642253876,
        0.06360170245170593,
        -0.4084174633026123,
        -0.39202016592025757
      ],
      [
        0.14168135821819305,
        0.33993348479270935,
        -0.3268774151802063,
        0.24773624539375305,
        0.42239174246788025,
        0.033785343170166016,
        -0.33845770359039307,
        0.2795659899711609,
        -0.018741216510534286,
        0.3656006455421448,
        0.06485007703304291,
        -0.25618433952331543
      ],
      [
        0.3051818907260895,
        -0.017550960183143616,
        0.3614974319934845,
        -0.1445125788450241,
        0.29871541261672974,
        -0.1492346078157425,
        -0.44175562262535095,
        -0.3937913477420807,
        0.20606113970279694,
        -0.2569875121116638,
        0.0373954139649868,
        -0.16138894855976105
      ],
      [
        -0.47348320484161377,
        -0.44472986459732056,
        0.043805383145809174,
        -0.05672341212630272,
        -0.07931670546531677,
        0.1034996286034584,
        0.07724691182374954,
        -0.23481155931949615,
        0.31666773557662964,
        0.46567463874816895,
        0.23122340440750122,
        0.2226996272802353
      ],
      [
        -0.05313052609562874,
        -0.14103712141513824,
        -0.04666994884610176,
        -0.2675668001174927,
        0.07529722899198532,
        -0.814985990524292,
        -0.15840201079845428,
        0.5119601488113403,
        -0.10140769183635712,
        -0.5830158591270447,
        0.5321252942085266,
        0.12470464408397675
      ]
    ],
    "att.out_proj.bias": [
      -0.06149718537926674,
      0.0124448761343956,
      0.028515808284282684,
      -0.03359132260084152,
      0.006630862131714821,
      -0.044426318258047104,
      0.07467496395111084,
      0.06380508095026016,
      -0.04960707947611809,
      -0.021319637075066566,
      0.010157447308301926,
      0.10727344453334808
    ],
    "norm1.scale": [
      0.8699420094490051,
      0.6022619009017944,
      0.6153541207313538,
      0.7070585489273071,
      0.7414596080780029,
      0.7109547257423401,
      0.5305505990982056,
      0.7918991446495056,
      0.7283040881156921,
      0.8502123355865479,
      0.7320107817649841,
      0.4394472539424896
    ],
    "norm1.shift": [
      0.16697587072849274,
      -0.03611467033624649,
      -0.035101067274808884,
      0.15020591020584106,
      -0.022635849192738533,
      0.40788406133651733,
      -0.14763303101062775,
      -0.24160175025463104,
      -0.11786796897649765,
      -0.19035065174102783,
      0.0005573041271418333,
      -0.24864698946475983
    ],
    "norm2.scale": [
      0.6162846684455872,
      0.5776025056838989,
      0.6937611103057861,
      0.7111369967460632,
      0.6082687973976135,
      0.7467960715293884,
      0.6032958030700684,
      0.6449822187423706,
      0.684593141078949,
      0.6849231719970703,
      0.6876032948493958,
      0.5355574488639832
    ],
    "norm2.shift": [
      0.013965082354843616,
      0.5807921886444092,
      -0.025740711018443108,
      -0.0972909927368164,
      0.3433220386505127,
      0.10362260788679123,
      -0.5753157138824463,
      -0.05547943338751793,
      0.0036716756876558065,
      -0.26674336194992065,
      0.29480963945388794,
      -0.09665173292160034
    ],
    "ff.lin1.weight": [
      [
        0.3966507613658905,
        -0.20782510936260223,
        0.525067925453186,
        -0.2097351849079132,
        -0.056544773280620575,
        0.07088544964790344,
        0.5006352663040161,
        0.312682181596756,
        -0.7519072890281677,
        0.10533373802900314,
        -0.5186508297920227,
        0.13900454342365265
      ],
      [
        -0.3069441318511963,
        -0.9205937385559082,
        0.05860934033989906,
        0.5290231108665466,
        -0.1450551301240921,
        0.4915230870246887,
        0.06888595968484879,
        -0.2648058533668518,
        0.41097894310951233,
        0.31080570816993713,
        0.008223344571888447,
        0.156955748796463
      ],
      [
        -0.15549920499324799,
        -0.018018322065472603,
        0.2599678337574005,
        -0.039555177092552185,
        -0.4172998368740082,
        -0.2789190411567688,
        -0.10208691656589508,
        -0.12136787921190262,
        0.8954052925109863,
        0.007054367568343878,
        -0.0845785066485405,
        -0.34782883524894714
      ],
      [
        0.3137875199317932,
        -0.37210914492607117,
        0.5678296089172363,
        -0.527033805847168,
        -0.19937528669834137,
        -0.16605862975120544,
        -0.08449003100395203,
        -0.39966967701911926,
        0.1547810435295105,
        0.08823367208242416,
        0.0038322049658745527,
        0.1819957196712494
      ],
      [
        -0.23787787556648254,
        -0.025256598368287086,
        0.11271713674068451,
        -0.19867847859859467,
        0.2211942970752716,
        0.28272879123687744,
        -0.13693487644195557,
        -0.1984414905309677,
        0.23895511031150818,
        0.5271329879760742,
        -0.41214436292648315,
        -0.07282502949237823
      ],
      [
        -0.2126787155866623,
        0.04452028498053551,
        -0.3349386751651764,
        0.5576198697090149,
        -0.487762451171875,
        0.4468918740749359,
        0.2740804851055145,
        -0.19161774218082428,
        -0.10114730149507523,
        0.1716507375240326,
        0.0065021575428545475,
        -0.26379990577697754
      ],
      [
        0.14891520142555237,
        -0.13634978234767914,
        -0.3785831928253174,
        -0.08630577474832535,
        0.3667663037776947,
        -0.37398669123649597,
        -0.0811169445514679,
        -0.23749440908432007,
        0.4659137725830078,
        0.026904068887233734,
        -0.07274898886680603,
        0.08505508303642273
      ],
      [
        0.4083874225616455,
        0.06804096698760986,
        0.7181448340415955,
        0.39479348063468933,
        0.0644041895866394,
        -0.14757078886032104,
        0.07467369735240936,
        -0.22412504255771637,
        -0.1046651229262352,
        -0.2684798836708069,
        -0.08981145173311234,
        -0.46776434779167175
      ],
      [
        -0.43197113275527954,
        -0.19678577780723572,
        0.16238495707511902,
        -0.2666064500808716,
        0.09189052879810333,
        -0.39525437355041504,
        0.29755762219429016,
        0.6112924814224243,
        -0.06828832626342773,
        0.7725642323493958,
        -0.9643864631652832,
        0.060359593480825424
      ],
      [
        -0.11889450997114182,
        -0.39350226521492004,
        0.1659768521785736,
        0.7770144939422607,
        -0.2589714229106903,
        -0.057662177830934525,
        0.9975142478942871,
        -0.3212200701236725,
        -0.48476627469062805,
        -0.0220091100782156,
        -0.5138452053070068,
        -0.45737314224243164
      ],
      [
        -0.24379952251911163,
        -0.6253861784934998,
        0.20600150525569916,
        -0.5190058946609497,
        -0.33880433440208435,
        0.2808936834335327,
        0.5894708633422852,
        0.9020496010780334,
        -0.19035041332244873,
        0.4875233769416809,
        -0.19284787774085999,
        0.14088797569274902
      ],
      [
        0.5499304533004761,
        -0.5969746708869934,
        0.11952027678489685,
        -0.13523022830486298,
        -0.34126347303390503,
        -0.8184096813201904,
        -0.19963307678699493,
        0.5093417167663574,
        0.029632732272148132,
        0.23907914757728577,
        0.192033052444458,
        0.4990949332714081
      ],
      [
        0.1898469477891922,
        -0.3875030279159546,
        -0.27593404054641724,
        0.7152190804481506,
        0.06743162125349045,
        0.052394721657037735,
        0.1311466544866562,
        0.3576849102973938,
        -0.510145902633667,
        -0.20474804937839508,
        -0.02335553988814354,
        0.044360559433698654
      ],
      [
        -0.07104859501123428,
        -0.22866584360599518,
        -0.12323018908500671,
        0.2022811621427536,
        -0.0339592806994915,
        0.07116394490003586,
        0.8877291679382324,
        0.39634469151496887,
        -0.791676938533783,
        -0.4438937306404114,
        -0.3542342185974121,
        0.15948668122291565
      ],
      [
        0.24997583031654358,
        -0.09443803131580353,
        0.3576698899269104,
        0.13967925310134888,
        -0.8823921084403992,
        -0.07216624915599823,
        -0.28211554884910583,
        -0.060343168675899506,
        -0.31114354729652405,
        0.4081079959869385,
        -0.6314750909805298,
        0.5383330583572388
      ],
      [
        -0.6867802739143372,
        -0.027850136160850525,
        -0.2051655352115631,
        0.4844912886619568,
        0.21083496510982513,
        0.19855429232120514,
        -0.11008475720882416,
        0.08062208443880081,
        0.008103710599243641,
        0.49450716376304626,
        -0.7928836345672607,
        -0.11747432500123978
      ],
      [
        -0.21486060321331024,
        -0.29755154252052307,
        0.0250279288738966,
        -0.2509360611438751,
        0.322244793176651,
        0.40938878059387207,
        0.12096389383077621,
        -0.1638079583644867,
        0.1549023538827896,
        -0.416300505399704,
        -0.1238182932138443,
        -0.19050750136375427
      ],
      [
        0.17323991656303406,
        0.2857193350791931,
        -0.27420535683631897,
        -0.1298421174287796,
        -0.4083481729030609,
        -0.7246739268302917,
        0.19287998974323273,
        0.6649337410926819,
        0.05590144172310829,
        0.26753878593444824,
        0.27302998304367065,
        -0.18409152328968048
      ],
      [
        -0.28654566407203674,
        0.2529859244823456,
        0.3878680467605591,
        -0.0889829620718956,
        -0.3854759931564331,
        0.2538582682609558,
        0.18713361024856567,
        -0.33078330755233765,
        0.0895560011267662,
        0.295249342918396,
        -0.6272779107093811,
        0.06733832508325577
      ],
      [
        -0.284189909696579,
        -0.1963718831539154,
        0.2977697551250458,
        0.30332276225090027,
        -0.05139809846878052,
        -0.2677740156650543,
        0.7709044814109802,
        -0.24872903525829315,
        0.10345085710287094,
        -0.2480657994747162,
        -0.18170562386512756,
        0.2751128673553467
      ],
      [
        0.4713636040687561,
        -0.5491026043891907,
        0.29794958233833313,
        0.14868438243865967,
        -0.19443324208259583,
        0.018448643386363983,
        0.09679844230413437,
        0.3250914216041565,
        0.22867198288440704,
        -0.23715044558048248,
        -0.3213737905025482,
        -0.6059051752090454
      ],
      [
        0.06452272832393646,
        -0.9277529716491699,
        0.46287691593170166,
        -0.12042488902807236,
        0.2401008903980255,
        0.3234096169471741,
        -0.11516537517309189,
        0.19684623181819916,
        -0.005024938378483057,
        -0.11813651770353317,
        -0.4637693464756012,
        0.282140851020813
      ],
      [
        -0.6689926385879517,
        0.2993047535419464,
        -0.660972535610199,
        0.49473753571510315,
        -0.13677920401096344,
        -0.05508754029870033,
        0.11740704625844955,
        0.17705018818378448,
        -0.09810205549001694,
        -0.3612608313560486,
        -0.44677212834358215,
        0.4191196858882904
      ],
      [
        0.10493950545787811,
        -0.5974231958389282,
        -0.10456714779138565,
        0.113153837621212,
        0.11144509166479111,
        0.09815990179777145,
        -0.5154720544815063,
        0.06976869702339172,
        -0.0032557875383645296,
        0.8080933690071106,
        -0.038732774555683136,
        -0.08864730596542358
      ],
      [
        -0.12032878398895264,
        -0.7880207896232605,
        0.2972716987133026,
        0.03219594433903694,
        -0.020194770768284798,
        -0.11047915369272232,
        -0.013185031712055206,
        -0.20274198055267334,
        0.6754385828971863,
        -0.22756066918373108,
        0.022580472752451897,
        0.49536043405532837
      ],
      [
        0.21778593957424164,
        -0.2708342671394348,
        -0.10820756107568741,
        0.385009765625,
        -0.71994948387146,
        -0.12029135972261429,
        -0.2710791826248169,
        -0.44404348731040955,
        0.2958882451057434,
        0.5533494353294373,
        0.34495142102241516,
        -0.07840508967638016
      ],
      [
        0.15124788880348206,
        0.04003126174211502,
        -0.3081410825252533,
        -0.2562561333179474,
        -0.355216383934021,
        -0.012314566411077976,
        -0.18164268136024475,
        0.38683369755744934,
        0.4364762604236603,
        -0.19567865133285522,
        0.5774951577186584,
        -0.044720206409692764
      ],
      [
        -0.19185854494571686,
        -0.6645904779434204,
        -0.2234867513179779,
        0.29467493295669556,
        -0.6518353819847107,
        -0.09124919772148132,
        0.3640994429588318,
        -0.03667820245027542,
        0.07453327625989914,
        -0.036377400159835815,
        0.40371546149253845,
        -0.03024018369615078
      ],
      [
        -0.6507403254508972,
        -0.06639717519283295,
        0.3039136230945587,
        -0.3543795943260193,
        -0.39402058720588684,
        0.10036206245422363,
        0.39760667085647583,
        -0.29132360219955444,
        -0.37177926301956177,
        0.11635738611221313,
        0.33908918499946594,
        0.6421915888786316
      ],
      [
        0.23560720682144165,
        -0.03927149996161461,
        -0.23203431069850922,
        0.16666708886623383,
        -0.017432276159524918,
        -0.6959695219993591,
        0.2236671894788742,
        0.49700695276260376,
        -0.4814887046813965,
        0.2788812220096588,
        -0.3884660005569458,
        -0.032545339316129684
      ],
      [
        -0.31788456439971924,
        -0.544828474521637,
        -0.5143272876739502,
        0.3197263479232788,
        0.35023683309555054,
        0.30613473057746887,
        0.049557097256183624,
        0.7773422002792358,
        -0.13999415934085846,
        -0.16534557938575745,
        -0.18347881734371185,
        -0.0800912007689476
      ],
      [
        0.3026431202888489,
        -0.17354844510555267,
        -0.7063475847244263,
        -0.3960908055305481,
        -0.24246138334274292,
        0.036930572241544724,
        0.663408637046814,
        -0.12891437113285065,
        0.015403243713080883,
        0.8104742169380188,
        0.13660737872123718,
        0.15583795309066772
      ],
      [
        0.06619569659233093,
        0.2413337677717209,
        0.471029669046402,
        -0.09580650180578232,
        -0.5750190615653992,
        -0.21686619520187378,
        -0.14396168291568756,
        0.09709847718477249,
        -0.04735254868865013,
        0.5413409471511841,
        -0.18278294801712036,
        0.27484968304634094
      ],
      [
        0.4979768693447113,
        0.08301170915365219,
        -0.499958872795105,
        -0.08814810961484909,
        -0.24755510687828064,
        0.08530760556459427,
        0.4561399817466736,
        0.28987646102905273,
        -0.15353944897651672,
        0.17579801380634308,
        -0.4999038875102997,
        -0.31759363412857056
      ],
      [
        0.5298748016357422,
        -0.40227872133255005,
        0.10128440707921982,
        0.25695547461509705,
        0.134215846657753,
        -0.8635404109954834,
        0.43534889817237854,
        -0.035157930105924606,
        0.17013995349407196,
        0.4081474244594574,
        -0.1373230367898941,
        -0.09090620279312134
      ],
      [
        -0.39567580819129944,
        0.35140395164489746,
        -0.1258225440979004,
        0.29558008909225464,
        -0.3414515554904938,
        0.09866014122962952,
        0.21126987040042877,
        0.1009020134806633,
        0.16743788123130798,
        -0.2856485843658447,
        0.16290897130966187,
        -0.619297981262207
      ],
      [
        0.15112075209617615,
        0.14716513454914093,
        -0.37640252709388733,
        0.2564573585987091,
        0.08491326868534088,
        -0.16331793367862701,
        -0.07481364905834198,
        -0.051035795360803604,
        0.2825350761413574,
        0.25939029455184937,
        0.01911908946931362,
        -0.30488425493240356
      ],
      [
        0.08353112637996674,
        0.013151133432984352,
        -0.17080852389335632,
        0.1982397586107254,
        -0.47977206110954285,
        -0.1760830283164978,
        0.7591313123703003,
        -0.3139795660972595,
        -0.4157024025917053,
        0.11374601721763611,
        0.33412081003189087,
        -0.31402432918548584
      ],
      [
        0.12383769452571869,
        -0.4828193485736847,
        0.1665942519903183,
        -0.14286236464977264,
        -0.4847117066383362,
        0.33411461114883423,
        0.09375956654548645,
        -0.5339052677154541,
        0.48406967520713806,
        0.38576173782348633,
        0.2995480000972748,
        0.11803095042705536
      ],
      [
        0.172687828540802,
        -0.5204306244850159,
        0.38204506039619446,
        -0.2783591151237488,
        0.31161004304885864,
        -0.31110748648643494,
        0.44827237725257874,
        0.043494705110788345,
        -0.18067233264446259,
        0.7091047763824463,
        -0.4038512408733368,
        -0.18727487325668335
      ],
      [
        -0.26567336916923523,
        -0.2620268166065216,
        0.3199675679206848,
        0.8827571272850037,
        0.05069999024271965,
        -0.026514166966080666,
        -0.03906155750155449,
        -0.4438624978065491,
        -0.3180806040763855,
        -0.3687725067138672,
        -0.07870733737945557,
        0.33685922622680664
      ],
      [
        -0.5039738416671753,
        0.2279391884803772,
        0.26780474185943604,
        0.113739974796772,
        -0.5005490183830261,
        -0.22155992686748505,
        0.21278321743011475,
        -0.20230554044246674,
        0.268268883228302,
        0.6566937565803528,
        -0.5858123302459717,
        0.24289710819721222
      ],
      [
        -0.20293213427066803,
        -0.1423339992761612,
        -0.5527893304824829,
        0.3937557637691498,
        0.3509289622306824,
        -0.33327025175094604,
        -0.10730314254760742,
        0.1584610790014267,
        -0.07871159166097641,
        -0.2676772475242615,
        0.2105112373828888,
        0.19987355172634125
      ],
      [
        -0.3079669177532196,
        -0.44005128741264343,
        -0.011308807879686356,
        0.0009232870070263743,
        0.3292210102081299,
        0.6662063002586365,
        0.4880389869213104,
        -0.15237952768802643,
        0.04617741331458092,
        0.007353950757533312,
        -0.33952319622039795,
        -0.5756301879882812
      ],
      [
        -0.1818537712097168,
        -0.1372537761926651,
        0.3088383078575134,
        -0.5281702876091003,
        -0.046157702803611755,
        0.20366710424423218,
        0.20056948065757751,
        0.2566257119178772,
        -0.47437793016433716,
        0.7932618260383606,
        -0.0950876846909523,
        -0.18273966014385223
      ],
      [
        -0.031802523881196976,
        -0.3323039710521698,
        0.02170899510383606,
        0.03477570787072182,
        0.1534033566713333,
        -0.3607676029205322,
        -0.45471057295799255,
        0.46225467324256897,
        0.7120195031166077,
        0.08950861543416977,
        -0.41531944274902344,
        0.33280205726623535
      ],
      [
        0.001413188292644918,
        -1.0220550298690796,
        -0.1975744217634201,
        -0.4353296160697937,
        0.10459315776824951,
        0.018954092636704445,
        0.8126839995384216,
        -0.3136989176273346,
        0.12098313868045807,
        -0.2272152155637741,
        -0.4685136675834656,
        0.6276081800460815
      ],
      [
        -0.45701369643211365,
        0.13512806594371796,
        0.20497624576091766,
        0.22980478405952454,
        -0.8092732429504395,
        0.1603490263223648,
        -0.315803587436676,
        0.6155194044113159,
        0.39996859431266785,
        -0.04889384284615517,
        -0.18690940737724304,
        0.25749772787094116
      ]
    ],
    "ff.lin1.bias": [
      -0.7542858719825745,
      -0.3346930146217346,
      -0.6271265149116516,
      -0.5178454518318176,
      -0.4620708227157593,
      -0.31389814615249634,
      -0.4046526849269867,
      -0.7139920592308044,
      -0.5411102771759033,
      -0.7636563181877136,
      -0.5432567000389099,
      -0.4685573875904083,
      -0.6421952843666077,
      -0.5523735284805298,
      -0.5005465149879456,
      -0.6056927442550659,
      -0.6158227324485779,
      -0.7436116337776184,
      -0.4412623345851898,
      -0.3085397779941559,
      -0.38119620084762573,
      -0.317522794008255,
      -0.8512243628501892,
      -0.42105600237846375,
      -0.4985447824001312,
      -0.8921855092048645,
      -0.8016247749328613,
      -0.2710859477519989,
      -0.6776850819587708,
      -0.6622521877288818,
      -0.8598795533180237,
      -0.732120931148529,
      -0.31263232231140137,
      -0.563438892364502,
      -0.4727233350276947,
      -0.9172722697257996,
      -0.4246007204055786,
      -0.5155251026153564,
      -0.844003438949585,
      -0.3712916076183319,
      -0.7611764669418335,
      -0.43516820669174194,
      -0.7076006531715393,
      -0.375527560710907,
      -0.5560845136642456,
      -0.7651051878929138,
      -0.5361129641532898,
      -0.7576156258583069
    ],
    "ff.lin2.weight": [
      [
        0.14283260703086853,
        -0.309778094291687,
        -0.3395051956176758,
        -0.24467653036117554,
        -0.30687248706817627,
        -0.1484108418226242,
        0.0817117989063263,
        -0.226878821849823,
        0.1684577614068985,
        0.2924961447715759,
        -0.36892202496528625,
        -0.33888742327690125,
        -0.11733531951904297,
        -0.2394932210445404,
        0.28962892293930054,
        -0.5695033073425293,
        0.09844761341810226,
        0.2750907242298126,
        -0.2595849335193634,
        -0.06384284049272537,
        0.4394039511680603,
        0.1585104763507843,
        -0.07420496642589569,
        0.43909522891044617,
        0.1427200734615326,
        0.13658857345581055,
        -0.2361316978931427,
        0.19511397182941437,
        0.11230450868606567,
        -0.1489696353673935,
        0.29178619384765625,
        -0.030933108180761337,
        -0.09777600318193436,
        0.16655264794826508,
        -0.14274470508098602,
        -0.0012874612584710121,
        -0.15867376327514648,
        0.3482801020145416,
        0.36999207735061646,
        0.000715541304089129,
        -0.0040415613912045956,
        -0.25996652245521545,
        -0.41451355814933777,
        -0.4349804222583771,
        -0.12186650931835175,
        0.36552682518959045,
        0.35646623373031616,
        -0.019986992701888084
      ],
      [
        0.07270748168230057,
        0.36266767978668213,
        -0.14142858982086182,
        -0.03870032727718353,
        0.07163821905851364,
        -0.06966730207204819,
        -0.2605893909931183,
        -0.16172850131988525,
        -0.22490881383419037,
        0.24435874819755554,
        -0.23637065291404724,
        0.10435445606708527,
        -0.10522524267435074,
        -0.1278662085533142,
        0.1811317652463913,
        -0.02803143300116062,
        0.2136455476284027,
        -0.2795162796974182,
        0.08715523779392242,
        0.17767617106437683,
        -0.2221498340368271,
        -0.16030804812908173,
        -0.43526363372802734,
        -0.23182398080825806,
        -0.27724236249923706,
        0.006709114648401737,
        0.07430140674114227,
        -0.11117459088563919,
        -0.033008042722940445,
        -0.04959123209118843,
        -0.5711773633956909,
        0.34709402918815613,
        0.12415879219770432,
        -0.04535657912492752,
        -0.16933250427246094,
        0.4799249768257141,
        0.1677742749452591,
        -0.5013386011123657,
        -0.34254777431488037,
        0.20482009649276733,
        0.37960731983184814,
        -0.41395729780197144,
        0.2973227798938751,
        0.17866379022598267,
        0.3273378610610962,
        0.030677875503897667,
        0.6313492059707642,
        0.011161787435412407
      ],
      [
        -0.058505840599536896,
        0.4417766034603119,
        0.13980209827423096,
        0.2873643636703491,
        -0.06746944040060043,
        0.006748935207724571,
        -0.0036754505708813667,
        0.4235207438468933,
        0.26282110810279846,
        -0.04461333900690079,
        0.028797302395105362,
        -0.2413615733385086,
        0.08780469745397568,
        0.03422493115067482,
        -0.03745230287313461,
        0.2243744134902954,
        0.003429580945521593,
        -0.30558422207832336,
        0.0017506424337625504,
        -0.10571587085723877,
        0.2284645289182663,
        0.38620880246162415,
        0.1181904748082161,
        -0.43455925583839417,
        0.30979081988334656,
        0.026499932631850243,
        -0.15739832818508148,
        0.23561955988407135,
        0.048834189772605896,
        0.2810945212841034,
        0.22335878014564514,
        -0.13692191243171692,
        -0.04950883239507675,
        -0.3241835832595825,
        0.3223969340324402,
        0.20496916770935059,
        -0.1471002995967865,
        0.22475281357765198,
        0.15406930446624756,
        0.029689911752939224,
        -0.04151320829987526,
        -0.023747790604829788,
        0.20111559331417084,
        -0.6246024370193481,
        -0.07453212141990662,
        0.15324807167053223,
        -0.26802971959114075,
        -0.31263965368270874
      ],
      [
        0.15815255045890808,
        0.10729140788316727,
        0.37696632742881775,
        -0.29412564635276794,
        -0.3554452657699585,
        0.0742819532752037,
        0.2179204523563385,
        -0.10356856882572174,
        0.2630605697631836,
        -0.5050141215324402,
        -0.1993866115808487,
        -0.15290407836437225,
        0.12712937593460083,
        -0.005393458064645529,
        -0.20926958322525024,
        -0.06779783219099045,
        -0.17550037801265717,
        0.024472376331686974,
        -0.020306911319494247,
        0.05521922558546066,
        0.1138354167342186,
        -0.3182581961154938,
        -0.3902873992919922,
        0.2982158660888672,
        0.10589580237865448,
        0.06249786168336868,
        0.06611026078462601,
        -0.12257908284664154,
        0.4953286647796631,
        -0.08814193308353424,
        0.06775092333555222,
        0.06607087701559067,
        -0.31707173585891724,
        0.2505359649658203,
        -0.26765963435173035,
        -0.08855152875185013,
        0.03294292464852333,
        -0.27960631251335144,
        -0.23832151293754578,
        0.27857357263565063,
        -0.18105977773666382,
        -0.22631622850894928,
        0.10235724598169327,
        -0.17490847408771515,
        -0.06805481761693954,
        -0.10289335250854492,
        -0.043471839278936386,
        -0.14441661536693573
      ],
      [
        -0.03332887217402458,
        0.14551304280757904,
        -0.06868833303451538,
        0.06879014521837234,
        0.005419145338237286,
        -0.281208336353302,
        0.3773006796836853,
        0.10442405939102173,
        -0.11189479380846024,
        -0.011310447938740253,
        0.28228384256362915,
        -0.1865471452474594,
        -0.21810807287693024,
        0.2964734733104706,
        -0.04333922266960144,
        0.2541070878505707,
        -0.2565506100654602,
        0.31602540612220764,
        -0.32500800490379333,
        0.18326714634895325,
        -0.09297001361846924,
        0.048088282346725464,
        0.10652521252632141,
        0.06148460507392883,
        0.005018752533942461,
        0.011180225759744644,
        0.2120407372713089,
        -0.24101151525974274,
        0.022715553641319275,
        0.05990677326917648,
        0.6538549661636353,
        -0.0250802394002676,
        -0.06923411041498184,
        -0.22709695994853973,
        0.12348426133394241,
        0.08651597797870636,
        0.1002424880862236,
        0.040725234895944595,
        0.2933180630207062,
        -0.30237671732902527,
        -0.2267320305109024,
        0.062311962246894836,
        -0.16886477172374725,
        0.25904569029808044,
        0.2666243016719818,
        0.049123797565698624,
        -0.034208450466394424,
        0.06624838709831238
      ],
      [
        -0.4388609528541565,
        -0.666545033454895,
        -0.35702863335609436,
        -0.021180175244808197,
        0.1723448783159256,
        -0.1916157752275467,
        -0.07056818157434464,
        -0.0019354451214894652,
        0.488304078578949,
        0.0367700532078743,
        0.590758204460144,
        -0.37822142243385315,
        0.19166144728660583,
        -0.5365209579467773,
        -0.612363874912262,
        -0.2458241730928421,
        0.030285464599728584,
        -0.1634414792060852,
        -0.01411648839712143,
        0.010635833255946636,
        0.5608869194984436,
        -0.1645650416612625,
        -0.019187990576028824,
        0.11388827860355377,
        0.04200086370110512,
        0.4795030951499939,
        0.2557404339313507,
        0.10375679284334183,
        0.7734699845314026,
        0.40071606636047363,
        -0.2360972762107849,
        -0.5439335107803345,
        -0.37222597002983093,
        0.1454405039548874,
        0.4883638620376587,
        -0.11652670055627823,
        -0.15571942925453186,
        -0.21867014467716217,
        0.11702073365449905,
        0.04528795927762985,
        -0.4912472069263458,
        0.046891000121831894,
        -0.3351578712463379,
        0.02285103127360344,
        -0.2353569120168686,
        -0.406802773475647,
        0.18910770118236542,
        -0.35706859827041626
      ],
      [
        0.45314502716064453,
        -0.2008698731660843,
        -0.04135134816169739,
        0.135955348610878,
        -0.24977165460586548,
        0.2552527189254761,
        -0.04484931752085686,
        -0.16527873277664185,
        -0.36413851380348206,
        -0.23798196017742157,
        0.502314031124115,
        0.850057065486908,
        -0.3748791515827179,
        0.6371966600418091,
        0.22796876728534698,
        -0.09904389083385468,
        -0.001150299794971943,
        -0.25482022762298584,
        0.023666374385356903,
        0.7602116465568542,
        -0.7080439329147339,
        -0.10318136215209961,
        0.5145677924156189,
        -0.20995667576789856,
        -0.41815540194511414,
        -0.09566114842891693,
        -0.05305217579007149,
        -0.06201303377747536,
        -0.23015092313289642,
        -0.0624123178422451,
        -0.265848845243454,
        -0.15278825163841248,
        0.0006251037120819092,
        -0.5150619149208069,
        0.5883371829986572,
        0.05005054175853729,
        -0.2624536156654358,
        0.06429111957550049,
        0.25124189257621765,
        0.47111886739730835,
        0.4384493827819824,
        -0.009122277610003948,
        0.0039400882087647915,
        0.21368689835071564,
        0.18542473018169403,
        0.13530103862285614,
        -0.15043646097183228,
        -0.3646903336048126
      ],
      [
        0.17273549735546112,
        0.047074370086193085,
        0.04621458053588867,
        0.3145281672477722,
        -0.007140043191611767,
        0.10027265548706055,
        0.09936664253473282,
        0.2172650694847107,
        -0.4131910800933838,
        0.19223390519618988,
        -0.47042906284332275,
        0.30496829748153687,
        -0.11349566280841827,
        -0.35705459117889404,
        0.016574576497077942,
        0.038883745670318604,
        0.2835746109485626,
        0.12667037546634674,
        0.022940434515476227,
        -0.07209569215774536,
        0.10103146731853485,
        -0.11441098153591156,
        0.11121080815792084,
        0.1389092057943344,
        0.23575131595134735,
        -0.36459678411483765,
        -0.5603227615356445,
        -0.09765245765447617,
        -0.02255547232925892,
        0.16345658898353577,
        0.011831247247755527,
        -0.27773019671440125,
        0.015625780448317528,
        0.15918193757534027,
        -0.13872244954109192,
        -0.035587482154369354,
        0.07532808929681778,
        0.2854653298854828,
        -0.1733861118555069,
        0.0418013371527195,
        -0.023223981261253357,
        -0.2951035499572754,
        0.06967365741729736,
        0.03369402512907982,
        -0.4254786968231201,
        -0.0357682965695858,
        0.022832388058304787,
        0.6293129324913025
      ],
      [
        -0.49752911925315857,
        -0.07755079120397568,
        0.14977960288524628,
        0.057442158460617065,
        0.027876920998096466,
        0.1296934187412262,
        0.1117463931441307,
        -0.0854344442486763,
        -0.4287365972995758,
        0.04069299250841141,
        -0.2948291301727295,
        -0.26701417565345764,
        0.39432933926582336,
        0.20020657777786255,
        0.1637328714132309,
        0.1548483669757843,
        -0.23965738713741302,
        0.10412120074033737,
        0.13039661943912506,
        -0.31532183289527893,
        0.1878988891839981,
        -0.1631181836128235,
        -0.4176124930381775,
        -0.07363568246364594,
        -0.17077654600143433,
        -0.2526477873325348,
        0.3540111482143402,
        0.35008004307746887,
        0.2847667336463928,
        -0.724690318107605,
        0.22321367263793945,
        0.3512541651725769,
        0.25775736570358276,
        0.09335893392562866,
        -0.3351699411869049,
        -0.4534115791320801,
        0.16288818418979645,
        0.19535225629806519,
        -0.0818086639046669,
        -0.30328428745269775,
        0.22463425993919373,
        -0.00011327044921927154,
        0.003897988935932517,
        -0.156211718916893,
        0.059111338108778,
        0.3951188623905182,
        -0.6358299851417542,
        -0.08084917068481445
      ],
      [
        0.5185658931732178,
        -0.17043520510196686,
        -0.13237859308719635,
        0.1015835851430893,
        0.16565850377082825,
        0.39748042821884155,
        -0.09780113399028778,
        0.2695758640766144,
        0.3270350694656372,
        0.5359581708908081,
        0.08711669594049454,
        -0.0029980698600411415,
        -0.420052707195282,
        -0.15227289497852325,
        0.12131126970052719,
        0.17506080865859985,
        0.0619424507021904,
        -0.21401241421699524,
        -0.0738535225391388,
        -0.3857499659061432,
        -0.1833227425813675,
        0.12569598853588104,
        0.04996125400066376,
        0.2755891978740692,
        -0.2727002203464508,
        -0.09136092662811279,
        -0.09974741190671921,
        -0.12958207726478577,
        -0.43698662519454956,
        -0.03909115120768547,
        -0.0361592061817646,
        -0.14789633452892303,
        0.3354235291481018,
        0.2052326202392578,
        0.36526331305503845,
        0.1474212408065796,
        0.08497361093759537,
        0.09248550981283188,
        0.15308471024036407,
        0.17887845635414124,
        0.1450343281030655,
        -0.0702291950583458,
        -0.04385003075003624,
        0.15144209563732147,
        0.129171684384346,
        0.0717923492193222,
        -0.22635884582996368,
        0.21996350586414337
      ],
      [
        -0.0758153647184372,
        -0.08308067917823792,
        0.04895472154021263,
        -0.45943328738212585,
        -0.14321203529834747,
        0.010261318646371365,
        -0.18601085245609283,
        -0.18223236501216888,
        0.4241323173046112,
        -0.2643611431121826,
        0.32731691002845764,
        0.32023876905441284,
        0.03239573910832405,
        0.1596236526966095,
        0.33632412552833557,
        -0.19343918561935425,
        0.08221077919006348,
        0.31587448716163635,
        0.27116578817367554,
        0.07228295505046844,
        -0.10927128046751022,
        0.054932694882154465,
        -0.03603292629122734,
        0.08328162878751755,
        0.25899678468704224,
        -0.06130261346697807,
        0.32464128732681274,
        -0.038227248936891556,
        -0.4237382709980011,
        0.0937577560544014,
        -0.2173285186290741,
        0.17769882082939148,
        0.06129610911011696,
        0.11395284533500671,
        -0.31610989570617676,
        0.12028015404939651,
        -0.059169918298721313,
        -0.21655964851379395,
        -0.4748205542564392,
        -0.18617841601371765,
        0.02877732366323471,
        0.5278432369232178,
        0.20996813476085663,
        0.08945601433515549,
        -0.07243746519088745,
        -0.30927208065986633,
        -0.041871365159749985,
        -0.2776940166950226
      ],
      [
        0.20311284065246582,
        0.150386780500412,
        -0.07254175841808319,
        -0.18975846469402313,
        0.11889796704053879,
        -0.1121288612484932,
        0.05009026452898979,
        0.2079717218875885,
        -0.0672491118311882,
        0.26028719544410706,
        -0.4087238907814026,
        0.11871577054262161,
        0.24415144324302673,
        0.6470900177955627,
        -0.09596148878335953,
        -0.0343124121427536,
        -0.04507671669125557,
        -0.40931618213653564,
        -0.1843796819448471,
        0.2034565657377243,
        -0.06912577897310257,
        0.4933706521987915,
        0.4543205201625824,
        -0.06474877893924713,
        0.03447083756327629,
        0.35164594650268555,
        -0.02701386623084545,
        -0.2000672072172165,
        -0.5602700710296631,
        0.04393232241272926,
        -0.26524674892425537,
        -0.10636921226978302,
        -0.004486279096454382,
        0.08910594880580902,
        -0.1721256822347641,
        -0.04419604688882828,
        -0.053233347833156586,
        0.08596599847078323,
        -0.14437589049339294,
        0.16739408671855927,
        -0.13237763941287994,
        0.4205341041088104,
        0.1473875790834427,
        0.3823334574699402,
        0.07629719376564026,
        -0.13170841336250305,
        -0.027704915031790733,
        0.2872525751590729
      ]
    ],
    "ff.lin2.bias": [
      -0.10250566899776459,
      0.06849320977926254,
      0.08639975637197495,
      -0.18111827969551086,
      -0.03268304467201233,
      -0.22489242255687714,
      0.2209315299987793,
      0.030172796919941902,
      -0.07587093114852905,
      0.17055557668209076,
      0.09055987745523453,
      0.1984098255634308
    ]
  }
}