{
  "block_0": {
    "att.W_query.weight": [
      [
        0.023234836757183075,
        0.15638066828250885,
        0.06291726231575012,
        -0.24154430627822876,
        0.426873117685318,
        0.31079092621803284,
        0.11710469424724579,
        0.2644251585006714,
        -0.09895407408475876,
        -0.07878285646438599,
        -1.1557624340057373,
        -0.28465086221694946
      ],
      [
        0.38022276759147644,
        0.19745609164237976,
        0.15375961363315582,
        -0.1092524304986,
        0.2585574686527252,
        0.012790707871317863,
        -0.475744366645813,
        -0.26727259159088135,
        -0.5716860890388489,
        -0.47550925612449646,
        0.2747188210487366,
        -0.2296970635652542
      ],
      [
        -0.1265963613986969,
        0.7969648838043213,
        0.3531287908554077,
        -0.3171064257621765,
        -0.045897163450717926,
        0.16636885702610016,
        0.4587339162826538,
        -0.4286222457885742,
        -0.41665422916412354,
        -0.07524242252111435,
        0.01598680578172207,
        -0.19335024058818817
      ],
      [
        -0.09155064821243286,
        -0.019399277865886688,
        -0.07086329907178879,
        -0.4975724518299103,
        0.815937340259552,
        -0.8383712768554688,
        -0.003721794346347451,
        0.588206946849823,
        -0.11983545869588852,
        0.32796522974967957,
        -0.514160692691803,
        0.38357308506965637
      ],
      [
        0.3873472511768341,
        -0.04742393270134926,
        0.4266403317451477,
        -0.8174946904182434,
        0.06431054323911667,
        0.1340859830379486,
        -0.6502350568771362,
        0.08290990442037582,
        0.1979549378156662,
        -0.138144850730896,
        -0.0751635730266571,
        0.535794734954834
      ],
      [
        0.30105483531951904,
        0.2793794870376587,
        0.19948026537895203,
        0.213825985789299,
        -0.3984295129776001,
        -0.34901347756385803,
        -0.5586943030357361,
        0.06183004006743431,
        -0.6630779504776001,
        0.13181576132774353,
        -0.011651690118014812,
        0.27263253927230835
      ],
      [
        -0.18106183409690857,
        0.15514689683914185,
        0.1907445639371872,
        0.24809697270393372,
        -0.5506154298782349,
        0.2928782105445862,
        -1.0315431356430054,
        0.10459145903587341,
        0.21263587474822998,
        0.12078678607940674,
        0.7057422399520874,
        0.35953235626220703
      ],
      [
        0.24226701259613037,
        0.39702823758125305,
        -0.07139284163713455,
        -0.2795558571815491,
        -0.005589683540165424,
        0.509937584400177,
        -0.08955828100442886,
        -0.10731007903814316,
        -0.023885760456323624,
        -0.46478453278541565,
        -0.0030121011659502983,
        -0.3699796199798584
      ],
      [
        0.14895442128181458,
        -0.07229235023260117,
        0.29482823610305786,
        0.16658098995685577,
        -0.018590101972222328,
        0.017422528937458992,
        0.2585439682006836,
        -0.037956178188323975,
        0.8302504420280457,
        -0.4511048197746277,
        -0.650176465511322,
        0.08427560329437256
      ],
      [
        0.36641642451286316,
        0.3028356432914734,
        -0.2645421624183655,
        0.07969971746206284,
        0.7632710933685303,
        -0.03298329934477806,
        -0.4311901032924652,
        -0.5081578493118286,
        0.5837597250938416,
        -0.30261602997779846,
        -0.2582608461380005,
        -0.021997904404997826
      ],
      [
        -0.37908220291137695,
        -0.5719985365867615,
        -0.2236844003200531,
        0.682482898235321,
        0.5284285545349121,
        0.5194867849349976,
        -0.1687956005334854,
        0.38236331939697266,
        -0.03913472220301628,
        0.26158180832862854,
        -0.2114332765340805,
        -0.1694251298904419
      ],
      [
        -0.2796909213066101,
        -0.31133055686950684,
        0.11263639479875565,
        -0.09413765370845795,
        0.4124673008918762,
        0.12885405123233795,
        0.5922787189483643,
        0.1734953671693802,
        -0.3056076169013977,
        -0.18481482565402985,
        -0.23648422956466675,
        -0.6983498334884644
      ]
    ],
    "att.W_query.bias": null,
    "att.W_key.weight": [
      [
        0.0022348621860146523,
        -0.829068124294281,
        -0.061024103313684464,
        0.15804725885391235,
        0.16220606863498688,
        0.19411242008209229,
        -0.29958608746528625,
        -0.3805437386035919,
        -0.4683035612106323,
        0.796606719493866,
        0.44199132919311523,
        -0.1754135936498642
      ],
      [
        0.18185871839523315,
        0.43728649616241455,
        -0.062299568206071854,
        0.04308931156992912,
        0.07682561129331589,
        0.2830429673194885,
        -0.23905590176582336,
        -0.20620845258235931,
        0.22191956639289856,
        0.5908688902854919,
        -0.5677558779716492,
        -0.5449258685112
      ],
      [
        -0.6742676496505737,
        0.04047899693250656,
        -0.250627726316452,
        -0.05587011203169823,
        0.3933480679988861,
        0.16993816196918488,
        -0.1821395605802536,
        0.4031161665916443,
        -0.02261286787688732,
        0.6971899271011353,
        -0.35321080684661865,
        -0.03669115528464317
      ],
      [
        0.12859925627708435,
        -0.38794052600860596,
        0.47252628207206726,
        0.6808638572692871,
        -0.8310856819152832,
        0.658845067024231,
        -0.07270457595586777,
        -0.2999112606048584,
        -0.4864843785762787,
        0.2914443910121918,
        0.26351848244667053,
        -0.319274365901947
      ],
      [
        -0.3356667459011078,
        0.5372434258460999,
        -0.14250323176383972,
        0.42881470918655396,
        -0.6142011880874634,
        0.4018203318119049,
        -0.5091360211372375,
        -0.5097398161888123,
        0.30824753642082214,
        0.16306671500205994,
        0.26642274856567383,
        -0.3609468340873718
      ],
      [
        -0.13274285197257996,
        0.2741101384162903,
        0.0451103039085865,
        0.7689821124076843,
        0.3962644636631012,
        0.5028719902038574,
        -0.040021803230047226,
        -0.3208237886428833,
        0.3110816478729248,
        -0.20599465072155,
        -0.5523614287376404,
        -0.12084497511386871
      ],
      [
        -0.2594345211982727,
        -0.23676921427249908,
        -0.019319700077176094,
        -0.6386545896530151,
        0.2445560097694397,
        0.5323646664619446,
        0.6029329895973206,
        -0.7393785119056702,
        -0.08877263963222504,
        0.7273438572883606,
        -0.10951700061559677,
        0.2607262432575226
      ],
      [
        -0.47868993878364563,
        0.5056322813034058,
        0.35203370451927185,
        0.20258259773254395,
        -0.35658496618270874,
        -0.10897834599018097,
        -0.0527612529695034,
        -0.1285671591758728,
        -0.21207872033119202,
        0.4160071611404419,
        -0.02806461788713932,
        0.09994236379861832
      ],
      [
        -0.09006810188293457,
        -0.15209205448627472,
        0.39292532205581665,
        -0.27466416358947754,
        0.08018965274095535,
        -0.23719196021556854,
        -0.2772114872932434,
        1.002367377281189,
        -0.3728523850440979,
        0.23266035318374634,
        0.10140272974967957,
        -0.2808699607849121
      ],
      [
        0.1243906021118164,
        0.30606013536453247,
        0.5242384076118469,
        -0.16646914184093475,
        -0.04879378527402878,
        -0.485984206199646,
        0.5178107619285583,
        0.02772567793726921,
        -0.08247657120227814,
        -0.17654593288898468,
        0.040174342691898346,
        -0.8013319969177246
      ],
      [
        0.5513989925384521,
        -0.19258162379264832,
        -0.23561793565750122,
        0.13781869411468506,
        -0.48030170798301697,
        -0.33207982778549194,
        -0.10711338371038437,
        -0.09469735622406006,
        0.6643438339233398,
        0.5167502164840698,
        -0.16114260256290436,
        -0.5748365521430969
      ],
      [
        0.261565625667572,
        0.38988175988197327,
        0.13548019528388977,
        0.4593430459499359,
        -0.49690088629722595,
        -0.21318741142749786,
        -0.6447305083274841,
        0.35552990436553955,
        0.4808802902698517,
        -0.09135149419307709,
        -0.14476414024829865,
        0.0080441664904356
      ]
    ],
    "att.W_key.bias": null,
    "att.W_value.weight": [
      [
        -0.636328935623169,
        0.01276885811239481,
        -0.37506628036499023,
        0.03553083539009094,
        0.17996039986610413,
        -0.14054878056049347,
        -0.2122189700603485,
        0.2707095742225647,
        0.1830861121416092,
        0.08198320865631104,
        0.45089298486709595,
        -0.20977400243282318
      ],
      [
        -0.15752145648002625,
        0.05006304383277893,
        -0.3198281526565552,
        -0.12729057669639587,
        -0.051182106137275696,
        0.8831543326377869,
        -0.4256725609302521,
        0.19098755717277527,
        -0.061895184218883514,
        -0.2806028127670288,
        0.03687401860952377,
        0.2805897891521454
      ],
      [
        0.5267298221588135,
        -0.28826043009757996,
        -0.38711363077163696,
        -0.305982768535614,
        0.14688464999198914,
        0.26372382044792175,
        0.2590061128139496,
        0.15427348017692566,
        0.4160175323486328,
        0.1773839294910431,
        0.018617186695337296,
        -0.5816454291343689
      ],
      [
        0.21768887341022491,
        0.41316166520118713,
        -0.0981912687420845,
        -0.3229680359363556,
        0.4076334834098816,
        -0.10679206997156143,
        0.13660919666290283,
        -0.7216834425926208,
        0.026311378926038742,
        -0.45593157410621643,
        -0.02926982194185257,
        -0.02104555070400238
      ],
      [
        -0.4314841032028198,
        -0.38675999641418457,
        0.5989699363708496,
        -0.014875033870339394,
        0.22338828444480896,
        0.3519541621208191,
        0.11882184445858002,
        -0.05888180434703827,
        -0.3177333474159241,
        -0.3713430166244507,
        0.09884840995073318,
        -0.28698354959487915
      ],
      [
        -0.26445963978767395,
        0.17431123554706573,
        0.5972874760627747,
        -0.46344420313835144,
        -0.10413730144500732,
        -0.11752582341432571,
        -0.15231509506702423,
        0.16780269145965576,
        -0.27351468801498413,
        0.4995521306991577,
        -0.10079148411750793,
        0.10318439453840256
      ],
      [
        -0.0527477040886879,
        -0.5560348629951477,
        0.29965588450431824,
        -0.04421618953347206,
        -0.1972668319940567,
        0.29681795835494995,
        -0.01569700986146927,
        -0.03991707041859627,
        0.48383164405822754,
        0.12165255099534988,
        -0.10154787451028824,
        -0.3551945984363556
      ],
      [
        0.2961192727088928,
        0.4265940189361572,
        0.10764218121767044,
        0.2665491998195648,
        0.4712727665901184,
        -0.17246316373348236,
        -0.20334689319133759,
        -0.023483317345380783,
        -0.0409078374505043,
        0.4757077097892761,
        -0.7046936750411987,
        -0.15867696702480316
      ],
      [
        0.7414560317993164,
        0.22052928805351257,
        0.368866890668869,
        -0.3905210494995117,
        -0.08823167532682419,
        0.32894131541252136,
        -0.209640771150589,
        -0.0963175818324089,
        -0.22531089186668396,
        0.18752235174179077,
        0.12810933589935303,
        -0.4779035151004791
      ],
      [
        -0.011032821610569954,
        0.14317159354686737,
        0.730506420135498,
        0.44474098086357117,
        0.07734189182519913,
        -0.1432066112756729,
        0.24401551485061646,
        -0.4514789879322052,
        -0.11572828143835068,
        -0.29398825764656067,
        0.4015904366970062,
        0.07581468671560287
      ],
      [
        -0.40712642669677734,
        0.3195747137069702,
        0.32750198245048523,
        -0.18712089955806732,
        -0.36224961280822754,
        0.0750228688120842,
        -0.07077962160110474,
        -0.24667516350746155,
        0.4313029944896698,
        -0.03526385873556137,
        0.1712149977684021,
        -0.4974024295806885
      ],
      [
        -0.14790785312652588,
        -0.36331912875175476,
        -0.09011439979076385,
        0.5078825354576111,
        -0.3006998598575592,
        0.6117590069770813,
        0.20513932406902313,
        0.2881336510181427,
        -0.23821987211704254,
        -0.26110631227493286,
        0.01043834537267685,
        0.039445146918296814
      ]
    ],
    "att.W_value.bias": null,
    "att.out_proj.weight": [
      [
        -0.17799080908298492,
        -0.3060190677642822,
        0.21020552515983582,
        -0.10093187540769577,
        0.1340450942516327,
        0.365421861410141,
        -0.05570341646671295,
        -0.09558384120464325,
        -0.1532081663608551,
        -0.22589531540870667,
        -0.07096835225820541,
        0.30401507019996643
      ],
      [
        0.3758443295955658,
        -0.060635268688201904,
        -0.2784254550933838,
        0.10440053790807724,
        -0.1349429041147232,
        0.10439688712358475,
        -0.25296178460121155,
        0.6249098777770996,
        0.52418452501297,
        -0.33824318647384644,
        -0.43923476338386536,
        -0.2055414915084839
      ],
      [
        -0.40219759941101074,
        -0.2137075662612915,
        -0.07254658639431,
        0.2599988281726837,
        -0.06398851424455643,
        0.3204408586025238,
        -0.2845088243484497,
        -0.11760511994361877,
        -0.38010793924331665,
        0.2621774673461914,
        -0.014471152797341347,
        0.37278807163238525
      ],
      [
        0.2600807845592499,
        0.20253825187683105,
        0.3751036822795868,
        0.17065151035785675,
        0.15238048136234283,
        -0.08003343641757965,
        -0.509730339050293,
        -0.20419812202453613,
        0.1422337144613266,
        0.5761033296585083,
        -0.18981866538524628,
        -0.2439388781785965
      ],
      [
        -0.20965003967285156,
        0.22545164823532104,
        0.24888616800308228,
        -0.42858919501304626,
        0.0531291626393795,
        -0.13278916478157043,
        -0.1165519580245018,
        -0.07525502145290375,
        -0.21559083461761475,
        -0.5434175729751587,
        -0.08709371089935303,
        -0.0015967391664162278
      ],
      [
        0.4583060145378113,
        0.16059167683124542,
        0.1589900255203247,
        -0.4467109143733978,
        -0.13563498854637146,
        0.33509835600852966,
        0.5072031617164612,
        -0.4986686408519745,
        0.6666106581687927,
        0.2618511915206909,
        0.512495756149292,
        0.3454832434654236
      ],
      [
        0.23316092789173126,
        0.37245577573776245,
        0.39869120717048645,
        0.3736031949520111,
        -0.32213684916496277,
        -0.6875746846199036,
        0.21201591193675995,
        -0.30612069368362427,
        -0.5310323238372803,
        -0.37655168771743774,
        -0.5364976525306702,
        0.1650114357471466
      ],
      [
        0.06650470942258835,
        -0.4629175364971161,
        0.1547940969467163,
        0.28402382135391235,
        -0.32763662934303284,
        -0.17074939608573914,
        0.35297468304634094,
        -0.10681058466434479,
        -0.09779421985149384,
        0.04835300147533417,
        0.07152245193719864,
        -0.3134344816207886
      ],
      [
        -0.40754613280296326,
        -0.24226732552051544,
        0.12011411786079407,
        -0.44074851274490356,
        -0.13419170677661896,
        -0.43457484245300293,
        0.17665380239486694,
        0.28577858209609985,
        0.23588719964027405,
        0.012820408679544926,
        0.17946961522102356,
        0.01719537004828453
      ],
      [
        -0.12766674160957336,
        0.20513303577899933,
        -0.4195331335067749,
        0.24486343562602997,
        0.7143673300743103,
        0.1728803962469101,
        0.22800150513648987,
        0.4501670300960541,
        -0.32972416281700134,
        0.30576565861701965,
        -0.0965316966176033,
        0.34634706377983093
      ],
      [
        -0.17516501247882843,
        0.61626797914505,
        -0.4404464364051819,
        0.17990411818027496,
        -0.5269229412078857,
        0.1283928006887436,
        0.05007995665073395,
        0.40251901745796204,
        -0.11472859978675842,
        0.010745193809270859,
        0.40835466980934143,
        -0.3130466938018799
      ],
      [
        0.26071876287460327,
        -0.055419910699129105,
        -0.5480823516845703,
        -0.48003828525543213,
        0.1273535043001175,
        -0.08177031576633453,
        -0.23605811595916748,
        -0.17163752019405365,
        -0.11651358008384705,
        -0.07623416930437088,
        0.21331065893173218,
        -0.5322514176368713
      ]
    ],
    "att.out_proj.bias": [
      -0.16284525394439697,
      -0.06860852986574173,
      0.030067168176174164,
      0.03421686962246895,
      0.030896713957190514,
      0.12005093693733215,
      -0.031723544001579285,
      0.015637284144759178,
      -0.031230349093675613,
      -0.0631319060921669,
      -0.006252976134419441,
      -0.026793282479047775
    ],
    "norm1.scale": [
      0.6882880330085754,
      0.7443432211875916,
      0.7112963795661926,
      0.8327289819717407,
      0.9360112547874451,
      0.9265750646591187,
      0.7572629451751709,
      0.680312991142273,
      0.7127311825752258,
      0.7557676434516907,
      0.6454009413719177,
      0.6710280776023865
    ],
    "norm1.shift": [
      -0.19517916440963745,
      -0.01685810089111328,
      0.10948285460472107,
      -0.1020696610212326,
      -0.29914140701293945,
      0.13243311643600464,
      0.02715272270143032,
      0.1421029418706894,
      -0.008112465031445026,
      0.14964689314365387,
      -0.06119992583990097,
      0.1682913452386856
    ],
    "norm2.scale": [
      1.0386607646942139,
      0.7696344256401062,
      0.9214072823524475,
      0.9411064386367798,
      0.8860060572624207,
      0.7144566774368286,
      0.7188051342964172,
      1.0065362453460693,
      0.7625123262405396,
      0.7391684651374817,
      0.7191110849380493,
      0.7564204931259155
    ],
    "norm2.shift": [
      -0.5402683615684509,
      0.032480672001838684,
      0.556176483631134,
      -0.11381783336400986,
      -0.0483899861574173,
      -0.232151061296463,
      0.09368956089019775,
      0.3426075279712677,
      0.12304919213056564,
      -0.16220444440841675,
      -0.05916869640350342,
      -0.07510866224765778
    ],
    "ff.lin1.weight": [
      [
        -0.0098686208948493,
        -0.3987647294998169,
        0.15456385910511017,
        0.03719880431890488,
        0.4427658021450043,
        -0.15333299338817596,
        -0.15148161351680756,
        0.44028210639953613,
        -0.6982098817825317,
        -0.24243496358394623,
        0.3298527002334595,
        0.28867000341415405
      ],
      [
        0.34334897994995117,
        0.3872692883014679,
        -0.8438526391983032,
        -0.4653530716896057,
        0.09143813699483871,
        -0.19066958129405975,
        -0.4185831546783447,
        0.21121057868003845,
        0.06291843205690384,
        0.5551773905754089,
        0.08225574344396591,
        0.32637518644332886
      ],
      [
        0.7081106305122375,
        0.11838032305240631,
        0.048400938510894775,
        -0.1676032692193985,
        0.4309219717979431,
        0.49528512358665466,
        -0.5007023811340332,
        -0.20295119285583496,
        -0.2465314120054245,
        -0.4488310217857361,
        -0.2421645075082779,
        0.2927965223789215
      ],
      [
        0.09479688853025436,
        0.23680467903614044,
        -0.0639595314860344,
        -0.265144020318985,
        -0.08471748977899551,
        0.2980082333087921,
        -0.288199245929718,
        -0.7960960865020752,
        -0.03608090057969093,
        -0.1064191460609436,
        0.563758134841919,
        0.5970643162727356
      ],
      [
        -0.09212370216846466,
        -0.27690252661705017,
        0.1760595738887787,
        0.21899127960205078,
        0.04009927436709404,
        0.025100398808717728,
        0.29021942615509033,
        -0.1916266530752182,
        -0.21784713864326477,
        0.27498912811279297,
        -0.1519501656293869,
        -0.34981244802474976
      ],
      [
        0.08705073595046997,
        0.013847146183252335,
        -0.2517121732234955,
        0.4257654547691345,
        0.47807279229164124,
        -0.41001254320144653,
        -0.10672160238027573,
        0.2592332065105438,
        -0.354188472032547,
        0.08462491631507874,
        -0.1830592304468155,
        0.004752276465296745
      ],
      [
        0.3000339865684509,
        0.037485603243112564,
        -0.3433077037334442,
        -0.25094133615493774,
        0.5171200633049011,
        0.20668093860149384,
        -0.9304921627044678,
        0.4709058105945587,
        -0.10993724316358566,
        -0.1030086800456047,
        0.4827965497970581,
        -0.1979256421327591
      ],
      [
        0.3145599961280823,
        -0.4507339596748352,
        -0.3981855809688568,
        0.41709762811660767,
        0.06215742230415344,
        -0.08218631893396378,
        0.2577202320098877,
        0.1398659199476242,
        -0.10736849159002304,
        -0.33767998218536377,
        0.208065465092659,
        -0.1486821174621582
      ],
      [
        -0.2743045389652252,
        -0.4196782112121582,
        -0.04552497714757919,
        0.44364917278289795,
        0.06366311013698578,
        0.581836998462677,
        0.20226137340068817,
        -0.6345570683479309,
        -0.024266546592116356,
        -0.1617571860551834,
        0.2519786059856415,
        0.157217338681221
      ],
      [
        0.11729343235492706,
        0.4735640585422516,
        -0.21326759457588196,
        0.18669302761554718,
        0.6157532930374146,
        -0.01928538829088211,
        0.17778514325618744,
        -0.13992692530155182,
        -0.5993924736976624,
        -0.2188616693019867,
        0.37070605158805847,
        -0.5018830895423889
      ],
      [
        0.43833333253860474,
        0.3572249114513397,
        -0.3305787742137909,
        -0.13370110094547272,
        0.6427898406982422,
        -0.21038638055324554,
        -0.2959512770175934,
        0.2210582047700882,
        0.2677591145038605,
        -0.29740768671035767,
        -0.5030418634414673,
        -0.31797364354133606
      ],
      [
        0.02165871486067772,
        -0.4007629454135895,
        -0.27489471435546875,
        0.050446610897779465,
        0.03225160017609596,
        0.4489090144634247,
        -0.37865787744522095,
        -0.6369912624359131,
        0.19119921326637268,
        0.6763340830802917,
        0.09067484736442566,
        0.36026373505592346
      ],
      [
        0.9236473441123962,
        -0.5504978895187378,
        -0.5305498242378235,
        0.15532489120960236,
        0.19959183037281036,
        -0.09700104594230652,
        -0.3715861141681671,
        0.32494261860847473,
        -0.05277866870164871,
        -0.28091564774513245,
        0.2852773368358612,
        0.34594908356666565
      ],
      [
        -0.14004772901535034,
        0.5061656832695007,
        -0.12823037803173065,
        -0.3910260796546936,
        -0.05471011996269226,
        0.4386950135231018,
        0.165519580245018,
        -0.31649693846702576,
        -0.07501637935638428,
        0.6358930468559265,
        -0.1840265691280365,
        -0.23270852863788605
      ],
      [
        0.2805461585521698,
        -0.025191031396389008,
        -0.3785926103591919,
        0.40802380442619324,
        -0.026962868869304657,
        0.6824260950088501,
        -0.34691086411476135,
        -0.5814021825790405,
        0.1261013299226761,
        -0.4157217741012573,
        -0.35106632113456726,
        0.07070548832416534
      ],
      [
        0.07122710347175598,
        -0.20971427857875824,
        -0.07829064875841141,
        -0.43661341071128845,
        -0.17376725375652313,
        0.1433892399072647,
        0.5384215116500854,
        -0.09572190046310425,
        -0.41351085901260376,
        -0.04295625537633896,
        0.6273292303085327,
        0.190082848072052
      ],
      [
        0.10614509135484695,
        0.38772499561309814,
        -1.0837748050689697,
        0.3627587854862213,
        0.01867247000336647,
        0.373439222574234,
        0.4469962418079376,
        -0.6769509315490723,
        -0.41649073362350464,
        -0.27469125390052795,
        0.12643097341060638,
        0.5610153675079346
      ],
      [
        0.039685700088739395,
        0.41230136156082153,
        -0.3924965560436249,
        0.20411868393421173,
        -0.758804202079773,
        -0.057909704744815826,
        0.07962498068809509,
        0.06036537513136864,
        -0.16402316093444824,
        -0.04890257865190506,
        0.10106512904167175,
        0.29536229372024536
      ],
      [
        -0.10913984477519989,
        -0.017903853207826614,
        -0.10649996250867844,
        0.5763231515884399,
        -0.43058979511260986,
        0.08066144585609436,
        -0.09982062131166458,
        0.22870147228240967,
        -0.5512136220932007,
        0.2537228763103485,
        -0.18007126450538635,
        -0.1961650550365448
      ],
      [
        0.15653930604457855,
        0.08061740547418594,
        -0.3079880475997925,
        0.664035439491272,
        -0.13861091434955597,
        -0.32897186279296875,
        0.4086318612098694,
        -0.5047688484191895,
        0.04825575649738312,
        0.04787840321660042,
        -0.11094054579734802,
        -0.11993937939405441
      ],
      [
        0.24105310440063477,
        0.14750516414642334,
        -0.0562773235142231,
        -0.7312785387039185,
        0.8344465494155884,
        0.04773823171854019,
        0.235838383436203,
        -0.3442462086677551,
        -0.12708748877048492,
        -0.04452214390039444,
        -0.18373464047908783,
        0.15213537216186523
      ],
      [
        -0.03282969444990158,
        0.47881102561950684,
        0.0635087862610817,
        -0.0729064792394638,
        -0.23504532873630524,
        0.8199127316474915,
        -0.3923421800136566,
        -0.18655583262443542,
        -0.36380279064178467,
        -0.11822731047868729,
        0.30087220668792725,
        -0.3336147367954254
      ],
      [
        0.4536939561367035,
        0.3880956172943115,
        -0.34347474575042725,
        -0.24817608296871185,
        -0.19086799025535583,
        0.042438048869371414,
        -0.07103966921567917,
        0.1922624260187149,
        -0.5487768650054932,
        0.03011689893901348,
        -0.4400666058063507,
        1.030086636543274
      ],
      [
        -0.23198145627975464,
        -0.5603449940681458,
        -0.29671812057495117,
        -0.6547951102256775,
        0.08556532859802246,
        0.3362428843975067,
        0.04598001390695572,
        -0.1402934491634369,
        -0.34613990783691406,
        0.2582349181175232,
        0.8243401646614075,
        0.17360083758831024
      ],
      [
        0.04956934228539467,
        -0.2920107841491699,
        0.40472540259361267,
        0.23218853771686554,
        -0.15690702199935913,
        -0.010501554235816002,
        0.125020369887352,
        -0.39555972814559937,
        0.3289059102535248,
        0.3794656991958618,
        -0.5542064905166626,
        0.17652742564678192
      ],
      [
        -0.2605767846107483,
        0.15978144109249115,
        -0.49914786219596863,
        -0.39860856533050537,
        0.3172876536846161,
        0.31353339552879333,
        0.2976372241973877,
        -0.4282130002975464,
        0.31868812441825867,
        -0.5045499801635742,
        0.2926296591758728,
        -0.20817077159881592
      ],
      [
        0.30941271781921387,
        -0.5027027726173401,
        -0.6069102883338928,
        -0.08643820136785507,
        0.7433958053588867,
        0.5614844560623169,
        -0.35265207290649414,
        -0.2483760118484497,
        -0.5367630124092102,
        0.39289411902427673,
        -0.21634541451931,
        0.1592855006456375
      ],
      [
        0.5274171829223633,
        -0.17449650168418884,
        -0.29936110973358154,
        -0.7764517664909363,
        0.4032468795776367,
        0.11239750683307648,
        0.3999543786048889,
        -0.08388464152812958,
        -0.5007772445678711,
        0.5015444755554199,
        0.41692712903022766,
        -0.46128982305526733
      ],
      [
        0.8721321225166321,
        0.0649852380156517,
        0.00846696738153696,
        0.20333799719810486,
        -0.03225141391158104,
        0.2988364100456238,
        -0.6637319922447205,
        0.493783563375473,
        -0.11139708012342453,
        0.29588499665260315,
        -0.5360386967658997,
        -0.07522673904895782
      ],
      [
        -0.01589839905500412,
        -0.14126993715763092,
        0.31508368253707886,
        -0.13217313587665558,
        0.9166391491889954,
        0.13577820360660553,
        -0.24411582946777344,
        0.19565650820732117,
        -0.008951392024755478,
        -0.25990596413612366,
        -0.01586517132818699,
        -0.2735762596130371
      ],
      [
        0.008465563878417015,
        -0.8774536848068237,
        -0.26150867342948914,
        -0.38456088304519653,
        -0.10541462898254395,
        0.6297879815101624,
        0.33972689509391785,
        0.15844401717185974,
        0.03780205175280571,
        0.4013729989528656,
        -0.03385169804096222,
        0.46912291646003723
      ],
      [
        -0.14319413900375366,
        -0.26671266555786133,
        0.46735161542892456,
        -0.6340542435646057,
        -0.2169726938009262,
        -0.007623295299708843,
        -0.3307868242263794,
        -0.1621035933494568,
        -0.10314300656318665,
        0.7200175523757935,
        0.12574957311153412,
        0.2735508978366852
      ],
      [
        0.7137488126754761,
        0.35164207220077515,
        -0.13272038102149963,
        -0.29567283391952515,
        0.10727400332689285,
        -0.6351862549781799,
        -0.19777467846870422,
        0.03611310198903084,
        -0.032236382365226746,
        0.03298885375261307,
        0.22883157432079315,
        0.5284217596054077
      ],
      [
        1.1710981130599976,
        -0.1646113097667694,
        -0.13527874648571014,
        -0.4294946491718292,
        0.4020484685897827,
        0.10223492980003357,
        0.19272997975349426,
        -0.42365697026252747,
        0.014592479914426804,
        -0.3266163766384125,
        0.050059232860803604,
        -0.46367156505584717
      ],
      [
        0.2704733908176422,
        -0.2089998871088028,
        -0.6910977363586426,
        0.3952179253101349,
        0.39531317353248596,
        -0.03990071266889572,
        -0.27982959151268005,
        0.2985420227050781,
        0.3193773627281189,
        0.6570836901664734,
        0.062401190400123596,
        -0.5062732100486755
      ],
      [
        0.4167907238006592,
        0.3606034219264984,
        0.3070300817489624,
        0.41753262281417847,
        0.12467823177576065,
        -0.0962769165635109,
        -0.28231507539749146,
        -0.7787657976150513,
        -0.21391622722148895,
        -0.12005400657653809,
        -0.07457861304283142,
        -0.21106623113155365
      ],
      [
        1.006668210029602,
        -0.5506195425987244,
        -0.9192088842391968,
        0.37570443749427795,
        0.23886854946613312,
        -0.23926116526126862,
        0.38213232159614563,
        -0.9259949922561646,
        0.09052593261003494,
        0.2498224526643753,
        -0.039203427731990814,
        -0.01723671145737171
      ],
      [
        -0.09630566835403442,
        -0.5118675827980042,
        -0.16103389859199524,
        0.403180330991745,
        0.4712425470352173,
        -0.04815879464149475,
        -0.20219911634922028,
        -0.4315287172794342,
        -0.34311187267303467,
        -0.25123703479766846,
        0.7272065877914429,
        0.1733023077249527
      ],
      [
        0.27259361743927,
        -0.3380131721496582,
        -0.20441710948944092,
        -0.060743555426597595,
        -0.16589033603668213,
        0.5067977905273438,
        0.07087256759405136,
        0.403931200504303,
        -0.6842153668403625,
        0.6890920996665955,
        -0.5185875296592712,
        -0.11789163947105408
      ],
      [
        0.794344425201416,
        -0.25467339158058167,
        -0.06717982888221741,
        0.1178634762763977,
        -0.009586211293935776,
        -0.036612220108509064,
        -0.33493202924728394,
        -0.2950718104839325,
        0.7972615361213684,
        0.6223478317260742,
        -0.8055899739265442,
        0.0596122071146965
      ],
      [
        0.03662077710032463,
        0.15721604228019714,
        -0.8259782195091248,
        0.6399644017219543,
        0.20296913385391235,
        -0.017859486863017082,
        -0.463021457195282,
        0.00796146597713232,
        0.0662173256278038,
        0.5293334722518921,
        0.006541305687278509,
        -0.14932213723659515
      ],
      [
        0.6585143804550171,
        -0.06733870506286621,
        -0.9509522318840027,
        -0.041155166923999786,
        -0.21349206566810608,
        1.070120096206665,
        0.18697258830070496,
        -0.01711581088602543,
        0.05448613688349724,
        0.029334193095564842,
        0.5334623456001282,
        -0.8246251940727234
      ],
      [
        -0.23915353417396545,
        0.037267595529556274,
        -0.13542203605175018,
        0.13105790317058563,
        -0.30948588252067566,
        -0.22139321267604828,
        0.24484951794147491,
        -0.3561181128025055,
        0.35787320137023926,
        0.320006787776947,
        0.26740649342536926,
        0.0013154519256204367
      ],
      [
        0.32036563754081726,
        0.22899195551872253,
        0.07168888300657272,
        -0.34076425433158875,
        -0.3280799686908722,
        0.5997769832611084,
        -0.052255552262067795,
        -0.1263241171836853,
        0.10297549515962601,
        -0.1840812712907791,
        -0.22004851698875427,
        -0.03064422495663166
      ],
      [
        0.6752692461013794,
        0.22985772788524628,
        -0.589743435382843,
        -0.01790039800107479,
        -0.6539819240570068,
        -0.07419538497924805,
        0.09537611901760101,
        -0.26818275451660156,
        0.29698944091796875,
        0.552668571472168,
        -0.0843888521194458,
        -0.19510886073112488
      ],
      [
        -0.23638173937797546,
        -0.6016196012496948,
        -0.16469022631645203,
        0.2138596475124359,
        -0.2761189043521881,
        0.029606612399220467,
        -0.24027813971042633,
        0.31150588393211365,
        -0.4468742311000824,
        0.5556297302246094,
        0.4814866781234741,
        0.3170432150363922
      ],
      [
        0.7285618185997009,
        -0.32280871272087097,
        -0.3532443046569824,
        -0.033394116908311844,
        -0.13763149082660675,
        -0.006112875882536173,
        0.7888453006744385,
        -0.3049405813217163,
        -0.8414256572723389,
        0.30727866291999817,
        0.024700263515114784,
        -0.020730214193463326
      ],
      [
        0.2512592673301697,
        -0.5117214322090149,
        -0.4110362231731415,
        0.020507119596004486,
        -0.5128626823425293,
        0.6210780143737793,
        0.024309741333127022,
        -0.29032832384109497,
        0.5059628486633301,
        -0.08345437794923782,
        -0.20917554199695587,
        0.3238781988620758
      ]
    ],
    "ff.lin1.bias": [
      -0.514816164970398,
      -0.5156717300415039,
      -0.4763105809688568,
      -0.5717577338218689,
      -0.5388851165771484,
      -0.6109867095947266,
      -0.4720391035079956,
      -0.34004369378089905,
      -0.3744764029979706,
      -0.3167617917060852,
      -0.5126823782920837,
      -0.39517349004745483,
      -0.5888078808784485,
      -0.6085091233253479,
      -0.5368046760559082,
      -0.48854947090148926,
      -0.38746845722198486,
      -0.5705044269561768,
      -0.5896503925323486,
      -0.49071213603019714,
      -0.4836823046207428,
      -0.5359041094779968,
      -0.2986948788166046,
      -0.3747745454311371,
      -0.7100995779037476,
      -0.16907991468906403,
      -0.15213987231254578,
      -0.41050541400909424,
      -0.30066171288490295,
      -0.44721686840057373,
      -0.8115836381912231,
      -0.7186146974563599,
      -0.47247448563575745,
      -0.1998021900653839,
      -0.3651463985443115,
      -0.3118630647659302,
      -0.22272440791130066,
      -0.7901668548583984,
      -0.4359312653541565,
      -0.8159995675086975,
      -0.2906942367553711,
      -0.5694757103919983,
      -0.48518288135528564,
      -0.43888619542121887,
      -0.3843272030353546,
      -0.29288971424102783,
      -0.2696692943572998,
      -0.30743032693862915
    ],
    "ff.lin2.weight": [
      [
        0.5882056951522827,
        -0.13246989250183105,
        0.17510156333446503,
        0.6017938852310181,
        0.12850219011306763,
        0.21931862831115723,
        0.16525907814502716,
        0.2458440065383911,
        0.2292472869157791,
        -0.4755247235298157,
        0.001155047444626689,
        0.008050750009715557,
        0.18127287924289703,
        0.274381160736084,
        -0.05122586339712143,
        0.2536278963088989,
        -1.1887850761413574,
        0.07886287569999695,
        0.2546934187412262,
        -0.16459210216999054,
        0.13273626565933228,
        -0.07751382887363434,
        -1.025468111038208,
        -0.4972965717315674,
        -0.024146046489477158,
        -0.16381105780601501,
        0.7434991002082825,
        -0.12434426695108414,
        0.15372903645038605,
        -0.11067409068346024,
        -0.12481041997671127,
        -0.3739125728607178,
        -0.25035935640335083,
        -0.3556321859359741,
        0.14799764752388,
        0.8324819207191467,
        -0.9191533923149109,
        -0.23094137012958527,
        0.6979109048843384,
        -0.49991345405578613,
        0.08738096803426743,
        -1.2686753273010254,
        0.15693069994449615,
        0.19530527293682098,
        0.4559517800807953,
        0.05615151673555374,
        -0.3897135257720947,
        -0.44510045647621155
      ],
      [
        -0.08753468841314316,
        0.3174186646938324,
        0.10986495763063431,
        -0.16096682846546173,
        0.10243791341781616,
        0.1660080850124359,
        0.31913304328918457,
        -0.06338395923376083,
        -0.031997207552194595,
        -0.037993647158145905,
        0.25524085760116577,
        -0.18382184207439423,
        0.13304974138736725,
        0.3224935829639435,
        -0.26489949226379395,
        -0.2500562369823456,
        0.4188505709171295,
        -0.25852763652801514,
        -0.1499837189912796,
        0.024722296744585037,
        -0.29515165090560913,
        0.7565444111824036,
        0.16455261409282684,
        -0.19015328586101532,
        0.1494687795639038,
        -0.02416965924203396,
        -0.4011165499687195,
        0.4590693712234497,
        -0.12301424890756607,
        -0.33144327998161316,
        0.47622057795524597,
        0.26330646872520447,
        0.3725685775279999,
        -0.4158719778060913,
        -0.0974278599023819,
        -0.07854092866182327,
        0.08667685836553574,
        -0.41082051396369934,
        0.21405966579914093,
        0.29194363951683044,
        -0.0550224632024765,
        0.19169870018959045,
        -0.09300559759140015,
        0.18693512678146362,
        -0.4922321140766144,
        0.03947895020246506,
        -0.034091249108314514,
        0.023353710770606995
      ],
      [
        -0.20763489603996277,
        0.035500697791576385,
        0.023056035861372948,
        -0.2730247974395752,
        -0.0925004631280899,
        -0.047222867608070374,
        0.001527572050690651,
        -0.17833714187145233,
        0.19030113518238068,
        -0.29624369740486145,
        -0.10136678814888,
        -0.27837827801704407,
        -0.25270211696624756,
        -0.3364512622356415,
        0.8562343716621399,
        -0.012152183800935745,
        0.27220097184181213,
        -0.041114989668130875,
        -0.1906004399061203,
        -0.07045161724090576,
        0.24942117929458618,
        -0.1119515672326088,
        -0.10771921277046204,
        0.2923133373260498,
        0.12967832386493683,
        -0.22017110884189606,
        -0.5637972354888916,
        0.18509528040885925,
        0.19377972185611725,
        0.4002017080783844,
        -0.07465223968029022,
        0.7427995204925537,
        0.5222131609916687,
        0.04400987550616264,
        0.3456376791000366,
        -0.6851063370704651,
        0.32774901390075684,
        0.20861132442951202,
        -0.36572152376174927,
        0.035594139248132706,
        0.23383446037769318,
        0.11438824981451035,
        -0.25558727979660034,
        -0.17826519906520844,
        0.12058909982442856,
        -0.29627710580825806,
        0.6007156372070312,
        0.5371297001838684
      ],
      [
        0.14959700405597687,
        0.12699691951274872,
        -0.3843163847923279,
        -0.0820406898856163,
        0.08189359307289124,
        -0.2466278076171875,
        0.546471118927002,
        0.07869761437177658,
        0.28545519709587097,
        -0.059596024453639984,
        -0.25870972871780396,
        -0.5869810581207275,
        -0.26411962509155273,
        -0.05481790751218796,
        -0.3236629366874695,
        -0.11715749651193619,
        0.186562180519104,
        -0.013070772401988506,
        0.3223685920238495,
        0.2764769494533539,
        -0.26590755581855774,
        0.17237231135368347,
        0.2860528230667114,
        0.179296612739563,
        0.29288914799690247,
        0.1932983547449112,
        -0.01267736405134201,
        0.4958498179912567,
        -0.40781620144844055,
        -0.2709709107875824,
        -0.005323976743966341,
        -0.11664493381977081,
        0.39989423751831055,
        0.7131168842315674,
        -0.16254515945911407,
        -0.14616835117340088,
        0.6126619577407837,
        0.06561511754989624,
        -0.2970033586025238,
        0.17409473657608032,
        -0.560279905796051,
        -0.3031035363674164,
        0.026062071323394775,
        -0.17204101383686066,
        -0.5230750441551208,
        0.18592798709869385,
        -0.045486513525247574,
        -0.04835069924592972
      ],
      [
        0.5067324042320251,
        -0.08184127509593964,
        0.2242102473974228,
        0.0416075773537159,
        0.10706190764904022,
        -0.41069507598876953,
        0.06751030683517456,
        -0.43399351835250854,
        -0.01124458946287632,
        0.10541896522045135,
        0.6931142210960388,
        0.25023046135902405,
        -0.7824105024337769,
        0.004977322183549404,
        -0.2681129276752472,
        -0.07278643548488617,
        -0.2251671701669693,
        -0.21737633645534515,
        -0.15574416518211365,
        0.6191872954368591,
        0.17246177792549133,
        -0.17144687473773956,
        0.0061546871438622475,
        -0.2934914827346802,
        0.40408480167388916,
        -0.4099940061569214,
        -0.35890868306159973,
        -0.4195491075515747,
        -0.22237175703048706,
        0.13806703686714172,
        -0.22005674242973328,
        0.14127618074417114,
        -0.4667343497276306,
        0.9283520579338074,
        0.07256109267473221,
        0.24059075117111206,
        1.5706850290298462,
        -0.40436309576034546,
        -0.17780402302742004,
        1.3453283309936523,
        0.3243394196033478,
        1.1934528350830078,
        0.13379690051078796,
        -0.077826127409935,
        0.3134808838367462,
        0.6170796751976013,
        0.10264623165130615,
        -0.053223319351673126
      ],
      [
        -0.34653404355049133,
        -0.33919060230255127,
        -0.022051256150007248,
        0.05260501429438591,
        0.2613741159439087,
        0.024493588134646416,
        0.06892169266939163,
        0.2536748945713043,
        0.15709348022937775,
        0.19228631258010864,
        0.12175096571445465,
        0.2065163105726242,
        0.5494758486747742,
        0.08449237048625946,
        -0.48972204327583313,
        -0.000564460176974535,
        -0.3543790280818939,
        -0.14407679438591003,
        -0.3923341631889343,
        0.13836586475372314,
        -0.019224388524889946,
        -0.006644990760833025,
        0.4594300389289856,
        -0.39542490243911743,
        0.2804111838340759,
        -0.2637404799461365,
        0.10967793315649033,
        -0.19112806022167206,
        0.4222405254840851,
        0.16885223984718323,
        -0.29276153445243835,
        0.11226065456867218,
        0.1413804590702057,
        0.2791350185871124,
        -0.45350971817970276,
        -0.22064165771007538,
        -0.16057497262954712,
        -0.17051824927330017,
        -0.03309810161590576,
        -0.2212713062763214,
        -0.30334407091140747,
        -0.3354823887348175,
        0.119230717420578,
        -0.07984413206577301,
        -0.09728916734457016,
        -0.10906486213207245,
        0.5657077431678772,
        -0.14876270294189453
      ],
      [
        0.18064764142036438,
        0.2157939374446869,
        0.5909344553947449,
        -0.016594240441918373,
        -0.1599237620830536,
        0.29575151205062866,
        -0.3607078492641449,
        -0.3981989324092865,
        -0.09201356023550034,
        0.13227246701717377,
        -0.14492857456207275,
        0.030278239399194717,
        -0.5546398758888245,
        -0.2879807651042938,
        0.3288813829421997,
        -0.3361046016216278,
        0.22002005577087402,
        -0.24811823666095734,
        -0.12795346975326538,
        -0.2912858724594116,
        0.2891668379306793,
        0.14839547872543335,
        0.2519814670085907,
        -0.2757105231285095,
        -0.34020552039146423,
        0.014672711491584778,
        0.2743399143218994,
        -0.21868184208869934,
        0.12277240306138992,
        -0.06567209213972092,
        0.5126599073410034,
        -0.45114392042160034,
        -0.22354179620742798,
        -0.09829729050397873,
        0.11629919707775116,
        -0.0354648120701313,
        -0.22174543142318726,
        0.22078660130500793,
        -0.5848316550254822,
        -0.06857296079397202,
        0.2529532313346863,
        0.28251147270202637,
        -0.007648521568626165,
        0.22433291375637054,
        0.3189314007759094,
        -0.503969132900238,
        0.2695549726486206,
        -0.16508089005947113
      ],
      [
        -0.44874903559684753,
        -0.13629865646362305,
        -0.2838931679725647,
        -0.1355234980583191,
        -0.053897906094789505,
        0.02558533474802971,
        -0.29299163818359375,
        0.2793329060077667,
        -0.053370941430330276,
        0.06403158605098724,
        0.07887616008520126,
        -0.16150854527950287,
        0.11229646950960159,
        0.26404523849487305,
        -0.005389601923525333,
        0.41070467233657837,
        -0.21750345826148987,
        0.16417041420936584,
        0.27161386609077454,
        -0.20957046747207642,
        0.2739366292953491,
        -0.19879405200481415,
        0.23520682752132416,
        0.5000667572021484,
        -0.057512976229190826,
        0.5032194256782532,
        -0.19996750354766846,
        0.008271914906799793,
        0.6329917907714844,
        -0.16161060333251953,
        -0.6273244023323059,
        -0.020413070917129517,
        -0.08256187289953232,
        -0.32980263233184814,
        0.19105887413024902,
        0.09085287898778915,
        0.5045186281204224,
        -0.14918598532676697,
        0.2780114412307739,
        0.20669203996658325,
        -0.1711074411869049,
        -0.12351087480783463,
        -0.3919796645641327,
        -0.12366174906492233,
        -0.20707035064697266,
        0.3923141360282898,
        0.015355022624135017,
        -0.5314778685569763
      ],
      [
        -0.15860790014266968,
        0.6368616819381714,
        0.021315909922122955,
        -0.1854299157857895,
        0.05917111411690712,
        0.13176102936267853,
        -0.23707546293735504,
        0.1071474626660347,
        -0.6617942452430725,
        0.21637924015522003,
        -0.5961306691169739,
        0.2803823947906494,
        0.32485365867614746,
        -0.4314565658569336,
        -0.30391058325767517,
        -0.20105059444904327,
        -0.06336277723312378,
        0.203785240650177,
        0.35813888907432556,
        0.22130517661571503,
        -0.6542763710021973,
        -0.23584957420825958,
        0.14231182634830475,
        0.05345940589904785,
        -0.02294986881315708,
        -0.1453324854373932,
        -0.38693636655807495,
        0.046738024801015854,
        -0.3743938207626343,
        0.09944026172161102,
        -0.01984357088804245,
        0.16694246232509613,
        0.023441564291715622,
        0.039597634226083755,
        0.3989148437976837,
        0.23476964235305786,
        -0.2060321867465973,
        0.5072582960128784,
        0.1684916764497757,
        -0.2777218222618103,
        -0.03888895362615585,
        0.2728324234485626,
        -0.033559683710336685,
        0.29876255989074707,
        -0.03368903324007988,
        0.0747024342417717,
        -0.6866158843040466,
        0.1141732707619667
      ],
      [
        -0.10055239498615265,
        -0.4321160316467285,
        0.06004312261939049,
        0.10047692060470581,
        -0.0153240030631423,
        -0.17161408066749573,
        -0.32120195031166077,
        -0.22015012800693512,
        -0.029690418392419815,
        -0.2380066215991974,
        -0.0017339319456368685,
        0.20019902288913727,
        0.5764316916465759,
        0.16109667718410492,
        -0.109551802277565,
        0.01201119925826788,
        -0.07647380232810974,
        0.3962867856025696,
        0.08529943227767944,
        -0.06286785006523132,
        0.10780137032270432,
        -0.018784912303090096,
        -0.2109728455543518,
        0.1639181524515152,
        0.1253025233745575,
        0.1526106595993042,
        0.2875961661338806,
        -0.382802814245224,
        -0.156227245926857,
        -0.08540771156549454,
        0.20766611397266388,
        -0.3870689570903778,
        -0.19521500170230865,
        -0.09791360050439835,
        -0.4653172194957733,
        0.012720750644803047,
        -0.534357488155365,
        0.18237613141536713,
        0.2898605167865753,
        0.14319580793380737,
        -0.08821462839841843,
        -0.24159330129623413,
        0.46886759996414185,
        -0.5051323175430298,
        -0.010777394287288189,
        0.18994413316249847,
        -0.03644350916147232,
        -0.017651136964559555
      ],
      [
        0.09334652870893478,
        -0.07465014606714249,
        -0.3873737156391144,
        -0.027273647487163544,
        -0.5140336751937866,
        -0.23240329325199127,
        -0.08863712847232819,
        0.134161576628685,
        0.23374593257904053,
        0.8875036835670471,
        0.1263086497783661,
        0.09505210071802139,
        0.24458572268486023,
        0.22032643854618073,
        -0.06510352343320847,
        -0.41103479266166687,
        0.13219238817691803,
        -0.5824728608131409,
        -0.08710266649723053,
        -0.4389033913612366,
        0.06538141518831253,
        0.38470035791397095,
        -0.4868491291999817,
        -0.07614772766828537,
        -0.7231546640396118,
        -0.04748332500457764,
        0.541955292224884,
        0.3042280375957489,
        -0.04445469006896019,
        -0.0784670040011406,
        0.8459718823432922,
        0.21901997923851013,
        -0.39926019310951233,
        0.17979402840137482,
        0.30857235193252563,
        -0.12461086362600327,
        -0.023612061515450478,
        0.1397821009159088,
        0.34021449089050293,
        -0.18018928170204163,
        0.4233277142047882,
        0.47936227917671204,
        -0.1641872376203537,
        -0.13177236914634705,
        0.38439446687698364,
        -0.18711315095424652,
        0.14874570071697235,
        0.6240527033805847
      ],
      [
        -0.2277725487947464,
        0.07569774240255356,
        -0.04709700122475624,
        0.31770065426826477,
        -0.2282867282629013,
        0.09213076531887054,
        0.17377226054668427,
        -0.10912244021892548,
        -0.10917065292596817,
        -0.15953917801380157,
        0.23911727964878082,
        0.0313427671790123,
        -0.12043635547161102,
        0.05916397646069527,
        0.3953280448913574,
        0.2772687077522278,
        0.375358521938324,
        0.4583502411842346,
        -0.19423606991767883,
        0.22592994570732117,
        0.06252583861351013,
        -0.14638987183570862,
        0.0796394869685173,
        0.13247373700141907,
        -0.1422949582338333,
        0.48813265562057495,
        0.2633500099182129,
        -0.2713632881641388,
        -0.11415299773216248,
        0.4383872151374817,
        -0.24190323054790497,
        -0.25403550267219543,
        0.12825994193553925,
        -0.35069096088409424,
        0.053025856614112854,
        0.06808452308177948,
        -0.34913578629493713,
        0.053542736917734146,
        -0.08225005120038986,
        -0.426626592874527,
        0.35087835788726807,
        0.044464290142059326,
        -0.17914600670337677,
        0.18844521045684814,
        0.10794132202863693,
        -0.28625354170799255,
        -0.2039572149515152,
        -0.11991254985332489
      ]
    ],
    "ff.lin2.bias": [
      -0.030967529863119125,
      0.0959566980600357,
      0.0927039235830307,
      -0.04955657944083214,
      0.23397737741470337,
      0.029285170137882233,
      0.1284029334783554,
      -0.0719001293182373,
      -0.06276793032884598,
      -0.24948137998580933,
      -0.3614892363548279,
      0.07266461849212646
    ]
  }
}