{
  "block_0": {
    "att.W_query.weight": [
      [
        -0.24583056569099426,
        -0.9647594690322876,
        -0.2712932229042053,
        -0.13749147951602936,
        0.5225628018379211,
        0.36837002635002136,
        1.0461629629135132,
        0.019826611503958702,
        -0.3531758785247803,
        0.1447686105966568,
        -0.04963303729891777,
        0.09230121225118637,
        0.08276423811912537,
        0.05808969959616661,
        -0.9121790528297424,
        -0.6474789381027222,
        0.9265546798706055,
        -0.27860140800476074,
        -0.34137630462646484,
        -0.18387311697006226,
        0.0405869223177433,
        -0.0006476144772022963,
        -0.3538118600845337,
        0.7933464646339417
      ],
      [
        -0.27598580718040466,
        -0.9420143365859985,
        0.13787296414375305,
        0.08979666978120804,
        0.3080563247203827,
        0.26807746291160583,
        0.17729386687278748,
        0.043217651546001434,
        -0.31830963492393494,
        -0.23944593966007233,
        0.13046380877494812,
        0.2651154696941376,
        -0.19489842653274536,
        -0.31737571954727173,
        -0.7664794921875,
        -0.12225465476512909,
        0.6800539493560791,
        -0.16921710968017578,
        -0.01520623080432415,
        -1.0055339336395264,
        0.3555426001548767,
        0.10337115824222565,
        -0.19831180572509766,
        1.2413456439971924
      ],
      [
        -0.4294607639312744,
        0.42164382338523865,
        -0.5646119117736816,
        0.7564301490783691,
        0.379870742559433,
        -0.2592530846595764,
        -0.6337479948997498,
        1.4915180206298828,
        0.05118393152952194,
        0.22201703488826752,
        0.23990368843078613,
        -1.0459928512573242,
        0.5515256524085999,
        0.3365533947944641,
        -0.15684874355793,
        -0.03679540380835533,
        -0.5468273758888245,
        -0.3948599100112915,
        0.3228381872177124,
        0.30110085010528564,
        -0.9090547561645508,
        0.7197861075401306,
        -0.03852842375636101,
        0.4741303324699402
      ],
      [
        0.9912627339363098,
        0.2534705400466919,
        -0.3226419687271118,
        -0.16904056072235107,
        -0.06400284916162491,
        -0.354053258895874,
        -0.18390218913555145,
        0.4366494417190552,
        -0.20175884664058685,
        0.8040655851364136,
        0.7927466630935669,
        -0.9067541360855103,
        -0.029223572462797165,
        -0.3880643844604492,
        -0.5792227983474731,
        0.009340113028883934,
        0.28799664974212646,
        -0.6212011575698853,
        -0.2235141545534134,
        -0.08060506731271744,
        -0.4974893629550934,
        0.30086469650268555,
        -0.21063171327114105,
        0.35590383410453796
      ],
      [
        -0.13391418755054474,
        -0.11997436732053757,
        -0.2889726758003235,
        0.4312550127506256,
        0.7251337766647339,
        -0.280702143907547,
        1.6554499864578247,
        0.2984403371810913,
        -0.0084804343059659,
        -1.2270660400390625,
        -0.6712630987167358,
        -0.8587114214897156,
        0.7193495035171509,
        -0.7472243309020996,
        0.08882395178079605,
        0.01456485316157341,
        0.06374368816614151,
        0.045207638293504715,
        -0.32723990082740784,
        0.3159988224506378,
        0.16425040364265442,
        0.33439382910728455,
        0.014398163184523582,
        -0.3047265112400055
      ],
      [
        0.9030623435974121,
        0.2342732548713684,
        -0.13202336430549622,
        -0.6464186906814575,
        -0.45711833238601685,
        0.22065408527851105,
        -0.12688025832176208,
        -0.7664586901664734,
        0.2239692211151123,
        0.5214143395423889,
        0.37893015146255493,
        -0.3824463188648224,
        -0.2171861231327057,
        -0.6137647032737732,
        -0.0813070610165596,
        0.5138615965843201,
        0.5909127593040466,
        -0.01210275012999773,
        -0.8933569192886353,
        -0.43043771386146545,
        -0.38619330525398254,
        -0.09301707148551941,
        0.3543928563594818,
        0.5340637564659119
      ],
      [
        -0.21259987354278564,
        -0.7183842658996582,
        0.7119870185852051,
        0.0734902173280716,
        0.02162734605371952,
        0.29903286695480347,
        0.09607584029436111,
        -0.569380521774292,
        0.29244112968444824,
        0.4861062467098236,
        0.05687680467963219,
        0.3400772511959076,
        -0.45170336961746216,
        0.2998559772968292,
        -0.923506498336792,
        -0.5152658224105835,
        0.36640122532844543,
        0.25624802708625793,
        -0.16190780699253082,
        -0.2949535846710205,
        -0.08769644796848297,
        -0.08961493521928787,
        0.518392026424408,
        0.5014044046401978
      ],
      [
        -0.5274708271026611,
        0.06362516433000565,
        0.852196991443634,
        0.3958137333393097,
        0.524711012840271,
        0.4527129828929901,
        -0.20193322002887726,
        -0.14229680597782135,
        -0.2576006352901459,
        -1.2665908336639404,
        -0.24066591262817383,
        0.8953864574432373,
        0.3599894642829895,
        -1.2059705257415771,
        -0.8895227909088135,
        -0.24186089634895325,
        0.13490177690982819,
        0.27778682112693787,
        -0.056188322603702545,
        -1.0155967473983765,
        0.749028205871582,
        0.8554306626319885,
        0.3447876572608948,
        0.4413251280784607
      ],
      [
        -0.12866421043872833,
        0.3009287714958191,
        -0.7337177395820618,
        0.4135998785495758,
        0.40786120295524597,
        -0.36787429451942444,
        0.26861169934272766,
        -0.2265295386314392,
        -0.44857725501060486,
        -0.5424160361289978,
        -0.3867296874523163,
        -0.09956221282482147,
        0.2599393427371979,
        0.5110853314399719,
        0.6273518204689026,
        0.42752671241760254,
        -0.1005786582827568,
        0.017670005559921265,
        0.5702096819877625,
        0.49384021759033203,
        -0.009966570883989334,
        -0.7496573328971863,
        0.003067793557420373,
        -0.9388827681541443
      ],
      [
        -0.32876208424568176,
        0.32194337248802185,
        -0.7863778471946716,
        0.4365767538547516,
        -0.4946627914905548,
        -0.35417547821998596,
        -0.5532140731811523,
        0.6071065664291382,
        0.36819177865982056,
        -0.7861236333847046,
        0.8838590383529663,
        -0.46508169174194336,
        0.3558381199836731,
        -0.2661217153072357,
        1.1447234153747559,
        0.41985952854156494,
        -0.48099684715270996,
        0.6421545147895813,
        0.29174211621284485,
        -0.24007117748260498,
        -0.16887874901294708,
        -0.15874440968036652,
        -0.056276146322488785,
        0.4805733859539032
      ],
      [
        1.1188935041427612,
        -0.32686668634414673,
        -0.1724390834569931,
        -0.3216448426246643,
        1.0120530128479004,
        -0.3014535903930664,
        0.9559856057167053,
        -0.4065309464931488,
        -0.7981491088867188,
        -0.2637697160243988,
        -0.691459596157074,
        -0.4230005443096161,
        -0.28550487756729126,
        -0.20907901227474213,
        -0.16841372847557068,
        0.6026758551597595,
        1.0281014442443848,
        -0.9338439702987671,
        -0.23801273107528687,
        -0.4724286198616028,
        0.17462432384490967,
        -0.16595259308815002,
        -0.5062792301177979,
        0.2655826807022095
      ],
      [
        -0.8397861123085022,
        -0.5699443221092224,
        -0.6445227265357971,
        0.06063211336731911,
        -0.1449575424194336,
        0.4284299910068512,
        -0.22207731008529663,
        -0.07509191334247589,
        0.40237656235694885,
        0.14091920852661133,
        -0.4583968222141266,
        -0.23867008090019226,
        -0.5431535840034485,
        0.8739921450614929,
        0.6701435446739197,
        0.7003915905952454,
        -0.029391659423708916,
        0.1197454184293747,
        0.486390620470047,
        0.37217339873313904,
        -0.8033431768417358,
        -0.6194931864738464,
        0.19354625046253204,
        0.06100209429860115
      ],
      [
        -0.7240301966667175,
        0.33265620470046997,
        0.49520137906074524,
        -0.05143142491579056,
        -0.5323337316513062,
        0.7596797347068787,
        -0.12814687192440033,
        0.17442718148231506,
        -0.13839393854141235,
        0.08262250572443008,
        -0.09702086448669434,
        0.009244765155017376,
        0.6564483642578125,
        -0.899641215801239,
        0.07834180444478989,
        -0.6974005699157715,
        0.01850190758705139,
        0.5531249642372131,
        0.22270619869232178,
        0.03182575851678848,
        -0.7136337161064148,
        -0.02233932353556156,
        0.3343920111656189,
        0.2877034842967987
      ],
      [
        -0.3602778911590576,
        0.07955685257911682,
        0.24331732094287872,
        -0.2995207905769348,
        -0.07322562485933304,
        0.42031997442245483,
        0.0955691859126091,
        0.829727053642273,
        0.40718352794647217,
        -0.8356911540031433,
        -0.05981828644871712,
        -0.5379787087440491,
        -0.10420996695756912,
        0.1740623563528061,
        -0.23802949488162994,
        -0.056673530489206314,
        -0.190557062625885,
        1.0517706871032715,
        0.38629528880119324,
        0.16243255138397217,
        0.42459362745285034,
        -0.48097896575927734,
        -0.3130718171596527,
        -1.0627682209014893
      ],
      [
        0.009326069615781307,
        0.003931126557290554,
        0.6258338689804077,
        0.7806063294410706,
        0.7176655530929565,
        -0.5987574458122253,
        0.10798285901546478,
        -0.13754509389400482,
        -0.517085075378418,
        -0.6719865798950195,
        -0.3872266113758087,
        0.32655224204063416,
        -0.01144343800842762,
        0.05736203491687775,
        -0.33900412917137146,
        -0.8691736459732056,
        -0.17167365550994873,
        -0.45704272389411926,
        0.511892557144165,
        0.11130489408969879,
        1.0631622076034546,
        0.18676112592220306,
        -0.9411378502845764,
        0.2664831280708313
      ],
      [
        -0.7557328343391418,
        -0.06238832324743271,
        0.09020239859819412,
        -0.05617649853229523,
        0.35833391547203064,
        0.14507430791854858,
        0.010313152335584164,
        -0.2651742398738861,
        -0.5108885169029236,
        -0.724816620349884,
        -0.580376148223877,
        0.18075254559516907,
        0.6582263708114624,
        0.1401773989200592,
        0.11692070960998535,
        -0.4790010452270508,
        -0.16082905232906342,
        0.44781431555747986,
        0.6507712602615356,
        -0.3436320722103119,
        0.5025333762168884,
        0.09352227300405502,
        0.2505945861339569,
        -0.1807931661605835
      ],
      [
        0.12041263282299042,
        0.8520451188087463,
        0.2678104341030121,
        -0.3993028402328491,
        0.3632233738899231,
        -0.6302275061607361,
        0.05124887824058533,
        0.01527172140777111,
        0.0633261650800705,
        -0.16157746315002441,
        -0.2879522442817688,
        0.01592935621738434,
        -0.748439371585846,
        -0.17506715655326843,
        -0.14085489511489868,
        0.6093950271606445,
        0.004790166858583689,
        -0.05875730141997337,
        0.33016642928123474,
        0.5576049089431763,
        0.6120197176933289,
        -0.22167927026748657,
        -1.0086073875427246,
        -0.16735045611858368
      ],
      [
        0.7325904369354248,
        -0.4776898920536041,
        -0.5214852690696716,
        0.5057151913642883,
        0.1423918455839157,
        -0.03529186174273491,
        -0.6701987385749817,
        -0.5635706782341003,
        0.18590636551380157,
        0.13935714960098267,
        0.9618591070175171,
        -0.43796685338020325,
        0.03943759575486183,
        0.9153192639350891,
        -0.39746928215026855,
        -0.11530247330665588,
        0.032182879745960236,
        0.3859838843345642,
        -0.1634698361158371,
        -0.933997631072998,
        0.30995887517929077,
        0.6384097337722778,
        0.23890277743339539,
        -0.38964712619781494
      ],
      [
        -0.29196539521217346,
        0.3079891502857208,
        -0.6524980068206787,
        -0.2611277103424072,
        0.2740333378314972,
        0.11536619067192078,
        0.22660118341445923,
        0.3808498680591583,
        -0.33850371837615967,
        0.028501464053988457,
        0.023804889991879463,
        0.06498007476329803,
        -0.013300013728439808,
        0.03493966907262802,
        0.004179095849394798,
        0.2654620409011841,
        -0.1014557033777237,
        0.04240985959768295,
        0.0031610403675585985,
        -0.055575914680957794,
        0.27735936641693115,
        0.2256353795528412,
        0.11468612402677536,
        -0.4234662353992462
      ],
      [
        -0.1278284192085266,
        0.45874178409576416,
        0.2778220772743225,
        -0.3800103962421417,
        -0.18476170301437378,
        -0.17864303290843964,
        -0.5425484776496887,
        -0.364845871925354,
        0.06846602261066437,
        -0.17695294320583344,
        -0.0883449837565422,
        0.30278703570365906,
        -0.10903961956501007,
        -0.1632310003042221,
        0.1369466930627823,
        0.3621090352535248,
        -0.03966628015041351,
        0.22035543620586395,
        0.30543065071105957,
        0.5230051279067993,
        -0.1439329981803894,
        -0.18151888251304626,
        -0.3023885190486908,
        0.05403149873018265
      ],
      [
        -0.9455681443214417,
        0.28418147563934326,
        -0.13045240938663483,
        -0.023837070912122726,
        0.1126331090927124,
        0.5005785226821899,
        -0.06348031759262085,
        -0.6666540503501892,
        -0.14827272295951843,
        -0.6145603656768799,
        -0.13039396703243256,
        0.19130049645900726,
        -0.40904584527015686,
        0.8590198159217834,
        0.13647401332855225,
        -0.004269178956747055,
        -0.34020695090293884,
        0.9748353362083435,
        0.48394399881362915,
        0.21491409838199615,
        0.05453401431441307,
        -0.44399023056030273,
        0.7086906433105469,
        -0.7434302568435669
      ],
      [
        0.8931894302368164,
        1.0165601968765259,
        -0.7580397725105286,
        -0.8346447348594666,
        0.26547807455062866,
        -0.41553089022636414,
        -0.469403475522995,
        -0.3408375680446625,
        0.46434465050697327,
        0.7418371438980103,
        0.3297436237335205,
        -0.3706597089767456,
        1.0576822757720947,
        -0.9823071956634521,
        -0.3287767767906189,
        0.719424843788147,
        0.39411044120788574,
        -0.26568758487701416,
        -0.14042586088180542,
        -0.8293684124946594,
        -0.5542879104614258,
        1.020202875137329,
        -0.3138188123703003,
        0.4663722515106201
      ],
      [
        -0.26169610023498535,
        -0.3011075556278229,
        -0.36321231722831726,
        -0.8528857827186584,
        0.1352836638689041,
        -0.7673024535179138,
        0.06634402275085449,
        0.7197469472885132,
        0.33477556705474854,
        -0.6590189337730408,
        -0.045039497315883636,
        0.11513272672891617,
        0.07205655425786972,
        0.44569769501686096,
        0.6999160647392273,
        0.9462410807609558,
        -0.007481178268790245,
        -0.0066344114020466805,
        0.08093388378620148,
        1.3450734615325928,
        -0.25496771931648254,
        -0.8683112263679504,
        0.10344827175140381,
        -0.03655434399843216
      ],
      [
        0.238819420337677,
        0.2822262644767761,
        -0.3709946870803833,
        -0.803372323513031,
        0.4074845314025879,
        -0.2685806453227997,
        0.1972002238035202,
        0.6295758485794067,
        0.35428452491760254,
        -0.4137718379497528,
        -0.12844492495059967,
        -0.5093508958816528,
        -0.004483053460717201,
        0.269829660654068,
        -0.15174226462841034,
        0.8149706125259399,
        -0.028867432847619057,
        0.28161320090293884,
        0.19277799129486084,
        -0.044001542031764984,
        0.2554909288883209,
        -0.10259982198476791,
        -0.2581968903541565,
        -0.8740469813346863
      ]
    ],
    "att.W_query.bias": null,
    "att.W_key.weight": [
      [
        -0.1686122566461563,
        0.13084375858306885,
        0.6563224792480469,
        0.16344290971755981,
        0.10511331260204315,
        -0.4398449659347534,
        -0.10580886155366898,
        0.41663017868995667,
        -0.7278882265090942,
        0.00014759738405700773,
        -0.5881929993629456,
        0.5522584915161133,
        0.2988971769809723,
        -0.24787317216396332,
        0.8711308240890503,
        -0.5566545724868774,
        -1.1027430295944214,
        -0.3540041744709015,
        -0.15695719420909882,
        0.13573682308197021,
        0.3358214199542999,
        0.7775271534919739,
        -0.7844640612602234,
        -0.12720926105976105
      ],
      [
        0.2018870860338211,
        0.42459890246391296,
        0.08750389516353607,
        0.6245681047439575,
        -0.08854355663061142,
        0.18398140370845795,
        -0.15508194267749786,
        0.2286902815103531,
        -0.6921875476837158,
        0.35806944966316223,
        -0.2154131829738617,
        -0.05677139014005661,
        0.027021437883377075,
        0.028080543503165245,
        0.8319092988967896,
        -0.5814821720123291,
        -0.9726731777191162,
        -0.13852857053279877,
        -0.24240446090698242,
        0.4587397873401642,
        -0.1435321718454361,
        0.33812880516052246,
        -0.570471465587616,
        -0.9471733570098877
      ],
      [
        0.4362499415874481,
        -0.27953824400901794,
        0.5655354857444763,
        -0.7001203894615173,
        -1.0885543823242188,
        -0.20504091680049896,
        0.0962713286280632,
        0.6516115069389343,
        0.23456443846225739,
        -1.1666308641433716,
        0.7396551966667175,
        -0.5267689228057861,
        0.6599779725074768,
        -0.8694598078727722,
        -0.2186463177204132,
        0.31965580582618713,
        0.6883994340896606,
        -0.45307672023773193,
        0.6820356845855713,
        0.5571096539497375,
        0.6973518133163452,
        0.46361401677131653,
        -0.08973538130521774,
        -0.49205005168914795
      ],
      [
        -0.40666288137435913,
        -0.44013530015945435,
        0.39632588624954224,
        0.4968789517879486,
        -0.21909382939338684,
        -0.4228612184524536,
        0.7638622522354126,
        1.0448254346847534,
        0.18647702038288116,
        -1.1858495473861694,
        -0.2677542269229889,
        -0.09032139182090759,
        -0.7038415670394897,
        -0.24736157059669495,
        -0.007070015650242567,
        0.41474828124046326,
        -0.12633945047855377,
        -0.6519049406051636,
        0.24041756987571716,
        0.4987032115459442,
        0.6454318165779114,
        0.44431567192077637,
        -0.5475634336471558,
        0.08230847865343094
      ],
      [
        -0.20932598412036896,
        -0.6418406367301941,
        1.704893946647644,
        -0.6449310779571533,
        -0.6020573973655701,
        -0.14882495999336243,
        -0.9099319577217102,
        -0.20263870060443878,
        -0.18118010461330414,
        -0.22821162641048431,
        0.5215570330619812,
        0.4941940903663635,
        0.4333736300468445,
        -0.1645202487707138,
        0.18997378647327423,
        0.9193053841590881,
        -0.7270681262016296,
        -0.1481398195028305,
        0.30094167590141296,
        0.21738706529140472,
        -0.6144400835037231,
        0.5972371101379395,
        0.44549480080604553,
        -0.0716698169708252
      ],
      [
        -0.5466715097427368,
        -0.42861753702163696,
        -0.3496522307395935,
        1.0160537958145142,
        0.36684781312942505,
        -0.28379422426223755,
        0.9580937623977661,
        -0.18471534550189972,
        0.38090962171554565,
        -0.22651417553424835,
        -0.871869683265686,
        0.2886207103729248,
        -0.9507627487182617,
        0.13712497055530548,
        0.22837552428245544,
        0.37369105219841003,
        -0.017973827198147774,
        -0.744748055934906,
        -0.1357184499502182,
        0.4623395502567291,
        0.4477684199810028,
        0.2673536241054535,
        -0.7489251494407654,
        0.03824256733059883
      ],
      [
        0.21607354283332825,
        -0.17804904282093048,
        -0.5892528295516968,
        0.5787604451179504,
        0.6283723711967468,
        -0.15999341011047363,
        -0.6268590688705444,
        0.05191616341471672,
        -0.3514286279678345,
        0.8674643635749817,
        -0.1034427359700203,
        0.21394340693950653,
        0.00032280897721648216,
        0.14935879409313202,
        0.5904412269592285,
        -1.0162928104400635,
        -0.13503652811050415,
        -0.293503999710083,
        -0.27022626996040344,
        0.10403772443532944,
        0.24485793709754944,
        0.20428957045078278,
        -0.7091997265815735,
        -0.2987924814224243
      ],
      [
        -0.1545325666666031,
        -0.2435036152601242,
        -0.7852312326431274,
        0.6994537115097046,
        -0.354901522397995,
        0.20128409564495087,
        -0.2210073173046112,
        -0.3453255891799927,
        -0.3651944100856781,
        0.7790098190307617,
        0.7216868996620178,
        0.03569963201880455,
        0.4063419699668884,
        -0.1427731215953827,
        0.9126946926116943,
        -0.948774516582489,
        -0.12502533197402954,
        0.6792463064193726,
        -0.2887931168079376,
        0.5834667086601257,
        -1.5055615901947021,
        0.44252318143844604,
        0.2516230046749115,
        -0.8739546537399292
      ],
      [
        0.050244465470314026,
        0.5539536476135254,
        0.5626300573348999,
        -0.9930127263069153,
        -0.3964211046695709,
        -0.2173054963350296,
        -0.5663449764251709,
        0.08215361088514328,
        0.10629086196422577,
        0.4990350902080536,
        -0.12009047716856003,
        -0.10646867007017136,
        0.3936771750450134,
        0.5005333423614502,
        -1.0128061771392822,
        0.7956178784370422,
        0.007189714349806309,
        0.27197498083114624,
        -0.16357634961605072,
        -0.5280348658561707,
        -0.10462071746587753,
        -0.18740811944007874,
        0.5102737545967102,
        0.497005820274353
      ],
      [
        0.5880128145217896,
        0.33383455872535706,
        0.21234965324401855,
        -0.2670783996582031,
        -0.6202871203422546,
        0.4735126197338104,
        0.154259592294693,
        -0.6252716779708862,
        -0.26116758584976196,
        -0.3825407028198242,
        0.017720457166433334,
        -0.911848783493042,
        0.1463964283466339,
        0.20528246462345123,
        -0.2764604091644287,
        0.7126575708389282,
        1.1091333627700806,
        -0.2530290186405182,
        1.1510354280471802,
        -0.018273498862981796,
        -0.4737100601196289,
        -0.14637422561645508,
        0.1573707014322281,
        -0.4915740191936493
      ],
      [
        -0.5619350671768188,
        -0.015983322635293007,
        0.9294235706329346,
        0.02252570539712906,
        -0.2238650619983673,
        -0.3610456585884094,
        0.12658804655075073,
        0.8608797192573547,
        0.21407069265842438,
        -0.16721521317958832,
        -0.6305603981018066,
        0.16466756165027618,
        -0.5601308345794678,
        0.3824755549430847,
        -0.10335163027048111,
        1.0078918933868408,
        -1.9760066270828247,
        -0.12436100095510483,
        -0.8449685573577881,
        0.31569239497184753,
        0.3602968752384186,
        0.5052773952484131,
        -0.11115601658821106,
        -0.041077688336372375
      ],
      [
        0.3812648057937622,
        0.8358427882194519,
        0.5384748578071594,
        -0.6700604557991028,
        -0.04355545714497566,
        0.3981696665287018,
        -0.3566513657569885,
        -0.7267878651618958,
        0.13694515824317932,
        0.4585787355899811,
        -0.21847733855247498,
        -0.42955249547958374,
        0.6698856949806213,
        0.34450384974479675,
        -0.7849321365356445,
        0.28097352385520935,
        0.34962472319602966,
        -0.2725791335105896,
        -0.06116572022438049,
        -0.14173628389835358,
        0.9912415146827698,
        -0.532272219657898,
        -0.3042905330657959,
        -0.5074086785316467
      ],
      [
        -0.3368052542209625,
        0.5085269808769226,
        -0.7779628038406372,
        0.5450119376182556,
        -0.07160000503063202,
        -0.32418516278266907,
        -0.2172427773475647,
        -0.121303491294384,
        0.5162382125854492,
        0.2990396320819855,
        0.08840131759643555,
        0.6068941950798035,
        -0.48608633875846863,
        -0.606723964214325,
        -0.4817446768283844,
        0.723341166973114,
        0.2065470665693283,
        0.2530791759490967,
        1.0500975847244263,
        -0.6956225037574768,
        -0.13620707392692566,
        0.30880507826805115,
        0.018758652731776237,
        0.1382598578929901
      ],
      [
        0.31701961159706116,
        1.062507152557373,
        -0.4628757834434509,
        -0.12281240522861481,
        0.11094536632299423,
        0.5592284202575684,
        0.39796048402786255,
        -0.5936777591705322,
        0.11967573314905167,
        0.1729656457901001,
        0.6148216724395752,
        0.18600855767726898,
        0.7273358702659607,
        -0.7535821795463562,
        -0.6389702558517456,
        0.409624844789505,
        0.3534860610961914,
        0.00406144093722105,
        -0.7788988947868347,
        -0.3327605724334717,
        0.1824861466884613,
        -0.0917176678776741,
        -0.8052968978881836,
        0.03694678470492363
      ],
      [
        0.39254313707351685,
        -0.008839655667543411,
        0.32651403546333313,
        -0.8948050737380981,
        -0.34640830755233765,
        0.1399555504322052,
        -0.9091992974281311,
        0.19559021294116974,
        0.40561264753341675,
        0.2294064462184906,
        -0.028487930074334145,
        -0.2584725022315979,
        0.5884740352630615,
        0.7432457208633423,
        -0.20770424604415894,
        -0.4591157138347626,
        1.567327618598938,
        -0.6819139719009399,
        -0.2532772421836853,
        -0.16411402821540833,
        -0.6709498167037964,
        -0.3599710166454315,
        0.47392699122428894,
        -0.055282577872276306
      ],
      [
        0.30392324924468994,
        0.04781775176525116,
        0.07656687498092651,
        0.0335334837436676,
        -0.414654940366745,
        0.4405975341796875,
        -0.05326034128665924,
        0.37807396054267883,
        0.7811198830604553,
        0.13283993303775787,
        0.5306307077407837,
        -0.047558702528476715,
        0.13328801095485687,
        -0.4010026752948761,
        -0.3987632989883423,
        0.13151146471500397,
        0.8192941546440125,
        -0.46708545088768005,
        -0.3271854519844055,
        -0.992810845375061,
        -0.10793352127075195,
        0.6991223096847534,
        -0.24716219305992126,
        -0.2962869107723236
      ],
      [
        0.316591739654541,
        0.14054615795612335,
        -0.17716452479362488,
        -0.07571568340063095,
        0.6425506472587585,
        0.028623826801776886,
        -0.08286430686712265,
        -0.16994617879390717,
        0.12662789225578308,
        -0.04879365861415863,
        0.2479599565267563,
        -0.5142437815666199,
        0.5152526497840881,
        0.7993181347846985,
        0.16383670270442963,
        -0.6563975811004639,
        0.3518928587436676,
        -0.04590659588575363,
        -0.5876259207725525,
        0.7113319635391235,
        -0.4756479859352112,
        -0.6831575036048889,
        -0.6765736937522888,
        -0.29992595314979553
      ],
      [
        0.30465954542160034,
        -0.3666171729564667,
        -0.011827327311038971,
        -0.2919466197490692,
        -0.803077757358551,
        0.34292036294937134,
        0.4701600968837738,
        0.18033848702907562,
        -0.5817758440971375,
        -0.005737867206335068,
        -0.37514737248420715,
        -0.4854375422000885,
        -0.5009015202522278,
        -0.48377159237861633,
        0.23888452351093292,
        0.3190917372703552,
        0.014630650170147419,
        -0.4570501148700714,
        -0.5650793313980103,
        0.3610358238220215,
        0.9670459032058716,
        -0.19964106380939484,
        0.33520543575286865,
        0.829440176486969
      ],
      [
        0.05690696835517883,
        -0.2877327799797058,
        0.3540131151676178,
        0.08928561210632324,
        -0.08222673088312149,
        0.3467203974723816,
        0.2925144135951996,
        -0.008758761920034885,
        -0.07020369172096252,
        0.21044503152370453,
        -0.01260383240878582,
        0.08312319219112396,
        0.24110475182533264,
        -0.1874416172504425,
        0.22414180636405945,
        -0.2338082641363144,
        -0.11679664254188538,
        0.11664868146181107,
        -0.0224168561398983,
        -0.02870127372443676,
        -0.24003881216049194,
        -0.07755142450332642,
        -0.6648420095443726,
        -0.10179562866687775
      ],
      [
        0.10755591839551926,
        0.16759534180164337,
        -0.21303366124629974,
        0.5188599228858948,
        0.19659775495529175,
        -0.2814742624759674,
        0.23615288734436035,
        -0.15873737633228302,
        0.5234596133232117,
        -0.21430329978466034,
        0.16642801463603973,
        -0.23799994587898254,
        -0.23408903181552887,
        0.16105832159519196,
        -0.3721621334552765,
        0.04323164001107216,
        -0.14817427098751068,
        0.087488554418087,
        0.0171024352312088,
        0.3934952914714813,
        -0.15430206060409546,
        -0.27223658561706543,
        -0.051099129021167755,
        -0.17846331000328064
      ],
      [
        0.8012431859970093,
        0.551235556602478,
        -0.5175313353538513,
        0.0604134276509285,
        -0.1067781150341034,
        0.19929803907871246,
        0.27487078309059143,
        0.1211177259683609,
        0.8494840860366821,
        -0.39039894938468933,
        0.5792014002799988,
        -0.5730283260345459,
        0.5848580002784729,
        -0.8706924915313721,
        -0.6192997097969055,
        0.7714135646820068,
        0.19968189299106598,
        -0.03752759099006653,
        -0.4403037130832672,
        -0.4656359553337097,
        0.40706318616867065,
        0.6874017715454102,
        -0.570199728012085,
        -0.27509045600891113
      ],
      [
        -1.054521083831787,
        -1.2919301986694336,
        0.020757943391799927,
        0.8496794700622559,
        0.21785414218902588,
        -0.647239625453949,
        -0.012526233680546284,
        -0.04143237695097923,
        -0.2871547043323517,
        0.7197011113166809,
        0.07376517355442047,
        0.30401310324668884,
        -1.626874327659607,
        0.49405279755592346,
        1.0184284448623657,
        -0.4887992739677429,
        -0.3325819969177246,
        0.3081619441509247,
        0.020711539313197136,
        0.6534902453422546,
        0.46109887957572937,
        -0.4454004764556885,
        -0.3829866349697113,
        0.08699330687522888
      ],
      [
        -0.5616631507873535,
        0.7856464982032776,
        0.8471169471740723,
        0.26757895946502686,
        0.46021151542663574,
        0.22117939591407776,
        0.5760477185249329,
        -0.33585280179977417,
        -0.05907449871301651,
        -0.574504554271698,
        0.5299869775772095,
        -0.028433887287974358,
        0.17640447616577148,
        0.5868043303489685,
        -0.5064951777458191,
        -0.3320099413394928,
        -0.6789116263389587,
        -0.08048699796199799,
        -0.8232709765434265,
        0.010837963782250881,
        0.26313769817352295,
        0.22574175894260406,
        -0.5261324048042297,
        -1.050288200378418
      ],
      [
        -0.1557275354862213,
        -0.07132989168167114,
        0.24982793629169464,
        0.13471011817455292,
        0.4313594698905945,
        0.30541348457336426,
        0.6836696863174438,
        -0.41141122579574585,
        -0.16010016202926636,
        0.06404909491539001,
        0.5325632691383362,
        0.008528602309525013,
        0.3746584951877594,
        -0.07505941390991211,
        0.21963217854499817,
        -0.3753044009208679,
        -0.11455585062503815,
        0.10274969041347504,
        -1.163590431213379,
        0.05572206526994705,
        0.2687080502510071,
        -0.06968759000301361,
        -0.8935592770576477,
        -0.48560699820518494
      ]
    ],
    "att.W_key.bias": null,
    "att.W_value.weight": [
      [
        0.6094313263893127,
        -0.1407669633626938,
        -0.2916656732559204,
        0.2961861193180084,
        0.40151557326316833,
        -0.04792312905192375,
        0.180430606007576,
        0.02533734403550625,
        0.25222596526145935,
        -0.08874779939651489,
        0.028169555589556694,
        0.24557092785835266,
        -0.24361377954483032,
        0.3579860031604767,
        -0.25044238567352295,
        -0.05926527827978134,
        -0.343068927526474,
        -0.9922720193862915,
        -0.34122157096862793,
        0.05976804718375206,
        -0.31931838393211365,
        -0.18188738822937012,
        0.5414443612098694,
        0.12665735185146332
      ],
      [
        -0.025137824937701225,
        0.045393433421850204,
        -0.4178098142147064,
        0.5592665672302246,
        0.6873279213905334,
        0.4113745093345642,
        -0.07138385623693466,
        -0.024089643731713295,
        -0.13261358439922333,
        0.07365279644727707,
        0.6724854707717896,
        -0.05672243610024452,
        -0.23991549015045166,
        -0.09521399438381195,
        -0.20772652328014374,
        0.18948709964752197,
        -0.34554076194763184,
        -0.3812631368637085,
        0.5823414325714111,
        -0.15837955474853516,
        -0.02603847160935402,
        -0.0039705499075353146,
        0.014069930650293827,
        -0.3398449420928955
      ],
      [
        -0.1214689239859581,
        0.41042712330818176,
        -0.31702494621276855,
        0.15846450626850128,
        0.21538396179676056,
        0.1711851954460144,
        0.11792054772377014,
        -0.06726077198982239,
        0.6445803046226501,
        -0.31840482354164124,
        -0.12084267288446426,
        0.16249793767929077,
        -0.06351698189973831,
        -0.02409498393535614,
        -0.19429631531238556,
        0.16376228630542755,
        0.3712441623210907,
        -0.49083155393600464,
        -0.20461493730545044,
        -0.051617998629808426,
        -0.4815806448459625,
        0.05961671471595764,
        0.764656662940979,
        0.0016252840869128704
      ],
      [
        0.15508687496185303,
        -0.007674327585846186,
        0.10628245770931244,
        -0.1528148502111435,
        0.421244353055954,
        -0.41193047165870667,
        -0.5539360642433167,
        -0.02150801382958889,
        0.11077158898115158,
        -0.21956199407577515,
        0.2049771100282669,
        0.4418557286262512,
        -0.10028566420078278,
        -0.566865861415863,
        0.1814247965812683,
        -0.293660968542099,
        0.04295797273516655,
        0.3671403229236603,
        -0.15818853676319122,
        -0.33785495162010193,
        0.6372507214546204,
        -0.17057064175605774,
        0.4987906813621521,
        0.28169235587120056
      ],
      [
        -0.920053243637085,
        0.29157623648643494,
        -0.4202095866203308,
        0.07322894781827927,
        0.39437565207481384,
        0.46716904640197754,
        -0.08674796670675278,
        0.25900596380233765,
        -0.24769705533981323,
        0.026263754814863205,
        -0.383705735206604,
        -0.9565510153770447,
        0.22700715065002441,
        0.05083789676427841,
        0.23784884810447693,
        -0.3877107501029968,
        0.3014482855796814,
        -0.12457791715860367,
        0.046812742948532104,
        -0.11489522457122803,
        -0.0697275698184967,
        0.21178951859474182,
        0.5035395622253418,
        0.42217618227005005
      ],
      [
        -0.5031367540359497,
        0.5316466689109802,
        0.05240406468510628,
        0.18307816982269287,
        -0.035220444202423096,
        -0.0025312351062893867,
        0.20537692308425903,
        -0.12814947962760925,
        -0.5613919496536255,
        -0.3442873954772949,
        0.6743728518486023,
        -0.13937044143676758,
        0.29602140188217163,
        0.048970893025398254,
        0.015696819871664047,
        -0.2463179975748062,
        0.16932834684848785,
        -0.3710139989852905,
        -0.8411597609519958,
        0.08908671140670776,
        0.23104989528656006,
        -0.20003755390644073,
        0.1539226919412613,
        0.2440531700849533
      ],
      [
        -0.08574946969747543,
        -0.04660286009311676,
        -0.22096866369247437,
        -0.4642975628376007,
        0.11851920932531357,
        -0.08583035320043564,
        0.33194077014923096,
        0.5229804515838623,
        0.13859055936336517,
        -0.460164338350296,
        0.04553964361548424,
        0.012447729706764221,
        0.3456345796585083,
        -0.35047224164009094,
        -0.06804176419973373,
        -0.15009136497974396,
        -0.08156237751245499,
        -0.32887330651283264,
        -0.353255957365036,
        0.1796816736459732,
        -0.07779480516910553,
        0.12093404680490494,
        0.28257691860198975,
        0.24590395390987396
      ],
      [
        0.14813154935836792,
        -0.21586325764656067,
        0.21769849956035614,
        -0.38924139738082886,
        0.1603630632162094,
        0.6252217888832092,
        0.10164356231689453,
        0.2817705273628235,
        0.9010323286056519,
        0.13649331033229828,
        -0.36966073513031006,
        -0.015859249979257584,
        0.07656635344028473,
        -0.5030004382133484,
        0.25846564769744873,
        -0.4021117091178894,
        -0.08998604118824005,
        -0.6401092410087585,
        -0.25644102692604065,
        0.03071335144340992,
        -0.12499407678842545,
        -0.12253772467374802,
        -0.35216808319091797,
        0.1818099170923233
      ],
      [
        0.048563793301582336,
        0.1604204773902893,
        0.08921843022108078,
        -0.012909126468002796,
        0.2975301742553711,
        -0.09094690531492233,
        -0.2764776647090912,
        -0.2038622349500656,
        -0.10157021135091782,
        0.13572104275226593,
        -0.5691654682159424,
        -0.348420649766922,
        0.10036074370145798,
        -0.2377537488937378,
        -0.19036570191383362,
        -0.4038447141647339,
        0.014362109825015068,
        0.21099671721458435,
        0.33256861567497253,
        -0.004773280583322048,
        0.3374910354614258,
        0.20787933468818665,
        -0.06917528808116913,
        0.8559664487838745
      ],
      [
        0.10286460816860199,
        0.024678952991962433,
        0.1974756419658661,
        -0.1049908846616745,
        0.6471025347709656,
        -0.22901175916194916,
        0.11044527590274811,
        0.39439454674720764,
        -0.009088446386158466,
        0.0012004021555185318,
        0.47104698419570923,
        0.13250522315502167,
        -0.5663295984268188,
        -0.7196486592292786,
        0.0441160723567009,
        0.19280271232128143,
        0.03410770744085312,
        0.5982433557510376,
        -0.6780397891998291,
        0.5056284666061401,
        0.20610424876213074,
        -0.3837425112724304,
        -0.7534045577049255,
        -0.11957643181085587
      ],
      [
        -0.10733963549137115,
        0.36049607396125793,
        -0.18986132740974426,
        0.3340889811515808,
        -0.16367179155349731,
        -0.28691408038139343,
        0.07421988993883133,
        0.37717607617378235,
        -0.07133204489946365,
        -0.028933964669704437,
        -0.08234215527772903,
        -0.37706080079078674,
        0.11788029968738556,
        0.037459686398506165,
        0.40203145146369934,
        0.2193542718887329,
        0.12480767071247101,
        0.46729955077171326,
        -0.233990877866745,
        -0.37311816215515137,
        -0.3657817542552948,
        0.4017602205276489,
        -0.2941874563694,
        -0.2519807815551758
      ],
      [
        -0.39338839054107666,
        -0.40389731526374817,
        0.35729676485061646,
        -0.506201982498169,
        0.2613784968852997,
        -0.23299294710159302,
        -0.2758713662624359,
        0.30269303917884827,
        -0.5751896500587463,
        0.014555167406797409,
        0.42450150847435,
        0.12572748959064484,
        -0.406352698802948,
        0.19434791803359985,
        -0.10758920758962631,
        -0.039449192583560944,
        0.3520788252353668,
        -0.2400759607553482,
        -0.24681104719638824,
        0.43130263686180115,
        -0.4932880699634552,
        0.2661091387271881,
        -0.35252276062965393,
        0.4036705195903778
      ],
      [
        -0.7313178181648254,
        0.3483583927154541,
        0.3999587297439575,
        0.22142191231250763,
        -0.34978920221328735,
        -0.7836397290229797,
        0.1312013566493988,
        -0.09729383885860443,
        -0.14015799760818481,
        0.31044793128967285,
        0.6580448746681213,
        -0.12573948502540588,
        0.0996147021651268,
        -0.25563058257102966,
        -0.034608349204063416,
        -0.35933980345726013,
        0.05165615677833557,
        -0.3025625944137573,
        -0.37751421332359314,
        0.24681918323040009,
        -0.5652834177017212,
        0.10773369669914246,
        0.5576332211494446,
        -0.1562824249267578
      ],
      [
        0.12539449334144592,
        -0.33704349398612976,
        0.14035800099372864,
        0.06063929945230484,
        -0.6921173930168152,
        -0.04556455463171005,
        -0.3209666609764099,
        -0.5000366568565369,
        0.8485391139984131,
        -0.3819563686847687,
        0.06791429221630096,
        0.01792062073945999,
        -0.4225655496120453,
        0.07000169157981873,
        0.4678346812725067,
        0.17016206681728363,
        0.012117566540837288,
        -0.03216344490647316,
        -0.1723041832447052,
        -0.05680951103568077,
        0.13333499431610107,
        0.5391409397125244,
        -0.10076191276311874,
        0.3712124526500702
      ],
      [
        -0.3796427547931671,
        -0.384999543428421,
        0.25728124380111694,
        -0.3213751018047333,
        0.1749975085258484,
        -0.34365493059158325,
        0.13298603892326355,
        0.30483731627464294,
        0.26427215337753296,
        0.3190402090549469,
        0.4939766526222229,
        -0.3674302101135254,
        0.38741767406463623,
        -0.23470506072044373,
        0.26569864153862,
        -0.7188730239868164,
        0.16399410367012024,
        0.7037318348884583,
        0.21394792199134827,
        -0.2317272126674652,
        -0.2958216071128845,
        -0.03209703415632248,
        0.012319725006818771,
        -0.3577621579170227
      ],
      [
        -0.02314349077641964,
        0.3463483452796936,
        -0.07298295199871063,
        -0.10246293991804123,
        -0.04848639667034149,
        0.7543740272521973,
        -0.3806931972503662,
        0.8502215147018433,
        -0.029291685670614243,
        -0.23211729526519775,
        -0.413499653339386,
        -0.46189916133880615,
        -0.31258657574653625,
        0.29270514845848083,
        0.01851126365363598,
        -0.2242061048746109,
        0.5418582558631897,
        0.3883025348186493,
        0.046055492013692856,
        0.2735295295715332,
        -0.03278244286775589,
        -0.6676315069198608,
        0.029964374378323555,
        -0.13349813222885132
      ],
      [
        -0.08885668963193893,
        0.09191811829805374,
        0.13931423425674438,
        0.4061278700828552,
        0.1214049831032753,
        0.1007796972990036,
        -0.00979563593864441,
        -0.2150684893131256,
        0.07525727152824402,
        0.12368535995483398,
        -0.018981952220201492,
        0.15183813869953156,
        -0.22933872044086456,
        0.19757898151874542,
        -0.19596944749355316,
        0.15281179547309875,
        -0.15630406141281128,
        0.030947191640734673,
        0.15858344733715057,
        0.04144101217389107,
        -0.3511481285095215,
        -0.005915636662393808,
        -0.31318286061286926,
        -0.21104252338409424
      ],
      [
        0.08514906466007233,
        -0.09519287198781967,
        0.17122593522071838,
        -0.34936684370040894,
        -0.1520446538925171,
        -0.34613004326820374,
        0.059617746621370316,
        -0.18123212456703186,
        0.23703984916210175,
        -0.20838549733161926,
        0.20350587368011475,
        0.4883193373680115,
        -0.20662884414196014,
        -0.2581981122493744,
        0.2387930154800415,
        0.3500482439994812,
        0.04194410517811775,
        0.4127565920352936,
        0.14227259159088135,
        -0.04647308960556984,
        -0.3985992670059204,
        0.291144460439682,
        0.2872790992259979,
        -0.1714821606874466
      ],
      [
        -0.21368026733398438,
        0.5231643319129944,
        -0.32667386531829834,
        0.26011812686920166,
        -0.6914798021316528,
        0.6426428556442261,
        0.096027672290802,
        -0.6449165344238281,
        0.47242146730422974,
        0.26947498321533203,
        0.13874484598636627,
        1.0339444875717163,
        0.04302949085831642,
        0.010599788278341293,
        -0.18722017109394073,
        -0.4610549211502075,
        -0.3304736316204071,
        -0.5251129865646362,
        0.32363492250442505,
        0.23820306360721588,
        0.18674835562705994,
        -0.7608160972595215,
        0.01761174388229847,
        0.2368892878293991
      ],
      [
        -0.0013208716409280896,
        -0.09319113194942474,
        0.4611562490463257,
        -0.7684587240219116,
        0.06883347034454346,
        0.3365153670310974,
        -0.4036032557487488,
        0.5818415284156799,
        -0.15255290269851685,
        -0.18985751271247864,
        0.28433698415756226,
        0.09889529645442963,
        -0.034512296319007874,
        -0.20978091657161713,
        -0.17168715596199036,
        -0.4902138411998749,
        -0.20945493876934052,
        -0.2565256357192993,
        0.2670232653617859,
        0.22561012208461761,
        0.5884491801261902,
        -0.49319425225257874,
        0.8805369138717651,
        0.06388497352600098
      ],
      [
        0.028306342661380768,
        -0.12578396499156952,
        -0.012751447036862373,
        -0.220371812582016,
        0.0030328715220093727,
        -0.18075092136859894,
        0.11219452321529388,
        0.14957429468631744,
        0.09841218590736389,
        0.004243922419846058,
        0.10739850252866745,
        0.10660222917795181,
        -0.02609921619296074,
        -0.22970010340213776,
        0.18406546115875244,
        -0.06118930131196976,
        0.22256982326507568,
        -0.01810315065085888,
        -0.026600630953907967,
        -0.03465152904391289,
        0.19573697447776794,
        0.06696373224258423,
        0.314742773771286,
        0.026920463889837265
      ],
      [
        0.006165904458612204,
        -0.2984308898448944,
        -0.09467936307191849,
        -0.011046384461224079,
        -0.7597970962524414,
        0.2219390869140625,
        -0.03437595069408417,
        0.7483294606208801,
        0.8198788166046143,
        0.06647801399230957,
        -0.4895060062408447,
        -0.08083134144544601,
        -0.04183389991521835,
        0.27952882647514343,
        0.16067132353782654,
        -0.34153351187705994,
        0.1827315241098404,
        -0.2088177502155304,
        -0.7223292589187622,
        0.04303676635026932,
        0.20415882766246796,
        -0.2032797932624817,
        0.04259217903017998,
        0.3670887351036072
      ],
      [
        0.04725941643118858,
        0.8032130599021912,
        0.33543670177459717,
        -0.01793881319463253,
        -0.39588481187820435,
        0.15336723625659943,
        0.11009687185287476,
        -0.12019185721874237,
        -0.6549240350723267,
        0.32598331570625305,
        -0.842383861541748,
        -0.5723945498466492,
        -0.47237429022789,
        -0.0860367864370346,
        -0.19570468366146088,
        0.3644244074821472,
        -0.13640987873077393,
        0.05639822781085968,
        -0.45221757888793945,
        0.29240161180496216,
        -0.27926817536354065,
        0.1581464409828186,
        0.535125732421875,
        0.15133273601531982
      ],
      [
        -0.39832213521003723,
        0.23812240362167358,
        0.18617303669452667,
        0.3227861225605011,
        0.3168086111545563,
        0.34573817253112793,
        0.5062694549560547,
        0.1542907953262329,
        0.6151790022850037,
        0.0779600590467453,
        -0.39134830236434937,
        0.06211968511343002,
        -0.41700074076652527,
        -0.006093056406825781,
        -0.30614742636680603,
        -0.07216786593198776,
        -0.3735170066356659,
        0.2813514173030853,
        -0.599074125289917,
        -0.0038053414318710566,
        -0.667395293712616,
        -0.3593026101589203,
        0.39838114380836487,
        0.043454281985759735
      ]
    ],
    "att.W_value.bias": null,
    "att.out_proj.weight": [
      [
        -0.24005962908267975,
        -0.7873709797859192,
        0.19699421525001526,
        0.6333463191986084,
        0.251741498708725,
        0.22015532851219177,
        0.4438319206237793,
        0.47898492217063904,
        0.18270213901996613,
        0.1333242654800415,
        -0.03868995979428291,
        -0.06402409076690674,
        -0.7492729425430298,
        -0.07916264981031418,
        -0.31695547699928284,
        0.7779226303100586,
        -0.06730543822050095,
        -0.32755744457244873,
        0.11699197441339493,
        0.1867993026971817,
        -0.07704905420541763,
        0.5088443756103516,
        0.2305411547422409,
        -0.1671750694513321
      ],
      [
        0.528654932975769,
        -0.01366494968533516,
        0.010097168385982513,
        -0.4126717746257782,
        -0.04111224412918091,
        0.30097833275794983,
        0.22571679949760437,
        0.228146493434906,
        -0.36359092593193054,
        0.2417764812707901,
        0.060474079102277756,
        0.3221001625061035,
        0.2667454779148102,
        0.434772789478302,
        0.7347489595413208,
        0.42842593789100647,
        0.018869413062930107,
        0.3622739017009735,
        -0.7840808629989624,
        -0.43746548891067505,
        -0.055884599685668945,
        0.2174428403377533,
        -0.1768280565738678,
        -0.10151005536317825
      ],
      [
        0.17984271049499512,
        -0.03588541969656944,
        -0.008450472727417946,
        0.36216744780540466,
        0.26746866106987,
        0.2734414041042328,
        0.12988662719726562,
        -0.26198720932006836,
        0.3416095972061157,
        0.42824363708496094,
        0.05853349342942238,
        0.15637236833572388,
        -0.165517657995224,
        -0.2100619226694107,
        -0.06999436020851135,
        0.4128892719745636,
        -0.1312134563922882,
        -0.07077529281377792,
        -0.12513001263141632,
        0.07541777938604355,
        0.06149260699748993,
        0.39651724696159363,
        0.1206178218126297,
        0.6035030484199524
      ],
      [
        -0.4115511476993561,
        0.7493537664413452,
        -0.2130582183599472,
        0.004530566744506359,
        -0.12676410377025604,
        -0.23548674583435059,
        -0.45179593563079834,
        -0.8374732136726379,
        0.208513081073761,
        0.04661625251173973,
        0.05529516562819481,
        -0.09381632506847382,
        0.015158262103796005,
        -0.04665481299161911,
        -0.5172774791717529,
        0.04147259518504143,
        -0.24762888252735138,
        0.21345272660255432,
        -0.20477832853794098,
        0.22268927097320557,
        0.22809232771396637,
        0.08769283443689346,
        0.22813373804092407,
        -0.23974131047725677
      ],
      [
        0.14319656789302826,
        -0.029630467295646667,
        -0.25508707761764526,
        0.2572164833545685,
        0.2621184289455414,
        0.09325418621301651,
        0.1337059587240219,
        0.15945449471473694,
        0.4916510283946991,
        -0.0015133278211578727,
        -0.33897000551223755,
        0.05018610879778862,
        0.10014092177152634,
        0.4057818353176117,
        -0.09111414104700089,
        -0.5143132209777832,
        0.06994013488292694,
        0.08390261232852936,
        -0.24433563649654388,
        -0.45797833800315857,
        0.07096599787473679,
        -0.384199857711792,
        -0.017821354791522026,
        -0.3332490622997284
      ],
      [
        0.21726205945014954,
        -0.30114179849624634,
        -0.24294885993003845,
        0.22052878141403198,
        -0.5631202459335327,
        -0.24282561242580414,
        0.13788484036922455,
        -0.2079012095928192,
        -0.16014796495437622,
        -0.6302576661109924,
        -0.18653643131256104,
        -0.28169870376586914,
        -0.2569334805011749,
        -0.3491060733795166,
        0.3373788595199585,
        -0.1826658695936203,
        -0.2763550579547882,
        0.4484151005744934,
        -0.4599636197090149,
        0.4288475215435028,
        0.22789984941482544,
        -0.362808495759964,
        -0.07411663979291916,
        0.15004940330982208
      ],
      [
        0.40667030215263367,
        0.2337537705898285,
        -0.2357814908027649,
        0.43653690814971924,
        -0.6618313193321228,
        0.45935264229774475,
        -0.17972657084465027,
        -0.2331557422876358,
        -0.3354811370372772,
        0.004858051426708698,
        -0.009289948269724846,
        -0.35353773832321167,
        0.6714794039726257,
        -0.3092830777168274,
        0.4305526912212372,
        -0.3426012098789215,
        -0.0911853015422821,
        -0.053412940353155136,
        -0.259700208902359,
        0.3360423743724823,
        0.07057596743106842,
        0.04447789862751961,
        0.22073642909526825,
        0.3870430886745453
      ],
      [
        -0.16502521932125092,
        -0.2550427317619324,
        0.03822241351008415,
        -0.02607036754488945,
        -0.45358508825302124,
        -0.19508162140846252,
        0.31076914072036743,
        0.20624026656150818,
        -0.46429020166397095,
        0.22297409176826477,
        0.11174703389406204,
        0.28969889879226685,
        0.058507975190877914,
        0.141530841588974,
        -0.2629633843898773,
        -0.6321312189102173,
        0.08194762468338013,
        0.37103065848350525,
        0.16346023976802826,
        -0.28642892837524414,
        -0.15952527523040771,
        -0.5162709355354309,
        0.2621689438819885,
        -0.14895446598529816
      ],
      [
        -0.3046492338180542,
        0.14956098794937134,
        -0.20159131288528442,
        -0.2687479555606842,
        0.4035797119140625,
        0.007615204900503159,
        -0.05273951217532158,
        -0.27063944935798645,
        0.14691759645938873,
        -0.6160578727722168,
        0.2185976356267929,
        0.05921581760048866,
        0.30399465560913086,
        -0.42291638255119324,
        0.14183855056762695,
        0.49124062061309814,
        -0.044550102204084396,
        -0.12503187358379364,
        0.6270573139190674,
        0.5734300017356873,
        -0.04427047446370125,
        -0.00658355001360178,
        -0.15534479916095734,
        -0.23350495100021362
      ],
      [
        -0.36102354526519775,
        -0.24089764058589935,
        -0.5580560564994812,
        -0.12113486975431442,
        -0.3159862756729126,
        -0.6624020934104919,
        -0.5113036632537842,
        0.020259924232959747,
        0.0972941666841507,
        0.4248579442501068,
        -0.11623390763998032,
        -0.4284721314907074,
        -0.8029286861419678,
        0.04516777768731117,
        0.1130787655711174,
        0.1401299238204956,
        0.2475258708000183,
        0.449653297662735,
        0.12898148596286774,
        0.0435442216694355,
        -0.06098314747214317,
        -0.15294307470321655,
        -0.3096903860569,
        0.06857376545667648
      ],
      [
        -0.429757297039032,
        -0.2519148588180542,
        -0.47196030616760254,
        0.12501420080661774,
        -0.19665464758872986,
        -0.3574065566062927,
        0.053137753158807755,
        -0.31352412700653076,
        0.0009313633199781179,
        0.07261420041322708,
        0.244759663939476,
        0.5233873724937439,
        -0.5148116946220398,
        0.3654033839702606,
        0.3428400754928589,
        -0.06736943125724792,
        -0.16433586180210114,
        -0.038102053105831146,
        0.052297212183475494,
        0.4628766179084778,
        -0.007493604905903339,
        0.31757277250289917,
        -0.45453858375549316,
        -0.3728853464126587
      ],
      [
        -0.7137730717658997,
        0.22265350818634033,
        -0.37092164158821106,
        -0.1731821447610855,
        0.7443483471870422,
        -0.07733217626810074,
        0.12222736328840256,
        0.38838472962379456,
        0.4918796718120575,
        0.1439889669418335,
        0.05090658366680145,
        0.009579654783010483,
        -0.2032797783613205,
        -0.6911545395851135,
        -0.09191347658634186,
        -0.25643977522850037,
        0.25683003664016724,
        -0.33663615584373474,
        0.42483192682266235,
        -0.2584875822067261,
        -0.17588214576244354,
        -0.6506534814834595,
        -0.09052862972021103,
        -0.18167397379875183
      ],
      [
        -0.2943798005580902,
        -0.40992581844329834,
        -0.025821998715400696,
        -0.012473112903535366,
        -0.06723441928625107,
        0.6193996071815491,
        -0.11529632657766342,
        -0.37732425332069397,
        0.022310147061944008,
        -0.06864495575428009,
        0.2820277512073517,
        -0.17689485847949982,
        0.1841074824333191,
        0.5417267084121704,
        -0.5086319446563721,
        -0.24211379885673523,
        0.23883056640625,
        0.16626207530498505,
        0.4712652862071991,
        -0.40088072419166565,
        -0.10732435435056686,
        0.16128213703632355,
        0.02151489071547985,
        0.19478614628314972
      ],
      [
        -0.12041093409061432,
        -0.31984183192253113,
        -0.45451897382736206,
        0.2689054012298584,
        -0.4127948582172394,
        -0.28556618094444275,
        -0.5397475361824036,
        -0.15723773837089539,
        0.07765836268663406,
        0.12369762361049652,
        -0.1789940893650055,
        0.2151384800672531,
        -0.2550063729286194,
        0.3272036612033844,
        0.30596110224723816,
        -0.1115819588303566,
        -0.14975816011428833,
        -0.025804487988352776,
        -0.4212343990802765,
        0.23621106147766113,
        0.04305334761738777,
        0.1814771294593811,
        -0.9666704535484314,
        -0.29866036772727966
      ],
      [
        0.14532487094402313,
        0.3194033205509186,
        0.371396005153656,
        -0.27770116925239563,
        0.7098913192749023,
        -0.2533543109893799,
        0.050409723073244095,
        -0.2913612723350525,
        -0.29277491569519043,
        -0.3788658678531647,
        0.6726186871528625,
        -0.14764100313186646,
        0.5661218166351318,
        -0.2858167886734009,
        0.30912506580352783,
        0.20926105976104736,
        -0.09777040779590607,
        -0.06333820521831512,
        -0.8964945673942566,
        0.1946387141942978,
        -0.029902026057243347,
        -0.36642301082611084,
        0.4066891372203827,
        0.2051864117383957
      ],
      [
        -0.12278483062982559,
        0.2959200143814087,
        0.15778294205665588,
        -0.19584575295448303,
        0.6171608567237854,
        0.45069122314453125,
        0.02505970373749733,
        0.062442462891340256,
        -0.34501227736473083,
        -0.44431713223457336,
        -0.027248578146100044,
        -0.0539594441652298,
        -0.09653599560260773,
        0.18706080317497253,
        -0.10408058017492294,
        -0.40365153551101685,
        -0.16036920249462128,
        -0.32395222783088684,
        0.11813879013061523,
        -0.23351021111011505,
        0.06223677471280098,
        0.438930869102478,
        -0.8220242261886597,
        -0.5127781629562378
      ],
      [
        -0.22088497877120972,
        -0.22550010681152344,
        -0.11352499574422836,
        -0.5339000821113586,
        0.0644666999578476,
        0.23170067369937897,
        -0.16500970721244812,
        0.11271420121192932,
        -0.11182631552219391,
        0.6184858083724976,
        0.49612855911254883,
        0.7559344172477722,
        0.30731940269470215,
        0.22784097492694855,
        -0.2464480847120285,
        -0.33078181743621826,
        -0.2064438760280609,
        -0.09819153696298599,
        -0.30101278424263,
        -0.4653370976448059,
        0.052620962262153625,
        0.23179055750370026,
        0.8240225315093994,
        -0.13663485646247864
      ],
      [
        0.389125794172287,
        -0.41918790340423584,
        0.5053941011428833,
        -0.4848165214061737,
        -0.12135246396064758,
        -0.5245282053947449,
        -0.2620061933994293,
        0.26996085047721863,
        0.31876376271247864,
        -0.8616650104522705,
        -0.027406515553593636,
        -0.1626749485731125,
        -0.5460273623466492,
        -0.24739788472652435,
        -0.258991539478302,
        0.004904749803245068,
        0.21256358921527863,
        -0.2419934868812561,
        -0.27820563316345215,
        -0.8953700661659241,
        -0.2538648247718811,
        -0.027146488428115845,
        0.2340075820684433,
        0.1100371778011322
      ],
      [
        0.2760908901691437,
        -0.046509064733982086,
        0.13359783589839935,
        -0.34134554862976074,
        0.008449903689324856,
        0.46964308619499207,
        0.11058323830366135,
        -0.04761006310582161,
        -0.17457129061222076,
        0.20593534409999847,
        0.008896801620721817,
        0.3231010437011719,
        0.08774346858263016,
        -0.25573933124542236,
        0.032507460564374924,
        0.5485032200813293,
        0.14741374552249908,
        -0.21632307767868042,
        0.25056809186935425,
        0.11696118861436844,
        -0.10045119374990463,
        0.7103742361068726,
        0.27331408858299255,
        0.913210391998291
      ],
      [
        0.13448204100131989,
        0.41103148460388184,
        0.5087231397628784,
        0.27671289443969727,
        -0.40934470295906067,
        -0.2309950739145279,
        -0.015611342154443264,
        0.10635624080896378,
        -0.367229163646698,
        0.3252160847187042,
        -0.2478853464126587,
        -0.26226213574409485,
        -0.2908478081226349,
        0.1038101315498352,
        -0.2402534931898117,
        -0.0017161582363769412,
        0.3778759837150574,
        -0.15510573983192444,
        0.7920331954956055,
        -0.27442631125450134,
        -0.20832403004169464,
        -0.5452704429626465,
        -0.4395061135292053,
        0.1906583607196808
      ],
      [
        0.7532298564910889,
        0.40140581130981445,
        0.27614349126815796,
        0.2627888023853302,
        0.19882911443710327,
        0.020124146714806557,
        0.22921961545944214,
        0.5143015384674072,
        0.1830364614725113,
        -0.17972339689731598,
        -0.49764540791511536,
        0.3880947232246399,
        0.5471433997154236,
        0.04236254841089249,
        0.14612913131713867,
        -0.3986492455005646,
        -0.07622845470905304,
        -0.03643610700964928,
        0.6442004442214966,
        0.12057286500930786,
        -0.010017766617238522,
        0.0681895837187767,
        -0.18752650916576385,
        0.16900701820850372
      ],
      [
        -0.012103777378797531,
        0.07935474812984467,
        0.1381070613861084,
        0.475017786026001,
        -0.040530014783144,
        0.10679483413696289,
        0.1194184273481369,
        -0.06251822412014008,
        0.18226827681064606,
        0.6546205282211304,
        0.5013086199760437,
        -0.31808212399482727,
        0.3596024811267853,
        -0.2811490595340729,
        0.4083540141582489,
        -0.19141735136508942,
        0.06220277026295662,
        -0.20681482553482056,
        0.48524871468544006,
        -0.21572712063789368,
        -0.0570334866642952,
        -0.13337591290473938,
        -0.14337007701396942,
        -0.33183804154396057
      ],
      [
        0.5962238907814026,
        0.15010099112987518,
        0.6125503182411194,
        -0.19601857662200928,
        -0.36257442831993103,
        0.34896230697631836,
        0.020064132288098335,
        -0.3150665760040283,
        -0.5036696791648865,
        -0.27433326840400696,
        -0.4365653693675995,
        0.24057342112064362,
        -0.26086825132369995,
        -0.268279492855072,
        -0.8247964978218079,
        0.21445904672145844,
        -0.12750884890556335,
        -0.3632355332374573,
        -0.32222622632980347,
        0.6887173056602478,
        -0.11896578967571259,
        -0.5628878474235535,
        0.6408572793006897,
        -0.5371551513671875
      ],
      [
        0.1629888266324997,
        0.282376766204834,
        0.15897640585899353,
        -0.24875350296497345,
        -0.5047547817230225,
        -0.6073672771453857,
        0.11144951730966568,
        0.9327465891838074,
        0.03030165284872055,
        0.3602014482021332,
        -0.008541764691472054,
        -0.6046032309532166,
        -0.19299881160259247,
        0.5136485695838928,
        -0.25415968894958496,
        0.10056757926940918,
        -0.07294223457574844,
        -0.00043208966962993145,
        0.3869483470916748,
        0.15824992954730988,
        0.04868204891681671,
        0.3696695864200592,
        0.2755161225795746,
        0.29393449425697327
      ]
    ],
    "att.out_proj.bias": [
      -0.10639844834804535,
      0.08450407534837723,
      0.11817698180675507,
      0.1942158192396164,
      -0.0369318462908268,
      -0.0456005334854126,
      -0.29644978046417236,
      -0.13235284388065338,
      0.22039856016635895,
      0.003009313251823187,
      0.17592753469944,
      -0.15429571270942688,
      0.031405091285705566,
      0.13211339712142944,
      0.004348807968199253,
      0.02151559479534626,
      -0.1031750813126564,
      0.0856810063123703,
      0.0803861916065216,
      0.1440500169992447,
      -0.06218952313065529,
      0.14775137603282928,
      0.040675051510334015,
      0.01734662801027298
    ],
    "norm1.scale": [
      0.46384426951408386,
      0.41625893115997314,
      0.2138804793357849,
      0.31259918212890625,
      0.3214946389198303,
      0.3052946627140045,
      0.21601243317127228,
      0.44920286536216736,
      0.46574872732162476,
      0.33780229091644287,
      0.4269340932369232,
      0.33186206221580505,
      0.376152366399765,
      0.2441091686487198,
      0.23841239511966705,
      0.40725335478782654,
      0.42513909935951233,
      0.5127626061439514,
      0.42639827728271484,
      0.26741576194763184,
      0.46547985076904297,
      0.3123038113117218,
      0.48657819628715515,
      0.3125591576099396
    ],
    "norm1.shift": [
      -0.03642939403653145,
      0.05008583888411522,
      -0.07478616386651993,
      0.049424003809690475,
      0.0028015845455229282,
      -0.021129794418811798,
      0.07765993475914001,
      -0.03297678008675575,
      0.05053406581282616,
      -0.052449438720941544,
      -0.017112256959080696,
      -0.003224410116672516,
      -0.09820698946714401,
      0.07061990350484848,
      -0.05167154595255852,
      -0.09093427658081055,
      0.1064629852771759,
      0.01723730005323887,
      0.014506662264466286,
      0.07437426596879959,
      -0.08734162151813507,
      -0.03785080090165138,
      -0.07274334132671356,
      0.04259461537003517
    ],
    "norm2.scale": [
      0.4052169620990753,
      0.39005905389785767,
      0.45896345376968384,
      0.3683719038963318,
      0.39073970913887024,
      0.20931817591190338,
      0.3247935473918915,
      0.4279566705226898,
      0.5058621764183044,
      0.4323347210884094,
      0.5599139332771301,
      0.38549724221229553,
      0.44180309772491455,
      0.39052796363830566,
      0.28485971689224243,
      0.43850961327552795,
      0.38125190138816833,
      0.4076174199581146,
      0.3431592285633087,
      0.46137508749961853,
      0.3544444739818573,
      0.4699036478996277,
      0.4257062077522278,
      0.4457755982875824
    ],
    "norm2.shift": [
      -0.17168131470680237,
      0.018029047176241875,
      0.10006602108478546,
      -0.13341425359249115,
      -0.12881481647491455,
      -0.0008636581478640437,
      -0.015909358859062195,
      0.11776548624038696,
      0.029050102457404137,
      0.17512336373329163,
      0.22810356318950653,
      -0.1775038242340088,
      0.1372358202934265,
      0.007007833104580641,
      -0.15830153226852417,
      -0.026493214070796967,
      0.178703173995018,
      -0.20968779921531677,
      -0.017824240028858185,
      -0.2692073881626129,
      0.24218125641345978,
      0.11098576337099075,
      0.08044067025184631,
      0.02860884740948677
    ],
    "ff.lin1.weight": [
      [
        0.8415564894676208,
        0.17800070345401764,
        -0.0042501213029026985,
        0.42038509249687195,
        0.049131397157907486,
        -0.34794512391090393,
        0.6686502695083618,
        -0.2570555508136749,
        0.09241355955600739,
        0.29791882634162903,
        0.0921042189002037,
        -0.20859426259994507,
        -0.4634352922439575,
        0.14935553073883057,
        -0.09329894930124283,
        0.4278135895729065,
        0.34765592217445374,
        0.710422933101654,
        -0.7427720427513123,
        -0.10372664779424667,
        -0.871973991394043,
        -0.2852240800857544,
        -0.61989426612854,
        -0.10823747515678406
      ],
      [
        1.0514154434204102,
        0.3705422580242157,
        -0.5152361989021301,
        0.13189631700515747,
        0.1476367563009262,
        -0.3055243492126465,
        -0.03999771550297737,
        -0.05161695182323456,
        0.32675349712371826,
        -0.03528742119669914,
        -0.7935281991958618,
        -0.1743667721748352,
        0.22892259061336517,
        -0.09203515201807022,
        -0.16196203231811523,
        0.5488717555999756,
        -0.3067815899848938,
        0.1127164214849472,
        0.2917162775993347,
        -0.1409836709499359,
        0.4459798038005829,
        -0.3853493928909302,
        -0.7189924120903015,
        0.178771510720253
      ],
      [
        0.2926810383796692,
        -0.4473712742328644,
        -0.05635775625705719,
        -0.20101545751094818,
        -0.5122358202934265,
        0.5437927842140198,
        -0.2481665462255478,
        -0.41874217987060547,
        0.5058791637420654,
        0.03806119039654732,
        -0.46408811211586,
        0.45839351415634155,
        -0.09614908695220947,
        0.598335325717926,
        0.5948619246482849,
        -0.2926078736782074,
        -0.887564480304718,
        0.4518238604068756,
        0.5768436789512634,
        0.11456625908613205,
        -0.006814408116042614,
        -0.7429218888282776,
        -0.06770315021276474,
        0.27194899320602417
      ],
      [
        -0.20494365692138672,
        -0.8989070653915405,
        0.1794564425945282,
        -0.3200545907020569,
        0.1749134361743927,
        0.6753783822059631,
        0.9015564918518066,
        -0.1805659681558609,
        0.6192777156829834,
        -0.9408766031265259,
        -0.3017466366291046,
        0.7125023603439331,
        -0.32167527079582214,
        0.5593140721321106,
        -0.26921114325523376,
        0.8808362483978271,
        0.011495709419250488,
        -0.0459931343793869,
        0.6730350255966187,
        0.28447380661964417,
        -0.11840583384037018,
        -0.5350114703178406,
        -1.112695574760437,
        -0.29958435893058777
      ],
      [
        -0.045821961015462875,
        0.24930624663829803,
        0.27652961015701294,
        0.5999639630317688,
        0.9083051085472107,
        0.018003426492214203,
        -0.6980184316635132,
        -0.5915217995643616,
        -0.4297683537006378,
        -0.06625276803970337,
        -0.625461220741272,
        -0.07585548609495163,
        -1.3388727903366089,
        0.31918469071388245,
        0.4955367147922516,
        0.47806069254875183,
        -0.12756523489952087,
        0.5660592317581177,
        0.2826099395751953,
        0.38809847831726074,
        0.3688167929649353,
        -0.5144811868667603,
        0.13311289250850677,
        -0.42381781339645386
      ],
      [
        0.5857778191566467,
        -0.15660639107227325,
        -0.16427718102931976,
        -0.7169519662857056,
        -0.019826125353574753,
        -0.21444492042064667,
        0.12484053522348404,
        -0.7703751921653748,
        -0.054742421954870224,
        0.25942155718803406,
        -0.07852446287870407,
        1.0814955234527588,
        0.08991938084363937,
        -0.28610923886299133,
        0.052600398659706116,
        -0.4156474173069,
        0.04189228639006615,
        0.23602834343910217,
        -0.31352201104164124,
        -0.1900661587715149,
        0.25891125202178955,
        -0.29665762186050415,
        0.08720425516366959,
        0.5517823696136475
      ],
      [
        0.36108508706092834,
        -0.4699867069721222,
        -0.29596519470214844,
        0.060528796166181564,
        0.6323632001876831,
        0.34511798620224,
        0.44088244438171387,
        0.6841198205947876,
        -0.505359411239624,
        1.0032050609588623,
        -1.0990504026412964,
        0.16221167147159576,
        -0.3475091755390167,
        -0.4215664565563202,
        -0.1453542858362198,
        0.8964844346046448,
        0.5033329725265503,
        -0.5459937453269958,
        -0.1612081676721573,
        0.45551183819770813,
        0.21407544612884521,
        -1.716368317604065,
        0.10255970805883408,
        -0.3396455645561218
      ],
      [
        0.09666939824819565,
        0.5079153180122375,
        -0.6807280778884888,
        0.08228428661823273,
        -0.3605421483516693,
        0.10129667818546295,
        -0.4209745526313782,
        -1.1801155805587769,
        -0.6593040823936462,
        0.05568091571331024,
        0.06713727116584778,
        0.6181433796882629,
        -0.06515578180551529,
        0.49843671917915344,
        0.08775265514850616,
        -0.40009039640426636,
        0.08321234583854675,
        0.7014741897583008,
        0.5514909625053406,
        0.6707723140716553,
        -0.4786093831062317,
        -0.62647944688797,
        0.499334454536438,
        0.3841865658760071
      ],
      [
        0.7416723370552063,
        0.5365285277366638,
        0.6198362708091736,
        -0.3144766092300415,
        0.17936331033706665,
        -0.4710961878299713,
        -0.7019792795181274,
        0.04221087321639061,
        0.763242781162262,
        -0.6607426404953003,
        -0.7048386335372925,
        1.1006877422332764,
        -0.026545483618974686,
        -0.42051294445991516,
        0.45532724261283875,
        0.2682843804359436,
        -0.5382892489433289,
        -0.20538344979286194,
        0.0602714903652668,
        0.3443234860897064,
        -0.3494585454463959,
        -0.414731502532959,
        0.9853202700614929,
        -0.9818407893180847
      ],
      [
        0.29739099740982056,
        0.26588115096092224,
        0.1296263039112091,
        0.5181293487548828,
        0.6657305955886841,
        0.25248104333877563,
        0.5855170488357544,
        0.01473348680883646,
        -0.035543058067560196,
        -0.025498876348137856,
        -0.8909384608268738,
        -0.16728441417217255,
        -0.5081809163093567,
        -0.11708741635084152,
        -0.12073574215173721,
        0.4440360367298126,
        -0.13051462173461914,
        -0.7395398020744324,
        -0.1867842674255371,
        -0.1444861888885498,
        0.026836520060896873,
        -0.14027994871139526,
        0.053884927183389664,
        -0.012278402224183083
      ],
      [
        0.41158416867256165,
        0.12171843647956848,
        0.2427256852388382,
        0.6954537034034729,
        -0.17226989567279816,
        -0.23529361188411713,
        -0.2765609622001648,
        -0.4260499179363251,
        -0.17471864819526672,
        -0.14308714866638184,
        -1.0527058839797974,
        0.5886329412460327,
        -0.8564119935035706,
        1.1471565961837769,
        0.015887444838881493,
        -0.518330454826355,
        0.7027457356452942,
        0.27636241912841797,
        -0.3255924880504608,
        0.7491408586502075,
        -0.3061206042766571,
        -0.1772071123123169,
        -0.8884599804878235,
        -0.37294769287109375
      ],
      [
        -0.4304695725440979,
        -0.2916567623615265,
        -0.3882506787776947,
        -0.1309708207845688,
        0.5599442720413208,
        -0.5842390060424805,
        0.3008653521537781,
        0.5391042828559875,
        0.0301262978464365,
        -0.959221363067627,
        -0.07920859754085541,
        0.13884314894676208,
        0.34990769624710083,
        0.37127751111984253,
        -0.10863468796014786,
        0.08633212745189667,
        -0.11592564731836319,
        0.5827306509017944,
        0.4973362386226654,
        0.5273017883300781,
        -1.1795289516448975,
        -0.33850979804992676,
        -0.12350168824195862,
        0.6474044322967529
      ],
      [
        0.0680340826511383,
        -0.11741182953119278,
        -0.057677723467350006,
        0.005861962214112282,
        1.2694169282913208,
        -0.30957546830177307,
        -0.07156183570623398,
        0.027757981792092323,
        -0.5443049669265747,
        -0.4531567096710205,
        -0.28351274132728577,
        -0.2852674424648285,
        -0.13127972185611725,
        0.01051980722695589,
        0.17469651997089386,
        -0.24555906653404236,
        0.48608094453811646,
        -0.30678048729896545,
        0.2657417356967926,
        0.22617994248867035,
        -0.008691518567502499,
        -0.2837274670600891,
        0.2538144588470459,
        0.4500912129878998
      ],
      [
        0.3039344847202301,
        -0.6063160300254822,
        -0.45613428950309753,
        0.23037217557430267,
        -0.06560185551643372,
        0.25382569432258606,
        0.6703661680221558,
        -0.8735237121582031,
        0.2260248363018036,
        -0.11561665683984756,
        0.3218653202056885,
        -0.3550313413143158,
        0.47942212224006653,
        0.1388116031885147,
        1.0363047122955322,
        0.4699637293815613,
        -0.7282779812812805,
        0.7368748784065247,
        -0.908257007598877,
        0.2309795618057251,
        -0.6926667094230652,
        -0.21895216405391693,
        -0.9194919466972351,
        0.30022716522216797
      ],
      [
        0.7406602501869202,
        -0.057249926030635834,
        0.711055338382721,
        -0.3573114275932312,
        0.14100055396556854,
        0.23019865155220032,
        -0.07858303934335709,
        -0.1461719572544098,
        -0.3192126154899597,
        -0.009068422019481659,
        0.16327325999736786,
        0.060517583042383194,
        -0.6218580007553101,
        -0.06577553600072861,
        0.3841276168823242,
        -0.03333781287074089,
        -0.34673649072647095,
        -0.007607780396938324,
        -0.3788640797138214,
        0.3324379622936249,
        -0.11821172386407852,
        -0.5903494358062744,
        0.033903397619724274,
        0.08632583916187286
      ],
      [
        0.2398669272661209,
        0.8017933368682861,
        -0.8489523530006409,
        -0.11504524201154709,
        -0.05688732489943504,
        0.35833507776260376,
        0.24834482371807098,
        -0.1356828659772873,
        0.06087926775217056,
        -0.1105121523141861,
        0.08552859723567963,
        -0.4098193347454071,
        -0.34814316034317017,
        -0.48943430185317993,
        0.2713562846183777,
        -0.1760808825492859,
        -0.1919364333152771,
        0.015744423493742943,
        0.33272209763526917,
        0.6428350806236267,
        -0.6259313821792603,
        0.041222911328077316,
        0.2772723436355591,
        -0.3448965549468994
      ],
      [
        0.4264088273048401,
        -0.5386238098144531,
        -0.10992809385061264,
        0.003992138896137476,
        0.37840813398361206,
        0.06266910582780838,
        -0.6832501888275146,
        -0.31807219982147217,
        -0.42787259817123413,
        -0.3009718954563141,
        0.10238315165042877,
        -0.1482159048318863,
        0.0004962912062183022,
        0.24312245845794678,
        0.5165252685546875,
        0.4726457893848419,
        -0.8868178725242615,
        0.29056185483932495,
        -0.5109272599220276,
        0.42361265420913696,
        -0.11874805390834808,
        0.22722066938877106,
        0.37308269739151,
        0.5824776291847229
      ],
      [
        0.3352296054363251,
        -0.5269403457641602,
        -0.1384497433900833,
        0.2862153649330139,
        -0.6566088795661926,
        0.21779747307300568,
        0.33994126319885254,
        0.3462510108947754,
        0.2677903175354004,
        -0.14502325654029846,
        -1.126298189163208,
        -0.1177680715918541,
        -0.655949592590332,
        1.2285622358322144,
        -0.8878151178359985,
        0.032658688724040985,
        0.20769986510276794,
        0.7796195149421692,
        -1.100097417831421,
        0.48191162943840027,
        0.41183096170425415,
        0.015382162295281887,
        0.07971079647541046,
        0.4504694640636444
      ],
      [
        0.4606933891773224,
        -0.026941560208797455,
        -0.7515859007835388,
        0.04533776268362999,
        0.12472366541624069,
        -0.5435791611671448,
        0.4029942452907562,
        0.5223778486251831,
        -0.3463587760925293,
        -0.28708696365356445,
        0.36936402320861816,
        0.07599163800477982,
        -0.7217712998390198,
        0.08985720574855804,
        -0.03068886697292328,
        0.07391805946826935,
        -0.12854614853858948,
        -0.1005263477563858,
        0.046417299658060074,
        0.8462629318237305,
        0.556951642036438,
        -0.3890621066093445,
        -0.024913448840379715,
        -0.46799248456954956
      ],
      [
        0.6781055331230164,
        0.6293203234672546,
        -0.007175361271947622,
        -0.9017450213432312,
        -0.04894181713461876,
        -0.05658600851893425,
        0.10408547520637512,
        -0.6363430619239807,
        -0.22259916365146637,
        0.26266226172447205,
        -0.45307910442352295,
        0.17214687168598175,
        -1.4878662824630737,
        0.7855156660079956,
        -0.4850205183029175,
        0.9265038967132568,
        -0.1203489676117897,
        0.26105448603630066,
        0.25157225131988525,
        -0.3365943133831024,
        -0.12825897336006165,
        0.01826602965593338,
        -0.23402641713619232,
        0.7306755185127258
      ],
      [
        0.022359227761626244,
        0.1508471965789795,
        -0.8430630564689636,
        0.757969856262207,
        0.641101598739624,
        -0.20111936330795288,
        0.24216103553771973,
        0.04379889369010925,
        0.3365948498249054,
        -0.10188837349414825,
        -0.6061416268348694,
        -0.2533922791481018,
        -0.487867146730423,
        0.5556043982505798,
        0.31752273440361023,
        -0.4140135645866394,
        0.007492024917155504,
        -0.5256330370903015,
        0.10219184309244156,
        0.12500081956386566,
        0.15977410972118378,
        -0.0026187037583440542,
        0.05369773507118225,
        -0.19293834269046783
      ],
      [
        -0.8499505519866943,
        -0.0621473491191864,
        0.1574735790491104,
        0.5462192296981812,
        0.5205848813056946,
        -0.7564253807067871,
        -0.9264612197875977,
        -0.11155547201633453,
        -0.10817206650972366,
        -0.6064134836196899,
        -0.157583549618721,
        0.8674088716506958,
        0.14955346286296844,
        -0.013949715532362461,
        0.5759632587432861,
        -0.5664320588111877,
        -0.0719076469540596,
        0.07413367927074432,
        0.5237528085708618,
        0.4243144989013672,
        0.5245156288146973,
        -0.9103043079376221,
        -0.15115328133106232,
        0.7139191627502441
      ],
      [
        0.035295311361551285,
        -0.2874307930469513,
        -0.5777736306190491,
        0.3293527364730835,
        0.1876535266637802,
        -0.5800656080245972,
        -0.3909570574760437,
        -0.33799755573272705,
        -0.26920950412750244,
        -0.7773033380508423,
        -0.2869136929512024,
        0.15026038885116577,
        0.006264269817620516,
        1.1287833452224731,
        -0.5248830318450928,
        0.3818897604942322,
        -0.14882288873195648,
        0.10182096064090729,
        0.8360399007797241,
        0.21934504806995392,
        0.622774064540863,
        -0.10729202628135681,
        -0.04954972118139267,
        -0.48398658633232117
      ],
      [
        0.3172527551651001,
        -0.3779660761356354,
        -0.2652478516101837,
        -0.045597318559885025,
        0.7900442481040955,
        0.1656290590763092,
        0.046338483691215515,
        -0.5654421448707581,
        -0.4858377277851105,
        -0.28830671310424805,
        -0.022974252700805664,
        0.6299722194671631,
        0.4994380474090576,
        -0.31261146068573,
        0.7595075964927673,
        -0.4026191532611847,
        0.4882466793060303,
        -0.4200091063976288,
        0.03888212889432907,
        0.2748975455760956,
        -0.11806520074605942,
        -0.6335868239402771,
        -0.22458018362522125,
        -0.09915424883365631
      ],
      [
        0.053303077816963196,
        -0.4518415033817291,
        0.16716080904006958,
        0.27769583463668823,
        -0.24226106703281403,
        0.25488346815109253,
        -0.03800022602081299,
        -0.518098771572113,
        0.6001206040382385,
        -0.24836573004722595,
        -0.05790422856807709,
        -0.3585931360721588,
        0.5927798748016357,
        0.23955172300338745,
        -0.5712752938270569,
        0.14600928127765656,
        0.2900051772594452,
        0.38825467228889465,
        -0.10049048066139221,
        0.6003931760787964,
        -0.05131377652287483,
        -0.18501698970794678,
        0.44610294699668884,
        -0.8378176689147949
      ],
      [
        0.3251470625400543,
        -0.19945873320102692,
        -0.24620357155799866,
        0.2860242426395416,
        -0.1971120685338974,
        -0.2781818211078644,
        -0.11897550523281097,
        -0.44757410883903503,
        0.7432864904403687,
        -0.24180443584918976,
        -0.7020574808120728,
        0.5461941361427307,
        -0.817568838596344,
        -0.6349889636039734,
        0.5787820816040039,
        -0.6672516465187073,
        -0.593818724155426,
        0.8203187584877014,
        0.8095138072967529,
        0.6193342208862305,
        -0.3531727194786072,
        0.4323183000087738,
        0.4149695038795471,
        -0.6161576509475708
      ],
      [
        0.11960838735103607,
        -0.43759971857070923,
        0.3646709620952606,
        0.6367976069450378,
        -0.13743442296981812,
        -0.6945029497146606,
        -0.0787416398525238,
        -0.08377128094434738,
        0.9283784031867981,
        -0.13981205224990845,
        -0.018929459154605865,
        -0.20531658828258514,
        -0.4149485230445862,
        -0.3900492191314697,
        -0.40108874440193176,
        0.13262996077537537,
        0.28274205327033997,
        0.48425236344337463,
        0.27489063143730164,
        0.8381266593933105,
        -0.26698145270347595,
        -0.6020261645317078,
        0.09240532666444778,
        0.3702546954154968
      ],
      [
        0.23908603191375732,
        -0.1644858717918396,
        -0.8147989511489868,
        0.37081918120384216,
        -0.03325866535305977,
        -0.21051469445228577,
        1.0355401039123535,
        -1.2576537132263184,
        -0.059844017028808594,
        -0.5272396802902222,
        0.778152346611023,
        0.42622891068458557,
        -0.19809606671333313,
        -0.0581660196185112,
        0.48967990279197693,
        1.0483143329620361,
        -0.6434226632118225,
        0.9236443638801575,
        -0.5304527878761292,
        0.34820204973220825,
        -0.883054792881012,
        -0.6467291116714478,
        0.21848323941230774,
        -0.05633186176419258
      ],
      [
        0.29249444603919983,
        -0.9298093914985657,
        -0.324872761964798,
        0.41179895401000977,
        0.26727208495140076,
        -0.05691691115498543,
        -0.2854616641998291,
        -0.49015623331069946,
        -0.49952155351638794,
        0.18519535660743713,
        -0.17192263901233673,
        -0.17152689397335052,
        -0.6016614437103271,
        -0.16501642763614655,
        -0.050281230360269547,
        0.9541829228401184,
        0.5769240260124207,
        1.0299171209335327,
        0.12916818261146545,
        0.8499971032142639,
        0.26334089040756226,
        -0.5326833128929138,
        -0.48350977897644043,
        -0.09716241806745529
      ],
      [
        0.33813440799713135,
        -0.21096324920654297,
        -0.7083861827850342,
        0.6942450404167175,
        0.7686097621917725,
        0.1937621384859085,
        0.21806438267230988,
        0.08247209340333939,
        -0.523417592048645,
        -0.521161675453186,
        -0.20099814236164093,
        -0.0847678855061531,
        -1.2663908004760742,
        -0.17555491626262665,
        -0.19813929498195648,
        -0.39095813035964966,
        0.04817606508731842,
        0.6556607484817505,
        0.9330648183822632,
        0.09304109215736389,
        -0.12569846212863922,
        0.14188790321350098,
        -0.3813072443008423,
        0.07298741489648819
      ],
      [
        0.599553644657135,
        0.5323935747146606,
        -0.21558192372322083,
        0.24511635303497314,
        0.19020189344882965,
        0.5477285385131836,
        -0.09601621329784393,
        0.03331514447927475,
        -0.4103699326515198,
        -1.061176061630249,
        -0.7555481791496277,
        1.1588066816329956,
        -0.536651074886322,
        0.4290017783641815,
        0.049814868718385696,
        -0.5366195440292358,
        0.3046643137931824,
        0.6767937541007996,
        -0.45328575372695923,
        -0.011177490465342999,
        -0.590661883354187,
        0.5490965843200684,
        -0.4510379433631897,
        -0.19297049939632416
      ],
      [
        -0.21073947846889496,
        0.4549843370914459,
        -0.8938130736351013,
        0.4173413813114166,
        0.07645749300718307,
        -0.3692058324813843,
        -0.6895200610160828,
        0.7150564789772034,
        0.46746817231178284,
        0.021313991397619247,
        0.060667164623737335,
        0.28227120637893677,
        -0.2483075112104416,
        -0.35792380571365356,
        0.056653574109077454,
        0.20596687495708466,
        0.34897905588150024,
        -0.06989309936761856,
        -0.14606590569019318,
        0.7538481950759888,
        -0.23783479630947113,
        0.10984598845243454,
        -0.4285879135131836,
        0.20312108099460602
      ],
      [
        -0.3438650071620941,
        0.2732149362564087,
        0.8225652575492859,
        0.4402367174625397,
        0.4742288589477539,
        -0.35807299613952637,
        0.3786718547344208,
        -0.6440784931182861,
        0.7406189441680908,
        -0.7126767635345459,
        -0.8584662079811096,
        -0.25095242261886597,
        0.19362695515155792,
        0.07654757052659988,
        0.11521469801664352,
        -0.3232528865337372,
        0.0061064776964485645,
        0.203740656375885,
        -0.6634011268615723,
        0.4241727888584137,
        -0.03515143319964409,
        0.01325308158993721,
        -0.5611433386802673,
        0.760809063911438
      ],
      [
        0.44889283180236816,
        0.14520297944545746,
        -0.6768491268157959,
        -0.4302219748497009,
        0.998287558555603,
        0.39598894119262695,
        0.2276235967874527,
        -0.7775340676307678,
        -0.6936649680137634,
        -0.40959328413009644,
        -0.22182868421077728,
        0.8015619516372681,
        0.6459146738052368,
        -0.9013524055480957,
        0.5304556488990784,
        -0.07456628233194351,
        0.35025960206985474,
        0.8610416054725647,
        0.06509601324796677,
        -0.5976642370223999,
        -1.2497614622116089,
        0.5470428466796875,
        0.09028233587741852,
        0.3907471299171448
      ],
      [
        -0.13302145898342133,
        -0.18423306941986084,
        0.49833089113235474,
        0.5579199194908142,
        -0.4092019498348236,
        -0.3376660943031311,
        0.6969631910324097,
        0.44349122047424316,
        0.27349215745925903,
        -0.2970084547996521,
        -0.18009330332279205,
        0.23180577158927917,
        -0.7524694204330444,
        -0.4692502021789551,
        0.5441931486129761,
        0.32958751916885376,
        -0.6485136151313782,
        -0.22510109841823578,
        0.1204637959599495,
        0.29872405529022217,
        -0.5324211120605469,
        0.794366180896759,
        -0.44596174359321594,
        -0.03758147731423378
      ],
      [
        0.08861514925956726,
        -0.048178933560848236,
        0.3746420741081238,
        0.4337410032749176,
        0.08687029033899307,
        0.14640073478221893,
        -0.18308061361312866,
        -0.6630650758743286,
        -0.3765428364276886,
        -0.1713331788778305,
        -0.7969635725021362,
        -0.27634668350219727,
        -0.48485082387924194,
        -0.11137448251247406,
        0.9628278017044067,
        0.10085644572973251,
        -0.10823915153741837,
        0.15686167776584625,
        0.17738452553749084,
        0.0570296086370945,
        -1.0562015771865845,
        0.0693555623292923,
        0.6028229594230652,
        0.1824091076850891
      ],
      [
        -0.3482716381549835,
        -0.024342045187950134,
        0.38876065611839294,
        0.866652250289917,
        0.5598607063293457,
        -0.5898841023445129,
        -0.2642415165901184,
        -0.15172472596168518,
        -0.6059027314186096,
        -0.20318959653377533,
        0.04054312780499458,
        0.8439525961875916,
        -0.9669486284255981,
        0.1504567265510559,
        0.3659157454967499,
        -0.5460216999053955,
        0.07487177103757858,
        0.540861964225769,
        0.34641048312187195,
        -0.08184495568275452,
        -0.2079925835132599,
        -0.6516319513320923,
        -0.325977623462677,
        0.677334189414978
      ],
      [
        -0.5007884502410889,
        0.16554079949855804,
        0.4962114989757538,
        -0.35563725233078003,
        0.058196619153022766,
        -0.30916568636894226,
        0.1921786665916443,
        -0.5739936828613281,
        0.045425914227962494,
        -0.3568210005760193,
        -0.09604359418153763,
        -0.16956080496311188,
        -0.6158304810523987,
        0.2705594301223755,
        -0.10544739663600922,
        0.12261839210987091,
        0.8202415704727173,
        0.5354899168014526,
        -0.25950583815574646,
        1.2159768342971802,
        0.6640101671218872,
        -0.4773232340812683,
        -0.6416254043579102,
        0.15241645276546478
      ],
      [
        0.2002699375152588,
        -0.6738862991333008,
        0.362579882144928,
        0.12965458631515503,
        -0.17389121651649475,
        0.4620959162712097,
        0.15113531053066254,
        -0.8572221398353577,
        -0.3860054016113281,
        -0.422100305557251,
        0.2068714201450348,
        0.5692481994628906,
        -0.25759801268577576,
        0.20776093006134033,
        1.1326464414596558,
        -0.5496736168861389,
        -0.5689425468444824,
        0.5668846964836121,
        -0.3081892728805542,
        0.7979857325553894,
        0.04336751252412796,
        -0.47006335854530334,
        -0.1947336494922638,
        -0.5939255356788635
      ],
      [
        0.10623379796743393,
        -0.127682164311409,
        -0.2933996021747589,
        0.6681280732154846,
