{
  "tok_emb.weight": [
    [
      1.7963340282440186,
      1.689577341079712,
      0.1427471786737442,
      -0.10041999816894531,
      -0.19346186518669128,
      -0.7195823788642883,
      -0.5238268375396729,
      -0.3392677903175354,
      -0.8189083337783813,
      -0.4108997583389282,
      -0.19287556409835815,
      -0.2382148951292038
    ],
    [
      -0.1098504364490509,
      -1.419590950012207,
      -1.026262640953064,
      0.6455243825912476,
      -0.6273269653320312,
      0.14341643452644348,
      -0.7603507041931152,
      0.30982473492622375,
      -1.0811023712158203,
      0.9880191087722778,
      0.3649657666683197,
      -1.3741084337234497
    ],
    [
      0.19450853765010834,
      -1.0263822078704834,
      -0.3691464960575104,
      -1.326414704322815,
      0.4180361032485962,
      -0.9894984364509583,
      -0.17489786446094513,
      -0.9193325042724609,
      0.41744494438171387,
      0.6045719981193542,
      0.3909645974636078,
      -0.8087886571884155
    ],
    [
      -0.13459725677967072,
      -0.1315186619758606,
      -0.953230082988739,
      1.3301112651824951,
      -0.3964913487434387,
      0.5503867864608765,
      -0.5676320791244507,
      -0.7932280898094177,
      -0.9362146854400635,
      -0.20620256662368774,
      -0.655674397945404,
      0.5119408369064331
    ],
    [
      -0.006135132629424334,
      1.1812585592269897,
      0.06833045184612274,
      -0.9511842131614685,
      -0.40155529975891113,
      -0.46334341168403625,
      -0.342961847782135,
      -0.22504056990146637,
      0.604009211063385,
      0.10144080221652985,
      0.7309398055076599,
      -0.47964605689048767
    ],
    [
      -0.6875045895576477,
      -0.5638521909713745,
      -0.32080233097076416,
      1.3860113620758057,
      -0.13773703575134277,
      -0.40614762902259827,
      3.500515937805176,
      -0.6036373376846313,
      -1.598393440246582,
      -0.20330363512039185,
      0.007288205903023481,
      -0.551371157169342
    ],
    [
      -0.23760206997394562,
      -0.13556109368801117,
      -0.2697387635707855,
      -0.6362300515174866,
      -1.0223294496536255,
      1.7730125188827515,
      0.3797740042209625,
      -1.7140023708343506,
      1.0493299961090088,
      0.25833427906036377,
      -1.0231740474700928,
      0.9748765230178833
    ],
    [
      0.5036596059799194,
      0.6309335231781006,
      -0.927706778049469,
      -1.0271459817886353,
      -0.46497640013694763,
      -0.05352117493748665,
      0.5173217058181763,
      0.5779858827590942,
      -0.3822897672653198,
      -0.07190951704978943,
      1.1842279434204102,
      -0.19442707300186157
    ],
    [
      -1.8894388675689697,
      1.0506360530853271,
      -1.452893614768982,
      -0.29612845182418823,
      0.4955558478832245,
      0.48537835478782654,
      1.0205572843551636,
      0.1620441973209381,
      0.5723460912704468,
      -0.9670020937919617,
      2.7531681060791016,
      -0.8120125532150269
    ],
    [
      1.208722710609436,
      -0.14314720034599304,
      1.2042896747589111,
      -0.477245569229126,
      -2.332869291305542,
      0.8182219862937927,
      1.6612441539764404,
      0.5310194492340088,
      -0.14443404972553253,
      -0.7394787669181824,
      0.025416262447834015,
      -0.9166335463523865
    ],
    [
      -0.15043024718761444,
      -0.15719272196292877,
      -0.37542790174484253,
      -0.4755341112613678,
      -0.5735478401184082,
      0.00581236369907856,
      -0.7502354979515076,
      -0.5256844758987427,
      -0.4474095106124878,
      1.552067518234253,
      0.4478170573711395,
      2.1939826011657715
    ],
    [
      -0.5028399229049683,
      -0.018218396231532097,
      -0.6639246344566345,
      -0.08802759647369385,
      -0.8403754830360413,
      2.3281946182250977,
      1.191772222518921,
      -0.6504673361778259,
      0.9562358260154724,
      0.709394633769989,
      -0.7111955881118774,
      -1.1296281814575195
    ],
    [
      -0.5276049375534058,
      0.8087011575698853,
      -0.7016014456748962,
      -0.07362614572048187,
      0.19018517434597015,
      -0.0921652689576149,
      0.33822861313819885,
      -0.7006931304931641,
      -0.3332269787788391,
      -1.034179449081421,
      0.11633769422769547,
      1.6476067304611206
    ],
    [
      -0.020458795130252838,
      0.2598112225532532,
      -0.630111038684845,
      0.11746816337108612,
      0.22261188924312592,
      0.21770156919956207,
      -0.710312008857727,
      0.5353857278823853,
      0.18432708084583282,
      -0.9430093169212341,
      -0.335627019405365,
      0.5217335820198059
    ],
    [
      0.3802727460861206,
      -1.1428416967391968,
      0.6883089542388916,
      1.267778754234314,
      -0.730782687664032,
      0.43222737312316895,
      -1.1996126174926758,
      -1.5169212818145752,
      1.2603890895843506,
      0.742119312286377,
      0.7558416128158569,
      0.2125760316848755
    ],
    [
      0.4729391038417816,
      0.5031003355979919,
      -0.6086930632591248,
      -1.3122950792312622,
      -0.45193779468536377,
      1.290562391281128,
      1.504470944404602,
      0.32013365626335144,
      1.1017731428146362,
      -0.5759474039077759,
      -0.10122501105070114,
      -0.7690265774726868
    ],
    [
      0.3982318043708801,
      -0.4634150266647339,
      0.3102913796901703,
      -0.2375873178243637,
      3.4864940643310547,
      -0.8313442468643188,
      -0.09013795852661133,
      1.4105554819107056,
      -0.0962134376168251,
      0.07033509016036987,
      0.4748287498950958,
      1.0248394012451172
    ],
    [
      0.5575608611106873,
      0.3674049377441406,
      0.5640363097190857,
      -0.152582049369812,
      -1.1461633443832397,
      0.1530240923166275,
      -0.14166006445884705,
      0.8329098224639893,
      0.6319687962532043,
      -0.2100895494222641,
      -0.7873023152351379,
      -0.9920492172241211
    ],
    [
      -0.0005945760058239102,
      0.4655408561229706,
      0.8333719968795776,
      1.5052107572555542,
      -0.3020210266113281,
      -0.855626106262207,
      -1.0415960550308228,
      -0.4681706130504608,
      -2.48862624168396,
      -1.2082114219665527,
      1.97947096824646,
      -0.03497522696852684
    ],
    [
      0.956309974193573,
      -0.6457297801971436,
      1.5460494756698608,
      0.13896296918392181,
      -1.0836153030395508,
      -0.1412276178598404,
      -0.17087659239768982,
      -0.2624661326408386,
      -0.014911227859556675,
      0.444246768951416,
      -0.7071450352668762,
      -0.8235462307929993
    ],
    [
      -0.043538130819797516,
      1.0471317768096924,
      0.7379050254821777,
      0.6162236332893372,
      0.37482383847236633,
      0.05288039520382881,
      -0.2357911765575409,
      -1.036020040512085,
      -0.5119122266769409,
      0.4186432361602783,
      0.13751064240932465,
      -0.9993228316307068
    ],
    [
      1.5061450004577637,
      0.21270760893821716,
      -0.749940037727356,
      -0.28477978706359863,
      0.8644295930862427,
      1.7330371141433716,
      -2.412118911743164,
      -0.924927294254303,
      -0.5317466259002686,
      1.0669972896575928,
      0.593932569026947,
      -0.8150683045387268
    ],
    [
      -0.1648009568452835,
      0.163833349943161,
      0.2454686164855957,
      -0.31231173872947693,
      0.46768826246261597,
      -0.23301267623901367,
      -0.5407394766807556,
      0.43631285429000854,
      -0.20607265830039978,
      -1.1692909002304077,
      -0.9553228616714478,
      0.2504214346408844
    ],
    [
      0.035246241837739944,
      -0.7924476861953735,
      1.4061533212661743,
      0.2529654800891876,
      -0.3658393323421478,
      -1.5988303422927856,
      -0.8082324862480164,
      0.16920596361160278,
      0.11528787016868591,
      -0.21157440543174744,
      0.45828473567962646,
      1.6902966499328613
    ],
    [
      0.7791411280632019,
      -0.07364396750926971,
      0.2714571952819824,
      0.2561480700969696,
      -0.9534165859222412,
      -1.2676267623901367,
      0.9985528588294983,
      -1.3895620107650757,
      1.7365151643753052,
      -0.8890836238861084,
      -0.17575328052043915,
      -0.9983398914337158
    ],
    [
      0.1815873384475708,
      0.06144705042243004,
      1.1078017950057983,
      -1.9911106824874878,
      0.4826107323169708,
      1.1605947017669678,
      0.813737690448761,
      2.383498430252075,
      -0.6284331679344177,
      -0.5730671882629395,
      0.45769748091697693,
      -1.4030773639678955
    ],
    [
      1.5242494344711304,
      -1.4593344926834106,
      -1.8117334842681885,
      -0.5826321244239807,
      0.15104559063911438,
      1.7304017543792725,
      0.5918135643005371,
      0.2137252688407898,
      -1.1268887519836426,
      0.6944981813430786,
      0.5045372247695923,
      -0.30994150042533875
    ],
    [
      1.2608731985092163,
      -0.17647254467010498,
      2.735706329345703,
      -1.3798820972442627,
      0.5629180669784546,
      -0.6643280982971191,
      -1.281552791595459,
      -0.46048703789711,
      -1.2690640687942505,
      1.7321176528930664,
      -0.24523523449897766,
      0.5176001787185669
    ],
    [
      -0.6795738339424133,
      1.175152063369751,
      -0.45323270559310913,
      0.07835908979177475,
      -0.7154545187950134,
      -0.05591892451047897,
      1.1389559507369995,
      0.19969886541366577,
      0.37379419803619385,
      -0.8628847002983093,
      0.8301877379417419,
      -0.2583172619342804
    ],
    [
      0.9772200584411621,
      -0.4623606503009796,
      0.07694731652736664,
      1.1559640169143677,
      0.338957816362381,
      0.009713379666209221,
      -0.223526269197464,
      -0.09669535607099533,
      0.820033848285675,
      0.4013894200325012,
      0.18358328938484192,
      -0.7233201265335083
    ],
    [
      1.3191344738006592,
      -0.10862473398447037,
      2.0073835849761963,
      1.2083613872528076,
      -0.8041694164276123,
      -0.6330860257148743,
      -1.5505683422088623,
      -0.011991455219686031,
      0.016358591616153717,
      -1.2498834133148193,
      0.42224520444869995,
      -0.21656441688537598
    ],
    [
      -1.2789068222045898,
      -0.8977736830711365,
      1.04214608669281,
      -0.19975396990776062,
      -0.11850238591432571,
      0.2817073166370392,
      -1.650803804397583,
      0.5331278443336487,
      0.28243395686149597,
      1.684406042098999,
      -0.17970581352710724,
      -1.2206683158874512
    ],
    [
      -0.4207443296909332,
      1.3056671619415283,
      0.09627003222703934,
      -0.187361478805542,
      -0.8984547257423401,
      -1.4728249311447144,
      1.5472662448883057,
      -0.07652875781059265,
      0.4412371814250946,
      -0.45459213852882385,
      0.8660203218460083,
      -0.30642202496528625
    ],
    [
      1.690359115600586,
      -0.4340673089027405,
      0.9085904955863953,
      -0.706534743309021,
      2.0148565769195557,
      0.44100603461265564,
      -0.3530871272087097,
      -0.21740326285362244,
      -0.5220348834991455,
      -0.9324012994766235,
      -0.14581337571144104,
      1.155295968055725
    ],
    [
      1.5154762268066406,
      -0.9976781606674194,
      1.197082757949829,
      -0.13511765003204346,
      -1.4185357093811035,
      -1.0797772407531738,
      -2.2810890674591064,
      0.8397144079208374,
      1.6878511905670166,
      -0.04050135612487793,
      -0.710168719291687,
      0.12377648800611496
    ],
    [
      -0.37398508191108704,
      1.340101957321167,
      0.2876283526420593,
      -1.1467605829238892,
      0.8327365517616272,
      0.2523180842399597,
      0.4913073182106018,
      -0.7613183856010437,
      -1.4975502490997314,
      1.9467623233795166,
      -0.2281412035226822,
      -0.2878192663192749
    ],
    [
      -0.6417450904846191,
      -0.6722097992897034,
      -0.07536915689706802,
      0.5916025042533875,
      0.21333818137645721,
      1.696283221244812,
      -1.449870228767395,
      -0.0964333638548851,
      0.12776899337768555,
      -1.156320333480835,
      -0.546538233757019,
      0.33181875944137573
    ],
    [
      -0.62589430809021,
      -1.681333065032959,
      0.3341103792190552,
      -0.24803301692008972,
      -0.6664873957633972,
      1.2185852527618408,
      0.0195155031979084,
      -0.5281699895858765,
      1.881872296333313,
      1.0444265604019165,
      0.6722433567047119,
      -2.120314836502075
    ],
    [
      -0.5258960127830505,
      -0.39010071754455566,
      0.007443882059305906,
      -0.5422919392585754,
      0.8188263177871704,
      -0.10697946697473526,
      0.23051781952381134,
      0.4927617609500885,
      -0.7950987815856934,
      -0.6375911831855774,
      2.729166269302368,
      -1.352327585220337
    ],
    [
      -2.0569443702697754,
      0.5239881277084351,
      0.0022820427548140287,
      0.1126328855752945,
      0.5520281195640564,
      -0.42664095759391785,
      -0.0581941232085228,
      1.5362826585769653,
      1.0200358629226685,
      0.9484327435493469,
      0.08814063668251038,
      -0.6038500666618347
    ],
    [
      1.0499857664108276,
      -0.07498360425233841,
      0.6449035406112671,
      -1.0360043048858643,
      0.9519702792167664,
      -1.3718513250350952,
      0.08777125179767609,
      0.2027280479669571,
      0.0735025554895401,
      -0.5091453790664673,
      -0.45797815918922424,
      -0.6408982872962952
    ],
    [
      1.449095368385315,
      -2.4444382190704346,
      0.0995902344584465,
      -0.28559473156929016,
      0.5750962495803833,
      1.3875088691711426,
      -1.9136945009231567,
      -0.648868203163147,
      0.8872789740562439,
      2.8481688499450684,
      -0.7304716110229492,
      -0.25014448165893555
    ],
    [
      -0.8681638836860657,
      1.2533591985702515,
      -0.6158524751663208,
      0.0667179524898529,
      0.24448798596858978,
      -1.201442003250122,
      0.6460424065589905,
      0.4492383301258087,
      0.754306972026825,
      0.9589020609855652,
      0.1923627257347107,
      -1.3300665616989136
    ],
    [
      -0.293558269739151,
      -0.10897243022918701,
      0.6201589107513428,
      -0.4037550389766693,
      1.6598156690597534,
      0.523021399974823,
      -0.9811297059059143,
      1.3966301679611206,
      -1.5963716506958008,
      -0.37641260027885437,
      -0.14697326719760895,
      1.1078870296478271
    ],
    [
      -0.005667855031788349,
      1.6443188190460205,
      -0.22598038613796234,
      0.7226653099060059,
      -1.0600950717926025,
      -0.4511164426803589,
      -1.1836129426956177,
      -0.3411073684692383,
      -1.4294735193252563,
      1.04866623878479,
      0.603815495967865,
      0.4434531331062317
    ],
    [
      1.6342594623565674,
      1.6777342557907104,
      0.3158664107322693,
      -0.8307828903198242,
      -1.7211796045303345,
      0.9388977885246277,
      2.1324734687805176,
      -1.2288846969604492,
      -0.8688181042671204,
      -0.5732069611549377,
      -0.16833648085594177,
      -0.077875517308712
    ],
    [
      -0.5935841798782349,
      0.49818626046180725,
      -0.7371745705604553,
      0.05625191330909729,
      -0.28317713737487793,
      1.0213838815689087,
      -0.7946953773498535,
      -0.2318207174539566,
      -0.3996843695640564,
      0.22714835405349731,
      0.1505514681339264,
      0.5158954858779907
    ],
    [
      0.10276481509208679,
      1.45511794090271,
      -1.1567054986953735,
      -1.056522250175476,
      -0.04847032204270363,
      -0.023727234452962875,
      0.7434768080711365,
      -0.8520427942276001,
      0.8907003402709961,
      0.5337406992912292,
      -0.3566139042377472,
      -0.10009553283452988
    ],
    [
      -0.18873846530914307,
      -0.9797892570495605,
      -1.0726443529129028,
      0.8678160905838013,
      0.19293397665023804,
      0.11058221012353897,
      0.4528611898422241,
      2.4224660396575928,
      -0.8416274189949036,
      -0.2796970307826996,
      -1.1605827808380127,
      -0.18409423530101776
    ],
    [
      -0.3034825623035431,
      0.780525803565979,
      0.5996794700622559,
      2.805570125579834,
      -0.15923449397087097,
      -0.011661727912724018,
      -0.8305759429931641,
      -0.746733546257019,
      -0.323110431432724,
      1.2770206928253174,
      -0.9102126359939575,
      1.1090465784072876
    ],
    [
      1.496527075767517,
      -0.7937204837799072,
      0.8399025797843933,
      -1.479823112487793,
      -0.7882628440856934,
      1.2119206190109253,
      1.739653468132019,
      -1.624674677848816,
      -0.8916196227073669,
      -1.753029704093933,
      1.7576098442077637,
      1.001533031463623
    ],
    [
      -0.2098667323589325,
      -0.39378246665000916,
      1.508721947669983,
      2.1876637935638428,
      -2.165364980697632,
      -0.9310405850410461,
      -0.9602829217910767,
      0.908673107624054,
      -0.025864072144031525,
      -0.6155921816825867,
      -0.32047486305236816,
      -0.5809904932975769
    ],
    [
      1.1736520528793335,
      0.33738774061203003,
      -0.9534627199172974,
      -1.25959050655365,
      0.7995949983596802,
      -0.6491342186927795,
      -0.25868046283721924,
      0.8725622296333313,
      1.2124627828598022,
      -0.5203226208686829,
      0.7038171887397766,
      -2.086636781692505
    ],
    [
      1.4928898811340332,
      1.7222938537597656,
      -0.45299676060676575,
      -0.25722748041152954,
      -0.9994859099388123,
      -1.1404731273651123,
      -1.557914137840271,
      -1.5208356380462646,
      -0.23591922223567963,
      -1.287401556968689,
      -0.11417189240455627,
      0.3399006128311157
    ],
    [
      0.25785163044929504,
      0.6584820747375488,
      1.0216238498687744,
      -0.8238021731376648,
      -0.10103556513786316,
      0.9152636528015137,
      -0.11181221902370453,
      1.724104404449463,
      -0.8850213289260864,
      -1.037841796875,
      -0.4808819890022278,
      -0.35800644755363464
    ],
    [
      0.5337403416633606,
      0.14735448360443115,
      -1.6754443645477295,
      -0.8483262062072754,
      0.9228904247283936,
      0.11726067960262299,
      0.2996540367603302,
      0.21696247160434723,
      0.880129337310791,
      -1.1703509092330933,
      0.8385359048843384,
      1.4298099279403687
    ],
    [
      -0.16055932641029358,
      0.5603089928627014,
      -0.08219326287508011,
      -1.464377999305725,
      -0.7596662044525146,
      -0.9081345200538635,
      -0.06628882884979248,
      0.5899084806442261,
      1.4444788694381714,
      -0.47074928879737854,
      -0.9192882776260376,
      1.1870790719985962
    ],
    [
      0.5362209677696228,
      0.48553594946861267,
      2.7061173915863037,
      -0.631408154964447,
      0.7186950445175171,
      0.8948713541030884,
      -0.4344842731952667,
      -0.6721711158752441,
      0.8115153312683105,
      0.32209813594818115,
      -0.6032778024673462,
      -0.18276390433311462
    ],
    [
      -0.010067034512758255,
      1.0977305173873901,
      -0.2067626714706421,
      -0.21352438628673553,
      1.1083930730819702,
      -0.8752151131629944,
      0.7042263150215149,
      -1.0531010627746582,
      -0.5524946451187134,
      1.0651174783706665,
      -0.9483325481414795,
      -1.2917354106903076
    ],
    [
      0.04235308989882469,
      -0.09479708969593048,
      -1.1698130369186401,
      0.8219296336174011,
      1.1406328678131104,
      -0.22773830592632294,
      0.6608266234397888,
      0.34897810220718384,
      -0.2492317408323288,
      -0.22640007734298706,
      -0.252847284078598,
      -0.27803125977516174
    ],
    [
      1.6135135889053345,
      -1.0910239219665527,
      0.15824609994888306,
      -0.2651350796222687,
      -0.5934485793113708,
      1.7712085247039795,
      1.5074743032455444,
      0.5127456784248352,
      -2.2787885665893555,
      0.16633431613445282,
      -2.50689697265625,
      0.17665305733680725
    ],
    [
      0.5339993834495544,
      0.22363561391830444,
      -0.48927226662635803,
      0.8481941819190979,
      0.8023492693901062,
      1.6338346004486084,
      -0.8033602833747864,
      0.2231425940990448,
      -1.0781525373458862,
      -0.6760624647140503,
      -0.200082927942276,
      -0.18159979581832886
    ],
    [
      0.7164536118507385,
      0.21269674599170685,
      0.5661086440086365,
      0.5102640390396118,
      -0.6649957299232483,
      1.4346286058425903,
      1.2640917301177979,
      -1.93291175365448,
      -1.285115122795105,
      0.01057441346347332,
      0.7071589827537537,
      0.7380914092063904
    ],
    [
      -0.5638041496276855,
      -0.14755085110664368,
      1.1738089323043823,
      -0.24336615204811096,
      -0.016132760792970657,
      -0.3271891176700592,
      -0.16147275269031525,
      0.6083139181137085,
      -1.2024823427200317,
      -0.020013874396681786,
      0.019694024696946144,
      0.2323780357837677
    ],
    [
      2.651130437850952,
      -0.8720386624336243,
      -0.1095375120639801,
      -0.9551333785057068,
      -1.3171747922897339,
      2.554661512374878,
      0.9213828444480896,
      -0.9380096197128296,
      0.06345803290605545,
      -0.647567868232727,
      0.9281902313232422,
      0.6935036182403564
    ],
    [
      1.5791044235229492,
      0.012904360890388489,
      0.321443647146225,
      0.055830880999565125,
      0.07202036678791046,
      1.113744854927063,
      0.07461107522249222,
      -1.4377561807632446,
      0.4869619607925415,
      0.20396175980567932,
      -0.4597526788711548,
      0.10666017979383469
    ],
    [
      -1.398236870765686,
      0.8190817832946777,
      1.152485728263855,
      0.317592978477478,
      -0.35322925448417664,
      0.30628761649131775,
      1.1677162647247314,
      -0.08328086882829666,
      2.5037827491760254,
      -1.4582741260528564,
      -1.4060988426208496,
      -1.8252415657043457
    ],
    [
      -1.012839436531067,
      -0.37782588601112366,
      -1.3829880952835083,
      -0.6383459568023682,
      0.02942640148103237,
      -0.6923585534095764,
      -0.12623554468154907,
      0.9685160517692566,
      -0.5765068531036377,
      1.3455424308776855,
      1.2597800493240356,
      -0.6613816618919373
    ],
    [
      0.7436913847923279,
      -0.6090155839920044,
      0.04100291430950165,
      -0.07786137610673904,
      1.1923729181289673,
      0.3528496026992798,
      -0.7307053208351135,
      0.4754180610179901,
      -1.5244947671890259,
      -0.7948024272918701,
      -0.2615480422973633,
      1.2468913793563843
    ],
    [
      -1.741298794746399,
      -1.3945512771606445,
      1.1903140544891357,
      1.5306758880615234,
      0.3088689148426056,
      0.3485219180583954,
      -1.0058138370513916,
      0.2716358006000519,
      0.5470175743103027,
      -0.6681536436080933,
      1.6634398698806763,
      -0.2662133276462555
    ],
    [
      0.3376478850841522,
      -0.7224000096321106,
      1.8752384185791016,
      1.3893338441848755,
      -0.48686790466308594,
      0.05812574923038483,
      -0.3229379653930664,
      -1.1775922775268555,
      1.1090306043624878,
      -0.0630272626876831,
      -0.7070797681808472,
      -0.8025322556495667
    ],
    [
      -0.6573430299758911,
      -0.28747323155403137,
      -1.3854496479034424,
      -0.4511343538761139,
      -0.007760271895676851,
      -0.5133482217788696,
      -0.2876085937023163,
      1.377662181854248,
      -0.20353080332279205,
      1.1585406064987183,
      1.4298887252807617,
      -0.7453131675720215
    ],
    [
      1.0970596075057983,
      0.2823859453201294,
      -0.5171379446983337,
      0.7729454040527344,
      0.6203504800796509,
      -0.6754763722419739,
      -0.4798533022403717,
      -0.24052637815475464,
      1.3780156373977661,
      -0.7974166870117188,
      -0.02059125527739525,
      -1.1678879261016846
    ],
    [
      0.49726995825767517,
      1.0633368492126465,
      -0.25330978631973267,
      0.6329023838043213,
      0.8612146973609924,
      -0.9929962754249573,
      0.4859238862991333,
      -0.6674321293830872,
      -0.39878952503204346,
      1.7073729038238525,
      -1.2446579933166504,
      -0.16079893708229065
    ],
    [
      0.16242919862270355,
      -0.24794796109199524,
      -1.7412699460983276,
      -1.5250654220581055,
      -1.4329235553741455,
      1.1444292068481445,
      3.1346678733825684,
      0.8436014652252197,
      -0.3723587691783905,
      -0.4513176381587982,
      -0.03920911252498627,
      -0.3054705858230591
    ],
    [
      0.10569600015878677,
      -0.0244599636644125,
      -0.5170598030090332,
      -0.5051469206809998,
      -0.09755111485719681,
      -0.49259063601493835,
      -1.3559069633483887,
      1.4415833950042725,
      0.7413003444671631,
      0.0031003605108708143,
      0.3144446313381195,
      -1.1396273374557495
    ],
    [
      0.725011944770813,
      -0.7959503531455994,
      -0.14738525450229645,
      -1.146484613418579,
      0.6439375281333923,
      1.8419604301452637,
      -0.40736547112464905,
      1.3359053134918213,
      -0.4326217472553253,
      -0.7325868606567383,
      -0.0737626776099205,
      -0.01974174939095974
    ],
    [
      0.16353332996368408,
      -0.8931836485862732,
      0.9434023499488831,
      -0.32778364419937134,
      0.6779678463935852,
      1.0693070888519287,
      -0.7282183766365051,
      -0.14664676785469055,
      0.15288162231445312,
      0.37267008423805237,
      -0.11083342880010605,
      -0.9602290987968445
    ],
    [
      -0.30311229825019836,
      -0.5378671288490295,
      0.2903040945529938,
      1.3281813859939575,
      1.262549877166748,
      0.2440059930086136,
      -1.7532031536102295,
      0.09927733987569809,
      0.01814102753996849,
      0.19185923039913177,
      1.2097827196121216,
      -1.7719727754592896
    ],
    [
      0.15660546720027924,
      0.6429744362831116,
      -0.26214995980262756,
      -0.1839091181755066,
      0.954616904258728,
      0.6952202916145325,
      -1.2716012001037598,
      1.022416114807129,
      -1.0433100461959839,
      0.37215662002563477,
      0.1972367763519287,
      1.031721830368042
    ],
    [
      -0.813970148563385,
      0.6389477849006653,
      -0.1493084877729416,
      0.5586898922920227,
      1.2953017950057983,
      -1.3154749870300293,
      -1.5314114093780518,
      0.4393576681613922,
      0.5853769183158875,
      0.6741113662719727,
      -1.2588586807250977,
      1.0764271020889282
    ],
    [
      0.013829813338816166,
      0.9673999547958374,
      0.39044129848480225,
      -0.7576741576194763,
      -1.4350762367248535,
      1.1836422681808472,
      0.6197125315666199,
      -0.18800881505012512,
      0.9210391640663147,
      -0.9085333347320557,
      -1.008162021636963,
      -0.15873755514621735
    ],
    [
      0.8017362952232361,
      -0.9175119996070862,
      0.43163836002349854,
      -0.7104429006576538,
      -0.258989155292511,
      -0.9722645878791809,
      0.8537255525588989,
      0.7105397582054138,
      0.5303798317909241,
      -0.49669399857521057,
      -0.6366984844207764,
      -0.012995367869734764
    ],
    [
      0.625741720199585,
      -0.10424955934286118,
      1.3250813484191895,
      1.3757822513580322,
      -1.6679927110671997,
      -3.3775501251220703,
      -1.1457139253616333,
      -0.6310375928878784,
      -1.8472245931625366,
      -1.4363160133361816,
      0.314649373292923,
      2.2140917778015137
    ],
    [
      0.5050886869430542,
      -0.4979529082775116,
      1.5959835052490234,
      0.2484932541847229,
      -1.6507666110992432,
      -1.277898907661438,
      1.06849205493927,
      0.750503420829773,
      0.0008473892812617123,
      -0.30802446603775024,
      1.0921611785888672,
      -1.071351170539856
    ],
    [
      2.0321431159973145,
      -0.8533929586410522,
      0.7704172730445862,
      0.6770243048667908,
      -0.45096343755722046,
      0.11899794638156891,
      -0.4782024323940277,
      -0.48963305354118347,
      1.200843334197998,
      0.693334698677063,
      -0.19782331585884094,
      -0.7574564218521118
    ],
    [
      -0.29731184244155884,
      -0.4283103346824646,
      -2.23537015914917,
      1.2470036745071411,
      1.777260661125183,
      -0.5922104716300964,
      1.8660449981689453,
      0.24656543135643005,
      0.29154402017593384,
      -0.4214424788951874,
      -0.07626877725124359,
      -0.0016889453399926424
    ],
    [
      -0.9250777959823608,
      -0.9898039698600769,
      0.1830199956893921,
      -0.7663300633430481,
      1.5856672525405884,
      -0.5115448832511902,
      -0.673322856426239,
      0.5615183115005493,
      -0.7701568603515625,
      -0.42838776111602783,
      0.4760286808013916,
      0.7871794104576111
    ],
    [
      0.4671863615512848,
      0.29481783509254456,
      -0.04930322617292404,
      -1.3665348291397095,
      0.6463698148727417,
      -0.1221495047211647,
      -0.22449247539043427,
      -0.9335480332374573,
      2.218008518218994,
      -1.4683202505111694,
      0.4802343249320984,
      0.16667640209197998
    ],
    [
      0.3670046925544739,
      0.08439170569181442,
      -0.8715845942497253,
      0.8308322429656982,
      -0.6264634132385254,
      -0.5754709839820862,
      -0.5785180330276489,
      0.07160492241382599,
      -0.8828495144844055,
      0.8503129482269287,
      -0.9209263920783997,
      1.1969250440597534
    ],
    [
      -0.14099954068660736,
      0.9702261686325073,
      0.940241813659668,
      -0.659648597240448,
      -2.0559420585632324,
      1.129125714302063,
      0.015213982202112675,
      -1.2568140029907227,
      1.4651222229003906,
      -2.358942985534668,
      0.1679416447877884,
      2.0422821044921875
    ],
    [
      0.7557508945465088,
      -0.5397359132766724,
      0.6510165333747864,
      0.009696610271930695,
      -0.9302099943161011,
      -0.5465859770774841,
      -0.05414554104208946,
      -2.054191827774048,
      -0.001273466506972909,
      0.5076521635055542,
      0.808475136756897,
      0.6994311213493347
    ],
    [
      -1.0929738283157349,
      0.5677543878555298,
      0.3119506537914276,
      -0.6384192109107971,
      -0.5515283942222595,
      0.3990245759487152,
      1.2482908964157104,
      0.850945234298706,
      0.8827366232872009,
      -2.7731385231018066,
      0.8729569315910339,
      1.0350028276443481
    ],
    [
      0.34883788228034973,
      -0.04858940839767456,
      -0.23448404669761658,
      1.2010458707809448,
      0.15633219480514526,
      -1.0056957006454468,
      0.9145679473876953,
      -0.6681197285652161,
      -1.2964715957641602,
      1.1041536331176758,
      0.11508939415216446,
      -0.17014935612678528
    ],
    [
      -0.30986088514328003,
      -0.10114789009094238,
      -0.1591869443655014,
      0.08719322830438614,
      0.07529132068157196,
      0.48372673988342285,
      -0.9753487706184387,
      0.5698862671852112,
      -0.21096226572990417,
      -0.42927831411361694,
      -0.32903823256492615,
      0.4035695493221283
    ],
    [
      1.016276478767395,
      1.318505883216858,
      0.18604353070259094,
      -1.9602302312850952,
      1.1512922048568726,
      2.8540377616882324,
      1.0938398838043213,
      -0.09286277741193771,
      -1.8665683269500732,
      0.26502782106399536,
      0.31063032150268555,
      -1.9662141799926758
    ],
    [
      -0.2509092092514038,
      0.3018055558204651,
      0.5657253265380859,
      -0.019986262544989586,
      0.04912068322300911,
      1.102164387702942,
      -0.1585845649242401,
      -0.312797486782074,
      -0.3081560730934143,
      0.7544987201690674,
      -1.7269446849822998,
      -0.7514902353286743
    ],
    [
      0.9904922246932983,
      -0.436552494764328,
      0.09149200469255447,
      0.41754841804504395,
      0.1859678030014038,
      0.04754055291414261,
      -1.7545511722564697,
      -0.7646070718765259,
      1.1470081806182861,
      0.6608585119247437,
      -0.48088833689689636,
      -0.31074362993240356
    ],
    [
      -0.17976440489292145,
      -0.1328226625919342,
      -0.8663195371627808,
      0.5697997212409973,
      0.30711227655410767,
      -0.8817062377929688,
      -0.11935766786336899,
      0.09444573521614075,
      1.9031010866165161,
      0.9687870144844055,
      -0.10225605219602585,
      -0.9519734978675842
    ],
    [
      -0.18065832555294037,
      0.008659880608320236,
      1.136784553527832,
      2.2327425479888916,
      0.12489794939756393,
      -1.2211954593658447,
      -1.6940522193908691,
      -1.0870915651321411,
      -1.8099040985107422,
      0.8821845650672913,
      1.699718713760376,
      -0.4170009195804596
    ],
    [
      -0.9352967739105225,
      -1.2404588460922241,
      0.29673221707344055,
      -0.24985362589359283,
      1.064254641532898,
      -0.21826395392417908,
      -1.7299473285675049,
      1.1312973499298096,
      -0.07122419774532318,
      0.7372868657112122,
      0.0680265799164772,
      -0.4521680176258087
    ],
    [
      0.9151033759117126,
      2.183222770690918,
      -1.2284066677093506,
      -0.680079460144043,
      0.1881076991558075,
      -1.2981884479522705,
      0.8449024558067322,
      -1.9013561010360718,
      -0.39248016476631165,
      -0.5524901151657104,
      1.5902389287948608,
      0.08108285069465637
    ],
    [
      1.5322214365005493,
      1.3685413599014282,
      -2.1851751804351807,
      1.7299368381500244,
      1.2369515895843506,
      2.671449899673462,
      -2.0664727687835693,
      1.732733964920044,
      0.6847937703132629,
      -0.11733978241682053,
      -1.5817581415176392,
      -2.107672691345215
    ],
    [
      -0.5020020008087158,
      -0.3080098032951355,
      1.3101454973220825,
      -2.411989212036133,
      1.7426315546035767,
      -0.35750913619995117,
      -1.02394437789917,
      1.1050633192062378,
      -0.7206002473831177,
      0.17605820298194885,
      0.3045549690723419,
      0.33685487508773804
    ],
    [
      -2.2405900955200195,
      -0.850686252117157,
      -0.14296738803386688,
      -0.8239854574203491,
      -0.19051781296730042,
      -0.3469511568546295,
      -0.18157218396663666,
      2.3460588455200195,
      0.48535969853401184,
      -0.05962482839822769,
      -0.34622547030448914,
      1.0945707559585571
    ],
    [
      -0.7823362946510315,
      -0.7652547359466553,
      0.41184842586517334,
      0.8188057541847229,
      -0.6489740610122681,
      0.801903247833252,
      0.11948109418153763,
      -0.10354629904031754,
      -1.4619196653366089,
      0.16324396431446075,
      0.09682655334472656,
      1.25534987449646
    ],
    [
      -0.2884308099746704,
      -0.6248071193695068,
      -1.6091411113739014,
      1.5898457765579224,
      0.9854570031166077,
      -0.20386573672294617,
      -0.046003054827451706,
      0.46932896971702576,
      -0.6694549322128296,
      0.3080027103424072,
      0.7030200362205505,
      -0.0010976496851071715
    ],
    [
      0.17883071303367615,
      0.2929871678352356,
      0.8626184463500977,
      0.4037887454032898,
      -0.2341385930776596,
      0.5172777771949768,
      0.15110653638839722,
      -3.139939546585083,
      0.9827558994293213,
      1.8073755502700806,
      -0.38710305094718933,
      0.943751335144043
    ],
    [
      -1.1316972970962524,
      0.08747933059930801,
      2.097970962524414,
      -0.6913901567459106,
      -1.4812629222869873,
      -2.001479148864746,
      0.14820876717567444,
      2.332061767578125,
      1.1509897708892822,
      -0.9974691271781921,
      -0.1791883111000061,
      -0.8535753488540649
    ],
    [
      0.3937731981277466,
      -0.12967343628406525,
      -0.10502336174249649,
      -0.5297954082489014,
      0.7550687789916992,
      -0.676213800907135,
      -0.25900331139564514,
      -0.03154325857758522,
      0.41818010807037354,
      -0.3948025703430176,
      -1.1594799757003784,
      -0.6378577947616577
    ],
    [
      1.4965488910675049,
      1.4567618370056152,
      -1.7071462869644165,
      -1.3174792528152466,
      -1.182446002960205,
      -0.5460909605026245,
      -0.45088303089141846,
      -1.0429521799087524,
      0.8290456533432007,
      1.8811569213867188,
      1.1699421405792236,
      -0.2985169291496277
    ],
    [
      -0.11812201887369156,
      -0.2972997725009918,
      -0.5171898603439331,
      0.431465208530426,
      0.6400114893913269,
      -0.24805398285388947,
      -0.8228897452354431,
      0.5407090187072754,
      -0.3619643747806549,
      0.40806472301483154,
      -0.43336373567581177,
      0.0993318110704422
    ],
    [
      0.5528833270072937,
      0.4515019357204437,
      -0.4049186706542969,
      -1.5909552574157715,
      1.1139817237854004,
      -0.7868512868881226,
      0.47912636399269104,
      0.3392372131347656,
      -0.08352997899055481,
      -1.4927676916122437,
      -0.2510051429271698,
      0.7727063298225403
    ],
    [
      -0.1821718066930771,
      -0.9394591450691223,
      1.1993722915649414,
      -0.082557812333107,
      -1.2862533330917358,
      0.2951822280883789,
      -0.5343143939971924,
      -1.3925209045410156,
      0.06710290908813477,
      1.1603080034255981,
      0.3282722234725952,
      0.880365252494812
    ],
    [
      0.48202282190322876,
      0.4872927665710449,
      0.9016651511192322,
      -0.7432113289833069,
      0.4705737233161926,
      -0.652468204498291,
      0.263012558221817,
      0.6199906468391418,
      1.0251421928405762,
      0.22887259721755981,
      0.020734941586852074,
      -1.2571147680282593
    ],
    [
      0.8948982357978821,
      0.8708676099777222,
      -0.3247986137866974,
      -0.06588158011436462,
      0.7594743967056274,
      -0.48450401425361633,
      0.5286601781845093,
      0.3593573570251465,
      -1.4867103099822998,
      -0.9301748871803284,
      1.65174400806427,
      -0.3697658181190491
    ],
    [
      -1.5503374338150024,
      -0.6562469601631165,
      0.07616507261991501,
      0.011387978680431843,
      0.9751060605049133,
      -0.28991642594337463,
      -1.9205456972122192,
      0.3408549726009369,
      0.23364520072937012,
      0.5980434417724609,
      -0.5644950866699219,
      -0.15909869968891144
    ],
    [
      -0.27878257632255554,
      -0.5686851143836975,
      0.674633800983429,
      -0.16192638874053955,
      -0.7040638327598572,
      -0.8390926122665405,
      0.050701238214969635,
      0.25959962606430054,
      -0.364670068025589,
      1.2196769714355469,
      0.10245445370674133,
      -1.4106467962265015
    ],
    [
      0.8173987865447998,
      -0.609216570854187,
      0.7990593314170837,
      -0.6133507490158081,
      0.3607177138328552,
      0.2505846321582794,
      1.3226463794708252,
      0.05411374196410179,
      -0.45534974336624146,
      -1.1859763860702515,
      -1.176849126815796,
      -0.13463251292705536
    ],
    [
      -1.4139835834503174,
      -1.1431314945220947,
      -1.7300113439559937,
      1.197265625,
      -1.0850906372070312,
      0.17844615876674652,
      0.047015540301799774,
      1.4711430072784424,
      0.8121012449264526,
      -1.5162694454193115,
      -0.8067540526390076,
      0.9608175158500671
    ],
    [
      -1.141926884651184,
      -0.7034942507743835,
      1.3086163997650146,
      -0.7001788020133972,
      0.08066178858280182,
      1.0317473411560059,
      1.28704833984375,
      -0.7209571599960327,
      0.007112924940884113,
      -1.7708112001419067,
      -0.5591776371002197,
      -0.7428114414215088
    ],
    [
      0.597164511680603,
      -1.1364740133285522,
      0.3745982050895691,
      -0.1958334594964981,
      -0.9782955050468445,
      1.119805097579956,
      0.5268339514732361,
      -1.545594573020935,
      -0.10998132079839706,
      0.44713103771209717,
      0.21271704137325287,
      0.39594563841819763
    ],
    [
      -1.0440126657485962,
      2.3281185626983643,
      0.15277151763439178,
      0.7880904078483582,
      0.7887023091316223,
      0.5464755296707153,
      0.9714387655258179,
      -2.1344656944274902,
      0.38706034421920776,
      0.04090821370482445,
      -0.1430051326751709,
      -1.6700190305709839
    ],
    [
      -0.40509021282196045,
      -0.08444995433092117,
      -0.30744826793670654,
      0.23656395077705383,
      -1.681600570678711,
      -0.4612060785293579,
      0.7914546132087708,
      -0.04008093103766441,
      -0.9164366126060486,
      2.017894983291626,
      0.5136858224868774,
      -0.6713632345199585
    ],
    [
      -0.28476035594940186,
      -1.0482208728790283,
      0.1307717114686966,
      -1.3291490077972412,
      1.3058866262435913,
      0.2132256031036377,
      -1.437042474746704,
      0.4101604223251343,
      -1.8331760168075562,
      -0.08511560410261154,
      0.9486765265464783,
      0.9760923981666565
    ],
    [
      0.9059004783630371,
      -1.7904146909713745,
      -1.942929744720459,
      1.0810424089431763,
      -0.39735937118530273,
      1.0776910781860352,
      -0.23357319831848145,
      -0.6712568998336792,
      0.6764954924583435,
      -1.1163007020950317,
      -0.35871800780296326,
      2.1296091079711914
    ],
    [
      -0.38385817408561707,
      -1.3645154237747192,
      -1.7603904008865356,
      -0.018389366567134857,
      0.9438540935516357,
      0.895228922367096,
      -0.5080941319465637,
      0.516152024269104,
      0.566649854183197,
      -0.608672022819519,
      1.2983601093292236,
      -0.5250778794288635
    ],
    [
      -0.6947277188301086,
      0.6167421936988831,
      0.4401889443397522,
      -0.2964727580547333,
      0.2991621494293213,
      -1.3275606632232666,
      0.4696633815765381,
      -0.1419430673122406,
      0.698350191116333,
      -2.18237566947937,
      -0.8983665108680725,
      0.34916046261787415
    ],
    [
      0.8030291795730591,
      0.6043296456336975,
      -0.8266843557357788,
      -1.3980807065963745,
      -0.640157163143158,
      0.8963502645492554,
      0.24965637922286987,
      0.6880808472633362,
      -0.6472521424293518,
      1.3373628854751587,
      0.4479144811630249,
      -0.7473577260971069
    ],
    [
      0.8564838171005249,
      0.1991734802722931,
      -0.018805891275405884,
      1.3708088397979736,
      0.04698604345321655,
      -2.446428060531616,
      -2.0904574394226074,
      -0.11237391084432602,
      0.9826956987380981,
      -2.153545618057251,
      1.4319649934768677,
      -1.1142666339874268
    ],
    [
      -0.20530477166175842,
      0.8090496063232422,
      -1.2251231670379639,
      -0.5422202944755554,
      1.2632782459259033,
      0.042290098965168,
      -0.033880528062582016,
      -1.0112054347991943,
      1.0598182678222656,
      -0.37789350748062134,
      0.927699863910675,
      -0.986375629901886
    ],
    [
      -1.028952956199646,
      -0.6908555626869202,
      0.7472887635231018,
      -0.8500298857688904,
      0.630987286567688,
      0.7939566373825073,
      -0.6544527411460876,
      0.7730404138565063,
      -1.4806970357894897,
      1.0287244319915771,
      1.767434000968933,
      1.2626186609268188
    ],
    [
      -1.150814414024353,
      1.875421404838562,
      -0.7879551649093628,
      0.05480488762259483,
      -1.0175251960754395,
      1.589271903038025,
      -1.1660218238830566,
      0.5281550884246826,
      -0.9949967861175537,
      1.7709898948669434,
      1.1496813297271729,
      -0.3587425649166107
    ],
    [
      1.2814133167266846,
      1.4161533117294312,
      0.1467563360929489,
      -0.9726401567459106,
      -1.9728527069091797,
      0.02811570093035698,
      -0.6188254952430725,
      -0.11397456377744675,
      -0.231916144490242,
      0.6329002380371094,
      -0.6384742259979248,
      1.2056488990783691
    ],
    [
      2.0553457736968994,
      -0.5492045879364014,
      0.02976158633828163,
      0.6655535697937012,
      -0.8586601614952087,
      -0.3769248127937317,
      -0.8044310808181763,
      -1.4869459867477417,
      1.2671459913253784,
      0.19179664552211761,
      -0.14986446499824524,
      0.059360165148973465
    ],
    [
      -0.8874632716178894,
      -0.8007938265800476,
      0.5571050643920898,
      0.5068626999855042,
      -1.5374948978424072,
      1.581186294555664,
      0.5342105031013489,
      0.8263277411460876,
      -0.4092463552951813,
      -1.5457077026367188,
      1.448664903640747,
      1.0323978662490845
    ],
    [
      -0.4723414480686188,
      -0.799968421459198,
      0.5176438689231873,
      -0.7936728596687317,
      0.9039485454559326,
      -0.5433008670806885,
      -1.862874984741211,
      0.20361894369125366,
      -1.026548981666565,
      -0.21820412576198578,
      0.5132848620414734,
      0.4745800793170929
    ],
    [
      -2.1297669410705566,
      0.9654618501663208,
      0.6128073334693909,
      2.569291830062866,
      -0.17822784185409546,
      -0.13498856127262115,
      -0.7807860970497131,
      -0.14095959067344666,
      0.11794368922710419,
      -0.8100640177726746,
      -0.9238176941871643,
      0.2844531238079071
    ],
    [
      -0.014838776551187038,
      -0.8702313303947449,
      0.17648155987262726,
      -0.718406617641449,
      -1.130005955696106,
      -0.6943599581718445,
      -0.021977650001645088,
      0.25940918922424316,
      1.3550078868865967,
      -0.0469147264957428,
      -0.9515858888626099,
      -0.7823073863983154
    ],
    [
      -1.1563584804534912,
      1.0582112073898315,
      -0.4973142743110657,
      0.28706637024879456,
      -0.8815611600875854,
      0.6848344802856445,
      1.7798575162887573,
      -0.9855838418006897,
      0.5170496702194214,
      -0.015652203932404518,
      -0.33740919828414917,
      -0.0327085517346859
    ],
    [
      0.7563415765762329,
      -1.3028720617294312,
      0.18923793733119965,
      -1.3956410884857178,
      0.8358469009399414,
      1.8945910930633545,
      0.19241251051425934,
      0.10294892638921738,
      -0.44404593110084534,
      1.1890040636062622,
      -1.5615164041519165,
      -0.7751684188842773
    ],
    [
      -1.2949318885803223,
      0.935172438621521,
      -0.5084371566772461,
      -1.0596513748168945,
      -0.6198251247406006,
      0.17159494757652283,
      2.628133773803711,
      0.31317830085754395,
      -0.7072305083274841,
      1.2736762762069702,
      -1.0873829126358032,
      -0.4519568085670471
    ],
    [
      -0.5168226361274719,
      -0.5784696936607361,
      0.05691790208220482,
      -1.2033333778381348,
      1.8084843158721924,
      0.2054724246263504,
      -1.3145085573196411,
      0.8001048564910889,
      -1.9922378063201904,
      -0.4642565846443176,
      -0.22165194153785706,
      0.6718884110450745
    ],
    [
      -0.967434823513031,
      0.8892290592193604,
      1.0258363485336304,
      3.4548721313476562,
      -2.9035184383392334,
      -1.305734395980835,
      1.7372609376907349,
      -0.5219103693962097,
      -0.10239985585212708,
      -0.7445355653762817,
      0.5408025979995728,
      -1.4914426803588867
    ],
    [
      -1.58411705493927,
      1.5535733699798584,
      -0.4293234348297119,
      2.1663222312927246,
      -1.2175408601760864,
      -0.6237454414367676,
      1.8576562404632568,
      -1.3833647966384888,
      1.0421841144561768,
      0.8129995465278625,
      -0.28975504636764526,
      -0.3727347254753113
    ],
    [
      -0.16476811468601227,
      -0.33891838788986206,
      -0.48586305975914,
      -0.5738635659217834,
      0.40422388911247253,
      -0.127800852060318,
      0.130223348736763,
      0.9592002034187317,
      1.1917778253555298,
      -0.7312363982200623,
      -0.5112135410308838,
      0.009486310184001923
    ],
    [
      1.440147042274475,
      -0.4800989627838135,
      -0.08747334033250809,
      0.44105538725852966,
      0.5669810771942139,
      -0.1536320447921753,
      -0.5347486138343811,
      -0.3869464695453644,
      1.382511854171753,
      -0.05663435906171799,
      -0.022170890122652054,
      0.05018161982297897
    ],
    [
      1.848027229309082,
      0.016307324171066284,
      0.8792452216148376,
      -0.7019031047821045,
      0.5231910347938538,
      -1.0245898962020874,
      -1.8477534055709839,
      0.15415258705615997,
      -1.007419466972351,
      1.421668291091919,
      -2.2670395374298096,
      0.9153493046760559
    ],
    [
      0.2038053721189499,
      1.1812376976013184,
      0.9783643484115601,
      -0.650822639465332,
      1.6802045106887817,
      -1.3337360620498657,
      -1.759055495262146,
      -1.130022406578064,
      0.4959713816642761,
      -0.7099200487136841,
      0.28954431414604187,
      -0.1199699118733406
    ],
    [
      0.6610403656959534,
      -0.38846060633659363,
      -0.02871006540954113,
      -0.40571820735931396,
      1.77423095703125,
      0.6730192303657532,
      -0.9459869861602783,
      0.7239596247673035,
      -2.0748229026794434,
      -0.9099913835525513,
      -0.16629645228385925,
      1.1214455366134644
    ],
    [
      -1.2765145301818848,
      -0.3133019804954529,
      -1.157639741897583,
      -1.0131100416183472,
      0.4595831036567688,
      -0.4730003774166107,
      0.9220271110534668,
      1.7538092136383057,
      0.6278159618377686,
      0.11555477231740952,
      -0.07217299193143845,
      -0.2180556356906891
    ],
    [
      0.5854471921920776,
      0.5473097562789917,
      -0.42550307512283325,
      -0.5717771053314209,
      -0.7529605627059937,
      0.551443874835968,
      -0.8500069975852966,
      0.14420367777347565,
      1.3410712480545044,
      -0.6503022909164429,
      -0.24326424300670624,
      0.07039041072130203
    ],
    [
      0.14489667117595673,
      -0.6357911229133606,
      2.2810213565826416,
      0.20399877429008484,
      -0.8899721503257751,
      0.6538329124450684,
      -0.5095855593681335,
      -0.20612123608589172,
      1.0725927352905273,
      -0.511224091053009,
      -1.4283866882324219,
      -0.700517475605011
    ],
    [
      0.17209666967391968,
      1.3525463342666626,
      -0.022968297824263573,
      -1.6032942533493042,
      -1.0549838542938232,
      2.1103901863098145,
      -0.06103722006082535,
      -1.201874017715454,
      0.31916284561157227,
      -0.5364880561828613,
      1.0522693395614624,
      -1.0800870656967163
    ],
    [
      0.7433990836143494,
      -0.1853477954864502,
      2.3963868618011475,
      -0.9910832643508911,
      0.4607725441455841,
      -0.043628841638565063,
      -0.3427519202232361,
      0.3246822953224182,
      -2.18792462348938,
      1.1709673404693604,
      -2.4477038383483887,
      0.5612363219261169
    ],
    [
      0.8224575519561768,
      0.9542956948280334,
      -0.012024477124214172,
      0.06798005849123001,
      1.1130452156066895,
      -0.33041948080062866,
      0.0586068332195282,
      -1.364244818687439,
      -0.45826056599617004,
      -0.2537664771080017,
      -0.12256012111902237,
      -0.5714539289474487
    ],
    [
      0.23271150887012482,
      -0.3606451451778412,
      -1.6342852115631104,
      -0.5971552729606628,
      0.9590903520584106,
      1.8330988883972168,
      -0.4604911804199219,
      -0.4921671152114868,
      1.8327890634536743,
      -0.8258020281791687,
      -2.490638017654419,
      0.5356964468955994
    ],
    [
      2.381279706954956,
      -1.5395088195800781,
      -1.555510401725769,
      -0.4502357244491577,
      -0.4519850015640259,
      -0.5951299667358398,
      -1.0069736242294312,
      1.759470820426941,
      0.38358867168426514,
      0.4191078543663025,
      0.28968125581741333,
      -0.05867249518632889
    ],
    [
      -1.3459914922714233,
      -0.2867569029331207,
      1.66152024269104,
      1.3238141536712646,
      -0.03931151703000069,
      0.07731325924396515,
      0.037804313004016876,
      -1.058563470840454,
      -0.025632664561271667,
      -0.25589579343795776,
      0.2158583700656891,
      1.3042490482330322
    ],
    [
      -0.41263654828071594,
      -0.15612491965293884,
      0.08601752668619156,
      -0.7958636283874512,
      1.4411119222640991,
      -0.26402607560157776,
      0.08555100113153458,
      1.2510300874710083,
      -0.9748796820640564,
      -0.1962488293647766,
      -0.16461430490016937,
      0.9834578037261963
    ],
    [
      0.12552542984485626,
      0.9102230072021484,
      0.7931166887283325,
      2.102470874786377,
      -3.5080742835998535,
      -2.0289080142974854,
      -0.10235533118247986,
      1.636905312538147,
      0.6889927983283997,
      -1.0121570825576782,
      0.93031245470047,
      0.2868339419364929
    ],
    [
      -0.4564877450466156,
      0.16532200574874878,
      1.1571578979492188,
      -0.29137688875198364,
      -0.3459179997444153,
      0.98105788230896,
      0.6191302537918091,
      1.054641842842102,
      -0.10792025178670883,
      -2.061063051223755,
      -0.6276100873947144,
      0.29375559091567993
    ],
    [
      -1.2504100799560547,
      0.14464779198169708,
      0.4227788746356964,
      1.5647892951965332,
      -0.0930120125412941,
      -0.7046440839767456,
      -0.26516687870025635,
      0.521261990070343,
      0.5059982538223267,
      -0.49604809284210205,
      0.966070294380188,
      -0.42073822021484375
    ],
    [
      0.7919570803642273,
      -0.35242533683776855,
      1.3196265697479248,
      -0.12777279317378998,
      0.2739923894405365,
      -0.7913158535957336,
      -0.7966306209564209,
      -0.6110970973968506,
      0.23866957426071167,
      0.4920588433742523,
      -0.33393609523773193,
      0.9002337455749512
    ],
    [
      -0.7090617418289185,
      0.5498374104499817,
      0.7030090689659119,
      -0.5613008737564087,
      0.6748724579811096,
      -2.1835107803344727,
      0.519870400428772,
      -0.5942255258560181,
      -2.1913092136383057,
      0.8642334342002869,
      0.3083522617816925,
      -0.11784107238054276
    ],
    [
      -0.780635416507721,
      0.8645616769790649,
      -2.7129180431365967,
      0.5618861317634583,
      1.1250779628753662,
      2.218413829803467,
      -3.2348434925079346,
      0.9704856872558594,
      2.65375018119812,
      -1.9152058362960815,
      0.2877274453639984,
      -0.15739168226718903
    ],
    [
      -0.13461242616176605,
      0.6630321145057678,
      -1.7387157678604126,
      1.3107272386550903,
      -0.3557278513908386,
      -0.1037578359246254,
      -1.5785118341445923,
      -0.16578838229179382,
      1.0598119497299194,
      -2.602238178253174,
      1.974703073501587,
      1.414284348487854
    ],
    [
      -0.4131338596343994,
      0.5699349045753479,
      -0.3005983531475067,
      -1.22408127784729,
      -0.10501592606306076,
      -0.6889548897743225,
      -0.538888156414032,
      -0.3615318536758423,
      -0.03718605637550354,
      -0.1848333328962326,
      0.036671172827482224,
      3.365056276321411
    ],
    [
      0.9065266847610474,
      -0.42773833870887756,
      0.5125893354415894,
      0.720556378364563,
      1.3180102109909058,
      -0.22978951036930084,
      0.19904457032680511,
      -0.9685667157173157,
      -0.3010088801383972,
      -0.15013282001018524,
      -0.5321566462516785,
      0.6089418530464172
    ],
    [
      0.9658965468406677,
      -0.2367415428161621,
      1.0467922687530518,
      1.07998526096344,
      -0.4999106228351593,
      -0.740807056427002,
      -1.0321162939071655,
      -0.2819131314754486,
      0.570046603679657,
      0.5946041345596313,
      -0.025469936430454254,
      -0.6845439672470093
    ],
    [
      -0.5638364553451538,
      0.5108687877655029,
      -1.109942078590393,
      -0.4287741482257843,
      0.44568148255348206,
      -0.5207310914993286,
      -0.3521144986152649,
      0.29029661417007446,
      -0.2275805026292801,
      1.9884604215621948,
      -0.40784716606140137,
      -0.2902332842350006
    ],
    [
      -0.2740841805934906,
      2.036188840866089,
      -0.06380832940340042,
      1.13067626953125,
      1.5488908290863037,
      -0.5194446444511414,
      0.2033342868089676,
      -0.3687135875225067,
      -0.5264079570770264,
      -0.4846646189689636,
      -2.1272199153900146,
      0.17235983908176422
    ],
    [
      0.4461098909378052,
      -1.576174020767212,
      -0.0771244615316391,
      -1.6902899742126465,
      0.5180513262748718,
      -0.43136048316955566,
      0.5591189861297607,
      -0.1613965779542923,
      0.7377419471740723,
      -1.3592723608016968,
      0.5062792301177979,
      2.0055646896362305
    ],
    [
      -0.14249040186405182,
      0.6283859610557556,
      0.11415398865938187,
      0.4188614785671234,
      -1.5092512369155884,
      1.304938793182373,
      -0.9575246572494507,
      -1.5465725660324097,
      -0.4840547442436218,
      -1.0275156497955322,
      0.945309579372406,
      -0.2479187697172165
    ],
    [
      0.6121049523353577,
      -1.0628113746643066,
      0.5202789306640625,
      0.9536973237991333,
      -1.5439079999923706,
      0.8661707639694214,
      0.28701817989349365,
      0.45698997378349304,
      1.097900390625,
      -0.6417057514190674,
      -0.5708773732185364,
      0.42137718200683594
    ],
    [
      -0.8048960566520691,
      -0.0426349863409996,
      -0.24865522980690002,
      1.085874080657959,
      0.4689458906650543,
      1.0183204412460327,
      -0.255858451128006,
      0.18730130791664124,
      -0.08311942219734192,
      0.9296768307685852,
      -1.7788523435592651,
      -1.0872000455856323
    ],
    [
      0.7897152304649353,
      0.19903168082237244,
      1.7083765268325806,
      -1.0156248807907104,
      0.30672192573547363,
      -0.9203618764877319,
      -0.3344028890132904,
      -1.1279186010360718,
      -0.6168369650840759,
      2.5128793716430664,
      -0.5018657445907593,
      1.3055810928344727
    ],
    [
      0.0676276683807373,
      0.14777739346027374,
      0.23724471032619476,
      0.7329795360565186,
      1.143376111984253,
      1.0315502882003784,
      -0.5527627468109131,
      0.2034250795841217,
      -0.6540164947509766,
      0.006755684968084097,
      0.2869645357131958,
      0.18957854807376862
    ],
    [
      0.35419267416000366,
      0.030883057042956352,
      -0.7110859155654907,
      1.0068855285644531,
      0.2249637395143509,
      0.7620781064033508,
      -1.0269719362258911,
      -0.07304549217224121,
      -0.0040354048833251,
      0.9234359264373779,
      0.2184659093618393,
      0.1448582261800766
    ],
    [
      -0.5706838965415955,
      -0.7148973345756531,
      0.012131823226809502,
      -1.456225872039795,
      1.691474199295044,
      -1.0477625131607056,
      -0.08221733570098877,
      1.0345789194107056,
      -1.527312159538269,
      0.34311240911483765,
      0.13933946192264557,
      1.0074167251586914
    ],
    [
      -0.18980814516544342,
      -0.1685837060213089,
      -0.4160982072353363,
      -0.41730886697769165,
      -0.08265768736600876,
      1.2300219535827637,
      -0.1965150237083435,
      0.5778291821479797,
      1.0889322757720947,
      1.0696463584899902,
      -2.7785770893096924,
      -0.3311217725276947
    ],
    [
      -0.016774311661720276,
      -0.5325841903686523,
      -0.365195631980896,
      -0.05785681679844856,
      -0.24405142664909363,
      -0.0725666731595993,
      -0.39005041122436523,
      0.32761040329933167,
      0.21913941204547882,
      0.2786703109741211,
      -0.19017311930656433,
      -0.8510892987251282
    ],
    [
      1.101619839668274,
      -0.20198553800582886,
      0.19952133297920227,
      -0.5079931616783142,
      0.941024899482727,
      0.7353473901748657,
      -0.3764590620994568,
      -0.14608755707740784,
      -1.6812553405761719,
      -0.45667406916618347,
      -0.003875848837196827,
      0.5992110967636108
    ],
    [
      0.4385818839073181,
      -1.2420767545700073,
      0.12281578034162521,
      1.1108616590499878,
      -2.545666217803955,
      0.8219018578529358,
      -0.10491614788770676,
      1.190528392791748,
      -0.3960796296596527,
      -0.3975357711315155,
      1.549068808555603,
      -0.7889010310173035
    ],
    [
      -1.853761076927185,
      -0.3658006489276886,
      -0.48651355504989624,
      -1.3705569505691528,
      -0.5096719264984131,
      0.01611638255417347,
      -0.22071781754493713,
      2.2936325073242188,
      0.05887562409043312,
      0.6945964097976685,
      0.05997614935040474,
      -0.30521103739738464
    ],
    [
      0.861552357673645,
      -0.2963774800300598,
      0.4692685604095459,
      0.15511469542980194,
      -0.7264750003814697,
      0.28370192646980286,
      -0.37807101011276245,
      -0.565682590007782,
      0.5236152410507202,
      0.44064122438430786,
      -0.6000126004219055,
      -0.34010374546051025
    ],
    [
      -1.3266857862472534,
      -0.06545117497444153,
      0.48020750284194946,
      1.4795618057250977,
      1.712867021560669,
      -0.45037582516670227,
      -1.5691430568695068,
      -1.4452828168869019,
      2.0170986652374268,
      -0.10329882800579071,
      -1.4934698343276978,
      1.8312336206436157
    ],
    [
      -0.14008527994155884,
      -0.3736978769302368,
      0.09672708064317703,
      0.5109954476356506,
      1.1822607517242432,
      -0.16077366471290588,
      -0.15605708956718445,
      1.1579700708389282,
      -1.1577770709991455,
      -0.3097463548183441,
      -0.24097087979316711,
      0.18720686435699463
    ],
    [
      -1.4557937383651733,
      0.3634491264820099,
      1.687791109085083,
      2.135141134262085,
      -1.7172025442123413,
      -1.838686466217041,
      0.886528730392456,
      0.10873597115278244,
      -0.6743156313896179,
      0.6332390904426575,
      0.041277091950178146,
      -1.4081000089645386
    ],
    [
      0.6051216721534729,
      0.6984825730323792,
      0.7740762233734131,
      -0.044554635882377625,
      -2.5421714782714844,
      1.113308072090149,
      -1.1377570629119873,
      -0.2188778817653656,
      -1.6409566402435303,
      1.1193650960922241,
      1.6418758630752563,
      0.13811185956001282
    ],
    [
      1.6326018571853638,
      -0.45636841654777527,
      0.3789202868938446,
      0.4177425503730774,
      -0.894891619682312,
      0.07008332759141922,
      -0.17393693327903748,
      -1.1092209815979004,
      0.7241114974021912,
      0.5551102161407471,
      0.4417347013950348,
      0.220597043633461
    ],
    [
      -1.4034245014190674,
      0.45283043384552,
      1.538062334060669,
      0.44165974855422974,
      1.1752231121063232,
      -2.210176467895508,
      0.14738281071186066,
      -1.136690616607666,
      -1.3041770458221436,
      0.9889013171195984,
      1.4703046083450317,
      -0.8456228971481323
    ],
    [
      0.14153553545475006,
      -0.6304239630699158,
      -0.04716021940112114,
      -1.3419188261032104,
      0.9975782036781311,
      -0.728417694568634,
      -0.3295334577560425,
      0.01288678776472807,
      -1.7016501426696777,
      -0.5516860485076904,
      -0.8651818633079529,
      -0.06540939211845398
    ],
    [
      0.5330846905708313,
      -1.7757902145385742,
      -1.634021282196045,
      -0.7534889578819275,
      1.3270260095596313,
      1.5389152765274048,
      0.6768369078636169,
      -1.1950883865356445,
      -2.525468111038208,
      0.4658038020133972,
      1.7299555540084839,
      0.3640401065349579
    ],
    [
      -0.09760048240423203,
      0.7572208642959595,
      -0.09753510355949402,
      1.9506158828735352,
      -1.2372393608093262,
      -0.06332750618457794,
      -1.1895432472229004,
      1.506771206855774,
      -0.5409259796142578,
      -0.09243358671665192,
      -1.4068800210952759,
      0.8443027138710022
    ],
    [
      0.5858618021011353,
      1.1978635787963867,
      -1.0053365230560303,
      0.4261018931865692,
      -2.241950273513794,
      0.3519871234893799,
      1.2424700260162354,
      -0.08210644125938416,
      0.11197905242443085,
      -1.3979003429412842,
      1.1101123094558716,
      1.060957908630371
    ],
    [
      0.17145423591136932,
      0.7049522399902344,
      -2.4421091079711914,
      1.4774836301803589,
      0.6881126761436462,
      -0.5923479795455933,
      -0.664035439491272,
      0.26192736625671387,
      1.6040074825286865,
      -0.20378996431827545,
      -1.1816715002059937,
      0.453995019197464
    ],
    [
      0.5698085427284241,
      -1.0800622701644897,
      0.5092280507087708,
      -0.3717917501926422,
      -1.1460016965866089,
      -0.8762819170951843,
      -0.18438903987407684,
      0.7187108993530273,
      1.652803897857666,
      -0.7377325892448425,
      -1.3416680097579956,
      0.3435018062591553
    ],
    [
      -0.8627106547355652,
      -0.37990856170654297,
      -0.5713415145874023,
      1.7622312307357788,
      -0.36342665553092957,
      -0.043720800429582596,
      2.160907745361328,
      -0.2418697625398636,
      -1.3260319232940674,
      0.8574219942092896,
      -0.09203200042247772,
      -1.3102689981460571
    ],
    [
      0.5673834681510925,
      -0.8773857355117798,
      -1.482717514038086,
      0.693544328212738,
      1.085657000541687,
      0.24560518562793732,
      -1.5684040784835815,
      0.4810555577278137,
      0.9710153341293335,
      0.9016607403755188,
      1.5605568885803223,
      -1.3294460773468018
    ],
    [
      -0.5053189396858215,
      0.12587323784828186,
      -1.0147614479064941,
      0.5398094058036804,
      0.4356500804424286,
      -0.93162602186203,
      -0.36951613426208496,
      -1.227825403213501,
      -1.6939587593078613,
      -0.07281720638275146,
      1.2367008924484253,
      1.1842329502105713
    ],
    [
      -0.32488077878952026,
      -0.03508709371089935,
      0.5756745338439941,
      0.5191957950592041,
      1.0008708238601685,
      0.6368559002876282,
      0.13713164627552032,
      0.9888955950737,
      -0.6529757976531982,
      -0.777651309967041,
      -0.36587247252464294,
      -0.08595404773950577
    ],
    [
      0.35980573296546936,
      -0.13508550822734833,
      -0.9058856964111328,
      0.2294674515724182,
      0.6259638667106628,
      -1.4067656993865967,
      0.8816156983375549,
      1.455788016319275,
      -0.6015204191207886,
      -0.8454290628433228,
      0.25242260098457336,
      0.038676753640174866
    ],
    [
      0.09978467226028442,
      0.5391942262649536,
      -1.0620858669281006,
      0.6014741659164429,
      0.6087663173675537,
      -0.9247214794158936,
      -0.2727857232093811,
      -0.6717836856842041,
      -0.7846463918685913,
      1.2894357442855835,
      0.3896619975566864,
      -0.5271735191345215
    ],
    [
      2.4618687629699707,
      0.35337430238723755,
      0.10724180936813354,
      -1.7281630039215088,
      1.3544204235076904,
      -0.25900065898895264,
      -1.5424654483795166,
      -1.141964077949524,
      0.8364951610565186,
      -0.30374857783317566,
      0.8504282236099243,
      -0.10892388969659805
    ],
    [
      0.9076610803604126,
      -0.9461783766746521,
      0.5998862981796265,
      -0.6636497378349304,
      -0.8946853876113892,
      0.3998410403728485,
      -0.4991493821144104,
      -1.5799530744552612,
      0.6130267381668091,
      0.748192548751831,
      0.05295620113611221,
      -0.7781780362129211
    ],
    [
      0.5320969820022583,
      0.024795493111014366,
      1.9754230976104736,
      2.0673301219940186,
      -0.2921520471572876,
      -1.0440919399261475,
      -1.2259488105773926,
      -0.8187676072120667,
      0.7779271602630615,
      0.7869751453399658,
      -1.1670194864273071,
      -0.5588590502738953
    ],
    [
      0.5334919691085815,
      1.8195377588272095,
      -0.5551758408546448,
      0.3071788251399994,
      0.25967660546302795,
      -0.8007609248161316,
      -1.0618789196014404,
      -2.20088267326355,
      1.3013863563537598,
      0.7102340459823608,
      -1.203303575515747,
      1.2096174955368042
    ],
    [
      1.4824517965316772,
      -0.7266564965248108,
      -1.7392539978027344,
      1.1024975776672363,
      -0.6905216574668884,
      -1.6375230550765991,
      -1.308505654335022,
      0.23965807259082794,
      -0.6186411380767822,
      0.557479977607727,
      1.3357025384902954,
      0.34495553374290466
    ],
    [
      0.7927096486091614,
      -0.018850982189178467,
      -0.7856371998786926,
      0.24309122562408447,
      -1.0093532800674438,
      0.5463604927062988,
      -1.399938702583313,
      2.181325674057007,
      -0.9374966621398926,
      -1.0041662454605103,
      1.0373897552490234,
      0.42483508586883545
    ],
    [
      0.24746130406856537,
      0.234258770942688,
      -0.17868082225322723,
      -0.04992850124835968,
      0.613269567489624,
      0.027637315914034843,
      -0.5817599892616272,
      -0.10165558755397797,
      -0.937987208366394,
      -1.3379193544387817,
      -0.09519068896770477,
      1.5807709693908691
    ],
    [
      -0.32860836386680603,
      0.46313488483428955,
      0.5635904669761658,
      0.3739168345928192,
      0.015397104434669018,
      0.39058297872543335,
      -1.6214399337768555,
      1.0249197483062744,
      0.2443150132894516,
      0.09327063709497452,
      -1.0986080169677734,
      -0.004738573916256428
    ],
    [
      -1.2852568626403809,
      -0.6083004474639893,
      0.14672806859016418,
      0.6071423292160034,
      0.35765156149864197,
      -0.37806999683380127,
      0.5802617073059082,
      0.24852505326271057,
      0.5195069909095764,
      0.3858474791049957,
      -0.47125592827796936,
      -0.5535145998001099
    ],
    [
      -1.0700207948684692,
      -0.7196665406227112,
      -0.13477636873722076,
      1.2924574613571167,
      1.3072956800460815,
      -0.4585425555706024,
      -1.5587016344070435,
      0.9801845550537109,
      -0.9545953869819641,
      0.27917489409446716,
      -1.98746919631958,
      -0.9061236381530762
    ],
    [
      -1.0867576599121094,
      -0.18342092633247375,
      -0.05780082568526268,
      0.18478532135486603,
      0.6685812473297119,
      0.07174002379179001,
      -0.5769433975219727,
      -0.1460617333650589,
      -0.9902862310409546,
      0.15316753089427948,
      0.1300978809595108,
      0.03976954519748688
    ],
    [
      -2.2011725902557373,
      0.2689228355884552,
      -0.5499923825263977,
      -0.09304427355527878,
      1.6367939710617065,
      -0.4367430508136749,
      -1.8338491916656494,
      0.7633801102638245,
      0.4332798421382904,
      -0.371311217546463,
      1.0214489698410034,
      0.6837438344955444
    ],
    [
      -0.4312305152416229,
      -0.05378712713718414,
      0.05488274246454239,
      0.6013959646224976,
      -1.1916861534118652,
      1.3318164348602295,
      -0.061516739428043365,
      0.13023799657821655,
      -1.0932562351226807,
      -1.3196016550064087,
      -1.523389220237732,
      1.2617833614349365
    ],
    [
      -2.093229055404663,
      1.1266067028045654,
      -0.31365907192230225,
      -0.6451132297515869,
      -0.3578292727470398,
      0.5494340658187866,
      0.9260556697845459,
      2.007319688796997,
      -1.6190186738967896,
      0.839637041091919,
      -0.16361771523952484,
      0.3484317362308502
    ],
    [
      2.1353600025177,
      -1.7840052843093872,
      0.7451887130737305,
      -0.003656878136098385,
      -0.8406540155410767,
      0.5432683229446411,
      -0.7609525918960571,
      -2.167788028717041,
      -0.039836712181568146,
      0.558217465877533,
      0.9626154899597168,
      -0.9008688926696777
    ],
    [
      -0.7376658320426941,
      -0.25894463062286377,
      -0.32008326053619385,
      0.037820927798748016,
      0.5621681213378906,
      -0.011497040279209614,
      -0.33942461013793945,
      -0.8201352953910828,
      1.4452908039093018,
      0.9146843552589417,
      0.5799155831336975,
      -0.294611394405365
    ],
    [
      -3.0525739192962646,
      -0.3534151315689087,
      -0.7880014777183533,
      0.9319316744804382,
      -0.763982892036438,
      -0.32490330934524536,
      0.5105180740356445,
      1.099568247795105,
      0.3025757074356079,
      0.40456074476242065,
      0.21546445786952972,
      0.0956135243177414
    ],
    [
      -0.9888824224472046,
      -0.14522504806518555,
      -0.39006805419921875,
      -1.3566789627075195,
      0.1202835738658905,
      -0.47502249479293823,
      -0.1317915916442871,
      -0.6720811724662781,
      0.14704380929470062,
      0.7120749354362488,
      -1.8951023817062378,
      1.4049253463745117
    ],
    [
      -0.07972616702318192,
      0.12333887815475464,
      -0.7803328037261963,
      -1.0002435445785522,
      1.1848065853118896,
      0.4144541621208191,
      0.34324389696121216,
      0.8615207076072693,
      -0.21643921732902527,
      -0.2377387136220932,
      -0.7885288000106812,
      -0.9237985610961914
    ],
    [
      -2.046841621398926,
      1.11182701587677,
      -1.3790993690490723,
      0.13955990970134735,
      0.7024571299552917,
      0.7254999876022339,
      0.2968793511390686,
      -0.8371890783309937,
      -0.013930115848779678,
      -0.6001806855201721,
      0.9624738097190857,
      0.22949346899986267
    ],
    [
      0.744656503200531,
      0.3363128900527954,
      0.41285884380340576,
      -0.5742483735084534,
      0.33373236656188965,
      -1.0509438514709473,
      1.2168233394622803,
      1.5289946794509888,
      -0.6165068745613098,
      -0.7182533144950867,
      -0.6316948533058167,
      -0.8437365889549255
    ],
    [
      -1.2486686706542969,
      0.3684907853603363,
      0.821386456489563,
      0.7092511057853699,
      0.09676514565944672,
      -0.38558563590049744,
      -0.34722527861595154,
      -0.4677635729312897,
      0.05281492695212364,
      -0.6007839441299438,
      -0.6092517971992493,
      -1.0660518407821655
    ],
    [
      0.7148187756538391,
      -1.6201341152191162,
      0.41682904958724976,
      -0.1236003190279007,
      1.3080673217773438,
      -0.03916410729289055,
      -0.03721200302243233,
      0.4892469048500061,
      -0.4394148290157318,
      0.03151867166161537,
      -1.0447876453399658,
      -0.23695595562458038
    ],
    [
      0.5706192255020142,
      -0.4829352796077728,
      0.8056628704071045,
      0.030302146449685097,
      -0.4301445186138153,
      -0.2796623110771179,
      -0.3841991722583771,
      -0.008318228647112846,
      0.6108852028846741,
      0.031245138496160507,
      -0.25933727622032166,
      -1.1020891666412354
    ],
    [
      0.3761659860610962,
      -0.3987135589122772,
      -0.3162824809551239,
      1.2625110149383545,
      1.3673266172409058,
      -0.7646626234054565,
      -1.2157119512557983,
      -0.5712764859199524,
      2.2912418842315674,
      -1.9084590673446655,
      0.8733161687850952,
      -0.4026496410369873
    ],
    [
      -0.23128673434257507,
      0.7555748820304871,
      1.449025273323059,
      -1.3734737634658813,
      0.23324470221996307,
      1.439777135848999,
      -0.015832293778657913,
      -0.17672403156757355,
      0.3713284134864807,
      0.29104042053222656,
      -0.3883917033672333,
      -2.3158023357391357
    ],
    [
      -0.7302899360656738,
      1.9447901248931885,
      -0.7149707078933716,
      -0.3870546519756317,
      1.3813132047653198,
      -0.5672703981399536,
      -0.4313315451145172,
      -1.0136772394180298,
      0.5980885028839111,
      -0.8838391304016113,
      -0.24796593189239502,
      -1.6976996660232544
    ],
    [
      0.08043238520622253,
      -0.8809717297554016,
      -0.5711989998817444,
      -0.17758123576641083,
      0.6976988315582275,
      0.43077245354652405,
      0.12112738937139511,
      -0.5507945418357849,
      -1.7575322389602661,
      0.07836532592773438,
      -0.03739774599671364,
      0.39770805835723877
    ],
    [
      0.3751886188983917,
      0.33236825466156006,
      -0.6451389193534851,
      -0.018949097022414207,
      -0.8209052681922913,
      -1.2613071203231812,
      0.775151252746582,
      -0.019423333927989006,
      -0.3174366056919098,
      0.02858743630349636,
      0.1214379072189331,
      0.42951419949531555
    ],
    [
      -1.843172311782837,
      0.43779903650283813,
      0.39183273911476135,
      1.949043869972229,
      0.10404085367918015,
      -1.8516044616699219,
      1.5222781896591187,
      1.4229280948638916,
      -0.605462372303009,
      -0.3201764225959778,
      0.4922570586204529,
      -1.1509499549865723
    ],
    [
      0.2346363216638565,
      0.20420123636722565,
      -1.5590230226516724,
      -0.7286465764045715,
      0.22856490314006805,
      1.3962786197662354,
      0.24150824546813965,
      -0.37464872002601624,
      0.42398563027381897,
      0.3593460023403168,
      0.3706056773662567,
      -0.30740582942962646
    ],
    [
      1.362848162651062,
      0.6721013188362122,
      0.7635684609413147,
      -1.4268145561218262,
      0.5682623386383057,
      1.9487450122833252,
      -0.6901100277900696,
      -0.3154711425304413,
      -0.8834351301193237,
      0.1421399861574173,
      -2.0849013328552246,
      -0.6431273818016052
    ],
    [
      -0.8051819801330566,
      -0.35540321469306946,
      -0.1496090590953827,
      0.21494662761688232,
      0.3661349415779114,
      0.4392012655735016,
      -0.4187677204608917,
      0.7523038983345032,
      -0.9356136918067932,
      -0.2860625684261322,
      -0.8730829358100891,
      -1.3326219320297241
    ],
    [
      0.303560733795166,
      -2.5182583332061768,
      0.9033249020576477,
      0.19953463971614838,
      -0.3821237087249756,
      -1.3707373142242432,
      0.36781278252601624,
      0.496044397354126,
      0.4737449586391449,
      0.8913372755050659,
      -0.3548506200313568,
      -0.14121803641319275
    ],
    [
      0.3274844288825989,
      -0.3383878767490387,
      -2.5738041400909424,
      0.11115041375160217,
      -0.4522611200809479,
      -0.4847205579280853,
      -0.3458894193172455,
      -0.602635383605957,
      0.953290581703186,
      -0.6770867705345154,
      0.8739016056060791,
      0.4230727255344391
    ],
    [
      0.22007019817829132,
      -0.7015016674995422,
      -0.43628332018852234,
      -0.14732524752616882,
      -0.22113895416259766,
      1.1065434217453003,
      -0.5627080202102661,
      -0.08651631325483322,
      -0.4276498854160309,
      0.8281848430633545,
      -0.2198455035686493,
      0.4203032851219177
    ],
    [
      -0.3540281355381012,
      0.3826998472213745,
      -0.1016768366098404,
      -0.22447678446769714,
      0.5338891744613647,
      -0.1397392302751541,
      -0.9563683867454529,
      0.3096683919429779,
      -0.8493897914886475,
      -1.037248134613037,
      -0.65585857629776,
      1.0611445903778076
    ],
    [
      0.6220197081565857,
      -0.8270938396453857,
      -0.8188819885253906,
      0.053379736840724945,
      0.38508832454681396,
      0.517134964466095,
      -0.8534938097000122,
      -0.6779898405075073,
      1.5258666276931763,
      0.15975171327590942,
      -0.18946979939937592,
      -0.6386129260063171
    ],
    [
      -2.806666851043701,
      -0.3347457945346832,
      -0.8810487389564514,
      1.0222723484039307,
      0.20085491240024567,
      0.3094826340675354,
      -0.015965988859534264,
      0.5600563287734985,
      -0.35715195536613464,
      -0.5326005220413208,
      0.6075198650360107,
      0.6724842190742493
    ],
    [
      -1.3202109336853027,
      1.2988249063491821,
      0.7077575325965881,
      0.022412551566958427,
      1.2241548299789429,
      -1.6737196445465088,
      0.8972558379173279,
      -0.1631968766450882,
      0.5848528146743774,
      -0.978454053401947,
      0.8059056997299194,
      -1.8855446577072144
    ],
    [
      1.5963515043258667,
      0.8247628808021545,
      -0.5647557377815247,
      -0.11390362679958344,
      -0.9206436276435852,
      0.5640403628349304,
      -1.6082096099853516,
      -0.9278219938278198,
      -0.9893909096717834,
      0.9913942813873291,
      0.5315364599227905,
      -0.5780132412910461
    ],
    [
      -0.48401767015457153,
      0.07881992310285568,
      0.9710774421691895,
      -0.09393783658742905,
      -0.4809935688972473,
      -0.7696528434753418,
      -1.4244060516357422,
      -0.4663720726966858,
      0.717947781085968,
      0.6143792867660522,
      0.41561391949653625,
      0.4969557225704193
    ],
    [
      0.3658332824707031,
      -0.9317095279693604,
      1.3271666765213013,
      0.44396892189979553,
      0.18617591261863708,
      -0.03373817726969719,
      -1.2814602851867676,
      -1.0201497077941895,
      0.7475920915603638,
      0.35701218247413635,
      0.06958330422639847,
      -0.41169869899749756
    ],
    [
      -0.6391588449478149,
      0.1186889111995697,
      -0.030247416347265244,
      -1.0019203424453735,
      0.40526828169822693,
      -1.433403491973877,
      -1.4417158365249634,
      0.7143869996070862,
      -1.7450867891311646,
      0.14178162813186646,
      -0.08151450753211975,
      0.638037383556366
    ],
    [
      0.5958032608032227,
      0.151189923286438,
      -0.28870096802711487,
      0.8754041194915771,
      -0.6750771403312683,
      0.08402936160564423,
      -2.0083439350128174,
      0.9971961379051208,
      1.860784649848938,
      -1.2797027826309204,
      -1.9760658740997314,
      0.1494980901479721
    ],
    [
      -0.031047256663441658,
      1.9079844951629639,
      -0.19874007999897003,
      0.17801223695278168,
      0.7252625226974487,
      1.0019928216934204,
      1.173557162284851,
      -0.2985124886035919,
      -0.1402742564678192,
      0.27296993136405945,
      -0.1849537044763565,
      -2.768923282623291
    ],
    [
      0.6593053936958313,
      0.6500714421272278,
      -0.6322336196899414,
      0.9825752377510071,
      1.5415313243865967,
      -2.987640619277954,
      -0.7171915769577026,
      -1.1680964231491089,
      0.5031581521034241,
      0.08123306185007095,
      1.0371909141540527,
      -0.2615188658237457
    ],
    [
      -1.3534213304519653,
      0.06994172930717468,
      1.491825819015503,
      0.6504038572311401,
      -1.0332237482070923,
      -0.7533591389656067,
      0.9362592697143555,
      0.22414137423038483,
      0.3416963219642639,
      1.1494688987731934,
      0.34694042801856995,
      -0.6816982626914978
    ],
    [
      0.9639997482299805,
      1.0559552907943726,
      0.7209610939025879,
      -0.21022340655326843,
      0.9979673027992249,
      -0.7546015381813049,
      -0.3075861632823944,
      -0.4796309173107147,
      1.0429718494415283,
      0.9212151765823364,
      -0.9775858521461487,
      -1.830608606338501
    ],
    [
      0.17375831305980682,
      0.027713129296898842,
      -0.26855504512786865,
      0.6442983746528625,
      -1.3403267860412598,
      1.094037652015686,
      1.2294864654541016,
      0.4377666115760803,
      -0.8656846880912781,
      -1.9468175172805786,
      0.42782342433929443,
      1.5672051906585693
    ],
    [
      1.4684113264083862,
      -1.7323850393295288,
      0.6946499347686768,
      1.179835319519043,
      -0.29333972930908203,
      -0.5137001276016235,
      0.1804955005645752,
      -0.883002758026123,
      0.8693930506706238,
      0.15797929465770721,
      0.1513548195362091,
      -0.2303047478199005
    ],
    [
      0.42874693870544434,
      -0.039315707981586456,
      -0.582600474357605,
      1.6775966882705688,
      -0.5414105653762817,
      -0.878187358379364,
      -0.7519261240959167,
      0.8384979963302612,
      -0.7174995541572571,
      -0.4110168218612671,
      1.5404009819030762,
      -0.44247472286224365
    ],
    [
      -1.0626791715621948,
      0.12613581120967865,
      0.9922998547554016,
      0.7529325485229492,
      0.381248414516449,
      0.8615697622299194,
      -0.6543218493461609,
      0.5192930698394775,
      0.7776010632514954,
      1.1338226795196533,
      -0.1387028843164444,
      -1.4298207759857178
    ],
    [
      -0.14803875982761383,
      0.8636469841003418,
      0.10416429489850998,
      0.4474531412124634,
      -0.768099308013916,
      0.14870308339595795,
      -0.39669910073280334,
      -0.4547213315963745,
      -0.4931083023548126,
      -0.8968911170959473,
      0.45891815423965454,
      0.5571434497833252
    ],
    [
      -0.8051242828369141,
      0.008731698617339134,
      0.06341087818145752,
      0.07414231449365616,
      0.7513326406478882,
      0.023605698719620705,
      -1.1513727903366089,
      1.3547042608261108,
      -0.9326977133750916,
      -0.2129708081483841,
      1.0203831195831299,
      0.7134515047073364
    ],
    [
      -1.1517798900604248,
      0.8261758089065552,
      1.3039616346359253,
      -1.1071560382843018,
      0.8573650121688843,
      0.6865696310997009,
      -0.1460186392068863,
      -0.3453143537044525,
      -1.5820287466049194,
      1.8077698945999146,
      -0.6620665788650513,
      -0.614122211933136
    ],
    [
      1.7783175706863403,
      -0.8850718140602112,
      -0.950802743434906,
      -0.30408796668052673,
      0.09034929424524307,
      0.34402841329574585,
      -1.0090723037719727,
      -0.39894795417785645,
      0.9497262239456177,
      0.9192026853561401,
      -0.4929598867893219,
      -0.7535334825515747
    ],
    [
      -0.7996549606323242,
      -0.5955029726028442,
      1.0320868492126465,
      0.23278117179870605,
      -0.3512854278087616,
      -0.8269332051277161,
      -0.3656468093395233,
      1.3512457609176636,
      0.5562624931335449,
      -0.5671641826629639,
      0.8910883665084839,
      -0.9939713478088379
    ],
    [
      -1.0489060878753662,
      -0.5294229388237,
      -0.5108444094657898,
      -0.7319419980049133,
      1.3427664041519165,
      -0.14524708688259125,
      -1.0103850364685059,
      0.702363908290863,
      -1.1876288652420044,
      0.16292275488376617,
      0.22689929604530334,
      0.9201991558074951
    ],
    [
      -0.170403391122818,
      -2.699573040008545,
      0.009803921915590763,
      -1.5006672143936157,
      0.6557431221008301,
      -0.01184625830501318,
      -0.5360696315765381,
      0.8641994595527649,
      -0.5287415981292725,
      0.770964503288269,
      -0.7385926842689514,
      0.2047155201435089
    ],
    [
      0.49625149369239807,
      -1.0755866765975952,
      1.4561305046081543,
      -1.1198002099990845,
      -1.1667462587356567,
      1.3789100646972656,
      -0.9716842174530029,
      1.1921058893203735,
      0.05975139141082764,
      -0.15003757178783417,
      0.14480949938297272,
      -0.31130513548851013
    ],
    [
      -0.9425040483474731,
      -0.42492514848709106,
      -1.261809229850769,
      0.6825442314147949,
      0.7996182441711426,
      0.2427455335855484,
      0.005519161466509104,
      0.9121168255805969,
      -0.461704820394516,
      0.6869040727615356,
      1.5036581754684448,
      -1.6147229671478271
    ],
    [
      -0.1428234875202179,
      0.5984687209129333,
      -0.6671838760375977,
      0.08679162710905075,
      -1.1518161296844482,
      0.12851408123970032,
      0.6071609854698181,
      -0.5525245070457458,
      0.7247111797332764,
      -0.37118837237358093,
      0.32283350825309753,
      0.3810403048992157
    ],
    [
      0.8941472768783569,
      -0.14199993014335632,
      0.5875441431999207,
      0.374201238155365,
      -0.2564255893230438,
      -1.60062575340271,
      0.6815087795257568,
      -1.1974304914474487,
      -1.5150041580200195,
      2.9059150218963623,
      -0.007261600811034441,
      -0.9148918986320496
    ],
    [
      0.15998807549476624,
      -0.583268940448761,
      0.5763953924179077,
      -0.48515528440475464,
      0.6406762599945068,
      -1.5672578811645508,
      -1.219414472579956,
      -0.5003966093063354,
      -1.0071041584014893,
      0.6489198207855225,
      -0.5929133296012878,
      0.38672685623168945
    ],
    [
      0.4475599527359009,
      1.296381950378418,
      0.7215858697891235,
      -1.54135262966156,
      -1.2451434135437012,
      0.5265198349952698,
      1.1265288591384888,
      0.5180526375770569,
      0.32707586884498596,
      -1.7662218809127808,
      0.7546184659004211,
      -0.9769604802131653
    ],
    [
      -2.100579023361206,
      0.35897624492645264,
      -0.4627835750579834,
      1.755643606185913,
      -0.18652041256427765,
      0.9041599631309509,
      -0.6239526271820068,
      -0.08557751774787903,
      0.25003349781036377,
      1.6911858320236206,
      -0.5610629320144653,
      2.9076592922210693
    ],
    [
      -0.38414686918258667,
      -0.05268292874097824,
      1.358504056930542,
      -0.9833342432975769,
      0.685456395149231,
      1.4176055192947388,
      -1.03138267993927,
      0.07267338782548904,
      0.838171124458313,
      -1.5559732913970947,
      0.6091702580451965,
      -1.5878405570983887
    ],
    [
      0.004101285710930824,
      -0.08996310830116272,
      -0.17825353145599365,
      0.08144538849592209,
      -0.5454751253128052,
      -0.9170787334442139,
      2.6216964721679688,
      1.0356454849243164,
      -1.1908434629440308,
      -1.1359410285949707,
      -0.131922647356987,
      0.4761902987957001
    ],
    [
      0.2615014910697937,
      -0.6134082078933716,
      0.7586442232131958,
      1.130812644958496,
      1.2637839317321777,
      1.041449785232544,
      -1.477823257446289,
      -0.3757617473602295,
      0.3351775109767914,
      0.17471088469028473,
      0.0015777521766722202,
      -0.11538185924291611
    ],
    [
      0.0338711254298687,
      0.18969625234603882,
      0.6862080693244934,
      0.28926435112953186,
      -0.010445685125887394,
      0.5096461772918701,
      -0.3601049780845642,
      0.4704226851463318,
      -0.15768899023532867,
      -0.07098986953496933,
      0.13627272844314575,
      0.02538560889661312
    ],
    [
      -0.8450388312339783,
      -0.21520166099071503,
      0.5131792426109314,
      0.18350735306739807,
      0.3594205379486084,
      0.7107658982276917,
      0.6451247930526733,
      1.3952528238296509,
      -0.32820937037467957,
      0.8763283491134644,
      -2.159132242202759,
      -0.38565900921821594
    ],
    [
      0.944068968296051,
      0.4823075234889984,
      2.554393768310547,
      -1.5989675521850586,
      -1.0082775354385376,
      1.7385538816452026,
      -1.1967017650604248,
      0.6575610637664795,
      -0.3617843985557556,
      -2.1159119606018066,
      -1.5649206638336182,
      1.5632684230804443
    ],
    [
      -0.4025762379169464,
      1.0485576391220093,
      -0.38657692074775696,
      0.26645907759666443,
      -0.8621231317520142,
      -0.5786790251731873,
      0.8673685789108276,
      1.0764081478118896,
      0.18250325322151184,
      -0.4660440683364868,
      0.061093904078006744,
      -1.2648855447769165
    ],
    [
      0.4427214562892914,
      -1.3043532371520996,
      0.1464185267686844,
      -0.1113048642873764,
      -1.1682939529418945,
      0.6519357562065125,
      -0.2742373049259186,
      -0.9934499263763428,
      -0.3194003999233246,
      0.26103150844573975,
      0.19545374810695648,
      -1.179261326789856
    ],
    [
      0.30728694796562195,
      0.42990151047706604,
      -2.5761914253234863,
      0.3140842318534851,
      0.1127779558300972,
      0.008365942165255547,
      -0.40459543466567993,
      -0.725797176361084,
      0.23173750936985016,
      0.4797816872596741,
      1.425402045249939,
      -0.10334170609712601
    ],
    [
      -0.24859151244163513,
      0.25700828433036804,
      -0.8118159174919128,
      -0.696173906326294,
      0.36837974190711975,
      -1.177573561668396,
      -0.9993009567260742,
      1.081679344177246,
      -1.2076587677001953,
      0.356679767370224,
      -0.1235882118344307,
      0.9446783065795898
    ],
    [
      0.6189971566200256,
      -0.4613776206970215,
      1.293298363685608,
      0.4269051253795624,
      1.4268244504928589,
      -1.2586076259613037,
      -0.42647865414619446,
      -0.06056582182645798,
      0.8803266286849976,
      -0.5878104567527771,
      -0.13563913106918335,
      -2.573942184448242
    ],
    [
      0.8480350375175476,
      -1.550124168395996,
      0.27488476037979126,
      0.7044641375541687,
      -0.766954243183136,
      0.3223890960216522,
      -0.6703400611877441,
      -0.674139142036438,
      -0.6272337436676025,
      1.1472676992416382,
      -0.18680335581302643,
      0.20241010189056396
    ],
    [
      -0.34705662727355957,
      0.21254323422908783,
      -0.21977050602436066,
      0.002473551547154784,
      1.0357708930969238,
      0.9015121459960938,
      -0.9695371985435486,
      1.2925909757614136,
      0.617660403251648,
      1.5364432334899902,
      -1.3761892318725586,
      0.06265464425086975
    ],
    [
      -0.9056782126426697,
      -0.7534593343734741,
      0.8801864981651306,
      -0.7364538311958313,
      1.1563037633895874,
      0.28580543398857117,
      -0.021839087828993797,
      1.0402987003326416,
      -0.813224196434021,
      -0.06551508605480194,
      0.6728668212890625,
      1.2955865859985352
    ],
    [
      -0.29735592007637024,
      -1.4325041770935059,
      -1.214393973350525,
      0.24133579432964325,
      -2.3897979259490967,
      2.0875046253204346,
      -0.9951536059379578,
      2.9375832080841064,
      0.10069891065359116,
      0.9811424612998962,
      1.428133249282837,
      -0.9409912824630737
    ],
    [
      -0.06162131577730179,
      -0.0034070806577801704,
      0.5446226000785828,
      1.642440915107727,
      -0.9736287593841553,
      0.8179675340652466,
      -0.06445948034524918,
      0.08088239282369614,
      -0.7683845162391663,
      0.22439146041870117,
      -0.9959867596626282,
      0.1530710756778717
    ],
    [
      -0.4788135886192322,
      0.44378337264060974,
      0.39967963099479675,
      0.6006556749343872,
      0.7226343750953674,
      -0.8265562653541565,
      -1.1252257823944092,
      -0.3766404688358307,
      0.35409191250801086,
      -1.1159001588821411,
      -0.2492353618144989,
      0.5026726126670837
    ],
    [
      0.006310502998530865,
      0.22762104868888855,
      0.27243319153785706,
      -0.3509137034416199,
      0.857222855091095,
      -0.04657342657446861,
      -0.23367828130722046,
      1.140638828277588,
      -0.6893351674079895,
      -0.1899293065071106,
      -0.5543772578239441,
      0.6822947263717651
    ],
    [
      -0.5609838366508484,
      0.7593806982040405,
      -0.06420821696519852,
      0.957358181476593,
      -1.29146146774292,
      0.563025176525116,
      -0.4880844056606293,
      -0.5985606908798218,
      0.11841212958097458,
      -0.9399393796920776,
      0.9660274386405945,
      1.0906801223754883
    ],
    [
      0.9283933639526367,
      -0.2889915704727173,
      -0.658621609210968,
      -0.6514073610305786,
      -0.0751725286245346,
      -0.10473639518022537,
      -1.0439295768737793,
      -0.9037589430809021,
      -0.2700783908367157,
      0.97549968957901,
      0.5130882859230042,
      1.996679663658142
    ],
    [
      0.3313882350921631,
      -1.1487215757369995,
      1.991852879524231,
      -0.23786768317222595,
      0.993096113204956,
      0.776821494102478,
      -0.13361532986164093,
      -0.6349716186523438,
      0.8708035945892334,
      0.14573630690574646,
      0.021460874006152153,
      -0.30471861362457275
    ],
    [
      -0.07588911056518555,
      1.3151249885559082,
      0.7947365045547485,
      1.1579216718673706,
      -1.368121862411499,
      0.005339506547898054,
      -1.4402440786361694,
      0.21877147257328033,
      1.1749345064163208,
      -0.8353577256202698,
      -1.9521255493164062,
      0.18635785579681396
    ],
    [
      0.0055943438783288,
      0.5982623100280762,
      -1.213942527770996,
      0.179726704955101,
      0.5814762711524963,
      0.1796359270811081,
      -0.5574874877929688,
      0.6770530939102173,
      -0.5240990519523621,
      0.5083913207054138,
      -0.5881308913230896,
      0.7330687642097473
    ],
    [
      0.2820013761520386,
      -1.726049542427063,
      0.43885770440101624,
      1.1807929277420044,
      -1.9942471981048584,
      0.17777922749519348,
      -0.5937262773513794,
      0.9477617740631104,
      0.29365256428718567,
      -0.22622500360012054,
      0.8387719988822937,
      0.8465493321418762
    ],
    [
      -0.8141515851020813,
      -0.16363151371479034,
      -0.26692837476730347,
      -0.2611980438232422,
      0.7789754271507263,
      -0.598727285861969,
      0.7460067868232727,
      -0.164351224899292,
      0.21451805531978607,
      -0.5275258421897888,
      0.5483458042144775,
      -0.1012699231505394
    ],
    [
      -0.5163057446479797,
      0.41558465361595154,
      -0.09168384224176407,
      -0.6885337233543396,
      1.064642071723938,
      0.707055389881134,
      0.42455604672431946,
      0.4414876103401184,
      1.1476987600326538,
      -1.4132086038589478,
      0.8733158707618713,
      -0.7312759757041931
    ],
    [
      -0.208293154835701,
      -0.4675713777542114,
      0.35930997133255005,
      0.40092727541923523,
      0.254481703042984,
      0.47180894017219543,
      -1.184120535850525,
      0.6740239858627319,
      -0.8090305328369141,
      -0.28172919154167175,
      0.17449326813220978,
      0.9459397792816162
    ],
    [
      0.425691157579422,
      -0.2920840382575989,
      0.24653847515583038,
      -1.0677682161331177,
      -0.14700765907764435,
      -0.0899498462677002,
      0.974189043045044,
      0.6733506321907043,
      0.4181777536869049,
      -0.8833574652671814,
      0.09628354012966156,
      -1.3522074222564697
    ],
    [
      0.6899656653404236,
      1.4496771097183228,
      0.07320123165845871,
      -0.7435389757156372,
      0.5547398924827576,
      1.3709434270858765,
      -0.8640117645263672,
      -1.8785374164581299,
      -1.8388433456420898,
      -1.9470536708831787,
      -0.16398212313652039,
      0.8160593509674072
    ],
    [
      -1.0558252334594727,
      -0.790130615234375,
      0.10036534070968628,
      -0.06689000129699707,
      0.2191055715084076,
      -0.1800183802843094,
      -0.307354211807251,
      0.5291348695755005,
      -0.6048055291175842,
      -0.1465795934200287,
      0.07919599860906601,
      -0.36730289459228516
    ],
    [
      -1.6848678588867188,
      2.592329740524292,
