{
  "block_0": {
    "att.W_query.weight": [
      [
        0.14685757458209991,
        -0.19894491136074066,
        0.1135699599981308,
        0.3603014647960663,
        -0.46958670020103455,
        -0.27359601855278015,
        -0.09972996264696121,
        0.41999584436416626,
        -0.26256275177001953,
        -0.02518124133348465,
        0.5394142270088196,
        -0.6854463815689087
      ],
      [
        -0.25850537419319153,
        -0.931645929813385,
        0.45769548416137695,
        0.03209362551569939,
        -0.18225599825382233,
        0.22822250425815582,
        0.4002096652984619,
        -0.17810359597206116,
        0.15082211792469025,
        0.22581282258033752,
        -0.07257044315338135,
        -0.3999842405319214
      ],
      [
        0.2579461932182312,
        -0.6663329601287842,
        -0.3044593930244446,
        0.15413081645965576,
        -0.09135278314352036,
        0.4150684177875519,
        0.1339322179555893,
        0.2373751848936081,
        -0.5199388265609741,
        0.5813970565795898,
        -0.044001881033182144,
        -0.4395134747028351
      ],
      [
        0.433747261762619,
        0.04650081321597099,
        -0.09864330291748047,
        0.03294260799884796,
        0.6810095310211182,
        -0.6637880802154541,
        -0.0049059526063501835,
        0.547671914100647,
        -0.011299475096166134,
        -0.37250086665153503,
        0.33629110455513,
        -0.6261436939239502
      ],
      [
        0.00046522144111804664,
        -0.7230023145675659,
        -0.8632457256317139,
        -0.030660361051559448,
        -0.018263135105371475,
        0.9801921844482422,
        0.013211931101977825,
        0.0846693143248558,
        0.21382097899913788,
        0.37774646282196045,
        0.20009170472621918,
        0.3765466511249542
      ],
      [
        0.10239703953266144,
        0.4363744854927063,
        0.34089580178260803,
        0.030822651460766792,
        -0.5111411213874817,
        -0.4861953854560852,
        -0.28495994210243225,
        -0.5894781947135925,
        0.3430933952331543,
        -0.12025855481624603,
        0.7009689807891846,
        -0.08095087856054306
      ],
      [
        0.06877924501895905,
        0.6809954047203064,
        0.22469015419483185,
        -0.5235514044761658,
        0.2900523543357849,
        -0.3037225306034088,
        -0.29661646485328674,
        0.24750666320323944,
        0.20426695048809052,
        -0.39833733439445496,
        -0.5535045862197876,
        0.07689592987298965
      ],
      [
        -0.3467778265476227,
        -0.6927213072776794,
        -0.4925462007522583,
        0.9079515933990479,
        0.5290104150772095,
        -0.3430722653865814,
        0.19694001972675323,
        -0.3015381395816803,
        0.19674761593341827,
        0.49430516362190247,
        -0.4733116328716278,
        -0.23784922063350677
      ],
      [
        0.22492709755897522,
        0.6722658276557922,
        0.0386476069688797,
        -0.7607539892196655,
        0.2577757239341736,
        -0.37731340527534485,
        0.07573087513446808,
        -1.4798201322555542,
        1.1224985122680664,
        0.09469272941350937,
        0.20859868824481964,
        -0.04825596511363983
      ],
      [
        0.16482959687709808,
        0.014042217284440994,
        -0.09447209537029266,
        -0.3111090064048767,
        0.1807972937822342,
        -0.5142861008644104,
        0.18182183802127838,
        0.08761559426784515,
        -0.8146824240684509,
        0.46339789032936096,
        0.12175643444061279,
        0.21329964697360992
      ],
      [
        0.22181983292102814,
        0.27153143286705017,
        -0.4578283429145813,
        0.02009921334683895,
        -0.2131085842847824,
        0.0812278464436531,
        -0.20091477036476135,
        0.27033260464668274,
        -0.2361190915107727,
        -0.579006016254425,
        0.933492124080658,
        -0.4251154959201813
      ],
      [
        -0.4767569899559021,
        0.30745458602905273,
        0.5738772749900818,
        0.013207918964326382,
        0.3310985267162323,
        0.3107505738735199,
        -1.1127673387527466,
        -0.24903714656829834,
        -0.041392453014850616,
        0.335215300321579,
        0.1480531543493271,
        -0.2598216235637665
      ]
    ],
    "att.W_query.bias": null,
    "att.W_key.weight": [
      [
        0.3079492151737213,
        -0.4700751006603241,
        0.18663793802261353,
        -0.21857328712940216,
        0.6500571966171265,
        -0.011379496194422245,
        -0.3203470706939697,
        -0.10538239777088165,
        -0.07881400734186172,
        -0.33747556805610657,
        -0.05832279101014137,
        0.8369114995002747
      ],
      [
        0.09997966885566711,
        0.4241742789745331,
        0.4436371624469757,
        -0.6989652514457703,
        -0.38541585206985474,
        -0.12901544570922852,
        0.058065224438905716,
        -0.3639611303806305,
        0.39951249957084656,
        0.1310417652130127,
        -0.23856641352176666,
        0.33924537897109985
      ],
      [
        -0.7130641937255859,
        0.14587369561195374,
        0.46084198355674744,
        -0.16444525122642517,
        -0.04473743215203285,
        -0.18779543042182922,
        0.08674563467502594,
        -0.05454481393098831,
        0.0172087661921978,
        0.021088672801852226,
        -0.37206247448921204,
        0.8388414978981018
      ],
      [
        0.46121034026145935,
        -0.3386452794075012,
        0.40199241042137146,
        0.3509559631347656,
        0.39518511295318604,
        0.4756244122982025,
        -0.02107205055654049,
        -0.41734105348587036,
        -0.7007710337638855,
        -0.47452136874198914,
        -0.030742477625608444,
        0.38642728328704834
      ],
      [
        -0.7590034604072571,
        0.28259697556495667,
        0.5894613862037659,
        0.30908310413360596,
        0.147160142660141,
        -0.4197147488594055,
        0.46127936244010925,
        0.34224098920822144,
        0.349966824054718,
        0.08445794135332108,
        -0.6552462577819824,
        -0.0626232922077179
      ],
      [
        0.8624852299690247,
        -0.6749308109283447,
        -0.490169882774353,
        0.0815548524260521,
        0.3014771044254303,
        -0.03599368780851364,
        0.05028289183974266,
        -0.14692485332489014,
        0.3482789099216461,
        0.17962391674518585,
        0.11762141436338425,
        -0.15869829058647156
      ],
      [
        -0.5922111868858337,
        -0.2572861313819885,
        0.06841582804918289,
        0.4871700406074524,
        0.060254063457250595,
        -0.7224786877632141,
        0.07771387696266174,
        -0.06441804766654968,
        -0.27947908639907837,
        0.5280663371086121,
        0.2487765997648239,
        -0.004124522674828768
      ],
      [
        0.3554527759552002,
        0.6048548817634583,
        -0.019788216799497604,
        0.0051774317398667336,
        -0.3855619430541992,
        1.0259690284729004,
        -0.1473076343536377,
        -0.04340222105383873,
        -0.2600092887878418,
        0.24815167486667633,
        -0.08635863661766052,
        -1.1097536087036133
      ],
      [
        -0.9501367211341858,
        -0.10084600001573563,
        0.40388017892837524,
        0.26497572660446167,
        0.8277392387390137,
        -0.34120792150497437,
        -0.8069632649421692,
        0.8853538036346436,
        -0.11089134216308594,
        -0.5017011761665344,
        -0.026179153472185135,
        -0.2563706934452057
      ],
      [
        0.2812362313270569,
        0.5891962647438049,
        -0.3717102110385895,
        0.03263958543539047,
        0.347507506608963,
        -0.11842481791973114,
        -0.17772884666919708,
        -0.1901911348104477,
        -0.16696985065937042,
        0.502646803855896,
        -0.5819157958030701,
        0.26372650265693665
      ],
      [
        0.12547484040260315,
        -0.7049063444137573,
        0.21427807211875916,
        -0.4458710551261902,
        0.8278113603591919,
        0.32601112127304077,
        0.05826098471879959,
        -0.4024820327758789,
        0.13306811451911926,
        -0.39084509015083313,
        -0.21197295188903809,
        0.6735295653343201
      ],
      [
        -0.9197085499763489,
        0.4478919804096222,
        0.2971269190311432,
        0.13641509413719177,
        -0.6588250398635864,
        0.23435178399085999,
        0.3964281678199768,
        0.11029324680566788,
        -0.19664378464221954,
        -0.17440994083881378,
        0.05209144204854965,
        0.3896836042404175
      ]
    ],
    "att.W_key.bias": null,
    "att.W_value.weight": [
      [
        0.06123500317335129,
        -0.3518937826156616,
        0.22730731964111328,
        0.243479922413826,
        0.2919706106185913,
        0.3119353652000427,
        -0.04504585266113281,
        0.19916656613349915,
        -0.06092587113380432,
        0.20779083669185638,
        -0.09062620252370834,
        -0.25038453936576843
      ],
      [
        0.037646565586328506,
        0.0200492050498724,
        -0.4164944887161255,
        -0.20212221145629883,
        0.42283084988594055,
        -0.09018852561712265,
        0.12607747316360474,
        0.3286157250404358,
        0.1280231475830078,
        0.232386976480484,
        -0.45721885561943054,
        0.2751501500606537
      ],
      [
        0.06879229843616486,
        0.08589404076337814,
        0.20916211605072021,
        0.10816602408885956,
        -0.34421610832214355,
        -0.2644652724266052,
        0.25605401396751404,
        -0.387144535779953,
        0.262807160615921,
        -0.3041694164276123,
        0.1077132299542427,
        0.2065160721540451
      ],
      [
        0.17212706804275513,
        0.26693856716156006,
        0.4978675842285156,
        -0.2684438228607178,
        0.21322371065616608,
        -0.42777514457702637,
        -0.10876274853944778,
        0.14009933173656464,
        0.30306339263916016,
        -0.3379639685153961,
        -0.00495181605219841,
        -0.22931316494941711
      ],
      [
        0.10010012239217758,
        -0.1189781129360199,
        -0.2261718064546585,
        -0.23832887411117554,
        0.15277722477912903,
        0.3647960126399994,
        -0.13889513909816742,
        0.14709341526031494,
        0.501081109046936,
        -0.3509783446788788,
        -0.09920796751976013,
        0.2002137005329132
      ],
      [
        -0.2996874749660492,
        -0.03530719131231308,
        0.388258159160614,
        -0.023417478427290916,
        0.0025630565360188484,
        0.15364621579647064,
        0.2347288429737091,
        0.24039866030216217,
        -0.33999156951904297,
        -0.14282116293907166,
        0.32888302206993103,
        0.151381716132164
      ],
      [
        -0.15903471410274506,
        -0.220540851354599,
        0.1351574808359146,
        0.25276798009872437,
        0.24001896381378174,
        0.2562503516674042,
        0.1597907692193985,
        0.17076848447322845,
        -0.22618401050567627,
        0.008582157082855701,
        -0.661056637763977,
        -0.3502641022205353
      ],
      [
        0.20609045028686523,
        0.03448401391506195,
        -0.3078286051750183,
        0.5099393129348755,
        0.33865854144096375,
        0.15305611491203308,
        0.08637885749340057,
        -0.3420575261116028,
        -0.2858962416648865,
        -0.3134571313858032,
        -0.05801693722605705,
        -0.07337906956672668
      ],
      [
        -0.027493132278323174,
        -0.12317362427711487,
        -0.14629264175891876,
        0.1758919209241867,
        0.15275104343891144,
        0.13568758964538574,
        -0.5485935211181641,
        0.0126035176217556,
        -0.23511634767055511,
        0.6652918457984924,
        -0.04373807832598686,
        0.3170912265777588
      ],
      [
        -0.06974609941244125,
        0.05505957826972008,
        0.32265886664390564,
        0.25319811701774597,
        -0.12442585080862045,
        0.14084485173225403,
        0.18218959867954254,
        -0.1757739931344986,
        -0.347196489572525,
        -0.21429449319839478,
        -0.052680853754282,
        0.40545424818992615
      ],
      [
        -0.11644233763217926,
        0.03234648331999779,
        -0.3175657391548157,
        -0.08471812307834625,
        0.13028453290462494,
        0.44646140933036804,
        -0.497457891702652,
        -0.015502102673053741,
        0.2898772060871124,
        0.2050447016954422,
        0.24060291051864624,
        0.05079658702015877
      ],
      [
        -0.06613791733980179,
        0.04917589947581291,
        -0.2928338646888733,
        -0.05433814600110054,
        -0.1391758769750595,
        -0.058155011385679245,
        0.12505494058132172,
        0.30849507451057434,
        0.20645610988140106,
        -0.1837223917245865,
        -0.5260867476463318,
        0.2860391438007355
      ]
    ],
    "att.W_value.bias": null,
    "att.out_proj.weight": [
      [
        -0.08973807096481323,
        -0.1442822813987732,
        0.3884735405445099,
        0.3742784261703491,
        0.19343765079975128,
        0.05837717279791832,
        0.24272792041301727,
        -0.2707933187484741,
        0.08590815961360931,
        -0.11930157244205475,
        0.06734879314899445,
        0.17440800368785858
      ],
      [
        0.24068312346935272,
        0.023572687059640884,
        -0.2798631489276886,
        0.521755576133728,
        0.011342892423272133,
        -0.13684974610805511,
        -0.13532759249210358,
        -0.3287579119205475,
        0.1690085232257843,
        0.11364901810884476,
        -0.43315955996513367,
        -0.23365885019302368
      ],
      [
        0.12632672488689423,
        0.17390640079975128,
        -0.024765077978372574,
        0.046840064227581024,
        0.4684412479400635,
        -0.5877124667167664,
        -0.29805633425712585,
        0.323141485452652,
        -0.17791533470153809,
        0.254750519990921,
        0.0842873826622963,
        -0.0947970449924469
      ],
      [
        -0.23874367773532867,
        0.3811323046684265,
        -0.09875249117612839,
        0.13836635649204254,
        -0.07411754131317139,
        0.2523500621318817,
        0.3054385781288147,
        0.44947734475135803,
        0.16341224312782288,
        0.19450615346431732,
        -0.1532762497663498,
        -0.15687869489192963
      ],
      [
        0.4757901430130005,
        -0.4585644602775574,
        -0.20308180153369904,
        -0.03234191983938217,
        -0.06194167584180832,
        0.21811655163764954,
        0.16107642650604248,
        0.18012137711048126,
        -0.052561625838279724,
        -0.3590702712535858,
        0.023800747469067574,
        -0.24936561286449432
      ],
      [
        -0.36250218749046326,
        -0.3396119177341461,
        0.18830786645412445,
        -0.007041286677122116,
        0.012856757268309593,
        0.2036735564470291,
        -0.1710740327835083,
        -0.2779841423034668,
        -0.23217791318893433,
        0.04702828824520111,
        0.1109611913561821,
        -0.45604023337364197
      ],
      [
        0.11092523485422134,
        0.10604934394359589,
        -0.02000776119530201,
        -0.15583491325378418,
        -0.2132786512374878,
        -0.09722894430160522,
        -0.0019476780435070395,
        0.08934178948402405,
        0.10462027043104172,
        -0.2249988317489624,
        0.2892913520336151,
        0.13561323285102844
      ],
      [
        -0.11582188308238983,
        0.02867014706134796,
        -0.08262525498867035,
        0.32640528678894043,
        -0.2780906558036804,
        -0.10046498477458954,
        -0.5760878920555115,
        -0.014706266112625599,
        -0.11058896780014038,
        -0.0671691820025444,
        -0.00903866533190012,
        0.19099822640419006
      ],
      [
        0.23662100732326508,
        0.3023878335952759,
        -0.27951523661613464,
        -0.4264019727706909,
        0.05847746133804321,
        0.2962879538536072,
        0.2967796325683594,
        -0.04800308123230934,
        -0.6058365702629089,
        0.0479397289454937,
        -0.3239811062812805,
        0.3326418399810791
      ],
      [
        0.08344295620918274,
        -0.12304671108722687,
        0.19564256072044373,
        -0.013234103098511696,
        -0.42936837673187256,
        -0.062390752136707306,
        0.30481794476509094,
        -0.1704961061477661,
        0.2355087399482727,
        0.34345921874046326,
        -0.22376981377601624,
        0.14064936339855194
      ],
      [
        -0.25817760825157166,
        -0.39666056632995605,
        0.20016886293888092,
        -0.3295051157474518,
        -0.1943783313035965,
        0.11239343136548996,
        0.0036965617910027504,
        0.37067490816116333,
        0.06652329862117767,
        0.26218685507774353,
        0.28675520420074463,
        0.019412947818636894
      ],
      [
        -0.11833489686250687,
        0.2619735896587372,
        -0.1733292043209076,
        -0.3547286093235016,
        0.06943584233522415,
        -0.08925479650497437,
        -0.030868150293827057,
        -0.09127817302942276,
        0.4294537305831909,
        -0.04550844803452492,
        0.4244506061077118,
        0.150641068816185
      ]
    ],
    "att.out_proj.bias": [
      -0.020099438726902008,
      0.02015465497970581,
      -0.033020347356796265,
      0.10454663634300232,
      -0.00041899672942236066,
      -0.03690633177757263,
      -0.007761020213365555,
      -0.056588251143693924,
      0.06822774559259415,
      0.01749495603144169,
      -0.0583951435983181,
      -0.017242850735783577
    ],
    "norm1.scale": [
      0.685707688331604,
      0.6269351840019226,
      0.7789608836174011,
      0.5488207340240479,
      0.6616013050079346,
      0.7218249440193176,
      0.4288344979286194,
      0.7886290550231934,
      0.541456937789917,
      0.5719313621520996,
      0.6106990575790405,
      0.7701112031936646
    ],
    "norm1.shift": [
      0.17057925462722778,
      -0.004230181220918894,
      -0.02125866711139679,
      -0.04774075001478195,
      0.18075647950172424,
      -0.02538582682609558,
      0.0388277992606163,
      -0.07108494639396667,
      0.14159969985485077,
      -0.21607007086277008,
      0.21178019046783447,
      -0.10639454424381256
    ],
    "norm2.scale": [
      0.6609327793121338,
      0.6831318140029907,
      0.6240182518959045,
      0.6943164467811584,
      0.6775686740875244,
      0.5969692468643188,
      0.6400085091590881,
      0.6607268452644348,
      0.6656274795532227,
      0.6417765021324158,
      0.5667844414710999,
      0.6684730052947998
    ],
    "norm2.shift": [
      0.030889693647623062,
      0.1399383246898651,
      0.10647118836641312,
      -0.27922526001930237,
      -0.22972829639911652,
      -0.32806435227394104,
      0.16476991772651672,
      -0.760662853717804,
      -0.1575789749622345,
      0.2030857503414154,
      0.4995090961456299,
      -0.18828341364860535
    ],
    "ff.lin1.weight": [
      [
        0.004409663379192352,
        0.1953713297843933,
        -0.21813400089740753,
        0.16963395476341248,
        -0.15810434520244598,
        -0.21114607155323029,
        0.24076461791992188,
        -0.12360915541648865,
        0.21381217241287231,
        -0.21682409942150116,
        -0.7980784773826599,
        0.28622809052467346
      ],
      [
        0.19379796087741852,
        0.0720415711402893,
        -0.26827824115753174,
        0.4310258626937866,
        0.0740717276930809,
        0.2491060346364975,
        -0.7262178659439087,
        0.5506195425987244,
        -0.16634902358055115,
        0.4078322947025299,
        -0.5643154382705688,
        -0.22723488509655
      ],
      [
        -0.18804407119750977,
        -0.6848222613334656,
        -0.729906439781189,
        0.5415850877761841,
        0.547564685344696,
        -0.31017786264419556,
        0.38143423199653625,
        0.655681848526001,
        0.07116863131523132,
        -0.07883872836828232,
        -0.6264142394065857,
        -0.22529272735118866
      ],
      [
        -0.07742979377508163,
        0.38573646545410156,
        0.11434310674667358,
        0.36872029304504395,
        -0.561211884021759,
        0.14815174043178558,
        -0.34279146790504456,
        0.8613191246986389,
        -0.11733397096395493,
        0.20340245962142944,
        -0.48903435468673706,
        0.24056601524353027
      ],
      [
        -0.5100340247154236,
        -0.2544248402118683,
        0.38150909543037415,
        -0.41334661841392517,
        0.13410496711730957,
        0.4047825038433075,
        0.07409921288490295,
        0.029841607436537743,
        0.06970621645450592,
        0.39585041999816895,
        -0.1391463279724121,
        0.6225707530975342
      ],
      [
        0.0653383731842041,
        0.1938800811767578,
        0.14167717099189758,
        -0.12590333819389343,
        1.104659914970398,
        0.34543681144714355,
        -0.25394654273986816,
        0.1362524926662445,
        -0.3222101926803589,
        -0.1395280361175537,
        -0.5294845700263977,
        0.1798471212387085
      ],
      [
        0.016134874895215034,
        0.39922353625297546,
        -0.36554768681526184,
        0.38806337118148804,
        -0.10248435288667679,
        -0.27543991804122925,
        0.1467684656381607,
        1.1216291189193726,
        0.050212495028972626,
        -0.5191541314125061,
        0.11929117143154144,
        -0.1775878518819809
      ],
      [
        0.34726375341415405,
        0.18636976182460785,
        0.24901695549488068,
        -0.024543194100260735,
        0.47820210456848145,
        -0.1362496167421341,
        -0.14471498131752014,
        0.2804710865020752,
        0.0025236220099031925,
        -0.06791052967309952,
        -0.13929496705532074,
        -0.515079140663147
      ],
      [
        0.07343742251396179,
        -0.011258355341851711,
        0.23990701138973236,
        0.4313509166240692,
        -0.2187848836183548,
        -0.41046175360679626,
        0.31019923090934753,
        0.3586193323135376,
        -0.046224746853113174,
        -0.5614251494407654,
        0.31679609417915344,
        0.4105510413646698
      ],
      [
        -0.27820897102355957,
        -0.33799615502357483,
        -0.15537667274475098,
        0.017544280737638474,
        -0.035740118473768234,
        -0.2665212154388428,
        0.09211639314889908,
        0.7590333223342896,
        -0.49409019947052,
        0.38898295164108276,
        0.3177037835121155,
        -0.0034817764535546303
      ],
      [
        -0.14628364145755768,
        0.5215306878089905,
        0.10481774806976318,
        0.39942848682403564,
        0.4394291341304779,
        0.18735447525978088,
        -0.2256663292646408,
        -0.0748034119606018,
        -0.24504801630973816,
        -0.35860273241996765,
        -0.8487654328346252,
        0.011070271022617817
      ],
      [
        -0.024350235238671303,
        0.2971988916397095,
        0.2163703739643097,
        0.15412241220474243,
        0.5482292771339417,
        0.4369499683380127,
        0.0757623016834259,
        -0.0016061030328273773,
        -0.7245005369186401,
        -0.11345715820789337,
        -0.17173001170158386,
        -0.1804213523864746
      ],
      [
        0.21147379279136658,
        0.247738316655159,
        0.1338566541671753,
        -0.46365395188331604,
        0.3453695476055145,
        -0.22519999742507935,
        -0.17384295165538788,
        0.5227609872817993,
        0.4006122052669525,
        0.44043174386024475,
        -0.5668366551399231,
        0.31931331753730774
      ],
      [
        -0.44870710372924805,
        0.34000363945961,
        -0.15795975923538208,
        -0.016321562230587006,
        0.4152902066707611,
        0.2885400950908661,
        -0.42639511823654175,
        0.43457186222076416,
        -0.3032064437866211,
        0.25866684317588806,
        -0.21081118285655975,
        -0.4060628116130829
      ],
      [
        0.6039102673530579,
        -0.19929620623588562,
        0.11515889316797256,
        -0.29738202691078186,
        -0.21384276449680328,
        -0.2157513052225113,
        -0.6254939436912537,
        0.4940391182899475,
        -0.010962039232254028,
        0.1351308971643448,
        0.031816914677619934,
        0.012777620926499367
      ],
      [
        0.36815690994262695,
        0.7127867937088013,
        0.03125792741775513,
        -0.407057523727417,
        -0.39460650086402893,
        0.2719666659832001,
        -0.22399571537971497,
        0.2026781588792801,
        0.216952383518219,
        -0.16411614418029785,
        -0.38904035091400146,
        -0.0566282644867897
      ],
      [
        0.0771891325712204,
        0.3214244246482849,
        -0.4439113140106201,
        0.5620692372322083,
        -0.02427908405661583,
        0.22623977065086365,
        -0.05154779180884361,
        -0.2701723873615265,
        0.5321877002716064,
        -0.26496773958206177,
        -0.6600387096405029,
        0.28299471735954285
      ],
      [
        -0.23452816903591156,
        -0.1649365872144699,
        -0.05560925230383873,
        -0.39151668548583984,
        -0.05225823447108269,
        0.28743666410446167,
        0.02574325166642666,
        0.6234990954399109,
        0.2603272795677185,
        -0.7172211408615112,
        0.10976484417915344,
        0.6123121976852417
      ],
      [
        0.5190382599830627,
        0.07046344876289368,
        -0.6660752892494202,
        0.42199811339378357,
        -0.31141605973243713,
        0.4816804528236389,
        0.15457823872566223,
        0.3586711883544922,
        -0.050319571048021317,
        -0.26734891533851624,
        -0.22265733778476715,
        0.11630403250455856
      ],
      [
        0.1269075572490692,
        -0.5988990068435669,
        -0.12260593473911285,
        0.1757793128490448,
        0.314628928899765,
        0.040745481848716736,
        -0.3475353717803955,
        -0.08681261539459229,
        0.4853760600090027,
        0.02129220962524414,
        0.30621138215065,
        -0.3466727137565613
      ],
      [
        -0.45364391803741455,
        0.4098685681819916,
        -0.11140938103199005,
        0.06946327537298203,
        -0.3189413249492645,
        0.4338204860687256,
        -0.21938884258270264,
        0.1560560017824173,
        0.28062549233436584,
        0.6650689840316772,
        -0.1368090957403183,
        -0.5467078685760498
      ],
      [
        -0.42630261182785034,
        -0.214416965842247,
        0.010742094367742538,
        -0.20591913163661957,
        0.5711608529090881,
        -0.6390210390090942,
        -0.1205223873257637,
        0.09088890999555588,
        0.29377809166908264,
        0.2641049921512604,
        0.3785419166088104,
        0.29750704765319824
      ],
      [
        -0.8439424633979797,
        -0.1906667798757553,
        -0.5744534730911255,
        0.20482240617275238,
        -0.009287310764193535,
        0.24854953587055206,
        0.6357512474060059,
        0.07600715756416321,
        0.40999338030815125,
        0.06877213716506958,
        -0.10868450999259949,
        0.2936582565307617
      ],
      [
        0.30593016743659973,
        -0.10733473300933838,
        0.2655586302280426,
        -0.2758394777774811,
        0.48800867795944214,
        0.3763340413570404,
        -0.7259166836738586,
        0.5345748066902161,
        -0.10836616158485413,
        -0.5457703471183777,
        0.11741092056035995,
        0.1618855595588684
      ],
      [
        0.8010066747665405,
        -0.8403573036193848,
        0.017838869243860245,
        -0.017535211518406868,
        0.02705192193388939,
        -0.34062519669532776,
        -0.12553496658802032,
        1.0065354108810425,
        0.5075286626815796,
        0.29513654112815857,
        -0.649101734161377,
        -0.2915693521499634
      ],
      [
        0.3420810103416443,
        -0.5609900951385498,
        -0.2808275520801544,
        -0.147490993142128,
        0.22292251884937286,
        -0.09610617160797119,
        -0.6929851770401001,
        0.3671936094760895,
        0.8204551935195923,
        0.4230372905731201,
        -0.3099028170108795,
        0.0827052965760231
      ],
      [
        0.19793081283569336,
        -0.2586110830307007,
        0.3081532120704651,
        -0.16315419971942902,
        0.7393810153007507,
        0.07228687405586243,
        0.1503458172082901,
        -0.1430184543132782,
        0.36331406235694885,
        -0.5326746106147766,
        -0.37411803007125854,
        0.2680093050003052
      ],
      [
        -0.4761464595794678,
        -0.03211960196495056,
        0.33546775579452515,
        -0.14175023138523102,
        -0.04035235568881035,
        -0.13442471623420715,
        0.010396195575594902,
        0.45102640986442566,
        0.7229626774787903,
        -0.32187536358833313,
        -0.10204826295375824,
        -0.3046242594718933
      ],
      [
        -0.0033986582420766354,
        0.18166406452655792,
        0.35887229442596436,
        -0.05070357024669647,
        -0.1983468383550644,
        0.21545329689979553,
        0.12263111770153046,
        -0.23258551955223083,
        0.34309831261634827,
        0.17310917377471924,
        -0.31184661388397217,
        0.44690677523612976
      ],
      [
        0.3787228763103485,
        -0.12363741546869278,
        -0.2023824155330658,
        0.899222195148468,
        0.24952368438243866,
        -0.1805754005908966,
        0.22222362458705902,
        0.15521188080310822,
        -0.5133602023124695,
        0.11775229871273041,
        -0.41385021805763245,
        -0.21034324169158936
      ],
      [
        -0.160206601023674,
        0.11059203743934631,
        0.4179272949695587,
        0.4374256134033203,
        0.10799963772296906,
        0.6533408761024475,
        0.31125974655151367,
        0.31883567571640015,
        0.07688162475824356,
        -0.265076220035553,
        -0.4803134799003601,
        -0.787242591381073
      ],
      [
        -0.14527596533298492,
        -0.3551582396030426,
        0.36567628383636475,
        0.47502949833869934,
        0.002805097261443734,
        -0.13590076565742493,
        0.2576611340045929,
        0.22978642582893372,
        0.04964061453938484,
        -0.32416731119155884,
        -0.7494756579399109,
        0.5089075565338135
      ],
      [
        0.06454484164714813,
        -0.30110836029052734,
        0.04775606095790863,
        0.45386776328086853,
        0.08811848610639572,
        0.16600249707698822,
        0.1878490447998047,
        0.18485979735851288,
        -0.45810359716415405,
        -0.36517274379730225,
        0.08667769283056259,
        0.5672776699066162
      ],
      [
        0.7947481274604797,
        -0.06856909394264221,
        -0.2601766288280487,
        -0.13870669901371002,
        -0.1674625724554062,
        -0.2331910878419876,
        -0.25416144728660583,
        0.5309117436408997,
        -0.03673093393445015,
        0.06285436451435089,
        -0.71125727891922,
        0.3797371983528137
      ],
      [
        -0.29262667894363403,
        -0.0979958027601242,
        -0.5360956788063049,
        -0.21850021183490753,
        0.6312602758407593,
        0.6518476009368896,
        0.221137136220932,
        0.6997243762016296,
        -0.42106252908706665,
        -0.03297485038638115,
        0.11309652030467987,
        -0.283136785030365
      ],
      [
        -0.0646757259964943,
        -0.2165384739637375,
        -0.4989895522594452,
        0.6195160150527954,
        0.08038215339183807,
        0.5047569274902344,
        -0.9239590764045715,
        0.5076679587364197,
        0.27672460675239563,
        -0.26934635639190674,
        0.21916139125823975,
        0.028021149337291718
      ],
      [
        0.45768633484840393,
        -0.35216474533081055,
        0.2865450084209442,
        0.2855345606803894,
        0.026080524548888206,
        0.5177816152572632,
        -0.29447686672210693,
        -0.42891666293144226,
        -0.20406334102153778,
        0.10657013207674026,
        -0.299207478761673,
        0.33322346210479736
      ],
      [
        -0.22289375960826874,
        0.06763166189193726,
        0.4152349531650543,
        0.20739738643169403,
        -0.17390500009059906,
        0.6129148006439209,
        -0.3934818208217621,
        -0.08079153299331665,
        0.0633825734257698,
        -0.07142528146505356,
        0.018939025700092316,
        -0.1538497805595398
      ],
      [
        -0.08648473769426346,
        -0.7290520071983337,
        -0.2611936926841736,
        0.4218969941139221,
        0.3790087103843689,
        0.368862509727478,
        0.14637194573879242,
        0.7040220499038696,
        -0.07192699611186981,
        0.21140772104263306,
        -0.8034671545028687,
        0.5804767608642578
      ],
      [
        0.019110532477498055,
        -0.07923098653554916,
        -0.4733589291572571,
        0.07587430626153946,
        0.3644256293773651,
        0.4335033893585205,
        -0.27089157700538635,
        -0.005360347218811512,
        0.31699085235595703,
        -0.7451354265213013,
        0.24917370080947876,
        0.2775789797306061
      ],
      [
        0.3870691955089569,
        0.4292227327823639,
        -0.1680135279893875,
        0.00773431034758687,
        0.05371451377868652,
        0.34752458333969116,
        -0.6381498575210571,
        0.5485670566558838,
        -0.5944631695747375,
        -0.1573924422264099,
        -0.1842920482158661,
        0.6399520635604858
      ],
      [
        -0.08452454209327698,
        -0.14578282833099365,
        -0.08949653059244156,
        0.7974374294281006,
        0.5221341252326965,
        0.5734352469444275,
        -0.11048787087202072,
        0.3742731809616089,
        -0.36156195402145386,
        -0.6053870320320129,
        -0.54701167345047,
        0.11750722676515579
      ],
      [
        0.027438046410679817,
        -0.4222008287906647,
        0.5927339196205139,
        -0.3661801218986511,
        0.18183431029319763,
        -0.039678897708654404,
        0.49712473154067993,
        -0.032724328339099884,
        0.09796284884214401,
        0.04355175420641899,
        -0.32257550954818726,
        0.10985628515481949
      ],
      [
        0.2890125513076782,
        -0.5640663504600525,
        -0.003461139276623726,
        -0.17337869107723236,
        0.01712968572974205,
        0.7518068552017212,
        -0.430206298828125,
        0.17063815891742706,
        0.3883678913116455,
        -0.15265187621116638,
        0.019685981795191765,
        -0.16394996643066406
      ],
      [
        -0.17358417809009552,
        -0.3439086079597473,
        -0.5116603374481201,
        0.24458171427249908,
        0.7581900358200073,
        0.07294949144124985,
        -0.24454936385154724,
        0.2698158323764801,
        0.07324519753456116,
        0.19453011453151703,
        -0.26226091384887695,
        0.3166922330856323
      ],
      [
        0.49482467770576477,
        -0.48278653621673584,
        0.4495071470737457,
        0.3174643814563751,
        -0.4839377999305725,
        -0.09051161259412766,
        -0.34895890951156616,
        0.1890912652015686,
        0.5688298940658569,
        -0.430992066860199,
        -0.2899210751056671,
        0.4098462760448456
      ],
      [
        -0.04402792081236839,
        -0.235000342130661,
        0.19137291610240936,
        0.411658376455307,
        -0.36902010440826416,
        0.26865988969802856,
        0.3394874036312103,
        -0.13898640871047974,
        -0.07581093162298203,
        0.1561596542596817,
        0.15190395712852478,
        -0.22959686815738678
      ],
      [
        -0.22418300807476044,
        0.4884580373764038,
        0.076228566467762,
        0.47511759400367737,
        0.4424612820148468,
        0.04962540045380592,
        0.04637167975306511,
        -0.08655557781457901,
        0.009229358285665512,
        -0.3740803003311157,
        -0.3382357060909271,
        0.19727367162704468
      ]
    ],
    "ff.lin1.bias": [
      -0.457524836063385,
      -0.12445125728845596,
      -0.4508439898490906,
      -0.3017445206642151,
      -0.7295798659324646,
      -0.8447307348251343,
      -0.388239324092865,
      -0.39401572942733765,
      -0.7203507423400879,
      -0.5957290530204773,
      -0.5118706226348877,
      -0.4100424647331238,
      -0.44098708033561707,
      -0.5015153884887695,
      -0.2588156759738922,
      -0.6856746673583984,
      -0.5334554314613342,
      -0.3511018455028534,
      0.017638638615608215,
      -0.5243756175041199,
      -0.8371132016181946,
      -0.8179373741149902,
      -0.7574628591537476,
      -0.48124951124191284,
      -0.5168157815933228,
      -0.4091030955314636,
      -0.33970826864242554,
      -0.2628687024116516,
      -0.5654496550559998,
      -0.5876132249832153,
      -0.25288164615631104,
      -0.2658861577510834,
      -0.2699151337146759,
      -0.5084565281867981,
      -0.768866777420044,
      -0.3648577630519867,
      -0.35374051332473755,
      -0.4324747622013092,
      -0.22169847786426544,
      -0.414888471364975,
      -0.465838223695755,
      -0.24217543005943298,
      -0.34692952036857605,
      -0.5024183392524719,
      -0.2118813693523407,
      -0.5309199094772339,
      -0.6516023278236389,
      -0.4189890921115875
    ],
    "ff.lin2.weight": [
      [
        0.1437053680419922,
        0.08192760497331619,
        -0.220865860581398,
        0.21915936470031738,
        -0.06019090861082077,
        0.16391992568969727,
        -0.16860881447792053,
        -0.11886900663375854,
        0.3415357768535614,
        -0.4159342646598816,
        -0.03444283828139305,
        0.059540845453739166,
        -0.1407323032617569,
        -0.14571036398410797,
        0.3428255021572113,
        -0.24178606271743774,
        0.21911334991455078,
        -0.436911016702652,
        -0.19536958634853363,
        -0.04215814173221588,
        -0.22921377420425415,
        -0.23197606205940247,
        0.1650834083557129,
        -0.6724948287010193,
        -0.050511423498392105,
        -0.20117813348770142,
        0.06067008525133133,
        -0.20889778435230255,
        -0.08473954349756241,
        0.21734336018562317,
        -0.34717610478401184,
        0.0031019002199172974,
        -0.1259317398071289,
        0.05980522930622101,
        0.6023942232131958,
        0.04762723669409752,
        -0.009025424718856812,
        -0.08163493126630783,
        -0.18197281658649445,
        -0.43816888332366943,
        0.04433375969529152,
        -0.3914072811603546,
        0.3845328092575073,
        -0.026883617043495178,
        -0.2174147218465805,
        0.6048183441162109,
        -0.1618860363960266,
        0.06712660938501358
      ],
      [
        -0.058829415589571,
        0.09311957657337189,
        -0.09712367504835129,
        -0.028927991166710854,
        -0.13817329704761505,
        0.10325071960687637,
        0.3059843182563782,
        -0.0736224502325058,
        0.4994148313999176,
        -0.0748104453086853,
        0.030598746612668037,
        -0.10322213172912598,
        -0.24708780646324158,
        -0.2462129294872284,
        -0.09106158465147018,
        0.3302682936191559,
        0.6414946913719177,
        0.2152785211801529,
        -0.07174444198608398,
        -0.23791532218456268,
        -0.05487332493066788,
        0.15033769607543945,
        0.2810552418231964,
        0.13266798853874207,
        -0.06494490057229996,
        -0.44870302081108093,
        -0.1387505829334259,
        0.026467587798833847,
        0.213230162858963,
        -0.18971432745456696,
        -0.3652259409427643,
        -0.20623745024204254,
        -0.0598246231675148,
        -0.028093118220567703,
        -0.03386788070201874,
        -0.1777483969926834,
        -0.08514154702425003,
        -0.16020968556404114,
        0.4665033519268036,
        0.011641033925116062,
        0.17466971278190613,
        -0.5332761406898499,
        -0.001877803006209433,
        -0.46259912848472595,
        -0.28073784708976746,
        -0.3279581367969513,
        -0.30216333270072937,
        0.05605972558259964
      ],
      [
        -0.1986079066991806,
        0.1998337209224701,
        -0.1726771742105484,
        0.07493557035923004,
        0.4095388650894165,
        -0.10580554604530334,
        0.0035865362733602524,
        0.5244004726409912,
        -0.5044481754302979,
        0.020535897463560104,
        0.046816643327474594,
        -0.04445882886648178,
        -0.0006494852714240551,
        -0.0206763818860054,
        0.11196455359458923,
        0.211009681224823,
        -0.0885591134428978,
        -0.031068816781044006,
        0.01039108820259571,
        0.06863967329263687,
        0.22843800485134125,
        0.09391454607248306,
        -0.37690630555152893,
        -0.2536221742630005,
        0.29391103982925415,
        0.20081749558448792,
        -0.11819703876972198,
        0.1083650067448616,
        -0.03360908105969429,
        0.19428829848766327,
        0.006485397461801767,
        0.13559430837631226,
        0.01138689648360014,
        -0.03565371409058571,
        0.05706213042140007,
        -0.02924175001680851,
        0.5525344610214233,
        0.030006321147084236,
        -0.10760118067264557,
        -0.3816976547241211,
        -0.049518123269081116,
        0.18423864245414734,
        -0.038416966795921326,
        -0.18107332289218903,
        -0.20025907456874847,
        -0.03168326988816261,
        0.111458420753479,
        -0.0642264112830162
      ],
      [
        -0.39484578371047974,
        -0.1560644507408142,
        -0.22732485830783844,
        0.18904447555541992,
        0.13795308768749237,
        -0.14955665171146393,
        0.0016471880953758955,
        -0.279423326253891,
        -0.12509502470493317,
        -0.0608723945915699,
        0.24632038176059723,
        -0.30230140686035156,
        0.195373073220253,
        -0.0803590938448906,
        -0.12442661821842194,
        -0.03256428986787796,
        -0.22449307143688202,
        -0.003332314547151327,
        -0.2976292073726654,
        0.2944175899028778,
        0.0443589873611927,
        0.18770447373390198,
        -0.14483562111854553,
        -0.18577861785888672,
        -0.27946558594703674,
        -0.48126116394996643,
        -0.2293100655078888,
        0.39569514989852905,
        -0.14842160046100616,
        -0.3487914502620697,
        -0.0031164635438472033,
        -0.02934524603188038,
        0.034710563719272614,
        0.10310288518667221,
        0.48031947016716003,
        0.45163217186927795,
        0.041013021022081375,
        0.21951131522655487,
        -0.2125079184770584,
        -0.10639874637126923,
        0.2850840091705322,
        -0.13944634795188904,
        0.019672881811857224,
        0.23899303376674652,
        0.13196852803230286,
        0.09246157109737396,
        0.20808850228786469,
        0.08187539875507355
      ],
      [
        -0.1418936401605606,
        -0.11600180715322495,
        0.40536269545555115,
        -0.08582869917154312,
        0.15240764617919922,
        -0.36503511667251587,
        -0.07545480132102966,
        0.2691366970539093,
        -0.12848877906799316,
        -0.371208131313324,
        -0.2369992434978485,
        0.26288339495658875,
        -0.11839704215526581,
        0.21001753211021423,
        -0.09551917016506195,
        -0.47340214252471924,
        -0.2001870721578598,
        0.6259710788726807,
        0.20722779631614685,
        0.061130400747060776,
        0.4334854483604431,
        0.0854024887084961,
        -0.20096410810947418,
        0.750086784362793,
        -0.5956776142120361,
        0.057771310210227966,
        0.5724601149559021,
        0.03760228678584099,
        -0.23177766799926758,
        0.2814517915248871,
        -0.2575114369392395,
        -0.44068092107772827,
        -0.14418470859527588,
        -0.04918455705046654,
        -0.15138809382915497,
        -0.2629196047782898,
        -0.10644055902957916,
        -0.2905973494052887,
        -0.27827852964401245,
        0.5132611989974976,
        0.05327582731842995,
        0.3099100589752197,
        -0.05074714124202728,
        0.12550999224185944,
        0.13495659828186035,
        0.12962716817855835,
        -0.09232345968484879,
        -0.12646131217479706
      ],
      [
        0.41323530673980713,
        0.34145835041999817,
        -0.4141154885292053,
        -0.12788011133670807,
        -0.10421587526798248,
        0.09329956024885178,
        -0.2737668752670288,
        -0.0472966730594635,
        -0.1510734111070633,
        0.48360225558280945,
        0.0831088200211525,
        -0.1332092136144638,
        -0.5366157293319702,
        0.03786027431488037,
        -0.010093036107718945,
        0.3122040927410126,
        0.08701296895742416,
        -0.18130280077457428,
        -0.25404858589172363,
        -0.23562763631343842,
        -0.2344323992729187,
        -0.01710439845919609,
        0.24021285772323608,
        -0.13050995767116547,
        -0.07031135261058807,
        0.28203800320625305,
        0.029026178643107414,
        -0.04916317015886307,
        0.25127801299095154,
        -0.11619564145803452,
        -0.016497071832418442,
        0.28421616554260254,
        -0.30474790930747986,
        -0.16035154461860657,
        -0.07067569345235825,
        0.31109434366226196,
        -0.154825821518898,
        0.10842983424663544,
        0.4214978814125061,
        -0.12930648028850555,
        -0.3823472559452057,
        -0.019832056015729904,
        0.15430188179016113,
        0.1863897740840912,
        0.02343830093741417,
        -0.1151847317814827,
        -0.03650477156043053,
        0.16719788312911987
      ],
      [
        -0.0272224061191082,
        -0.33952420949935913,
        0.192307248711586,
        -0.47055765986442566,
        0.24249838292598724,
        -0.2431236207485199,
        0.36600688099861145,
        -0.025670045986771584,
        -0.20031219720840454,
        0.3163609206676483,
        -0.02414349839091301,
        0.4778994023799896,
        0.27384474873542786,
        0.04088009148836136,
        0.3355623483657837,
        -0.15069852769374847,
        -0.01300152949988842,
        0.2596700191497803,
        -0.17472931742668152,
        0.03218057379126549,
        0.0959019660949707,
        -0.4614901542663574,
        0.08482116460800171,
        0.3112942576408386,
        0.23396974802017212,
        0.07590346038341522,
        0.20295874774456024,
        -0.21819692850112915,
        0.014584332704544067,
        0.46396884322166443,
        -0.1737028956413269,
        -0.02948886714875698,
        0.07585533708333969,
        0.08289594948291779,
        -0.25844845175743103,
        -0.6710161566734314,
        -0.11070426553487778,
        0.2691265940666199,
        0.32876667380332947,
        0.19960346817970276,
        -0.10696598887443542,
        -0.024824442341923714,
        -0.01928863301873207,
        0.10314641147851944,
        -0.35077518224716187,
        -0.4377497732639313,
        0.4005908966064453,
        -0.11290446668863297
      ],
      [
        -0.20574095845222473,
        0.322528213262558,
        0.5477507710456848,
        0.48235437273979187,
        -0.33436697721481323,
        0.2982887625694275,
        0.24084453284740448,
        -0.021665118634700775,
        -0.0010764015605673194,
        -0.19056649506092072,
        -0.06430003046989441,
        -0.13817095756530762,
        0.09013794362545013,
        0.02511199750006199,
        0.029301248490810394,
        0.08882904052734375,
        0.1707812398672104,
        -0.19508862495422363,
        0.06377237290143967,
        -0.20016178488731384,
        -0.31071633100509644,
        0.32346802949905396,
        -0.1225021705031395,
        0.01978202350437641,
        0.09440819919109344,
        -0.015096309594810009,
        0.04840879142284393,
        0.17226235568523407,
        0.05175434798002243,
        0.030850175768136978,
        0.5456730127334595,
        0.14542695879936218,
        -0.024550767615437508,
        -0.01764751598238945,
        -0.5657244324684143,
        0.053844861686229706,
        -0.23840995132923126,
        -0.1455804407596588,
        0.5920453667640686,
        -0.044601552188396454,
        0.27020615339279175,
        0.1532607525587082,
        0.2889496684074402,
        -0.11141879111528397,
        0.5495479106903076,
        0.3241174519062042,
        0.0134254340082407,
        -0.15508374571800232
      ],
      [
        0.03481275960803032,
        -0.342633455991745,
        -0.21250349283218384,
        0.08568830043077469,
        0.030139798298478127,
        0.23280197381973267,
        0.19929839670658112,
        0.03182307258248329,
        0.09054391831159592,
        -0.11576393991708755,
        0.16091245412826538,
        -0.3294816315174103,
        0.31668728590011597,
        -0.17442412674427032,
        -0.19697099924087524,
        -0.23728272318840027,
        -0.11031336337327957,
        0.4040631055831909,
        0.08352956920862198,
        0.36901721358299255,
        -0.005947525147348642,
        -0.008311998099088669,
        -0.3396911323070526,
        -0.10916808247566223,
        -0.036852069199085236,
        0.11474493891000748,
        0.03392839804291725,
        0.33062544465065,
        0.22291679680347443,
        -0.41504523158073425,
        0.6487390995025635,
        0.19012123346328735,
        -0.0833025574684143,
        -0.3240109980106354,
        -0.5373720526695251,
        0.2568362355232239,
        -0.13463544845581055,
        0.017139146104454994,
        -0.06797277182340622,
        -0.06527310609817505,
        -0.5683977007865906,
        0.15280479192733765,
        -0.005453830119222403,
        -0.03516955301165581,
        0.03735802322626114,
        0.2988245487213135,
        0.08766515552997589,
        0.2483670562505722
      ],
      [
        0.3906414210796356,
        -0.22882111370563507,
        0.05509454756975174,
        0.13705238699913025,
        -0.4162862002849579,
        0.07869715243577957,
        0.0012350778561085463,
        -0.1455925554037094,
        -0.2106078714132309,
        0.12186671048402786,
        -0.023709731176495552,
        0.4491764307022095,
        0.199183389544487,
        0.6124341487884521,
        0.3555770516395569,
        0.23318035900592804,
        -0.06006192788481712,
        -0.21849976480007172,
        0.17893482744693756,
        0.27424007654190063,
        0.3730901777744293,
        -0.11886966973543167,
        0.19001531600952148,
        -0.06845155358314514,
        0.6299197673797607,
        0.17336560785770416,
        0.12128966301679611,
        -0.055517785251140594,
        -0.3629123866558075,
        -0.41534629464149475,
        -0.07688222825527191,
        0.2852458357810974,
        0.007271802518516779,
        0.402520090341568,
        0.05975886806845665,
        -0.44900843501091003,
        0.06726174056529999,
        -0.10964728891849518,
        -0.3524499535560608,
        0.0995427817106247,
        -0.07977735996246338,
        -0.0023887341376394033,
        -0.2407366931438446,
        -0.03932332992553711,
        -0.12867064774036407,
        -0.48201024532318115,
        -0.12587811052799225,
        0.3047697842121124
      ],
      [
        0.08095862716436386,
        -0.30191054940223694,
        0.15001653134822845,
        -0.22962988913059235,
        -0.37089085578918457,
        -0.18396681547164917,
        0.4803237020969391,
        0.11688660830259323,
        0.13125945627689362,
        0.6114048957824707,
        -0.305154025554657,
        -0.10701940208673477,
        0.09933149069547653,
        0.024513963609933853,
        -0.33786168694496155,
        -0.01819809526205063,
        -0.38171544671058655,
        -0.32048365473747253,
        0.7996219396591187,
        0.07235249131917953,
        -0.19734327495098114,
        -0.3314599096775055,
        0.6185441017150879,
        0.2374163717031479,
        -0.2836304306983948,
        0.020147807896137238,
        -0.47888273000717163,
        -0.5157504081726074,
        0.3082391619682312,
        -0.22480443120002747,
        -0.3377496004104614,
        0.03552127629518509,
        -0.2263220250606537,
        0.19060014188289642,
        0.5195315480232239,
        0.15784114599227905,
        -0.2352747619152069,
        -0.0827431008219719,
        -0.42332857847213745,
        0.11645542085170746,
        -0.229978546500206,
        0.2622750699520111,
        -0.35155537724494934,
        0.27752751111984253,
        0.12697863578796387,
        -0.18718042969703674,
        -0.1666073054075241,
        -0.2687538266181946
      ],
      [
        0.02300417050719261,
        0.1993354856967926,
        0.31635645031929016,
        -0.15463638305664062,
        0.10960791260004044,
        0.15808811783790588,
        -0.5018071532249451,
        0.1664007306098938,
        0.045211516320705414,
        -0.009933852590620518,
        0.1049766093492508,
        0.06508003175258636,
        0.33745208382606506,
        -0.1378745585680008,
        -0.1789349913597107,
        0.1004786491394043,
        -0.10813158750534058,
        0.1803271323442459,
        -0.06892906129360199,
        -0.18422511219978333,
        0.12183570116758347,
        -0.014999013394117355,
        -0.5040864944458008,
        0.013560894876718521,
        -0.10859343409538269,
        0.19129668176174164,
        0.008171875029802322,
        0.14580713212490082,
        0.11689159274101257,
        0.15328972041606903,
        -0.0013643401907756925,
        -0.008926325477659702,
        0.4844810366630554,
        -0.3055073022842407,
        -0.08215758204460144,
        0.3449340760707855,
        0.4085477888584137,
        0.17642642557621002,
        -0.17604762315750122,
        0.08522604405879974,
        0.20101509988307953,
        0.36111539602279663,
        -0.163851797580719,
        -0.1348322331905365,
        -0.04582063481211662,
        0.07208862155675888,
        0.15354228019714355,
        -0.0709056705236435
      ]
    ],
    "ff.lin2.bias": [
      -0.11292239278554916,
      -0.08355636149644852,
      0.0014964296715334058,
      -0.06735444813966751,
      -0.0849863737821579,
      -0.12134518474340439,
      0.08525623381137848,
      0.1356525421142578,
      0.023360759019851685,
      0.16125136613845825,
      -0.06305494159460068,
      0.06897823512554169
    ]
  },
  "block_1": {
    "att.W_query.weight": [
      [
        0.6361755132675171,
        0.43693050742149353,
        -0.38015884160995483,
        -0.016663096845149994,
        -0.4474900960922241,
        0.35582372546195984,
        0.23169061541557312,
        0.5339227318763733,
        -0.052542660385370255,
        0.4106806218624115,
        -0.7326903939247131,
        0.19891196489334106
      ],
      [
        -0.3209206759929657,
        -0.43470191955566406,
        -0.31710347533226013,
        0.09942204505205154,
        0.10170327126979828,
        -0.03336261585354805,
        0.5786778330802917,
        0.40182992815971375,
        0.3150673508644104,
        0.21934635937213898,
        -0.6888169646263123,
        0.2703641653060913
      ],
      [
        -0.3985905945301056,
        -0.3294808864593506,
        0.6977593898773193,
        -0.2567726969718933,
        -0.36290520429611206,
        -0.19565516710281372,
        0.05417938157916069,
        0.17190884053707123,
        0.5297035574913025,
        -0.46955835819244385,
        -0.09972907602787018,
        0.4706396162509918
      ],
      [
        -0.06911058723926544,
        0.7026384472846985,
        -0.6368790864944458,
        -0.2710302472114563,
        -0.6512764096260071,
        -0.5136982798576355,
        0.7657764554023743,
        0.017854681238532066,
        0.3366154432296753,
        -0.14294032752513885,
        0.3452424108982086,
        0.03732096776366234
      ],
      [
        0.2704630196094513,
        -0.3090205192565918,
        -0.1161276251077652,
        0.6473296284675598,
        0.1800677329301834,
        -0.361945778131485,
        -0.77620530128479,
        0.18613867461681366,
        -0.7261962890625,
        -0.057451874017715454,
        0.13011521100997925,
        0.11766476929187775
      ],
      [
        0.18268795311450958,
        0.44589540362358093,
        0.08581490814685822,
        0.26880910992622375,
        0.2737606167793274,
        -0.3027133643627167,
        -0.25371435284614563,
        -0.11370377987623215,
        0.07441321015357971,
        -0.34100860357284546,
        -0.4052479565143585,
        -0.5009211897850037
      ],
      [
        -0.11411146819591522,
        -0.038023803383111954,
        -0.19380800426006317,
        0.014855477958917618,
        -0.018446732312440872,
        -0.15797019004821777,
        -0.13870179653167725,
        0.4204230010509491,
        -0.25580665469169617,
        0.5388420820236206,
        -0.021346434950828552,
        -0.24491553008556366
      ],
      [
        0.6229361891746521,
        0.36704978346824646,
        0.020358383655548096,
        -0.2493390440940857,
        0.5896165370941162,
        0.6272070407867432,
        -0.20033366978168488,
        -0.4064260423183441,
        -0.3639649748802185,
        -0.5297846794128418,
        -0.4760807156562805,
        0.27295300364494324
      ],
      [
        0.04976895824074745,
        0.24723434448242188,
        0.34815746545791626,
        0.15285827219486237,
        -0.4211229383945465,
        0.08773133903741837,
        0.7945877909660339,
        -0.2893769145011902,
        -0.4825831353664398,
        -0.0768083855509758,
        0.04841866344213486,
        -0.5035189390182495
      ],
      [
        -0.40583327412605286,
        -0.17109328508377075,
        -0.46387651562690735,
        -0.19092512130737305,
        -0.2010056972503662,
        0.21589156985282898,
        -7.79307447373867e-05,
        -0.1487058401107788,
        0.40105733275413513,
        -0.11636820435523987,
        0.4190085530281067,
        0.513197660446167
      ],
      [
        -0.49580642580986023,
        -0.3324946463108063,
        -0.2039635181427002,
        0.8241385817527771,
        -0.16518300771713257,
        -0.14352692663669586,
        0.66829514503479,
        0.4212924838066101,
        -0.49466419219970703,
        -0.2510969042778015,
        -0.32266056537628174,
        0.6827475428581238
      ],
      [
        0.12155000120401382,
        -0.5247217416763306,
        0.4147135317325592,
        -0.09608971327543259,
        -0.11796411871910095,
        -0.36099153757095337,
        -0.3725046217441559,
        0.044416122138500214,
        0.059634730219841,
        -0.740336537361145,
        0.8812057375907898,
        0.18599514663219452
      ]
    ],
    "att.W_query.bias": null,
    "att.W_key.weight": [
      [
        -1.169161319732666,
        -0.12509016692638397,
        0.13144682347774506,
        -0.14905749261379242,
        0.8259499669075012,
        0.47454217076301575,
        0.07458701729774475,
        -0.04877438023686409,
        0.14533844590187073,
        0.2200002521276474,
        0.22394028306007385,
        0.5424399375915527
      ],
      [
        -0.44588521122932434,
        0.06079300120472908,
        0.27307671308517456,
        -0.06927035748958588,
        0.4020237624645233,
        0.37841764092445374,
        -0.8494055867195129,
        -0.2754943072795868,
        -0.002985923318192363,
        0.03306514769792557,
        0.2552754580974579,
        0.3866948187351227
      ],
      [
        0.6282891035079956,
        -0.4150448739528656,
        0.34801745414733887,
        0.19653365015983582,
        0.5657398104667664,
        -0.054695479571819305,
        -0.08988216519355774,
        -0.5931519865989685,
        -0.532336413860321,
        -0.276587575674057,
        0.3240731358528137,
        -0.2805708646774292
      ],
      [
        0.14814840257167816,
        -0.8427950143814087,
        0.06665240973234177,
        0.23692089319229126,
        0.485217809677124,
        0.5482228398323059,
        -0.30099716782569885,
        0.47855144739151,
        0.5345295667648315,
        -0.2102791965007782,
        -0.7484229207038879,
        -0.2467668652534485
      ],
      [
        0.10380498319864273,
        0.7417879700660706,
        0.026329608634114265,
        -0.7705725431442261,
        -0.37491482496261597,
        0.13918977975845337,
        0.49393191933631897,
        -0.4302283227443695,
        -0.2439827024936676,
        0.45680466294288635,
        -0.08457215875387192,
        0.08094201982021332
      ],
      [
        0.22862765192985535,
        -0.005627155303955078,
        -0.1710987240076065,
        0.009653541259467602,
        0.12924830615520477,
        -0.3508422076702118,
        0.1378074735403061,
        -0.022163264453411102,
        -0.4226550757884979,
        0.19883041083812714,
        -0.1876760572195053,
        0.7788482904434204
      ],
      [
        -0.07732093334197998,
        -0.17750796675682068,
        0.11232839524745941,
        -0.14273633062839508,
        0.19599823653697968,
        0.4382048547267914,
        0.3026302456855774,
        -0.3767735958099365,
        -0.050180695950984955,
        -0.19019576907157898,
        -0.34361180663108826,
        0.16052795946598053
      ],
      [
        -0.187125563621521,
        0.04500291869044304,
        0.5285903811454773,
        -0.42174991965293884,
        -0.8096920251846313,
        -0.4998776316642761,
        0.33700868487358093,
        0.4032789170742035,
        -0.35958144068717957,
        -0.09694278240203857,
        0.5991640090942383,
        0.22479474544525146
      ],
      [
        0.4572038948535919,
        -0.17718417942523956,
        -0.2735264301300049,
        -0.2179124504327774,
        0.16806632280349731,
        0.4363010823726654,
        -0.5632097721099854,
        0.28956836462020874,
        -0.04610305652022362,
        -0.7253141403198242,
        0.3486970067024231,
        0.06103874370455742
      ],
      [
        -0.20650723576545715,
        0.10000934451818466,
        -0.13117758929729462,
        -0.31821492314338684,
        0.7308889031410217,
        -0.42141222953796387,
        -0.010024345479905605,
        0.048399366438388824,
        0.3466148376464844,
        0.4731987416744232,
        0.0008230921812355518,
        -0.3206535875797272
      ],
      [
        0.9178411364555359,
        0.33891889452934265,
        -0.01744939014315605,
        -0.986048698425293,
        -0.1582205593585968,
        0.2040872871875763,
        -0.15823030471801758,
        -0.38521552085876465,
        0.3257952332496643,
        0.47406911849975586,
        -0.16378311812877655,
        -0.37341320514678955
      ],
      [
        -0.05309814214706421,
        0.25932806730270386,
        -0.4847809076309204,
        0.6590452790260315,
        0.13163034617900848,
        -0.4591478407382965,
        -0.5661576986312866,
        -0.25346019864082336,
        0.21035341918468475,
        0.6188862323760986,
        0.06994636356830597,
        0.5462419390678406
      ]
    ],
    "att.W_key.bias": null,
    "att.W_value.weight": [
      [
        0.0948357954621315,
        -0.0004914014134556055,
        0.20011666417121887,
        0.6731453537940979,
        -0.2289062887430191,
        -0.06768813729286194,
        -0.2139853984117508,
        -0.40505072474479675,
        0.4748329222202301,
        -0.2509234547615051,
        0.013967710547149181,
        -0.19489262998104095
      ],
      [
        -0.49935609102249146,
        0.20848694443702698,
        0.7492393255233765,
        0.08148859441280365,
        -0.12395671755075455,
        -0.04074616730213165,
        -0.10667451471090317,
        -0.13330808281898499,
        0.04487396776676178,
        -0.022630060091614723,
        -0.005518597550690174,
        -0.10038915276527405
      ],
      [
        0.2966872751712799,
        -0.18348999321460724,
        -0.16850459575653076,
        -0.5916388034820557,
        -0.0449058823287487,
        -0.005650138948112726,
        -0.20273537933826447,
        -0.24980945885181427,
        0.4885149598121643,
        0.3599204421043396,
        -0.39512279629707336,
        -0.13966678082942963
      ],
      [
        -0.04847029596567154,
        0.00019575330952648073,
        0.10267119109630585,
        0.11908932030200958,
        -0.2317182421684265,
        0.16490262746810913,
        0.42698729038238525,
        -0.014135077595710754,
        -0.36793819069862366,
        -0.4276076555252075,
        -0.47988829016685486,
        0.5041016936302185
      ],
      [
        -0.1528204381465912,
        0.22649382054805756,
        -0.08599983900785446,
        0.18205690383911133,
        -0.19690176844596863,
        -0.08117982000112534,
        -0.15513402223587036,
        -0.48549771308898926,
        0.19734030961990356,
        0.258593887090683,
        0.2668752372264862,
        0.5674295425415039
      ],
      [
        0.10022483766078949,
        -0.2510877251625061,
        0.5980781316757202,
        -0.15382954478263855,
        -0.35964229702949524,
        0.47650742530822754,
        -0.07362600415945053,
        -0.012308920733630657,
        -0.329988032579422,
        0.32309460639953613,
        0.05423528328537941,
        -0.018594758585095406
      ],
      [
        0.17480674386024475,
        0.4189497232437134,
        -0.4801795482635498,
        0.17508763074874878,
        0.055557988584041595,
        -0.3708268105983734,
        0.4741624891757965,
        0.2715677320957184,
        0.04777340218424797,
        -0.15354368090629578,
        -0.5532390475273132,
        0.03230705484747887
      ],
      [
        0.21456681191921234,
        0.0010668192990124226,
        -0.6682103276252747,
        -0.29417386651039124,
        -0.17266018688678741,
        0.3533869683742523,
        -0.08508274704217911,
        -0.2162059247493744,
        0.27302512526512146,
        0.006754540838301182,
        0.18008363246917725,
        0.06776969134807587
      ],
      [
        -0.011223334819078445,
        0.17088663578033447,
        0.0760522410273552,
        0.021966703236103058,
        0.022936442866921425,
        -0.5907960534095764,
        -0.15872691571712494,
        0.0003228113055229187,
        0.05754823610186577,
        0.20056557655334473,
        0.3809621036052704,
        -0.7140230536460876
      ],
      [
        -0.07212836295366287,
        0.2691692113876343,
        0.34700629115104675,
        -0.07139839231967926,
        -0.6720524430274963,
        0.24759575724601746,
        0.23217102885246277,
        0.13855348527431488,
        -0.1690746396780014,
        -0.12889602780342102,
        -0.12377989292144775,
        0.10451356321573257
      ],
      [
        0.23788942396640778,
        0.24266953766345978,
        0.17129527032375336,
        -0.06506355106830597,
        -0.14204007387161255,
        -0.5855415463447571,
        -0.13937495648860931,
        -0.7539450526237488,
        0.0745331346988678,
        -0.11677568405866623,
        0.19573570787906647,
        0.24530461430549622
      ],
      [
        0.22711096704006195,
        -0.18929722905158997,
        0.027914345264434814,
        -0.004637489095330238,
        -0.4119360148906708,
        -0.3765276372432709,
        0.5330913066864014,
        -0.21214860677719116,
        0.21222230792045593,
        -0.46085312962532043,
        0.13078074157238007,
        -0.09800270199775696
      ]
    ],
    "att.W_value.bias": null,
    "att.out_proj.weight": [
      [
        0.19952885806560516,
        0.2634052336215973,
        0.04638670012354851,
        -0.10319433361291885,
        -0.09949110448360443,
        -0.24281877279281616,
        0.3651762902736664,
        0.08599942922592163,
        0.2243102490901947,
        -0.10784830152988434,
        -0.33198046684265137,
        -0.02755795791745186
      ],
      [
        0.4396572411060333,
        0.05322100594639778,
        0.44148173928260803,
        -0.07167388498783112,
        -0.3062101900577545,
        0.2145356386899948,
        -0.4242529273033142,
        -0.33813557028770447,
        0.3767891526222229,
        -0.02748144418001175,
        -0.03927578404545784,
        -0.18429741263389587
      ],
      [
        0.005479540675878525,
        -0.45282357931137085,
        0.6084257364273071,
        -0.34412679076194763,
        0.18155832588672638,
        -0.4255700707435608,
        -0.08940330892801285,
        0.24796588718891144,
        -0.5092235207557678,
        -0.005037851165980101,
        0.3099510669708252,
        0.23793740570545197
      ],
      [
        -0.2613970935344696,
        -0.07106324285268784,
        -0.35795363783836365,
        0.17872563004493713,
        -0.2807278335094452,
        -0.24942921102046967,
        -0.051217637956142426,
        -0.4129156172275543,
        0.24950318038463593,
        -0.4744853973388672,
        -0.16815224289894104,
        -0.3386117219924927
      ],
      [
        0.17137554287910461,
        -0.19633038341999054,
        -0.16905108094215393,
        0.05604616925120354,
        -0.16740381717681885,
        0.05849858745932579,
        -0.10873042047023773,
        0.14668595790863037,
        0.3162558376789093,
        0.17403538525104523,
        0.17767037451267242,
        0.21163031458854675
      ],
      [
        0.097023144364357,
        0.2777595818042755,
        -0.14901818335056305,
        -0.35110750794410706,
        0.23198020458221436,
        -0.12762309610843658,
        -0.12389370799064636,
        0.07274514436721802,
        0.24571630358695984,
        0.17541873455047607,
        0.3020056188106537,
        0.12643247842788696
      ],
      [
        -0.6906958818435669,
        -0.13605327904224396,
        0.4291999638080597,
        -0.051977645605802536,
        -0.21544143557548523,
        0.2921333312988281,
        -0.16294918954372406,
        0.2899884283542633,
        -0.2901267409324646,
        0.0911923348903656,
        -0.21317875385284424,
        -0.8223288059234619
      ],
      [
        0.19930119812488556,
        0.12964391708374023,
        -0.07285182178020477,
        -0.20489142835140228,
        0.015977315604686737,
        0.3569541573524475,
        0.49893349409103394,
        -0.0719292163848877,
        0.14268498122692108,
        -0.14160624146461487,
        0.513825535774231,
        0.05676841735839844
      ],
      [
        -0.17455148696899414,
        0.1894565224647522,
        -0.025550182908773422,
        0.5228663086891174,
        -0.059155602008104324,
        0.07540963590145111,
        0.3539764881134033,
        0.02777593955397606,
        -0.2696070075035095,
        0.319517582654953,
        -0.5014944076538086,
        0.36807143688201904
      ],
      [
        -0.3123963475227356,
        0.19511310756206512,
        0.1150020882487297,
        0.010854056105017662,
        0.3463263213634491,
        0.3746550679206848,
        0.2172972559928894,
        -0.5788512229919434,
        -0.154078409075737,
        0.4235028922557831,
        0.08603519201278687,
        0.08139755576848984
      ],
      [
        0.1865365207195282,
        0.020703934133052826,
        -0.3163866400718689,
        0.6382919549942017,
        0.5991719961166382,
        -0.18552249670028687,
        -0.1631690412759781,
        0.41898563504219055,
        -0.34425637125968933,
        -0.07661128044128418,
        0.15628401935100555,
        0.41046836972236633
      ],
      [
        -0.27134156227111816,
        -0.30364173650741577,
        -0.3234604597091675,
        -0.0897526666522026,
        0.057732921093702316,
        -0.345268577337265,
        -0.3040190637111664,
        -0.05250682681798935,
        -0.1400151401758194,
        -0.06596473604440689,
        -0.03951433300971985,
        -0.060024477541446686
      ]
    ],
    "att.out_proj.bias": [
      -0.0355464331805706,
      -0.0016515172319486737,
      -0.06413725763559341,
      0.06076047196984291,
      -0.004536540247499943,
      -0.037506189197301865,
      0.17017225921154022,
      0.006557454355061054,
      -0.12336800992488861,
      0.07989726960659027,
      -0.026239337399601936,
      0.06516345590353012
    ],
    "norm1.scale": [
      0.6378577947616577,
      0.4911960959434509,
      0.708206057548523,
      0.7365556955337524,
      0.7236763834953308,
      0.7667298913002014,
      0.6967117190361023,
      0.6949092149734497,
      0.5101137161254883,
      0.6519195437431335,
      0.7194422483444214,
      0.8063578009605408
    ],
    "norm1.shift": [
      -0.13025885820388794,
      -0.08935701102018356,
      0.030912017449736595,
      -0.22625775635242462,
      0.06947419792413712,
      -0.1368246078491211,
      0.09937703609466553,
      -0.06077896058559418,
      0.2536076009273529,
      -0.12219662964344025,
      0.18143604695796967,
      0.16656972467899323
    ],
    "norm2.scale": [
      0.8562957644462585,
      0.8049951195716858,
      0.5370588898658752,
      0.6817892789840698,
      0.6978843808174133,
      0.6807265877723694,
      0.6403771042823792,
      0.5816424489021301,
      0.5436388254165649,
      0.7417048215866089,
      0.6188773512840271,
      0.7515220046043396
    ],
    "norm2.shift": [
      -0.12357132881879807,
      -0.22553154826164246,
      0.27968916296958923,
      -1.0116946697235107,
      -0.18830373883247375,
      -0.3812626302242279,
      0.0881819799542427,
      0.1541311889886856,
      0.3858352601528168,
      -0.14649462699890137,
      0.12232288718223572,
      0.0002064016880467534
    ],
    "ff.lin1.weight": [
      [
        -0.004779846407473087,
        -0.17866165935993195,
        -0.41874322295188904,
        -0.025859910994768143,
        -0.3489745259284973,
        0.13625134527683258,
        -0.3069135248661041,
        0.19945593178272247,
        -0.09266142547130585,
        0.2369498759508133,
        0.5532633662223816,
        0.28836581110954285
      ],
      [
        0.2883853018283844,
        -0.5104933977127075,
        0.5014382600784302,
        0.296443909406662,
        -0.06217223033308983,
        -0.22347140312194824,
        0.2694430649280548,
        -0.27489450573921204,
        -0.16522176563739777,
        0.4623619019985199,
        -0.18468697369098663,
        -0.29952481389045715
      ],
      [
        -0.06462088227272034,
        0.12978418171405792,
        -0.212157741189003,
        -0.0007077747723087668,
        -0.24403411149978638,
        -0.040130652487277985,
        -0.18636274337768555,
        -0.35259777307510376,
        -0.08845089375972748,
        0.014063608832657337,
        0.3176088333129883,
        0.8508307337760925
      ],
      [
        -0.10707570612430573,
        -0.42347028851509094,
        -0.4199085235595703,
        0.7470923662185669,
        -0.2861211895942688,
        0.3527524769306183,
        0.05639832466840744,
        -0.1481311321258545,
        0.25797203183174133,
        0.4663398265838623,
        0.11152926832437515,
        -0.7932684421539307
      ],
      [
        0.6491652131080627,
        0.28494876623153687,
        -0.564677894115448,
        0.27568545937538147,
        -0.10752648115158081,
        0.09682854264974594,
        0.36474618315696716,
        -0.03653139993548393,
        -0.2415432184934616,
        -0.5948341488838196,
        0.16327829658985138,
        -0.034710511565208435
      ],
      [
        -0.4363129734992981,
        -0.12136849761009216,
        -0.26116663217544556,
        1.1102350950241089,
        0.21254561841487885,
        0.18246787786483765,
        0.4697318375110626,
        -0.1260267198085785,
        -0.02484937384724617,
        -0.17569589614868164,
        -0.37884894013404846,
        0.4833126962184906
      ],
      [
        -0.8193283677101135,
        -0.008835664950311184,
        -0.1805872619152069,
        0.9785181879997253,
        -0.5471017956733704,
        0.4568476378917694,
        0.04686247184872627,
        0.030000966042280197,
        0.0612003430724144,
        0.3997107744216919,
        0.24210448563098907,
        0.18514713644981384
      ],
      [
        -0.05109521746635437,
        0.3293694853782654,
        -0.33600398898124695,
        0.2434317171573639,
        -0.08685853332281113,
        0.3829198181629181,
        0.3758182227611542,
        -0.3147931396961212,
        -0.7796869874000549,
        0.7770775556564331,
        -0.3925222158432007,
        0.023144884034991264
      ],
      [
        0.6047140955924988,
        0.39340946078300476,
        -0.8866651654243469,
        -0.04096418619155884,
        0.5607877373695374,
        0.48644301295280457,
        -0.09155065566301346,
        -0.3804297149181366,
        -0.2657439708709717,
        0.5655754804611206,
        -0.1060907319188118,
        0.43728411197662354
      ],
      [
        -0.39546704292297363,
        0.20532064139842987,
        -0.2564978301525116,
        0.782783567905426,
        0.0913308635354042,
        0.4674653112888336,
        -0.20715659856796265,
        -0.7238684296607971,
        -0.603423535823822,
        0.36671683192253113,
        -0.2714422643184662,
        -0.09019336104393005
      ],
      [
        0.09342198073863983,
        0.3189724385738373,
        -0.10634002089500427,
        0.3669956922531128,
        -0.09790267050266266,
        0.7844024300575256,
        0.10056772083044052,
        -0.678295373916626,
        -0.246637225151062,
        -0.168586865067482,
        -0.8038740158081055,
        -0.01915949396789074
      ],
      [
        -0.2820796072483063,
        0.6227006912231445,
        0.022288186475634575,
        0.3622163236141205,
        0.020080361515283585,
        0.12418362498283386,
        0.02643447183072567,
        0.20260094106197357,
        -0.080625019967556,
        0.4181557893753052,
        -0.19582833349704742,
        -0.6410359740257263
      ],
      [
        0.08408750593662262,
        -0.27724725008010864,
        0.055864132940769196,
        0.41276463866233826,
        -0.2238330990076065,
        0.47882625460624695,
        -0.23975135385990143,
        0.24957075715065002,
        0.3821869492530823,
        -0.5628927946090698,
        0.04521869122982025,
        0.28550615906715393
      ],
      [
        0.15215550363063812,
        0.5799798369407654,
        0.2731880247592926,
        0.17052219808101654,
        0.43343082070350647,
        -0.03732006996870041,
        -0.6513401865959167,
        -0.00918547809123993,
        -0.051951877772808075,
        0.10854391753673553,
        0.10689054429531097,
        -0.1113978698849678
      ],
      [
        0.3542728126049042,
        0.3677084743976593,
        -0.1874314844608307,
        0.8019596338272095,
        -0.07514006644487381,
        -0.2543996274471283,
        -0.5764161348342896,
        0.3337864577770233,
        -0.3164302408695221,
        0.2013932317495346,
        -0.26826485991477966,
        -0.6284675002098083
      ],
      [
        -0.3028622567653656,
        0.13597296178340912,
        -0.017271805554628372,
        0.42824727296829224,
        0.09694606810808182,
        0.36041566729545593,
        0.6058982610702515,
        -0.03837696462869644,
        -0.24444523453712463,
        -0.5175929665565491,
        -0.7209872007369995,
        -0.1709223985671997
      ],
      [
        0.4593963325023651,
        0.26948028802871704,
        0.20119009912014008,
        0.8438668847084045,
        -0.5299037098884583,
        -0.17987845838069916,
        -0.3369237780570984,
        -0.4386296272277832,
        -0.22598186135292053,
        0.44991499185562134,
        -0.10809578746557236,
        0.06826642900705338
      ],
      [
        0.02945988066494465,
        -0.15208680927753448,
        0.18972811102867126,
        0.3064952492713928,
        0.3956604599952698,
        0.14408458769321442,
        -0.06641967594623566,
        -0.38830140233039856,
        -0.1976042091846466,
        -0.5409224033355713,
        0.27606460452079773,
        0.13006339967250824
      ],
      [
        -0.2596862018108368,
        -0.5498129725456238,
        0.18185484409332275,
        0.3048604130744934,
        0.5249770283699036,
        0.42832422256469727,
        0.08743782341480255,
        -0.39525774121284485,
        0.008613720536231995,
        -0.06351032108068466,
        -0.14923810958862305,
        0.3883851170539856
      ],
      [
        -0.2958647608757019,
        0.5181400179862976,
        -0.26514115929603577,
        -0.036624662578105927,
        0.605446457862854,
        0.8079455494880676,
        -0.13681399822235107,
        -0.5720058679580688,
        -0.49389591813087463,
        -0.10894676297903061,
        -0.16571827232837677,
        -0.054398342967033386
      ],
      [
        0.36681419610977173,
        0.38264113664627075,
        -0.12732958793640137,
        0.5080581307411194,
        -0.3051510751247406,
        0.45609429478645325,
        -0.37415415048599243,
        0.37735944986343384,
        -0.2752314507961273,
        -0.3499493896961212,
        -0.4488855302333832,
        0.5201624035835266
      ],
      [
        0.38351932168006897,
        -0.5080626010894775,
        0.1566869467496872,
        0.7533990144729614,
        0.8465442061424255,
        0.26678985357284546,
        -0.528556227684021,
        -0.4819396734237671,
        -0.20013287663459778,
        -0.05922085791826248,
        -0.20753304660320282,
        -0.28922227025032043
      ],
      [
        -0.5514577627182007,
        -0.1990348994731903,
        0.15819048881530762,
        0.6049424409866333,
        0.14654017984867096,
        0.7910929322242737,
        -0.0394657626748085,
        0.13287216424942017,
        -0.015059181489050388,
        -0.033903609961271286,
        -0.6529056429862976,
        0.12718892097473145
      ],
      [
        -0.21145540475845337,
        0.3812960386276245,
        0.11363718658685684,
        1.0000094175338745,
        -0.4625067114830017,
        -0.12186148017644882,
        0.412295401096344,
        -0.38773781061172485,
        -0.10324310511350632,
        -0.5065646767616272,
        -0.33085644245147705,
        0.4678797721862793
      ],
      [
        0.48653653264045715,
        0.34886857867240906,
        -0.13341698050498962,
        0.27743515372276306,
        0.26078304648399353,
        -0.44956716895103455,
        -0.5040513277053833,
        0.355228453874588,
        -0.663227379322052,
        0.31231215596199036,
        -0.5371617674827576,
        0.5709041357040405
      ],
      [
        0.5527379512786865,
        0.25602012872695923,
        -0.3726978003978729,
        0.17331112921237946,
        0.5056805610656738,
        0.274836003780365,
        -0.5827561020851135,
        -0.36453473567962646,
        -0.1394026279449463,
        -0.413577675819397,
        -0.20605704188346863,
        0.3896574079990387
      ],
      [
        0.6050935387611389,
        -0.4876091480255127,
        -0.5595733523368835,
        0.2806248366832733,
        -0.30030739307403564,
        0.4258442521095276,
        -0.16493548452854156,
        -0.06498399376869202,
        0.16419465839862823,
        -0.12756164371967316,
        -0.01281218696385622,
        0.49312490224838257
      ],
      [
        0.21577562391757965,
        -0.5247395634651184,
        0.08588729798793793,
        0.366395503282547,
        0.29455116391181946,
        0.7215912938117981,
        -0.5110332369804382,
        -0.14884784817695618,
        -0.5515634417533875,
        0.6009698510169983,
        0.0427168644964695,
        0.01005782000720501
      ],
      [
        0.05792659893631935,
        0.18478523194789886,
        0.6530434489250183,
        0.009744195267558098,
        -0.04140383005142212,
        0.1755213439464569,
        -0.621953547000885,
        0.4569815695285797,
        0.37625396251678467,
        -0.04431072250008583,
        -0.2008267194032669,
        0.27130940556526184
      ],
      [
        0.706063449382782,
        -0.05904412642121315,
        -0.13584460318088531,
        0.7231729030609131,
        0.48287999629974365,
        -0.24638426303863525,
        0.2838907837867737,
        -0.5254876613616943,
        -0.3996593952178955,
        -0.33190760016441345,
        0.03189803287386894,
        -0.4875086843967438
      ],
      [
        0.7225781083106995,
        -0.43282726407051086,
        0.04242744296789169,
        0.3387550413608551,
        0.6217161417007446,
        0.23179756104946136,
        -0.05649704858660698,
        -0.49240919947624207,
        -0.260455846786499,
        0.02977994829416275,
        0.1319124549627304,
        -0.10715992748737335
      ],
      [
        0.08190213888883591,
        0.1912606805562973,
        0.21438588201999664,
        0.5245750546455383,
        -0.012880614958703518,
        -0.4850890636444092,
        0.09809628129005432,
        -0.09126248210668564,
        -0.5339595675468445,
        0.24007190763950348,
        -0.060073915868997574,
        -0.36904582381248474
      ],
      [
        0.20247498154640198,
        0.7097550630569458,
        -0.5436902642250061,
        0.21520602703094482,
        -0.7575600743293762,
        0.09854273498058319,
        0.008128740824759007,
        0.007118702866137028,
        -0.2634493112564087,
        0.07054238021373749,
        0.00397288566455245,
        0.2162255048751831
      ],
      [
        0.13759136199951172,
        -0.17371714115142822,
        -0.6477988362312317,
        0.060854602605104446,
        0.5346631407737732,
        0.07314936071634293,
        -0.18869464099407196,
        -0.7073715329170227,
        0.31513041257858276,
        0.6212217211723328,
        -0.19005651772022247,
        0.0186053067445755
      ],
      [
        0.5256335139274597,
        -0.2230599969625473,
        -0.25656482577323914,
        0.5195125341415405,
        -0.29772859811782837,
        -0.389273464679718,
        0.04431432858109474,
        -0.20307180285453796,
        -0.5361418128013611,
        0.12210656702518463,
        0.4522571265697479,
        0.08464966714382172
      ],
      [
        -0.34275349974632263,
        -0.5227536559104919,
        0.04466591775417328,
        0.4047096371650696,
        0.5949326753616333,
        0.5426269769668579,
        -0.22464828193187714,
        0.11562718451023102,
        -0.44397714734077454,
        0.08441689610481262,
        0.4764403700828552,
        -0.15254609286785126
      ],
      [
        0.0006800001719966531,
        -0.09866749495267868,
        0.5018332600593567,
        0.4462268352508545,
        -0.5772937536239624,
        0.5584178566932678,
        -0.18433557450771332,
        0.06189047545194626,
        -0.3511655628681183,
        0.18828542530536652,
        -0.3829735815525055,
        -0.2547069787979126
      ],
      [
        -0.1057678759098053,
        0.16543437540531158,
        0.28620612621307373,
        0.35068342089653015,
        -0.11988501250743866,
        -0.2295493483543396,
        0.463117390871048,
        0.6498382091522217,
        -0.08981850743293762,
        0.22559122741222382,
        -0.6681987047195435,
        -0.4117106795310974
      ],
      [
        0.9149793386459351,
        -0.3733340799808502,
        -0.05198284611105919,
        0.7870532870292664,
        0.08357170224189758,
        -0.07392663508653641,
        -0.1483938992023468,
        -0.05936077609658241,
        -0.2433333843946457,
        -0.21297580003738403,
        -0.16819937527179718,
        -0.5042181015014648
      ],
      [
        -0.37745335698127747,
        0.04407953843474388,
        0.18764302134513855,
        -0.035332318395376205,
        0.121208056807518,
        -0.07374106347560883,
        0.20990656316280365,
        0.24976171553134918,
        0.20070871710777283,
        -0.40451663732528687,
        0.04314836114645004,
        0.19964708387851715
      ],
      [
        0.36087408661842346,
        0.11721934378147125,
        -0.08583478629589081,
        -0.03614232316613197,
        -0.10557421296834946,
        0.6741107106208801,
        -0.44804614782333374,
        0.19247812032699585,
        0.09495823085308075,
        0.07409331947565079,
        -0.037020616233348846,
        -0.6025426983833313
      ],
      [
        0.0018830997869372368,
        -0.15770724415779114,
        0.38952890038490295,
        0.04543471336364746,
        0.06410188972949982,
        -0.0933433398604393,
        -0.12183228880167007,
        0.8387436270713806,
        -0.4325667917728424,
        0.4152694642543793,
        -0.22289936244487762,
        -0.10427173972129822
      ],
      [
        0.044090721756219864,
        0.43034839630126953,
        -0.5540033578872681,
        0.564289391040802,
        0.14368633925914764,
        -0.11879394948482513,
        0.1943240463733673,
        0.10899358242750168,
        0.2271037995815277,
        -0.25911498069763184,
        -0.19443511962890625,
        -0.3406980633735657
      ],
      [
        -0.2591775059700012,
        0.2745780944824219,
        -0.08684982359409332,
        0.07997792959213257,
        -0.15590637922286987,
        0.5593585968017578,
        -0.26494476199150085,
        -0.120821014046669,
        -0.31170961260795593,
        0.4915105998516083,
        0.41950899362564087,
        -0.012015472166240215
      ],
      [
        -0.08674877882003784,
        -0.48547735810279846,
        0.049343571066856384,
        -0.1463390290737152,
        0.2718363106250763,
        0.6527500748634338,
        0.07384432852268219,
        0.2754608988761902,
        0.4599493145942688,
        -0.12555235624313354,
        0.19286873936653137,
        0.12467654049396515
      ],
      [
        -0.2986924350261688,
        0.6478959918022156,
        -0.200474813580513,
        0.5657492876052856,
        -0.019655073061585426,
        -0.24490545690059662,
        -0.34411075711250305,
        0.2632844150066376,
        -0.456391304731369,
        -0.347388356924057,
        -0.02736242301762104,
        0.3012405335903168
      ],
      [
        -0.2439769059419632,
        0.4434952437877655,
        -0.7609591484069824,
        0.5073597431182861,
        -0.04425349459052086,
        0.599872887134552,
        0.4341345727443695,
        0.07174542546272278,
        -0.8413263559341431,
        0.15260663628578186,
        0.2218281626701355,
        -0.19614601135253906
      ],
      [
        0.5490373373031616,
        -0.18494632840156555,
        -0.5004741549491882,
        0.24400338530540466,
        0.5790534615516663,
        -0.04261510819196701,
        0.5777737498283386,
        0.03170277178287506,
        0.048730116337537766,
        -0.2876836359500885,
        -0.687184751033783,
        0.13354334235191345
      ]
    ],
    "ff.lin1.bias": [
      -0.49369674921035767,
      -0.740594208240509,
      -0.7706486582756042,
      -0.4043480455875397,
      -0.5043147802352905,
      -0.3963877260684967,
      -0.6037577390670776,
      -0.39107632637023926,
      -0.5644792318344116,
      -0.29918172955513,
      -0.4791140556335449,
      -0.3513835072517395,
      -0.340795636177063,
      -0.7817823886871338,
      -0.2597762942314148,
      -0.20625580847263336,
      -0.46070632338523865,
      -0.18957966566085815,
      -0.2591046988964081,
      -0.4032139182090759,
      -0.33145788311958313,
      -0.6821365356445312,
      -0.5731447339057922,
      -0.74296635389328,
      -0.5743908286094666,
      -0.4980372190475464,
      -0.4051118791103363,
      -0.47887226939201355,
      -1.1988811492919922,
      -0.664549708366394,
      -0.5580103397369385,
      -0.039399079978466034,
      -0.6608063578605652,
      -0.6248090267181396,
      -0.46489059925079346,
      -0.5785354375839233,
      -0.459732323884964,
      -0.7233917117118835,
      -0.385100394487381,
      -0.7658101320266724,
      -0.24782893061637878,
      -0.7759639024734497,
      -0.6023761034011841,
      -0.46751028299331665,
      -0.6478670239448547,
      -0.35393086075782776,
      -0.28049659729003906,
      -0.4147665202617645
    ],
    "ff.lin2.weight": [
      [
        -0.24252915382385254,
        -0.3084850609302521,
        -0.45967474579811096,
        -0.14532780647277832,
        -0.25173571705818176,
        -0.22258910536766052,
        0.47750404477119446,
        -0.10259605199098587,
        0.32955655455589294,
        0.31820985674858093,
        -0.16492541134357452,
        -0.10825692862272263,
        0.23581624031066895,
        0.059588514268398285,
        0.6663200259208679,
        -0.307431697845459,
        0.09126593172550201,
        -0.19350378215312958,
        -0.04479413107037544,
        -0.17089256644248962,
        -0.058809731155633926,
        -0.3189166784286499,
        -0.10980132967233658,
        -0.05287829414010048,
        -0.1009492501616478,
        0.2383808195590973,
        0.07895577698945999,
        0.12032239884138107,
        -0.012994427233934402,
        -0.4583341181278229,
        -0.1229938343167305,
        0.06288061290979385,
        0.1769704818725586,
        0.17395691573619843,
        0.22133947908878326,
        0.019121984019875526,
        -0.3055374026298523,
        -0.2391958087682724,
        -0.1550547033548355,
        0.027703193947672844,
        -0.12415043264627457,
        -0.26644688844680786,
        0.0755678340792656,
        -0.23223811388015747,
        -0.20142504572868347,
        0.003515512216836214,
        0.6081482172012329,
        0.050439801067113876
      ],
      [
        -0.23371967673301697,
        0.21542905271053314,
        -0.27119767665863037,
        -0.16552138328552246,
        0.17898501455783844,
        -0.28274011611938477,
        -0.17181089520454407,
        0.5371615886688232,
        -0.3369394540786743,
        -0.17355921864509583,
        -0.14208976924419403,
        -0.10398606956005096,
        -0.38654106855392456,
        0.5359495282173157,
        -0.2907615303993225,
        -0.41274720430374146,
        0.1743343323469162,
        -0.012822022661566734,
        -0.07228857278823853,
        -0.43921539187431335,
        0.2038169652223587,
        0.579712986946106,
        0.1141878217458725,
        -0.3356949985027313,
        -0.17176994681358337,
        0.44418996572494507,
        -0.12942570447921753,
        -0.16063056886196136,
        -0.1359727680683136,
        0.40520530939102173,
        -0.19733849167823792,
        0.005099469795823097,
        -0.2545660734176636,
        -0.09950866550207138,
        0.3003460168838501,
        -0.4897289276123047,
        0.027482895180583,
        -0.373522013425827,
        -0.70418381690979,
        0.20435968041419983,
        -0.17062801122665405,
        -0.1781732141971588,
        -0.2594039738178253,
        0.07810628414154053,
        -0.14654546976089478,
        0.41291937232017517,
        0.11183468252420425,
        -0.38811931014060974
      ],
      [
        -0.1876077950000763,
        0.17124584317207336,
        0.27628403902053833,
        -0.07674901932477951,
        0.06065007299184799,
        -0.2397800087928772,
        0.20987582206726074,
        -0.2578350603580475,
        -0.07150130718946457,
        -0.07809563726186752,
        0.08934257179498672,
        0.08658181875944138,
        -0.1403999626636505,
        -0.24928373098373413,
        -0.008786710910499096,
        -0.20202940702438354,
        0.1857944279909134,
        -0.045881230384111404,
        0.10703571140766144,
        -0.40951916575431824,
        0.032548557966947556,
        0.10138329863548279,
        -0.36052796244621277,
        0.23531563580036163,
        -0.1969650834798813,
        0.539680004119873,
        0.02162538841366768,
        0.27958372235298157,
        0.01176163088530302,
        0.29374220967292786,
        0.20163114368915558,
        0.10768087953329086,
        -0.1350296437740326,
        0.5081508755683899,
        -0.41802120208740234,
        0.28583255410194397,
        -0.15990369021892548,
        -0.256828248500824,
        0.40642645955085754,
        -0.148713156580925,
        0.1047624722123146,
        0.18927471339702606,
        -0.12984319031238556,
        -0.025209739804267883,
        -0.06523069739341736,
        -0.08741938322782516,
        0.012460586614906788,
        0.06600112468004227
      ],
      [
        -0.0869530662894249,
        0.23890133202075958,
        0.2781256437301636,
        0.06353424489498138,
        -0.0969870537519455,
        -0.2781900465488434,
        -0.03997286036610603,
        -0.2462351769208908,
        0.033067405223846436,
        -0.060524508357048035,
        0.4315564036369324,
        -0.02574656717479229,
        0.3265659511089325,
        0.047828078269958496,
        0.44063079357147217,
        0.07057804614305496,
        0.22832535207271576,
        0.2962532043457031,
        -0.4110318720340729,
        -0.03988783806562424,
        -0.1130928322672844,
        0.32700321078300476,
        -0.012268410064280033,
        -0.3212502598762512,
        0.32006269693374634,
        -0.6860694885253906,
        0.3556199073791504,
        0.13365676999092102,
        -0.3757760524749756,
        -0.4432426691055298,
        -0.10917187482118607,
        -0.12331022322177887,
        -0.024620411917567253,
        0.23708444833755493,
        -0.35340598225593567,
        0.24594318866729736,
        0.05955345556139946,
        -0.1326509267091751,
        -0.3900042772293091,
        0.04389871656894684,
        0.2913564145565033,
        -0.03564899414777756,
        -0.08815740793943405,
        0.2398451715707779,
        -0.33274340629577637,
        0.2683439254760742,
        0.056447889655828476,
        0.6075735092163086
      ],
      [
        -0.20043601095676422,
        -0.1965537667274475,
