{
  "block_0": {
    "att.W_query.weight": [
      [
        -0.518142580986023,
        -0.01066205557435751,
        -0.5152323246002197,
        -0.26587581634521484,
        -0.22100584208965302,
        0.02179424837231636,
        1.096433401107788,
        0.687199592590332,
        -0.07742396742105484,
        -0.1516444832086563,
        0.22019708156585693,
        -0.13154703378677368
      ],
      [
        -0.6300732493400574,
        -0.2658747136592865,
        0.06058280169963837,
        -0.4936103820800781,
        0.08248961716890335,
        0.11658229678869247,
        0.8307991027832031,
        -0.31927716732025146,
        0.6170392036437988,
        -0.16991367936134338,
        0.08018980920314789,
        -0.5150666832923889
      ],
      [
        0.33814090490341187,
        0.20065361261367798,
        -0.4044787585735321,
        0.2742935121059418,
        0.36631521582603455,
        0.3968963027000427,
        0.034832485020160675,
        -0.039764244109392166,
        -0.04547327011823654,
        0.8205418586730957,
        0.12560778856277466,
        -0.5485184192657471
      ],
      [
        -0.2676970660686493,
        0.8584107756614685,
        -0.1882859766483307,
        0.66518235206604,
        0.023454202339053154,
        0.5961923003196716,
        0.133323535323143,
        0.0761745497584343,
        0.36543989181518555,
        0.23761962354183197,
        0.11481691151857376,
        -0.04451513662934303
      ],
      [
        0.20958960056304932,
        -0.015496868640184402,
        -0.049224670976400375,
        -0.9844278693199158,
        0.08181042224168777,
        -0.17338834702968597,
        -0.010772045701742172,
        -0.5732197165489197,
        -0.14977627992630005,
        0.6296784281730652,
        -0.28289228677749634,
        -0.09410323947668076
      ],
      [
        -0.34888365864753723,
        -0.37248432636260986,
        0.17717723548412323,
        -0.0038104578852653503,
        0.2876429855823517,
        0.5815454125404358,
        -0.9089149832725525,
        0.7491872906684875,
        0.13700130581855774,
        -0.3859122097492218,
        -0.33867231011390686,
        0.09048490226268768
      ],
      [
        -0.05261916294693947,
        0.05221785604953766,
        0.36117565631866455,
        0.3951270282268524,
        -0.14092160761356354,
        0.178707554936409,
        -0.5832672119140625,
        0.46758833527565,
        0.3241347372531891,
        -0.20162807404994965,
        -0.0406891293823719,
        0.22342415153980255
      ],
      [
        -0.003727607661858201,
        0.2352430820465088,
        -0.2503471076488495,
        0.09014029800891876,
        -0.8836079835891724,
        -0.36029374599456787,
        0.7208753824234009,
        0.3478940427303314,
        -0.05759453773498535,
        -0.3103207051753998,
        0.32087379693984985,
        0.3516351878643036
      ],
      [
        0.37515828013420105,
        0.9169938564300537,
        0.15119166672229767,
        -0.20773905515670776,
        -0.45866692066192627,
        -0.33095231652259827,
        -0.3229078948497772,
        -0.31055721640586853,
        0.40989840030670166,
        0.21701598167419434,
        -0.0910649448633194,
        -0.15355347096920013
      ],
      [
        0.01374464388936758,
        -0.35259896516799927,
        0.2451028972864151,
        0.16368688642978668,
        -0.3601739704608917,
        0.47249025106430054,
        -0.23090198636054993,
        -0.33592578768730164,
        -0.11062338203191757,
        -0.1698630303144455,
        0.7018910646438599,
        0.15588216483592987
      ],
      [
        -0.06612509489059448,
        -0.0023876468185335398,
        -0.035110484808683395,
        -0.17900238931179047,
        0.06793143600225449,
        0.23161280155181885,
        0.1673351675271988,
        0.5512199401855469,
        -0.2562854290008545,
        0.9755570888519287,
        0.0459115207195282,
        -0.551811933517456
      ],
      [
        0.1611669808626175,
        0.22812937200069427,
        -0.005870302207767963,
        -0.3803338408470154,
        0.47219154238700867,
        -0.5141749978065491,
        -0.2051246464252472,
        -0.1943259984254837,
        -0.42105722427368164,
        0.20942293107509613,
        0.3691042363643646,
        0.17866404354572296
      ]
    ],
    "att.W_query.bias": null,
    "att.W_key.weight": [
      [
        -0.337447851896286,
        0.5940406322479248,
        -0.4103204011917114,
        -0.04792650789022446,
        0.48595887422561646,
        0.6576159000396729,
        -0.26762616634368896,
        0.4188247621059418,
        0.5968957543373108,
        -0.21101778745651245,
        -0.6976492404937744,
        0.01778344064950943
      ],
      [
        0.7397154569625854,
        0.15540289878845215,
        -0.6122920513153076,
        -0.14194068312644958,
        -0.4555930197238922,
        0.463000625371933,
        -0.25045186281204224,
        0.4101583659648895,
        0.48659548163414,
        -0.3207761347293854,
        -0.18461284041404724,
        0.24674342572689056
      ],
      [
        0.2505117356777191,
        0.2093556523323059,
        0.11640262603759766,
        -0.7235029935836792,
        0.22485700249671936,
        -0.810459554195404,
        -0.19763867557048798,
        -0.3867722153663635,
        0.40927135944366455,
        0.3913394510746002,
        0.1617891490459442,
        0.3588000237941742
      ],
      [
        -0.07452630251646042,
        0.014358879998326302,
        0.1499614715576172,
        0.01464287843555212,
        0.18864475190639496,
        -0.45469778776168823,
        -0.45438072085380554,
        -0.37130385637283325,
        -0.10687272995710373,
        0.17871610820293427,
        -0.6328805685043335,
        0.7721731066703796
      ],
      [
        0.2778107523918152,
        -0.40570884943008423,
        -0.392051637172699,
        -0.1816568523645401,
        -0.35056430101394653,
        -0.32973483204841614,
        0.2778225839138031,
        0.5391759872436523,
        0.45998531579971313,
        0.19621415436267853,
        0.7749910354614258,
        -0.16773666441440582
      ],
      [
        -0.5276286005973816,
        0.13788841664791107,
        0.7381677627563477,
        0.28745701909065247,
        -0.4035482406616211,
        0.2377132773399353,
        0.11292346566915512,
        -0.8019160628318787,
        0.5197319388389587,
        -0.15587835013866425,
        -0.16095295548439026,
        0.37198638916015625
      ],
      [
        -0.1546667218208313,
        0.21609751880168915,
        -0.4446468949317932,
        0.13714739680290222,
        0.37180691957473755,
        0.06477637588977814,
        -0.21045279502868652,
        0.13206595182418823,
        -0.21397005021572113,
        0.14136888086795807,
        0.8232325911521912,
        -0.022162819281220436
      ],
      [
        0.41268521547317505,
        -0.5339710712432861,
        0.02750864066183567,
        0.7412998080253601,
        -0.32110998034477234,
        0.11563915014266968,
        -0.18016336858272552,
        -0.6904894709587097,
        0.13340620696544647,
        0.3995387852191925,
        -0.10793684422969818,
        0.1484244167804718
      ],
      [
        -0.5662182569503784,
        -0.04439805820584297,
        0.004135542549192905,
        0.38282427191734314,
        -0.09010014683008194,
        0.1251727044582367,
        -0.18740804493427277,
        -0.03234058991074562,
        0.7720206379890442,
        -0.6517086625099182,
        0.14755231142044067,
        -0.12321140617132187
      ],
      [
        -0.48930972814559937,
        0.4256494641304016,
        0.14637508988380432,
        0.04087742418050766,
        -0.05952795594930649,
        -0.14101675152778625,
        -0.010090266354382038,
        -0.6004617214202881,
        -0.48941561579704285,
        0.21489489078521729,
        0.4387272596359253,
        -0.2401464730501175
      ],
      [
        0.32395827770233154,
        -0.05483986809849739,
        0.3804176449775696,
        -0.33403560519218445,
        0.21954675018787384,
        -0.2009650021791458,
        0.15413065254688263,
        0.04463706165552139,
        -0.4700717628002167,
        -0.6389448642730713,
        -0.15417160093784332,
        0.6555824875831604
      ],
      [
        0.2795558273792267,
        0.13295204937458038,
        0.09521354734897614,
        -0.40150779485702515,
        -0.4428694248199463,
        0.12018214166164398,
        0.3609161376953125,
        0.011729787103831768,
        0.5307482481002808,
        -0.5809937119483948,
        -0.024626564234495163,
        -0.36688509583473206
      ]
    ],
    "att.W_key.bias": null,
    "att.W_value.weight": [
      [
        0.27349209785461426,
        -0.5431897044181824,
        0.1433710753917694,
        -0.08862192928791046,
        0.15298698842525482,
        -0.3531687259674072,
        0.014324494637548923,
        0.3180699944496155,
        0.4561280310153961,
        0.18838512897491455,
        -0.4997468888759613,
        0.3371593952178955
      ],
      [
        0.23493516445159912,
        0.26995378732681274,
        0.2607839107513428,
        0.033577341586351395,
        0.6616128087043762,
        -0.3029455244541168,
        -0.025923529639840126,
        0.13231080770492554,
        0.00667462358251214,
        -0.34172043204307556,
        -0.1169523149728775,
        -0.2122524231672287
      ],
      [
        -0.03298313170671463,
        -0.31593239307403564,
        0.22589507699012756,
        -0.2703391909599304,
        0.373271107673645,
        0.25471237301826477,
        -0.5466620922088623,
        0.4543722867965698,
        -0.34497326612472534,
        0.04107996076345444,
        0.2866895794868469,
        -0.1712346076965332
      ],
      [
        0.008657492697238922,
        -0.34936442971229553,
        0.4784471392631531,
        0.3240564465522766,
        -0.0007561633829027414,
        -0.18734849989414215,
        0.32239097356796265,
        -0.36557725071907043,
        0.041785068809986115,
        -0.27019524574279785,
        0.18445941805839539,
        -0.10859768837690353
      ],
      [
        0.44159460067749023,
        0.09377545118331909,
        -0.18021400272846222,
        0.1635192185640335,
        0.15244272351264954,
        0.24950242042541504,
        -0.07360765337944031,
        0.08104686439037323,
        -0.494153767824173,
        -0.3188941478729248,
        -0.06312015652656555,
        0.21345070004463196
      ],
      [
        -0.5775724649429321,
        0.04633280634880066,
        -0.5076323747634888,
        0.19209687411785126,
        -0.0056045823730528355,
        -0.2244427651166916,
        -0.20747604966163635,
        0.13093991577625275,
        0.16899386048316956,
        -0.18689478933811188,
        0.38194358348846436,
        0.3537234961986542
      ],
      [
        -0.4154190123081207,
        -0.18858462572097778,
        0.46096205711364746,
        -0.35756492614746094,
        0.6230619549751282,
        0.3168789744377136,
        -0.3370019793510437,
        -0.11274144798517227,
        0.47853541374206543,
        0.3591919243335724,
        -0.07616756856441498,
        -0.16743285953998566
      ],
      [
        0.13414958119392395,
        0.24992559850215912,
        -0.54386305809021,
        -0.33508622646331787,
        0.046139322221279144,
        0.79632568359375,
        -0.11916093528270721,
        0.04588286578655243,
        0.07002133876085281,
        -0.04059278964996338,
        -0.05680903047323227,
        0.2460300773382187
      ],
      [
        0.2884524166584015,
        0.15726876258850098,
        0.030375104397535324,
        -0.6498520374298096,
        0.03749224916100502,
        -0.22447219491004944,
        0.20004436373710632,
        -0.07316944003105164,
        0.07323415577411652,
        -0.01592884212732315,
        0.23594912886619568,
        -0.4788908064365387
      ],
      [
        -0.017447877675294876,
        0.13585317134857178,
        0.13505364954471588,
        -0.19004717469215393,
        0.6647459864616394,
        -0.07540902495384216,
        -0.1392534226179123,
        -0.39860671758651733,
        0.2823464274406433,
        -0.14458872377872467,
        0.3914445638656616,
        0.20848846435546875
      ],
      [
        0.31250059604644775,
        -0.20832334458827972,
        -0.04142951965332031,
        0.20376381278038025,
        0.4893070459365845,
        0.419199675321579,
        0.20124822854995728,
        -0.3865721523761749,
        -0.4105722904205322,
        -0.07775873690843582,
        -0.17756466567516327,
        0.1787606030702591
      ],
      [
        0.35701125860214233,
        0.4873146116733551,
        0.35048651695251465,
        -0.11810638755559921,
        0.04088522493839264,
        0.3561449348926544,
        0.15068547427654266,
        -0.3646179437637329,
        -0.1392388790845871,
        -0.2867046892642975,
        -0.2799713611602783,
        -0.7034090161323547
      ]
    ],
    "att.W_value.bias": null,
    "att.out_proj.weight": [
      [
        0.17070087790489197,
        0.4136330187320709,
        -0.044362906366586685,
        0.10472246259450912,
        0.4932180941104889,
        -0.38811570405960083,
        0.053601425141096115,
        0.31435897946357727,
        0.3299359381198883,
        0.2816512882709503,
        -0.3527493178844452,
        0.10194429010152817
      ],
      [
        -0.11638783663511276,
        -0.21373222768306732,
        -0.28308868408203125,
        -0.45041874051094055,
        -0.07906287163496017,
        -0.09868568181991577,
        -0.19853904843330383,
        -0.17139080166816711,
        0.44570547342300415,
        -0.24467265605926514,
        -0.29162612557411194,
        -0.1946810930967331
      ],
      [
        0.5960586071014404,
        -0.07129566371440887,
        -0.0999130979180336,
        -0.305962473154068,
        -0.20916269719600677,
        0.2951289117336273,
        0.11572220176458359,
        0.045404523611068726,
        0.2492571920156479,
        0.17554448544979095,
        0.37613165378570557,
        0.609725296497345
      ],
      [
        0.30428019165992737,
        0.1964087337255478,
        -0.29032883048057556,
        0.4281860888004303,
        -0.1171715185046196,
        -0.09326574951410294,
        -0.07847871631383896,
        -0.6893062591552734,
        -0.14449037611484528,
        0.3622395992279053,
        0.22042925655841827,
        -0.27961647510528564
      ],
      [
        0.0892244279384613,
        -0.016955506056547165,
        -0.34514501690864563,
        0.22555185854434967,
        -0.03397095575928688,
        0.019082069396972656,
        -0.38417133688926697,
        0.3442675769329071,
        -0.30359163880348206,
        0.06443841010332108,
        0.4729877710342407,
        -0.13569201529026031
      ],
      [
        -0.4556519389152527,
        0.1619352400302887,
        0.029000937938690186,
        -0.13504284620285034,
        -0.02441944181919098,
        0.028331510722637177,
        -0.366388201713562,
        -0.07173190265893936,
        0.03687552362680435,
        -0.06584174185991287,
        -0.11997057497501373,
        0.513938307762146
      ],
      [
        0.43179696798324585,
        0.30607691407203674,
        0.7094701528549194,
        -0.0733058750629425,
        -0.3696573078632355,
        -0.23093187808990479,
        -0.17160528898239136,
        0.3649276793003082,
        -0.15224744379520416,
        -0.6685311198234558,
        -0.11759887635707855,
        0.255924254655838
      ],
      [
        -0.3596945106983185,
        -0.5838355422019958,
        0.17413778603076935,
        0.17073459923267365,
        0.07100872695446014,
        0.0634651929140091,
        0.2583611011505127,
        0.28876909613609314,
        -0.24422375857830048,
        0.19210927188396454,
        -0.20767414569854736,
        -0.2876843214035034
      ],
      [
        -0.2138524204492569,
        0.10266244411468506,
        0.29754915833473206,
        -0.154460147023201,
        0.421957403421402,
        0.27699652314186096,
        0.27069899439811707,
        0.22693370282649994,
        -0.06809960305690765,
        0.13656510412693024,
        0.05755521357059479,
        -0.5977661609649658
      ],
      [
        -0.314312607049942,
        0.14601556956768036,
        -0.11808694899082184,
        0.42775556445121765,
        -0.26667043566703796,
        0.12024077028036118,
        0.5560819506645203,
        -0.44869017601013184,
        -0.048310354351997375,
        0.011471445672214031,
        -0.07179807871580124,
        0.0730779618024826
      ],
      [
        -0.05375383794307709,
        -0.3447708487510681,
        0.2284831553697586,
        -0.22850961983203888,
        -0.10724378377199173,
        -0.6738964319229126,
        0.5258027911186218,
        -0.033368438482284546,
        0.046797510236501694,
        -0.005759681109338999,
        -0.12908411026000977,
        0.30570200085639954
      ],
      [
        -0.028459887951612473,
        -0.07718811929225922,
        0.005816131364554167,
        0.049826204776763916,
        0.06671929359436035,
        0.3788745701313019,
        -0.3562323749065399,
        -0.3414545953273773,
        -0.3491213619709015,
        -0.42438095808029175,
        -0.2704507112503052,
        -0.22872282564640045
      ]
    ],
    "att.out_proj.bias": [
      -0.06329347938299179,
      -0.008176278322935104,
      -0.027722090482711792,
      0.03041314333677292,
      0.03377250209450722,
      -0.010018338449299335,
      -0.10045821964740753,
      0.0299835242331028,
      0.09172152727842331,
      -0.07076717913150787,
      0.012728498317301273,
      0.15503790974617004
    ],
    "norm1.scale": [
      0.8499434590339661,
      0.5643830895423889,
      0.7539030313491821,
      0.8870291709899902,
      0.9257817268371582,
      0.9304434657096863,
      0.7819010615348816,
      1.025201439857483,
      0.9376958608627319,
      0.8536268472671509,
      0.7286317944526672,
      0.7381633520126343
    ],
    "norm1.shift": [
      -0.13274620473384857,
      -0.18505246937274933,
      0.16307395696640015,
      -0.23875465989112854,
      -0.2286820113658905,
      -0.25416815280914307,
      -0.10016675293445587,
      0.012819090858101845,
      -0.16677051782608032,
      -0.1089993268251419,
      -0.05587639659643173,
      0.08495120704174042
    ],
    "norm2.scale": [
      0.8206665515899658,
      0.9048516750335693,
      0.8801628947257996,
      0.7373814582824707,
      0.8744138479232788,
      1.0436605215072632,
      0.7898080348968506,
      0.7205464839935303,
      0.8780218362808228,
      1.0214931964874268,
      0.9970287680625916,
      0.9482707977294922
    ],
    "norm2.shift": [
      -0.28861892223358154,
      -0.29037240147590637,
      0.3882008492946625,
      0.23946182429790497,
      0.1906949281692505,
      -0.17813687026500702,
      -0.20260559022426605,
      0.13791963458061218,
      -0.020861748605966568,
      -0.00012770743342116475,
      -0.026794882491230965,
      0.2550613284111023
    ],
    "ff.lin1.weight": [
      [
        -0.180799663066864,
        0.27439430356025696,
        -0.3483644723892212,
        -0.013122179545462132,
        -0.3483646512031555,
        -0.2185407280921936,
        -0.4246712327003479,
        0.04988698661327362,
        0.39421308040618896,
        0.2959938943386078,
        0.32123592495918274,
        0.16064782440662384
      ],
      [
        -0.19188924133777618,
        0.07905133068561554,
        -0.21857227385044098,
        0.03966299071907997,
        -0.13314513862133026,
        0.25271445512771606,
        0.8852378129959106,
        -0.6275076270103455,
        0.02385699935257435,
        0.7036937475204468,
        -0.42310822010040283,
        -0.1867961585521698
      ],
      [
        0.22888213396072388,
        0.2346317321062088,
        0.1653262823820114,
        -0.9417237639427185,
        0.03981049358844757,
        0.36818477511405945,
        0.07801225781440735,
        -0.3067706227302551,
        -0.09937568008899689,
        0.2689455449581146,
        0.2903333306312561,
        0.0380728617310524
      ],
      [
        0.21223025023937225,
        0.6008620858192444,
        -0.08413422107696533,
        0.29115453362464905,
        0.042656995356082916,
        0.10672258585691452,
        0.46416106820106506,
        0.16625884175300598,
        -0.5726011991500854,
        -0.6784425377845764,
        -0.3627386689186096,
        0.0037282647099345922
      ],
      [
        -0.838792085647583,
        0.36402589082717896,
        -0.10551947355270386,
        0.16119182109832764,
        -0.27180466055870056,
        0.637017548084259,
        0.24798484146595,
        -0.026877732947468758,
        0.04405265673995018,
        0.413850337266922,
        -0.18978455662727356,
        -0.13488532602787018
      ],
      [
        0.36611202359199524,
        0.09100893884897232,
        -0.049492448568344116,
        0.46889978647232056,
        -0.1264181137084961,
        -0.3826887309551239,
        0.2699955999851227,
        -0.3262566924095154,
        0.10235185921192169,
        -0.16088540852069855,
        -0.22071771323680878,
        0.2638101577758789
      ],
      [
        0.3259469270706177,
        0.2765926420688629,
        0.12073271721601486,
        -0.650687038898468,
        -0.4498870372772217,
        0.3179199993610382,
        0.12982027232646942,
        0.43806615471839905,
        -0.15256564319133759,
        0.4247948229312897,
        -0.17886483669281006,
        -0.6440363526344299
      ],
      [
        0.04085507616400719,
        -0.12666581571102142,
        -0.06817886233329773,
        -0.17444366216659546,
        0.32454976439476013,
        -0.15458454191684723,
        0.02101815491914749,
        -0.18956436216831207,
        0.14511704444885254,
        0.6988800764083862,
        0.04358936473727226,
        -0.6143081188201904
      ],
      [
        0.08307520300149918,
        0.5358160734176636,
        0.4324587881565094,
        -0.3687160611152649,
        -0.6304511427879333,
        0.19101582467556,
        0.6409668922424316,
        0.04907127097249031,
        0.21947816014289856,
        -0.31902074813842773,
        -0.4726077914237976,
        -0.49005845189094543
      ],
      [
        -0.21184700727462769,
        -0.3757457137107849,
        -0.37196773290634155,
        0.5355101823806763,
        0.08529392629861832,
        0.37455275654792786,
        -0.3338164687156677,
        0.3115479350090027,
        -0.09443854540586472,
        0.06270310282707214,
        0.5840507745742798,
        -0.49767565727233887
      ],
      [
        -0.16680194437503815,
        -0.43155503273010254,
        -0.4528956413269043,
        0.25166258215904236,
        0.028179289773106575,
        0.7042918801307678,
        0.31378665566444397,
        -0.2277306765317917,
        0.703404426574707,
        0.25724929571151733,
        -0.5888491868972778,
        -0.5675952434539795
      ],
      [
        0.2309701293706894,
        -0.3639537990093231,
        0.05521552637219429,
        -0.1880490481853485,
        -0.24598026275634766,
        -0.29985326528549194,
        -0.2518589198589325,
        -0.006730445194989443,
        0.03376007825136185,
        -0.06174285709857941,
        0.4969038665294647,
        0.24721135199069977
      ],
      [
        0.1940152943134308,
        -0.31921643018722534,
        -0.5683504939079285,
        0.04717516899108887,
        -0.5060972571372986,
        0.8364860415458679,
        0.18566009402275085,
        -0.09314137697219849,
        0.27373793721199036,
        0.4694373905658722,
        -0.14510054886341095,
        -0.008451621048152447
      ],
      [
        0.3060910999774933,
        0.4741681218147278,
        -0.1226445883512497,
        -0.3139374256134033,
        -0.24651122093200684,
        0.10147656500339508,
        0.26962220668792725,
        0.27263686060905457,
        0.6606248617172241,
        -0.4012109935283661,
        0.18798419833183289,
        -0.4705007076263428
      ],
      [
        0.31887784600257874,
        -0.10682471096515656,
        -0.33734118938446045,
        0.6846268177032471,
        -0.1661299616098404,
        0.6535524725914001,
        -0.10983564704656601,
        -0.07232654094696045,
        0.23256170749664307,
        -0.009775186888873577,
        -0.40418076515197754,
        -0.7408105731010437
      ],
      [
        -0.24570798873901367,
        -0.11685917526483536,
        -0.5746029615402222,
        0.3679675757884979,
        0.35842210054397583,
        -0.12396752089262009,
        0.8047870993614197,
        -0.0031354855746030807,
        -0.4023609459400177,
        0.21388569474220276,
        0.30359187722206116,
        -0.2554607391357422
      ],
      [
        -0.22890722751617432,
        -0.10286563634872437,
        -0.9063979387283325,
        -0.008909916505217552,
        -0.13575734198093414,
        0.019274724647402763,
        0.0609203465282917,
        0.006851316429674625,
        0.5266634821891785,
        0.7839990854263306,
        -0.02896665409207344,
        -0.1486753672361374
      ],
      [
        -0.369922012090683,
        -0.09829314053058624,
        -0.7357282638549805,
        -0.2848169207572937,
        0.20290620625019073,
        -0.13397100567817688,
        0.8789512515068054,
        0.3306572735309601,
        -0.2927502393722534,
        -0.2423991560935974,
        0.3055373430252075,
        -0.4661552906036377
      ],
      [
        -0.07442766427993774,
        0.3799458146095276,
        0.2600964605808258,
        -0.4498654305934906,
        0.11229964345693588,
        -0.32109466195106506,
        -0.1811145842075348,
        0.2941248416900635,
        -0.23539523780345917,
        0.01892617903649807,
        -0.3546130657196045,
        -0.406530499458313
      ],
      [
        0.41787099838256836,
        0.337668776512146,
        -0.012849856168031693,
        -0.5096551775932312,
        -0.3111756443977356,
        0.22765272855758667,
        0.11228637397289276,
        0.4186449646949768,
        -0.37546923756599426,
        -0.4527968168258667,
        -0.2515796422958374,
        0.09395480155944824
      ],
      [
        -0.087250716984272,
        1.0087370872497559,
        0.041599299758672714,
        -0.13386224210262299,
        0.3234192728996277,
        0.10261638462543488,
        0.06864117085933685,
        -0.04494374990463257,
        -0.2772686183452606,
        -0.00545095419511199,
        0.20236293971538544,
        -0.40760090947151184
      ],
      [
        0.2116657793521881,
        0.446305513381958,
        -0.9446350932121277,
        -0.02151886373758316,
        0.6421279311180115,
        -0.13195449113845825,
        0.19566437602043152,
        -0.0626046359539032,
        0.2680884301662445,
        -0.06883228570222855,
        -0.23706284165382385,
        -0.06479019671678543
      ],
      [
        0.5245783925056458,
        -0.22085018455982208,
        -0.4692862033843994,
        -0.42023760080337524,
        -0.12736865878105164,
        0.5234798192977905,
        0.6613118648529053,
        0.3100786805152893,
        -0.5465987920761108,
        -0.3292059600353241,
        -0.016141939908266068,
        -0.3113228678703308
      ],
      [
        0.45363688468933105,
        -0.11341403424739838,
        -0.4172491133213043,
        -0.2260798215866089,
        0.29890093207359314,
        0.09769318997859955,
        -0.21279753744602203,
        -0.24557916820049286,
        -0.3425305485725403,
        -0.20175237953662872,
        0.4520668089389801,
        0.30062195658683777
      ],
      [
        0.7601727843284607,
        -0.142706960439682,
        -0.3171153962612152,
        -0.2974095344543457,
        0.34620994329452515,
        0.6495415568351746,
        -0.3099178075790405,
        -0.014993593096733093,
        0.024234237149357796,
        -0.11191868782043457,
        -0.06796267628669739,
        -0.06298038363456726
      ],
      [
        -0.250442773103714,
        0.012154823169112206,
        0.10473509132862091,
        -0.5601955652236938,
        0.16317175328731537,
        0.5028472542762756,
        -0.11978581547737122,
        -0.5137195587158203,
        -0.03296441584825516,
        0.4480785131454468,
        0.26803648471832275,
        0.06338971853256226
      ],
      [
        0.23460155725479126,
        -0.0056713782250881195,
        -0.22965595126152039,
        -0.05853446573019028,
        -0.020243478938937187,
        -0.5258324146270752,
        0.10016289353370667,
        0.03035375475883484,
        -0.37291011214256287,
        0.21526798605918884,
        0.334050714969635,
        0.08981224149465561
      ],
      [
        -0.19079966843128204,
        0.6485009789466858,
        -0.1968528777360916,
        -0.3528819680213928,
        -0.18852458894252777,
        -0.016391316428780556,
        0.5891830325126648,
        0.5176416635513306,
        0.13197073340415955,
        0.7467007040977478,
        0.3351801335811615,
        -1.1138356924057007
      ],
      [
        0.4819610118865967,
        -0.3296850919723511,
        -0.3774854838848114,
        -0.31350943446159363,
        -0.008971256203949451,
        -0.2547241747379303,
        0.32788708806037903,
        0.5221203565597534,
        -0.2950249910354614,
        0.32531362771987915,
        0.25572383403778076,
        -0.5310965776443481
      ],
      [
        0.4628011882305145,
        0.2918303906917572,
        -0.02942429669201374,
        -0.1055615097284317,
        -0.2624782621860504,
        0.26719045639038086,
        -0.014552392065525055,
        0.01895160600543022,
        -0.2050544023513794,
        0.38083380460739136,
        -0.872096061706543,
        0.29483354091644287
      ],
      [
        0.36542436480522156,
        0.10828462243080139,
        -0.5166688561439514,
        0.4167232811450958,
        0.2588483691215515,
        -0.3575846254825592,
        -0.4061881899833679,
        0.19209079444408417,
        -0.18107309937477112,
        -0.3425360918045044,
        0.08406458050012589,
        -0.04107818752527237
      ],
      [
        -0.05599281191825867,
        0.1132941022515297,
        0.23744826018810272,
        -0.01831013336777687,
        -0.33359819650650024,
        -0.22106774151325226,
        -0.0349762924015522,
        -0.31390953063964844,
        0.63720703125,
        -0.035246312618255615,
        0.21962320804595947,
        -0.20605626702308655
      ],
      [
        -0.4063618779182434,
        0.27822303771972656,
        -0.21141892671585083,
        0.038907259702682495,
        -0.5049983859062195,
        0.22432705760002136,
        0.27572932839393616,
        0.6443617939949036,
        0.3530074954032898,
        -0.48450732231140137,
        -0.10447949171066284,
        -0.4120241701602936
      ],
      [
        -0.31330353021621704,
        0.29821112751960754,
        -0.16361801326274872,
        -0.28875529766082764,
        -0.30041539669036865,
        0.3328787386417389,
        -0.05267932638525963,
        0.08780165016651154,
        -0.504647970199585,
        -0.0718604177236557,
        0.49252521991729736,
        0.08208372443914413
      ],
      [
        -0.06169666349887848,
        -0.005093476735055447,
        -0.15229907631874084,
        0.12947280704975128,
        0.25326254963874817,
        -0.22926709055900574,
        -0.11936630308628082,
        0.10010804980993271,
        0.3414534628391266,
        -0.5068954825401306,
        0.3996289074420929,
        0.028653116896748543
      ],
      [
        0.23411497473716736,
        0.6093973517417908,
        -0.00959715060889721,
        0.3529912531375885,
        0.16284318268299103,
        -0.20605024695396423,
        0.15243148803710938,
        -0.687498927116394,
        0.012619035318493843,
        -0.15900205075740814,
        0.37463846802711487,
        -0.6770092844963074
      ],
      [
        0.3180742859840393,
        0.7424958944320679,
        -0.357957124710083,
        0.06391412019729614,
        0.3797127306461334,
        -0.36645442247390747,
        0.305252343416214,
        -0.4010019898414612,
        0.09162300825119019,
        -0.017616285011172295,
        -0.0450349859893322,
        -0.30075502395629883
      ],
      [
        0.5481674075126648,
        0.11531900614500046,
        -0.8606603145599365,
        -0.6597910523414612,
        0.35999464988708496,
        0.016370905563235283,
        0.0774773359298706,
        0.2420264631509781,
        -0.17322270572185516,
        0.38282543420791626,
        0.09983082860708237,
        -0.40202033519744873
      ],
      [
        0.12848767638206482,
        0.004663784056901932,
        -0.10054118931293488,
        -0.13935814797878265,
        -0.053052615374326706,
        -0.07966098189353943,
        -0.0694238469004631,
        -0.6270523071289062,
        0.14683224260807037,
        0.2868664264678955,
        0.7005865573883057,
        -0.11434362083673477
      ],
      [
        0.4042501151561737,
        0.3942459225654602,
        0.05383096635341644,
        0.0851069912314415,
        -0.8190510272979736,
        0.7257686853408813,
        -0.46676552295684814,
        0.23436814546585083,
        -0.1143830418586731,
        0.24999521672725677,
        -0.1692381650209427,
        -0.35151156783103943
      ],
      [
        -0.1216990128159523,
        -0.22427409887313843,
        0.11399365216493607,
        0.13600841164588928,
        -0.9015234708786011,
        0.15246763825416565,
        0.41295287013053894,
        -0.036562610417604446,
        0.508508026599884,
        0.07497036457061768,
        0.47535690665245056,
        -0.64032381772995
      ],
      [
        -0.46633368730545044,
        -0.37993067502975464,
        0.06455284357070923,
        -0.21035923063755035,
        0.17217940092086792,
        0.06583704799413681,
        -0.2588077187538147,
        0.2150624841451645,
        0.22781486809253693,
        -0.1253213733434677,
        0.29020020365715027,
        0.05870776250958443
      ],
      [
        -0.04441066086292267,
        0.1923498511314392,
        -0.11875857412815094,
        0.32154393196105957,
        -0.3793107271194458,
        0.8174672722816467,
        0.28408148884773254,
        -0.2399880588054657,
        -0.3524866998195648,
        -0.21085350215435028,
        -0.530617892742157,
        0.019339654594659805
      ],
      [
        -0.037593692541122437,
        0.016132794320583344,
        -0.5524715185165405,
        0.2110527753829956,
        0.09331975132226944,
        0.2191867232322693,
        -0.11496061086654663,
        0.6992910504341125,
        -0.4776533246040344,
        0.7739643454551697,
        -0.39814043045043945,
        -0.29194626212120056
      ],
      [
        -0.007035034708678722,
        -0.3224602937698364,
        -0.0373297818005085,
        0.49714213609695435,
        -0.4578244686126709,
        0.22940991818904877,
        0.34508851170539856,
        0.16309897601604462,
        -0.5873141288757324,
        0.22875991463661194,
        -0.0029990728944540024,
        -0.0031919977627694607
      ],
      [
        -0.19454607367515564,
        -0.31095466017723083,
        0.10910592973232269,
        0.021889593452215195,
        0.05540100112557411,
        0.5573024153709412,
        0.5609058141708374,
        0.3616039454936981,
        0.14046156406402588,
        0.12766122817993164,
        -0.6552205085754395,
        -0.6451355814933777
      ],
      [
        -0.36182692646980286,
        0.9606612920761108,
        -0.15176893770694733,
        -0.3935835361480713,
        -0.24134017527103424,
        0.06190173700451851,
        0.47762125730514526,
        0.16285884380340576,
        -0.4843252897262573,
        -0.3092632293701172,
        -0.1591700166463852,
        -0.180107980966568
      ],
      [
        0.5540844202041626,
        0.6791735887527466,
        -0.4163995087146759,
        0.07666939496994019,
        -0.6658852100372314,
        0.18318533897399902,
        0.4466681480407715,
        -0.12402518093585968,
        -0.26457908749580383,
        -0.22220362722873688,
        0.0859442949295044,
        -0.9340410232543945
      ]
    ],
    "ff.lin1.bias": [
      -0.2033216953277588,
      -0.35385367274284363,
      -0.4541760981082916,
      -0.27202174067497253,
      -0.43746450543403625,
      -0.5188262462615967,
      -0.05898435041308403,
      0.15796975791454315,
      -0.17415520548820496,
      -0.3375396430492401,
      -0.27900591492652893,
      -0.4212198257446289,
      -0.12476062774658203,
      -0.2974080741405487,
      -0.07946035265922546,
      -0.35003578662872314,
      -0.10332199931144714,
      -0.45403730869293213,
      -0.3774753212928772,
      -0.30458545684814453,
      -0.2137359380722046,
      -0.16945910453796387,
      -0.6757609248161316,
      -0.062921904027462,
      -0.12583796679973602,
      -0.3661322593688965,
      -0.395917683839798,
      -0.1812065839767456,
      -0.22604534029960632,
      -0.5727153420448303,
      -0.4072900414466858,
      -0.5390632152557373,
      -0.3691648840904236,
      -0.5817071199417114,
      -0.48485738039016724,
      -0.5993376970291138,
      -0.6144707202911377,
      -0.09004849940538406,
      -0.3988461196422577,
      -0.2525748908519745,
      -0.376171737909317,
      -0.3652002513408661,
      -0.247417613863945,
      -0.1850346028804779,
      -0.1534518003463745,
      -0.19452255964279175,
      -0.5107463598251343,
      -0.22095751762390137
    ],
    "ff.lin2.weight": [
      [
        0.1277976632118225,
        -0.19980701804161072,
        0.07771532982587814,
        -0.3017316162586212,
        -0.44503408670425415,
        -0.014511519111692905,
        -0.25195738673210144,
        0.1356700360774994,
        0.023185625672340393,
        -0.009362001903355122,
        -0.2095547616481781,
        0.06229202449321747,
        -0.09785395860671997,
        0.3841289281845093,
        0.14063557982444763,
        -0.27902498841285706,
        -0.12370957434177399,
        -0.051646772772073746,
        -0.13967078924179077,
        -0.17322459816932678,
        0.0717581957578659,
        0.1667429357767105,
        -0.5546100735664368,
        -0.020497402176260948,
        -0.038688331842422485,
        0.16842186450958252,
        -0.045439667999744415,
        -0.3373366892337799,
        0.29930180311203003,
        0.186504065990448,
        0.4555882513523102,
        -0.06338494271039963,
        0.4195058345794678,
        -0.2291906177997589,
        0.007712686900049448,
        -0.25435400009155273,
        0.26495739817619324,
        0.04090455174446106,
        0.26920032501220703,
        -0.3839891850948334,
        0.245518296957016,
        0.0140379648655653,
        -0.18424029648303986,
        0.2249804586172104,
        0.007958807051181793,
        0.4714394211769104,
        0.07847914099693298,
        -0.2654353082180023
      ],
      [
        0.19410516321659088,
        0.5235536098480225,
        -0.05762122571468353,
        0.2035014033317566,
        0.22125259041786194,
        0.15075984597206116,
        -0.1047661080956459,
        0.12385056167840958,
        0.01777493953704834,
        0.25877708196640015,
        -0.02007141336798668,
        -0.3302319049835205,
        -0.597091555595398,
        0.11096614599227905,
        0.09163863211870193,
        -0.13925646245479584,
        0.13355204463005066,
        -0.2211706042289734,
        0.23423950374126434,
        0.2885304391384125,
        0.24878738820552826,
        0.0950915515422821,
        -0.32050690054893494,
        0.235794335603714,
        0.3162882924079895,
        0.06422535330057144,
        -0.1257283240556717,
        0.5074329376220703,
        -0.3029831647872925,
        -0.07355420291423798,
        0.49247708916664124,
        -0.29004526138305664,
        -0.14390155673027039,
        -0.22621510922908783,
        0.0034696266520768404,
        -0.2667582631111145,
        0.0919647216796875,
        0.05088536813855171,
        -0.20347562432289124,
        -0.12548832595348358,
        -0.056048791855573654,
        -0.18579714000225067,
        -0.11223988980054855,
        0.33250972628593445,
        -0.08594594895839691,
        -0.1795559972524643,
        0.19881974160671234,
        -0.3014685809612274
      ],
      [
        -0.5658439993858337,
        -0.2910520136356354,
        0.04739943891763687,
        -0.15758219361305237,
        0.12197870761156082,
        0.0067937918938696384,
        -0.16688986122608185,
        -0.3065757155418396,
        0.6082951426506042,
        -0.06171276420354843,
        0.0026003841776400805,
        -0.21283257007598877,
        -0.3611069619655609,
        -0.39230528473854065,
        -0.3047833740711212,
        0.07377813756465912,
        0.022764867171645164,
        0.11329156160354614,
        0.13271139562129974,
        0.441522479057312,
        -0.07889333367347717,
        -0.043758466839790344,
        0.0656251311302185,
        0.3109596371650696,
        0.01616711914539337,
        0.14663934707641602,
        0.222627192735672,
        0.1186000257730484,
        0.16066153347492218,
        0.2471792846918106,
        0.07840866595506668,
        -0.2636960446834564,
        -0.007906575687229633,
        0.06335519254207611,
        0.07074657827615738,
        -0.10813799500465393,
        0.36965885758399963,
        0.35045763850212097,
        -0.01519825216382742,
        0.19373394548892975,
        -0.05150902643799782,
        -0.03727481886744499,
        -0.2262374311685562,
        0.34063807129859924,
        0.1296072006225586,
        -0.039991967380046844,
        0.049017831683158875,
        -0.21133354306221008
      ],
      [
        0.03145197033882141,
        -0.2929055094718933,
        -0.05200449004769325,
        -0.16006870567798615,
        -0.31987321376800537,
        -0.5519557595252991,
        -0.08921181410551071,
        -0.22614504396915436,
        0.12461857497692108,
        0.03868488967418671,
        -0.04066655412316322,
        0.06796444207429886,
        -0.1543273627758026,
        0.4835279583930969,
        0.20618394017219543,
        0.4361146092414856,
        0.1326664537191391,
        0.013787578791379929,
        -0.00033710047136992216,
        -0.21835359930992126,
        0.5242011547088623,
        -0.17646893858909607,
        -0.4615270793437958,
        0.1633179783821106,
        0.4314882159233093,
        -0.11290977150201797,
        -0.03846568986773491,
        0.35278838872909546,
        0.49447503685951233,
        0.11798422783613205,
        0.020776662975549698,
        -0.06322947144508362,
        0.2750634253025055,
        0.12350309640169144,
        0.09522315859794617,
        -0.3167397081851959,
        -0.18407461047172546,
        0.1652194708585739,
        -0.18071050941944122,
        -0.46546417474746704,
        -0.2808135747909546,
        -0.027722693979740143,
        -0.07190566509962082,
        0.041513942182064056,
        0.5082972049713135,
        -0.12472788989543915,
        -0.2970013916492462,
        0.31997621059417725
      ],
      [
        0.18656280636787415,
        0.7192487120628357,
        -0.1343195140361786,
        -0.03373393043875694,
        0.21861129999160767,
        -0.1005045548081398,
        -0.25689414143562317,
        0.21274329721927643,
        -0.2747531831264496,
        -0.3752565085887909,
        0.17685344815254211,
        0.06991685926914215,
        0.05048106610774994,
        0.026768911629915237,
        -0.030430013313889503,
        -0.12720178067684174,
        0.03733508661389351,
        0.36652442812919617,
        -0.16361384093761444,
        -0.06744269281625748,
        0.14183178544044495,
        -0.7585203051567078,
        0.7537906765937805,
        -0.05980431288480759,
        -0.051636721938848495,
        -0.28531578183174133,
        0.29362839460372925,
        -0.16784217953681946,
        -0.24437250196933746,
        -0.06160439923405647,
        0.0882386714220047,
        0.08982937783002853,
        -0.0985744297504425,
        0.2137192338705063,
        0.4815497398376465,
        0.01626472733914852,
        0.025295225903391838,
        -0.7743997573852539,
        0.3555285632610321,
        0.26281583309173584,
        -0.23603256046772003,
        0.44503411650657654,
        0.08100368082523346,
        -0.1603105515241623,
        -0.30282047390937805,
        0.5167164206504822,
        -3.812648355960846e-05,
        -0.4454670250415802
      ],
      [
        0.11723156273365021,
        0.6328535079956055,
        0.5339578986167908,
        -0.2994915843009949,
        -0.3126770257949829,
        -0.1275782436132431,
        0.3301386535167694,
        0.19791853427886963,
        -0.0985262542963028,
        0.6660917401313782,
        -1.2061575651168823,
        0.1748850792646408,
        0.17745812237262726,
        0.10181841254234314,
        0.026835793629288673,
        -0.3834720849990845,
        0.12205279618501663,
        0.20545679330825806,
        -0.1511240154504776,
        -0.4065304398536682,
        -0.0816129818558693,
        0.2391102910041809,
        -0.14542071521282196,
        0.11245766282081604,
        -0.029316112399101257,
        0.31820541620254517,
        -0.11138889193534851,
        -0.5236309766769409,
        0.010802394710481167,
        -0.19273380935192108,
        -0.3942446708679199,
        -0.34901413321495056,
        0.012391041964292526,
        -0.01709466241300106,
        0.045801546424627304,
        0.6610175371170044,
        0.1931397169828415,
        0.1875411719083786,
        -0.037488050758838654,
        -0.18612946569919586,
        -0.08504758775234222,
        0.2868501543998718,
        0.2290981113910675,
        0.0004073833115398884,
        -0.06289979815483093,
        -0.261857271194458,
        0.30421966314315796,
        0.03061838448047638
      ],
      [
        -0.09404388070106506,
        0.0844624787569046,
        0.06491104513406754,
        0.5832606554031372,
        -0.009700916707515717,
        -0.11879391968250275,
        0.004048801027238369,
        -0.100016750395298,
        -0.38519495725631714,
        -0.15690940618515015,
        0.31245800852775574,
        0.2507220208644867,
        -0.40226852893829346,
        -0.021565739065408707,
        -0.6585093140602112,
        -0.1227211132645607,
        0.6368082165718079,
        -0.4232783019542694,
        -0.33836668729782104,
        -0.19334328174591064,
        -0.4641556441783905,
        -0.14461079239845276,
        0.9228788614273071,
        0.3946298062801361,
        0.03733016923069954,
        0.18742460012435913,
        0.1165461391210556,
        -0.15298131108283997,
        -0.21605059504508972,
        -0.606194257736206,
        0.035544153302907944,
        0.11620590090751648,
        -0.22582529485225677,
        -0.5552064776420593,
        -0.14048048853874207,
        -0.061919037252664566,
        -0.43529120087623596,
        0.23769338428974152,
        -0.05659434199333191,
        0.03276802971959114,
        -0.6688965559005737,
        0.3153163492679596,
        -0.2856895923614502,
        0.07248806953430176,
        0.2746301591396332,
        0.39583659172058105,
        0.0071839457377791405,
        0.4708136320114136
      ],
      [
        -0.03777238354086876,
        0.08159180730581284,
        0.36666110157966614,
        -0.09114903211593628,
        -0.39162176847457886,
        0.17554517090320587,
        -0.20645546913146973,
        -0.35324808955192566,
        -0.19364570081233978,
        0.15812018513679504,
        0.0652250275015831,
        0.4691905081272125,
        0.15097402036190033,
        -0.26215314865112305,
        -0.2886699438095093,
        -0.07310788333415985,
        0.368262380361557,
        -0.6201896667480469,
        0.21611054241657257,
        0.1488545536994934,
        -0.25040507316589355,
        -0.27161940932273865,
        -0.11510179936885834,
        -0.3304310142993927,
        -0.17816942930221558,
        0.22860947251319885,
        0.22022168338298798,
        0.16205978393554688,
        0.32464703917503357,
        -0.2819140553474426,
        -0.31027498841285706,
        0.10541597753763199,
        0.15653464198112488,
        -0.12395605444908142,
        -0.16739031672477722,
        -0.3052574396133423,
        -0.45927199721336365,
        -0.19863207638263702,
        -0.01620784029364586,
        -0.19838380813598633,
        0.1966964453458786,
        0.12199384719133377,
        -0.08549012988805771,
        0.27959778904914856,
        -0.331512987613678,
        -0.1542648822069168,
        0.369911789894104,
        0.16524358093738556
      ],
      [
        -0.27407997846603394,
        -0.43857353925704956,
        0.09515949338674545,
        0.11719837039709091,
        0.1221705824136734,
        0.23243506252765656,
        0.23492257297039032,
        0.32235121726989746,
        -0.10139942914247513,
        0.005270893685519695,
        -0.1231120377779007,
        -0.3813245892524719,
        0.17547838389873505,
        -0.4244031012058258,
        0.0025966500397771597,
        0.17172491550445557,
        -0.28385573625564575,
        0.12975291907787323,
        -0.021137718111276627,
        0.05729593336582184,
        -0.018468793481588364,
        0.4395146369934082,
        0.12331466376781464,
        0.043659795075654984,
        0.09505370259284973,
        0.05001997947692871,
        -0.6004875302314758,
        0.5241165161132812,
        0.18355338275432587,
        -0.4586602449417114,
        0.21620434522628784,
        0.10902546346187592,
        -0.07947782427072525,
        -0.23539897799491882,
        -0.05638112500309944,
        0.5350162982940674,
        -0.06573321670293808,
        0.14467018842697144,
        -0.6806589365005493,
        0.5694432258605957,
        0.42432305216789246,
        -0.1328112632036209,
        0.37044960260391235,
        -0.534578263759613,
        0.2065524011850357,
        -0.15370960533618927,
        -0.710509717464447,
        -0.7337933778762817
      ],
      [
        0.3182015120983124,
        -0.15911279618740082,
        -0.3745923340320587,
        0.11582185328006744,
        0.4221341609954834,
        0.3968961834907532,
        0.38346540927886963,
        -0.09380502253770828,
        -0.040199343115091324,
        -0.28348150849342346,
        -0.28649747371673584,
        -0.01269908994436264,
        0.29204103350639343,
        -0.21020559966564178,
        0.12250711023807526,
        -0.38666898012161255,
        -0.10274884104728699,
        -0.4316558241844177,
        0.12240820378065109,
        -0.3117997348308563,
        -0.13354915380477905,
        0.23734229803085327,
        0.02122487686574459,
        -0.22427713871002197,
        -0.37599363923072815,
        -0.009672143496572971,
        -0.04621245712041855,
        -0.46175169944763184,
        -0.3957021236419678,
        0.08213922381401062,
        -0.05443115904927254,
        -0.1679885983467102,
        -0.7342655658721924,
        0.05002467706799507,
        -0.09354587644338608,
        -0.09386034309864044,
        0.028021661564707756,
        -0.21696925163269043,
        -0.10988695919513702,
        0.22317862510681152,
        0.18208855390548706,
        -0.062291815876960754,
        -0.4061860740184784,
        -0.39061787724494934,
        0.06611865013837814,
        -0.18262135982513428,
        0.41048216819763184,
        0.985455334186554
      ],
      [
        0.02168337069451809,
        -0.5943989157676697,
        0.03231509029865265,
        0.33351168036460876,
        0.3120185434818268,
        -0.1436728835105896,
        0.42622870206832886,
        0.370004802942276,
        0.12646956741809845,
        0.12454692274332047,
        0.7126670479774475,
        -0.03791830316185951,
        0.20389585196971893,
        0.502116858959198,
        0.5168840289115906,
        0.1832083910703659,
        -0.062466688454151154,
        0.3610178232192993,
        0.37280091643333435,
        0.2998282313346863,
        -0.07090351730585098,
        -0.015157502144575119,
        -0.04031916335225105,
        -0.4558285176753998,
        -0.5195444822311401,
        -0.49110057950019836,
        0.2463396042585373,
        0.19094553589820862,
        -0.073390893638134,
        0.04056185856461525,
        -0.2666669189929962,
        0.13055750727653503,
        0.09143536537885666,
        0.46407967805862427,
        -0.3245367407798767,
        0.15224044024944305,
        0.0800999328494072,
        -0.3877321779727936,
        0.28180328011512756,
        -0.4911583364009857,
        -0.014526711776852608,
        -0.25010013580322266,
        0.6630926728248596,
        -0.10316231846809387,
        -0.08374854922294617,
        0.19070103764533997,
        0.13760286569595337,
        -0.016158347949385643
      ],
      [
        0.017781447619199753,
        -0.010746619664132595,
        -0.4522896111011505,
        -0.43808817863464355,
        0.11570318043231964,
        -0.07700813561677933,
        -0.37015265226364136,
        -0.13420641422271729,
        0.29597342014312744,
        -0.29046207666397095,
        -0.056828390806913376,
        -0.1793789267539978,
        0.7177450656890869,
        0.016198506578803062,
        0.2706877291202545,
        0.6763296127319336,
        -0.6114146113395691,
        0.65460205078125,
        -0.15190835297107697,
        0.13329677283763885,
        0.11903377622365952,
        0.15916870534420013,
        -0.1403408944606781,
        -0.16353552043437958,
        -0.036222681403160095,
        -0.21184684336185455,
        -0.19440022110939026,
        0.03097226656973362,
        -0.027851903811097145,
        0.9113242030143738,
        -0.14421281218528748,
        0.5715119242668152,
        0.20941102504730225,
        0.5181483030319214,
        -0.294110506772995,
        -0.019823815673589706,
        -0.1901961863040924,
        0.23438216745853424,
        0.1260538250207901,
        0.05820000544190407,
        0.3669268786907196,
        -0.3204958140850067,
        0.004448091145604849,
        0.23852477967739105,
        -0.16967421770095825,
        -0.36394938826560974,
        -0.6582986116409302,
        -0.019604342058300972
      ]
    ],
    "ff.lin2.bias": [
      0.007257238961756229,
      0.021714111790060997,
      -0.0013792610261589289,
      -0.1163574680685997,
      0.0053356001153588295,
      0.0696970596909523,
      -0.14521726965904236,
      -0.0849837064743042,
      0.12590228021144867,
      0.014075386337935925,
      -0.18655994534492493,
      0.11765871942043304
    ]
  }
}