{
  "block_0": {
    "att.W_query.weight": [
      [
        -0.059074219316244125,
        -0.5147409439086914,
        -0.690394937992096,
        0.2549876272678375,
        0.33003905415534973,
        -0.12174073606729507,
        0.41983622312545776,
        -0.1846020370721817,
        0.4736378788948059,
        -0.1642390936613083,
        0.38619521260261536,
        0.11507919430732727
      ],
      [
        -0.8820444941520691,
        0.0246818158775568,
        -0.11761125177145004,
        0.5575722455978394,
        0.20122253894805908,
        0.4660016894340515,
        -0.13108794391155243,
        -0.0028690737672150135,
        0.3303772807121277,
        0.5752407908439636,
        -0.7718988060951233,
        -0.28702056407928467
      ],
      [
        -0.18692858517169952,
        -0.4900361895561218,
        0.4505823850631714,
        0.9111027717590332,
        -0.2794649600982666,
        -0.3617076277732849,
        0.4013499617576599,
        0.34830978512763977,
        -0.33093926310539246,
        -0.4607575833797455,
        -0.5027944445610046,
        -0.3549747169017792
      ],
      [
        -0.2733275294303894,
        0.6132140755653381,
        -0.5842353105545044,
        -0.0723031759262085,
        0.8494704365730286,
        0.267703652381897,
        -0.1638241559267044,
        -0.04646243900060654,
        0.49077555537223816,
        -0.6914206743240356,
        -0.2832961976528168,
        -0.3000832498073578
      ],
      [
        -0.3609006702899933,
        -0.06411075592041016,
        -0.25203660130500793,
        0.48322856426239014,
        0.7771427631378174,
        -0.88052898645401,
        -0.07425745576620102,
        0.3288733959197998,
        0.4363161623477936,
        0.15448765456676483,
        -0.4502163231372833,
        -0.3773846924304962
      ],
      [
        0.5738163590431213,
        0.6766736507415771,
        0.11080187559127808,
        0.2900298833847046,
        -0.23489366471767426,
        0.1824336051940918,
        -0.2423713356256485,
        -0.28834712505340576,
        -0.3355478346347809,
        -0.21457669138908386,
        -0.49109211564064026,
        -0.3520796298980713
      ],
      [
        -0.4742802679538727,
        0.2643562853336334,
        0.3528505861759186,
        0.09501796960830688,
        -0.09700317680835724,
        -0.31668949127197266,
        0.1937604397535324,
        0.5871478319168091,
        -0.16330739855766296,
        0.6590172052383423,
        -0.3198496103286743,
        -0.567653238773346
      ],
      [
        0.4011732339859009,
        -0.4729583263397217,
        0.6416504383087158,
        -0.281515896320343,
        0.19212102890014648,
        -0.5159260630607605,
        -0.1948501467704773,
        0.13170455396175385,
        -0.5591774582862854,
        0.07904130965471268,
        0.7196077704429626,
        0.3094009459018707
      ],
      [
        -0.5751988291740417,
        -0.6430706977844238,
        0.5524037480354309,
        0.24730129539966583,
        0.3408345580101013,
        0.3076063096523285,
        0.34275051951408386,
        -0.3982912600040436,
        0.2862973213195801,
        0.194799542427063,
        0.13967694342136383,
        -0.24781274795532227
      ],
      [
        0.15896372497081757,
        0.46073395013809204,
        0.28626734018325806,
        0.29597610235214233,
        0.26228800415992737,
        -0.258959025144577,
        -0.7765066027641296,
        0.14731763303279877,
        -0.9722159504890442,
        -0.3549951910972595,
        0.7065294981002808,
        -0.03620488941669464
      ],
      [
        -0.565187394618988,
        0.384307324886322,
        0.12750577926635742,
        -0.13325612246990204,
        -0.5281174182891846,
        0.47341299057006836,
        -0.3718189001083374,
        -0.05286364257335663,
        -0.5160219073295593,
        0.2863565683364868,
        -0.44243112206459045,
        0.5956583023071289
      ],
      [
        0.46918901801109314,
        0.515789270401001,
        -0.020012477412819862,
        -0.3361261188983917,
        -0.40084177255630493,
        0.3928462564945221,
        -0.03134399652481079,
        0.5494346022605896,
        -0.2950654625892639,
        -0.20927351713180542,
        -0.525913655757904,
        -0.19349463284015656
      ]
    ],
    "att.W_query.bias": null,
    "att.W_key.weight": [
      [
        -0.3437190353870392,
        0.5409954190254211,
        0.7114068269729614,
        -0.03514976054430008,
        0.08247117698192596,
        -0.5192505121231079,
        0.09568029642105103,
        -0.31832054257392883,
        0.059169135987758636,
        -0.3954378366470337,
        -0.2506899833679199,
        0.43893852829933167
      ],
      [
        0.16459563374519348,
        -0.09444664418697357,
        0.4907695949077606,
        0.8242937326431274,
        0.2988955080509186,
        0.014122462831437588,
        -0.7617993354797363,
        -0.17188100516796112,
        0.2726459205150604,
        -0.5680360198020935,
        -0.11212146282196045,
        -0.23052681982517242
      ],
      [
        1.035851001739502,
        0.379052996635437,
        -0.46920448541641235,
        -0.10552322864532471,
        0.5489239692687988,
        0.08238052576780319,
        -0.6690748333930969,
        -0.10636261105537415,
        0.09096065908670425,
        -0.8070361018180847,
        0.37415221333503723,
        0.06208530813455582
      ],
      [
        -0.36404407024383545,
        0.4483868479728699,
        0.20706342160701752,
        -0.23644322156906128,
        -0.9299602508544922,
        -0.13170376420021057,
        0.631514847278595,
        0.19754183292388916,
        0.4522905945777893,
        -0.7009091377258301,
        -0.07994776219129562,
        0.34598514437675476
      ],
      [
        -0.33337509632110596,
        0.14283983409404755,
        0.22829359769821167,
        -0.5875672101974487,
        -0.07185739278793335,
        0.8332498073577881,
        0.13200180232524872,
        -0.027844833210110664,
        0.409421443939209,
        -0.8961948156356812,
        0.605277419090271,
        -0.15957139432430267
      ],
      [
        -0.37129247188568115,
        -0.35271620750427246,
        -0.013974115252494812,
        -0.17742590606212616,
        0.49969738721847534,
        -0.5659664273262024,
        0.5113348960876465,
        0.5549764633178711,
        0.4250180125236511,
        -0.10288085043430328,
        -0.2526227533817291,
        0.23755964636802673
      ],
      [
        -0.05148538947105408,
        -0.5027995109558105,
        -0.12076783925294876,
        0.6514574289321899,
        0.2373124063014984,
        -0.7245445847511292,
        0.012291081249713898,
        0.24913029372692108,
        0.1289878934621811,
        0.12651829421520233,
        0.00223913392983377,
        0.5612423419952393
      ],
      [
        -0.35143840312957764,
        0.0313139408826828,
        -0.7241755723953247,
        -0.14405624568462372,
        -0.18587100505828857,
        0.046988196671009064,
        0.36172664165496826,
        -0.17500488460063934,
        1.0767871141433716,
        0.0540546216070652,
        -0.4088512361049652,
        0.18003305792808533
      ],
      [
        0.42905327677726746,
        0.3552989959716797,
        -0.6460959315299988,
        0.7243396043777466,
        -0.2358739674091339,
        0.08462991565465927,
        -0.3878041207790375,
        0.3713531792163849,
        -0.06324764341115952,
        -0.43279018998146057,
        0.03535127267241478,
        -0.24042277038097382
      ],
      [
        0.1758100837469101,
        -0.32711002230644226,
        0.1482396274805069,
        -0.054005783051252365,
        0.09025776386260986,
        -0.22325554490089417,
        0.6225003600120544,
        -0.2349635362625122,
        0.21805797517299652,
        -0.8161259889602661,
        -0.555285632610321,
        1.0565643310546875
      ],
      [
        -0.22036400437355042,
        0.08653411269187927,
        -0.436805784702301,
        -0.07544335722923279,
        0.6214867234230042,
        -0.8887166976928711,
        0.04410386085510254,
        0.35514286160469055,
        0.47701215744018555,
        -0.41285935044288635,
        0.15060754120349884,
        0.21501439809799194
      ],
      [
        -0.16095256805419922,
        -0.3924131691455841,
        -0.02248687855899334,
        0.2769186496734619,
        0.3116540014743805,
        -0.014975040219724178,
        -0.06344179064035416,
        -0.18270118534564972,
        0.49824362993240356,
        -0.7039244174957275,
        0.7217234969139099,
        0.1705354005098343
      ]
    ],
    "att.W_key.bias": null,
    "att.W_value.weight": [
      [
        0.09501489251852036,
        0.04965832456946373,
        -0.3543938398361206,
        0.5536723136901855,
        0.4363253712654114,
        -0.011844472028315067,
        0.21165314316749573,
        -0.22588838636875153,
        -0.3727349042892456,
        -0.08638401329517365,
        -0.23597352206707,
        0.32421839237213135
      ],
      [
        0.0018274164758622646,
        -0.34681570529937744,
        0.49770087003707886,
        0.04019451141357422,
        0.06619524955749512,
        -0.19989392161369324,
        -0.2709592580795288,
        0.14310918748378754,
        -0.31160208582878113,
        -0.157725989818573,
        0.3735004961490631,
        0.5203984975814819
      ],
      [
        0.05593948811292648,
        0.543721616268158,
        0.08708153665065765,
        -0.2717519700527191,
        0.30473989248275757,
        -0.13386516273021698,
        -0.3502027094364166,
        0.44231265783309937,
        -0.14081092178821564,
        -0.2525196671485901,
        0.2649909555912018,
        -0.22719010710716248
      ],
      [
        0.14649973809719086,
        -0.07546582818031311,
        0.17155596613883972,
        0.09566327184438705,
        -0.05534346401691437,
        0.10155442357063293,
        0.2634682059288025,
        -0.8743399977684021,
        0.21588073670864105,
        0.1930238902568817,
        -0.15795622766017914,
        0.46268579363822937
      ],
      [
        0.4316290616989136,
        0.1407734602689743,
        0.03149528428912163,
        0.06586211919784546,
        0.2797742784023285,
        -0.3940865099430084,
        -0.09361636638641357,
        -0.46108439564704895,
        -0.24019019305706024,
        -0.31886300444602966,
        0.3198400139808655,
        0.2687426507472992
      ],
      [
        -0.20800772309303284,
        0.48607975244522095,
        -0.13345152139663696,
        -0.5873167514801025,
        0.1749723106622696,
        -0.0652686357498169,
        0.14943192899227142,
        0.30792921781539917,
        -0.1741633415222168,
        0.3005774915218353,
        -0.10101265460252762,
        0.43877920508384705
      ],
      [
        -0.1918172836303711,
        0.095056913793087,
        0.5051956176757812,
        0.5365390777587891,
        -0.37799644470214844,
        0.04594370350241661,
        -0.17008686065673828,
        -0.2972443997859955,
        0.22094765305519104,
        0.13922078907489777,
        0.261261522769928,
        -0.3772144615650177
      ],
      [
        0.16749298572540283,
        0.4729541838169098,
        -0.21089062094688416,
        -0.1578288972377777,
        -0.3387555480003357,
        -0.3280557692050934,
        -0.1229129359126091,
        -0.4931618571281433,
        0.006596814375370741,
        -0.011414223350584507,
        0.4202014207839966,
        0.4568934440612793
      ],
      [
        -0.1643492579460144,
        -0.04210302233695984,
        -0.20733356475830078,
        0.1835831105709076,
        0.49707216024398804,
        0.17609646916389465,
        -0.26963451504707336,
        -0.30784475803375244,
        -0.17918074131011963,
        0.394786536693573,
        -0.01871010847389698,
        0.5412298440933228
      ],
      [
        0.2330865114927292,
        0.12080789357423782,
        -0.21246328949928284,
        -0.6396653056144714,
        -0.07684419304132462,
        0.4844803512096405,
        -0.2735189199447632,
        0.17187650501728058,
        -0.008962773717939854,
        -0.309452086687088,
        0.027531512081623077,
        0.35990431904792786
      ],
      [
        0.13061650097370148,
        -0.31457990407943726,
        -0.30445170402526855,
        0.11600762605667114,
        0.054447464644908905,
        0.11997354030609131,
        0.15936262905597687,
        0.5204368233680725,
        0.48501017689704895,
        -0.29599153995513916,
        -0.1823718398809433,
        -0.2429225891828537
      ],
      [
        -0.11332782357931137,
        -0.4778249263763428,
        -0.4996020495891571,
        0.40593793988227844,
        0.4796813428401947,
        0.30663806200027466,
        -0.2615845799446106,
        0.18614596128463745,
        -0.5014744997024536,
        0.004524197895079851,
        -0.03563755005598068,
        0.09000937640666962
      ]
    ],
    "att.W_value.bias": null,
    "att.out_proj.weight": [
      [
        -0.14916914701461792,
        0.3925483524799347,
        -0.019618678838014603,
        -0.4742344915866852,
        0.09217647463083267,
        0.01998385787010193,
        0.19596907496452332,
        0.3863144814968109,
        0.29037511348724365,
        -0.2944621741771698,
        -0.05774778500199318,
        0.21995121240615845
      ],
      [
        0.425097793340683,
        -0.10364319384098053,
        -0.2510474920272827,
        0.14917337894439697,
        0.6007961630821228,
        0.11503315716981888,
        0.08354836702346802,
        -0.08875993639230728,
        -0.18011361360549927,
        -0.026766816154122353,
        0.03155924007296562,
        0.19642721116542816
      ],
      [
        -0.1582852602005005,
        -0.5843642950057983,
        0.3187466263771057,
        -0.29903069138526917,
        -0.13027551770210266,
        -0.18656785786151886,
        0.3509798049926758,
        -0.05440312996506691,
        -0.14096921682357788,
        -0.3187180459499359,
        -0.33140939474105835,
        -0.45450979471206665
      ],
      [
        0.4201149344444275,
        0.4497365951538086,
        0.025619780644774437,
        0.3906596004962921,
        0.25349855422973633,
        0.19178220629692078,
        0.4304496645927429,
        -0.1547059863805771,
        0.34654155373573303,
        0.14999407529830933,
        -0.27314886450767517,
        0.0037957881577312946
      ],
      [
        -0.2195567935705185,
        -0.01233011856675148,
        0.336871862411499,
        -0.07293567806482315,
        0.1343199908733368,
        0.38819244503974915,
        -0.08487535268068314,
        0.15526850521564484,
        -0.18137840926647186,
        0.06822275370359421,
        0.29378461837768555,
        0.4233238101005554
      ],
      [
        -0.13362692296504974,
        -0.10442502051591873,
        0.015783024951815605,
        0.17085051536560059,
        -0.4826556444168091,
        0.3548792600631714,
        -0.7477635145187378,
        0.117343008518219,
        0.11321675777435303,
        0.39763134717941284,
        -0.30775585770606995,
        0.15518081188201904
      ],
      [
        -0.3165847659111023,
        -0.22866876423358917,
        -0.46813973784446716,
        0.18260499835014343,
        -0.5515346527099609,
        -0.30304592847824097,
        0.0019383798353374004,
        -0.5000666975975037,
        -0.19679084420204163,
        -0.1260242760181427,
        -0.3458152413368225,
        0.452777624130249
      ],
      [
        0.5543947219848633,
        -0.12962386012077332,
        -0.21619778871536255,
        -0.5435589551925659,
        0.03682224452495575,
        -0.15873391926288605,
        0.15902955830097198,
        0.23840242624282837,
        -0.3881506323814392,
        0.5848209261894226,
        0.5125113129615784,
        0.08290369063615799
      ],
      [
        -0.20099903643131256,
        0.23624888062477112,
        0.12226752191781998,
        0.10953368991613388,
        0.2155897617340088,
        -0.2932755947113037,
        0.1111941933631897,
        0.13454584777355194,
        -0.3258081376552582,
        -0.22924569249153137,
        0.07161245495080948,
        0.1841994673013687
      ],
      [
        -0.13514891266822815,
        -0.13499660789966583,
        -0.4322744309902191,
        0.43188533186912537,
        0.2445979118347168,
        -0.5204859375953674,
        -0.34448176622390747,
        0.37919795513153076,
        0.6218161582946777,
        -0.04057099297642708,
        -0.04757776856422424,
        -0.10411626100540161
      ],
      [
        0.1968090832233429,
        -0.08278838545084,
        0.25218549370765686,
        -0.06692726165056229,
        -0.1277930736541748,
        0.06853162497282028,
        -0.23350469768047333,
        -0.5673637986183167,
        -0.019820718094706535,
        -0.410961389541626,
        0.45216310024261475,
        0.06436699628829956
      ],
      [
        -0.21244874596595764,
        0.24928589165210724,
        0.0551970899105072,
        0.1301475316286087,
        -0.05343971773982048,
        0.1876676380634308,
        -0.07196392863988876,
        -0.05708230286836624,
        -0.14969460666179657,
        0.270483136177063,
        0.15695787966251373,
        -0.6489150524139404
      ]
    ],
    "att.out_proj.bias": [
      -0.051065415143966675,
      0.06308845430612564,
      -0.1251036673784256,
      -0.08543318510055542,
      0.03284169360995293,
      0.027206696569919586,
      -0.05451638251543045,
      0.031070727854967117,
      0.02001122757792473,
      0.09263651818037033,
      -0.014054632745683193,
      0.02778692916035652
    ],
    "norm1.scale": [
      0.4614875316619873,
      0.7927068471908569,
      0.8613481521606445,
      0.9313345551490784,
      0.751305341720581,
      0.6263938546180725,
      0.5162031650543213,
      0.6538368463516235,
      0.6548179984092712,
      0.8627538084983826,
      0.5793572664260864,
      0.9205676913261414
    ],
    "norm1.shift": [
      0.041338320821523666,
      0.12402389198541641,
      0.25668108463287354,
      0.00914493203163147,
      -0.03244858980178833,
      -0.13429927825927734,
      -0.2958752512931824,
      0.12572741508483887,
      -0.2382286638021469,
      -0.09167740494012833,
      -0.032890889793634415,
      0.05712798982858658
    ],
    "norm2.scale": [
      0.7212842106819153,
      0.7782390713691711,
      0.8149810433387756,
      0.5281713604927063,
      0.7612258791923523,
      0.6068959832191467,
      0.5553404688835144,
      0.5936720371246338,
      0.6216241121292114,
      0.6215315461158752,
      0.7573314309120178,
      0.8018897175788879
    ],
    "norm2.shift": [
      -0.2811584770679474,
      0.3594072759151459,
      0.15742672979831696,
      0.18202324211597443,
      0.29834309220314026,
      0.23860566318035126,
      0.26245081424713135,
      0.5460202693939209,
      -0.041815049946308136,
      -0.46497905254364014,
      -0.2972976565361023,
      -0.08309943228960037
    ],
    "ff.lin1.weight": [
      [
        -0.05723332613706589,
        -0.497243732213974,
        -0.5440782308578491,
        -0.5074573755264282,
        0.033948857337236404,
        -0.5675017237663269,
        0.5008751749992371,
        0.06809315085411072,
        -0.17949829995632172,
        0.37173992395401,
        0.4949128031730652,
        0.04782656207680702
      ],
      [
        -0.10303987562656403,
        -0.5967561602592468,
        0.027042334899306297,
        0.03822087123990059,
        -0.07826869189739227,
        -0.1578037440776825,
        0.12515529990196228,
        -0.022925037890672684,
        -0.3608953654766083,
        0.9920714497566223,
        0.7640698552131653,
        0.253121942281723
      ],
      [
        -0.3136436641216278,
        0.25914403796195984,
        -0.6787386536598206,
        0.1536952257156372,
        -0.6671433448791504,
        0.2201496660709381,
        -0.4411490559577942,
        -0.385684072971344,
        0.15497465431690216,
        -0.10276630520820618,
        -0.16993919014930725,
        0.15927866101264954
      ],
      [
        0.06995254755020142,
        0.28104501962661743,
        -0.44018131494522095,
        0.003623891854658723,
        0.38719213008880615,
        0.2767007052898407,
        -0.13822147250175476,
        -0.7858872413635254,
        -0.4839116930961609,
        0.17513082921504974,
        -0.19462180137634277,
        -0.09633857756853104
      ],
      [
        0.35779669880867004,
        -0.6636621952056885,
        -0.4554527997970581,
        -0.45019933581352234,
        -0.5905759334564209,
        0.49374139308929443,
        0.37003111839294434,
        -0.7079676389694214,
        -0.14706635475158691,
        -0.256907194852829,
        0.2207968384027481,
        0.32762041687965393
      ],
      [
        0.05566869676113129,
        0.2651428282260895,
        -0.2670750617980957,
        -0.062064021825790405,
        -0.9322460889816284,
        0.008710618130862713,
        0.13508981466293335,
        0.3335784375667572,
        0.059627193957567215,
        -0.0643133595585823,
        -0.14774560928344727,
        0.4738506078720093
      ],
      [
        0.12517276406288147,
        -1.0137218236923218,
        0.693006157875061,
        0.17959798872470856,
        0.18620841205120087,
        -0.2078685611486435,
        -0.7072579860687256,
        -0.04010810703039169,
        0.1625145673751831,
        0.4531516432762146,
        0.2697726786136627,
        -0.05018235743045807
      ],
      [
        0.20898903906345367,
        -0.10297274589538574,
        -0.20276187360286713,
        -0.040815211832523346,
        0.21932074427604675,
        0.10386241972446442,
        0.05812215059995651,
        -1.1104333400726318,
        0.19885630905628204,
        0.501367449760437,
        0.38331136107444763,
        -0.427125483751297
      ],
      [
        0.1002168133854866,
        -0.20231115818023682,
        -0.17929229140281677,
        -0.7680336236953735,
        0.1112430989742279,
        0.027644053101539612,
        -0.4259399175643921,
        0.15342743694782257,
        0.3660928010940552,
        0.3054788410663605,
        -0.43037867546081543,
        -0.061352916061878204
      ],
      [
        0.22146913409233093,
        -0.7245310544967651,
        0.021547753363847733,
        0.4396381974220276,
        -0.3487405478954315,
        0.17748531699180603,
        0.32097721099853516,
        -0.5288581252098083,
        0.33295202255249023,
        0.07754279673099518,
        -0.07478152215480804,
        -0.17617522180080414
      ],
      [
        0.0011420304654166102,
        0.24595648050308228,
        -0.4271291494369507,
        -0.19851668179035187,
        -0.23474393784999847,
        -0.6842318177223206,
        0.17532086372375488,
        -0.19484569132328033,
        0.0945323258638382,
        0.6592978239059448,
        0.262414813041687,
        0.3269370198249817
      ],
      [
        -0.059620484709739685,
        -0.16992488503456116,
        0.09801344573497772,
        -0.02164805866777897,
        -0.1363522857427597,
        0.3822377920150757,
        -0.1663382351398468,
        -0.3301795423030853,
        0.17992684245109558,
        0.48437532782554626,
        -0.40738537907600403,
        0.12451370060443878
      ],
      [
        0.3268919289112091,
        0.01850971393287182,
        -0.2796560525894165,
        -0.12154724448919296,
        0.06283198297023773,
        -0.10512334108352661,
        -0.06423232704401016,
        0.1834748387336731,
        -0.11877253651618958,
        0.24532072246074677,
        0.4800603985786438,
        -0.6629533171653748
      ],
      [
        0.24473801255226135,
        -0.38296499848365784,
        -0.7904505133628845,
        0.3355705440044403,
        -0.24305664002895355,
        -0.05198931694030762,
        0.1671150028705597,
        0.12581321597099304,
        0.1500534564256668,
        0.24148203432559967,
        -0.6341062784194946,
        0.06403890997171402
      ],
      [
        0.09812399744987488,
        -0.29411327838897705,
        0.019958019256591797,
        0.22057051956653595,
        0.20328855514526367,
        -0.10722595453262329,
        0.6757782101631165,
        -0.13936872780323029,
        -0.76202791929245,
        0.5001271367073059,
        -0.03709666430950165,
        -0.20325198769569397
      ],
      [
        0.3516222834587097,
        0.0008851800812408328,
        -0.19685876369476318,
        -0.9493462443351746,
        -0.39972224831581116,
        0.19636434316635132,
        -0.19979582726955414,
        -0.6516214609146118,
        0.6374073624610901,
        -0.09044915437698364,
        0.08374343812465668,
        0.2323421686887741
      ],
      [
        -0.2548695504665375,
        -0.16706432402133942,
        -0.06043849140405655,
        0.4312661290168762,
        -0.08043679594993591,
        -0.6688849329948425,
        -0.7574463486671448,
        -0.14595185220241547,
        0.182935893535614,
        0.5629217624664307,
        0.7376347780227661,
        0.5444847345352173
      ],
      [
        0.17213121056556702,
        0.3537251055240631,
        -0.11086463183164597,
        -0.3446478843688965,
        -0.40903976559638977,
        -0.22932744026184082,
        -0.02814459428191185,
        -0.280903160572052,
        -0.2730754315853119,
        -0.38565146923065186,
        0.5620993375778198,
        0.17230524122714996
      ],
      [
        -0.36947357654571533,
        -0.14080525934696198,
        -0.22880713641643524,
        -0.32197216153144836,
        0.07496500760316849,
        -0.564291775226593,
        0.22263897955417633,
        0.09384562075138092,
        0.23501986265182495,
        0.3940889835357666,
        0.16611982882022858,
        -0.08238208293914795
      ],
      [
        -0.5457471013069153,
        -0.31756874918937683,
        0.22748427093029022,
        0.1300050914287567,
        0.40042027831077576,
        -0.07885241508483887,
        -0.5599064826965332,
        -0.1549336314201355,
        -0.4101986587047577,
        0.15702661871910095,
        0.6977434158325195,
        0.003412795253098011
      ],
      [
        -0.08211885392665863,
        -0.0873667523264885,
        0.34153738617897034,
        0.08936501294374466,
        -0.30263495445251465,
        -0.22896866500377655,
        -0.0967441275715828,
        -0.12963220477104187,
        0.21505697071552277,
        -0.13483229279518127,
        0.7747471928596497,
        -0.4594767987728119
      ],
      [
        -0.1301395297050476,
        -0.0742461159825325,
        -0.4360237419605255,
        -0.10285334289073944,
        0.07382266968488693,
        -0.336882621049881,
        -0.3323759138584137,
        0.08253119140863419,
        0.05232543498277664,
        0.05565585568547249,
        0.8266425728797913,
        0.48474323749542236
      ],
      [
        0.38406869769096375,
        -0.7603791356086731,
        -0.552967369556427,
        0.08187872916460037,
        0.08625210076570511,
        -1.0819666385650635,
        0.4668387472629547,
        -0.2992387115955353,
        -0.018715504556894302,
        0.19357338547706604,
        -0.02851717174053192,
        0.49427494406700134
      ],
      [
        -0.5328317880630493,
        -0.2912273705005646,
        -0.14074455201625824,
        0.0724957212805748,
        0.6549066305160522,
        0.11885519325733185,
        -0.3232041597366333,
        -0.3744180500507355,
        0.5056288242340088,
        0.22414405643939972,
        0.35578370094299316,
        -0.33674323558807373
      ],
      [
        -0.07248207926750183,
        -0.07964598387479782,
        -0.2979382574558258,
        0.20227684080600739,
        -0.596393883228302,
        0.1072176992893219,
        -0.34921377897262573,
        -0.34121352434158325,
        0.6849567890167236,
        -0.028489774093031883,
        0.5378745794296265,
        -0.3170212209224701
      ],
      [
        0.6962587833404541,
        -0.11229050159454346,
        0.38653072714805603,
        -0.5442129373550415,
        0.11859767138957977,
        -0.2592599391937256,
        -0.3914623260498047,
        -0.1310487687587738,
        -0.2366158366203308,
        0.5013993382453918,
        0.48264703154563904,
        -0.13529817759990692
      ],
      [
        -0.018293842673301697,
        0.0761604830622673,
        0.44442930817604065,
        -0.009321363642811775,
        -0.9264262318611145,
        -0.14192597568035126,
        -0.48514696955680847,
        -0.017569653689861298,
        0.22280001640319824,
        0.13957343995571136,
        -0.1660730093717575,
        0.04203099384903908
      ],
      [
        -0.16188670694828033,
        -0.047675590962171555,
        0.3822864592075348,
        0.03682585433125496,
        0.019199058413505554,
        -0.11567915230989456,
        -0.6478070020675659,
        -0.10595288127660751,
        0.231050506234169,
        -0.22054582834243774,
        -0.13744670152664185,
        0.41967329382896423
      ],
      [
        0.1882810890674591,
        -0.5407890677452087,
        -0.005061491392552853,
        0.008904932998120785,
        -0.5475375056266785,
        -0.3733503520488739,
        -0.20475564897060394,
        0.30401021242141724,
        -0.24243491888046265,
        -0.1568550169467926,
        0.4134087860584259,
        0.766013503074646
      ],
      [
        -0.2607470452785492,
        -0.4181693196296692,
        0.004897524137049913,
        -0.4393060505390167,
        -0.1614484339952469,
        0.23013444244861603,
        0.6217925548553467,
        -0.575975775718689,
        -0.3821115493774414,
        0.1101490929722786,
        -0.13901449739933014,
        0.6927580237388611
      ],
      [
        -0.6274123787879944,
        0.11751031130552292,
        0.07311663031578064,
        -0.37153467535972595,
        0.16018088161945343,
        -0.00027666508685797453,
        0.4481636881828308,
        -0.20450390875339508,
        -0.24499504268169403,
        0.6554140448570251,
        0.351763516664505,
        -0.3170487582683563
      ],
      [
        -0.311700701713562,
        0.09904096275568008,
        -0.2680291533470154,
        -0.10528295487165451,
        0.3100453317165375,
        -0.3961779475212097,
        0.0711551159620285,
        -0.709716260433197,
        0.3654332160949707,
        0.34652015566825867,
        0.3648851811885834,
        0.4523599147796631
      ],
      [
        -0.3103567957878113,
        0.1790957748889923,
        -0.004916380625218153,
        0.03584257513284683,
        0.2799522876739502,
        -0.5548833012580872,
        -0.2228306084871292,
        -0.01898406632244587,
        0.045633360743522644,
        0.8767693042755127,
        0.2434013932943344,
        -0.3464519679546356
      ],
      [
        0.3009575307369232,
        -0.10237877070903778,
        -0.09315226227045059,
        -0.5695184469223022,
        0.09496898949146271,
        -0.27156752347946167,
        -0.12625768780708313,
        -0.6391115784645081,
        0.021642614156007767,
        0.44359245896339417,
        -0.020491596311330795,
        1.0264772176742554
      ],
      [
        0.6958500742912292,
        -0.010505398735404015,
        0.011806536465883255,
        0.31778621673583984,
        -0.06392572075128555,
        0.3083290159702301,
        -0.29203173518180847,
        -0.44908714294433594,
        -0.3896845877170563,
        -0.2284102737903595,
        0.17838561534881592,
        -0.045651305466890335
      ],
      [
        0.03728574514389038,
        0.061488185077905655,
        0.5221355557441711,
        0.20997272431850433,
        -0.32032570242881775,
        0.36427533626556396,
        -0.36358365416526794,
        -0.5433205366134644,
        0.11339352279901505,
        -0.08273673057556152,
        0.13181546330451965,
        -0.47441405057907104
      ],
      [
        -0.3291199803352356,
        -0.2630165219306946,
        0.5722376704216003,
        0.4641615152359009,
        0.05758536234498024,
        -0.39487993717193604,
        0.03307688981294632,
        -0.2812008261680603,
        -0.13058502972126007,
        -0.30091455578804016,
        0.027923671528697014,
        0.18234845995903015
      ],
      [
        0.8079003095626831,
        -0.21086567640304565,
        0.1606050282716751,
        -0.18967296183109283,
        0.35465380549430847,
        -0.32926446199417114,
        -0.27213218808174133,
        -0.46678513288497925,
        0.49608075618743896,
        -0.0831693634390831,
        -0.028475895524024963,
        0.2991219758987427
      ],
      [
        0.4073810577392578,
        -1.0246299505233765,
        -0.32245880365371704,
        0.16365587711334229,
        0.26430264115333557,
        0.6588882803916931,
        -0.6711606979370117,
        -0.23037053644657135,
        0.03489598631858826,
        0.33234140276908875,
        -0.02435106597840786,
        0.09119206666946411
      ],
      [
        0.11377596855163574,
        -0.5312229990959167,
        -0.4528307616710663,
        -0.35718798637390137,
        0.7978481650352478,
        -0.19372421503067017,
        0.12878204882144928,
        -0.14005570113658905,
        -0.15597204864025116,
        0.8500727415084839,
        -0.027995863929390907,
        -0.1507539302110672
      ],
      [
        0.8748207688331604,
        0.2563004195690155,
        0.03164391219615936,
        -0.26507875323295593,
        -0.27379316091537476,
        -0.44863274693489075,
        0.008189394138753414,
        -0.3135078251361847,
        0.296353816986084,
        0.3410484194755554,
        -0.4906960129737854,
        -0.4934427738189697
      ],
      [
        -0.11096909642219543,
        -0.5627111792564392,
        0.1984645277261734,
        -0.20650166273117065,
        -0.3398427665233612,
        -0.5659161806106567,
        -0.0834023505449295,
        0.49733299016952515,
        0.21920925378799438,
        0.24725840985774994,
        -0.040711868554353714,
        0.08041997998952866
      ],
      [
        0.7745459675788879,
        -0.37069061398506165,
        0.16922558844089508,
        0.5575697422027588,
        0.24098575115203857,
        -0.34741437435150146,
        0.02125457115471363,
        -0.41174671053886414,
        -0.8790315985679626,
        0.7167626023292542,
        0.18098771572113037,
        0.0865342915058136
      ],
      [
        -0.18690568208694458,
        -0.7322073578834534,
        -0.7424485683441162,
        0.2559916377067566,
        0.2866017520427704,
        -0.5627225637435913,
        0.34814777970314026,
        -0.10999756306409836,
        0.18893738090991974,
        0.1349605768918991,
        0.37365829944610596,
        -0.07227279245853424
      ],
      [
        0.28947776556015015,
        -0.11974211037158966,
        0.0025778559502214193,
        0.35358375310897827,
        -0.08103110641241074,
        -0.3769710659980774,
        -0.00984393060207367,
        -0.723927915096283,
        0.2197236716747284,
        0.05378768965601921,
        -0.2691969573497772,
        0.019504180178046227
      ],
      [
        0.6277761459350586,
        -0.28233081102371216,
        -0.8111965656280518,
        0.34402021765708923,
        -0.16031721234321594,
        0.13237325847148895,
        -0.13644932210445404,
        -0.05630182474851608,
        0.15420478582382202,
        0.6002863645553589,
        0.4466933608055115,
        -0.4395354092121124
      ],
      [
        -0.3265143632888794,
        -0.1689131110906601,
        0.12154868990182877,
        -0.39688482880592346,
        -0.2117406576871872,
        0.20134009420871735,
        0.047683630138635635,
        -0.01991359330713749,
        0.2565591633319855,
        -0.3832968473434448,
        -0.02559279277920723,
        0.3727991580963135
      ],
      [
        -0.15288637578487396,
        -0.36677372455596924,
        -0.05821552127599716,
        0.5058242082595825,
        -0.2868674099445343,
        0.45771294832229614,
        -0.3730447292327881,
        -0.057666096836328506,
        -0.3783297836780548,
        -0.002416765782982111,
        0.1417170912027359,
        0.36367571353912354
      ]
    ],
    "ff.lin1.bias": [
      -0.47758957743644714,
      0.13084830343723297,
      -0.6319596767425537,
      -0.5482028722763062,
      -0.4955466091632843,
      -0.43889695405960083,
      -0.4724445641040802,
      -0.5413846373558044,
      -0.5473501086235046,
      -0.5828492641448975,
      -0.29812175035476685,
      -0.5528870224952698,
      -0.3015235364437103,
      -0.8497714400291443,
      -0.4898347556591034,
      -0.30044686794281006,
      -0.3152744770050049,
      -0.5258840322494507,
      -0.21900081634521484,
      -0.5317621231079102,
      -0.497999906539917,
      -0.39840659499168396,
      -0.45637354254722595,
      -0.7307602763175964,
      -0.35492461919784546,
      -0.46280181407928467,
      -0.6917035579681396,
      -0.7058026790618896,
      -0.5697075128555298,
      -0.7990387678146362,
      -0.7469187378883362,
      -0.08352387696504593,
      -0.3673815131187439,
      -0.4030078947544098,
      -0.30200427770614624,
      -0.5834726095199585,
      -0.7170173525810242,
      -0.31173935532569885,
      -0.763280987739563,
      -0.43190455436706543,
      -0.5139010548591614,
      -0.7202102541923523,
      -0.6896712183952332,
      -0.337619423866272,
      -0.335613876581192,
      -0.6412205100059509,
      -0.641998827457428,
      -0.21653512120246887
    ],
    "ff.lin2.weight": [
      [
        0.40401673316955566,
        0.07442104816436768,
        -0.13783271610736847,
        0.11859771609306335,
        0.1884068101644516,
        0.5071181058883667,
        0.07905792444944382,
        -0.17079932987689972,
        0.09138952940702438,
        0.3370785415172577,
        0.062138818204402924,
        0.17033664882183075,
        -0.1919555515050888,
        0.16760669648647308,
        -0.2769436836242676,
        -0.023719193413853645,
        0.1914936900138855,
        0.2745821475982666,
        -0.13705889880657196,
        -0.11569064855575562,
        0.23877453804016113,
        -0.07302172482013702,
        -0.6184457540512085,
        0.005979319103062153,
        -0.3075043857097626,
        0.14770320057868958,
        0.21840515732765198,
        0.02288629487156868,
        -0.40186721086502075,
        -0.5072413086891174,
        -0.4775574505329132,
        -0.2732543349266052,
        -0.1837281584739685,
        0.12571869790554047,
        -0.0741141214966774,
        0.31226980686187744,
        0.06581304967403412,
        0.6013200879096985,
        0.36961573362350464,
        0.21181060373783112,
        0.07691285014152527,
        0.2848828434944153,
        -0.008270340040326118,
        -0.19419893622398376,
        -0.3021646738052368,
        0.578346848487854,
        -0.2715444564819336,
        -0.5334477424621582
      ],
      [
        0.22874444723129272,
        0.48212096095085144,
        -0.4342421591281891,
        0.21826885640621185,
        -0.2296760231256485,
        -0.32570111751556396,
        0.3739721477031708,
        -0.36693331599235535,
        -0.2307681292295456,
        -0.33271998167037964,
        0.39624857902526855,
        -0.07359831035137177,
        0.007009013555943966,
        0.050948161631822586,
        -0.15103097259998322,
        0.06996918469667435,
        -0.055455531924963,
        -0.16736209392547607,
        -0.023123349994421005,
        -0.01908990740776062,
        0.18184663355350494,
        0.13094909489154816,
        0.6552745699882507,
        -0.3272370398044586,
        0.19864803552627563,
        -0.18821190297603607,
        0.05542360246181488,
        0.055129390209913254,
        -0.545796811580658,
        0.27610793709754944,
        -0.11381658166646957,
        0.2707236409187317,
        0.17494404315948486,
        -0.17224571108818054,
        -0.13039113581180573,
        0.020786035805940628,
        0.2053038775920868,
        -0.1415410190820694,
        0.665966808795929,
        -0.282077819108963,
        -0.00869226548820734,
        -0.26313257217407227,
        -0.03585900738835335,
        0.14092373847961426,
        -0.10681799054145813,
        -0.16590212285518646,
        -0.20817357301712036,
        0.2597988545894623
      ],
      [
        0.26883265376091003,
        -0.13739696145057678,
        0.03447728604078293,
        -0.13481135666370392,
        0.368990033864975,
        -0.23025888204574585,
        -0.14155645668506622,
        -0.2226487100124359,
        -0.1439119428396225,
        -0.2997356653213501,
        0.1485978215932846,
        0.06474151462316513,
        0.048449207097291946,
        -0.06752215325832367,
        -0.4488528072834015,
        -0.4822947680950165,
        0.16871991753578186,
        0.26106736063957214,
        0.25292354822158813,
        0.07396581023931503,
        -0.21277883648872375,
        -0.4580043852329254,
        -0.045752689242362976,
        -0.013941194862127304,
        -0.10057859867811203,
        -0.24321463704109192,
        0.11655044555664062,
        -0.093858502805233,
        0.20838584005832672,
        -0.11648176610469818,
        0.11176498234272003,
        0.03589598461985588,
        0.040209949016571045,
        0.33022817969322205,
        0.1676751673221588,
        -0.247553750872612,
        -0.24520914256572723,
        -0.13591185212135315,
        -0.2042764276266098,
        -0.16202284395694733,
        0.06539616733789444,
        0.28535139560699463,
        0.25093987584114075,
        0.3251071274280548,
        -0.2172948122024536,
        0.4649333357810974,
        -0.042929746210575104,
        0.22511063516139984
      ],
      [
        -0.6251217126846313,
        -0.08328144252300262,
        0.24540987610816956,
        -0.15021653473377228,
        0.5823906660079956,
        -0.027151810005307198,
        0.4635870158672333,
        -0.13647542893886566,
        -0.23851795494556427,
        -0.19816504418849945,
        -0.2626420259475708,
        0.10551712661981583,
        0.3397879898548126,
        0.4355117380619049,
        -0.05384305119514465,
        -0.12566746771335602,
        0.062405310571193695,
        0.24430523812770844,
        -0.1643984019756317,
        -0.5016607046127319,
        0.0819748267531395,
        -0.021335601806640625,
        0.4653509557247162,
        0.05463691055774689,
        0.12538261711597443,
        0.11415454000234604,
        0.18782903254032135,
        0.080539271235466,
        0.09142468869686127,
        -0.27143776416778564,
        0.40710121393203735,
        -0.265905499458313,
        -0.00039190688403323293,
        -0.21052412688732147,
        -0.1271943300962448,
        -0.07116273790597916,
        0.16552960872650146,
        -0.0341753214597702,
        -0.33412832021713257,
        -0.06701948493719101,
        0.4156225919723511,
        0.078421451151371,
        0.15439629554748535,
        -0.04080868139863014,
        0.13387450575828552,
        -0.16048051416873932,
        -0.042194630950689316,
        0.2518201172351837
      ],
      [
        -0.0964425653219223,
        -0.6181918978691101,
        0.28927409648895264,
        -0.18128561973571777,
        -0.2163764238357544,
        0.14377187192440033,
        -0.5566673278808594,
        0.3054252564907074,
        0.13241615891456604,
        -0.05608535185456276,
        -0.05564378947019577,
        0.0688641145825386,
        -0.06148954853415489,
        -0.21834269165992737,
        0.011065767146646976,
        -0.4225076735019684,
        -0.08809948712587357,
        0.15469461679458618,
        -0.17856831848621368,
        -0.22028544545173645,
        -0.28291308879852295,
        -0.2489473521709442,
        -0.05995919927954674,
        0.15060696005821228,
        0.1288784146308899,
        0.3326779901981354,
        -0.6251182556152344,
        0.055790551006793976,
        0.10079215466976166,
        0.0021624546498060226,
        -0.18133558332920074,
        -0.09040869027376175,
        -0.0943286195397377,
        0.5148974657058716,
        -0.19197295606136322,
        -0.29738491773605347,
        0.06573732942342758,
        -0.031835537403821945,
        0.16510801017284393,
        0.16934816539287567,
        -0.26337820291519165,
        0.12793849408626556,
        -0.1412612646818161,
        -0.30557745695114136,
        -0.03490278497338295,
        -0.22463323175907135,
        0.3868030607700348,
        -0.09968709200620651
      ],
      [
        0.34137260913848877,
        0.29360562562942505,
        0.14624916017055511,
        0.6602874994277954,
        -0.2436869591474533,
        -0.5929456949234009,
        0.2829826772212982,
        -0.29676148295402527,
        0.005966254509985447,
        0.0770479142665863,
        -0.11095955222845078,
        0.24200095236301422,
        -0.10830643028020859,
        -0.24637971818447113,
        0.4382043778896332,
        0.6046814918518066,
        -0.2962345778942108,
        -0.10830338299274445,
        -0.08324266225099564,
        0.23294301331043243,
        -0.16511842608451843,
        -0.1528802216053009,
        -0.10372720658779144,
        -0.307821124792099,
        0.3520779013633728,
        0.528193473815918,
        0.41930121183395386,
        -0.024495812132954597,
        -0.10687768459320068,
        0.06765712797641754,
        -0.06673883646726608,
        -0.45306646823883057,
        -0.3364633321762085,
        -0.29444313049316406,
        0.0030266926623880863,
        -0.14797499775886536,
        0.044581882655620575,
        -0.019645290449261665,
        0.17567303776741028,
        -0.709397554397583,
        -0.34295064210891724,
        -0.48274368047714233,
        0.20907680690288544,
        0.2237195521593094,
        -0.04793240502476692,
        0.10611264407634735,
        -0.1547081023454666,
        0.23487551510334015
      ],
      [
        -0.026735598221421242,
        0.24873462319374084,
        -0.40773120522499084,
        0.2595028579235077,
        -0.026929525658488274,
        0.1263544112443924,
        0.1803860068321228,
        0.0762052834033966,
        -0.3487853407859802,
        -0.38804352283477783,
        -0.13819187879562378,
        0.10415702313184738,
        0.0589941143989563,
        0.6078323721885681,
        0.5955101251602173,
        0.23271489143371582,
        0.3202139735221863,
        -0.2646537125110626,
        0.15588584542274475,
        -0.20871500670909882,
        0.3675403296947479,
        -0.1329052746295929,
        -0.2599380314350128,
        0.105377197265625,
        -0.2217424511909485,
        0.04299856722354889,
        -0.23805935680866241,
        -0.15902389585971832,
        0.05637727305293083,
        0.7836326360702515,
        0.13227251172065735,
        -0.17658878862857819,
        -0.29907557368278503,
        -0.6682941317558289,
        -0.059912703931331635,
        0.31335917115211487,
        -0.24321459233760834,
        -0.5313056111335754,
        -0.6791019439697266,
        0.07061509042978287,
        0.14845094084739685,
        -0.28901687264442444,
        -0.051687054336071014,
        -0.0843966007232666,
        0.21938513219356537,
        -0.3994762897491455,
        0.01805734634399414,
        0.005926516372710466
      ],
      [
        0.12231546640396118,
        0.1321309357881546,
        -0.08536189794540405,
        -0.2358902394771576,
        0.4005589783191681,
        -0.3013964295387268,
        0.45776551961898804,
        0.1808023303747177,
        0.15385271608829498,
        0.026567671447992325,
        0.09468147903680801,
        -0.10523080825805664,
        0.36368775367736816,
        0.08812756091356277,
        0.1324087530374527,
        0.0715436115860939,
        0.5621434450149536,
        0.19949498772621155,
        0.2257293313741684,
        0.1143450066447258,
        -0.5495188236236572,
        -0.017552407458424568,
        -0.25119054317474365,
        -0.42124143242836,
        -0.07814572751522064,
        -0.3046766519546509,
        -0.07595311105251312,
        0.01714501529932022,
        0.11844971030950546,
        0.42283159494400024,
        0.09390068799257278,
        0.09552392363548279,
        0.3156517744064331,
        -0.3194289207458496,
        0.5192162990570068,
        0.20245547592639923,
        0.03259853646159172,
        0.06947923451662064,
        0.14573374390602112,
        0.353257417678833,
        0.37448233366012573,
        -0.31466439366340637,
        -0.03591793030500412,
        0.21954567730426788,
        0.22472357749938965,
        -0.3770146369934082,
        0.07298614829778671,
        0.0028120451606810093
      ],
      [
        -0.3091084063053131,
        0.28142493963241577,
        0.2064664512872696,
        -0.07032305747270584,
        -0.23689407110214233,
        0.07589636743068695,
        0.17822164297103882,
        -0.0856720432639122,
        0.24890074133872986,
        -0.10560616105794907,
        -0.13022944331169128,
        -0.05903284624218941,
        0.21136829257011414,
        -0.3802020251750946,
        -0.033709313720464706,
        0.06842439621686935,
        0.19109569489955902,
        -0.41539034247398376,
        0.03351403772830963,
        0.16998088359832764,
        0.11825969070196152,
        0.18455907702445984,
        0.3791710138320923,
        -0.3717920184135437,
        -0.18510669469833374,
        -0.4901546537876129,
        0.18541808426380157,
        0.3146304488182068,
        0.06789494305849075,
        0.32174187898635864,
        0.05823264643549919,
        0.13049905002117157,
        0.1665247231721878,
        -0.18374930322170258,
        0.1367664933204651,
        0.12194128334522247,
        -0.06377804279327393,
        0.30134567618370056,
        0.34520578384399414,
        -0.0510747916996479,
        0.025451181456446648,
        0.21854546666145325,
        -1.0887378454208374,
        0.5371053814888,
        0.022460302338004112,
        0.3417900800704956,
        0.2963860332965851,
        0.06920970976352692
      ],
      [
        -0.33962127566337585,
        -0.1658453643321991,
        -0.3012675940990448,
        0.11553331464529037,
        -0.4442712664604187,
        -0.10616350919008255,
        -0.45870593190193176,
        1.2872092723846436,
        0.151238352060318,
        0.44343432784080505,
        -0.03598658740520477,
        -0.24929988384246826,
        -0.3332468569278717,
        -0.19971036911010742,
        -0.04077041894197464,
        0.37247058749198914,
        -0.13404792547225952,
        -0.44754037261009216,
        7.487335824407637e-05,
        0.022355560213327408,
        0.04156491160392761,
        0.2367231547832489,
        -0.5823282599449158,
        0.7723307013511658,
        0.7320084571838379,
        0.23241575062274933,
        -0.023505425080657005,
        -0.34175989031791687,
        0.3123202323913574,
        -0.5405607223510742,
        -0.2547454535961151,
        0.3577272593975067,
        0.3387370705604553,
        0.15163426101207733,
        -0.10532839596271515,
        -0.32726430892944336,
        -0.39693617820739746,
        -0.02578253485262394,
        -0.06583940982818604,
        -0.2872978150844574,
        -0.047239750623703,
        0.10714785009622574,
        0.2903622090816498,
        -0.3072192668914795,
        0.02367674745619297,
        -0.25181347131729126,
        0.02073783241212368,
        0.11595676094293594
      ],
      [
        -0.216961070895195,
        0.45637649297714233,
        -0.07835426926612854,
        0.2543495297431946,
        0.2679293155670166,
        0.18837827444076538,
        -0.21579138934612274,
        0.11713573336601257,
        0.09031519293785095,
        0.5879974365234375,
        0.37534818053245544,
        -0.2149370163679123,
        0.023038597777485847,
        0.03420877829194069,
        -0.31875094771385193,
        -0.2460324466228485,
        -0.5367527008056641,
        -0.21189501881599426,
        -0.3524801433086395,
        0.22667042911052704,
        0.1866244375705719,
        0.07360152155160904,
        -0.10989916324615479,
        0.06874412298202515,
        -0.24056190252304077,
        0.4775153398513794,
        0.1085393950343132,
        -0.2711144983768463,
        -0.06188439205288887,
        -0.04467146843671799,
        -0.1172717735171318,
        0.33403846621513367,
        -0.23024335503578186,
        -0.1479223519563675,
        -0.27952468395233154,
        -0.1813419759273529,
        0.3313577175140381,
        0.23153375089168549,
        -0.20037266612052917,
        0.10574981570243835,
        -0.29907575249671936,
        -0.09311229735612869,
        0.31505286693573,
        0.10027318447828293,
        -0.01835959404706955,
        0.32347431778907776,
        0.09767547249794006,
        -0.15090727806091309
      ],
      [
        0.18619827926158905,
        0.03712141141295433,
        0.3229001760482788,
        -0.6019271016120911,
        -0.3640905022621155,
        0.22923225164413452,
        -0.04170868173241615,
        -0.3192500174045563,
        -0.2126191258430481,
        0.004414694849401712,
        -0.30327093601226807,
        -0.029316777363419533,
        -0.1788613498210907,
        0.053398001939058304,
        0.3245355784893036,
        -0.09551043063402176,
        -0.027723291888833046,
        0.17319947481155396,
        0.15920501947402954,
        0.12940086424350739,
        0.06970591098070145,
        0.4071638584136963,
        0.2014985978603363,
        -0.02432769164443016,
        0.0933135375380516,
        -0.5500900745391846,
        -0.07406023144721985,
        0.10411163419485092,
        0.18609099090099335,
        -0.04034058377146721,
        0.41873273253440857,
        -0.06401485949754715,
        0.2625351548194885,
        0.421352356672287,
        -0.06112539395689964,
        0.1856948584318161,
        -0.3073081076145172,
        -0.1096436083316803,
        0.040409501641988754,
        0.2227138876914978,
        0.12660935521125793,
        0.008447262458503246,
        0.2185061126947403,
        -0.5424748063087463,
        0.17683713138103485,
        -0.0883556455373764,
        -0.10168682038784027,
        0.10552863776683807
      ]
    ],
    "ff.lin2.bias": [
      -0.0760582908987999,
      0.030522514134645462,
      -0.07808195799589157,
      0.08508268743753433,
      -0.20881572365760803,
      0.08421025425195694,
      0.16202077269554138,
      0.23593132197856903,
      -0.04646478593349457,
      0.06467373669147491,
      -0.10367341339588165,
      0.034842561930418015
    ]
  }
}